Weights: 
embeddings.embeddings.0.weight tensor([[ 0.5615,  0.6479],
        [ 0.7807,  0.3545],
        [ 0.1696,  0.0121],
        [-0.3058,  0.4664]])
embeddings.embeddings.1.weight tensor([[ 0.5626,  0.3308],
        [-0.4666, -0.2948],
        [-0.3015, -0.2662],
        [-0.9822, -0.5483],
        [ 0.6850,  0.6169]])
embeddings.embeddings.2.weight tensor([[ 0.4849,  0.1274,  0.3494],
        [-0.2618,  0.4153,  0.3036],
        [-0.0292,  0.2914, -0.3270],
        [-0.1089, -0.0531,  0.0446],
        [ 0.4112,  0.0304, -0.1283],
        [-0.2475, -0.0794, -0.0494]])
embeddings.embeddings.3.weight tensor([[-0.4439,  0.4707],
        [-0.1986, -0.3980],
        [ 0.2668,  0.1137],
        [ 0.5465,  1.0593]])
embeddings.embeddings.4.weight tensor([[ 0.1331,  0.3940],
        [ 0.3001, -1.0309],
        [-0.2268, -0.3417],
        [ 0.0577, -0.0090]])
mlp.net.0.linear.weight tensor([[-0.1354,  0.4185,  0.2819,  ..., -0.1348,  0.2334,  0.1932],
        [-0.0946, -0.1528, -0.1348,  ..., -0.1094, -0.4234, -0.1089],
        [ 0.2936,  0.2594, -0.4282,  ..., -0.3112,  0.1907,  0.7234],
        ...,
        [ 0.6157,  0.5033,  0.1183,  ..., -0.4349,  0.0973, -0.2330],
        [-0.0881,  0.0202, -0.5073,  ...,  0.5987, -0.5561,  0.3434],
        [-0.0850,  0.3696,  0.7015,  ...,  0.3634,  0.4967, -0.2674]])
mlp.net.0.linear.bias tensor([-0.1949, -0.0107, -0.2333, -0.2357, -0.2004,  0.1738, -0.0893, -0.2592,
        -0.1100, -0.1004, -0.0899, -0.1770, -0.0846,  0.1527, -0.3724,  0.1586,
        -0.1067, -0.3796, -0.0481,  0.1372,  0.3337,  0.0652, -0.0016,  0.1039,
         0.1741, -0.1153, -0.1889, -0.0812,  0.0086,  0.0813, -0.0467,  0.0220,
         0.4472,  0.2742,  0.1485, -0.4788, -0.0944, -0.3524, -0.4319,  0.1690,
         0.0705,  0.2896,  0.2161,  0.0311, -0.2359, -0.1876, -0.2399, -0.2426,
        -0.1139, -0.2555, -0.2593,  0.0769,  0.2818,  0.0604,  0.0489,  0.0836,
        -0.1489,  0.1966, -0.0554,  0.0695, -0.2014, -0.1117,  0.0599,  0.0370,
        -0.1193,  0.1916,  0.2865, -0.1806,  0.2321, -0.0948,  0.1063, -0.0358,
         0.2878,  0.1157, -0.0771,  0.0576, -0.1889, -0.2059, -0.1420,  0.1879,
        -0.2107,  0.2644,  0.5089,  0.3199, -0.2652, -0.0686,  0.1345, -0.1405,
         0.0949, -0.2445, -0.1127, -0.1029, -0.4887, -0.0261, -0.0923, -0.1043,
        -0.3151, -0.2280, -0.1730, -0.2913,  0.1529, -0.0050, -0.1144, -0.0515,
        -0.4443, -0.2428,  0.1428, -0.0189,  0.1134,  0.0377,  0.2988,  0.0331,
         0.1401,  0.1295, -0.3306,  0.3805,  0.2801, -0.2194,  0.0823,  0.4235,
         0.2357, -0.1700, -0.0589, -0.0609,  0.0555, -0.1248, -0.1443, -0.0764,
         0.1511, -0.0119,  0.1687, -0.0488,  0.1236,  0.2822,  0.0278, -0.3082,
        -0.1109, -0.0585,  0.4555,  0.2237,  0.2900, -0.1529,  0.1651,  0.0683,
         0.2526, -0.2781,  0.4099, -0.1696, -0.0959, -0.2565,  0.0598, -0.0078,
         0.3670,  0.0716,  0.0757,  0.0725, -0.2223, -0.0949,  0.4201,  0.2088,
        -0.1191, -0.1023,  0.0774, -0.2896,  0.1333,  0.2005, -0.1496,  0.1579,
        -0.1259, -0.3066,  0.1086,  0.2306, -0.2195,  0.1015,  0.2661, -0.4538,
        -0.3595,  0.0291,  0.1368,  0.2429, -0.4821,  0.2893,  0.0913, -0.0835,
        -0.0168,  0.2219,  0.1971,  0.0229,  0.3549, -0.0584,  0.2531, -0.1343,
        -0.0688, -0.1444, -0.2893,  0.0966,  0.0976, -0.1283, -0.1764,  0.1918,
         0.1370, -0.0740, -0.2199, -0.2722, -0.3379, -0.0142, -0.1155, -0.0574,
         0.1517, -0.4186,  0.1764, -0.0500, -0.0150, -0.1612, -0.1010,  0.4001,
         0.3977,  0.3468,  0.0017,  0.1446, -0.2116, -0.1590, -0.1948,  0.2632,
         0.1628, -0.1792,  0.0158, -0.0274,  0.2052, -0.0042, -0.0519, -0.0145,
        -0.1233, -0.0772,  0.0099,  0.2384, -0.1822,  0.0292,  0.0756, -0.1307,
         0.0264, -0.3206,  0.3659, -0.0779,  0.0551, -0.2281, -0.1240, -0.1870,
        -0.3672, -0.0740,  0.0765,  0.0282, -0.1677, -0.1619, -0.1761, -0.0711,
         0.0182,  0.0853, -0.2153,  0.1922, -0.0528, -0.1607, -0.2814, -0.1364,
        -0.0292, -0.1903,  0.0511, -0.3327, -0.2049, -0.0294, -0.2945, -0.0234,
         0.1576, -0.0582, -0.1519, -0.0821,  0.0217,  0.0168, -0.1132, -0.3569,
        -0.0502,  0.4841,  0.0037,  0.0761, -0.0603,  0.3861,  0.1349, -0.2435,
        -0.3189,  0.1730,  0.0022,  0.0655, -0.1053, -0.2998,  0.1851, -0.0107,
         0.2360, -0.0987, -0.0989,  0.2074, -0.0605,  0.0270,  0.0148, -0.1159,
         0.1464,  0.1868, -0.0301,  0.2445,  0.1738, -0.1142,  0.1233,  0.0208,
        -0.0510,  0.1636, -0.1224, -0.3442, -0.3046,  0.2275,  0.2404,  0.3593,
        -0.0736, -0.1844,  0.0242, -0.1837, -0.3259,  0.0696, -0.0952,  0.1575,
         0.0834, -0.2595, -0.0992,  0.4031, -0.1230, -0.2756, -0.1475, -0.0135,
         0.2615,  0.0841,  0.2825,  0.1082,  0.0581, -0.1086, -0.1669,  0.1049,
        -0.0458,  0.0310,  0.0106, -0.2049, -0.2925,  0.2831, -0.0328, -0.2310,
         0.3781, -0.0621, -0.0009,  0.1878, -0.1265, -0.2120, -0.3441, -0.2220,
        -0.1785, -0.1819,  0.1748, -0.1229, -0.1319, -0.1884, -0.2584,  0.7157,
        -0.0041,  0.1076, -0.2215, -0.3201,  0.0173,  0.0822,  0.0247, -0.0239,
         0.1504,  0.0883, -0.2055, -0.1715, -0.4563, -0.0682, -0.0508,  0.1062,
        -0.0595, -0.0746,  0.2377, -0.1077, -0.1070,  0.0211,  0.2370,  0.1802,
        -0.0608,  0.0348, -0.3020,  0.1270, -0.1405,  0.0446, -0.1991, -0.3583,
        -0.0169,  0.1575,  0.1794, -0.0965,  0.2231,  0.1387, -0.1507, -0.1430,
         0.1372, -0.1592,  0.0158,  0.1262,  0.0868, -0.3026,  0.0703,  0.4000,
        -0.0091, -0.3362,  0.2799, -0.5136,  0.1563, -0.2162,  0.1750,  0.3004,
         0.0316, -0.0206, -0.0016, -0.3584,  0.0395,  0.2905, -0.1179,  0.0106,
         0.1666,  0.2419, -0.0782,  0.0491, -0.2817, -0.1895,  0.0763,  0.3288,
         0.3743, -0.2213, -0.2724,  0.2270, -0.0286,  0.0197,  0.3711,  0.3474,
         0.1354, -0.0083,  0.0575, -0.3322, -0.0429,  0.1844, -0.3571, -0.0242,
        -0.1346, -0.1269, -0.0691,  0.2203, -0.0733,  0.3624,  0.1423,  0.2062,
        -0.0473, -0.3491,  0.2967, -0.2669, -0.1451, -0.0302,  0.1077, -0.1034,
         0.2657, -0.1954, -0.4517, -0.2438, -0.2691, -0.3259,  0.5041, -0.1975,
        -0.0407, -0.1595,  0.1263, -0.1338,  0.0038,  0.1766,  0.1408, -0.3217,
         0.1517,  0.0380, -0.1783, -0.0014, -0.1861,  0.1274,  0.1795,  0.1360,
        -0.1614,  0.4698, -0.0593,  0.1158, -0.2187, -0.0784,  0.4306, -0.2809,
         0.0361,  0.1553,  0.1117,  0.0656,  0.3409, -0.0915, -0.1946,  0.2250])
mlp.net.0.batch_norm.weight tensor([0.8908, 0.7260, 1.9183, 1.0045, 0.8949, 0.8687, 0.8759, 1.0012, 1.3259,
        0.9823, 0.8281, 1.1478, 1.0665, 1.2613, 1.1062, 0.9864, 0.8873, 0.8507,
        0.9513, 0.6200, 1.1217, 0.9798, 0.8243, 0.7227, 0.6271, 1.2093, 0.8724,
        1.0350, 0.7344, 1.0980, 0.7042, 0.9022, 0.7722, 0.8587, 0.9164, 0.8250,
        1.0778, 0.5544, 1.6406, 0.8417, 0.7290, 0.9644, 1.1559, 0.9364, 0.9703,
        0.8687, 0.9315, 1.5495, 0.5357, 0.9084, 1.2826, 1.3199, 0.9787, 0.8587,
        1.1209, 1.0490, 1.2407, 0.8406, 1.2143, 0.9178, 1.3199, 1.0556, 1.1088,
        0.9421, 1.0478, 0.8245, 0.9226, 0.9281, 0.7250, 1.5786, 0.8639, 0.8780,
        0.9197, 1.1311, 0.9548, 1.2370, 0.8572, 0.8383, 0.7624, 0.7907, 0.9610,
        1.2441, 0.9559, 1.1200, 1.1854, 0.8107, 1.0675, 1.4396, 1.0079, 1.1392,
        0.9498, 0.7751, 1.6763, 1.0373, 0.7826, 0.8734, 0.8828, 1.0305, 0.9500,
        1.0866, 1.2529, 0.9584, 1.1061, 1.3315, 1.0633, 1.0077, 0.8117, 0.7670,
        0.8965, 1.1614, 0.8802, 0.6593, 0.8559, 1.0842, 0.8512, 0.9947, 1.0938,
        0.7669, 0.8022, 0.8864, 1.0453, 1.1088, 1.2869, 0.7606, 1.1930, 0.8448,
        1.7159, 0.6805, 0.9426, 1.2899, 1.0768, 1.1193, 1.3377, 0.5561, 0.5898,
        1.1308, 1.1146, 0.9200, 0.9087, 1.2326, 0.8199, 1.0775, 0.7557, 0.8120,
        1.0381, 1.7699, 0.9649, 1.2448, 1.0539, 0.8114, 1.1003, 1.2536, 1.1529,
        0.9580, 1.0032, 0.9060, 0.7707, 1.2207, 0.9067, 1.0381, 0.9809, 1.1367,
        0.8510, 1.0507, 0.9030, 1.0632, 0.9274, 1.0593, 0.8056, 1.0764, 1.1344,
        0.9994, 0.9550, 0.8907, 1.0102, 1.2076, 0.9327, 1.0538, 0.8349, 0.8351,
        0.9398, 1.0356, 1.0650, 0.9591, 1.1063, 1.0803, 0.9389, 1.2567, 0.8041,
        1.0299, 0.8624, 1.1020, 0.8468, 1.0207, 0.9440, 0.8898, 1.0748, 1.0348,
        1.1672, 1.2498, 1.0830, 1.2757, 1.2059, 0.8853, 0.8290, 1.2382, 0.8064,
        1.1099, 0.9465, 1.2597, 1.1083, 1.0491, 0.9012, 1.2425, 1.1010, 1.1240,
        0.9717, 1.1970, 1.1489, 0.9496, 1.0645, 1.4207, 1.7209, 1.3520, 1.1223,
        1.1765, 0.9551, 0.9580, 1.1354, 1.2055, 1.2105, 1.1367, 1.0953, 0.8508,
        1.2795, 1.1180, 0.8531, 1.3593, 1.2585, 1.1961, 0.6819, 0.8096, 0.8857,
        1.1812, 0.8911, 1.4053, 1.0779, 0.7463, 1.1099, 1.1092, 0.9698, 0.9049,
        0.9875, 0.7426, 1.2303, 0.9568, 1.0197, 0.9960, 1.1841, 1.0882, 0.6596,
        1.6830, 0.9397, 1.0016, 1.1369, 0.7461, 0.9355, 1.0599, 1.1884, 0.9189,
        0.8888, 0.9219, 0.7188, 1.0658, 1.0726, 0.4729, 0.8388, 0.5549, 1.1402,
        1.1578, 0.5303, 1.0621, 0.9244, 0.7737, 0.7749, 0.9369, 0.7953, 1.2669,
        0.7956, 0.8116, 0.8252, 0.8611, 1.0927, 0.9212, 0.8066, 0.9596, 1.1548,
        0.8611, 1.1322, 0.6014, 0.9761, 1.0345, 0.9555, 0.7272, 1.0807, 1.2048,
        0.9220, 1.0617, 1.0325, 0.8014, 1.1019, 0.7023, 1.0778, 0.7653, 1.1864,
        1.1336, 0.9960, 0.8607, 0.8972, 0.8268, 0.9432, 0.9151, 1.0146, 1.0347,
        1.0497, 0.8823, 2.1117, 0.9953, 1.0671, 0.9132, 1.4575, 0.8977, 0.8864,
        1.5691, 1.2114, 1.1440, 0.7434, 0.5433, 0.8773, 0.8006, 1.0446, 1.0261,
        0.9264, 1.0322, 1.0192, 1.0551, 0.9916, 0.9160, 1.2664, 0.8991, 0.9943,
        1.2445, 1.0473, 0.8312, 1.0548, 1.2810, 0.7606, 0.8280, 1.1330, 1.4538,
        1.0104, 1.2576, 0.9733, 0.7619, 1.2691, 1.1180, 1.0193, 1.0482, 0.8261,
        1.1596, 1.1568, 1.2495, 0.9905, 0.9784, 0.8539, 1.2661, 0.9756, 1.1892,
        0.8996, 1.0033, 1.2639, 0.9499, 1.1962, 1.1469, 1.0139, 1.0830, 1.0419,
        0.9536, 0.9640, 0.8689, 1.0518, 1.1413, 1.0893, 0.6098, 0.9324, 0.6851,
        0.9179, 0.8550, 1.0978, 0.8690, 0.9721, 0.7350, 1.1274, 0.8953, 0.8865,
        1.1242, 0.8921, 0.8057, 0.9232, 1.0212, 0.6573, 0.9781, 0.7211, 0.8849,
        0.8976, 0.8668, 0.9932, 0.9387, 0.9037, 1.3126, 1.1072, 0.9124, 1.0443,
        1.0264, 0.9458, 0.7279, 1.2013, 1.2190, 1.0700, 0.9144, 0.9978, 0.9479,
        0.9248, 1.1659, 0.8028, 1.1070, 1.1547, 1.2659, 1.1380, 1.2635, 0.8290,
        0.9604, 0.6022, 0.8930, 0.9369, 0.9762, 0.7456, 1.0684, 1.0692, 1.0509,
        0.8937, 0.8549, 1.2871, 1.0451, 0.9590, 1.0330, 0.7104, 1.2074, 0.8417,
        1.1606, 1.1840, 0.8584, 1.1812, 0.6702, 1.2048, 1.0227, 1.0020, 1.0485,
        0.9294, 0.8530, 1.0926, 1.2344, 0.6327, 0.7838, 0.9128, 0.8714, 0.9043,
        1.0221, 0.9285, 0.7847, 0.8329, 0.9562, 0.9427, 1.1198, 0.7552, 0.7997,
        1.0639, 1.2055, 0.7193, 0.8264, 1.6635, 1.2015, 1.1508, 0.6704, 1.3521,
        0.9262, 0.8472, 1.1262, 1.1055, 0.9324, 1.2495, 1.0668, 1.1762, 0.8877,
        1.1180, 0.8859, 0.7761, 0.8969, 0.8771, 1.1783, 0.7960, 1.0281])
mlp.net.0.batch_norm.bias tensor([-0.0593, -0.2373, -0.0960, -0.0281,  0.0692,  0.2083,  0.2073, -0.2097,
         0.2456,  0.0366, -0.1115,  0.0358,  0.1352,  0.0191, -0.3509,  0.1998,
         0.1854,  0.0667, -0.0791,  0.2112,  0.0402, -0.5573, -0.1643, -0.1470,
        -0.2169, -0.2999, -0.0114, -0.3762, -0.0885,  0.0697,  0.1727,  0.0060,
         0.3887, -0.1538,  0.3819,  0.0063, -0.3933, -0.1460,  0.0082, -0.0206,
        -0.0029,  0.1440,  0.0944, -0.2106, -0.2921,  0.3658,  0.0941, -0.5166,
        -0.0089, -0.2260, -0.4158, -0.0569,  0.2682,  0.1397, -0.2958, -0.1606,
        -0.4209, -0.0089,  0.2550,  0.2006,  0.1214,  0.1717,  0.2017,  0.2019,
         0.2218, -0.2786, -0.0273, -0.0824,  0.1318, -0.0499,  0.1377, -0.1706,
        -0.1332,  0.1211,  0.1001, -0.2098,  0.0378, -0.4159, -0.0755,  0.1165,
        -0.0153,  0.0721, -0.1037,  0.2098,  0.0152,  0.1621,  0.4375, -0.3800,
         0.2670,  0.0326,  0.0316,  0.2305, -0.0459, -0.2398, -0.2021, -0.0218,
         0.0393,  0.0470, -0.1091,  0.1035,  0.1636,  0.1852, -0.0945,  0.0194,
        -0.5240, -0.1341,  0.1960,  0.0979, -0.1646, -0.1227,  0.1846, -0.4400,
        -0.1867,  0.0047, -0.2585,  0.0612,  0.0788, -0.3138,  0.0559, -0.4298,
        -0.0817,  0.0733, -0.4936,  0.1354, -0.0540, -0.3177, -0.0905,  0.3342,
         0.0230,  0.6387,  0.1716,  0.0980, -0.3041, -0.0485,  0.0503, -0.2034,
         0.2330, -0.2627,  0.0381, -0.1197, -0.2506,  0.3728,  0.4294, -0.2113,
        -0.0850, -0.0085, -0.0838,  0.2173, -0.0766,  0.3218, -0.0822, -0.1237,
         0.2925,  0.1300, -0.3760,  0.2409, -0.0723, -0.2794,  0.1506, -0.1375,
        -0.0272,  0.1240,  0.1710,  0.1527, -0.1751,  0.1989, -0.2747, -0.1122,
        -0.0827,  0.1017, -0.0297, -0.1851, -0.2279,  0.0719,  0.0390, -0.1260,
         0.3646, -0.0021,  0.0495, -0.0201, -0.0786, -0.1537,  0.1582,  0.0397,
         0.0922, -0.1582, -0.0734, -0.0354,  0.0608,  0.0295, -0.1935,  0.1165,
         0.3004,  0.1802, -0.2633, -0.4587, -0.3039, -0.0709, -0.0821, -0.0950,
         0.1185, -0.2857, -0.1472, -0.1631, -0.0909,  0.4040,  0.3961,  0.0327,
        -0.1287, -0.1153,  0.0683,  0.1451,  0.0053,  0.0844, -0.2489, -0.0239,
        -0.1152, -0.0854, -0.3870, -0.0485,  0.1410, -0.3933, -0.2249,  0.0632,
        -0.3627,  0.1385,  0.1180, -0.3275, -0.1906,  0.3654,  0.1956,  0.0550,
        -0.0633,  0.1723, -0.1396, -0.1722,  0.2405,  0.6172, -0.0733,  0.0654,
        -0.0524, -0.2966, -0.2530,  0.0297,  0.0067,  0.1165,  0.3382, -0.3076,
        -0.4463, -0.3077, -0.3678, -0.0625, -0.2034,  0.0487, -0.1597, -0.3338,
         0.0831,  0.5183, -0.0908,  0.1463, -0.4287,  0.0762, -0.4098,  0.1301,
        -0.0590,  0.3125, -0.2559,  0.1366, -0.2052, -0.0320, -0.2121,  0.0672,
        -0.2259,  0.2373, -0.1378,  0.1395, -0.3026, -0.0132, -0.3623, -0.0635,
        -0.0292,  0.1031,  0.0223, -0.2275,  0.0366,  0.2772, -0.0984, -0.4215,
         0.3205,  0.1288,  0.0579,  0.2185, -0.0977, -0.2976,  0.0528, -0.0408,
         0.0663,  0.3793,  0.0751, -0.3142, -0.1159, -0.4765, -0.1214, -0.0420,
         0.2526,  0.3020, -0.1648,  0.1976,  0.1373,  0.0770,  0.1817,  0.3922,
         0.0766, -0.0292, -0.3585, -0.2730, -0.1308,  0.0143, -0.2804, -0.0784,
         0.1789, -0.3480, -0.0565,  0.1379,  0.1519, -0.2094, -0.1576,  0.1111,
         0.1789, -0.0164,  0.0088, -0.4048, -0.3539, -0.1792, -0.3584,  0.1462,
         0.0564,  0.2291,  0.1936, -0.1372, -0.2423, -0.0890,  0.1264, -0.1814,
        -0.0225, -0.0873, -0.2834, -0.1076,  0.0362,  0.0382, -0.0316,  0.1223,
        -0.1739,  0.3456, -0.2210, -0.0388, -0.0380,  0.1961, -0.0226, -0.2476,
         0.0149, -0.1012, -0.1645, -0.0372, -0.1244, -0.1862, -0.2593,  0.1573,
        -0.3275,  0.2467, -0.1401, -0.2686,  0.1069,  0.2316,  0.0826, -0.3792,
         0.1354,  0.0751, -0.1237,  0.3044,  0.0954,  0.2215, -0.2795,  0.0598,
        -0.0184, -0.1148,  0.2028, -0.2489, -0.0942, -0.4536, -0.1622, -0.0738,
         0.1704,  0.2560, -0.0009,  0.1408,  0.0519,  0.0945,  0.0239,  0.4551,
        -0.1188, -0.0411, -0.1580, -0.3022,  0.0782, -0.1954, -0.4096,  0.1232,
        -0.0257, -0.1842, -0.0041, -0.1201,  0.0665,  0.0733, -0.2712,  0.0357,
        -0.1151,  0.5163, -0.0427,  0.0286,  0.0301,  0.0078,  0.0337,  0.0415,
        -0.1806, -0.0982, -0.2961, -0.4336, -0.5490, -0.1226, -0.2315, -0.2197,
        -0.0620, -0.0918, -0.4063, -0.0026,  0.1052, -0.0853, -0.1078, -0.1704,
         0.1507, -0.1811, -0.0616, -0.0483,  0.1474, -0.3096, -0.0184, -0.2058,
        -0.0081, -0.0909, -0.0356, -0.3306,  0.1266, -0.0647, -0.0793,  0.0821,
         0.0377, -0.0773,  0.5568, -0.0969, -0.0253, -0.3195, -0.0440,  0.0959,
        -0.0346, -0.1135, -0.0823, -0.2251, -0.2330,  0.0726, -0.2075,  0.0177,
        -0.0296, -0.0744, -0.0973,  0.0974,  0.0185, -0.2086,  0.2383, -0.2137,
        -0.3522,  0.0279, -0.3464,  0.2289,  0.0240,  0.3373, -0.2593,  0.0515,
        -0.2398, -0.0181, -0.1551, -0.2795, -0.2741,  0.0488,  0.4846,  0.0630,
         0.2223, -0.2582, -0.3215, -0.3533,  0.0246,  0.0721, -0.4427,  0.2217,
         0.1699,  0.0286, -0.0752, -0.1628,  0.4699, -0.0256,  0.3060, -0.1505])
mlp.net.0.batch_norm.running_mean tensor([3.7080e-02, 7.4890e-01, 2.0461e-03, 5.6037e-07, 8.9174e-02, 6.2892e-01,
        1.0481e+00, 2.6692e-08, 2.3747e-01, 5.4252e-01, 6.4383e-01, 1.8475e-02,
        1.3934e-33, 1.1883e+00, 6.1277e-03, 1.0948e+00, 8.5947e-05, 3.1683e-16,
        6.8928e-01, 2.0896e-01, 1.8336e+00, 3.3216e-01, 5.0710e-01, 3.0520e-01,
        2.8895e-01, 9.7055e-33, 4.9391e-03, 6.6699e-01, 2.0781e-02, 3.6045e-05,
        6.7587e-01, 1.5533e-01, 1.0529e+00, 1.8548e-01, 8.7845e-01, 6.6478e-06,
        6.8427e-33, 3.3271e-02, 2.8332e-02, 6.1703e-01, 1.0731e+00, 1.9253e+00,
        5.1816e-01, 4.5120e-01, 3.5744e-01, 1.5664e+00, 4.3237e-02, 1.1764e-02,
        2.6470e-01, 1.6548e-01, 8.1838e-03, 2.8350e-01, 1.2254e+00, 2.1475e-01,
        3.1918e-01, 1.3641e+00, 1.5554e-02, 1.5035e-01, 5.2547e-01, 3.5483e-01,
        3.1833e-02, 8.1965e-02, 3.0708e-01, 2.1161e-02, 2.8750e-01, 1.3413e+00,
        3.7833e-01, 3.4568e-02, 2.0601e+00, 1.9216e-02, 5.9810e-02, 2.2019e-01,
        7.2667e-01, 3.2890e-01, 3.5469e-21, 3.5381e-01, 1.1431e+00, 1.7661e-01,
        3.7580e-01, 2.6450e-01, 1.3033e-01, 9.5533e-01, 1.5621e+00, 3.3273e-01,
        2.4911e-03, 1.0155e-01, 4.2407e-02, 1.3100e-04, 9.1358e-02, 1.8031e-04,
        6.2411e-02, 6.9979e-01, 7.5208e-17, 2.3634e-01, 7.2687e-01, 2.2487e-01,
        1.8887e-05, 5.5011e-01, 3.5653e-03, 1.0042e+00, 6.6185e-01, 4.3022e-02,
        1.9885e-01, 4.1433e-01, 5.8353e-01, 5.7711e-09, 2.0241e-01, 1.2767e-02,
        7.6093e-01, 1.1472e+00, 6.5209e-02, 2.0481e+00, 3.6383e-01, 6.7123e-01,
        2.5314e-02, 3.1248e-01, 3.4727e-02, 1.8990e-02, 1.2303e+00, 1.5169e+00,
        4.0553e-01, 3.8629e-02, 4.2531e-02, 9.1820e-01, 1.6814e+00, 1.3008e-01,
        5.2355e-01, 3.1275e-02, 5.3692e-02, 6.7294e-01, 1.3827e+00, 1.6917e-01,
        2.4100e-01, 1.8454e+00, 4.1568e-01, 6.2986e-03, 1.1695e+00, 2.4998e-01,
        1.6794e+00, 7.4030e-01, 6.2603e-01, 1.9756e-01, 1.0957e+00, 1.2749e-01,
        5.1134e-01, 2.4229e-02, 8.8243e-01, 5.1023e-01, 8.4102e-01, 3.5692e-02,
        1.1436e-01, 7.2181e-01, 1.0612e+00, 3.6960e-01, 5.5595e-01, 4.7653e-01,
        3.1142e-02, 2.6342e-01, 7.2461e-01, 1.5999e+00, 2.0015e-01, 3.6705e-01,
        3.4245e-01, 1.2795e-14, 2.9333e-01, 5.8657e-02, 5.0925e-01, 6.6209e-01,
        6.4928e-01, 3.1226e-05, 7.5226e-01, 3.5467e-01, 2.0058e-01, 1.5198e-01,
        1.2894e+00, 6.1606e-05, 1.6199e-03, 9.2466e-03, 1.8272e+00, 7.0966e-01,
        4.2406e-19, 3.3050e-01, 6.9194e-01, 1.1409e-21, 6.3918e-01, 2.4726e-02,
        3.9589e-01, 3.8752e-02, 1.4156e+00, 1.2118e+00, 1.5241e+00, 1.4129e-01,
        7.2541e-01, 3.2941e-02, 3.5943e-02, 6.0519e-01, 9.4065e-01, 1.0515e-01,
        1.0647e+00, 8.9664e-01, 1.5144e+00, 4.8210e-01, 3.3946e-01, 4.5095e-01,
        7.6817e-06, 1.7790e-01, 2.6764e-01, 8.2930e-04, 1.6787e+00, 3.0744e-09,
        6.6866e-01, 1.5718e-01, 2.7553e-01, 1.3740e+00, 6.4676e-02, 1.4492e+00,
        1.3655e+00, 1.2865e+00, 1.1968e-01, 8.0022e-02, 2.1022e-01, 1.0973e-02,
        9.2171e-03, 2.1915e-01, 3.3347e-02, 4.8849e-01, 5.2739e-01, 9.4390e-01,
        1.0611e+00, 1.2846e-01, 3.6107e-01, 1.4284e-01, 5.7267e-01, 1.0261e-02,
        7.1920e-01, 5.9458e-01, 6.5585e-01, 1.0974e-05, 3.1120e-01, 2.1504e-10,
        7.8164e-01, 7.4494e-03, 1.0693e+00, 2.9463e-02, 2.1853e+00, 1.2547e-02,
        5.9961e-01, 5.6082e-02, 6.8041e-01, 5.2826e-02, 5.7644e-01, 1.4476e-01,
        9.6878e-01, 1.1464e-01, 9.0277e-01, 4.8265e-01, 1.1191e-01, 7.3019e-01,
        4.7981e-02, 1.7231e-01, 7.3560e-01, 5.5844e-02, 2.5782e-03, 1.6010e-19,
        7.3104e-01, 1.9079e-01, 3.3553e-01, 6.6781e-06, 5.1534e-01, 9.9758e-01,
        9.5110e-01, 8.8577e-01, 4.5027e-01, 6.6808e-02, 4.1968e-02, 1.0559e+00,
        2.4685e-01, 1.0742e+00, 5.6964e-01, 8.2268e-04, 5.7785e-01, 1.5821e+00,
        1.2542e-06, 4.2163e-01, 1.2138e-01, 7.0211e-01, 6.9587e-01, 8.7564e-02,
        5.7774e-01, 8.5371e-01, 3.6149e-02, 4.6199e-01, 1.2671e-02, 4.2694e-02,
        2.5711e-01, 9.1390e-01, 2.6446e-01, 1.2416e-02, 1.0409e-16, 6.0731e-01,
        8.3010e-01, 2.3193e-04, 1.8787e-01, 2.7074e-03, 1.0084e+00, 3.6726e-01,
        8.0172e-01, 1.0043e+00, 9.8554e-01, 6.1566e-03, 1.9672e-02, 6.4121e-01,
        3.7447e-01, 9.9287e-01, 1.3596e-02, 5.4300e-05, 5.8559e-10, 1.2308e-01,
        1.2317e+00, 1.5409e+00, 3.5782e-02, 2.6761e-01, 2.0110e-02, 2.0185e-01,
        4.1073e-04, 3.8964e-01, 6.1457e-02, 3.5972e-01, 6.7383e-02, 1.9755e-10,
        3.1495e-01, 1.2988e+00, 1.1433e-01, 2.3851e-17, 5.7146e-02, 2.6138e-01,
        6.4802e-01, 9.8370e-01, 6.3629e-02, 9.6675e-01, 7.7839e-02, 8.5573e-01,
        2.8944e-04, 3.3466e-02, 1.1208e+00, 1.6800e-01, 1.7012e-01, 9.5230e-22,
        7.4106e-01, 1.1709e+00, 9.6709e-02, 3.3641e-02, 8.1837e-01, 5.0811e-02,
        3.8138e-29, 5.0956e-01, 6.0672e-01, 1.3728e-01, 1.6074e-02, 3.3612e-18,
        4.8719e-02, 5.9252e-02, 5.3537e-01, 8.4846e-02, 1.1216e-02, 3.9396e-01,
        1.0517e-03, 1.1514e+00, 4.8707e-01, 3.5983e-01, 5.5771e-03, 7.6355e-07,
        2.3283e-01, 1.0080e+00, 3.8250e-01, 7.5537e-02, 2.0451e-01, 1.0153e+00,
        4.7842e-07, 1.2912e-02, 9.0873e-03, 2.0806e-01, 2.4159e-01, 5.1384e-01,
        9.3725e-01, 1.1986e-01, 3.1134e-01, 6.1302e-02, 9.6120e-02, 1.2068e+00,
        6.0847e-01, 8.0948e-01, 4.8896e-01, 1.0788e+00, 2.4142e-01, 1.3811e-01,
        5.0976e-05, 1.5267e-01, 1.7691e-02, 1.1028e-07, 1.3708e+00, 4.5766e-01,
        3.1783e-01, 1.4141e-01, 1.6890e+00, 6.3265e-01, 2.1874e-40, 9.3251e-02,
        3.7321e-01, 6.2728e-01, 1.2007e-01, 1.3368e+00, 8.9276e-02, 1.6004e-03,
        2.1772e-01, 7.9464e-01, 6.0884e-01, 4.6116e-33, 5.9812e-01, 9.6239e-24,
        2.0860e-01, 3.1697e-01, 1.1208e+00, 3.1006e-01, 5.8676e-02, 9.5702e-02,
        3.7488e-01, 1.3376e-05, 5.0819e-01, 9.5556e-01, 5.9647e-01, 2.4141e-01,
        8.5420e-01, 5.6245e-01, 1.5990e-01, 8.9863e-01, 1.1435e-32, 4.9292e-03,
        3.5292e-01, 1.0559e+00, 9.4231e-01, 2.4756e-06, 1.3608e-02, 4.6477e-01,
        5.9925e-01, 3.4583e-01, 6.9942e-01, 4.5974e-01, 8.7570e-02, 1.5242e-01,
        8.0644e-01, 3.7322e-01, 6.8538e-02, 2.9769e-01, 3.5500e-06, 5.8868e-01,
        1.3300e-02, 4.6188e-01, 5.8092e-01, 1.7325e+00, 1.8135e-02, 2.3726e-01,
        7.2348e-01, 1.1093e+00, 4.0077e-02, 3.5330e-03, 5.3512e-01, 2.6403e-12,
        3.0586e-01, 8.9125e-01, 1.4027e+00, 1.4866e+00, 6.2666e-01, 5.7815e-02,
        2.1731e-03, 2.0368e-01, 8.6267e-01, 9.1453e-01, 1.2524e+00, 2.6968e-01,
        8.3587e-01, 1.0171e-02, 9.9551e-01, 7.6811e-02, 6.9627e-02, 3.6627e-01,
        8.9679e-01, 3.1350e-01, 5.7347e-01, 1.2326e-01, 1.5204e-02, 4.2026e-01,
        6.2068e-02, 6.3474e-01, 3.7098e-02, 9.2631e-01, 3.5873e-01, 2.9177e-01,
        7.1216e-01, 1.0256e+00, 6.9520e-01, 8.0376e-01, 9.3241e-01, 1.8483e-02,
        1.1715e+00, 1.1821e-01, 6.7377e-01, 5.3070e-01, 4.5152e-01, 4.6602e-01,
        1.5301e-01, 1.7418e+00])
mlp.net.0.batch_norm.running_var tensor([1.3703e-02, 1.4635e-01, 3.1632e-04, 2.1922e-08, 4.0592e-02, 2.5982e-01,
        3.1281e-01, 5.8806e-10, 1.5252e-01, 3.5086e-01, 2.6417e-01, 5.8972e-03,
        1.8463e-34, 2.2840e-01, 2.4203e-03, 2.7805e-01, 8.7697e-06, 5.8970e-18,
        2.7667e-01, 1.0527e-01, 7.4059e-01, 1.4128e-01, 2.7160e-01, 1.5939e-01,
        1.3078e-01, 2.6755e-33, 1.5788e-03, 2.7166e-01, 7.1694e-03, 2.5647e-06,
        1.6520e-01, 6.1559e-02, 2.8425e-01, 7.2240e-02, 2.4339e-01, 4.9277e-07,
        2.9786e-34, 1.0966e-02, 1.4935e-02, 3.1166e-01, 3.1001e-01, 5.4975e-01,
        2.9366e-01, 2.5318e-01, 2.0610e-01, 3.0821e-01, 2.5487e-02, 4.2124e-03,
        1.2493e-01, 8.4977e-02, 3.0998e-03, 1.1562e-01, 2.3384e-01, 9.4050e-02,
        2.1378e-01, 2.2756e-01, 8.4494e-03, 8.4276e-02, 2.7750e-01, 1.0763e-01,
        1.4239e-02, 3.9052e-02, 1.1241e-01, 7.4514e-03, 9.3709e-02, 3.1513e-01,
        1.1048e-01, 1.6077e-02, 4.4359e-01, 8.1145e-03, 2.6936e-02, 1.0579e-01,
        1.7028e-01, 1.9775e-01, 2.1070e-22, 1.4501e-01, 3.6056e-01, 8.0649e-02,
        2.4371e-01, 1.5633e-01, 5.2179e-02, 3.8583e-01, 3.2580e-01, 1.0006e-01,
        8.2133e-04, 4.1840e-02, 1.6086e-02, 4.3949e-06, 6.8244e-02, 3.3777e-05,
        2.9970e-02, 1.9272e-01, 1.8215e-17, 1.0393e-01, 4.8910e-01, 1.0930e-01,
        1.6242e-06, 2.7595e-01, 7.3164e-04, 2.5570e-01, 2.6277e-01, 1.5126e-02,
        9.7655e-02, 1.6458e-01, 1.9366e-01, 1.1229e-09, 8.0986e-02, 5.8184e-03,
        2.2669e-01, 2.5334e-01, 3.2205e-02, 3.5179e-01, 1.7340e-01, 3.1239e-01,
        7.5546e-03, 1.3124e-01, 1.7636e-02, 1.0457e-02, 7.4108e-01, 1.8556e-01,
        1.7431e-01, 1.4659e-02, 1.3192e-02, 3.1889e-01, 1.8361e-01, 5.9298e-02,
        2.7780e-01, 1.4396e-02, 2.5356e-02, 1.6047e-01, 1.9679e-01, 5.8217e-02,
        9.8401e-02, 3.5223e-01, 1.5796e-01, 2.4563e-03, 2.8384e-01, 1.5551e-01,
        4.0936e-01, 1.5145e-01, 2.4537e-01, 1.0511e-01, 2.7356e-01, 5.8116e-02,
        3.3915e-01, 1.3920e-02, 2.7619e-01, 2.1955e-01, 3.7266e-01, 1.7681e-02,
        4.4136e-02, 1.2282e-01, 2.6136e-01, 1.1408e-01, 2.3680e-01, 2.2042e-01,
        1.4823e-02, 1.3844e-01, 3.3554e-01, 2.8450e-01, 1.3030e-01, 1.9326e-01,
        1.8002e-01, 4.6385e-16, 1.1894e-01, 2.0641e-02, 2.9218e-01, 2.3103e-01,
        1.9019e-01, 3.5188e-06, 2.9735e-01, 2.0461e-01, 9.3892e-02, 6.5438e-02,
        2.1099e-01, 3.3319e-06, 3.7071e-04, 2.1585e-03, 3.6094e-01, 2.3089e-01,
        1.2262e-19, 1.3420e-01, 2.4869e-01, 8.6257e-24, 1.9302e-01, 9.1417e-03,
        2.0482e-01, 2.0697e-02, 1.8140e-01, 6.4250e-01, 3.6807e-01, 7.7687e-02,
        5.0967e-01, 2.1002e-02, 1.4745e-02, 1.6312e-01, 3.4706e-01, 4.0637e-02,
        3.8729e-01, 2.0152e-01, 3.4597e-01, 1.8124e-01, 1.6447e-01, 1.9661e-01,
        1.2197e-06, 1.0972e-01, 1.0730e-01, 1.7347e-04, 4.2113e-01, 1.0730e-11,
        3.2630e-01, 7.5841e-02, 1.2895e-01, 3.7886e-01, 3.9117e-02, 3.4968e-01,
        3.7174e-01, 2.1149e-01, 5.6423e-02, 4.7066e-02, 8.1049e-02, 3.9101e-03,
        3.3542e-03, 9.3744e-02, 1.4502e-02, 1.8963e-01, 1.4958e-01, 2.1369e-01,
        3.0595e-01, 5.9575e-02, 1.8799e-01, 6.9975e-02, 1.5892e-01, 3.2067e-03,
        2.1453e-01, 2.9049e-01, 3.0218e-01, 2.1503e-06, 1.7552e-01, 2.1529e-11,
        1.7632e-01, 2.6765e-03, 4.2430e-01, 1.2693e-02, 3.8691e-01, 5.3525e-03,
        3.0359e-01, 2.3815e-02, 1.8918e-01, 1.8276e-02, 2.3002e-01, 1.2724e-01,
        2.7125e-01, 5.3084e-02, 3.2453e-01, 2.0764e-01, 6.3337e-02, 1.8350e-01,
        1.6591e-02, 7.4450e-02, 1.4384e-01, 3.2445e-02, 5.6023e-04, 4.6926e-20,
        2.2390e-01, 8.1205e-02, 1.3516e-01, 1.5965e-06, 2.1768e-01, 2.1175e-01,
        2.1659e-01, 3.2239e-01, 2.8518e-01, 3.3004e-02, 1.3761e-02, 1.8991e-01,
        7.9021e-02, 3.1173e-01, 2.7441e-01, 2.9432e-04, 1.6330e-01, 2.3633e-01,
        1.3767e-07, 1.9961e-01, 7.4138e-02, 1.8082e-01, 3.4192e-01, 4.1072e-02,
        2.1749e-01, 2.4302e-01, 1.9580e-02, 2.3525e-01, 4.3115e-03, 2.1234e-02,
        1.6487e-01, 1.5741e-01, 1.0868e-01, 3.8712e-03, 1.2305e-18, 2.3765e-01,
        3.1494e-01, 5.3252e-05, 1.2974e-01, 1.1649e-03, 2.7238e-01, 1.5145e-01,
        4.1832e-01, 2.7951e-01, 3.1425e-01, 2.0224e-03, 7.4255e-03, 2.1292e-01,
        1.5240e-01, 3.3623e-01, 4.0828e-03, 6.4042e-06, 1.5451e-10, 7.1172e-02,
        2.1362e-01, 3.1287e-01, 1.9640e-02, 1.6085e-01, 1.0738e-02, 8.3119e-02,
        7.8898e-05, 2.5544e-01, 4.0096e-02, 2.3163e-01, 4.2281e-02, 3.2495e-11,
        1.4564e-01, 4.1653e-01, 9.0305e-02, 5.4857e-18, 3.0042e-02, 1.1868e-01,
        1.5214e-01, 2.1592e-01, 4.5804e-02, 2.5631e-01, 6.9300e-02, 3.8587e-01,
        4.9370e-05, 1.3378e-02, 3.4122e-01, 7.2419e-02, 7.2887e-02, 8.2436e-24,
        1.3592e-01, 3.0686e-01, 5.9343e-02, 1.4437e-02, 2.3943e-01, 2.6885e-02,
        5.0954e-30, 1.9777e-01, 2.3348e-01, 6.1283e-02, 6.6900e-03, 3.8126e-19,
        2.1504e-02, 4.4508e-02, 1.9476e-01, 3.4968e-02, 4.3500e-03, 3.0689e-01,
        1.7557e-04, 2.9040e-01, 1.4390e-01, 1.5105e-01, 1.4091e-03, 4.7582e-08,
        1.1542e-01, 7.1477e-01, 2.9172e-01, 6.8471e-02, 1.1477e-01, 2.8808e-01,
        6.4687e-08, 4.6993e-03, 3.1705e-03, 1.2274e-01, 9.1499e-02, 2.7430e-01,
        3.8506e-01, 5.2128e-02, 9.5175e-02, 4.7269e-02, 3.7295e-02, 4.2585e-01,
        2.3478e-01, 3.8275e-01, 1.9820e-01, 2.3443e-01, 1.0776e-01, 7.7173e-02,
        1.1953e-05, 1.2568e-01, 4.8210e-03, 1.2234e-09, 2.7421e-01, 2.1238e-01,
        1.5183e-01, 7.4111e-02, 6.0215e-01, 3.0114e-01, 4.1826e-41, 5.4412e-02,
        2.1521e-01, 1.9949e-01, 5.5182e-02, 4.2320e-01, 4.1185e-02, 3.0422e-04,
        1.1040e-01, 1.2547e-01, 2.9883e-01, 4.7852e-35, 2.4761e-01, 7.4928e-25,
        1.0340e-01, 1.9510e-01, 1.4070e-01, 1.5651e-01, 1.9925e-02, 6.9145e-02,
        2.0547e-01, 5.0471e-07, 2.7373e-01, 3.2524e-01, 1.9882e-01, 1.3829e-01,
        4.7409e-01, 1.6739e-01, 9.5049e-02, 3.7368e-01, 1.3992e-33, 1.3059e-03,
        1.6558e-01, 1.5363e-01, 2.3347e-01, 6.8398e-07, 5.8807e-03, 2.7760e-01,
        2.7048e-01, 1.4913e-01, 2.4283e-01, 1.5927e-01, 4.1422e-02, 9.8193e-02,
        2.0097e-01, 1.7742e-01, 4.1680e-02, 1.2873e-01, 2.8975e-07, 2.3073e-01,
        4.5839e-03, 1.8332e-01, 2.4700e-01, 1.9934e-01, 4.8916e-03, 7.4178e-02,
        2.3070e-01, 4.3458e-01, 1.9705e-02, 9.9258e-04, 3.5203e-01, 7.3568e-14,
        8.9066e-02, 1.6339e-01, 2.2294e-01, 5.5533e-01, 1.6222e-01, 3.6029e-02,
        6.2087e-04, 1.1353e-01, 4.5326e-01, 1.7897e-01, 2.1241e-01, 1.2901e-01,
        3.3841e-01, 3.2356e-03, 5.1305e-01, 2.9627e-02, 3.1281e-02, 1.1040e-01,
        2.9743e-01, 1.1699e-01, 1.6692e-01, 1.0774e-01, 6.8974e-03, 2.3516e-01,
        2.8251e-02, 2.5613e-01, 1.6323e-02, 2.8173e-01, 1.6501e-01, 1.7922e-01,
        2.7344e-01, 4.4069e-01, 2.2678e-01, 3.0262e-01, 1.5729e-01, 8.5961e-03,
        1.5946e-01, 6.9452e-02, 3.8677e-01, 1.8842e-01, 2.4083e-01, 1.6611e-01,
        7.8011e-02, 7.1489e-01])
mlp.net.0.batch_norm.num_batches_tracked tensor(936)
mlp.net.1.linear.weight tensor([[ 0.2999,  0.0394, -0.0770,  ..., -0.1494,  0.0109, -0.2781],
        [-0.0397, -0.0674,  0.4953,  ...,  0.1372, -0.1584, -0.0953],
        [-0.2027,  0.0312, -0.1438,  ..., -0.0155,  0.0995,  0.0099],
        ...,
        [ 0.2059,  0.2526, -0.0913,  ..., -0.0641,  0.1821,  0.1989],
        [-0.0149,  0.1192,  0.1368,  ..., -0.0959,  0.0416, -0.2826],
        [-0.1913,  0.0688,  0.2715,  ...,  0.1080,  0.1361, -0.0675]])
mlp.net.1.linear.bias tensor([ 2.0645e-01, -1.1235e-01,  1.4605e-01,  2.5805e-01, -1.1562e-01,
        -6.1663e-01,  1.1911e-01, -7.3117e-02, -1.6832e-01, -2.5145e-01,
         2.5130e-02, -1.0792e-01, -7.3152e-02, -1.5817e-01, -1.9371e-01,
         2.3615e-01, -1.2223e-01,  3.3323e-03,  2.3091e-01,  1.6183e-01,
        -1.2290e-01, -4.8037e-01,  2.2207e-02,  2.2139e-01, -3.8462e-02,
        -2.0063e-01,  1.4839e-01,  9.2331e-02, -1.7704e-01,  2.2448e-01,
        -1.7423e-01, -1.9167e-01,  3.9048e-02, -2.0120e-01, -3.4250e-01,
        -1.3539e-01, -7.5364e-03, -8.7426e-03, -8.6593e-02,  1.0682e-01,
         4.6024e-02, -7.5425e-02, -3.8583e-01,  2.2202e-01,  9.2062e-02,
         1.6031e-01,  6.7696e-02, -4.8036e-02, -3.7821e-02, -8.9544e-03,
         7.1480e-02,  1.4117e-01, -1.9746e-01,  2.7763e-01,  7.7433e-03,
         3.0551e-01,  5.6362e-02,  2.3324e-02, -2.1465e-01,  2.0023e-01,
         2.4578e-01, -3.8847e-01,  1.3094e-01,  1.8284e-01,  1.9353e-01,
        -4.5647e-02, -1.8703e-01, -4.3514e-01,  1.3699e-01,  6.8649e-02,
         3.0553e-01, -4.1298e-01, -9.7420e-02, -3.9878e-01,  2.9055e-01,
         2.2312e-01, -1.6837e-01,  1.6457e-02, -4.6845e-01,  5.0353e-02,
        -3.1133e-01,  3.0347e-03, -1.3480e-01,  1.0815e-03, -5.3131e-01,
        -1.3358e-01,  1.5373e-01, -1.4005e-01, -1.9949e-01,  3.8442e-02,
         1.3372e-01, -2.5290e-01, -2.5722e-01,  7.8485e-02,  1.1441e-01,
        -3.5493e-01, -8.9411e-02,  1.4758e-01, -1.3704e-01,  2.1624e-01,
        -1.2842e-01, -2.8658e-01, -5.1742e-02, -1.5972e-01,  2.6255e-01,
         2.1140e-01, -1.4108e-01,  2.0897e-01,  1.6937e-01,  1.5531e-01,
        -2.9653e-02, -1.0103e-01, -5.5974e-01, -1.2576e-01, -6.6455e-02,
        -2.5585e-02, -2.7696e-01, -1.7383e-01, -2.4879e-01, -3.2435e-01,
         1.5209e-02, -4.8314e-02, -6.6646e-03, -1.0777e-01, -2.6245e-01,
        -3.3610e-01,  2.1392e-01, -6.5226e-02, -4.0188e-02, -4.5569e-02,
        -1.9741e-02,  2.6159e-01,  3.3019e-01, -3.1695e-01,  5.1207e-02,
        -8.2838e-02, -8.3097e-02, -2.9039e-01,  1.8131e-01,  1.4996e-01,
        -5.4793e-02,  1.4266e-01,  1.3664e-01, -1.6960e-01,  3.1009e-01,
        -3.2902e-03,  1.9228e-01, -8.3003e-02,  9.3554e-02, -3.4166e-01,
        -2.7171e-01, -5.8514e-02,  7.8079e-02, -1.5628e-01,  2.3011e-01,
        -3.5013e-02,  2.0099e-01,  1.4457e-01,  1.4239e-01, -1.1201e-01,
        -4.9505e-03, -3.5143e-02,  5.0669e-02, -3.0924e-01,  9.5787e-02,
        -6.5597e-01, -8.1507e-03,  7.6659e-02,  7.8287e-02, -7.0255e-03,
         4.5514e-01,  1.7516e-01,  1.3752e-01, -5.6512e-02,  4.7163e-02,
        -2.0830e-01, -1.1578e-01,  1.6456e-01, -5.4064e-01,  1.5352e-01,
        -3.0190e-01,  4.9509e-03, -8.1362e-01,  2.0300e-01,  8.2028e-03,
        -2.2741e-02, -6.7019e-02, -2.0535e-01, -4.9608e-01, -7.2994e-02,
         2.9369e-02, -1.0061e-02,  3.0209e-02, -3.6125e-01,  4.9377e-02,
        -1.5277e-02,  2.6909e-01,  1.7166e-01,  2.9512e-01, -2.5584e-01,
        -2.8991e-01,  6.3022e-02,  1.2279e-01,  2.4187e-01,  6.5050e-02,
        -2.6182e-02,  7.5863e-02, -2.3234e-01,  2.0909e-02, -7.8078e-02,
         2.9420e-02, -4.1659e-01, -3.4153e-01,  2.8194e-02, -1.8043e-01,
        -2.2130e-02, -1.3264e-01,  1.2829e-01,  1.7677e-02, -1.7963e-01,
         4.9153e-02, -3.2380e-01, -6.4770e-02,  1.7855e-01,  1.2561e-02,
        -3.1032e-01,  2.6629e-01, -3.0898e-02,  9.6170e-02, -2.7827e-01,
        -7.1486e-03, -6.6545e-02,  3.0239e-01,  6.1623e-02,  2.2055e-01,
        -4.4252e-01,  5.1408e-02,  1.9061e-01,  1.9879e-02, -1.8112e-01,
        -1.1846e-01, -1.3787e-01, -3.9922e-01,  6.3852e-02, -5.3162e-01,
        -3.1737e-01,  1.8353e-01,  9.0778e-02,  4.2715e-02,  5.7336e-02,
        -2.5390e-01, -8.4308e-02, -5.3556e-01, -1.0770e-01,  6.7333e-02,
         3.6881e-02,  2.4324e-01,  3.0974e-02,  7.2112e-02, -2.2464e-04,
        -7.6902e-02, -1.3538e-01,  9.1378e-02, -3.5991e-01,  1.3192e-01,
        -2.4823e-01,  1.9533e-01, -2.9685e-01, -1.7727e-01, -4.5283e-02,
        -6.2231e-02,  2.2205e-02, -2.6771e-01, -1.9199e-01, -2.9915e-01,
         5.2759e-02,  1.2901e-01, -2.0702e-01, -5.1556e-01,  3.9865e-02,
         1.1273e-01, -3.9027e-02, -4.5642e-02, -1.6875e-01, -8.3676e-02,
        -3.9806e-02, -1.0658e-01, -2.1969e-02,  9.3026e-02, -5.7650e-01,
        -6.2567e-02,  9.7116e-03,  9.8481e-02, -3.4721e-02, -2.7807e-02,
         3.7638e-02, -8.5432e-02,  1.5678e-01, -1.2614e-01, -6.3236e-02,
         1.1819e-01, -1.0790e-01, -1.2886e-01, -2.4192e-01, -8.4538e-02,
        -2.0144e-01, -3.7795e-02, -5.3709e-01, -1.5723e-02,  2.6350e-01,
        -1.3697e-01,  4.8438e-02,  3.5162e-01, -4.6079e-01, -3.9454e-01,
        -5.0367e-01, -2.0179e-01, -1.0520e-01, -4.1952e-01, -9.9187e-02,
        -2.5691e-01,  1.3336e-02, -3.1214e-01,  3.1729e-01, -1.6618e-01,
        -4.6630e-01,  6.8024e-02, -5.7588e-02,  8.0113e-02, -5.7930e-02,
        -1.7862e-01,  1.4238e-01,  3.5464e-04,  2.6839e-02, -5.7635e-02,
         2.1307e-01,  5.0024e-02,  1.2864e-01, -1.4662e-01,  5.3493e-02,
        -1.6740e-01, -1.6938e-01,  1.5853e-01, -7.1648e-02, -2.0255e-01,
        -2.2800e-01, -6.1276e-02, -5.9628e-02, -2.2274e-01,  2.7529e-01,
        -6.0265e-01, -4.0861e-01,  1.9962e-01,  8.5862e-02,  8.1513e-03,
        -3.1874e-01, -4.0896e-01,  1.9216e-01, -2.8776e-02, -4.4883e-03,
         1.1265e-01, -1.4351e-01, -3.6460e-03, -6.6569e-02, -5.0842e-01,
        -9.8192e-02, -4.1272e-01, -3.3930e-01, -2.6259e-01,  2.2627e-02,
        -4.0408e-02,  1.2315e-01, -1.2712e-01, -3.8210e-03, -1.3711e-01,
        -1.8065e-01, -7.9869e-02, -5.2650e-02,  6.9813e-02,  1.8924e-02,
         3.2629e-02, -4.0271e-01, -1.0247e-01, -8.9921e-02,  2.5366e-02,
        -2.1940e-01,  7.3919e-02, -9.3748e-02, -3.9461e-01, -1.1881e-01,
        -8.8958e-02, -5.3165e-02, -5.8138e-01,  9.8031e-02,  6.9605e-02,
         1.0624e-01, -8.7906e-02, -1.3285e-01,  4.5301e-03, -1.4678e-01,
         1.9936e-01,  3.4039e-02, -8.9767e-02, -4.3711e-02,  3.5654e-01,
        -2.1219e-01,  2.1929e-01, -1.0348e-03,  1.4103e-01,  2.9951e-01,
        -1.3648e-01, -1.8758e-01,  1.6273e-01, -3.0560e-01,  1.0258e-01,
        -6.2930e-02, -4.3114e-02,  8.9422e-02,  1.0175e-01, -4.4437e-02,
         2.2783e-01, -6.9219e-02,  6.3347e-02,  1.2312e-01, -1.8779e-01,
        -2.2317e-01, -1.1197e-01, -2.5283e-01, -1.4998e-01, -6.6112e-02,
         1.3200e-01,  1.0289e-01,  6.2606e-02,  4.0031e-01,  2.3339e-01,
         2.5612e-01,  8.8535e-02,  1.0540e-03, -1.3602e-01, -1.9630e-01,
        -2.2038e-01, -2.1499e-01, -3.1464e-02,  1.7465e-01, -4.9607e-02,
         1.5358e-01, -1.2836e-01,  4.6479e-02,  1.6069e-01,  7.3850e-02,
         4.8070e-02,  3.2883e-02,  1.5175e-01, -1.0088e-01,  6.9717e-02,
        -3.0578e-02, -5.8285e-01, -1.3773e-01, -1.2546e-01, -1.5806e-01,
         7.5533e-02, -5.9605e-02,  1.6818e-01, -3.3097e-03,  2.8272e-01,
         1.1927e-01, -7.6027e-01,  2.5465e-02, -5.5962e-01, -1.4319e-01,
         2.2681e-01,  1.0279e-01, -3.7894e-01, -4.4837e-02, -2.0759e-01,
        -5.1407e-02,  8.1934e-02, -2.0493e-01, -3.9480e-01,  1.5709e-01,
         4.7574e-03,  5.9508e-02,  3.4231e-01,  3.4361e-02, -6.6077e-01,
        -3.3845e-01, -4.6491e-01, -2.6225e-01, -3.1147e-01, -1.1971e-01,
         1.5964e-01,  5.9485e-02, -3.9124e-02, -1.1649e-01, -8.4142e-02,
        -1.9558e-01, -5.1325e-02,  1.7899e-01, -4.4763e-02,  2.4929e-01,
        -4.5116e-02, -3.0841e-01,  2.4795e-01, -1.1550e-01, -2.7238e-01,
        -1.1622e-01, -1.0110e-01,  3.7330e-03, -4.9550e-02,  2.5639e-01,
         6.0360e-02, -2.1743e-01])
mlp.net.1.batch_norm.weight tensor([1.0031, 0.6344, 0.8212, 0.8610, 1.0754, 1.2262, 0.9123, 1.1564, 0.9008,
        1.0118, 0.8782, 1.0259, 0.9568, 1.0686, 0.9591, 0.9915, 1.0940, 0.8937,
        0.9696, 1.0440, 0.9089, 1.2911, 1.1792, 1.3555, 0.8770, 1.1462, 0.9202,
        0.8192, 1.0817, 0.9387, 0.8065, 0.8001, 0.7482, 1.5571, 0.8581, 1.0268,
        1.1921, 0.9105, 0.9918, 1.0684, 1.1363, 0.8759, 1.1679, 1.1491, 0.9992,
        1.0858, 1.1886, 0.8941, 0.8458, 0.9810, 0.6539, 0.6994, 0.9006, 1.0424,
        0.9189, 0.9463, 0.9220, 1.5269, 1.0064, 0.9146, 1.0433, 1.2643, 0.7633,
        0.7724, 1.0983, 1.0413, 1.1162, 1.5184, 0.6489, 1.0608, 1.0352, 1.1006,
        0.6289, 1.3694, 1.2153, 0.9515, 1.2967, 0.6756, 1.2201, 1.2942, 1.1208,
        1.0991, 1.3810, 0.9871, 1.3804, 1.2211, 0.9896, 1.0511, 0.8925, 0.9209,
        0.8847, 0.6100, 0.7801, 0.9917, 0.9497, 1.0072, 0.9830, 0.7848, 1.0311,
        0.9571, 1.1865, 0.9839, 0.7176, 0.8793, 0.9689, 1.2927, 0.9449, 0.7572,
        0.8865, 0.9718, 0.7702, 0.9730, 1.4677, 0.7212, 1.1251, 0.9630, 1.4325,
        0.8916, 1.0015, 1.1075, 1.2331, 1.1737, 1.0029, 1.2159, 1.0187, 1.1597,
        0.7179, 1.1119, 0.8936, 0.8769, 1.0131, 0.8555, 1.2657, 1.0416, 1.3330,
        0.7371, 1.1636, 1.0510, 1.1598, 0.9755, 0.9131, 0.9788, 1.0020, 1.0070,
        0.9759, 0.9652, 0.9241, 0.7611, 1.2908, 0.8193, 0.8661, 1.2452, 1.1077,
        1.1138, 0.9811, 1.2409, 0.8337, 1.0152, 1.1597, 1.0673, 0.9495, 0.6931,
        1.0758, 0.7278, 0.7395, 1.2572, 0.9406, 1.2230, 1.1554, 0.5711, 1.0350,
        0.8327, 0.8420, 0.5346, 1.6255, 0.9638, 1.3344, 0.9351, 1.2799, 0.8926,
        0.8507, 0.9681, 1.3357, 0.9231, 0.9064, 1.1857, 1.0452, 0.9953, 1.2173,
        0.8006, 0.8860, 0.8047, 1.1111, 1.0348, 0.9069, 0.6945, 0.6145, 0.9451,
        0.8328, 1.1141, 1.2127, 1.0150, 1.1232, 0.9722, 1.0053, 0.8071, 0.9357,
        0.8869, 1.2610, 1.2293, 0.7490, 1.1540, 0.9936, 0.9436, 1.1901, 1.0746,
        0.9941, 1.1440, 0.8474, 0.6877, 0.7267, 1.3768, 1.1469, 1.0094, 0.8926,
        0.9605, 0.8477, 1.0881, 1.0705, 0.9198, 0.8725, 1.2849, 0.9330, 0.8915,
        0.8954, 0.8227, 0.9873, 1.0485, 0.9972, 1.0435, 0.8904, 1.2997, 1.6561,
        0.8867, 1.2506, 1.1147, 0.9759, 1.0578, 1.2460, 0.7278, 1.1273, 0.9186,
        1.0733, 1.0961, 1.0831, 0.9524, 0.8041, 0.9842, 1.2524, 0.8707, 0.9452,
        1.0021, 0.8499, 1.4909, 1.1231, 1.2892, 1.0483, 1.0054, 0.9109, 0.8473,
        0.7973, 0.7739, 0.9517, 1.3710, 0.9573, 0.8196, 0.8740, 1.1897, 1.3657,
        0.8897, 0.9078, 0.9130, 0.8950, 1.0514, 1.3692, 0.9543, 0.8697, 0.8411,
        0.7181, 1.0419, 1.3406, 1.2525, 1.0102, 1.1239, 0.8827, 0.9609, 0.8179,
        0.9727, 0.9816, 1.1674, 1.2446, 0.8575, 1.0000, 0.7934, 0.8918, 1.6205,
        1.0783, 0.6844, 0.7923, 0.9083, 1.1113, 1.0424, 0.7116, 1.2743, 0.9820,
        1.2687, 0.8844, 1.0680, 0.9116, 0.9275, 0.9452, 0.6090, 1.2718, 1.0487,
        1.1431, 1.2857, 1.2846, 1.1045, 0.9593, 0.6307, 0.7848, 1.0647, 0.9896,
        1.3217, 0.9638, 1.1577, 1.3830, 1.0206, 1.1402, 1.0040, 0.9668, 0.9951,
        0.9128, 1.0661, 0.7126, 1.0101, 0.9767, 0.8986, 0.6593, 1.3375, 1.1591,
        1.0357, 0.7330, 0.9924, 1.0104, 1.1025, 0.8791, 0.9441, 0.9849, 1.1907,
        1.1417, 1.0972, 0.8915, 0.9964, 1.0510, 1.0882, 1.1523, 1.0951, 0.9307,
        0.7527, 1.0114, 0.9931, 0.9202, 1.0145, 0.6377, 1.0289, 0.7464, 1.1854,
        0.7316, 0.7220, 0.8831, 0.9796, 1.0172, 0.9247, 0.9333, 0.8114, 1.0577,
        1.0077, 1.2586, 1.0012, 0.9813, 0.9953, 1.0970, 1.2488, 1.0424, 1.2276,
        0.9802, 1.2601, 1.0562, 0.9916, 1.0561, 0.6963, 1.3101, 0.6785, 0.8911,
        1.0622, 1.2304, 1.1756, 1.0068, 0.8783, 0.9843, 1.1079, 0.7780, 1.3992,
        0.9202, 0.9624, 1.0534, 0.8255, 1.0389, 0.8727, 1.0953, 1.1422, 0.9132,
        0.8820, 0.9885, 1.1685, 1.1786, 0.7302, 0.9324, 0.8389, 0.8743, 0.7776,
        1.2494, 1.2401, 1.1023, 1.1597, 1.1457, 0.9359, 1.0290, 1.1371, 0.9855,
        0.8382, 1.0019, 0.8998, 0.6943, 0.7575, 0.8704, 0.7536, 1.1079, 1.0267,
        1.1334, 0.9601, 0.9703, 1.0823, 1.0298, 1.3049, 1.3535, 1.0380, 1.0587,
        1.0939, 1.1606, 0.9799, 0.9800, 0.9603, 0.9190, 1.0177, 1.5095, 0.8741,
        1.2911, 0.7068, 1.0008, 0.9736, 0.9715, 0.8562, 0.7469, 1.0756, 1.0126,
        0.7637, 0.9221, 0.9921, 0.7317, 0.9366, 0.8433, 0.9195, 1.2413, 1.1427,
        1.0759, 0.9448, 1.1132, 1.0463, 1.0249, 1.1915, 1.0074, 0.9736, 0.9432,
        0.9453, 0.9304, 1.2319, 0.6544, 0.9877, 0.9143, 1.0467, 0.8900, 0.9399,
        1.3160, 0.8226, 0.8217, 1.1427, 0.9267, 1.1091, 1.1152, 0.9770])
mlp.net.1.batch_norm.bias tensor([-0.2337, -0.1059,  0.0558, -0.1007, -0.5420, -0.1597, -0.2309,  0.2996,
         0.0467, -0.1153,  0.0626,  0.0867,  0.1213, -0.2825, -0.2715, -0.0953,
         0.1974,  0.0265, -0.1007, -0.0487, -0.3259, -0.2760, -0.3143,  0.2935,
         0.0877, -0.0640,  0.0409, -0.2438, -0.1349,  0.2247, -0.1011, -0.0408,
         0.1164, -0.0765,  0.0459,  0.1264, -0.4631, -0.1208, -0.0235, -0.1432,
        -0.2163,  0.2608, -0.1834,  0.2391,  0.3645,  0.2929,  0.1989, -0.1358,
        -0.0965,  0.3970,  0.0568, -0.0231, -0.3932,  0.0956,  0.0956, -0.4814,
         0.0484, -0.0750, -0.1286,  0.0751,  0.1269, -0.4277, -0.0363,  0.1975,
        -0.4357, -0.5684, -0.1593, -0.3179, -0.0571, -0.3765, -0.4428, -0.1768,
         0.0516, -0.1715, -0.0942,  0.1582, -0.4708,  0.2354,  0.0542, -0.1470,
        -0.1365,  0.1354, -0.3551, -0.0423, -0.0511,  0.1476, -0.2960, -0.0905,
        -0.3508,  0.1195, -0.2645,  0.2127,  0.0509, -0.1499,  0.1857, -0.3701,
        -0.1695,  0.2981,  0.2745, -0.2332, -0.1376, -0.0757, -0.1251, -0.0922,
        -0.4463,  0.1676, -0.0228,  0.0695, -0.0839,  0.2325, -0.1211,  0.0414,
        -0.4048, -0.0798, -0.2492,  0.3361, -0.2896, -0.0843,  0.2168, -0.1525,
         0.0758, -0.1799, -0.3003, -0.3094, -0.1870, -0.3571, -0.1367,  0.3211,
         0.1328,  0.1209, -0.3459,  0.1919, -0.4416, -0.5162, -0.0703,  0.2760,
        -0.4784, -0.1275, -0.1830,  0.2090, -0.3176, -0.0162,  0.2045,  0.1375,
         0.0094,  0.1610,  0.0200, -0.2417,  0.2708, -0.2593,  0.0670, -0.1231,
        -0.2016, -0.2189, -0.1238,  0.5140,  0.2738,  0.0227,  0.1526,  0.0750,
        -0.0041,  0.2652, -0.1079,  0.1249, -0.0547, -0.1652, -0.0818, -0.1124,
         0.1264, -0.3161,  0.1200,  0.0950, -0.2288,  0.0721, -0.0523, -0.3353,
        -0.5699,  0.0894, -0.3458,  0.0447,  0.0406,  0.1103, -0.1341,  0.2848,
        -0.0733,  0.1198,  0.1303,  0.2532, -0.2530,  0.0346,  0.1739,  0.0741,
         0.3128, -0.1377, -0.2706,  0.0630, -0.1512, -0.3568,  0.1973,  0.0155,
        -0.6375, -0.0621,  0.1548,  0.1581,  0.1173, -0.1812,  0.0212, -0.0218,
        -0.2066, -0.1126, -0.2023, -0.0815, -0.0319, -0.3298, -0.2869, -0.2572,
        -0.2170, -0.1306, -0.0677,  0.2592, -0.0469, -0.4482,  0.0138, -0.0699,
         0.1251, -0.1177,  0.0747, -0.2013, -0.0579, -0.2145,  0.1726, -0.1146,
        -0.0758, -0.1052, -0.1307, -0.1548,  0.3269, -0.2266, -0.2196, -0.1808,
        -0.1745, -0.4174, -0.3542,  0.3213, -0.1791, -0.0949, -0.1583,  0.0574,
        -0.1490, -0.2281,  0.2620, -0.0041, -0.1884, -0.4055,  0.3425,  0.1295,
        -0.0497, -0.2052,  0.0783,  0.2159, -0.0508, -0.1630, -0.1384, -0.3213,
        -0.4142,  0.0204, -0.1133,  0.0254, -0.0665, -0.0581, -0.0239,  0.3287,
        -0.4504, -0.0503, -0.0625,  0.0862, -0.0704,  0.0365, -0.4514, -0.1717,
        -0.0800, -0.0815, -0.2292,  0.3868,  0.0145,  0.2078,  0.0364,  0.0629,
         0.2345, -0.3536, -0.1926,  0.0746, -0.2353, -0.3015, -0.2035, -0.0386,
        -0.0820,  0.1468, -0.2327,  0.2062, -0.1352, -0.4450, -0.1978, -0.3369,
        -0.2499, -0.4672, -0.4146, -0.1391, -0.5445, -0.0689, -0.4113,  0.2576,
         0.0844, -0.2873,  0.0164, -0.2751, -0.0953, -0.0365,  0.0469,  0.3706,
        -0.2191, -0.0253, -0.2950, -0.3098, -0.2633, -0.2939,  0.1946, -0.3091,
        -0.2218, -0.0178, -0.1266, -0.2842, -0.3646, -0.1569,  0.2892,  0.1398,
        -0.1004,  0.1953,  0.1874,  0.1960,  0.1943, -0.1967,  0.2526, -0.4983,
        -0.0195, -0.0347, -0.2175,  0.0419, -0.2323, -0.1870, -0.3689, -0.0577,
        -0.2117, -0.2371, -0.0823, -0.1574, -0.1004,  0.1585, -0.0708,  0.0178,
        -0.0824, -0.3886,  0.2058, -0.1523, -0.4043, -0.1853, -0.1478, -0.0653,
        -0.0994, -0.2892,  0.1833,  0.0526, -0.1113, -0.1314, -0.0545, -0.1137,
        -0.0620, -0.0327,  0.3195, -0.3462,  0.1547, -0.2112, -0.2136, -0.0671,
         0.0548, -0.1603, -0.3407, -0.1494,  0.0793,  0.0786,  0.1101, -0.2191,
        -0.2880, -0.3112, -0.0122,  0.4923,  0.3232, -0.4805,  0.0488, -0.0413,
         0.2313, -0.3108, -0.2484, -0.2522, -0.0428, -0.0928,  0.3413, -0.3103,
         0.0044, -0.0601, -0.2113, -0.1166, -0.0334, -0.3429, -0.0645, -0.1102,
         0.0183,  0.1428, -0.4386,  0.1349,  0.3721, -0.0810,  0.2150,  0.0182,
         0.0124, -0.3302,  0.1357,  0.0227, -0.3203, -0.0901,  0.1244,  0.1210,
         0.1049,  0.1970, -0.0499,  0.1824, -0.1336, -0.4336, -0.0971, -0.2547,
        -0.0343, -0.4872,  0.0547, -0.3116,  0.2258, -0.2200, -0.0145, -0.1680,
         0.0244,  0.2327,  0.0817, -0.3288, -0.1216, -0.3469,  0.0449, -0.2430,
        -0.1201, -0.1399, -0.1736,  0.1367, -0.0079,  0.0518,  0.3651,  0.2311,
        -0.2853, -0.1576, -0.2438, -0.0088, -0.2615,  0.2730,  0.1314, -0.0732,
        -0.6002, -0.0641, -0.0339,  0.0233,  0.0901, -0.3834, -0.3657,  0.2615,
        -0.1016,  0.2934, -0.2506, -0.2617, -0.3342,  0.2022, -0.2317, -0.1693,
        -0.4201,  0.0503,  0.1056,  0.4346, -0.1178, -0.2172, -0.3614, -0.0723,
         0.0636, -0.3002, -0.0355,  0.3484, -0.0248, -0.4386,  0.0236,  0.1799,
         0.0025,  0.0449,  0.0427, -0.2494,  0.2056,  0.1632, -0.2851, -0.4582])
mlp.net.1.batch_norm.running_mean tensor([4.4315, 2.7754, 4.3144, 3.6992, 3.7561, 2.2631, 5.3209, 4.7029, 4.5299,
        3.1768, 4.0125, 4.4705, 3.7406, 4.5866, 3.6693, 3.5350, 2.2701, 3.9749,
        6.0042, 6.0502, 2.9505, 2.2137, 5.4446, 5.1384, 3.4573, 2.8126, 5.8453,
        4.5373, 4.4128, 3.6967, 3.5339, 4.2151, 3.1888, 3.3229, 2.3153, 3.6337,
        4.7171, 4.8557, 2.6696, 4.5511, 3.3102, 3.5364, 2.7291, 5.1182, 4.4276,
        6.2328, 4.0294, 3.8185, 3.5289, 5.8973, 3.8656, 4.6367, 2.7103, 4.9686,
        4.1582, 5.7153, 3.9471, 5.7800, 3.8557, 4.5064, 4.0357, 2.6876, 4.6901,
        4.4513, 4.6862, 4.8038, 3.1092, 3.0425, 4.3056, 5.3254, 3.8526, 2.3318,
        3.1337, 3.0020, 4.7411, 4.4693, 3.6044, 5.5548, 2.2604, 5.2239, 2.7869,
        5.4428, 2.8264, 3.4930, 3.2375, 4.0698, 5.3196, 4.5420, 3.3660, 5.7787,
        5.4426, 2.8860, 4.1748, 4.0531, 3.9556, 2.6556, 3.4016, 4.1516, 2.1988,
        5.5705, 3.1100, 3.1805, 4.0911, 4.6063, 4.6186, 4.6698, 3.5443, 4.6702,
        4.6216, 5.2378, 5.9118, 2.6206, 2.3911, 3.6501, 4.1749, 5.3892, 3.4019,
        3.7676, 2.5207, 2.5151, 5.0232, 4.0118, 4.3659, 4.0291, 3.1385, 3.5994,
        3.7256, 4.8815, 4.6867, 4.6587, 3.8982, 3.6293, 5.4324, 4.4379, 4.3530,
        5.4474, 4.2853, 4.3017, 5.8889, 5.2961, 2.9885, 5.6570, 5.9540, 3.7007,
        4.1454, 3.6005, 4.5138, 3.3254, 7.3538, 2.3448, 3.7448, 4.4824, 5.8642,
        3.7689, 5.2460, 4.3724, 5.1987, 4.3884, 5.5193, 3.5040, 4.1727, 4.4848,
        5.4701, 3.1380, 4.2851, 1.6164, 4.6029, 4.8235, 4.4832, 2.9270, 6.1187,
        4.7435, 3.9847, 4.0387, 4.1635, 3.8332, 4.1137, 4.8383, 2.4854, 6.2884,
        3.3991, 4.2180, 3.4468, 5.5428, 4.9568, 4.5206, 4.0528, 3.6781, 2.9598,
        3.5774, 6.0795, 4.4514, 4.6069, 3.0967, 5.4839, 3.6129, 4.9953, 6.3726,
        4.4208, 2.0527, 2.4659, 3.9808, 3.9934, 4.9845, 3.9244, 3.3522, 5.3371,
        4.6916, 5.1418, 4.4585, 4.8377, 3.3842, 4.7193, 3.3393, 3.2807, 4.4201,
        4.4417, 4.9491, 5.9681, 3.7917, 3.2157, 2.1504, 5.8632, 5.3786, 5.0823,
        3.2564, 4.2610, 4.2370, 3.9582, 2.4245, 4.4825, 3.4983, 4.2577, 5.7728,
        5.8010, 2.2201, 4.4310, 3.3875, 2.8743, 4.6941, 3.1785, 3.1298, 2.9296,
        3.9519, 3.1817, 4.7449, 5.4062, 4.4185, 4.7925, 2.9690, 3.6597, 3.4765,
        4.7442, 3.1864, 4.5623, 4.6418, 5.8457, 5.6647, 4.6727, 4.7648, 5.0455,
        4.7130, 2.6746, 1.9266, 5.9031, 2.8501, 6.8153, 2.6166, 2.6692, 3.0743,
        4.9764, 3.6123, 2.8484, 4.8447, 2.8634, 3.2088, 4.5157, 3.5569, 3.5803,
        4.4794, 3.6481, 3.0331, 3.8211, 2.3138, 3.7794, 4.0970, 2.6783, 5.3518,
        3.5245, 3.3659, 5.2383, 5.7694, 3.2938, 3.8984, 3.3420, 4.5649, 3.1448,
        4.9645, 3.9588, 4.4279, 4.1106, 3.6360, 3.9150, 2.5890, 3.9558, 3.2199,
        4.1505, 3.0221, 4.7317, 6.8760, 4.0342, 3.5760, 3.7907, 3.3210, 2.9232,
        3.7393, 3.0164, 4.4605, 2.7476, 3.6865, 2.6543, 4.9992, 2.6067, 5.0468,
        2.9159, 2.5579, 6.8160, 4.9363, 4.0414, 2.8689, 2.9002, 4.9598, 4.1969,
        5.4541, 5.9403, 5.5194, 5.0301, 4.9829, 4.7726, 4.5526, 4.4988, 4.1986,
        4.1545, 5.2920, 3.4624, 3.2401, 3.0358, 3.6509, 2.4013, 5.5053, 3.3284,
        2.9615, 4.1112, 4.7473, 2.9309, 3.5088, 2.5516, 5.4741, 3.4405, 4.2520,
        4.5393, 4.5557, 4.5100, 4.2337, 2.9379, 3.0384, 2.9860, 2.8860, 2.6432,
        3.0195, 3.2020, 4.9639, 2.7885, 4.9900, 2.9864, 3.2014, 3.8169, 4.4049,
        6.4268, 4.4739, 4.4335, 3.4255, 3.8258, 3.5690, 3.2831, 2.5451, 4.2389,
        5.8381, 2.4462, 6.3482, 5.4346, 3.0105, 3.4937, 4.5537, 4.1439, 4.1055,
        4.5073, 3.9856, 3.6150, 3.2427, 6.6955, 4.7837, 3.7165, 4.4679, 4.8408,
        2.9951, 6.0869, 2.7353, 6.4348, 4.9418, 3.7552, 4.3925, 3.9653, 3.3624,
        4.3074, 4.8480, 5.2738, 4.8414, 3.8791, 5.2684, 7.0539, 6.8517, 4.1379,
        6.0276, 3.7779, 2.5282, 3.2158, 2.0367, 3.8078, 3.7676, 2.8430, 4.2930,
        4.4838, 7.7540, 6.2803, 5.9851, 5.6185, 3.7995, 2.3912, 3.3677, 3.2501,
        3.5094, 3.9379, 6.5723, 3.7156, 3.7396, 2.4073, 4.3533, 4.3267, 4.4657,
        4.5138, 4.6062, 4.3506, 3.8822, 4.3974, 4.2507, 2.7683, 3.7430, 4.5720,
        3.6586, 6.2677, 4.8431, 6.4354, 4.5724, 6.3762, 5.4331, 2.6819, 6.2812,
        3.5336, 2.5507, 5.2425, 4.7313, 3.1696, 3.7208, 2.7703, 4.8227, 4.5079,
        4.0051, 2.8937, 5.6076, 4.7061, 4.6239, 4.7998, 4.3764, 2.8340, 3.7923,
        2.8891, 4.8718, 2.9004, 3.7062, 4.6504, 6.9623, 4.4074, 2.7316, 3.5564,
        3.0443, 5.5515, 5.3984, 4.3275, 3.9602, 3.5228, 4.4868, 4.8968, 3.7942,
        3.5770, 4.7588, 5.5592, 3.9390, 2.4250, 3.9489, 4.3369, 4.2611])
mlp.net.1.batch_norm.running_var tensor([ 34.6236,  42.7915,  30.5547,  53.5130, 106.1921,  53.3331, 123.7882,
         54.0781,  54.3542,  62.0148,  33.7462,  41.6264,  29.2373,  84.4224,
         79.0453,  24.5716,  17.3654,  29.5892,  62.1339,  73.7486,  76.0172,
         45.0191,  57.2437,  38.8156,  24.5804,  80.7215,  66.8652,  69.9069,
         40.4344,  49.2963,  43.5547,  90.9860,  34.5171,  96.9953,  26.6887,
         45.4801,  60.5998,  78.2102,  24.1037,  77.2776,  41.6370,  41.4153,
         72.8944,  47.2094,  42.5573,  53.4008,  76.7916,  48.7837,  33.2683,
         52.1601,  30.3357,  41.0178,  48.0470,  42.1624,  45.3043,  74.3243,
         56.3083,  53.6937,  40.5344,  57.7773,  52.0577,  66.0398,  86.4732,
         31.5573, 102.5763, 111.1506,  61.9591,  75.9713,  41.4949,  72.4098,
         32.9576,  56.7629,  62.5045,  78.5117,  78.7174,  38.5110,  54.0565,
         46.3552,  53.9497,  38.6504,  78.2893,  59.0747,  45.5092,  25.8620,
         84.5182,  37.7704,  71.0767,  43.4817,  37.0065,  68.4589,  73.0295,
         20.9640,  73.7805,  37.6985,  28.3801,  60.3454,  38.8479,  36.3302,
         21.4248,  56.1186,  35.9755,  62.5514,  37.0841,  72.2499,  40.3197,
         54.6397,  41.2888,  38.2647,  47.6168,  39.2947,  53.0614,  20.7768,
         59.4246,  26.4928, 102.7821,  58.6567,  65.1975, 100.3391,  30.9841,
         28.5727,  82.1518,  54.5175,  44.7547,  78.1298,  56.6811,  92.7646,
         28.4018,  52.2806,  46.8879,  69.2786,  88.6716,  29.6041,  62.9477,
        142.7026,  47.8332,  49.9672,  43.0955,  62.8136,  66.3900,  37.6281,
         86.3256,  63.5778,  50.7812,  29.4699,  29.5213,  26.4703,  37.7736,
         40.7316, 104.9687,  47.1768,  38.2719,  61.6404,  86.1833,  74.9716,
         41.4393,  55.6791,  40.2719,  36.7530,  58.1811,  40.9622,  44.0356,
         38.8337,  73.1683,  45.3172,  34.0073,  41.2759,  53.6681,  47.2258,
         32.1859,  26.7997,  60.5882,  51.3308,  33.8889,  32.7904,  63.6897,
         75.3609,  80.6888,  52.6560,  55.7435,  63.1389,  26.1426,  50.4241,
         46.6973,  43.8827,  57.1425,  56.9899,  30.6283,  38.4713,  59.2603,
         39.1160,  56.1506,  40.9282,  41.0735,  72.1477,  60.1626,  37.5742,
         40.1290,  65.8028,  31.9205,  43.3451,  74.1653,  39.8389,  29.5293,
         45.5504,  47.1120,  26.7256, 104.6610,  51.9724,  56.5803,  50.2721,
         49.6428,  97.0750, 121.1017,  34.3948,  43.0132,  45.1162,  47.5596,
         55.6656,  61.8978,  37.8583,  27.3655,  53.1108,  76.5068,  41.7283,
         54.5225,  27.5528,  26.9201,  49.4739,  40.2670,  37.1056,  41.7261,
         74.0610,  31.3082,  72.8345,  58.8697,  29.7351,  34.8452,  27.6043,
         38.7031, 138.9941,  64.5779,  56.9525, 100.2632,  33.9888, 117.8467,
        145.9031,  58.8147,  51.7936,  86.4875,  33.1979,  31.6678,  53.5275,
        117.0977,  73.4029,  51.3326,  31.9280,  53.5676,  68.8687,  48.0906,
         48.0342,  45.3894,  49.0548,  26.0784,  54.0964,  78.5189,  55.9850,
         86.3479,  23.0134,  78.3981,  31.0383,  73.8154,  28.4603,  20.3092,
         56.0204,  56.3365,  49.5070,  43.5052,  39.2395,  42.8348,  44.4294,
         52.7116,  22.6667,  74.0420,  13.6848,  41.3325,  35.5160,  31.6391,
         55.1736,  22.1171, 100.3975,  75.8380,  72.2867,  27.9062,  40.9872,
         83.0054,  49.8805,  29.0939,  64.4656,  66.2112,  45.9854,  48.1543,
         55.2870,  74.0797,  27.4539,  37.8183,  88.9629,  66.9336,  59.6886,
         38.8188,  65.5635,  38.6438,  32.2293,  40.8726,  63.9595,  53.5853,
        111.5870,  51.6118,  48.3692,  57.5177,  35.5288,  71.7705,  55.6803,
         63.4782,  50.6515,  47.3773,  67.6838,  88.5864,  69.4357,  44.3441,
         26.6321,  37.0625,  46.7103,  33.6234,  92.2211,  72.9504,  66.0904,
        102.8920,  46.7277,  53.5246,  53.1840,  34.5235,  45.1843,  27.4763,
         67.6821,  31.2969,  27.1077,  23.5583,  80.5825,  29.2251,  63.1285,
         51.1941,  43.4321,  49.9095, 115.7880,  30.1525,  75.2877,  73.0177,
         44.3899,  25.6469,  60.4027,  31.0371,  86.8664,  46.3090,  46.3109,
         47.2629,  35.9400,  98.4343,  57.6572,  56.0172,  64.4891,  25.6807,
         49.4339,  46.3349,  53.5046,  42.1841,  74.8022,  33.9712,  47.5414,
         54.3854,  71.9700,  47.3424,  78.6386,  67.4852,  33.1147,  25.3406,
         46.2799,  74.2209,  71.4310,  37.9382,  65.4198,  67.5433,  48.0047,
        108.5007,  48.7262,  42.3488,  46.1778,  60.8191,  71.1039,  28.8952,
         58.6057,  56.3667,  75.4181,  33.2195,  46.9795,  29.6961,  46.8482,
         64.5912,  30.4747,  74.1490,  40.8293,  50.6052,  42.9964,  68.1837,
         71.8494,  40.0998,  49.3539,  70.8380,  45.9063,  25.7906,  60.0262,
         96.4017,  79.7483,  27.0786,  57.2652,  82.3950,  54.3321,  40.4399,
         31.7482,  63.3952,  39.5365,  28.1339,  41.3246,  79.0602,  84.1321,
         63.0583,  64.8860,  58.8817,  52.6320,  26.1843,  33.1085,  36.3285,
         47.7320,  39.1425,  56.3941,  35.5370,  27.0136,  48.0517,  43.4655,
         42.5738,  40.2943,  74.1931,  40.6607,  33.6173,  67.8616,  46.7399,
         44.3064,  90.0485,  42.6713,  49.1282,  52.5178,  62.2726,  69.3595,
         59.5154,  38.9908,  69.3135,  51.0891, 102.6382,  56.3127, 110.6041,
         14.2489,  59.1466,  44.1153,  56.5468,  91.1921,  39.3317, 110.7853,
         40.1645,  50.6353,  59.5022,  62.4522,  47.1929,  35.0048,  39.6276,
         45.9985,  93.3806, 114.8158,  90.5507,  57.1052,  66.9780,  32.0555,
         34.8818,  94.9261,  57.9084,  42.4750,  81.8880,  29.2345,  74.0930,
         95.7229,  40.7070,  60.3662,  43.4038,  66.6559,  32.7435,  51.4573,
         81.1274,  47.5375,  64.4305,  30.0904,  27.7359,  33.3903,  53.5458,
         87.6603])
mlp.net.1.batch_norm.num_batches_tracked tensor(936)
mlp.net.2.linear.weight tensor([[-0.0204,  0.0585, -0.1559,  ...,  0.4756, -0.0696, -0.1065],
        [ 0.0786,  0.2464, -0.1407,  ..., -0.0263,  0.0429, -0.0673],
        [-0.0085, -0.0870, -0.0803,  ..., -0.0628,  0.0321,  0.0667],
        ...,
        [-0.1152, -0.0166,  0.1316,  ..., -0.2156, -0.1275, -0.1477],
        [ 0.2272, -0.1229,  0.1066,  ..., -0.1435, -0.0592,  0.2796],
        [-0.1852,  0.2041, -0.1608,  ..., -0.0007, -0.0463,  0.2597]])
mlp.net.2.linear.bias tensor([-1.2882e-01, -1.5043e-01,  2.4066e-01, -5.0065e-02, -3.5551e-01,
         1.1159e-01,  1.3612e-01,  1.0141e-01,  2.3475e-01, -6.1193e-02,
        -5.6702e-01,  1.9601e-01,  1.6157e-01, -5.1718e-01, -3.3607e-01,
        -1.6382e-01, -1.9666e-01, -1.0817e-01, -3.2330e-01,  1.2420e-01,
        -4.1030e-01,  1.1076e-02,  9.9779e-02, -1.6012e-01,  3.8202e-02,
        -1.6353e-01, -6.1400e-01, -6.5337e-02, -2.3515e-01, -7.6319e-03,
         4.4013e-03,  1.7152e-01,  1.5590e-01,  3.1533e-01, -2.6322e-01,
         1.3577e-01,  1.7370e-02, -2.1035e-01, -2.0100e-01, -3.1819e-01,
         1.6304e-01, -1.2467e-01, -2.7386e-01, -1.1754e-01, -1.0171e-01,
         5.1861e-02, -1.3364e-01,  3.5391e-02,  6.3082e-02, -1.2672e-01,
        -2.6519e-01,  9.3201e-02, -4.3260e-01, -9.4224e-02, -2.0903e-02,
        -4.4763e-02, -1.4055e-01, -9.8624e-02,  5.3181e-03,  6.4588e-02,
        -2.7759e-01,  3.7045e-02,  3.1738e-01,  1.3820e-01, -1.9544e-01,
         2.3993e-01, -4.1737e-01,  6.2879e-02, -3.4057e-01, -2.6109e-01,
         1.0435e-01,  8.6270e-02, -3.9098e-01, -1.9829e-01,  1.4543e-01,
         1.1440e-01, -9.0384e-02, -4.3360e-01,  1.0224e-02, -3.4865e-01,
        -1.7555e-01,  1.1325e-01, -1.3533e-02, -6.1383e-01,  4.1396e-01,
        -2.7901e-01,  1.2710e-01,  1.1951e-01,  3.6461e-01, -1.9477e-01,
        -5.9225e-02, -1.3606e-01, -2.0469e-01, -2.9464e-01,  8.4687e-02,
        -1.0269e-01,  6.7023e-02, -3.3556e-01, -2.4415e-02, -1.9762e-02,
        -3.4997e-02, -2.2045e-01, -3.4147e-01, -1.2987e-01,  2.1207e-01,
        -1.2034e-01, -3.4889e-01, -2.9285e-01, -1.8836e-01,  3.7133e-02,
        -1.4199e-01,  8.6893e-03, -1.1463e-02,  1.2714e-01, -6.0955e-01,
        -2.6553e-01,  3.2528e-02, -1.9955e-02, -4.4621e-01, -5.3016e-01,
        -3.7673e-01, -5.1610e-02, -1.4149e-01, -3.0208e-01, -3.0253e-03,
        -3.0811e-01, -2.1801e-01, -3.5500e-01, -2.7456e-01, -2.0179e-01,
        -3.6820e-01,  1.1590e-01, -5.2964e-01, -4.7649e-01, -8.3448e-03,
         3.3473e-02,  1.2272e-01, -2.5260e-01, -8.4782e-02, -2.8477e-01,
        -3.4859e-01, -8.3246e-02, -1.8240e-02,  8.5775e-02, -3.1238e-01,
         2.0716e-01, -1.5335e-01,  7.6919e-02, -2.1943e-02, -3.8536e-01,
        -1.0934e-01,  2.1105e-01, -1.3051e-01, -6.7357e-01,  9.4811e-02,
         2.1333e-01,  4.3408e-02, -1.0702e-01,  2.1246e-01, -6.9417e-02,
         9.5775e-02, -4.2918e-02, -3.0932e-01,  2.1077e-01, -1.4879e-01,
        -3.8493e-01, -1.0073e-01,  1.6084e-01,  4.7534e-02,  2.4376e-01,
         9.2921e-02,  2.4750e-02, -5.1959e-02,  5.6635e-03, -9.4580e-02,
         2.4216e-01,  2.1213e-01,  1.0101e-01, -2.2089e-02, -1.0042e-01,
         2.1483e-01,  1.8670e-02, -1.7017e-01, -1.3506e-02,  1.5840e-02,
         1.7521e-02, -2.5182e-01, -6.1583e-02, -9.4659e-02, -1.4767e-01,
        -8.0535e-02,  1.9790e-02, -1.2787e-01,  7.8087e-02, -1.2036e-01,
        -4.7565e-01,  2.3134e-02, -1.6452e-01,  3.7376e-01, -2.4087e-01,
        -4.2606e-01,  1.6885e-01,  3.9961e-02, -1.8108e-01, -1.5179e-02,
        -4.2485e-01,  2.2072e-01, -1.0876e-01, -2.1670e-01,  1.6913e-01,
        -5.8228e-01,  2.5904e-03, -2.2081e-01, -2.8215e-01,  3.5707e-02,
        -1.4376e-01, -6.4460e-02,  6.2584e-02,  2.0926e-01, -9.0394e-02,
        -5.2767e-01, -3.2466e-01,  1.5274e-02, -1.3101e-01, -1.7993e-01,
        -2.9586e-02,  3.8326e-02, -9.3946e-02,  2.3467e-02, -3.0016e-01,
        -1.5073e-01, -3.2156e-01,  2.6451e-02, -6.6485e-01,  5.7354e-02,
        -5.5796e-01, -1.4582e-02, -1.0339e-01,  2.3383e-01, -4.9464e-01,
        -6.8287e-02,  2.1396e-03,  2.5986e-01,  1.2566e-01, -3.5387e-01,
         1.9507e-02, -2.2480e-01,  1.7978e-01,  1.2433e-01,  3.8417e-02,
        -3.7512e-01,  4.5463e-02,  2.9182e-01,  6.8769e-02, -1.9117e-01,
        -7.0592e-02, -2.2458e-01, -1.8664e-01, -5.2080e-01, -8.0870e-02,
         2.6408e-02,  3.2554e-02,  1.8191e-01, -9.2350e-02, -7.5742e-02,
         1.3959e-01, -1.1397e-01,  3.5714e-01,  8.5412e-02,  2.7361e-01,
        -2.3925e-01,  9.9653e-02,  8.5965e-03,  2.8313e-01, -4.0087e-02,
        -1.1652e-01, -1.6425e-01, -4.8485e-02, -8.8615e-02,  8.3312e-03,
         4.2019e-02,  5.7996e-02, -4.0542e-03,  3.6752e-02,  1.6943e-01,
         2.2178e-01, -3.5189e-01, -5.1592e-02, -7.2836e-02, -3.9764e-01,
        -3.0210e-01, -4.3876e-01,  1.4022e-02,  1.6388e-01, -1.6951e-01,
         1.0114e-01, -6.4456e-01,  6.2460e-03, -6.9054e-02, -3.3016e-01,
         5.8614e-02,  2.4684e-01, -4.5714e-02, -8.6186e-02,  9.6457e-02,
        -4.3427e-01, -2.8089e-01,  2.4891e-01,  7.1086e-03, -6.4163e-02,
         1.8764e-01, -1.1640e-02,  9.6038e-02,  4.5873e-02,  1.1848e-01,
        -3.2332e-02,  9.7952e-02, -8.5759e-02,  1.9981e-01, -1.5025e-01,
         2.4651e-02, -1.5544e-01,  7.3128e-02, -6.4579e-01, -7.9787e-02,
         1.8252e-01,  1.1470e-01, -1.0315e-01, -3.9152e-01, -4.6196e-02,
        -6.3941e-03, -2.3586e-01, -2.8066e-03, -1.2380e-01, -6.0238e-03,
        -1.9537e-01, -2.5525e-01,  2.3160e-01, -8.3056e-02,  8.1267e-02,
        -9.8113e-02, -1.6868e-01, -3.1553e-02, -3.8641e-01,  1.4835e-02,
         8.8770e-02,  3.4669e-01, -5.0282e-02, -1.3489e-02,  1.4711e-01,
        -3.1199e-01,  9.0834e-02,  1.9301e-01,  1.1551e-01, -6.1594e-02,
         1.1116e-01,  8.6624e-02, -2.6966e-01, -6.8711e-02, -3.7119e-01,
        -2.2895e-01, -1.2420e-01,  3.4267e-02, -1.4509e-01, -4.7833e-02,
         4.8967e-01, -4.2277e-02,  3.2254e-04, -3.2917e-01,  4.2608e-01,
        -1.8142e-02, -8.4340e-02, -2.2338e-01, -4.8871e-03, -2.4324e-01,
        -3.8027e-02,  1.2253e-01,  1.7190e-01, -1.0871e-01, -6.4077e-02,
        -2.2027e-01, -1.4529e-01,  1.0129e-01,  1.1892e-02,  1.2940e-01,
        -2.6534e-01, -6.2910e-02, -4.0514e-04, -1.7901e-01,  1.3237e-02,
         4.1635e-01,  8.1999e-02, -8.8489e-02, -8.4478e-02,  1.2611e-01,
         1.3254e-01, -2.6438e-02,  1.7183e-01,  1.3108e-01, -4.3275e-01,
         1.8354e-01, -2.3096e-01,  1.9653e-01,  9.4552e-03, -1.1403e-01,
         3.5846e-02,  8.8025e-02,  3.1388e-02, -7.6587e-02,  2.0192e-01,
         7.1367e-02, -1.3868e-01, -1.6924e-01, -1.3129e-01,  2.9051e-01,
        -3.9069e-01, -1.9933e-01,  9.5968e-02, -1.0659e-01,  3.4878e-02,
        -1.6616e-01, -4.7288e-02, -1.0365e-01, -3.0415e-01,  5.7216e-02,
         2.5237e-01,  1.4636e-01,  1.1371e-01, -1.0390e-01, -2.1621e-01,
         1.6052e-01, -1.0473e-01, -2.3245e-01,  1.0686e-02, -3.8938e-01,
         3.7952e-02, -7.0533e-02, -2.6851e-01, -2.1432e-01, -2.4821e-01,
        -2.0799e-01, -2.8951e-01,  1.4736e-01, -2.0934e-01,  6.0724e-02,
        -4.3806e-02, -3.5705e-01, -5.3711e-02,  1.4169e-01, -1.5898e-01,
        -2.9978e-01, -5.7035e-03, -2.0385e-01,  1.1008e-01,  6.3187e-01,
        -2.9908e-01, -2.8483e-01, -5.7494e-02, -3.6823e-01, -2.1143e-01,
         1.5050e-02,  1.5194e-01,  1.7404e-02,  3.0319e-01, -4.1514e-01,
         1.0176e-02, -7.1093e-02, -2.0470e-01,  3.3459e-02,  2.0519e-01,
        -2.7925e-01, -3.8396e-01, -1.6891e-01, -2.7133e-02, -1.0828e-01,
        -2.4860e-01,  5.7738e-03,  2.9528e-01, -1.1802e-02, -1.4138e-02,
         2.1221e-01, -1.3663e-01,  3.5269e-01, -1.2492e-01,  1.8062e-02,
        -5.1934e-02,  2.0121e-01, -3.2461e-01, -1.3294e-01, -4.3285e-01,
         1.7160e-01,  2.0227e-01, -2.9952e-01, -1.7013e-01,  1.3331e-01,
         6.3584e-02, -2.2291e-01, -6.8848e-02,  1.5869e-01, -5.7687e-01,
        -1.4721e-01, -3.6585e-01, -1.0440e-01,  2.7781e-01, -9.6840e-02,
        -9.0106e-02, -9.7750e-02, -1.3378e-01, -3.0724e-01,  5.9033e-02,
         1.5550e-01, -1.3207e-01])
mlp.net.2.batch_norm.weight tensor([0.6603, 1.3422, 1.3014, 0.9458, 1.1780, 0.6003, 0.8500, 0.8280, 0.7414,
        1.1743, 1.1220, 0.6582, 0.9796, 1.1208, 1.0694, 0.7466, 1.2461, 0.7461,
        1.1430, 0.9642, 1.3109, 0.8924, 0.8036, 1.0802, 0.5123, 0.6648, 1.2292,
        0.8343, 1.1806, 1.1587, 0.8062, 1.1043, 1.0074, 0.8207, 0.5301, 0.8810,
        0.5785, 0.9544, 1.1512, 1.1229, 1.1192, 1.3412, 1.1567, 1.0033, 0.8127,
        0.7611, 1.2170, 0.8818, 1.0223, 0.8434, 0.9923, 1.0379, 1.0860, 1.6638,
        1.4310, 1.3059, 1.1835, 1.0399, 1.2613, 0.8331, 0.7971, 0.6987, 0.7128,
        1.4549, 0.8669, 1.1317, 1.3070, 0.9142, 1.2558, 1.0854, 1.1220, 0.9073,
        1.2749, 0.9881, 0.8620, 1.0493, 1.2786, 1.5152, 0.9617, 1.0642, 0.8179,
        1.1310, 0.8588, 1.2606, 0.8906, 1.1465, 0.7917, 0.8865, 0.9299, 1.3447,
        0.8915, 0.8953, 0.8170, 1.1391, 0.9495, 1.1521, 0.7875, 1.1053, 1.2222,
        1.2155, 0.7614, 1.2448, 1.1027, 0.8037, 1.0254, 1.1124, 1.2961, 1.1760,
        0.8842, 0.7888, 0.9810, 0.8888, 0.7876, 0.7738, 1.2723, 1.0725, 1.2358,
        1.2011, 1.3576, 0.7819, 1.2201, 0.9238, 1.1477, 1.3147, 1.0415, 0.9931,
        1.0335, 0.9340, 1.0490, 0.7158, 1.2403, 0.6296, 1.4407, 1.2373, 0.9611,
        1.2105, 0.8968, 1.0415, 0.8771, 0.6728, 1.2688, 1.0169, 1.0959, 0.9033,
        1.1879, 1.1879, 1.0244, 0.9687, 1.5362, 1.3747, 0.7972, 1.3256, 1.2862,
        1.3291, 0.8926, 0.8649, 1.2461, 1.0713, 0.8417, 1.1284, 0.8676, 0.8523,
        1.0359, 0.9167, 0.9615, 1.3437, 0.9382, 0.7248, 0.8685, 0.9126, 0.7596,
        1.0132, 1.0406, 0.8073, 1.2185, 1.0031, 0.9876, 0.8325, 1.2424, 0.8004,
        0.9379, 1.0331, 1.1636, 1.0197, 0.6451, 0.8062, 1.0017, 1.0436, 1.1975,
        0.9872, 0.9234, 0.9049, 0.8925, 0.9931, 1.0446, 1.4550, 0.9287, 1.1116,
        0.7375, 1.2567, 0.9175, 0.9939, 1.2634, 1.4205, 1.4407, 1.0278, 0.8159,
        1.0807, 1.3458, 1.0658, 1.1977, 0.8078, 1.6704, 1.2756, 1.1676, 1.3469,
        0.8166, 1.1908, 0.5818, 0.8595, 1.3049, 1.5531, 1.0248, 1.0536, 1.1276,
        1.1050, 0.8270, 0.9629, 1.0520, 1.0459, 1.1710, 0.9568, 0.9510, 1.1665,
        1.0237, 1.0310, 1.1843, 1.5452, 0.6704, 1.6228, 0.7771, 0.8717, 0.8704,
        0.8948, 0.9490, 1.1123, 0.8370, 0.9253, 0.8431, 1.0166, 1.2482, 1.2805,
        0.7307, 0.7109, 0.9724, 1.0274, 1.1834, 1.1570, 1.3619, 0.7093, 0.7442,
        1.0873, 0.9700, 0.8006, 1.0340, 1.1620, 0.7957, 0.7974, 0.9009, 0.8753,
        1.1870, 0.9879, 0.7231, 1.1718, 0.8797, 1.0724, 1.1173, 1.0857, 1.0086,
        1.0358, 1.1382, 0.9189, 1.2181, 0.9040, 0.6973, 0.9034, 0.6382, 0.8879,
        1.1227, 0.9844, 1.2051, 1.2901, 0.9335, 0.8327, 1.1912, 0.6416, 1.3410,
        0.9971, 0.8634, 1.1644, 0.7876, 0.8858, 0.7797, 1.0690, 1.0277, 1.1958,
        1.1499, 0.9783, 0.8355, 1.2279, 0.6663, 0.8126, 0.9664, 0.7774, 0.9044,
        1.2845, 0.7404, 1.3694, 0.9034, 1.1427, 0.8761, 0.7959, 0.8281, 1.0001,
        1.0209, 0.8403, 1.2194, 1.0152, 1.1195, 1.1223, 0.9460, 1.1438, 1.2816,
        0.7443, 0.8341, 1.0735, 1.0765, 0.8852, 1.1013, 0.6804, 1.3391, 1.1260,
        1.1068, 1.1115, 0.9624, 0.7500, 0.8053, 0.8736, 1.0085, 1.1332, 1.1782,
        0.7996, 0.5881, 1.0796, 0.6034, 0.8014, 1.0846, 1.0328, 0.7284, 1.4200,
        0.8165, 1.1268, 1.2275, 1.2900, 1.3169, 0.8623, 1.2356, 1.1631, 1.1221,
        1.0384, 0.9903, 0.9646, 1.1752, 0.9269, 1.0638, 0.7813, 0.9176, 0.6781,
        0.9503, 0.7560, 0.8080, 1.0508, 0.8090, 0.9448, 0.7549, 1.2632, 1.1034,
        1.0203, 0.7657, 0.8158, 0.8024, 1.0007, 0.8603, 1.1596, 1.0630, 0.9400,
        0.8670, 1.0135, 0.8616, 1.1047, 0.8919, 0.9500, 0.9600, 1.1226, 1.0579,
        0.8624, 1.0611, 1.0714, 1.1181, 0.6917, 0.9988, 1.0060, 0.8898, 0.8997,
        0.8230, 1.2604, 0.9808, 1.0260, 0.9645, 0.8997, 0.8654, 0.9752, 0.9562,
        1.0679, 1.1636, 1.0088, 0.8749, 0.9279, 1.4338, 1.3844, 0.8677, 0.9921,
        1.2388, 1.1920, 0.9647, 1.1791, 0.8684, 0.9758, 1.1374, 1.2523, 0.9788,
        1.2878, 0.9369, 0.8884, 1.0447, 1.0539, 1.4278, 1.1451, 0.9086, 1.2728,
        1.3832, 0.7541, 1.5061, 0.5625, 1.1588, 1.2698, 0.9583, 0.8997, 1.0678,
        0.7996, 0.9584, 0.8949, 1.0145, 0.7723, 1.0305, 0.9696, 0.9324, 1.0285,
        0.6171, 0.8705, 0.9780, 1.1092, 0.9379, 1.1623, 0.8136, 1.4175, 1.1463,
        0.8918, 0.8981, 0.8666, 1.1694, 1.0420, 0.7779, 1.3554, 0.8821, 1.0817,
        0.8070, 1.2309, 1.1274, 1.1790, 1.0222, 0.8874, 1.3333, 0.8523, 0.8993,
        1.0175, 0.6941, 1.1836, 0.8283, 1.1561, 0.9101, 1.5374, 1.0575, 0.6243,
        1.1651, 1.1734, 1.0260, 0.9897, 1.0366, 0.8335, 1.2574, 0.8825])
mlp.net.2.batch_norm.bias tensor([ 8.3228e-02, -1.4808e-01,  2.6665e-02, -2.4992e-01, -2.2720e-01,
        -3.0338e-01,  8.2397e-02, -1.7170e-01, -5.7106e-02, -2.7434e-02,
        -6.8541e-01, -1.8811e-01, -6.8953e-02, -2.9320e-01,  1.2661e-01,
         4.6096e-02, -1.1217e-01,  1.2580e-01, -3.7721e-01,  1.5304e-01,
        -5.3831e-01, -9.4858e-03, -4.5666e-02, -1.0046e-02,  6.3722e-02,
         2.6794e-01, -3.8994e-01, -3.1613e-01, -1.1584e-01,  2.2760e-01,
        -1.7345e-01, -1.1163e-01, -4.8127e-02, -2.9531e-01, -2.2023e-01,
         1.3882e-01,  2.6713e-01,  8.3282e-03, -2.2520e-01, -2.4872e-01,
         1.3031e-01, -3.8165e-01, -1.6529e-01, -2.4839e-01, -1.0035e-01,
        -1.1349e-01, -3.4037e-01,  3.8185e-02, -5.3035e-02, -3.2681e-01,
         4.9793e-01,  2.3355e-02, -4.3819e-01, -3.0480e-01, -1.1027e-01,
        -8.7173e-02, -8.3966e-02, -4.1389e-01, -3.0538e-02,  1.0425e-01,
        -2.3244e-01,  3.4378e-02, -9.2596e-02, -4.9577e-01,  2.9177e-01,
         8.4557e-02, -4.5598e-01, -4.2519e-01, -2.6757e-01,  8.5034e-02,
        -2.2246e-01, -1.4952e-01, -1.3130e-01,  3.1270e-02, -1.2634e-01,
        -4.1247e-01, -2.2139e-01, -2.6002e-01,  5.3079e-02, -4.9046e-01,
        -1.4386e-01, -2.0533e-01, -2.1010e-01, -4.1489e-01, -2.0263e-01,
        -4.1100e-01,  2.1387e-01, -2.0654e-01, -4.3635e-01, -2.0861e-01,
        -1.2829e-01,  1.3339e-01, -2.0589e-01, -3.0423e-01, -1.8686e-01,
         1.2768e-01, -7.5087e-02, -5.8401e-01, -2.2746e-01, -1.2440e-01,
         1.1878e-01, -2.6993e-01, -8.9054e-02, -2.0512e-01, -1.0216e-01,
        -4.7739e-02, -1.9261e-01, -1.4666e-01,  1.3109e-01, -1.3647e-01,
        -2.1514e-01, -3.2897e-01,  1.5232e-01,  3.8325e-02, -1.7601e-01,
        -5.2137e-01,  1.8262e-01, -3.8306e-01, -4.8601e-01, -3.7155e-01,
        -4.8200e-01, -3.7716e-02, -3.8693e-01, -1.0337e-01,  1.5872e-04,
        -9.6630e-02, -1.2994e-01, -1.4975e-01, -3.6171e-01, -5.2254e-02,
        -4.7930e-01,  1.5274e-01, -7.7688e-02, -3.0867e-01,  2.4826e-01,
        -2.7785e-01, -5.5301e-02, -5.1705e-01,  2.5461e-02, -4.0453e-01,
        -3.9166e-01,  8.8740e-02,  1.3715e-02,  7.3038e-03, -3.0042e-01,
        -4.5280e-02, -2.0523e-01, -1.7260e-01, -3.4747e-01, -4.1855e-01,
         1.3013e-01, -3.1675e-01, -4.6258e-01, -4.4226e-01,  1.3966e-01,
         6.2542e-02, -1.0405e-01, -2.2053e-01,  8.8938e-02, -1.8572e-01,
        -3.7470e-01,  1.2434e-01, -3.7779e-01, -1.9583e-01, -1.7202e-01,
        -2.4839e-02, -1.3495e-01,  1.6076e-02,  1.3238e-01,  1.6528e-01,
        -1.7893e-01, -5.7402e-02, -1.1825e-01,  7.9441e-04, -2.8409e-01,
        -8.8088e-02, -7.1296e-02,  2.7107e-01, -2.5356e-01,  1.8373e-01,
        -6.2220e-03,  8.7295e-02, -2.1163e-01, -2.2130e-01,  1.7869e-01,
         5.7198e-02, -1.6255e-01,  2.3369e-01,  9.6974e-02,  2.2297e-01,
        -2.0307e-02, -1.8463e-01, -6.3020e-03,  1.8935e-02, -1.4737e-01,
        -4.2131e-01,  4.0187e-02, -4.1839e-01,  7.2479e-02, -7.3548e-02,
        -3.2693e-02,  1.0821e-01, -2.9360e-01, -5.9879e-02, -1.3765e-01,
        -3.9735e-01, -2.2054e-01, -2.7346e-01, -1.4254e-01, -9.6800e-02,
        -2.9196e-01,  4.8886e-02, -2.5326e-01, -2.7886e-01, -1.8802e-01,
        -9.5808e-02,  2.7735e-01, -2.5646e-01, -1.9128e-01, -1.6571e-01,
        -7.3526e-01, -3.9998e-01,  1.3376e-01, -4.4333e-01,  1.2252e-02,
        -1.2201e-01, -2.0646e-01, -5.7544e-01, -1.6676e-02, -1.5545e-01,
         8.6896e-02, -2.5460e-01,  2.3035e-01, -4.4631e-01,  1.8386e-01,
        -4.5347e-01, -5.9815e-02, -3.0922e-01,  8.2934e-03, -2.8789e-01,
         3.4583e-01, -5.2953e-02,  4.1559e-02,  2.9131e-01, -1.4506e-01,
        -9.9991e-02, -1.5502e-01,  2.0059e-01, -3.3059e-01,  2.8036e-01,
         2.3342e-01, -1.9303e-01,  2.5557e-01, -2.5003e-02, -3.7713e-01,
        -5.8120e-02, -3.7657e-01,  1.0737e-01, -4.0667e-01, -7.7637e-02,
        -2.4383e-01,  2.5153e-02, -1.8181e-01, -2.4641e-01, -6.6200e-02,
        -9.0136e-02,  3.6031e-01,  1.5300e-01, -2.6431e-01, -3.5164e-01,
        -1.1213e-01,  2.0490e-01,  1.5730e-01,  2.5927e-01, -6.8531e-02,
        -2.7925e-01, -5.1159e-01,  1.4031e-01, -6.7661e-02,  2.8549e-01,
         1.5827e-01, -2.2827e-02, -2.2351e-01, -4.2900e-01, -2.0368e-01,
        -1.0131e-02, -2.8596e-02, -1.3453e-01, -2.2320e-01, -6.8156e-02,
        -2.9177e-01, -2.3999e-01, -1.2259e-01,  2.4559e-01, -1.4451e-01,
         1.0812e-01, -1.4225e-01, -3.4597e-01,  3.3069e-01, -2.8615e-01,
         6.8071e-02,  4.2857e-01,  2.3476e-01, -1.5948e-01, -6.0343e-02,
        -5.4226e-01,  2.9072e-02, -7.9404e-02, -2.6725e-01, -2.1422e-01,
         1.7696e-01, -4.3819e-01, -1.9726e-01,  3.3631e-01, -1.7561e-01,
        -2.6607e-01, -2.3329e-02, -2.3109e-01,  1.4064e-01, -2.8473e-01,
        -1.5349e-01,  2.6477e-02,  1.2356e-01, -3.2280e-01, -4.1421e-01,
         1.9171e-01, -3.0696e-01, -3.5101e-01, -2.4132e-01, -7.7711e-05,
        -4.8722e-01, -2.7138e-01, -9.5090e-02, -3.4398e-02, -1.5345e-01,
        -7.2590e-02, -3.1681e-01,  4.6613e-02, -3.1802e-01,  1.8106e-01,
        -3.3291e-01, -1.1493e-01, -1.0481e-01,  3.5036e-02,  2.7758e-01,
        -3.2630e-02,  9.1336e-02,  2.4612e-01, -1.6521e-01, -3.5470e-01,
        -2.8504e-01, -3.4098e-02,  2.5952e-02,  1.6390e-01, -1.1004e-01,
        -7.2831e-02,  3.9131e-02, -3.3554e-01, -1.5457e-01, -3.5518e-01,
         1.3076e-01, -3.5017e-01, -1.5277e-01, -2.9914e-01, -7.0453e-02,
        -5.6172e-02, -8.8865e-02, -1.8792e-01, -4.6884e-01,  3.0565e-01,
        -2.9996e-01, -2.0578e-01, -1.9152e-01, -3.4323e-01, -5.5848e-02,
        -9.1526e-02,  8.5529e-02,  1.0146e-01, -1.3702e-01, -3.0431e-01,
        -4.0389e-02, -4.1933e-02,  1.6948e-01,  4.5175e-02, -1.1390e-01,
        -4.1930e-01, -3.7978e-01, -4.9507e-01, -1.2417e-01,  2.2067e-01,
         1.7479e-01,  3.1499e-02,  1.4469e-01, -2.5748e-02, -3.2691e-01,
         1.1502e-01,  4.7985e-02, -3.4016e-02, -1.5271e-01, -1.7401e-01,
         2.6077e-02, -4.3193e-01, -8.9613e-02, -3.5054e-01, -5.1726e-02,
         7.9471e-02, -4.0515e-01, -3.2371e-02, -1.1753e-01, -2.1465e-01,
         9.0418e-02, -2.3596e-01,  2.0401e-01, -5.7825e-02,  6.0746e-02,
         1.9546e-01,  9.5212e-02,  1.3351e-01,  6.9417e-02, -1.7689e-01,
        -2.1447e-02,  3.2802e-01, -4.2692e-01,  4.8344e-02, -3.9462e-02,
         1.1748e-01, -2.7646e-01,  4.6691e-01, -1.6077e-01, -2.3635e-01,
         2.3780e-01,  7.0090e-02, -1.6068e-01, -4.1497e-01, -1.9065e-01,
        -2.8983e-01, -5.6946e-02, -3.4306e-01, -2.5052e-01, -3.8211e-01,
        -3.4154e-01, -1.1440e-01,  1.0107e-01,  1.3366e-01,  2.4791e-01,
        -2.4810e-01, -6.0307e-01, -1.0265e-01, -6.1169e-02, -3.3621e-01,
        -4.1853e-01, -1.1360e-01, -3.0957e-01,  1.2265e-02,  8.3314e-02,
        -4.0224e-01, -3.5600e-01, -1.7889e-01, -1.7438e-02, -5.4756e-03,
        -4.3210e-02, -7.5971e-03, -1.8658e-01,  2.0117e-02, -1.1492e-01,
        -4.9449e-01, -5.7602e-02, -1.3173e-01,  1.6531e-01, -1.2844e-01,
         4.0247e-01, -2.1569e-01, -1.7271e-01, -1.3184e-01,  3.6187e-02,
        -2.2340e-02, -2.1985e-01, -1.4861e-01, -4.7715e-01, -1.0346e-01,
        -2.2269e-01, -1.5043e-01, -1.3704e-02, -4.6907e-01, -5.5833e-02,
        -2.5458e-01, -2.3593e-01, -2.6470e-01, -5.6817e-01, -3.2607e-01,
        -2.6392e-01, -1.4867e-01, -3.2780e-01,  2.8457e-02, -1.4669e-01,
        -1.3222e-01, -4.2674e-01, -1.1236e-01, -1.5534e-01,  4.7530e-02,
        -1.0390e-01, -1.4729e-01, -2.1716e-01,  1.1384e-02, -8.6967e-02,
         9.8154e-02, -7.3589e-03,  1.3201e-01,  1.8532e-01,  8.2837e-02,
        -3.3468e-01, -5.5302e-02])
mlp.net.2.batch_norm.running_mean tensor([ 3.1352,  3.0876,  6.8290,  4.8049,  2.2027,  3.4655,  5.7647,  5.4608,
         3.4929,  2.6799,  4.2986,  7.9037,  3.5056,  2.9353,  2.6747,  6.9387,
         3.9877,  5.1270,  4.0985,  6.2934,  3.7193,  4.4890,  8.5084,  3.4527,
         2.3316,  3.0828,  3.6318,  3.1361,  3.8278,  3.8922,  2.7067,  4.8185,
         4.0662,  4.6054,  2.8587,  3.7867,  6.3846,  2.7281,  4.0833,  2.7346,
         6.5332,  3.4587,  3.8353,  3.5084,  3.7610,  4.4196,  3.7534,  3.4744,
         3.6643,  3.0722,  3.6796,  4.2550,  2.9482,  4.4445,  4.9745,  3.7633,
         2.4831,  4.5663,  3.3879,  2.4882,  2.8080,  3.1774,  4.7868,  5.4142,
         3.8683,  6.6510,  3.5753,  4.9190,  3.1322,  3.1600,  4.1108,  3.3959,
         3.6202,  2.9213,  4.8279,  6.4547,  3.0632,  3.9591,  3.1635,  4.4134,
         4.1613,  3.8688,  2.8290,  2.9564, 10.1988,  3.9473,  7.0523,  5.9934,
         5.6583,  3.9485,  3.2130,  3.5300,  3.2279,  3.8475,  3.9177,  3.5409,
         5.9792,  3.1954,  3.7543,  4.8943,  2.9302,  3.8936,  3.2945,  3.4501,
         6.5351,  2.6901,  3.8329,  3.4404,  2.8151,  4.3606,  3.6480,  4.0615,
         2.7486,  5.5961,  3.3074,  3.2125,  7.3274,  3.7035,  3.9636,  2.0514,
         4.6777,  3.1480,  4.9640,  3.8140,  5.2507,  3.1802,  3.2781,  3.2858,
         3.4415,  4.3703,  3.6583,  2.8327,  2.6638,  3.3833,  3.3332,  2.7351,
         6.5155,  3.6798,  3.6711,  2.9982,  3.5571,  3.6917,  3.6375,  3.0276,
         4.2324,  4.9852,  2.9546,  3.9570,  3.5880,  3.4430,  3.2582,  3.4080,
         3.6203,  3.8209,  7.8974,  7.4630,  2.8203,  2.9251,  7.2244,  3.8783,
         3.9450,  3.5851,  3.6278,  5.2839,  3.0934,  3.5558,  2.6479,  6.9358,
         3.6850,  7.4572,  3.2412,  2.4604,  2.0885,  6.6277,  3.9797,  5.8337,
         8.1324,  4.6995,  3.6576,  2.8222,  4.5557,  3.4048,  3.8163,  3.1851,
         7.2870,  7.2849,  3.0583,  2.2824,  4.3756,  3.0569,  3.4264,  4.3132,
         2.6137,  3.8603,  3.6286,  4.4034,  7.4824,  2.5843,  4.4887,  2.5615,
         3.5627,  5.5537,  4.7605,  3.0266,  3.1585,  3.4658,  5.1073,  3.8112,
         3.5605,  7.9564,  3.1882,  3.3818,  3.9190,  3.8359,  3.9780,  3.5017,
         2.8408,  2.9496,  3.9691,  2.9976,  4.0381,  4.1034,  7.1929,  3.4399,
         3.6847,  3.0146,  5.3297,  3.2674,  2.6364,  3.6820,  4.5740,  3.7223,
         5.5310,  3.3497,  6.5267,  3.2083,  3.3682,  3.7057,  7.8367,  3.6435,
         5.1582,  4.4775,  7.0978,  3.9768,  2.9266,  4.5638,  3.3067,  3.6019,
         3.0858,  5.5317,  2.3099,  5.6636,  4.8390,  4.0973,  3.9686,  3.9273,
         3.5980,  3.0615,  3.0514,  2.8598,  3.8684,  4.1150,  5.0164,  3.5539,
         2.9493,  2.6378,  4.6200,  8.7667,  5.9150,  6.5804,  4.8854,  4.1671,
         4.3998,  9.7754,  4.8027,  3.5427,  3.9261,  4.3014,  2.7204,  8.2545,
         6.0009,  7.1243,  2.8630,  4.0091,  3.5354,  3.7120,  2.4748,  3.0353,
         2.9209,  3.4817,  3.2821,  4.0453,  4.0108,  5.2262,  3.5918,  5.6173,
         4.1946,  2.1902,  3.4729,  3.3638,  5.1623,  6.6601,  4.5519,  4.1910,
         4.2892,  4.6876,  3.9781,  5.7492,  6.7662,  3.7487,  6.0674,  3.0048,
         5.7322,  4.1689,  4.2868,  4.6075,  5.0803,  3.3579,  3.1618,  3.0139,
         5.6465,  2.5204,  7.3977,  3.2320,  2.8435,  8.4038,  3.1840,  3.1014,
         4.3322,  3.4378,  5.2207,  3.7291,  3.0461,  3.9689,  4.2030,  2.7825,
         3.8613,  3.6268,  3.5083,  3.8063,  3.5689,  3.2217,  4.8323,  2.9413,
         3.6526,  3.3627,  7.5222,  4.0335,  4.7331,  3.9048,  3.4144,  3.1493,
         5.6561,  4.0399,  5.8657,  6.8344,  4.2729,  3.2453,  2.9753,  3.8183,
         3.9504,  3.7056,  5.3572,  3.5479,  3.8454,  4.0866,  3.0563,  3.1831,
         2.6332,  6.0987,  3.9320,  3.0835,  2.7538,  4.0782,  2.7475,  2.6581,
         3.4252,  2.9744,  2.7608,  2.6284,  3.3211,  4.1758,  8.3398,  3.4818,
         5.6065,  3.5133,  2.7464,  3.5395,  3.6724,  6.5422,  5.0494,  4.4687,
         2.7837,  3.2053,  4.3850,  4.2702,  3.9190,  6.1314,  4.2260,  3.5663,
         7.6856,  4.2601,  4.8331,  4.3077,  3.8882,  4.4059,  3.1642,  4.6550,
         3.3933,  7.0967,  3.5204,  3.7272,  3.5178,  3.2558,  5.2087,  2.7636,
         3.5974,  5.1733,  4.7204,  3.3696,  3.3922,  5.1877,  3.8404,  3.4807,
         4.0944,  4.8313,  4.3543,  5.9265,  3.0334,  3.8309,  8.3594,  4.4017,
         3.4832,  3.6805,  3.8723,  3.9916,  2.7677,  3.4058,  3.6503,  3.0667,
         3.5453,  3.8077,  7.1368,  5.4689,  4.1672,  3.3731,  3.4671,  6.8311,
         7.1249,  3.4466,  3.5407,  5.5506,  4.1223,  2.4232,  6.1491,  2.7176,
         3.0055,  4.1291,  2.9248,  2.4125,  2.6387,  7.0933,  3.5423,  5.5604,
         4.3286,  4.1112,  1.8501,  4.2739,  2.7914,  4.5663,  3.4185,  3.6777,
         3.8015,  6.4420,  5.3681,  3.8061,  3.5953,  7.4830,  3.4827,  4.7828,
         5.2073,  3.2991,  8.3377,  3.3632,  5.6031,  6.2186,  4.8949,  3.0994,
         3.9314,  3.0843,  6.5916,  3.5268,  3.1559,  3.2380,  5.2443,  4.7677,
         3.2093,  3.0972,  5.6119,  3.4728,  3.6082,  4.3081,  3.2033,  7.6635,
         2.6925,  2.6455,  3.8645,  4.2514,  2.8227,  6.5889,  4.5965,  3.2754])
mlp.net.2.batch_norm.running_var tensor([ 70.2500, 157.6606,  68.0821,  39.3940,  91.8127,  35.1238,  47.1557,
         65.8742,  71.4132,  79.4748, 253.8758,  55.1404,  22.7570, 138.2420,
         21.2600,  58.7372, 177.7138,  46.9693, 249.2658,  63.5426, 184.8410,
         97.8230, 112.6931, 208.4446,  22.8555,  31.0494, 215.2324, 116.0325,
         64.4438, 207.6603,  65.7895,  45.7546,  38.1799,  27.1651, 133.2065,
        102.4767,  33.2908,  77.3491, 236.9824, 162.3951,  86.6572, 196.7874,
        225.8029, 119.9107, 148.8694,  44.7405, 161.5874,  34.6931, 131.5382,
         24.1658,  40.6678,  27.0386, 129.1651, 301.3406,  78.9214, 226.7458,
         53.2838, 279.5145, 157.0968,  15.8293, 131.9643, 106.9967,  58.2980,
         69.6126,  50.9715,  97.5572, 128.6312,  45.0536,  96.9383, 151.5220,
         28.7728,  28.3886, 177.1985,  26.2434,  27.7824, 106.9250, 151.1241,
        239.0884, 102.8449, 326.3450, 213.1373, 157.2236,  44.1587, 161.3427,
         66.6285, 140.6585,  60.3780,  47.9516,  31.7445, 245.7957, 146.0432,
        189.3037,  92.8611, 211.0267,  75.4519, 136.6402,  70.4279, 193.6275,
        100.3192,  52.6880,  52.8731,  53.2937, 165.0806,  20.4741,  61.5327,
         37.0459, 265.6714, 199.6563,  50.4751,  53.9961, 174.4393, 141.4102,
         22.6989,  51.3968, 178.3410, 146.7066,  90.1619, 192.4021, 296.4780,
         46.5972, 278.8562, 120.3739, 322.9448, 243.8463,  62.6085, 110.8980,
         53.2690, 192.9845, 110.9380,  87.6351, 198.5574,  44.7788, 116.0084,
        190.1283,  25.5488,  66.9064,  31.6083, 136.6632, 133.1219, 109.8303,
        205.7532, 195.6457, 140.3817,  27.5889, 255.8129, 177.8261,  82.1144,
        108.1063,  90.2269, 214.8902,  36.7237, 104.8041, 216.5466, 280.5621,
         50.4436,  58.5905,  64.7387,  86.5434,  75.4606,  86.4531,  97.2062,
         74.1987, 138.5728,  71.0867, 104.4353, 232.7442, 115.6001,  75.6327,
        130.7916, 102.0351, 107.0179,  42.7518,  27.0735,  96.9192, 217.3219,
         54.6812,  74.5125,  32.1423, 192.2410,  55.8003,  26.8931, 117.0535,
        153.8933, 101.4463,  34.5575,  49.8306, 118.1288,  15.2567,  58.0188,
        117.6784,  40.5601,  30.8169,  35.8232, 175.7879, 130.4201, 246.6823,
        104.6046, 109.2140,  30.0621,  43.9296, 147.3602,  51.2052, 228.4358,
        161.2733,  72.6456, 182.2415,  40.5698, 187.5157, 159.4922,  77.1160,
        195.2451, 117.7671, 225.7672, 234.4247, 168.3041, 161.2199,  57.7594,
         91.7971,  35.0868,  32.4890, 280.5146, 236.0374, 106.1581, 180.9370,
        139.3433,  89.4198,  49.5227, 150.8152,  58.3387, 182.0711, 153.1425,
        199.1105,  80.6599, 204.8875,  97.8533, 166.4872,  84.0238, 157.5415,
         64.9945, 216.4841,  62.7847,  28.7242,  53.0880,  47.3337, 127.3253,
         38.6520, 106.9498, 108.8125,  89.9838,  67.8394,  84.3929,  36.6184,
         34.6443,  31.5127, 231.6118,  95.2882, 185.1598, 115.8675, 177.7504,
         58.7250,  58.2112, 197.6487,  46.2669, 112.5616, 116.5081,  25.0211,
         53.3150,  52.5223,  42.1679,  79.9563, 372.8342,  37.2704,  59.7521,
         62.8308,  68.1910,  48.3610, 125.4134,  31.7631,  50.9310,  96.9991,
         66.6748,  64.2391,  38.8530, 144.9225,  28.1354,  54.5613, 119.2611,
         88.1281,  39.5096, 153.5934, 125.9105, 242.1467, 186.4626,  40.6654,
        176.0916,  51.4648, 267.5733,  78.6178,  33.9504, 175.0770,  55.0241,
         73.4795,  49.9727,  53.1159,  62.6433, 292.2096, 257.0092,  34.1219,
         68.2090, 169.2793,  29.3091, 115.0847,  55.0339,  24.3602,  26.9074,
        115.5345,  54.5587, 138.6373,  29.7730, 135.4966,  45.8062,  33.5996,
        101.7594, 198.1336, 104.3225,  82.9888,  84.5237, 144.0313, 318.0914,
         94.4975, 158.3701, 216.8679,  34.1816,  31.6358, 144.2719, 116.7778,
        233.1045,  38.0118, 148.4433,  31.9488, 176.3202, 151.5304,  40.2929,
        113.2119,  31.5226, 144.9052,  58.9554,  95.0821,  35.2377,  97.8970,
        201.8972,  53.6104,  53.0368,  42.7432,  60.1483,  44.4816,  52.0024,
        166.3657, 117.8300, 225.9718, 178.7776, 242.0137,  65.1030, 199.4999,
        171.2289,  32.1722, 126.0134,  20.8677, 110.6726,  36.6557, 207.9149,
         58.3883, 120.5081, 127.2949, 111.7844,  82.2542,  24.0911,  18.1886,
         78.4275,  54.3670,  22.7929, 250.6715,  79.0269,  28.1595,  43.5633,
        249.6643,  58.3053,  36.4274, 177.4607,  40.9263,  43.2975, 157.7717,
         69.1386, 103.1470,  51.7239,  45.6022,  75.6813,  37.7185,  55.5561,
        195.3971,  75.5582, 303.2802,  31.4897, 142.3112, 211.4053,  82.6282,
        148.7571, 148.0746, 129.4855,  68.1317,  84.8620, 207.3367, 134.7544,
         72.9029,  37.4133, 124.4057, 196.5769,  80.5953,  25.9293, 137.3789,
        127.9123,  44.5359, 229.9130, 166.8895,  76.7975,  69.2655,  32.3334,
         40.5560, 105.4463, 202.8173,  45.2836,  57.0339, 161.8809,  55.6082,
        208.9793,  74.1173,  47.0756, 170.5663, 166.8724, 157.0540, 185.0107,
        190.2307,  62.7533, 137.8775,  47.3654, 125.5134, 205.0003,  55.4963,
         56.5931,  92.0351, 216.4743,  67.5840, 222.8506,  27.2902,  52.5290,
        121.5073, 168.6721,  39.8249, 116.2890,  73.4215,  44.7669,  48.9308,
         30.8828,  39.7587, 286.8296,  92.3077,  27.6246, 111.1109,  78.2109,
         43.8016,  45.1319, 188.0572, 209.9138,  97.2624,  69.0979, 222.1243,
        160.1293,  57.6206,  86.4158,  34.3322, 203.0943,  26.5536,  80.1388,
         46.8477,  37.4917,  42.1978,  45.6036, 167.7303, 216.8454, 175.7033,
         57.8573,  61.6264, 155.6753, 152.5468,  30.4068,  47.4888, 112.8731,
        127.2126,  54.9990, 178.8102, 104.0140, 276.0389, 178.0639,  51.5048,
         45.1650,  24.5260,  82.2564,  68.7150,  50.8782,  59.6819,  69.2871,
        156.7944])
mlp.net.2.batch_norm.num_batches_tracked tensor(936)
mlp.net.3.linear.weight tensor([[-0.0651,  0.0381,  0.1237,  ...,  0.2467,  0.0916, -0.0783],
        [ 0.0869, -0.0228, -0.1487,  ...,  0.0274, -0.1060, -0.1375],
        [-0.1238, -0.2292, -0.1080,  ...,  0.0422,  0.2155,  0.2144],
        ...,
        [-0.1306, -0.0017, -0.0210,  ..., -0.1689, -0.0906, -0.1004],
        [ 0.0959,  0.2572,  0.1686,  ..., -0.0888,  0.0155,  0.1289],
        [ 0.0645,  0.1060, -0.0586,  ...,  0.0587, -0.0240,  0.0230]])
mlp.net.3.linear.bias tensor([-3.4509e-01, -3.7436e-01, -2.7144e-01, -1.0467e-01,  1.5272e-01,
        -3.5142e-01, -3.3120e-01, -4.7801e-01, -2.1649e-01,  4.4245e-01,
        -5.2821e-01, -1.2822e-01, -1.2814e-01, -2.7783e-01, -2.1592e-01,
        -2.6104e-01,  2.5550e-01, -1.8765e-01, -3.0591e-01, -2.4701e-02,
        -9.3420e-02, -4.2622e-01, -3.0233e-01, -1.0055e-01, -2.7479e-01,
         3.3965e-02, -2.7176e-01,  3.0701e-01, -2.0241e-01, -2.5797e-01,
        -9.6256e-02, -1.2688e-01, -1.5497e-01, -2.5618e-01, -5.0061e-01,
        -3.8752e-01,  9.4012e-02, -1.7488e-02, -3.5631e-01, -5.1573e-02,
        -7.5139e-02,  1.3633e-01, -3.7927e-01, -1.8673e-01,  3.9984e-01,
        -2.8377e-01, -6.3870e-01, -1.2464e-01,  4.9653e-01,  4.3979e-02,
        -7.9137e-03, -1.5050e-01, -1.1009e-01, -3.0954e-01, -1.2607e-01,
         1.1764e-01, -2.8530e-01, -3.2929e-01, -4.3055e-01, -8.0969e-02,
         5.6577e-02, -3.7682e-02, -1.1878e-01,  1.2595e-01, -3.9698e-01,
         2.4125e-01, -3.4662e-01, -8.4827e-02, -1.5323e-03, -1.9549e-01,
        -1.1479e-01,  1.0563e-01, -1.3621e-01, -3.1813e-01, -1.1134e-01,
        -7.7509e-02, -3.9252e-01, -1.9841e-01, -3.1525e-02, -9.2356e-02,
        -1.4743e-01, -9.2853e-02, -1.7749e-01, -1.9847e-01, -2.7156e-01,
         5.4617e-02, -3.1363e-01,  2.7412e-01,  1.6638e-01, -8.7118e-02,
        -2.9645e-01,  8.7828e-02, -4.7161e-01, -9.2233e-02,  1.5070e-01,
        -9.6926e-02, -1.8796e-01, -2.0920e-01,  3.5158e-01,  3.2894e-01,
        -2.7329e-01, -2.4365e-01,  7.3847e-02, -1.3901e-01, -9.4052e-02,
        -1.4218e-01, -1.7247e-01, -1.4041e-01, -2.5819e-01, -2.1793e-01,
        -3.3397e-02, -1.5566e-01, -1.9377e-01,  1.3098e-01,  1.4755e-01,
        -9.9904e-02, -8.1519e-02, -1.1555e-01, -7.1586e-02, -1.0596e-01,
        -1.7539e-01, -3.7937e-01,  5.2127e-02,  1.3955e-02, -9.7451e-02,
        -1.7698e-01, -2.5835e-01, -1.2883e-01,  3.0432e-01, -2.4486e-01,
        -9.9393e-02,  2.4704e-02, -1.8833e-01, -1.2600e-01, -6.2159e-02,
         1.8403e-01, -2.6111e-02, -2.5090e-01, -3.6302e-01,  3.2595e-02,
        -3.0387e-01,  2.4878e-01, -2.5258e-03,  1.8696e-01,  3.2041e-01,
         2.3445e-01, -4.5261e-01, -1.8149e-01,  1.5875e-01, -1.0944e-01,
        -2.0758e-01, -3.2292e-02, -1.6838e-01, -3.8837e-01, -1.1730e-01,
        -1.1269e-01,  2.6507e-02, -2.9078e-02, -3.1278e-01, -3.4338e-02,
        -2.6304e-01, -3.2698e-01, -7.2849e-02,  4.2332e-02, -2.6662e-01,
        -2.0655e-01, -4.4120e-02,  9.9987e-02, -3.6367e-01, -2.9091e-01,
        -1.9550e-01, -1.4210e-01, -2.9109e-01, -4.5283e-01, -2.3182e-01,
        -2.4645e-01, -1.6006e-01, -2.0656e-01, -6.6703e-02, -3.4051e-01,
         1.1511e-02, -9.8914e-02,  3.3378e-01, -2.3528e-01, -2.4495e-01,
        -1.8328e-01,  1.8201e-01,  2.5709e-01, -1.3244e-01, -2.2472e-01,
        -2.4021e-01, -7.9650e-03, -4.1015e-01, -1.8571e-01, -3.1667e-01,
        -1.4880e-01, -1.4524e-01,  1.9181e-01, -1.8663e-01,  1.5026e-01,
         5.7188e-02, -1.1656e-01,  1.8231e-02,  8.9309e-02, -4.4114e-01,
        -2.1099e-01, -4.2460e-02, -2.2810e-01, -1.0403e-02, -3.1512e-01,
        -9.9209e-02, -1.5843e-01, -1.4621e-01, -1.8294e-01, -3.7125e-01,
         2.3541e-02,  1.1748e-01, -1.8382e-01, -5.2987e-01, -6.6766e-03,
         5.2367e-02, -2.8830e-01, -3.9653e-01, -4.1210e-02,  2.1740e-01,
        -1.0394e-01, -2.3192e-01, -2.8513e-01,  6.2881e-04, -8.9945e-02,
        -2.5292e-01, -4.2646e-01, -1.0444e-01, -1.0003e-03,  3.2676e-02,
        -1.5269e-02, -1.5403e-01,  9.6369e-02, -2.1518e-01, -3.1103e-01,
        -3.0311e-01, -8.2367e-02,  9.3825e-02, -3.6165e-01, -1.9005e-01,
        -3.1274e-01,  4.2788e-02, -1.9559e-01, -3.8908e-03, -2.1401e-01,
         2.0900e-01, -1.5660e-01,  1.3841e-01, -4.7487e-02, -1.2354e-01,
        -2.2821e-01, -3.2628e-01, -3.6753e-01,  4.3838e-02,  3.8060e-02,
        -3.4179e-01, -5.0076e-02, -2.9737e-01, -1.3448e-01,  5.7987e-02,
        -4.1621e-01,  8.8451e-02, -3.5345e-01, -3.2290e-02, -9.1758e-02,
        -1.3612e-01, -7.8066e-02, -1.0752e-01,  9.6570e-02,  2.3282e-01,
         1.8100e-01, -3.0310e-01,  5.5845e-02, -3.1377e-01,  1.7849e-01,
        -3.8166e-01, -2.8720e-01, -4.7286e-02, -1.8339e-01, -4.7220e-02,
        -3.2765e-01, -1.4326e-01, -1.6962e-01, -2.3147e-01, -4.4748e-02,
         9.5425e-02,  8.0251e-02, -2.1370e-01, -1.6078e-01,  1.9109e-01,
        -1.3585e-01, -1.8777e-01,  1.6280e-01,  1.2001e-01, -2.1612e-01,
        -3.0593e-01,  8.0233e-02, -2.8916e-01,  7.8671e-04, -5.5840e-02,
        -2.9008e-01, -9.0169e-03, -1.7803e-01, -1.1866e-01, -2.1770e-01,
        -1.6599e-01, -3.4503e-01, -2.6124e-01, -1.1835e-01,  2.2274e-01,
         1.7694e-01, -3.6399e-01, -4.0391e-01, -7.8144e-02, -1.1356e-01,
        -1.3581e-01, -1.9232e-01,  8.1767e-02, -1.8080e-01, -2.4199e-01,
        -3.6007e-01, -2.7898e-01, -2.3075e-01, -1.3668e-01, -9.5675e-02,
        -1.3409e-01, -3.9520e-01,  6.6413e-02, -1.6516e-01, -4.7741e-02,
        -3.0640e-01,  3.3268e-01,  3.2157e-01, -1.8133e-01,  2.6881e-01,
        -1.7840e-01, -1.6046e-01,  2.2372e-01, -3.6998e-01, -1.1846e-01,
        -3.4169e-01, -1.6082e-02, -3.6585e-01, -2.7097e-01, -3.3140e-02,
        -1.6498e-01, -3.3739e-01, -3.0832e-01, -1.3843e-01, -3.1259e-01,
        -1.7738e-01, -2.3754e-01,  4.3964e-02, -1.7065e-01, -4.4804e-02,
        -1.7029e-01, -4.4048e-01,  1.8061e-01, -1.4389e-02, -4.0521e-01,
         1.2565e-01, -2.2771e-01, -1.2889e-01, -1.5315e-01,  6.2433e-03,
        -9.2852e-02,  2.5113e-01, -1.7768e-01, -1.4947e-01,  9.9226e-02,
        -3.6219e-01,  4.1015e-01, -1.6800e-01, -3.2544e-01,  1.8772e-02,
         4.9480e-02, -3.7113e-01, -4.8972e-01, -2.6889e-01, -4.7666e-02,
        -3.3082e-01, -4.6679e-02, -3.7433e-01,  3.7585e-03, -2.1548e-01,
        -3.7873e-01, -3.2575e-01,  5.3478e-02, -1.6988e-01, -1.9221e-01,
        -9.1834e-02,  1.6288e-01, -5.0491e-02, -4.1091e-01, -1.2749e-01,
         3.3559e-02, -3.5523e-01, -3.3246e-01, -1.6563e-01,  2.2771e-01,
        -1.0406e-01, -2.5525e-01, -2.6708e-01,  2.2320e-01, -1.5358e-01,
        -2.8233e-02,  2.9932e-01, -2.0035e-02,  1.5578e-01,  3.7007e-01,
        -1.7657e-01,  4.5331e-01, -1.7826e-01, -3.7871e-01, -2.9213e-02,
        -2.4836e-01, -5.9605e-02, -5.1539e-02,  1.9878e-01, -1.2900e-01,
        -7.7279e-03,  3.6115e-01, -3.3892e-02,  1.9687e-01, -2.2795e-01,
        -2.0011e-01, -2.0575e-01, -2.2038e-01, -3.0931e-01, -1.8942e-01,
         2.0458e-01, -1.5656e-01,  2.2844e-01,  4.5086e-01, -3.5666e-01,
         9.2229e-02, -3.3840e-01,  3.6733e-02, -3.0534e-01, -2.6823e-01,
         4.2193e-02, -3.3568e-03, -9.7994e-02,  7.7284e-02, -3.1913e-02,
         6.3584e-02, -7.9823e-02,  3.4870e-02, -1.8738e-01,  2.1923e-02,
        -4.4931e-01, -8.1593e-02, -1.5930e-01, -1.1892e-02,  1.5014e-01,
        -1.6479e-01, -2.0782e-01, -5.9955e-01, -4.3767e-01, -2.7757e-01,
         1.9543e-01, -1.4089e-01, -2.4795e-01,  2.0524e-01, -2.9817e-01,
         1.6820e-01, -2.5994e-01, -3.8300e-01, -1.9037e-01, -4.5409e-01,
        -8.3502e-02,  5.2701e-01,  2.1063e-01,  4.6787e-03, -1.1889e-01,
        -2.9838e-01, -8.9080e-02, -1.8948e-01, -3.0945e-01, -4.3388e-01,
        -3.2484e-01,  9.3099e-02, -4.5596e-01, -2.8049e-01, -7.9771e-02,
         1.6417e-02,  1.7850e-01, -1.6452e-01, -2.0257e-01, -3.6313e-02,
        -2.1350e-01, -4.5539e-01,  1.9939e-01, -3.0458e-01,  2.5816e-03,
         1.7777e-01,  7.9502e-02, -2.5689e-01,  5.8157e-02, -3.0156e-01,
         1.9006e-01, -1.7618e-01, -9.7807e-02, -3.7738e-01, -1.6389e-01,
        -3.2354e-02, -2.9125e-01])
mlp.net.3.batch_norm.weight tensor([ 0.4320,  0.3480,  0.3833,  0.2331,  0.4287,  0.5630,  0.4281,  0.5008,
         0.3882,  0.2341,  0.7843,  0.5384,  0.2532,  0.5922,  0.2612,  0.5166,
         0.0905,  0.6444,  0.5051,  0.3479,  0.3588,  0.2801,  0.1580,  0.1561,
         0.5860,  0.3257,  0.4467,  0.2932,  0.3523,  0.5196,  0.8781,  0.2982,
         0.2163,  0.3809,  0.3036,  0.5059,  0.2732,  0.3194,  0.3279,  0.3955,
         0.6165,  0.6089,  0.4005,  0.4146,  0.1968,  0.6139,  0.5453,  0.1992,
         0.1907,  0.3213,  0.2705,  0.4195,  0.2187,  0.6652,  0.6472,  0.1176,
         0.2199,  0.2449,  0.5652,  0.1628,  0.2137,  0.3923,  0.6979,  0.1263,
         0.3440,  0.2113,  0.3837,  0.1860,  0.2182,  0.8899,  0.1787,  0.1796,
         0.3785,  0.4321,  0.1833,  0.4378,  0.6698,  0.3773,  0.1662,  0.5924,
         0.3603,  0.2516,  0.4926,  0.7272,  0.5911,  0.2597,  0.2997,  0.3102,
         0.2336,  0.4650,  0.4964,  0.3498,  0.3505,  0.1519,  0.1571,  0.3786,
         0.6803,  0.5676,  0.3751,  0.0374,  0.3127,  0.5919,  0.1709,  0.2861,
         0.4835,  0.2665,  0.3653,  0.4718,  0.3600,  0.3469,  0.0680,  0.2922,
         0.4261,  0.0744,  0.4745,  0.3016,  0.2607,  0.3652,  0.1826,  0.2779,
         0.4856,  0.9199,  0.4491,  0.2504,  0.2311,  0.3198,  0.4554,  0.2424,
         0.2655,  0.2558,  0.4576,  0.1312,  0.8316,  0.1683,  0.3456,  0.1485,
         0.0233,  0.5137,  0.4464,  0.4059,  0.3922,  0.5001,  0.2451,  0.1566,
         0.1224,  0.2636,  0.4513,  0.3929,  0.0913,  0.3018,  0.4220,  0.6702,
         0.3508,  0.4425,  0.5397,  0.4085,  0.5271,  0.4756,  0.7039,  0.3533,
         0.5235,  0.5093,  0.4537,  0.5571,  0.3881,  0.2976,  0.0506,  0.2946,
         0.4264,  0.2349,  0.4680,  0.2853,  0.3784,  0.5990,  0.3558,  0.5959,
         0.3263,  0.2339,  0.1196,  0.5282,  0.5145,  0.3950,  0.1036,  0.4045,
         0.4472,  0.6975,  0.2488,  0.0276,  0.3463,  0.3753,  0.8649,  0.5257,
         0.2978,  0.4539,  0.4277,  0.2863,  0.4610,  0.2203,  0.5385,  0.1960,
         0.5705,  0.3945,  0.2799,  0.1644,  0.3994,  0.5059,  0.5244,  0.5271,
         0.4852,  0.6029,  0.4650,  0.3474,  0.2606,  0.3458,  0.3781,  0.5169,
         0.1681,  0.3185,  0.5652,  0.5831,  0.5481,  0.4211,  0.5747,  0.4068,
         0.1899,  0.4756,  0.2329,  0.2761,  0.4057,  0.2594,  0.2636,  0.3125,
         0.4441,  0.1733,  0.4284,  0.2028,  0.3024,  0.5773,  0.6143,  0.3957,
         0.6615,  0.2282,  0.3853,  0.4385,  0.4530,  0.6073,  0.1182,  0.3716,
         0.6569,  0.3954,  0.3122,  0.1215,  0.1977,  0.3988,  0.5519,  0.3237,
         0.2737,  0.8622,  0.3536,  0.2314,  0.5435,  0.5422,  0.5642,  0.2603,
         0.2300,  0.5112,  0.1950,  0.3586,  0.3412,  0.3661,  0.2462,  0.4254,
         0.4891,  0.4132,  0.1202,  0.2065,  0.5050,  0.4492,  0.5098,  0.3826,
         0.4398,  0.5056,  0.2172,  0.3173,  0.3222,  0.7441,  0.5906,  0.4863,
