Weights: 
net.embeddings.embeddings.0.weight tensor([[-0.0589, -0.0665],
        [-0.1929, -0.0905],
        [ 0.1716, -0.0439],
        [-0.0541,  0.3219]])
net.embeddings.embeddings.1.weight tensor([[ 0.0195,  0.0128],
        [ 0.2790, -0.1716],
        [-0.0800, -0.1752],
        [-0.0705,  0.0995],
        [-0.0782,  0.0698]])
net.embeddings.embeddings.2.weight tensor([[ 0.0270, -0.0419, -0.0250],
        [-0.0128, -0.1582,  0.1130],
        [-0.0215, -0.1697,  0.0222],
        [ 0.0855,  0.1052,  0.0972],
        [ 0.0047,  0.1147, -0.0351],
        [-0.0891, -0.0799, -0.0465]])
net.embeddings.embeddings.3.weight tensor([[ 0.0488, -0.0222],
        [-0.2274, -0.2146],
        [ 0.0430, -0.0442],
        [ 0.2138,  0.2480]])
net.embeddings.embeddings.4.weight tensor([[ 0.0138,  0.0394],
        [ 0.1899, -0.2409],
        [-0.2078,  0.0880],
        [ 0.0561, -0.0079]])
net.mlp.net.0.linear.weight tensor([[ 0.0306,  0.0078, -0.0048,  ...,  0.1288, -0.1182,  0.0754],
        [ 0.0559, -0.0454, -0.0203,  ..., -0.0661,  0.1721, -0.1628],
        [-0.1357, -0.0449,  0.0473,  ..., -0.1054,  0.1692, -0.1096],
        ...,
        [-0.0461,  0.0822, -0.0453,  ...,  0.0057,  0.0353, -0.0043],
        [-0.0512,  0.1334,  0.0301,  ..., -0.0593, -0.0471, -0.0021],
        [-0.0398, -0.0203, -0.0223,  ...,  0.0093,  0.0189,  0.0156]])
net.mlp.net.0.linear.bias tensor([ 6.4886e-02,  1.1513e-02, -2.3107e-02,  8.6212e-03,  5.6608e-02,
         6.7234e-02, -1.7721e-02, -3.6813e-02, -1.6559e-02,  3.4996e-03,
         2.4916e-02,  1.0299e-01, -4.9602e-02,  5.0382e-02, -6.8120e-02,
        -5.3301e-02, -2.2970e-02,  7.9001e-02, -1.1720e-01, -6.5696e-02,
        -3.8605e-02,  1.8515e-02, -2.3861e-02,  4.5419e-02,  2.3200e-02,
         6.0872e-03,  4.2743e-02,  4.6517e-02,  3.1568e-02, -1.5244e-03,
        -3.4416e-02,  5.5150e-03,  4.7712e-03,  1.6352e-01, -4.2567e-03,
         1.3448e-01,  4.9519e-02,  2.1220e-02,  4.5729e-02, -2.4932e-02,
         5.9073e-03,  1.2891e-03, -7.2166e-02,  4.1741e-02, -4.6450e-02,
        -9.1933e-02, -6.2674e-03, -1.2270e-02, -1.4804e-02, -9.7696e-02,
         6.3365e-02,  3.3770e-02,  2.3656e-02, -2.2769e-02, -6.0057e-02,
         6.0036e-02,  1.6115e-04,  3.0759e-02,  2.5466e-02, -4.9344e-02,
         8.6682e-02,  4.5067e-02,  3.3844e-02,  1.9868e-02,  2.6487e-02,
         6.9657e-02, -9.4280e-02, -4.9361e-02, -4.0430e-03,  3.4965e-02,
         1.3656e-02,  9.5568e-02,  2.9264e-02,  6.6551e-02,  1.8465e-02,
         2.9147e-02,  5.6759e-02,  4.0190e-02,  5.8738e-04, -6.2421e-03,
        -2.2859e-02, -1.6181e-01, -4.5368e-02, -4.6212e-02, -1.9337e-02,
         5.4100e-02, -1.2975e-02,  2.8518e-02, -6.7227e-02,  1.6432e-02,
         3.3850e-02, -1.0878e-02,  4.4964e-02, -2.2972e-02,  4.1947e-02,
         7.2396e-02,  1.2219e-02, -6.2417e-02, -2.1785e-02,  1.4197e-01,
        -3.1260e-03, -5.1608e-04, -3.8488e-02,  6.7902e-02, -8.1891e-03,
         7.3952e-02,  2.6100e-02,  3.3155e-02,  1.6502e-02, -7.8919e-02,
        -6.7449e-02, -7.0728e-02,  9.0194e-02, -1.7002e-02,  1.8672e-02,
        -2.1130e-02, -1.7714e-02, -3.9873e-02, -8.7383e-02, -1.3808e-01,
         2.1851e-02,  1.7980e-02,  5.2457e-02, -6.7666e-02,  7.3376e-02,
         1.3001e-02, -3.3241e-02, -1.6248e-02, -6.4113e-02, -1.0348e-02,
        -2.6450e-02, -8.7836e-02, -9.5196e-02, -1.3975e-02, -8.2362e-03,
        -8.1832e-03, -3.8634e-02,  6.1757e-02,  1.3829e-02,  2.3617e-02,
         4.2973e-03, -2.1978e-02, -3.6690e-02, -7.3553e-02, -6.2977e-02,
         1.6783e-03, -3.8895e-02,  4.3322e-02, -2.8867e-02, -7.2381e-02,
         8.0744e-03, -2.7863e-02, -6.7941e-02, -8.8175e-03, -1.2988e-02,
         2.7610e-02, -5.0446e-02, -3.9703e-02, -2.4516e-02,  3.0255e-02,
         9.3503e-04, -6.5073e-02, -6.7512e-03,  3.5321e-03, -8.7384e-02,
        -1.4597e-01, -8.2025e-04,  1.2295e-01,  4.1429e-02, -3.1051e-02,
         1.9061e-02,  3.5448e-02,  2.4565e-03,  9.0759e-02, -4.1437e-02,
         8.5716e-02,  6.7180e-02, -1.8698e-02,  1.4081e-02, -1.0307e-01,
        -1.3151e-02,  4.9512e-02,  7.7028e-02,  1.4260e-02,  1.3119e-02,
         7.6031e-02, -1.6261e-02,  7.1273e-02,  2.1523e-02, -8.8998e-02,
         4.1505e-02, -9.1785e-02, -2.4970e-04, -8.5718e-02,  2.6494e-02,
         2.1347e-02,  8.5403e-03, -4.4182e-02, -5.4812e-03, -6.6190e-02,
         4.8942e-02, -1.6290e-02, -7.2784e-02,  1.2883e-02, -3.1924e-02,
         5.0912e-02,  5.7252e-02, -1.1032e-01,  2.5216e-02,  2.9772e-02,
         8.6923e-03,  4.5414e-02, -5.4522e-02, -3.4778e-03, -4.8847e-02,
         5.7200e-02, -4.7182e-02, -7.3745e-03,  8.6512e-04,  1.5491e-02,
        -4.7393e-02, -9.0119e-02,  8.7738e-02, -3.3436e-03,  1.8469e-02,
         1.0486e-03,  2.7153e-02,  1.7138e-03, -5.0337e-02,  3.5092e-03,
        -6.6353e-02, -2.2717e-02,  5.9788e-02, -3.1796e-02, -3.4263e-02,
         5.7185e-02, -6.6482e-02, -4.8691e-02, -1.3944e-01, -6.7426e-02,
         7.6399e-03, -1.0570e-02, -7.5729e-04, -6.9314e-02,  2.9213e-02,
        -8.5988e-02, -3.2585e-02, -6.3900e-02, -3.7006e-02, -3.5232e-02,
        -1.6951e-02, -1.0025e-01,  4.1816e-04, -4.4372e-02, -4.2139e-02,
        -5.7669e-02,  1.1730e-01, -1.3423e-02, -7.5900e-03,  5.7702e-02,
         6.6553e-02, -7.2314e-04, -2.0021e-02, -1.7244e-01, -4.3455e-02,
         3.9034e-02, -4.9612e-03,  5.9966e-02, -6.8440e-03,  2.4008e-02,
        -2.3130e-02, -5.1705e-02,  3.6666e-02, -1.7097e-02,  3.0855e-02,
         1.2010e-02,  7.8378e-02,  7.2500e-02, -2.8508e-02, -6.7648e-02,
         6.7793e-02, -1.1286e-02, -3.1747e-02,  1.5889e-02,  7.9103e-03,
        -8.5636e-02, -2.2447e-02,  3.7550e-02, -7.7687e-02,  2.5501e-02,
        -1.3897e-02,  4.1443e-02,  6.1958e-02,  3.0753e-03,  9.7500e-03,
         3.6702e-02,  4.7169e-02, -6.2569e-02,  3.0901e-04, -1.3429e-01,
        -1.1096e-01, -1.6449e-01,  5.5776e-02, -1.7874e-02,  1.4033e-03,
        -1.1392e-01, -1.4767e-02, -4.5778e-02,  1.3558e-02, -5.1147e-04,
         6.0464e-02, -6.2369e-02, -7.7804e-02,  3.1963e-02, -9.3775e-02,
         3.6679e-02, -5.1785e-02,  7.0642e-02,  8.2790e-02,  2.6762e-03,
         1.6158e-02,  4.7322e-02, -3.5289e-02,  2.6984e-02,  1.4274e-02,
         1.3687e-02, -5.9936e-03, -5.7121e-02,  1.6117e-02, -1.3269e-02,
        -1.0323e-02,  4.4070e-02, -5.6166e-02,  2.8113e-02,  5.3204e-02,
         7.1996e-02, -6.4023e-02,  6.6868e-02, -3.0563e-02, -2.8132e-02,
         2.6204e-02, -2.9231e-02,  4.5518e-02, -6.1963e-03,  6.0708e-02,
         5.3983e-02,  5.6191e-02,  3.5195e-02,  5.7597e-02, -1.0544e-01,
         8.6010e-03,  1.0110e-01, -6.3689e-02, -3.1558e-03, -7.8468e-04,
        -3.7757e-02, -7.3237e-02,  1.2934e-02, -2.4390e-02,  5.6441e-02,
         4.5855e-02,  3.1242e-04, -8.1084e-02, -3.0187e-02, -1.4060e-01,
        -1.2792e-02,  9.4974e-02, -9.5876e-03,  1.1225e-02, -5.3202e-02,
        -8.0681e-02,  2.6100e-02,  5.0524e-03,  6.2612e-02, -9.7965e-02,
        -1.2131e-01, -1.4559e-02,  5.2033e-02,  1.3651e-02, -8.1200e-04,
        -3.4417e-02, -4.9118e-03,  2.5602e-02, -8.6714e-02,  9.0284e-02,
        -6.3027e-02, -4.5314e-02,  3.3651e-02,  6.4529e-03,  6.0770e-02,
         7.8665e-02,  4.6997e-02, -2.7748e-02, -5.8685e-02,  6.8779e-02,
         5.2429e-02, -2.0477e-02,  6.0180e-03, -3.2161e-02, -5.9881e-02,
         6.7435e-02,  4.4732e-02, -6.6902e-02,  1.3387e-01, -6.9683e-02,
        -6.6640e-02, -1.9816e-02,  1.9752e-02, -2.6747e-02, -4.4115e-02,
        -9.8365e-05,  2.8530e-03, -4.3237e-02,  3.1933e-02,  3.6000e-02,
        -3.8976e-02, -6.7795e-02,  4.8281e-02, -3.7070e-02,  7.5806e-02,
         4.6553e-02,  9.2414e-04, -3.8445e-03,  2.3460e-02, -3.7761e-02,
         5.2469e-02, -5.2264e-02, -7.6931e-02,  4.1150e-02,  5.8723e-02,
        -2.1113e-02, -5.6172e-03,  1.1828e-01,  1.1826e-01, -5.6308e-02,
        -1.1654e-01, -7.2845e-02,  4.7411e-02, -6.5837e-03,  8.9600e-02,
        -1.2893e-02,  3.0295e-02, -3.1494e-03, -1.9784e-03,  4.9764e-02,
         4.0245e-02, -9.9803e-03, -7.2109e-02, -1.4460e-02, -9.6983e-03,
        -1.1176e-04, -9.8240e-02, -3.5987e-02,  4.0246e-02, -6.4358e-02,
        -5.6649e-02, -4.5432e-02,  5.6522e-02, -9.2434e-03, -8.0031e-04,
        -9.2965e-04, -7.4230e-02, -1.2278e-02,  8.2779e-04, -7.3823e-02,
         5.8714e-02,  3.1998e-02, -9.1602e-03, -3.0561e-02, -5.0747e-02,
        -3.0258e-02, -8.8997e-03,  1.6565e-02,  6.0240e-02, -1.5849e-01,
        -2.9782e-02,  2.9702e-02, -4.2278e-02,  4.4418e-02, -7.1583e-02,
        -1.1145e-01, -6.7979e-02,  1.6481e-04,  5.4151e-02, -1.9994e-02,
         3.2232e-02, -3.8063e-02, -6.8726e-02, -3.9529e-02, -3.4244e-02,
         8.7220e-02,  1.5539e-02, -3.4383e-02,  1.2954e-03,  4.1429e-02,
        -7.2569e-02,  4.5659e-02, -1.9780e-02, -5.2164e-02, -1.7098e-02,
         2.2961e-02, -3.3233e-02,  1.8647e-02,  8.3184e-02, -7.0478e-03,
        -1.2683e-02, -8.6634e-02, -5.9099e-02, -3.1283e-02, -4.8697e-02,
         1.4234e-02, -3.0236e-02])
net.mlp.net.0.batch_norm.weight tensor([ 0.0824,  0.1016,  0.2961, -0.0370,  0.1033,  0.0312,  0.0742,  0.0629,
         0.0143,  0.2108,  0.0693,  0.1307,  0.1138,  0.0867,  0.1605,  0.0676,
         0.0018,  0.0957,  0.1040,  0.2192,  0.0517,  0.0180,  0.1547, -0.0150,
         0.0871,  0.1534,  0.0830, -0.0107,  0.0821,  0.1470,  0.1120,  0.0554,
         0.1007,  0.1111,  0.1581,  0.1637,  0.0375,  0.0734,  0.0607,  0.0766,
        -0.0142,  0.1016,  0.1725,  0.0974,  0.1221,  0.1639,  0.0986,  0.0778,
         0.1740,  0.0710,  0.0557,  0.0189,  0.0747,  0.0898,  0.1989,  0.0118,
         0.2133, -0.0239,  0.0043,  0.0978,  0.1311,  0.0912,  0.1232,  0.0547,
         0.2423,  0.1736,  0.1520,  0.2292,  0.1360,  0.0719,  0.0430,  0.0779,
         0.1267,  0.0867, -0.0166,  0.0881,  0.0465,  0.0274,  0.0545,  0.0857,
         0.1973,  0.0940,  0.0871,  0.0945,  0.1097, -0.0087,  0.0912,  0.0768,
         0.1296,  0.1930,  0.2252,  0.1052,  0.2142,  0.0716,  0.1970,  0.1095,
         0.0275,  0.1623,  0.0477,  0.1053,  0.0794,  0.0229, -0.0200,  0.0773,
         0.1196,  0.1124,  0.1451,  0.1315,  0.0562,  0.1155,  0.0433,  0.1847,
         0.0410, -0.0311, -0.0018,  0.0656,  0.2221,  0.1297,  0.1646,  0.1135,
         0.1281,  0.0447,  0.0427,  0.0746,  0.0956,  0.1663,  0.0976,  0.1122,
         0.3329,  0.2081,  0.1713,  0.0679,  0.0725,  0.1165,  0.2602,  0.0049,
         0.0955,  0.1345,  0.0670, -0.0245, -0.0190,  0.1492,  0.1649,  0.1174,
         0.3140,  0.1277,  0.2244,  0.1265,  0.1054,  0.0897,  0.2908,  0.0229,
         0.1294,  0.0209,  0.1327,  0.0236,  0.2728,  0.2071,  0.1425, -0.0024,
         0.0401,  0.1114,  0.1745,  0.1785,  0.1445,  0.2228,  0.0194,  0.2247,
         0.0397,  0.0709,  0.0285,  0.0762,  0.1196,  0.1839,  0.1186,  0.0471,
         0.0154,  0.2208,  0.0973,  0.0393,  0.0679, -0.0272,  0.0785,  0.0006,
         0.0780,  0.1383,  0.1813,  0.1917,  0.1310,  0.1285,  0.1478,  0.0277,
         0.1937,  0.1256,  0.1164,  0.1069,  0.1216,  0.1419,  0.2140,  0.1769,
         0.1101,  0.1013,  0.1140,  0.0595,  0.0690,  0.0575,  0.0954,  0.1065,
         0.1376,  0.2184,  0.0597,  0.0171,  0.2193,  0.0428,  0.1347,  0.0656,
         0.0938,  0.0940,  0.2298, -0.0697,  0.1356,  0.1311,  0.0762,  0.1285,
         0.1490,  0.0594,  0.1630,  0.2024,  0.2028,  0.1071,  0.0975,  0.2174,
         0.2248,  0.1443,  0.1073,  0.0369,  0.1477,  0.1196,  0.1520,  0.0924,
        -0.0361,  0.0197,  0.1034,  0.1131,  0.0085,  0.1726,  0.1610,  0.1103,
         0.0817,  0.1985,  0.1058,  0.1881,  0.0725,  0.2346,  0.1101,  0.0434,
         0.0935,  0.1249,  0.1890,  0.1213,  0.1295,  0.0209,  0.2503,  0.1187,
         0.1190,  0.0185,  0.0777,  0.1307,  0.0577,  0.1134,  0.1434,  0.0770,
         0.0355,  0.0636,  0.1028,  0.0313,  0.1094,  0.1864,  0.0687,  0.1105,
         0.1049,  0.0989,  0.0081,  0.0321,  0.1000,  0.1330,  0.0085,  0.0342,
         0.1166,  0.1155,  0.1110,  0.1666,  0.0698,  0.1154,  0.1511,  0.0883,
        -0.0604,  0.1592,  0.2619,  0.1784,  0.1676,  0.1697,  0.2613,  0.0388,
         0.0538,  0.1209,  0.0415,  0.1532,  0.0243,  0.2155,  0.0252,  0.1401,
         0.0980,  0.0604,  0.1317,  0.1168,  0.0728,  0.0312,  0.0630,  0.0462,
        -0.0145,  0.0144,  0.1120,  0.1046, -0.0061,  0.1379,  0.0705,  0.1107,
         0.0683,  0.1246,  0.1410,  0.0005,  0.0866,  0.0215,  0.1204,  0.0777,
         0.1232,  0.1009,  0.0906,  0.1322,  0.0155,  0.2469,  0.1508,  0.0336,
         0.1618,  0.0453,  0.0363,  0.1314,  0.1132,  0.1706,  0.0674,  0.1199,
         0.0943,  0.1762,  0.1524,  0.0036,  0.0725,  0.1648, -0.0088,  0.0253,
         0.1165,  0.0432,  0.1166,  0.1559,  0.0590,  0.0569,  0.0968,  0.2212,
         0.0095,  0.0224,  0.2201, -0.0276,  0.1628,  0.0164,  0.0697,  0.0993,
         0.1206,  0.1320,  0.0815,  0.1579,  0.1626,  0.0806,  0.1163,  0.1535,
         0.1349,  0.1255,  0.0906,  0.0803,  0.1083,  0.1327,  0.1848,  0.1120,
         0.2558,  0.1543,  0.0810,  0.0946,  0.1169,  0.0401, -0.0326,  0.1984,
         0.0759, -0.0072,  0.0924,  0.1418,  0.0448,  0.1224,  0.0915,  0.0152,
         0.2021,  0.0817,  0.2849,  0.1953,  0.0769,  0.0285,  0.0946,  0.1030,
         0.0543,  0.0907,  0.2291,  0.0489,  0.0184,  0.2025,  0.0746,  0.2047,
         0.1964,  0.0088,  0.0853,  0.1516,  0.1716,  0.1254,  0.1424,  0.1647,
         0.0660,  0.1353,  0.1613,  0.0798,  0.1774,  0.0758,  0.0359,  0.2123,
         0.1312,  0.1573,  0.1500,  0.0797,  0.0173,  0.0946,  0.1607,  0.1004,
         0.1504,  0.1136,  0.0945,  0.0373,  0.0713,  0.0896,  0.1885,  0.0348,
         0.2935,  0.1478,  0.0704,  0.0500,  0.0864,  0.1056,  0.1236,  0.0117,
         0.0629,  0.1057,  0.1186, -0.0454,  0.0792,  0.1498,  0.1372,  0.0197,
         0.0669,  0.0033,  0.1247,  0.1192, -0.0048,  0.1063,  0.1140,  0.1123,
         0.1244,  0.0717,  0.1397,  0.0621,  0.0911,  0.0445,  0.0967,  0.1143,
         0.1226,  0.0800,  0.0558,  0.0533,  0.1025,  0.2419, -0.0090,  0.0959,
         0.0589, -0.0042,  0.1017,  0.0650,  0.0436,  0.0497,  0.0395,  0.1404,
         0.0540,  0.0959,  0.1629,  0.0785,  0.0999,  0.1038,  0.0589,  0.0927])
net.mlp.net.0.batch_norm.bias tensor([-1.0710e-01, -3.9235e-02, -6.3922e-02, -6.2788e-02, -3.6117e-02,
         3.7478e-02,  3.9419e-02, -1.0867e-01,  2.8519e-02, -6.0491e-02,
         2.6513e-02, -5.1750e-02,  5.2098e-03,  1.2503e-02, -7.3069e-02,
        -1.1001e-01, -2.1970e-02, -2.7224e-02, -8.8398e-03, -6.5495e-02,
         3.2766e-02, -3.2746e-02,  2.6774e-02, -2.0222e-02,  8.0789e-02,
        -1.1143e-01, -7.8360e-02,  1.1334e-01,  8.1913e-02,  4.7751e-02,
        -1.3120e-01, -2.9649e-02, -1.4003e-01, -1.1146e-02, -3.1882e-03,
        -2.6820e-02,  6.4905e-02,  4.5837e-02, -7.8354e-02,  7.6080e-02,
        -4.1993e-03,  8.2993e-02, -6.6586e-02,  1.5994e-01, -2.9173e-02,
         3.2624e-02, -1.5668e-01, -8.1635e-02, -3.1763e-02, -6.8102e-02,
         7.8056e-02, -9.9805e-02, -7.9528e-02, -4.4698e-02, -9.4476e-02,
         4.1664e-02, -7.5415e-02, -1.5779e-01, -5.8690e-02, -4.7237e-04,
         1.8134e-02,  1.3868e-01,  1.1239e-01,  3.6991e-02,  4.5545e-02,
        -1.5684e-01, -8.5799e-03,  1.2030e-01, -1.0108e-02,  3.1523e-02,
         2.2445e-02,  4.7172e-02,  1.3093e-01,  1.4196e-02,  1.3169e-01,
         4.4127e-02,  8.3807e-02,  5.4153e-02,  3.9433e-03,  5.0325e-02,
        -1.2908e-01,  3.7167e-02, -4.1665e-02, -1.0137e-01, -1.3165e-02,
         2.1949e-01, -9.5137e-03, -3.2045e-03, -5.9629e-03,  6.0078e-02,
         2.2483e-02, -4.9573e-02,  9.2534e-02,  6.2348e-02, -1.6034e-02,
         5.2968e-02, -6.6077e-02, -8.5365e-02, -1.6626e-01,  1.7829e-02,
        -1.1951e-01,  1.4025e-02, -5.9526e-02,  2.4478e-02, -9.9562e-02,
        -1.3606e-01,  5.7021e-02, -1.1210e-01,  2.2926e-02,  1.5275e-01,
        -5.2941e-02, -9.7867e-02, -3.9472e-03, -1.1585e-02,  4.2161e-02,
         1.1981e-01,  8.3432e-02,  1.8926e-02,  1.4627e-02, -1.4493e-01,
        -2.6695e-03, -3.1361e-02, -4.8431e-02,  2.0962e-02, -2.6550e-02,
         2.4046e-02, -7.2223e-02,  2.2390e-02,  5.6665e-02, -2.0735e-02,
        -9.9257e-02,  6.6429e-02,  1.5340e-02, -6.3356e-02, -2.3462e-02,
         1.1105e-01, -5.4571e-02, -2.4735e-02,  1.0867e-02, -7.3050e-02,
         2.2424e-02,  3.0108e-02, -3.9225e-02, -1.0670e-02,  1.1004e-02,
         9.0624e-04, -7.1742e-02, -4.5884e-02,  1.6100e-02,  3.8285e-02,
         5.8647e-02, -1.7320e-02,  2.4068e-02,  3.9949e-02, -6.7793e-02,
         4.5962e-02, -6.8215e-02, -3.4565e-02, -4.2391e-02,  4.1892e-02,
         2.8733e-02, -5.6647e-02,  1.2145e-02,  5.8782e-02, -5.2264e-02,
        -2.5115e-02, -1.1014e-01,  8.8090e-03, -8.1589e-03, -1.8237e-02,
        -4.8884e-02,  6.5419e-02,  6.5377e-02,  1.3215e-01, -6.9412e-02,
        -1.8288e-02,  8.8682e-02,  3.0694e-02, -5.1177e-02,  2.5828e-02,
        -4.3651e-02,  1.4081e-01,  7.5360e-02,  2.9513e-02, -8.1493e-02,
         7.8500e-03,  1.7324e-02, -1.7685e-02,  7.6586e-02,  3.0226e-02,
         8.0584e-03, -1.5307e-02, -1.3710e-04, -1.3222e-01,  5.7816e-02,
         4.3998e-02,  1.0663e-01, -2.1711e-01,  1.5690e-02, -6.8984e-02,
        -4.2936e-02, -3.3910e-02, -1.2738e-02,  1.1013e-02,  6.1932e-03,
         3.3642e-02, -9.5393e-02,  3.9755e-02,  6.7368e-03,  1.4211e-01,
         5.9624e-02, -1.9025e-02, -9.2003e-03, -7.0043e-03,  5.6054e-02,
         4.1761e-02, -1.9911e-02, -7.3732e-03,  4.8553e-02,  1.0848e-01,
        -8.0826e-03,  4.0769e-02, -4.8441e-02, -4.4372e-02,  3.3524e-02,
         3.3874e-02, -2.5119e-02, -3.6050e-02,  5.2801e-02, -1.2188e-01,
         4.6593e-02, -4.0181e-03,  5.0952e-02, -1.4553e-01, -3.0033e-02,
         1.7698e-01,  7.3492e-02,  1.2398e-01, -3.1635e-02,  1.8388e-01,
        -1.0154e-02, -2.2977e-02, -2.3098e-03,  8.8188e-03, -1.1672e-02,
         4.8646e-02,  4.2155e-02, -2.2288e-02,  1.3667e-01, -3.2831e-02,
        -8.5420e-02, -2.9876e-02, -7.7099e-02, -2.3688e-02,  3.0011e-02,
        -1.7110e-02, -3.0990e-02,  1.4492e-02, -2.0209e-02, -2.9395e-03,
         3.1843e-02, -3.2490e-02, -9.5195e-02,  7.3647e-02, -3.4024e-03,
        -3.5021e-02,  6.3767e-03, -1.0526e-01, -8.7076e-02,  3.2214e-02,
         6.0205e-02,  1.1899e-01,  9.3388e-03,  3.5237e-02,  3.7739e-02,
         6.5485e-03, -6.5646e-02,  1.2530e-01,  7.1931e-02,  1.0237e-01,
        -3.3342e-03, -9.2848e-02, -1.3902e-02, -4.8754e-03,  2.1822e-02,
         4.3459e-02, -2.0119e-01, -5.3561e-02, -9.4402e-02, -1.0733e-01,
         3.1045e-03,  9.5222e-03,  9.1664e-02, -4.9656e-04, -3.8491e-02,
         3.1441e-02,  1.6122e-02, -2.3655e-03, -9.1389e-02, -4.1195e-02,
        -7.7686e-02,  8.1214e-02, -7.9789e-02, -5.5458e-02, -6.4727e-02,
         7.9129e-02,  7.1249e-02,  2.0415e-02,  4.4182e-02,  3.8928e-02,
         2.8349e-02,  1.3067e-01,  7.1056e-02, -8.7548e-02,  5.6978e-02,
        -7.2601e-02,  2.6628e-02, -7.1875e-03,  1.1142e-01, -1.2231e-02,
         7.8423e-02,  1.7454e-02, -7.6863e-02, -3.1894e-02,  6.3479e-02,
        -1.1529e-01,  7.8727e-02,  1.0166e-02, -1.0654e-01, -2.3062e-02,
         1.2020e-02, -2.4602e-02,  8.8125e-03,  1.1942e-02, -4.6022e-02,
         1.2919e-02, -7.9708e-03,  1.0114e-01,  9.2371e-03,  1.1072e-01,
         2.7260e-02, -7.9169e-02,  1.1592e-02, -2.9853e-02,  1.4245e-02,
         6.4070e-02,  3.2811e-02,  2.5959e-02,  1.4894e-01, -1.0489e-02,
        -5.0637e-03, -9.8905e-02,  6.6011e-03, -2.2915e-03,  2.0155e-02,
         9.5770e-02,  5.0536e-02, -1.4916e-01, -2.4300e-02,  5.2240e-02,
        -3.7859e-03, -7.8078e-03, -7.6148e-02, -3.6292e-02, -4.7776e-02,
        -9.7064e-03,  9.6735e-03, -9.2159e-04, -4.1720e-02,  1.4971e-02,
        -4.1606e-02,  5.2534e-02, -5.4925e-02,  3.7614e-02,  1.0901e-01,
        -1.3575e-01, -3.9429e-02, -3.3686e-03, -6.7479e-02, -7.9217e-02,
         2.0166e-02,  5.6317e-03, -3.7779e-02, -7.1992e-02, -2.4228e-02,
         6.7662e-03, -3.8027e-02,  2.4903e-02,  1.2564e-01, -1.2549e-02,
        -2.2377e-02, -7.9442e-02,  1.1371e-01, -5.8730e-02,  8.8867e-02,
        -3.9410e-02,  1.1646e-01, -3.7625e-03, -3.6579e-02,  1.4596e-01,
         2.7501e-02, -3.0093e-02, -2.6180e-02,  7.0961e-02, -1.1462e-01,
         3.0047e-02, -1.1586e-02, -3.4678e-03, -1.0504e-02, -3.2489e-02,
         7.4871e-02,  5.0692e-03, -4.6846e-02,  6.6180e-02, -1.8110e-02,
        -7.1049e-02, -4.8071e-02, -2.8841e-02,  1.8398e-01,  5.6596e-03,
        -1.6576e-02, -2.9961e-02, -2.4525e-02,  9.7532e-02, -1.2724e-01,
        -3.4417e-02,  2.3044e-02,  4.9956e-03,  8.8067e-02, -6.8821e-02,
        -1.1706e-02, -1.2221e-02,  5.2095e-02, -2.6507e-02, -3.3382e-02,
         1.3104e-02, -1.2964e-02, -1.4425e-01,  2.3204e-02,  7.5374e-03,
         1.1506e-03, -3.5510e-02, -1.0126e-01, -7.7172e-02,  2.1420e-02,
        -1.8003e-01, -4.9275e-03,  1.7515e-02, -1.0990e-01,  9.6417e-03,
        -2.3634e-02, -8.3855e-02, -4.8440e-02,  1.0357e-01, -9.1312e-02,
        -5.5314e-02,  4.3553e-02, -9.0065e-02,  1.5195e-02,  4.0750e-02,
         7.9705e-02, -4.9092e-03,  1.5477e-02,  1.8716e-02,  5.0245e-02,
        -1.8922e-01,  3.6597e-02,  6.0226e-02, -4.1904e-02, -9.7805e-03,
        -2.6021e-02, -6.9105e-02, -2.7263e-02, -7.4436e-02,  5.2816e-02,
         1.2806e-02, -3.3283e-02, -5.5033e-02, -1.9028e-02, -1.1392e-01,
        -1.0907e-01, -5.0033e-02,  6.4608e-02, -5.8881e-02,  1.4243e-02,
        -1.2413e-02,  1.7539e-02, -1.0253e-02, -6.1078e-03,  2.8114e-02,
        -1.1359e-01, -1.2060e-02, -6.9401e-02, -6.1160e-02,  9.2115e-02,
         2.6514e-03, -2.9253e-03, -1.4032e-01,  5.6321e-02,  5.7835e-02,
        -3.2399e-03, -4.4244e-02, -9.1851e-03,  3.1487e-02,  2.7055e-02,
        -3.2015e-02,  4.3740e-02,  3.2284e-02,  5.4242e-02,  6.0860e-02,
         3.4433e-02,  8.1870e-02])
net.mlp.net.0.batch_norm.running_mean tensor([3.0405e-01, 5.5390e-02, 9.2236e-03, 1.6489e-01, 1.6358e-01, 2.2820e-01,
        1.2034e-02, 1.0230e-01, 9.4591e-03, 4.1366e-03, 1.1368e-01, 2.1231e-01,
        9.0663e-20, 2.2690e-01, 6.9450e-05, 1.0834e-14, 4.0761e-02, 2.0085e-01,
        4.9996e-12, 1.0348e-04, 1.2395e-02, 7.6129e-02, 1.6980e-03, 1.7022e-01,
        1.2693e-01, 1.5214e-01, 1.1523e-01, 1.3291e-01, 7.7319e-02, 9.8256e-02,
        3.4796e-14, 3.2420e-03, 2.1761e-01, 3.6366e-01, 1.6430e-01, 3.3317e-01,
        1.8061e-01, 8.4213e-02, 2.0957e-01, 2.5006e-02, 1.0781e-02, 1.3145e-02,
        3.7054e-07, 6.3731e-02, 2.0363e-21, 6.7764e-15, 4.1107e-02, 3.8112e-20,
        2.2110e-02, 9.5822e-03, 2.3817e-01, 2.0548e-01, 1.7729e-01, 2.0370e-15,
        5.9405e-02, 1.1849e-01, 5.0918e-02, 1.7592e-01, 9.9540e-02, 2.4631e-21,
        3.2323e-01, 9.1408e-02, 8.9613e-02, 7.5301e-02, 2.1664e-01, 2.0028e-01,
        1.4455e-14, 3.3474e-03, 1.5510e-01, 2.0783e-02, 2.9934e-02, 1.1935e-01,
        1.8718e-01, 1.0099e-01, 1.1636e-01, 2.8562e-01, 7.2631e-02, 2.0347e-01,
        3.2365e-02, 4.9600e-03, 8.0858e-02, 1.5455e-12, 5.8839e-08, 4.7025e-24,
        7.8168e-25, 2.8527e-01, 1.0804e-02, 1.0760e-01, 1.4136e-20, 2.3614e-02,
        6.4980e-02, 1.5151e-02, 1.7180e-01, 1.7056e-07, 4.7990e-02, 2.1649e-01,
        1.0840e-02, 3.5407e-02, 1.0316e-01, 2.3918e-01, 1.0546e-01, 1.9768e-02,
        1.8075e-02, 2.4141e-01, 1.4817e-01, 2.6931e-01, 1.6846e-02, 1.3300e-01,
        5.8679e-02, 7.7478e-15, 6.7292e-03, 9.9680e-04, 2.6003e-01, 1.9942e-03,
        1.5959e-01, 2.7030e-02, 1.0229e-02, 6.1717e-03, 1.8680e-15, 2.2454e-13,
        8.2741e-02, 2.4028e-01, 1.4974e-01, 7.8391e-24, 2.4118e-01, 7.6957e-02,
        4.8230e-05, 8.9110e-23, 2.8703e-05, 2.7409e-02, 6.6609e-02, 8.9503e-03,
        1.6310e-12, 1.8684e-01, 2.7404e-02, 7.2794e-03, 2.9754e-21, 2.3786e-01,
        1.2629e-02, 2.3014e-02, 1.1266e-01, 4.1106e-02, 1.7142e-04, 4.3074e-20,
        5.4163e-03, 1.1898e-01, 5.9748e-03, 2.7557e-01, 1.2091e-27, 9.1854e-07,
        1.4125e-02, 3.4690e-02, 8.8204e-15, 6.5013e-02, 5.2012e-02, 2.0990e-01,
        9.4292e-02, 4.5429e-02, 2.9424e-01, 9.2057e-02, 5.1051e-02, 1.6835e-15,
        7.3493e-04, 9.2254e-03, 2.2855e-14, 5.7614e-08, 1.0659e-01, 2.1592e-01,
        1.3916e-01, 3.5410e-15, 2.0599e-01, 2.2665e-01, 8.3804e-02, 2.6906e-01,
        9.8976e-02, 2.2607e-01, 2.4316e-01, 8.8819e-04, 2.2807e-01, 3.5759e-03,
        1.5266e-02, 1.4294e-01, 2.7261e-01, 6.8198e-02, 5.3715e-02, 1.6780e-01,
        6.6841e-02, 2.0983e-01, 6.0890e-02, 2.3719e-03, 5.3293e-02, 4.9760e-03,
        1.2743e-02, 4.9879e-03, 2.1003e-01, 3.3509e-02, 1.4385e-02, 1.1937e-01,
        1.9806e-02, 2.4811e-02, 1.2896e-01, 1.1958e-08, 3.3362e-21, 7.0390e-02,
        2.9203e-02, 9.0640e-02, 2.7731e-01, 3.9076e-12, 2.1846e-01, 1.4790e-01,
        1.0444e-02, 1.7408e-01, 3.4095e-02, 5.9699e-02, 3.9023e-03, 6.3975e-02,
        2.4292e-02, 2.8423e-02, 1.5195e-01, 2.2656e-02, 2.8149e-02, 2.5659e-14,
        2.4108e-01, 8.3004e-02, 1.5821e-01, 4.7244e-03, 1.7052e-02, 5.9636e-02,
        2.5633e-02, 3.1851e-03, 9.5590e-15, 5.6876e-04, 2.2849e-01, 6.5692e-02,
        2.8836e-22, 3.3248e-01, 1.8098e-04, 5.7132e-02, 2.8224e-10, 2.4268e-15,
        5.9973e-02, 1.3688e-02, 4.9475e-03, 6.6874e-19, 1.1535e-01, 7.2262e-02,
        1.3602e-01, 7.2557e-16, 6.2165e-05, 8.7798e-07, 1.0042e-01, 2.7522e-13,
        8.1852e-02, 4.8938e-05, 7.8287e-23, 3.1257e-14, 1.3290e-01, 1.2635e-01,
        4.7168e-02, 2.2197e-01, 8.7497e-02, 3.4920e-03, 5.4016e-02, 5.1397e-05,
        4.3135e-02, 1.5894e-01, 2.8935e-02, 1.6040e-01, 7.4606e-02, 8.7108e-02,
        4.7405e-21, 2.5560e-03, 9.9895e-02, 2.7714e-02, 1.3715e-01, 2.0458e-02,
        3.0348e-01, 2.1757e-01, 2.5284e-12, 1.2641e-15, 2.7222e-01, 4.3867e-02,
        1.4451e-04, 1.1507e-01, 9.2364e-02, 2.0002e-06, 9.5468e-02, 1.5911e-01,
        4.0459e-15, 1.2930e-01, 9.2092e-04, 1.8710e-01, 3.0726e-01, 1.2055e-01,
        2.8273e-02, 2.5050e-01, 1.4066e-01, 3.3325e-02, 1.2477e-01, 1.4694e-13,
        8.5389e-06, 5.7750e-09, 1.3988e-01, 3.3412e-02, 1.2964e-01, 1.6269e-12,
        2.1457e-02, 4.3704e-02, 1.8561e-01, 1.0614e-01, 1.4207e-01, 1.4209e-02,
        5.9715e-05, 2.1158e-01, 4.9352e-11, 9.3085e-02, 3.5632e-16, 1.7895e-01,
        2.4143e-01, 5.1505e-02, 1.2680e-01, 1.4521e-01, 7.1556e-12, 1.2592e-01,
        1.9890e-01, 1.4570e-01, 3.1895e-02, 1.5842e-07, 2.2156e-01, 2.1324e-02,
        4.0085e-02, 1.7431e-01, 2.8638e-14, 5.9696e-02, 2.1817e-01, 1.4914e-01,
        1.6749e-22, 1.7657e-01, 2.4285e-22, 7.3211e-03, 9.9316e-02, 2.2294e-02,
        2.2545e-01, 6.3170e-02, 1.6083e-01, 1.5404e-01, 1.0354e-01, 1.9270e-01,
        1.1932e-01, 6.7250e-14, 2.0765e-01, 2.5043e-01, 1.2039e-02, 1.0347e-01,
        9.4532e-04, 4.1387e-02, 9.2215e-10, 1.6840e-01, 5.6454e-03, 3.1774e-01,
        6.5400e-02, 7.1932e-02, 3.6619e-13, 2.2776e-03, 4.6712e-10, 3.0926e-02,
        1.9680e-01, 6.3941e-02, 1.1165e-01, 7.6966e-03, 1.3413e-03, 4.5430e-02,
        1.6867e-01, 1.3692e-01, 1.4426e-11, 4.5973e-11, 9.3101e-02, 1.1288e-01,
        3.5238e-02, 3.1762e-02, 4.4774e-02, 1.5912e-02, 1.4147e-01, 5.5378e-03,
        3.0282e-01, 3.4488e-21, 2.2583e-17, 1.0552e-01, 3.8294e-02, 2.0061e-01,
        1.9467e-01, 4.9906e-02, 2.9044e-03, 6.6268e-21, 2.2369e-01, 8.5987e-02,
        1.8619e-21, 5.4160e-02, 6.2863e-07, 1.2592e-02, 1.8791e-01, 1.0595e-01,
        5.4538e-22, 3.3391e-01, 2.2021e-02, 4.1183e-22, 8.9623e-02, 1.2040e-01,
        1.0354e-01, 7.5866e-02, 8.9668e-02, 8.9461e-02, 7.1950e-05, 9.9184e-02,
        7.5554e-02, 4.9726e-02, 3.8288e-05, 1.0574e-01, 7.1074e-02, 1.7860e-01,
        2.0226e-01, 1.7148e-01, 4.8714e-02, 8.8247e-02, 2.0748e-02, 1.8637e-01,
        4.1593e-21, 1.2281e-10, 5.8949e-02, 1.7274e-01, 1.4010e-02, 6.8120e-02,
        2.8284e-01, 2.6907e-01, 5.4900e-13, 1.6706e-12, 2.9625e-03, 3.3751e-01,
        2.7560e-02, 2.3227e-01, 5.8435e-03, 2.2360e-01, 1.3353e-01, 8.1476e-02,
        1.5573e-01, 3.4628e-01, 3.7231e-02, 2.2438e-13, 3.1434e-02, 1.5111e-01,
        2.5517e-02, 1.0408e-07, 1.2213e-23, 1.3166e-01, 2.3909e-02, 1.9923e-04,
        2.8740e-02, 1.6306e-01, 5.9738e-02, 1.1912e-03, 3.6695e-02, 4.4617e-03,
        7.8101e-03, 2.5608e-01, 8.4948e-21, 1.6767e-01, 1.3866e-01, 3.1655e-02,
        8.4162e-02, 6.2687e-02, 6.5070e-03, 2.8387e-02, 2.5195e-02, 1.0110e-01,
        1.5026e-03, 1.2213e-24, 1.3961e-01, 4.3604e-21, 9.6536e-02, 1.2948e-14,
        8.3257e-08, 3.6395e-03, 2.1984e-02, 1.9394e-01, 2.1880e-27, 2.4903e-02,
        1.4316e-01, 2.5259e-12, 7.3242e-02, 2.1122e-02, 3.3276e-01, 3.0481e-02,
        2.6272e-02, 3.9578e-02, 1.9583e-01, 2.0493e-08, 9.6215e-02, 1.1185e-02,
        5.8292e-15, 3.3877e-03, 2.8643e-02, 5.5151e-03, 2.3331e-02, 3.3123e-01,
        4.4318e-02, 6.6630e-30, 1.4450e-04, 1.3836e-13, 2.5007e-14, 1.4420e-12,
        8.9291e-02, 1.2608e-29])
net.mlp.net.0.batch_norm.running_var tensor([7.5926e-03, 1.9656e-02, 1.5961e-03, 9.3056e-03, 1.0311e-02, 6.8042e-03,
        3.5361e-03, 7.2721e-03, 1.5902e-03, 3.0972e-04, 6.1510e-03, 2.1334e-02,
        1.0443e-20, 1.3774e-02, 3.7897e-06, 3.3832e-16, 2.2749e-03, 2.3320e-02,
        2.4608e-12, 6.6614e-06, 3.6726e-03, 2.3544e-02, 1.2943e-04, 5.5264e-03,
        2.1041e-02, 7.0788e-03, 6.2709e-03, 6.6425e-03, 5.1888e-03, 6.9542e-03,
        3.6076e-17, 2.5667e-04, 1.8321e-02, 1.2537e-02, 9.0173e-03, 7.8227e-03,
        4.9881e-03, 4.9179e-03, 4.5627e-03, 7.0217e-03, 2.1604e-03, 1.2666e-03,
        7.6043e-08, 1.8115e-02, 2.4221e-22, 8.3597e-16, 2.5756e-03, 8.3159e-23,
        5.8619e-03, 4.4458e-03, 2.3712e-02, 3.2258e-02, 1.2288e-02, 1.1587e-16,
        6.3469e-03, 4.9683e-03, 4.0058e-03, 6.4110e-03, 6.5684e-03, 3.0787e-22,
        1.2140e-02, 6.6243e-03, 5.5115e-03, 3.0395e-03, 1.0728e-02, 1.2474e-02,
        2.4504e-15, 6.1565e-04, 8.6169e-03, 1.5356e-03, 6.8517e-03, 1.7848e-02,
        1.2672e-02, 8.8804e-03, 3.3715e-03, 1.1206e-02, 3.4716e-03, 4.9558e-03,
        7.5557e-03, 2.2442e-04, 8.6603e-03, 1.3533e-13, 9.4082e-11, 4.4153e-25,
        5.5097e-26, 1.3026e-02, 3.0908e-03, 6.9331e-03, 1.5831e-21, 1.8350e-03,
        3.6395e-03, 5.3452e-03, 1.5552e-02, 6.4032e-10, 5.5115e-03, 7.9783e-03,
        5.3213e-04, 3.8408e-03, 7.1589e-03, 2.0923e-02, 1.5335e-02, 6.7342e-03,
        6.3479e-03, 1.2435e-02, 5.0915e-03, 7.3751e-03, 6.3064e-03, 1.9041e-02,
        2.2013e-03, 2.4138e-15, 2.3243e-03, 1.0441e-04, 2.6319e-02, 2.4057e-04,
        5.0776e-03, 5.9348e-03, 3.0761e-03, 1.1214e-03, 4.8185e-16, 1.9202e-14,
        2.3210e-02, 8.9386e-03, 6.5245e-03, 1.2739e-24, 8.2507e-03, 4.1163e-03,
        1.3368e-06, 1.0155e-23, 1.3477e-06, 3.2174e-03, 3.4585e-02, 3.3217e-03,
        3.8468e-13, 8.7054e-03, 2.7923e-03, 1.0870e-03, 3.4118e-22, 1.6734e-02,
        1.3304e-03, 1.5907e-03, 5.4108e-03, 1.7562e-02, 1.0590e-05, 4.9214e-21,
        3.4508e-04, 8.9657e-03, 8.7053e-04, 1.4661e-02, 8.5172e-27, 1.6460e-09,
        1.4767e-03, 1.2003e-02, 7.4873e-16, 3.5006e-03, 2.0633e-02, 1.0293e-02,
        3.1894e-02, 3.5754e-03, 1.1105e-02, 9.2641e-03, 7.2851e-03, 1.0813e-16,
        4.3874e-05, 1.7774e-03, 9.1146e-15, 4.1504e-09, 5.1029e-03, 1.2951e-02,
        7.4227e-03, 2.4582e-16, 5.8090e-03, 6.7221e-03, 9.6162e-03, 1.7043e-02,
        2.4942e-02, 7.7953e-03, 1.2805e-02, 5.0675e-05, 1.6061e-02, 1.1062e-03,
        6.0541e-03, 6.0449e-03, 1.5771e-02, 3.7835e-03, 4.1702e-03, 6.7215e-03,
        3.3344e-02, 7.6084e-03, 3.7484e-03, 5.7408e-04, 4.3513e-03, 2.4156e-04,
        1.7433e-03, 1.9349e-03, 1.2481e-02, 6.6658e-03, 3.9950e-03, 8.3503e-03,
        2.0801e-03, 2.0203e-03, 7.5384e-03, 3.8269e-13, 4.9403e-22, 1.0116e-02,
        4.4158e-03, 4.9350e-02, 2.1116e-02, 2.0442e-12, 1.8763e-02, 1.1278e-02,
        4.5909e-04, 7.1298e-03, 3.4882e-03, 4.5141e-03, 2.7592e-04, 2.0715e-03,
        1.7934e-03, 5.1864e-03, 9.4604e-03, 6.9921e-03, 8.9022e-03, 1.9990e-15,
        8.4147e-03, 6.1842e-03, 9.2884e-03, 8.5967e-04, 3.2155e-03, 6.3425e-03,
        2.0773e-03, 4.1280e-04, 2.0955e-15, 6.2386e-05, 1.2392e-02, 3.1995e-02,
        1.8846e-23, 1.4095e-02, 1.2690e-05, 1.5964e-02, 2.8573e-11, 1.9092e-16,
        2.1096e-03, 1.1401e-03, 1.9204e-04, 6.5496e-20, 4.3560e-03, 4.7692e-03,
        7.7528e-03, 2.7634e-16, 3.7808e-06, 2.7450e-08, 4.8219e-03, 1.2235e-14,
        3.2734e-02, 3.7579e-06, 7.3548e-24, 2.2749e-15, 6.9467e-03, 9.7729e-03,
        2.3486e-02, 7.1859e-03, 5.6655e-03, 1.1936e-04, 4.5625e-03, 4.0611e-06,
        3.1258e-03, 2.9022e-03, 8.0664e-03, 1.3434e-02, 4.7479e-03, 9.1923e-03,
        3.5890e-22, 5.3289e-04, 2.7319e-03, 7.2905e-03, 1.1789e-02, 5.1728e-03,
        2.3819e-02, 3.9158e-02, 4.2339e-14, 9.3749e-17, 1.0351e-02, 3.4845e-03,
        4.4468e-06, 6.9941e-03, 2.9383e-02, 4.0744e-08, 4.2950e-03, 7.0348e-03,
        1.3851e-15, 1.1518e-02, 5.6745e-05, 6.5773e-03, 7.6941e-03, 3.4241e-03,
        2.0817e-03, 1.2286e-02, 1.1701e-02, 5.3018e-03, 1.1778e-02, 3.0031e-14,
        2.6749e-07, 4.5469e-10, 1.0818e-02, 9.1953e-03, 2.1137e-02, 3.6318e-13,
        1.6621e-03, 4.3259e-03, 1.4479e-02, 3.0304e-02, 6.4873e-03, 5.6101e-03,
        3.7516e-06, 2.2264e-02, 1.3327e-11, 1.2597e-02, 1.3320e-17, 6.9474e-03,
        5.5628e-02, 3.3977e-03, 3.8491e-03, 1.2831e-02, 8.2374e-14, 7.0631e-03,
        9.3446e-03, 9.0482e-03, 2.4611e-03, 9.3552e-10, 7.5181e-03, 7.4444e-03,
        3.9323e-03, 9.1856e-03, 4.1349e-15, 8.7190e-03, 1.1982e-02, 5.1359e-03,
        2.1286e-23, 1.4819e-02, 2.2505e-23, 2.0951e-03, 4.5014e-03, 2.2979e-03,
        1.2220e-02, 2.6666e-02, 7.8292e-03, 1.4439e-02, 4.0319e-03, 9.2477e-03,
        9.7143e-03, 2.2191e-14, 1.0401e-02, 8.0611e-03, 2.3010e-03, 7.8128e-03,
        7.9153e-05, 1.3368e-02, 5.0257e-11, 1.6652e-02, 5.1144e-04, 1.0756e-02,
        1.3886e-02, 1.9340e-03, 6.3705e-14, 2.1225e-04, 1.4828e-10, 7.3475e-03,
        9.3517e-03, 5.2883e-03, 4.7404e-03, 2.8773e-03, 1.8059e-04, 2.2380e-03,
        8.0484e-03, 3.3129e-03, 1.7219e-12, 1.0129e-11, 1.1015e-02, 7.9042e-03,
        2.4195e-03, 2.9226e-03, 3.3822e-03, 1.0888e-03, 8.7387e-03, 2.5882e-03,
        8.1187e-03, 5.9898e-22, 8.8798e-19, 6.6561e-03, 1.5879e-02, 1.5663e-02,
        1.8169e-02, 3.7093e-03, 5.4711e-04, 5.1240e-21, 8.1655e-03, 9.6907e-03,
        1.3351e-22, 6.5067e-03, 7.7005e-09, 5.4289e-03, 5.4851e-03, 4.9011e-03,
        5.5566e-23, 1.6134e-02, 1.1275e-02, 2.1208e-22, 3.8580e-03, 8.3103e-03,
        1.1382e-02, 6.6294e-03, 8.1376e-03, 1.3595e-02, 5.5286e-06, 6.8229e-03,
        5.9817e-03, 1.5138e-02, 1.9928e-06, 4.5329e-03, 1.4414e-02, 9.1660e-03,
        7.3275e-03, 1.3646e-02, 2.9342e-03, 7.7427e-03, 1.0854e-02, 6.7233e-03,
        4.6774e-22, 2.6099e-13, 6.4669e-03, 1.6027e-02, 1.2287e-03, 3.9378e-03,
        6.4657e-03, 2.1611e-02, 3.7687e-14, 1.1250e-13, 1.0506e-03, 1.3596e-02,
        2.1385e-03, 1.5009e-02, 1.0843e-03, 1.8563e-02, 1.2416e-02, 6.1765e-03,
        7.8130e-03, 1.7522e-02, 1.4714e-02, 1.9785e-14, 1.8784e-02, 9.1647e-03,
        3.3002e-03, 8.1752e-09, 1.2459e-24, 2.2370e-02, 1.9801e-03, 1.6079e-05,
        2.5593e-03, 7.8580e-03, 4.0411e-03, 1.5455e-04, 7.8365e-03, 1.7227e-03,
        1.0794e-03, 1.9508e-02, 7.7186e-22, 5.2134e-03, 1.2305e-02, 9.9754e-04,
        5.7641e-03, 5.1074e-03, 2.8556e-03, 4.0303e-03, 5.8633e-03, 2.4108e-03,
        2.6242e-04, 1.9023e-25, 4.9535e-03, 5.5343e-22, 3.7278e-02, 1.1402e-15,
        1.6191e-08, 1.0040e-03, 2.1025e-03, 8.7350e-03, 8.5948e-27, 6.3299e-03,
        7.5153e-03, 1.7594e-13, 1.1481e-02, 5.9289e-03, 1.2822e-02, 2.0180e-03,
        4.9822e-03, 1.5523e-02, 5.4378e-03, 3.6369e-11, 1.4175e-02, 5.7864e-04,
        1.7451e-15, 1.8948e-04, 6.7061e-03, 2.8016e-04, 2.7863e-03, 1.3492e-02,
        3.5492e-03, 8.2846e-27, 1.2309e-05, 1.7483e-14, 1.6752e-17, 3.0560e-13,
        1.2450e-02, 8.2852e-27])
net.mlp.net.0.batch_norm.num_batches_tracked tensor(570)
net.mlp.net.1.linear.weight tensor([[-0.0249,  0.0033,  0.0179,  ...,  0.0092,  0.0015,  0.0213],
        [ 0.0467, -0.0313, -0.0117,  ..., -0.0134,  0.0277,  0.1070],
        [ 0.0035,  0.0227, -0.0521,  ...,  0.0135,  0.0117, -0.0022],
        ...,
        [ 0.0246,  0.0062, -0.0467,  ...,  0.0081, -0.0513,  0.0067],
        [ 0.0140,  0.0004, -0.0113,  ..., -0.0044,  0.0299,  0.0373],
        [-0.0032, -0.0230, -0.0540,  ..., -0.0038, -0.0161, -0.0195]])
net.mlp.net.1.linear.bias tensor([-2.2195e-02,  1.3118e-02, -7.5663e-02, -4.0542e-03,  1.2556e-02,
         4.1128e-02, -4.1443e-02, -3.0415e-03, -3.3723e-02,  6.6575e-03,
        -2.1596e-02, -6.5751e-02, -1.4899e-02, -5.4669e-02,  8.0459e-02,
         6.2368e-03,  1.6874e-02,  2.9298e-02, -1.8528e-02,  4.4235e-02,
        -1.0108e-01, -1.7144e-01,  1.4813e-02, -1.7876e-02,  7.9562e-03,
        -8.3631e-02, -1.0314e-01, -6.7010e-02,  6.9479e-02, -1.0362e-01,
        -5.2498e-02, -5.3849e-03,  1.7656e-02,  1.4865e-01, -3.8145e-02,
        -1.3457e-01, -6.8685e-02,  7.1864e-02, -5.7765e-02, -1.6892e-02,
         3.9939e-02, -3.9778e-02,  2.4215e-02, -3.2991e-02, -3.2509e-02,
         6.9113e-02, -5.1237e-02, -1.5845e-02,  2.7554e-02, -1.0575e-01,
        -6.3886e-02, -2.6542e-02,  4.7883e-03,  1.8683e-02,  4.7138e-03,
        -1.0706e-01, -3.4664e-02, -6.1336e-02, -1.4963e-01, -4.0632e-02,
        -4.8865e-02, -1.2627e-01,  1.1115e-02, -5.2564e-02,  6.0058e-03,
         5.5961e-03, -5.2401e-02, -3.3032e-02, -3.6451e-02, -4.8666e-02,
         1.9158e-02, -1.7538e-01,  9.6586e-03, -1.1553e-01, -6.7789e-02,
        -1.9710e-02,  1.4861e-02,  4.4738e-02,  1.5494e-01,  1.2084e-02,
        -1.3850e-01,  9.2411e-02, -2.6414e-02, -1.4688e-01, -5.1320e-03,
        -5.6999e-02, -9.8526e-03, -4.9476e-02, -7.9724e-02, -1.7963e-01,
        -1.6018e-02, -5.9939e-02, -3.6651e-02,  1.7223e-02, -7.9701e-02,
         2.4567e-02,  3.0599e-02,  2.9534e-02,  2.7814e-02,  3.7146e-02,
        -6.7536e-02, -3.1100e-03,  3.2490e-02, -1.1494e-01, -4.5043e-02,
        -4.1040e-02,  2.0253e-03,  1.6245e-02, -1.2777e-02,  1.6301e-02,
        -3.0301e-02,  4.5977e-02, -9.4797e-02, -2.0010e-02,  1.4146e-02,
        -1.4156e-02, -7.7784e-02,  1.0317e-01, -2.5961e-02,  3.5188e-02,
         1.1784e-02, -1.4413e-01,  2.7851e-02,  9.9623e-02, -1.4610e-01,
        -9.4951e-02,  7.1202e-02, -4.9779e-02,  1.8949e-02, -8.3565e-02,
        -1.4024e-01,  1.4340e-02, -4.1919e-02, -7.1136e-02, -8.7893e-03,
        -7.4965e-02,  6.6394e-02,  1.0441e-02, -5.4857e-02,  3.9300e-02,
         3.8854e-02, -3.3736e-03,  2.3952e-02, -6.1618e-02,  1.4219e-02,
         4.0490e-02,  1.7826e-02, -5.1892e-02, -7.6801e-02,  3.8287e-03,
        -4.9417e-02,  1.5697e-02,  5.0194e-03, -3.2702e-02, -2.5586e-02,
         6.9246e-02, -4.3930e-02, -1.1210e-01,  4.6177e-03,  7.5679e-03,
         7.1111e-03, -1.3503e-02, -1.4909e-01,  8.2778e-02,  1.4420e-02,
        -7.3423e-02, -5.2680e-02, -1.3319e-01, -8.5121e-03, -8.4770e-02,
         9.2785e-02, -5.4378e-02,  1.2004e-01,  1.3744e-01, -1.4675e-02,
        -5.2099e-02,  8.0438e-03,  3.6277e-02,  4.2958e-02,  5.8373e-03,
         3.1519e-02, -1.7160e-02,  7.6869e-03,  1.5935e-02, -1.0213e-02,
         5.6731e-02,  1.0459e-02,  7.6431e-03, -4.8872e-02,  2.5955e-02,
         5.7366e-02, -3.5010e-02,  1.3128e-03,  3.7252e-02,  7.2504e-03,
         5.0276e-03, -2.7127e-02,  1.9019e-02, -1.4291e-03,  2.5776e-02,
         2.3124e-02,  1.1830e-01,  5.2066e-03, -5.7900e-02,  6.9198e-02,
        -5.8425e-03, -4.5552e-02, -7.4024e-02, -2.5458e-03, -3.5092e-02,
        -2.2261e-02,  7.9061e-03, -8.0213e-02, -1.5721e-02, -1.0813e-03,
         6.1940e-03,  1.2690e-01,  3.6741e-02,  1.1607e-01,  3.1248e-03,
         3.3997e-02,  7.8159e-03,  1.6813e-03, -3.1242e-02,  4.6081e-02,
         4.1440e-02, -9.5596e-02, -9.9824e-02,  5.4680e-02,  9.2496e-02,
         2.1206e-02, -1.1612e-02,  1.5134e-02, -4.5752e-02,  4.6758e-02,
         5.4047e-03,  8.9530e-02,  1.0038e-02,  1.3263e-02, -4.3733e-02,
         2.2198e-02,  5.2622e-02, -2.9678e-02, -5.6062e-02, -5.7478e-03,
         3.1459e-02,  4.5560e-02, -1.8812e-02,  4.1709e-02, -1.4077e-02,
        -8.5735e-02, -2.9012e-02, -2.9138e-02, -5.3983e-02, -3.0389e-02,
         4.4969e-02, -1.8364e-02, -7.2843e-02,  1.0427e-01, -1.9672e-01,
         8.8548e-02,  5.4955e-02,  1.0310e-02, -7.5313e-02, -4.0999e-02,
         4.0257e-02,  1.8053e-04,  4.2774e-02,  5.6494e-02, -2.4006e-01,
         3.9672e-02, -3.4081e-02, -4.5833e-03, -2.6261e-02, -3.4845e-02,
        -5.0416e-02, -1.9539e-02, -1.9404e-01, -1.1061e-01,  4.0578e-03,
        -2.1385e-02,  3.6296e-02, -8.7231e-02, -2.1282e-02,  7.9417e-02,
        -9.6157e-02, -2.5087e-03,  2.3382e-02, -5.6648e-03, -2.7480e-03,
        -1.5791e-02, -1.6142e-02, -1.6708e-02, -2.5503e-02,  4.8505e-03,
         7.1101e-02, -2.9460e-02,  1.2032e-01, -1.0599e-01,  6.2384e-02,
         2.7672e-02,  2.6954e-03,  6.4322e-02,  3.2679e-02,  1.5372e-02,
        -8.7606e-02, -2.8137e-02,  1.5208e-02,  1.0034e-01, -9.3505e-02,
         5.3915e-03,  8.6249e-02,  2.0422e-02,  5.3907e-02, -7.4599e-02,
         5.9593e-03, -1.3764e-01, -1.0296e-01, -2.0555e-01,  9.3211e-02,
        -2.6694e-03,  1.2232e-01,  2.7985e-02,  5.9792e-03,  1.6888e-02,
         5.9941e-02,  3.7657e-02, -2.2210e-02, -1.9834e-02,  2.0286e-02,
        -2.3053e-02,  1.6105e-01,  1.0530e-02,  3.2564e-02, -1.3378e-02,
         1.9372e-02, -5.7950e-03,  2.6216e-02, -2.3017e-01, -5.5764e-03,
         5.3279e-02,  5.0617e-03, -1.3826e-02, -5.8902e-02,  4.1229e-03,
        -8.5295e-02, -1.1062e-01,  7.3675e-02, -2.5485e-02, -2.5102e-02,
        -7.5300e-02,  2.7315e-02, -2.5647e-02,  1.4956e-02, -5.4651e-02,
        -1.4191e-03,  3.7177e-02,  3.8370e-02, -4.6903e-02,  3.0798e-02,
        -3.0325e-02, -5.5681e-02,  1.7248e-02, -1.3973e-01,  5.9702e-02,
        -7.5731e-02,  1.2660e-02, -4.7427e-02, -1.9302e-02, -6.4268e-02,
         6.4895e-03, -2.1181e-02, -3.5958e-02,  5.1870e-02, -5.0871e-02,
        -4.2450e-02,  4.6441e-03,  1.3076e-01,  2.4886e-02, -4.8258e-02,
         4.4542e-03, -4.6254e-02,  8.2242e-02, -4.7572e-02,  5.5253e-03,
         2.3666e-02, -2.3759e-02,  5.9590e-02, -3.0767e-02, -2.4226e-01,
        -2.2731e-02,  8.6711e-02, -1.6375e-01,  1.7149e-02, -2.1128e-02,
        -1.5742e-02,  5.0232e-02,  6.0675e-02, -1.6524e-02, -1.6352e-02,
         1.7002e-02, -2.0315e-02, -4.9678e-02, -3.4460e-02,  8.0715e-03,
         3.1974e-03, -1.1225e-01, -5.1448e-03, -1.2911e-01, -2.6981e-02,
        -3.6337e-02,  4.9292e-02,  3.7677e-03, -3.6098e-03, -1.7155e-02,
        -5.8553e-02, -7.2914e-02, -1.3168e-01,  1.0383e-02,  4.5338e-03,
        -3.4607e-02,  1.8243e-01,  1.1806e-01,  1.1365e-02, -2.6884e-02,
         2.3726e-02,  1.1693e-01, -2.9528e-02,  8.8050e-03,  1.7153e-02,
         4.2764e-03,  9.1218e-02, -9.7483e-03,  2.0982e-02, -1.5469e-02,
         2.5516e-02, -4.4307e-02, -7.4117e-02, -6.1491e-02, -6.5354e-02,
         5.8476e-02,  9.7258e-02, -1.9078e-02, -4.0156e-02,  2.1493e-02,
        -5.0366e-02,  6.4086e-03,  1.5573e-02, -9.5410e-02, -7.4777e-03,
         2.1906e-02, -3.9781e-02, -2.9705e-02,  1.9984e-02,  1.3979e-03,
         9.9816e-02, -1.9072e-02, -8.6916e-02,  2.1252e-03,  7.9407e-03,
         9.8263e-03, -1.5745e-01,  1.3922e-02,  7.2655e-02, -3.1155e-03,
         2.5298e-02,  2.1649e-02,  2.1123e-03,  6.1511e-03,  5.4381e-02,
         1.3851e-02,  1.5964e-01,  2.9841e-02,  3.1628e-02,  9.0722e-02,
        -1.5255e-02, -4.3086e-02,  1.6641e-02,  7.2829e-03, -7.5104e-03,
         5.8680e-03,  3.9165e-02, -3.4378e-02, -1.3394e-01,  4.9590e-02,
         5.9852e-02,  2.6054e-03, -1.5451e-01,  1.8310e-02, -3.3231e-03,
        -5.2798e-02,  6.7222e-03, -1.0086e-01, -4.5090e-02, -4.1075e-02,
         3.9543e-03, -5.7569e-02, -2.4097e-02, -7.8199e-02,  2.3019e-02,
        -4.1962e-02, -1.8569e-02,  3.0613e-02,  1.3964e-02,  2.7576e-02,
        -9.1888e-03, -3.5111e-02,  4.8414e-02, -2.2555e-03, -4.0573e-02,
        -2.3953e-02,  7.5679e-02])
net.mlp.net.1.batch_norm.weight tensor([ 1.4581e-01,  2.5897e-02, -1.4107e-02,  1.9521e-02,  4.2260e-02,
         1.5313e-02,  8.4379e-02,  2.0169e-01,  1.4119e-01,  6.7294e-02,
         9.2448e-03,  1.9692e-01,  1.4227e-02,  1.4435e-01,  6.8086e-02,
        -2.4170e-02, -1.7285e-03,  1.4518e-01, -6.8066e-03,  8.1612e-02,
         5.2736e-02,  1.0027e-01,  5.7813e-02,  6.2914e-02,  4.6387e-02,
        -6.9430e-03, -6.3195e-02,  1.1529e-01,  4.2199e-02,  4.1989e-02,
         1.8392e-01,  6.2065e-02,  1.0579e-01,  6.2000e-02,  1.2149e-01,
         9.9536e-02,  1.3925e-01,  4.7007e-02,  4.1573e-02,  5.2637e-03,
        -3.1491e-03,  2.0751e-02,  6.2430e-03,  8.4310e-03,  1.6154e-01,
         1.1465e-01,  7.9397e-02,  1.3266e-01,  2.8810e-02,  1.1902e-01,
         2.1546e-01,  1.2783e-01,  7.6618e-03, -8.0332e-03,  2.5314e-02,
         8.8894e-02,  1.5270e-01,  9.4764e-02,  1.6716e-02,  2.6234e-02,
         1.6381e-01,  1.3680e-01,  7.2372e-02,  1.2516e-01,  2.5772e-01,
         1.5565e-01,  7.1246e-02,  1.2747e-01,  5.9188e-02,  5.9698e-02,
         8.0511e-02,  9.0255e-02,  4.2521e-02,  8.9415e-02,  2.9965e-02,
         8.6435e-03,  9.4675e-03, -3.1805e-03,  3.4437e-02,  9.2162e-02,
         1.1774e-01,  1.3100e-01,  7.5078e-02,  7.5352e-02,  1.8648e-01,
         2.8960e-02,  1.6286e-01, -7.8519e-03,  6.5784e-02,  1.0062e-01,
         4.5757e-02,  2.2222e-02, -8.5942e-03,  3.2538e-02,  1.5225e-01,
         5.9451e-03,  5.7032e-02,  1.0754e-01, -4.2362e-03,  1.0926e-01,
         6.9539e-02,  8.2863e-02,  1.4782e-01,  5.8637e-02,  1.3681e-02,
         1.1671e-02,  2.7842e-02,  1.8356e-02,  6.1090e-02,  1.4558e-01,
         4.5230e-02,  2.1592e-02,  9.2185e-02,  7.9037e-02,  4.1497e-02,
         2.7474e-02,  1.8029e-01, -6.1844e-02, -1.9131e-02,  5.6281e-02,
         4.0060e-04,  5.5375e-02,  1.1283e-01,  1.0246e-02,  5.0821e-02,
         5.9198e-02,  8.1112e-02,  1.0681e-01, -2.7893e-02,  4.6197e-02,
         5.8138e-03,  1.4829e-01, -2.1040e-02,  4.9568e-02, -1.6163e-03,
         6.1235e-02,  1.1340e-01, -4.6118e-03,  1.1891e-01,  1.4925e-02,
         3.0846e-02,  5.7196e-02,  4.4247e-02,  2.1631e-02,  8.0068e-02,
         3.8490e-02,  4.7353e-03,  7.0472e-03,  4.0474e-02,  1.3347e-01,
         4.5979e-02,  4.0915e-02,  3.4869e-02,  3.7394e-03,  9.6518e-02,
        -1.4737e-02, -4.0075e-02,  8.9381e-02,  2.3035e-03,  4.2242e-03,
         2.0089e-02,  2.1309e-02,  1.3508e-01,  1.6026e-01,  8.7370e-02,
         3.3477e-02, -1.1671e-02,  1.1342e-01,  5.8097e-02,  4.9366e-02,
         1.4818e-01,  7.9861e-03,  1.6447e-01,  7.2046e-02,  5.5282e-02,
         2.2679e-02,  1.5644e-01,  1.1647e-01, -5.2596e-02, -1.8986e-02,
         1.9984e-02,  1.0774e-01,  2.1346e-02,  1.2311e-01,  3.9609e-02,
         6.6748e-02,  4.5680e-02,  2.1261e-03, -4.2400e-02, -9.5522e-03,
         5.0950e-02,  3.0786e-02,  1.1035e-02,  1.3179e-01, -6.2002e-02,
        -5.4274e-02,  2.5542e-02,  8.4437e-02,  4.1698e-02,  3.1647e-02,
        -1.4773e-02,  6.3157e-02,  4.2272e-02,  8.5921e-02,  1.2206e-01,
         6.5495e-02,  2.6590e-02,  7.1719e-02,  4.5112e-02,  6.5788e-02,
         1.5822e-01,  5.6544e-02,  8.3582e-02,  4.5828e-02, -2.8518e-03,
         3.8290e-02,  5.3371e-02, -2.5454e-02,  1.8601e-01,  6.5252e-02,
         1.8559e-02,  6.2622e-03,  2.4443e-02,  1.3127e-02,  1.5888e-02,
         1.0367e-02,  5.6429e-02,  6.0085e-02,  2.8425e-03,  2.0657e-01,
         1.7256e-02, -1.4753e-02,  2.4911e-02,  1.2427e-01,  8.5350e-02,
         2.7340e-02,  6.7054e-02,  4.4440e-02, -4.3358e-03,  8.4929e-02,
         9.8510e-02,  7.6686e-03,  7.0258e-02,  1.3646e-01, -8.3842e-04,
         3.9154e-02,  1.9961e-01, -7.2388e-03,  2.3882e-02,  7.2022e-03,
         5.6196e-02,  1.6966e-01,  7.9394e-02,  1.0799e-02, -2.1433e-02,
         9.7366e-02,  1.2796e-01,  1.3261e-01,  3.5188e-03,  9.1663e-02,
         1.7198e-01,  2.1076e-01,  4.1228e-02,  1.1025e-02,  2.6175e-02,
         1.0069e-02,  5.2424e-02,  1.8243e-02,  6.9620e-02,  1.4706e-01,
        -1.9884e-02,  3.8610e-02, -1.9613e-02,  1.5802e-01,  7.0899e-02,
        -1.0978e-02,  1.5910e-01,  2.7649e-02,  9.2130e-02,  2.4264e-02,
         2.2482e-02,  8.2455e-02,  4.3879e-02, -2.6969e-04,  8.0857e-03,
         5.5786e-02,  7.4756e-02,  1.3294e-01,  2.3196e-01,  4.9716e-02,
         4.4504e-02,  4.9504e-02,  5.9205e-02, -2.6879e-02,  1.5412e-02,
        -2.8686e-02,  3.2334e-02,  6.8409e-02, -1.0303e-02,  6.1886e-03,
         1.4510e-01,  8.8887e-03,  1.6157e-01,  1.7412e-02,  8.7178e-02,
         5.4535e-02,  5.7317e-02,  5.3318e-02,  1.0372e-01,  1.2785e-01,
         8.7657e-02,  1.2555e-01,  1.5421e-01,  3.6556e-02,  1.4534e-01,
         4.3486e-02,  7.5596e-02,  1.4450e-01,  1.0810e-01,  1.2164e-01,
         8.1675e-02,  1.4143e-02,  6.1196e-02,  8.6829e-02,  9.1955e-02,
         4.8100e-02,  2.5868e-02,  3.0653e-03, -8.3148e-03,  4.7148e-03,
         6.7806e-02,  1.5955e-01,  2.6697e-02,  4.5907e-03,  5.1237e-02,
         1.0523e-01,  2.2078e-02,  6.1205e-02,  1.7875e-01,  7.1863e-02,
         6.5396e-02,  7.0477e-02,  8.2887e-02,  1.8727e-01,  2.1769e-02,
        -4.3259e-02,  9.6516e-02,  9.2665e-02,  6.0274e-05,  8.5467e-02,
         1.5234e-01,  1.8042e-01,  8.2344e-02,  8.1041e-02, -2.0370e-04,
         1.2785e-01,  4.5434e-02, -2.3218e-02,  1.1656e-01,  3.5162e-02,
         7.4047e-02,  4.6252e-02, -4.1037e-02, -7.0750e-02, -3.2355e-02,
         8.2474e-02,  1.2310e-01,  2.7943e-02,  4.6637e-02,  6.3782e-02,
         3.6851e-02,  2.6457e-02,  3.3188e-02,  5.4165e-02,  1.1903e-01,
         2.6161e-01,  2.6775e-02,  1.2817e-01,  8.4648e-03,  1.6199e-01,
         4.5861e-02,  4.8835e-04,  6.1683e-02,  1.0997e-01, -9.0745e-03,
         2.1431e-02,  4.2645e-02,  1.5873e-01,  6.8339e-03,  1.5826e-01,
         7.0980e-03, -5.6010e-02,  6.7300e-02,  5.8256e-02,  9.0032e-02,
         1.1991e-01,  1.0711e-03,  1.5672e-01,  2.9246e-02,  6.9155e-03,
         1.4693e-01,  8.7232e-02,  4.1218e-02,  2.0737e-02, -1.8115e-02,
         1.1983e-01,  7.6350e-02,  8.3092e-02,  7.0357e-02,  1.3358e-01,
         3.8684e-02,  8.5793e-02,  4.0666e-02,  7.8226e-02,  1.2288e-01,
         6.0221e-02,  2.1143e-01,  3.4578e-02, -8.0605e-03, -3.0333e-02,
         1.5735e-01,  1.5395e-01,  1.6235e-02,  2.2838e-03,  4.9651e-02,
        -2.3000e-02,  1.8448e-01,  8.3077e-02,  1.1625e-01,  3.1460e-02,
         1.7424e-01,  1.2451e-01, -3.1414e-03,  1.3210e-01,  4.3339e-02,
         8.4330e-02,  2.8169e-02,  6.3385e-02,  1.9090e-01, -1.3562e-01,
         8.6299e-02,  1.0410e-01,  4.7996e-02,  1.0459e-01,  3.5628e-02,
        -2.5413e-02,  1.3084e-01, -7.5387e-03,  9.0214e-03,  2.0888e-01,
         1.6708e-02,  5.3563e-02, -2.1490e-03,  1.0591e-02, -9.5266e-03,
         1.0751e-01,  5.6786e-02,  3.1725e-02,  1.0699e-02,  9.3471e-03,
         8.7810e-02,  7.2687e-02,  5.0288e-02,  1.2270e-01,  2.4837e-02,
        -8.3529e-03,  6.5951e-03,  1.9988e-01,  1.6969e-02,  2.8342e-02,
         7.6864e-02,  9.2230e-03,  5.3842e-02,  5.8787e-03,  6.4042e-02,
         2.1738e-02,  1.9918e-01,  5.7252e-03,  4.1860e-02,  1.2246e-01,
         9.4229e-02,  1.6958e-02,  1.2776e-01,  3.5153e-02,  1.0239e-01,
         3.5065e-03,  6.8666e-02,  1.2862e-01,  1.2538e-01,  2.0144e-03,
         1.0370e-01,  1.4284e-01,  3.0409e-03,  1.2665e-01,  7.3578e-02,
         8.5351e-02,  5.6065e-02, -4.5702e-02, -2.9208e-02,  4.3286e-02,
         4.8193e-02,  1.2817e-02,  1.5843e-01,  7.7477e-02,  1.5213e-02,
         3.1519e-02,  1.4449e-02,  1.7472e-02,  5.2881e-02,  8.1083e-02,
         7.4575e-02,  5.7654e-02])
net.mlp.net.1.batch_norm.bias tensor([-1.6751e-02,  3.2406e-02, -8.5533e-03, -5.7321e-03, -4.5233e-03,
        -2.0721e-02, -3.9069e-02, -7.0232e-02, -1.6455e-01, -8.8467e-03,
        -8.8993e-03,  1.4323e-01, -1.4170e-02, -2.0363e-02, -1.3332e-01,
         8.5827e-02, -1.1871e-02, -3.6250e-02,  1.8255e-02, -9.7245e-02,
         3.6203e-02, -2.8216e-02, -6.5675e-02, -8.9700e-02, -1.8649e-02,
         1.0414e-03, -4.3357e-02,  3.0354e-03,  1.6143e-01, -4.1030e-02,
         9.4780e-03,  5.2369e-02, -4.0089e-02,  1.2593e-01, -9.9585e-02,
        -3.1367e-02, -9.0037e-02,  1.1074e-01, -1.4349e-03,  4.5233e-02,
         9.0432e-03,  3.6025e-02, -4.6135e-02,  2.1615e-02, -2.6268e-02,
         2.4549e-03,  3.4609e-03,  3.8071e-02, -2.5052e-03, -3.8204e-02,
        -6.1757e-02, -2.6608e-02, -1.5704e-01,  1.0827e-03, -1.0164e-02,
         5.4024e-02,  4.8531e-02, -1.4613e-02,  6.4285e-02, -3.1750e-02,
         5.8157e-02, -8.3487e-03, -2.1715e-03,  3.6391e-02, -1.9808e-03,
        -7.8425e-02,  1.1684e-01,  1.6009e-02, -2.3062e-02, -4.3101e-02,
         3.0699e-02, -1.2255e-02, -3.6181e-02,  8.9786e-02, -5.2438e-02,
         1.2226e-03, -2.3682e-02, -1.6662e-02, -2.0524e-01,  2.7282e-02,
        -2.6243e-03,  2.7559e-02,  1.4182e-02, -4.8508e-02,  1.2644e-01,
        -4.7603e-02, -7.8335e-02, -1.6108e-02,  2.2749e-02,  5.8462e-02,
        -2.3003e-02,  2.5190e-02, -1.3232e-02,  1.0237e-02, -5.0723e-03,
        -3.1830e-03,  9.6995e-02, -3.4178e-02, -2.3457e-02, -1.2240e-01,
        -5.1749e-04,  9.4669e-04,  2.3217e-02,  3.5580e-02, -4.2132e-02,
         3.8878e-02,  1.9243e-02,  1.9184e-02, -4.2632e-03, -3.1721e-02,
         2.0915e-02,  2.6889e-02,  1.0911e-01, -4.1859e-03,  9.8825e-03,
        -2.4732e-02,  6.5958e-02,  2.8676e-02, -9.4093e-02,  2.0852e-02,
        -1.2412e-02, -3.2466e-02, -5.9659e-02, -8.8359e-02,  1.8796e-02,
        -1.0427e-01, -7.1114e-02,  2.9443e-02,  8.9338e-02,  2.0208e-03,
        -8.7182e-02,  1.3785e-01,  5.0119e-02, -6.6092e-02, -3.2818e-04,
        -4.0349e-02, -3.7765e-02,  3.9364e-03,  1.3531e-02,  1.2431e-01,
        -2.7532e-02, -4.1399e-02, -6.5603e-02, -5.7453e-02,  8.8789e-02,
         2.8907e-02,  4.8915e-03,  7.7521e-02,  9.0490e-02,  8.0821e-02,
         1.5876e-02, -3.4838e-02,  1.9546e-02, -3.4031e-02, -2.9203e-03,
        -7.4203e-02, -1.7287e-01, -4.7582e-02, -7.4631e-02, -6.9234e-03,
        -7.5114e-02,  5.5004e-02,  3.6588e-02,  1.4398e-01, -6.0956e-02,
         4.1415e-02, -5.2571e-03, -9.8331e-02, -1.0974e-02, -4.2406e-02,
        -8.7622e-02,  5.1053e-02, -8.7867e-02,  5.6519e-02, -5.4062e-02,
         2.9207e-02, -3.2695e-02,  1.3821e-01, -8.3177e-02,  1.4929e-02,
        -3.3472e-03,  3.8554e-02,  1.1888e-03,  4.9821e-02,  4.6207e-02,
        -4.8819e-03,  4.2884e-03, -2.0668e-03, -3.9180e-03, -7.5353e-03,
        -2.3787e-02,  4.0003e-05, -1.8266e-02, -1.1563e-02,  3.6186e-02,
        -4.8757e-03, -4.4878e-02, -9.2828e-02, -7.7075e-02,  1.2673e-02,
         2.1086e-02,  5.0850e-02, -1.7474e-02, -2.3841e-02, -4.9729e-02,
         9.2666e-03, -2.2588e-02,  5.0199e-02, -1.2788e-02, -3.2078e-02,
         2.6122e-02, -5.3561e-02, -9.5342e-02,  2.9494e-02,  1.4327e-02,
        -1.1956e-02,  1.9148e-02,  2.5438e-03, -6.6021e-02,  5.2921e-02,
         5.6200e-02,  9.8082e-03,  2.1608e-02, -2.8967e-02, -7.5128e-02,
         5.3682e-03, -5.7180e-02,  6.6761e-02,  2.0335e-02, -9.6362e-03,
        -2.4479e-02, -4.3723e-02,  1.5773e-02, -1.7280e-02,  2.6172e-02,
        -1.9597e-03, -2.7222e-02, -1.2472e-03,  5.9121e-03, -8.8507e-02,
        -4.4324e-02,  5.7136e-02,  6.8624e-02, -1.2845e-01, -3.3427e-04,
        -5.7318e-02,  4.3459e-02,  1.0514e-01,  3.6423e-02,  1.4060e-02,
         4.0065e-03,  4.2967e-03,  2.1916e-02, -2.2179e-02, -7.4955e-02,
        -1.4562e-01, -9.5034e-02, -5.0981e-03, -1.6261e-02,  3.4799e-02,
         2.0270e-02, -2.9114e-02,  4.9271e-02, -1.1445e-02, -1.4579e-02,
         7.8730e-03,  2.9250e-02, -1.9913e-02,  3.6692e-02, -4.9539e-03,
         3.8365e-03,  1.1170e-02, -1.2062e-02,  1.2733e-02,  8.1888e-03,
        -5.2562e-03, -7.5043e-02, -7.4438e-02, -6.0057e-02,  1.4851e-02,
        -4.2029e-02, -6.3287e-03,  5.1932e-03, -3.0559e-02, -1.6275e-02,
        -3.0564e-02,  3.7733e-02,  8.2832e-02,  5.1865e-02,  1.9016e-02,
        -3.0862e-02,  1.9034e-02, -5.5251e-02, -4.0779e-02, -5.5620e-03,
         5.2040e-02,  5.7324e-02, -1.0386e-01,  1.2186e-02,  3.3332e-02,
        -1.3819e-02,  3.9024e-02,  8.6110e-02, -1.7401e-02,  4.8230e-03,
         2.7325e-02, -5.2218e-02,  8.9677e-02, -1.7922e-02, -4.8177e-02,
         3.0365e-02, -1.9767e-01,  6.2108e-02,  5.6677e-02,  2.0543e-02,
        -2.3548e-02, -1.8808e-02,  3.8556e-02,  5.8284e-02, -1.6106e-02,
         2.0782e-02, -1.0732e-01,  2.1126e-02, -9.2907e-02,  4.6082e-02,
         4.5208e-02, -3.1180e-02,  4.0939e-03, -2.1997e-02,  5.9160e-03,
         1.8526e-02,  1.4555e-01,  1.1740e-02, -4.9891e-02, -1.5518e-02,
        -3.7486e-02,  1.2443e-02, -2.9247e-02, -1.7877e-02,  1.8519e-01,
         7.7108e-02, -7.4424e-02, -1.8147e-02, -2.0104e-02,  4.4099e-03,
         1.0923e-01, -1.0591e-01, -5.2722e-02, -4.6552e-02, -8.5342e-02,
         1.0395e-01, -1.8325e-02, -2.3480e-02,  8.7741e-03, -7.3595e-04,
        -8.1748e-02, -1.5656e-03, -7.0146e-02,  2.2359e-02, -6.0069e-02,
         2.9852e-02,  3.4001e-02, -1.1566e-01, -1.1812e-01,  1.0164e-02,
        -9.7865e-02,  5.3669e-03, -5.6254e-03,  6.6126e-02,  9.0965e-04,
        -1.0001e-02, -6.6616e-02, -1.1851e-02, -2.4487e-02,  5.5395e-02,
         7.4712e-02, -6.8709e-02,  9.6158e-02, -1.5844e-02, -1.1890e-01,
         1.6162e-02,  3.8947e-02,  2.5898e-02, -9.4713e-06, -3.3201e-02,
         5.6515e-02,  1.1926e-01, -6.4723e-02, -6.1954e-02, -2.4950e-03,
        -4.0730e-02,  5.8419e-02, -1.4079e-02,  2.1249e-02, -2.7446e-02,
        -2.3774e-02,  2.4752e-03, -5.1630e-02, -4.3728e-02,  4.9352e-02,
        -1.8543e-02, -9.0278e-02,  1.0591e-01, -3.9860e-02, -5.7583e-03,
         1.2463e-01, -2.4395e-02,  6.2398e-02, -3.1676e-02, -6.9780e-03,
         4.7647e-02, -4.5945e-03, -3.5469e-02,  8.7117e-02,  1.3150e-01,
        -3.7203e-02, -8.5090e-04,  8.3640e-02,  5.1558e-02,  7.9624e-03,
         5.0319e-02, -6.2255e-02, -5.5864e-02, -6.1789e-02, -2.5563e-02,
        -4.7521e-02,  8.7050e-02, -2.8276e-02, -7.2208e-02, -2.7166e-02,
        -2.2284e-02, -9.1659e-03, -1.8396e-03,  1.9466e-02,  3.5894e-03,
         1.0016e-01, -4.4046e-02, -4.2324e-02,  2.4668e-02, -4.5578e-02,
         4.7456e-03,  1.1103e-02,  6.8442e-02, -4.4167e-02, -8.7714e-03,
         6.4688e-02, -3.2506e-02, -4.7603e-02, -4.0440e-02, -1.0805e-01,
         3.9384e-03,  2.3322e-03,  3.8741e-03,  7.8327e-03,  5.8809e-02,
         7.0909e-02,  5.4355e-03,  2.0094e-02,  1.0902e-02, -4.9537e-02,
        -1.2404e-02, -6.6985e-02,  6.6851e-02, -6.6050e-02,  1.9786e-02,
        -4.7336e-02,  7.0605e-03, -1.9627e-02,  4.8282e-02,  6.9119e-02,
         5.8188e-02,  2.2178e-02,  1.0071e-02,  3.3395e-02,  7.5512e-02,
         1.2273e-02, -1.0526e-02, -5.4286e-02, -1.0058e-02, -2.8344e-02,
         2.7592e-02,  3.0860e-02, -2.0407e-02,  4.3144e-02,  4.8099e-02,
         1.7909e-02,  2.7582e-02,  1.1358e-01,  6.3543e-02, -1.3725e-03,
        -3.3825e-03,  3.2445e-02, -3.0252e-02, -4.2858e-02,  2.9823e-02,
         1.1132e-01,  2.3213e-02,  4.6740e-02, -5.7715e-03,  5.4238e-03,
         1.1762e-03, -5.9205e-02, -4.2824e-02,  5.7202e-02, -2.1470e-03,
         1.2464e-01,  2.0913e-01, -2.9925e-02,  2.9110e-03, -2.1494e-02,
        -2.6827e-02,  6.0821e-02])
net.mlp.net.1.batch_norm.running_mean tensor([1.7000e-01, 2.6959e-01, 1.3258e-02, 5.1140e-02, 2.0838e-01, 2.2355e-01,
        1.0142e-01, 3.1325e-01, 1.6622e-01, 1.0429e-01, 6.1983e-02, 2.2033e-01,
        2.5559e-02, 7.9818e-02, 3.2315e-01, 1.1300e-01, 4.2805e-02, 1.7453e-01,
        4.2615e-02, 3.0301e-01, 8.7834e-03, 9.7738e-02, 2.4733e-01, 2.4546e-01,
        7.4310e-02, 1.4601e-03, 4.0842e-02, 6.8848e-02, 3.0691e-01, 2.0858e-02,
        2.0334e-01, 1.1319e-01, 2.3041e-01, 5.0312e-01, 1.1378e-01, 4.3150e-03,
        3.8455e-02, 4.7355e-01, 5.7347e-02, 5.3555e-02, 1.1118e-01, 6.2189e-02,
        1.6105e-01, 1.4898e-01, 1.8807e-01, 3.9072e-01, 9.5223e-02, 3.4083e-01,
        1.6197e-01, 1.1441e-04, 2.1672e-01, 3.2532e-01, 7.2399e-02, 8.2085e-02,
        9.0468e-02, 7.7582e-02, 1.6345e-01, 1.5665e-01, 1.3195e-04, 5.7154e-02,
        1.0408e-01, 1.0429e-01, 3.1607e-01, 1.4657e-01, 5.6994e-01, 1.2275e-01,
        1.0869e-01, 1.1730e-01, 6.6940e-02, 1.3939e-01, 1.1618e-01, 5.2219e-02,
        1.3243e-01, 5.4019e-02, 6.0491e-02, 4.1209e-02, 1.4433e-01, 8.8891e-02,
        4.1897e-01, 1.1765e-01, 4.1563e-02, 4.2464e-01, 3.9184e-02, 6.0818e-05,
        2.7292e-01, 4.7549e-02, 3.0376e-01, 1.5320e-02, 6.9740e-02, 1.9868e-09,
        1.7304e-01, 5.1877e-02, 4.7118e-02, 1.6528e-01, 1.2612e-01, 1.4158e-01,
        3.6064e-01, 3.6524e-01, 1.1018e-01, 2.5337e-01, 2.8389e-02, 1.7819e-01,
        3.1682e-01, 4.8933e-02, 7.0730e-02, 3.8947e-02, 3.7546e-02, 2.0011e-01,
        9.4912e-02, 3.0236e-01, 1.7204e-01, 1.7229e-01, 7.3836e-02, 1.0361e-01,
        1.5294e-01, 4.7392e-02, 1.3812e-01, 4.8733e-01, 8.8575e-02, 1.9073e-01,
        1.8917e-01, 1.8517e-04, 2.4096e-01, 5.3708e-01, 4.8697e-02, 1.4879e-03,
        3.0508e-01, 4.5724e-02, 1.8261e-01, 5.5914e-02, 6.5909e-05, 2.2918e-01,
        6.8384e-02, 8.1983e-02, 3.5626e-02, 3.1707e-02, 3.4960e-01, 1.0328e-01,
        2.0033e-01, 1.9203e-01, 2.9624e-01, 2.9373e-01, 1.7197e-01, 5.8041e-02,
        4.0851e-01, 1.5009e-01, 3.5556e-02, 9.1916e-02, 6.4000e-02, 3.7572e-01,
        5.4885e-02, 1.6597e-01, 7.9134e-02, 6.7341e-02, 2.6158e-01, 1.8897e-01,
        5.4158e-02, 2.0153e-02, 1.4770e-01, 9.8756e-02, 1.4633e-01, 1.6424e-01,
        3.6314e-02, 4.0364e-01, 9.9832e-02, 8.2518e-02, 3.2810e-02, 4.9523e-02,
        4.4793e-02, 5.1205e-02, 7.4741e-01, 6.7810e-03, 8.7995e-01, 3.2768e-01,
        3.9576e-02, 5.0971e-02, 2.7602e-01, 3.3059e-01, 1.5391e-01, 5.5780e-02,
        2.2673e-01, 1.4275e-01, 4.5048e-02, 3.4680e-01, 1.1751e-01, 3.8022e-01,
        2.0619e-01, 8.9976e-02, 7.2334e-03, 1.0270e-01, 3.6357e-01, 7.5694e-02,
        1.2570e-01, 4.9320e-01, 1.7151e-01, 1.6887e-01, 1.8548e-01, 9.0689e-02,
        1.9316e-01, 1.5871e-01, 1.0354e-01, 3.6594e-01, 1.7785e-01, 7.1741e-02,
        3.7063e-01, 1.6039e-01, 1.4083e-01, 1.0285e-01, 1.8215e-01, 1.3463e-01,
        1.7470e-01, 1.7573e-01, 1.2902e-01, 8.6800e-02, 6.4760e-02, 1.9341e-01,
        4.6680e-01, 1.2729e-01, 5.1318e-01, 2.0030e-01, 1.0933e-01, 1.3399e-01,
        1.4823e-01, 3.7165e-02, 2.6756e-01, 9.2590e-02, 4.6937e-02, 1.3289e-01,
        1.9537e-01, 4.8607e-01, 1.0441e-01, 8.3910e-02, 1.2103e-01, 1.0097e-01,
        3.8475e-01, 1.9121e-01, 1.4797e-01, 1.1719e-01, 4.1056e-02, 1.0445e-01,
        1.0903e-01, 3.0610e-01, 8.5016e-02, 1.5251e-01, 2.7708e-02, 1.6833e-01,
        4.8772e-01, 9.2151e-02, 7.6809e-02, 7.1280e-02, 5.7693e-02, 1.1389e-01,
        2.4522e-01, 3.5313e-02, 4.5816e-02, 2.7425e-01, 2.5221e-01, 6.8411e-02,
        1.9265e-01, 5.3859e-09, 5.3340e-01, 6.4655e-01, 1.3120e-01, 8.7817e-02,
        2.3717e-02, 1.8335e-01, 1.3509e-01, 1.0586e-01, 1.4484e-01, 5.1706e-03,
        9.6880e-02, 5.1531e-02, 4.8698e-02, 2.5997e-01, 9.0640e-02, 3.3772e-02,
        3.6373e-01, 7.6980e-05, 3.7978e-05, 1.0931e-01, 5.3767e-02, 9.3383e-02,
        6.5421e-02, 4.4984e-02, 1.8774e-01, 7.1657e-02, 9.4473e-02, 3.5586e-01,
        3.4836e-01, 9.0968e-02, 1.8970e-01, 8.2839e-02, 3.8924e-02, 3.9951e-02,
        1.0898e-01, 2.0638e-01, 9.1694e-02, 2.6998e-01, 6.0969e-03, 9.8524e-02,
        1.6976e-01, 1.5025e-01, 4.5424e-01, 2.6082e-01, 2.8070e-01, 7.7355e-02,
        1.4802e-01, 2.8236e-01, 3.6758e-01, 6.6329e-02, 1.3598e-01, 3.9733e-01,
        4.2874e-01, 2.1457e-01, 9.4717e-02, 1.0268e-01, 9.1741e-08, 1.2397e-01,
        5.5791e-11, 3.9119e-01, 1.0967e-01, 5.0884e-01, 2.8688e-01, 9.9756e-02,
        2.1135e-01, 3.1129e-01, 1.1941e-01, 9.8421e-02, 3.0274e-02, 1.5764e-01,
        8.2445e-02, 6.9802e-01, 1.6168e-01, 1.2963e-01, 1.2550e-01, 1.8277e-01,
        9.1815e-02, 1.6699e-01, 5.1011e-05, 3.2639e-01, 4.5387e-01, 2.1042e-01,
        4.3916e-02, 6.2585e-02, 4.6366e-02, 5.2396e-08, 1.0003e-01, 5.6223e-01,
        5.0767e-02, 2.0648e-01, 1.2431e-01, 2.2148e-01, 1.1921e-01, 2.0172e-01,
        6.4386e-02, 9.5040e-02, 1.5671e-01, 2.0939e-01, 1.1522e-01, 2.0285e-01,
        9.0932e-02, 2.9923e-02, 2.3296e-01, 5.6463e-02, 2.2723e-01, 6.8141e-02,
        4.0398e-01, 2.6690e-02, 2.2200e-01, 2.2914e-02, 1.0615e-01, 7.3963e-02,
        7.5353e-02, 1.9430e-01, 1.5177e-01, 3.3848e-01, 1.2503e-01, 3.8770e-01,
        9.1750e-02, 2.3209e-01, 1.8286e-01, 3.5189e-02, 2.1951e-01, 1.2576e-01,
        1.6298e-01, 3.3694e-01, 5.1648e-02, 7.4789e-01, 7.5428e-02, 1.3341e-04,
        1.0687e-01, 4.4824e-01, 2.1419e-09, 1.7810e-01, 1.8638e-01, 4.4143e-01,
        1.2813e-01, 5.6093e-01, 1.2359e-01, 1.0646e-01, 4.3394e-01, 1.3635e-01,
        1.1832e-01, 1.3017e-01, 2.9343e-02, 3.4080e-01, 4.7969e-02, 4.9016e-02,
        1.3587e-02, 9.2341e-02, 5.3676e-02, 1.3376e-01, 2.9216e-01, 9.1775e-02,
        3.3952e-01, 3.4278e-02, 1.6707e-01, 1.4279e-02, 9.4735e-02, 5.1092e-02,
        1.9413e-01, 7.9807e-01, 3.8246e-01, 1.8817e-01, 1.2841e-01, 4.0335e-02,
        4.6822e-01, 1.2481e-01, 2.3422e-01, 1.0552e-01, 1.9848e-01, 4.7344e-01,
        8.8315e-02, 3.9346e-01, 3.1302e-02, 2.8275e-01, 1.9525e-02, 1.2351e-01,
        1.0378e-01, 1.4935e-01, 3.9882e-01, 4.0445e-01, 9.7252e-02, 5.6620e-02,
        9.2964e-02, 2.9212e-02, 8.2074e-02, 1.3247e-01, 4.7301e-02, 3.0825e-01,
        8.9029e-02, 2.0621e-01, 1.9399e-02, 1.0844e-01, 1.7856e-01, 2.6166e-01,
        1.4527e-01, 7.2323e-02, 2.8184e-02, 2.9182e-01, 2.2110e-01, 7.9325e-06,
        7.7867e-02, 2.9058e-01, 1.5685e-01, 2.4841e-01, 1.1612e-01, 2.6818e-01,
        1.3544e-01, 2.5932e-01, 2.9202e-01, 6.7685e-01, 8.5106e-02, 6.3555e-02,
        4.3665e-01, 7.1548e-02, 1.2871e-01, 1.9644e-01, 1.5715e-01, 1.3739e-01,
        2.0917e-01, 1.2095e-01, 6.1600e-02, 1.1115e-01, 1.7260e-01, 1.3645e-01,
        2.2196e-01, 2.1557e-02, 2.7009e-01, 6.1546e-02, 7.9397e-02, 2.3024e-01,
        1.7182e-02, 1.6167e-01, 5.4888e-02, 7.8267e-02, 4.4629e-02, 1.9757e-01,
        1.4773e-02, 2.2691e-01, 9.9071e-02, 1.5666e-01, 4.5577e-01, 1.3569e-01,
        8.7400e-02, 4.0323e-02, 9.1707e-02, 1.2553e-01, 3.4870e-02, 7.2866e-02,
        6.7973e-02, 2.0890e-01])
net.mlp.net.1.batch_norm.running_var tensor([8.0308e-02, 6.4766e-02, 5.8606e-03, 1.3157e-02, 7.3745e-02, 4.1122e-02,
        4.2700e-02, 1.6052e-01, 1.0649e-01, 2.5987e-02, 1.0124e-02, 3.3356e-01,
        3.4591e-03, 3.6441e-02, 7.5907e-02, 6.3151e-02, 6.3540e-03, 8.2326e-02,
        6.4943e-03, 2.1915e-01, 3.0725e-03, 2.0142e-01, 1.1042e-01, 1.3445e-01,
        3.7412e-02, 1.7752e-04, 3.1006e-02, 2.9647e-02, 1.1033e-01, 1.4124e-02,
        1.8869e-01, 8.6058e-02, 1.4341e-01, 7.2229e-02, 5.6610e-02, 2.0486e-03,
        1.3244e-02, 7.9469e-02, 5.5643e-02, 1.1947e-02, 2.4582e-02, 3.9080e-02,
        4.6741e-02, 3.9178e-02, 7.0117e-02, 2.2384e-01, 3.7145e-02, 1.9339e-01,
        2.7024e-02, 3.4350e-05, 1.5316e-01, 1.3311e-01, 2.0918e-02, 1.3759e-02,
        2.9695e-02, 3.1418e-02, 9.0218e-02, 1.5563e-01, 4.4205e-05, 2.0946e-02,
        5.3346e-02, 5.4864e-02, 1.0644e-01, 1.2202e-01, 5.1367e-01, 7.2556e-02,
        7.8942e-02, 5.9403e-02, 4.9910e-02, 1.0596e-01, 2.8077e-02, 5.2964e-02,
        3.3440e-02, 2.4230e-02, 4.1970e-02, 1.3869e-02, 1.8300e-02, 1.1622e-02,
        1.5561e-01, 5.0882e-02, 1.9135e-02, 2.1797e-01, 1.7532e-02, 2.5353e-05,
        1.6189e-01, 9.4229e-03, 1.7127e-01, 1.8226e-03, 4.0311e-02, 7.2487e-10,
        8.4143e-02, 2.2470e-02, 2.3204e-02, 2.3128e-02, 9.1488e-02, 1.1626e-02,
        1.2779e-01, 7.3418e-02, 1.0472e-02, 1.0460e-01, 6.1674e-03, 6.1224e-02,
        1.2530e-01, 6.8754e-02, 4.2502e-02, 1.8528e-02, 6.1636e-03, 8.8020e-02,
        2.5730e-02, 2.1485e-01, 1.8296e-01, 2.5686e-02, 3.3338e-02, 3.0026e-02,
        3.1822e-02, 6.8780e-03, 9.5704e-02, 9.8147e-02, 6.2706e-02, 5.8930e-02,
        6.1252e-02, 3.8545e-05, 9.2952e-02, 1.3710e-01, 6.3462e-02, 3.5936e-04,
        9.7097e-02, 1.8183e-02, 6.6360e-02, 1.7994e-02, 8.4071e-06, 7.9436e-02,
        2.6248e-02, 5.8240e-02, 3.6893e-03, 6.7472e-03, 1.2918e-01, 1.5480e-02,
        2.0219e-01, 9.0475e-02, 1.2047e-01, 1.0720e-01, 4.0934e-02, 4.2562e-02,
        1.3348e-01, 6.7366e-02, 3.9771e-03, 4.4716e-02, 6.1885e-02, 1.3120e-01,
        2.8086e-02, 4.0391e-02, 3.3546e-02, 8.6236e-02, 9.9786e-02, 1.9378e-02,
        3.6986e-02, 2.1586e-02, 3.2440e-02, 2.6254e-02, 1.5164e-02, 5.4778e-02,
        5.3376e-02, 2.1711e-01, 3.8628e-02, 5.6947e-02, 1.0647e-02, 2.2124e-02,
        3.4093e-02, 4.1836e-02, 1.9640e-01, 8.1676e-04, 3.4531e-01, 1.4209e-01,
        2.4269e-02, 4.2887e-02, 1.8563e-01, 1.8932e-01, 2.7327e-02, 8.3528e-03,
        3.4235e-02, 3.6790e-02, 1.3905e-02, 1.9736e-01, 3.6127e-02, 1.0081e-01,
        4.9436e-02, 1.8388e-02, 2.5198e-03, 1.2510e-02, 1.0259e-01, 3.9037e-02,
        1.8444e-02, 2.9033e-01, 3.8539e-02, 5.8682e-02, 6.3649e-02, 3.3643e-02,
        4.9578e-02, 4.0887e-02, 2.3007e-02, 1.2014e-01, 7.6061e-02, 2.6442e-02,
        1.4259e-01, 6.2353e-02, 9.3379e-02, 4.7737e-02, 5.3047e-02, 3.7276e-02,
        8.1586e-02, 4.0378e-02, 7.1621e-02, 6.6320e-02, 1.2836e-02, 9.5712e-02,
        2.1708e-01, 1.8098e-02, 2.3460e-01, 2.7705e-02, 1.0234e-02, 4.5168e-02,
        5.2909e-02, 1.3949e-02, 1.7752e-01, 2.2466e-02, 2.1494e-02, 8.4947e-02,
        2.2594e-02, 2.1642e-01, 1.9176e-02, 1.2685e-02, 3.6165e-02, 5.8473e-02,
        1.3328e-01, 4.4026e-02, 2.5041e-02, 5.0500e-02, 3.1975e-03, 2.9969e-02,
        3.7242e-02, 8.3867e-02, 2.5704e-02, 9.3078e-02, 2.4221e-03, 3.3715e-02,
        3.4730e-01, 2.9498e-02, 1.8603e-02, 1.2755e-02, 6.8094e-02, 7.8883e-02,
        1.4971e-01, 1.8310e-02, 1.1117e-02, 9.9921e-02, 2.1011e-01, 2.8452e-02,
        3.8809e-02, 1.3347e-09, 2.7790e-01, 4.6472e-01, 4.4178e-02, 9.6541e-02,
        1.0380e-02, 5.0008e-02, 5.2542e-02, 2.8523e-02, 4.6802e-02, 4.7193e-03,
        1.5243e-02, 1.3803e-02, 8.2705e-03, 1.5726e-01, 3.3893e-02, 1.1521e-02,
        1.5929e-01, 8.9117e-06, 8.0665e-06, 2.2908e-02, 2.3323e-02, 2.4610e-02,
        6.2845e-02, 1.4098e-02, 2.2305e-02, 6.7982e-02, 2.3980e-02, 1.8897e-01,
        2.2555e-01, 1.5226e-02, 9.8909e-02, 5.1581e-02, 1.3012e-02, 9.0437e-03,
        4.2285e-02, 5.4169e-02, 3.1521e-02, 1.0861e-01, 6.1189e-04, 1.3923e-02,
        8.7659e-02, 7.7748e-02, 1.7623e-01, 8.4091e-02, 1.1394e-01, 3.5392e-02,
        4.8686e-02, 2.2211e-01, 1.1538e-01, 7.3071e-02, 4.2155e-02, 1.3528e-01,
        2.0979e-01, 3.3839e-02, 1.5678e-01, 4.3632e-02, 9.0341e-09, 5.7748e-02,
        1.8128e-11, 1.6165e-01, 5.4997e-02, 8.5067e-02, 1.0589e-01, 4.3354e-02,
        6.1560e-02, 4.4830e-02, 2.8146e-02, 3.0145e-02, 4.8274e-03, 4.0317e-02,
        1.7988e-02, 4.2558e-01, 6.0051e-02, 1.4705e-02, 8.2748e-02, 8.3042e-02,
        3.2236e-02, 4.6994e-02, 9.8170e-06, 2.6371e-01, 1.6248e-01, 1.5583e-01,
        2.4470e-02, 3.6878e-02, 6.3003e-03, 4.6555e-09, 9.5242e-02, 1.8471e-01,
        4.0722e-02, 2.0438e-01, 7.1818e-02, 1.5125e-01, 3.7647e-02, 6.3991e-02,
        3.1238e-02, 4.2429e-02, 4.6936e-02, 5.1253e-02, 3.9173e-02, 6.5220e-02,
        2.2090e-02, 2.1530e-02, 4.2985e-02, 5.9374e-02, 3.0612e-02, 2.6109e-02,
        3.1071e-01, 9.6161e-03, 8.4809e-02, 5.5664e-03, 1.7758e-02, 1.7950e-02,
        2.1356e-02, 8.1422e-02, 3.9051e-02, 3.0455e-01, 4.1475e-02, 1.4425e-01,
        8.4261e-03, 1.2846e-01, 8.2785e-02, 1.4120e-02, 4.5153e-02, 6.9636e-02,
        3.7783e-02, 1.4500e-01, 1.0724e-02, 3.1440e-01, 4.9001e-02, 1.3999e-04,
        5.7418e-02, 1.1664e-01, 7.2454e-10, 5.7601e-02, 1.7660e-01, 5.5828e-01,
        4.3557e-02, 3.1403e-01, 5.2756e-02, 4.2995e-02, 2.1720e-01, 5.2967e-02,
        5.7292e-02, 8.0661e-02, 4.0536e-03, 2.5238e-01, 4.7987e-02, 9.2353e-03,
        7.6258e-03, 3.8843e-02, 1.8454e-02, 4.6614e-02, 9.1676e-02, 2.8686e-02,
        4.2057e-01, 6.8990e-03, 1.1918e-01, 3.8295e-03, 9.1587e-03, 2.3653e-02,
        1.1984e-01, 2.6877e-01, 1.0931e-01, 6.4425e-02, 5.7382e-02, 4.9908e-03,
        3.0808e-01, 1.2347e-01, 1.3413e-01, 2.1251e-02, 1.0992e-01, 1.4852e-01,
        1.0100e-02, 1.2641e-01, 6.2446e-03, 1.1887e-01, 1.0854e-02, 1.3400e-01,
        5.7375e-02, 5.0004e-02, 2.5090e-01, 1.5484e-01, 2.7263e-02, 1.5902e-02,
        2.6473e-02, 2.1169e-02, 3.4002e-02, 3.1589e-02, 3.1279e-02, 2.3219e-01,
        2.9105e-02, 1.0394e-01, 3.7347e-03, 3.2657e-02, 1.0874e-01, 8.3592e-02,
        6.1521e-02, 1.8316e-02, 3.2596e-03, 3.3662e-01, 8.5218e-02, 4.8176e-07,
        1.9607e-02, 9.3779e-02, 6.8803e-02, 5.4410e-02, 3.2500e-02, 1.7646e-01,
        3.4016e-02, 3.6548e-02, 1.1338e-01, 6.3250e-02, 2.3315e-02, 4.6660e-03,
        1.2954e-01, 2.4889e-02, 8.9305e-02, 4.0185e-02, 3.3973e-02, 8.7876e-02,
        6.3634e-02, 4.3499e-02, 3.4972e-02, 1.5036e-01, 6.9223e-02, 1.4321e-02,
        1.0492e-01, 9.3984e-03, 1.4093e-01, 2.3897e-02, 2.2947e-02, 1.3030e-01,
        1.0103e-02, 7.2585e-02, 1.2509e-02, 3.5874e-02, 5.9736e-02, 7.9604e-02,
        2.4451e-03, 1.0443e-01, 6.7380e-02, 5.3346e-02, 1.8504e-01, 3.6734e-02,
        1.5942e-02, 1.0245e-02, 3.7114e-02, 1.7972e-02, 7.8399e-03, 2.9301e-02,
        1.9405e-02, 7.0858e-02])
net.mlp.net.1.batch_norm.num_batches_tracked tensor(570)
net.mlp.net.2.weight tensor([[-4.9985e-02, -4.1729e-03,  3.4016e-03,  2.1523e-03,  8.7211e-03,
          1.3860e-03,  1.8758e-02, -8.2709e-02,  8.2822e-02,  1.1295e-02,
          2.1169e-04,  9.5646e-02,  1.5918e-03,  4.6776e-02,  3.8250e-02,
         -1.8902e-02, -1.8347e-03,  4.9392e-02, -1.9880e-03, -3.3209e-02,
         -1.0517e-02,  4.3388e-03, -1.7428e-02,  1.6686e-02,  7.4660e-03,
         -1.6224e-03,  1.4549e-02,  2.7319e-02,  4.4518e-02,  4.8447e-03,
         -7.0541e-02,  1.1275e-02,  2.9823e-02, -4.9604e-02,  5.6535e-02,
          2.6452e-02,  5.1050e-02, -3.8608e-02,  2.3495e-03,  2.7083e-03,
          4.1792e-04, -1.8846e-03, -4.3095e-03, -3.8381e-03,  5.7441e-02,
         -3.7683e-02,  7.6714e-03, -4.5450e-02,  5.8947e-03, -3.9767e-02,
          8.4847e-02, -4.0996e-02,  4.7122e-02, -1.8618e-03,  2.2722e-03,
          1.6495e-02,  6.0231e-02, -2.5468e-02,  8.0886e-03,  4.5821e-03,
          5.6853e-02,  3.6932e-02, -2.1182e-02, -4.4237e-02, -9.8874e-02,
          5.3104e-02,  4.1931e-02, -3.8353e-02,  4.8462e-03,  1.1367e-02,
         -2.0772e-02, -2.2960e-02, -6.2461e-03, -2.2434e-02,  1.0765e-02,
          1.2863e-03,  2.4697e-03,  1.4761e-03,  5.8025e-02,  3.0910e-02,
          3.5413e-02,  3.3200e-02,  1.5545e-02, -2.6291e-02, -8.2898e-02,
          1.3005e-02, -6.3734e-02, -1.7519e-03,  1.4639e-02,  1.5281e-02,
          1.4668e-02, -6.2601e-03,  1.3443e-03,  3.1584e-03, -5.0758e-02,
          9.6881e-04, -3.1264e-02,  3.3564e-02,  3.0486e-03,  5.6225e-02,
          1.1771e-02, -2.4395e-02, -5.1264e-02,  1.2007e-02,  9.2131e-03,
          8.8878e-03,  8.9994e-03, -6.6559e-03,  1.1641e-02, -4.4042e-02,
         -6.7641e-03,  8.2538e-03,  3.6785e-02, -1.3501e-02,  1.2637e-03,
          9.1270e-03,  5.8883e-02,  1.3426e-02, -4.3566e-03,  1.1540e-02,
          2.2657e-03, -3.4625e-03, -4.3481e-02,  3.3812e-03, -1.2269e-02,
         -3.6098e-02, -2.7655e-02,  2.6941e-02,  9.6788e-03,  1.2707e-02,
         -2.1921e-02, -6.4745e-02,  6.6690e-03, -1.0914e-02, -3.2855e-04,
         -1.8031e-02, -2.8217e-02, -2.0482e-04, -3.0117e-02,  1.3767e-02,
          3.4698e-03,  1.0716e-03, -1.5359e-02, -3.5575e-03, -1.0489e-02,
          7.7454e-03,  1.4883e-03, -1.0766e-02,  2.9961e-02, -5.1047e-02,
          1.1615e-02, -1.2801e-02,  3.6039e-03, -1.2109e-03, -2.3055e-02,
         -1.3752e-02, -3.3595e-02,  2.8499e-03, -1.0876e-02,  4.4314e-05,
          1.2319e-02, -2.8801e-03,  4.3022e-02,  7.6720e-02,  2.8612e-02,
          1.2868e-02, -9.7162e-04,  3.9166e-02, -7.1264e-03,  1.0817e-02,
         -6.5821e-02, -1.2794e-03, -5.7550e-02,  8.6850e-03, -1.3740e-03,
         -3.0295e-03, -5.2678e-02, -3.9581e-02, -1.4821e-02,  5.4991e-03,
          9.2069e-03, -3.4770e-02, -3.4415e-03,  4.1353e-02,  1.1478e-02,
         -1.8805e-02, -1.4557e-02, -6.4359e-04, -8.6231e-03,  1.9061e-03,
          8.2926e-03, -2.2889e-03,  3.2981e-03, -4.7774e-02,  1.9647e-02,
         -8.0807e-03, -1.0337e-02,  3.5442e-02,  2.3918e-02, -5.8340e-03,
         -1.9225e-03,  1.9967e-02, -7.4872e-03, -2.0242e-02,  3.8808e-02,
         -6.1894e-03,  4.2260e-03,  9.1992e-03, -3.4704e-03, -1.9739e-02,
         -5.4099e-02, -1.7100e-02,  7.9351e-03,  2.2859e-03, -3.1810e-03,
          8.8045e-03, -5.5268e-03,  4.6039e-03,  5.7290e-02, -2.4237e-02,
         -5.3220e-03, -1.8814e-03,  3.2935e-03, -6.3739e-04,  4.4281e-03,
          2.3258e-03,  1.6821e-02, -1.1269e-02, -3.8036e-03, -8.7891e-02,
         -7.7519e-03,  7.5670e-04,  3.1423e-03, -3.2537e-02,  1.9836e-02,
         -5.1384e-03,  1.6566e-02, -1.3142e-02, -8.6036e-04,  3.8605e-02,
          3.9135e-02,  1.0917e-02,  2.9365e-02,  6.2688e-02,  6.4217e-06,
          1.3820e-02, -7.1900e-02, -5.9507e-03,  5.9034e-03,  2.2373e-03,
         -1.3221e-02, -5.4049e-02,  1.5299e-02, -4.1640e-03,  1.7552e-02,
          5.5330e-02,  5.0125e-02,  3.1925e-02, -3.3302e-04,  1.3019e-02,
         -6.0717e-02, -7.7291e-02,  1.1441e-02,  1.8680e-03,  5.9149e-03,
         -5.1611e-04, -8.6980e-03,  4.9013e-03,  1.9567e-02, -4.5774e-02,
          5.0299e-03, -3.3839e-04,  6.0377e-04, -4.6172e-02,  1.4918e-02,
          1.7030e-03,  5.9692e-02, -1.9351e-02,  1.8018e-02,  1.8549e-03,
          2.7011e-03,  1.4708e-02, -2.5968e-03,  1.7986e-03, -3.7260e-03,
          9.0500e-03,  1.9653e-02, -4.7268e-02, -1.0083e-01, -1.1791e-02,
         -9.8068e-03,  8.9914e-03, -1.8440e-02,  8.8662e-03,  8.7913e-04,
          1.2469e-02, -1.4708e-02,  3.2982e-02, -2.9438e-03, -3.2501e-03,
          4.4909e-02,  4.8834e-03, -6.0176e-02, -4.9329e-03, -2.5838e-02,
          1.2379e-02, -1.4944e-02,  1.0051e-02, -2.7401e-02,  3.2433e-02,
          2.4440e-02, -7.2596e-02, -4.7062e-02, -1.2540e-02, -4.3517e-02,
          6.7650e-03,  2.3155e-03,  4.7490e-02,  3.0152e-02,  3.0829e-02,
          6.5351e-03,  2.1623e-02, -7.1105e-03,  1.8976e-02, -2.3578e-02,
         -1.5224e-02,  8.3821e-04, -6.6693e-04,  4.9590e-04, -6.9204e-04,
         -1.4018e-02, -7.9713e-02,  5.7045e-03, -2.4898e-03, -2.4096e-04,
         -2.9067e-02,  3.4998e-03,  1.3715e-02,  4.5756e-02, -7.5124e-02,
         -1.7681e-02,  2.0236e-03, -8.0345e-03,  6.5318e-02,  2.7917e-03,
          2.6339e-02, -3.6436e-02, -1.8623e-02, -5.1993e-03,  5.7711e-03,
          5.3376e-02,  6.3010e-02, -1.7027e-02, -2.2891e-02, -5.8819e-04,
          5.3510e-02,  1.3322e-02, -6.7516e-03, -3.8932e-02, -6.4935e-03,
         -1.3581e-02, -1.2247e-03, -2.4530e-02, -1.2672e-02,  7.1064e-03,
          3.6957e-02, -2.3247e-02,  7.9333e-03, -1.9307e-02, -1.4727e-02,
         -4.7010e-03, -4.5490e-03,  6.1049e-03,  1.0641e-02,  4.7349e-02,
         -1.1488e-01,  1.4463e-02,  4.1054e-02, -3.6316e-04, -8.1417e-02,
         -5.1348e-03, -5.0359e-03,  1.7709e-02,  2.0843e-02,  4.1054e-03,
         -1.1421e-02,  2.5977e-02,  5.9802e-02, -1.0596e-02, -4.3876e-02,
         -2.8314e-03,  1.2075e-02, -1.2051e-02, -1.4090e-03,  1.8059e-02,
          3.3052e-02,  4.1147e-04, -6.0688e-02,  7.6906e-03,  8.0065e-03,
         -4.5282e-02,  2.2972e-02, -2.7268e-02,  2.5596e-03, -2.2764e-03,
         -4.9642e-02,  7.8768e-03, -3.0747e-02,  1.6406e-02,  3.2868e-02,
         -1.1370e-02,  2.3409e-02, -9.5581e-03,  3.1226e-02, -4.6964e-02,
          1.9817e-02,  7.5198e-02,  1.7056e-02,  7.7804e-03, -5.2237e-03,
         -6.7590e-02, -5.4725e-02,  4.5019e-03, -7.7555e-03, -1.2050e-02,
         -5.2998e-03,  6.3518e-02,  1.8173e-02,  4.4617e-02, -6.7554e-03,
         -6.5382e-02, -4.2782e-02, -4.6353e-04, -4.1831e-02,  1.2673e-02,
         -3.4891e-02,  7.5709e-03,  1.1926e-02,  7.6354e-02, -5.2405e-02,
          1.3549e-02,  1.8765e-02, -1.7111e-02,  3.4775e-02,  5.8954e-03,
          2.5058e-03,  4.3762e-02, -8.3180e-03,  4.3721e-03, -9.5224e-02,
         -3.8900e-03,  2.3192e-03, -4.4069e-04, -5.3795e-04, -1.0287e-02,
          4.2131e-02,  3.5016e-03, -5.8691e-03,  1.6791e-03, -5.7269e-03,
         -2.5122e-02,  1.6529e-02,  2.1332e-02,  3.6222e-02, -4.5221e-03,
          3.1275e-03, -2.1972e-04, -6.3754e-02,  1.3229e-02, -1.7029e-02,
         -1.8314e-02,  2.8691e-03,  1.2783e-02,  5.1802e-03, -2.5532e-02,
         -1.8004e-03, -8.5127e-02, -3.2812e-03, -7.3461e-03, -3.0519e-02,
         -2.0097e-02, -1.5118e-03, -4.0304e-02,  1.4137e-02,  3.1506e-02,
          6.4960e-04,  1.3775e-02, -4.8706e-02, -3.7625e-02, -2.2057e-04,
          3.0183e-02, -4.8388e-02,  2.6606e-03, -4.5135e-02,  2.0033e-02,
          3.1761e-02,  1.6664e-02,  1.0848e-02, -7.9071e-03, -1.4323e-03,
          5.1553e-03,  5.5937e-04, -5.9851e-02,  2.8966e-02,  2.4553e-03,
         -3.2160e-02,  5.9206e-02, -5.1534e-03,  3.1452e-03,  1.9291e-02,
          9.2919e-03,  1.4013e-02]])
