Weights: 
net.embeddings.embeddings.0.weight tensor([[-0.2920, -0.4267],
        [-0.5878, -0.1419],
        [-0.1782,  0.5039],
        [-0.3617, -0.0210]])
net.embeddings.embeddings.1.weight tensor([[-0.2368,  0.0577],
        [ 0.6440,  0.2907],
        [ 0.1545,  0.4977],
        [-0.4501,  0.6134],
        [-0.0974,  0.0229]])
net.embeddings.embeddings.2.weight tensor([[-0.3172,  0.0396,  0.1206],
        [-0.1762,  0.0357, -0.3121],
        [-0.1972, -0.3948,  0.4829],
        [ 0.1620,  0.1051, -0.2403],
        [-0.1742,  0.3045,  0.2322],
        [-0.2031, -0.3964,  0.3363]])
net.embeddings.embeddings.3.weight tensor([[ 0.1375,  0.3758],
        [-0.2217,  0.5826],
        [-0.4837,  0.0706],
        [-0.5104, -0.3590]])
net.embeddings.embeddings.4.weight tensor([[ 0.4963, -0.6086],
        [-0.5584,  0.2248],
        [ 0.6021,  0.2911],
        [ 0.3430,  0.3380]])
net.mlp.net.0.linear.weight tensor([[ 0.0556, -0.4276,  0.0533,  ...,  0.1468,  0.0664, -0.0658],
        [-0.0727,  0.2331,  0.0666,  ..., -0.2624,  0.8315,  0.0485],
        [ 0.3601, -0.3956,  0.2772,  ..., -0.0775, -0.0625,  0.1470],
        ...,
        [ 0.2093,  0.0612,  0.2772,  ...,  0.1354,  0.0967, -0.2849],
        [ 0.1138, -0.1350,  0.3034,  ..., -0.1425,  0.3284,  0.2833],
        [-0.2082,  0.4272,  0.0927,  ...,  0.1382,  0.0426,  0.8433]])
net.mlp.net.0.linear.bias tensor([ 6.2686e-02, -9.2124e-02,  7.2532e-02,  1.4430e-02, -1.0888e-01,
        -8.2365e-02,  3.2655e-02, -6.1409e-02, -4.2147e-02,  8.7660e-02,
        -8.6217e-05, -8.7722e-02,  6.1574e-02,  1.7263e-01,  4.4484e-02,
         1.5288e-01, -1.9372e-01, -1.4632e-01, -2.6581e-02,  3.0031e-02,
        -3.4875e-02, -1.6856e-01, -6.1204e-02,  1.6541e-01,  4.4621e-02,
        -4.9972e-02,  1.1346e-01, -1.0352e-02, -9.8291e-02,  1.8895e-01,
         2.0945e-02, -5.2515e-02, -1.7899e-01,  3.3501e-02, -1.5558e-01,
         5.0914e-02,  2.1185e-03, -6.3510e-02,  2.0183e-01,  1.2633e-01,
         5.8642e-02, -1.9843e-01,  1.0891e-01, -7.8097e-02,  1.0589e-01,
        -3.0134e-03,  1.8959e-01, -2.1751e-02,  3.9407e-02,  2.1585e-01,
        -2.5925e-02, -5.0389e-03,  1.1207e-01, -3.1316e-02,  9.0512e-02,
        -7.3175e-02,  1.5882e-01,  4.5832e-02,  4.6541e-02,  1.1713e-01,
         1.4341e-01,  1.1325e-01,  1.5906e-02, -5.5653e-02,  8.5441e-02,
        -2.0967e-01, -1.1593e-01,  1.2343e-01,  4.8911e-02,  1.9915e-01,
        -5.3084e-02,  1.5659e-01, -7.3023e-02, -1.1075e-01, -1.8319e-01,
        -1.6893e-01,  6.5543e-02,  1.5966e-01,  1.3016e-01, -2.2232e-01,
         1.2880e-01, -1.4594e-01,  1.9240e-01,  1.9253e-01,  4.1017e-02,
        -2.2273e-01, -1.4515e-01,  2.0312e-02, -1.8905e-01, -1.8903e-01,
        -1.6688e-01, -2.0389e-01, -5.5551e-02, -6.3170e-02,  7.4912e-02,
        -1.2172e-01, -1.1839e-01, -1.4867e-02,  1.8358e-01,  1.9875e-01,
         5.1261e-02, -2.7036e-02, -8.3054e-02, -5.8005e-02, -4.7838e-02,
        -3.6223e-02,  1.1345e-01, -2.1468e-01,  1.7821e-01, -1.4684e-01,
         2.5992e-02,  1.0167e-01, -9.1000e-02,  7.7654e-02, -7.1806e-02,
         2.1360e-01,  7.1710e-02,  6.3655e-02,  2.2624e-01, -1.8599e-02,
         8.5328e-02, -1.5211e-01, -8.8500e-02, -1.3866e-01, -3.0965e-02,
         1.8975e-01,  1.4805e-01,  1.8175e-01, -1.3289e-01,  1.0825e-01,
         4.9101e-02, -3.4783e-02, -7.5278e-02,  1.0285e-01, -5.4405e-02,
        -1.2371e-02, -1.3870e-01,  1.8355e-01, -4.7647e-02,  3.2560e-02,
         2.3012e-02, -1.5460e-01, -5.9890e-02, -6.1430e-02, -1.9543e-01,
        -2.0794e-02, -1.9424e-01, -8.8456e-02, -2.0061e-01, -1.2935e-01,
         1.3972e-01, -6.0322e-02, -1.2459e-01,  7.7947e-02,  8.7301e-02,
         2.1302e-01, -2.1617e-01,  1.2868e-01,  5.6766e-03, -1.7994e-02,
        -2.9027e-02,  8.0738e-02,  1.3698e-01, -5.4978e-02, -2.0146e-01,
        -7.0094e-02,  1.2438e-01, -2.1221e-01,  2.2229e-01, -2.8482e-02,
        -1.1429e-01,  7.6622e-02, -3.3878e-02, -5.4643e-02,  4.9044e-02,
        -4.4432e-02,  2.1889e-01,  6.8141e-02, -2.8110e-02,  1.5404e-02,
        -4.4054e-02, -9.4721e-02, -6.8713e-02,  1.5637e-01, -1.4102e-01,
         1.9528e-01,  5.2346e-02, -1.1082e-01, -1.7061e-01,  4.7138e-02,
        -1.8436e-01, -7.2683e-02, -1.9240e-01, -1.6892e-01, -1.6337e-01,
        -1.0526e-01,  6.0152e-02, -8.4147e-02, -7.8381e-02,  2.5174e-02,
         1.0526e-01, -1.2136e-01, -1.7753e-01,  1.1732e-01,  7.6963e-02,
        -1.8485e-01,  1.7563e-01, -1.5354e-01, -1.3394e-01, -1.7604e-01,
        -1.7649e-01, -9.0119e-02,  1.8279e-01,  1.7482e-01, -2.1552e-01,
        -5.2600e-02,  3.8851e-02, -9.2929e-02, -5.4583e-02,  1.5759e-01,
         8.1241e-02, -3.4524e-02,  4.5896e-02,  1.6515e-01, -2.1582e-01,
         1.7066e-01, -2.2192e-01, -8.9983e-03, -2.8186e-03, -6.1117e-03,
         1.5329e-01, -2.1260e-01,  6.5830e-02,  2.1154e-01, -8.1368e-02,
        -1.7853e-01, -4.1376e-02, -3.7120e-02, -4.9978e-03, -1.7338e-01,
         1.2411e-01,  1.8903e-01, -9.9324e-02, -6.3679e-02,  2.1075e-01,
        -1.6417e-01,  1.5739e-01,  1.1087e-01,  3.1125e-02, -1.1998e-01,
         2.8828e-02,  1.0679e-01, -1.8600e-02, -6.0097e-02,  1.6872e-01,
        -8.6465e-02,  1.5725e-01,  9.7562e-02,  1.8646e-01, -1.4704e-01,
         5.9792e-02,  2.0376e-01, -1.6295e-01, -2.2061e-01,  2.1160e-01,
         1.4580e-01,  4.4176e-03,  7.1614e-03, -2.8894e-02, -1.6588e-01,
        -2.0829e-01, -9.5849e-02,  1.7402e-03, -2.2589e-01,  1.6178e-01,
        -2.3555e-02, -4.4646e-02,  1.7655e-01, -1.7651e-01,  1.2415e-01,
         3.3220e-02, -1.1728e-01, -1.6823e-01, -2.0595e-01, -1.8710e-01,
        -1.4852e-02, -4.3206e-02, -2.4803e-02, -2.1795e-01,  8.8386e-02,
        -9.8129e-02,  1.6691e-01,  1.7816e-01, -2.6458e-02,  1.2552e-01,
        -6.8937e-02,  8.0036e-02, -6.0029e-02,  2.1271e-01, -1.9782e-01,
        -7.3695e-02, -7.2882e-02,  1.8532e-01, -6.3293e-03,  1.2130e-01,
         1.7011e-01,  1.5762e-01,  2.1356e-01,  1.1821e-01,  4.2111e-02,
        -2.2550e-01,  7.4249e-02,  1.4419e-01,  2.2394e-01,  1.0797e-01,
         9.0132e-02, -1.2562e-01, -1.7983e-01, -1.3844e-01, -6.0609e-02,
        -1.3868e-01, -6.4322e-02,  1.3887e-01, -1.4337e-02,  2.1232e-01,
         6.4380e-02,  1.4797e-01, -5.5593e-02,  1.1412e-01,  2.0837e-01,
        -1.2223e-01,  9.2566e-02,  2.1440e-03,  1.8656e-01, -2.0013e-01,
        -3.9198e-02,  7.9096e-02, -1.4805e-01, -1.1301e-01,  5.7430e-02,
         1.1717e-01,  5.3732e-02, -1.8514e-01, -3.0387e-02,  1.3128e-02,
        -1.7050e-01, -6.1267e-03,  6.6196e-02, -2.1678e-01, -1.8710e-02,
         1.9031e-01, -1.7377e-01,  3.4393e-02, -8.7951e-02, -2.3000e-02,
        -5.6792e-03, -9.3297e-03,  1.5382e-01, -1.0130e-01, -1.3695e-01,
        -2.1675e-01, -1.0142e-01,  1.7030e-01, -1.5052e-01,  1.3236e-01,
         6.5363e-02,  1.9401e-01,  1.4868e-01,  1.9868e-01,  6.0632e-02,
        -2.2161e-01,  1.3638e-01,  1.4260e-01,  1.9734e-01, -8.1275e-02,
        -1.3667e-01,  6.4621e-02,  1.2239e-01, -7.2331e-02,  1.9656e-01,
         1.9677e-02, -9.2282e-03,  6.9581e-02,  1.4385e-01, -1.3558e-01,
         1.9954e-02,  1.3858e-01, -3.5511e-02, -1.7582e-01,  2.1856e-01,
         1.9138e-01,  2.0597e-01, -1.7365e-01, -6.9578e-02,  1.6835e-01,
        -2.0562e-01,  2.2508e-01,  1.5676e-01, -2.4729e-02,  2.1742e-01,
         1.5126e-01,  1.0214e-01,  1.1567e-01, -5.2774e-02, -3.0126e-03,
         6.3175e-02,  1.1676e-01, -9.0233e-02, -1.6267e-01, -1.1470e-01,
        -2.6294e-02, -1.6609e-01, -3.0351e-02, -5.9217e-02, -7.3617e-02,
        -1.2608e-02, -1.6769e-01, -1.2121e-01, -6.7383e-02,  1.1031e-01,
        -1.2812e-01, -1.0469e-01,  1.3502e-01, -1.7141e-01,  4.7593e-02,
         2.0930e-01,  9.8845e-02, -1.3256e-01,  1.6170e-01, -1.0600e-01,
         1.8579e-01,  4.0481e-02, -1.2515e-01, -1.0261e-01, -1.4120e-01,
         1.9775e-01, -1.7025e-01,  8.9266e-02,  1.6602e-01,  1.0460e-01,
        -1.7096e-01,  3.7449e-02,  1.8868e-01, -1.6461e-01,  1.7901e-01,
         1.6650e-01, -1.0011e-01, -1.7774e-01,  1.3361e-01,  2.0320e-01,
        -1.8242e-01, -8.7112e-02, -2.2273e-01, -3.9471e-02,  8.4123e-02,
         1.9408e-01, -4.2269e-02,  2.0255e-01,  5.4091e-03, -1.8951e-01,
         1.4826e-01,  1.6335e-01, -1.4129e-01, -1.5487e-01, -1.6185e-01,
         2.1519e-01, -1.4369e-01,  1.3973e-01,  8.3617e-03,  1.0041e-01,
         9.8453e-02, -1.8824e-01, -1.9521e-01, -1.4547e-01, -1.0874e-01,
        -1.1955e-01, -4.0828e-02, -3.2597e-02,  6.1822e-02,  2.1748e-02,
         1.7842e-01, -1.8258e-01,  1.6913e-01,  4.5308e-02,  1.4193e-01,
         5.1018e-02,  4.1116e-02, -1.5032e-01,  4.3769e-02,  5.9466e-03,
         4.8302e-02, -1.5863e-03,  6.1194e-02, -2.1716e-01, -2.1311e-01,
        -1.8183e-01,  1.4961e-01,  9.4459e-02, -9.4616e-02,  2.0996e-01,
         2.0844e-01,  1.6277e-03, -1.1288e-01, -7.1518e-02, -1.6231e-01,
        -2.2260e-02, -2.0423e-01, -8.7666e-02, -1.6060e-01, -1.2068e-01,
        -8.9673e-02,  1.8836e-01])
net.mlp.net.0.batch_norm.weight tensor([0.9972, 0.9940, 1.0015, 0.9997, 0.9932, 0.9981, 1.0024, 0.9988, 1.0030,
        0.9999, 1.0015, 0.9985, 1.0030, 1.0033, 0.9976, 1.0017, 1.0000, 0.9986,
        0.9958, 1.0015, 1.0006, 1.0018, 0.9964, 1.0024, 1.0016, 1.0034, 1.0059,
        0.9963, 0.9985, 0.9996, 1.0049, 0.9985, 0.9962, 1.0045, 0.9946, 1.0029,
        1.0071, 0.9954, 0.9988, 0.9999, 0.9987, 0.9999, 1.0032, 0.9977, 0.9953,
        1.0046, 0.9995, 1.0013, 1.0010, 0.9991, 0.9998, 1.0030, 1.0067, 1.0024,
        1.0026, 1.0059, 0.9958, 0.9964, 0.9998, 1.0005, 1.0021, 0.9991, 0.9944,
        0.9997, 1.0060, 1.0008, 0.9956, 0.9992, 0.9978, 0.9998, 0.9996, 1.0056,
        0.9939, 0.9991, 1.0019, 0.9941, 1.0040, 0.9942, 0.9942, 1.0032, 0.9987,
        1.0037, 0.9980, 1.0070, 0.9966, 1.0008, 0.9987, 0.9989, 1.0033, 0.9989,
        0.9995, 0.9945, 1.0011, 0.9964, 1.0025, 1.0034, 0.9994, 1.0018, 0.9986,
        1.0023, 1.0004, 1.0036, 0.9993, 1.0033, 0.9989, 0.9965, 1.0035, 1.0039,
        1.0029, 0.9980, 1.0060, 0.9931, 1.0000, 1.0016, 0.9968, 0.9954, 0.9942,
        0.9996, 1.0034, 1.0037, 0.9997, 1.0045, 0.9946, 0.9974, 1.0018, 1.0009,
        0.9956, 0.9988, 1.0020, 1.0051, 1.0045, 0.9942, 0.9959, 1.0006, 1.0034,
        1.0030, 1.0004, 0.9971, 1.0021, 0.9992, 1.0043, 1.0030, 1.0014, 1.0016,
        1.0038, 0.9951, 1.0044, 0.9991, 1.0050, 1.0026, 1.0061, 0.9934, 1.0003,
        0.9929, 0.9999, 1.0023, 0.9957, 1.0028, 0.9931, 1.0015, 1.0010, 0.9982,
        0.9999, 0.9989, 1.0014, 0.9999, 1.0060, 0.9946, 0.9977, 1.0029, 0.9966,
        0.9975, 0.9998, 1.0003, 0.9977, 1.0010, 0.9969, 1.0019, 0.9974, 0.9956,
        1.0019, 0.9969, 1.0063, 0.9995, 0.9992, 0.9985, 0.9996, 0.9991, 0.9986,
        0.9988, 1.0024, 1.0035, 1.0004, 1.0060, 1.0012, 1.0047, 0.9983, 0.9937,
        1.0054, 1.0025, 0.9954, 0.9992, 1.0040, 0.9946, 1.0002, 0.9958, 0.9966,
        1.0006, 0.9966, 1.0037, 0.9957, 1.0012, 1.0029, 0.9974, 1.0057, 0.9960,
        1.0011, 1.0061, 0.9967, 1.0051, 0.9982, 0.9978, 0.9966, 0.9989, 1.0038,
        0.9943, 0.9976, 1.0050, 1.0047, 1.0016, 0.9987, 1.0041, 0.9988, 1.0010,
        0.9966, 1.0021, 0.9980, 1.0007, 1.0043, 1.0049, 1.0019, 1.0029, 1.0055,
        1.0054, 1.0071, 1.0017, 0.9961, 1.0039, 1.0010, 0.9959, 1.0008, 0.9986,
        1.0018, 1.0063, 1.0010, 0.9993, 1.0035, 1.0016, 1.0011, 1.0008, 1.0029,
        1.0046, 1.0001, 0.9976, 0.9963, 1.0013, 0.9938, 0.9927, 1.0007, 0.9959,
        1.0004, 0.9946, 1.0041, 1.0067, 0.9981, 1.0001, 0.9986, 0.9984, 1.0026,
        1.0029, 0.9941, 0.9977, 0.9968, 1.0005, 0.9998, 0.9982, 1.0053, 0.9960,
        0.9996, 1.0064, 1.0043, 1.0015, 1.0030, 1.0009, 0.9943, 1.0052, 1.0040,
        0.9995, 1.0027, 0.9963, 1.0012, 1.0007, 1.0020, 1.0039, 1.0039, 1.0037,
        1.0015, 1.0003, 1.0058, 1.0011, 0.9959, 1.0003, 1.0034, 0.9980, 0.9966,
        1.0030, 0.9943, 0.9952, 1.0013, 1.0027, 1.0027, 1.0026, 0.9978, 0.9929,
        0.9938, 0.9955, 0.9958, 1.0056, 0.9942, 0.9999, 0.9941, 1.0001, 1.0019,
        1.0012, 1.0026, 0.9950, 0.9961, 1.0034, 0.9984, 1.0039, 1.0028, 1.0033,
        0.9989, 1.0006, 1.0058, 1.0031, 0.9991, 1.0034, 1.0046, 0.9998, 0.9982,
        0.9953, 1.0013, 0.9968, 1.0049, 0.9986, 1.0024, 0.9986, 0.9937, 0.9970,
        0.9988, 0.9938, 0.9984, 1.0050, 0.9996, 1.0037, 1.0004, 0.9943, 1.0067,
        1.0044, 0.9966, 0.9965, 1.0016, 1.0010, 1.0041, 0.9998, 0.9955, 0.9973,
        0.9967, 0.9977, 1.0041, 1.0032, 0.9971, 0.9920, 1.0036, 1.0022, 0.9947,
        1.0048, 0.9987, 0.9959, 1.0019, 1.0031, 1.0065, 0.9994, 1.0007, 0.9994,
        0.9969, 0.9967, 0.9982, 1.0050, 1.0029, 0.9946, 0.9992, 0.9973, 1.0045,
        1.0036, 1.0021, 0.9996, 0.9988, 1.0045, 1.0004, 1.0026, 0.9959, 1.0004,
        1.0005, 1.0043, 0.9982, 0.9977, 0.9991, 1.0046, 1.0046, 1.0074, 0.9993,
        1.0029, 1.0021, 1.0017, 1.0001, 1.0024, 1.0048, 1.0007, 1.0022, 1.0068,
        0.9945, 1.0038, 0.9989, 1.0018, 1.0036, 0.9996, 1.0019, 1.0038, 1.0034,
        1.0000, 1.0019, 0.9977, 0.9980, 0.9969, 0.9992, 1.0009, 1.0007, 0.9990,
        1.0039, 1.0010, 1.0006, 1.0067, 1.0041, 0.9935, 1.0049, 0.9939, 0.9986,
        0.9942, 1.0021, 0.9983, 1.0004, 0.9968, 0.9983, 0.9948, 0.9966, 1.0011,
        1.0071, 1.0041, 1.0007, 0.9994, 0.9993, 1.0046, 1.0069, 1.0010, 1.0056,
        1.0026, 0.9995, 0.9936, 1.0041, 0.9965, 0.9963, 1.0001, 0.9983, 1.0009,
        1.0018, 0.9992, 1.0016, 0.9957, 1.0036, 1.0035, 0.9938, 1.0018, 1.0021,
        0.9970, 1.0014, 1.0030, 1.0040, 1.0026, 0.9965, 0.9961, 1.0003, 0.9983,
        1.0042, 0.9983, 1.0048, 1.0050, 0.9979, 1.0025, 0.9997, 1.0017])
net.mlp.net.0.batch_norm.bias tensor([ 2.3471e-03,  4.2046e-03, -2.9386e-03,  1.1988e-03,  2.3746e-03,
        -1.6825e-03,  4.4692e-03, -1.7409e-03,  2.1946e-03, -1.3446e-03,
         1.4047e-03,  8.9707e-04, -4.1796e-03,  1.8737e-03,  1.4544e-03,
        -2.3143e-04,  2.3370e-03, -4.8609e-04,  4.8015e-03,  1.6549e-03,
        -1.6029e-03, -2.7930e-03, -1.4361e-05,  2.5827e-03, -1.6353e-03,
        -1.6682e-03,  1.3089e-05,  5.2969e-03,  4.4218e-04, -7.7820e-03,
        -4.4004e-03, -4.9422e-03, -2.6792e-03, -4.8910e-03,  5.9799e-03,
         5.0477e-03, -2.8255e-03,  2.8468e-03,  2.7989e-03, -3.5300e-03,
         2.8183e-03,  4.1778e-03,  6.7743e-03, -6.6023e-03, -5.4466e-03,
         1.0079e-03,  1.7899e-03,  3.8722e-03,  7.9737e-04, -3.8791e-03,
         4.3713e-03, -4.2761e-03,  2.7172e-03,  6.3001e-03,  1.0476e-03,
        -4.0447e-03,  1.2972e-03,  6.7984e-04, -3.6332e-03,  1.9804e-03,
        -4.7564e-03, -6.5288e-03, -2.0495e-03,  4.9800e-03, -1.5244e-03,
         3.2894e-03, -2.0080e-03,  9.9851e-04, -9.5990e-04, -1.1468e-03,
        -3.8364e-03, -9.6840e-05, -1.4996e-03,  1.3095e-03, -6.7279e-03,
         1.0039e-03,  1.2552e-03,  1.6133e-03,  1.6060e-03,  4.2657e-03,
        -4.3533e-03,  1.3639e-05,  1.4374e-03,  1.2124e-03,  3.3959e-03,
         2.3640e-03,  3.6694e-03,  2.2626e-03,  2.1342e-03, -1.9378e-03,
         3.4668e-03,  2.2849e-03,  2.1036e-03,  2.9946e-03, -4.0068e-03,
         1.5147e-03, -3.2918e-03,  2.3406e-03,  2.2177e-04, -2.5710e-03,
        -2.2968e-03,  3.4648e-03,  3.8352e-03, -1.0269e-03, -4.0992e-03,
        -3.1046e-03, -4.3857e-03,  3.2886e-03,  8.8638e-04, -5.1353e-03,
         1.2553e-03, -2.0590e-03, -5.7690e-04, -2.3464e-03,  1.5457e-03,
         7.9478e-03, -1.2765e-03, -2.8630e-04,  6.0274e-03, -3.5679e-04,
         2.2300e-04,  6.9411e-05,  3.7961e-03, -1.7434e-03, -9.9724e-04,
         3.4103e-03, -5.9299e-03,  5.7927e-03,  7.3948e-04,  5.1610e-04,
         2.6365e-03,  1.8848e-03, -8.5753e-04,  3.2935e-03, -6.9217e-04,
         4.7548e-03, -3.2332e-03, -8.0124e-03, -3.0499e-03,  1.3407e-03,
         4.2364e-04, -1.9519e-03, -3.4196e-03,  6.0174e-03, -5.2602e-04,
        -5.5394e-04,  5.9757e-03, -5.1489e-03,  6.9664e-03, -8.5980e-03,
         3.2752e-03, -1.3237e-04,  5.0067e-04, -1.0002e-03,  6.5611e-03,
         7.2014e-03,  1.8312e-03,  1.5515e-03,  3.8471e-03, -3.4291e-03,
        -6.2369e-03, -1.8846e-03,  4.6238e-04, -1.2854e-03,  5.9761e-03,
         3.3030e-03, -4.1368e-03,  8.7660e-04,  4.4686e-03, -2.1508e-03,
         5.0023e-03,  1.2087e-03,  1.3502e-03, -5.2508e-03, -6.0634e-03,
         7.3832e-03,  1.2547e-03,  2.7108e-03, -3.7046e-03,  1.7232e-03,
         1.4491e-03, -3.9038e-03, -4.6515e-03, -4.3519e-03, -2.1109e-03,
         1.2779e-03, -4.1016e-03, -2.5884e-03,  1.4330e-03,  4.7027e-03,
         3.0033e-03,  3.9895e-04,  6.2600e-04, -2.2625e-03, -9.6638e-04,
        -6.2232e-04,  1.3152e-04,  3.6216e-03, -5.3509e-03, -2.6309e-04,
         7.0280e-05, -6.6339e-03,  2.8485e-03,  4.9881e-03, -3.1905e-03,
         5.9948e-03,  5.2349e-03,  1.6906e-03, -4.0867e-03,  5.1056e-03,
        -3.7306e-03, -2.5876e-03,  4.8674e-03, -5.2602e-03,  2.8925e-04,
         2.1850e-03, -5.9881e-03, -1.1594e-03, -1.5816e-03, -2.0152e-03,
        -1.7753e-03, -5.0331e-03,  3.5661e-03,  1.5944e-03, -2.7890e-03,
         2.3752e-03, -4.1969e-03,  1.2696e-03, -1.1891e-04,  2.6502e-03,
        -2.3188e-03, -2.1456e-03, -1.5839e-03,  2.0614e-03,  4.4670e-03,
         8.1942e-04, -9.1793e-04,  5.2764e-03,  4.5409e-03, -3.7226e-03,
        -5.4346e-03,  2.7574e-03,  1.9478e-03, -3.0787e-03,  4.3593e-03,
        -4.8954e-03,  5.2480e-04,  4.4094e-03,  1.0026e-03, -3.4716e-03,
         3.1094e-03, -2.1958e-03,  2.6708e-05,  1.9567e-04, -6.4184e-04,
        -5.8700e-03, -3.1728e-03,  2.4315e-03,  3.2571e-03, -2.6711e-03,
        -7.3301e-03,  2.4622e-03, -3.8024e-03,  2.5612e-03,  1.2753e-03,
        -5.9665e-03, -1.2124e-03,  6.7935e-04,  5.0806e-03,  8.6093e-04,
         5.8940e-03, -7.4455e-04, -7.8823e-04,  6.8777e-04, -5.2828e-03,
         2.1044e-03, -1.3836e-03,  3.2920e-03, -5.4890e-03, -1.3497e-03,
         1.1982e-03,  2.2090e-03, -3.3679e-03,  2.0084e-03,  9.1813e-04,
        -2.8562e-03, -3.0593e-03, -3.3356e-03,  6.9570e-03, -1.7017e-03,
         1.8219e-03, -1.7841e-03,  3.1809e-04, -8.4502e-04, -3.2816e-03,
         4.4005e-03,  9.5921e-04, -4.4782e-03,  1.9325e-03,  4.5322e-03,
         1.4578e-03,  4.6262e-04,  7.1477e-03, -2.9287e-03,  9.3004e-04,
         6.4167e-03, -6.8915e-03, -7.9603e-04, -1.8970e-04, -1.7682e-04,
        -3.6998e-03,  4.6603e-03, -1.9845e-03,  1.1113e-04, -1.1310e-03,
        -2.6347e-03,  1.5373e-03,  4.2275e-04,  2.4045e-03, -7.0037e-05,
        -2.3204e-03,  2.8672e-03,  4.5539e-03, -3.0590e-03,  6.2078e-03,
        -3.2875e-03,  1.3288e-03,  9.1356e-04, -1.0176e-03, -5.2052e-03,
         3.1667e-03, -2.3197e-03,  5.2350e-04, -2.2641e-03, -1.5323e-03,
         4.0844e-03,  4.5038e-03,  1.1320e-03,  5.6120e-03,  7.8048e-04,
        -5.0145e-04, -1.3076e-03, -6.0044e-03,  1.6375e-03,  1.5516e-03,
         5.5317e-04,  2.0162e-03, -2.3388e-03, -2.9100e-03,  4.4837e-03,
        -7.8337e-04, -4.0192e-03,  3.6941e-03, -1.8269e-03, -6.0036e-03,
        -1.6753e-03, -4.5757e-03, -4.4085e-03,  4.3048e-03,  1.8876e-03,
         1.3950e-03, -9.9430e-04, -1.2513e-03, -7.4727e-03,  2.0042e-03,
         1.6364e-03,  2.3430e-03, -4.4723e-04, -4.4700e-03, -2.8331e-03,
        -1.0633e-03,  5.2212e-04,  2.5331e-03, -1.4010e-03, -1.4381e-03,
        -6.6110e-03,  5.9428e-03,  8.5123e-03,  3.6448e-04,  2.3803e-03,
        -3.5702e-03, -4.6331e-03, -8.3283e-04, -4.8305e-03,  2.4221e-03,
        -3.1116e-03,  1.9752e-03, -5.3049e-03,  1.0944e-03, -1.6903e-03,
         1.7986e-03,  2.0475e-03, -4.3437e-03,  4.8572e-03,  3.6020e-03,
        -1.1794e-03,  3.2229e-04, -1.6904e-03, -2.3599e-03, -1.0318e-03,
        -3.8498e-03, -1.1196e-03,  5.1010e-03,  3.5698e-03,  1.0731e-03,
         3.2000e-03,  6.0837e-04, -2.3318e-03, -4.8596e-03,  1.5841e-03,
         5.6338e-03,  2.7252e-03,  9.9981e-04, -4.6101e-04, -5.1908e-04,
         1.6047e-04,  1.3039e-05, -2.6576e-03, -2.4326e-03, -4.0522e-05,
         5.2371e-03,  6.3706e-03,  3.6306e-03,  2.9541e-03, -1.4372e-03,
        -2.4438e-03,  1.8699e-03,  6.3092e-03, -6.8124e-03, -4.3938e-03,
         7.6079e-03, -2.5744e-03,  1.6496e-03, -3.3878e-03, -5.1777e-03,
         1.6422e-03,  3.3091e-03,  3.4817e-03, -6.6186e-03, -2.8527e-03,
        -2.6672e-03, -1.1371e-03, -1.4447e-03, -2.9403e-03, -4.1281e-04,
        -2.2158e-03, -6.1245e-04,  4.5815e-03, -2.4214e-03,  2.0313e-03,
        -2.6135e-03,  1.3667e-03, -2.1057e-03,  1.1868e-03, -2.7337e-03,
         1.0118e-03, -5.3876e-03, -1.9881e-04, -8.5899e-04,  8.3073e-04,
         1.4848e-03, -8.0216e-04, -7.4869e-03,  2.7612e-03,  4.4772e-03,
        -2.1490e-03,  4.6999e-03, -1.9455e-03,  1.2341e-03,  5.2945e-03,
        -1.9666e-03,  1.5823e-03, -1.2748e-03,  1.1979e-03,  1.6786e-03,
         3.6595e-03, -1.4962e-03, -2.4164e-03,  2.3315e-03, -1.2187e-03,
        -3.8779e-03,  3.5367e-03,  6.7269e-04,  2.7025e-03, -2.7350e-03,
        -6.7567e-04,  1.1605e-03,  9.7043e-04,  2.4243e-03,  2.5893e-04,
         3.3509e-03, -3.3774e-03,  4.9661e-03, -9.7390e-04,  5.4632e-03,
         3.5970e-04, -3.7016e-03, -3.8829e-04,  3.4910e-03,  2.9423e-03,
         1.9425e-03,  2.3594e-03, -4.7633e-03,  1.3695e-03, -5.7124e-03,
         5.7698e-03,  1.0559e-04,  2.3339e-03, -4.3346e-03,  6.9856e-03,
         4.4081e-03,  2.5978e-03])
net.mlp.net.0.batch_norm.running_mean tensor([1.8657e-02, 4.9355e-01, 2.5066e-01, 1.1460e-02, 4.3752e-02, 2.6108e-02,
        6.2194e-01, 1.5149e-01, 5.6117e-01, 1.9432e-01, 3.0868e-03, 2.0574e-01,
        1.8485e-01, 6.3140e-01, 5.5746e-01, 7.0011e-01, 5.8752e-02, 1.0882e-01,
        2.1620e-01, 2.4364e-01, 5.0854e-01, 1.4773e-01, 1.3321e-06, 1.5105e-01,
        4.8992e-01, 6.8812e-01, 3.0475e-01, 2.1095e-02, 5.0343e-02, 2.4132e-01,
        1.2985e-02, 4.5216e-02, 1.1011e-01, 2.3914e-01, 2.9329e-02, 7.0214e-01,
        2.0546e-01, 5.8202e-02, 4.1173e-01, 7.8097e-04, 4.3238e-01, 3.3895e-01,
        2.1609e-01, 4.7598e-01, 5.9400e-01, 2.5478e-01, 1.6783e-01, 6.9779e-01,
        9.6563e-02, 2.1289e-01, 8.4109e-02, 3.8588e-02, 3.4620e-02, 4.6406e-02,
        6.0916e-01, 4.1542e-01, 1.3271e-01, 3.0707e-01, 8.7270e-02, 1.6281e-02,
        3.4949e-01, 2.2035e-02, 7.0530e-02, 1.0438e-02, 6.6169e-03, 1.3429e-01,
        2.9669e-02, 4.5888e-02, 1.2876e-02, 1.9063e-01, 1.9719e-01, 2.9787e-01,
        3.4090e-01, 4.9792e-02, 3.0523e-02, 4.2383e-01, 2.4888e-02, 1.2828e-01,
        7.3424e-01, 1.5077e-01, 1.7941e-02, 2.4983e-01, 5.5437e-01, 3.3924e-02,
        3.6636e-02, 4.0549e-03, 1.3653e-01, 3.0105e-01, 4.0522e-01, 2.9371e-01,
        8.3165e-01, 4.0915e-01, 3.7753e-02, 2.5191e-02, 6.6254e-01, 1.5632e-02,
        5.1239e-01, 1.4545e-01, 3.6052e-01, 2.2275e-02, 3.3819e-01, 7.6706e-02,
        2.3099e-01, 2.6123e-02, 2.0989e-02, 6.8667e-02, 7.0379e-01, 2.9952e-01,
        2.5886e-01, 8.7821e-03, 6.0533e-01, 8.6318e-01, 0.0000e+00, 9.1687e-01,
        3.2779e-04, 5.8399e-01, 2.5611e-01, 5.9168e-02, 1.1868e-01, 2.1302e-02,
        7.5130e-01, 3.8310e-03, 1.1445e-01, 2.8565e-01, 9.6865e-02, 2.0104e-01,
        5.7417e-01, 5.8891e-01, 1.6488e-01, 7.1246e-01, 4.8936e-02, 7.8068e-01,
        8.5408e-02, 1.1128e+00, 5.7444e-01, 2.7742e-01, 1.3571e-01, 2.5094e-01,
        7.9086e-01, 2.0442e-01, 1.5395e-01, 1.8837e-01, 3.9940e-02, 2.4331e-01,
        2.0673e-03, 1.9995e-01, 2.3901e-01, 7.1763e-02, 6.7597e-01, 2.2837e-03,
        2.9738e-01, 8.3211e-02, 2.8715e-01, 6.8078e-01, 4.9899e-05, 3.2662e-01,
        2.6854e-01, 3.4647e-02, 1.1370e+00, 8.6813e-02, 2.8802e-02, 1.9211e-01,
        6.7717e-02, 9.2516e-04, 1.7455e-01, 1.4781e-01, 5.2410e-01, 1.5090e-01,
        1.3533e+00, 1.4799e-02, 1.2164e-02, 1.2061e-02, 2.7885e-02, 2.4271e-01,
        2.8358e-01, 7.3028e-01, 1.0985e-01, 8.5901e-02, 1.2205e-01, 5.1702e-01,
        7.8618e-02, 1.9967e-01, 2.3971e-02, 8.8011e-01, 6.8113e-02, 5.0153e-01,
        3.6650e-02, 8.2568e-02, 1.9288e-01, 2.0361e-01, 2.0674e-01, 5.6526e-05,
        8.5846e-01, 6.3721e-02, 4.1032e-01, 1.2974e-01, 2.2846e-02, 4.2948e-01,
        1.6422e-01, 2.1691e-02, 4.0020e-02, 4.8931e-02, 1.3203e-02, 9.7329e-02,
        3.7685e-01, 2.0633e-02, 8.4132e-01, 3.9447e-02, 6.2564e-02, 3.2154e-01,
        6.3561e-03, 1.5149e-01, 5.1716e-01, 1.7800e-01, 1.2258e-01, 1.8954e-02,
        1.7775e-01, 1.3221e-01, 9.0060e-01, 9.1543e-02, 3.5530e-01, 1.6930e-01,
        2.6987e-01, 6.9870e-01, 8.7998e-02, 1.0510e+00, 5.7277e-01, 6.9282e-01,
        4.2329e-01, 4.2831e-02, 3.1825e-01, 4.5106e-01, 3.3481e-01, 9.8729e-02,
        2.2028e-01, 1.1009e-01, 1.5459e-02, 5.4922e-02, 2.4763e-01, 2.6743e-01,
        6.5866e-01, 1.1589e-02, 3.8147e-01, 3.7546e-02, 2.4813e-01, 5.8690e-02,
        6.3513e-02, 5.2175e-01, 6.6706e-02, 2.1335e-01, 1.1927e-01, 6.4198e-01,
        9.1208e-01, 1.7345e-02, 3.6843e-01, 3.8339e-02, 1.0698e-01, 7.5046e-02,
        4.7815e-01, 2.4475e-02, 8.3782e-01, 1.7729e-01, 1.4703e-01, 3.6538e-01,
        5.0646e-01, 4.0511e-01, 4.2149e-01, 2.1768e-02, 1.5218e-01, 2.7226e-03,
        3.5192e-03, 2.2156e-01, 1.1845e-01, 3.0305e-01, 2.6055e-01, 3.3612e-02,
        6.1727e-02, 3.3687e-01, 6.2381e-01, 3.2206e-01, 1.6101e-01, 2.2138e-01,
        2.2803e-01, 9.6962e-02, 7.9516e-02, 1.4879e-01, 1.6779e-02, 3.1299e-01,
        2.0116e-01, 3.8795e-01, 1.9709e-01, 3.4665e-01, 1.6318e+00, 3.8527e-01,
        1.2623e+00, 4.7840e-01, 2.0616e-01, 7.7581e-02, 6.1489e-04, 4.2925e-01,
        6.5091e-01, 4.6636e-01, 3.5745e-02, 8.0423e-01, 3.1300e-01, 8.8460e-02,
        2.8506e-01, 6.3035e-01, 7.7831e-03, 1.6288e-01, 1.0109e-01, 3.5908e-01,
        2.4239e-01, 2.3952e-01, 1.4728e-01, 2.1258e-01, 3.1547e-01, 2.1378e-03,
        7.9144e-01, 5.0477e-01, 4.6978e-01, 1.6997e-01, 4.0765e-02, 1.6152e-02,
        1.8363e-01, 3.1026e-01, 8.7856e-01, 3.9577e-02, 3.7789e-01, 1.7906e-02,
        8.1529e-02, 1.6525e-01, 3.3534e-01, 5.4635e-02, 1.3974e-01, 3.8831e-01,
        3.2335e-02, 3.3264e-03, 1.3186e-01, 8.5848e-02, 1.1718e-01, 4.6478e-01,
        3.0070e-02, 3.5348e-02, 5.1107e-02, 2.4030e-01, 1.1534e-01, 9.3700e-02,
        3.3858e-01, 6.9023e-01, 8.4110e-01, 1.4316e-01, 6.8678e-01, 1.7706e-03,
        5.9147e-01, 2.1389e-01, 4.7579e-03, 6.1561e-02, 5.5484e-03, 1.1881e-01,
        1.2570e-01, 5.6036e-01, 7.6104e-02, 8.2585e-02, 1.4463e-01, 2.9458e-01,
        5.2547e-02, 6.9362e-01, 3.6812e-02, 1.5548e-01, 3.1009e-01, 1.5482e-01,
        3.6581e-02, 4.2561e-01, 1.8427e-01, 7.5551e-02, 3.2536e-01, 5.6059e-01,
        1.1526e-02, 1.8103e-01, 2.1641e-02, 1.6277e-01, 5.0618e-01, 3.2057e-02,
        1.0950e-01, 6.3606e-03, 7.1349e-02, 2.0920e-01, 1.0434e-01, 8.1448e-01,
        6.5317e-02, 4.8054e-01, 1.6392e-01, 1.5731e-01, 4.3765e-02, 1.4680e-02,
        5.6058e-01, 3.4863e-01, 4.4829e-01, 1.4069e-01, 9.2007e-02, 2.5537e-01,
        1.6714e-01, 5.2671e-02, 1.8012e-01, 3.7849e-01, 4.1977e-02, 4.6509e-03,
        4.8080e-01, 6.9372e-03, 1.1152e-01, 4.7903e-01, 1.9075e-01, 4.3251e-02,
        2.4863e-01, 2.2208e-02, 5.0722e-02, 2.0145e-01, 5.8530e-01, 5.3426e-01,
        9.3849e-02, 1.9955e-02, 3.7624e-01, 5.1967e-02, 6.7451e-03, 1.9310e-01,
        2.0527e-01, 1.5514e-01, 6.6511e-02, 4.1363e-01, 1.0124e+00, 3.1849e-02,
        2.2575e-01, 5.7570e-02, 4.2290e-01, 2.0463e-01, 2.5385e-01, 1.1644e-04,
        5.1463e-01, 4.9258e-01, 2.3918e-01, 7.2639e-01, 7.1006e-01, 2.6580e-01,
        1.4619e-01, 1.4260e-01, 2.3573e-01, 3.1792e-01, 3.9659e-03, 1.9891e-01,
        6.4499e-01, 5.2524e-01, 1.5008e-03, 2.2088e-04, 7.9878e-01, 6.4975e-01,
        2.5227e-01, 8.5268e-02, 3.0904e-01, 3.8713e-01, 9.2400e-03, 2.3404e-01,
        1.3045e-01, 4.2123e-01, 3.2241e-01, 5.6141e-02, 5.8957e-02, 1.2256e+00,
        1.9004e-01, 7.3512e-01, 1.4535e-01, 1.8589e-01, 3.5409e-01, 2.4213e-01,
        1.5899e-02, 1.4766e-01, 7.9727e-02, 1.0466e-01, 1.0686e-01, 2.9587e-01,
        2.1231e-01, 7.0966e-02, 1.4652e-01, 1.1906e+00, 3.5469e-01, 6.0125e-01,
        8.7720e-01, 2.4205e-02, 1.5173e-02, 1.5345e-01, 5.2986e-03, 2.4142e-01,
        1.3871e-01, 1.2000e-02, 2.0267e-02, 3.9390e-03, 5.4056e-02, 3.8622e-02,
        6.1927e-02, 1.2533e-01, 4.6729e-01, 1.1410e-01, 1.5332e-02, 4.5417e-01,
        2.1103e-02, 1.7489e-01, 2.7263e-01, 1.2052e-01, 1.2930e-01, 2.2911e-01,
        4.1535e-01, 7.4771e-02])
net.mlp.net.0.batch_norm.running_var tensor([0.1935, 0.5304, 0.2489, 0.1887, 0.2577, 0.1964, 0.4146, 0.2856, 0.3809,
        0.3728, 0.1863, 0.2783, 0.2560, 0.2892, 0.4113, 0.4006, 0.2004, 0.2207,
        0.2559, 0.2555, 0.3289, 0.2425, 0.1853, 0.2485, 0.5458, 0.4200, 0.2827,
        0.1911, 0.2468, 0.2549, 0.1878, 0.2231, 0.2185, 0.3216, 0.1993, 0.4099,
        0.2450, 0.2519, 0.3038, 0.1854, 0.3035, 0.4174, 0.2690, 0.3127, 0.3410,
        0.6230, 0.2371, 0.4660, 0.2131, 0.7354, 0.2243, 0.1986, 0.2048, 0.2044,
        0.3963, 0.3684, 0.2503, 0.2899, 0.2290, 0.1917, 0.2910, 0.1925, 0.2097,
        0.1898, 0.1873, 0.2331, 0.2082, 0.2029, 0.1907, 0.2520, 0.2386, 0.2505,
        0.3207, 0.2003, 0.1965, 0.3241, 0.1894, 0.2551, 0.3947, 0.2350, 0.1944,
        0.2547, 0.5016, 0.2005, 0.2368, 0.1858, 0.4917, 0.3770, 0.3013, 0.3102,
        0.4669, 0.3751, 0.1924, 0.1927, 0.6516, 0.1907, 0.3879, 0.3146, 0.3095,
        0.1928, 0.2409, 0.2073, 0.2768, 0.1926, 0.1913, 0.2771, 0.4655, 0.3099,
        0.5434, 0.1873, 0.4567, 0.3161, 0.1853, 0.3627, 0.1854, 0.2933, 0.4119,
        0.2647, 0.2581, 0.1908, 0.4193, 0.1865, 0.2218, 0.7034, 0.2372, 0.2352,
        0.4167, 0.4514, 0.7165, 0.4193, 0.1981, 0.4277, 0.2039, 0.5611, 0.3214,
        0.4510, 0.2250, 0.2315, 0.3157, 0.6780, 0.2191, 0.2725, 0.1960, 0.2528,
        0.1862, 0.2515, 0.2911, 0.2232, 0.5548, 0.1861, 0.3046, 0.2316, 0.4804,
        0.3440, 0.1853, 0.3474, 0.2471, 0.1962, 0.5960, 0.2190, 0.1933, 0.2632,
        0.2148, 0.1855, 0.3318, 0.2387, 0.3176, 0.2366, 0.4520, 0.1914, 0.1882,
        0.1932, 0.1958, 0.3577, 0.2922, 0.4276, 0.2545, 0.2771, 0.2265, 0.6050,
        0.3081, 0.2505, 0.2106, 0.3865, 0.2184, 0.4257, 0.2387, 0.2614, 0.2195,
        0.4250, 0.2486, 0.1853, 0.2414, 0.2013, 1.0294, 0.2408, 0.2111, 0.3703,
        0.2901, 0.1938, 0.2376, 0.2037, 0.1944, 0.2280, 0.3659, 0.1961, 0.3446,
        0.2026, 0.2689, 0.2627, 0.1865, 0.2196, 0.3830, 0.2520, 0.5606, 0.2006,
        0.5214, 0.3267, 0.3950, 0.2091, 0.3187, 0.2688, 0.2638, 0.2988, 0.2059,
        0.2708, 0.4745, 0.4991, 0.6214, 0.2224, 0.2988, 0.3287, 0.4258, 0.2455,
        0.3473, 0.4298, 0.1894, 0.2564, 0.2947, 0.7366, 0.2889, 0.1896, 0.2926,
        0.2213, 0.3118, 0.2106, 0.2062, 0.4382, 0.2316, 0.2705, 0.2677, 0.2972,
        0.3228, 0.1916, 0.3120, 0.2017, 0.2234, 0.2673, 0.3185, 0.1934, 0.7469,
        0.2661, 0.3382, 0.3170, 0.4025, 0.4241, 0.6907, 0.1937, 0.3949, 0.1860,
        0.1868, 0.8815, 0.2305, 0.2667, 0.3099, 0.2076, 0.2010, 0.5165, 0.4127,
        0.2800, 0.2839, 0.3052, 0.2883, 0.4116, 0.2116, 0.2315, 0.1909, 0.3372,
        0.4618, 0.3970, 0.5496, 0.2764, 0.4148, 0.4460, 0.5586, 0.2401, 0.2769,
        0.2542, 0.1855, 0.3070, 0.4627, 0.2747, 0.2039, 0.5172, 0.3233, 0.2138,
        0.2736, 0.3813, 0.1886, 0.2505, 0.3739, 1.0011, 0.6536, 0.3211, 0.3064,
        0.2881, 0.4459, 0.1860, 0.4326, 0.3876, 0.6591, 0.4261, 0.2056, 0.1906,
        0.2555, 0.3153, 0.3358, 0.1948, 0.3050, 0.1939, 0.2882, 0.2711, 0.2939,
        0.2274, 0.2442, 0.3378, 0.1943, 0.1873, 0.4880, 0.3053, 0.2149, 0.3022,
        0.1968, 0.2239, 0.2029, 0.2627, 0.2415, 0.2134, 0.3892, 0.3309, 0.4488,
        0.2149, 0.3913, 0.1860, 0.3413, 0.6581, 0.1867, 0.2178, 0.1867, 0.2226,
        0.2451, 0.3416, 0.2263, 0.2750, 0.2418, 0.2655, 0.2167, 0.3916, 0.2202,
        0.3054, 0.3100, 0.2422, 0.2000, 0.3339, 0.4993, 0.2647, 0.3420, 0.3155,
        0.1913, 0.3301, 0.1932, 0.5446, 0.2839, 0.1958, 0.2229, 0.1870, 0.2032,
        0.2530, 0.2404, 0.3151, 0.2038, 0.7233, 0.6327, 0.2300, 0.1958, 0.1919,
        0.3131, 0.4011, 0.5170, 0.3750, 0.3730, 0.2381, 0.2356, 0.2423, 0.2718,
        0.6560, 0.2072, 0.1867, 0.3670, 0.1875, 0.2199, 0.6185, 0.2384, 0.2069,
        0.6781, 0.1904, 0.2044, 0.2697, 0.4394, 0.2677, 0.4097, 0.1906, 0.2445,
        0.2571, 0.1877, 0.2840, 0.2465, 0.2512, 0.2076, 0.3447, 0.4666, 0.1980,
        0.4429, 0.2035, 0.3347, 0.2839, 0.3067, 0.1853, 0.3028, 0.2621, 0.3050,
        0.3784, 0.6821, 0.2572, 0.2186, 0.3740, 0.2680, 0.3130, 0.1866, 0.2890,
        0.5371, 0.2809, 0.1857, 0.1854, 0.3150, 0.3632, 0.3379, 0.2683, 0.2300,
        0.3933, 0.1877, 0.3244, 0.2863, 0.3603, 0.2576, 0.2056, 0.2038, 0.4606,
        0.3377, 0.3298, 0.4029, 0.6087, 0.3463, 0.2866, 0.1915, 0.2266, 0.2139,
        0.2734, 0.2442, 0.2753, 0.2869, 0.2924, 0.2340, 0.5172, 0.5509, 0.2806,
        0.4370, 0.2146, 0.1944, 0.2453, 0.1868, 0.3659, 0.4456, 0.1953, 0.1916,
        0.1864, 0.2306, 0.2400, 0.2535, 0.2787, 0.3037, 0.2648, 0.1908, 0.3620,
        0.1921, 0.2374, 0.2295, 0.2243, 0.2300, 0.2494, 0.3020, 0.2014])
net.mlp.net.0.batch_norm.num_batches_tracked tensor(16)
net.mlp.net.1.linear.weight tensor([[-0.0749,  0.0762,  0.1494,  ...,  0.0111, -0.0568, -0.0392],
        [-0.0426,  0.0375,  0.0214,  ..., -0.0341, -0.0831, -0.0589],
        [ 0.0184,  0.0185,  0.0092,  ...,  0.0574,  0.1212, -0.0522],
        ...,
        [ 0.0495,  0.0138,  0.0162,  ...,  0.0904,  0.0405,  0.0667],
        [ 0.0435, -0.0971, -0.0492,  ...,  0.0921,  0.1490,  0.0103],
        [-0.0807,  0.0955, -0.0031,  ..., -0.0861, -0.0703,  0.0202]])
net.mlp.net.1.linear.bias tensor([-1.1574e-02,  1.0165e-02, -1.2813e-02, -1.8236e-02, -1.9091e-02,
        -1.2294e-02, -1.7180e-02, -3.1372e-02, -6.8447e-04, -4.3340e-02,
        -3.1440e-02, -6.5003e-03, -1.6952e-02, -3.7686e-02, -3.7707e-02,
         2.5720e-02, -4.8356e-02, -4.7910e-03, -4.6976e-02, -2.3965e-02,
         4.1834e-02, -4.1024e-02, -2.0167e-02, -3.4640e-03,  1.4524e-02,
        -3.0029e-02, -9.9509e-03, -1.1019e-02,  3.1574e-02,  6.1007e-03,
        -1.5335e-02,  2.5275e-02, -6.1938e-03,  2.3965e-02,  3.4934e-02,
        -3.5256e-02, -3.3062e-02,  2.2491e-02, -2.5141e-03,  1.9186e-03,
        -3.1173e-02,  3.5520e-02, -4.0970e-02, -3.3905e-02,  1.4169e-02,
        -2.1331e-02, -2.9453e-04, -1.1146e-02, -4.8918e-02,  7.3853e-03,
        -1.8163e-02, -3.6700e-03, -1.4913e-02,  2.5238e-02,  2.3206e-02,
        -3.3795e-02,  7.5315e-03,  2.4458e-02,  3.5585e-02,  1.9350e-04,
         2.0741e-02,  2.3329e-02, -4.2573e-02, -1.4064e-02,  3.0425e-02,
         3.7436e-03,  2.7890e-02,  1.1237e-02, -3.8234e-02,  3.8960e-02,
         9.7344e-03,  1.1318e-02,  4.4480e-02, -3.5285e-02,  3.4389e-02,
         1.8303e-02, -8.6749e-03,  3.6386e-02, -2.9735e-02,  3.3126e-03,
        -1.3683e-02,  2.6481e-02, -3.6298e-02, -2.7797e-02, -5.4008e-03,
        -1.7304e-02, -1.3847e-02, -1.6563e-02,  3.1805e-02, -3.0367e-02,
        -5.8926e-03,  5.8829e-03,  2.2663e-02, -3.1078e-02,  3.8063e-02,
        -7.1148e-03, -5.0260e-03, -2.8096e-02,  6.8172e-03,  3.1731e-03,
        -1.0475e-02,  3.6161e-02, -3.7401e-02,  4.1921e-02,  4.5464e-02,
        -3.3044e-02,  6.2340e-03,  1.0137e-02, -1.2899e-02,  7.3916e-03,
         3.6191e-02, -4.3571e-02, -1.3656e-02, -2.8059e-02,  8.4624e-03,
         2.1868e-03, -3.7192e-02, -3.8052e-02, -3.3376e-02,  1.7817e-03,
        -4.7852e-03,  8.9217e-03, -4.6550e-03,  4.7168e-02, -1.3980e-02,
        -4.8022e-02, -2.2022e-02, -4.0088e-02,  1.9756e-02, -3.4583e-02,
        -8.9409e-03, -2.6092e-02, -4.2060e-02,  1.2841e-03,  4.1958e-02,
         3.0665e-02, -2.8516e-03,  9.0879e-03, -2.2893e-02, -1.6795e-02,
         1.8886e-02,  2.5526e-02,  2.5464e-02, -2.1023e-02,  1.9603e-02,
        -2.6635e-02, -3.1770e-02,  2.3198e-02,  3.3975e-02,  3.2217e-02,
         2.8195e-02,  7.5964e-03, -1.0565e-02,  3.2480e-02, -2.8558e-02,
        -3.5516e-02,  3.7666e-02, -2.0337e-02, -3.5090e-02,  3.5409e-03,
        -4.3750e-02,  3.3495e-02,  4.2824e-02, -1.0467e-02, -2.2460e-02,
         3.8582e-02, -3.8180e-02,  2.3671e-02, -2.4540e-02, -3.0111e-02,
        -2.3060e-02,  1.5524e-02, -4.0031e-02,  2.9555e-02,  1.8326e-02,
         2.6589e-02, -3.5108e-02,  1.2388e-02, -3.4332e-02, -1.2086e-02,
         8.5474e-03, -2.9627e-02, -2.5013e-02,  3.2106e-02,  2.6920e-02,
        -1.8768e-02,  3.2955e-02,  1.7508e-02,  1.2955e-02, -1.1852e-02,
        -9.6336e-03, -4.5375e-02,  3.4480e-02, -3.9160e-02, -2.9714e-02,
         4.1440e-03,  3.6282e-02, -2.5171e-02, -2.0844e-02,  2.3964e-02,
        -3.3090e-02, -4.3679e-02, -1.2109e-02,  3.6534e-02,  1.2099e-02,
        -2.8099e-02, -1.3270e-02,  3.8584e-02,  3.5459e-02,  4.5223e-02,
         7.9543e-03,  4.0279e-02, -5.5199e-03, -2.2480e-02, -7.0689e-03,
         3.6483e-02,  1.8611e-02,  2.1962e-02, -3.7041e-02,  3.1167e-02,
         1.1468e-02, -8.1338e-03, -4.1590e-02, -2.2249e-02, -1.1486e-02,
        -1.4615e-04, -4.6559e-02,  1.9448e-02,  9.9130e-03, -3.8601e-02,
         3.5515e-02, -2.3461e-02, -4.2324e-02, -1.6950e-02, -4.6771e-03,
        -3.0676e-02, -4.6713e-02, -4.6221e-02,  2.4923e-02,  1.4821e-02,
         3.2015e-02,  3.6887e-02,  4.0371e-02,  2.2164e-02,  4.3712e-03,
        -3.4691e-02,  2.7007e-02,  4.8973e-02,  4.8552e-02,  3.7378e-02,
         1.2533e-02,  3.6685e-03, -3.5524e-02, -2.5695e-02,  2.3222e-02,
         1.7107e-02,  1.3689e-02,  4.9295e-03, -5.5297e-03, -1.3789e-02,
        -2.0400e-02,  4.0061e-02,  2.9814e-02, -4.1726e-02, -1.8236e-02,
         4.2275e-02,  4.0976e-02,  2.5760e-02,  2.9040e-02,  1.9208e-02,
        -4.3815e-02, -4.3156e-02,  1.8760e-02,  4.4814e-02,  3.2153e-02,
         3.5006e-02, -4.9572e-02, -6.3981e-05,  2.1584e-02,  3.3732e-02,
        -5.9125e-03,  1.2859e-02, -1.2039e-02,  3.7788e-02, -1.7998e-03,
         6.8019e-03, -2.6408e-02,  3.8140e-02, -3.1289e-02,  6.5139e-03,
         1.7937e-03, -2.6464e-02, -8.1318e-03,  3.6707e-02,  3.5266e-02,
        -3.9728e-02, -1.3042e-02,  1.7120e-02,  3.6818e-02,  2.7344e-02,
        -3.1038e-02, -5.7700e-03,  3.1374e-02, -2.2697e-02, -1.7655e-02,
        -3.9475e-02,  2.3309e-02, -1.4152e-02, -4.1582e-02, -2.4877e-05,
         1.7248e-02, -3.0782e-02, -9.6821e-03,  3.8168e-02,  8.2058e-03,
         3.7168e-02,  3.3956e-02,  3.8388e-02,  4.1438e-02, -7.9848e-03,
        -2.1478e-02, -4.3066e-02, -3.5601e-02, -9.6545e-03, -1.0428e-02,
         1.0098e-03,  7.4462e-03, -1.2752e-02, -3.1786e-02, -1.4668e-03,
         4.2320e-02,  1.1271e-02,  1.8394e-02, -2.7765e-02, -1.4459e-02,
         2.1845e-02, -3.0833e-02, -5.1453e-03,  2.1307e-02,  9.3657e-03,
        -3.0490e-02,  4.6914e-03,  2.1297e-02,  9.9810e-03, -3.8311e-03,
        -4.6545e-03, -3.0759e-02,  2.6593e-02,  1.3376e-02, -2.6435e-03,
        -3.0624e-02, -2.3180e-02, -1.0266e-02, -2.7339e-02,  2.8395e-02,
        -8.1099e-03,  9.0230e-03, -2.6385e-02, -8.5013e-03,  8.3545e-03,
        -2.4665e-02,  8.1552e-03,  2.0780e-02, -7.2322e-03,  2.7413e-02,
         3.3579e-02, -3.7533e-02, -1.6915e-02, -7.7791e-03, -1.9547e-02,
        -1.7872e-02,  2.7340e-02,  1.4962e-02, -1.7610e-02,  1.7752e-02,
         1.7528e-02, -1.4661e-02, -2.4921e-02,  3.7834e-04,  1.3549e-02,
        -2.9562e-02, -4.6282e-02,  3.0840e-02, -3.7026e-02,  3.4872e-02,
         2.0686e-02, -3.9043e-02,  3.4075e-02, -3.7584e-02, -4.0974e-02,
         2.9249e-02, -3.5400e-02, -5.5110e-03,  3.0198e-02, -6.1650e-03,
         5.6653e-03, -3.1429e-02, -2.7052e-03, -1.5912e-02,  2.1109e-02,
        -6.2939e-03, -8.8195e-03, -1.1226e-02,  3.6934e-02, -1.9374e-03,
        -2.5510e-02,  4.3174e-02,  1.9825e-02, -2.4694e-02,  1.3368e-03,
        -3.6895e-02,  4.5045e-04, -5.4660e-03,  1.2237e-02,  4.4530e-02,
         3.7620e-02, -1.8529e-02,  2.9671e-02,  4.3712e-03, -4.2841e-02,
        -6.0057e-03,  6.4203e-03,  3.2258e-02, -2.4780e-02,  9.7300e-03,
        -3.6468e-02,  4.3860e-02,  2.6606e-02, -1.1839e-02, -8.3182e-03,
         3.0167e-02,  1.2713e-02, -4.6145e-02,  2.1803e-02, -1.3793e-02,
        -4.1080e-02, -3.2670e-02, -4.3805e-02, -8.9159e-03,  1.5674e-02,
         1.9286e-02,  2.5679e-02,  4.0748e-02,  4.0528e-02, -5.0575e-02,
         2.2446e-02,  2.5116e-02,  3.1142e-02,  3.6788e-03,  1.0809e-02,
        -3.6187e-02, -8.2671e-03,  3.3315e-02,  3.0323e-02, -1.8755e-02,
        -2.8208e-02, -1.5491e-02, -4.0267e-03,  1.7623e-03, -2.4252e-03,
        -3.6100e-03,  2.1843e-02, -3.9511e-02,  2.9330e-02, -2.2931e-02,
         3.1575e-02, -8.5128e-03,  5.0649e-03,  1.2235e-02, -1.8979e-03,
        -2.2794e-02, -3.1485e-02, -6.0649e-03, -2.5641e-02, -4.2180e-03,
         2.6966e-02, -2.8363e-02,  9.6549e-03, -2.4085e-02, -4.5207e-02,
         8.0854e-03,  2.7987e-02,  2.2132e-02,  3.7207e-02,  4.3119e-02,
        -2.2826e-02, -4.2864e-02,  7.3463e-03, -4.4756e-02, -4.5111e-02,
         2.1112e-02, -1.2602e-02, -1.7004e-02,  3.5223e-02,  2.4685e-02,
         1.8230e-02, -3.7742e-02, -3.0524e-02,  1.0772e-02, -2.6288e-02,
         1.5557e-03, -1.1484e-02,  2.3918e-03,  2.7987e-02, -2.4316e-02,
         1.9805e-02,  4.6851e-03, -1.1438e-02,  7.3041e-03,  2.2685e-02,
         3.2159e-02, -2.4238e-02])
net.mlp.net.1.batch_norm.weight tensor([0.9922, 1.0066, 1.0026, 0.9978, 0.9999, 0.9926, 0.9956, 1.0013, 0.9955,
        0.9936, 0.9948, 1.0026, 0.9927, 1.0025, 0.9981, 0.9963, 0.9946, 1.0046,
        0.9976, 0.9954, 1.0004, 0.9958, 0.9937, 0.9938, 0.9969, 0.9982, 0.9953,
        0.9963, 1.0018, 1.0053, 0.9988, 1.0009, 0.9945, 0.9977, 0.9942, 0.9952,
        1.0033, 0.9965, 1.0041, 1.0026, 0.9950, 1.0022, 0.9926, 0.9935, 0.9959,
        1.0015, 0.9949, 1.0001, 1.0011, 0.9981, 1.0069, 1.0016, 0.9963, 0.9963,
        0.9992, 0.9929, 0.9985, 0.9958, 1.0006, 0.9988, 0.9979, 0.9975, 0.9950,
        0.9967, 0.9938, 0.9996, 0.9949, 0.9925, 0.9943, 1.0038, 0.9975, 0.9978,
        0.9971, 1.0018, 0.9976, 0.9956, 0.9942, 1.0020, 0.9948, 0.9948, 0.9945,
        0.9954, 0.9933, 0.9938, 1.0014, 0.9995, 0.9983, 0.9936, 1.0000, 1.0032,
        0.9971, 0.9980, 0.9961, 1.0041, 0.9975, 0.9946, 0.9930, 1.0032, 1.0032,
        0.9989, 0.9985, 1.0001, 0.9923, 1.0002, 1.0041, 0.9945, 1.0008, 0.9945,
        1.0010, 1.0008, 0.9973, 0.9974, 0.9953, 1.0013, 0.9992, 0.9958, 1.0043,
        0.9970, 0.9978, 1.0040, 1.0007, 1.0009, 0.9952, 0.9992, 0.9988, 0.9964,
        0.9977, 1.0003, 0.9947, 0.9994, 0.9955, 1.0018, 1.0054, 0.9920, 1.0000,
        0.9923, 1.0032, 1.0048, 1.0003, 1.0012, 0.9998, 1.0036, 0.9932, 1.0051,
        0.9995, 1.0016, 0.9934, 0.9945, 1.0042, 0.9933, 1.0009, 0.9956, 0.9934,
        1.0044, 1.0023, 1.0057, 0.9958, 0.9931, 0.9958, 0.9970, 0.9996, 0.9989,
        0.9960, 0.9952, 0.9978, 1.0058, 0.9987, 0.9941, 0.9932, 0.9937, 0.9962,
        1.0029, 0.9997, 0.9938, 0.9989, 0.9990, 0.9944, 1.0007, 0.9999, 0.9962,
        0.9939, 0.9935, 0.9953, 0.9977, 0.9983, 0.9968, 0.9929, 0.9961, 1.0026,
        1.0004, 0.9975, 0.9983, 0.9953, 0.9981, 0.9976, 1.0052, 0.9940, 1.0005,
        0.9964, 1.0012, 0.9974, 0.9977, 1.0004, 1.0040, 0.9959, 0.9966, 0.9987,
        0.9942, 0.9999, 0.9929, 1.0007, 1.0009, 0.9965, 0.9993, 1.0038, 0.9990,
        0.9961, 0.9993, 1.0016, 0.9953, 1.0015, 1.0040, 0.9999, 0.9944, 1.0032,
        0.9986, 1.0019, 1.0044, 0.9994, 0.9986, 0.9968, 1.0069, 0.9956, 0.9987,
        0.9924, 0.9988, 0.9997, 0.9984, 1.0013, 0.9959, 0.9978, 1.0006, 1.0034,
        0.9995, 0.9940, 1.0044, 0.9975, 1.0046, 0.9964, 0.9954, 1.0028, 0.9924,
        0.9944, 1.0060, 0.9976, 0.9969, 1.0030, 0.9954, 0.9971, 1.0016, 0.9956,
        0.9954, 0.9939, 0.9964, 0.9955, 1.0008, 0.9934, 0.9965, 0.9963, 0.9928,
        0.9953, 0.9980, 1.0040, 1.0030, 0.9921, 0.9958, 0.9973, 0.9951, 0.9952,
        1.0010, 0.9949, 0.9989, 0.9924, 0.9946, 1.0004, 0.9944, 1.0010, 1.0033,
        0.9933, 1.0040, 0.9943, 0.9980, 0.9943, 1.0054, 0.9944, 0.9993, 1.0010,
        0.9949, 0.9937, 0.9928, 0.9998, 0.9923, 1.0051, 1.0045, 0.9930, 0.9933,
        0.9929, 1.0003, 0.9942, 0.9939, 0.9969, 0.9950, 0.9979, 0.9973, 0.9990,
        0.9993, 1.0000, 0.9978, 0.9992, 1.0016, 1.0054, 1.0021, 0.9934, 0.9946,
        0.9942, 0.9983, 0.9972, 1.0009, 1.0010, 0.9993, 0.9990, 1.0030, 0.9999,
        0.9977, 0.9977, 0.9936, 0.9925, 0.9939, 0.9980, 0.9962, 0.9932, 1.0004,
        1.0002, 0.9949, 0.9990, 0.9978, 0.9965, 0.9959, 1.0004, 0.9975, 0.9946,
        0.9919, 1.0033, 1.0050, 0.9976, 0.9986, 0.9987, 0.9971, 0.9962, 0.9962,
        0.9948, 1.0033, 0.9955, 1.0046, 1.0033, 0.9984, 0.9939, 1.0028, 0.9963,
        1.0040, 0.9963, 0.9989, 0.9972, 0.9957, 0.9950, 1.0016, 0.9952, 0.9981,
        1.0026, 0.9955, 0.9950, 0.9960, 0.9942, 0.9941, 0.9964, 0.9935, 0.9936,
        1.0015, 0.9969, 0.9968, 1.0027, 0.9956, 1.0030, 0.9945, 1.0016, 0.9982,
        0.9928, 1.0021, 0.9941, 0.9957, 0.9929, 0.9934, 0.9959, 0.9966, 0.9955,
        0.9976, 1.0013, 0.9940, 1.0039, 1.0023, 1.0054, 0.9948, 1.0016, 0.9983,
        1.0007, 0.9998, 1.0023, 0.9969, 1.0030, 0.9956, 1.0022, 0.9949, 0.9944,
        0.9953, 0.9951, 0.9932, 0.9914, 1.0044, 0.9945, 0.9925, 0.9981, 0.9939,
        0.9945, 1.0021, 1.0010, 0.9950, 1.0000, 0.9999, 0.9933, 0.9963, 0.9987,
        0.9982, 0.9963, 0.9980, 0.9978, 0.9931, 1.0007, 0.9956, 0.9927, 0.9982,
        0.9965, 0.9914, 0.9983, 0.9995, 0.9959, 0.9964, 0.9963, 0.9939, 0.9970,
        0.9968, 1.0020, 0.9954, 1.0014, 1.0053, 1.0049, 0.9945, 0.9932, 0.9989,
        0.9938, 0.9948, 0.9952, 0.9997, 0.9933, 0.9960, 0.9928, 0.9924, 0.9946,
        0.9930, 0.9943, 0.9978, 0.9929, 0.9946, 0.9956, 0.9987, 0.9939, 0.9915,
        0.9971, 1.0037, 0.9945, 1.0036, 1.0017, 0.9980, 1.0062, 0.9996, 0.9930,
        1.0038, 0.9976, 0.9942, 0.9935, 0.9983, 0.9940, 0.9947, 0.9972, 1.0018,
        0.9947, 1.0034, 1.0006, 1.0056, 0.9939, 0.9951, 1.0017, 0.9983])
net.mlp.net.1.batch_norm.bias tensor([-1.6222e-03, -2.3427e-03, -4.2023e-03,  1.1338e-03,  1.0250e-03,
         6.3330e-05,  1.4258e-03, -5.6669e-04, -1.0604e-03,  2.5685e-03,
        -2.2505e-03,  8.1864e-03, -1.6823e-03,  7.4254e-04,  9.5614e-04,
         1.8391e-03,  1.0448e-03, -1.2641e-03, -3.7509e-04,  4.4488e-03,
         1.1866e-04, -1.9866e-03,  3.9726e-03, -4.7619e-03,  1.3479e-03,
         3.1562e-04,  4.2774e-03,  4.5436e-03,  4.3486e-04,  3.8612e-04,
        -4.8028e-03, -2.1976e-03,  3.5815e-03,  5.1347e-03,  1.9595e-03,
        -4.1619e-03,  4.1200e-03, -2.9701e-03,  2.5116e-03, -2.0015e-03,
         2.8800e-03,  2.9782e-03, -2.0116e-03, -4.5014e-03,  7.3277e-04,
        -3.0542e-03,  1.8298e-03, -5.3067e-03,  5.4116e-03, -1.4155e-03,
         5.7547e-03,  1.4436e-03,  3.4272e-03,  3.0244e-03,  3.3579e-03,
         1.5409e-03,  2.0823e-03, -3.6716e-04, -5.7769e-03, -2.1249e-03,
        -5.8800e-04, -4.8837e-04,  3.4141e-03, -2.3316e-03,  1.8022e-04,
         2.4315e-03,  7.0151e-04, -2.6110e-04,  2.8166e-03,  7.5498e-04,
         1.4530e-03,  1.5242e-03, -5.5386e-03,  2.3936e-03,  2.7124e-03,
         3.5716e-03,  2.3286e-03, -1.6925e-03, -3.8933e-03, -3.9315e-03,
         4.0478e-03, -6.1772e-03,  2.7333e-03,  4.7992e-03,  2.2670e-04,
        -7.5116e-05, -6.7445e-03, -5.6512e-03,  6.4551e-04, -3.7080e-03,
         2.8004e-03,  1.7559e-03, -3.5484e-03, -2.8341e-03, -5.1593e-04,
        -2.0385e-03,  5.6966e-03, -1.2348e-04,  8.2622e-04, -1.5810e-03,
        -4.2094e-04, -6.7577e-04,  3.2565e-03,  4.7792e-03,  1.1801e-03,
         5.2420e-04,  5.4312e-03, -2.3530e-03, -2.9956e-03, -6.5979e-03,
         6.0865e-03,  2.3027e-03,  4.6654e-03,  1.2586e-03, -2.3633e-03,
         4.1644e-03, -3.0911e-03,  2.6379e-03, -4.3413e-03, -2.8555e-03,
        -1.8038e-03,  2.4539e-03,  5.1398e-03,  4.9568e-04,  1.4645e-03,
         8.7271e-04,  7.3042e-03,  5.5057e-03,  2.1934e-04, -5.0034e-03,
        -7.0563e-03, -1.3085e-03,  6.6163e-03, -5.7180e-03,  2.5807e-03,
        -1.6739e-03,  5.2602e-03, -3.9320e-03,  2.0657e-03, -1.0648e-03,
         3.5866e-03, -2.0776e-03,  2.6689e-04,  4.9732e-03,  3.1163e-03,
         7.0732e-03,  4.9797e-04,  1.3620e-03,  6.5081e-03, -2.0132e-03,
        -4.2473e-05, -1.8919e-03, -1.5746e-03,  4.1514e-03, -3.7375e-03,
         1.3646e-03, -4.2750e-03, -2.2297e-04,  1.5068e-03,  1.8840e-03,
        -4.7005e-03,  6.0354e-03,  1.7093e-03, -3.2695e-03,  1.4110e-03,
         1.2205e-05,  2.0951e-03, -7.3775e-04,  6.5850e-03,  1.6996e-04,
        -3.5366e-03,  8.9176e-04, -5.3597e-03,  5.4518e-03, -1.4458e-03,
         3.7550e-03, -3.8353e-04, -7.8565e-04,  4.3270e-03,  5.1600e-04,
         4.2486e-03,  1.4533e-03,  1.6328e-03,  3.0381e-03, -1.6537e-03,
         5.6525e-03, -2.8708e-03,  5.3967e-03,  5.7617e-04,  4.4090e-03,
         1.8251e-03,  3.8926e-03, -1.8734e-03, -4.9169e-03,  1.9901e-03,
        -3.4236e-03, -7.3995e-04,  4.5394e-03,  5.6623e-04,  1.6521e-03,
        -4.3192e-03,  1.7494e-03, -8.0006e-04, -3.7486e-03,  1.7159e-03,
        -7.9223e-04,  2.7755e-03, -4.4980e-03,  3.0682e-03, -5.0772e-04,
        -2.3434e-05, -9.1013e-04, -2.6760e-04, -3.0564e-03,  5.7804e-03,
        -2.7368e-03,  2.3118e-03,  3.5246e-03, -3.9915e-04, -4.4912e-03,
         3.2952e-03,  3.0221e-03, -3.8541e-04, -5.0568e-03, -2.3552e-03,
         5.0681e-03, -1.5312e-03,  2.2214e-03,  2.6289e-03,  1.1148e-03,
        -3.8291e-03,  6.2289e-03,  2.4154e-03, -2.6793e-03, -2.0142e-03,
         5.1323e-03, -6.1822e-03,  3.0187e-03, -4.7246e-03, -2.4014e-03,
         5.5942e-03, -3.4218e-03, -5.0259e-03, -1.4785e-03,  1.5968e-03,
         3.9699e-03,  2.0813e-03,  5.1703e-03, -4.4555e-03, -2.6381e-03,
         1.6130e-05,  1.0863e-03,  2.7424e-03, -3.4989e-04, -1.9430e-03,
         1.7190e-03, -1.5982e-03, -5.9303e-03,  2.7153e-04,  3.2695e-04,
         2.7224e-03,  3.4857e-03, -5.3025e-03,  4.8763e-03, -2.8656e-04,
         1.8295e-03,  1.4704e-04,  1.0715e-03,  3.6291e-03, -1.1272e-04,
        -1.6558e-03,  1.7580e-03, -3.7756e-03,  1.7252e-03,  2.9248e-03,
         2.5532e-03,  1.7595e-03, -2.3637e-05,  2.9128e-03, -3.5303e-03,
        -3.6896e-03,  3.0996e-03,  1.6632e-03,  4.0386e-03,  5.5662e-06,
         1.4022e-03,  9.1598e-04, -4.2701e-04,  4.1910e-03, -1.9174e-03,
         2.4021e-03,  2.8682e-03,  4.8756e-03,  3.9936e-03, -5.8518e-03,
        -4.7319e-03, -5.2850e-03, -1.5042e-03,  3.0340e-04,  7.3682e-04,
         1.3457e-03, -2.6088e-03, -2.3087e-04, -2.2899e-03,  1.8424e-03,
         3.1301e-03,  3.4452e-06, -1.2736e-03,  4.0675e-03,  1.2454e-03,
        -1.9468e-03, -3.6349e-03, -1.5050e-03,  1.2925e-03, -8.1482e-03,
        -1.0673e-03,  3.7069e-03,  1.9915e-03,  7.1247e-04,  1.8706e-03,
        -5.1685e-03, -5.4560e-03, -6.1054e-04, -4.3511e-03,  2.7352e-03,
         2.8724e-03, -6.9555e-04, -1.6886e-03, -9.1649e-04, -7.7685e-04,
        -4.1832e-03,  2.2923e-03, -1.6535e-04,  1.8538e-03, -6.4756e-03,
        -6.2871e-03,  1.0238e-03,  6.4008e-03,  1.6552e-03,  3.7204e-03,
        -2.8097e-03,  2.5769e-03, -2.1665e-03,  2.6288e-04, -3.5828e-03,
         2.6937e-03,  4.6966e-03,  3.9254e-03,  4.0031e-03, -3.1618e-03,
         3.6639e-04,  3.8263e-03, -4.2882e-03, -1.3637e-03, -1.1054e-03,
        -5.0125e-04, -9.4747e-04,  3.2419e-03, -9.9682e-04,  4.7614e-03,
         2.5823e-03,  1.5211e-03, -1.2407e-03, -1.2981e-03, -1.1147e-03,
         4.6940e-03,  5.3730e-03,  6.2639e-03, -4.2698e-03,  8.4410e-04,
        -1.1576e-03, -1.8694e-03,  9.4278e-04, -6.5081e-04,  2.4743e-03,
        -5.4854e-03, -2.5948e-03,  3.1571e-03, -2.3510e-03,  1.5975e-03,
         1.1641e-03, -3.0536e-04, -1.8943e-03,  1.5462e-03, -2.7769e-03,
        -7.0491e-04, -6.4551e-04, -5.4983e-04,  4.3568e-03,  4.7097e-03,
         3.1887e-03, -2.4647e-03,  4.8180e-03, -2.1408e-03, -2.2492e-03,
         6.2622e-03,  1.4215e-03, -1.3509e-03, -2.5191e-04, -3.7950e-03,
         2.9097e-03,  7.6185e-04,  1.4419e-03,  4.0179e-03,  6.9791e-04,
         4.9846e-03,  2.1387e-03,  4.7515e-04, -2.3531e-03, -3.1783e-04,
        -2.7889e-03,  4.6269e-03,  4.1957e-03,  4.3270e-03,  5.2040e-04,
         1.9874e-03, -2.3907e-03, -4.5129e-06, -4.7582e-03,  1.3377e-03,
         2.4829e-03,  5.2782e-03,  7.1439e-03, -2.7685e-03, -1.9630e-03,
        -4.2943e-03, -2.8937e-03,  1.0479e-03,  2.0520e-03,  6.0325e-03,
        -2.1717e-03, -3.4610e-04,  2.6790e-03, -1.5213e-03, -2.5680e-03,
         2.7696e-03,  4.8734e-04,  1.6222e-03,  1.6053e-04, -1.5416e-03,
         4.3200e-03,  3.2151e-03,  2.6337e-03,  9.2712e-04,  7.5566e-04,
        -6.2217e-03, -9.8736e-04, -1.4760e-03, -2.1073e-03,  3.6157e-03,
        -5.5548e-03,  3.7861e-03, -3.1686e-03, -5.1547e-03,  3.8762e-03,
         8.3366e-05, -3.6416e-03,  5.1252e-04, -2.2357e-03, -5.8420e-03,
         5.8788e-03,  3.2567e-03,  3.2355e-05, -1.7300e-03,  2.6999e-03,
        -2.0529e-03,  3.4711e-03,  6.9427e-03,  6.7436e-04, -5.7660e-03,
         3.0545e-03, -2.4563e-03, -3.4122e-03, -3.7898e-03,  3.0650e-03,
        -5.0073e-03,  3.2703e-03,  2.4479e-03, -3.2164e-03, -6.2995e-04,
         1.0426e-03, -4.5649e-03,  4.9374e-04,  2.1585e-03,  4.3460e-04,
        -1.5745e-03,  3.4823e-03,  8.9409e-06,  1.0469e-04,  3.1491e-03,
         6.1121e-03,  1.2311e-03, -3.5781e-03, -4.5226e-03, -2.5320e-03,
         6.2667e-03, -3.5284e-03, -2.2054e-03,  3.0137e-03, -1.0682e-03,
        -2.7204e-03, -4.6670e-04, -1.9222e-03,  2.1561e-03, -9.8907e-04,
         1.6321e-03,  2.4235e-03, -6.1327e-03, -9.4052e-05,  5.1098e-03,
         1.1042e-03,  4.7402e-03])
net.mlp.net.1.batch_norm.running_mean tensor([0.5919, 0.6215, 0.6677, 0.6451, 0.6836, 0.6439, 0.7773, 0.6993, 0.6286,
        0.6538, 0.6916, 0.6561, 0.6451, 0.7228, 0.5855, 0.6294, 0.5977, 0.7561,
        0.6513, 0.6493, 0.6295, 0.6504, 0.6054, 0.6666, 0.5917, 0.7861, 0.6549,
        0.6306, 0.6590, 0.7198, 0.6320, 0.6430, 0.5735, 0.6821, 0.6437, 0.6193,
        0.6132, 0.6692, 0.6042, 0.6439, 0.5939, 0.7477, 0.6478, 0.7563, 0.6280,
        0.6676, 0.6383, 0.6609, 0.6179, 0.7591, 0.5929, 0.6377, 0.6756, 0.6673,
        0.6234, 0.7975, 0.5934, 0.6156, 0.6619, 0.6648, 0.7458, 0.5776, 0.6430,
        0.6181, 0.6242, 0.6654, 0.6435, 0.6222, 0.6257, 0.7201, 0.6476, 0.7045,
        0.6761, 0.6651, 0.7215, 0.6135, 0.5752, 0.6579, 0.6568, 0.7642, 0.6578,
        0.6314, 0.6664, 0.6207, 0.6554, 0.6045, 0.6306, 0.6847, 0.6869, 0.6849,
        0.6438, 0.6163, 0.6778, 0.8100, 0.6133, 0.6485, 0.6356, 0.6267, 0.6704,
        0.6929, 0.7050, 0.6412, 0.6463, 0.7047, 0.6997, 0.6665, 0.6104, 0.6430,
        0.7066, 0.5859, 0.7142, 0.6294, 0.6941, 0.6241, 0.6227, 0.6245, 0.6608,
        0.6068, 0.6707, 0.6547, 0.6021, 0.6868, 0.7596, 0.7816, 0.6641, 0.6891,
        0.6883, 0.5686, 0.6912, 0.7118, 0.6205, 0.6582, 0.6117, 0.6534, 0.6842,
        0.6785, 0.6060, 0.7636, 0.6163, 0.6315, 0.7123, 0.6250, 0.6549, 0.7062,
        0.5821, 0.6721, 0.6202, 0.6002, 0.7485, 0.6619, 0.6072, 0.6952, 0.7699,
        0.8414, 0.6139, 0.6109, 0.6418, 0.6386, 0.7194, 0.6068, 0.6207, 0.6087,
        0.6684, 0.7689, 0.5526, 0.7047, 0.5808, 0.6258, 0.6781, 0.6127, 0.6806,
        0.5805, 0.6470, 0.6677, 0.5906, 0.6942, 0.6240, 0.6384, 0.5874, 0.6459,
        0.7511, 0.6201, 0.6470, 0.6213, 0.7155, 0.6027, 0.6202, 0.7964, 0.6890,
        0.6452, 0.6579, 0.5834, 0.6333, 0.6428, 0.6450, 0.6606, 0.7044, 0.7062,
        0.6035, 0.6152, 0.6366, 0.6962, 0.6932, 0.6882, 0.5914, 0.6066, 0.6201,
        0.6509, 0.6751, 0.6587, 0.6456, 0.7011, 0.5475, 0.6447, 0.6589, 0.6914,
        0.6337, 0.6511, 0.6503, 0.6528, 0.6134, 0.7199, 0.5826, 0.6165, 0.5895,
        0.6754, 0.6357, 0.6307, 0.5973, 0.7056, 0.6975, 0.5835, 0.6122, 0.7192,
        0.6551, 0.7250, 0.6859, 0.6118, 0.7302, 0.6697, 0.6822, 0.7028, 0.6687,
        0.7105, 0.6928, 0.5686, 0.6086, 0.6243, 0.6334, 0.7819, 0.6379, 0.6626,
        0.6434, 0.6535, 0.6857, 0.6539, 0.7201, 0.6396, 0.6420, 0.6393, 0.6350,
        0.7762, 0.6631, 0.6508, 0.6759, 0.6981, 0.5953, 0.7502, 0.6894, 0.6531,
        0.5757, 0.6453, 0.6285, 0.7284, 0.6816, 0.7286, 0.6615, 0.6460, 0.6769,
        0.6079, 0.7276, 0.6861, 0.6059, 0.6882, 0.6659, 0.6230, 0.6603, 0.6118,
        0.7167, 0.6776, 0.6257, 0.6089, 0.6247, 0.8135, 0.6684, 0.6603, 0.6227,
        0.6183, 0.6837, 0.7075, 0.6375, 0.6754, 0.6621, 0.5900, 0.7038, 0.6920,
        0.6485, 0.6144, 0.5984, 0.6870, 0.6151, 0.6836, 0.6700, 0.6680, 0.7196,
        0.7260, 0.6008, 0.7334, 0.7846, 0.7399, 0.7382, 0.7227, 0.6695, 0.7194,
        0.6737, 0.6735, 0.7421, 0.6816, 0.6453, 0.6728, 0.6980, 0.6146, 0.7223,
        0.6431, 0.6428, 0.6133, 0.6833, 0.5830, 0.6525, 0.7030, 0.6866, 0.6831,
        0.6564, 0.6697, 0.6986, 0.6307, 0.6497, 0.7246, 0.6971, 0.6121, 0.7259,
        0.6249, 0.7119, 0.7545, 0.6761, 0.6619, 0.6793, 0.5947, 0.7370, 0.7009,
        0.7242, 0.6361, 0.6686, 0.6826, 0.7474, 0.7506, 0.6797, 0.6905, 0.6155,
        0.6078, 0.6592, 0.5973, 0.6093, 0.5702, 0.7490, 0.6894, 0.7109, 0.6377,
        0.6800, 0.6144, 0.7382, 0.6574, 0.6466, 0.6915, 0.6796, 0.6466, 0.5980,
        0.6994, 0.6915, 0.7025, 0.6232, 0.6536, 0.6391, 0.6546, 0.6797, 0.7248,
        0.6486, 0.7661, 0.7101, 0.7421, 0.6881, 0.6778, 0.6289, 0.6629, 0.5822,
        0.6079, 0.5978, 0.6776, 0.7221, 0.6998, 0.6534, 0.6404, 0.5603, 0.7262,
        0.7048, 0.6721, 0.6523, 0.6434, 0.6719, 0.6269, 0.6125, 0.6297, 0.7498,
        0.6848, 0.6518, 0.5710, 0.6667, 0.6268, 0.6824, 0.6309, 0.7190, 0.6215,
        0.5973, 0.6546, 0.6046, 0.5780, 0.6659, 0.6762, 0.6446, 0.6056, 0.6785,
        0.7199, 0.6019, 0.6395, 0.6137, 0.7306, 0.6736, 0.6679, 0.6038, 0.5978,
        0.6256, 0.6793, 0.6286, 0.7294, 0.7403, 0.6898, 0.6471, 0.5642, 0.7697,
        0.6137, 0.7530, 0.6653, 0.7125, 0.7266, 0.7502, 0.6279, 0.6388, 0.6732,
        0.6815, 0.7219, 0.6234, 0.6824, 0.6742, 0.6294, 0.6156, 0.7176, 0.6475,
        0.6749, 0.6550, 0.6198, 0.6559, 0.7061, 0.6763, 0.6404, 0.6572, 0.5410,
        0.6241, 0.7386, 0.6086, 0.6126, 0.6750, 0.6485, 0.6830, 0.7423, 0.6545,
        0.6573, 0.6229, 0.6234, 0.6019, 0.6296, 0.6525, 0.6702, 0.7963, 0.6607,
        0.6401, 0.6783, 0.6378, 0.7062, 0.6122, 0.6701, 0.6199, 0.6385])
net.mlp.net.1.batch_norm.running_var tensor([1.4701, 1.8229, 1.7977, 1.4322, 2.2859, 1.2335, 2.6131, 1.3664, 1.8396,
        2.0811, 1.3561, 1.4929, 1.6082, 2.0098, 1.5568, 1.2194, 1.2916, 1.9776,
        1.5328, 1.4761, 1.4473, 1.4374, 1.6113, 1.7525, 1.6464, 1.7554, 1.4852,
        1.4888, 2.3257, 1.7479, 1.1435, 1.7746, 1.3348, 1.5433, 2.0539, 1.8171,
        1.3462, 1.4680, 2.2154, 1.4239, 1.3154, 1.9690, 1.3097, 1.5460, 1.5806,
        1.7083, 1.9511, 1.9645, 1.2527, 1.4394, 1.6011, 1.5817, 1.8126, 1.3540,
        1.5472, 3.8547, 1.2210, 1.1753, 1.3242, 1.3883, 2.7367, 1.2051, 1.5235,
        1.7014, 1.4155, 1.2215, 1.9000, 1.5633, 1.3927, 1.5609, 2.2891, 1.4199,
        1.3553, 1.7158, 2.2333, 1.0838, 1.6771, 2.3875, 1.4143, 1.8124, 1.1163,
        1.2784, 1.4112, 1.7766, 1.8956, 1.3771, 1.8405, 1.8681, 1.4092, 2.2580,
        1.5912, 1.7906, 1.3545, 1.7871, 1.0828, 1.3691, 1.8706, 1.8172, 1.6226,
        1.3186, 1.5543, 1.7724, 1.3047, 1.6018, 1.6815, 1.3998, 1.5317, 1.3068,
        1.9173, 1.3401, 1.8954, 1.5193, 1.7246, 1.3566, 1.6980, 1.3797, 1.6092,
        1.5170, 1.6370, 1.4588, 1.4305, 2.5751, 2.0415, 1.6027, 1.2237, 1.4834,
        2.3219, 1.0942, 1.7901, 1.4029, 1.6203, 1.9248, 1.7093, 1.6398, 1.8738,
        2.6587, 1.3370, 1.9247, 1.7323, 2.0920, 2.5678, 2.0720, 1.5649, 1.8560,
        1.1089, 1.5433, 1.9031, 1.5404, 2.2429, 1.6691, 1.4221, 2.0352, 1.6650,
        2.1129, 1.6346, 1.6746, 1.7627, 1.4026, 1.5626, 1.6569, 1.9613, 1.4169,
        1.4967, 3.2880, 1.1404, 1.2964, 1.2063, 1.5102, 1.7209, 1.4954, 1.5516,
        1.3186, 1.7804, 1.3721, 1.4284, 1.7150, 1.5950, 1.7521, 1.6893, 1.3934,
        2.7031, 1.2337, 1.9172, 1.3360, 1.3706, 1.2456, 1.5275, 2.0661, 1.3761,
        1.8210, 1.5468, 1.1956, 1.6051, 1.7613, 1.2986, 1.7570, 2.0855, 1.2637,
        1.5400, 1.2487, 2.0356, 2.2826, 1.8087, 2.5994, 1.6067, 1.3782, 1.5146,
        1.5415, 1.4678, 1.7095, 1.8223, 1.7028, 1.4706, 1.7510, 1.2506, 1.3980,
        1.4179, 1.5975, 1.4003, 1.7729, 1.4836, 2.1281, 1.2926, 1.7646, 1.3617,
        1.3686, 2.0899, 1.8085, 1.2948, 2.4733, 1.8460, 1.3348, 1.7601, 3.7598,
        1.3029, 2.0116, 1.8421, 1.4193, 2.3099, 2.6204, 1.5659, 1.9170, 1.2989,
        1.6645, 1.3968, 1.5372, 1.4142, 1.4072, 1.2042, 3.1465, 1.3744, 1.3346,
        1.3952, 1.5414, 1.4664, 1.4755, 1.7867, 1.3943, 1.2504, 1.4047, 1.9763,
        4.5658, 1.7521, 2.0894, 1.5110, 1.4518, 1.3169, 1.6666, 2.4562, 1.6110,
        1.1957, 1.3912, 1.3339, 2.0406, 1.3150, 2.3855, 1.3564, 1.7435, 1.8189,
        1.3305, 1.6937, 1.9088, 1.4820, 1.6157, 2.1276, 1.3525, 1.4588, 1.2099,
        1.5193, 1.6250, 1.1852, 1.5975, 1.5890, 4.0041, 1.6310, 1.5463, 1.3633,
        1.0840, 1.7410, 2.0142, 1.6478, 1.7003, 1.8810, 1.2084, 1.6280, 1.8154,
        1.2054, 1.1869, 1.6640, 2.7074, 1.4079, 1.7224, 1.4515, 1.3510, 1.7672,
        1.6797, 1.4830, 1.5050, 3.0139, 1.7472, 2.3925, 1.5359, 2.1596, 2.2839,
        3.2420, 1.6418, 2.2516, 1.8181, 1.2180, 3.0894, 1.6424, 1.6938, 1.7388,
        1.2865, 1.4512, 1.3651, 1.3953, 1.3607, 2.1091, 1.3641, 1.3434, 2.5311,
        1.6032, 1.1751, 1.6284, 1.6802, 1.8261, 1.6727, 1.5127, 1.3440, 2.2962,
        2.0340, 1.8595, 1.8318, 1.4501, 1.3342, 1.5530, 1.5481, 2.8491, 1.8668,
        3.1241, 1.7825, 1.5813, 1.4893, 2.1267, 2.2044, 1.6332, 2.9399, 1.3016,
        1.7037, 1.6573, 1.2121, 1.1691, 1.4055, 3.5501, 1.8910, 1.2898, 1.2375,
        1.4482, 1.7430, 1.8280, 1.7262, 1.5684, 1.8661, 1.8249, 1.7687, 1.3189,
        1.5857, 2.1125, 2.1001, 1.5776, 1.5595, 1.3711, 1.4977, 1.5255, 1.6540,
        1.8094, 1.5965, 1.5474, 1.5291, 1.9777, 1.4395, 1.4206, 1.4672, 1.2236,
        1.4715, 1.5850, 1.3992, 2.0993, 3.6673, 1.3799, 1.6520, 1.0985, 1.6286,
        1.3882, 1.8887, 1.5904, 1.5024, 1.3973, 1.4018, 1.4338, 1.7857, 3.6009,
        1.2259, 1.3079, 1.2233, 1.9923, 1.5786, 1.2751, 2.0754, 1.4108, 1.1579,
        1.6329, 1.3183, 1.1686, 1.5214, 2.5575, 1.4277, 1.6976, 1.6408, 1.8999,
        2.5204, 1.6169, 1.5418, 2.1678, 2.4911, 1.4374, 2.6950, 1.2016, 1.7293,
        1.7184, 1.2311, 1.7797, 1.8526, 1.4071, 1.8596, 1.3766, 1.1430, 4.1046,
        1.3758, 1.9461, 1.7470, 1.6378, 2.1579, 1.6954, 1.6234, 3.7950, 1.4337,
        2.2091, 2.1526, 1.6444, 1.5904, 1.5267, 1.3630, 2.5165, 2.0059, 1.3470,
        1.6733, 1.7807, 2.1331, 1.5867, 2.3509, 2.5690, 1.7098, 1.6061, 1.1982,
        1.4415, 2.5036, 1.4711, 1.6030, 1.4693, 1.4294, 1.7028, 2.4789, 1.6486,
        1.6130, 1.3924, 1.2934, 1.3626, 1.5266, 1.5025, 1.4888, 3.3557, 1.4799,
        1.6532, 1.8734, 1.9111, 2.2679, 1.3063, 1.4631, 1.6204, 1.9490])
net.mlp.net.1.batch_norm.num_batches_tracked tensor(16)
net.mlp.net.2.weight tensor([[ 3.1429e-02, -1.0385e-02, -6.9976e-03, -2.8307e-02, -1.6500e-02,
          1.4467e-03,  3.6793e-02,  2.0484e-02, -2.3212e-02,  2.7820e-02,
         -2.0495e-02, -3.8926e-02, -2.5708e-02,  2.7421e-02,  3.7752e-02,
          3.3146e-02, -1.2890e-02, -1.6033e-02, -4.2649e-03, -3.8456e-02,
          1.8976e-02, -2.3161e-03, -1.6874e-02,  9.3304e-03,  2.7239e-02,
         -1.7436e-02, -2.0147e-02, -3.6441e-02, -1.5215e-02, -2.2574e-02,
         -4.4285e-03, -3.1062e-02, -3.0475e-02, -3.8418e-02,  4.8047e-04,
          3.8438e-02, -7.8206e-03,  1.0856e-02,  3.5589e-02, -2.5651e-02,
          3.3039e-02, -2.2480e-02,  2.9527e-02, -1.9850e-02,  1.0018e-03,
         -3.2967e-02,  3.1244e-02, -3.5459e-02, -3.4202e-02,  1.2000e-03,
         -2.1875e-02, -1.7566e-02,  2.6957e-02, -1.3123e-02, -1.4737e-02,
         -6.3471e-03,  6.3319e-03,  1.7699e-02,  3.5251e-02,  1.8610e-02,
         -2.4316e-02, -1.4027e-02, -6.0906e-03,  1.1777e-02,  2.9474e-02,
         -5.6789e-03, -3.6825e-02,  3.0990e-02, -9.4882e-03,  1.8948e-02,
         -3.1039e-02,  2.9540e-02,  1.5056e-02,  1.5745e-02,  2.6810e-02,
         -6.4094e-03, -2.6127e-02,  2.0210e-02, -3.3859e-02,  2.1793e-02,
          3.1560e-02,  4.8595e-03,  2.5456e-02, -3.3006e-02, -3.2687e-02,
          2.1391e-02, -3.8836e-02,  8.5248e-03, -2.3114e-02, -1.9890e-02,
         -2.3183e-02, -3.5601e-02,  8.1153e-03,  8.0078e-03,  2.1610e-02,
         -2.3450e-02,  3.1981e-02, -4.0180e-02, -1.5234e-02,  4.2461e-02,
          1.7229e-02,  5.5263e-03,  2.0288e-02, -4.2581e-02,  4.5075e-02,
         -2.3068e-02, -3.9836e-02, -2.6752e-04,  1.8575e-02, -1.9873e-02,
         -1.5562e-02,  2.3238e-02,  3.6289e-02,  3.1949e-02, -4.2415e-03,
          5.9364e-03, -5.6568e-03,  5.4631e-03,  1.4744e-02, -1.7631e-02,
          2.1593e-02, -5.5726e-03,  2.1215e-02,  1.0614e-02,  8.7041e-03,
          7.4867e-03, -3.2078e-02,  1.9890e-02, -1.6416e-02, -2.3924e-02,
         -2.6308e-02, -2.6113e-02, -2.0666e-02,  3.4178e-02, -9.0212e-03,
         -2.7935e-02,  1.1925e-02, -1.2676e-02, -3.3687e-02, -4.0940e-03,
         -3.3098e-02,  1.2522e-02,  2.1222e-02, -1.2445e-02, -1.4506e-02,
         -3.5569e-02, -7.9315e-03, -2.7163e-02,  1.5593e-02, -3.1268e-02,
         -3.9736e-02,  1.1275e-02, -1.1288e-02, -2.3553e-02, -2.2094e-02,
         -2.9142e-02, -2.2122e-03,  2.2016e-02, -2.4550e-02, -1.8257e-02,
         -3.2853e-02,  2.8668e-03,  3.4226e-02, -1.3781e-03,  2.2245e-02,
          8.4934e-03, -1.6513e-02,  5.4250e-04, -3.0508e-02, -3.5866e-02,
         -2.5784e-02,  2.8978e-02, -2.2519e-02,  7.6708e-03, -2.9860e-03,
         -2.6582e-02,  1.1656e-02,  3.3920e-03,  2.8164e-02,  3.0517e-02,
          1.1630e-02,  2.8286e-02, -4.8335e-03,  1.8175e-02,  1.3431e-02,
         -1.4721e-02,  3.5026e-02,  6.3604e-03, -6.3832e-03, -4.0356e-02,
         -1.2923e-02,  2.5817e-02,  1.6836e-02,  1.5388e-02,  8.2479e-03,
          3.2697e-02,  1.7172e-02,  1.4677e-02,  3.7022e-03,  2.6620e-02,
          5.6536e-03,  9.8061e-03, -1.4952e-02,  1.6501e-02, -1.7978e-02,
         -1.9999e-02, -3.2250e-02, -2.8111e-02, -4.3136e-03, -3.3364e-02,
         -2.3098e-02, -2.3794e-02,  4.1114e-03, -4.0518e-02,  2.9623e-02,
          1.5965e-03, -1.7113e-02, -4.2244e-02,  7.7820e-03, -2.8053e-02,
         -7.4535e-03, -1.8072e-02,  2.8127e-02,  4.3878e-03, -1.5418e-02,
          2.9407e-02, -1.3164e-02, -2.1781e-02, -1.9115e-02, -2.7257e-02,
          4.7820e-03, -1.4600e-02, -3.0861e-02,  2.9631e-02,  3.1620e-02,
          2.1503e-02,  3.0073e-03, -2.2625e-02,  4.3358e-02,  9.3691e-04,
          3.4068e-02,  3.7250e-02, -8.3156e-03, -2.6401e-02, -1.7740e-02,
          1.1117e-02, -3.6201e-02, -1.4321e-02,  1.2958e-02, -2.0472e-02,
         -2.0659e-02,  2.7232e-02, -3.3797e-02, -3.0810e-02, -2.2441e-03,
         -1.4720e-02,  3.0932e-02, -2.9987e-02, -2.9372e-03,  3.8646e-03,
         -2.5966e-02,  2.2198e-02,  3.7937e-02,  3.8037e-02, -2.8877e-02,
         -1.0347e-02,  1.3555e-02, -2.6845e-02,  2.1148e-02,  1.7442e-02,
          2.5747e-02,  1.2409e-03,  1.0017e-02,  6.8172e-03,  6.6825e-03,
          3.6799e-03, -6.9833e-03, -2.4125e-02,  1.3727e-03, -2.8330e-02,
          1.4267e-02, -1.2402e-02, -2.6292e-02, -2.2225e-02,  2.9227e-02,
          1.7378e-02, -1.4477e-02, -1.9044e-02,  3.0373e-02, -1.3136e-02,
          1.3333e-03,  6.7942e-03,  3.0366e-02,  2.1524e-02,  6.1661e-03,
         -2.0991e-02,  3.9002e-03, -1.2984e-02,  2.9815e-02,  2.8430e-02,
         -2.1959e-02,  3.0889e-02,  1.0856e-02, -1.5860e-02, -3.6659e-02,
          3.3894e-02, -2.6627e-02, -2.5267e-02,  9.9820e-03, -1.0512e-02,
         -1.7462e-02, -1.7262e-05,  3.0516e-02, -4.0320e-02, -5.0443e-03,
         -4.0454e-02, -2.0686e-02,  2.3401e-02,  2.0374e-02, -4.2890e-02,
         -2.6927e-02, -2.8272e-02,  3.0372e-02,  2.0006e-02,  1.8816e-02,
         -2.1033e-02,  2.0442e-02,  3.4931e-02, -3.6154e-02,  2.0687e-02,
         -1.2480e-02, -2.9782e-02,  1.2481e-02,  3.0787e-02, -1.7408e-02,
         -3.3005e-02, -3.4174e-02,  3.7593e-02, -4.7623e-03,  1.2430e-02,
          3.6917e-02,  3.2323e-02,  9.3773e-03,  3.9424e-03,  9.6983e-03,
         -3.3122e-02, -3.1869e-02,  2.9861e-02, -1.8407e-02, -8.5716e-03,
         -3.3097e-02, -3.0049e-02, -3.6733e-02, -2.7804e-02, -1.8005e-02,
          8.3947e-03,  2.0156e-02,  3.4282e-02, -1.9223e-03, -3.2171e-02,
         -1.4118e-03, -5.0180e-03,  1.2926e-02, -3.4957e-02,  4.3182e-02,
         -2.8063e-02, -1.6107e-02,  2.7480e-02,  2.7327e-02, -1.4790e-02,
         -1.2050e-02,  3.5787e-02,  2.2424e-02,  2.0736e-02, -2.6127e-04,
         -2.8709e-02,  3.4534e-02,  4.5653e-03, -4.3665e-02,  1.3922e-02,
          2.2962e-02, -1.0742e-02,  3.8361e-02,  1.4592e-02, -2.2447e-02,
          3.0606e-02, -1.8463e-02,  1.1936e-02,  3.7866e-02, -9.7766e-03,
         -3.1577e-02,  3.6842e-02, -9.1250e-03,  6.8024e-03,  7.0618e-03,
         -1.1312e-02, -1.5318e-02,  1.4646e-02,  3.5876e-02,  2.1099e-03,
         -3.5460e-02,  1.1287e-02, -3.9979e-02, -2.1680e-03, -3.3259e-02,
          1.7583e-02, -3.9673e-03,  1.0129e-02, -3.9392e-02, -2.7155e-02,
         -2.0153e-02,  1.9901e-02,  1.3686e-02,  7.9454e-03,  4.6024e-03,
          1.0001e-02, -2.7489e-02,  3.6808e-02, -4.8940e-03, -9.7422e-03,
         -1.8786e-02, -1.5468e-02, -3.8370e-02, -1.1309e-03,  3.9154e-03,
          1.1740e-02,  2.7624e-02,  1.6190e-02,  2.4683e-03, -2.3941e-02,
          3.8082e-02,  3.4095e-03,  1.0612e-02,  9.8970e-03, -8.4584e-03,
          1.4215e-02,  2.8368e-02, -3.4018e-02, -2.4914e-02, -8.6985e-03,
          1.0876e-02,  1.7650e-02, -2.0107e-02, -1.5461e-02,  2.5209e-02,
         -1.6557e-02, -3.9964e-03, -5.6906e-03, -9.1747e-03,  3.0575e-02,
          3.4441e-02,  3.4221e-02,  3.3764e-02, -1.6156e-03,  3.6301e-04,
          2.1607e-02,  7.4239e-03, -3.7687e-02, -7.3952e-03,  8.5508e-03,
         -2.6616e-02,  2.8451e-02, -6.9888e-03, -3.5652e-02, -9.8367e-03,
         -3.0927e-02,  3.2583e-02, -3.4430e-02, -2.9497e-02,  1.1484e-02,
          1.1648e-02, -7.8466e-03,  3.4382e-02,  2.9391e-02, -2.7631e-02,
          2.7120e-03,  1.2165e-02, -2.5856e-02, -1.9734e-02,  3.4642e-02,
          3.7768e-03,  1.1325e-02,  1.4831e-02, -3.4095e-02,  1.9336e-02,
          2.6689e-02,  4.0247e-02, -8.8235e-03, -3.2165e-02,  6.1544e-03,
         -3.9810e-02, -1.3233e-04, -2.1301e-02,  3.9488e-02,  3.6276e-02,
         -7.4174e-03,  3.7718e-03,  4.9248e-04, -2.9699e-02, -2.2505e-02,
         -2.6958e-02,  2.4794e-02,  2.6624e-02,  3.1736e-02,  2.3051e-02,
         -1.3410e-02, -4.1589e-02, -7.4690e-03,  3.7414e-02, -2.1970e-02,
         -2.7363e-02, -1.1488e-02]])
