Weights: 
net.embeddings.embeddings.0.weight tensor([[-0.0901,  0.0019],
        [-0.0141,  0.1245],
        [ 0.2190, -0.1134],
        [-0.2038,  0.2173]])
net.embeddings.embeddings.1.weight tensor([[ 0.2319, -0.0813],
        [-0.0494, -0.1309],
        [-0.0296, -0.0293],
        [ 0.1502, -0.0210],
        [ 0.0470, -0.2134]])
net.embeddings.embeddings.2.weight tensor([[-0.0912, -0.0209,  0.1184],
        [ 0.0784,  0.0844,  0.0165],
        [-0.1268, -0.0185,  0.0232],
        [ 0.0945, -0.0998, -0.0462],
        [ 0.0358, -0.0886,  0.0554],
        [-0.0224,  0.0435, -0.0469]])
net.embeddings.embeddings.3.weight tensor([[-0.1676,  0.0235],
        [ 0.2486,  0.0607],
        [ 0.0972, -0.3790],
        [-0.3486, -0.1888]])
net.embeddings.embeddings.4.weight tensor([[ 0.1351, -0.1532],
        [ 0.2040,  0.2372],
        [-0.0862, -0.1817],
        [ 0.1794, -0.1181]])
net.mlp.net.0.linear.weight tensor([[ 0.1024, -0.0021,  0.0948,  ...,  0.1988,  0.0318,  0.1312],
        [-0.0254,  0.0634, -0.0955,  ..., -0.0472,  0.0374, -0.0399],
        [ 0.0043, -0.0913, -0.0318,  ..., -0.1458,  0.0658, -0.0918],
        ...,
        [ 0.0130,  0.1368,  0.0672,  ..., -0.1578, -0.1926, -0.1448],
        [-0.0456, -0.0554,  0.0358,  ..., -0.0836,  0.0586, -0.0390],
        [-0.1272,  0.0916, -0.1381,  ..., -0.0672,  0.0218,  0.0671]])
net.mlp.net.0.linear.bias tensor([-5.5553e-02, -3.6627e-02,  7.3470e-02,  4.6001e-02,  5.9314e-02,
        -8.8558e-02, -6.1172e-02,  7.5377e-02,  5.2417e-02, -2.3243e-02,
        -2.6792e-02, -1.6334e-03, -4.7594e-03, -3.8774e-02, -6.0145e-02,
        -2.7274e-02, -1.9444e-02,  1.8392e-02, -5.3414e-03,  6.7143e-02,
        -9.4668e-02,  7.5676e-03,  4.1440e-02, -2.2346e-02, -1.6395e-01,
        -1.0421e-01, -1.4949e-03, -7.6162e-02, -4.1654e-02,  2.8353e-02,
        -8.0904e-02,  2.2390e-02,  2.0358e-02,  2.2552e-02, -4.7893e-02,
        -5.3027e-02,  1.0991e-02, -8.5593e-02, -1.1211e-01, -9.7077e-02,
        -3.7112e-02,  3.5492e-02, -7.5448e-02, -2.1494e-02,  5.0908e-02,
         4.9496e-02, -6.3036e-03, -2.1515e-02,  8.0623e-02, -9.8621e-02,
        -4.8371e-02, -6.2140e-02, -1.0576e-01, -1.3546e-02,  4.4211e-02,
        -2.6574e-02,  5.2555e-03,  1.0178e-01, -2.1521e-02,  5.8427e-02,
         6.2046e-02, -7.5015e-02,  9.2933e-02, -1.4871e-02, -6.0824e-02,
         3.1745e-03,  9.1796e-02,  1.8322e-02,  7.2448e-02,  4.5342e-03,
         6.0308e-02,  6.7292e-02, -9.3312e-02,  7.2221e-02,  3.2961e-02,
        -1.5964e-02,  1.8565e-02, -2.7387e-02, -1.0177e-01,  4.5978e-02,
         7.9568e-02, -6.7721e-02,  9.1036e-02,  6.6197e-02, -1.3122e-01,
         1.2420e-02,  7.0120e-03, -1.8146e-02, -6.0724e-02,  7.0691e-02,
         1.7593e-02, -1.4357e-01, -1.5182e-02,  3.5057e-02,  4.3258e-03,
         2.9363e-02,  2.7875e-02, -4.7541e-02, -6.0312e-02,  1.0198e-01,
         1.0051e-02, -7.3546e-02, -6.3936e-02, -7.3010e-02, -4.0327e-02,
         6.9899e-02, -1.1874e-02,  7.1966e-02, -1.5918e-01, -1.0439e-01,
        -6.6310e-02, -3.6340e-02, -2.5187e-02,  1.4453e-02, -9.7219e-02,
         3.9598e-03, -8.0642e-02, -7.6345e-02,  1.1012e-01,  9.2027e-02,
        -3.5887e-02, -4.7694e-02,  3.4619e-02,  8.1585e-02, -1.4407e-02,
        -2.4553e-02, -5.3937e-02,  1.2938e-03, -6.1104e-02, -3.8012e-03,
         7.6925e-02,  8.5405e-02,  8.3310e-02, -1.0398e-01,  7.8540e-02,
         1.6758e-02, -5.4889e-02,  1.1243e-01, -5.8587e-03, -4.4297e-02,
         5.4417e-02,  6.9394e-02,  1.8183e-02,  3.9530e-02,  4.9032e-03,
         2.9739e-02,  2.5409e-02,  3.9704e-02,  8.8985e-02,  1.2119e-01,
         1.0244e-01,  7.8127e-02,  3.0510e-02, -7.9301e-02, -4.9976e-03,
         9.5320e-02, -5.4962e-02, -1.7843e-02, -5.4064e-02, -6.3889e-03,
        -3.2894e-02,  3.0131e-02,  8.6179e-02,  7.3473e-02, -1.5034e-01,
         7.5315e-02,  1.2061e-01, -4.0931e-03,  6.8992e-02,  8.9847e-02,
        -8.6639e-02,  5.8410e-02,  2.1431e-02,  6.0624e-02, -9.7517e-02,
         2.4670e-02, -5.2599e-02,  1.4465e-01,  1.4517e-01, -1.1894e-01,
        -3.4857e-02,  1.5067e-02,  7.3502e-02, -3.4494e-02,  1.8694e-03,
         3.9487e-02,  5.0715e-02, -1.0007e-02,  5.1132e-03, -5.1488e-02,
         7.5797e-02,  9.3041e-02,  2.8688e-02, -1.2059e-01, -6.0940e-02,
        -2.6030e-02,  1.1749e-03, -1.8892e-02, -2.1358e-02, -1.3044e-01,
         3.8626e-02,  7.5774e-03,  8.3462e-02, -9.3474e-02,  5.7340e-02,
         1.3077e-01, -3.1306e-02,  5.2255e-02, -1.4187e-02,  9.3599e-02,
        -1.7071e-02,  1.2096e-02, -4.0209e-03,  3.6789e-02, -3.2762e-02,
        -9.1962e-02,  4.2229e-02,  6.6866e-02,  1.7930e-02, -1.3329e-02,
         6.2149e-02,  1.1644e-02,  2.8172e-02, -1.3846e-02,  1.4139e-01,
         8.4813e-02, -7.7746e-02, -6.7922e-02, -1.2835e-01,  5.8241e-02,
         1.1752e-01, -2.9193e-02, -1.0980e-01, -6.8294e-02,  2.9753e-02,
        -8.7988e-02, -9.4502e-03,  7.2320e-02,  4.3203e-02, -1.4236e-02,
        -1.1960e-01,  9.3783e-04,  1.2848e-02, -3.5390e-02, -4.5378e-02,
         1.6256e-02, -3.8522e-02, -6.3213e-02,  4.2825e-03, -1.6611e-02,
        -6.8925e-03, -3.3899e-02,  1.0866e-02, -4.7167e-02, -4.7087e-02,
         6.8501e-02,  4.2361e-02,  5.8102e-02,  2.6137e-02,  8.4444e-02,
        -6.0487e-02,  1.0191e-02, -9.7721e-02, -1.1669e-02,  4.4445e-03,
        -3.0197e-02, -4.0949e-02, -5.8373e-02, -6.4665e-02, -7.3531e-02,
         7.7367e-02, -2.2552e-03, -8.0740e-02,  2.4995e-02,  1.4073e-02,
        -2.2368e-03, -4.7895e-02, -1.1284e-01,  7.7208e-02,  2.5673e-02,
        -4.4614e-02,  3.2590e-03,  2.2526e-02, -7.9613e-02,  4.6223e-02,
        -2.0546e-02, -8.9710e-02, -9.0282e-03, -8.4300e-02, -9.8857e-03,
         1.2215e-01, -2.6603e-02,  6.0939e-02,  9.5996e-02,  9.9713e-02,
         5.0596e-04, -9.2958e-02, -8.0766e-03,  1.1189e-02,  4.9805e-02,
        -1.1363e-01,  5.0958e-02, -2.2396e-02,  7.1187e-02, -3.0373e-02,
        -5.8059e-02, -7.6271e-02, -5.1581e-03, -8.4632e-02,  9.6197e-02,
        -2.1586e-02,  8.5399e-03,  4.5633e-03, -3.7346e-02, -6.7342e-02,
         1.5613e-02,  3.5528e-02,  8.3753e-02,  2.7711e-02,  3.4821e-02,
         1.5791e-02,  3.8972e-02,  3.9414e-02, -6.7101e-03,  7.4835e-02,
         4.5348e-02,  5.1760e-03, -1.5896e-02,  3.0706e-02,  8.5033e-02,
         2.7224e-02,  2.3145e-02, -1.1638e-02, -1.0831e-02,  4.9745e-02,
         1.1551e-01, -1.4869e-02,  6.5737e-02,  5.7099e-02, -5.7882e-02,
         7.0445e-02, -1.2344e-02, -1.7484e-01,  6.8618e-02,  2.6676e-02,
         2.0662e-02,  1.1136e-01,  3.6230e-02, -6.0844e-02, -8.4722e-02,
         5.0713e-02,  5.1790e-03, -3.4119e-03,  1.6046e-02,  2.6082e-02,
        -7.6948e-02,  1.0285e-01,  1.4749e-04, -3.3207e-02, -8.8793e-02,
        -4.0413e-02, -8.6256e-02,  7.7195e-02,  1.0147e-02,  3.8293e-02,
        -3.5928e-02, -9.5604e-02,  3.7706e-02, -4.6626e-02, -1.9032e-02,
        -1.0874e-01, -3.5092e-02, -4.7562e-02, -1.2159e-01,  3.1498e-02,
         3.4222e-02, -8.3364e-02,  5.4634e-02,  4.3516e-02, -6.4589e-02,
        -5.9292e-02,  1.0945e-01, -1.7454e-02,  3.7876e-02, -4.3373e-02,
         1.1414e-02, -7.7171e-02,  1.2062e-02, -2.6778e-02,  6.2446e-03,
        -5.1289e-03,  3.7663e-02,  1.9377e-02,  7.1447e-02, -1.8161e-01,
        -3.5267e-02, -1.2626e-01, -1.5290e-01,  7.6654e-02,  1.2568e-02,
        -5.3155e-02,  2.2164e-02,  2.4968e-02,  2.4282e-02, -1.0789e-01,
        -9.6261e-02,  6.0336e-02,  6.1052e-02, -4.1026e-03, -8.0883e-02,
         3.6426e-03,  1.7426e-02,  2.2004e-02, -5.0060e-02, -3.1299e-02,
         1.7288e-02, -1.0610e-02, -8.6319e-04,  5.0006e-02,  9.5565e-02,
        -1.5940e-01, -3.7508e-02, -4.1298e-02,  6.6039e-03, -4.8026e-02,
        -2.4454e-02, -1.3907e-02,  9.9736e-02, -1.7278e-01, -7.1777e-02,
        -3.9629e-02, -8.4778e-02,  3.5784e-02,  4.9034e-02,  8.8658e-02,
        -8.2454e-02,  3.9800e-02,  5.2332e-02,  2.3004e-02,  5.9638e-02,
        -3.8122e-02, -3.8291e-02, -2.0951e-03, -4.6818e-02,  3.7863e-02,
        -3.5338e-02,  9.5761e-02, -2.6164e-02, -5.3880e-02,  8.8485e-02,
        -7.7181e-02, -6.3170e-02, -3.8670e-02,  4.9967e-02,  7.6730e-03,
        -4.5186e-02, -7.4518e-02, -3.6565e-02,  7.4542e-02, -2.8258e-02,
         4.2102e-02, -3.3477e-03,  1.9612e-02, -2.7670e-02,  6.1543e-02,
         1.1502e-02, -6.1604e-02,  9.5356e-03,  5.3990e-02, -6.4921e-02,
         1.9313e-03,  2.4340e-02, -4.7174e-02, -7.6833e-03, -1.6816e-02,
         2.3182e-02, -6.7123e-02,  1.9784e-02, -2.8835e-02, -7.4229e-02,
         2.8350e-02, -5.9835e-02, -2.6196e-02, -4.5131e-02, -5.5441e-02,
        -3.4322e-02,  5.4734e-02, -1.5785e-02,  4.8725e-02,  8.8033e-02,
        -9.6534e-04,  1.2581e-01, -8.0911e-02, -5.4018e-02, -2.9562e-02,
        -3.7772e-02, -1.2976e-02,  2.3676e-02, -4.5651e-02,  5.1193e-02,
         6.8956e-02,  5.9886e-03,  5.7238e-02,  6.6058e-02, -1.2112e-01,
        -4.1748e-02, -4.9977e-02,  4.5728e-02, -1.3015e-02, -1.0198e-01,
         1.1025e-01, -6.3894e-02])
net.mlp.net.0.batch_norm.weight tensor([0.3787, 0.3309, 0.4222, 0.2782, 0.3059, 0.2974, 0.3606, 0.3921, 0.3994,
        0.3222, 0.2822, 0.3256, 0.2680, 0.2948, 0.3483, 0.3104, 0.2786, 0.3697,
        0.2746, 0.3012, 0.3906, 0.3225, 0.3379, 0.3299, 0.3581, 0.3440, 0.3603,
        0.3589, 0.3077, 0.3088, 0.3390, 0.2960, 0.2905, 0.3375, 0.3888, 0.3527,
        0.3449, 0.3806, 0.3748, 0.3101, 0.4677, 0.3750, 0.4031, 0.3118, 0.3177,
        0.2911, 0.3899, 0.2781, 0.3498, 0.3113, 0.3416, 0.4358, 0.3506, 0.3008,
        0.3029, 0.4259, 0.3134, 0.3906, 0.2921, 0.4046, 0.4271, 0.3391, 0.3376,
        0.3191, 0.3084, 0.3868, 0.3565, 0.3654, 0.3167, 0.4272, 0.3716, 0.3127,
        0.3680, 0.2339, 0.3216, 0.3207, 0.3557, 0.3297, 0.3338, 0.2980, 0.3462,
        0.3460, 0.4093, 0.3170, 0.4842, 0.3582, 0.5042, 0.3442, 0.5349, 0.3152,
        0.3134, 0.3049, 0.3997, 0.3977, 0.4519, 0.3056, 0.3496, 0.2965, 0.3844,
        0.3096, 0.3265, 0.3566, 0.3676, 0.3742, 0.3918, 0.3262, 0.3495, 0.3081,
        0.3379, 0.3874, 0.3961, 0.3330, 0.3755, 0.3533, 0.3734, 0.3011, 0.3345,
        0.3843, 0.3606, 0.2927, 0.3387, 0.3560, 0.3914, 0.3505, 0.3933, 0.3494,
        0.3402, 0.2682, 0.4034, 0.2954, 0.2792, 0.3421, 0.3365, 0.2975, 0.3788,
        0.3551, 0.2824, 0.4011, 0.3355, 0.3166, 0.3000, 0.2937, 0.3761, 0.3321,
        0.3401, 0.3950, 0.3571, 0.3249, 0.4082, 0.2671, 0.3208, 0.2903, 0.2694,
        0.4240, 0.3358, 0.3316, 0.3133, 0.3709, 0.4542, 0.4119, 0.3424, 0.3606,
        0.4169, 0.3217, 0.4460, 0.3184, 0.4149, 0.3634, 0.3335, 0.2878, 0.3014,
        0.3672, 0.2858, 0.4224, 0.4289, 0.2434, 0.2730, 0.2842, 0.3876, 0.3572,
        0.3319, 0.3717, 0.2939, 0.3758, 0.3803, 0.3832, 0.3146, 0.5526, 0.2779,
        0.3712, 0.3991, 0.2823, 0.2815, 0.3745, 0.3362, 0.2549, 0.3153, 0.3004,
        0.3505, 0.3553, 0.3379, 0.3314, 0.3794, 0.3299, 0.3761, 0.3471, 0.3424,
        0.4195, 0.3416, 0.4546, 0.3868, 0.3078, 0.3491, 0.3739, 0.2780, 0.3638,
        0.3042, 0.3939, 0.3478, 0.4087, 0.2963, 0.3650, 0.3787, 0.3401, 0.2981,
        0.2988, 0.2898, 0.3876, 0.3615, 0.2838, 0.3237, 0.4141, 0.4111, 0.3436,
        0.3883, 0.2688, 0.3437, 0.2852, 0.3744, 0.4056, 0.4177, 0.3342, 0.4114,
        0.2855, 0.3076, 0.3701, 0.4203, 0.2961, 0.3311, 0.2709, 0.3451, 0.3488,
        0.3041, 0.3462, 0.2980, 0.3096, 0.3018, 0.3217, 0.3255, 0.3082, 0.3357,
        0.3593, 0.3625, 0.3956, 0.3055, 0.3366, 0.3248, 0.3596, 0.3964, 0.3235,
        0.2981, 0.2648, 0.3369, 0.3235, 0.3369, 0.3746, 0.3493, 0.3575, 0.3702,
        0.2900, 0.4367, 0.3808, 0.2316, 0.3303, 0.3062, 0.2654, 0.4010, 0.4422,
        0.3395, 0.2944, 0.2684, 0.3165, 0.4661, 0.4073, 0.3516, 0.3364, 0.3315,
        0.2915, 0.2785, 0.4259, 0.4627, 0.3400, 0.2872, 0.3231, 0.4026, 0.3607,
        0.4257, 0.3588, 0.3730, 0.3184, 0.4298, 0.4635, 0.3175, 0.3543, 0.3994,
        0.3111, 0.4977, 0.3854, 0.3709, 0.3213, 0.4052, 0.2713, 0.3925, 0.3115,
        0.3561, 0.2890, 0.2758, 0.4204, 0.3109, 0.3216, 0.2559, 0.3159, 0.3287,
        0.3237, 0.3272, 0.3795, 0.4070, 0.3587, 0.4440, 0.3164, 0.3149, 0.2358,
        0.3274, 0.2685, 0.3386, 0.3212, 0.3700, 0.2882, 0.2894, 0.3051, 0.2822,
        0.3536, 0.3695, 0.3315, 0.3949, 0.3523, 0.3007, 0.3512, 0.3235, 0.3646,
        0.3391, 0.3427, 0.4558, 0.3197, 0.3568, 0.2912, 0.3304, 0.2994, 0.3579,
        0.3871, 0.3315, 0.3310, 0.3697, 0.3895, 0.2720, 0.3337, 0.4013, 0.4014,
        0.2753, 0.3716, 0.3697, 0.3248, 0.2960, 0.4334, 0.3867, 0.3318, 0.3306,
        0.2943, 0.4010, 0.3384, 0.3878, 0.3709, 0.3339, 0.3734, 0.4823, 0.4535,
        0.4172, 0.3425, 0.2811, 0.3183, 0.4511, 0.4184, 0.3181, 0.3301, 0.3220,
        0.3253, 0.3882, 0.3729, 0.2755, 0.4334, 0.3396, 0.3479, 0.3435, 0.2418,
        0.3413, 0.3339, 0.3620, 0.4048, 0.4456, 0.3726, 0.3609, 0.3702, 0.4069,
        0.3090, 0.3449, 0.3414, 0.3772, 0.3762, 0.4213, 0.4102, 0.2719, 0.3356,
        0.3503, 0.3796, 0.3384, 0.3647, 0.3402, 0.3459, 0.2816, 0.3426, 0.3599,
        0.2698, 0.4271, 0.3779, 0.3795, 0.3249, 0.4137, 0.3769, 0.3166, 0.3493,
        0.3974, 0.3429, 0.3027, 0.2901, 0.3488, 0.2944, 0.3130, 0.3577, 0.3493,
        0.4442, 0.2794, 0.3889, 0.3415, 0.3253, 0.2823, 0.3897, 0.2802, 0.2675,
        0.3963, 0.3642, 0.3059, 0.3563, 0.3539, 0.3286, 0.3112, 0.3296, 0.3268,
        0.3464, 0.3702, 0.3325, 0.3962, 0.3342, 0.3053, 0.5106, 0.3811, 0.3127,
        0.3399, 0.3369, 0.3828, 0.2428, 0.3149, 0.3660, 0.2808, 0.3852, 0.2737,
        0.4689, 0.3367, 0.3373, 0.2887, 0.3190, 0.3448, 0.3031, 0.3577, 0.4249,
        0.3645, 0.3276, 0.3498, 0.3261, 0.3298, 0.3249, 0.3696, 0.3468])
net.mlp.net.0.batch_norm.bias tensor([ 1.7385e-03,  9.5679e-03,  3.8302e-02, -1.0213e-02, -3.3074e-03,
        -1.2817e-02,  5.2773e-03,  3.5819e-03,  1.0358e-01, -3.3078e-02,
        -6.6117e-03, -4.5771e-03,  1.1889e-02, -8.5962e-03, -2.9872e-04,
         5.2740e-02, -3.2582e-02,  4.8511e-02, -2.9726e-02,  3.4758e-02,
        -8.6053e-05, -3.8988e-03,  6.3337e-02,  1.2653e-02, -1.5826e-02,
         5.0656e-02,  2.4589e-02, -1.8346e-02,  1.1831e-02,  2.7980e-03,
         4.4121e-02, -3.2377e-02,  1.9781e-02, -2.5251e-02,  2.0114e-02,
        -1.1340e-03,  5.3950e-02,  2.2786e-02, -3.1126e-02, -8.2005e-03,
         2.5002e-02, -1.6657e-02, -4.1863e-02,  4.5521e-02,  2.3281e-02,
         4.4177e-02,  2.6762e-02,  4.6698e-02, -9.1629e-03,  3.6778e-03,
        -7.8143e-03, -3.5647e-02,  2.4700e-02,  5.0162e-02,  6.9245e-02,
         1.6524e-02, -6.5944e-03,  3.8664e-02, -4.6525e-02, -4.7609e-02,
        -4.0721e-02,  3.4377e-02,  4.1708e-02, -1.2845e-02,  6.4055e-03,
         4.5191e-03,  1.9609e-02, -2.8285e-03, -1.5817e-02, -2.8572e-02,
        -4.5164e-02,  2.6515e-02,  4.0775e-02, -1.3128e-02, -3.4234e-03,
         3.6444e-03,  5.5771e-02,  5.2081e-02, -5.6899e-03, -3.7624e-02,
         2.5673e-02,  1.9647e-03,  7.3756e-02, -8.6092e-03, -5.6974e-04,
        -2.3287e-02, -6.3451e-02, -4.8616e-02,  4.8773e-03,  1.4539e-02,
         3.9649e-02,  7.2675e-02, -3.6346e-02, -2.0846e-02, -5.0138e-02,
         1.8350e-02,  2.0567e-02, -2.8439e-02,  6.7989e-02,  1.6956e-03,
        -1.9835e-02, -1.2102e-02, -5.8834e-02, -1.1152e-02, -2.9524e-02,
         5.4399e-02,  3.8914e-02,  1.7932e-02,  4.1540e-02, -1.8176e-02,
        -6.2245e-02, -8.1624e-02,  2.9406e-02, -3.4987e-02,  1.7866e-02,
         1.2410e-02,  2.1114e-02,  9.9566e-02, -8.3760e-03, -1.2348e-02,
        -5.9536e-02, -1.9608e-02, -1.4785e-02, -3.0465e-02, -4.7867e-02,
        -1.3996e-01, -4.7547e-02,  3.3165e-03,  4.4989e-03,  1.6076e-02,
        -5.1419e-02,  4.4939e-02,  5.5241e-02, -6.5971e-02,  1.2188e-02,
        -1.1775e-02,  3.6523e-02,  1.7216e-02, -1.7479e-02, -9.9749e-03,
         4.3066e-02,  2.6390e-02, -3.5180e-02,  8.9800e-03,  3.8617e-02,
         2.5777e-02, -4.1088e-02, -5.9255e-03,  3.5812e-02,  4.1635e-02,
        -2.7920e-02,  3.4754e-02,  9.4238e-03, -7.5056e-02, -2.9958e-02,
         1.3752e-02, -7.5918e-03,  1.6274e-02, -9.4296e-02,  4.3660e-02,
        -6.8353e-02, -4.7778e-02, -1.3435e-03,  2.4734e-02, -6.1344e-02,
        -1.3664e-02,  5.4445e-02, -5.0880e-02,  2.7714e-02,  1.4409e-02,
         8.2248e-02,  2.8745e-02, -2.0893e-03, -1.9883e-02, -4.1790e-02,
        -2.0358e-02,  3.8486e-02,  3.6336e-02,  5.5756e-02,  3.5035e-02,
        -6.4022e-02, -4.0948e-02,  6.1604e-02, -2.4780e-02, -3.6784e-02,
         1.6331e-02, -8.4007e-03, -1.4796e-02,  8.7249e-03,  3.6934e-02,
         1.5764e-03,  4.1737e-02, -6.1371e-02,  1.4337e-03,  1.8491e-02,
        -4.9142e-02, -2.1087e-02,  1.1063e-02,  2.0582e-02,  3.3501e-02,
        -5.1226e-03,  2.6777e-02,  1.8330e-02,  2.1144e-02,  3.9993e-03,
        -3.3404e-02,  3.8893e-02,  4.6528e-02, -4.5933e-02,  7.7136e-02,
         1.3333e-02, -1.3514e-02, -1.4730e-02,  1.3584e-02,  5.3289e-02,
         5.0911e-02, -4.9482e-03, -6.8892e-02, -5.4309e-02,  2.6012e-02,
         2.9136e-02, -5.8535e-02, -2.6870e-02,  1.8249e-02, -1.5709e-02,
        -6.1347e-02,  4.3624e-02, -2.0550e-02,  8.7992e-02,  2.0550e-02,
        -2.8152e-02,  1.9655e-02, -1.6781e-02,  5.9312e-02, -3.1984e-03,
         1.8608e-02,  3.2277e-02,  7.1725e-02,  2.0072e-02,  1.8387e-03,
         2.2784e-02, -5.8680e-04,  4.7670e-02, -1.7317e-02, -1.5942e-02,
        -1.0587e-01, -4.5559e-02,  2.4328e-02, -3.7425e-02, -6.7641e-03,
        -8.1308e-03, -7.0233e-03,  7.3163e-03, -2.4937e-02, -2.9483e-02,
         7.6176e-03,  2.1140e-02,  3.7052e-03, -1.3471e-02, -4.2909e-02,
         3.1146e-02, -8.4920e-04,  7.8875e-03,  1.0747e-02, -2.2575e-02,
        -9.3774e-02,  7.4653e-04, -6.3421e-02, -2.8238e-02,  2.8600e-02,
         3.2885e-02, -1.2664e-02,  2.7600e-02,  4.7906e-02, -1.0008e-02,
         3.9196e-02,  3.9589e-02,  2.3281e-02, -1.4448e-02, -4.7720e-02,
         2.6772e-02,  3.5809e-02, -1.2425e-02, -1.4331e-02,  5.6492e-03,
        -4.0670e-02,  3.1931e-02, -4.4468e-02,  5.1541e-02, -3.1977e-02,
        -4.5575e-02, -1.2007e-02, -3.5172e-02,  3.4475e-02, -3.6546e-02,
        -3.9087e-02,  4.8366e-02, -3.1875e-02, -5.1322e-03, -2.1473e-02,
        -5.6099e-03,  4.7456e-03,  1.8518e-02, -2.0895e-03, -4.6499e-02,
         5.6310e-02,  8.1477e-02, -6.6051e-02, -1.8079e-02, -4.6954e-02,
         5.3133e-02,  1.7284e-02,  2.0436e-02,  1.5683e-02, -1.8360e-02,
         1.4223e-02,  3.2692e-02,  4.5295e-02,  2.8702e-03,  4.5740e-02,
         4.0296e-02, -4.2918e-02, -1.0760e-02,  3.8510e-02, -6.6983e-03,
         6.1110e-02,  1.0717e-01,  2.3151e-02, -1.6522e-02, -2.7241e-02,
        -1.4302e-02, -4.8160e-02,  2.5122e-02,  5.7959e-02, -5.5838e-02,
         4.8610e-02, -1.0605e-02, -1.9526e-02,  1.1146e-01,  7.6176e-02,
         2.6634e-03,  1.9679e-02, -2.1508e-02, -2.4626e-02, -8.8508e-03,
        -8.5629e-02, -2.4033e-02, -1.6114e-02,  2.0700e-02, -2.1685e-03,
         3.2983e-04,  2.5887e-05,  1.8436e-02,  1.3247e-02, -2.6385e-02,
         3.6015e-02,  1.2326e-02,  6.4205e-02, -3.1589e-02, -4.7084e-02,
         1.0942e-02,  4.3081e-02, -1.7820e-02, -4.9168e-02, -2.1060e-02,
        -4.4294e-02, -3.4186e-02, -1.7544e-02, -3.4657e-02, -2.2028e-02,
        -3.9055e-02, -2.1624e-02,  4.0044e-02, -8.3810e-03, -3.7115e-03,
        -1.1879e-02,  4.8337e-02, -8.5941e-03, -1.2689e-03,  6.6423e-02,
        -7.9303e-02,  5.8268e-02,  6.7638e-02,  1.4486e-02, -1.8750e-02,
         2.6840e-03, -6.3958e-03,  3.5214e-03,  3.1469e-02, -6.3757e-03,
        -2.0035e-02,  2.5965e-02,  1.6861e-02,  6.4939e-02, -2.1490e-02,
         8.0606e-03,  6.8493e-03,  2.1138e-02, -4.1584e-02, -6.7451e-03,
         8.3628e-03, -5.4789e-02,  4.2337e-02, -4.2890e-02, -1.5206e-02,
         6.9187e-02, -4.7296e-03,  3.1246e-03,  6.2431e-02,  1.1961e-02,
        -7.8544e-03, -4.4657e-02, -2.7755e-02, -3.3945e-02, -1.8596e-02,
        -3.5475e-02, -4.7248e-02,  9.3041e-03,  5.1720e-02, -3.5584e-03,
         3.4518e-02,  3.3011e-02, -6.8625e-03,  2.5087e-02, -1.3088e-02,
         3.6002e-02, -5.3031e-02, -3.9298e-02, -3.9426e-02, -4.8169e-02,
         6.2572e-02, -2.7864e-02, -1.1002e-02, -2.9729e-02, -2.6161e-02,
         1.6508e-02, -1.7202e-02,  8.9194e-03, -9.2496e-03, -5.1819e-02,
        -5.5107e-02,  5.6298e-02, -4.1632e-02,  7.7856e-02,  1.5327e-02,
        -8.9154e-02,  2.0158e-02, -5.7284e-03, -5.1100e-02, -1.0557e-01,
        -6.8962e-02,  3.3157e-02, -1.8671e-02,  1.6242e-02,  8.8167e-03,
        -4.7546e-02,  2.7981e-02,  9.0799e-02,  3.4346e-02,  5.2281e-02,
         3.9475e-03,  8.0861e-02,  1.3134e-02, -3.3920e-02,  2.8920e-02,
         3.2998e-02,  1.0110e-02,  1.8877e-02, -5.8486e-02, -3.4237e-02,
        -2.8325e-02, -8.7440e-03, -2.4537e-02, -3.9650e-02, -5.7172e-02,
        -9.6936e-03,  5.5860e-03,  8.4869e-02, -1.6945e-02, -1.7002e-02,
         2.7805e-02, -5.9496e-02, -2.8139e-02,  1.4092e-01, -3.2844e-02,
         2.8249e-02,  1.2000e-02, -6.4790e-02,  1.8455e-03, -5.2703e-02,
        -2.1232e-02, -5.3382e-03,  2.3617e-03, -1.0047e-02,  6.6074e-02,
         3.0642e-02,  5.7165e-03, -2.7629e-02, -8.9906e-03, -1.5586e-03,
        -2.0924e-02, -1.3890e-02, -9.0932e-03, -1.3894e-02, -9.8672e-03,
         8.3170e-03,  3.2855e-02, -3.1051e-02, -9.0821e-02, -1.6813e-02,
        -5.8032e-02, -4.3321e-03])
net.mlp.net.0.batch_norm.running_mean tensor([3.2061e-02, 7.0001e-10, 2.7829e-01, 1.1265e-01, 1.9841e-01, 1.4765e-02,
        1.7509e-03, 2.3375e-01, 6.8356e-02, 1.2633e-02, 1.7994e-02, 9.1788e-02,
        1.5783e-01, 1.1056e-01, 5.6301e-07, 1.5076e-01, 3.6778e-02, 1.3087e-02,
        1.2809e-01, 2.1232e-01, 3.8200e-04, 7.4009e-02, 1.6304e-01, 3.4296e-01,
        8.2675e-02, 4.1344e-03, 4.2719e-02, 1.0612e-01, 2.5065e-02, 1.1387e-01,
        2.7277e-02, 1.3319e-01, 1.0129e-01, 2.7978e-01, 1.2152e-01, 6.6749e-02,
        1.6605e-01, 4.2738e-04, 4.6458e-02, 1.4730e-01, 1.0119e-02, 6.0884e-02,
        5.7168e-02, 3.4496e-01, 1.7789e-02, 1.1666e-01, 2.5669e-02, 3.0016e-01,
        8.7772e-02, 3.4648e-03, 1.8739e-01, 1.2186e-01, 5.9056e-03, 1.2935e-01,
        4.6907e-02, 1.2439e-02, 2.4325e-01, 1.7537e-01, 2.0786e-01, 6.3809e-02,
        8.3579e-02, 6.5330e-04, 3.0528e-01, 1.4740e-02, 6.9828e-02, 5.5348e-02,
        4.6365e-01, 1.7307e-02, 8.3726e-02, 3.6130e-01, 1.2572e-01, 4.8566e-02,
        1.2750e-02, 2.6018e-01, 1.4012e-01, 1.8183e-01, 3.7174e-02, 4.1907e-02,
        9.8158e-07, 8.7811e-02, 1.4262e-01, 1.1382e-02, 6.5997e-02, 6.1672e-02,
        1.0161e-01, 3.9721e-02, 4.2809e-02, 2.2368e-01, 1.6556e-02, 1.5597e-01,
        4.0141e-02, 7.2491e-03, 8.3659e-03, 1.9930e-01, 2.0164e-02, 7.3557e-02,
        5.1063e-01, 5.2437e-02, 4.5372e-04, 1.1196e-01, 1.3793e-01, 1.8828e-01,
        8.1255e-06, 4.8079e-05, 2.2440e-02, 3.0462e-01, 1.0518e-02, 2.3501e-01,
        6.2277e-05, 3.0688e-01, 3.3424e-03, 8.3450e-02, 4.2769e-02, 3.8193e-02,
        5.9806e-04, 1.3761e-01, 5.4011e-03, 4.3432e-02, 1.0732e-01, 4.5152e-01,
        2.9534e-02, 6.0215e-02, 1.7696e-02, 2.5685e-01, 8.9422e-02, 4.1340e-01,
        4.1692e-02, 1.1392e-01, 7.6681e-02, 2.8945e-01, 3.0728e-01, 5.3408e-01,
        1.4979e-01, 8.9120e-03, 6.4970e-02, 2.0014e-01, 4.9146e-01, 2.2803e-01,
        2.3656e-01, 8.1759e-02, 2.1411e-02, 5.6013e-01, 9.6751e-02, 2.2321e-01,
        9.9591e-02, 3.7398e-02, 1.7387e-01, 1.6482e-01, 1.5758e-01, 3.9607e-01,
        8.2071e-01, 4.2940e-01, 2.1448e-01, 6.4528e-03, 3.2402e-02, 4.8099e-01,
        2.2011e-01, 3.6690e-02, 6.2903e-04, 4.7478e-02, 3.1255e-03, 1.3594e-01,
        2.7096e-02, 2.9360e-01, 2.0455e-02, 5.5684e-02, 3.5385e-02, 2.1714e-01,
        4.1006e-01, 1.6381e-01, 4.2027e-02, 3.6198e-01, 3.8815e-01, 1.0154e-01,
        2.6320e-01, 2.0488e-01, 7.7633e-02, 3.3097e-01, 1.6854e-02, 2.6178e-02,
        2.0801e-03, 1.5484e-01, 1.9815e-01, 1.1736e-01, 2.8878e-01, 3.9323e-02,
        3.3278e-01, 4.1361e-03, 5.5545e-02, 5.8777e-03, 9.2896e-02, 3.6447e-01,
        3.4897e-01, 1.1067e-05, 8.5818e-02, 3.6645e-02, 3.8501e-01, 1.0128e-02,
        1.9810e-01, 3.7640e-04, 1.1370e-02, 2.4026e-02, 1.3815e-01, 2.1578e-01,
        7.9188e-02, 2.6254e-01, 8.4221e-02, 1.8129e-01, 1.0727e-03, 9.1765e-02,
        2.0486e-07, 6.7627e-02, 9.8613e-02, 2.4785e-01, 7.2014e-02, 5.5758e-06,
        9.2366e-02, 4.7944e-02, 2.7260e-01, 1.5277e-01, 3.1509e-01, 1.6173e-01,
        2.7116e-01, 4.3197e-01, 3.3540e-01, 8.0862e-02, 1.1707e-02, 1.7253e-04,
        5.2167e-02, 3.3341e-01, 1.5064e-01, 6.8617e-04, 3.3708e-02, 3.2560e-01,
        2.4258e-01, 1.5061e-01, 1.6031e-03, 2.8695e-01, 9.5173e-02, 6.1686e-03,
        9.5291e-02, 2.7667e-01, 1.7880e-01, 1.3355e-01, 1.2138e-01, 5.6195e-02,
        5.0945e-02, 5.2567e-02, 3.2045e-01, 2.7325e-01, 6.1598e-02, 1.2379e-01,
        1.1846e-01, 2.2980e-03, 1.0699e-01, 1.2231e-01, 1.3868e-01, 3.9035e-01,
        2.6198e-01, 1.8339e-01, 2.2937e-02, 3.5562e-01, 4.0169e-04, 1.1863e-01,
        1.3161e-01, 1.7242e-01, 4.7003e-03, 2.1050e-01, 2.4971e-02, 2.1403e-01,
        2.4115e-01, 8.0191e-02, 1.0825e-02, 3.5711e-02, 3.7771e-01, 8.8639e-02,
        1.9668e-01, 4.7274e-04, 3.3745e-01, 1.1080e-01, 5.2665e-03, 1.8176e-01,
        8.2671e-02, 3.9124e-02, 5.8689e-02, 7.0812e-02, 1.2830e-04, 2.9024e-02,
        8.9025e-03, 5.5499e-01, 2.6556e-01, 1.3588e-04, 2.8321e-02, 2.9185e-01,
        2.7396e-01, 3.0993e-02, 1.5620e-04, 4.3814e-02, 5.4244e-02, 7.5114e-02,
        1.1232e-03, 4.4700e-01, 9.7699e-02, 1.0054e-01, 1.2686e-02, 3.1066e-05,
        8.9512e-03, 5.4288e-02, 1.8759e-01, 2.6012e-01, 4.3546e-02, 1.2246e-01,
        5.5069e-02, 8.3995e-03, 2.1109e-02, 3.6234e-02, 8.5042e-02, 2.3911e-01,
        1.3125e-01, 2.6831e-01, 2.5153e-01, 1.3305e-01, 4.0159e-02, 1.4549e-01,
        2.6596e-01, 2.1960e-01, 6.0151e-02, 9.1799e-03, 1.4855e-02, 1.1566e-01,
        3.6986e-02, 3.5497e-01, 3.6868e-02, 1.5852e-01, 4.8379e-01, 2.2329e-01,
        5.2784e-01, 1.2738e-02, 1.9572e-01, 7.2763e-02, 2.5275e-01, 3.0347e-01,
        6.7323e-05, 2.2118e-01, 1.0737e-01, 2.1129e-01, 4.4052e-01, 3.4166e-03,
        2.6307e-01, 4.5754e-02, 3.3659e-01, 1.0521e-01, 6.1534e-02, 2.8512e-01,
        1.2471e-04, 3.6851e-02, 1.9043e-01, 1.1695e-02, 7.9162e-04, 4.9774e-03,
        2.5243e-01, 2.5472e-06, 3.8437e-01, 1.9736e-01, 2.5627e-01, 1.2462e-01,
        2.9681e-02, 3.3116e-01, 2.0223e-01, 1.0813e-01, 8.1804e-03, 4.5768e-01,
        4.0048e-02, 4.6531e-02, 2.1484e-01, 3.2146e-02, 1.2989e-01, 1.7461e-01,
        4.4178e-01, 1.4645e-02, 3.1317e-02, 4.8936e-01, 3.6224e-01, 5.8899e-02,
        6.4521e-01, 7.1228e-02, 5.3391e-02, 3.4164e-01, 9.7630e-03, 9.6872e-02,
        1.2984e-01, 2.9638e-02, 8.6690e-02, 2.1841e-01, 5.5969e-02, 1.5507e-01,
        1.5938e-02, 9.9760e-02, 3.8708e-01, 3.4960e-01, 2.9764e-03, 5.9175e-03,
        8.9298e-02, 2.7785e-02, 3.6440e-02, 1.5763e-02, 2.2128e-01, 4.5474e-01,
        2.3514e-01, 2.4825e-02, 1.8419e-01, 3.1213e-01, 2.6886e-01, 1.5739e-02,
        1.8585e-01, 3.3449e-01, 4.4096e-02, 6.0289e-01, 1.1044e-02, 1.7760e-02,
        2.8356e-03, 1.3224e-01, 8.6822e-02, 8.3073e-03, 6.2357e-02, 8.7658e-02,
        6.2852e-02, 4.0041e-01, 5.7049e-02, 6.2540e-03, 4.6418e-03, 2.0653e-05,
        6.3155e-02, 1.5086e-01, 1.0636e-01, 7.1595e-03, 6.4178e-02, 2.1153e-01,
        1.7874e-01, 3.8480e-01, 7.2641e-03, 7.8442e-02, 2.3647e-02, 3.2626e-02,
        3.8044e-01, 1.0546e-02, 3.5227e-01, 2.4093e-02, 1.0589e-01, 4.8952e-01,
        1.6719e-01, 1.2217e-03, 6.3961e-02, 2.6052e-01, 1.7277e-01, 5.2856e-02,
        6.4201e-02, 5.7142e-02, 1.0523e-02, 1.9787e-01, 4.1672e-01, 1.7624e-03,
        5.9825e-02, 1.4302e-02, 7.0461e-02, 1.4316e-01, 3.3912e-02, 2.3853e-01,
        3.1512e-01, 3.3502e-01, 1.8316e-01, 1.7013e-01, 9.7305e-02, 1.6126e-01,
        2.3604e-01, 4.2421e-02, 1.4262e-02, 4.4585e-02, 5.5566e-06, 4.0907e-05,
        1.3553e-01, 4.6735e-02, 3.2177e-02, 2.1323e-02, 1.1647e-01, 1.7863e-02,
        1.9083e-02, 8.5351e-02, 7.4050e-03, 4.8046e-02, 2.1657e-01, 3.6259e-02,
        8.2040e-03, 2.2167e-01, 1.2920e-02, 1.6346e-02, 1.1624e-02, 9.0710e-02,
        4.7417e-02, 2.4945e-01, 4.0310e-01, 2.2080e-01, 4.6919e-01, 2.5627e-01,
        1.2056e-04, 2.4535e-03, 6.9361e-02, 3.3423e-03, 2.1317e-01, 2.1061e-02,
        1.7537e-01, 3.0221e-05])
net.mlp.net.0.batch_norm.running_var tensor([3.3072e-03, 1.1096e-07, 1.1279e-02, 1.3127e-02, 7.3796e-03, 3.8102e-03,
        1.8218e-04, 3.8498e-02, 1.0221e-02, 3.4781e-03, 8.2166e-03, 1.0313e-02,
        3.2291e-02, 2.6616e-02, 1.5809e-07, 1.2443e-02, 4.3123e-03, 2.2169e-03,
        1.6170e-02, 1.7875e-02, 3.8348e-05, 1.1172e-01, 4.5056e-02, 2.7834e-02,
        3.0792e-02, 2.3213e-03, 7.6979e-03, 1.0404e-02, 1.6810e-03, 2.1668e-02,
        7.6827e-03, 7.7450e-03, 2.5838e-02, 5.5641e-02, 7.0220e-02, 1.3616e-02,
        3.2969e-02, 3.5042e-05, 6.0065e-03, 1.5470e-01, 2.6627e-03, 4.6213e-02,
        6.6692e-03, 3.4048e-02, 2.5908e-03, 5.5752e-02, 7.0866e-03, 2.5925e-02,
        9.9667e-02, 4.7593e-04, 3.4286e-02, 4.6820e-02, 2.5441e-03, 1.4195e-02,
        4.9366e-03, 3.2840e-03, 2.4504e-02, 1.2444e-01, 6.6759e-02, 3.3608e-02,
        4.7355e-02, 5.4652e-05, 9.6975e-03, 1.6097e-03, 1.1461e-02, 5.4516e-03,
        2.2458e-02, 6.0196e-03, 8.0190e-03, 9.2750e-02, 1.0245e-02, 6.7695e-02,
        1.5098e-03, 2.6335e-02, 2.5768e-02, 2.0453e-02, 5.8853e-03, 5.2428e-03,
        1.9691e-07, 1.5100e-02, 1.6268e-02, 1.5646e-03, 9.2483e-03, 1.3377e-02,
        2.0684e-02, 2.0984e-02, 4.8124e-03, 2.6476e-02, 1.7032e-03, 1.4400e-02,
        4.1835e-02, 4.4214e-03, 1.2375e-03, 9.9761e-02, 2.6288e-03, 2.3911e-02,
        9.8146e-02, 2.9257e-02, 4.1988e-05, 2.2223e-02, 9.8478e-03, 2.3379e-02,
        3.1374e-07, 3.0126e-06, 8.9569e-03, 4.5215e-02, 1.4216e-03, 2.8318e-02,
        6.8689e-06, 4.1891e-02, 6.4679e-04, 2.5929e-02, 4.8145e-03, 5.9967e-03,
        4.9894e-05, 5.9210e-02, 2.5155e-03, 2.2999e-02, 3.2604e-02, 3.4457e-02,
        1.2420e-02, 7.6567e-03, 1.7827e-03, 2.2668e-02, 1.0555e-01, 2.5028e-02,
        5.5418e-03, 7.0433e-02, 7.0704e-03, 2.4849e-01, 4.3718e-02, 6.1760e-02,
        1.8304e-02, 1.0690e-03, 7.3493e-03, 2.1652e-02, 1.0639e-01, 2.9429e-02,
        3.4161e-02, 9.7737e-03, 6.1054e-03, 4.4399e-02, 9.7816e-02, 3.5309e-02,
        8.2155e-03, 5.8379e-03, 1.4504e-02, 1.3589e-02, 2.0467e-02, 2.2952e-02,
        9.0427e-02, 6.3430e-02, 3.1245e-02, 1.6694e-03, 4.3645e-03, 2.4448e-02,
        2.1895e-02, 2.7618e-02, 9.9422e-05, 5.5606e-03, 3.3186e-04, 1.7279e-02,
        1.7057e-02, 4.2038e-02, 1.9617e-03, 7.7767e-03, 4.4064e-03, 2.1755e-02,
        1.8148e-02, 1.6311e-02, 4.8726e-03, 4.8302e-02, 2.6979e-02, 6.7491e-03,
        2.7050e-02, 2.4615e-02, 1.2373e-02, 2.3363e-02, 4.5415e-03, 1.6086e-02,
        2.6721e-04, 1.3711e-02, 3.2125e-02, 1.1549e-02, 2.8541e-02, 3.6033e-02,
        1.8080e-02, 6.3778e-04, 1.0090e-02, 7.2645e-04, 1.1030e-01, 1.1802e-01,
        3.6619e-02, 4.3236e-07, 1.1134e-02, 5.4183e-03, 3.2494e-02, 5.1214e-03,
        1.4643e-02, 2.8051e-05, 6.5258e-03, 7.6811e-03, 1.2018e-02, 3.2212e-02,
        7.8986e-03, 1.5263e-02, 3.4954e-02, 3.8684e-02, 9.6512e-05, 9.1528e-03,
        1.3796e-07, 3.7152e-02, 8.2805e-03, 3.6151e-02, 1.3597e-02, 5.0905e-07,
        2.8984e-02, 4.6560e-03, 2.1288e-02, 2.1092e-02, 2.2888e-02, 1.6296e-02,
        2.3454e-02, 2.4459e-02, 1.8764e-02, 1.0216e-02, 1.7424e-03, 2.0179e-05,
        2.1829e-02, 4.3721e-02, 9.5706e-03, 9.0770e-05, 2.7561e-02, 3.3876e-02,
        1.3343e-02, 2.0137e-02, 1.5250e-04, 2.5915e-02, 1.0516e-01, 1.3476e-03,
        6.1962e-02, 2.1739e-02, 2.2308e-02, 2.1937e-02, 1.1269e-02, 8.9901e-03,
        5.8283e-03, 6.8420e-03, 2.7663e-02, 2.6687e-01, 1.0924e-02, 2.3231e-02,
        7.7574e-02, 4.7991e-04, 8.5617e-02, 1.3607e-02, 1.0691e-01, 8.2313e-02,
        2.9552e-02, 1.2954e-02, 1.0636e-02, 1.9198e-02, 4.7607e-05, 1.1261e-02,
        1.0578e-02, 1.7759e-02, 7.0497e-04, 2.8218e-02, 2.3279e-02, 1.3800e-02,
        3.8071e-02, 1.0928e-02, 1.1212e-03, 2.5113e-02, 5.1334e-02, 1.0578e-02,
        1.4036e-02, 7.4001e-05, 1.3294e-02, 1.5674e-02, 6.9214e-04, 1.2090e-02,
        1.3508e-02, 4.8872e-03, 9.3227e-03, 1.0673e-02, 5.2717e-06, 3.0173e-03,
        4.9540e-03, 4.1056e-02, 2.3219e-02, 1.6631e-05, 2.0554e-02, 1.5585e-02,
        4.0612e-02, 4.1186e-03, 1.2938e-05, 3.5048e-02, 8.0247e-03, 7.4519e-03,
        1.3358e-04, 2.4871e-02, 9.1272e-02, 1.4847e-02, 1.0932e-03, 1.2398e-06,
        2.1336e-03, 3.0593e-02, 3.9056e-02, 1.8005e-02, 4.9760e-03, 1.1726e-02,
        1.5827e-02, 5.0258e-03, 3.1269e-03, 2.8214e-03, 1.0177e-02, 3.1815e-02,
        9.6882e-03, 5.0355e-02, 3.8346e-02, 2.0403e-02, 3.8888e-03, 7.7369e-02,
        3.6041e-02, 2.8850e-02, 6.4133e-03, 1.1822e-03, 2.0351e-03, 4.5086e-02,
        4.8122e-03, 2.6238e-02, 3.4132e-03, 2.0736e-02, 2.1810e-02, 2.4273e-02,
        8.5950e-02, 4.8946e-03, 7.2058e-02, 4.7629e-03, 3.2541e-02, 1.9142e-02,
        5.9821e-06, 2.3831e-02, 6.4627e-03, 1.1952e-02, 3.1956e-02, 3.5292e-04,
        2.4341e-02, 3.9557e-02, 4.8720e-02, 4.5724e-02, 5.4835e-02, 3.6366e-02,
        1.9505e-05, 1.9364e-02, 1.0389e-02, 4.0329e-03, 1.3159e-04, 6.4056e-04,
        3.3388e-02, 1.4174e-07, 1.4655e-02, 1.1956e-02, 2.6790e-02, 1.8194e-02,
        2.1984e-02, 1.3791e-02, 1.6711e-02, 1.8094e-02, 2.3508e-03, 2.6605e-02,
        3.4246e-03, 1.2878e-02, 2.8728e-02, 2.7053e-03, 1.9005e-02, 4.6680e-02,
        4.6772e-02, 9.6243e-03, 4.5190e-03, 3.9003e-02, 1.0315e-01, 8.1488e-03,
        3.3842e-02, 7.6710e-03, 2.5393e-02, 2.7171e-02, 1.0284e-03, 1.5507e-02,
        1.5918e-02, 4.9084e-03, 8.9841e-03, 2.3669e-02, 3.4815e-03, 1.0038e-02,
        1.5670e-03, 4.2658e-02, 3.1147e-02, 2.6386e-02, 2.5512e-04, 1.8102e-03,
        2.2354e-02, 2.1846e-03, 7.3492e-03, 3.3404e-03, 2.3423e-02, 4.1824e-02,
        2.2852e-02, 1.2676e-02, 1.7659e-02, 6.4298e-02, 5.0046e-02, 4.1677e-03,
        1.4753e-02, 7.7138e-03, 4.2333e-03, 5.3670e-02, 1.7131e-03, 2.1602e-03,
        9.7765e-04, 1.2480e-01, 9.9796e-03, 1.5660e-03, 1.1727e-02, 3.3664e-02,
        4.2961e-02, 2.9615e-02, 2.2445e-02, 4.3806e-04, 5.7844e-04, 1.1016e-06,
        7.8118e-03, 1.3247e-02, 1.5659e-02, 6.7862e-04, 1.2185e-02, 5.8194e-02,
        2.7609e-02, 1.9000e-02, 7.6130e-04, 1.0616e-02, 1.9876e-03, 7.6229e-03,
        5.6302e-02, 1.3106e-03, 1.4011e-02, 1.6203e-03, 1.9453e-02, 1.1790e-01,
        2.1072e-01, 2.3152e-04, 3.8519e-02, 2.3218e-02, 3.9121e-02, 1.1278e-02,
        3.1266e-02, 7.0803e-03, 3.1043e-03, 1.3283e-02, 5.7741e-02, 2.4445e-04,
        7.1297e-03, 2.1291e-03, 1.4259e-02, 2.1802e-02, 3.8461e-03, 4.2877e-02,
        1.1007e-02, 7.1494e-02, 1.4210e-02, 2.4363e-02, 1.2799e-02, 1.2057e-02,
        8.5043e-03, 1.5502e-02, 8.3044e-03, 3.5189e-02, 2.9819e-07, 1.4644e-06,
        1.2766e-02, 6.1510e-03, 4.6388e-03, 1.0829e-02, 1.1365e-02, 8.7981e-03,
        1.4936e-03, 4.0116e-02, 7.5474e-04, 3.9549e-03, 2.3844e-02, 1.3281e-02,
        4.4965e-03, 1.3637e-02, 2.0349e-03, 9.7752e-03, 1.9137e-03, 1.2898e-02,
        3.3614e-02, 1.4331e-02, 3.1768e-02, 3.2206e-02, 1.9965e-02, 1.7796e-02,
        5.7131e-06, 2.6157e-04, 1.0782e-02, 4.0237e-04, 1.8679e-02, 1.8942e-03,
        1.6262e-02, 1.8120e-06])
net.mlp.net.0.batch_norm.num_batches_tracked tensor(152)
net.mlp.net.1.linear.weight tensor([[-0.0563,  0.0021, -0.1048,  ...,  0.0335, -0.0254,  0.0354],
        [-0.0205,  0.0147, -0.0306,  ..., -0.0066,  0.0419, -0.0558],
        [-0.0577,  0.0229, -0.0060,  ..., -0.0344,  0.0318, -0.0112],
        ...,
        [-0.0162, -0.0008,  0.0601,  ..., -0.0410,  0.0353, -0.0226],
        [ 0.0380,  0.0066, -0.0276,  ...,  0.0005, -0.0248,  0.0256],
        [-0.0475, -0.0329, -0.0180,  ..., -0.0380,  0.0327, -0.0036]])
net.mlp.net.1.linear.bias tensor([ 1.2879e-02, -4.5794e-03,  1.2091e-03,  4.4114e-02, -4.4397e-02,
        -3.7464e-02, -4.8648e-02,  1.2376e-02,  5.6591e-03,  2.6487e-02,
        -3.6876e-02, -1.8717e-03, -4.3153e-02,  5.6618e-03, -5.8150e-02,
        -3.1417e-02,  2.3047e-02, -1.6554e-02, -2.3079e-02,  4.5883e-02,
        -3.4299e-02,  1.1424e-01, -3.3354e-02, -2.2911e-02, -1.1526e-02,
         2.6199e-02, -1.2938e-02, -3.8820e-02, -3.1097e-02, -1.7632e-02,
         4.8990e-02, -9.2370e-02, -3.1619e-02,  1.9628e-02, -2.1059e-02,
        -3.6371e-02, -1.3716e-03,  5.7376e-03,  2.0985e-02,  4.2129e-03,
         1.6154e-02, -1.2227e-02,  3.9717e-02,  1.4301e-02, -1.9688e-02,
         5.6264e-02,  3.6811e-04,  7.1668e-02,  1.5310e-02, -7.8256e-03,
        -7.3708e-02, -3.5993e-02,  4.7261e-02,  4.3724e-02,  3.7317e-02,
         2.0858e-02,  2.7726e-02,  2.3667e-02,  1.3075e-02, -1.0251e-01,
        -2.3985e-02, -1.9529e-02, -7.7859e-03,  3.9916e-02,  2.3829e-02,
        -1.0056e-01, -2.1042e-02, -5.1197e-02, -4.3838e-02, -7.9145e-02,
        -1.6914e-02, -2.3235e-02, -2.1094e-02,  9.4742e-02,  3.9172e-02,
        -7.8658e-02,  2.1047e-02, -4.7597e-02,  1.2979e-02,  1.5036e-02,
        -3.3133e-02,  6.5007e-02, -1.2361e-02,  1.8027e-02, -2.0797e-03,
        -1.8803e-02, -4.9315e-02, -1.0976e-01, -2.0579e-02, -4.3640e-02,
        -6.7182e-02, -5.5025e-02,  5.3262e-02, -2.0805e-02, -4.6662e-02,
        -1.2774e-02, -2.7315e-02, -6.8158e-03,  2.5014e-02, -7.9258e-02,
        -9.4035e-03, -2.0210e-02, -2.7047e-02,  5.1223e-03,  9.1639e-03,
         5.5166e-02, -1.4930e-02, -3.1703e-02,  1.1274e-02,  1.0396e-02,
        -7.6823e-02,  2.6908e-02,  3.4302e-02,  3.6704e-02, -2.6881e-02,
        -7.8824e-03,  2.5227e-02, -3.2830e-02, -1.5411e-02, -8.4784e-03,
        -1.4325e-02, -5.0508e-02,  1.6963e-02,  9.6562e-03,  3.4705e-02,
         5.3964e-02, -5.9602e-03,  7.0555e-03,  3.8255e-02, -3.2593e-02,
         5.4113e-03, -1.2408e-02, -6.0458e-02, -4.7739e-02,  5.4486e-02,
        -3.9972e-02, -2.0756e-03, -2.3213e-02, -9.2909e-03, -2.4493e-02,
         3.7789e-02, -5.1010e-02, -1.9236e-02, -3.8846e-02, -2.2165e-02,
        -5.0130e-02,  1.2936e-02, -6.3357e-02, -1.7505e-02,  1.2161e-02,
         2.1770e-02, -2.9457e-02, -5.9005e-02,  3.8139e-03, -1.8436e-03,
        -2.9908e-02,  8.9964e-03,  6.2264e-03, -4.6057e-02, -1.3729e-03,
         1.5131e-02,  3.4803e-03, -5.0987e-02, -3.3869e-02,  2.3512e-02,
        -1.0973e-02, -2.1806e-02,  6.2815e-03,  5.4667e-03, -4.5185e-02,
         2.3732e-02, -7.7468e-02,  6.1446e-03, -2.4573e-02,  4.3436e-02,
        -4.4665e-02, -4.1083e-02, -1.9188e-02, -5.3692e-02, -6.4147e-03,
        -4.2190e-03, -8.2208e-03,  2.3224e-02,  4.4855e-02,  1.2563e-02,
        -2.8382e-02, -4.6575e-02, -2.3422e-02, -5.1578e-02, -3.9385e-02,
        -1.7858e-02, -4.2688e-02,  1.8438e-02, -5.4480e-02, -3.6020e-03,
         2.9041e-02,  3.4864e-02,  2.3785e-02, -4.4903e-02, -8.7283e-03,
         3.4211e-02, -4.6765e-03, -5.1070e-02, -7.1818e-03,  2.9112e-02,
        -3.1168e-02, -7.4338e-03, -3.0804e-02,  1.3016e-02, -6.5922e-02,
         1.7434e-05, -4.2307e-02,  1.1182e-02, -2.5040e-02, -1.3376e-02,
        -1.2433e-01,  2.9122e-02,  1.4329e-03, -2.5908e-02, -7.9811e-02,
        -4.9732e-02,  3.1461e-02,  9.3036e-04,  4.2616e-02, -3.8779e-02,
        -4.4955e-02,  4.1994e-02, -5.7757e-02, -4.7306e-02, -6.6209e-03,
         7.7992e-02, -1.0375e-03, -7.0529e-03,  3.3530e-02,  2.1838e-02,
        -7.0732e-02, -1.6040e-02, -4.7767e-02, -8.0192e-02, -3.2001e-02,
        -3.2847e-03, -1.7391e-02, -5.8266e-02,  1.1711e-02, -3.7039e-03,
         7.5259e-03, -3.7034e-02, -7.1045e-03, -1.8734e-02,  1.6417e-02,
        -2.1912e-02, -8.4852e-03, -1.4993e-02,  2.1847e-02,  9.1323e-02,
        -4.0280e-02, -4.9437e-02,  6.4363e-02, -4.3771e-02,  1.3351e-02,
        -2.5616e-02,  1.2215e-02,  3.5232e-02, -3.2688e-02, -2.5608e-02,
         5.1658e-02, -6.3220e-02,  3.1384e-02,  1.3667e-02, -5.8494e-02,
         3.5650e-02,  3.9474e-03, -7.0549e-02, -1.7135e-03, -4.2932e-02,
        -7.6876e-02, -4.1003e-02, -3.6809e-02, -5.3455e-02,  1.5629e-02,
        -3.0777e-02, -2.5529e-02, -1.5758e-02, -2.7755e-02, -4.5151e-02,
         7.0043e-02, -7.3372e-03, -6.6020e-02,  8.2465e-03, -1.4284e-02,
        -8.5529e-03,  8.2353e-03, -1.6825e-02, -2.6730e-02,  2.2075e-03,
        -1.2858e-02, -2.1588e-02, -4.4359e-02, -6.7464e-03,  7.6571e-03,
        -4.4254e-02, -2.5673e-02,  1.9977e-02, -2.8856e-02,  5.5299e-02,
         2.5389e-02,  2.9764e-02, -2.8831e-02, -1.2910e-02,  4.3367e-02,
         6.6339e-02, -1.9675e-02, -2.6795e-02,  3.7657e-02, -3.9262e-02,
         1.5743e-02,  2.8153e-02, -3.7646e-03, -1.4350e-02,  1.7566e-02,
         1.0229e-02, -7.7645e-02, -3.9085e-02,  4.5568e-02, -6.7695e-02,
         1.9289e-02, -2.3234e-04, -5.5745e-02,  2.3454e-02,  1.4480e-02,
         1.6039e-02,  1.7833e-03, -7.0230e-03, -1.4360e-02, -1.3185e-02,
        -8.3076e-02,  4.2907e-03, -2.0485e-02,  6.7309e-03, -6.2124e-02,
        -6.6625e-03, -5.4678e-03, -1.7162e-02,  2.2915e-02,  1.2170e-03,
         5.2603e-02, -8.0145e-02, -2.6486e-02, -1.9617e-02,  1.3411e-03,
        -4.7510e-02,  1.5661e-02,  3.2026e-03,  6.8823e-02, -1.6410e-03,
         2.6477e-03,  8.6479e-02, -3.9859e-02, -5.0374e-03,  3.1122e-03,
        -9.0066e-04,  2.7410e-02, -1.6517e-02,  5.2399e-03, -8.0971e-03,
         1.6277e-02, -7.0022e-02, -2.7776e-03,  1.2241e-02,  1.2870e-03,
        -1.0863e-02, -4.0557e-02, -2.0011e-02, -1.5428e-02, -5.0197e-02,
        -6.1494e-02,  1.8204e-02, -1.7301e-02, -6.0615e-02,  1.6395e-02,
         1.6948e-02, -2.7901e-02, -2.8931e-02, -1.6925e-02, -4.6452e-02,
        -6.9088e-03, -1.5276e-02, -5.1926e-02, -6.5250e-03,  1.7174e-02,
        -3.0226e-02,  2.2371e-02, -6.6896e-02, -3.4356e-02,  6.4037e-03,
         3.3800e-03,  6.0639e-03,  5.7044e-02, -3.1805e-02,  8.1227e-03,
         2.4137e-02, -3.6188e-02, -2.5784e-02,  1.0402e-02, -4.2538e-02,
        -5.3763e-02,  4.5670e-02,  1.4601e-02,  2.0321e-03,  3.2346e-02,
         1.4977e-02, -3.1284e-02,  2.7842e-02, -3.2746e-02, -4.9820e-02,
        -2.0601e-02,  2.0644e-02, -2.6499e-03, -1.9130e-02, -4.1753e-02,
        -1.6954e-02, -1.0573e-02, -9.0616e-02,  7.5690e-03, -1.0061e-02,
        -2.1976e-02, -7.5285e-03, -3.2435e-03,  7.1504e-02, -2.9603e-03,
        -8.6578e-02,  5.7463e-04, -3.9903e-02, -6.2150e-02,  2.0977e-02,
        -1.0771e-02, -2.6003e-02, -2.6332e-03, -4.1895e-02, -3.6346e-02,
        -1.6985e-02, -6.2468e-02,  1.7601e-02,  1.2581e-02, -5.3934e-02,
        -1.0350e-01, -3.9432e-02, -3.0948e-02, -4.1157e-03,  2.0965e-02,
        -4.9027e-02,  1.7154e-02, -3.0055e-02,  1.9521e-02,  2.6202e-02,
        -2.1183e-02,  1.1508e-02, -5.0817e-02, -5.2104e-03, -3.0964e-02,
        -7.9590e-04, -1.1029e-02,  5.0105e-02, -1.5747e-03, -4.9538e-02,
        -4.2617e-02, -4.6594e-02, -3.9707e-02,  1.0435e-03, -1.5779e-02,
         6.7844e-02, -4.2778e-02,  1.7441e-02,  6.1319e-04, -3.1378e-02,
        -5.1565e-02, -3.9125e-02,  6.9332e-02,  2.1281e-02,  2.8221e-02,
        -1.1663e-02,  6.2945e-02, -8.7401e-03, -2.7116e-02, -3.0361e-02,
        -6.2562e-02, -6.6708e-03, -2.3527e-02,  4.5288e-03,  8.1427e-02,
        -9.0066e-03, -1.5915e-02,  1.7920e-02,  6.0524e-02, -2.2632e-03,
        -5.3165e-02, -3.2678e-02, -1.9337e-02,  3.6194e-02,  1.2343e-02,
         2.9444e-02, -2.2258e-02,  1.6434e-02,  1.0003e-02, -1.8486e-02,
        -2.4963e-02,  2.1420e-02, -1.6179e-02,  3.5863e-03,  2.3223e-02,
         5.1796e-03, -6.5878e-03])
net.mlp.net.1.batch_norm.weight tensor([0.3591, 0.3423, 0.4043, 0.3622, 0.3491, 0.3679, 0.3199, 0.3844, 0.3551,
        0.2775, 0.3440, 0.3382, 0.3424, 0.3481, 0.3799, 0.3263, 0.3191, 0.3268,
        0.4432, 0.3513, 0.3484, 0.4212, 0.3639, 0.3366, 0.3881, 0.3634, 0.3513,
        0.2916, 0.3411, 0.3302, 0.3308, 0.3220, 0.3531, 0.3393, 0.4098, 0.3910,
        0.3795, 0.3169, 0.3257, 0.4157, 0.3155, 0.3346, 0.2784, 0.3193, 0.3609,
        0.3428, 0.3013, 0.3683, 0.2789, 0.3739, 0.3600, 0.3859, 0.3050, 0.3120,
        0.3272, 0.3129, 0.3332, 0.3415, 0.3747, 0.3122, 0.3151, 0.3301, 0.4069,
        0.3772, 0.3971, 0.3601, 0.3400, 0.3315, 0.3517, 0.3355, 0.3101, 0.3721,
        0.3441, 0.3643, 0.3331, 0.3593, 0.3719, 0.2951, 0.3711, 0.4071, 0.3868,
        0.3440, 0.4018, 0.3571, 0.3130, 0.3478, 0.3570, 0.4809, 0.3341, 0.3213,
        0.3648, 0.3475, 0.3374, 0.3476, 0.3395, 0.2822, 0.2717, 0.3224, 0.3946,
        0.3378, 0.3434, 0.3097, 0.3111, 0.3769, 0.2960, 0.3039, 0.3302, 0.3779,
        0.3548, 0.3260, 0.3239, 0.3711, 0.4160, 0.3587, 0.3550, 0.3478, 0.2917,
        0.3070, 0.3380, 0.3106, 0.3220, 0.3559, 0.4402, 0.3954, 0.2598, 0.3645,
        0.3336, 0.3850, 0.3256, 0.3554, 0.4001, 0.3689, 0.3648, 0.3752, 0.3780,
        0.3770, 0.3363, 0.3494, 0.3226, 0.3118, 0.3238, 0.3302, 0.3715, 0.3656,
        0.3845, 0.4275, 0.3030, 0.3966, 0.4035, 0.3447, 0.3382, 0.4093, 0.3578,
        0.3541, 0.2917, 0.3492, 0.3609, 0.3541, 0.3551, 0.3568, 0.3284, 0.3452,
        0.3392, 0.3361, 0.3280, 0.3547, 0.3807, 0.3759, 0.3305, 0.3097, 0.3199,
        0.3561, 0.3494, 0.3371, 0.3393, 0.3207, 0.3441, 0.3600, 0.4006, 0.4109,
        0.3398, 0.3758, 0.3286, 0.3287, 0.3382, 0.2861, 0.3299, 0.3827, 0.3570,
        0.3267, 0.3149, 0.3349, 0.3025, 0.4384, 0.3428, 0.3210, 0.3395, 0.4673,
        0.4555, 0.4096, 0.3550, 0.3399, 0.3805, 0.3580, 0.3530, 0.3616, 0.3029,
        0.3239, 0.3263, 0.3219, 0.2439, 0.4213, 0.3169, 0.3767, 0.3274, 0.3550,
        0.3394, 0.3384, 0.3458, 0.3110, 0.3230, 0.3800, 0.3864, 0.3848, 0.3447,
        0.3946, 0.2618, 0.4038, 0.3136, 0.3101, 0.3251, 0.3225, 0.3517, 0.3155,
        0.3597, 0.4236, 0.3661, 0.3422, 0.3582, 0.3646, 0.2900, 0.3821, 0.4421,
        0.3271, 0.3458, 0.3657, 0.3760, 0.3632, 0.3347, 0.3519, 0.3227, 0.3266,
        0.3273, 0.3454, 0.4001, 0.3600, 0.3914, 0.2949, 0.4150, 0.2962, 0.3642,
        0.2609, 0.3287, 0.3339, 0.3847, 0.3534, 0.3583, 0.4314, 0.3895, 0.4062,
        0.3283, 0.3903, 0.4057, 0.3462, 0.3823, 0.3346, 0.3212, 0.3400, 0.4087,
        0.3529, 0.3471, 0.3641, 0.3309, 0.3525, 0.3295, 0.3806, 0.4029, 0.3466,
        0.3064, 0.3280, 0.3209, 0.2895, 0.3747, 0.3169, 0.3635, 0.3245, 0.3517,
        0.3504, 0.3056, 0.3223, 0.3192, 0.3677, 0.3681, 0.3355, 0.4198, 0.3082,
        0.3576, 0.3145, 0.3353, 0.3369, 0.3715, 0.3212, 0.3182, 0.3372, 0.4065,
        0.3207, 0.3561, 0.3770, 0.3889, 0.4246, 0.3065, 0.4582, 0.3054, 0.3062,
        0.3577, 0.3568, 0.3349, 0.4035, 0.3820, 0.3544, 0.3704, 0.3304, 0.3752,
        0.3404, 0.3580, 0.3779, 0.3558, 0.3650, 0.3487, 0.3016, 0.3570, 0.3597,
        0.3018, 0.3310, 0.4192, 0.4280, 0.3691, 0.3751, 0.3448, 0.3803, 0.3076,
        0.3915, 0.3247, 0.3370, 0.3720, 0.4588, 0.3573, 0.4277, 0.3303, 0.3505,
        0.3527, 0.3075, 0.3457, 0.3686, 0.2814, 0.2688, 0.3785, 0.3533, 0.3361,
        0.3797, 0.3300, 0.3042, 0.3850, 0.3242, 0.3412, 0.3254, 0.3701, 0.3587,
        0.3485, 0.3686, 0.3808, 0.3398, 0.3632, 0.3472, 0.4079, 0.3764, 0.3294,
        0.3657, 0.2939, 0.3177, 0.3221, 0.3134, 0.3496, 0.3090, 0.3052, 0.3398,
        0.2883, 0.3384, 0.3692, 0.3480, 0.3351, 0.3499, 0.3499, 0.3612, 0.3003,
        0.3460, 0.3411, 0.3589, 0.3312, 0.3251, 0.3517, 0.3765, 0.4072, 0.3575,
        0.3735, 0.2981, 0.2860, 0.3860, 0.3978, 0.3854, 0.2909, 0.3511, 0.4343,
        0.3598, 0.3747, 0.2845, 0.3623, 0.3457, 0.3124, 0.3238, 0.3477, 0.3440,
        0.3077, 0.3654, 0.3354, 0.3705, 0.3471, 0.3432, 0.3450, 0.3709, 0.3605,
        0.3250, 0.3137, 0.4333, 0.4439, 0.3198, 0.2910, 0.3830, 0.3435, 0.3276,
        0.3667, 0.3149, 0.2984, 0.2577, 0.3276, 0.3571, 0.3151, 0.3670, 0.3142,
        0.3464, 0.3446, 0.2847, 0.3766, 0.3082, 0.3223, 0.3219, 0.2915, 0.3574,
        0.3242, 0.3654, 0.3092, 0.3496, 0.3259, 0.3127, 0.3015, 0.3749, 0.3001,
        0.3624, 0.3116, 0.3590, 0.2712, 0.3082, 0.3032, 0.3238, 0.3673, 0.4322,
        0.3107, 0.2993, 0.2671, 0.3406, 0.3885, 0.3425, 0.3152, 0.3711, 0.3428,
        0.3982, 0.3553, 0.3431, 0.4057, 0.3447, 0.3271, 0.3503, 0.3421, 0.3046,
        0.3460, 0.3078, 0.3445, 0.4019, 0.3338, 0.3998, 0.3822, 0.3864])
net.mlp.net.1.batch_norm.bias tensor([ 1.7968e-02, -2.1249e-02, -7.4803e-03, -5.6902e-02, -1.8424e-02,
         6.3240e-02, -1.1393e-02,  1.2584e-02, -4.3678e-02, -8.5564e-03,
         3.0268e-02, -3.8494e-02,  1.8836e-02,  1.1224e-02, -7.8730e-02,
         3.7430e-02, -8.0707e-03,  4.9347e-02, -1.7466e-02,  1.8841e-03,
         1.6304e-02,  1.5573e-02, -9.0344e-03,  1.4754e-03,  5.8405e-02,
        -2.4472e-02, -5.6580e-02, -8.7569e-03,  2.6736e-02, -3.2307e-02,
         2.9918e-02,  4.7802e-02, -3.4105e-02, -4.9578e-02,  1.6860e-02,
        -3.7964e-02,  5.3274e-02, -3.6275e-02,  3.3845e-03, -1.5388e-02,
         1.6393e-02, -8.9298e-03, -5.6693e-02, -1.0440e-02, -3.7350e-02,
         1.4468e-02,  2.5957e-02, -1.2387e-02, -2.0807e-02, -4.5066e-02,
         1.6986e-02, -4.8667e-02, -5.6287e-03,  1.7459e-02,  3.2132e-02,
         8.1093e-03,  4.3759e-02, -4.1222e-03, -1.5571e-02,  4.2359e-02,
         2.7848e-02, -1.0028e-02, -2.7075e-02, -2.4218e-02, -1.6048e-02,
        -9.3600e-02, -6.3166e-03, -1.7499e-03,  4.7302e-02,  1.7614e-02,
         6.8333e-02, -3.5511e-02, -2.1504e-02,  1.0073e-02, -5.4979e-02,
         1.5792e-02,  1.0237e-02, -3.8831e-02,  4.9383e-02, -2.1499e-03,
        -7.5367e-02, -4.7501e-03,  7.6309e-02,  5.2443e-03,  2.9857e-02,
        -3.1911e-02,  1.8258e-02,  5.9010e-02, -3.7352e-03, -1.5311e-02,
        -3.4880e-03,  3.5344e-02, -2.7112e-02, -4.6124e-02, -2.9877e-02,
        -2.9498e-02,  2.3582e-02, -2.5749e-02,  2.9591e-04,  1.5889e-02,
        -5.3872e-04, -1.0031e-02, -2.1452e-02,  9.5448e-03, -4.6740e-02,
         4.0637e-02, -3.3576e-02, -1.3499e-02, -2.6081e-02,  2.9723e-02,
        -5.1060e-03, -1.0335e-02,  4.8578e-02,  1.0348e-02, -4.5568e-02,
         6.8039e-02, -3.2934e-02, -3.0941e-02,  4.1553e-02,  2.8837e-03,
        -3.2601e-02,  9.0534e-02, -2.5115e-02, -1.1787e-02,  3.8465e-02,
        -1.1037e-02,  1.3015e-03,  1.2475e-02, -1.5407e-02, -2.4752e-02,
        -3.1621e-02,  5.2303e-03, -4.1792e-02,  2.1311e-02, -3.4279e-02,
        -6.9990e-02, -9.1362e-03, -6.4372e-02, -9.9484e-03,  2.5302e-02,
         7.3008e-03, -3.7586e-03,  6.8122e-02, -3.4622e-02, -6.2598e-03,
        -3.0169e-03, -8.2291e-03,  2.0780e-02,  3.8920e-02,  4.1202e-02,
        -4.3038e-02,  1.6910e-02,  3.1319e-02, -2.7380e-03, -1.9400e-02,
        -1.5458e-03, -4.4026e-02,  1.3740e-02, -9.3333e-02,  1.2468e-02,
        -3.4196e-02,  4.6017e-02, -1.8866e-02, -1.7908e-02, -2.9219e-02,
         2.9271e-02, -5.9822e-02, -5.3657e-02,  8.6952e-03,  6.7670e-02,
        -1.1692e-02,  4.0640e-03, -2.7778e-02,  3.2292e-03,  7.4143e-02,
         3.0430e-02,  1.0832e-02, -6.0503e-02,  3.2639e-03, -4.9608e-02,
         3.9612e-02, -8.5179e-03,  3.0260e-02, -3.2242e-02,  2.0456e-02,
        -5.8794e-02,  1.8140e-02,  6.1301e-02,  2.0373e-02,  2.0916e-02,
         1.8651e-02,  3.6775e-02, -4.1433e-02,  3.7560e-02,  2.0959e-02,
        -1.1658e-02, -7.2684e-02, -2.6452e-02, -6.7051e-03,  4.2302e-02,
         6.2238e-02, -5.6911e-03,  1.2608e-02, -3.3652e-02,  3.3179e-02,
        -4.7429e-03,  6.8267e-02,  3.7884e-02, -7.3822e-02,  2.5004e-02,
        -1.1837e-02,  6.6623e-02, -1.5900e-02,  4.4616e-02,  4.4137e-02,
        -2.3673e-02, -2.3720e-02,  3.9899e-02, -5.8810e-02,  1.2170e-02,
        -7.0961e-02,  2.5381e-03,  9.0127e-02, -2.4999e-02, -4.8495e-02,
        -4.4170e-02, -4.2881e-03,  9.0774e-03,  5.7865e-03, -4.5877e-02,
        -5.0551e-02, -1.4969e-02,  4.0098e-03,  4.8159e-02,  1.4623e-02,
         2.4162e-02, -4.7513e-03, -3.2367e-02,  3.6906e-02,  1.1155e-02,
         5.4185e-03,  1.2266e-02, -5.0075e-03,  2.3817e-03,  1.2348e-02,
         6.2219e-03, -5.3681e-02, -1.4148e-02, -2.5827e-02,  5.3554e-02,
        -2.4124e-02,  1.4242e-02,  1.7409e-02, -2.9341e-02,  3.2025e-02,
        -4.5248e-02,  3.4826e-02,  1.7791e-02, -2.9382e-03, -4.7518e-02,
        -6.1132e-02,  5.6284e-02, -4.5855e-02,  3.0223e-02,  1.4782e-02,
         4.5047e-02, -2.4094e-02, -3.8518e-02,  2.9356e-02,  8.9919e-03,
        -2.9992e-04,  2.4846e-02,  9.0043e-03,  2.3566e-02, -3.1362e-03,
         1.6690e-02,  3.2364e-02, -1.8888e-02,  2.1534e-02,  2.4809e-02,
        -3.6197e-02, -4.4250e-02, -2.0766e-02, -2.7473e-02, -2.3974e-02,
         1.9844e-02,  4.7655e-02,  5.3065e-02,  3.5249e-02,  5.0497e-02,
        -9.3017e-03, -2.0686e-02,  5.4779e-02,  1.9329e-02, -4.8736e-03,
        -8.5191e-03, -1.6973e-02,  2.3870e-02, -1.2494e-02,  4.2277e-02,
         9.0580e-03, -1.4433e-02, -4.1595e-02,  4.3122e-02,  2.9442e-02,
        -4.5078e-02, -1.9679e-02, -9.3286e-03,  1.6479e-02,  5.4456e-03,
        -3.1309e-02, -4.3083e-02, -1.3474e-02,  5.2032e-02, -1.3108e-02,
         1.8919e-02,  1.4373e-02,  6.5468e-02, -2.4399e-02, -2.0576e-02,
         4.2354e-03, -5.3919e-02, -1.4016e-02, -4.7277e-02,  5.7475e-03,
        -1.6413e-02, -2.6738e-02, -4.5070e-02, -8.3955e-02,  1.4754e-03,
         6.9049e-02, -5.1579e-02, -1.4634e-02,  6.6280e-03,  5.7253e-02,
         4.4668e-02, -2.9719e-04,  1.5437e-02, -8.9815e-03,  4.7927e-02,
        -4.9426e-02,  6.2341e-02, -1.3997e-02,  5.4087e-02,  7.2384e-02,
         3.1440e-02, -2.8645e-02, -6.0273e-02,  2.8097e-02,  1.2688e-02,
        -6.5183e-03, -7.6242e-03,  7.6023e-02,  3.3698e-02,  4.8614e-02,
         1.1937e-02, -1.7608e-02, -2.3169e-02, -3.0338e-03,  1.4350e-02,
         5.2003e-03, -1.2681e-02,  2.9388e-02, -4.0725e-02,  3.3732e-03,
         1.8117e-02,  2.2943e-02, -4.3818e-02,  4.7488e-03, -5.4826e-02,
         5.7396e-03, -1.4970e-02, -3.6077e-02,  8.9307e-03, -4.0548e-02,
         2.1847e-02, -6.3431e-03, -2.1325e-02, -2.0837e-02, -1.2048e-03,
         3.8533e-02, -3.5394e-02, -1.1307e-02, -5.7772e-02, -1.1598e-02,
         3.2713e-02,  4.5144e-03, -1.1028e-02, -2.1722e-02, -1.7368e-02,
         1.3748e-03,  2.4314e-02, -4.6902e-03, -6.9096e-03,  1.7858e-02,
        -1.5307e-02,  5.8572e-02, -6.2080e-02,  4.3048e-02, -3.6475e-02,
        -5.1253e-02, -4.6273e-02, -3.2736e-03,  5.8745e-03, -1.3096e-02,
        -4.3528e-02, -2.8848e-03, -3.7926e-02, -3.4222e-03, -1.9778e-02,
         4.0901e-02, -3.8398e-02,  3.9245e-02,  5.6973e-03,  1.3840e-02,
         1.5377e-02,  1.7239e-02, -8.3200e-04,  1.4407e-02, -4.6126e-02,
        -1.7041e-02,  9.6509e-03, -2.8389e-02, -4.5621e-03, -1.7373e-02,
         4.8496e-02,  4.5202e-02,  1.8594e-02,  4.1469e-03, -3.1883e-03,
         3.4065e-03, -5.7035e-02,  1.7913e-02, -6.8015e-02,  6.2094e-02,
        -3.4550e-02,  5.6276e-02, -3.9887e-02,  7.6441e-03, -4.1452e-02,
         4.6566e-03,  4.1209e-02, -1.0959e-02, -2.0402e-05,  3.3010e-02,
         7.3837e-03,  2.6321e-02, -7.0894e-04, -6.4072e-02,  6.3446e-03,
        -1.1488e-02,  1.7624e-02,  3.4534e-02, -5.0745e-02,  1.6000e-02,
        -2.0709e-02, -3.2597e-02,  2.8095e-02, -2.5366e-02, -3.9030e-02,
         9.8287e-03,  2.4919e-02,  4.0566e-02, -1.8942e-02, -6.1823e-02,
         1.7762e-02, -2.8786e-02,  2.3004e-02,  9.2977e-03, -5.1913e-02,
         1.6260e-02, -8.9618e-03,  4.6067e-02,  2.5879e-02, -8.6265e-03,
         3.3185e-02, -3.2219e-02,  1.4150e-02,  1.5462e-02,  8.3253e-02,
         1.6042e-02, -2.3595e-03,  9.0309e-03, -6.3459e-02,  2.3203e-02,
         5.4125e-03, -4.1230e-02, -5.6734e-02, -3.6949e-02,  5.0518e-02,
        -3.3297e-02, -1.7354e-02,  2.7592e-03,  3.9409e-02,  3.7992e-03,
         3.8619e-02, -8.1718e-02, -7.9830e-02,  5.4046e-02,  6.8389e-05,
        -1.5384e-02,  1.0884e-02, -9.5635e-03, -3.6597e-02, -1.4250e-02,
         1.6847e-02,  1.1754e-02,  1.2648e-02,  2.8899e-03,  1.3843e-02,
         5.5888e-02, -6.4894e-02])
net.mlp.net.1.batch_norm.running_mean tensor([0.4526, 0.2549, 0.4409, 0.4571, 0.3254, 0.3000, 0.3411, 0.4595, 0.3634,
        0.3901, 0.2460, 0.4250, 0.3346, 0.3921, 0.2917, 0.2899, 0.3305, 0.4981,
        0.5066, 0.3422, 0.3774, 0.4749, 0.2695, 0.3611, 0.2987, 0.3317, 0.3346,
        0.2209, 0.3286, 0.3805, 0.3271, 0.1926, 0.3055, 0.3075, 0.4087, 0.3756,
        0.5094, 0.4232, 0.3864, 0.4614, 0.3108, 0.3499, 0.3163, 0.4195, 0.3273,
        0.4060, 0.3174, 0.3026, 0.3487, 0.3717, 0.3105, 0.3054, 0.3507, 0.3643,
        0.5436, 0.5249, 0.4269, 0.4693, 0.3765, 0.1448, 0.2378, 0.4554, 0.3558,
        0.4691, 0.4408, 0.4545, 0.3385, 0.3442, 0.3418, 0.2951, 0.3460, 0.3131,
        0.2900, 0.4876, 0.5805, 0.2690, 0.4606, 0.3114, 0.3711, 0.5198, 0.3153,
        0.2858, 0.5476, 0.3052, 0.3280, 0.2538, 0.4845, 0.4322, 0.3211, 0.3147,
        0.3956, 0.5299, 0.4777, 0.2697, 0.3774, 0.3663, 0.2551, 0.2889, 0.4230,
        0.1902, 0.2709, 0.4137, 0.3312, 0.3481, 0.3216, 0.3581, 0.4305, 0.4796,
        0.5682, 0.4405, 0.1985, 0.3932, 0.5377, 0.4045, 0.2880, 0.4808, 0.3173,
        0.3847, 0.3254, 0.2274, 0.3605, 0.2889, 0.4309, 0.5118, 0.3010, 0.4475,
        0.2697, 0.4761, 0.3573, 0.3707, 0.3579, 0.4421, 0.4778, 0.2764, 0.4300,
        0.4505, 0.4601, 0.2266, 0.2616, 0.2853, 0.3906, 0.2496, 0.2933, 0.3644,
        0.3363, 0.3656, 0.3733, 0.2474, 0.4028, 0.4006, 0.3483, 0.3975, 0.3352,
        0.2557, 0.3538, 0.4879, 0.2194, 0.4103, 0.3571, 0.3171, 0.2711, 0.3868,
        0.3671, 0.4669, 0.3345, 0.3824, 0.3167, 0.3217, 0.4139, 0.3693, 0.4006,
        0.3646, 0.2988, 0.4828, 0.3298, 0.4128, 0.4365, 0.3863, 0.3082, 0.3468,
        0.5161, 0.3398, 0.4059, 0.3793, 0.3451, 0.2626, 0.2116, 0.4691, 0.3517,
        0.2552, 0.3068, 0.2377, 0.2711, 0.3783, 0.5263, 0.2882, 0.4930, 0.4895,
        0.3071, 0.4832, 0.3980, 0.4672, 0.2265, 0.4155, 0.3009, 0.2287, 0.3613,
        0.2172, 0.4619, 0.2164, 0.3029, 0.4792, 0.3481, 0.3626, 0.3903, 0.1789,
        0.3480, 0.4686, 0.4042, 0.2877, 0.3733, 0.3571, 0.5393, 0.2242, 0.3351,
        0.3839, 0.2929, 0.2940, 0.2961, 0.2537, 0.4772, 0.4832, 0.4643, 0.3867,
        0.2806, 0.5665, 0.2941, 0.3247, 0.2953, 0.4917, 0.2786, 0.5304, 0.3508,
        0.3063, 0.3734, 0.3971, 0.3937, 0.3965, 0.3303, 0.3846, 0.2810, 0.2760,
        0.4142, 0.3163, 0.3811, 0.4888, 0.3672, 0.4232, 0.4183, 0.4548, 0.3128,
        0.3961, 0.3198, 0.1960, 0.3149, 0.3756, 0.3888, 0.4901, 0.4476, 0.3496,
        0.3914, 0.4906, 0.3240, 0.4939, 0.3122, 0.1467, 0.3076, 0.4072, 0.2219,
        0.3688, 0.3511, 0.4154, 0.2684, 0.4008, 0.3434, 0.5283, 0.4869, 0.2819,
        0.3574, 0.3389, 0.4062, 0.3772, 0.4141, 0.3254, 0.4760, 0.3335, 0.5191,
        0.4442, 0.3156, 0.5647, 0.3314, 0.2350, 0.6087, 0.4654, 0.6039, 0.4550,
        0.5652, 0.3449, 0.4326, 0.3317, 0.4775, 0.4662, 0.3535, 0.2520, 0.3410,
        0.3803, 0.3955, 0.2959, 0.4534, 0.6582, 0.3012, 0.4696, 0.3665, 0.4563,
        0.1916, 0.4631, 0.3956, 0.2447, 0.4752, 0.3813, 0.4770, 0.1966, 0.4141,
        0.2784, 0.3225, 0.4452, 0.4833, 0.2716, 0.2937, 0.2744, 0.3821, 0.3613,
        0.3138, 0.3216, 0.5561, 0.4540, 0.3331, 0.5422, 0.2774, 0.3549, 0.2825,
        0.4396, 0.2762, 0.3040, 0.2928, 0.4476, 0.3640, 0.2676, 0.3274, 0.3113,
        0.3451, 0.4679, 0.2490, 0.4296, 0.3173, 0.3743, 0.2605, 0.3584, 0.6141,
        0.5123, 0.3528, 0.2260, 0.4631, 0.3954, 0.4228, 0.3159, 0.3106, 0.3806,
        0.4257, 0.3219, 0.3434, 0.3262, 0.2975, 0.4364, 0.3568, 0.3189, 0.2938,
        0.3049, 0.3442, 0.4947, 0.5556, 0.4460, 0.3887, 0.3149, 0.2935, 0.3378,
        0.3655, 0.6096, 0.4111, 0.3803, 0.4952, 0.3641, 0.4629, 0.5201, 0.2595,
        0.1630, 0.3216, 0.3756, 0.3190, 0.4981, 0.4390, 0.4545, 0.3711, 0.3309,
        0.2602, 0.3709, 0.4196, 0.4280, 0.4635, 0.4339, 0.2584, 0.3106, 0.4307,
        0.4079, 0.5929, 0.3095, 0.3442, 0.4595, 0.3076, 0.3211, 0.2834, 0.2853,
        0.2644, 0.2016, 0.2818, 0.4760, 0.3657, 0.3081, 0.2719, 0.3138, 0.3639,
        0.3417, 0.4048, 0.4238, 0.3780, 0.2297, 0.3760, 0.3214, 0.4801, 0.4897,
        0.2609, 0.4170, 0.3063, 0.5646, 0.4612, 0.3318, 0.3210, 0.3628, 0.3637,
        0.2727, 0.3725, 0.3455, 0.4176, 0.4037, 0.2458, 0.2829, 0.3933, 0.3186,
        0.3638, 0.3278, 0.5033, 0.2191, 0.3494, 0.3640, 0.2838, 0.3843, 0.1916,
        0.4420, 0.3527, 0.3197, 0.4127, 0.3226, 0.4147, 0.3713, 0.5017, 0.2716,
        0.4947, 0.3004, 0.4809, 0.4071, 0.2565, 0.3539, 0.3180, 0.3745, 0.3672,
        0.2575, 0.3949, 0.2400, 0.5146, 0.2525, 0.3630, 0.3285, 0.3205, 0.2825,
        0.2406, 0.2716, 0.3258, 0.4313, 0.5066, 0.3031, 0.2236, 0.4863])
net.mlp.net.1.batch_norm.running_var tensor([0.8227, 0.1524, 1.4493, 0.3273, 0.2597, 0.2457, 0.2398, 0.3553, 0.2671,
        0.8915, 0.1378, 0.9235, 0.4852, 0.3840, 0.2318, 0.2117, 0.2198, 1.1570,
        0.5419, 0.4240, 0.2646, 0.4619, 0.1927, 0.2870, 0.2065, 0.2402, 0.2395,
        0.3175, 0.2457, 0.7444, 0.2066, 0.1460, 0.1514, 0.1798, 0.4116, 0.4167,
        0.5004, 1.0652, 0.3669, 0.9002, 0.1804, 0.2841, 0.2092, 0.6389, 0.2628,
        0.3227, 0.2608, 0.1268, 0.1667, 0.9709, 0.3369, 0.2519, 0.5087, 0.2358,
        1.6335, 1.3769, 0.2431, 1.0152, 0.7834, 0.1115, 0.1721, 0.3509, 0.4510,
        0.4288, 0.4677, 0.5063, 0.6444, 0.3801, 0.2245, 0.2168, 0.6370, 0.4996,
        0.5481, 0.4558, 1.0817, 0.1892, 0.4326, 0.2111, 0.4206, 0.5264, 0.3024,
        0.1760, 1.9340, 0.1520, 0.2269, 0.4476, 0.4339, 0.9792, 0.2009, 0.2249,
        1.1427, 1.2944, 0.3901, 0.4731, 0.1899, 0.2505, 0.1810, 0.1860, 0.3340,
        0.2127, 0.1685, 0.3529, 0.5419, 0.2993, 0.2903, 0.6322, 1.2696, 0.9807,
        0.5577, 1.0920, 0.1000, 0.3061, 0.4729, 0.2463, 0.1959, 1.4609, 0.1928,
        0.2785, 0.2056, 0.1562, 0.5085, 0.3078, 0.4481, 1.1621, 0.1491, 0.6370,
        0.1951, 0.3872, 0.6841, 0.8674, 0.3773, 1.0351, 0.4407, 0.2563, 0.3025,
        1.3480, 0.7984, 0.1292, 0.3836, 0.7423, 0.2878, 0.2157, 0.2028, 0.3487,
        0.3234, 0.2695, 0.4814, 0.1134, 0.3987, 0.2241, 0.7001, 0.3682, 0.6149,
        0.2470, 0.4154, 1.2249, 0.1093, 0.3395, 0.2806, 0.5812, 0.2201, 0.2560,
        0.3668, 0.4387, 0.2902, 0.8543, 0.3183, 0.2168, 0.4036, 0.3134, 0.1834,
        0.3202, 0.2191, 1.3358, 0.2178, 0.3342, 0.4895, 0.2383, 0.5083, 0.2660,
        0.5581, 0.2721, 0.6167, 0.4771, 0.2135, 0.1774, 0.2404, 0.4766, 0.3586,
        0.4140, 0.1989, 0.2860, 0.1829, 0.3133, 1.3119, 0.1358, 0.3232, 0.3925,
        0.2173, 1.0303, 0.8569, 0.8437, 0.2055, 0.3561, 0.2292, 0.1159, 0.3183,
        0.0973, 0.8939, 0.1481, 0.5274, 1.1352, 0.3950, 0.5454, 0.8027, 0.1302,
        0.1942, 0.4367, 0.3698, 0.2947, 0.3282, 0.2889, 1.0353, 0.1235, 0.2460,
        0.5786, 0.1392, 0.2536, 0.1880, 0.2249, 0.3165, 1.0361, 0.4868, 0.6379,
        0.1450, 1.6972, 0.1871, 0.2619, 0.3084, 1.4704, 0.1286, 1.7024, 0.4923,
        0.1390, 0.6310, 0.3184, 0.5885, 0.3008, 0.5859, 0.2710, 0.1544, 0.1988,
        0.2475, 0.2001, 0.3014, 1.5791, 0.2947, 0.2614, 0.6330, 1.2202, 0.5257,
        0.3045, 0.1754, 0.1067, 0.5136, 0.2465, 1.1624, 0.4991, 0.4741, 0.3483,
        0.2523, 1.4121, 0.3028, 0.5499, 0.1835, 0.1061, 0.3810, 0.8160, 0.1969,
        0.2933, 0.7966, 0.8378, 0.1557, 0.8527, 0.3384, 0.4528, 0.5278, 0.1923,
        0.3068, 0.2306, 0.3198, 0.4852, 0.3324, 0.2512, 0.4165, 0.2204, 1.3352,
        0.4180, 0.1842, 1.6929, 0.1997, 0.1533, 1.6589, 1.4907, 1.7546, 0.3601,
        0.4516, 1.1206, 0.2988, 0.2084, 0.4483, 1.4828, 0.8602, 0.1461, 0.2928,
        0.2140, 0.2459, 0.1535, 1.1960, 2.1299, 0.2742, 0.8278, 1.0042, 0.7568,
        0.2229, 1.0042, 0.5390, 0.1564, 0.5173, 0.5383, 1.0956, 0.1024, 0.2618,
        0.1367, 0.5263, 0.2750, 0.4491, 0.1304, 0.1960, 0.1737, 0.5985, 0.2834,
        0.2064, 0.1948, 1.1585, 0.4497, 0.3074, 1.4506, 0.3695, 0.4049, 0.1452,
        0.3048, 0.2274, 0.1691, 0.1957, 0.5208, 0.2679, 0.1448, 0.2644, 0.3181,
        0.2458, 0.5020, 0.1223, 0.3547, 0.1909, 0.2835, 0.1899, 0.2716, 1.9555,
        1.1836, 0.6106, 0.1154, 0.6127, 0.7757, 0.7452, 0.4142, 0.1800, 0.3574,
        0.7981, 0.6035, 0.2748, 0.2510, 0.1829, 0.6599, 0.7587, 0.1772, 0.1567,
        0.2438, 0.4053, 1.0368, 1.8559, 0.3674, 1.0572, 0.2504, 0.5885, 0.2855,
        0.2041, 1.5378, 0.3933, 0.2415, 0.4177, 0.8305, 0.3913, 0.5840, 0.1384,
        0.1129, 0.1929, 0.4261, 0.5090, 0.7559, 1.0720, 0.5400, 0.3108, 0.1971,
        0.1691, 0.2904, 0.3006, 0.2895, 1.0463, 0.4110, 0.1984, 0.2536, 0.4441,
        1.0783, 1.6356, 0.2120, 0.4762, 0.3135, 0.1760, 0.2253, 0.2462, 0.1816,
        0.1668, 0.0905, 0.3021, 0.8830, 0.4783, 0.3023, 0.2162, 0.2194, 0.3356,
        0.2697, 0.2953, 0.4188, 0.3250, 0.1945, 0.9663, 0.2569, 0.4703, 0.9707,
        0.5998, 0.3288, 0.1894, 1.9304, 0.9546, 0.2186, 0.2078, 0.2826, 0.8875,
        0.1860, 0.2110, 0.6522, 0.3381, 0.8385, 0.1416, 0.2651, 0.2955, 0.5930,
        0.2663, 0.2411, 0.3091, 0.1036, 0.4813, 0.1820, 0.2413, 0.3938, 0.1642,
        0.3428, 0.2551, 0.2365, 0.3642, 0.3548, 0.3173, 0.8976, 1.6497, 0.1809,
        1.4962, 0.1984, 1.4416, 0.4128, 0.1917, 0.1429, 0.1863, 0.3021, 0.3396,
        0.1841, 0.7539, 0.1496, 0.4634, 0.1601, 0.5393, 0.2576, 0.4163, 0.2094,
        0.1319, 0.1600, 0.1662, 0.4226, 1.0528, 0.2285, 0.1230, 0.4631])
net.mlp.net.1.batch_norm.num_batches_tracked tensor(152)
net.mlp.net.2.linear.weight tensor([[ 0.0182,  0.0309, -0.0637,  ..., -0.0394, -0.0047,  0.0461],
        [ 0.0564, -0.0314,  0.0180,  ...,  0.0194, -0.0763,  0.0336],
        [-0.0493, -0.0002, -0.0012,  ..., -0.0094, -0.0418, -0.0205],
        ...,
        [ 0.0077,  0.0327,  0.0007,  ...,  0.0041, -0.0342, -0.0049],
        [ 0.0620,  0.0083,  0.0535,  ...,  0.0358, -0.0015,  0.0366],
        [-0.0050,  0.0234,  0.0169,  ...,  0.0059,  0.0090,  0.0175]])
net.mlp.net.2.linear.bias tensor([ 0.0343, -0.0054,  0.0102,  0.0248, -0.0539, -0.0087,  0.0911,  0.0173,
         0.0097, -0.0314, -0.0038,  0.0082,  0.0332, -0.0026, -0.0191,  0.0105,
         0.0078,  0.0103, -0.0243,  0.0147,  0.0091, -0.0508, -0.0279, -0.0109,
        -0.0078,  0.0138, -0.0379, -0.0221,  0.0045,  0.0105, -0.0191,  0.0262,
        -0.0560,  0.0378, -0.0414, -0.0248, -0.0028,  0.0767, -0.0035,  0.0130,
         0.0169, -0.0533,  0.0507, -0.0462, -0.0136,  0.0625, -0.0275, -0.0468,
         0.0133, -0.0852, -0.0096,  0.0202, -0.0223, -0.0452,  0.0422, -0.0542,
        -0.0589,  0.0084,  0.0175, -0.0255, -0.0512, -0.0135,  0.0807,  0.0456,
        -0.0016, -0.0325,  0.0112, -0.0486,  0.0536, -0.0313, -0.0260, -0.0101,
         0.0472,  0.0416, -0.0211, -0.0637,  0.0289,  0.0528,  0.0083, -0.0205,
        -0.0454,  0.0873,  0.0443,  0.0406,  0.0246,  0.0133, -0.0508,  0.0090,
        -0.0391,  0.0163, -0.0162, -0.0013, -0.0064, -0.0387,  0.0089, -0.0287,
        -0.0089, -0.0056,  0.0232, -0.0493,  0.0716, -0.0425,  0.0492, -0.0273,
        -0.0178, -0.0256, -0.0070, -0.0225,  0.0118,  0.0231, -0.1190, -0.0277,
        -0.0256, -0.0220,  0.0011,  0.0035, -0.0536, -0.0205,  0.0176, -0.0425,
         0.0321, -0.0104, -0.0292,  0.0066, -0.0495,  0.0058,  0.0095,  0.0189,
        -0.0183, -0.0460,  0.0122, -0.0144, -0.1034, -0.0625,  0.0882, -0.0148,
         0.0111,  0.0168,  0.0297, -0.0141,  0.0605, -0.0568,  0.0082, -0.0006,
         0.0467,  0.0357,  0.0158, -0.0379, -0.0123,  0.0099, -0.0330,  0.0167,
        -0.0067, -0.0031, -0.0113,  0.0204, -0.0335,  0.0215, -0.0986, -0.0379,
        -0.0204, -0.0451, -0.0106, -0.0269,  0.0226, -0.0579, -0.0007, -0.0194,
        -0.0179,  0.0848, -0.0407, -0.0143,  0.0715, -0.0350, -0.0062, -0.0107,
        -0.0298,  0.0075, -0.0023,  0.0399,  0.0158, -0.0290, -0.0219,  0.0416,
         0.0031,  0.0161, -0.0101,  0.0294,  0.0032, -0.0069,  0.0190, -0.0053,
        -0.0151,  0.0109,  0.0362, -0.0200,  0.0354,  0.0341, -0.0319, -0.0137,
         0.0254, -0.0397, -0.0097, -0.0266,  0.0027, -0.0407, -0.0472, -0.0274,
         0.0279,  0.0020, -0.0834, -0.0096, -0.0734, -0.0109, -0.0197, -0.0489,
        -0.0265,  0.0487, -0.0009, -0.0443, -0.0559,  0.0117,  0.0127, -0.0295,
        -0.0738, -0.0048, -0.0183,  0.0809, -0.0423,  0.0119,  0.0151, -0.0513,
         0.0013,  0.0096, -0.0073, -0.0579, -0.0625,  0.0134, -0.1142,  0.0187,
        -0.0363, -0.0073,  0.0021,  0.0766, -0.0051, -0.0051,  0.0007,  0.0007,
        -0.0040, -0.0150,  0.0007, -0.0070,  0.0225, -0.0035, -0.0284, -0.0234,
        -0.0107,  0.0441,  0.0266,  0.0323, -0.0246, -0.0284, -0.0193,  0.0012,
        -0.0380, -0.0017, -0.0254, -0.0042, -0.0111,  0.0038,  0.0319, -0.0044,
         0.0337,  0.0392, -0.0035,  0.0390, -0.0060, -0.0126, -0.0333,  0.0810,
         0.0426, -0.0109,  0.0098, -0.0316, -0.0051, -0.0282,  0.0497,  0.0100,
         0.0096,  0.0237, -0.0110, -0.0115, -0.0016, -0.0234,  0.0917, -0.0534,
        -0.0273, -0.0072,  0.0036, -0.0525,  0.0296, -0.0397, -0.0225,  0.0516,
        -0.0897, -0.0487, -0.0150, -0.0213,  0.0807, -0.0068,  0.0336, -0.0593,
        -0.0044,  0.0469, -0.0130, -0.0064,  0.0094,  0.0751, -0.0727,  0.0414,
        -0.0116,  0.0154, -0.0453,  0.0599, -0.0084, -0.0086,  0.0613, -0.0165,
        -0.0137,  0.0479, -0.0295, -0.0370,  0.0330,  0.0232, -0.0252,  0.0252,
         0.0085,  0.0082, -0.0014, -0.0376,  0.0158,  0.0586,  0.0227, -0.0284,
         0.0184, -0.0642,  0.0299, -0.0076, -0.0086,  0.0191, -0.0177,  0.0186,
         0.0479, -0.0292, -0.0173, -0.0379,  0.0119, -0.0427,  0.0247, -0.0066,
        -0.0620, -0.0137, -0.0223,  0.0205,  0.0151, -0.0638, -0.0744,  0.0147,
        -0.0415, -0.0290, -0.0273,  0.0655, -0.0156,  0.0312, -0.0354, -0.0023,
        -0.0298,  0.0240, -0.0006,  0.0625, -0.0513, -0.0184, -0.0006, -0.0788,
         0.0636,  0.0189, -0.0812, -0.0051, -0.0217,  0.0180,  0.0077,  0.0037,
         0.0466,  0.0444, -0.0410, -0.0182, -0.0183,  0.0617, -0.0171, -0.0509,
        -0.0426,  0.0370, -0.0387, -0.0295, -0.0122,  0.0272,  0.0137, -0.0019,
        -0.0449, -0.0182,  0.0085,  0.0119, -0.0649,  0.0293, -0.0010, -0.0100,
         0.0355, -0.0209, -0.0665, -0.0107,  0.0540,  0.0366,  0.0165, -0.0561,
         0.0394, -0.0311, -0.0664,  0.0026,  0.0218, -0.0324,  0.0134, -0.0490,
         0.0219, -0.0179, -0.0465,  0.0524,  0.0320,  0.0611, -0.0386,  0.0207,
        -0.0661,  0.0207, -0.0381, -0.0200, -0.0440,  0.0431,  0.0116, -0.0293,
        -0.0026,  0.0400,  0.0213, -0.0272,  0.0897, -0.0108,  0.0644, -0.0284,
        -0.0277,  0.0195,  0.0266,  0.0221, -0.0303, -0.0275,  0.0471, -0.0156,
         0.0054, -0.0129, -0.0064,  0.0010, -0.0106,  0.0194, -0.0203, -0.0059,
        -0.0202, -0.0455, -0.0312,  0.0326,  0.0400, -0.0072, -0.0448, -0.0138,
         0.0041, -0.0402,  0.0348, -0.0335,  0.0011,  0.0155, -0.0372,  0.0094,
         0.0121, -0.0144, -0.0295,  0.0025,  0.0342, -0.0468, -0.0079,  0.0051,
         0.0298,  0.0018,  0.0028, -0.0141,  0.0517,  0.0139,  0.0031,  0.0392,
        -0.0015, -0.0173, -0.0406, -0.0225, -0.0124, -0.0186, -0.0286, -0.0231])
net.mlp.net.2.batch_norm.weight tensor([0.2950, 0.3478, 0.3914, 0.3507, 0.3702, 0.4010, 0.4116, 0.3561, 0.3108,
        0.3761, 0.2939, 0.3488, 0.3770, 0.3259, 0.4297, 0.3631, 0.3802, 0.3527,
        0.3307, 0.3467, 0.3702, 0.3718, 0.3609, 0.3400, 0.3055, 0.4018, 0.3776,
        0.2913, 0.3430, 0.4023, 0.3818, 0.3806, 0.3023, 0.3307, 0.3277, 0.3477,
        0.3515, 0.3913, 0.3994, 0.3584, 0.3003, 0.3324, 0.3294, 0.3688, 0.3573,
        0.3379, 0.3382, 0.3218, 0.3615, 0.3369, 0.3214, 0.3206, 0.3340, 0.3706,
        0.3609, 0.3530, 0.3794, 0.3215, 0.2972, 0.3233, 0.3660, 0.3698, 0.3343,
        0.2619, 0.4159, 0.3475, 0.3239, 0.3404, 0.3502, 0.3849, 0.3418, 0.4026,
        0.3724, 0.4102, 0.2936, 0.4232, 0.4215, 0.3401, 0.3456, 0.3011, 0.3422,
        0.3672, 0.3589, 0.3156, 0.3482, 0.4144, 0.3559, 0.3193, 0.3258, 0.3335,
        0.3330, 0.3026, 0.2954, 0.3240, 0.3227, 0.3380, 0.3030, 0.3646, 0.4220,
        0.3237, 0.3540, 0.3749, 0.3591, 0.3253, 0.3882, 0.4007, 0.3618, 0.3876,
        0.3160, 0.3958, 0.3243, 0.3600, 0.3271, 0.2768, 0.3382, 0.3390, 0.3601,
        0.3766, 0.3415, 0.3365, 0.3366, 0.3708, 0.3524, 0.3091, 0.3834, 0.3438,
        0.3899, 0.3172, 0.3343, 0.3170, 0.3568, 0.3298, 0.4025, 0.4115, 0.4182,
        0.3573, 0.2426, 0.3660, 0.4655, 0.3079, 0.3203, 0.4165, 0.3160, 0.3433,
        0.2877, 0.4136, 0.3195, 0.3905, 0.3633, 0.3240, 0.3405, 0.3581, 0.3641,
        0.3118, 0.3516, 0.3911, 0.3184, 0.3696, 0.3758, 0.2616, 0.3513, 0.3598,
        0.3716, 0.3000, 0.3664, 0.3738, 0.3654, 0.3312, 0.3496, 0.4359, 0.3753,
        0.3161, 0.3963, 0.4137, 0.3382, 0.2895, 0.2843, 0.3508, 0.3308, 0.3294,
        0.3818, 0.3474, 0.3371, 0.3486, 0.3083, 0.3134, 0.3376, 0.3400, 0.3594,
        0.3423, 0.3349, 0.3728, 0.3224, 0.3327, 0.3999, 0.3694, 0.3200, 0.3553,
        0.3682, 0.3361, 0.3740, 0.3204, 0.3058, 0.3558, 0.3158, 0.3691, 0.3339,
        0.3396, 0.3732, 0.3726, 0.3574, 0.3803, 0.4113, 0.3799, 0.3573, 0.3646,
        0.3290, 0.3671, 0.3556, 0.3124, 0.3425, 0.3402, 0.3806, 0.3140, 0.3869,
        0.3683, 0.3544, 0.2577, 0.3338, 0.3611, 0.3626, 0.3247, 0.3072, 0.3529,
        0.3264, 0.3854, 0.3470, 0.3508, 0.3842, 0.3383, 0.3682, 0.3225, 0.3499,
        0.3893, 0.3968, 0.3646, 0.3520, 0.3437, 0.3413, 0.3381, 0.3818, 0.3340,
        0.4187, 0.3131, 0.3406, 0.3796, 0.3808, 0.2976, 0.3271, 0.3108, 0.3517,
        0.4033, 0.3316, 0.2989, 0.3169, 0.2545, 0.3196, 0.4122, 0.3570, 0.2806,
        0.2918, 0.3675, 0.4314, 0.3857, 0.3259, 0.3147, 0.3600, 0.3379, 0.3512,
        0.3931, 0.3683, 0.3396, 0.3015, 0.3716, 0.3331, 0.3832, 0.3857, 0.3411,
        0.3425, 0.3860, 0.4179, 0.3058, 0.3063, 0.3072, 0.3265, 0.4222, 0.3555,
        0.2977, 0.3347, 0.4078, 0.4067, 0.3906, 0.3252, 0.3088, 0.3085, 0.3542,
        0.3229, 0.4005, 0.3847, 0.3572, 0.3141, 0.3586, 0.3699, 0.3916, 0.3443,
        0.3706, 0.3253, 0.2955, 0.3870, 0.3347, 0.3650, 0.3616, 0.3765, 0.3903,
        0.3572, 0.3952, 0.3739, 0.3913, 0.3159, 0.4056, 0.3263, 0.3614, 0.4167,
        0.3699, 0.3493, 0.3219, 0.3367, 0.3147, 0.3349, 0.3898, 0.3641, 0.3420,
        0.4041, 0.4004, 0.3540, 0.3563, 0.3698, 0.3656, 0.3466, 0.4157, 0.3026,
        0.3655, 0.3411, 0.3199, 0.3101, 0.3625, 0.3576, 0.3731, 0.3440, 0.3833,
        0.3924, 0.3785, 0.3906, 0.2788, 0.3179, 0.3600, 0.3669, 0.3323, 0.3657,
        0.2894, 0.3321, 0.3453, 0.3030, 0.3099, 0.4005, 0.3882, 0.4075, 0.3372,
        0.3410, 0.3005, 0.3344, 0.3068, 0.3723, 0.3259, 0.3246, 0.3671, 0.3819,
        0.3412, 0.3506, 0.3151, 0.3457, 0.4069, 0.3758, 0.2908, 0.3480, 0.3573,
        0.3576, 0.4175, 0.3501, 0.4446, 0.3804, 0.3367, 0.3057, 0.2951, 0.3943,
        0.3247, 0.3184, 0.2972, 0.3234, 0.3450, 0.2965, 0.3782, 0.3081, 0.3587,
        0.4204, 0.3220, 0.3618, 0.3570, 0.3726, 0.3694, 0.3514, 0.3688, 0.3493,
        0.3921, 0.3306, 0.3366, 0.3607, 0.4298, 0.3448, 0.3312, 0.3220, 0.3371,
        0.3313, 0.3357, 0.3516, 0.3855, 0.3067, 0.4075, 0.3110, 0.3943, 0.4009,
        0.3328, 0.3798, 0.3497, 0.3412, 0.3761, 0.3523, 0.3299, 0.3968, 0.3732,
        0.3761, 0.3357, 0.2742, 0.3028, 0.2954, 0.3883, 0.4021, 0.3217, 0.3296,
        0.3123, 0.3958, 0.3565, 0.3799, 0.3634, 0.3586, 0.3427, 0.3749, 0.3553,
        0.2974, 0.4152, 0.3593, 0.3981, 0.3675, 0.4145, 0.3168, 0.3520, 0.3850,
        0.3264, 0.3012, 0.3800, 0.3609, 0.4012, 0.3712, 0.3209, 0.3908, 0.3308,
        0.3505, 0.3587, 0.3781, 0.4172, 0.3524, 0.3753, 0.3356, 0.3757, 0.3484,
        0.3513, 0.3673, 0.2931, 0.3263, 0.3675, 0.3331, 0.3313, 0.3700, 0.3132,
        0.3261, 0.3510, 0.3663, 0.3388, 0.3291, 0.3543, 0.4081, 0.3225])
net.mlp.net.2.batch_norm.bias tensor([ 2.4011e-02,  1.5084e-02, -7.9746e-02,  2.8812e-03, -1.6925e-03,
        -5.5485e-02, -8.5127e-02,  4.0964e-02, -5.2339e-02, -1.2827e-02,
         4.5329e-03, -4.7952e-03,  6.4842e-02,  2.2644e-02, -5.9908e-02,
         1.4734e-02,  1.0600e-02, -4.6158e-02,  4.8391e-02, -6.2034e-02,
        -2.9373e-02, -1.3758e-02,  3.1782e-02,  7.3291e-03,  3.8892e-03,
        -8.2161e-02, -2.4569e-02,  3.0168e-02, -2.2854e-02,  2.7395e-03,
         2.0582e-02, -2.6977e-02,  1.9531e-02, -1.8649e-02, -3.3216e-02,
        -3.5691e-02, -3.7308e-02, -5.0904e-03,  5.1223e-02,  2.3989e-02,
        -1.6123e-02, -3.4302e-02,  1.4337e-02, -2.6496e-03, -5.8937e-02,
        -3.6064e-03, -4.4320e-02,  1.0755e-01, -5.2087e-02, -3.3315e-02,
         4.0232e-02,  6.8101e-02, -3.9781e-02,  3.9336e-02, -5.5938e-02,
         3.4449e-02,  4.8085e-02, -1.4401e-02,  3.1352e-02, -2.7880e-03,
        -1.4258e-02, -2.2711e-02, -4.5925e-02, -3.1941e-02,  5.4284e-02,
         3.8022e-02, -4.5003e-02, -6.5093e-03, -5.2614e-02,  3.0035e-02,
        -9.3014e-03,  5.7799e-02,  1.5395e-02, -3.2128e-02, -2.5907e-02,
        -2.4507e-02,  3.4403e-03, -3.4494e-02, -3.2121e-02, -1.5237e-02,
         3.0168e-02,  3.9935e-02, -6.9054e-02, -7.2175e-03, -2.2352e-02,
        -2.6580e-02,  7.2543e-03, -3.0300e-03,  8.6747e-03,  2.5300e-02,
        -1.7322e-02, -1.3719e-02, -2.4056e-02, -6.7381e-02,  2.0157e-02,
         3.8573e-02, -1.9327e-02, -2.2261e-02, -8.0081e-03,  4.1261e-02,
        -3.9949e-03, -1.5431e-02,  3.6155e-02,  1.0539e-01,  7.9718e-03,
        -4.5654e-02,  2.6268e-02,  5.4295e-03,  9.5892e-04, -3.2195e-02,
        -1.7060e-02, -1.3226e-02, -3.5816e-02,  4.9642e-02, -5.9439e-02,
        -2.3133e-02, -5.6069e-03, -3.3819e-02,  2.7046e-02, -6.9348e-02,
        -5.1625e-02,  1.4565e-02, -9.5834e-02, -2.1623e-02, -2.4298e-02,
         3.6690e-03,  3.5135e-02, -6.3058e-02, -9.4197e-03, -1.1203e-01,
        -2.6920e-02, -2.5403e-02, -8.1603e-02,  1.2195e-02, -3.0897e-02,
        -2.6029e-02, -3.8283e-02,  2.6940e-02,  3.5166e-02, -2.8255e-02,
         1.0084e-02, -8.9669e-03,  1.5917e-02,  1.3417e-02,  1.4505e-02,
         1.1544e-02,  6.4138e-02, -2.5676e-03,  4.2457e-02, -6.3439e-02,
        -2.1973e-02, -3.1222e-02,  1.8054e-02, -8.8391e-03, -4.8209e-02,
        -5.3812e-02, -3.6417e-02, -4.8665e-02, -4.4521e-02, -1.9078e-02,
        -3.5623e-02, -1.3592e-02, -3.0646e-02,  1.9826e-02,  2.8960e-02,
        -1.0926e-01, -6.4512e-02, -5.5069e-02, -3.2232e-02,  2.8106e-02,
         1.6109e-02,  5.4284e-03,  1.1046e-02, -1.7819e-02, -5.4307e-02,
        -2.8269e-02, -1.0644e-01,  1.7739e-02, -2.1428e-03, -1.4160e-02,
        -7.0334e-04, -1.9725e-02,  1.9701e-02, -1.6257e-03, -6.7422e-02,
        -3.9914e-02, -3.5201e-02, -3.2753e-02,  3.5177e-02, -3.4919e-02,
        -8.9884e-03, -2.2326e-02, -2.2747e-02,  2.6478e-02,  2.9902e-02,
        -2.4615e-03,  6.7289e-02,  2.3424e-02, -1.2164e-02,  4.3822e-03,
        -4.2811e-02,  1.9620e-02,  1.8568e-02,  4.3945e-03,  3.9922e-03,
        -3.0328e-02,  1.8761e-02,  5.2963e-02,  2.7025e-03, -9.9155e-03,
        -2.5768e-02, -1.9604e-02,  2.8358e-02, -1.4936e-02, -3.0014e-02,
        -1.8518e-02, -1.6847e-02,  8.8802e-03, -1.8589e-02, -4.6139e-03,
         9.2290e-03, -4.2640e-02, -6.2812e-02,  3.9799e-02,  6.1921e-02,
        -1.4596e-02,  2.8584e-02,  5.4715e-03, -4.5006e-02, -6.1623e-02,
         8.1885e-02, -4.0351e-02,  7.9892e-03,  1.5824e-02, -4.9013e-02,
        -5.0717e-02, -4.7360e-02,  3.0401e-02, -3.0957e-02,  1.4645e-02,
        -4.2152e-02,  1.6722e-02, -5.3220e-02, -1.8398e-02,  6.2629e-02,
        -4.9686e-02, -1.6244e-02, -8.2457e-02,  7.7030e-03, -1.1924e-02,
        -7.1545e-03, -7.0241e-03,  9.1022e-02, -2.1997e-02, -6.0392e-02,
        -5.8444e-02, -4.5989e-02, -3.7010e-02, -7.0782e-05,  2.6900e-02,
        -1.7617e-02, -7.9664e-03, -1.8166e-03,  3.3320e-02,  5.3202e-02,
        -1.4380e-02, -6.7252e-02,  5.9640e-02, -2.5535e-02, -4.7956e-03,
        -3.1088e-02, -3.0576e-02, -3.3368e-02, -3.2880e-02, -8.5547e-02,
         3.1717e-02,  1.5979e-02, -4.5365e-02,  3.3019e-02, -5.6586e-03,
        -6.1857e-02,  7.8518e-03, -3.1848e-03, -3.4338e-02, -2.1507e-02,
        -2.2772e-02, -8.9398e-03, -9.5848e-03, -2.2166e-02, -5.1633e-02,
        -1.8434e-02, -1.7704e-03,  4.2659e-02,  2.5750e-02, -6.5825e-02,
        -6.6169e-02, -7.2990e-02, -1.1794e-02, -1.0318e-02, -6.9825e-02,
        -3.9698e-02, -5.9485e-02,  3.3160e-02, -6.0034e-02, -2.8012e-02,
         8.1865e-02,  1.0386e-03, -6.0316e-02,  1.9117e-02, -7.1945e-03,
         2.9246e-03, -4.9946e-02,  9.4114e-04,  4.6820e-02, -1.7597e-02,
        -3.4872e-02,  8.4339e-03,  6.8058e-02, -4.2733e-02, -4.4997e-02,
         4.3678e-02, -3.5983e-02,  1.7412e-02, -9.4185e-02, -1.2157e-02,
        -6.5529e-02, -5.7537e-02, -1.6016e-02, -1.0087e-03, -1.0760e-01,
        -1.8215e-02,  2.1731e-02, -9.8703e-02, -5.5299e-02,  1.9819e-02,
        -7.1306e-03, -3.0632e-02, -6.3593e-03, -7.1805e-04,  1.5484e-02,
        -1.6330e-02,  2.8778e-02, -1.4673e-02, -9.0518e-03, -1.5290e-02,
         5.5933e-02,  1.0685e-01, -4.3027e-02, -3.0234e-02, -1.1687e-02,
         2.7679e-02, -8.5956e-02,  3.6959e-02, -2.2900e-02,  1.5643e-02,
         5.0943e-02,  1.8501e-03,  7.1511e-03,  5.0573e-03,  1.1640e-02,
         6.7448e-02, -1.7943e-02, -1.9367e-02,  6.3748e-03, -2.0559e-02,
        -1.5351e-02,  2.9133e-02, -3.2991e-02,  4.9679e-03, -1.2495e-03,
        -3.7492e-02,  1.9538e-02, -6.5731e-02, -3.9617e-02, -3.9503e-02,
         3.1925e-02, -2.4171e-02, -1.1885e-02, -6.5903e-03,  3.1967e-02,
         2.3483e-02,  4.7849e-02,  1.7607e-02,  5.1961e-03, -2.7568e-03,
         5.7226e-02, -3.2041e-02, -2.1766e-02, -3.1486e-02,  6.4710e-02,
         1.5614e-02,  7.4557e-02, -2.7420e-02, -1.8565e-02, -2.1752e-02,
        -1.0099e-02,  1.3033e-02,  4.6523e-02,  2.8583e-02, -3.8375e-02,
         3.0564e-03,  4.9410e-03,  7.3285e-02, -3.4024e-02, -5.1263e-02,
        -4.0628e-02, -3.2452e-02, -2.1069e-02, -1.4360e-02,  3.8469e-02,
        -1.9730e-02, -6.3727e-02, -5.2876e-02,  7.9067e-03, -6.7912e-02,
         4.0017e-02, -5.6873e-02,  1.9122e-03, -4.6041e-02,  5.4871e-02,
        -2.6093e-02, -1.8118e-02,  5.2149e-02,  1.8158e-02, -5.2132e-02,
        -1.2634e-02, -3.2961e-02, -7.7530e-02,  3.6676e-02, -1.5297e-02,
        -1.4290e-02, -3.2522e-02,  5.6141e-02, -4.7998e-02, -1.7577e-02,
        -4.3711e-02, -1.5106e-02, -2.2122e-02, -8.0118e-02,  1.5286e-02,
        -2.4854e-02,  5.0493e-02, -1.2749e-02,  9.5105e-03, -2.6271e-02,
        -5.2741e-03, -2.8797e-02,  2.6531e-02,  1.5636e-02, -3.0154e-02,
         2.3566e-02, -3.5101e-02,  3.2233e-02,  9.7488e-03, -6.3397e-02,
         2.5622e-02,  9.6272e-03, -4.5694e-03, -5.2438e-02, -5.7714e-02,
         7.1965e-02,  2.3803e-02, -1.7874e-02, -2.1816e-02,  2.2172e-02,
         1.3637e-02,  4.0661e-02,  2.4931e-02,  5.6646e-02, -1.3814e-02,
        -8.3310e-02, -4.0594e-02, -4.5288e-02, -1.1374e-02,  5.0183e-03,
        -4.4936e-02, -6.0949e-02,  2.1074e-02, -3.4432e-03, -1.1070e-02,
         2.5353e-02, -1.9850e-02, -2.8174e-02,  2.9476e-02, -5.4046e-02,
        -7.9626e-02, -4.9240e-02, -6.5198e-04,  1.2296e-02, -4.8969e-03,
         2.7868e-02,  5.3032e-03, -3.2134e-03, -4.3060e-02, -4.3721e-02,
         1.5888e-03, -5.0764e-02,  3.9158e-02, -4.2112e-02,  3.9407e-02,
         3.3739e-02, -4.6391e-02, -4.2738e-02, -9.3711e-04, -2.6350e-02,
         3.4909e-02,  1.6104e-02, -3.9320e-02, -1.4677e-02, -3.0780e-03,
         4.9131e-02, -9.5803e-03])
net.mlp.net.2.batch_norm.running_mean tensor([0.3888, 0.2668, 0.4500, 0.2924, 0.4069, 0.4234, 0.6458, 0.3168, 0.3302,
        0.3937, 0.3512, 0.4107, 0.4466, 0.2652, 0.2854, 0.4235, 0.5160, 0.4167,
        0.5187, 0.5446, 0.3582, 0.3596, 0.3894, 0.4392, 0.4734, 0.5157, 0.4816,
        0.2369, 0.2884, 0.5662, 0.2358, 0.4137, 0.2840, 0.5260, 0.4222, 0.3817,
        0.3880, 0.4130, 0.5171, 0.3779, 0.3370, 0.3321, 0.4258, 0.4479, 0.3578,
        0.4008, 0.1769, 0.2291, 0.4176, 0.2864, 0.3462, 0.2890, 0.3791, 0.4317,
        0.3808, 0.4395, 0.5065, 0.3445, 0.2305, 0.4793, 0.3484, 0.2091, 0.4814,
        0.3811, 0.5695, 0.3886, 0.3582, 0.2858, 0.5042, 0.4610, 0.3230, 0.3965,
        0.8294, 0.7196, 0.3483, 0.3276, 0.4745, 0.4880, 0.4070, 0.4656, 0.3935,
        0.4725, 0.5963, 0.3404, 0.2250, 0.3304, 0.2923, 0.3105, 0.1630, 0.3183,
        0.2877, 0.4428, 0.3155, 0.3338, 0.4159, 0.2731, 0.3137, 0.5422, 0.5008,
        0.3747, 0.4248, 0.5293, 0.4172, 0.3861, 0.3287, 0.6110, 0.5940, 0.3090,
        0.2565, 0.5307, 0.2161, 0.4164, 0.3526, 0.3512, 0.3507, 0.2565, 0.3038,
        0.6218, 0.3634, 0.3357, 0.4005, 0.2424, 0.5602, 0.3202, 0.3282, 0.2645,
        0.4946, 0.5315, 0.3184, 0.3250, 0.4945, 0.2689, 0.2750, 0.4597, 0.7323,
        0.5139, 0.4511, 0.4180, 0.4981, 0.2757, 0.5445, 0.3257, 0.4843, 0.4301,
        0.2732, 0.7862, 0.4179, 0.4418, 0.3665, 0.2877, 0.3372, 0.3518, 0.3805,
        0.2744, 0.4486, 0.4771, 0.2123, 0.4415, 0.3462, 0.2228, 0.4333, 0.3622,
        0.4015, 0.2112, 0.4792, 0.3172, 0.3750, 0.2137, 0.4170, 0.5538, 0.1985,
        0.7416, 0.4833, 0.3364, 0.4276, 0.2847, 0.4803, 0.5053, 0.2248, 0.3932,
        0.5885, 0.3061, 0.2295, 0.5806, 0.5274, 0.4476, 0.4811, 0.4325, 0.4132,
        0.4357, 0.3523, 0.4087, 0.4300, 0.4060, 0.3788, 0.3556, 0.5405, 0.4466,
        0.3401, 0.3337, 0.6035, 0.2607, 0.3429, 0.2827, 0.2315, 0.4994, 0.4427,
        0.3899, 0.5555, 0.3476, 0.3792, 0.3227, 0.2119, 0.4676, 0.3499, 0.2493,
        0.3254, 0.3273, 0.2857, 0.3063, 0.2433, 0.3670, 0.3698, 0.3014, 0.4303,
        0.5393, 0.3038, 0.5390, 0.2809, 0.2774, 0.3248, 0.2092, 0.3853, 0.3404,
        0.3135, 0.3760, 0.3907, 0.2295, 0.2636, 0.5200, 0.5553, 0.2076, 0.3798,
        0.6228, 0.3581, 0.4196, 0.3338, 0.4767, 0.2705, 0.4815, 0.4159, 0.3433,
        0.6610, 0.3447, 0.3334, 0.6440, 0.3403, 0.5097, 0.4165, 0.5188, 0.3529,
        0.3235, 0.2800, 0.4705, 0.3138, 0.5272, 0.2827, 0.5062, 0.3918, 0.3911,
        0.2552, 0.2817, 0.5035, 0.5529, 0.5262, 0.3738, 0.4538, 0.3250, 0.3140,
        0.6150, 0.5730, 0.3618, 0.4748, 0.3640, 0.3931, 0.3942, 0.4454, 0.5011,
        0.4521, 0.4425, 0.4843, 0.2911, 0.3578, 0.3564, 0.5256, 0.3072, 0.5479,
        0.3893, 0.3558, 0.3326, 0.5151, 0.4800, 0.3510, 0.3521, 0.2918, 0.2892,
        0.4597, 0.5618, 0.5229, 0.5834, 0.2758, 0.4464, 0.4876, 0.3770, 0.4442,
        0.4938, 0.2861, 0.3876, 0.3169, 0.3060, 0.3773, 0.3281, 0.2151, 0.6661,
        0.3573, 0.6571, 0.3295, 0.3044, 0.4530, 0.5288, 0.2853, 0.4630, 0.4870,
        0.4704, 0.2286, 0.4155, 0.5058, 0.2724, 0.3064, 0.3288, 0.4417, 0.4299,
        0.5065, 0.5300, 0.2761, 0.5210, 0.3896, 0.3418, 0.5002, 0.4189, 0.2650,
        0.4634, 0.4884, 0.3643, 0.3384, 0.4008, 0.5883, 0.3824, 0.4567, 0.4185,
        0.4231, 0.3053, 0.4722, 0.3771, 0.4091, 0.2962, 0.4255, 0.4443, 0.3122,
        0.3034, 0.5878, 0.4318, 0.2496, 0.3323, 0.4720, 0.5077, 0.3382, 0.3453,
        0.3809, 0.5263, 0.4059, 0.5824, 0.3202, 0.2816, 0.4828, 0.4989, 0.2180,
        0.3188, 0.5444, 0.4605, 0.2748, 0.4699, 0.4505, 0.3513, 0.4533, 0.4108,
        0.3599, 0.4883, 0.4056, 0.3056, 0.3311, 0.6064, 0.2147, 0.2548, 0.5453,
        0.4455, 0.4152, 0.3658, 0.3255, 0.3848, 0.2944, 0.6249, 0.2465, 0.4077,
        0.6048, 0.4128, 0.4429, 0.2539, 0.5341, 0.3509, 0.4042, 0.4132, 0.6308,
        0.3286, 0.5181, 0.3765, 0.2632, 0.4429, 0.4308, 0.2081, 0.3438, 0.3619,
        0.5223, 0.2196, 0.4251, 0.5314, 0.4254, 0.5308, 0.2602, 0.5278, 0.3763,
        0.4101, 0.3198, 0.2930, 0.2419, 0.3550, 0.4170, 0.4303, 0.4210, 0.4923,
        0.6188, 0.3088, 0.3934, 0.3717, 0.5124, 0.3790, 0.4865, 0.4206, 0.3738,
        0.4472, 0.4862, 0.4333, 0.3883, 0.3758, 0.5605, 0.3733, 0.3611, 0.2972,
        0.4004, 0.5584, 0.5116, 0.5060, 0.4672, 0.7006, 0.2337, 0.2815, 0.4098,
        0.6025, 0.3317, 0.4849, 0.3292, 0.3667, 0.4933, 0.2802, 0.5692, 0.4516,
        0.2685, 0.2414, 0.5204, 0.3855, 0.3683, 0.4155, 0.3927, 0.2414, 0.3182,
        0.2929, 0.3897, 0.4917, 0.2550, 0.3732, 0.4488, 0.4038, 0.3318, 0.3506,
        0.3060, 0.3914, 0.4410, 0.4110, 0.3208, 0.3236, 0.3037, 0.1901])
net.mlp.net.2.batch_norm.running_var tensor([0.2116, 0.5894, 0.3955, 0.1472, 0.4270, 0.3056, 0.7972, 0.1827, 0.3264,
        0.5403, 0.8958, 0.9839, 0.3165, 0.2015, 0.6526, 0.7430, 0.5166, 0.2274,
        0.5074, 0.4937, 0.7440, 1.3480, 0.3532, 0.4694, 1.1951, 0.6202, 0.7458,
        0.1266, 0.1583, 0.6052, 0.3685, 0.5220, 0.4315, 0.4126, 0.4238, 0.3119,
        0.7481, 0.3074, 1.4935, 1.1496, 0.3569, 0.4432, 0.9405, 1.2685, 0.7538,
        0.7585, 0.2699, 0.4419, 0.4145, 0.7281, 0.2408, 0.3289, 0.9225, 0.7229,
        0.3846, 0.5352, 0.6855, 0.4456, 0.3216, 0.6592, 0.3547, 0.1642, 0.3813,
        0.7895, 1.2136, 0.8848, 0.7956, 0.2364, 0.6577, 0.6094, 0.5224, 0.4949,
        1.5308, 0.9914, 0.3406, 0.7539, 1.4929, 0.5281, 0.4019, 1.7962, 0.3349,
        0.4535, 0.6784, 0.2431, 0.1438, 0.6433, 0.1917, 0.2630, 0.0661, 0.6584,
        0.2423, 0.5307, 0.2016, 0.4856, 0.4694, 0.1727, 0.2634, 0.6917, 0.3520,
        0.4362, 0.2795, 1.2483, 0.7438, 0.3449, 0.5098, 1.2277, 0.8889, 0.3119,
        0.1950, 0.7569, 0.1153, 0.6337, 0.7891, 0.8891, 0.5802, 0.0982, 0.6575,
        1.1718, 0.8741, 0.3136, 0.2529, 0.5507, 0.7817, 0.2518, 0.6007, 0.3893,
        0.5745, 0.8318, 0.2922, 0.9517, 0.6028, 0.4837, 0.2363, 0.8047, 0.7834,
        0.8248, 0.5576, 0.5188, 0.7407, 0.1753, 0.7406, 0.3319, 0.6843, 0.5114,
        0.2004, 1.3339, 1.1466, 0.2996, 0.1826, 0.3421, 0.3489, 0.3634, 0.9851,
        0.1256, 0.6448, 0.5567, 0.4285, 0.3620, 1.2258, 0.4101, 0.4505, 0.4250,
        0.6262, 0.1169, 1.0618, 0.3537, 0.3447, 0.1777, 0.3556, 1.4607, 0.2371,
        1.8855, 0.6224, 0.4083, 0.7049, 0.3144, 2.1570, 0.6046, 0.4122, 0.8735,
        0.8054, 0.3937, 0.3529, 1.1725, 1.2331, 0.3297, 0.4148, 0.4318, 0.3791,
        0.9939, 0.3754, 1.3887, 0.4603, 0.4272, 1.1914, 0.7319, 0.8378, 0.4504,
        0.4262, 0.5569, 0.9597, 0.4347, 0.1410, 0.6235, 0.1579, 0.7519, 0.5286,
        0.3725, 2.0950, 0.8658, 1.6318, 0.2183, 0.2150, 0.8494, 0.6143, 0.3320,
        0.6349, 0.1430, 0.1840, 0.9258, 0.1935, 0.3408, 0.6179, 0.1530, 1.5840,
        0.4650, 0.2865, 0.4586, 0.6491, 0.4439, 0.6502, 0.3389, 0.3291, 0.5573,
        0.6321, 0.7882, 0.5209, 0.3692, 0.4564, 1.3436, 0.8352, 0.2770, 1.0730,
        1.1079, 0.4256, 0.4773, 0.5384, 0.6901, 0.3313, 0.3073, 0.5801, 0.2494,
        2.1265, 0.6000, 0.6952, 1.4685, 0.3751, 0.3638, 0.2307, 1.1680, 0.2918,
        1.0456, 0.1938, 1.4252, 0.5727, 0.3442, 0.1306, 0.7086, 0.3836, 0.7496,
        0.1077, 0.5866, 0.3871, 0.4532, 0.9027, 0.2191, 0.6048, 0.3606, 0.6236,
        0.6740, 0.9889, 0.2631, 0.4840, 0.3585, 0.4480, 0.5391, 0.3907, 1.5132,
        0.5294, 0.4318, 0.5417, 0.8040, 0.1749, 0.3342, 0.3593, 0.3781, 0.9557,
        0.2166, 0.2148, 0.6879, 0.4854, 0.6582, 0.3515, 0.1745, 0.2017, 0.7671,
        0.5817, 0.9216, 0.4801, 0.7991, 0.0706, 0.5648, 0.7281, 0.3608, 0.4342,
        1.6002, 0.6921, 0.1543, 0.3142, 0.1949, 0.3644, 0.3267, 0.1752, 1.2177,
        0.3167, 1.1718, 0.1569, 0.3117, 0.4592, 0.5633, 0.2711, 0.5945, 0.7334,
        0.6814, 0.3032, 0.3354, 0.5491, 0.2402, 0.6306, 0.4773, 0.2801, 0.2227,
        1.4970, 1.5358, 0.3210, 0.8823, 0.8608, 0.1816, 0.4058, 1.1433, 0.2455,
        0.8709, 0.5276, 0.2548, 0.7355, 1.2023, 0.7073, 0.3791, 0.4781, 1.1544,
        1.2182, 0.7768, 0.6410, 0.2007, 0.9619, 0.1834, 0.4395, 0.2902, 0.5506,
        0.2287, 1.0921, 0.4613, 0.1110, 0.4003, 0.6323, 0.7125, 1.0336, 1.1594,
        0.8046, 1.4804, 0.4755, 0.6694, 0.8269, 0.2799, 0.8815, 0.4349, 0.1307,
        0.5072, 0.8429, 0.4301, 0.3615, 0.6860, 0.9753, 0.4079, 0.6193, 0.4541,
        0.5593, 0.3327, 0.5231, 0.3307, 0.5537, 0.8740, 0.1565, 0.2163, 1.7268,
        0.4423, 0.5054, 0.3256, 0.2829, 0.4062, 0.2206, 1.0388, 0.2031, 0.9451,
        0.7240, 1.1184, 1.6812, 0.1681, 0.6560, 0.8108, 0.2644, 0.8413, 0.9833,
        0.3448, 0.4861, 0.3907, 0.5867, 0.4049, 0.5109, 0.2124, 0.2073, 0.7583,
        0.7274, 0.3739, 0.3591, 0.8304, 0.5911, 0.8122, 0.3734, 0.5191, 1.3849,
        0.2444, 0.7674, 0.9886, 0.5809, 0.2998, 1.0781, 0.5259, 0.5041, 0.5398,
        1.1221, 0.7777, 0.1844, 0.3912, 0.4619, 0.6186, 0.4556, 0.2592, 0.3594,
        0.2969, 0.7542, 0.3196, 0.2403, 0.5108, 0.8610, 0.3890, 0.8011, 0.4134,
        0.3899, 0.9125, 0.6959, 0.6862, 1.5789, 1.2810, 0.1434, 0.3784, 0.2844,
        1.0090, 0.3424, 0.6793, 0.4778, 0.7843, 0.6476, 0.5017, 0.8984, 1.2166,
        0.7202, 0.2015, 2.0045, 1.5072, 0.3201, 0.4429, 0.8981, 0.6170, 0.9425,
        0.4817, 0.8231, 1.0817, 0.2018, 1.0140, 0.3340, 0.4145, 0.8951, 0.2173,
        0.7556, 0.6632, 0.5578, 0.4718, 0.6353, 0.3206, 0.8660, 0.2326])
net.mlp.net.2.batch_norm.num_batches_tracked tensor(152)
net.mlp.net.3.linear.weight tensor([[-0.0356,  0.0164, -0.0088,  ...,  0.0421,  0.0224,  0.0426],
        [-0.0806, -0.0460, -0.0233,  ...,  0.0251, -0.0074,  0.0667],
        [-0.0895,  0.0099,  0.0075,  ...,  0.0416,  0.0104, -0.0578],
        ...,
        [ 0.0340, -0.0217, -0.0007,  ..., -0.0111, -0.0003,  0.0023],
        [-0.0138,  0.0616,  0.0314,  ..., -0.0199,  0.0138,  0.0173],
        [ 0.0090, -0.0433,  0.0257,  ..., -0.0208,  0.0276, -0.0203]])
net.mlp.net.3.linear.bias tensor([ 3.6106e-03,  5.0990e-03, -8.5428e-03,  1.8964e-02, -2.8254e-02,
        -3.9508e-02, -5.4768e-03, -7.4896e-03, -2.9363e-02, -4.6369e-02,
         1.9979e-02, -1.2033e-02, -2.8621e-02,  8.2432e-02, -3.4686e-03,
        -6.4308e-02, -5.1344e-03, -8.6688e-03,  3.8344e-02, -4.3778e-03,
         1.1243e-02, -3.7869e-02, -1.5354e-02, -4.5499e-03, -6.3888e-02,
         2.6880e-04, -3.8814e-02,  4.2543e-03,  1.3296e-02,  6.7743e-02,
        -3.1924e-02, -1.0526e-02,  6.1320e-02,  1.1338e-02,  3.2382e-02,
        -4.8768e-02, -3.1264e-02, -3.7042e-02,  4.3406e-03,  6.1341e-02,
        -2.5022e-02,  1.5244e-02,  5.8350e-02, -4.1861e-02,  1.3895e-03,
        -1.2584e-02, -1.4341e-02,  1.8951e-03, -3.7170e-02, -8.5463e-03,
         1.7556e-02, -2.9353e-02, -2.9915e-02,  7.4683e-02, -9.7392e-03,
         1.1636e-02,  1.3812e-02, -2.0647e-02,  9.4785e-03, -4.1658e-02,
        -3.6173e-02, -4.6315e-03, -2.6669e-02,  5.4942e-02, -1.9665e-02,
        -3.8509e-02, -1.7899e-02,  1.3528e-02,  2.8500e-02,  4.6332e-02,
        -1.0462e-01, -4.4222e-02,  6.0521e-03,  3.8686e-02,  2.9313e-02,
        -4.8126e-02, -9.3868e-02,  3.4514e-02, -3.3853e-02,  4.6963e-03,
        -8.5967e-03,  4.0598e-02,  6.9511e-02,  9.2298e-03, -4.3215e-02,
        -8.2692e-02, -2.2295e-02, -3.5689e-02, -2.5420e-03, -9.3260e-03,
         3.3140e-02, -1.8231e-02, -7.6253e-03, -1.0202e-02,  6.5442e-02,
        -3.8084e-02,  5.0944e-02, -1.6639e-02,  2.1299e-03, -6.0064e-02,
        -3.0650e-02, -5.0703e-02, -5.5497e-02, -6.9853e-03,  3.2913e-02,
        -3.0957e-02, -2.4412e-03,  1.6787e-03,  4.9927e-03,  1.5320e-02,
        -1.8073e-02, -8.1954e-03, -3.3976e-02, -2.3222e-02, -5.4584e-02,
        -2.3895e-02, -5.9050e-02, -1.7894e-04,  1.6335e-02, -2.8546e-02,
        -3.5058e-02, -1.8322e-02, -1.1227e-02, -3.2084e-02,  2.1696e-02,
        -2.6297e-02,  3.5849e-02,  4.5614e-02, -2.1608e-02, -3.0512e-02,
        -3.8691e-02, -3.1859e-02,  5.6705e-02, -2.9761e-02,  2.0704e-02,
         9.8143e-03,  1.4327e-03, -8.8301e-02,  9.5263e-02, -5.8199e-02,
        -4.0267e-02,  3.2954e-02, -3.8018e-02, -2.9785e-03, -6.6497e-02,
         1.4912e-02, -1.4393e-02, -8.7910e-03,  1.9343e-02,  4.4200e-02,
        -4.6109e-02,  8.4615e-02, -3.1477e-02, -3.6338e-02, -1.8256e-03,
        -2.8778e-02, -1.7721e-03,  2.7153e-02, -1.6324e-03,  1.4310e-02,
        -1.8491e-03, -3.1247e-02, -3.4399e-02, -1.6596e-02, -8.1503e-02,
         1.7268e-02, -8.8111e-03, -4.4379e-03, -4.7168e-02, -2.0985e-02,
         1.7325e-02, -3.1466e-02, -5.5138e-02, -6.0799e-02, -1.3710e-02,
        -4.3945e-02, -5.4997e-02,  2.5421e-02, -5.5312e-02, -3.0772e-02,
        -3.1125e-02, -2.9256e-02,  8.2054e-03,  4.1910e-03,  5.4054e-02,
        -1.8491e-02,  5.0455e-02,  4.2433e-03,  1.1074e-02, -2.7880e-02,
        -6.1279e-02,  4.3456e-02, -1.9716e-02,  5.4854e-02, -6.2304e-02,
        -2.2448e-03,  1.1905e-02, -2.5956e-02,  7.6754e-02, -2.0451e-02,
        -3.6120e-02, -2.9774e-02, -5.6758e-02, -1.9317e-02, -3.5061e-02,
        -2.7184e-02,  2.8149e-02,  1.4429e-02, -1.8770e-02, -4.5593e-03,
         3.1637e-02, -1.3765e-02, -1.7394e-02, -2.4201e-02,  8.1985e-03,
         2.5719e-02, -6.3199e-03, -1.0025e-01, -4.7115e-02,  4.7617e-02,
        -3.0592e-02, -2.9592e-02, -6.0831e-03,  2.4839e-03, -1.1500e-02,
        -4.5098e-02, -7.1344e-02,  1.4611e-02,  8.7061e-03,  4.3440e-02,
         4.4892e-02,  3.7081e-02, -5.7776e-02, -7.9972e-02, -1.0583e-01,
         4.8072e-02,  4.5567e-02, -4.8190e-02, -3.4876e-03, -3.1547e-02,
         8.7702e-02, -5.1151e-02,  4.3928e-03,  4.6732e-02, -3.7398e-02,
         2.6214e-02, -9.3591e-03, -6.4305e-02, -1.5393e-02, -1.4420e-02,
        -1.9992e-02, -1.2383e-02, -4.1059e-03, -1.8252e-03,  2.2181e-03,
        -3.3319e-03, -3.2320e-02, -4.1243e-02, -4.3844e-02, -3.0449e-02,
        -4.7079e-02, -2.5197e-02, -3.0251e-02, -7.6191e-02,  3.1423e-03,
         6.1884e-02, -6.9909e-02,  2.6904e-02,  5.7288e-03,  7.9966e-02,
        -2.0414e-04,  2.8028e-02, -5.2885e-02,  1.2054e-02, -1.8788e-02,
        -1.5487e-01, -2.8464e-02, -4.3804e-03,  3.1812e-02,  5.5880e-03,
         1.5298e-02,  6.8136e-02, -1.0160e-02, -1.1907e-01, -1.5138e-02,
         8.3841e-04, -3.1857e-02,  3.4143e-02, -5.2007e-02,  5.3075e-02,
        -2.4038e-02, -8.2034e-02,  1.0532e-02, -3.8640e-02, -2.2400e-02,
        -2.1865e-02,  1.5007e-02,  3.0939e-02, -3.0381e-02, -3.2433e-02,
        -9.8062e-03, -4.8288e-03,  6.6075e-03,  5.0942e-02,  2.1176e-02,
        -3.4961e-02, -3.3545e-02,  5.0602e-03, -3.9079e-05, -5.0531e-02,
        -9.5758e-03, -6.8292e-02, -3.4282e-02,  2.6172e-02,  8.5264e-03,
         1.2875e-02, -5.1560e-03, -3.0689e-02, -5.0188e-02,  1.0520e-02,
        -4.0585e-02, -1.3506e-02, -2.0216e-02, -4.6084e-02, -3.8893e-03,
        -3.3008e-02, -8.4234e-03, -4.8494e-02, -2.9266e-03, -1.3259e-02,
         3.0492e-02, -3.0234e-02, -4.0364e-02,  3.0518e-03,  9.6849e-02,
        -2.1956e-02, -1.8661e-02,  7.4156e-03,  2.1859e-02, -8.8415e-02,
        -3.6405e-02,  9.3813e-03,  2.6760e-02, -1.8631e-02,  2.1100e-02,
         2.8756e-02, -5.3139e-02, -3.2845e-02,  1.3366e-02, -6.1145e-02,
        -9.0547e-03,  5.8905e-02,  3.3101e-02,  8.7667e-03,  4.2436e-03,
         7.7641e-03, -9.1783e-02, -1.4559e-02, -1.9322e-02,  4.1824e-02,
         1.3645e-02, -1.7615e-02, -1.2015e-02,  2.9430e-02, -4.5255e-03,
        -1.3438e-01, -3.2897e-03,  3.4689e-03, -1.0104e-02, -4.7985e-02,
        -3.5510e-02, -2.5509e-02, -2.9986e-02,  8.1250e-02,  2.6015e-02,
         4.2623e-02, -1.0779e-02,  1.5138e-02, -2.1781e-02,  1.5605e-02,
        -1.0356e-01, -8.8601e-02, -7.1810e-02, -2.8033e-02, -6.6038e-02,
        -1.1343e-02,  2.3859e-02, -2.2049e-02, -5.4157e-03, -8.6513e-02,
         1.6055e-02, -3.3225e-02, -6.0886e-02,  4.6052e-02, -1.0173e-02,
        -1.0896e-02, -1.1650e-02,  1.8809e-03, -5.5622e-02, -7.3580e-02,
        -5.3457e-02,  4.0240e-02,  2.6086e-02, -3.0426e-02, -2.7967e-02,
         2.5134e-02, -4.4339e-02,  1.3031e-02, -3.2011e-02,  7.7315e-03,
        -4.3519e-02,  2.2444e-03, -2.9682e-02, -2.9013e-02, -4.2109e-02,
         1.0484e-02, -5.8269e-02, -6.5317e-03, -6.6845e-03,  3.1581e-02,
        -2.4359e-02, -3.1882e-03,  9.6208e-03, -3.2689e-02, -1.4257e-03,
        -5.1234e-02, -2.7813e-02,  3.0567e-02, -3.4570e-02,  1.3164e-02,
        -9.5084e-02, -4.4138e-02, -1.7739e-02, -9.4719e-02, -5.1331e-02,
         2.4213e-03,  6.2271e-02,  2.6108e-02, -3.7088e-02, -3.0816e-02,
        -2.8166e-02,  4.7854e-02, -1.4735e-02, -7.2771e-02,  6.8392e-02,
        -2.7469e-02, -1.1596e-02,  9.7570e-03, -1.2792e-02, -6.2063e-02,
        -3.0238e-02,  2.1314e-03,  1.0501e-02,  4.4114e-02, -1.6476e-02,
        -3.0113e-02, -5.4159e-02,  2.5722e-02,  5.0495e-02, -5.3433e-02,
         3.0759e-03,  1.7568e-02, -3.0331e-02,  2.5148e-03, -2.0613e-02,
         2.3458e-02, -2.7306e-02, -3.0800e-02,  7.6157e-03, -5.5857e-02,
         3.4051e-02, -8.3948e-02,  2.8189e-02, -3.8330e-02, -8.0435e-02,
        -2.0656e-02,  4.1638e-02, -1.8044e-02, -3.2090e-02,  2.0904e-03,
        -1.2695e-01, -7.2153e-02, -6.0960e-02,  3.1368e-02, -4.9040e-02,
        -3.9729e-02,  2.5123e-02, -3.4188e-03,  1.5826e-02, -2.2001e-02,
         3.2320e-02, -2.0686e-02, -3.0235e-02, -1.8895e-02, -1.4950e-02,
        -3.0299e-02,  7.3941e-02, -3.1238e-03, -3.3667e-02, -1.7475e-02,
        -4.8568e-02, -3.1742e-02,  7.1412e-02,  2.9776e-03,  3.1489e-02,
        -7.4720e-03, -8.2670e-03, -6.3140e-02, -4.8463e-02,  1.3807e-02,
        -2.5179e-02, -3.0459e-02])
net.mlp.net.3.batch_norm.weight tensor([0.2802, 0.2726, 0.3162, 0.2870, 0.3341, 0.2450, 0.2271, 0.3204, 0.2771,
        0.2468, 0.3009, 0.2775, 0.2946, 0.2768, 0.2840, 0.3095, 0.2465, 0.3591,
        0.2867, 0.2674, 0.3073, 0.3298, 0.2287, 0.3259, 0.3090, 0.2902, 0.2798,
        0.2860, 0.3172, 0.3011, 0.3175, 0.2516, 0.2598, 0.2865, 0.3138, 0.3171,
        0.2906, 0.2157, 0.3190, 0.2749, 0.2514, 0.2304, 0.3185, 0.2815, 0.2698,
        0.3302, 0.2697, 0.2918, 0.2543, 0.3346, 0.3110, 0.2911, 0.3450, 0.3063,
        0.3128, 0.3311, 0.3024, 0.3327, 0.3528, 0.2954, 0.2607, 0.2792, 0.2526,
        0.3023, 0.2904, 0.3237, 0.3039, 0.3406, 0.2614, 0.2577, 0.2965, 0.2713,
        0.3273, 0.2811, 0.3507, 0.3272, 0.2781, 0.2705, 0.3178, 0.2924, 0.2928,
        0.2812, 0.3679, 0.3245, 0.2943, 0.3832, 0.2896, 0.3307, 0.2864, 0.3045,
        0.3071, 0.3191, 0.2833, 0.2913, 0.2874, 0.3219, 0.3624, 0.2800, 0.2422,
        0.3238, 0.2814, 0.2422, 0.2715, 0.3387, 0.2861, 0.2988, 0.3384, 0.2930,
