Weights: 
net.embeddings.embeddings.0.weight tensor([[ 0.1236, -0.1331],
        [ 0.0711, -0.1681],
        [-0.0376, -0.0568],
        [ 0.1677, -0.0060]])
net.embeddings.embeddings.1.weight tensor([[ 0.1191,  0.0859],
        [ 0.0356,  0.1162],
        [-0.1009, -0.0266],
        [-0.0577, -0.0406],
        [-0.1126,  0.0124]])
net.embeddings.embeddings.2.weight tensor([[ 0.0533, -0.0366,  0.0543],
        [-0.0189, -0.0777,  0.0366],
        [ 0.0869,  0.0381,  0.0465],
        [-0.1010, -0.0165,  0.1001],
        [ 0.0796,  0.0595, -0.0225],
        [-0.1019,  0.1111, -0.0335]])
net.embeddings.embeddings.3.weight tensor([[-0.0135, -0.0642],
        [-0.0571, -0.1782],
        [-0.0549,  0.0153],
        [ 0.2254,  0.1121]])
net.embeddings.embeddings.4.weight tensor([[-0.1294, -0.0727],
        [-0.2203, -0.0063],
        [ 0.1756,  0.0056],
        [-0.1000, -0.0453]])
net.mlp.net.0.linear.weight tensor([[ 0.0469, -0.0268, -0.1199,  ...,  0.0047,  0.1044,  0.1404],
        [-0.0265,  0.1030, -0.0239,  ..., -0.0791,  0.0371,  0.0227],
        [ 0.0499, -0.1271, -0.0662,  ..., -0.0225,  0.0513, -0.0342],
        ...,
        [ 0.0732, -0.0491,  0.0773,  ..., -0.1182,  0.0664,  0.0322],
        [ 0.1368, -0.0077,  0.0490,  ...,  0.0897, -0.0753, -0.0411],
        [ 0.0611, -0.1086,  0.0212,  ...,  0.0789, -0.0469,  0.0128]])
net.mlp.net.0.linear.bias tensor([-6.2572e-03, -6.1668e-03,  1.2907e-02,  1.5965e-02, -4.0787e-02,
        -1.1836e-02,  6.0291e-02, -4.5530e-04, -1.3127e-02, -5.7826e-02,
         2.9523e-02, -1.0650e-03,  3.4626e-02, -2.5900e-02,  1.8394e-02,
         3.2755e-02, -3.5329e-02,  3.2939e-02, -3.3339e-02, -1.9357e-02,
        -1.7240e-02,  4.4065e-02,  9.2691e-03,  8.4563e-04,  2.5160e-03,
         3.6809e-02,  2.4053e-02,  8.6752e-03, -3.5927e-02,  4.8688e-02,
        -1.0047e-02, -2.7516e-02,  1.5978e-02,  5.7087e-02, -8.5994e-03,
         3.6315e-02, -3.1591e-02, -1.5179e-02,  1.7184e-02,  1.5312e-02,
         2.2828e-02,  2.7917e-02,  3.8538e-02, -3.1257e-02,  1.8134e-03,
        -5.8086e-02, -3.7156e-02, -2.0376e-02,  1.2842e-02, -2.7521e-03,
        -5.9804e-02, -1.9054e-02, -2.7261e-02, -3.7589e-02, -6.2584e-02,
        -3.6726e-02, -5.1796e-03,  1.6238e-02,  2.6392e-02,  8.7022e-03,
         2.3934e-02,  3.8794e-06,  4.3830e-02,  7.7358e-03,  3.1926e-02,
        -4.5939e-02, -2.1884e-02,  3.1000e-02,  2.7715e-03, -1.6096e-02,
         2.8473e-02, -1.0195e-03,  5.4494e-02, -6.3595e-02, -1.4741e-02,
         3.4967e-02, -5.2689e-02, -7.0145e-02,  3.3210e-02, -1.0835e-02,
         1.0204e-02,  4.2240e-02, -2.3710e-02, -3.8694e-03, -4.8261e-02,
         3.2840e-02,  7.1556e-03,  4.3616e-03,  3.2335e-02, -5.8989e-02,
         1.7016e-02, -3.1136e-03, -1.0127e-03, -5.2565e-02,  3.9699e-02,
         1.9453e-02, -2.8633e-02, -3.2242e-02, -4.9150e-02, -1.0878e-02,
        -1.0606e-02,  1.3858e-02, -4.1564e-03, -2.4432e-02, -1.0631e-02,
        -6.8479e-03,  2.3650e-02,  3.8008e-02, -2.4708e-02,  3.7583e-02,
         3.5270e-02, -2.7960e-02,  7.1024e-04, -2.8590e-02, -3.1822e-02,
        -3.6103e-02, -5.4232e-02,  1.6225e-02,  8.6913e-04,  2.7554e-02,
        -1.1278e-02,  6.7382e-03,  8.2769e-03, -3.1722e-02, -3.9881e-02,
        -2.4933e-02, -2.6235e-02,  4.2459e-02,  4.1751e-02, -5.1475e-03,
         4.1343e-02, -2.8943e-02,  3.7780e-02, -2.3335e-02,  3.7115e-02,
        -1.4391e-02,  3.0836e-02,  4.3461e-02,  7.6830e-03, -1.1325e-02,
        -3.0275e-02,  3.5998e-04,  2.9526e-02, -1.5483e-02, -1.6162e-02,
        -1.3976e-02, -1.2673e-03, -3.7826e-02,  1.1887e-02, -3.6230e-02,
         3.3290e-02,  3.6993e-02,  4.0275e-02,  3.6572e-02, -1.6500e-02,
         3.0188e-02,  2.7535e-02, -5.9534e-02, -4.6233e-04,  2.9832e-03,
        -9.1371e-03, -4.2457e-02,  3.3835e-02,  1.3300e-02,  4.1663e-03,
        -9.0787e-03, -3.9381e-02, -4.3447e-02,  5.9240e-03,  2.3402e-02,
        -2.1949e-02,  1.5280e-02, -2.7037e-02, -3.5206e-02,  3.7055e-02,
        -1.8105e-03, -5.6642e-02, -2.2029e-02, -3.0292e-02, -2.7342e-02,
         1.2184e-02,  2.4793e-02,  2.6059e-02,  4.6389e-02,  2.2940e-02,
        -9.2350e-03,  3.9847e-02, -2.2615e-02, -5.2428e-02,  3.0447e-02,
        -1.2301e-02, -2.9603e-02,  3.0050e-03,  2.8143e-02, -1.5706e-02,
        -1.0360e-02, -9.7541e-03, -1.3932e-03, -2.8857e-02,  4.9432e-04,
         3.0151e-02, -5.2265e-02,  6.7135e-03, -2.3427e-02, -1.6595e-03,
         2.4234e-02, -7.8960e-03,  4.1165e-02, -1.3860e-02,  2.5478e-02,
        -2.7055e-02, -3.5329e-02, -1.8318e-02, -4.2783e-02,  1.0310e-02,
         1.5024e-02,  5.0765e-02,  1.6370e-02,  9.3211e-03, -4.9655e-03,
         1.6028e-02,  3.5185e-02,  2.4905e-02, -3.3697e-02, -6.1105e-02,
         4.1652e-02,  2.7101e-03, -1.8925e-02,  3.6718e-03, -3.2700e-02,
        -1.8481e-02, -3.7365e-02, -9.7600e-03, -6.1323e-02, -5.4080e-03,
         6.9527e-03,  1.4937e-02,  3.4915e-02,  1.6888e-02,  1.7436e-02,
        -1.9651e-02, -2.6441e-02, -2.3988e-03,  2.2986e-02,  4.8010e-02,
        -3.8943e-02,  5.0108e-02,  4.3637e-03, -2.2456e-02, -4.8350e-02,
        -5.3422e-02, -7.8527e-03,  3.0800e-03, -1.8288e-02, -2.1086e-04,
        -4.6592e-02,  4.8027e-02,  2.3524e-02, -4.4599e-02,  2.6550e-02,
         2.7967e-02,  4.7455e-02,  5.2395e-03,  3.2440e-02, -1.5343e-02,
        -4.3650e-02,  3.9501e-04, -1.0198e-02,  1.0177e-02,  1.7897e-02,
         1.9946e-02,  3.3829e-02,  2.2181e-02, -1.1931e-02, -1.7765e-02,
         3.8542e-02, -4.0098e-02, -2.3088e-02, -2.3902e-02,  3.9567e-02,
        -2.9138e-03,  1.9321e-02, -1.7678e-02,  3.8666e-02, -3.2561e-02,
         5.4405e-02,  3.9151e-03, -3.1214e-02, -3.7037e-02,  4.9513e-02,
        -2.9641e-02,  2.2494e-02,  3.3473e-03,  2.7993e-02, -4.8203e-02,
        -1.8938e-02,  2.2469e-02, -3.8285e-02,  2.0653e-02,  2.3034e-02,
         2.9847e-02,  4.0847e-03,  5.2048e-02, -2.1940e-02, -2.7406e-02,
         2.0382e-02, -2.5418e-02,  1.5905e-02,  3.0351e-02, -3.5206e-03,
        -3.1700e-02, -6.1627e-02,  1.7881e-02, -4.2189e-02,  1.4051e-02,
        -4.6185e-03, -1.6256e-02,  2.0633e-02,  2.7156e-02,  2.5480e-02,
         4.8369e-02,  2.3804e-03, -3.2337e-02, -2.3042e-02,  5.5175e-04,
         1.9555e-02, -4.6106e-02,  7.4701e-04, -2.8605e-02, -4.1507e-02,
         5.3073e-02, -2.3823e-02, -5.0312e-02, -1.7561e-02, -5.1391e-02,
         1.6139e-02, -1.5242e-02,  8.4654e-03, -2.0397e-02, -1.8211e-02,
        -5.3987e-03,  5.8367e-03,  1.2105e-02, -1.9544e-02, -1.1345e-02,
         2.9497e-02, -9.8475e-03,  4.3094e-03,  3.2151e-02, -1.2404e-03,
         3.3974e-02, -1.6429e-02, -2.2620e-02,  2.4977e-02, -3.4338e-02,
         3.0167e-02, -3.4761e-02, -1.6762e-03,  4.9245e-02,  2.6550e-02,
        -3.5296e-02, -3.8248e-02, -4.6385e-02, -1.4930e-02, -2.3923e-02,
         2.7379e-02,  3.3898e-02,  1.7045e-02, -5.5868e-02,  4.3438e-02,
         2.7472e-02,  3.2415e-03, -2.1569e-02, -3.2310e-02, -5.8604e-03,
         3.2102e-02, -1.1712e-02,  4.0605e-02,  9.0448e-03, -4.0606e-02,
        -1.9523e-02,  1.7686e-02, -3.1671e-02, -1.0597e-02,  4.9575e-02,
         6.7356e-03, -1.3248e-02,  1.0282e-02,  2.7362e-02, -1.0510e-02,
        -3.4860e-02,  9.7470e-03, -9.3134e-03, -1.7995e-03, -3.2272e-02,
        -1.3166e-03, -1.7770e-02, -7.4566e-03,  4.1597e-02, -1.8634e-02,
        -3.9516e-02,  2.2495e-02, -5.4352e-02, -3.4267e-02,  1.7994e-02,
        -8.9287e-03,  4.3664e-02,  2.1235e-02, -2.8656e-02,  3.7602e-03,
         1.1226e-02, -4.8630e-02,  1.4924e-03, -5.3739e-02,  1.9864e-03,
        -1.6377e-02,  2.5583e-02, -3.9732e-02,  2.8415e-03, -3.0445e-02,
         5.4639e-03,  2.8446e-02,  3.9653e-02, -1.3996e-02,  1.6006e-02,
         3.1768e-02,  1.4400e-02,  1.5225e-02,  4.8764e-03, -3.8694e-02,
        -4.6901e-02,  1.1824e-02,  2.2021e-04, -4.0022e-02, -4.9710e-02,
        -5.9293e-02, -4.1428e-02,  4.9186e-02, -4.9667e-02, -4.3915e-02,
         1.2945e-02,  4.5107e-02,  1.6677e-02, -8.5547e-03,  2.1157e-03,
        -3.4959e-02, -4.6929e-02,  4.0363e-02,  1.9570e-02, -1.6000e-02,
         4.4354e-03, -3.9612e-02, -3.4954e-02,  3.7046e-02, -1.4484e-02,
        -7.1294e-03,  3.1844e-02, -3.8282e-02,  2.6607e-02, -3.6870e-02,
        -3.7188e-02,  1.0417e-02,  4.3417e-02, -5.4780e-02, -4.7755e-02,
        -2.6977e-02, -6.5107e-03,  2.2950e-05, -1.8467e-02,  1.2998e-02,
        -9.6226e-03, -1.1012e-02, -9.6594e-04, -2.7601e-02, -1.2443e-02,
        -3.2707e-02,  2.6076e-02, -1.8811e-02,  2.9453e-03,  1.1398e-02,
         1.8092e-03,  3.3722e-02, -2.2751e-02,  3.1124e-02,  2.2885e-02,
         3.2439e-02, -3.2225e-03, -3.7255e-03, -4.1307e-02, -4.1040e-02,
         1.1753e-02, -6.4819e-02,  2.2172e-02,  2.7990e-02,  2.5805e-02,
        -7.3624e-04, -2.2865e-02, -2.3208e-02,  4.1293e-02,  8.8504e-03,
         3.8234e-02, -6.3855e-02,  4.4833e-02,  3.5523e-03, -1.0770e-02,
         3.4704e-02,  1.1487e-02, -2.3188e-02, -4.4998e-02,  2.3173e-02,
         4.7452e-02,  4.9045e-02])
net.mlp.net.0.batch_norm.weight tensor([0.2221, 0.1936, 0.2096, 0.2230, 0.2223, 0.2128, 0.2087, 0.2268, 0.2137,
        0.2221, 0.2103, 0.2207, 0.2134, 0.2429, 0.2156, 0.2382, 0.2101, 0.2329,
        0.2039, 0.2429, 0.2148, 0.2184, 0.2076, 0.2093, 0.2065, 0.2502, 0.2141,
        0.2306, 0.2477, 0.2212, 0.2226, 0.1915, 0.2254, 0.2226, 0.2248, 0.2254,
        0.2187, 0.2035, 0.2337, 0.2163, 0.2237, 0.2414, 0.2161, 0.2288, 0.2200,
        0.2205, 0.1927, 0.2207, 0.2475, 0.2495, 0.2063, 0.2371, 0.2127, 0.2138,
        0.2077, 0.2209, 0.2090, 0.2240, 0.2288, 0.2098, 0.2160, 0.2012, 0.2167,
        0.2229, 0.2015, 0.2146, 0.2259, 0.2031, 0.2106, 0.2318, 0.2205, 0.2052,
        0.2235, 0.2407, 0.2252, 0.2269, 0.2219, 0.2501, 0.2178, 0.2045, 0.2113,
        0.2217, 0.2149, 0.2150, 0.2225, 0.2003, 0.2168, 0.2121, 0.2417, 0.2266,
        0.2123, 0.2468, 0.2389, 0.2108, 0.2183, 0.2135, 0.2107, 0.2167, 0.2387,
        0.2114, 0.2152, 0.2122, 0.2179, 0.2250, 0.2166, 0.2426, 0.2017, 0.2101,
        0.2104, 0.2130, 0.2339, 0.2525, 0.1978, 0.2065, 0.2244, 0.1995, 0.2010,
        0.2264, 0.2113, 0.2268, 0.2457, 0.2117, 0.2184, 0.2029, 0.2193, 0.2203,
        0.1924, 0.2206, 0.2316, 0.2158, 0.2334, 0.2223, 0.2103, 0.2239, 0.2310,
        0.2267, 0.2080, 0.1952, 0.2055, 0.2109, 0.2109, 0.2034, 0.2059, 0.2213,
        0.2205, 0.2296, 0.2367, 0.2137, 0.2341, 0.2164, 0.2371, 0.2217, 0.2014,
        0.2086, 0.2073, 0.2270, 0.2307, 0.2019, 0.2141, 0.2001, 0.2081, 0.2098,
        0.2190, 0.1908, 0.2133, 0.2082, 0.2276, 0.2463, 0.2215, 0.2442, 0.2727,
        0.2175, 0.2171, 0.2327, 0.2286, 0.2310, 0.2447, 0.1877, 0.2335, 0.2239,
        0.2064, 0.2042, 0.2045, 0.2243, 0.2297, 0.2281, 0.2126, 0.2362, 0.2236,
        0.2338, 0.2148, 0.2003, 0.2202, 0.1880, 0.2247, 0.2094, 0.2183, 0.2083,
        0.1969, 0.1964, 0.2355, 0.2259, 0.2326, 0.2089, 0.2229, 0.2099, 0.2171,
        0.2336, 0.2363, 0.2332, 0.2135, 0.2064, 0.2163, 0.2218, 0.2071, 0.2331,
        0.2292, 0.2285, 0.2405, 0.2153, 0.2173, 0.2212, 0.2129, 0.2206, 0.2199,
        0.2031, 0.2258, 0.2377, 0.2237, 0.2258, 0.2445, 0.2013, 0.2276, 0.2204,
        0.2014, 0.2170, 0.2250, 0.2125, 0.2237, 0.2078, 0.2027, 0.2094, 0.2276,
        0.2200, 0.2204, 0.2055, 0.2083, 0.2215, 0.2157, 0.2179, 0.2218, 0.2093,
        0.2139, 0.2104, 0.2036, 0.1950, 0.2301, 0.2256, 0.2136, 0.2123, 0.2104,
        0.2167, 0.2301, 0.2130, 0.2199, 0.2401, 0.2120, 0.2076, 0.2188, 0.2274,
        0.2155, 0.2209, 0.2185, 0.2145, 0.2324, 0.2223, 0.2303, 0.2024, 0.2138,
        0.2188, 0.2169, 0.2089, 0.2289, 0.2170, 0.2186, 0.2107, 0.2191, 0.2083,
        0.2046, 0.2112, 0.2300, 0.2514, 0.2241, 0.2023, 0.2089, 0.2236, 0.2057,
        0.2770, 0.2082, 0.2132, 0.2286, 0.2286, 0.2268, 0.2409, 0.2236, 0.2210,
        0.2260, 0.2128, 0.2416, 0.2312, 0.2292, 0.2275, 0.2146, 0.2136, 0.2147,
        0.2097, 0.1971, 0.2327, 0.2115, 0.2154, 0.2117, 0.2233, 0.1933, 0.2398,
        0.2192, 0.2115, 0.2177, 0.2152, 0.2132, 0.2064, 0.2246, 0.2194, 0.2235,
        0.2162, 0.2162, 0.2189, 0.2091, 0.2075, 0.2190, 0.2312, 0.2225, 0.2132,
        0.2107, 0.2220, 0.2114, 0.2168, 0.2205, 0.2608, 0.2119, 0.2195, 0.2189,
        0.2086, 0.2325, 0.2146, 0.2230, 0.2028, 0.2289, 0.2201, 0.2192, 0.2476,
        0.1996, 0.2053, 0.1992, 0.2071, 0.2107, 0.2131, 0.2003, 0.2084, 0.2224,
        0.2016, 0.2164, 0.1957, 0.2246, 0.2159, 0.2375, 0.2293, 0.2017, 0.2240,
        0.1998, 0.2266, 0.2401, 0.2200, 0.2055, 0.2299, 0.2131, 0.2156, 0.2093,
        0.2042, 0.2344, 0.2395, 0.2089, 0.2135, 0.2156, 0.2156, 0.2022, 0.2241,
        0.2136, 0.2128, 0.2122, 0.2240, 0.2147, 0.2208, 0.2071, 0.2031, 0.2055,
        0.2257, 0.2152, 0.2236, 0.2556, 0.2081, 0.2222, 0.2168, 0.1968, 0.2043,
        0.2139, 0.2277, 0.2260, 0.2508, 0.2344, 0.2074, 0.2214, 0.2078, 0.2376,
        0.2161, 0.2207, 0.2131, 0.2070, 0.2230, 0.2139, 0.2012, 0.2238, 0.2436,
        0.2103, 0.2172, 0.2188, 0.2085, 0.2193, 0.2387, 0.2370, 0.2328, 0.2052,
        0.2263, 0.2254, 0.2162, 0.2294, 0.2154, 0.2227, 0.2170, 0.1940, 0.2195,
        0.2234, 0.2254, 0.2022, 0.2199, 0.2238, 0.2238, 0.2285, 0.2236, 0.2087,
        0.1991, 0.2474, 0.2255, 0.2196, 0.2394, 0.2324, 0.2301, 0.2061, 0.2132,
        0.2308, 0.2200, 0.2289, 0.2017, 0.2399, 0.2025, 0.1985, 0.2163, 0.2251,
        0.2111, 0.2082, 0.2074, 0.2142, 0.2269, 0.2143, 0.2018, 0.2302, 0.1949,
        0.2057, 0.2237, 0.2139, 0.2127, 0.2091, 0.2214, 0.2252, 0.2236, 0.2112,
        0.2198, 0.2108, 0.2227, 0.2036, 0.2084, 0.2285, 0.2063, 0.2127, 0.2264,
        0.2004, 0.2153, 0.2317, 0.2018, 0.2027, 0.2149, 0.2041, 0.2069])
net.mlp.net.0.batch_norm.bias tensor([ 5.5370e-03,  2.0994e-02,  7.8899e-05, -9.2163e-03, -1.7865e-02,
         1.5142e-02, -8.5195e-03, -3.7875e-03,  7.5675e-04,  1.5177e-02,
         1.6394e-02, -1.2959e-02, -5.2642e-03,  6.3247e-03,  1.9876e-03,
        -8.8844e-05, -4.8313e-03, -1.5524e-02,  1.3795e-02,  2.7044e-03,
         3.3818e-03,  3.0874e-03,  5.9319e-03, -1.2387e-03, -2.1592e-03,
        -1.2893e-02,  2.3032e-02,  9.7574e-04,  1.9573e-03, -5.0594e-03,
         2.9962e-03, -7.6883e-03,  1.2946e-02,  3.6679e-04,  4.0999e-04,
         2.4460e-02, -5.5243e-03, -6.2834e-04,  7.1520e-03, -5.9937e-03,
        -1.0661e-02, -2.1621e-02, -1.4832e-03,  3.7126e-03,  2.6524e-03,
         3.4909e-03,  5.4506e-04,  3.1810e-03,  2.4275e-02, -4.3956e-03,
         9.2615e-03,  1.5733e-03, -2.1479e-02,  8.6236e-03,  9.6349e-04,
         2.7118e-03, -2.6797e-03, -1.2362e-02, -7.5964e-03,  1.1182e-02,
        -5.8994e-04,  7.3960e-03, -9.3159e-03, -1.8264e-03,  4.3405e-03,
         1.7638e-03,  2.0006e-02, -8.0016e-03,  7.8911e-03, -1.6932e-03,
         1.0793e-02, -1.1605e-02, -2.8387e-03,  1.2400e-02, -1.1068e-02,
        -5.6359e-04, -1.2670e-02, -9.5287e-03, -8.1742e-03,  9.4968e-03,
        -4.3188e-03, -7.1333e-03, -1.4191e-02,  8.8506e-03,  3.3991e-03,
         4.8006e-04, -1.2502e-03, -3.7103e-03,  5.7390e-03, -4.8458e-03,
        -1.1095e-02, -1.4456e-03,  1.4472e-02, -1.2685e-02,  3.6451e-03,
        -2.1721e-02,  4.5399e-03,  1.0995e-02, -7.2900e-03,  1.3736e-03,
        -9.6925e-03,  5.6098e-03,  1.4409e-02, -1.5587e-02,  1.0725e-02,
         1.1040e-02,  2.6547e-03, -1.1332e-03,  2.4571e-03, -1.4012e-03,
         1.3701e-02, -4.5002e-03,  1.8457e-02, -2.9869e-03, -2.2653e-03,
         1.4281e-02, -1.3786e-02,  1.0857e-02, -2.0893e-03,  4.0225e-03,
         2.0342e-03,  3.0224e-04,  3.0344e-03,  3.8462e-03, -1.8016e-03,
         6.7342e-03,  1.8307e-03, -3.5942e-03, -1.3659e-02, -6.2880e-03,
        -4.6251e-03, -4.5007e-03,  1.1205e-02, -7.0708e-03, -2.1114e-04,
         4.8782e-03,  2.7451e-03,  1.5602e-03, -3.4008e-03,  1.6125e-02,
         8.8776e-03, -5.9611e-04, -7.5802e-03,  3.3731e-03,  1.1686e-02,
        -1.3019e-02, -2.6563e-04,  1.6166e-02, -2.6042e-02, -4.5982e-04,
        -5.2570e-03, -3.0119e-03, -1.8421e-02, -8.7133e-03,  5.3792e-03,
        -9.8352e-03, -1.0739e-02,  3.4634e-04, -7.9728e-03, -2.5223e-02,
        -1.5848e-02,  7.1375e-03, -9.9119e-03, -1.3985e-02, -6.9508e-03,
         4.6782e-03, -9.8832e-03,  1.1768e-02, -9.1709e-03, -1.1713e-02,
        -4.1845e-04,  8.2903e-03,  1.4279e-02,  6.9669e-03,  3.6606e-03,
        -9.3389e-03,  1.6287e-02, -1.0306e-03, -2.8596e-03,  1.4477e-02,
         5.8914e-03,  1.0159e-02, -9.7590e-03, -8.7057e-03,  1.9187e-03,
        -8.6561e-03,  5.6022e-03,  7.0155e-04,  1.4212e-02, -1.3844e-03,
         2.1965e-03, -3.3255e-03, -4.3235e-03,  7.4784e-03,  5.5279e-03,
        -3.7213e-03,  1.2561e-02,  2.2780e-03, -6.0293e-03, -5.2941e-03,
         1.7642e-02, -8.5601e-03,  5.6929e-03,  9.9205e-04,  3.0090e-04,
         1.8545e-03, -2.2663e-02,  7.6405e-03,  5.8138e-03,  4.9401e-03,
        -1.6619e-02, -9.8358e-03,  8.4633e-03, -4.3130e-03, -1.7479e-03,
        -2.2024e-03, -1.9491e-02,  9.3738e-03,  2.3093e-02, -6.3239e-03,
        -2.5939e-02, -8.9666e-03,  2.6430e-03, -1.5512e-02,  3.8135e-03,
         2.1341e-03,  6.8651e-04,  4.4639e-04,  2.5908e-03, -1.5101e-02,
        -2.2412e-02,  3.0085e-03,  1.5212e-03,  4.1438e-03, -1.3755e-02,
         1.2725e-02,  1.7111e-03,  1.6047e-02, -1.6770e-03, -8.0288e-03,
         3.0930e-04,  1.7767e-02,  1.2778e-02, -1.8127e-02,  2.9866e-03,
         2.5276e-03, -2.6968e-03,  5.9652e-03,  9.4376e-04,  1.1384e-03,
         4.7908e-03, -2.7717e-03,  1.9680e-03, -3.1297e-03, -7.7323e-04,
        -3.2525e-03, -2.1414e-02,  2.6077e-02,  1.5497e-03, -1.4295e-02,
        -7.7393e-03, -1.1692e-02,  8.1754e-03, -1.0460e-02, -3.2984e-03,
         7.4885e-03, -6.2628e-03,  1.5678e-02,  8.6663e-04, -2.2249e-03,
         2.5856e-03,  1.3182e-03,  1.2641e-02, -2.0732e-04, -1.4744e-02,
         1.4130e-02,  1.5549e-03,  5.6392e-03,  4.5989e-03, -1.8441e-02,
         1.3423e-02,  1.3671e-02,  1.3393e-02, -3.2964e-03, -3.3511e-03,
         2.2355e-03, -5.6967e-03,  3.6682e-03,  2.7954e-04,  7.9833e-03,
        -9.3793e-03,  1.7287e-02, -1.8279e-03,  9.1972e-03,  6.1310e-03,
        -7.7431e-03, -1.5187e-02, -1.5525e-03, -1.0310e-02,  5.9282e-03,
        -1.6294e-02, -4.5611e-03,  5.8450e-03,  6.2494e-03, -8.3393e-03,
         1.8656e-02,  2.0972e-03,  6.1579e-04, -1.9842e-02, -1.2084e-02,
         9.1769e-03,  1.8895e-03,  6.5346e-03,  3.9031e-03,  5.9823e-03,
        -1.3510e-02, -3.3719e-04, -1.3579e-03,  1.7977e-02,  3.5538e-03,
        -6.8766e-04, -2.6155e-03,  8.2505e-03,  7.3526e-03, -7.4607e-03,
        -5.5691e-03,  1.0809e-02,  1.1226e-02, -6.0285e-04, -1.4038e-02,
         8.7573e-03, -6.4020e-03, -1.8518e-03,  3.4536e-03, -2.6231e-02,
        -9.2358e-03, -8.7570e-03, -3.5342e-03, -6.1133e-05, -1.7421e-02,
        -5.0301e-03,  3.4765e-03, -3.4855e-02,  4.5980e-03,  9.1653e-03,
         1.3634e-02,  9.7758e-04,  1.3961e-02,  4.3918e-03,  1.4253e-04,
         1.5546e-04, -8.1200e-03,  8.6757e-03, -3.2276e-03, -8.4444e-03,
         7.7490e-03, -8.3376e-03,  3.7597e-03, -5.5850e-03, -2.3168e-03,
         1.1508e-02, -3.2460e-03,  6.1150e-03,  8.9696e-03, -8.0540e-03,
         4.9248e-04, -6.9884e-03,  1.1465e-02,  6.9171e-03,  1.0979e-03,
        -2.6549e-03, -1.0401e-02,  9.8165e-03, -6.0557e-03, -1.4502e-02,
         1.5221e-02,  4.7509e-03,  6.4948e-03,  1.8002e-02, -1.1480e-03,
         5.4244e-03,  2.1818e-03, -1.5886e-03,  7.6619e-03,  6.2768e-03,
        -3.6763e-03, -5.9274e-03,  4.2936e-03,  5.9414e-03, -5.6826e-04,
         3.9950e-03, -2.1908e-03,  9.8257e-04, -2.1259e-03, -1.7129e-02,
        -1.4576e-02,  5.7645e-04,  7.6695e-03, -7.5911e-03, -1.3147e-02,
        -6.1252e-03, -1.3071e-02,  5.6623e-03, -1.3242e-02, -7.0180e-03,
         1.5159e-02, -2.8548e-03, -7.3776e-03, -2.2514e-02, -9.3696e-03,
        -1.6817e-03, -1.8500e-03, -1.3227e-03,  2.8510e-03,  1.4905e-02,
         2.0439e-02, -1.8300e-02, -1.0639e-02,  5.4890e-04, -1.4379e-02,
        -1.2681e-03, -8.6452e-03,  3.5649e-03, -7.5345e-03,  6.3806e-03,
        -3.0791e-03,  8.5842e-03, -7.2819e-03,  7.5528e-03, -9.5131e-03,
        -3.3870e-03, -1.6889e-04, -4.2835e-03,  9.9761e-05, -5.8484e-03,
         5.2789e-03, -8.1414e-03, -6.0954e-03, -3.5089e-03,  1.1391e-02,
         6.9052e-03,  5.2304e-03, -4.5334e-03,  6.6948e-03,  1.6061e-02,
         1.1615e-02, -5.0599e-03, -1.1807e-02, -1.5041e-03,  7.8389e-03,
         8.6465e-03, -3.6124e-03,  1.3418e-02,  1.5621e-02, -1.6000e-03,
        -4.6588e-05, -3.6473e-03, -5.6595e-03, -8.1283e-03, -3.9540e-03,
         1.3439e-02, -4.5091e-04, -1.9787e-02, -1.6160e-02,  2.8343e-04,
         1.3663e-02,  2.3204e-02,  3.6071e-03,  1.7265e-03, -1.4685e-02,
         2.6425e-02, -6.2303e-06, -1.5821e-02, -9.1225e-04,  5.9741e-03,
         5.3394e-03, -2.0351e-03, -1.0056e-03,  3.8339e-03,  7.4945e-03,
        -5.7190e-03, -1.3975e-02,  4.9219e-04,  1.6266e-02, -1.8170e-03,
         1.5932e-02,  4.6494e-03, -6.6298e-03,  1.1159e-02,  6.3652e-03,
        -2.2119e-03, -7.1118e-03,  3.8968e-03,  2.4955e-03, -4.7286e-03,
        -1.3186e-02,  6.5125e-04, -1.2910e-02,  1.2977e-02, -7.5304e-03,
         2.3493e-03,  5.6796e-03,  5.4049e-03,  1.3602e-02, -1.4016e-03,
         9.2294e-03,  6.8304e-03, -4.2415e-03,  8.3857e-03, -2.1616e-03,
         4.9931e-03,  1.1512e-02])
net.mlp.net.0.batch_norm.running_mean tensor([2.6806e-02, 9.2643e-04, 1.6829e-02, 2.7531e-02, 9.7518e-02, 1.9904e-01,
        2.3719e-01, 3.6066e-02, 1.1072e-02, 1.2408e-02, 1.5776e-02, 5.4294e-02,
        1.0809e-01, 2.7152e-02, 3.7953e-02, 7.8521e-03, 9.2034e-02, 4.2127e-03,
        9.3623e-02, 5.6421e-04, 2.5308e-02, 5.4163e-02, 2.1184e-02, 1.3388e-02,
        5.3396e-02, 3.8649e-03, 2.8345e-02, 2.4144e-01, 4.4226e-02, 4.5043e-02,
        4.9799e-03, 1.4116e-02, 8.5298e-02, 1.1753e-01, 3.8118e-02, 2.4584e-02,
        1.7020e-02, 5.6642e-02, 8.0618e-02, 2.4737e-03, 9.3084e-02, 3.7709e-02,
        7.9241e-02, 2.2991e-03, 5.3385e-02, 2.1860e-03, 2.4530e-02, 8.2250e-03,
        4.8292e-02, 2.2988e-03, 2.2739e-02, 2.7982e-03, 4.6706e-02, 4.1495e-02,
        2.6280e-04, 9.4689e-02, 9.6365e-02, 4.1272e-03, 1.9958e-01, 9.8931e-02,
        7.8649e-02, 4.6018e-02, 2.5404e-01, 1.4350e-02, 9.0759e-03, 6.3680e-02,
        7.0260e-02, 1.6740e-01, 2.0081e-02, 8.2016e-02, 1.7707e-01, 1.5803e-01,
        7.3088e-02, 1.0593e-02, 3.8851e-02, 8.8472e-03, 4.6043e-02, 7.2366e-03,
        7.8020e-02, 9.6306e-02, 2.3651e-03, 1.4080e-01, 6.1476e-02, 4.4159e-02,
        4.3688e-03, 1.4806e-01, 2.5444e-02, 1.3797e-01, 1.4589e-02, 5.6992e-02,
        1.0667e-01, 1.4875e-03, 1.0010e-01, 3.9312e-03, 9.9923e-03, 1.2380e-01,
        1.1467e-02, 3.4580e-02, 1.1304e-02, 3.7192e-02, 2.9534e-03, 1.5734e-01,
        6.3999e-02, 2.0987e-02, 3.0903e-04, 8.3779e-03, 5.3150e-02, 1.6277e-01,
        9.6538e-03, 4.6782e-02, 5.5840e-04, 2.6915e-02, 3.5958e-02, 1.0712e-01,
        1.4247e-03, 3.7186e-02, 9.9551e-02, 1.7333e-01, 1.5169e-01, 3.8778e-02,
        1.1911e-01, 4.2147e-02, 1.1065e-02, 1.1303e-03, 8.1396e-03, 2.4964e-02,
        5.8575e-02, 9.6156e-03, 1.1319e-01, 6.6696e-02, 3.1748e-02, 8.0628e-04,
        2.4017e-01, 2.7477e-02, 1.8355e-03, 7.8133e-03, 1.1355e-01, 8.5326e-02,
        1.0826e-01, 9.6119e-02, 8.0891e-02, 3.5878e-02, 2.9525e-01, 2.5193e-02,
        5.4839e-03, 5.1633e-02, 2.2471e-02, 3.3631e-02, 9.9758e-02, 7.9855e-02,
        2.8497e-03, 6.1010e-02, 1.1624e-01, 2.1985e-02, 2.8957e-02, 7.3030e-02,
        4.4007e-02, 1.1465e-02, 1.7131e-01, 9.0258e-02, 2.8111e-02, 2.2525e-03,
        3.0438e-01, 5.1208e-02, 8.9830e-02, 1.7278e-01, 1.2233e-02, 7.3871e-02,
        1.7434e-01, 2.1309e-02, 9.4531e-04, 5.1678e-02, 1.1109e-02, 1.4654e-01,
        7.9475e-02, 4.6242e-02, 3.3326e-02, 2.5719e-03, 8.2784e-03, 3.1029e-02,
        3.1934e-03, 1.3973e-01, 1.1146e-01, 1.0161e-02, 7.4581e-02, 5.0246e-03,
        3.1803e-02, 1.6960e-02, 1.4898e-02, 9.7968e-02, 9.0962e-02, 5.6374e-04,
        2.4430e-02, 1.4049e-01, 2.9548e-04, 4.5015e-03, 4.8594e-02, 1.8844e-01,
        1.9578e-01, 1.2953e-02, 9.8407e-03, 1.5713e-02, 2.8005e-02, 1.2358e-01,
        1.0368e-01, 4.1923e-02, 1.5707e-01, 4.1926e-03, 5.8107e-03, 2.5857e-02,
        5.3795e-02, 8.1444e-02, 5.4790e-02, 3.6403e-02, 4.1633e-02, 1.7800e-02,
        9.5996e-02, 5.7190e-03, 6.3998e-02, 5.6796e-02, 6.3036e-02, 2.0172e-01,
        6.4356e-02, 3.8471e-02, 8.1076e-02, 1.5744e-01, 8.3158e-03, 9.8369e-04,
        1.2882e-01, 8.9823e-02, 1.8043e-02, 2.1684e-03, 6.0235e-03, 4.0949e-02,
        3.5171e-02, 3.4404e-03, 5.4267e-03, 1.1895e-01, 7.4610e-03, 3.5338e-02,
        1.3551e-02, 3.1475e-02, 1.0812e-01, 3.7638e-02, 8.3935e-02, 1.0305e-02,
        2.1830e-01, 7.8631e-02, 1.6870e-02, 8.1576e-03, 6.5091e-02, 7.6791e-02,
        1.2139e-01, 3.1432e-02, 1.4518e-01, 8.6997e-02, 9.5620e-02, 1.7996e-02,
        1.0598e-02, 3.8463e-02, 1.6414e-01, 5.5865e-02, 7.5679e-02, 2.8460e-02,
        9.1726e-02, 4.2268e-03, 9.5673e-02, 5.1511e-02, 4.0669e-02, 1.7809e-01,
        9.9980e-03, 1.9495e-01, 8.3823e-02, 4.9312e-02, 1.8978e-02, 1.4436e-01,
        3.5870e-02, 5.9641e-02, 3.1390e-02, 1.6380e-01, 8.0946e-02, 1.5809e-02,
        1.9520e-02, 1.7569e-01, 7.9381e-04, 2.2907e-01, 7.4543e-02, 2.1635e-02,
        7.5407e-03, 7.2433e-02, 2.8982e-02, 1.4034e-02, 1.2612e-01, 1.1411e-01,
        2.4411e-02, 4.5126e-02, 3.9405e-03, 9.8788e-04, 1.2959e-01, 5.4697e-02,
        8.1926e-03, 3.8624e-03, 3.2350e-01, 2.9830e-02, 4.1898e-04, 3.9113e-02,
        4.0343e-04, 1.2746e-02, 3.3514e-02, 7.2012e-03, 3.0664e-02, 1.7168e-03,
        1.0045e-02, 4.2694e-04, 1.0362e-02, 1.0839e-01, 3.4817e-02, 1.2308e-02,
        1.5190e-01, 3.1547e-02, 9.0290e-02, 1.3451e-03, 7.3077e-02, 4.7218e-04,
        1.0075e-01, 2.0726e-02, 2.8626e-04, 1.6272e-01, 6.7299e-02, 6.9550e-03,
        3.4343e-02, 2.3211e-05, 2.5224e-02, 7.9877e-03, 3.3694e-02, 3.2362e-03,
        1.6123e-01, 1.6579e-02, 3.8774e-02, 3.7474e-02, 4.1461e-02, 9.4414e-02,
        8.8602e-02, 2.3648e-02, 6.2468e-02, 2.1495e-02, 4.9046e-02, 9.0488e-03,
        1.3809e-02, 9.0993e-04, 6.9767e-03, 4.7424e-02, 6.1126e-05, 2.1108e-03,
        3.9819e-03, 7.7245e-02, 4.5023e-02, 1.7010e-01, 1.0520e-01, 1.6365e-02,
        2.5121e-02, 6.9469e-02, 8.0540e-02, 9.0745e-02, 4.4287e-02, 2.4057e-02,
        2.3385e-01, 1.7446e-02, 8.9139e-03, 6.2350e-02, 1.1378e-01, 1.0393e-01,
        6.3712e-02, 3.5342e-02, 9.5423e-04, 3.6097e-03, 2.8227e-02, 7.4922e-02,
        4.7892e-02, 5.5307e-02, 2.7717e-01, 1.5727e-01, 1.3908e-02, 6.0013e-02,
        1.2209e-02, 5.8739e-02, 4.5933e-02, 1.0917e-01, 2.4943e-02, 6.0949e-02,
        2.5973e-02, 1.0839e-01, 8.4509e-02, 8.0997e-02, 9.7718e-02, 5.2609e-02,
        2.8302e-02, 9.9651e-02, 6.6558e-02, 5.3236e-04, 1.0293e-09, 1.2857e-01,
        1.6836e-03, 6.3900e-02, 4.9558e-02, 1.6817e-01, 1.1644e-01, 1.7315e-01,
        2.4114e-02, 4.7098e-02, 2.8203e-03, 3.5257e-03, 1.7071e-01, 5.0517e-03,
        5.5804e-02, 1.4869e-01, 2.8284e-02, 2.1800e-02, 5.4980e-02, 1.1382e-02,
        6.7788e-02, 2.2363e-01, 1.7978e-01, 6.7640e-02, 5.6250e-03, 9.9618e-02,
        2.0789e-01, 7.8933e-02, 1.6469e-01, 1.1609e-02, 1.7160e-02, 1.3670e-01,
        7.1848e-03, 9.9252e-02, 2.1641e-02, 1.4993e-02, 1.1998e-01, 1.2713e-01,
        2.3300e-02, 1.8525e-03, 5.6334e-02, 8.3959e-02, 3.1621e-02, 2.0644e-01,
        3.3398e-03, 1.9957e-01, 1.9535e-03, 2.4522e-01, 1.1982e-01, 9.5543e-02,
        1.7773e-01, 1.1698e-01, 4.7145e-02, 8.0037e-02, 1.5391e-02, 1.2310e-02,
        3.3000e-02, 1.6282e-02, 8.4347e-02, 3.8434e-02, 9.1477e-03, 9.0145e-04,
        8.4433e-02, 8.1502e-02, 4.5928e-02, 2.5108e-02, 3.4964e-02, 5.1449e-02,
        1.1868e-01, 1.0116e-01, 5.8826e-02, 1.2049e-02, 4.9373e-03, 1.6262e-01,
        1.3586e-02, 5.3454e-02, 1.3796e-02, 6.6910e-03, 4.2921e-02, 4.1392e-02,
        1.1469e-01, 2.4107e-01, 6.6388e-02, 4.6771e-02, 8.1777e-03, 6.8887e-02,
        9.7512e-03, 1.3501e-01, 4.3629e-02, 8.1890e-02, 3.5569e-02, 1.5162e-01,
        7.8261e-02, 2.0324e-02, 3.0876e-01, 4.7743e-02, 3.6514e-02, 1.0425e-01,
        6.1829e-02, 1.9345e-02, 1.9867e-02, 2.2398e-02, 1.3504e-01, 3.5890e-04,
        5.7279e-02, 6.2207e-03, 2.2068e-01, 3.2621e-02, 2.8625e-03, 1.3678e-01,
        6.5869e-02, 1.4159e-01])
net.mlp.net.0.batch_norm.running_var tensor([3.0468e-03, 4.9140e-05, 8.0862e-03, 5.5658e-03, 7.3080e-03, 9.1449e-03,
        1.7349e-02, 2.7174e-03, 3.4885e-03, 3.2521e-03, 5.4220e-04, 1.6139e-03,
        7.6973e-03, 1.1759e-03, 2.2468e-03, 9.5503e-04, 4.4853e-03, 2.3645e-04,
        1.5234e-02, 3.6589e-05, 4.4543e-03, 1.1906e-02, 1.4128e-03, 1.0499e-03,
        8.1374e-03, 1.9935e-04, 2.3698e-03, 1.3909e-02, 2.4038e-03, 2.6794e-03,
        4.0723e-04, 1.4371e-03, 1.0510e-02, 1.4344e-02, 1.5696e-03, 5.1635e-03,
        5.7636e-03, 3.3430e-03, 6.2894e-03, 1.9304e-04, 2.6932e-02, 2.0742e-03,
        4.1918e-03, 9.4271e-05, 3.1555e-02, 2.1732e-04, 1.1672e-03, 4.9448e-04,
        1.6514e-03, 1.8407e-04, 4.8293e-03, 1.3932e-04, 2.4357e-03, 2.3908e-02,
        2.1833e-05, 1.5661e-02, 2.4496e-02, 1.9874e-04, 5.4027e-03, 5.3735e-03,
        3.2344e-03, 2.5210e-02, 1.1305e-02, 3.8357e-03, 8.3900e-04, 5.3477e-03,
        4.5256e-03, 1.0085e-02, 2.1508e-03, 2.3747e-03, 1.0026e-02, 1.0807e-02,
        2.2496e-03, 5.3136e-04, 1.2888e-02, 7.4688e-04, 2.2272e-03, 3.1271e-04,
        5.0362e-03, 7.9362e-03, 1.5932e-04, 3.4762e-02, 4.9767e-03, 2.5127e-02,
        3.6348e-04, 1.0687e-02, 9.1995e-04, 3.1241e-02, 8.1704e-04, 1.8599e-03,
        1.5014e-02, 4.5990e-05, 9.1207e-03, 2.8584e-04, 1.0569e-03, 6.5892e-03,
        2.6444e-03, 3.2405e-03, 6.0921e-04, 2.8600e-03, 6.3515e-04, 5.0427e-03,
        5.4012e-03, 2.0112e-03, 1.0187e-05, 4.0238e-04, 6.9002e-03, 8.7022e-03,
        4.5819e-04, 5.3787e-03, 4.0165e-05, 1.3889e-03, 7.5067e-03, 4.1529e-03,
        7.1696e-05, 1.1565e-02, 6.3029e-03, 6.9684e-03, 8.9609e-03, 3.2047e-03,
        5.2278e-03, 3.1845e-03, 7.7869e-04, 1.0609e-04, 2.7749e-04, 1.2563e-03,
        3.2806e-03, 7.4141e-04, 4.6025e-03, 1.9466e-02, 1.3292e-03, 6.0051e-05,
        8.0999e-03, 1.9901e-03, 1.3725e-04, 7.0138e-04, 2.5322e-02, 4.9416e-03,
        7.5115e-03, 1.0125e-02, 2.8135e-02, 2.3862e-03, 9.6478e-03, 1.1219e-02,
        3.4557e-04, 6.3235e-03, 7.6272e-04, 2.5386e-03, 4.0489e-03, 6.5286e-03,
        1.3930e-04, 9.0867e-03, 6.9429e-03, 1.8544e-03, 1.6462e-02, 3.7549e-03,
        3.3776e-03, 1.1567e-03, 9.4808e-03, 4.5478e-03, 1.3608e-03, 1.3777e-04,
        1.2311e-02, 5.7021e-03, 4.8274e-03, 7.1279e-02, 2.3778e-03, 2.3894e-03,
        8.3201e-03, 9.6708e-04, 4.4058e-05, 7.9693e-03, 8.5907e-04, 5.1780e-03,
        3.1907e-03, 2.6392e-03, 1.1083e-03, 1.0066e-04, 9.1482e-04, 1.6058e-03,
        9.2163e-04, 1.0934e-02, 5.2411e-03, 5.4641e-04, 3.7151e-03, 2.7138e-04,
        2.2720e-03, 5.0251e-03, 6.9744e-03, 5.6611e-03, 7.2718e-03, 1.5597e-05,
        1.9815e-03, 1.2905e-02, 1.1966e-05, 3.6578e-04, 2.8186e-03, 1.8645e-02,
        1.4523e-02, 7.1156e-04, 2.8631e-03, 1.0223e-03, 1.5616e-03, 1.4201e-02,
        6.8032e-03, 1.6423e-02, 8.3636e-03, 3.4411e-04, 1.0943e-03, 1.4926e-03,
        3.3374e-03, 4.2026e-03, 3.1113e-03, 1.9139e-03, 2.6485e-03, 6.6587e-04,
        3.6576e-03, 3.1596e-04, 2.7597e-03, 2.7839e-02, 3.5485e-03, 9.9502e-03,
        3.7732e-03, 1.9769e-03, 5.8974e-03, 1.1321e-02, 3.9866e-04, 2.6630e-05,
        1.1855e-02, 5.3056e-02, 1.2716e-03, 6.5940e-05, 1.6763e-03, 2.4861e-03,
        3.0815e-03, 2.5383e-04, 1.5943e-03, 3.1947e-03, 5.0779e-04, 3.1597e-03,
        5.2488e-04, 1.5503e-03, 1.4261e-02, 2.2992e-03, 4.5650e-03, 5.0207e-04,
        1.0448e-02, 1.9420e-02, 9.5527e-04, 8.2697e-04, 3.7367e-03, 1.2258e-02,
        8.6086e-03, 1.0626e-02, 1.2598e-02, 3.8757e-03, 5.2123e-03, 1.0552e-03,
        1.3688e-03, 2.8656e-03, 1.0866e-02, 2.4240e-02, 4.6373e-03, 6.7932e-03,
        7.2964e-03, 1.2932e-04, 5.5755e-03, 3.6005e-03, 2.8188e-03, 4.8517e-03,
        1.5243e-03, 1.0089e-02, 1.5242e-02, 2.9605e-03, 9.4371e-04, 8.9880e-03,
        2.7801e-03, 6.6241e-03, 2.5758e-03, 1.5046e-02, 7.3919e-03, 1.4060e-03,
        1.3418e-03, 6.7154e-03, 3.7158e-05, 4.6415e-03, 4.3733e-03, 1.9908e-03,
        2.6318e-03, 1.4235e-02, 2.4071e-03, 8.8090e-04, 5.3033e-03, 3.6016e-02,
        1.8965e-03, 3.0806e-03, 2.2908e-04, 4.2988e-05, 1.1051e-02, 6.3017e-03,
        6.5806e-04, 2.6237e-04, 1.6269e-02, 2.8838e-03, 1.7143e-05, 3.9800e-03,
        9.7551e-06, 1.3528e-03, 1.9319e-03, 8.4730e-04, 1.3187e-02, 5.0314e-05,
        6.7401e-04, 2.4916e-05, 1.1162e-03, 7.6305e-03, 2.8886e-03, 8.3990e-04,
        6.9899e-03, 2.6929e-03, 2.2453e-02, 3.9652e-05, 4.4608e-03, 6.1481e-05,
        5.1201e-03, 8.5589e-04, 1.0535e-05, 1.4297e-02, 4.7302e-03, 4.2592e-04,
        4.6417e-03, 4.5483e-07, 3.2023e-03, 7.7783e-04, 1.9135e-03, 1.3563e-04,
        4.9768e-03, 1.2223e-03, 1.5003e-02, 1.5956e-03, 2.6457e-03, 1.4335e-02,
        7.3014e-03, 8.0992e-03, 2.4395e-03, 7.4715e-03, 1.4172e-02, 4.4309e-04,
        4.3144e-03, 5.6310e-05, 5.6291e-04, 1.2957e-02, 1.5586e-06, 2.0844e-04,
        2.8005e-04, 3.9279e-03, 3.1979e-03, 1.1078e-02, 4.4630e-03, 9.1231e-04,
        1.2934e-03, 3.1049e-03, 1.3918e-02, 5.1089e-03, 3.1922e-03, 2.1975e-03,
        1.4458e-02, 1.4970e-03, 2.1861e-03, 3.6894e-03, 7.6130e-03, 1.1353e-02,
        5.7604e-03, 2.4957e-03, 3.6570e-05, 1.9863e-04, 1.5438e-02, 5.6081e-03,
        3.7614e-03, 1.0254e-02, 2.0821e-02, 8.6298e-03, 7.0294e-04, 2.1467e-03,
        1.7914e-03, 6.6721e-03, 2.1815e-02, 1.2229e-02, 2.2824e-03, 5.9626e-03,
        1.2907e-02, 4.4860e-03, 1.3626e-02, 5.4805e-03, 8.8526e-03, 2.4173e-03,
        2.6365e-03, 4.3730e-03, 4.0790e-03, 4.0046e-05, 1.5328e-11, 1.4996e-02,
        2.0426e-04, 3.3006e-03, 1.7445e-02, 1.1423e-02, 9.9308e-03, 7.7533e-03,
        1.1955e-03, 2.2039e-02, 1.8071e-04, 1.5598e-04, 1.7102e-02, 3.2674e-04,
        6.4635e-03, 2.7476e-03, 2.5755e-03, 1.2244e-03, 2.1117e-03, 6.5800e-04,
        7.8601e-03, 1.5899e-02, 1.9022e-03, 4.5471e-03, 3.6109e-04, 6.7158e-03,
        1.1181e-02, 6.4693e-03, 1.2480e-02, 3.4585e-03, 1.1919e-03, 3.9075e-03,
        1.9314e-03, 4.7764e-02, 1.3759e-03, 5.8837e-03, 2.7517e-02, 9.5680e-03,
        1.2547e-03, 1.1141e-04, 7.0308e-03, 3.7910e-03, 5.1023e-03, 1.6374e-02,
        2.8506e-04, 3.0535e-02, 1.4390e-04, 1.2147e-02, 1.1299e-02, 8.5261e-03,
        1.6146e-02, 6.8845e-03, 2.9935e-03, 3.3392e-02, 5.6013e-03, 1.4782e-03,
        1.1158e-03, 1.1673e-03, 4.3041e-03, 4.0180e-03, 5.6216e-04, 6.8732e-05,
        4.3942e-03, 6.2745e-03, 1.0859e-02, 1.0865e-03, 6.5020e-03, 1.8503e-02,
        8.7462e-03, 1.3910e-02, 2.2484e-03, 6.0087e-04, 2.2236e-04, 9.3864e-03,
        9.3208e-04, 3.2924e-03, 2.8583e-03, 6.6965e-04, 3.9192e-03, 2.8546e-03,
        8.8503e-03, 1.0013e-02, 4.3878e-03, 2.0003e-02, 3.6834e-04, 1.4444e-02,
        4.0839e-04, 7.1171e-03, 2.8161e-03, 3.5575e-03, 3.2735e-03, 1.3465e-02,
        3.2490e-03, 1.9000e-03, 1.6935e-02, 1.8188e-02, 9.8284e-03, 5.6179e-03,
        1.2824e-02, 7.4389e-03, 3.3467e-03, 1.5661e-03, 3.4362e-02, 1.4732e-05,
        6.6415e-03, 4.9217e-04, 7.0026e-03, 2.2534e-03, 2.1846e-04, 1.2776e-02,
        5.4099e-03, 5.3432e-03])
net.mlp.net.0.batch_norm.num_batches_tracked tensor(420)
net.mlp.net.1.linear.weight tensor([[-0.0161,  0.0113,  0.0122,  ...,  0.0100, -0.0093,  0.0127],
        [-0.0054,  0.0047,  0.0328,  ...,  0.0333,  0.0238,  0.0015],
        [ 0.0193,  0.0023,  0.0097,  ...,  0.0110, -0.0201,  0.0127],
        ...,
        [-0.0131,  0.0167, -0.0041,  ..., -0.0023, -0.0071,  0.0004],
        [-0.0257, -0.0032, -0.0119,  ..., -0.0217,  0.0206, -0.0042],
        [-0.0039, -0.0001, -0.0138,  ..., -0.0163, -0.0200, -0.0083]])
net.mlp.net.1.linear.bias tensor([ 1.2290e-02,  2.0217e-02, -1.2416e-02, -9.6522e-03,  7.7723e-03,
         9.4960e-03, -9.9473e-03,  7.7896e-04, -1.4881e-02, -1.7432e-02,
         7.1505e-03,  3.6239e-03,  6.9579e-03, -3.2097e-03,  7.5192e-03,
        -3.5392e-04, -3.0665e-03, -2.2935e-03,  1.5582e-02,  5.1003e-03,
         2.3195e-02,  7.6784e-03, -3.2243e-03,  9.0029e-03, -1.6093e-02,
         1.5655e-02, -8.9019e-03,  7.9646e-03,  4.8973e-03,  8.7909e-03,
        -5.4377e-03, -2.4619e-02,  2.0801e-03,  9.5100e-03, -2.1557e-03,
         2.8104e-03, -1.1660e-03, -2.2283e-02,  8.4171e-04, -3.8753e-03,
        -4.5763e-03, -5.4403e-03,  8.5010e-03, -7.8537e-03,  1.8541e-02,
        -1.8577e-02,  7.6660e-03, -1.5203e-03,  1.3310e-02,  4.4843e-03,
         1.2647e-02, -6.8566e-03,  2.9106e-03,  8.0870e-03,  8.6687e-03,
         2.6285e-02,  6.6098e-03, -7.4689e-03,  7.6400e-03, -9.1830e-04,
        -2.4731e-03, -1.5955e-02,  1.8627e-02, -9.8121e-03, -1.8441e-03,
        -2.7321e-02,  2.6008e-03,  8.8568e-03,  1.1279e-02,  2.0426e-02,
        -1.1778e-02,  1.5585e-03, -3.0045e-02,  8.7400e-03,  1.1383e-02,
        -3.4079e-03, -1.1382e-03, -6.0174e-03, -2.7927e-03, -6.1461e-04,
         8.9025e-03, -1.0428e-02, -1.1894e-02, -2.6209e-02, -1.4403e-02,
         6.5665e-03, -9.0530e-03, -1.6838e-02,  9.9123e-03,  1.4645e-02,
        -5.3233e-03,  3.2117e-04,  3.2831e-03,  3.6929e-03,  1.2949e-02,
         3.9776e-03, -1.5265e-03, -1.9205e-03,  2.6640e-03, -1.8824e-02,
         1.0123e-02,  9.1145e-03, -6.6589e-03,  5.7682e-03,  9.5370e-03,
        -6.5571e-03,  2.2533e-02,  5.9853e-03,  2.0278e-02,  1.1986e-02,
         3.1090e-03,  1.0887e-02,  2.5558e-03,  3.1360e-02,  1.6120e-02,
         4.6226e-03, -5.9001e-03,  1.8727e-02, -1.6465e-02, -2.0289e-02,
         9.1549e-03,  1.9724e-02,  4.7674e-03,  2.3763e-03,  1.2151e-02,
         3.1125e-03,  2.1345e-03,  7.8781e-03, -1.1228e-02, -8.3176e-04,
         1.6019e-02, -4.8256e-03,  1.8527e-02, -1.2334e-02,  7.9045e-03,
        -8.8569e-03,  1.0227e-02,  1.0312e-02, -1.5803e-03,  8.3997e-03,
         4.8428e-03,  2.3573e-02, -2.7788e-02, -4.4674e-03, -5.6896e-03,
         2.8567e-02,  2.1394e-02,  6.5170e-03,  1.9882e-02, -5.1346e-03,
        -8.2923e-03,  1.0725e-02,  1.4894e-02,  1.5021e-02,  2.0490e-03,
        -8.7783e-03, -4.3702e-03,  2.5943e-02, -1.0965e-02,  1.5066e-02,
        -9.6567e-03,  1.8961e-02,  1.2402e-02,  1.7977e-02,  3.1090e-02,
         1.0914e-02,  6.3531e-03,  2.7087e-02,  1.4396e-02,  1.5442e-02,
         1.5805e-03,  2.1645e-03, -2.0503e-02,  2.6429e-03,  4.4308e-03,
         3.9142e-03,  9.4352e-03, -2.9913e-03,  2.5135e-02,  8.7674e-03,
        -1.4928e-03,  1.6940e-03, -1.1713e-02,  2.4964e-02,  6.5089e-03,
        -1.2834e-02,  5.4523e-03, -5.0044e-03,  1.2152e-02, -7.2887e-03,
         1.3359e-02, -2.9568e-03, -6.5311e-03,  1.5910e-02, -6.9521e-03,
        -7.7323e-03, -1.1727e-02,  8.3339e-03, -8.7602e-03, -1.6177e-02,
        -1.2783e-02, -7.7729e-03, -3.4350e-03,  2.2880e-02,  5.4736e-03,
         2.1638e-02,  2.1071e-02,  1.6927e-02,  1.0737e-02,  2.9501e-03,
        -1.4193e-02, -3.5816e-03, -5.6653e-04,  1.4991e-03, -7.3045e-04,
         5.8292e-03,  1.5050e-02,  9.5637e-04,  3.0536e-03, -9.0828e-03,
        -4.2969e-03, -4.0005e-03, -1.1481e-02,  5.4058e-03,  7.1782e-03,
         1.0068e-03,  7.6499e-03,  8.8615e-03, -1.2504e-02,  1.1142e-02,
        -1.5826e-02, -3.6987e-03,  1.0841e-02,  1.2201e-02,  2.4525e-03,
        -1.1555e-02, -6.9828e-03,  9.5552e-03, -9.1680e-03,  2.0356e-02,
        -1.3654e-02,  1.1838e-02,  2.9927e-02, -9.6489e-03,  2.4190e-03,
        -4.9324e-03,  1.5276e-02,  1.3272e-04, -4.3642e-03,  4.1522e-03,
         2.0352e-02,  1.4165e-03, -1.1907e-02,  4.6041e-03,  1.2848e-02,
         1.6888e-02,  9.9057e-04,  8.7938e-03, -1.3796e-02, -1.5742e-02,
         6.0162e-03, -7.7501e-03, -7.2822e-03,  2.5398e-02, -6.6580e-04,
        -1.2966e-03, -1.2048e-02, -1.1793e-02,  5.1590e-03,  2.8860e-02,
         2.0943e-02,  6.2221e-03, -1.8698e-02, -1.9861e-02,  3.4224e-03,
        -1.0260e-02,  7.8168e-03,  6.7066e-04, -6.6000e-03, -3.4675e-03,
        -2.2371e-02,  3.3512e-03, -6.9351e-03,  8.4324e-05,  6.2364e-03,
         6.8570e-06,  1.6510e-02, -6.0018e-03,  8.8283e-03, -2.2826e-03,
         1.6859e-02, -8.7608e-03,  9.7380e-03, -2.0075e-03,  1.3668e-02,
        -1.1904e-02,  1.8910e-02,  2.5587e-02,  2.8432e-02,  1.6135e-02,
        -5.2455e-03, -1.0087e-02,  8.0587e-03,  3.5543e-03,  1.5090e-02,
         1.1993e-02,  4.6575e-04,  1.0685e-02,  1.1405e-02,  1.2344e-02,
         1.0254e-02, -4.5530e-03, -8.8457e-03, -1.6128e-02, -3.9816e-03,
         8.4832e-03,  2.4240e-02,  1.7774e-02,  1.7381e-02,  8.8143e-04,
        -1.0320e-02,  7.8090e-03, -3.1333e-03, -1.7696e-02,  9.0375e-03,
         6.8678e-03, -2.8558e-03,  1.1912e-02, -1.9512e-03,  1.9401e-02,
        -9.5258e-03, -4.4999e-03,  2.3755e-03, -1.7871e-03, -1.4844e-02,
        -2.8839e-03, -1.3476e-02, -8.8765e-03,  1.4119e-02, -1.8285e-02,
         1.3693e-02, -1.6375e-04, -5.5305e-03, -7.4398e-04,  1.0740e-04,
         3.0165e-02,  7.1193e-04, -5.0789e-03, -1.9013e-02, -2.8997e-03,
        -1.7015e-03, -1.8431e-02,  1.5403e-02,  1.0498e-02, -9.7070e-03,
         9.2884e-03, -1.6064e-03,  1.9086e-02,  2.4292e-02,  1.2607e-02,
        -8.2939e-04,  2.0596e-02, -8.1888e-03,  1.2674e-02, -9.4045e-04,
         5.8195e-03, -1.5723e-02,  1.6607e-03,  1.2415e-02,  9.0291e-04,
         1.4687e-02,  1.2997e-02,  1.6134e-03,  2.8042e-02,  2.6115e-02,
        -1.5850e-03,  1.1113e-02,  7.6462e-03, -1.1769e-02, -2.4295e-03,
         8.2430e-04,  1.6486e-02,  1.8029e-02,  1.7381e-02, -3.8376e-03,
         3.8435e-03,  2.3613e-03,  8.0841e-03,  1.5661e-02,  1.3807e-02,
         1.0339e-02,  1.2467e-02,  6.2138e-03,  2.1560e-03,  1.2324e-02,
        -3.6721e-03, -1.0761e-02,  1.8229e-03,  1.9525e-02, -1.5822e-02,
         8.8729e-03,  1.9413e-03,  7.4700e-03, -1.0247e-02,  2.4244e-03,
         3.6220e-03,  5.4686e-04, -4.8507e-03,  1.0889e-03, -2.3208e-03,
        -1.1472e-02, -7.2953e-03, -1.1773e-02, -4.4303e-03, -1.2534e-02,
         2.5389e-03,  2.3820e-02, -1.4061e-02, -2.5445e-04,  2.0001e-02,
         7.6472e-04,  2.6893e-02, -1.0972e-03,  1.6202e-03, -4.8043e-03,
         1.4431e-02, -8.5525e-03,  4.1323e-03,  1.8513e-03,  3.4542e-03,
         1.2914e-02,  2.0425e-02,  3.2496e-03, -9.1260e-03,  1.4902e-02,
         1.4507e-02, -4.8870e-03, -1.4451e-02, -4.1682e-03,  8.9576e-03,
         9.8330e-03, -1.2202e-02,  2.2871e-02,  3.0318e-03,  1.8113e-03,
         2.4364e-02, -1.5426e-02, -5.3418e-03, -2.0089e-02,  7.2336e-03,
         6.9564e-03,  1.7253e-02,  1.3914e-02, -1.0514e-03,  1.3081e-02,
        -1.4135e-02, -3.7046e-03,  2.6724e-03,  1.3380e-02, -1.1579e-02,
         8.6562e-03,  4.4554e-03,  6.4256e-04,  1.5661e-02,  1.9218e-02,
        -2.1977e-03, -1.3022e-02,  1.4456e-02,  6.8464e-03, -1.0701e-02,
         1.3031e-02, -1.4948e-02,  1.9263e-02,  9.0566e-03,  6.2098e-03,
         4.0061e-03, -7.2304e-03,  6.2190e-03, -7.4110e-03,  1.5294e-02,
         7.0498e-03, -1.4635e-02,  1.8736e-02, -2.1692e-03, -1.8077e-02,
        -7.3764e-04, -1.0483e-02,  1.9653e-03, -2.9197e-03, -1.0731e-02,
        -5.7397e-03,  1.1143e-02, -1.6485e-02,  2.6980e-02, -7.1061e-03,
         1.7433e-02,  1.7667e-02,  1.2272e-02,  1.1376e-02,  1.8179e-02,
        -4.8198e-06,  7.2433e-03,  1.1037e-02, -5.3353e-03,  1.9659e-02,
         1.5127e-03, -1.5938e-02,  7.9267e-03,  1.0086e-02,  2.3856e-03,
         3.1594e-03, -5.8469e-04])
net.mlp.net.1.batch_norm.weight tensor([0.2347, 0.2139, 0.2243, 0.2123, 0.2384, 0.2328, 0.2135, 0.2146, 0.2122,
        0.2252, 0.2351, 0.2365, 0.2188, 0.2379, 0.2402, 0.2122, 0.2331, 0.2311,
        0.2137, 0.2232, 0.2345, 0.2164, 0.2445, 0.2239, 0.2505, 0.2385, 0.2274,
        0.2266, 0.2544, 0.2562, 0.2059, 0.2309, 0.2204, 0.2122, 0.2277, 0.2117,
        0.2109, 0.2346, 0.2427, 0.2386, 0.2287, 0.2177, 0.2364, 0.2105, 0.2241,
        0.2321, 0.2216, 0.2281, 0.2322, 0.2323, 0.2251, 0.2266, 0.2237, 0.2262,
        0.2380, 0.2441, 0.2377, 0.2164, 0.2351, 0.2135, 0.2227, 0.2346, 0.2392,
        0.2261, 0.2357, 0.2356, 0.2102, 0.2507, 0.2442, 0.2226, 0.2044, 0.2109,
        0.2373, 0.2431, 0.2128, 0.2214, 0.2473, 0.2347, 0.2118, 0.2221, 0.2408,
        0.2229, 0.2308, 0.2309, 0.2287, 0.2269, 0.2170, 0.2101, 0.2078, 0.2122,
        0.2489, 0.2382, 0.2118, 0.2338, 0.2329, 0.2167, 0.2116, 0.2150, 0.2254,
        0.2408, 0.2061, 0.2198, 0.2245, 0.2364, 0.2163, 0.2164, 0.2521, 0.2200,
        0.2185, 0.2405, 0.2413, 0.2492, 0.2386, 0.2343, 0.2358, 0.2392, 0.2170,
        0.2078, 0.2304, 0.2139, 0.2119, 0.2296, 0.2182, 0.2421, 0.2157, 0.2118,
        0.2281, 0.2289, 0.2342, 0.2394, 0.2307, 0.2407, 0.2186, 0.2181, 0.2440,
        0.2281, 0.2430, 0.2144, 0.2439, 0.2177, 0.2266, 0.2231, 0.2346, 0.2132,
        0.2165, 0.2546, 0.2291, 0.2510, 0.2293, 0.2188, 0.2334, 0.2425, 0.2348,
        0.2142, 0.2367, 0.2196, 0.2454, 0.2404, 0.2391, 0.2260, 0.2420, 0.2370,
        0.2204, 0.2355, 0.2219, 0.2165, 0.2533, 0.2108, 0.2197, 0.2293, 0.2381,
        0.2264, 0.2052, 0.2275, 0.2145, 0.2288, 0.2124, 0.2123, 0.2436, 0.2191,
        0.2155, 0.2299, 0.2136, 0.2187, 0.2457, 0.2369, 0.2315, 0.2444, 0.2192,
        0.2240, 0.2265, 0.2476, 0.2221, 0.2293, 0.2349, 0.2065, 0.2265, 0.2259,
        0.2159, 0.2238, 0.2289, 0.2210, 0.2382, 0.2199, 0.2381, 0.2271, 0.2245,
        0.2449, 0.2276, 0.2120, 0.2112, 0.2159, 0.2154, 0.2215, 0.2332, 0.2475,
        0.2243, 0.2332, 0.2219, 0.2296, 0.2142, 0.2468, 0.2493, 0.2308, 0.2420,
        0.2261, 0.2196, 0.2295, 0.2317, 0.2292, 0.2067, 0.2541, 0.2194, 0.2409,
        0.2416, 0.2276, 0.2425, 0.2159, 0.2334, 0.2289, 0.2267, 0.2274, 0.2188,
        0.2113, 0.2246, 0.2206, 0.2587, 0.2111, 0.2322, 0.2263, 0.2273, 0.2179,
        0.2575, 0.2121, 0.2477, 0.2267, 0.2380, 0.2124, 0.2397, 0.2070, 0.2406,
        0.2349, 0.2206, 0.2302, 0.2422, 0.2272, 0.2401, 0.2224, 0.2374, 0.2401,
        0.2331, 0.2209, 0.2192, 0.2235, 0.2387, 0.2289, 0.2324, 0.2426, 0.2290,
        0.2292, 0.2433, 0.2201, 0.2447, 0.2304, 0.2426, 0.2291, 0.2395, 0.2416,
        0.2428, 0.2199, 0.2370, 0.2278, 0.2284, 0.2283, 0.2202, 0.2242, 0.2305,
        0.2230, 0.2250, 0.2183, 0.2390, 0.2305, 0.2327, 0.2315, 0.2178, 0.2333,
        0.2412, 0.2296, 0.2402, 0.2308, 0.2250, 0.2342, 0.2310, 0.2044, 0.2217,
        0.2528, 0.2410, 0.2441, 0.2198, 0.2350, 0.2535, 0.2220, 0.2362, 0.2291,
        0.2282, 0.2312, 0.2287, 0.2205, 0.2238, 0.2130, 0.2358, 0.2115, 0.2259,
        0.2117, 0.2234, 0.2213, 0.2222, 0.2475, 0.2347, 0.2443, 0.2299, 0.2230,
        0.2128, 0.2127, 0.2326, 0.2335, 0.2540, 0.2169, 0.2537, 0.2243, 0.2371,
        0.2255, 0.2184, 0.2358, 0.2314, 0.2284, 0.2332, 0.2346, 0.2431, 0.2248,
        0.2265, 0.2270, 0.2374, 0.2456, 0.2378, 0.2330, 0.2354, 0.2120, 0.2304,
        0.2291, 0.2133, 0.2541, 0.2112, 0.2367, 0.2396, 0.2217, 0.2148, 0.2303,
        0.2458, 0.2114, 0.2133, 0.2326, 0.2661, 0.2357, 0.2345, 0.2354, 0.2274,
        0.2278, 0.2086, 0.2510, 0.2250, 0.2284, 0.2459, 0.2475, 0.2240, 0.2334,
        0.2197, 0.2198, 0.2364, 0.2399, 0.2191, 0.2436, 0.2113, 0.2392, 0.2170,
        0.2258, 0.2175, 0.2247, 0.2382, 0.2171, 0.2194, 0.2492, 0.2262, 0.2214,
        0.2246, 0.2209, 0.2330, 0.2349, 0.2115, 0.2298, 0.2290, 0.2415, 0.2594,
        0.2123, 0.2345, 0.2385, 0.2518, 0.2319, 0.2301, 0.2190, 0.2430, 0.2333,
        0.2447, 0.2436, 0.2286, 0.2279, 0.2306, 0.2618, 0.2241, 0.2247, 0.2597,
        0.2155, 0.2204, 0.2288, 0.2473, 0.2485, 0.2161, 0.2346, 0.2112, 0.2221,
        0.2265, 0.2229, 0.2391, 0.2186, 0.2128, 0.2564, 0.2302, 0.2374, 0.2346,
        0.2385, 0.2385, 0.2195, 0.2402, 0.2277, 0.2338, 0.2289, 0.2650, 0.2120,
        0.2199, 0.2098, 0.2121, 0.2157, 0.2227, 0.2345, 0.2408, 0.2315, 0.2302,
        0.2122, 0.2229, 0.2356, 0.2207, 0.2134, 0.2337, 0.2239, 0.2191, 0.2244,
        0.2355, 0.2277, 0.2390, 0.2148, 0.2494, 0.2341, 0.2132, 0.2387, 0.2186,
        0.2530, 0.2265, 0.2328, 0.2313, 0.2181, 0.2356, 0.2086, 0.2188, 0.2171,
        0.2199, 0.2502, 0.2301, 0.2112, 0.2154, 0.2387, 0.2141, 0.2346])
net.mlp.net.1.batch_norm.bias tensor([-2.8242e-02,  2.9992e-03,  3.1252e-03, -2.2583e-03,  1.7844e-03,
        -6.4173e-03,  7.7064e-03, -1.2226e-03,  3.4778e-03,  1.2034e-02,
        -8.1155e-03, -3.0395e-03,  1.2432e-03,  6.7180e-03, -1.3549e-02,
        -3.0532e-03,  8.7125e-03,  8.5667e-03, -3.6464e-03,  4.8780e-03,
        -1.2631e-02,  7.0752e-03,  1.3378e-02,  3.0861e-03,  5.1393e-03,
         1.9044e-03, -6.4708e-03,  1.3602e-02, -1.0713e-02,  2.8899e-03,
        -5.5013e-03, -7.3405e-03, -1.2120e-02, -8.9277e-03,  2.5489e-03,
         7.0018e-03, -6.7792e-03, -8.4780e-03,  2.5107e-03,  9.2328e-03,
         4.6261e-03,  3.5214e-04, -3.3610e-03, -2.1787e-03,  3.6583e-03,
        -5.7850e-03, -9.1397e-03, -3.1583e-03,  4.1281e-03, -8.0483e-03,
        -6.0037e-03,  4.7935e-03,  1.0242e-02, -1.5658e-02,  1.1296e-02,
         6.5554e-04,  5.6793e-03, -4.8309e-05,  3.2768e-03, -1.6546e-02,
         6.0929e-03,  1.9184e-03,  8.5359e-03, -6.1577e-03, -5.5738e-03,
         1.0423e-02,  1.6735e-02, -1.1030e-02, -6.0968e-03,  1.5539e-02,
        -1.5788e-02, -2.9591e-03,  2.5270e-02,  2.4928e-02, -4.2412e-03,
         4.2633e-03,  3.2082e-03,  5.1991e-03,  3.9946e-03,  3.5869e-03,
         1.0397e-02, -5.9234e-03, -2.7121e-03, -7.5290e-03, -7.2252e-03,
         2.3509e-03, -9.5840e-03,  5.6117e-03, -3.8501e-03, -5.0291e-03,
         6.4630e-03,  1.1925e-02,  1.4061e-03, -1.6830e-03,  1.0014e-02,
        -8.1337e-04,  6.2912e-03, -7.0686e-03, -9.5673e-04, -2.6865e-03,
        -2.7287e-03,  1.0665e-02,  4.6220e-03, -5.7570e-04,  1.5131e-02,
         1.6171e-02, -1.1514e-02, -1.5697e-02,  1.1325e-02, -9.6943e-03,
        -2.6000e-03,  1.3379e-02,  3.5686e-04,  1.4736e-03,  9.5688e-03,
         1.7173e-02, -5.2901e-03,  8.9891e-04, -4.4062e-03,  1.4033e-02,
         1.5013e-03, -1.7945e-03, -6.4491e-03, -2.5464e-02,  3.8728e-03,
         1.0015e-02, -1.2325e-02,  2.6670e-03,  4.0688e-03,  9.1754e-03,
         2.2585e-02,  1.7710e-02, -3.3916e-03,  1.1766e-03,  4.3457e-03,
         4.5843e-03, -5.7350e-03,  3.1075e-03,  6.3099e-03, -1.1166e-02,
        -1.2933e-02, -2.8356e-02, -5.5941e-03,  3.8901e-03,  5.0781e-04,
         1.1510e-02, -4.7556e-03,  1.3676e-02,  2.4463e-03, -1.0538e-02,
         1.3081e-02,  2.6466e-02, -1.7858e-03, -6.7801e-04, -1.3979e-02,
        -8.0941e-03,  1.1143e-02,  7.2095e-03,  1.0627e-03,  1.4642e-02,
         8.4548e-03,  1.9853e-02,  5.5872e-03, -4.3793e-03, -5.5612e-03,
         1.3388e-03, -8.4123e-03,  3.9813e-03, -1.2096e-02,  1.4550e-02,
         3.8917e-03,  4.3478e-03, -6.9394e-04, -2.0479e-04, -1.2040e-02,
         2.8777e-03,  7.3993e-03, -5.0592e-04,  1.1177e-02, -8.0271e-04,
         6.0960e-04,  1.1284e-02,  6.5383e-03, -2.7597e-03, -1.6162e-04,
         1.0802e-02,  1.7996e-02,  1.7556e-02, -2.7776e-03, -3.3979e-03,
         1.2855e-02, -9.3792e-03, -1.3320e-02, -6.9946e-03,  2.1543e-03,
         1.0749e-02,  2.1760e-03, -1.6082e-02, -9.6604e-03, -5.7580e-03,
        -1.6320e-03, -8.9574e-03, -4.7542e-03,  7.3236e-03, -4.0972e-03,
        -9.6107e-03,  1.0051e-02, -5.5815e-03,  4.9542e-03,  1.2450e-03,
        -7.6863e-04, -9.7975e-04,  1.3017e-02,  1.1414e-02,  4.4749e-03,
        -5.1466e-03, -1.0605e-03,  7.2527e-03, -1.2761e-03,  8.5288e-03,
        -4.8186e-03, -1.1686e-02, -1.8431e-04, -5.1432e-03, -1.4373e-02,
         7.1463e-03,  4.5625e-03,  3.5531e-02, -5.2675e-05, -1.3501e-02,
        -3.4282e-03,  4.1223e-04,  3.3377e-03, -1.7262e-03,  8.1051e-03,
        -2.9272e-03, -5.1193e-03,  4.1354e-03,  9.0635e-03,  4.1379e-03,
         1.0655e-02,  1.2538e-03,  1.1621e-02, -3.1284e-03, -1.3705e-02,
         2.6952e-03, -1.1107e-02,  4.3773e-03, -9.9276e-03, -8.4860e-03,
         2.3830e-03, -8.4309e-03, -2.0687e-02,  3.2462e-03, -5.2608e-03,
         3.5185e-03, -7.2043e-03,  3.2447e-03,  1.3510e-02, -1.8878e-03,
        -9.7696e-03,  1.1398e-02,  4.4267e-03, -2.1753e-03, -5.1304e-03,
         1.1891e-02,  1.6107e-02, -1.3993e-03, -1.4385e-02,  8.9787e-03,
        -1.5412e-02, -9.4249e-04, -4.0267e-03,  9.7917e-03,  9.3732e-03,
        -6.2902e-04, -1.5606e-02,  1.1556e-02, -4.3308e-03,  7.7029e-04,
         1.0193e-02, -3.8381e-03, -1.4532e-02,  1.0735e-02, -5.0208e-04,
        -3.4003e-03,  5.1792e-03, -5.3883e-03, -2.8166e-03,  1.2458e-02,
        -1.6883e-02,  1.8948e-02,  6.6675e-03,  1.5587e-02,  2.6283e-03,
        -8.5947e-03,  1.0177e-02, -1.8309e-04,  1.1945e-02, -3.2088e-03,
         3.4300e-03, -4.3460e-03, -6.5690e-03,  1.5351e-03, -9.3554e-03,
        -5.1092e-03, -8.7386e-03,  1.6198e-02,  1.1345e-02, -3.3058e-03,
         2.4105e-02, -1.4924e-02, -3.2633e-03, -1.2062e-02,  1.1997e-02,
        -1.5925e-02, -3.3168e-03,  5.0010e-03, -2.1487e-05,  2.0998e-02,
        -1.1808e-02,  2.3004e-03, -1.6565e-02, -1.5057e-02, -8.0520e-04,
         8.8163e-03,  2.9130e-03, -6.4238e-03,  8.4706e-03, -1.0553e-02,
         6.2603e-03,  3.6154e-03,  2.3219e-02,  6.0740e-03, -5.2604e-03,
         3.5800e-03, -6.0249e-03,  2.3764e-02,  6.5526e-03, -2.8885e-03,
         8.2954e-03,  3.9833e-03,  1.1789e-02, -1.0874e-03,  5.2699e-03,
        -9.2148e-03, -1.1014e-02,  1.1538e-02, -3.5823e-03, -5.9892e-03,
        -1.1908e-02, -1.0127e-03,  2.6721e-03,  9.3294e-04,  1.3859e-03,
         7.5844e-03,  7.1494e-03,  8.8217e-03, -2.0815e-02,  1.3552e-03,
         1.8527e-03,  1.9111e-03, -6.8077e-03,  2.2507e-02,  1.2494e-03,
        -7.6554e-03, -2.7966e-03,  4.4267e-03, -5.8353e-03,  2.6449e-03,
        -1.7527e-04,  5.4290e-03,  4.1001e-03,  8.7436e-03, -1.2396e-02,
         1.4802e-02, -8.9548e-03,  2.2394e-03, -5.5303e-04,  1.4245e-03,
        -1.9506e-03, -1.2775e-02, -2.1575e-02,  7.3143e-03,  1.0572e-02,
        -1.7625e-03,  1.1468e-02, -6.0516e-03, -2.2597e-03, -1.6675e-02,
         2.4685e-03, -6.6049e-03, -2.2454e-03, -7.9535e-03, -1.2293e-02,
        -1.4517e-02,  2.3439e-03, -4.5795e-04,  1.0044e-02, -5.6018e-03,
        -1.0702e-03,  2.5545e-02, -2.5032e-03, -2.6767e-03, -2.0041e-03,
        -5.1753e-03, -4.0635e-04,  4.6586e-03,  2.5254e-03, -7.3829e-03,
         2.7810e-04,  1.1153e-03,  9.7735e-03, -3.6481e-03, -7.5755e-04,
        -5.6696e-04,  2.5757e-03,  3.3574e-03, -2.7581e-03, -4.5353e-03,
        -1.3113e-02, -9.4006e-04,  7.4504e-03,  8.0624e-03, -1.3989e-02,
         1.1404e-02,  1.2012e-03,  2.2972e-04,  7.1098e-03, -6.7844e-03,
        -4.7661e-03, -1.0165e-02, -6.9611e-05, -2.5904e-03,  1.0080e-02,
         5.3137e-03, -6.4972e-03, -5.3489e-03, -2.1374e-02,  4.0945e-03,
         5.6781e-03,  4.0126e-03, -2.9565e-03,  4.0317e-03, -3.4394e-03,
        -1.8401e-02, -7.1382e-03, -5.5971e-03,  3.3381e-03,  9.0298e-03,
        -7.3623e-03,  3.9080e-03, -1.4218e-02,  1.7893e-03,  1.8576e-03,
        -1.6555e-02, -6.7892e-04,  2.5268e-03, -7.9529e-05, -8.2035e-03,
        -2.8261e-03, -2.1744e-03,  7.9497e-03, -1.2371e-03, -9.8181e-04,
         1.9679e-02,  9.8307e-03,  5.8472e-03,  9.9134e-03,  8.4307e-04,
        -7.7099e-03,  1.7553e-02, -3.4632e-04,  5.9291e-04,  7.4731e-03,
         1.2473e-02,  4.2691e-03, -1.3171e-02, -4.5357e-03,  2.3098e-03,
         7.5495e-04,  6.6832e-04,  9.2504e-03,  5.6532e-03,  5.3711e-03,
        -8.1740e-04,  1.9953e-03,  2.6440e-03,  5.9152e-03, -9.7879e-04,
         1.5724e-03, -1.3353e-02, -1.0200e-02,  3.4461e-04, -3.1551e-03,
         1.2530e-02,  1.1216e-02,  1.0365e-02,  3.6462e-03,  1.2473e-03,
         1.1987e-02, -4.6092e-03, -5.2379e-03,  9.8291e-03,  1.7335e-03,
        -3.3735e-03,  2.1011e-03, -3.6076e-03,  1.3792e-02, -1.0197e-02,
         1.0089e-02,  3.6675e-04])
net.mlp.net.1.batch_norm.running_mean tensor([0.0778, 0.0684, 0.0619, 0.0504, 0.0827, 0.0823, 0.0503, 0.0644, 0.0525,
        0.0609, 0.0755, 0.0795, 0.0906, 0.0607, 0.0986, 0.0726, 0.0771, 0.0699,
        0.0702, 0.0802, 0.0896, 0.0697, 0.0931, 0.0976, 0.0672, 0.0924, 0.0653,
        0.0992, 0.1029, 0.0896, 0.0729, 0.0652, 0.0835, 0.0560, 0.0642, 0.0646,
        0.0591, 0.0636, 0.1001, 0.0780, 0.1019, 0.0752, 0.1121, 0.0558, 0.0835,
        0.0739, 0.0699, 0.0794, 0.0792, 0.0949, 0.0888, 0.0763, 0.0638, 0.0764,
        0.1133, 0.1031, 0.0749, 0.0758, 0.0711, 0.0547, 0.0809, 0.0967, 0.1101,
        0.0781, 0.0831, 0.0562, 0.1060, 0.1093, 0.0871, 0.0881, 0.0556, 0.0586,
        0.0853, 0.0780, 0.0778, 0.0711, 0.0944, 0.0745, 0.0689, 0.0824, 0.0841,
        0.0758, 0.0940, 0.0680, 0.0593, 0.0863, 0.0599, 0.0439, 0.0585, 0.0776,
        0.0843, 0.0951, 0.0648, 0.0618, 0.0989, 0.0667, 0.0530, 0.0738, 0.0840,
        0.1297, 0.0651, 0.0741, 0.0816, 0.0804, 0.0733, 0.0669, 0.1059, 0.0842,
        0.0898, 0.0854, 0.1013, 0.0911, 0.0935, 0.0861, 0.0989, 0.0849, 0.0501,
        0.0619, 0.0685, 0.0620, 0.0537, 0.1039, 0.0794, 0.0866, 0.0819, 0.0745,
        0.0927, 0.0985, 0.1123, 0.0860, 0.0768, 0.0799, 0.0701, 0.0585, 0.1097,
        0.0786, 0.0828, 0.0817, 0.0961, 0.0566, 0.0776, 0.0902, 0.1074, 0.0472,
        0.0502, 0.1055, 0.1014, 0.0917, 0.0798, 0.0565, 0.0595, 0.0952, 0.0918,
        0.0940, 0.0777, 0.0609, 0.0748, 0.0945, 0.0756, 0.0876, 0.0864, 0.0961,
        0.0601, 0.1088, 0.0939, 0.0817, 0.0837, 0.0693, 0.0700, 0.1276, 0.1019,
        0.0813, 0.0612, 0.0764, 0.0548, 0.0897, 0.0854, 0.0516, 0.1034, 0.0646,
        0.0554, 0.0754, 0.0719, 0.0778, 0.1006, 0.0625, 0.0957, 0.1035, 0.0848,
        0.0642, 0.0902, 0.1066, 0.0737, 0.0755, 0.0695, 0.0569, 0.0777, 0.0755,
        0.0590, 0.0557, 0.0694, 0.0655, 0.0754, 0.0824, 0.1153, 0.0759, 0.0807,
        0.0886, 0.0720, 0.0718, 0.0531, 0.0788, 0.0788, 0.0738, 0.0844, 0.1002,
        0.0925, 0.0755, 0.0805, 0.0682, 0.0651, 0.0861, 0.0902, 0.0720, 0.0956,
        0.0713, 0.0643, 0.0703, 0.0594, 0.0729, 0.0480, 0.0803, 0.0815, 0.1097,
        0.0771, 0.0887, 0.0722, 0.0665, 0.0432, 0.0874, 0.0781, 0.0747, 0.0839,
        0.0909, 0.0861, 0.0660, 0.0833, 0.0490, 0.0680, 0.0745, 0.0857, 0.0707,
        0.0899, 0.0849, 0.0846, 0.0844, 0.0830, 0.0651, 0.0625, 0.0496, 0.0934,
        0.1142, 0.0870, 0.0987, 0.1079, 0.0879, 0.0819, 0.0517, 0.0895, 0.0974,
        0.1213, 0.0786, 0.0943, 0.0530, 0.1029, 0.0730, 0.0844, 0.0919, 0.0689,
        0.0729, 0.0786, 0.0664, 0.0811, 0.0990, 0.0901, 0.0759, 0.1157, 0.0820,
        0.0939, 0.0902, 0.0957, 0.0660, 0.0913, 0.0911, 0.0747, 0.0697, 0.0759,
        0.0788, 0.0891, 0.0680, 0.1002, 0.0700, 0.0865, 0.0581, 0.1030, 0.1251,
        0.0738, 0.0692, 0.0876, 0.0809, 0.0859, 0.0931, 0.0744, 0.0723, 0.0706,
        0.1011, 0.1055, 0.0776, 0.0891, 0.0909, 0.0971, 0.0767, 0.0828, 0.0954,
        0.0862, 0.0739, 0.0588, 0.0687, 0.0698, 0.0693, 0.0768, 0.0568, 0.0659,
        0.0885, 0.0543, 0.0571, 0.0629, 0.0674, 0.0823, 0.0886, 0.0699, 0.0685,
        0.0566, 0.0581, 0.0750, 0.0880, 0.0791, 0.0600, 0.0839, 0.0782, 0.1121,
        0.0586, 0.0647, 0.1139, 0.0832, 0.0888, 0.0717, 0.1098, 0.1122, 0.0759,
        0.0949, 0.0846, 0.0681, 0.1156, 0.1066, 0.0865, 0.0813, 0.0685, 0.0705,
        0.0730, 0.0663, 0.0999, 0.0684, 0.1082, 0.0942, 0.0824, 0.0771, 0.1048,
        0.0947, 0.0633, 0.0608, 0.0823, 0.0971, 0.0934, 0.0755, 0.0769, 0.0760,
        0.0865, 0.0908, 0.0970, 0.0831, 0.0738, 0.1208, 0.0806, 0.0808, 0.0969,
        0.0490, 0.0787, 0.0782, 0.0741, 0.0889, 0.0895, 0.0586, 0.0881, 0.0605,
        0.0772, 0.0712, 0.1009, 0.0977, 0.0596, 0.0647, 0.0865, 0.0574, 0.0705,
        0.0795, 0.0931, 0.0805, 0.0634, 0.0766, 0.0857, 0.0847, 0.0817, 0.1041,
        0.0777, 0.0944, 0.1072, 0.0902, 0.0918, 0.0786, 0.0733, 0.1240, 0.0965,
        0.0892, 0.1003, 0.0791, 0.0701, 0.1130, 0.0983, 0.1018, 0.0752, 0.0886,
        0.0502, 0.0759, 0.0840, 0.1152, 0.1028, 0.0618, 0.0825, 0.0522, 0.0785,
        0.0826, 0.0863, 0.0969, 0.0728, 0.0710, 0.1082, 0.0784, 0.1013, 0.0902,
        0.0754, 0.0949, 0.0526, 0.0899, 0.0820, 0.0811, 0.0656, 0.1223, 0.0835,
        0.0704, 0.0564, 0.0886, 0.0670, 0.0685, 0.0922, 0.0680, 0.0894, 0.1075,
        0.0675, 0.0649, 0.0811, 0.0860, 0.0615, 0.0829, 0.0576, 0.0442, 0.0702,
        0.0950, 0.0869, 0.0829, 0.0559, 0.0925, 0.0769, 0.0879, 0.1134, 0.0626,
        0.0952, 0.0834, 0.0896, 0.0826, 0.0972, 0.0803, 0.0836, 0.0729, 0.0605,
        0.0790, 0.0934, 0.0772, 0.0582, 0.0677, 0.0810, 0.0753, 0.0749])
net.mlp.net.1.batch_norm.running_var tensor([0.0176, 0.0105, 0.0228, 0.0054, 0.0163, 0.0156, 0.0067, 0.0100, 0.0127,
        0.0103, 0.0121, 0.0142, 0.0385, 0.0132, 0.0178, 0.0181, 0.0145, 0.0113,
        0.0088, 0.0140, 0.0310, 0.0209, 0.0215, 0.0179, 0.0140, 0.0162, 0.0114,
        0.0200, 0.0230, 0.0190, 0.0111, 0.0153, 0.0162, 0.0066, 0.0151, 0.0203,
        0.0070, 0.0134, 0.0200, 0.0146, 0.0209, 0.0110, 0.0242, 0.0155, 0.0138,
        0.0177, 0.0145, 0.0141, 0.0174, 0.0195, 0.0160, 0.0127, 0.0080, 0.0131,
        0.0237, 0.0185, 0.0184, 0.0165, 0.0162, 0.0089, 0.0181, 0.0198, 0.0207,
        0.0143, 0.0145, 0.0093, 0.0480, 0.0262, 0.0201, 0.0258, 0.0134, 0.0073,
        0.0186, 0.0175, 0.0114, 0.0118, 0.0219, 0.0138, 0.0105, 0.0146, 0.0208,
        0.0144, 0.0194, 0.0129, 0.0120, 0.0195, 0.0173, 0.0054, 0.0063, 0.0155,
        0.0157, 0.0196, 0.0138, 0.0123, 0.0194, 0.0118, 0.0085, 0.0101, 0.0164,
        0.0348, 0.0113, 0.0098, 0.0134, 0.0225, 0.0108, 0.0102, 0.0228, 0.0133,
        0.0157, 0.0140, 0.0233, 0.0175, 0.0161, 0.0106, 0.0171, 0.0144, 0.0099,
        0.0109, 0.0266, 0.0244, 0.0068, 0.0177, 0.0104, 0.0181, 0.0280, 0.0125,
        0.0451, 0.0158, 0.0260, 0.0182, 0.0138, 0.0164, 0.0140, 0.0174, 0.0208,
        0.0136, 0.0199, 0.0114, 0.0181, 0.0078, 0.0143, 0.0144, 0.0272, 0.0061,
        0.0060, 0.0157, 0.0175, 0.0194, 0.0186, 0.0116, 0.0118, 0.0190, 0.0140,
        0.0162, 0.0158, 0.0112, 0.0144, 0.0141, 0.0123, 0.0175, 0.0152, 0.0446,
        0.0090, 0.0186, 0.0175, 0.0113, 0.0198, 0.0092, 0.0130, 0.0240, 0.0215,
        0.0159, 0.0193, 0.0167, 0.0071, 0.0151, 0.0125, 0.0069, 0.0186, 0.0101,
        0.0087, 0.0143, 0.0183, 0.0146, 0.0184, 0.0152, 0.0231, 0.0207, 0.0116,
        0.0141, 0.0171, 0.0234, 0.0113, 0.0114, 0.0189, 0.0091, 0.0221, 0.0130,
        0.0112, 0.0110, 0.0164, 0.0115, 0.0111, 0.0205, 0.0236, 0.0130, 0.0148,
        0.0194, 0.0156, 0.0100, 0.0083, 0.0136, 0.0128, 0.0109, 0.0168, 0.0188,
        0.0170, 0.0139, 0.0150, 0.0134, 0.0081, 0.0153, 0.0208, 0.0190, 0.0224,
        0.0108, 0.0082, 0.0121, 0.0172, 0.0275, 0.0083, 0.0183, 0.0122, 0.0244,
        0.0145, 0.0171, 0.0165, 0.0100, 0.0095, 0.0153, 0.0152, 0.0100, 0.0126,
        0.0148, 0.0197, 0.0129, 0.0155, 0.0057, 0.0177, 0.0140, 0.0148, 0.0090,
        0.0170, 0.0138, 0.0164, 0.0173, 0.0193, 0.0107, 0.0093, 0.0145, 0.0227,
        0.0255, 0.0266, 0.0160, 0.0233, 0.0148, 0.0186, 0.0075, 0.0143, 0.0216,
        0.0242, 0.0119, 0.0517, 0.0156, 0.0345, 0.0173, 0.0155, 0.0280, 0.0094,
        0.0120, 0.0175, 0.0144, 0.0179, 0.0192, 0.0187, 0.0116, 0.0216, 0.0188,
        0.0187, 0.0197, 0.0233, 0.0118, 0.0191, 0.0196, 0.0112, 0.0095, 0.0169,
        0.0108, 0.0159, 0.0127, 0.0189, 0.0124, 0.0130, 0.0092, 0.0199, 0.0246,
        0.0143, 0.0135, 0.0184, 0.0121, 0.0169, 0.0203, 0.0173, 0.0328, 0.0145,
        0.0232, 0.0204, 0.0134, 0.0111, 0.0174, 0.0252, 0.0250, 0.0166, 0.0225,
        0.0126, 0.0131, 0.0123, 0.0122, 0.0109, 0.0120, 0.0138, 0.0131, 0.0130,
        0.0191, 0.0100, 0.0093, 0.0138, 0.0137, 0.0175, 0.0178, 0.0138, 0.0241,
        0.0124, 0.0095, 0.0234, 0.0133, 0.0183, 0.0118, 0.0169, 0.0156, 0.0257,
        0.0095, 0.0076, 0.0242, 0.0148, 0.0160, 0.0155, 0.0201, 0.0224, 0.0188,
        0.0207, 0.0190, 0.0149, 0.0245, 0.0213, 0.0161, 0.0170, 0.0091, 0.0238,
        0.0110, 0.0139, 0.0197, 0.0178, 0.0311, 0.0154, 0.0276, 0.0135, 0.0172,
        0.0205, 0.0199, 0.0086, 0.0124, 0.0183, 0.0241, 0.0151, 0.0142, 0.0145,
        0.0157, 0.0124, 0.0185, 0.0201, 0.0119, 0.0243, 0.0164, 0.0144, 0.0211,
        0.0057, 0.0107, 0.0125, 0.0118, 0.0135, 0.0210, 0.0090, 0.0173, 0.0064,
        0.0152, 0.0106, 0.0212, 0.0162, 0.0162, 0.0113, 0.0156, 0.0081, 0.0139,
        0.0260, 0.0174, 0.0128, 0.0115, 0.0110, 0.0187, 0.0167, 0.0144, 0.0262,
        0.0119, 0.0262, 0.0200, 0.0199, 0.0141, 0.0130, 0.0159, 0.0260, 0.0194,
        0.0233, 0.0206, 0.0233, 0.0114, 0.0241, 0.0215, 0.0479, 0.0115, 0.0164,
        0.0056, 0.0164, 0.0153, 0.0251, 0.0188, 0.0212, 0.0141, 0.0108, 0.0128,
        0.0137, 0.0147, 0.0231, 0.0161, 0.0121, 0.0258, 0.0129, 0.0414, 0.0164,
        0.0130, 0.0269, 0.0070, 0.0167, 0.0151, 0.0121, 0.0093, 0.0303, 0.0160,
        0.0157, 0.0066, 0.0316, 0.0220, 0.0117, 0.0165, 0.0128, 0.0155, 0.0231,
        0.0214, 0.0107, 0.0183, 0.0151, 0.0085, 0.0128, 0.0080, 0.0050, 0.0139,
        0.0189, 0.0158, 0.0132, 0.0068, 0.0203, 0.0154, 0.0179, 0.0227, 0.0108,
        0.0180, 0.0122, 0.0172, 0.0181, 0.0176, 0.0158, 0.0315, 0.0213, 0.0074,
        0.0136, 0.0176, 0.0135, 0.0107, 0.0181, 0.0183, 0.0184, 0.0119])
net.mlp.net.1.batch_norm.num_batches_tracked tensor(420)
net.mlp.net.2.weight tensor([[-0.0211, -0.0005,  0.0091, -0.0016, -0.0226, -0.0199,  0.0020, -0.0066,
          0.0011, -0.0134, -0.0192, -0.0195,  0.0060, -0.0136,  0.0153, -0.0023,
          0.0182,  0.0190,  0.0021, -0.0122,  0.0123, -0.0018, -0.0246,  0.0088,
          0.0283,  0.0202, -0.0118,  0.0079,  0.0245, -0.0237,  0.0016, -0.0121,
          0.0065, -0.0018,  0.0095, -0.0023,  0.0026, -0.0166, -0.0174,  0.0193,
          0.0097,  0.0071,  0.0134, -0.0018,  0.0096, -0.0150, -0.0090, -0.0115,
         -0.0180, -0.0141,  0.0136,  0.0104, -0.0105,  0.0130,  0.0171,  0.0203,
         -0.0212, -0.0061, -0.0215,  0.0026, -0.0096,  0.0127,  0.0223, -0.0100,
          0.0143, -0.0134, -0.0071, -0.0259, -0.0200, -0.0104,  0.0010,  0.0027,
          0.0149, -0.0173,  0.0026,  0.0081, -0.0280, -0.0119, -0.0016, -0.0099,
         -0.0204, -0.0078,  0.0144, -0.0132, -0.0141, -0.0128, -0.0055, -0.0036,
         -0.0016, -0.0022, -0.0314,  0.0198,  0.0004, -0.0189, -0.0141, -0.0058,
          0.0026,  0.0061,  0.0141,  0.0183,  0.0003, -0.0076,  0.0140, -0.0198,
          0.0059,  0.0063, -0.0237,  0.0098,  0.0067,  0.0176,  0.0214, -0.0219,
          0.0212,  0.0200,  0.0167,  0.0204, -0.0058,  0.0028, -0.0129, -0.0008,
          0.0039,  0.0151,  0.0048, -0.0191,  0.0042, -0.0025, -0.0146,  0.0120,
          0.0122, -0.0154, -0.0176, -0.0186, -0.0043, -0.0068, -0.0219,  0.0099,
         -0.0209,  0.0049,  0.0203,  0.0033,  0.0071, -0.0131,  0.0128,  0.0017,
          0.0038,  0.0234,  0.0152, -0.0309, -0.0134, -0.0080, -0.0173,  0.0185,
          0.0126,  0.0050,  0.0137, -0.0059, -0.0208,  0.0175, -0.0196, -0.0101,
          0.0189,  0.0219, -0.0089,  0.0162, -0.0072, -0.0067, -0.0287,  0.0027,
         -0.0053,  0.0115, -0.0220, -0.0098, -0.0020, -0.0150,  0.0044,  0.0160,
          0.0039,  0.0031, -0.0227, -0.0085, -0.0043,  0.0149, -0.0001, -0.0071,
          0.0188, -0.0215, -0.0121,  0.0172,  0.0055, -0.0115, -0.0111,  0.0181,
          0.0072, -0.0105, -0.0161,  0.0001, -0.0076, -0.0116, -0.0020, -0.0106,
         -0.0134, -0.0103,  0.0172, -0.0079,  0.0149, -0.0129, -0.0136, -0.0177,
         -0.0129, -0.0027,  0.0012,  0.0025, -0.0052,  0.0060, -0.0131,  0.0237,
          0.0112, -0.0130, -0.0082, -0.0132,  0.0035, -0.0240, -0.0194, -0.0120,
         -0.0213,  0.0103,  0.0071,  0.0147, -0.0112, -0.0126, -0.0004, -0.0216,
          0.0042,  0.0196, -0.0247,  0.0152, -0.0276,  0.0056, -0.0107, -0.0119,
          0.0088,  0.0104, -0.0064,  0.0021, -0.0096, -0.0096, -0.0259, -0.0010,
         -0.0148, -0.0112,  0.0155,  0.0059,  0.0239,  0.0035, -0.0181, -0.0145,
         -0.0151, -0.0002, -0.0177, -0.0023, -0.0195, -0.0109,  0.0073,  0.0144,
          0.0250,  0.0125, -0.0170, -0.0085,  0.0215, -0.0221,  0.0127,  0.0058,
         -0.0067, -0.0099,  0.0141, -0.0120,  0.0125, -0.0221,  0.0164, -0.0118,
         -0.0243,  0.0056, -0.0198,  0.0177,  0.0266,  0.0159,  0.0150, -0.0184,
         -0.0166,  0.0045,  0.0181,  0.0143,  0.0139,  0.0148,  0.0073,  0.0117,
         -0.0172,  0.0125, -0.0106, -0.0070,  0.0134, -0.0109, -0.0183, -0.0145,
          0.0034,  0.0110, -0.0169, -0.0161, -0.0240,  0.0177, -0.0056, -0.0133,
          0.0185, -0.0032, -0.0072, -0.0216,  0.0209, -0.0180,  0.0066, -0.0165,
         -0.0201, -0.0078,  0.0210, -0.0101, -0.0123, -0.0172, -0.0155, -0.0100,
         -0.0124,  0.0029, -0.0171, -0.0018, -0.0110, -0.0004, -0.0066, -0.0109,
         -0.0067, -0.0257, -0.0154,  0.0260, -0.0122,  0.0084, -0.0039, -0.0042,
         -0.0104,  0.0119, -0.0299,  0.0074,  0.0331, -0.0115,  0.0136,  0.0111,
          0.0063,  0.0186,  0.0112,  0.0151, -0.0169,  0.0188,  0.0169, -0.0138,
          0.0108, -0.0082, -0.0150,  0.0192,  0.0175, -0.0148, -0.0169,  0.0023,
         -0.0167,  0.0123,  0.0024,  0.0234,  0.0018, -0.0133,  0.0172, -0.0086,
         -0.0052,  0.0144,  0.0291,  0.0029,  0.0052, -0.0176, -0.0305, -0.0159,
         -0.0143, -0.0169, -0.0134,  0.0120,  0.0015,  0.0282, -0.0047,  0.0098,
          0.0169, -0.0307, -0.0099,  0.0133,  0.0093,  0.0074,  0.0209,  0.0193,
          0.0044, -0.0188,  0.0023,  0.0169,  0.0074, -0.0020,  0.0057, -0.0083,
          0.0226, -0.0049, -0.0064,  0.0250,  0.0139, -0.0087,  0.0109,  0.0070,
         -0.0136, -0.0165,  0.0012, -0.0164, -0.0135, -0.0228, -0.0247,  0.0039,
         -0.0122,  0.0227, -0.0226,  0.0116,  0.0124, -0.0042,  0.0202, -0.0195,
         -0.0173, -0.0193, -0.0105, -0.0150,  0.0138,  0.0283,  0.0056,  0.0129,
         -0.0281, -0.0040,  0.0077,  0.0153,  0.0216, -0.0223,  0.0045,  0.0138,
         -0.0058,  0.0076, -0.0123, -0.0055, -0.0129, -0.0091, -0.0047,  0.0240,
          0.0111,  0.0159,  0.0142, -0.0217, -0.0171, -0.0087,  0.0201, -0.0135,
          0.0187, -0.0117,  0.0293,  0.0001, -0.0084, -0.0006, -0.0059, -0.0045,
         -0.0122, -0.0133, -0.0166,  0.0165,  0.0143,  0.0040, -0.0074, -0.0234,
          0.0063, -0.0014,  0.0167,  0.0116, -0.0088, -0.0092,  0.0220,  0.0154,
          0.0181, -0.0055,  0.0295, -0.0179,  0.0013, -0.0138, -0.0060,  0.0317,
          0.0098, -0.0170, -0.0100,  0.0049, -0.0127,  0.0015, -0.0076,  0.0077,
         -0.0051,  0.0272,  0.0174, -0.0008, -0.0031, -0.0150, -0.0058,  0.0159]])
