Weights: 
net.embeddings.embeddings.0.weight tensor([[-0.0938,  0.5695],
        [-0.1009,  0.5948],
        [-0.0305,  0.2265],
        [-0.5987,  0.1344]])
net.embeddings.embeddings.1.weight tensor([[ 0.2809,  0.4191],
        [ 0.4593, -0.4793],
        [ 0.0796, -0.4906],
        [-0.2714, -0.2496],
        [ 0.3942,  0.2683]])
net.embeddings.embeddings.2.weight tensor([[-0.1806, -0.2812, -0.3360],
        [ 0.1775,  0.3131, -0.0350],
        [-0.2669, -0.2888,  0.2375],
        [-0.0533,  0.1911, -0.4562],
        [-0.4631,  0.3942, -0.3120],
        [ 0.0518, -0.0449,  0.3580]])
net.embeddings.embeddings.3.weight tensor([[ 0.1736, -0.5770],
        [ 0.6531,  0.6302],
        [-0.1443,  0.5097],
        [-0.5675,  0.6448]])
net.embeddings.embeddings.4.weight tensor([[ 0.1840, -0.2950],
        [ 0.5455,  0.1914],
        [ 0.6021, -0.2403],
        [ 0.2701, -0.1074]])
net.mlp.net.0.linear.weight tensor([[-0.3631, -0.2669, -0.1200,  ...,  0.0019, -0.2752,  0.3487],
        [ 0.4696,  0.7512,  0.0883,  ..., -0.0337, -0.1930, -0.5755],
        [ 0.5591,  0.3925, -0.4995,  ...,  0.0954, -0.0551, -0.0085],
        ...,
        [ 0.1441,  0.6290,  0.0902,  ...,  0.0967, -0.0803, -0.0545],
        [ 0.3501,  0.5285,  0.1407,  ...,  0.3572,  0.1671, -0.3920],
        [ 0.2786, -0.1340,  0.1467,  ..., -0.0203,  0.1944,  0.3371]])
net.mlp.net.0.linear.bias tensor([-1.8692e-01,  6.2705e-02, -1.8765e-01,  1.3853e-01, -3.4773e-02,
        -1.3860e-01,  2.2143e-01,  7.2696e-02,  6.1248e-02, -1.5167e-01,
        -2.0382e-01, -1.7152e-01, -6.3492e-02, -1.7201e-01, -1.1573e-01,
         1.6803e-01, -3.9694e-02,  3.3086e-02,  1.0615e-01, -1.5321e-02,
         1.3895e-01, -1.2103e-01,  1.8077e-01,  1.2426e-01, -1.5029e-01,
         1.2124e-01,  7.9274e-02,  5.0167e-02, -9.3613e-02,  1.0659e-01,
        -2.2063e-01,  2.9416e-02,  1.8000e-01, -7.8597e-02, -6.9629e-04,
         3.8515e-02, -1.2627e-01,  1.2547e-01, -1.5000e-01, -2.1900e-01,
        -1.8517e-01,  5.6506e-03, -5.1989e-02,  8.8776e-02, -2.2569e-01,
         4.8654e-02,  7.9600e-02, -2.0896e-01,  1.6916e-01,  1.0321e-01,
        -1.7745e-01,  1.1775e-01, -4.7124e-03, -8.9047e-02,  2.0532e-01,
        -5.9401e-02,  7.2248e-02, -5.6678e-02,  1.8624e-01,  1.6689e-01,
         1.6427e-01,  7.1818e-02, -1.6707e-01,  1.6112e-01,  3.9136e-03,
         1.4000e-01, -1.8852e-01, -8.5414e-02,  3.1792e-02,  2.2161e-01,
        -4.2231e-02, -3.9108e-02,  1.8108e-01,  1.9842e-01, -8.7209e-02,
         8.8020e-02, -1.1349e-01,  1.9695e-01,  1.6660e-03,  2.1924e-02,
        -5.3572e-02,  8.1099e-02, -1.1073e-01, -1.6998e-01,  1.2728e-01,
        -8.4709e-02,  2.1769e-01,  2.3213e-02,  3.8548e-02, -1.9665e-01,
        -1.7265e-01, -5.1721e-02,  4.0065e-02, -1.9576e-01,  6.2711e-02,
        -1.2288e-01,  1.4689e-01,  1.5726e-01,  3.2920e-02, -1.4056e-01,
        -7.2364e-02,  1.7366e-01, -2.0166e-01,  3.9535e-02,  1.9254e-01,
        -1.1976e-01,  8.3181e-02,  1.5057e-01, -6.8076e-02,  1.8282e-01,
         7.7809e-02,  5.2670e-02,  2.2046e-01, -3.3811e-02, -1.5061e-01,
        -1.4121e-01, -1.8072e-01,  1.7175e-01,  1.1369e-01, -1.6036e-01,
         1.4029e-01, -1.2591e-01, -1.4572e-01, -2.1598e-01, -1.3544e-04,
        -3.7600e-05,  5.1432e-02,  7.7939e-02,  2.0270e-02, -3.4636e-02,
         2.0167e-01, -1.5156e-01, -2.0239e-01,  1.1101e-01, -6.1200e-03,
        -9.5307e-02,  3.8462e-02, -2.0140e-01,  1.3716e-01,  1.9082e-02,
        -1.0994e-01,  1.2948e-01,  9.8715e-02, -1.9469e-01, -1.4408e-01,
         2.0452e-01,  1.8870e-01, -7.2992e-02, -1.9623e-01, -2.0637e-01,
        -1.2443e-01, -1.7922e-01,  1.4809e-01, -6.2596e-02,  6.8270e-02,
        -2.9457e-02,  1.9429e-01, -1.9979e-01,  1.6583e-01,  6.8146e-03,
         1.8537e-02, -3.7923e-02,  1.4002e-01,  2.2121e-01,  1.0723e-01,
         1.6626e-01, -8.1512e-02,  6.6622e-02, -3.4046e-02, -4.2520e-02,
         3.6658e-02,  1.0645e-01, -2.1235e-01, -1.1118e-01, -8.9041e-02,
         1.2496e-01, -8.9295e-02, -1.7581e-01, -1.6525e-01, -3.4583e-02,
        -1.3276e-01,  1.5829e-01,  1.0708e-01,  2.0318e-01, -6.4465e-02,
        -1.2014e-01, -2.0424e-01,  5.8208e-02, -2.1718e-01,  6.7970e-02,
        -2.1298e-01, -2.1031e-01,  1.8767e-02, -1.4932e-01,  1.9362e-01,
         2.0652e-01,  1.9978e-01, -2.1505e-01, -2.0808e-01,  1.9029e-01,
        -7.4314e-02, -9.8130e-02,  1.1627e-01,  1.9023e-01, -2.0637e-01,
         1.9182e-01,  1.9860e-01, -1.1353e-01,  1.1002e-01,  6.5017e-02,
         1.2043e-01, -1.5967e-01,  5.2860e-02, -2.0020e-03, -2.2088e-01,
         2.1113e-01,  1.6885e-01,  1.9614e-01, -1.3781e-01, -1.3706e-01,
        -7.1574e-02,  1.0054e-02,  7.3366e-02, -1.3815e-01, -1.8133e-01,
        -1.8079e-02,  1.1308e-02,  2.0677e-01,  5.9868e-02,  1.2738e-01,
         1.1018e-01,  1.5150e-01, -1.0971e-01, -3.6747e-03,  2.1435e-02,
        -8.3496e-02,  4.3808e-02,  1.6900e-01,  5.3801e-02, -1.9019e-01,
        -3.7258e-02, -1.9769e-01, -2.7004e-02, -9.2736e-02,  2.0062e-01,
        -1.1568e-01,  3.7440e-03,  2.2198e-01, -2.9910e-02, -4.5396e-02,
        -1.0981e-01, -1.6381e-01, -3.6855e-02, -2.1041e-01, -8.1245e-02,
         1.7853e-01, -1.4146e-01, -1.9367e-01,  1.3164e-01, -1.2405e-01,
        -5.9402e-02,  4.6904e-02,  1.7476e-01, -1.7530e-01,  2.1605e-03,
        -7.2738e-02, -1.5945e-01,  7.6378e-02,  6.5949e-02,  1.0731e-02,
        -6.0443e-02, -7.2424e-02,  1.4328e-01, -1.4954e-01, -8.1903e-02,
         7.3581e-02,  9.2888e-02, -2.0623e-01,  1.0055e-01, -9.2645e-02,
         1.8859e-01, -1.7799e-01, -1.3141e-01,  3.8210e-03, -9.8251e-02,
         1.5090e-01,  5.3553e-02,  2.0083e-01, -9.1803e-02,  2.0975e-01,
         2.1415e-01, -2.1046e-01,  1.9768e-01, -1.5325e-01,  8.6756e-04,
         2.1333e-01, -2.1942e-01, -2.9020e-03,  1.4242e-01,  1.9881e-01,
        -1.5067e-01, -1.7559e-01,  1.2533e-01, -2.0141e-01, -1.3760e-01,
        -7.7827e-02,  4.6375e-04,  1.3199e-01, -1.4187e-01,  3.0172e-03,
        -1.4731e-02, -1.0976e-01,  1.0594e-01, -1.6294e-01, -2.0137e-01,
         2.2175e-01,  6.8322e-02, -4.2890e-02, -1.0899e-01, -1.5495e-01,
         6.4992e-02,  3.1763e-02,  2.3528e-02, -1.7165e-01, -1.6491e-01,
        -1.0494e-01,  2.0769e-01, -4.5391e-02,  8.2740e-02,  1.8014e-01,
        -1.3798e-01,  1.3788e-01,  1.6424e-01,  1.6446e-02, -8.2747e-02,
        -2.1963e-01,  1.6091e-01, -1.3403e-01, -1.1847e-01, -2.0674e-01,
        -4.3567e-02, -1.4312e-01,  1.9952e-01,  7.4406e-02, -9.0718e-02,
         1.6018e-01,  5.8610e-02, -1.4055e-01, -1.1900e-01, -4.1251e-02,
        -2.1893e-01, -1.6365e-01, -3.0201e-02,  1.5236e-01,  1.7510e-01,
         8.7326e-02, -1.6094e-01,  3.3602e-02,  2.0038e-01,  1.6433e-01,
        -7.0975e-04, -5.5354e-04, -1.9454e-01, -2.0779e-02,  2.1360e-01,
        -1.3066e-01, -1.8030e-02, -2.0895e-01, -1.8787e-01, -2.2299e-01,
        -1.5699e-01,  1.2181e-01, -4.4505e-02, -1.6322e-01, -1.0484e-01,
         9.6827e-02, -1.6034e-01,  1.9302e-01, -2.1354e-01,  1.2655e-01,
         6.3745e-02,  3.4878e-02, -1.6301e-01, -5.7326e-02, -1.7049e-01,
         1.8400e-01, -9.1655e-02,  1.4584e-01, -2.0630e-01, -3.7142e-02,
         8.2209e-02,  1.7425e-02, -3.2468e-02,  1.0845e-01,  6.9339e-02,
        -1.4011e-01, -1.5750e-01,  1.1629e-01,  1.9828e-01,  1.9389e-02,
         2.1814e-01,  6.8616e-03,  1.5799e-01, -7.4721e-02, -1.0868e-01,
         1.1739e-01,  1.7820e-01,  1.2856e-01, -5.7386e-02,  1.9460e-01,
         1.6904e-01, -5.0709e-02,  2.9456e-02,  2.9894e-02,  1.8377e-01,
        -5.4799e-02, -1.0754e-01, -1.7122e-01, -1.1209e-01,  5.4933e-02,
         9.5632e-02, -1.7434e-01, -5.8904e-02, -5.2393e-02,  1.8446e-03,
         1.7771e-01, -7.3713e-02,  1.3040e-01, -1.5152e-01,  9.5765e-02,
        -1.4458e-01,  1.4459e-01, -4.0116e-02,  1.2272e-01, -1.9736e-02,
         1.7851e-01,  1.2790e-02,  1.7385e-01,  2.0509e-01,  3.2574e-02,
         6.4345e-02,  8.8394e-02,  6.3091e-02, -1.1878e-01,  1.1010e-01,
        -1.5354e-01,  1.3578e-01,  5.2047e-02, -1.7006e-01, -1.6506e-01,
        -4.1315e-02,  1.6205e-01, -8.5577e-02, -4.5836e-02,  4.8791e-02,
        -8.4317e-03, -1.7276e-02, -8.1784e-03, -1.9686e-01, -2.8553e-02,
         1.3097e-01,  1.4788e-01, -9.5081e-03,  5.9276e-02, -1.2169e-01,
         1.8547e-02, -2.1277e-01, -6.7703e-02, -4.7602e-02,  2.1057e-01,
        -1.2462e-01,  1.9796e-01,  1.3413e-01, -6.6744e-02,  6.4093e-02,
        -8.5458e-02, -3.3601e-02, -1.5092e-01, -3.2231e-02, -2.0559e-02,
         1.5626e-01,  2.0128e-01,  1.1579e-01, -2.2780e-02,  1.0801e-01,
         7.8297e-02,  5.3665e-02, -5.8341e-02,  9.5778e-02,  5.7757e-02,
        -3.5306e-02, -7.8807e-02,  7.6438e-02, -5.2411e-02,  1.9046e-01,
         5.2506e-02, -1.2995e-01,  1.9649e-01,  2.3361e-02, -1.1028e-01,
         1.6450e-01, -1.0013e-01, -8.2352e-02, -1.2144e-01, -1.9602e-01,
         1.6543e-01, -9.3711e-02,  1.3108e-01,  1.3882e-01,  9.4582e-02,
         1.0606e-01, -7.0718e-03])
net.mlp.net.0.batch_norm.weight tensor([0.9953, 1.0019, 0.9975, 0.9989, 1.0058, 1.0003, 0.9978, 1.0040, 0.9951,
        1.0071, 0.9979, 0.9968, 1.0020, 1.0039, 1.0006, 1.0032, 1.0001, 0.9951,
        1.0001, 1.0011, 0.9984, 0.9966, 0.9999, 1.0033, 0.9996, 1.0018, 1.0007,
        1.0002, 1.0020, 1.0026, 1.0051, 1.0028, 1.0008, 1.0007, 0.9996, 0.9988,
        1.0007, 0.9995, 0.9984, 1.0033, 1.0034, 1.0016, 1.0004, 1.0041, 0.9974,
        1.0049, 0.9982, 1.0002, 1.0024, 1.0004, 0.9982, 1.0014, 1.0026, 0.9970,
        1.0012, 1.0005, 1.0026, 0.9947, 0.9999, 0.9996, 1.0011, 1.0018, 0.9980,
        1.0007, 0.9948, 0.9990, 0.9985, 1.0006, 0.9989, 0.9970, 1.0025, 0.9992,
        0.9974, 0.9988, 1.0014, 1.0031, 1.0005, 1.0004, 0.9979, 1.0007, 0.9989,
        1.0026, 1.0026, 0.9930, 0.9980, 1.0021, 0.9953, 0.9992, 1.0071, 1.0033,
        0.9955, 1.0009, 0.9979, 0.9999, 0.9975, 0.9998, 1.0018, 1.0030, 1.0026,
        1.0024, 1.0057, 1.0005, 1.0019, 1.0034, 1.0020, 0.9986, 0.9998, 1.0031,
        1.0062, 1.0040, 1.0000, 1.0001, 1.0002, 0.9969, 0.9992, 0.9950, 1.0020,
        1.0011, 0.9994, 0.9967, 1.0001, 0.9964, 0.9979, 0.9931, 0.9990, 0.9980,
        0.9999, 0.9952, 0.9966, 1.0006, 1.0038, 0.9985, 0.9994, 1.0018, 1.0006,
        0.9952, 1.0057, 0.9985, 1.0019, 0.9981, 0.9944, 1.0041, 1.0039, 1.0016,
        1.0038, 0.9990, 0.9985, 0.9982, 0.9995, 1.0049, 1.0051, 0.9989, 0.9996,
        0.9933, 0.9987, 1.0042, 1.0038, 0.9977, 0.9939, 1.0004, 0.9940, 1.0039,
        0.9973, 0.9993, 0.9977, 1.0040, 1.0005, 0.9981, 1.0048, 0.9995, 1.0069,
        0.9943, 1.0039, 1.0009, 0.9973, 1.0031, 1.0006, 1.0014, 0.9999, 1.0040,
        1.0038, 0.9978, 0.9988, 0.9994, 1.0044, 1.0009, 1.0033, 0.9952, 1.0014,
        1.0034, 0.9983, 0.9996, 1.0004, 1.0021, 1.0034, 0.9980, 0.9960, 0.9994,
        1.0001, 1.0018, 1.0001, 1.0029, 1.0001, 1.0024, 1.0036, 0.9992, 1.0051,
        0.9987, 1.0019, 0.9962, 0.9961, 0.9989, 0.9982, 0.9993, 1.0018, 1.0014,
        0.9943, 1.0000, 0.9964, 1.0011, 0.9981, 1.0010, 0.9969, 1.0020, 1.0001,
        1.0008, 1.0022, 1.0006, 0.9959, 0.9988, 1.0019, 0.9939, 1.0003, 0.9981,
        1.0009, 0.9964, 1.0025, 1.0052, 1.0017, 1.0033, 0.9971, 1.0014, 0.9961,
        1.0051, 1.0034, 0.9992, 0.9925, 1.0008, 0.9998, 0.9955, 0.9993, 0.9973,
        1.0011, 0.9998, 0.9994, 0.9993, 1.0035, 1.0008, 0.9977, 1.0008, 1.0043,
        1.0010, 1.0040, 1.0037, 1.0002, 1.0019, 1.0065, 1.0068, 1.0023, 1.0018,
        0.9998, 1.0008, 0.9997, 1.0001, 1.0040, 1.0002, 1.0051, 0.9994, 1.0011,
        0.9979, 0.9977, 1.0024, 0.9990, 0.9984, 1.0047, 1.0017, 1.0008, 1.0013,
        0.9994, 1.0034, 0.9997, 0.9984, 1.0009, 0.9998, 0.9989, 1.0006, 1.0025,
        0.9985, 1.0018, 1.0052, 0.9987, 1.0017, 1.0040, 0.9987, 0.9976, 1.0008,
        0.9994, 1.0044, 1.0004, 0.9980, 0.9988, 1.0037, 1.0003, 0.9979, 1.0056,
        1.0004, 1.0076, 1.0001, 0.9985, 0.9964, 1.0022, 0.9985, 1.0061, 1.0018,
        0.9941, 0.9930, 0.9982, 0.9995, 1.0011, 1.0055, 0.9986, 0.9989, 1.0004,
        1.0028, 1.0050, 0.9989, 0.9989, 0.9972, 0.9997, 0.9997, 0.9966, 1.0046,
        1.0037, 0.9982, 0.9999, 0.9999, 0.9954, 0.9990, 1.0043, 1.0032, 1.0003,
        1.0063, 1.0068, 0.9977, 1.0018, 1.0030, 1.0053, 0.9990, 0.9999, 1.0040,
        0.9969, 0.9998, 1.0032, 0.9983, 0.9976, 1.0013, 1.0010, 0.9960, 0.9989,
        1.0005, 0.9973, 1.0000, 1.0033, 0.9964, 0.9951, 1.0041, 1.0075, 1.0027,
        1.0040, 0.9983, 1.0023, 1.0004, 0.9942, 0.9990, 1.0013, 1.0023, 0.9963,
        1.0028, 0.9982, 0.9981, 1.0023, 0.9994, 1.0072, 0.9996, 0.9997, 0.9971,
        0.9985, 0.9996, 0.9990, 1.0002, 0.9971, 0.9971, 1.0030, 0.9980, 1.0034,
        1.0004, 0.9974, 1.0015, 0.9952, 0.9969, 1.0035, 0.9981, 1.0019, 0.9950,
        0.9986, 1.0019, 1.0000, 1.0044, 0.9975, 0.9930, 1.0016, 1.0008, 1.0013,
        1.0006, 1.0026, 0.9962, 1.0052, 1.0059, 1.0006, 1.0005, 1.0022, 0.9968,
        0.9947, 1.0070, 1.0024, 1.0009, 1.0025, 0.9992, 0.9999, 0.9998, 1.0037,
        0.9996, 1.0011, 1.0030, 0.9920, 1.0015, 1.0039, 0.9984, 1.0023, 1.0008,
        0.9980, 0.9996, 0.9959, 0.9985, 1.0023, 1.0076, 0.9982, 1.0047, 1.0049,
        1.0004, 0.9975, 0.9991, 0.9982, 1.0025, 1.0037, 1.0021, 0.9982, 0.9995,
        0.9972, 1.0026, 0.9960, 1.0019, 0.9993, 0.9998, 1.0019, 1.0028, 0.9981,
        1.0014, 1.0055, 0.9973, 0.9967, 0.9988, 0.9996, 1.0048, 0.9994, 1.0007,
        1.0006, 1.0010, 1.0030, 0.9980, 0.9963, 1.0028, 1.0035, 0.9966, 0.9983,
        1.0008, 0.9991, 1.0050, 1.0011, 1.0035, 1.0005, 0.9979, 1.0025, 1.0038,
        0.9998, 1.0007, 1.0012, 1.0057, 1.0026, 0.9968, 0.9989, 1.0040])
net.mlp.net.0.batch_norm.bias tensor([ 1.2517e-03, -4.3047e-03,  3.2043e-03, -1.0656e-03, -6.0775e-03,
        -5.7545e-03,  4.9738e-03, -2.8019e-03,  2.3646e-04,  2.4493e-03,
         1.9022e-03, -4.4542e-03,  3.7702e-03, -1.3427e-03, -1.6919e-04,
         2.4877e-03,  2.5551e-03, -5.4793e-03,  6.2502e-04,  1.5266e-04,
         6.3046e-03, -3.0291e-03, -1.2528e-03,  6.8600e-04,  1.9614e-03,
         4.3288e-03,  2.1634e-03, -6.6238e-04, -2.3227e-04,  8.5075e-04,
        -1.9341e-03, -4.1489e-04, -1.7036e-03, -4.6329e-03,  3.4504e-03,
        -1.0902e-03,  1.8054e-03, -4.9523e-04,  9.9852e-04, -3.0311e-03,
        -5.3860e-03, -1.9950e-03,  6.1148e-03, -2.6599e-03, -3.5335e-03,
        -7.2319e-03,  7.4827e-04, -1.8890e-03,  1.0253e-03,  1.7976e-03,
        -8.8907e-04, -3.0524e-04,  3.0742e-03, -2.4591e-04, -3.9886e-03,
         4.4424e-04, -5.9761e-03,  1.3010e-03, -1.8068e-03,  6.8974e-04,
         1.7664e-03,  1.7243e-03, -4.5327e-03,  3.2656e-03, -3.0736e-03,
        -2.5189e-03,  2.8768e-03, -2.1478e-03, -2.5954e-03, -1.7426e-03,
        -3.0938e-03, -2.9776e-03, -8.0215e-04,  1.5563e-03, -1.1657e-04,
        -7.1714e-03,  2.1253e-03, -4.5751e-03,  3.0496e-03, -2.4588e-03,
         9.3370e-04,  2.6822e-03,  3.8667e-04, -5.3958e-03,  1.1351e-03,
        -2.6642e-03, -2.9557e-03,  7.4838e-03, -6.7157e-03,  5.1643e-03,
         9.8937e-05,  3.1319e-03, -5.8099e-03, -1.4586e-04, -8.8193e-04,
         5.8587e-03,  7.2268e-04,  2.4096e-03, -1.8820e-03,  1.8032e-03,
        -3.4879e-03,  3.5259e-04, -1.1482e-03, -1.3873e-03, -3.5253e-04,
         1.5688e-03, -3.5042e-03,  6.7427e-03,  9.0283e-04,  4.1299e-03,
        -5.4324e-05,  2.1489e-03, -1.6395e-03,  7.0775e-04, -9.6290e-05,
         2.9365e-03,  6.4232e-04,  4.3872e-03,  2.7813e-03,  2.9436e-03,
         1.7556e-03,  1.1000e-03, -2.9470e-03,  3.4390e-03, -4.4519e-03,
        -9.4517e-04,  2.5290e-03,  3.4777e-03,  2.1050e-03, -1.4657e-03,
        -1.7388e-03, -3.7794e-03, -6.5546e-03, -1.4897e-03, -1.3130e-04,
         6.9195e-03,  1.1066e-03, -4.7948e-03, -1.0772e-03,  5.5977e-03,
        -2.8411e-03,  1.5735e-03, -8.6336e-04,  5.1414e-04,  8.9461e-04,
        -9.4298e-04,  4.7326e-04, -3.7063e-03, -1.2225e-03,  4.0439e-03,
        -9.0834e-04, -1.8510e-03,  4.7336e-03,  2.7922e-03,  3.8928e-03,
         6.2075e-04, -8.1140e-04, -2.7460e-03,  1.5133e-03,  1.7706e-03,
         7.9149e-04,  1.3911e-03, -3.7312e-03, -3.4287e-03, -1.9199e-03,
        -3.6933e-03,  3.6397e-07,  2.1756e-03, -1.4277e-03,  5.1503e-04,
        -5.2620e-03, -3.3542e-03, -3.7717e-03,  4.2141e-03, -3.3461e-03,
        -1.7741e-04,  1.9006e-03,  2.0472e-03, -1.9767e-03,  4.2141e-04,
        -2.2409e-03,  2.2404e-03,  1.2728e-03,  3.6256e-03,  2.2094e-03,
         4.2982e-04, -1.3657e-03, -4.0077e-03,  1.5542e-04, -1.5523e-03,
        -3.2277e-03, -5.2855e-04, -3.4608e-03,  3.7341e-03,  3.3454e-04,
        -3.4266e-04, -2.7431e-03,  4.1913e-03, -7.9969e-04,  4.6931e-03,
        -3.6757e-04, -1.2488e-03, -6.2503e-04,  8.3912e-04,  1.9512e-03,
        -1.0383e-04,  1.6332e-03, -1.0842e-03,  2.3847e-03,  9.6087e-04,
        -1.4684e-03, -1.7882e-04,  2.3350e-03,  3.7656e-03, -6.5109e-04,
        -5.1860e-04, -2.0169e-03,  7.8381e-04, -1.1094e-03, -6.9168e-03,
         3.3734e-03, -4.3555e-04, -3.5983e-03, -4.0641e-03,  5.5096e-03,
         3.0466e-03, -4.5135e-04,  9.8837e-04,  1.9869e-03,  9.9822e-04,
         1.8408e-03, -2.0193e-03, -1.0173e-04,  4.1301e-03,  1.7047e-03,
         1.1029e-03, -4.4360e-03,  9.6132e-04, -3.7909e-03, -6.2928e-03,
        -8.1029e-03, -5.6936e-03,  3.6116e-03, -3.9248e-05,  3.6406e-03,
         7.6210e-03,  1.1256e-03, -1.8079e-03, -8.8955e-04,  1.3128e-04,
         5.2363e-03,  5.8210e-04,  1.5276e-03, -9.3469e-04, -1.5760e-03,
        -1.6185e-03, -2.8074e-03, -1.0572e-03, -1.5673e-04,  1.3436e-03,
        -4.9935e-03,  3.3265e-03, -1.6597e-03, -1.3345e-03, -4.1247e-03,
         4.9447e-03,  6.9367e-04, -3.9524e-03, -2.5545e-05, -3.3483e-03,
        -2.4243e-03,  6.9425e-03, -3.4178e-04, -1.8850e-03,  9.4669e-04,
         4.6110e-04,  2.7379e-03, -7.5539e-04, -2.8857e-03, -5.9149e-03,
        -4.5976e-03, -1.8681e-03,  7.2915e-04,  3.1933e-03, -7.4662e-04,
         2.4782e-03, -6.8245e-04,  4.9631e-03,  6.5959e-03, -2.1617e-03,
         1.3540e-03,  7.9561e-04, -1.3656e-04, -1.2283e-03, -1.4356e-04,
        -2.2217e-03,  1.3675e-03, -4.7356e-04,  7.0702e-04,  1.8071e-03,
         1.2853e-03,  1.3185e-03,  5.1882e-05,  7.0040e-05,  2.6196e-03,
         2.8847e-04, -2.0264e-03, -1.1747e-03, -9.8059e-04,  2.9575e-03,
        -3.7746e-04,  9.5903e-05, -5.1902e-03, -4.6734e-03,  8.8524e-04,
         2.1385e-03, -6.1419e-04,  3.0297e-03,  1.1090e-03, -1.1016e-03,
        -1.3957e-04, -4.0778e-03, -1.3638e-03, -2.5049e-04,  1.6388e-03,
         4.7013e-03,  3.7010e-03,  1.4838e-03,  1.5072e-03,  1.9363e-03,
         1.7326e-03,  1.8267e-03,  1.7577e-03, -1.8414e-03,  2.6013e-04,
        -2.5345e-03,  3.8063e-03,  1.8852e-03, -8.3132e-04, -4.6861e-04,
        -9.6868e-04, -2.0945e-03,  3.7074e-04,  3.2314e-03, -2.7370e-04,
        -1.3461e-03,  1.8514e-03, -5.1241e-04,  4.0644e-03, -3.4971e-03,
         5.9571e-03,  2.2837e-03, -5.2590e-03, -5.1035e-03, -4.4257e-03,
        -2.9767e-03, -5.3474e-03,  3.6907e-03, -4.5503e-03, -6.1263e-04,
         7.9601e-04,  3.4982e-03, -2.2452e-03,  2.5243e-03,  2.5298e-04,
         2.1866e-03, -1.3966e-03,  2.6033e-03, -2.1671e-03,  4.0339e-03,
         2.0937e-03,  5.8752e-04, -7.8542e-04,  3.4636e-04, -3.5664e-04,
         1.7273e-03,  4.8852e-06, -3.4394e-04, -7.6273e-03,  1.8184e-03,
        -3.4902e-03, -3.2803e-04, -2.9488e-03, -5.0642e-03, -4.6849e-03,
         2.8897e-04, -5.2445e-03, -1.4615e-03,  3.4454e-03,  1.1407e-03,
         6.0398e-03, -1.5609e-03,  3.5714e-05, -1.9455e-03, -1.3460e-03,
         3.4944e-03, -6.0468e-04, -4.2466e-03, -1.2412e-03,  7.1436e-04,
        -4.3326e-03,  1.0366e-03, -2.3474e-03,  1.8239e-03, -6.7739e-04,
        -1.2795e-03, -9.9722e-04,  1.5749e-04, -1.2859e-03,  7.1989e-03,
        -2.4622e-03, -1.9310e-03, -3.0312e-04, -7.0264e-04, -2.8878e-03,
        -1.7904e-03, -7.0753e-03,  1.7746e-03,  5.9721e-04, -7.1258e-03,
         1.0154e-03, -8.2797e-04, -1.8379e-03,  1.4854e-03, -6.3404e-04,
         1.1999e-03, -1.3029e-03,  3.1474e-03, -5.7021e-03,  2.9863e-03,
        -2.3720e-04,  1.3399e-03,  4.7740e-03,  5.8379e-04,  1.7223e-03,
         3.8621e-04,  2.1083e-03,  3.7691e-04,  2.9492e-03, -1.7648e-03,
        -1.1208e-03,  1.6452e-03,  1.1405e-03,  2.9715e-03,  4.6446e-03,
        -1.9582e-03, -3.8853e-03,  1.0839e-03,  4.2340e-03,  1.4767e-03,
        -1.9467e-03,  2.3751e-03, -2.6256e-04,  8.5779e-04, -5.4092e-03,
         2.1089e-03,  4.6694e-03, -7.4440e-03, -1.6313e-03, -4.2201e-03,
        -5.6129e-03, -2.8560e-03, -2.3872e-03, -5.0605e-04, -3.9912e-04,
         4.0834e-03, -2.7475e-04, -4.4909e-03,  4.7155e-03,  2.0607e-04,
        -1.7197e-03, -9.4596e-04, -2.2330e-03, -2.5973e-03,  1.4984e-03,
         3.4409e-03, -3.5820e-03, -7.1794e-03, -2.7678e-03, -4.8904e-03,
         1.1333e-03,  4.8872e-03,  1.4912e-03,  6.0024e-03,  5.9192e-03,
        -3.5557e-03,  5.0308e-05, -1.0074e-03, -4.1152e-03, -1.0274e-03,
         2.1881e-03,  1.0782e-03,  1.9383e-03, -5.7990e-04, -4.0331e-03,
         3.3757e-03,  1.3852e-03, -9.8773e-04, -4.9615e-03,  4.4165e-03,
        -4.3345e-04,  2.2122e-04,  1.4691e-03, -4.3226e-03, -4.3850e-04,
        -2.8956e-03, -1.7653e-03,  2.8293e-03, -7.7287e-03,  4.3596e-03,
         2.9997e-03, -5.4935e-04])
net.mlp.net.0.batch_norm.running_mean tensor([8.8239e-03, 2.3269e-01, 7.4269e-01, 4.2098e-01, 1.6405e-01, 3.1331e-02,
        2.9287e-01, 5.2770e-01, 1.2050e+00, 1.7877e-03, 1.3738e-01, 3.8649e-02,
        3.9349e-01, 2.5829e-01, 5.8196e-01, 9.4905e-01, 6.7280e-02, 3.7640e-01,
        4.9474e-01, 7.0900e-01, 3.1024e-01, 1.0587e-01, 8.1744e-01, 6.7105e-01,
        4.9480e-01, 5.9418e-01, 2.2933e-01, 2.6129e-02, 6.6782e-01, 4.0921e-01,
        5.2049e-02, 5.4921e-02, 4.0839e-01, 6.6824e-02, 1.4227e-01, 1.3644e-01,
        7.5543e-01, 2.5801e-01, 3.2053e-01, 2.9885e-01, 8.3724e-02, 4.8439e-01,
        4.9311e-01, 3.5732e-01, 3.6604e-02, 7.0910e-02, 4.7962e-02, 7.5683e-02,
        1.7027e-01, 8.4991e-01, 2.1309e-03, 5.4791e-01, 3.2001e-01, 1.5518e-01,
        5.3617e-01, 1.7229e-01, 5.3925e-02, 6.1837e-02, 1.7735e-03, 6.4786e-01,
        3.4845e-02, 1.0134e-01, 2.5140e-02, 2.3006e-01, 5.1838e-02, 6.1850e-01,
        3.9392e-01, 5.4878e-02, 1.0500e-01, 1.9286e-01, 2.9827e-01, 3.4917e-01,
        1.4431e-01, 1.0803e+00, 1.6949e-01, 4.9216e-02, 1.1435e-03, 2.6881e-01,
        1.6924e-01, 1.2324e-01, 2.0567e-02, 9.8444e-01, 4.7613e-01, 3.8049e-05,
        4.8779e-01, 2.2406e-02, 5.1083e-02, 9.1437e-02, 5.7972e-02, 5.1077e-01,
        4.5339e-01, 3.8592e-01, 6.2462e-02, 9.5500e-01, 9.4977e-02, 5.3660e-01,
        2.8087e-01, 4.8324e-02, 4.4937e-02, 1.5142e-01, 5.4248e-01, 1.6822e-01,
        1.6889e-01, 2.2917e-01, 5.1303e-01, 6.3279e-01, 2.0850e-01, 5.1602e-02,
        1.7967e-02, 7.4734e-01, 0.0000e+00, 5.7108e-02, 1.4486e-01, 1.6075e-02,
        7.4166e-02, 4.7368e-02, 5.3882e-02, 1.2987e-01, 2.1123e-01, 2.3285e-01,
        9.9908e-01, 2.2957e-01, 1.9857e-01, 3.3614e-02, 8.8366e-02, 4.8563e-01,
        4.3804e-01, 4.0905e-02, 3.3143e-01, 3.2102e-01, 3.3966e-02, 1.0849e-01,
        1.2273e-01, 3.0635e-02, 8.2039e-01, 2.4421e-01, 4.2758e-02, 7.5227e-02,
        5.2810e-01, 1.7458e-01, 3.8079e-01, 2.7802e-01, 1.8722e-01, 3.5015e-01,
        6.9294e-02, 2.4471e-01, 6.4558e-02, 4.4492e-01, 1.5124e-01, 1.6838e-01,
        8.5290e-02, 1.2203e-01, 7.5399e-01, 2.7110e-02, 4.0255e-01, 2.3275e-02,
        7.7913e-01, 5.8992e-03, 2.7720e-01, 7.1372e-02, 6.4992e-01, 4.3960e-01,
        1.1496e-01, 1.4988e-01, 5.9563e-02, 1.0228e+00, 5.5231e-02, 7.0641e-02,
        3.2296e-01, 1.2460e-01, 3.5952e-01, 1.4291e-01, 4.0044e-03, 2.1750e-01,
        7.7615e-02, 2.4971e-01, 2.9617e-01, 6.4816e-02, 5.8728e-02, 5.1773e-02,
        8.0863e-02, 2.0118e-01, 1.0387e+00, 4.5198e-01, 6.1218e-02, 1.8546e-01,
        2.5600e-02, 1.6214e-01, 1.6663e-03, 1.5484e-04, 2.2649e-01, 3.5372e-02,
        1.1435e-01, 1.2371e-02, 3.6027e-01, 9.8046e-02, 4.1844e-01, 8.8418e-02,
        5.8575e-01, 2.3862e-01, 2.1225e-01, 5.0681e-02, 9.1787e-02, 1.5076e-02,
        6.7408e-02, 2.2464e-01, 3.4172e-01, 1.4458e-01, 7.3388e-01, 3.3074e-01,
        6.6754e-01, 3.9175e-02, 3.7972e-01, 2.8252e-02, 1.9050e-03, 3.6975e-01,
        4.4113e-02, 6.4028e-02, 2.4526e-02, 7.9210e-01, 1.7785e-02, 2.5792e-01,
        7.5641e-01, 1.0390e-01, 3.4980e-01, 6.4028e-01, 2.8134e-01, 8.8785e-03,
        8.8867e-02, 3.7374e-01, 7.4345e-02, 3.8445e-01, 5.5639e-01, 2.0381e-01,
        1.4849e-01, 3.0588e-01, 2.0350e-02, 4.0784e-01, 4.4798e-01, 4.4599e-01,
        1.9541e-01, 1.8936e-01, 2.4681e-01, 1.1890e-01, 2.3707e-03, 3.6931e-01,
        2.2011e-02, 2.8289e-01, 2.4776e-01, 2.6713e-01, 1.5849e-01, 2.0999e-01,
        8.4092e-02, 6.6015e-02, 2.7272e-01, 9.6501e-01, 3.4484e-02, 5.9381e-02,
        3.9888e-01, 1.9514e-02, 4.0758e-01, 3.2065e-01, 7.0057e-01, 8.1363e-01,
        2.3735e-01, 6.4639e-02, 2.3383e-02, 1.7237e-01, 3.1874e-01, 8.1721e-02,
        1.5013e-01, 3.9052e-03, 1.8097e-01, 1.0219e-01, 4.4835e-01, 3.9467e-01,
        8.5903e-03, 7.8943e-04, 1.5791e-01, 2.1588e-01, 4.4814e-01, 1.8195e-01,
        1.4794e-01, 4.3277e-01, 1.9434e-01, 5.1586e-01, 6.5340e-02, 4.6939e-01,
        1.2362e-01, 5.8341e-01, 3.1650e-02, 4.5351e-01, 4.9375e-01, 3.1388e-01,
        2.4636e-01, 2.0891e-01, 5.2967e-01, 6.2038e-01, 6.0402e-02, 7.3006e-01,
        4.0983e-01, 3.3554e-01, 2.5819e-02, 1.3712e-01, 3.0419e-01, 1.4776e-01,
        2.9479e-02, 1.7201e-02, 2.5801e-02, 8.9655e-02, 1.9729e-01, 1.6968e-01,
        4.6380e-01, 8.3630e-02, 1.3304e-03, 9.6478e-01, 8.5616e-03, 1.3066e-01,
        6.4476e-01, 1.7086e-01, 7.9399e-01, 2.8385e-01, 1.4540e-01, 1.0032e+00,
        5.0624e-02, 9.6668e-02, 4.5222e-01, 2.0330e-01, 5.6955e-01, 2.3128e-01,
        4.5077e-02, 5.6393e-01, 5.7845e-01, 3.7201e-01, 2.1710e-01, 3.9867e-01,
        1.8310e-01, 3.4511e-02, 2.5025e-02, 4.8859e-01, 6.5975e-03, 7.2044e-02,
        4.8990e-02, 7.7780e-02, 7.1178e-01, 4.8338e-01, 2.7615e-01, 5.2205e-03,
        3.7047e-02, 2.6173e-01, 6.1515e-01, 5.2107e-02, 6.4660e-01, 5.9801e-01,
        8.7833e-01, 1.4427e-01, 9.6104e-02, 6.2037e-01, 5.2782e-01, 7.2306e-01,
        1.5384e-01, 3.8905e-01, 3.5045e-02, 2.3860e-01, 9.5247e-03, 5.0882e-02,
        1.4871e-01, 3.5294e-02, 4.4826e-02, 5.6024e-02, 3.0453e-02, 5.0959e-01,
        3.5238e-01, 5.1099e-02, 9.5162e-01, 9.9816e-02, 1.6526e-02, 1.7169e-01,
        7.3134e-03, 1.8386e-01, 7.8509e-02, 2.7868e-01, 5.5507e-02, 5.4419e-03,
        8.2095e-02, 1.4295e-02, 1.1325e-02, 9.5493e-02, 1.1682e-01, 3.0645e-01,
        8.4974e-01, 3.5649e-01, 1.7757e-01, 5.5642e-01, 1.1236e+00, 2.9706e-01,
        1.6097e-01, 4.9540e-01, 2.3268e-01, 1.2597e-02, 2.4899e-01, 1.9439e-01,
        5.5312e-01, 2.0040e-02, 1.2857e-01, 2.4758e-01, 2.3891e-01, 2.9640e-01,
        7.0406e-01, 6.0061e-02, 2.0458e-01, 4.1161e-02, 2.0716e-01, 2.4896e-01,
        8.3431e-02, 2.1389e-02, 6.8280e-01, 2.0425e-01, 4.2247e-01, 1.2310e-01,
        8.1460e-01, 4.0856e-01, 1.3346e-01, 1.1581e-01, 3.5419e-01, 3.0183e-01,
        5.6253e-05, 1.0584e+00, 7.4419e-02, 8.9310e-02, 2.4678e-01, 5.8112e-01,
        2.2176e-01, 4.7461e-05, 4.6557e-01, 1.1583e-01, 8.8697e-01, 1.0641e-01,
        5.9972e-01, 2.1985e-01, 5.0137e-02, 1.5207e-01, 5.2289e-01, 7.9389e-02,
        1.7042e-02, 4.9723e-01, 2.4192e-02, 1.2586e-01, 1.5684e-01, 2.0128e-01,
        1.0759e-01, 1.0225e-01, 1.5016e-01, 5.2789e-01, 1.1417e-01, 1.2615e-01,
        5.8298e-01, 5.5059e-03, 2.4612e-01, 1.9631e-02, 4.6670e-01, 3.5680e-01,
        7.5686e-01, 1.6232e-01, 2.6388e-02, 5.3975e-01, 3.1187e-02, 8.4110e-03,
        2.3203e-02, 8.7918e-01, 1.2080e-03, 1.6584e-01, 1.3106e-01, 7.7599e-02,
        7.6850e-01, 2.9784e-01, 5.1541e-02, 4.5431e-01, 1.3006e-01, 2.3060e-01,
        8.5336e-01, 1.9766e-01, 4.7122e-03, 1.8953e-01, 7.4040e-01, 9.5358e-02,
        4.4806e-01, 4.8838e-02, 1.1769e+00, 9.4890e-01, 2.2113e-02, 1.2579e-01,
        7.3272e-02, 8.9989e-02, 9.2549e-01, 1.6915e-02, 3.8641e-02, 1.8229e-01,
        3.6126e-01, 1.7722e-02, 1.8326e-01, 2.2016e-01, 1.2572e-01, 2.2977e-03,
        3.9397e-01, 6.8334e-02, 7.9271e-01, 3.7094e-01, 2.3052e-01, 1.2795e-01,
        3.8842e-01, 2.1164e-01])
net.mlp.net.0.batch_norm.running_var tensor([0.1875, 0.2937, 0.5197, 0.3025, 0.2594, 0.1999, 0.2654, 0.3067, 0.5280,
        0.1857, 0.2241, 0.1963, 0.3463, 0.2631, 0.5646, 0.3855, 0.2056, 0.3726,
        0.4189, 0.3479, 0.2565, 0.2181, 0.4053, 0.3650, 0.3518, 0.3989, 0.2615,
        0.2059, 0.4672, 0.2699, 0.2053, 0.2542, 0.2618, 0.1964, 0.2553, 0.2218,
        0.4291, 0.2577, 0.5473, 0.2562, 0.3172, 1.3127, 0.3484, 0.3439, 0.1937,
        0.2113, 0.2005, 0.2199, 0.2277, 0.6133, 0.1858, 0.3650, 0.2482, 0.2637,
        0.5688, 0.3429, 0.2737, 0.2091, 0.1857, 0.3994, 0.1973, 0.2303, 0.1926,
        0.5048, 0.2031, 0.3516, 0.3198, 0.2060, 0.2758, 0.2578, 0.2423, 0.3111,
        0.2836, 1.1866, 0.2582, 0.2228, 0.1856, 0.2833, 0.2762, 0.2354, 0.2107,
        0.4838, 0.4434, 0.1853, 0.2629, 0.1950, 0.2187, 0.2095, 0.2167, 0.4254,
        1.0394, 0.3671, 0.2067, 0.4335, 0.2287, 0.3518, 0.2662, 0.2177, 0.2010,
        0.2465, 0.3345, 0.2615, 0.2727, 0.2593, 0.3176, 0.4152, 0.2562, 0.2052,
        0.1911, 0.4488, 0.1853, 0.2108, 0.2559, 0.1899, 0.2092, 0.2136, 0.2634,
        0.3954, 0.2606, 0.5886, 0.5236, 0.2664, 0.2765, 0.1943, 0.3027, 0.3750,
        0.2729, 0.1973, 0.2881, 0.3442, 0.1944, 0.2195, 0.2315, 0.1964, 0.5099,
        0.2595, 0.2004, 0.2196, 0.5102, 0.2616, 0.3082, 0.2922, 0.3323, 0.3085,
        0.2184, 0.2853, 0.2146, 0.3062, 0.3409, 0.4335, 0.2086, 0.3631, 0.4514,
        0.2007, 0.3570, 0.2036, 0.3186, 0.1864, 0.3915, 0.2069, 0.4485, 0.3503,
        0.4631, 0.2529, 0.2042, 0.5827, 0.2704, 0.2192, 0.5258, 0.3212, 0.3637,
        0.2182, 0.1866, 0.2728, 0.2803, 0.3060, 0.2509, 0.2054, 0.2391, 0.2068,
        0.2449, 0.2674, 0.5144, 0.3649, 0.2678, 0.2401, 0.1952, 0.2289, 0.1857,
        0.1853, 0.2968, 0.1951, 0.2406, 0.2014, 0.3172, 0.2203, 0.2677, 0.2343,
        0.3339, 0.4781, 0.2426, 0.2092, 0.2144, 0.1895, 0.2230, 0.2635, 0.3586,
        0.3464, 0.3615, 0.2633, 0.3764, 0.2000, 0.4195, 0.2406, 0.1863, 0.3225,
        0.2018, 0.2451, 0.2169, 0.3622, 0.1939, 0.2926, 0.5139, 0.2323, 0.3028,
        0.3037, 0.2684, 0.1897, 0.2650, 0.2994, 0.2196, 0.2496, 0.3273, 0.2898,
        0.2501, 0.4943, 0.1945, 0.4796, 0.3158, 0.2715, 0.2420, 0.2659, 0.3823,
        0.3832, 0.1858, 0.3179, 0.1940, 0.2966, 0.2528, 0.3604, 0.2586, 0.2756,
        0.2502, 0.2177, 0.2953, 0.4199, 0.1998, 0.2013, 0.3264, 0.1932, 0.3362,
        0.2902, 0.3056, 0.5243, 0.5281, 0.2587, 0.2087, 0.5262, 0.2561, 0.2146,
        0.2450, 0.1861, 0.2318, 0.2237, 0.2906, 0.3009, 0.1921, 0.1856, 0.2320,
        0.3071, 0.3307, 0.2928, 0.2379, 0.3518, 0.2444, 1.0618, 0.2024, 0.3390,
        0.2266, 0.3585, 0.2334, 0.4386, 0.3704, 0.3093, 0.2630, 0.2656, 0.3745,
        0.4322, 0.2131, 0.2910, 0.2916, 0.3202, 0.1957, 0.2372, 0.2871, 0.2333,
        0.1957, 0.1905, 0.1943, 0.2218, 0.2393, 0.2354, 0.5218, 0.2244, 0.1856,
        0.3222, 0.1875, 0.3025, 0.3574, 0.2716, 0.4339, 0.4835, 0.2245, 1.3172,
        0.1983, 0.2112, 0.3477, 0.2459, 0.3734, 0.2698, 0.2027, 0.5133, 0.4355,
        0.3759, 0.2922, 0.3633, 0.5041, 0.1938, 0.1925, 0.4084, 0.1870, 0.2665,
        0.2111, 0.2266, 0.4818, 0.3076, 0.5402, 0.1866, 0.1980, 0.3115, 0.3690,
        0.2066, 1.0903, 0.4656, 0.3333, 0.2794, 0.2158, 0.6508, 0.2697, 0.3663,
        0.2683, 0.3178, 0.2321, 0.3071, 0.1951, 0.2010, 0.2659, 0.1947, 0.2005,
        0.2087, 0.1979, 0.2924, 0.3120, 0.2009, 0.7491, 0.3768, 0.1913, 0.2539,
        0.1876, 0.2964, 0.2148, 0.3060, 0.2053, 0.1867, 0.2170, 0.1921, 0.1886,
        0.2216, 0.2996, 0.2861, 0.4864, 0.3324, 0.3135, 0.4000, 0.3460, 0.3053,
        0.2259, 0.4412, 0.2635, 0.1892, 0.2899, 0.2503, 0.4901, 0.1906, 0.2469,
        0.4034, 0.2992, 0.2613, 0.3770, 0.2149, 0.5321, 0.2379, 0.5064, 0.3097,
        0.2205, 0.1924, 0.3119, 0.3321, 0.3626, 0.2202, 0.3587, 0.3148, 0.3584,
        0.2992, 0.3500, 0.2458, 0.1853, 0.4056, 0.2256, 0.2789, 0.3148, 0.4338,
        0.2717, 0.1853, 0.4128, 0.3750, 0.5246, 0.2314, 0.4347, 0.2727, 0.2083,
        0.2492, 0.3347, 0.3457, 0.1891, 0.3109, 0.1921, 0.2196, 0.3459, 0.3349,
        0.2187, 0.2319, 0.2622, 0.3542, 0.2221, 0.3374, 0.4741, 0.1894, 0.5369,
        0.2061, 0.3710, 0.2691, 0.3103, 0.2679, 0.1945, 0.4604, 0.1935, 0.1873,
        0.2268, 0.5216, 0.1856, 0.3588, 0.2502, 0.2465, 0.2948, 0.2985, 0.2026,
        0.2706, 0.2149, 0.5260, 0.3073, 0.2644, 0.1883, 0.2435, 0.3424, 0.2210,
        0.4012, 0.2027, 0.3240, 0.7009, 0.1968, 0.2643, 0.2121, 0.2230, 1.1220,
        0.1929, 0.2047, 0.2759, 1.3112, 0.1902, 0.2699, 0.3175, 0.2558, 0.1857,
        0.2927, 0.2692, 0.4803, 0.3078, 0.2913, 0.3177, 0.3099, 0.2627])
net.mlp.net.0.batch_norm.num_batches_tracked tensor(16)
net.mlp.net.1.linear.weight tensor([[ 0.1239,  0.0033, -0.0467,  ...,  0.1180,  0.0133, -0.0938],
        [ 0.0316,  0.0491,  0.0765,  ..., -0.0856,  0.0501, -0.0305],
        [-0.0128,  0.0165, -0.0231,  ..., -0.0365,  0.0344, -0.0152],
        ...,
        [-0.0006, -0.0600, -0.0149,  ..., -0.0023, -0.0233,  0.0060],
        [-0.0876,  0.0423,  0.0868,  ..., -0.0726, -0.0635,  0.0644],
        [-0.0178,  0.1504,  0.1186,  ..., -0.0228, -0.0008, -0.0361]])
net.mlp.net.1.linear.bias tensor([-1.3895e-02, -1.0992e-02, -4.1756e-02,  1.4940e-02,  1.3785e-02,
        -1.0931e-02, -1.3148e-03,  6.5509e-03, -2.9532e-02,  1.1545e-02,
         2.3842e-02,  2.6179e-02,  3.6743e-02, -3.6483e-02, -1.3615e-02,
         9.0132e-03,  3.9292e-02,  3.8127e-02, -3.7740e-02,  2.1016e-02,
        -2.8995e-02,  1.1931e-02,  2.5933e-02, -2.6843e-02, -3.5462e-02,
        -5.4241e-03, -1.7790e-02,  1.2855e-04, -6.3139e-04,  2.9677e-02,
        -2.7397e-02, -7.0212e-03,  4.2444e-02,  1.5543e-02, -1.4249e-02,
         3.5885e-02,  8.8377e-03,  1.5155e-02,  3.3561e-02,  1.8653e-02,
         1.1044e-03,  1.2348e-02,  3.1047e-02,  1.2346e-02, -3.2808e-02,
         5.2954e-03, -1.0170e-02, -2.8918e-02, -1.7995e-02,  1.1664e-02,
        -3.5012e-02,  8.4183e-04, -3.4601e-02, -1.1630e-02,  2.8914e-02,
         6.1654e-03, -3.8986e-03, -4.2384e-02,  2.3073e-02,  1.8794e-03,
        -1.6962e-02,  1.9412e-02,  3.7410e-02,  4.7560e-02,  1.9275e-03,
         2.6282e-02, -3.3562e-02,  2.6523e-02,  1.8102e-02,  1.6124e-02,
        -3.4220e-02,  4.9508e-03,  3.0752e-03, -1.7763e-02, -1.5928e-02,
         9.1601e-03,  1.4510e-02,  7.9537e-03,  3.2205e-02,  1.7301e-02,
        -3.2020e-02, -4.9194e-03, -4.1750e-02, -4.1409e-02,  1.1437e-02,
        -2.2727e-02,  1.2650e-02, -3.7925e-02, -3.2498e-02,  1.2540e-02,
        -4.6941e-03,  3.1640e-02, -4.5982e-02,  3.6795e-02,  3.0579e-02,
         3.3205e-02, -1.8656e-02, -1.2582e-02, -2.0149e-02,  5.4183e-03,
        -2.0372e-02,  3.2819e-02,  1.1480e-02, -1.3099e-02, -7.4985e-03,
        -2.1709e-02, -2.5981e-02,  3.1786e-02,  2.0423e-02,  5.8916e-03,
         8.7166e-03, -4.2913e-02, -2.9414e-02, -2.1339e-02,  3.2523e-02,
        -3.5059e-02,  2.0347e-02,  1.2387e-02,  3.7480e-02, -1.0351e-02,
         5.3128e-03,  3.2361e-02, -4.3982e-02, -2.5292e-03, -9.4675e-04,
         3.9103e-04,  3.9067e-02, -4.1720e-02,  1.7821e-03,  4.1216e-02,
        -4.8610e-03, -1.5821e-02, -9.7166e-03, -2.7286e-02, -2.6075e-02,
         2.7406e-02,  3.7962e-03,  3.8513e-02,  3.8106e-02, -2.7094e-02,
         4.2419e-02,  1.7124e-02, -4.9032e-03, -3.1086e-02,  2.0308e-02,
        -3.5453e-02, -3.4731e-02, -3.3743e-02, -1.9184e-02, -2.8481e-03,
        -1.7486e-02,  2.9143e-02, -7.4361e-03,  1.2368e-02,  4.5719e-03,
        -3.0816e-02,  6.3245e-03,  1.0824e-02,  2.0944e-02, -4.3145e-02,
         4.1859e-02,  1.9767e-02, -1.8619e-02,  2.6010e-02, -3.8499e-02,
        -2.1977e-02, -1.8253e-02, -1.3795e-03, -1.8804e-02, -3.4297e-02,
        -4.0178e-03, -1.8003e-02,  1.0402e-02,  1.4384e-02,  1.9629e-02,
         1.1886e-02,  2.1941e-02, -1.8413e-02,  4.2430e-04,  2.6496e-02,
        -6.5741e-04,  4.7866e-02, -2.7008e-02, -2.7281e-02,  5.7965e-04,
         1.0726e-02, -3.1307e-02,  9.0620e-03,  3.7008e-02, -1.0880e-02,
         3.9700e-03,  2.7241e-02,  3.7969e-02,  2.1863e-02, -4.2365e-02,
        -2.7918e-02,  1.9303e-02,  2.2859e-02,  3.6171e-02, -7.0043e-03,
         4.5012e-02,  4.6735e-03, -4.0596e-02, -2.0377e-03,  3.7783e-04,
        -1.2237e-02,  3.8874e-03,  1.6888e-02,  4.7092e-02,  1.2158e-02,
        -2.3105e-02, -2.0712e-02, -2.0615e-04, -2.3745e-02, -4.3206e-02,
        -7.3696e-03,  4.1603e-02, -1.2612e-03, -3.8236e-02,  2.3962e-02,
        -3.5631e-03,  1.1962e-03, -1.8681e-02,  3.3413e-02,  2.3634e-02,
        -5.5157e-03,  2.7198e-02,  1.5478e-02,  3.5327e-02, -1.1090e-02,
        -3.9291e-02, -2.8881e-02, -4.3644e-02,  2.6619e-02,  4.7040e-02,
         2.7224e-02, -3.9868e-02, -1.8322e-02,  8.6902e-03, -4.7466e-03,
         3.7332e-02,  2.1119e-02,  1.8630e-02, -2.0208e-02, -4.0418e-02,
         2.9170e-02, -3.5065e-03, -1.6867e-02, -3.1437e-02, -3.2014e-02,
         1.1022e-02, -2.6655e-02,  2.5896e-02,  1.5184e-02, -2.0432e-02,
        -4.4213e-02,  7.0152e-03,  1.0676e-02, -3.4637e-02,  4.2538e-02,
        -3.3836e-02,  3.1592e-02, -3.1209e-02, -2.1682e-02, -1.8337e-02,
         3.5633e-02,  2.5356e-02, -1.9684e-02,  5.6170e-03, -4.6077e-03,
        -3.0196e-02,  1.3835e-02,  1.9946e-02, -1.0921e-02,  7.2811e-03,
        -3.4546e-02, -1.9108e-02, -3.0143e-02, -1.5429e-02,  1.3153e-02,
         2.9486e-02,  7.1473e-03,  2.0096e-02,  2.4721e-02, -3.7321e-03,
         2.1946e-02, -3.6134e-02, -2.0002e-02, -1.4280e-02, -3.7552e-02,
        -4.6580e-02,  1.3634e-02,  6.2410e-03, -1.4735e-02,  3.1118e-02,
        -5.7127e-03, -6.9813e-03,  1.8316e-02, -1.6145e-02,  4.3795e-02,
        -1.6682e-02,  2.5066e-02, -7.2456e-03,  4.0241e-02, -3.7126e-02,
         3.6994e-02,  1.0833e-02,  2.6166e-02,  2.9647e-02, -1.4696e-02,
         2.9438e-02, -3.7418e-02,  2.0072e-03,  4.0853e-02,  3.8524e-02,
        -1.2675e-02, -5.9763e-03,  2.2644e-02, -2.5384e-03, -3.9117e-02,
        -2.5103e-02,  1.8819e-02, -3.4340e-02,  3.8075e-02, -2.4228e-02,
        -2.1647e-02, -3.5200e-02,  1.8765e-02,  2.2406e-03,  2.2498e-02,
        -3.7179e-02,  5.7382e-04,  2.4347e-02,  3.6603e-02,  3.1493e-02,
        -1.0147e-02, -1.0801e-02,  3.2018e-02, -1.9022e-02,  6.1193e-03,
        -1.2922e-02,  1.5789e-05,  1.3828e-02,  2.8090e-02, -1.2253e-02,
        -1.4280e-02,  1.0086e-02, -2.9971e-02,  3.4895e-02, -1.2260e-02,
         3.8833e-03,  2.6663e-02,  1.5097e-03, -1.9539e-02, -9.8140e-03,
         2.2091e-02, -1.9051e-02, -4.2595e-02,  9.9356e-03,  1.6062e-02,
        -3.9573e-02,  4.4548e-02,  2.2990e-02, -6.3977e-03, -3.2356e-02,
         3.3779e-02,  1.0386e-02,  2.4197e-02, -3.5109e-02,  7.7207e-04,
         4.6672e-02, -2.7183e-02, -2.0659e-03,  4.0230e-02, -2.9657e-02,
         3.0837e-02,  2.1033e-02, -1.5640e-02, -2.0137e-02, -7.9279e-03,
        -7.1308e-03, -1.9786e-02,  9.8582e-03,  3.2085e-02,  9.7215e-03,
        -1.4740e-02,  3.4442e-03, -3.8189e-02, -1.8147e-02, -2.8789e-02,
        -2.4638e-02, -9.5168e-03, -2.0139e-02,  8.8725e-04, -4.4440e-02,
        -3.7210e-02, -2.9620e-02, -1.9662e-02, -4.2589e-02,  2.2114e-02,
        -5.9669e-04, -4.8573e-03, -3.8846e-02,  2.2538e-02, -1.8357e-02,
        -4.2296e-03, -2.9544e-02, -1.8988e-02,  3.0525e-02, -9.5246e-03,
         2.1276e-02, -2.6318e-03,  9.2778e-03,  7.3584e-03,  4.4621e-02,
         6.7338e-03,  2.7782e-02,  3.3611e-02,  8.4952e-03,  2.4536e-02,
         4.3076e-02, -3.3157e-02,  3.2358e-02, -1.2502e-02,  2.1109e-02,
        -2.0033e-02, -3.4916e-02, -3.6504e-02, -3.3494e-02, -1.8621e-02,
        -2.9301e-02,  2.9185e-02, -4.1052e-02, -3.9436e-02,  2.4260e-02,
         1.0498e-03,  3.9171e-02, -3.7478e-02,  2.9882e-02,  4.2506e-02,
        -2.7439e-02, -1.9637e-02, -4.3935e-02, -4.2338e-02,  3.7697e-02,
        -1.8070e-02, -3.6051e-02, -1.0171e-02,  1.4791e-02, -3.5332e-02,
         1.2825e-02,  3.1338e-02, -5.3733e-03,  1.7913e-02,  4.4275e-02,
         1.8586e-02, -3.2166e-02, -2.5622e-02, -3.0840e-02, -3.3257e-02,
         3.8681e-02,  1.0344e-02, -1.3350e-02,  2.1389e-02, -2.0215e-02,
         6.0671e-04,  1.7900e-02, -4.0174e-02, -4.6493e-02,  3.1412e-02,
         2.0094e-02,  3.7735e-02, -3.1724e-02, -4.1688e-02, -1.5714e-02,
         8.6555e-04, -2.1962e-02,  2.8683e-02,  8.3652e-03,  2.3945e-02,
         8.1582e-03,  4.5506e-02, -2.7226e-02,  4.2664e-02, -1.4033e-02,
        -3.0238e-02,  3.3612e-02,  1.5447e-02, -1.4207e-02,  1.6440e-02,
        -3.2664e-02,  2.4522e-02,  2.6694e-02, -1.5890e-02, -4.4058e-02,
         7.0963e-03,  3.3682e-02,  3.4647e-02,  7.1203e-03, -2.0251e-02,
        -2.5362e-02, -3.7653e-02, -6.3527e-03,  2.5596e-02, -2.6482e-02,
        -2.8566e-02, -1.8191e-02, -3.5747e-02,  2.5953e-02, -3.2244e-02,
         1.9540e-02, -2.2102e-02])
net.mlp.net.1.batch_norm.weight tensor([0.9992, 0.9932, 0.9956, 0.9974, 0.9974, 0.9994, 0.9979, 0.9983, 1.0004,
        0.9988, 0.9924, 1.0015, 0.9986, 0.9961, 0.9997, 0.9981, 0.9979, 0.9943,
        0.9936, 0.9981, 0.9973, 0.9973, 1.0017, 1.0006, 0.9946, 0.9921, 1.0014,
        0.9989, 0.9954, 0.9994, 0.9971, 1.0005, 0.9979, 1.0002, 0.9999, 0.9978,
        0.9983, 0.9991, 1.0003, 0.9961, 0.9977, 0.9988, 0.9964, 0.9926, 0.9968,
        0.9948, 0.9977, 0.9961, 0.9922, 0.9990, 0.9969, 0.9985, 0.9990, 0.9973,
        0.9928, 0.9964, 0.9952, 0.9960, 0.9996, 0.9985, 0.9962, 0.9991, 1.0011,
        0.9966, 0.9986, 0.9971, 0.9970, 0.9952, 0.9925, 0.9969, 0.9984, 0.9962,
        0.9994, 0.9977, 0.9963, 0.9988, 0.9989, 0.9974, 0.9964, 1.0016, 0.9945,
        0.9999, 1.0001, 1.0024, 1.0006, 0.9962, 0.9977, 0.9973, 0.9958, 0.9992,
        0.9966, 0.9948, 0.9977, 0.9966, 0.9977, 0.9985, 0.9968, 0.9991, 0.9970,
        1.0013, 0.9966, 0.9978, 0.9991, 0.9922, 0.9961, 0.9940, 0.9994, 0.9973,
        0.9978, 0.9959, 0.9943, 0.9980, 0.9951, 0.9977, 0.9928, 0.9998, 1.0006,
        0.9994, 1.0010, 0.9954, 1.0001, 0.9969, 1.0016, 0.9973, 0.9959, 0.9966,
        0.9975, 0.9984, 1.0000, 0.9983, 0.9994, 0.9958, 1.0002, 0.9952, 1.0014,
        0.9976, 0.9975, 0.9984, 0.9979, 0.9949, 1.0005, 0.9976, 0.9991, 1.0040,
        1.0001, 0.9997, 0.9995, 0.9962, 0.9990, 0.9977, 0.9971, 0.9984, 0.9988,
        0.9995, 0.9972, 0.9982, 0.9997, 0.9976, 0.9968, 0.9953, 0.9975, 0.9999,
        0.9973, 0.9989, 1.0011, 0.9985, 0.9958, 0.9956, 0.9973, 0.9958, 0.9959,
        1.0019, 0.9993, 0.9954, 0.9948, 0.9974, 0.9980, 0.9991, 1.0017, 0.9956,
        0.9964, 0.9975, 0.9984, 0.9946, 0.9987, 0.9980, 0.9969, 1.0000, 0.9939,
        0.9986, 0.9964, 0.9950, 0.9966, 0.9988, 0.9994, 1.0000, 0.9970, 0.9954,
        0.9978, 1.0033, 0.9962, 1.0013, 0.9921, 1.0000, 0.9970, 0.9964, 0.9974,
        0.9943, 0.9983, 0.9939, 0.9952, 0.9957, 0.9993, 0.9979, 1.0013, 0.9940,
        0.9956, 0.9946, 0.9971, 0.9986, 0.9969, 0.9981, 0.9968, 1.0006, 0.9965,
        0.9992, 1.0005, 0.9986, 0.9986, 0.9999, 0.9986, 0.9988, 0.9996, 0.9986,
        0.9999, 0.9990, 1.0008, 1.0004, 0.9986, 0.9946, 0.9995, 0.9958, 0.9986,
        0.9970, 0.9999, 0.9971, 0.9969, 0.9967, 0.9979, 0.9973, 0.9979, 1.0015,
        0.9974, 0.9978, 0.9964, 0.9961, 0.9963, 0.9974, 0.9984, 0.9983, 0.9931,
        0.9969, 0.9974, 0.9965, 0.9975, 0.9979, 0.9991, 0.9946, 1.0017, 0.9987,
        0.9970, 0.9988, 0.9962, 0.9980, 0.9965, 0.9960, 0.9992, 0.9960, 0.9967,
        0.9974, 0.9985, 0.9951, 0.9989, 0.9985, 1.0026, 0.9938, 0.9974, 0.9992,
        0.9976, 1.0005, 1.0003, 0.9952, 0.9977, 0.9985, 0.9991, 0.9989, 0.9991,
        0.9974, 0.9983, 0.9951, 0.9965, 0.9970, 0.9984, 0.9985, 0.9989, 0.9978,
        0.9958, 0.9972, 0.9982, 0.9980, 0.9965, 0.9987, 0.9954, 0.9958, 0.9996,
        0.9973, 0.9987, 0.9973, 0.9966, 0.9989, 1.0006, 0.9976, 0.9971, 0.9975,
        1.0025, 0.9969, 1.0017, 0.9979, 0.9979, 1.0008, 0.9974, 0.9990, 0.9930,
        0.9984, 0.9963, 0.9995, 1.0003, 1.0000, 1.0001, 0.9985, 0.9976, 0.9972,
        1.0006, 0.9984, 0.9978, 0.9989, 0.9947, 0.9977, 1.0018, 0.9961, 1.0001,
        0.9954, 0.9992, 0.9979, 0.9986, 0.9986, 0.9936, 0.9971, 0.9996, 0.9971,
        0.9972, 0.9978, 0.9971, 0.9957, 0.9995, 0.9995, 0.9988, 1.0018, 0.9982,
        1.0024, 0.9996, 0.9993, 1.0002, 0.9952, 1.0010, 0.9995, 0.9988, 0.9953,
        0.9943, 0.9989, 0.9979, 0.9975, 0.9952, 0.9996, 0.9969, 0.9957, 0.9986,
        0.9986, 1.0000, 1.0001, 0.9972, 0.9960, 0.9993, 0.9919, 1.0011, 0.9943,
        0.9945, 1.0011, 0.9981, 0.9920, 0.9974, 0.9998, 0.9992, 0.9970, 0.9957,
        0.9960, 0.9970, 0.9989, 0.9978, 0.9975, 0.9994, 0.9958, 0.9988, 0.9992,
        1.0003, 0.9998, 0.9978, 0.9970, 0.9982, 0.9966, 1.0018, 0.9990, 0.9966,
        0.9968, 0.9963, 0.9968, 0.9967, 0.9954, 0.9970, 1.0001, 0.9976, 0.9975,
        0.9953, 1.0016, 0.9953, 0.9950, 1.0018, 0.9976, 1.0000, 0.9979, 0.9992,
        0.9914, 0.9967, 0.9992, 0.9953, 0.9990, 0.9976, 0.9992, 0.9941, 0.9983,
        0.9999, 0.9978, 1.0001, 0.9976, 0.9975, 0.9950, 0.9976, 0.9973, 0.9997,
        0.9958, 0.9954, 0.9983, 0.9985, 1.0019, 0.9959, 0.9953, 0.9962, 0.9937,
        0.9992, 0.9972, 0.9978, 0.9972, 0.9947, 0.9978, 0.9977, 0.9933, 0.9974,
        0.9989, 0.9988, 0.9985, 0.9967, 1.0020, 0.9974, 0.9984, 1.0005, 0.9945,
        0.9938, 0.9949, 0.9968, 1.0004, 0.9998, 0.9983, 0.9980, 0.9980, 0.9978,
        1.0001, 0.9961, 1.0004, 1.0023, 0.9974, 0.9955, 0.9997, 1.0017, 0.9991,
        0.9973, 0.9977, 0.9964, 0.9984, 0.9962, 0.9981, 1.0003, 1.0002])
net.mlp.net.1.batch_norm.bias tensor([ 3.3142e-03, -1.1289e-03,  6.5713e-04, -2.6198e-03,  2.3755e-03,
        -3.7581e-03, -1.5338e-03, -5.0180e-03,  1.3713e-03, -1.0924e-03,
        -1.2169e-03,  7.8732e-03,  2.4725e-03, -2.9137e-03,  1.6264e-03,
        -1.3177e-03,  1.3899e-03, -2.6523e-04, -3.0598e-03, -1.7549e-03,
         1.8264e-03,  2.4316e-03,  4.1257e-04, -1.5917e-03,  4.8050e-03,
         1.5247e-03,  2.9029e-03, -1.7096e-03,  1.9329e-03,  1.8265e-03,
        -5.5871e-04,  6.3543e-05, -3.0925e-03,  7.1447e-03, -7.2614e-05,
        -8.6039e-04,  3.1486e-04,  4.1976e-03,  2.2574e-03,  1.7157e-03,
        -4.4506e-03,  8.1790e-03, -4.9484e-03,  2.5375e-03, -4.8953e-03,
         5.2569e-03,  3.8599e-04, -1.9601e-03, -7.4803e-03,  5.3669e-03,
        -1.7801e-03,  7.9511e-04,  9.5587e-04, -1.7250e-03,  3.7360e-04,
         5.6898e-03, -4.4065e-03,  7.4416e-03, -4.4016e-03,  3.1447e-04,
        -5.6084e-03,  9.3171e-04,  2.7827e-03, -2.7239e-03,  4.7828e-03,
         7.1709e-03, -1.2133e-03,  3.3713e-03, -2.8787e-03,  6.0472e-03,
        -6.1773e-03, -1.1990e-03,  4.9455e-04, -3.1720e-03, -2.2074e-03,
         2.4216e-03, -4.2727e-03,  1.2200e-04,  3.2918e-03, -1.9894e-03,
         4.5351e-03, -1.4513e-03, -3.3268e-04, -7.3864e-04, -1.0895e-03,
        -1.2077e-03,  2.9264e-03,  1.3049e-03, -6.1574e-04,  3.0692e-03,
        -3.1942e-04,  1.7118e-03,  2.0941e-03,  2.5121e-03,  6.8311e-04,
        -2.2204e-03, -2.3835e-03,  2.7886e-03,  1.5475e-03, -4.2431e-03,
         4.0138e-03, -1.1904e-03,  1.4594e-03, -4.3518e-03, -4.9124e-03,
        -7.7285e-03,  4.8888e-03, -1.4549e-03, -1.8945e-03,  7.2170e-04,
        -2.3024e-03, -1.3088e-03, -7.7929e-04,  1.1590e-03,  2.2448e-03,
         3.1637e-03,  2.7168e-03,  2.4868e-03, -1.8084e-03,  1.2302e-03,
         6.2807e-04, -5.4922e-03,  4.9897e-03,  1.4035e-03, -1.2662e-03,
        -4.3985e-03, -7.2607e-03, -8.0855e-04,  9.1857e-04, -7.2994e-03,
         6.1195e-04,  2.9638e-03,  1.1384e-03, -6.2448e-03, -2.2231e-05,
        -1.9705e-03,  6.3771e-04,  5.4526e-04,  4.1201e-03, -6.4789e-03,
        -9.5040e-04, -3.9623e-03, -2.0465e-03,  1.8073e-03,  4.9843e-04,
        -1.0815e-03,  8.4032e-03, -3.6292e-03,  1.0309e-03, -1.7758e-03,
         4.0591e-03,  5.7717e-04,  6.6661e-03, -1.7466e-04, -3.3135e-03,
        -1.5648e-04,  1.0782e-03,  2.0818e-03,  1.6134e-03,  2.6491e-03,
         1.1355e-03, -2.6118e-03,  6.2185e-04,  1.4778e-03, -4.2681e-03,
         4.3041e-04,  5.0384e-04, -5.6575e-03,  2.2285e-04,  1.3764e-03,
        -2.4377e-03,  3.1196e-03,  4.5369e-03, -1.6005e-03, -4.0278e-03,
         3.1809e-03,  1.3516e-03, -9.2691e-04,  2.7200e-03, -2.6206e-03,
        -5.1733e-03, -1.4452e-03, -2.6787e-03, -4.1646e-03, -1.8495e-03,
        -5.5663e-03,  4.4168e-05, -6.3356e-04, -2.5388e-03, -4.4498e-03,
         4.1989e-04, -2.0874e-04, -1.8717e-03,  1.3260e-03, -4.2798e-03,
        -4.3042e-03, -3.5926e-03, -5.9906e-03,  1.5669e-04,  1.6501e-03,
         4.3916e-03,  1.1440e-03,  1.9569e-03,  8.8164e-03,  9.4377e-04,
        -1.4045e-03, -2.0001e-03, -4.5034e-03, -5.3884e-03,  1.3085e-03,
        -7.1487e-04,  2.8567e-03, -2.1485e-03, -6.5971e-03, -9.9756e-04,
        -9.0383e-04,  1.5198e-03, -3.3158e-03, -2.1551e-04,  1.9925e-03,
         2.5499e-03, -1.4013e-03, -4.1147e-03,  1.7519e-04,  1.8813e-03,
        -7.4911e-04,  4.3451e-03,  1.3456e-03,  5.0091e-03, -2.7853e-03,
         7.4466e-04, -4.1031e-03,  1.9049e-03,  2.8556e-04,  3.5291e-03,
        -8.5851e-03,  1.9245e-03, -6.0639e-03, -4.6410e-04,  2.7850e-03,
        -2.4523e-03,  1.5678e-03, -3.2324e-04,  2.6545e-03,  1.6479e-03,
         3.6123e-03, -1.8684e-03,  3.5284e-03,  2.6320e-04,  2.0095e-03,
        -1.2356e-03,  2.2402e-03, -1.1352e-04,  5.8325e-04, -2.9002e-03,
        -1.1202e-03, -1.8820e-03,  3.0575e-03, -4.2573e-03, -6.6644e-04,
         7.7338e-05, -3.5905e-03, -6.3109e-04, -5.4367e-04, -5.0191e-04,
         3.5944e-03,  5.7803e-04, -4.9608e-03, -1.2619e-03, -3.3798e-03,
         5.3309e-04,  1.3697e-04,  2.9440e-03, -2.9794e-03, -4.4473e-03,
        -5.2059e-03,  2.1087e-03,  9.6268e-04,  2.1211e-03,  2.8579e-04,
         1.2403e-03, -1.8697e-03, -1.4385e-03,  1.2773e-03,  3.2396e-03,
         8.2934e-04,  3.6001e-03, -6.3482e-03,  1.7995e-03,  2.9919e-04,
         6.1456e-04,  4.9037e-03,  7.3332e-03, -1.3593e-03, -1.1287e-04,
         6.6979e-04, -1.6602e-03, -4.2284e-03, -2.9372e-03,  1.0589e-03,
        -5.3621e-03,  3.0199e-03,  5.7566e-03,  2.8674e-04, -9.8233e-04,
         6.3773e-03,  1.5011e-03, -2.0641e-03, -2.1203e-03,  4.5885e-03,
         3.1126e-03, -3.1896e-03, -1.9470e-03,  4.0250e-03,  1.3851e-03,
        -1.7245e-03, -3.3119e-03, -2.7471e-03,  2.1776e-04,  5.6347e-03,
         4.6013e-03,  2.4227e-03, -9.3970e-04,  5.0604e-03,  3.7081e-03,
         1.2504e-03,  3.1447e-03, -7.3959e-03, -4.1160e-03, -4.9998e-03,
        -4.9607e-04, -1.8641e-03,  3.0194e-03,  2.6461e-03, -6.4238e-04,
         1.1840e-03, -2.5034e-03, -1.9752e-03,  2.7283e-03,  3.2060e-03,
         1.0640e-03, -1.5294e-03, -4.2671e-03, -2.7243e-04, -5.9864e-04,
        -4.8719e-03,  5.1948e-04, -2.7348e-03,  1.1332e-03,  5.6543e-03,
        -2.5703e-03, -3.4009e-03, -2.7181e-03, -7.5254e-03,  2.8882e-03,
        -2.5684e-03,  7.1477e-03, -4.2539e-03,  3.2487e-03, -1.4133e-03,
         3.7464e-03,  1.1373e-03,  6.2716e-03,  4.6926e-03,  3.3200e-03,
        -2.1789e-03, -6.7621e-03,  2.2289e-03, -2.7002e-03,  6.0732e-04,
        -2.3917e-03,  3.6913e-03,  2.4170e-03,  6.5619e-03,  4.5483e-03,
         9.1227e-04, -1.2475e-03, -6.3590e-03,  2.6426e-03, -3.5362e-03,
        -1.8136e-03,  4.2122e-03, -2.6657e-03,  3.1750e-04, -3.5075e-05,
         2.2070e-03, -1.7802e-03,  8.9268e-04,  3.2079e-03,  3.2748e-04,
        -2.5106e-03, -3.9543e-03,  3.5558e-03,  1.7935e-03,  1.5566e-04,
        -8.2798e-04,  1.2443e-03, -1.1782e-03, -4.1991e-03,  7.6967e-04,
         5.1617e-04, -6.1529e-04, -5.5552e-03,  8.1858e-04, -5.2865e-04,
         2.6816e-06,  3.4999e-05, -1.6834e-03, -7.2151e-04,  6.9348e-04,
        -5.5309e-03, -2.8720e-04, -6.1446e-03,  1.8386e-03,  5.0384e-03,
        -2.1923e-03, -4.2677e-03, -3.0913e-03,  2.7424e-04,  3.2117e-03,
        -2.3677e-03, -4.1266e-03, -3.8190e-03,  1.1001e-03,  1.9496e-03,
         4.2272e-03, -8.1325e-04,  1.9001e-03, -2.0399e-03, -2.1213e-03,
         3.0321e-03, -9.6055e-04,  6.4044e-03, -2.9597e-03,  1.3768e-03,
         8.2548e-03,  2.0084e-03,  1.2891e-03, -6.1316e-04, -5.1027e-03,
         3.1247e-03,  3.2558e-04,  4.4245e-04,  1.7814e-03, -3.0037e-03,
         6.8701e-04, -1.9687e-03, -1.5762e-03, -9.0459e-04, -8.7156e-04,
         3.1883e-04, -2.1991e-03,  1.9320e-03, -1.6732e-03, -1.0632e-03,
        -5.5995e-04, -8.0296e-04,  1.9635e-03,  4.3128e-03, -5.3676e-05,
        -3.3426e-03, -2.1338e-03, -2.2797e-03, -3.1188e-03, -5.8711e-03,
         1.6420e-03, -7.0314e-04,  4.0925e-03, -2.5376e-04,  1.6815e-03,
         5.9802e-05, -2.4599e-03, -1.6906e-03,  6.3203e-03,  1.9598e-03,
         3.6367e-03, -8.9226e-04, -8.2772e-04,  1.1058e-03, -4.8813e-04,
        -3.2292e-03,  1.5412e-03, -5.4588e-03, -2.7565e-03,  4.2293e-03,
        -4.4622e-03,  3.2797e-03, -4.0258e-03,  2.9378e-03, -1.3725e-03,
         1.1518e-03,  2.8801e-03,  5.6166e-03, -3.5117e-03, -3.5756e-03,
         6.2771e-03,  2.5821e-03,  1.5711e-03, -2.7402e-03,  6.2091e-03,
        -4.3974e-03,  1.8607e-03,  2.1142e-03,  3.7980e-03,  6.2428e-03,
         1.3052e-03,  8.5419e-04, -7.6034e-03, -2.2038e-03, -2.6555e-03,
         3.9322e-03, -6.7295e-04])
net.mlp.net.1.batch_norm.running_mean tensor([0.3392, 0.3698, 0.3675, 0.5096, 0.4538, 0.3342, 0.4951, 0.5475, 0.6529,
        0.4673, 0.5576, 0.4888, 0.5237, 0.6721, 0.5219, 0.5892, 0.4887, 0.4702,
        0.4985, 0.3740, 0.4057, 0.4442, 0.3348, 0.4698, 0.4540, 0.3875, 0.6669,
        0.5756, 0.4862, 0.5017, 0.4444, 0.5439, 0.4153, 0.5251, 0.5154, 0.5674,
        0.5417, 0.4208, 0.4042, 0.4663, 0.5464, 0.6803, 0.4740, 0.4108, 0.4388,
        0.4570, 0.3640, 0.4928, 0.5166, 0.4591, 0.3845, 0.5076, 0.3992, 0.4096,
        0.3536, 0.5752, 0.4375, 0.4290, 0.4288, 0.4027, 0.3656, 0.6522, 0.3984,
        0.7022, 0.6165, 0.5204, 0.3396, 0.3497, 0.4772, 0.4662, 0.4777, 0.4185,
        0.4087, 0.4573, 0.3776, 0.4263, 0.4328, 0.4314, 0.5117, 0.5167, 0.4163,
        0.4793, 0.3375, 0.5468, 0.4207, 0.4580, 0.3938, 0.6228, 0.4180, 0.6636,
        0.4033, 0.4276, 0.3772, 0.3405, 0.4959, 0.4435, 0.3729, 0.5356, 0.4324,
        0.4436, 0.3590, 0.5852, 0.5233, 0.5512, 0.4568, 0.3815, 0.5185, 0.4163,
        0.4556, 0.4327, 0.4452, 0.3384, 0.3633, 0.5227, 0.4786, 0.5465, 0.5956,
        0.4417, 0.5265, 0.3561, 0.4903, 0.3422, 0.4023, 0.6069, 0.3899, 0.4800,
        0.4208, 0.4660, 0.4398, 0.4859, 0.4120, 0.4169, 0.3704, 0.4145, 0.4040,
        0.4882, 0.4201, 0.4025, 0.4474, 0.3731, 0.5410, 0.4202, 0.3848, 0.3764,
        0.6594, 0.4335, 0.3817, 0.4058, 0.5808, 0.5479, 0.4109, 0.4504, 0.6003,
        0.4636, 0.4199, 0.4390, 0.4889, 0.3607, 0.5185, 0.5016, 0.4434, 0.4646,
        0.5185, 0.5547, 0.4310, 0.3697, 0.4188, 0.4713, 0.4380, 0.4233, 0.3824,
        0.4121, 0.6003, 0.4556, 0.3755, 0.6981, 0.4379, 0.5534, 0.5087, 0.3931,
        0.5674, 0.4626, 0.4783, 0.3771, 0.4690, 0.4879, 0.3707, 0.5023, 0.3375,
        0.4535, 0.4444, 0.3667, 0.5287, 0.4525, 0.4476, 0.4374, 0.4227, 0.4967,
        0.2993, 0.5157, 0.4796, 0.3984, 0.4033, 0.5538, 0.5101, 0.4315, 0.3835,
        0.4894, 0.6312, 0.3471, 0.4983, 0.4360, 0.4127, 0.4820, 0.3914, 0.5973,
        0.4602, 0.3285, 0.4009, 0.5106, 0.5070, 0.5052, 0.3909, 0.4128, 0.5200,
        0.5727, 0.4261, 0.5790, 0.5135, 0.3237, 0.4655, 0.4455, 0.5092, 0.6182,
        0.5124, 0.4790, 0.3734, 0.4712, 0.4570, 0.2885, 0.4133, 0.4401, 0.4132,
        0.4480, 0.3765, 0.5001, 0.4411, 0.5260, 0.3451, 0.4554, 0.6066, 0.5435,
        0.4428, 0.5223, 0.6045, 0.3190, 0.3954, 0.4564, 0.3606, 0.6250, 0.5210,
        0.4824, 0.5472, 0.4822, 0.4838, 0.3126, 0.4136, 0.5319, 0.3715, 0.4329,
        0.3791, 0.5453, 0.5155, 0.4643, 0.4235, 0.4421, 0.4657, 0.3633, 0.4039,
        0.4386, 0.4389, 0.4743, 0.5575, 0.5335, 0.3316, 0.4330, 0.3777, 0.3694,
        0.5533, 0.4471, 0.4989, 0.4509, 0.4221, 0.3803, 0.4140, 0.4390, 0.4742,
        0.4370, 0.5043, 0.4429, 0.5187, 0.4372, 0.4306, 0.4973, 0.3088, 0.4880,
        0.5306, 0.4723, 0.4611, 0.3574, 0.6468, 0.4666, 0.5127, 0.4592, 0.3885,
        0.4141, 0.4514, 0.4905, 0.4101, 0.4970, 0.4596, 0.4012, 0.4920, 0.5026,
        0.4401, 0.3931, 0.3337, 0.4426, 0.4125, 0.4853, 0.4769, 0.4642, 0.5663,
        0.5045, 0.4981, 0.4677, 0.3797, 0.3921, 0.4354, 0.4740, 0.3490, 0.6093,
        0.4928, 0.5204, 0.4483, 0.4291, 0.4015, 0.3580, 0.5108, 0.4130, 0.4603,
        0.4813, 0.5156, 0.4808, 0.3865, 0.6153, 0.4007, 0.5633, 0.5833, 0.5538,
        0.4166, 0.3577, 0.6443, 0.3477, 0.4391, 0.5047, 0.4710, 0.5437, 0.4297,
        0.3969, 0.4796, 0.3836, 0.5231, 0.4037, 0.4086, 0.4701, 0.4153, 0.5111,
        0.4183, 0.5833, 0.4147, 0.4714, 0.5293, 0.3601, 0.5493, 0.4502, 0.4548,
        0.5124, 0.3622, 0.4215, 0.5722, 0.4807, 0.4193, 0.3599, 0.4679, 0.5001,
        0.3588, 0.5386, 0.4207, 0.4418, 0.4548, 0.3058, 0.3773, 0.5270, 0.4783,
        0.3665, 0.4068, 0.4346, 0.5036, 0.4449, 0.5037, 0.3861, 0.4640, 0.3956,
        0.5714, 0.3188, 0.4926, 0.6390, 0.4978, 0.4628, 0.4734, 0.3815, 0.4360,
        0.4310, 0.5670, 0.4636, 0.3955, 0.4040, 0.7349, 0.4619, 0.4071, 0.5534,
        0.2977, 0.4566, 0.4728, 0.4157, 0.4522, 0.5215, 0.4267, 0.7574, 0.4370,
        0.3841, 0.4420, 0.4594, 0.4334, 0.4931, 0.3588, 0.5045, 0.5265, 0.4092,
        0.5264, 0.4978, 0.4850, 0.4275, 0.4824, 0.4925, 0.4430, 0.3457, 0.5146,
        0.3839, 0.4419, 0.3791, 0.5707, 0.3936, 0.5240, 0.5654, 0.3715, 0.5424,
        0.4603, 0.6113, 0.5938, 0.4224, 0.4048, 0.3980, 0.5101, 0.4337, 0.3732,
        0.3483, 0.4859, 0.3535, 0.4595, 0.3863, 0.5985, 0.5065, 0.4250, 0.3808,
        0.3437, 0.5302, 0.4851, 0.3870, 0.4341, 0.5003, 0.4332, 0.4469, 0.4017,
        0.4948, 0.3713, 0.5568, 0.4569, 0.4488, 0.4462, 0.3541, 0.3809, 0.4339,
        0.6141, 0.4610, 0.4439, 0.4556, 0.4781, 0.4147, 0.3778, 0.3765])
net.mlp.net.1.batch_norm.running_var tensor([0.8387, 1.1077, 0.5729, 0.7362, 0.8278, 0.5012, 0.7920, 0.9900, 1.1835,
        0.7335, 1.0128, 1.0837, 0.7050, 1.0549, 1.1616, 2.3554, 0.8469, 0.7324,
        0.8100, 0.5451, 1.0493, 0.8141, 0.4643, 0.6777, 0.6885, 0.6189, 1.3582,
        1.0355, 1.0020, 0.9738, 0.6930, 1.5524, 0.6701, 0.9499, 0.9974, 1.2577,
        1.0961, 0.8408, 0.9876, 0.7861, 1.0281, 1.0019, 0.7771, 0.6821, 0.7068,
        0.6249, 0.5073, 0.9631, 2.0556, 0.7119, 0.6779, 0.6255, 0.7243, 0.7714,
        0.4857, 0.9569, 0.6594, 0.6715, 0.9268, 0.7494, 0.5719, 0.7859, 0.7206,
        1.0618, 1.7136, 1.0204, 0.5473, 0.4701, 0.8600, 0.7035, 1.2803, 0.7312,
        0.9603, 0.7758, 0.4485, 1.1579, 0.6863, 0.7219, 0.8226, 0.7310, 1.1768,
        0.7418, 0.5519, 1.4349, 0.5948, 0.8568, 0.6995, 1.0825, 0.7080, 1.3464,
        0.6868, 0.6927, 0.8348, 0.5000, 1.4945, 0.7318, 0.6126, 0.8235, 0.7792,
        0.8146, 0.5369, 0.9078, 1.4482, 1.1893, 0.7071, 0.5367, 0.8909, 0.6421,
        1.0352, 0.5461, 0.7902, 0.5217, 0.5807, 0.9133, 1.3017, 0.8980, 1.0222,
        0.7089, 0.7160, 0.5448, 0.9675, 0.5002, 0.6184, 1.0414, 0.5909, 0.7592,
        0.6272, 0.6885, 0.7976, 1.6033, 1.2770, 1.2108, 0.5269, 0.8290, 1.8449,
        0.9199, 0.6489, 0.5221, 0.9237, 0.6825, 0.9627, 0.7155, 0.7064, 0.6596,
        1.5086, 0.7649, 0.6081, 0.8586, 2.7193, 0.9217, 1.1578, 0.6084, 1.0728,
        0.7166, 0.7810, 0.6978, 1.1470, 0.6632, 0.8400, 0.7414, 2.0040, 0.6786,
        0.9771, 2.3717, 0.6828, 0.5685, 0.6088, 0.9981, 1.0276, 0.7032, 0.9928,
        0.6499, 1.4282, 0.9586, 1.0054, 1.2654, 0.7121, 1.4088, 0.9565, 0.9372,
        1.1886, 1.0494, 0.7852, 0.7496, 0.7446, 0.6788, 0.5095, 0.7866, 0.5786,
        0.7047, 0.8514, 0.5872, 0.7778, 0.8894, 0.6910, 0.7183, 0.5471, 2.1160,
        0.5631, 0.6071, 0.6515, 0.7525, 0.5952, 0.9719, 0.7006, 0.7207, 0.9364,
        1.8455, 1.1043, 0.9112, 0.8250, 0.6033, 0.5827, 1.6024, 0.6658, 1.1777,
        0.7001, 0.5461, 0.6707, 0.7450, 0.9052, 0.7648, 1.1867, 0.6763, 0.8252,
        0.8642, 1.1189, 1.5187, 0.8678, 0.4776, 0.6928, 0.9587, 1.1899, 0.8774,
        1.0608, 0.7412, 0.5775, 0.6597, 0.6951, 0.4080, 0.5977, 0.6854, 0.6246,
        1.2286, 0.5537, 0.6994, 0.6146, 0.7942, 0.4960, 1.3966, 1.0389, 1.2071,
        0.7960, 1.1982, 1.2142, 0.4286, 0.5019, 0.9416, 0.5748, 2.1097, 0.6768,
        0.7985, 1.1857, 0.8180, 0.7666, 0.4506, 0.6566, 0.7717, 0.5719, 0.7495,
        0.5521, 0.9857, 0.8511, 0.7826, 0.6288, 0.9685, 0.8359, 0.4960, 0.6559,
        0.8010, 0.6953, 0.7596, 0.8327, 0.8219, 0.4598, 0.7518, 0.5505, 0.5428,
        0.9015, 0.8063, 1.9103, 0.9428, 0.5713, 0.5241, 0.6828, 0.6224, 1.3719,
        0.6553, 0.8400, 0.6993, 0.8706, 1.1693, 0.7246, 0.7287, 0.6090, 0.7632,
        1.5660, 1.4786, 0.7175, 0.8140, 1.6572, 0.7749, 1.2450, 0.5922, 0.5851,
        0.7515, 0.7214, 0.7222, 0.6789, 0.9183, 0.9500, 0.6372, 0.9289, 1.0530,
        1.2869, 0.7392, 0.6214, 0.5797, 0.6053, 0.6729, 0.9776, 0.7615, 1.4989,
        0.7075, 1.6364, 1.4876, 0.5246, 0.4957, 1.0397, 1.1145, 0.6045, 1.2330,
        0.8198, 1.7373, 0.7732, 0.7582, 0.6347, 0.5195, 1.0266, 0.6222, 0.7900,
        0.8048, 0.9539, 0.8776, 0.6394, 1.9020, 0.7515, 1.0685, 1.7438, 0.9482,
        0.7668, 0.6353, 2.1964, 0.4899, 0.9151, 0.8631, 0.8058, 0.7991, 0.8863,
        0.7873, 0.6684, 0.5849, 1.0229, 1.3470, 0.8518, 1.9086, 0.7758, 0.8416,
        0.8334, 0.9306, 0.6208, 0.7552, 1.0874, 0.5660, 0.8255, 0.6697, 1.1380,
        0.9294, 0.5407, 0.7150, 2.5773, 2.1289, 0.6382, 0.6732, 0.9841, 0.9834,
        0.5206, 0.9763, 0.7453, 0.7336, 1.0071, 0.5732, 0.6201, 0.8571, 1.7878,
        0.6312, 0.6607, 0.6764, 0.7799, 0.9101, 1.0637, 0.5854, 0.9306, 0.9242,
        1.1881, 0.6252, 0.9838, 1.3293, 0.7956, 0.7281, 0.7265, 0.6651, 0.6345,
        0.6548, 0.9163, 0.7925, 1.2625, 0.6622, 3.3496, 0.6306, 0.8098, 0.8779,
        0.4690, 0.6682, 0.6788, 0.5882, 1.0337, 1.3043, 0.9124, 1.3976, 0.7961,
        0.5538, 0.8240, 0.9429, 0.6296, 0.6287, 0.6822, 0.9298, 1.1977, 0.6723,
        0.7819, 0.8776, 0.8441, 1.1391, 0.7241, 0.7461, 0.7292, 0.5119, 0.9208,
        0.6455, 1.9748, 0.4844, 0.8633, 0.6269, 0.8798, 2.4866, 0.5263, 1.1843,
        0.9249, 1.2449, 1.0941, 1.0466, 0.8065, 0.9141, 0.8146, 0.6640, 0.6721,
        0.5538, 0.8824, 0.5967, 0.5599, 0.5810, 1.0651, 0.9833, 0.5795, 0.6858,
        0.5384, 1.6055, 1.6468, 0.5378, 0.9244, 0.9200, 0.6867, 0.9743, 0.6433,
        1.4291, 0.5630, 0.9045, 0.8922, 0.8750, 0.8255, 0.5724, 0.6233, 0.7133,
        1.0733, 0.6387, 0.6812, 0.7417, 0.7559, 0.6459, 0.7323, 0.5325])
net.mlp.net.1.batch_norm.num_batches_tracked tensor(16)
net.mlp.net.2.weight tensor([[-2.6359e-03,  3.0961e-02,  1.3952e-02,  2.6350e-02, -3.0267e-02,
          1.1974e-02,  8.3543e-03,  2.2228e-02, -1.8538e-02,  2.3943e-02,
         -3.2151e-02, -6.7427e-03,  2.4468e-02,  3.9788e-02, -3.7026e-02,
         -1.9989e-02, -2.1408e-02, -3.2046e-03,  7.0016e-04,  1.7143e-02,
          1.4527e-02, -1.7335e-02, -1.6612e-02,  8.5645e-03, -3.0454e-02,
          7.3383e-03, -3.2798e-02,  4.1794e-02, -3.7704e-02, -1.8359e-02,
         -3.5100e-02, -2.6976e-02,  6.0375e-03, -4.2158e-02,  3.8339e-02,
          3.2053e-02,  1.3469e-02, -1.1054e-02, -2.0939e-02,  2.7784e-02,
          1.5764e-02, -2.4335e-02,  9.5757e-04, -1.9572e-02,  3.7725e-02,
         -2.3725e-02,  1.6066e-02,  2.1260e-02,  3.2001e-02, -1.9012e-02,
          1.6166e-02,  3.9396e-02, -1.5869e-02,  9.8941e-03, -7.4092e-03,
         -2.5095e-02,  2.8476e-05, -2.0972e-02,  2.9377e-02,  3.0765e-02,
          2.5485e-02,  3.1751e-02, -4.4462e-03,  3.6993e-02, -1.1572e-02,
         -3.9816e-02,  2.0961e-04, -1.4518e-02,  1.9300e-02, -1.1820e-02,
          1.0577e-02,  3.0661e-02, -2.1419e-02,  2.1369e-02,  1.0968e-02,
         -4.0671e-03,  1.7463e-02, -2.6475e-02, -3.7428e-02,  3.5772e-02,
         -2.0012e-02,  1.5963e-02, -1.6773e-02, -1.5948e-02,  4.4653e-02,
          8.2877e-04, -3.0987e-02, -4.0969e-02, -3.1271e-02, -2.5423e-02,
         -3.6301e-02, -3.4406e-02, -1.3703e-02,  4.0495e-03,  2.9484e-02,
         -1.4855e-02,  3.5848e-02, -2.8953e-02,  8.9429e-03,  3.4567e-02,
         -1.7949e-03,  3.2141e-02,  3.2458e-02,  3.3517e-02,  1.7145e-02,
          2.2553e-02, -1.4114e-02,  2.1365e-02,  3.4836e-02, -3.3588e-02,
          3.6751e-02,  6.1049e-03,  2.6838e-02, -2.4962e-02, -8.6812e-03,
         -2.7576e-02, -3.5153e-02, -3.6288e-02,  1.4730e-02, -3.8621e-02,
         -2.8956e-02,  1.5772e-02, -2.8299e-02, -1.2273e-02,  3.8053e-02,
          4.6280e-03,  1.3248e-02,  7.1536e-03, -2.6712e-02,  3.4419e-02,
         -2.7989e-02, -3.6360e-02, -8.3051e-03,  3.4772e-02,  2.0572e-02,
          1.9731e-02, -8.3027e-03, -5.0722e-03, -2.8401e-02,  2.0472e-02,
         -4.3741e-02,  2.6788e-02,  7.9739e-04, -9.0005e-03, -9.7783e-03,
          2.3003e-03, -5.4226e-03, -2.4786e-03, -3.5490e-03, -4.1256e-02,
         -2.1927e-02,  2.8499e-02, -1.8484e-02, -2.7305e-02,  1.2920e-02,
          1.9866e-02,  2.6949e-02, -2.6905e-02, -4.0840e-02,  2.7250e-02,
          1.9340e-03,  1.9796e-02, -3.3094e-02, -3.0917e-02,  2.5684e-02,
         -2.1657e-03,  3.3222e-02,  2.9294e-03,  2.8937e-02, -1.1371e-03,
          1.4293e-03, -1.0135e-02, -6.5555e-03,  9.2710e-03,  1.4526e-02,
         -3.6546e-02, -2.9549e-02, -2.8855e-03, -2.2091e-02,  1.1323e-02,
          6.0146e-04,  2.2408e-02,  1.4218e-02,  3.3495e-02,  2.8801e-02,
          2.4289e-02, -8.3174e-03, -1.6833e-02,  2.3470e-02,  3.3914e-02,
         -1.4265e-02,  1.7710e-02,  2.6627e-02, -1.1596e-02,  3.6673e-02,
          2.4769e-02,  3.0067e-02,  7.4781e-03, -2.1743e-02, -1.7330e-02,
         -2.9559e-02, -1.1911e-02, -3.0017e-02, -1.5857e-02, -2.5153e-02,
          2.5913e-02,  3.9982e-02,  3.2583e-02,  3.4446e-02, -8.1221e-03,
         -1.3225e-02,  1.7751e-02,  7.1344e-03,  2.9456e-02, -3.4262e-02,
         -3.5216e-02, -3.1366e-02,  4.3746e-03, -3.2906e-02, -2.6124e-02,
          4.3396e-03,  4.0084e-02,  3.9270e-02, -1.1522e-02, -4.0570e-02,
          5.3734e-03, -3.5924e-02,  1.2432e-02, -2.3689e-02,  1.9735e-02,
         -2.5860e-02,  2.8884e-02, -4.3592e-02,  4.0670e-02, -3.1275e-02,
          3.5427e-03,  5.7319e-03,  8.9799e-03,  2.5031e-02, -8.9682e-03,
          1.1766e-02, -1.3190e-04, -3.1356e-03, -2.2161e-02, -1.1053e-02,
         -2.2679e-02,  2.1376e-02, -7.7807e-03,  2.3492e-02, -1.1196e-02,
          1.0428e-02, -1.9630e-02, -3.3988e-02,  2.2929e-02,  2.3080e-02,
          3.3999e-02, -2.2574e-04,  3.1904e-03,  3.9751e-03,  1.4986e-02,
          3.7094e-02,  1.5254e-02,  4.0291e-02,  2.2822e-02,  1.3881e-03,
         -1.4558e-02, -9.0850e-03,  4.9971e-04,  5.1985e-03,  4.0485e-03,
         -3.9784e-02,  3.0492e-02, -3.5662e-02,  3.4010e-02,  5.7742e-03,
          2.3776e-02,  2.3132e-02, -2.8235e-02, -1.8621e-03, -3.3875e-02,
         -3.5781e-02,  6.1429e-03, -2.4692e-02, -4.5323e-04, -1.5261e-02,
         -3.6939e-02, -1.9130e-02,  1.2061e-02,  1.6551e-02,  2.6492e-02,
         -3.9045e-02, -3.3986e-04, -2.6838e-03, -1.2315e-02, -3.2399e-02,
         -1.6941e-02,  1.9951e-02,  2.0217e-03,  2.2767e-03,  1.2346e-02,
          1.6679e-03, -1.1455e-02, -3.9690e-02, -2.1480e-02, -3.7429e-02,
         -1.1737e-03,  2.6817e-03,  2.5735e-03,  2.0013e-02, -2.8406e-02,
         -6.0267e-03,  1.1557e-02,  1.4099e-02, -2.1465e-03, -5.1220e-03,
          3.0325e-02,  1.9714e-02,  1.3143e-02, -6.5121e-03, -3.7807e-03,
         -1.1267e-02,  7.1532e-03,  2.9734e-02, -1.2909e-02, -4.9113e-03,
          3.9651e-04, -1.4163e-02,  1.5427e-02,  3.2656e-03,  1.8571e-02,
          3.8208e-02,  1.7645e-02, -4.2384e-03,  2.2748e-03,  3.5377e-02,
         -2.2799e-02,  6.2366e-03,  3.8082e-02, -2.5287e-02, -7.9016e-03,
          2.0963e-02,  2.9548e-02,  4.4468e-02,  1.3800e-02, -1.2149e-02,
          1.8499e-02, -9.8841e-03,  2.3993e-03, -2.4865e-02, -3.3625e-02,
          2.3908e-02, -3.8376e-02,  1.4867e-03,  3.9716e-02,  2.1453e-02,
          2.9964e-02, -6.3681e-04,  7.4260e-04, -2.0043e-02,  2.8516e-02,
         -3.4322e-02, -3.9580e-02, -2.9386e-02, -1.6971e-02, -1.0689e-02,
          3.9569e-03,  1.5979e-02, -3.8398e-02,  3.3976e-02, -2.6902e-02,
          4.1920e-02, -4.9788e-03, -3.8080e-03, -3.8476e-02, -1.6012e-02,
         -9.0399e-03, -1.6093e-02,  2.6340e-03, -3.3581e-02,  3.9602e-02,
          1.6717e-02,  5.1056e-03,  2.8295e-02,  4.7469e-03,  6.6566e-03,
         -3.4390e-02,  7.1186e-03, -1.9889e-02, -1.2612e-02, -9.8832e-03,
          3.4768e-02,  1.2507e-02, -7.2345e-03, -1.7163e-02, -9.4045e-03,
         -9.1430e-04, -3.5136e-02,  9.4882e-03,  2.1008e-04, -3.5563e-02,
         -1.3511e-02,  3.8194e-03,  5.6838e-03,  2.3409e-02,  5.9364e-04,
          3.8098e-02,  1.6425e-02, -3.1564e-02, -1.5945e-03, -2.6670e-02,
          1.7156e-02,  3.6653e-02,  8.1820e-03, -3.7632e-02, -2.3692e-02,
         -2.2233e-02,  1.7102e-02,  2.8304e-02,  2.6648e-02, -3.3315e-02,
          1.9155e-02,  2.2596e-02,  3.3547e-02, -3.0199e-02, -3.7341e-02,
         -3.4719e-02, -2.8771e-02,  1.1708e-03,  7.9034e-03,  2.2722e-02,
         -2.9576e-02,  1.9098e-02, -1.9643e-02,  3.5024e-02, -3.6761e-02,
          6.2517e-04, -8.7555e-03, -2.9231e-02,  3.5668e-02,  2.9295e-02,
         -2.0456e-02,  1.7352e-02, -3.5981e-02, -3.4561e-02,  3.7794e-02,
          2.1394e-03,  1.3830e-02,  2.5846e-02,  2.6132e-02,  3.1564e-03,
          3.5017e-02, -4.2063e-02,  2.8920e-02, -2.9232e-02,  3.8814e-02,
          3.3845e-02,  4.3379e-03, -2.1117e-02, -2.9257e-02, -2.5256e-03,
          1.7306e-02,  2.3159e-03, -8.4775e-03,  2.4433e-02,  3.8053e-02,
          1.2156e-02,  1.4336e-02, -1.4117e-02,  6.8022e-03,  3.0394e-02,
          1.8552e-02,  1.9180e-02,  7.0566e-03, -2.8076e-02, -7.4966e-03,
         -1.4518e-02,  3.6425e-03,  8.5533e-03, -1.5683e-02, -7.8097e-03,
          3.4824e-02, -5.3066e-03,  2.6119e-02,  1.1606e-02, -1.4245e-02,
          1.1884e-02, -5.6269e-04,  3.7125e-02,  3.3602e-02,  2.2380e-02,
         -1.1987e-02, -1.6797e-02, -3.2806e-02,  2.1220e-02,  2.6586e-02,
         -2.7911e-02, -2.7330e-02, -6.0981e-03,  1.8731e-02, -1.1989e-03,
          3.2954e-02, -1.1922e-02, -1.0605e-02, -1.6586e-02,  1.8988e-03,
         -6.5367e-03, -1.6153e-02,  2.7718e-02,  2.1341e-02,  1.5237e-02,
         -9.6064e-03,  1.8194e-02]])
