Weights: 
net.embeddings.embeddings.0.weight tensor([[-0.1100, -0.0545],
        [ 0.0628, -0.2597],
        [ 0.0241, -0.1154],
        [-0.0243, -0.0080]])
net.embeddings.embeddings.1.weight tensor([[ 0.0402, -0.0609],
        [-0.2994, -0.1991],
        [ 0.1185, -0.1057],
        [ 0.2501,  0.1773],
        [ 0.0327, -0.0110]])
net.embeddings.embeddings.2.weight tensor([[ 0.1728, -0.0151,  0.0958],
        [ 0.2280,  0.1772,  0.0847],
        [-0.0082,  0.0242, -0.0682],
        [-0.1596,  0.2594,  0.0953],
        [ 0.1937, -0.0729,  0.1164],
        [-0.0062, -0.1272,  0.0510]])
net.embeddings.embeddings.3.weight tensor([[-0.0406, -0.0050],
        [ 0.1261,  0.4901],
        [-0.2077,  0.1883],
        [-0.1180, -0.3698]])
net.embeddings.embeddings.4.weight tensor([[ 0.3423, -0.3388],
        [ 0.2537,  0.0826],
        [-0.4154,  0.2741],
        [-0.0720,  0.2422]])
net.mlp.net.0.linear.weight tensor([[ 0.2821,  0.2028,  0.0828,  ...,  0.0148,  0.1661,  0.2903],
        [ 0.0487,  0.1965,  0.1221,  ..., -0.0266,  0.1615, -0.0807],
        [-0.1488, -0.2041,  0.1045,  ...,  0.4306, -0.0158,  0.0781],
        ...,
        [ 0.1085,  0.1174,  0.1669,  ...,  0.0272, -0.1893,  0.1614],
        [ 0.1533,  0.0373, -0.0297,  ...,  0.1265, -0.1274,  0.2458],
        [-0.1100, -0.0829,  0.1062,  ..., -0.2361,  0.3912, -0.2195]])
net.mlp.net.0.linear.bias tensor([-0.0646,  0.0252, -0.0583,  0.0100, -0.0585,  0.0515,  0.0444, -0.0496,
         0.0147, -0.1248,  0.0314,  0.0486,  0.1252,  0.0684,  0.0700,  0.1512,
        -0.0664, -0.0259, -0.0035,  0.0805, -0.1328, -0.0443,  0.0943, -0.0290,
        -0.0843, -0.0799,  0.0839,  0.0899,  0.0264,  0.0041,  0.0329, -0.0620,
        -0.1084,  0.0820, -0.1052,  0.0549,  0.0135,  0.1548,  0.0537, -0.1217,
         0.0748, -0.0597,  0.0378, -0.0243, -0.0552,  0.0351, -0.0227, -0.0317,
         0.0064, -0.0596,  0.0646, -0.1033,  0.0728,  0.0839,  0.0128,  0.0845,
        -0.0941,  0.0432, -0.0704, -0.0493, -0.0274, -0.0155,  0.1214,  0.0751,
        -0.1399, -0.0180, -0.0403,  0.0332, -0.0535, -0.1040, -0.0253,  0.0349,
        -0.0349, -0.0492,  0.0805, -0.0896,  0.0363,  0.1113, -0.0943,  0.0631,
         0.0862,  0.0299,  0.0301, -0.0964,  0.0452,  0.0269,  0.0145,  0.0302,
         0.0119,  0.0230,  0.0438,  0.0284, -0.1958,  0.0936, -0.0670, -0.0189,
        -0.0434, -0.0437,  0.0012,  0.0629, -0.0118,  0.1224,  0.0146,  0.0512,
         0.1496, -0.1090, -0.0267, -0.0205,  0.0312, -0.0874,  0.0396, -0.0224,
         0.0562, -0.0372,  0.1843, -0.0044, -0.0259,  0.0362, -0.0651,  0.0392,
         0.0461, -0.0419, -0.0171, -0.0331, -0.0293,  0.0092, -0.0161, -0.0578,
        -0.1732, -0.0465,  0.0861,  0.0707, -0.0014,  0.1510,  0.0341,  0.0569,
         0.0968,  0.0203,  0.0049, -0.0562,  0.0205,  0.0825,  0.1076,  0.0470,
         0.0193, -0.0521,  0.0680,  0.0727,  0.0448, -0.1102, -0.0858,  0.1257,
        -0.0326, -0.0378,  0.0479, -0.1303,  0.0814,  0.1023,  0.0980, -0.0575,
        -0.0167,  0.0864, -0.0869, -0.0853, -0.0935, -0.0402,  0.0053,  0.0801,
         0.0074, -0.1305,  0.0613,  0.0760, -0.0561,  0.1104, -0.0710, -0.0781,
         0.0727, -0.0175,  0.0220,  0.1296, -0.0710,  0.0591, -0.1298, -0.0301,
         0.1172, -0.0729, -0.1438, -0.0566,  0.1454, -0.1211, -0.1065, -0.0031,
         0.1081, -0.0861, -0.0541, -0.0008, -0.0273,  0.0104, -0.0355,  0.1043,
         0.0061,  0.0510,  0.0358, -0.0132,  0.0333, -0.0329,  0.0705, -0.0475,
         0.0134, -0.1077, -0.0020,  0.0780, -0.0310,  0.0166, -0.0639, -0.0848,
        -0.0736, -0.0327, -0.0991,  0.0399, -0.0248, -0.1252, -0.0251, -0.1316,
        -0.1065, -0.0636,  0.1397,  0.0081,  0.1144,  0.0903, -0.0316, -0.0731,
        -0.0913,  0.0413,  0.1130, -0.0119, -0.1010,  0.0563, -0.0419,  0.0456,
         0.0061, -0.0565, -0.0428, -0.0327,  0.0564,  0.0039, -0.1418, -0.0416,
         0.0991, -0.0592,  0.1312, -0.1466,  0.1099, -0.0469, -0.0829, -0.0955,
        -0.1589, -0.1258, -0.0421, -0.0016,  0.0893,  0.0423, -0.0030, -0.0368,
         0.0849,  0.0249,  0.1123,  0.1196, -0.1517, -0.0440, -0.0751,  0.0275,
         0.0207, -0.0137, -0.0564, -0.1365, -0.1412, -0.1613,  0.0382,  0.0409,
        -0.0710,  0.0017, -0.1002,  0.0110, -0.0675,  0.0902,  0.0710, -0.1343,
        -0.0524,  0.0831,  0.0714, -0.0026,  0.1137,  0.1002, -0.0219,  0.0897,
         0.1606, -0.0042, -0.0327,  0.0062,  0.0152,  0.0628,  0.0876,  0.0118,
        -0.1512,  0.0591,  0.0244, -0.0756,  0.0187, -0.1145, -0.0685, -0.0175,
        -0.0299, -0.1293, -0.1445, -0.0878,  0.1638,  0.0055, -0.0967, -0.0113,
         0.0115,  0.0206, -0.0477,  0.1537, -0.0143,  0.0745, -0.0046,  0.0726,
        -0.0975, -0.1128,  0.0397, -0.0691, -0.0489,  0.0053, -0.0536,  0.0749,
         0.0227, -0.0303, -0.0712, -0.0872, -0.0483, -0.0636,  0.0779, -0.0061,
        -0.0388,  0.0610, -0.1217, -0.0439, -0.0086,  0.0748, -0.0130, -0.1021,
        -0.0336, -0.0744, -0.1198,  0.0541, -0.0663, -0.0546, -0.0626,  0.1100,
        -0.0348, -0.0176, -0.0486,  0.0351, -0.0600,  0.0101,  0.0211, -0.1765,
        -0.0455,  0.0965,  0.0635,  0.1362, -0.0521, -0.0433, -0.1237, -0.0158,
        -0.0097,  0.0649, -0.0011,  0.1672, -0.0881,  0.1148,  0.0742,  0.0230,
        -0.0696,  0.1070, -0.1489, -0.0261,  0.0295, -0.0487, -0.0448, -0.1284,
        -0.0438,  0.0456, -0.0673, -0.0431,  0.1392, -0.0727,  0.1154,  0.0436,
         0.0880, -0.0138,  0.0458,  0.0911, -0.0139,  0.0556,  0.0686,  0.1011,
         0.0167,  0.1231, -0.0677, -0.0591,  0.0261,  0.0388, -0.0166,  0.0657,
         0.1147, -0.0886, -0.0028, -0.0555,  0.0667, -0.0551, -0.0024, -0.1070,
         0.0608, -0.0209,  0.0307, -0.0666,  0.0668, -0.0912, -0.0002,  0.0406,
        -0.0646,  0.0208,  0.0685,  0.0595,  0.0541,  0.1214,  0.1001, -0.0133,
         0.0990, -0.0259, -0.0011, -0.0286,  0.1501,  0.1114,  0.0771,  0.0162,
        -0.0568,  0.0074,  0.1013,  0.1838, -0.0814, -0.0019,  0.0090,  0.0296,
         0.1334,  0.0067, -0.0473, -0.0608,  0.0436,  0.1004, -0.0601, -0.0185,
         0.0691, -0.0344,  0.0832, -0.0242,  0.1012,  0.0551, -0.1265,  0.1301,
         0.0658, -0.0733, -0.0883,  0.1516, -0.0131,  0.0411, -0.0372,  0.0416,
         0.0099,  0.1127, -0.0015,  0.0985, -0.0433,  0.0260, -0.0602, -0.0537,
        -0.0239, -0.0529, -0.0495, -0.0363,  0.0830,  0.0849,  0.0252,  0.0412,
         0.1050, -0.0812, -0.0628,  0.0338,  0.0306, -0.0803,  0.0165, -0.0452,
        -0.0034, -0.0489,  0.0253,  0.0818,  0.0543,  0.0591,  0.1335,  0.0536])
net.mlp.net.0.batch_norm.weight tensor([0.5595, 0.5109, 0.5441, 0.5741, 0.4736, 0.5405, 0.5296, 0.7606, 0.4643,
        0.5284, 0.5500, 0.5204, 0.5784, 0.4872, 0.4871, 0.5374, 0.5743, 0.6041,
        0.5549, 0.5418, 0.5876, 0.5333, 0.5409, 0.4579, 0.5901, 0.5209, 0.5700,
        0.5211, 0.5045, 0.5034, 0.5571, 0.5169, 0.5827, 0.5559, 0.5612, 0.5576,
        0.6034, 0.4972, 0.5100, 0.4872, 0.4559, 0.4327, 0.4823, 0.5219, 0.5305,
        0.5415, 0.5549, 0.5508, 0.5138, 0.4718, 0.5355, 0.5605, 0.5026, 0.5542,
        0.4862, 0.4548, 0.4869, 0.5579, 0.5189, 0.4432, 0.4728, 0.5644, 0.5860,
        0.4975, 0.4455, 0.4832, 0.5028, 0.4767, 0.5020, 0.5071, 0.4785, 0.4388,
        0.5744, 0.5305, 0.5311, 0.5241, 0.5130, 0.4656, 0.5152, 0.5428, 0.5545,
        0.5077, 0.4955, 0.4984, 0.5316, 0.5005, 0.5719, 0.4679, 0.4788, 0.5533,
        0.5077, 0.5157, 0.5230, 0.5468, 0.6717, 0.5520, 0.5864, 0.5522, 0.5630,
        0.5736, 0.5506, 0.6528, 0.4593, 0.4915, 0.5165, 0.5553, 0.5705, 0.4582,
        0.5720, 0.5501, 0.5915, 0.5818, 0.5455, 0.4780, 0.5944, 0.4857, 0.5127,
        0.4906, 0.4997, 0.4497, 0.5177, 0.6121, 0.6461, 0.5516, 0.5412, 0.5658,
        0.5725, 0.5333, 0.5449, 0.4848, 0.5070, 0.5660, 0.5339, 0.5884, 0.5045,
        0.6048, 0.5363, 0.5937, 0.5126, 0.6374, 0.5677, 0.4887, 0.4923, 0.5529,
        0.5719, 0.4971, 0.5886, 0.5656, 0.5883, 0.6035, 0.4484, 0.5488, 0.5998,
        0.5871, 0.5698, 0.5300, 0.5238, 0.5934, 0.5726, 0.4817, 0.5055, 0.5448,
        0.4765, 0.4654, 0.5922, 0.5226, 0.5425, 0.5344, 0.5542, 0.5034, 0.4866,
        0.5201, 0.5862, 0.5134, 0.5133, 0.4578, 0.5017, 0.5262, 0.5332, 0.4910,
        0.4729, 0.5802, 0.5273, 0.5493, 0.5536, 0.5650, 0.5124, 0.5609, 0.5080,
        0.5126, 0.5443, 0.4839, 0.5447, 0.6507, 0.5313, 0.4597, 0.4801, 0.5286,
        0.4695, 0.4837, 0.4947, 0.4771, 0.5349, 0.6203, 0.5709, 0.4897, 0.4981,
        0.5439, 0.5443, 0.4935, 0.5625, 0.5750, 0.5913, 0.6458, 0.5364, 0.5541,
        0.5317, 0.5255, 0.5241, 0.5321, 0.5041, 0.5023, 0.5474, 0.5114, 0.4944,
        0.5162, 0.4871, 0.5685, 0.5193, 0.5019, 0.4933, 0.5053, 0.4804, 0.5285,
        0.5149, 0.5700, 0.6039, 0.4602, 0.5254, 0.5572, 0.6042, 0.5304, 0.5935,
        0.6337, 0.5059, 0.5134, 0.5665, 0.5443, 0.4967, 0.4768, 0.5540, 0.5669,
        0.4622, 0.5812, 0.6133, 0.6592, 0.5136, 0.5659, 0.5410, 0.5296, 0.5182,
        0.5001, 0.5283, 0.4908, 0.5060, 0.6500, 0.5425, 0.5172, 0.6003, 0.4946,
        0.5547, 0.4890, 0.4913, 0.4883, 0.5015, 0.5199, 0.6015, 0.5203, 0.5205,
        0.5442, 0.5655, 0.5279, 0.5076, 0.5247, 0.4867, 0.5111, 0.6342, 0.5821,
        0.4945, 0.5903, 0.4680, 0.5166, 0.5595, 0.5586, 0.5087, 0.5154, 0.6245,
        0.4857, 0.4858, 0.5225, 0.4585, 0.5671, 0.4619, 0.5149, 0.5167, 0.5197,
        0.5290, 0.5536, 0.6050, 0.5445, 0.5437, 0.5746, 0.5813, 0.4452, 0.6109,
        0.4638, 0.5209, 0.5172, 0.5222, 0.5521, 0.5383, 0.5732, 0.5660, 0.4918,
        0.5231, 0.5074, 0.5303, 0.5463, 0.4773, 0.5724, 0.5583, 0.5136, 0.5161,
        0.4845, 0.5302, 0.5885, 0.4573, 0.5994, 0.5771, 0.4769, 0.5570, 0.5350,
        0.5262, 0.5653, 0.5725, 0.4923, 0.5448, 0.4840, 0.5673, 0.5988, 0.5719,
        0.4478, 0.4531, 0.5219, 0.5563, 0.5128, 0.5844, 0.5035, 0.5439, 0.4729,
        0.5583, 0.5438, 0.5604, 0.5190, 0.5172, 0.5270, 0.5803, 0.4842, 0.5764,
        0.5079, 0.5387, 0.5189, 0.5517, 0.4919, 0.5932, 0.5373, 0.5998, 0.5514,
        0.5256, 0.5496, 0.4628, 0.5118, 0.5585, 0.4872, 0.5192, 0.5191, 0.5467,
        0.5787, 0.4886, 0.5712, 0.5414, 0.5546, 0.6059, 0.5265, 0.4920, 0.6043,
        0.5589, 0.5695, 0.5857, 0.4293, 0.5551, 0.5962, 0.5079, 0.5311, 0.5083,
        0.5373, 0.4858, 0.4981, 0.5160, 0.5500, 0.5831, 0.5219, 0.5454, 0.6140,
        0.5888, 0.5281, 0.5200, 0.5366, 0.4794, 0.5030, 0.4706, 0.5071, 0.5371,
        0.5522, 0.4980, 0.5030, 0.4925, 0.5626, 0.5491, 0.4881, 0.5081, 0.5652,
        0.5964, 0.5284, 0.5912, 0.5446, 0.6630, 0.5133, 0.5246, 0.5358, 0.4692,
        0.4977, 0.5395, 0.4899, 0.5627, 0.4858, 0.5085, 0.4897, 0.5228, 0.6506,
        0.5618, 0.5207, 0.5739, 0.5110, 0.4853, 0.5611, 0.4962, 0.5533, 0.5336,
        0.5170, 0.5526, 0.5017, 0.4801, 0.4911, 0.5104, 0.5072, 0.6484, 0.5356,
        0.5452, 0.5469, 0.6088, 0.5352, 0.5342, 0.5220, 0.5423, 0.5339, 0.5391,
        0.5273, 0.5150, 0.5683, 0.5046, 0.5422, 0.5338, 0.4740, 0.5316, 0.5274,
        0.5077, 0.5477, 0.5707, 0.5274, 0.5156, 0.5224, 0.6248, 0.5836, 0.5728,
        0.4326, 0.4858, 0.5668, 0.4741, 0.5010, 0.5123, 0.5095, 0.5565, 0.4847,
        0.5456, 0.4972, 0.5183, 0.5291, 0.5523, 0.5259, 0.5522, 0.5714])
net.mlp.net.0.batch_norm.bias tensor([-1.1739e-02,  2.6361e-02, -1.2733e-02, -2.5292e-02,  5.8837e-02,
        -2.3424e-02,  3.7789e-02,  3.4431e-02,  2.8203e-02,  5.2697e-02,
        -4.7264e-02, -2.3928e-02,  4.5372e-02,  7.1751e-02, -1.8591e-02,
        -8.4363e-03,  1.1151e-02,  2.1256e-03,  4.2909e-02,  8.4644e-03,
        -8.6232e-02, -2.8728e-03,  1.3958e-02,  6.8794e-02,  6.7648e-02,
         4.6172e-02,  9.4535e-03, -6.7880e-02, -2.1396e-02, -5.3745e-02,
        -3.0404e-02,  6.1613e-02, -1.3437e-02, -3.8199e-02,  1.3258e-02,
         2.3710e-02,  3.3338e-02,  2.6220e-02, -2.4950e-02, -2.8501e-03,
        -5.6468e-02,  7.3052e-04,  2.6031e-02,  1.7239e-02, -8.7032e-02,
         8.9446e-02,  1.8552e-02, -1.3210e-02,  3.9888e-02,  2.1103e-02,
         2.2262e-02,  1.2483e-02,  2.7546e-02, -5.1517e-03, -2.9440e-02,
        -3.0786e-02, -4.5919e-03,  1.8979e-02, -3.8983e-02,  2.8289e-02,
         4.4735e-02,  4.1899e-03, -8.6221e-02,  1.0893e-02,  1.0720e-01,
         4.9390e-02,  5.9372e-03, -2.1820e-02,  1.5036e-02,  4.0824e-02,
        -3.6564e-02,  2.2889e-02, -5.0471e-02, -5.2330e-03,  2.2193e-02,
         8.4346e-03,  2.3073e-02,  1.0997e-02,  3.6768e-02, -1.8818e-02,
         8.5022e-02, -1.5459e-02, -4.7003e-02,  4.2166e-02,  4.1176e-02,
         5.3239e-03, -3.1594e-03,  1.8708e-02,  2.2873e-02, -4.7987e-02,
        -1.0509e-02,  8.8322e-03,  4.0081e-02,  4.0711e-02,  3.2802e-03,
         4.6714e-03, -6.4448e-03,  5.1005e-02,  1.8499e-02, -5.2706e-02,
        -6.7380e-02, -4.7924e-02, -2.0622e-02,  3.5665e-02,  1.2063e-01,
        -1.9562e-02, -1.7460e-02, -6.5532e-02, -2.7660e-02, -3.7373e-02,
        -1.7513e-02,  7.0182e-03, -3.6929e-02, -2.2325e-03,  6.6373e-02,
        -5.7590e-03,  1.1598e-03,  1.2245e-02, -8.8454e-03,  2.5807e-02,
         4.1597e-02, -3.5209e-02, -7.6440e-02, -3.6081e-02, -2.7615e-02,
        -9.2128e-03, -3.9351e-02, -5.6123e-02, -1.9206e-02, -2.4643e-02,
        -2.4527e-02,  6.8695e-03, -1.8317e-02,  1.8810e-02, -1.3740e-02,
         6.7401e-02,  3.9714e-02,  4.5784e-03, -8.2397e-03,  2.4580e-02,
        -1.6796e-02,  2.4535e-02,  3.7606e-03,  7.2646e-03, -1.0658e-02,
        -6.6627e-02,  3.1861e-02, -3.6762e-02, -2.1920e-03, -5.5063e-02,
         2.5789e-02,  2.1458e-02, -2.5643e-03,  1.0317e-02, -5.2712e-02,
        -2.4608e-02, -2.1666e-02,  1.6434e-02,  7.4130e-03,  1.3438e-04,
        -2.5723e-03,  3.8597e-03, -5.7110e-02,  3.6288e-02,  2.1839e-02,
         5.2665e-02, -1.0597e-02,  1.7615e-02, -2.9205e-02,  5.4442e-02,
         4.8630e-02,  4.2911e-02, -4.3817e-03, -4.0689e-02, -3.5466e-02,
        -9.1236e-04, -8.9134e-02,  9.1398e-02,  2.4455e-02, -6.7547e-02,
        -1.8472e-02, -2.4448e-02, -4.5502e-02, -1.8705e-02, -6.8094e-03,
        -6.7222e-02,  8.5067e-03,  3.2270e-02, -4.0836e-02, -1.6520e-02,
         5.0662e-02, -1.1086e-02, -5.6097e-02, -2.8561e-02,  5.8518e-02,
        -3.4833e-02, -1.3758e-02,  7.8575e-02, -4.5852e-03,  5.4244e-02,
         5.6164e-02,  1.5660e-02, -2.2040e-02, -2.4283e-03, -4.7869e-02,
         3.4141e-03, -5.8343e-03,  3.8691e-02,  7.2723e-03, -3.6986e-02,
        -2.1678e-03,  7.8242e-02,  8.7921e-03, -1.0159e-01, -1.9698e-02,
         3.1767e-03, -4.0613e-02, -2.8548e-03, -5.2174e-02,  7.9590e-03,
         4.3350e-02,  6.3289e-02,  1.0667e-02,  1.7442e-02,  2.0670e-02,
        -1.4345e-02,  6.8230e-02,  1.0264e-03, -8.6024e-03, -3.9699e-02,
        -1.6505e-02, -6.8794e-03, -2.1478e-02, -7.1661e-02,  1.2755e-02,
         1.3164e-02, -4.6375e-02,  1.6059e-02, -5.4520e-02,  6.1585e-02,
        -2.2613e-02,  2.2262e-02,  4.3318e-02,  4.6219e-02, -2.9470e-02,
         2.0268e-02,  4.8244e-02,  1.9813e-02, -4.0051e-02,  1.5063e-02,
         1.6311e-02,  3.3268e-02, -2.3235e-02, -5.1935e-03, -4.9657e-02,
         1.5175e-02, -4.3495e-02,  3.0905e-02,  5.3092e-02,  1.8306e-02,
        -1.8315e-03, -1.9210e-02, -4.6693e-02, -9.9273e-03,  1.0242e-03,
         4.3017e-02, -5.6566e-03, -2.3567e-02, -2.6500e-02, -6.7650e-02,
        -2.6425e-02, -4.0679e-02,  6.2213e-02, -2.3552e-02,  2.4204e-02,
         2.9807e-02, -7.8553e-03,  4.5793e-02,  5.5098e-02,  6.7440e-02,
        -2.7528e-02,  3.4744e-02,  4.3417e-02,  6.9260e-03, -4.1190e-03,
        -1.6291e-02,  3.1707e-02,  4.9500e-02,  5.6765e-02,  2.6143e-02,
         8.5632e-03,  2.6511e-02,  2.8407e-03, -1.7361e-02,  3.2590e-02,
        -3.0856e-02, -5.4862e-03,  2.4042e-02, -6.0791e-02,  5.4754e-02,
         5.1025e-02, -1.5696e-02, -9.2225e-03,  1.2987e-02, -1.0333e-01,
        -8.5625e-03, -5.4059e-05, -6.5026e-02,  2.8385e-03, -5.8454e-02,
         3.5465e-03,  3.2756e-02,  7.1791e-03, -1.1134e-02,  1.0865e-02,
        -3.2354e-02, -4.1001e-02,  6.4172e-02,  2.2885e-02, -1.2991e-02,
        -2.3515e-02,  5.0699e-02,  6.4597e-03, -1.1121e-02, -5.0137e-02,
         2.4800e-02, -5.5616e-02,  5.1045e-02, -5.4435e-03, -4.9207e-02,
         4.5494e-02,  2.4773e-02,  5.1733e-02, -7.7221e-02,  2.0974e-02,
         1.1111e-03, -2.0359e-02, -4.5026e-03,  4.0235e-02, -1.2637e-02,
         1.1370e-01, -2.4403e-03,  7.6666e-04, -3.2334e-02, -2.7701e-02,
         1.8088e-02,  6.2111e-04, -3.3749e-02, -9.3500e-03,  5.4566e-02,
         4.1044e-02,  5.3889e-03,  5.6489e-03, -2.0254e-02,  8.2048e-03,
        -2.1294e-02, -3.8109e-03,  5.2838e-02,  6.0844e-02, -2.8104e-02,
        -6.8580e-02,  1.1319e-02,  6.2268e-02, -2.1181e-02, -1.0416e-02,
         3.7582e-02, -3.9188e-02, -4.3591e-03, -4.9663e-03,  2.8614e-02,
        -3.5523e-03,  3.9536e-02,  1.8023e-02, -9.5717e-03,  3.6523e-02,
         1.4976e-02,  4.2539e-02, -1.8804e-02,  1.0899e-02,  3.3974e-03,
         2.8737e-02, -2.9082e-02, -1.8373e-04, -3.3749e-02,  5.8300e-02,
         2.0617e-02,  1.8745e-04, -3.6691e-03, -6.2101e-02,  7.1568e-03,
        -3.1888e-02,  8.8930e-03,  5.2468e-02,  1.9893e-02,  2.6384e-02,
         3.3933e-02,  1.0372e-02, -6.5441e-03,  2.7760e-02,  4.0261e-02,
         3.1277e-02, -1.4876e-02, -6.7409e-02, -3.3221e-02, -4.5210e-02,
         6.8688e-02,  5.3501e-03, -4.1267e-02, -6.8318e-03, -6.1379e-02,
         7.6742e-03,  1.8282e-02,  6.3394e-03, -4.7758e-02,  2.2323e-02,
         1.9754e-02,  3.3400e-03,  2.3945e-02,  2.4416e-02, -8.5608e-03,
        -1.0485e-02, -1.3796e-02, -3.7262e-03, -1.7812e-04,  5.7725e-02,
         2.6194e-02,  7.1227e-03,  2.3671e-02, -5.0631e-05, -8.4104e-03,
         4.8123e-02,  4.8306e-02,  2.9575e-02, -2.0156e-02,  5.0826e-02,
        -5.8053e-02,  2.5087e-02, -1.6284e-02,  9.2785e-03, -4.6389e-02,
         8.2055e-03,  1.6644e-02, -6.0805e-03,  7.6195e-03,  1.4170e-02,
         6.7214e-02, -3.5123e-03, -1.1930e-02,  4.8246e-02,  3.0457e-02,
        -1.7144e-02, -2.8997e-02, -3.3471e-02, -3.2478e-02, -3.0726e-02,
        -1.9244e-02,  1.9070e-02, -3.2825e-02, -1.7600e-02,  5.1853e-02,
         6.6229e-02,  3.9511e-02, -1.2283e-02, -1.5800e-02,  1.6744e-02,
         2.0792e-02,  6.8925e-03, -3.5556e-02,  8.8007e-02, -1.6388e-02,
        -1.0194e-01,  3.3851e-02, -4.2665e-02, -3.8317e-02, -6.7556e-03,
        -3.4404e-04,  3.3885e-02, -1.6637e-02, -5.9486e-02,  3.3864e-02,
        -6.5492e-02,  3.0233e-02, -4.3754e-02, -1.9107e-02,  3.0803e-02,
        -2.2326e-02,  6.8944e-03, -2.0525e-02, -3.2777e-02,  2.2094e-02,
         3.8050e-02,  2.4754e-02,  1.4126e-02, -3.0899e-02, -4.2790e-02,
         4.8080e-03,  4.5025e-02, -1.0540e-03, -4.0969e-02, -1.3076e-01,
         4.7512e-02, -3.8426e-02,  1.0307e-02,  2.9523e-02, -4.1552e-02,
         7.9176e-02,  5.0169e-02, -1.7018e-02,  1.9241e-02, -4.5372e-02,
        -1.4183e-02,  1.1448e-02])
net.mlp.net.0.batch_norm.running_mean tensor([1.6019e-01, 1.0559e-01, 2.3082e-01, 9.5343e-04, 1.5527e-01, 2.2684e-01,
        5.1533e-01, 2.6495e-03, 7.1001e-02, 6.3155e-03, 4.1385e-02, 1.6496e-02,
        2.3001e-01, 1.0489e-02, 9.7695e-02, 4.8983e-01, 9.4818e-02, 4.0130e-01,
        1.0209e-01, 3.1226e-01, 4.1544e-03, 6.6312e-01, 3.3003e-01, 4.2988e-01,
        9.1439e-02, 2.1248e-01, 2.8168e-01, 1.1685e-01, 1.6477e-01, 2.1482e-01,
        2.8212e-01, 1.6151e-01, 9.2576e-02, 3.3818e-01, 4.4448e-03, 6.4073e-02,
        3.4146e-02, 2.2367e-01, 5.3289e-02, 4.7567e-02, 7.4851e-02, 2.9201e-01,
        1.6719e-01, 6.4989e-02, 8.2146e-02, 2.3541e-01, 2.1478e-01, 6.8699e-02,
        1.6659e-01, 2.7920e-01, 1.1644e-01, 6.3015e-02, 2.4361e-01, 3.8092e-02,
        3.9738e-02, 5.1491e-01, 2.0849e-02, 3.3962e-01, 1.7000e-01, 5.3077e-01,
        4.5609e-01, 9.5523e-02, 1.2208e-01, 2.7756e-01, 1.0685e-01, 1.5703e-02,
        2.0535e-01, 1.8951e-01, 5.5995e-02, 1.4875e-01, 3.6062e-02, 2.7888e-01,
        8.6745e-02, 7.8402e-02, 1.0782e-01, 4.4764e-05, 1.6681e-02, 3.7589e-01,
        8.3135e-03, 3.4544e-03, 1.7525e-01, 1.3290e-01, 3.0609e-01, 4.5959e-02,
        7.2175e-01, 7.6434e-02, 4.5858e-02, 1.4457e-01, 1.7584e-01, 1.6475e-01,
        1.4033e-01, 1.8562e-01, 1.2601e-02, 2.2792e-02, 5.4804e-04, 2.2574e-01,
        2.0601e-01, 3.1840e-03, 1.3146e-04, 9.2665e-02, 3.1198e-03, 2.9870e-01,
        7.3773e-03, 6.4027e-02, 6.5461e-02, 5.1443e-01, 1.0379e-01, 5.4107e-02,
        1.6422e-02, 3.0245e-02, 4.8140e-02, 1.9043e-02, 1.6628e-01, 3.5805e-01,
        5.2243e-01, 2.2794e-01, 2.2348e-01, 1.9571e-03, 3.9854e-01, 2.4750e-01,
        3.6322e-01, 1.1568e-02, 8.3362e-02, 2.9893e-01, 1.4954e-02, 8.0360e-02,
        3.4337e-01, 8.5886e-02, 5.2926e-02, 2.5120e-01, 1.1820e-01, 2.8602e-01,
        1.4562e-01, 3.5782e-01, 1.4279e-01, 1.3623e-01, 1.7226e-01, 1.6834e-01,
        5.1251e-02, 1.8925e-03, 1.0486e-01, 3.3589e-01, 2.5022e-01, 6.2635e-03,
        2.9946e-01, 1.3215e-01, 1.5832e-01, 1.1221e-02, 3.5535e-02, 4.7994e-04,
        2.5292e-01, 6.2161e-02, 1.4104e-01, 2.8532e-01, 3.5794e-01, 1.2253e-02,
        3.6762e-01, 2.5071e-01, 1.8017e-01, 5.8496e-03, 8.0058e-02, 3.5279e-01,
        2.5131e-01, 4.6927e-02, 1.6285e-01, 2.8820e-01, 3.8440e-01, 4.7544e-01,
        1.3705e-01, 1.1116e-01, 9.7042e-02, 1.7407e-01, 2.7441e-01, 5.2809e-01,
        6.0169e-01, 2.4870e-01, 2.7504e-01, 1.7421e-02, 5.0688e-03, 2.1053e-01,
        7.2373e-01, 7.3754e-02, 3.5306e-02, 3.2006e-02, 4.1870e-01, 4.6315e-03,
        4.1748e-02, 2.4648e-01, 5.6789e-01, 4.2400e-02, 2.2213e-03, 2.0213e-01,
        3.5683e-01, 2.7408e-03, 6.3001e-03, 4.2195e-03, 1.0879e-02, 1.7157e-01,
        1.2334e-01, 2.9234e-01, 5.4441e-02, 2.8547e-04, 1.2978e-01, 5.8419e-03,
        4.1561e-01, 2.7064e-01, 8.7221e-02, 2.9975e-01, 3.0906e-01, 3.6557e-02,
        2.8088e-01, 3.2843e-01, 8.2080e-04, 1.0199e-02, 2.7959e-01, 2.3291e-01,
        9.7718e-03, 1.5409e-01, 1.7687e-01, 2.2030e-01, 6.4133e-01, 2.9550e-02,
        2.6574e-02, 1.4580e-03, 1.3596e-02, 1.8249e-02, 1.8269e-01, 4.7424e-02,
        7.0984e-01, 6.7554e-02, 9.8775e-02, 2.7588e-01, 2.3927e-02, 8.8229e-02,
        1.7905e-02, 2.9638e-01, 2.7731e-01, 5.9497e-02, 6.0240e-02, 9.5920e-02,
        3.8383e-02, 9.9297e-03, 1.5905e-02, 3.3676e-01, 2.7076e-01, 1.6665e-01,
        6.3872e-02, 2.1002e-02, 3.9892e-01, 7.5665e-02, 9.7822e-02, 1.7279e-02,
        2.9445e-01, 7.4781e-03, 5.1734e-03, 3.9451e-01, 8.2034e-02, 6.7515e-03,
        1.9721e-01, 2.3868e-01, 5.4796e-02, 1.0361e-01, 2.3703e-01, 5.3404e-02,
        3.8241e-01, 1.4339e-02, 4.1238e-01, 9.8270e-02, 1.4844e-01, 3.5047e-01,
        1.5777e-01, 2.9733e-01, 3.0133e-02, 1.5590e-01, 7.6240e-02, 1.7557e-02,
        1.3942e-03, 1.9009e-02, 1.0187e-01, 2.5837e-02, 1.2299e-01, 1.1294e-01,
        1.8495e-02, 2.0675e-01, 2.6557e-02, 3.9517e-01, 3.1761e-04, 9.9284e-02,
        8.0663e-05, 1.2708e-01, 1.9734e-01, 3.5760e-01, 8.5583e-02, 1.8370e-01,
        1.1984e-01, 2.5981e-01, 4.4425e-01, 5.7780e-02, 2.4023e-01, 1.5972e-01,
        3.4039e-01, 4.4963e-03, 2.2579e-01, 2.2485e-03, 6.5065e-02, 1.0688e-02,
        2.7717e-02, 1.1270e-02, 2.8543e-01, 1.4608e-01, 8.7849e-07, 8.5396e-02,
        1.7902e-03, 1.2964e-04, 1.5805e-02, 4.7369e-01, 3.3587e-01, 5.4488e-04,
        1.2632e-02, 7.1011e-02, 2.7242e-02, 2.8127e-02, 3.1870e-02, 6.1256e-01,
        3.7924e-01, 2.5914e-01, 3.3961e-01, 3.2447e-01, 6.9488e-02, 1.4887e-03,
        8.7280e-02, 1.2869e-02, 3.4998e-01, 3.8591e-01, 1.8222e-02, 3.7407e-01,
        1.8772e-01, 2.4579e-01, 4.4371e-02, 7.9881e-02, 2.7611e-03, 7.9467e-02,
        4.6055e-01, 1.0453e-01, 1.6705e-01, 3.3633e-03, 1.2420e-01, 2.0439e-01,
        7.1499e-02, 6.9974e-02, 1.4066e-01, 1.0385e-01, 3.0006e-01, 4.5532e-02,
        5.7466e-03, 4.1018e-01, 1.1318e-02, 1.9520e-01, 8.0166e-02, 5.6376e-01,
        4.6763e-01, 6.8290e-02, 9.3794e-02, 2.4236e-01, 8.5883e-02, 5.8969e-02,
        3.0093e-01, 8.1687e-04, 4.3838e-01, 1.6483e-01, 7.2604e-01, 3.8784e-01,
        5.1388e-02, 1.8701e-01, 1.3385e-02, 6.2030e-02, 3.7247e-01, 1.2840e-01,
        2.6018e-01, 7.0855e-01, 9.5550e-02, 3.3769e-01, 5.8136e-01, 1.6960e-02,
        8.7470e-02, 1.7132e-01, 8.8939e-05, 2.0721e-02, 1.0693e-01, 2.4600e-01,
        8.1390e-03, 1.2423e-02, 3.3157e-02, 1.9990e-01, 1.6559e-01, 1.6398e-02,
        1.6634e-01, 2.7462e-02, 3.7155e-01, 7.6407e-01, 3.2648e-01, 2.8926e-02,
        2.7205e-01, 4.2493e-01, 4.1975e-03, 4.2399e-01, 3.5542e-01, 2.9188e-01,
        2.1756e-01, 4.7847e-01, 1.2285e-02, 3.5736e-02, 2.4447e-02, 5.6514e-02,
        2.8696e-01, 2.9928e-01, 2.2924e-01, 5.7396e-03, 1.0688e-01, 8.5466e-03,
        1.2040e-01, 6.6914e-03, 1.8563e-03, 6.5430e-02, 3.0981e-01, 1.1970e-02,
        3.6162e-01, 3.7218e-02, 1.5527e-01, 1.7386e-01, 2.4713e-01, 4.0442e-01,
        9.4374e-02, 1.9577e-01, 9.5671e-02, 2.4288e-01, 2.0099e-02, 1.3027e-01,
        1.1182e-01, 8.4897e-02, 6.2923e-01, 3.6545e-01, 1.1734e-01, 4.3979e-01,
        6.9238e-01, 6.7256e-01, 5.5898e-03, 3.7889e-01, 3.1413e-02, 2.2687e-03,
        6.9117e-01, 3.7746e-01, 6.8775e-02, 5.2295e-02, 4.0988e-01, 2.5258e-01,
        3.1419e-01, 5.9940e-02, 2.2857e-01, 3.6463e-01, 2.0367e-02, 5.9392e-02,
        4.2188e-02, 1.8182e-02, 5.2307e-01, 1.5694e-02, 2.7514e-02, 2.8096e-01,
        4.3605e-01, 3.8757e-01, 6.8425e-02, 5.9070e-01, 1.9719e-02, 9.9311e-02,
        3.4984e-02, 6.4891e-01, 3.4093e-02, 7.7270e-02, 2.3470e-01, 2.1951e-01,
        9.2632e-02, 1.6049e-01, 1.3968e-01, 4.5277e-01, 2.5011e-01, 3.1308e-01,
        8.0471e-04, 2.5741e-01, 4.9545e-02, 3.6072e-01, 1.9464e-01, 4.1704e-02,
        1.1418e-01, 3.0725e-01, 9.1780e-02, 4.1668e-01, 4.4992e-01, 2.6936e-02,
        5.2307e-01, 5.3308e-02, 2.9579e-01, 4.0475e-01, 9.5942e-02, 2.0620e-01,
        3.8656e-02, 2.8653e-02, 4.0820e-01, 3.2974e-01, 1.3332e-01, 7.1852e-01,
        2.2255e-01, 3.3157e-03])
net.mlp.net.0.batch_norm.running_var tensor([2.2922e-02, 4.8131e-02, 5.0060e-02, 1.6546e-04, 3.3521e-02, 2.3011e-02,
        8.5141e-02, 3.2488e-04, 1.7486e-02, 1.4365e-03, 8.0919e-03, 3.4470e-03,
        2.5515e-02, 2.8973e-03, 1.8045e-02, 6.3517e-02, 1.6272e-02, 1.4673e-01,
        1.5917e-02, 4.1862e-02, 7.9654e-04, 9.7655e-02, 5.9428e-02, 1.5615e-01,
        3.1361e-02, 1.1509e-01, 6.0341e-02, 1.1689e-01, 3.3144e-02, 4.7171e-02,
        3.5971e-02, 2.2934e-01, 2.7584e-02, 6.0496e-02, 7.6451e-04, 2.2333e-02,
        8.3192e-03, 5.1532e-02, 1.9352e-02, 3.5370e-02, 1.6353e-02, 3.4787e-02,
        3.6369e-02, 3.0412e-02, 1.7591e-02, 1.4013e-01, 4.4595e-02, 1.3638e-02,
        4.0854e-02, 9.0815e-02, 7.7717e-02, 9.7054e-03, 7.5910e-02, 1.3299e-02,
        8.1533e-03, 1.6934e-01, 1.2690e-02, 1.1291e-01, 1.4321e-01, 2.0981e-01,
        4.7020e-02, 2.8187e-02, 3.9784e-02, 2.3297e-02, 2.1171e-02, 3.2238e-03,
        2.9061e-02, 3.8533e-02, 1.4604e-02, 2.8149e-02, 2.1792e-02, 4.7005e-02,
        1.6549e-02, 1.1233e-02, 6.1754e-02, 4.3948e-05, 2.6416e-03, 7.5300e-02,
        1.1016e-03, 6.7015e-04, 3.9605e-02, 1.9657e-02, 5.9802e-02, 3.5992e-02,
        7.3552e-02, 1.1154e-02, 2.5249e-02, 2.3842e-02, 4.0882e-02, 1.7279e-02,
        3.1143e-02, 3.5024e-02, 8.9603e-03, 5.5640e-03, 8.4354e-05, 3.7647e-02,
        2.7002e-02, 1.3246e-03, 5.1648e-05, 1.6722e-02, 8.5183e-04, 3.9263e-02,
        2.0885e-03, 1.2542e-02, 3.1979e-02, 5.6104e-02, 8.3319e-02, 6.5904e-03,
        2.1932e-03, 1.4201e-02, 4.0699e-02, 3.4371e-03, 3.9463e-02, 2.3658e-02,
        1.3241e-01, 2.6201e-02, 4.8911e-02, 4.5234e-04, 4.5458e-02, 4.5700e-02,
        5.9127e-02, 6.7068e-03, 6.8702e-03, 4.9700e-02, 7.5781e-03, 8.4699e-02,
        4.2335e-02, 1.6749e-02, 1.0770e-02, 4.9758e-02, 2.4781e-02, 5.6066e-02,
        2.4624e-02, 1.7578e-02, 4.1628e-02, 2.5410e-02, 7.2257e-02, 1.0401e-01,
        1.3338e-02, 4.0998e-04, 2.1847e-02, 1.2761e-01, 4.4190e-02, 6.8486e-04,
        1.9022e-01, 1.0540e-01, 1.6835e-02, 1.4522e-03, 7.1666e-03, 9.5561e-05,
        7.7513e-02, 1.2163e-02, 2.8054e-02, 4.5080e-02, 2.1235e-02, 2.2772e-03,
        4.3311e-02, 4.2748e-02, 7.4860e-02, 9.6384e-04, 4.7454e-02, 4.0886e-02,
        7.7082e-02, 9.0396e-03, 2.8566e-02, 6.1416e-02, 1.2024e-01, 8.6553e-02,
        5.8274e-02, 2.0837e-02, 9.3187e-02, 9.8653e-02, 3.5698e-02, 8.0197e-02,
        7.0601e-02, 5.4263e-02, 4.0783e-02, 1.3735e-02, 6.6441e-04, 1.4450e-02,
        1.2027e-01, 1.8862e-02, 7.4419e-03, 1.4263e-02, 4.7442e-02, 7.5867e-04,
        3.9422e-02, 2.7908e-02, 6.9049e-02, 7.5654e-03, 7.9474e-04, 4.3050e-02,
        6.9682e-02, 4.9864e-04, 9.0078e-04, 6.0223e-04, 1.3659e-03, 4.0165e-02,
        5.1124e-02, 1.1953e-01, 1.2333e-02, 7.3312e-05, 5.4245e-02, 1.3960e-03,
        8.1147e-02, 4.4285e-02, 2.4173e-02, 1.4170e-01, 4.6120e-02, 5.5969e-03,
        6.8225e-02, 5.4986e-02, 1.2603e-04, 5.8203e-03, 3.7949e-02, 4.6142e-02,
        2.3741e-03, 4.6958e-02, 4.2841e-02, 5.5285e-02, 1.3983e-01, 8.9463e-03,
        2.2798e-02, 2.2128e-04, 1.2377e-02, 4.2430e-03, 3.3143e-02, 7.8458e-03,
        1.0488e-01, 1.5815e-02, 2.3188e-02, 5.5581e-02, 1.0678e-02, 1.7194e-02,
        3.2648e-03, 4.0381e-01, 5.0662e-02, 7.2933e-03, 1.0509e-02, 7.0193e-02,
        7.2927e-03, 4.3457e-03, 2.8836e-03, 3.3051e-02, 3.8364e-02, 3.2671e-02,
        6.8884e-02, 1.0282e-02, 2.3352e-02, 5.2705e-02, 2.9262e-02, 9.9747e-03,
        4.0494e-02, 1.5854e-03, 1.0520e-03, 3.8848e-02, 1.2486e-02, 1.6901e-03,
        3.1861e-02, 4.2721e-02, 3.8685e-02, 2.1874e-02, 8.4108e-02, 7.9014e-03,
        1.1702e-01, 3.7327e-03, 6.5804e-02, 4.3450e-02, 1.7033e-02, 3.4484e-02,
        5.8244e-02, 3.3498e-02, 1.8269e-02, 2.7915e-02, 7.8623e-02, 1.2965e-02,
        2.5882e-04, 1.9240e-02, 1.7249e-02, 5.0827e-03, 4.1799e-02, 1.7808e-02,
        6.0103e-03, 4.6090e-02, 1.2977e-02, 3.9267e-02, 7.7652e-05, 2.2490e-02,
        4.6730e-05, 2.6655e-02, 3.3740e-02, 5.7063e-02, 1.5048e-02, 2.3562e-02,
        1.5866e-01, 6.5054e-02, 4.3414e-02, 8.8737e-03, 6.1013e-02, 1.3835e-01,
        3.4949e-02, 2.2621e-03, 1.2547e-01, 2.8295e-04, 1.0992e-02, 4.4853e-03,
        3.2047e-03, 2.0505e-03, 7.2584e-02, 3.7868e-02, 4.0593e-05, 1.8753e-02,
        2.4003e-04, 5.3356e-05, 7.6005e-03, 7.4646e-02, 2.1283e-02, 1.0667e-04,
        2.8636e-03, 9.6537e-03, 1.6132e-02, 1.3881e-02, 8.5923e-03, 3.2035e-02,
        3.7087e-02, 5.2825e-02, 7.3607e-02, 1.2729e-01, 1.1772e-02, 1.6698e-04,
        2.0081e-02, 7.6835e-03, 4.3007e-02, 4.1309e-02, 1.3036e-02, 3.3469e-02,
        4.2510e-02, 1.0024e-01, 5.0371e-02, 4.0585e-02, 5.4374e-04, 5.0159e-02,
        5.9307e-02, 2.0373e-02, 3.5592e-02, 9.1090e-04, 2.0903e-02, 1.6967e-02,
        1.3167e-02, 1.4452e-02, 1.6813e-01, 2.1012e-02, 6.1938e-02, 2.4545e-02,
        2.2621e-03, 1.0061e-01, 2.6075e-03, 6.9951e-02, 8.8075e-02, 5.6693e-02,
        4.8288e-02, 1.8277e-02, 2.9346e-02, 6.1372e-02, 1.1410e-02, 1.5988e-02,
        7.1488e-02, 1.3973e-04, 7.2032e-02, 4.8733e-02, 3.0625e-02, 6.8589e-02,
        3.7281e-02, 2.5616e-02, 1.8541e-03, 2.9466e-02, 6.2422e-02, 2.9481e-02,
        5.4255e-02, 6.4407e-02, 1.7351e-02, 5.5116e-02, 5.3270e-02, 4.1797e-03,
        8.5935e-02, 3.4764e-02, 6.5605e-05, 4.4004e-03, 1.5416e-02, 6.4890e-02,
        1.3047e-03, 5.6855e-03, 5.6593e-03, 4.4498e-02, 3.6380e-02, 8.5711e-03,
        2.7344e-02, 4.5163e-03, 1.9653e-01, 5.4850e-02, 8.4459e-02, 6.2175e-03,
        2.0664e-02, 7.2267e-02, 7.3319e-04, 7.6049e-02, 7.0510e-02, 4.6434e-02,
        3.6666e-02, 1.2998e-01, 1.9117e-03, 8.4520e-03, 2.0280e-02, 9.2042e-03,
        3.3731e-02, 1.7408e-02, 6.3320e-02, 1.1072e-03, 2.3510e-02, 1.2303e-03,
        3.6817e-02, 1.3869e-03, 4.9782e-04, 9.6147e-02, 7.5863e-02, 2.2180e-03,
        5.8737e-02, 7.8461e-03, 3.4341e-02, 2.1616e-02, 2.5012e-02, 1.5769e-01,
        1.8510e-02, 4.4025e-02, 2.0760e-02, 5.9602e-02, 2.6734e-03, 4.9019e-02,
        5.9179e-02, 2.3273e-02, 9.6276e-02, 5.7758e-02, 1.5926e-02, 1.1023e-01,
        2.2599e-01, 5.9383e-02, 1.4874e-03, 3.8874e-02, 4.9617e-03, 2.8091e-04,
        7.6000e-02, 4.7975e-02, 1.0422e-02, 1.4625e-02, 5.2349e-02, 5.0694e-02,
        2.2367e-02, 1.3048e-02, 4.1523e-02, 4.6916e-02, 3.5127e-03, 9.9063e-03,
        9.0150e-03, 2.3258e-03, 7.2250e-02, 8.9047e-03, 3.9542e-03, 1.3160e-01,
        4.1527e-02, 8.8156e-02, 1.3991e-02, 4.3424e-02, 3.5767e-03, 2.2895e-02,
        9.5367e-03, 1.3554e-01, 4.8565e-03, 1.4151e-02, 3.7738e-02, 3.3996e-02,
        1.5343e-02, 1.2275e-01, 1.9263e-02, 4.6033e-02, 7.2863e-02, 3.7812e-02,
        1.2932e-04, 4.1942e-02, 1.0391e-02, 5.6796e-02, 3.5685e-02, 1.6568e-02,
        2.6522e-02, 3.2289e-02, 3.7069e-02, 1.3599e-01, 7.9785e-02, 5.2058e-03,
        9.7065e-02, 1.3962e-02, 5.2031e-02, 5.0177e-02, 9.5757e-02, 7.6941e-02,
        1.7547e-02, 2.1983e-03, 6.7181e-02, 5.9041e-02, 6.0772e-02, 6.8317e-02,
        1.4842e-02, 4.9372e-04])
net.mlp.net.0.batch_norm.num_batches_tracked tensor(96)
net.mlp.net.1.linear.weight tensor([[ 0.0583,  0.0521, -0.0557,  ..., -0.0874, -0.0221,  0.0302],
        [-0.0600, -0.0029, -0.0501,  ...,  0.0646, -0.0182, -0.0330],
        [-0.0364,  0.0333,  0.0254,  ..., -0.0478,  0.0129, -0.0683],
        ...,
        [-0.0854, -0.0662, -0.0151,  ..., -0.0765,  0.0573, -0.0397],
        [-0.0690,  0.0494,  0.0560,  ..., -0.0406,  0.0534,  0.0970],
        [-0.0634,  0.0219, -0.0184,  ...,  0.0006,  0.0722, -0.0496]])
net.mlp.net.1.linear.bias tensor([-0.0476,  0.0235, -0.0449,  0.0301, -0.0300, -0.0077,  0.0071, -0.0462,
         0.0109, -0.0421,  0.0222,  0.0627,  0.0385,  0.0057, -0.0099,  0.0335,
        -0.0636, -0.0191, -0.0115,  0.0061, -0.0996, -0.0107,  0.0092,  0.0481,
         0.0199, -0.0293, -0.0002, -0.0305, -0.0353, -0.0245, -0.0283,  0.0175,
        -0.0243, -0.0198, -0.0031, -0.0290,  0.0475, -0.0521, -0.0773,  0.0175,
        -0.0527,  0.0691,  0.0112,  0.0096, -0.0450,  0.0705, -0.0932,  0.0075,
         0.0163, -0.0381,  0.0347,  0.0233, -0.0099,  0.0045, -0.0389, -0.0688,
         0.0637,  0.0598,  0.0192,  0.0186, -0.0446,  0.0039, -0.0627, -0.0109,
         0.0184,  0.0033, -0.0623,  0.0148,  0.0193, -0.0220, -0.0011,  0.0012,
        -0.0184,  0.0137,  0.0144,  0.0752,  0.0386, -0.0163,  0.0403, -0.0240,
         0.0080, -0.0452, -0.0193,  0.0410, -0.0595,  0.0022, -0.0541,  0.0803,
         0.0095,  0.0177, -0.0686,  0.0321,  0.0040,  0.0079, -0.0197,  0.0329,
        -0.0034, -0.0273, -0.0617,  0.0040,  0.0188, -0.0248,  0.0247, -0.0048,
        -0.0014, -0.0165, -0.0242, -0.0117,  0.0273, -0.0743, -0.0875, -0.0035,
        -0.0445,  0.0159,  0.0183,  0.0340,  0.0589,  0.0654,  0.0749, -0.0190,
        -0.0131,  0.0171,  0.0167,  0.0599,  0.0370, -0.0554, -0.0142,  0.0190,
        -0.0594,  0.0042,  0.0598,  0.0365, -0.0059, -0.0071, -0.0107, -0.0080,
         0.0365, -0.0136,  0.0171,  0.0096,  0.0018, -0.0313,  0.0891, -0.0085,
         0.0105,  0.0217, -0.0012, -0.0047,  0.0659,  0.0371, -0.0031,  0.0416,
        -0.0215, -0.0525, -0.0355,  0.0325, -0.0199,  0.0065, -0.0051,  0.0237,
         0.0155,  0.0244, -0.0055, -0.0300, -0.0948, -0.0072, -0.0558,  0.0074,
        -0.0371,  0.0350, -0.0154, -0.0094,  0.0065, -0.0289, -0.0752,  0.0808,
        -0.0133, -0.0516, -0.0452, -0.0308,  0.0004, -0.0072,  0.0097,  0.0468,
         0.0195,  0.0722,  0.0197, -0.0159, -0.0020, -0.0171, -0.0550,  0.0376,
         0.0997,  0.0430,  0.0288,  0.0135, -0.0264, -0.0131, -0.0260, -0.0684,
        -0.0225,  0.0294, -0.0287, -0.0220, -0.0193,  0.0692,  0.0383, -0.0422,
        -0.0216, -0.0499, -0.0422, -0.0303, -0.0393, -0.0239,  0.0019, -0.0548,
         0.0135, -0.0415, -0.0211,  0.0384, -0.0712, -0.0331,  0.0077,  0.0349,
        -0.0182,  0.0153,  0.0361,  0.0228,  0.1115,  0.0064,  0.0149,  0.0016,
         0.0212,  0.0469,  0.0039,  0.0026, -0.0354, -0.0337, -0.0008,  0.0277,
        -0.0080, -0.0467,  0.0147,  0.0409, -0.0026, -0.0185, -0.0114,  0.1005,
        -0.0290,  0.0323, -0.0336, -0.0561,  0.0127, -0.1035,  0.0674,  0.0702,
         0.0281, -0.0434, -0.0133,  0.0055, -0.0046,  0.0659, -0.0144,  0.0585,
        -0.0278, -0.0783, -0.0579,  0.0397,  0.0190,  0.0169,  0.0078, -0.0554,
         0.0010,  0.0199, -0.0139, -0.0290,  0.0050, -0.0150, -0.0043,  0.0107,
        -0.0481,  0.0018,  0.0168, -0.0358,  0.0045,  0.0580, -0.0625,  0.0339,
         0.0624, -0.0268, -0.0769,  0.0150,  0.0018, -0.0836, -0.0628, -0.0030,
         0.0338,  0.0182,  0.0331, -0.0326,  0.0194, -0.0534, -0.0270, -0.0282,
         0.0184,  0.0065,  0.0061, -0.0013, -0.0585, -0.0399,  0.0330, -0.0265,
        -0.0188, -0.0217,  0.0477, -0.0066,  0.0311,  0.0195, -0.0552, -0.0586,
        -0.0290,  0.0091,  0.0206,  0.0234, -0.0208, -0.0022,  0.0213, -0.1404,
         0.0221,  0.0235, -0.0537,  0.0035,  0.0625, -0.0599, -0.0236,  0.0301,
        -0.0102,  0.0411, -0.0679, -0.0446,  0.0330, -0.0288, -0.0294,  0.0267,
        -0.0715,  0.0139, -0.0524, -0.0426, -0.0034, -0.0119, -0.0114,  0.0149,
         0.0772,  0.0497,  0.0079,  0.0301, -0.0084,  0.0279, -0.0190, -0.0475,
         0.0114,  0.0145, -0.0161, -0.0103,  0.0320, -0.0687,  0.0292,  0.0761,
        -0.0340, -0.0134, -0.0353, -0.0742, -0.0262, -0.0064,  0.0437,  0.0009,
         0.0154,  0.0455,  0.0729, -0.0552, -0.0645,  0.0523,  0.0247,  0.0085,
        -0.0804, -0.0659, -0.0071,  0.0063, -0.0228, -0.0855, -0.0353, -0.0608,
        -0.0229,  0.0289, -0.0514, -0.0285, -0.0171, -0.0470, -0.0540,  0.0937,
        -0.0243,  0.0328, -0.0387, -0.0098,  0.0705,  0.0042,  0.0524, -0.0180,
         0.0660,  0.0782, -0.0073, -0.0464,  0.0171,  0.0496,  0.0249,  0.0813,
         0.0126,  0.0081,  0.0184,  0.0135, -0.0104, -0.0018, -0.0150, -0.0065,
         0.0171,  0.0595, -0.0592,  0.0221, -0.0647,  0.0948,  0.0059, -0.0651,
        -0.0589,  0.0558, -0.0400, -0.0167, -0.0602, -0.0010, -0.0405,  0.0029,
        -0.0306,  0.0131, -0.0440,  0.0361,  0.0383, -0.0018,  0.0242,  0.0250,
         0.0833,  0.0034, -0.0306,  0.0677,  0.0822, -0.0558, -0.0324,  0.0074,
         0.0761, -0.0523, -0.0244,  0.0659,  0.0326,  0.0283,  0.0239,  0.0176,
        -0.0183, -0.0182, -0.0208, -0.0765,  0.0853,  0.0079, -0.0009, -0.0234,
         0.0432, -0.0262,  0.0065, -0.0220,  0.0096,  0.0110, -0.0227, -0.0262,
         0.0377, -0.0891,  0.0081,  0.0025, -0.0155,  0.0682,  0.0166,  0.0156,
        -0.0446, -0.0515, -0.0335, -0.0549, -0.0364,  0.0313,  0.0404, -0.0259,
         0.0134,  0.0460,  0.0629, -0.0186, -0.0826, -0.0224, -0.0657, -0.0317,
         0.0678, -0.0172,  0.0306,  0.0043,  0.0871,  0.0501, -0.0307,  0.0193])
net.mlp.net.1.batch_norm.weight tensor([0.5640, 0.5210, 0.5659, 0.5262, 0.5495, 0.5176, 0.5099, 0.5152, 0.5761,
        0.5344, 0.5879, 0.5573, 0.4907, 0.4956, 0.4845, 0.4776, 0.4711, 0.5297,
        0.5370, 0.5476, 0.6243, 0.4968, 0.5175, 0.5571, 0.5248, 0.5052, 0.4866,
        0.5053, 0.5207, 0.4550, 0.5350, 0.5689, 0.5750, 0.5053, 0.5849, 0.5923,
        0.5474, 0.5393, 0.5419, 0.5361, 0.5453, 0.5657, 0.4719, 0.5151, 0.5876,
        0.5408, 0.5013, 0.5616, 0.5065, 0.4207, 0.5225, 0.4579, 0.5903, 0.5341,
        0.5195, 0.5499, 0.5951, 0.5047, 0.6128, 0.5399, 0.5618, 0.4476, 0.5508,
        0.4940, 0.5200, 0.4500, 0.5648, 0.4858, 0.5302, 0.5574, 0.5314, 0.5446,
        0.5336, 0.5602, 0.5182, 0.5447, 0.5336, 0.4735, 0.5174, 0.4968, 0.4961,
        0.4636, 0.5555, 0.5503, 0.5011, 0.5454, 0.5835, 0.4769, 0.5344, 0.5786,
        0.4943, 0.5887, 0.5490, 0.5151, 0.5718, 0.5132, 0.6051, 0.5327, 0.4857,
        0.4762, 0.5631, 0.5448, 0.5926, 0.5375, 0.5686, 0.5892, 0.5362, 0.6425,
        0.4746, 0.5789, 0.5653, 0.5131, 0.5865, 0.5341, 0.5107, 0.5308, 0.5269,
        0.4701, 0.5429, 0.4920, 0.5156, 0.5016, 0.4970, 0.4986, 0.5491, 0.5140,
        0.5277, 0.5437, 0.5317, 0.4976, 0.5022, 0.4437, 0.5343, 0.5352, 0.5417,
        0.5347, 0.5280, 0.4855, 0.4862, 0.4557, 0.4676, 0.6328, 0.6356, 0.5126,
        0.5252, 0.5302, 0.5445, 0.5890, 0.4798, 0.4546, 0.5994, 0.5324, 0.4966,
        0.5895, 0.4858, 0.5328, 0.5718, 0.5047, 0.5828, 0.5558, 0.5048, 0.5674,
        0.5663, 0.5655, 0.5511, 0.5259, 0.5536, 0.4863, 0.5004, 0.4672, 0.5486,
        0.5308, 0.5885, 0.5207, 0.5591, 0.5266, 0.4857, 0.5683, 0.5282, 0.4961,
        0.5497, 0.4449, 0.5416, 0.5818, 0.4873, 0.4968, 0.5144, 0.5245, 0.5047,
        0.6123, 0.5710, 0.4763, 0.5984, 0.5365, 0.5363, 0.5633, 0.5957, 0.4730,
        0.5968, 0.6279, 0.5624, 0.4863, 0.4745, 0.5284, 0.5327, 0.5235, 0.4973,
        0.5841, 0.5406, 0.4945, 0.4702, 0.5367, 0.5455, 0.5446, 0.5231, 0.5174,
        0.4660, 0.5621, 0.6444, 0.4994, 0.5022, 0.5681, 0.5229, 0.4749, 0.6029,
        0.5980, 0.5491, 0.5078, 0.5735, 0.5318, 0.5329, 0.5844, 0.5520, 0.5197,
        0.5197, 0.5603, 0.4994, 0.5204, 0.5266, 0.6202, 0.5502, 0.5548, 0.5760,
        0.5178, 0.5486, 0.5496, 0.5978, 0.4581, 0.5154, 0.5824, 0.5734, 0.5545,
        0.5719, 0.5275, 0.5089, 0.5020, 0.5827, 0.5335, 0.5760, 0.4959, 0.5283,
        0.5041, 0.4769, 0.5643, 0.5453, 0.5112, 0.4374, 0.5516, 0.5359, 0.5313,
        0.5745, 0.6297, 0.4825, 0.4814, 0.5264, 0.6247, 0.4959, 0.5593, 0.5777,
        0.4964, 0.5471, 0.5473, 0.5048, 0.5315, 0.5553, 0.5374, 0.5474, 0.6013,
        0.5267, 0.5567, 0.4859, 0.6446, 0.5684, 0.5424, 0.5619, 0.4944, 0.5037,
        0.5232, 0.5408, 0.5325, 0.5693, 0.5902, 0.5801, 0.4936, 0.5893, 0.5016,
        0.4786, 0.5676, 0.5359, 0.5183, 0.5131, 0.4950, 0.6086, 0.5914, 0.5114,
        0.5332, 0.5377, 0.5801, 0.5018, 0.5785, 0.5193, 0.5357, 0.5071, 0.5455,
        0.5617, 0.5782, 0.5757, 0.5526, 0.5042, 0.5240, 0.4707, 0.5209, 0.5228,
        0.5290, 0.5752, 0.5312, 0.5841, 0.4970, 0.5429, 0.4983, 0.5007, 0.5543,
        0.5679, 0.5299, 0.5663, 0.5143, 0.4469, 0.6126, 0.5642, 0.5554, 0.4757,
        0.5055, 0.5041, 0.5676, 0.5587, 0.4999, 0.5625, 0.4755, 0.5462, 0.5715,
        0.5902, 0.5542, 0.5422, 0.5488, 0.5392, 0.5080, 0.5508, 0.5931, 0.5268,
        0.5018, 0.5491, 0.5538, 0.6270, 0.5649, 0.5149, 0.5351, 0.5493, 0.5363,
        0.5808, 0.4894, 0.5693, 0.5236, 0.5007, 0.5513, 0.5046, 0.4832, 0.5228,
        0.5182, 0.4871, 0.5753, 0.5344, 0.4742, 0.5197, 0.5770, 0.5155, 0.5035,
        0.6197, 0.5986, 0.5958, 0.6064, 0.5104, 0.5055, 0.5004, 0.5269, 0.5437,
        0.5544, 0.4804, 0.5417, 0.4689, 0.5685, 0.4257, 0.5222, 0.5257, 0.5227,
        0.5215, 0.5504, 0.5137, 0.5271, 0.5783, 0.4937, 0.5588, 0.5570, 0.5225,
        0.5368, 0.5227, 0.5313, 0.5273, 0.4953, 0.4605, 0.5124, 0.5851, 0.5341,
        0.5499, 0.5161, 0.5241, 0.5496, 0.5259, 0.5387, 0.5699, 0.5163, 0.5206,
        0.4996, 0.5151, 0.5246, 0.5392, 0.4656, 0.4600, 0.5415, 0.5837, 0.5675,
        0.5145, 0.5274, 0.5061, 0.5635, 0.5849, 0.5011, 0.5207, 0.5097, 0.5479,
        0.5440, 0.5339, 0.5170, 0.5278, 0.4462, 0.5233, 0.5271, 0.4902, 0.5365,
        0.5139, 0.5654, 0.5625, 0.5241, 0.5167, 0.5761, 0.5381, 0.5424, 0.5013,
        0.5071, 0.5179, 0.5038, 0.5032, 0.5716, 0.5001, 0.5323, 0.6363, 0.5743,
        0.5278, 0.5773, 0.6211, 0.5201, 0.5663, 0.5503, 0.4610, 0.4822, 0.5069,
        0.5265, 0.5620, 0.5478, 0.4769, 0.5799, 0.4661, 0.6051, 0.4993, 0.5605,
        0.5577, 0.4853, 0.5111, 0.5183, 0.4855, 0.5206, 0.5086, 0.5590])
net.mlp.net.1.batch_norm.bias tensor([-0.0005, -0.0277, -0.0178,  0.0557,  0.0026,  0.0204, -0.0610,  0.0671,
        -0.0354, -0.0115,  0.0380, -0.0535, -0.0839,  0.0094, -0.0088,  0.0037,
        -0.0059, -0.0294, -0.0045, -0.0243,  0.0774, -0.0028,  0.0085, -0.0328,
        -0.0070,  0.0178, -0.0280, -0.0518, -0.0616, -0.0148, -0.0450, -0.0253,
        -0.0386,  0.0182,  0.0404,  0.0348,  0.0197,  0.0107,  0.0499, -0.0424,
        -0.0257,  0.0386, -0.0655,  0.0454, -0.0538,  0.0139,  0.0149, -0.0411,
        -0.0365,  0.0268,  0.0348,  0.0260,  0.0200,  0.0345, -0.0622,  0.0285,
        -0.0293,  0.0511, -0.0031,  0.0326, -0.0088, -0.0189, -0.0187, -0.0451,
        -0.0184, -0.0019,  0.0102, -0.0856, -0.0554, -0.0291, -0.0100, -0.0479,
        -0.0922,  0.0331,  0.0236,  0.0522, -0.0076, -0.0469, -0.0043, -0.0011,
         0.0290,  0.0665,  0.0007,  0.0072, -0.0177,  0.0204,  0.0377, -0.0255,
         0.0932, -0.0425,  0.0022,  0.0119, -0.0246,  0.0185,  0.0287,  0.0720,
         0.0245,  0.0409, -0.0580,  0.0057,  0.0440,  0.0665,  0.1056,  0.0049,
        -0.0266, -0.0061,  0.0188, -0.0518,  0.0368, -0.0321, -0.0137,  0.0951,
        -0.0075,  0.0489,  0.0428,  0.0312, -0.0102, -0.0261,  0.0367, -0.0817,
         0.0343,  0.0290, -0.0543, -0.0103,  0.0316, -0.0747,  0.0068,  0.0538,
         0.0098, -0.0053,  0.0081, -0.0076,  0.0453,  0.0582,  0.0599,  0.0047,
         0.0207,  0.0046,  0.0265,  0.0115,  0.0082,  0.0585,  0.0368, -0.0747,
         0.0089,  0.0990, -0.0010,  0.0083, -0.0072,  0.0141,  0.1660,  0.0073,
         0.0422,  0.0485, -0.0333,  0.0097,  0.0371, -0.0276,  0.0109, -0.0075,
        -0.0482,  0.0461, -0.0201,  0.0497, -0.0328, -0.0256,  0.0390, -0.0103,
         0.0549, -0.0073,  0.0075, -0.0552, -0.0359,  0.0627, -0.0377,  0.0044,
         0.0168,  0.0262, -0.0196,  0.0440,  0.0093,  0.0345,  0.0778, -0.0416,
        -0.0288,  0.0010,  0.0223,  0.0331, -0.0300,  0.0094,  0.0502,  0.0275,
        -0.0613, -0.0647, -0.0289,  0.0309, -0.0595, -0.0426, -0.0080,  0.0442,
         0.0124, -0.0308,  0.0033,  0.0865,  0.0264,  0.0014, -0.0106, -0.0558,
        -0.0227, -0.0036,  0.0594, -0.0495,  0.0177, -0.0196, -0.0893, -0.0073,
        -0.0139,  0.0359,  0.0338, -0.0516,  0.0751,  0.0372, -0.0204, -0.0101,
        -0.0033, -0.0187, -0.0151,  0.0288, -0.0527, -0.0166, -0.0844,  0.0007,
        -0.0015, -0.0734,  0.0006, -0.0430, -0.0355,  0.0470,  0.0448,  0.0142,
         0.0017,  0.0323,  0.0411, -0.0210, -0.0377, -0.0475, -0.0491, -0.0157,
        -0.0162,  0.0201,  0.0163,  0.0200, -0.0081,  0.0135, -0.0429,  0.0307,
         0.0367, -0.0019,  0.0601, -0.0645,  0.0040,  0.0152,  0.0709, -0.0609,
        -0.0032, -0.0242,  0.0279, -0.0200, -0.0248,  0.0192,  0.0291,  0.0028,
        -0.0366, -0.0222,  0.0192,  0.0708,  0.0046, -0.0004, -0.0063,  0.0202,
         0.0071,  0.0591,  0.0594,  0.0500,  0.0075,  0.0189,  0.0189,  0.0344,
        -0.0004, -0.0789,  0.0648, -0.0524,  0.0327, -0.0312, -0.0177, -0.0735,
         0.0911, -0.0306, -0.0341,  0.0296,  0.0227, -0.0289, -0.0469, -0.0035,
         0.0256, -0.0344,  0.0022,  0.0125,  0.0318,  0.0256, -0.0329,  0.0129,
        -0.0259, -0.0131, -0.0448, -0.0099, -0.0078,  0.0299, -0.0142,  0.0605,
        -0.0496,  0.0106, -0.0315, -0.0088, -0.0143, -0.0028, -0.0007, -0.0166,
         0.0367,  0.0176,  0.0104,  0.0675, -0.0621,  0.0144, -0.0129, -0.0224,
         0.0166, -0.0348,  0.0648,  0.0082, -0.0578, -0.0106, -0.0642,  0.0414,
         0.0152, -0.0081, -0.0151,  0.0342,  0.0383,  0.0084,  0.0212, -0.0136,
         0.0440, -0.0206,  0.0100,  0.0852, -0.0551, -0.0163,  0.0219,  0.0301,
        -0.0034, -0.0225, -0.0464, -0.0689,  0.0287, -0.0310,  0.0716,  0.0174,
        -0.0080,  0.0191,  0.0236,  0.0366, -0.0350, -0.0477,  0.0323,  0.0104,
         0.0067, -0.0405, -0.0095, -0.0186,  0.0409,  0.0258,  0.0653,  0.0997,
         0.0486, -0.0241,  0.0279,  0.0145,  0.0325, -0.0294, -0.0427, -0.0013,
        -0.0222,  0.0457, -0.0452,  0.0093, -0.0368,  0.0338, -0.0030, -0.0200,
         0.0187,  0.0157, -0.0553,  0.0426, -0.0260, -0.0418, -0.0245,  0.0121,
        -0.0236, -0.0519, -0.0227, -0.0250, -0.0104, -0.0007,  0.0170,  0.0059,
        -0.0081, -0.0279, -0.0380,  0.0015,  0.0540,  0.0227,  0.0041,  0.0144,
         0.0225, -0.0119, -0.0256, -0.0323,  0.0162, -0.0029, -0.0108, -0.0014,
         0.0201, -0.0442, -0.0025, -0.0219, -0.0628,  0.0082, -0.0449,  0.0027,
         0.0173,  0.0317,  0.0076,  0.0159, -0.0551,  0.0584, -0.0021,  0.0108,
        -0.0119,  0.0120, -0.0026, -0.0110,  0.0021, -0.0124,  0.0256, -0.0328,
         0.0029, -0.0355, -0.0137,  0.0213, -0.0657,  0.0087,  0.0900, -0.0069,
        -0.0789,  0.0137, -0.0276, -0.0493,  0.0926,  0.0311,  0.0219,  0.0434,
         0.0509,  0.0015,  0.0017,  0.0443, -0.0022, -0.0639,  0.0011, -0.0070,
         0.0338, -0.0119,  0.0408,  0.0148, -0.0040, -0.0482, -0.0386, -0.0558,
        -0.0066, -0.0023, -0.0866,  0.0143, -0.0136,  0.0234, -0.0583,  0.1046,
         0.0659, -0.0633,  0.0315,  0.0144,  0.0180,  0.0150,  0.0319,  0.0202,
         0.0183, -0.0019, -0.0143, -0.0483, -0.0021,  0.0206, -0.0350,  0.0644])
net.mlp.net.1.batch_norm.running_mean tensor([0.7290, 0.8392, 0.4649, 0.7250, 0.5963, 0.6669, 0.5946, 0.5643, 0.5875,
        0.6039, 0.7323, 0.5719, 0.4839, 0.6735, 0.6286, 0.6762, 0.5533, 0.5192,
        0.5034, 0.6035, 0.5585, 0.5572, 0.8318, 0.9274, 0.6283, 0.6450, 0.7415,
        0.5217, 0.4601, 0.4977, 0.8270, 0.5308, 0.6261, 0.5065, 0.5896, 0.6404,
        0.6103, 0.5165, 0.7025, 0.7858, 0.4902, 0.6648, 0.4714, 0.7755, 0.6027,
        0.6790, 0.6291, 0.7835, 0.5877, 0.5983, 0.7740, 0.5463, 0.8570, 0.6760,
        0.6778, 0.5592, 0.7965, 0.6373, 0.8660, 0.7460, 0.6355, 0.4550, 0.5371,
        0.5370, 0.6834, 0.5885, 0.4856, 0.6141, 0.7926, 0.6514, 0.6758, 0.7293,
        0.7725, 0.6971, 0.6861, 0.7403, 0.8044, 0.6075, 0.8195, 0.6956, 0.5240,
        0.4698, 0.5411, 0.6002, 0.5746, 0.6763, 0.5125, 0.5884, 0.5075, 0.8480,
        0.5098, 0.7469, 0.9356, 0.7338, 0.5600, 0.6341, 0.7182, 0.5058, 0.8409,
        0.4792, 0.7464, 0.6145, 0.6523, 0.6556, 0.8009, 0.8064, 0.5729, 0.6081,
        0.6643, 0.6432, 0.8076, 0.5796, 0.6488, 0.7791, 0.6809, 0.5525, 0.6971,
        0.5960, 0.6675, 0.5636, 0.6826, 0.5841, 0.5730, 0.6102, 0.7783, 0.5918,
        0.6169, 0.6047, 0.6472, 0.5582, 0.7622, 0.8767, 0.5439, 0.7842, 0.5679,
        0.8103, 0.4211, 0.7676, 0.6650, 0.5775, 0.6452, 0.4989, 0.8508, 0.7831,
        0.4460, 0.8204, 0.5148, 0.6125, 0.6357, 0.5484, 0.5712, 0.8050, 0.5759,
        0.5826, 0.6659, 0.6078, 0.5166, 0.4720, 0.5392, 0.7575, 0.7407, 0.7926,
        0.7507, 0.5017, 0.7100, 0.6415, 0.6062, 0.5987, 0.5387, 0.5811, 0.9758,
        0.5634, 0.6296, 0.6252, 0.5868, 0.7418, 0.6803, 0.6470, 0.7376, 0.7276,
        0.6183, 0.6552, 0.6079, 0.6803, 0.6203, 0.6563, 0.6221, 0.4049, 0.6253,
        0.4425, 0.7183, 0.6814, 0.7734, 0.7414, 0.5832, 0.6210, 0.5498, 0.5119,
        0.7179, 0.4993, 0.4983, 0.8962, 0.6345, 0.7300, 0.5698, 0.7075, 0.6401,
        0.5104, 0.5643, 0.5635, 0.5073, 0.5143, 0.5955, 0.6265, 0.5155, 0.7728,
        0.5139, 0.6014, 0.6604, 1.0309, 0.5159, 0.5668, 0.5688, 0.6145, 0.7842,
        0.6077, 0.5826, 0.8124, 0.7118, 0.6398, 0.6919, 0.5121, 0.6348, 0.7417,
        0.7830, 0.6859, 0.6699, 0.4348, 0.5906, 0.7753, 0.5312, 0.5623, 0.6093,
        0.5661, 0.5897, 0.7808, 0.6519, 0.7052, 0.5280, 0.5451, 0.6470, 0.6365,
        0.7045, 0.5052, 0.6812, 0.7086, 0.5851, 0.4736, 0.7584, 0.8605, 0.6631,
        0.6681, 0.6030, 0.6260, 0.4623, 0.5049, 0.5466, 0.7799, 0.7584, 0.6432,
        0.7183, 0.7029, 0.6918, 0.7658, 0.4459, 0.8344, 0.5673, 0.5666, 0.5031,
        0.5347, 0.4683, 0.8654, 0.5216, 0.7345, 0.7661, 0.8729, 0.3997, 0.8502,
        0.6802, 0.6937, 0.4293, 0.6469, 0.5246, 0.4901, 0.7128, 0.7518, 0.6423,
        0.6627, 0.6010, 0.4411, 0.5103, 0.4618, 0.5880, 0.6044, 0.6414, 0.6573,
        0.6157, 0.5373, 0.7238, 0.6070, 0.6834, 0.5429, 0.6856, 0.8770, 0.5889,
        0.5197, 0.5969, 0.6683, 0.5781, 0.8925, 0.7212, 0.7050, 0.8250, 0.6572,
        0.6272, 0.5969, 0.6209, 0.3853, 0.5694, 0.5396, 0.4761, 0.5959, 0.7415,
        0.7080, 0.5973, 0.6163, 0.7102, 0.7922, 0.4564, 0.4608, 0.6697, 0.7351,
        0.5902, 0.7285, 0.5654, 0.7322, 0.4928, 0.8139, 0.5548, 0.6694, 0.5162,
        0.5645, 0.6187, 0.5144, 0.5529, 0.5771, 0.6495, 0.6356, 0.4779, 0.5435,
        0.5360, 0.6850, 0.5301, 0.6425, 0.6600, 0.6214, 0.8338, 0.7371, 0.5340,
        0.5338, 0.8145, 0.6839, 0.7448, 0.5839, 0.7345, 0.5436, 0.8317, 0.6953,
        0.7023, 0.5901, 0.5732, 0.7169, 0.5210, 0.5263, 0.4769, 0.6915, 0.6999,
        0.6569, 0.5065, 0.6187, 0.6442, 0.5848, 0.7419, 0.7497, 0.6571, 0.6910,
        0.7848, 0.5278, 0.7460, 0.6960, 0.6273, 0.7236, 0.5768, 0.8033, 0.6809,
        0.6795, 0.6288, 0.5312, 0.5714, 0.6126, 0.7047, 0.5554, 0.6802, 0.7906,
        0.5543, 0.7982, 0.8913, 0.6820, 0.6751, 0.8273, 0.6168, 0.4523, 0.4847,
        0.5980, 0.6338, 0.6902, 0.5859, 0.6432, 0.7424, 0.6129, 0.6836, 0.4789,
        0.6900, 0.7574, 0.5884, 0.5214, 0.5347, 0.7034, 0.5417, 0.6456, 0.6767,
        0.5766, 0.7839, 0.5934, 0.7213, 0.5273, 0.5566, 0.4881, 0.7942, 0.5851,
        0.5494, 0.7850, 0.5967, 0.5834, 0.6399, 0.8042, 0.6178, 0.7596, 0.4386,
        0.7493, 0.8079, 0.5797, 0.6885, 0.5961, 0.6557, 0.7034, 0.5496, 0.6032,
        0.6675, 0.8219, 0.8908, 0.5612, 0.5477, 0.6504, 0.4311, 0.7391, 0.6879,
        0.5934, 0.4919, 0.6571, 0.7417, 0.5343, 0.6342, 0.5351, 0.6471, 0.7055,
        0.6232, 0.5185, 0.6011, 0.5666, 0.4540, 0.6589, 0.4691, 0.6353, 0.6737,
        0.6587, 1.0239, 0.7849, 0.6028, 0.6943, 0.3677, 0.6837, 0.4610, 0.6229,
        0.6522, 0.5702, 0.6099, 0.7368, 0.8349, 0.6335, 0.5949, 0.6065])
net.mlp.net.1.batch_norm.running_var tensor([2.5453, 1.4403, 0.6585, 0.8437, 1.3380, 1.0798, 1.7748, 0.6210, 0.8910,
        0.8340, 1.2828, 0.7185, 0.5311, 1.9522, 2.4708, 1.7172, 1.6365, 0.6169,
        0.6054, 1.0895, 1.0083, 1.2613, 1.1307, 1.3772, 0.5920, 2.7466, 1.1672,
        0.8583, 0.5875, 1.2683, 1.8954, 0.9124, 0.9692, 1.1497, 1.1295, 1.2186,
        0.9852, 1.7986, 2.4599, 1.1623, 1.5696, 0.7153, 1.5360, 2.0412, 2.1774,
        0.8077, 1.1387, 1.3773, 0.6294, 2.7537, 1.0356, 1.4751, 1.8570, 0.9881,
        1.0734, 0.6740, 1.7130, 2.2076, 1.3408, 1.1854, 0.7280, 0.4651, 0.8533,
        0.7295, 0.9386, 0.7713, 0.7769, 0.6307, 1.0910, 1.0946, 2.7397, 2.3412,
        1.1093, 0.9054, 2.3358, 0.8797, 1.6200, 2.4539, 2.5658, 3.5781, 0.5122,
        0.6447, 0.6567, 0.6874, 1.9141, 3.2060, 0.8485, 0.7027, 0.7212, 2.3024,
        0.7324, 1.5133, 1.7440, 2.4174, 0.8855, 0.7665, 1.3678, 0.6605, 4.3734,
        0.5192, 1.1717, 2.0726, 1.6558, 0.6751, 3.7241, 1.6938, 1.0583, 1.3328,
        1.9693, 1.0600, 1.1450, 1.2818, 1.8866, 1.1347, 1.9291, 0.6319, 1.9664,
        0.6597, 0.8813, 2.4879, 1.5545, 0.8093, 2.4879, 1.2276, 1.5790, 1.5316,
        0.6991, 0.7928, 3.1001, 0.8450, 1.0460, 1.3496, 1.4549, 1.2184, 1.5377,
        1.4210, 0.6388, 1.0461, 1.4243, 1.3197, 1.0664, 0.8783, 1.3717, 1.0706,
        0.4711, 1.0734, 0.4981, 1.0465, 0.7197, 0.9143, 0.8448, 1.4939, 0.7473,
        0.9344, 2.4672, 2.2984, 0.7127, 0.8179, 0.5829, 1.2051, 1.0884, 1.1775,
        1.9283, 1.1745, 3.1269, 2.1479, 1.1728, 1.5740, 0.9680, 1.8941, 5.9621,
        1.1340, 0.8983, 0.9063, 0.7642, 1.3604, 1.1633, 1.2784, 1.0178, 1.1315,
        0.8654, 3.0198, 1.2262, 1.0364, 1.4617, 0.7734, 1.9028, 0.5358, 0.9390,
        1.2235, 4.1701, 1.6691, 1.3237, 1.2691, 0.5931, 0.9436, 0.8620, 0.8442,
        1.3857, 0.5459, 0.6187, 1.5277, 0.9347, 1.1565, 1.3230, 1.2647, 0.9768,
        0.6137, 1.2342, 0.7185, 1.4153, 0.7423, 0.6808, 1.3805, 0.6651, 1.5345,
        0.8607, 0.9721, 1.1408, 1.9048, 1.5850, 1.0155, 0.6778, 1.9911, 1.0259,
        1.6215, 0.5419, 0.9049, 1.2459, 0.8039, 1.0348, 1.0729, 0.7805, 1.3478,
        3.2441, 2.0924, 0.9014, 0.5311, 1.0254, 1.3375, 0.7927, 1.0085, 1.0804,
        2.0287, 0.9042, 1.1253, 1.4109, 2.9149, 1.4327, 1.5699, 0.9057, 3.4211,
        3.3964, 0.7914, 1.5377, 1.6746, 0.9222, 1.8790, 1.4752, 1.1816, 1.4506,
        0.7042, 1.7086, 0.8037, 0.8852, 0.8056, 0.7451, 2.4486, 2.7314, 1.4990,
        2.5030, 1.0831, 0.8826, 0.9568, 0.5105, 1.1426, 0.6211, 0.7562, 0.6191,
        0.8467, 1.1680, 1.6051, 0.9767, 3.1047, 1.2497, 2.6188, 0.6246, 1.1731,
        1.3067, 1.0847, 0.9369, 2.3887, 1.7671, 1.0134, 4.0569, 2.8803, 0.7760,
        1.0066, 0.9265, 0.4326, 0.5529, 1.2922, 1.0098, 0.6761, 1.3342, 0.8687,
        2.4130, 0.6058, 1.1638, 0.8215, 0.8848, 2.2637, 1.2833, 4.9077, 0.8757,
        0.6356, 1.2066, 0.9010, 1.7509, 1.3709, 1.0441, 0.9817, 2.8107, 1.1153,
        2.1617, 0.7173, 1.1305, 0.6259, 1.4421, 0.6941, 0.5302, 1.0104, 0.8054,
        2.6181, 1.0443, 1.0327, 0.8696, 1.1205, 0.5407, 0.7097, 1.2867, 2.4295,
        0.7651, 1.2363, 2.5110, 1.7642, 1.3012, 1.1814, 1.2948, 2.4235, 1.8143,
        1.0427, 1.7817, 0.6691, 0.6155, 2.2081, 0.8184, 0.8557, 0.8826, 0.7747,
        0.8294, 0.9958, 1.1640, 0.7294, 0.9523, 1.3234, 1.5187, 1.2419, 0.8832,
        0.6679, 1.2989, 1.4703, 1.3758, 0.8633, 1.0806, 0.9348, 1.2715, 0.7819,
        1.9619, 1.2952, 0.7545, 2.3168, 0.7841, 0.7623, 0.5684, 1.0150, 1.2073,
        0.8649, 0.9940, 2.7024, 0.8526, 1.3689, 4.4122, 1.0432, 1.8839, 0.7904,
        1.5215, 0.7341, 1.4213, 1.0525, 1.4234, 0.9632, 0.7504, 1.2747, 0.7427,
        0.9596, 0.6371, 1.9681, 0.6623, 0.6509, 1.0936, 0.6500, 0.9440, 2.2272,
        1.7880, 1.1669, 1.6452, 1.0221, 1.4958, 1.5358, 0.7065, 0.4951, 0.5451,
        0.9887, 0.8019, 1.8617, 0.8653, 1.5773, 4.1670, 0.8674, 1.1951, 1.3412,
        3.0656, 1.0232, 0.9523, 0.7296, 0.7810, 0.7883, 1.0874, 2.1105, 0.9604,
        0.7593, 3.6476, 1.1460, 1.1987, 0.7183, 2.0662, 0.6336, 1.5265, 0.7022,
        0.9527, 1.3945, 1.0469, 1.8977, 1.0124, 1.0863, 1.0036, 1.2116, 0.6009,
        1.1819, 1.4033, 0.8221, 1.6446, 2.3100, 2.2561, 2.6582, 0.6444, 0.9342,
        1.0123, 1.1469, 1.6498, 1.6365, 1.0544, 1.6016, 0.7352, 1.2807, 2.9873,
        0.7742, 0.9817, 2.8232, 1.0944, 2.1502, 0.8310, 0.9010, 1.2105, 0.9766,
        0.8109, 0.7850, 0.9507, 0.8208, 0.7107, 2.8835, 0.7717, 0.6413, 0.7538,
        3.6787, 1.8153, 1.2272, 0.7270, 2.6761, 0.3276, 0.9943, 1.2226, 0.9048,
        0.9671, 0.8151, 0.7969, 1.1142, 1.4724, 0.6901, 0.9281, 0.9481])
net.mlp.net.1.batch_norm.num_batches_tracked tensor(96)
net.mlp.net.2.linear.weight tensor([[-0.0362, -0.0177,  0.0323,  ..., -0.0097,  0.0545,  0.0373],
        [-0.0510, -0.0207,  0.0223,  ...,  0.0537,  0.0276, -0.0147],
        [-0.1535, -0.0084,  0.0092,  ..., -0.0288, -0.0371,  0.0346],
        ...,
        [-0.0310, -0.0115, -0.0092,  ...,  0.0096,  0.0077,  0.0389],
        [ 0.1040,  0.0353, -0.0448,  ...,  0.0841,  0.0093,  0.0763],
        [ 0.0349, -0.0732,  0.0799,  ..., -0.0694, -0.0215,  0.0395]])
net.mlp.net.2.linear.bias tensor([-3.4824e-02,  6.5523e-02,  2.3821e-02,  3.7452e-02, -5.2040e-02,
        -4.9113e-02, -2.9739e-03,  3.1356e-02, -2.4595e-02, -3.1961e-02,
         8.8365e-03,  1.6971e-02, -4.4127e-02, -2.7819e-02, -1.0709e-01,
         2.9067e-02, -1.7017e-02, -4.2189e-03, -3.9365e-02, -3.6895e-02,
         1.3323e-02, -1.9240e-02, -3.4139e-02,  2.3753e-02, -4.0421e-02,
         4.6047e-02,  4.1198e-02,  2.7364e-02,  3.9156e-02,  1.0537e-02,
        -4.8056e-02, -2.7619e-02,  2.6637e-02,  1.5027e-02, -4.2307e-02,
         3.0723e-02, -6.9208e-02, -2.5937e-03, -4.1613e-02, -4.9140e-02,
         6.5029e-02,  1.6466e-02,  1.2172e-02, -2.5602e-02, -2.2946e-02,
        -1.3144e-02, -3.4538e-02,  2.7963e-02,  9.5116e-03, -1.9838e-02,
         9.9387e-03,  1.4977e-02,  2.5159e-03, -2.2862e-02,  4.7495e-02,
         3.0272e-02, -3.3834e-02,  3.8828e-03, -6.5887e-03,  2.4826e-02,
        -1.2276e-02,  4.5059e-03, -1.5060e-02, -1.2017e-03,  8.4891e-03,
         3.8854e-02, -5.4112e-03,  1.1679e-02,  5.4191e-02, -3.7126e-02,
         4.7496e-02,  6.3275e-02,  6.6158e-02,  3.9608e-02,  6.2821e-03,
        -2.0563e-02,  2.8039e-02, -3.9250e-02,  4.2132e-02, -2.2126e-02,
         5.0029e-02, -4.1804e-02,  4.9809e-03,  6.1346e-02,  2.4128e-02,
        -3.7435e-02, -6.6101e-02,  2.6993e-02, -2.9622e-02,  7.6768e-02,
         1.2864e-02,  4.2312e-03,  4.0970e-02, -1.5167e-02,  2.3707e-02,
        -8.2409e-02, -6.5021e-02,  6.2697e-02, -6.5267e-03, -3.4314e-02,
         2.3464e-02, -4.9125e-03, -2.4492e-04, -7.3174e-03, -5.5486e-02,
         1.7532e-03,  2.2155e-02, -5.1262e-02, -8.5067e-02,  5.1866e-02,
        -7.9439e-02,  4.7202e-02, -3.0372e-02, -1.5384e-02,  4.7917e-02,
         3.5922e-02,  5.8699e-03,  4.9251e-02,  6.9372e-02,  3.1143e-02,
         3.6374e-03,  2.7286e-03, -6.4271e-02, -6.1479e-02, -5.1569e-02,
        -1.4739e-02, -3.5139e-02,  2.1462e-02,  4.9661e-02,  1.3251e-03,
        -2.3083e-03,  2.6483e-02, -9.4013e-03, -4.2053e-02, -6.4456e-02,
        -5.0440e-02, -5.4184e-02,  1.4123e-02, -2.6901e-02,  1.5924e-03,
         2.6905e-02, -2.0236e-02, -1.4234e-02,  9.1179e-02, -7.9568e-02,
        -3.8721e-02, -2.5710e-02,  1.2879e-02,  8.1050e-03,  6.6236e-03,
         5.6243e-02, -6.6997e-02,  2.9184e-02,  2.3869e-02, -2.2849e-02,
         9.0299e-02, -2.0849e-02,  4.2483e-02,  5.5860e-02,  2.2410e-02,
         1.1773e-02,  1.6938e-02, -2.1674e-02,  7.0881e-02, -1.4658e-02,
         4.9914e-02,  3.6886e-02,  2.3252e-03,  5.3803e-02, -5.7241e-02,
         1.1171e-02,  7.4496e-02, -1.6939e-02, -3.6616e-02,  8.0190e-04,
         1.0592e-02,  5.4351e-02, -4.1056e-02, -3.8452e-02, -1.0344e-02,
         8.5379e-03, -6.0696e-02,  5.3427e-02, -1.4336e-02, -6.2823e-03,
        -9.2844e-03, -7.1242e-02,  8.9119e-03, -2.2176e-02,  1.8198e-02,
        -1.7029e-02,  2.9588e-03, -1.4816e-02, -2.6492e-02, -1.7440e-02,
        -1.5133e-02,  1.4644e-03,  4.0706e-02, -3.4223e-03,  3.9086e-02,
        -3.1958e-03,  9.2290e-04,  8.8694e-02, -1.8650e-02, -7.2047e-04,
        -5.6271e-02, -8.8024e-04,  7.5691e-02, -2.0127e-02,  3.7614e-02,
        -6.4536e-02,  1.8859e-02,  1.8051e-02,  5.3093e-02,  6.2627e-03,
         8.6256e-03,  6.4319e-02,  4.8498e-02, -3.8430e-02, -8.1579e-02,
         2.5967e-02, -2.7340e-02, -1.7094e-02,  5.8110e-02,  6.2061e-03,
        -1.9189e-02, -4.3478e-02, -4.2461e-02,  3.9380e-02, -2.0190e-02,
         5.5425e-02, -3.3592e-02,  1.8457e-02,  1.5959e-02, -2.9348e-03,
        -1.1469e-01, -7.6697e-02, -2.5607e-02,  1.1040e-02, -2.7185e-02,
         2.3904e-03, -4.4696e-03, -3.3936e-02,  1.6049e-02,  2.9682e-02,
        -6.7792e-03,  3.8128e-05,  2.1705e-03, -2.8812e-02, -7.3758e-02,
        -6.5967e-02,  2.6185e-02,  5.8472e-03,  3.3364e-02, -6.6703e-02,
        -3.9011e-03, -2.2881e-03,  1.2724e-02, -1.0581e-02, -4.2178e-02,
         1.9744e-02,  1.3592e-02, -1.2904e-02, -3.8135e-02, -4.4731e-02,
        -4.4922e-02,  7.2874e-02, -2.7882e-02, -5.2543e-02,  3.8767e-02,
        -5.6211e-02, -7.2939e-02,  1.6239e-02, -3.5343e-02, -1.4382e-02,
        -5.7259e-02, -3.2390e-02,  6.0319e-02, -6.5548e-03, -6.0980e-02,
         7.0499e-03,  2.5353e-02,  4.0081e-02, -6.9493e-02, -3.6518e-02,
        -1.1889e-02, -4.6361e-03,  3.9193e-02, -3.2164e-02, -7.2234e-03,
        -7.4050e-02,  3.6981e-02, -6.8316e-03,  2.0815e-02,  4.5554e-02,
        -3.5361e-02, -3.9553e-02, -4.6782e-02, -5.0530e-02, -5.6755e-02,
        -5.2638e-03,  7.7065e-02, -1.7778e-02,  3.8093e-02, -1.2594e-02,
         2.5014e-02, -7.3164e-03, -1.9225e-03,  7.2705e-02,  1.1191e-01,
        -4.7868e-02, -1.8201e-02,  6.1793e-02, -4.1307e-02, -2.3645e-02,
         7.4409e-03, -1.4535e-02, -7.7289e-02,  3.7974e-02,  2.0437e-03,
         7.5235e-03, -1.4091e-02, -1.1203e-01,  2.1936e-02, -2.9801e-02,
        -1.0441e-02,  8.6992e-02,  3.4552e-02, -3.1251e-02, -7.1835e-02,
         4.5744e-02,  7.9855e-02,  6.3996e-02,  3.7149e-04, -7.2499e-02,
        -6.6962e-02, -1.4811e-02,  3.2196e-02, -3.6758e-02,  1.2520e-02,
         6.0211e-03,  3.5025e-03,  4.0744e-02, -5.6272e-02, -1.4425e-02,
        -1.7443e-02,  4.1181e-02,  1.0600e-01, -2.5499e-02,  1.6120e-02,
        -4.0232e-02,  6.7948e-02,  2.7649e-03,  6.1246e-03, -2.8771e-02,
        -5.5568e-02, -2.1370e-02,  5.6333e-02,  1.6388e-02, -8.7183e-04,
         2.0820e-02,  1.5614e-02,  1.5441e-02,  6.1214e-02, -5.3882e-02,
        -3.9647e-03, -2.9941e-02, -1.6846e-02,  6.6758e-02,  1.2886e-02,
        -4.1386e-02,  4.7818e-02,  5.3138e-02,  8.9429e-03, -2.0836e-02,
        -5.5274e-02, -2.0882e-02,  3.2900e-03,  1.3494e-02, -1.7714e-02,
         1.8206e-02,  1.5710e-02, -3.3105e-02, -2.3339e-02,  4.3370e-02,
        -6.4280e-02, -2.1916e-03,  4.0991e-03,  4.9109e-02,  1.9565e-02,
        -3.8271e-02,  1.1043e-02, -2.2267e-02, -2.4999e-02, -5.2522e-02,
        -9.7601e-02, -5.0489e-02, -1.2783e-02, -2.5756e-02, -4.1479e-02,
         6.7222e-02, -4.8937e-02,  4.5004e-02, -8.2487e-02, -3.1335e-02,
         3.3669e-03,  3.9830e-02, -4.5898e-02, -3.7895e-02,  1.4410e-03,
         7.8794e-03, -2.1770e-02,  4.2343e-02,  2.7840e-02, -2.4725e-02,
        -1.1432e-02, -4.1394e-02,  3.8520e-02,  3.4212e-02, -7.1731e-02,
        -3.3426e-02,  2.9423e-02, -5.9007e-02,  3.6500e-02,  3.7817e-03,
         2.9651e-02,  1.4105e-02,  4.7334e-02, -3.1974e-02,  3.5462e-03,
        -4.8526e-02, -3.0702e-02,  1.8540e-02, -2.7947e-02, -2.9951e-03,
         6.5802e-03, -5.5313e-03,  1.3427e-02,  2.0019e-02,  1.2741e-02,
         5.3033e-02,  3.9264e-02, -3.7755e-02, -2.0071e-02, -4.3255e-02,
        -1.4918e-02, -1.4725e-02, -3.8134e-02, -3.3895e-02,  4.8683e-02,
         7.8524e-02,  5.2894e-03,  3.0707e-02, -2.9590e-02,  3.1975e-02,
        -1.3108e-03, -2.5350e-02, -4.8261e-02, -1.3812e-02,  2.9106e-02,
         6.7653e-02,  1.3996e-02, -5.3031e-02, -1.0973e-02,  5.7404e-02,
        -1.0447e-02, -2.1595e-02, -4.0675e-02, -1.3835e-02,  3.4427e-03,
        -4.7311e-02,  1.1082e-02, -2.7617e-03, -3.3660e-02, -5.8673e-02,
        -7.8462e-03,  6.8566e-03, -6.2938e-03,  4.4984e-03, -5.1220e-02,
        -1.7098e-02,  1.0965e-02,  4.7663e-03, -1.5411e-02,  3.7330e-02,
         7.8276e-03, -4.1216e-02,  8.4152e-02,  1.4663e-02, -4.6848e-02,
        -3.7938e-02,  3.6860e-02,  3.7144e-02, -4.8711e-02, -7.5211e-02,
        -8.6709e-02,  8.4060e-02, -2.8015e-02,  6.5860e-02, -9.4485e-02,
        -6.7974e-03, -2.9819e-02,  1.3909e-02, -1.1329e-02,  3.9083e-02,
         4.9365e-02,  2.7829e-03,  6.7599e-02,  6.1941e-02, -1.8962e-02,
         4.3587e-02, -5.6634e-03])
net.mlp.net.2.batch_norm.weight tensor([0.5530, 0.5153, 0.5330, 0.5020, 0.6084, 0.4905, 0.5912, 0.5381, 0.4944,
        0.5749, 0.4556, 0.5210, 0.5111, 0.5690, 0.4780, 0.6361, 0.5478, 0.5442,
        0.4520, 0.5483, 0.5246, 0.4971, 0.4903, 0.5146, 0.5358, 0.5396, 0.5523,
        0.6400, 0.5981, 0.4707, 0.6037, 0.5417, 0.6001, 0.5492, 0.5436, 0.5595,
        0.5928, 0.4917, 0.5323, 0.5341, 0.5292, 0.5218, 0.5177, 0.5475, 0.5721,
        0.5212, 0.5960, 0.5461, 0.4964, 0.5294, 0.5446, 0.6266, 0.5870, 0.5875,
        0.5967, 0.6000, 0.5678, 0.5328, 0.5225, 0.5127, 0.5697, 0.5286, 0.5797,
        0.5629, 0.5484, 0.5964, 0.5369, 0.5842, 0.4906, 0.4847, 0.5327, 0.5617,
        0.5494, 0.5000, 0.5266, 0.5275, 0.4821, 0.5741, 0.5195, 0.5742, 0.5921,
        0.5338, 0.5504, 0.5166, 0.6428, 0.5516, 0.4822, 0.4923, 0.5773, 0.5093,
        0.5979, 0.5362, 0.4652, 0.5830, 0.5193, 0.4918, 0.5259, 0.5503, 0.5698,
        0.5008, 0.5918, 0.5194, 0.5771, 0.5737, 0.5408, 0.4788, 0.5874, 0.5241,
        0.5912, 0.5414, 0.5489, 0.5357, 0.5820, 0.4764, 0.5034, 0.5590, 0.5578,
        0.5383, 0.5489, 0.5447, 0.5571, 0.5960, 0.6172, 0.5867, 0.4960, 0.4992,
        0.4979, 0.6283, 0.4843, 0.5596, 0.5155, 0.5056, 0.5135, 0.5567, 0.5782,
        0.4554, 0.5616, 0.5283, 0.5311, 0.5869, 0.4750, 0.6123, 0.4725, 0.5445,
        0.4976, 0.5480, 0.4976, 0.4932, 0.4289, 0.5351, 0.5062, 0.5495, 0.5609,
        0.5474, 0.5319, 0.6176, 0.5588, 0.4651, 0.4902, 0.4795, 0.5612, 0.5530,
        0.6301, 0.5020, 0.5574, 0.5913, 0.6062, 0.5324, 0.5426, 0.5695, 0.4766,
        0.4870, 0.4852, 0.6433, 0.5186, 0.4886, 0.5597, 0.5691, 0.5399, 0.5564,
        0.5582, 0.5032, 0.5580, 0.5052, 0.6007, 0.5687, 0.5858, 0.4988, 0.5034,
        0.5121, 0.5228, 0.5584, 0.5637, 0.5451, 0.5889, 0.4994, 0.4963, 0.6229,
        0.4938, 0.4668, 0.5491, 0.4967, 0.5029, 0.5419, 0.5631, 0.5287, 0.5268,
        0.5722, 0.5412, 0.4927, 0.5533, 0.5798, 0.4864, 0.5086, 0.5542, 0.5612,
        0.5499, 0.5697, 0.5769, 0.5062, 0.5478, 0.4751, 0.5433, 0.4861, 0.5345,
        0.5474, 0.5575, 0.5231, 0.5099, 0.4866, 0.5265, 0.5711, 0.4658, 0.5598,
        0.4635, 0.5879, 0.5515, 0.5227, 0.5502, 0.4999, 0.4783, 0.5524, 0.5544,
        0.4932, 0.4897, 0.5995, 0.5241, 0.5187, 0.5939, 0.5128, 0.5276, 0.4993,
        0.5860, 0.5156, 0.5113, 0.5453, 0.5457, 0.4997, 0.5588, 0.5030, 0.5872,
        0.6489, 0.5454, 0.5465, 0.4804, 0.5301, 0.5752, 0.4812, 0.5248, 0.5127,
        0.5009, 0.4609, 0.4704, 0.5008, 0.5825, 0.4910, 0.4486, 0.5031, 0.5884,
        0.4930, 0.5209, 0.4452, 0.5084, 0.5258, 0.4791, 0.5798, 0.4766, 0.5412,
        0.6336, 0.5424, 0.4791, 0.4905, 0.5388, 0.5166, 0.4858, 0.5778, 0.5114,
        0.5047, 0.5228, 0.4762, 0.5337, 0.5595, 0.5251, 0.5376, 0.5296, 0.5550,
        0.4694, 0.5160, 0.5712, 0.5546, 0.5299, 0.4702, 0.5411, 0.4885, 0.5313,
        0.4802, 0.5921, 0.5450, 0.5423, 0.5520, 0.6070, 0.5738, 0.5309, 0.5406,
        0.6215, 0.5140, 0.5081, 0.5789, 0.5075, 0.4913, 0.5950, 0.5483, 0.5641,
        0.5767, 0.5168, 0.4563, 0.5510, 0.4685, 0.5487, 0.5324, 0.4628, 0.5682,
        0.5708, 0.5537, 0.5513, 0.5605, 0.5057, 0.4734, 0.5550, 0.4759, 0.4471,
        0.4896, 0.5028, 0.5327, 0.5125, 0.5561, 0.5543, 0.5173, 0.5932, 0.5270,
        0.4258, 0.5014, 0.5629, 0.5273, 0.5881, 0.4864, 0.5223, 0.5882, 0.5455,
        0.5203, 0.5238, 0.5494, 0.5775, 0.4911, 0.5718, 0.4354, 0.5433, 0.5464,
        0.5195, 0.4356, 0.5368, 0.5526, 0.5488, 0.5608, 0.5449, 0.6099, 0.5153,
        0.5471, 0.5155, 0.4884, 0.5556, 0.5036, 0.5497, 0.5933, 0.5291, 0.4689,
        0.5333, 0.5554, 0.4961, 0.5733, 0.5203, 0.5060, 0.5565, 0.5176, 0.5511,
        0.5621, 0.5789, 0.5415, 0.5683, 0.4975, 0.5352, 0.5866, 0.5235, 0.5187,
        0.4884, 0.5165, 0.4669, 0.6337, 0.5224, 0.5188, 0.4950, 0.5155, 0.5466,
        0.5301, 0.5436, 0.5695, 0.4915, 0.5059, 0.5199, 0.5546, 0.5179, 0.5827,
        0.5126, 0.5782, 0.5389, 0.5478, 0.5448, 0.5544, 0.5061, 0.5658, 0.5410,
        0.4826, 0.5380, 0.6098, 0.5476, 0.6037, 0.4846, 0.6402, 0.5019, 0.4534,
        0.5392, 0.5467, 0.5719, 0.5308, 0.5516, 0.5319, 0.5047, 0.5123, 0.5309,
        0.5046, 0.5392, 0.6192, 0.4974, 0.5175, 0.5264, 0.6100, 0.5283, 0.4940,
        0.5477, 0.5773, 0.5470, 0.5631, 0.6112, 0.4962, 0.5090, 0.5307, 0.4862,
        0.5504, 0.5131, 0.4930, 0.5336, 0.5318, 0.5675, 0.5201, 0.5519, 0.4322,
        0.5632, 0.5097, 0.5372, 0.5489, 0.5688, 0.5001, 0.5436, 0.4911, 0.4923,
        0.5543, 0.6073, 0.5034, 0.4967, 0.5155, 0.6004, 0.4373, 0.4972, 0.4991,
        0.4932, 0.5576, 0.4667, 0.5386, 0.5582, 0.5634, 0.5463, 0.5184])
net.mlp.net.2.batch_norm.bias tensor([-7.6318e-04,  5.0406e-03, -5.7650e-03,  4.4172e-02, -2.7930e-02,
        -6.3324e-03, -1.4160e-02,  3.6454e-02, -1.8062e-02,  1.4965e-02,
        -7.8156e-02,  7.5130e-02, -2.1737e-02, -6.6500e-02, -6.2522e-02,
         2.5294e-02, -4.5966e-02,  4.2368e-02, -4.2223e-02, -2.7273e-02,
         2.8119e-02,  1.9616e-02,  2.0263e-02,  2.3523e-03,  2.9306e-02,
         6.4802e-02, -3.1722e-03, -1.5732e-02,  8.9108e-04, -7.1493e-03,
         2.6873e-03, -4.9030e-02, -1.3833e-02,  9.1464e-02, -2.7696e-02,
        -1.0237e-02,  9.4365e-02,  2.7824e-02,  3.6141e-02, -6.0733e-02,
        -3.2304e-02, -2.8531e-02,  2.4715e-03,  1.0033e-02,  4.6163e-02,
         9.3846e-03,  3.4139e-02, -1.8989e-03,  1.2341e-02, -5.1511e-02,
         2.0671e-02,  2.6248e-02, -1.1509e-01,  6.0374e-02,  1.5229e-03,
         5.3562e-02, -2.8508e-02, -1.5131e-02,  3.5672e-03, -5.9305e-02,
         1.2627e-02, -6.0047e-03,  5.3325e-03,  2.3410e-02, -1.8221e-02,
         7.8960e-03, -2.2434e-02, -5.7655e-02,  2.1930e-02, -6.9278e-02,
         3.3513e-02, -2.1599e-02, -6.9609e-03,  3.8425e-02,  4.0530e-02,
        -5.8886e-03,  1.5573e-02,  4.5885e-03,  3.1387e-02, -4.8657e-02,
        -4.1117e-02,  3.4653e-03, -3.7261e-02,  2.6284e-02, -3.0498e-02,
        -8.5440e-03, -4.6857e-03, -4.0289e-02,  3.9439e-02, -7.6031e-02,
         3.1989e-02,  3.5239e-02, -3.8054e-02, -4.7970e-02, -2.7968e-02,
        -1.4133e-02, -2.8821e-02, -6.6095e-02,  1.9300e-02,  3.7990e-02,
        -5.7219e-02, -6.2791e-03, -1.0054e-01, -3.9633e-02, -9.6026e-04,
         3.2589e-02,  1.7002e-02,  4.0827e-02,  6.9176e-02,  2.8778e-02,
         3.6469e-02, -7.1140e-02,  4.1079e-02,  3.6856e-02,  4.3011e-03,
        -4.0246e-03,  2.8641e-02, -2.8607e-02, -3.7016e-02,  2.0748e-02,
        -2.6662e-02, -1.4507e-02, -1.4093e-02, -2.2048e-02, -6.6797e-02,
         2.6549e-02,  4.2024e-02,  5.7043e-02, -5.2503e-02,  1.0095e-02,
        -4.2503e-02, -2.9078e-02, -1.5148e-02, -3.6161e-02, -1.1789e-02,
        -3.6609e-02,  3.8278e-02, -5.9744e-02,  1.7312e-02, -2.2308e-02,
        -3.6191e-03,  5.2136e-02, -3.2659e-02,  1.0576e-04, -4.7861e-02,
        -3.8868e-02, -6.2584e-02, -7.6347e-02, -3.4543e-03,  2.8102e-03,
        -7.6019e-02,  3.0917e-03, -1.0976e-03,  3.2946e-02,  8.6073e-03,
         1.8232e-02,  2.2152e-02,  8.5696e-03,  1.1842e-02,  2.2387e-02,
         1.7241e-03, -6.2916e-02,  2.6904e-02, -2.4846e-02, -1.9960e-02,
        -5.0351e-02, -3.3596e-02,  4.3381e-02, -7.5830e-02, -7.4345e-02,
        -1.6609e-02,  5.8362e-02,  1.6833e-02, -3.1282e-02,  6.3923e-02,
         6.5659e-02, -4.9462e-02, -1.1625e-02, -6.6593e-02,  2.8108e-02,
        -2.9901e-02,  1.0593e-02, -4.3680e-02,  1.0480e-02, -3.3963e-02,
        -8.2842e-03, -4.4070e-02, -1.0223e-02,  1.7029e-02, -3.9154e-03,
        -4.2272e-02,  1.7483e-02, -1.2139e-03,  3.9774e-02,  3.1955e-02,
        -2.8000e-02,  2.5261e-02,  1.7925e-02,  2.7250e-02,  4.1293e-02,
         1.6567e-02, -7.2501e-02, -6.4877e-02, -7.0809e-02,  3.7149e-03,
        -3.8969e-02, -2.1278e-02,  1.8715e-02, -2.9144e-02, -2.3632e-02,
        -2.3181e-02,  4.8537e-02, -9.1728e-03, -3.0789e-02, -4.9011e-02,
         3.6620e-03, -2.6822e-02, -2.5969e-02,  5.2285e-02,  7.9584e-03,
         3.9195e-02,  3.9237e-02, -7.2648e-03, -5.3692e-02, -4.9356e-02,
        -5.4606e-02, -2.8343e-02, -1.3857e-02,  5.4572e-02,  1.7549e-02,
         2.5151e-02,  4.1611e-02, -1.3797e-05,  9.5213e-03, -7.2037e-03,
         4.6227e-04, -9.8334e-02,  1.6417e-02,  1.1290e-02, -6.3297e-02,
        -2.6533e-02, -4.3922e-02,  5.3635e-02, -4.8921e-02,  4.3719e-02,
        -3.7813e-03,  5.5497e-02, -5.3278e-02,  7.4796e-02,  1.0703e-02,
        -2.1720e-02,  1.4206e-02, -5.0905e-02,  3.0651e-02,  1.9770e-03,
         1.1607e-01,  3.0160e-02,  7.1219e-02, -8.4306e-02, -1.4438e-02,
        -7.5974e-02,  5.1368e-02,  4.0076e-02,  2.8290e-02,  2.4212e-02,
         6.5260e-03, -2.7888e-02,  2.7661e-02,  2.0266e-02,  2.0756e-02,
        -2.4325e-02, -1.2624e-02, -1.6492e-02, -2.6060e-02,  7.1327e-02,
        -6.9677e-02, -3.3924e-03, -4.9576e-02, -1.3169e-02, -1.1532e-02,
        -1.8248e-02, -3.4466e-02,  4.0995e-03, -3.4039e-03, -1.3765e-02,
         2.0061e-02, -9.5517e-03,  4.4047e-04, -2.8927e-02,  1.6985e-02,
        -3.5637e-02,  1.0182e-02,  8.2089e-02,  3.9552e-02,  1.5802e-02,
         1.5317e-02,  3.3931e-02, -6.0637e-02, -1.3171e-02,  5.8452e-02,
         3.0636e-02, -1.1309e-02, -1.8650e-02,  1.4052e-02, -2.6176e-02,
         2.3876e-02,  1.3661e-02,  3.0607e-02,  1.6876e-03,  7.3332e-02,
        -2.7778e-02,  5.2065e-02,  2.9012e-02, -5.1084e-03,  1.8605e-02,
        -3.1543e-02,  1.1069e-02, -3.1431e-02,  6.3879e-04, -2.1089e-02,
        -1.9490e-02, -2.0104e-02,  6.5520e-02, -4.7447e-02,  2.4481e-03,
         7.7060e-02, -7.6933e-03, -2.8321e-02,  3.5423e-02, -3.3812e-02,
        -5.7504e-03,  5.6333e-02, -8.7437e-02, -3.1398e-02,  5.6790e-02,
        -6.1009e-02, -8.8874e-02,  8.3828e-02, -2.8302e-02,  1.2779e-02,
        -5.3528e-02, -9.7885e-03, -9.0161e-02,  3.7014e-02,  3.0535e-03,
         7.3589e-02, -2.4361e-02, -3.2288e-02,  2.6577e-03,  4.0579e-03,
        -1.1153e-01, -2.9894e-02,  8.6481e-02, -1.8260e-02, -3.3394e-02,
        -6.8886e-02,  1.8736e-02, -3.2047e-02,  8.7535e-02,  1.2603e-02,
         1.6885e-02, -2.2180e-02,  3.8070e-02, -4.4924e-02, -1.5500e-02,
        -8.7960e-03, -4.6858e-03, -3.2865e-02, -3.4189e-02,  1.8654e-02,
         4.4310e-02,  3.9717e-02, -1.5160e-02,  1.1812e-02, -5.3160e-02,
         3.5342e-02, -4.1449e-02, -7.8145e-03,  4.1212e-02, -2.4953e-02,
        -2.9174e-02,  4.7593e-02,  2.1812e-02,  5.3220e-02, -1.5024e-02,
         9.1649e-04,  5.7059e-02, -9.0364e-03,  4.3734e-02,  4.8960e-02,
         2.5170e-02,  2.4715e-02, -2.3486e-02,  5.6378e-03,  1.9260e-02,
        -5.7664e-02,  1.3731e-02,  8.5109e-02, -5.6243e-02,  3.8899e-02,
         2.7631e-02,  3.2092e-03,  1.0775e-02, -7.8672e-02, -2.9272e-02,
         2.2804e-02, -2.5587e-02, -1.2043e-03,  2.5874e-02, -1.1207e-02,
        -2.5946e-02,  2.2236e-02,  4.6215e-02, -4.0995e-02, -1.0512e-01,
        -6.3871e-02,  8.4723e-02,  1.1548e-02,  2.6309e-02, -6.6714e-02,
         9.0581e-03,  1.1084e-03, -2.0611e-02, -2.8247e-02,  9.5751e-02,
         5.0211e-02,  6.3768e-02, -2.0779e-02, -4.9730e-02, -2.4459e-02,
         1.6730e-02,  4.6965e-02,  2.2225e-02,  2.8447e-03,  7.0195e-03,
        -1.4366e-02, -4.3374e-02,  2.8392e-02,  8.8475e-02,  5.5458e-02,
         1.4562e-02, -1.0525e-01,  2.0572e-02,  1.3218e-02, -8.3602e-03,
         8.3310e-03, -3.2475e-02, -5.8140e-03,  3.8059e-02,  6.2085e-02,
         1.0030e-01, -4.8770e-02, -6.8840e-02, -2.8830e-02,  1.8499e-02,
        -2.8340e-02, -1.0310e-02,  3.3002e-03, -8.3001e-03,  7.0244e-02,
         4.7274e-02, -1.5296e-02,  3.7554e-02, -2.6570e-02,  2.8315e-03,
         1.6348e-02, -1.4204e-02,  3.3522e-02, -2.5766e-03,  3.7036e-03,
        -3.3829e-03, -2.1759e-02,  2.0547e-02, -1.2036e-02,  8.6098e-03,
         2.3286e-02,  3.6548e-02,  2.4237e-02, -2.5645e-02, -1.6927e-02,
         7.0345e-02,  4.0605e-02,  2.7159e-02, -2.7389e-02,  2.1773e-02,
        -5.7874e-02, -3.3507e-02,  6.2076e-02,  4.8901e-02, -5.1914e-02,
         1.3788e-02,  1.9297e-02,  4.7786e-02,  4.1585e-02,  6.1597e-02,
        -7.7148e-02,  9.3739e-03, -8.2069e-04,  2.7107e-02,  6.4443e-02,
        -2.8266e-02, -8.6357e-03, -1.0220e-02,  7.0177e-04, -2.3055e-02,
         1.5032e-02,  3.1562e-02,  2.4621e-02, -1.0186e-02, -5.6200e-04,
        -5.3775e-03, -6.0301e-02])
net.mlp.net.2.batch_norm.running_mean tensor([0.5335, 0.6688, 0.7672, 0.5769, 0.4694, 0.5011, 0.4257, 0.7781, 0.6236,
        0.5367, 0.5795, 0.5149, 0.4277, 0.5957, 0.3869, 0.5526, 0.4976, 0.8689,
        0.6179, 0.5094, 0.4596, 0.4807, 0.5129, 0.5673, 0.5853, 0.6739, 0.6005,
        0.5947, 0.7723, 0.6791, 0.5594, 0.6867, 0.7874, 0.5850, 0.6737, 0.7049,
        0.4558, 0.5222, 0.4900, 0.3808, 0.5009, 0.5130, 0.5230, 0.6584, 0.7841,
        0.5679, 0.5291, 0.5076, 0.4088, 0.5718, 0.6023, 0.5820, 0.5936, 0.5548,
        0.7620, 0.5737, 0.5425, 0.5918, 0.6878, 0.5502, 0.4331, 0.6704, 0.6026,
        0.6437, 0.7343, 0.6154, 0.5488, 0.5229, 0.6766, 0.5188, 0.5125, 0.7766,
        0.7403, 0.5256, 0.5599, 0.5605, 0.6105, 0.4215, 0.6231, 0.7245, 0.7181,
        0.4576, 0.6783, 0.6172, 0.7611, 0.6484, 0.6015, 0.6327, 0.5978, 0.5482,
        0.4591, 0.6748, 0.5857, 0.6824, 0.7554, 0.4977, 0.7499, 0.5267, 0.6890,
        0.5708, 0.7077, 0.5083, 0.5725, 0.4833, 0.5610, 0.3879, 0.7351, 0.7074,
        0.5587, 0.6505, 0.4029, 0.5432, 0.5665, 0.5139, 0.5058, 0.8222, 0.7250,
        0.4775, 0.6517, 0.4534, 0.5891, 0.5865, 0.7108, 0.4607, 0.4809, 0.4537,
        0.4931, 0.5743, 0.4965, 0.6063, 0.4949, 0.6728, 0.5595, 0.4081, 0.4353,
        0.5043, 0.5480, 0.6298, 0.7771, 0.5031, 0.6376, 0.5453, 0.5485, 0.8456,
        0.5657, 0.5491, 0.6507, 0.5579, 0.3747, 0.6215, 0.5257, 0.5486, 0.6707,
        0.6009, 0.4385, 0.8272, 0.7967, 0.6427, 0.4694, 0.6074, 0.6785, 0.6141,
        0.6079, 0.5469, 0.5473, 0.5973, 0.7530, 0.7055, 0.5924, 0.4146, 0.4999,
        0.4538, 0.6216, 0.5150, 0.5876, 0.7826, 0.5902, 0.4715, 0.4677, 0.5589,
        0.8325, 0.3532, 0.5748, 0.5896, 0.4481, 0.8008, 0.5302, 0.5627, 0.5152,
        0.6104, 0.5592, 0.6322, 0.6802, 0.6084, 0.4989, 0.4709, 0.5470, 0.5350,
        0.5077, 0.5010, 0.4986, 0.4656, 0.5568, 0.5148, 0.9441, 0.7067, 0.4883,
        0.5659, 0.4984, 0.6961, 0.5313, 0.5579, 0.5381, 0.6406, 0.7097, 0.4781,
        0.7090, 0.6776, 0.4834, 0.4848, 0.4303, 0.5113, 0.7483, 0.5743, 0.7915,
        0.5725, 0.4294, 0.7141, 0.6525, 0.5823, 0.5727, 0.6579, 0.6397, 0.6268,
        0.6088, 0.7199, 0.7047, 0.6195, 0.6413, 0.4376, 0.4928, 0.8873, 0.5459,
        0.5545, 0.4367, 0.7668, 0.7510, 0.6739, 0.4790, 0.5048, 0.5263, 0.6435,
        0.8240, 0.7334, 0.5583, 0.7297, 0.5306, 0.6795, 0.5141, 0.6305, 0.5958,
        0.4830, 0.5913, 0.4914, 0.5173, 0.4872, 0.7825, 0.5797, 0.4118, 0.6323,
        0.5205, 0.4493, 0.5268, 0.4534, 0.5606, 0.8254, 0.4546, 0.5394, 0.4788,
        0.5407, 0.7003, 0.3821, 0.4882, 0.6585, 0.5037, 0.5198, 0.4238, 0.5663,
        0.6599, 0.5510, 0.6160, 0.5217, 0.5530, 0.5388, 0.6091, 0.5898, 0.6533,
        0.5003, 0.7053, 0.6199, 0.5744, 0.7681, 0.5042, 0.6844, 0.5566, 0.5750,
        0.6336, 0.4472, 0.5411, 0.7871, 0.5926, 0.3799, 0.6049, 0.5927, 0.8196,
        0.4471, 0.7911, 0.7304, 0.5962, 0.6043, 0.8561, 0.6541, 0.4315, 0.4579,
        0.5672, 0.5128, 0.7379, 0.5884, 0.5261, 0.4003, 0.6366, 0.6177, 0.8290,
        0.6666, 0.3463, 0.5910, 0.7523, 0.4460, 0.4547, 0.5958, 0.6551, 0.4626,
        0.5756, 0.5725, 0.8363, 0.3965, 0.6461, 0.4722, 0.5995, 0.5872, 0.6716,
        0.6231, 0.4844, 0.5207, 0.6400, 0.5360, 0.4477, 0.7282, 0.6304, 0.6788,
        0.5078, 0.4673, 0.5738, 0.7308, 0.7837, 0.4729, 0.5200, 0.7070, 0.7096,
        0.7078, 0.5273, 0.5004, 0.8172, 0.7813, 0.9596, 0.5135, 0.7417, 0.5207,
        0.3646, 0.6462, 0.4582, 0.6720, 0.6293, 0.5059, 0.8076, 0.4137, 0.5332,
        0.4386, 0.6933, 0.5274, 0.5200, 0.5337, 0.5458, 0.4267, 0.5127, 0.5200,
        0.5566, 0.6751, 0.4000, 0.6262, 0.6203, 0.5933, 0.6252, 0.5744, 0.5354,
        0.7206, 0.5519, 0.6682, 0.4368, 0.6233, 0.6209, 0.8414, 0.4614, 0.5566,
        0.6455, 0.4608, 0.4372, 0.9472, 0.8701, 0.7272, 0.6481, 0.5547, 0.3932,
        0.6410, 0.5476, 0.7487, 0.5529, 0.5165, 0.5145, 0.5376, 0.4345, 0.5887,
        0.4371, 0.6243, 0.6594, 0.6134, 0.7564, 0.5674, 0.4817, 0.6653, 0.7407,
        0.6216, 0.5868, 0.6182, 0.5056, 0.5245, 0.5125, 0.6589, 0.5839, 0.5768,
        0.7168, 0.6039, 0.5773, 0.4739, 0.5259, 0.5511, 0.5211, 0.6781, 0.6306,
        0.6396, 0.5509, 0.7653, 0.6502, 0.4054, 0.6205, 0.8347, 0.4223, 0.6345,
        0.6643, 0.5084, 0.5018, 0.8214, 0.8391, 0.6209, 0.5155, 0.5550, 0.6416,
        0.7792, 0.4951, 0.5288, 0.5285, 0.4369, 0.7163, 0.5044, 0.5399, 0.4917,
        0.3695, 0.5245, 0.5732, 0.4911, 0.5103, 0.5769, 0.6136, 0.4868, 0.4583,
        0.3901, 0.9131, 0.6118, 0.8819, 0.3796, 0.4196, 0.5277, 0.8212, 0.5283,
        0.4192, 0.4747, 0.5483, 0.7421, 0.6804, 0.5173, 0.7046, 0.5504])
net.mlp.net.2.batch_norm.running_var tensor([0.9480, 0.8817, 1.3283, 1.3400, 1.8001, 0.6640, 0.5665, 1.7188, 1.1101,
        1.6786, 1.1027, 0.5581, 1.6219, 1.8835, 0.5849, 0.6200, 1.8980, 1.7280,
        3.0773, 1.4687, 0.9275, 1.5987, 0.9647, 0.7088, 1.9025, 1.2485, 1.0561,
        3.1340, 1.6138, 1.6919, 1.0271, 1.2326, 1.3217, 2.1682, 1.3680, 1.0364,
        1.3716, 1.7123, 0.7416, 0.3391, 0.5151, 1.2913, 1.8167, 1.2299, 1.7231,
        0.8678, 1.0090, 0.8965, 0.5211, 0.6431, 1.1410, 2.4583, 1.1074, 1.4087,
        1.2905, 1.0571, 0.9297, 0.7743, 0.8029, 1.4722, 0.9212, 1.1464, 0.9925,
        1.1758, 1.4662, 1.3185, 0.5038, 1.3633, 0.8242, 0.6670, 0.6182, 1.8132,
        0.8341, 0.6290, 0.6602, 0.6990, 1.1597, 0.5584, 0.8683, 0.9577, 0.9401,
        0.5987, 1.0110, 0.5003, 1.6284, 2.1250, 1.4808, 0.8575, 1.6198, 0.5414,
        0.6169, 1.3591, 0.6876, 1.9963, 1.2765, 1.1377, 1.5655, 1.0758, 1.5375,
        1.0733, 1.0374, 0.5998, 1.9921, 0.8040, 3.3716, 0.4816, 1.7465, 1.5638,
        2.6738, 0.8492, 0.8543, 0.7198, 1.0055, 1.0143, 0.7625, 1.3308, 1.1962,
        0.4752, 1.0685, 0.4862, 1.3539, 0.7134, 3.4588, 1.7787, 0.6610, 0.8277,
        0.8116, 0.9116, 0.5436, 1.3008, 0.7607, 1.2810, 1.4852, 1.0526, 0.8551,
        0.6972, 0.9692, 1.2401, 1.1384, 2.0241, 0.5209, 1.0106, 0.9534, 1.4858,
        1.1252, 0.9695, 1.5014, 0.5255, 0.5000, 1.2008, 0.6328, 1.5811, 1.6722,
        0.5503, 1.5589, 1.0970, 1.5409, 2.6560, 1.0362, 0.5598, 0.9330, 2.6407,
        0.7244, 0.4936, 1.5956, 0.6987, 1.1127, 1.4359, 0.6266, 0.5914, 0.6315,
        0.5414, 1.5924, 0.9366, 1.1251, 1.7945, 0.8804, 0.8706, 0.8189, 1.1283,
        1.9492, 0.7512, 0.6443, 2.0346, 0.5845, 1.3849, 1.0677, 1.8855, 0.8377,
        0.6767, 2.6924, 1.4765, 1.0447, 1.3839, 2.1149, 0.9335, 0.4584, 0.6731,
        0.8980, 0.6260, 0.7570, 0.9097, 0.4304, 1.1829, 2.0535, 1.3073, 1.7389,
        0.6621, 0.6665, 0.5877, 0.7964, 1.3175, 0.8343, 1.0846, 1.2807, 0.8345,
        1.2932, 0.9156, 1.7427, 0.9126, 0.7002, 0.8383, 1.5623, 0.5323, 1.1323,
        1.0366, 0.6205, 1.4090, 1.8064, 1.8961, 0.5827, 2.9130, 1.2883, 1.0286,
        2.1393, 1.6453, 2.0534, 0.8442, 1.3055, 0.8299, 0.7848, 1.6513, 1.7404,
        0.4542, 0.4891, 1.0247, 1.5663, 0.6998, 1.2059, 0.8951, 0.7043, 1.4200,
        1.7505, 0.9458, 1.1571, 2.2204, 2.1294, 1.0049, 0.7400, 1.2049, 3.0088,
        1.1991, 0.4791, 0.9705, 2.1505, 1.1338, 1.6003, 0.7066, 0.4627, 0.8533,
        1.4380, 0.5143, 2.1868, 0.5792, 1.1171, 1.7109, 1.7423, 1.4189, 0.8971,
        3.1030, 1.9179, 0.4169, 0.4732, 2.6564, 0.8061, 0.7800, 0.6542, 0.7135,
        1.8794, 0.8325, 1.1347, 0.7326, 1.4590, 0.8312, 0.8157, 0.8196, 1.1763,
        0.4431, 0.9054, 1.1586, 0.6109, 1.4754, 2.2339, 1.0406, 2.2713, 2.7092,
        1.2598, 0.4302, 0.8667, 1.1827, 1.0662, 0.6814, 0.6383, 1.3279, 2.0299,
        0.5912, 1.7223, 5.6338, 1.1286, 1.0193, 1.5455, 1.3533, 0.7530, 0.5354,
        1.7421, 0.5877, 1.2115, 1.5253, 0.8708, 0.6364, 1.1423, 0.5109, 1.2842,
        0.6066, 0.6113, 0.8364, 1.1251, 0.8539, 0.7562, 2.6776, 1.6577, 0.6330,
        2.2492, 0.7191, 1.8411, 0.4089, 0.6664, 0.4500, 1.8042, 1.8468, 0.8775,
        1.1251, 0.7124, 0.8577, 1.5134, 0.9286, 0.4616, 1.1948, 0.8151, 1.7565,
        0.6659, 0.9458, 1.2634, 0.9394, 2.3944, 0.7350, 0.5933, 1.6119, 0.8488,
        1.3537, 1.5056, 0.4273, 0.9207, 1.7546, 1.8650, 0.5740, 2.8521, 0.8358,
        0.3134, 0.9481, 0.5967, 0.8838, 1.6687, 0.5918, 3.1417, 1.3064, 0.7007,
        0.5552, 1.2503, 0.5756, 0.7222, 0.9168, 0.6438, 0.6977, 2.1111, 2.6446,
        1.8358, 0.7865, 0.7047, 1.0779, 0.5172, 1.0780, 1.1074, 1.5273, 0.8208,
        1.1122, 0.9546, 1.6283, 1.1469, 2.4333, 0.7729, 1.5899, 0.6755, 0.9177,
        1.0285, 0.7695, 0.8310, 2.9196, 1.6102, 2.0561, 1.1666, 1.0736, 0.7246,
        1.2739, 0.6387, 1.1444, 0.9054, 0.9981, 0.9769, 1.2836, 0.7329, 1.4481,
        1.0173, 1.2673, 1.0294, 1.1598, 1.7379, 0.7677, 1.5565, 0.7644, 2.4686,
        0.6206, 2.1635, 1.1277, 0.5733, 0.9523, 1.0289, 2.2005, 3.1880, 0.7149,
        1.5097, 1.7363, 1.0666, 1.0567, 1.2846, 1.1448, 1.1655, 1.4616, 3.2260,
        1.0402, 0.6990, 2.6415, 1.1109, 0.4984, 0.9123, 1.3303, 0.9777, 0.9820,
        1.7486, 0.5092, 2.2005, 1.4291, 1.7618, 0.9257, 1.1425, 2.1873, 0.7014,
        1.5020, 0.5881, 3.1835, 0.7400, 0.6891, 1.4183, 0.6954, 0.7808, 1.7896,
        0.6253, 1.4068, 0.9694, 1.6464, 0.6294, 0.9551, 0.7771, 0.4460, 0.4253,
        1.4398, 1.8402, 1.2474, 1.5312, 0.4289, 0.7069, 0.7003, 1.7728, 1.1699,
        0.3972, 0.5949, 1.4789, 1.0342, 1.0933, 0.6732, 1.3288, 1.9645])
net.mlp.net.2.batch_norm.num_batches_tracked tensor(96)
net.mlp.net.3.linear.weight tensor([[ 0.0274, -0.0531,  0.0635,  ...,  0.1072, -0.0112,  0.0680],
        [ 0.0959,  0.0563, -0.0304,  ..., -0.0927,  0.0565, -0.0069],
        [-0.0958,  0.0234, -0.0954,  ..., -0.0131, -0.0426,  0.0107],
        ...,
        [-0.0094, -0.0416, -0.0798,  ...,  0.0396, -0.1062, -0.0463],
        [-0.0031, -0.0056,  0.0404,  ...,  0.0896, -0.0198, -0.0307],
        [-0.0036, -0.0271, -0.0362,  ..., -0.0041, -0.0030, -0.0580]])
net.mlp.net.3.linear.bias tensor([ 0.0120,  0.0263, -0.0073,  0.0163, -0.0520, -0.0452, -0.0296, -0.0505,
        -0.0479, -0.0351,  0.0377, -0.0021, -0.0411, -0.0566, -0.0345, -0.0028,
        -0.0175,  0.0186,  0.0288, -0.0175, -0.0137,  0.0189,  0.0295, -0.0018,
         0.0569, -0.0420,  0.0395, -0.0898, -0.0336,  0.0023, -0.0192, -0.0048,
        -0.0534, -0.0841, -0.0354, -0.0298, -0.0181,  0.0323,  0.0020, -0.0289,
        -0.1190, -0.0446,  0.0044, -0.0563, -0.0584,  0.0441, -0.0388, -0.0262,
         0.0356,  0.0506,  0.0045, -0.0550, -0.0382,  0.0153, -0.0083, -0.0964,
        -0.0098, -0.0382, -0.0093,  0.0214,  0.0014,  0.0291,  0.0642, -0.0472,
        -0.0751, -0.0298, -0.0331,  0.0274,  0.0465,  0.0121, -0.0508, -0.0845,
        -0.0459,  0.0659, -0.0409, -0.0091,  0.0300,  0.0354, -0.0845, -0.0377,
        -0.0068, -0.0656, -0.0771,  0.0105, -0.0585, -0.0208,  0.0542, -0.0062,
        -0.0208,  0.0192, -0.0227, -0.0419,  0.0113, -0.0136, -0.0041,  0.0241,
         0.0133, -0.0187, -0.0427,  0.0412,  0.0121, -0.0655,  0.0009, -0.0098,
         0.0013,  0.0201, -0.0292, -0.0299, -0.0721, -0.0147,  0.0021,  0.0150,
         0.0253,  0.0025, -0.0242, -0.1534,  0.0763, -0.0074, -0.0555,  0.0131,
         0.0166,  0.0104, -0.0199, -0.0496,  0.0187,  0.0824,  0.0005, -0.0967,
        -0.0057, -0.0439,  0.0556, -0.0794, -0.0235, -0.0453, -0.0513, -0.0164,
        -0.0359,  0.0757,  0.0626,  0.0188, -0.0392,  0.0103, -0.0062, -0.0269,
        -0.0269, -0.0338, -0.0067, -0.0612, -0.0907, -0.0329, -0.0575,  0.0376,
         0.0167, -0.0149,  0.0011, -0.0336, -0.0274,  0.0349,  0.0324,  0.0384,
        -0.0254,  0.0080, -0.0489,  0.0133,  0.0295, -0.0223, -0.0965,  0.0522,
         0.0438, -0.0180,  0.0014, -0.0388,  0.0633, -0.0167, -0.0988, -0.0454,
        -0.0088, -0.0135,  0.0072, -0.0825,  0.0450,  0.0238, -0.0524, -0.0520,
         0.0234, -0.0016,  0.0489, -0.0104,  0.0599, -0.0003,  0.0587, -0.0251,
        -0.0564, -0.0603,  0.0128,  0.0415,  0.0410, -0.0635,  0.0699, -0.0515,
         0.0378,  0.0782, -0.0097, -0.0506,  0.0437,  0.0164,  0.0068, -0.0105,
        -0.0197,  0.0620,  0.0295, -0.0048,  0.0215, -0.0508,  0.0549,  0.0554,
        -0.0020, -0.0002,  0.0414, -0.0098,  0.0057, -0.0663, -0.0419,  0.0716,
         0.0302,  0.0337, -0.0254,  0.0561,  0.0323,  0.0307,  0.0053, -0.0031,
         0.0024,  0.0227, -0.0750, -0.0579, -0.0478, -0.0875,  0.0387, -0.0454,
        -0.0295, -0.0657, -0.0375,  0.0224, -0.0452,  0.0059, -0.0818, -0.0006,
         0.0473, -0.0460,  0.0080, -0.0113, -0.0304, -0.0414,  0.0108,  0.0086,
        -0.0104, -0.0183, -0.0066,  0.0493, -0.0556,  0.0040, -0.1086, -0.0654,
         0.0050,  0.0570,  0.0339, -0.0107, -0.0124, -0.0276, -0.0508,  0.0606,
         0.0005,  0.0408, -0.0277,  0.0699,  0.0483, -0.0307, -0.0328, -0.0856,
         0.0332,  0.0509,  0.0310,  0.0244, -0.1012, -0.0072, -0.0635,  0.0391,
         0.0371,  0.0551,  0.0562, -0.0200, -0.0590, -0.0310, -0.0424, -0.0947,
        -0.0853, -0.0063,  0.0029, -0.0118, -0.0245, -0.0904,  0.0714, -0.0208,
        -0.0288, -0.0065, -0.0412,  0.0173,  0.0174,  0.0309, -0.0008, -0.0249,
         0.0666, -0.0063, -0.0126,  0.1004,  0.0035,  0.0380,  0.0399,  0.0332,
         0.0433, -0.0605, -0.0623,  0.0316, -0.0339, -0.0312,  0.0069, -0.1473,
         0.0064, -0.0480,  0.0125,  0.0010,  0.0197, -0.0733, -0.0024, -0.1215,
        -0.0407, -0.0125, -0.0242,  0.0751, -0.0172, -0.0190, -0.0447,  0.0469,
        -0.0090, -0.0738, -0.0335, -0.0347, -0.0366, -0.0089, -0.0241, -0.0049,
        -0.0530, -0.0272, -0.0076,  0.0347,  0.0018, -0.0394, -0.0209,  0.0561,
        -0.0114, -0.0050,  0.0007, -0.0516,  0.0095, -0.0408,  0.0678,  0.0921,
        -0.0205, -0.0141,  0.0201, -0.0058,  0.0367, -0.1222,  0.0604, -0.0275,
        -0.0510,  0.0416,  0.0602,  0.0751, -0.0046,  0.0023, -0.0467, -0.0025,
         0.0266, -0.0579,  0.0855, -0.0908,  0.0454, -0.0059,  0.0037, -0.0737,
         0.0265, -0.0867, -0.0406,  0.0438,  0.0182,  0.0028, -0.0032, -0.0073,
        -0.0535, -0.0253,  0.0497,  0.0211,  0.0156,  0.0718, -0.0132,  0.0015,
        -0.0342, -0.0345,  0.0036, -0.1096,  0.0743, -0.0583, -0.0365, -0.0442,
        -0.0021, -0.0045,  0.0241,  0.0136, -0.0562, -0.0133,  0.1055, -0.0865,
         0.0110,  0.0862, -0.0250,  0.0617, -0.0591,  0.0504, -0.0277, -0.0298,
         0.0310, -0.0083,  0.0654, -0.0044, -0.0322, -0.0828, -0.0454, -0.0324,
         0.0055, -0.0487, -0.0388, -0.0273, -0.0304,  0.0661,  0.0433, -0.0219,
         0.0127,  0.0670,  0.0025,  0.0272, -0.0025,  0.0559, -0.0143,  0.0361,
        -0.0796,  0.0698,  0.0305, -0.0179, -0.0272, -0.0613,  0.0206, -0.0537,
         0.0382,  0.0225,  0.0980,  0.0217,  0.0596, -0.1050, -0.0403, -0.0258,
         0.0067,  0.0692, -0.0382, -0.0233, -0.0671, -0.0555, -0.0544, -0.0251,
         0.0838,  0.0156,  0.0263, -0.0123, -0.0138, -0.0846, -0.0650, -0.0127,
         0.0763, -0.0593, -0.0009, -0.0021,  0.0561,  0.0229,  0.0730,  0.0585,
        -0.0499,  0.0300, -0.0450, -0.0236,  0.0160, -0.0958,  0.0178, -0.1010,
        -0.0699,  0.0412, -0.0091, -0.0291,  0.1068, -0.0292, -0.0511,  0.0620])
net.mlp.net.3.batch_norm.weight tensor([0.4708, 0.4454, 0.4303, 0.4779, 0.4544, 0.4796, 0.4272, 0.4906, 0.4566,
        0.4408, 0.4348, 0.4320, 0.4427, 0.4840, 0.4939, 0.4895, 0.4726, 0.4686,
        0.4780, 0.4964, 0.5298, 0.4402, 0.4677, 0.4804, 0.4557, 0.5017, 0.5032,
        0.3833, 0.4678, 0.4609, 0.4796, 0.4748, 0.4095, 0.4463, 0.4183, 0.5062,
        0.4535, 0.4387, 0.3578, 0.4723, 0.4448, 0.4148, 0.4559, 0.4592, 0.4468,
        0.5026, 0.4615, 0.4339, 0.4470, 0.4898, 0.4499, 0.4600, 0.4992, 0.4969,
        0.4517, 0.4729, 0.4777, 0.4864, 0.4367, 0.4689, 0.4983, 0.4886, 0.4676,
        0.4538, 0.4715, 0.4816, 0.4993, 0.4436, 0.4836, 0.4722, 0.5058, 0.4930,
        0.4645, 0.4678, 0.4770, 0.4982, 0.4861, 0.4405, 0.4446, 0.4623, 0.4488,
        0.4855, 0.4716, 0.4264, 0.4657, 0.4912, 0.4357, 0.4505, 0.4845, 0.4502,
        0.4933, 0.4492, 0.5334, 0.5011, 0.4840, 0.4215, 0.4350, 0.4716, 0.4556,
        0.4772, 0.4928, 0.5106, 0.5034, 0.4656, 0.4688, 0.4471, 0.4567, 0.5015,
        0.4069, 0.4189, 0.5276, 0.4706, 0.4515, 0.4478, 0.4494, 0.3872, 0.4808,
        0.4595, 0.5047, 0.4678, 0.4866, 0.4664, 0.4881, 0.4792, 0.4650, 0.4730,
        0.5155, 0.4298, 0.4787, 0.4548, 0.4545, 0.4553, 0.4519, 0.4575, 0.4834,
        0.4923, 0.4746, 0.5247, 0.5027, 0.4556, 0.5042, 0.4441, 0.4602, 0.5005,
        0.4345, 0.4705, 0.4547, 0.4013, 0.3990, 0.4170, 0.4496, 0.4758, 0.4740,
        0.4799, 0.5127, 0.4881, 0.4506, 0.5061, 0.4428, 0.3489, 0.4572, 0.4700,
        0.4459, 0.4615, 0.4642, 0.4182, 0.4738, 0.4236, 0.5298, 0.4843, 0.4798,
        0.4491, 0.4337, 0.4662, 0.4608, 0.4442, 0.4934, 0.4574, 0.5202, 0.4721,
        0.4848, 0.4685, 0.4904, 0.4263, 0.4213, 0.4683, 0.4703, 0.4985, 0.4869,
        0.3678, 0.4594, 0.4977, 0.4696, 0.4674, 0.4839, 0.4642, 0.4452, 0.4495,
        0.4404, 0.4992, 0.4618, 0.4621, 0.3846, 0.4576, 0.4861, 0.4350, 0.4851,
        0.3909, 0.4395, 0.4803, 0.5088, 0.4744, 0.4327, 0.4759, 0.4680, 0.3922,
        0.4283, 0.4656, 0.4735, 0.4853, 0.4425, 0.4201, 0.4279, 0.4589, 0.5289,
        0.4830, 0.4880, 0.5166, 0.4971, 0.4228, 0.4189, 0.4550, 0.5024, 0.4833,
        0.5159, 0.4557, 0.4692, 0.4430, 0.4784, 0.4130, 0.4302, 0.4828, 0.4097,
        0.4478, 0.4644, 0.4286, 0.4295, 0.5135, 0.4051, 0.4552, 0.5012, 0.4305,
        0.4358, 0.4976, 0.4727, 0.4445, 0.4102, 0.4430, 0.4672, 0.4179, 0.4561,
        0.4705, 0.4607, 0.4145, 0.4309, 0.4743, 0.4387, 0.5096, 0.4990, 0.4501,
        0.4502, 0.4796, 0.4893, 0.4962, 0.4526, 0.4238, 0.4843, 0.3975, 0.4478,
        0.4770, 0.4776, 0.4659, 0.3864, 0.4717, 0.4580, 0.4654, 0.4431, 0.4829,
        0.4850, 0.4906, 0.4338, 0.5129, 0.4477, 0.4820, 0.4511, 0.4762, 0.4189,
        0.4207, 0.4480, 0.4687, 0.4334, 0.5278, 0.4584, 0.4940, 0.5419, 0.4923,
        0.4734, 0.4429, 0.4699, 0.5034, 0.4252, 0.4054, 0.5014, 0.4538, 0.4833,
        0.4353, 0.4271, 0.4925, 0.4479, 0.5091, 0.4669, 0.5170, 0.4428, 0.4832,
        0.4179, 0.4969, 0.4808, 0.4408, 0.4558, 0.4942, 0.4814, 0.4560, 0.4611,
        0.4374, 0.4244, 0.4767, 0.4694, 0.5136, 0.4731, 0.4474, 0.5011, 0.4213,
        0.4911, 0.5098, 0.4594, 0.4521, 0.4479, 0.4455, 0.4972, 0.4268, 0.4953,
        0.4782, 0.4352, 0.4625, 0.4527, 0.5030, 0.5091, 0.5226, 0.3782, 0.4519,
        0.4634, 0.4522, 0.4863, 0.3639, 0.4445, 0.4609, 0.4452, 0.4877, 0.4945,
        0.4940, 0.4631, 0.4913, 0.4939, 0.4463, 0.4160, 0.4353, 0.4907, 0.4615,
        0.4751, 0.4767, 0.4805, 0.5013, 0.5170, 0.4767, 0.4185, 0.4103, 0.4153,
        0.4682, 0.4984, 0.4850, 0.5004, 0.4475, 0.4737, 0.4730, 0.4331, 0.4346,
        0.4425, 0.4487, 0.4585, 0.3717, 0.4957, 0.4725, 0.4544, 0.4759, 0.4436,
        0.4970, 0.4551, 0.4169, 0.4450, 0.4594, 0.5068, 0.4289, 0.4459, 0.4504,
        0.4369, 0.4512, 0.4485, 0.4605, 0.4386, 0.4522, 0.3853, 0.4808, 0.5006,
        0.4395, 0.3999, 0.4869, 0.4699, 0.4064, 0.3939, 0.4771, 0.4220, 0.4604,
        0.4463, 0.4864, 0.4889, 0.4258, 0.4427, 0.4215, 0.4271, 0.4458, 0.4886,
        0.5061, 0.5035, 0.4235, 0.4904, 0.4509, 0.4378, 0.4499, 0.4526, 0.4969,
        0.5063, 0.4935, 0.4741, 0.4884, 0.5013, 0.5046, 0.4561, 0.5063, 0.4704,
        0.4582, 0.4737, 0.4520, 0.3822, 0.4429, 0.4165, 0.4617, 0.4027, 0.4381,
        0.4623, 0.4712, 0.4739, 0.4574, 0.4704, 0.4727, 0.4246, 0.4561, 0.5141,
        0.4514, 0.4474, 0.4354, 0.4439, 0.4598, 0.4670, 0.4562, 0.4268, 0.4577,
        0.4519, 0.4819, 0.4615, 0.4438, 0.4968, 0.4985, 0.3732, 0.4428, 0.4047,
        0.4921, 0.3689, 0.4767, 0.4273, 0.4838, 0.4980, 0.4713, 0.4356, 0.4666,
        0.4307, 0.4521, 0.4763, 0.4077, 0.4626, 0.4833, 0.4430, 0.5028])
net.mlp.net.3.batch_norm.bias tensor([-0.0218, -0.0436,  0.0078, -0.0052,  0.0356, -0.0237, -0.1573, -0.0196,
        -0.0425,  0.0067,  0.0136,  0.0169, -0.0567,  0.0568, -0.0022,  0.0119,
        -0.0188, -0.0313, -0.0610, -0.0191,  0.1288,  0.0007,  0.0475, -0.0256,
        -0.0026, -0.0409,  0.0072,  0.0424, -0.0194, -0.0309, -0.0007, -0.0620,
        -0.0064, -0.0363, -0.0280, -0.0127,  0.0055,  0.0347,  0.0152,  0.0475,
        -0.0176, -0.0509, -0.0570, -0.0193, -0.0245, -0.0090,  0.0079, -0.0279,
        -0.0477, -0.0100, -0.0076, -0.0089,  0.0694, -0.0184,  0.0147, -0.0029,
         0.0260,  0.0099,  0.0361,  0.0414, -0.0315, -0.0236,  0.0027, -0.0485,
        -0.0036,  0.0495, -0.0571,  0.0258, -0.0027, -0.0044,  0.0850,  0.0238,
         0.0522, -0.0116, -0.0436,  0.0262,  0.0032,  0.0053, -0.0283, -0.0187,
        -0.0483, -0.0349, -0.0208, -0.0535,  0.0262,  0.0157, -0.0390,  0.0328,
         0.0066,  0.0061,  0.0040,  0.0269,  0.0020, -0.0478,  0.0426, -0.0562,
        -0.0269, -0.0215, -0.0010,  0.0489, -0.0595, -0.0154,  0.0382,  0.0077,
        -0.0481,  0.0257,  0.0298,  0.0553,  0.0052, -0.0440, -0.0145,  0.0204,
         0.0408, -0.0512, -0.0735,  0.0411,  0.0606,  0.0327, -0.0157,  0.0068,
        -0.0329,  0.0385,  0.0369,  0.0086, -0.0486,  0.0542,  0.0142,  0.0472,
        -0.0246,  0.0187, -0.0310,  0.0216, -0.0460,  0.0781,  0.0050, -0.0168,
        -0.0552, -0.0102,  0.0675,  0.0761,  0.0193,  0.0938,  0.0021, -0.0200,
        -0.0311, -0.0456, -0.0159,  0.0462, -0.0101,  0.0388, -0.0785,  0.0054,
         0.0003, -0.0101,  0.0037, -0.0274,  0.1105,  0.0290, -0.0161, -0.0211,
        -0.0446,  0.0145, -0.0464,  0.0062,  0.0237, -0.0562,  0.0038, -0.0408,
         0.0224,  0.0157, -0.0139,  0.0305, -0.0218, -0.0356, -0.0404, -0.0496,
         0.0290, -0.0070,  0.0183,  0.0117, -0.0192, -0.0352,  0.0802, -0.0672,
        -0.0114, -0.0281,  0.0329,  0.0134, -0.0104, -0.0110,  0.0288,  0.0307,
         0.0088, -0.0400, -0.0307,  0.0058,  0.0718, -0.0033,  0.0707, -0.0065,
         0.0089,  0.0650,  0.0597, -0.0005,  0.0034,  0.1014, -0.0503,  0.0585,
        -0.0041,  0.0152,  0.0231, -0.0205, -0.0105,  0.0103,  0.0851,  0.0134,
        -0.0339,  0.0026,  0.0192, -0.0190, -0.0453,  0.0290, -0.0069,  0.0260,
         0.0508,  0.0323,  0.0109,  0.0414, -0.0463,  0.0048, -0.0310,  0.0040,
        -0.0332, -0.0140, -0.0315,  0.0372,  0.0397, -0.0063,  0.0630,  0.0253,
         0.0187,  0.0393, -0.0074, -0.0303, -0.0143,  0.0104, -0.0430,  0.0503,
        -0.0320, -0.0491, -0.0131,  0.0062,  0.0939, -0.0434,  0.0083,  0.0120,
        -0.0047, -0.0174,  0.0215, -0.0030, -0.0063,  0.0405, -0.0173, -0.0246,
         0.0143, -0.0298,  0.0256,  0.0008,  0.0182, -0.0136, -0.0231,  0.0366,
        -0.0753, -0.0067, -0.0014, -0.0244,  0.0125, -0.0096,  0.0344, -0.0553,
         0.0238, -0.0081,  0.0118, -0.0433,  0.0120, -0.0125, -0.0176, -0.0126,
         0.0299,  0.0043,  0.0789,  0.0020, -0.0248, -0.0113,  0.0047, -0.0068,
        -0.0012,  0.0805,  0.0238,  0.0055,  0.0406,  0.0094, -0.0343, -0.0388,
        -0.0007, -0.0130,  0.0158,  0.0388,  0.0092,  0.0029,  0.0425, -0.0154,
        -0.0235, -0.0209, -0.0009, -0.0753, -0.0716,  0.0250,  0.1067,  0.0336,
         0.0141, -0.0501,  0.0650,  0.0501,  0.0164,  0.0266, -0.0646, -0.0247,
         0.0478,  0.0438,  0.0346, -0.0148, -0.0066, -0.0862, -0.1019, -0.0084,
        -0.0508,  0.0192, -0.0251, -0.0362,  0.0766, -0.0316,  0.0597,  0.0073,
