Weights: 
embeddings.embeddings.0.weight tensor([[ 0.0898, -0.1604],
        [-0.3162,  0.2327],
        [ 0.0470, -0.1475],
        [-0.2211, -0.1021]])
embeddings.embeddings.1.weight tensor([[ 0.1702,  0.1321],
        [-0.1815, -0.1359],
        [ 0.1547,  0.2115],
        [ 0.1846,  0.3197],
        [ 0.2654, -0.0312]])
embeddings.embeddings.2.weight tensor([[-0.1776,  0.1093,  0.1445],
        [-0.1013, -0.1842,  0.0352],
        [-0.1072,  0.3387, -0.1392],
        [ 0.0342, -0.1746, -0.0505],
        [-0.2004,  0.0944, -0.1808],
        [-0.0461, -0.2338, -0.0849]])
embeddings.embeddings.3.weight tensor([[ 0.1625,  0.0553],
        [ 0.0568, -0.2655],
        [-0.2968, -0.0960],
        [-0.3723,  0.5192]])
embeddings.embeddings.4.weight tensor([[ 0.1278,  0.0043],
        [-0.0753,  0.3951],
        [ 0.0039, -0.2291],
        [-0.2863, -0.1504]])
mlp.net.0.linear.weight tensor([[ 0.0036,  0.1780, -0.0771,  ...,  0.1958, -0.2964, -0.1253],
        [-0.0689, -0.2775, -0.0148,  ...,  0.2751,  0.3775,  0.2720],
        [-0.0060,  0.0840, -0.1850,  ...,  0.0736, -0.2159,  0.1719],
        ...,
        [-0.0655,  0.1233, -0.2876,  ...,  0.1745, -0.0283, -0.0136],
        [ 0.1345,  0.1081, -0.1640,  ..., -0.0704,  0.3050, -0.0006],
        [-0.1266,  0.0495, -0.0767,  ..., -0.0094,  0.0701,  0.0588]])
mlp.net.0.linear.bias tensor([ 0.0255, -0.0151,  0.1759, -0.1545, -0.0606, -0.0665, -0.0297,  0.0864,
        -0.0778,  0.0900,  0.0806, -0.0279, -0.0004, -0.0174, -0.0205, -0.0981,
         0.0290, -0.0328,  0.0206,  0.0755, -0.0545,  0.0358, -0.0395, -0.1098,
        -0.0405, -0.0116, -0.0671,  0.0087,  0.1440, -0.0654, -0.0765,  0.0049,
         0.1435, -0.0111,  0.0693, -0.0268, -0.0718,  0.0989,  0.0730,  0.0180,
         0.0371, -0.1821, -0.0852,  0.1421,  0.0847,  0.0713,  0.0235, -0.0828,
         0.0294, -0.0859,  0.0302,  0.0676, -0.0121, -0.0680, -0.0701,  0.1451,
        -0.0021,  0.0216, -0.0904,  0.0767,  0.0874,  0.0956,  0.1074,  0.0748,
         0.1098, -0.0691,  0.0184, -0.1154,  0.0748, -0.0142,  0.0217,  0.1354,
        -0.1009, -0.0863,  0.0866, -0.0429,  0.0430,  0.1309,  0.0731, -0.0092,
         0.0121, -0.0759,  0.1012, -0.0365, -0.0210,  0.0381,  0.2023,  0.0292,
        -0.1329, -0.0185,  0.0751, -0.0985,  0.0240, -0.1649,  0.0792,  0.1020,
         0.0479,  0.0837,  0.0717,  0.1736,  0.0245,  0.0440,  0.0868, -0.0548,
        -0.0078,  0.0571,  0.0375,  0.0315, -0.0014,  0.1456, -0.0489,  0.1446,
        -0.0876, -0.1616,  0.1338,  0.0753,  0.0851,  0.1215,  0.1259,  0.0451,
        -0.0976,  0.0004,  0.0449,  0.1129,  0.1022,  0.0349, -0.0995, -0.0952,
         0.2045,  0.0381, -0.0946,  0.0661,  0.1309, -0.0554,  0.0853,  0.0049,
        -0.0134,  0.0224, -0.1175,  0.1552,  0.1219, -0.0801,  0.1333, -0.0705,
        -0.0205, -0.0760,  0.0161,  0.0034,  0.0235,  0.1786,  0.0748,  0.0383,
         0.0023,  0.0043, -0.1029,  0.1831, -0.0872,  0.1281, -0.0494, -0.0772,
        -0.1136,  0.1696, -0.0079, -0.0272,  0.1106, -0.1179, -0.0408,  0.0521,
         0.0360,  0.0796, -0.0380,  0.0007, -0.0352,  0.0308,  0.0153,  0.0511,
        -0.0614, -0.1004,  0.0479,  0.0074,  0.0060,  0.1793, -0.2098, -0.1017,
         0.0024, -0.1306,  0.1494,  0.0235,  0.0561,  0.0915,  0.0912, -0.0242,
         0.0563,  0.1910, -0.0249, -0.0073, -0.0057, -0.0659, -0.0467, -0.1160,
        -0.0239,  0.0564, -0.1169,  0.1473, -0.0422, -0.1375,  0.1604,  0.0297,
        -0.0929, -0.0423, -0.1008, -0.0095,  0.0307, -0.2121,  0.0113, -0.1591,
        -0.0364,  0.0591, -0.1718,  0.0274,  0.0065, -0.1317,  0.0732,  0.0130,
         0.1128,  0.0202, -0.0761,  0.0819, -0.0341,  0.0176, -0.0079, -0.0266,
        -0.0065, -0.0155, -0.0174,  0.2657,  0.0075, -0.0216,  0.0217,  0.0198,
        -0.0455,  0.1197,  0.0127,  0.0042, -0.0471, -0.0242, -0.0383,  0.0582,
        -0.0351, -0.0622,  0.1571,  0.0303,  0.0558, -0.1021, -0.0816,  0.0812,
        -0.0256,  0.0471, -0.0084,  0.0257,  0.0487,  0.1270,  0.0364, -0.0872,
         0.0167,  0.1900, -0.0178,  0.0152,  0.1086, -0.1068,  0.0010, -0.0763,
         0.0227,  0.0487,  0.0951,  0.1384,  0.0457,  0.0111, -0.0194, -0.1994,
        -0.0579,  0.0794,  0.1641, -0.1264, -0.0195,  0.0044, -0.0069, -0.1392,
        -0.0235,  0.0471,  0.1054, -0.1405,  0.0844, -0.1338, -0.0230, -0.1209,
         0.0106, -0.0558, -0.0003, -0.0132,  0.0783,  0.0760, -0.0311,  0.0325,
        -0.1052,  0.0773, -0.0812, -0.0650, -0.1943, -0.1562,  0.0467,  0.1464,
        -0.1290,  0.0038,  0.1031,  0.0856,  0.0197, -0.1753,  0.0810, -0.1103,
        -0.0674,  0.0113,  0.1179,  0.1421,  0.0921,  0.0041, -0.0322, -0.0275,
        -0.0195, -0.1092, -0.0227, -0.0129,  0.1495,  0.2011,  0.0770,  0.0675,
         0.1787,  0.0054, -0.0565, -0.1474,  0.0817,  0.2241,  0.0622,  0.0565,
        -0.2505,  0.0648, -0.1074,  0.0930, -0.0007, -0.0297, -0.0897, -0.0556,
         0.1773, -0.1169, -0.1445,  0.1111, -0.1218,  0.0968, -0.1747,  0.1184,
        -0.1249,  0.0011,  0.0962, -0.1141,  0.0819,  0.0721, -0.0403,  0.0730,
         0.1062, -0.0779, -0.0350,  0.1694, -0.2604,  0.0793,  0.1295,  0.1236,
         0.1019, -0.0802, -0.1483,  0.0328,  0.1124,  0.0973,  0.1922,  0.0839,
         0.1064,  0.0442, -0.0038,  0.1648, -0.0454, -0.1441,  0.0012,  0.0968,
         0.1234,  0.1011,  0.0028,  0.2086, -0.1488,  0.0111, -0.0878, -0.0776,
         0.1344,  0.0344,  0.1008,  0.0472, -0.0501,  0.1315, -0.1345,  0.0486,
         0.0599, -0.0869,  0.0496, -0.0027, -0.1385,  0.1112,  0.0777,  0.0345,
         0.0120, -0.0456,  0.0930, -0.0787, -0.0228,  0.0404,  0.0666,  0.0705,
        -0.0278,  0.0340, -0.0903,  0.0152, -0.1533,  0.0622,  0.0965,  0.0518,
         0.0939,  0.0734,  0.1498, -0.0038,  0.0856,  0.0436,  0.0764, -0.0523,
        -0.0361,  0.0771, -0.0441, -0.0061,  0.1067,  0.1215, -0.1420,  0.1354,
         0.0010,  0.0590, -0.0880, -0.0947, -0.0721,  0.0503, -0.0213, -0.0411,
        -0.0255,  0.0140,  0.2181,  0.0119,  0.1379, -0.0873, -0.1227, -0.0033,
         0.1228, -0.0013,  0.0353,  0.0171,  0.0716,  0.0936,  0.0378, -0.0925,
         0.1420, -0.2122,  0.1471,  0.0422, -0.1140,  0.0791,  0.0076, -0.0599,
         0.0158,  0.1874, -0.0337,  0.0396,  0.0352, -0.0777, -0.1482, -0.0785,
         0.0130, -0.1047, -0.0595,  0.1560, -0.0391, -0.1174, -0.0480,  0.0263,
         0.0310,  0.1058, -0.1129, -0.0897, -0.0627, -0.1390, -0.0253,  0.0021,
         0.0618,  0.0126, -0.1138,  0.0523,  0.0604, -0.0202,  0.0090, -0.0462])
mlp.net.0.batch_norm.weight tensor([0.4068, 0.3746, 0.4474, 0.3956, 0.4155, 0.4078, 0.4949, 0.4176, 0.4156,
        0.4366, 0.4204, 0.3263, 0.6067, 0.3492, 0.4838, 0.3917, 0.4051, 0.5124,
        0.5296, 0.3712, 0.4463, 0.5175, 0.4755, 0.4578, 0.3878, 0.2853, 0.5277,
        0.3390, 0.3753, 0.2949, 0.4073, 0.5647, 0.4096, 0.4469, 0.4579, 0.5110,
        0.4007, 0.4113, 0.4617, 0.4172, 0.5353, 0.4091, 0.4157, 0.3133, 0.3522,
        0.3199, 0.4913, 0.4063, 0.4794, 0.4242, 0.3058, 0.4470, 0.3780, 0.3349,
        0.4267, 0.4537, 0.5094, 0.3103, 0.4771, 0.5032, 0.3932, 0.3858, 0.2595,
        0.5312, 0.3585, 0.3261, 0.3725, 0.4078, 0.4649, 0.2312, 0.4623, 0.5422,
        0.5662, 0.2645, 0.3922, 0.4061, 0.4789, 0.4383, 0.5020, 0.4357, 0.3204,
        0.4124, 0.3085, 0.3330, 0.4068, 0.4329, 0.5264, 0.3932, 0.4800, 0.3150,
        0.4687, 0.4585, 0.4984, 0.3997, 0.4676, 0.4286, 0.4048, 0.5446, 0.3803,
        0.4870, 0.4229, 0.5668, 0.4651, 0.4288, 0.2881, 0.4141, 0.4255, 0.5949,
        0.5469, 0.4505, 0.3569, 0.5688, 0.4358, 0.4267, 0.3364, 0.5344, 0.3513,
        0.3697, 0.4596, 0.2991, 0.2956, 0.3981, 0.3449, 0.2949, 0.3449, 0.4873,
        0.4869, 0.4152, 0.5225, 0.4168, 0.4044, 0.3389, 0.5188, 0.4238, 0.6929,
        0.4292, 0.5523, 0.3830, 0.4358, 0.4131, 0.4707, 0.4761, 0.4676, 0.4144,
        0.3790, 0.3877, 0.3746, 0.4601, 0.3088, 0.5248, 0.4402, 0.4170, 0.3771,
        0.3031, 0.4238, 0.3986, 0.3932, 0.3738, 0.4513, 0.3879, 0.2469, 0.4998,
        0.4350, 0.3286, 0.2783, 0.4605, 0.4147, 0.2826, 0.4488, 0.3884, 0.3885,
        0.4096, 0.5656, 0.5057, 0.4102, 0.5379, 0.5029, 0.4026, 0.3268, 0.5420,
        0.5105, 0.4309, 0.3937, 0.4661, 0.3779, 0.5088, 0.3731, 0.4669, 0.5122,
        0.3908, 0.3564, 0.4504, 0.3489, 0.2415, 0.3850, 0.4966, 0.5115, 0.4677,
        0.5837, 0.4049, 0.5515, 0.5505, 0.3851, 0.4683, 0.3164, 0.3782, 0.5061,
        0.4161, 0.5481, 0.3069, 0.4565, 0.4170, 0.4097, 0.3886, 0.4125, 0.3445,
        0.2995, 0.3701, 0.4217, 0.4688, 0.5538, 0.3702, 0.5777, 0.3363, 0.4874,
        0.5594, 0.2387, 0.4629, 0.5672, 0.4845, 0.3832, 0.3804, 0.4572, 0.4915,
        0.3243, 0.5873, 0.2542, 0.6415, 0.3756, 0.5466, 0.4540, 0.4253, 0.6240,
        0.3909, 0.3854, 0.3653, 0.5205, 0.5382, 0.4270, 0.2470, 0.4196, 0.3361,
        0.4079, 0.4079, 0.2890, 0.3849, 0.3317, 0.3381, 0.4311, 0.2985, 0.2488,
        0.3071, 0.4605, 0.4646, 0.3905, 0.3264, 0.4511, 0.4705, 0.5930, 0.3180,
        0.4594, 0.3621, 0.4035, 0.4139, 0.4914, 0.4675, 0.2398, 0.4743, 0.4169,
        0.5391, 0.3852, 0.3737, 0.3758, 0.4108, 0.5218, 0.4225, 0.5527, 0.2828,
        0.4038, 0.4174, 0.4878, 0.3894, 0.3722, 0.3165, 0.4051, 0.3962, 0.4212,
        0.4848, 0.3868, 0.3492, 0.3554, 0.5075, 0.5597, 0.3409, 0.4614, 0.4018,
        0.4089, 0.4814, 0.2998, 0.4385, 0.4587, 0.4724, 0.4658, 0.4280, 0.3526,
        0.5047, 0.4350, 0.3072, 0.4669, 0.4160, 0.5625, 0.4115, 0.3922, 0.4465,
        0.2899, 0.3768, 0.4958, 0.4351, 0.4534, 0.3766, 0.3212, 0.4292, 0.5332,
        0.3197, 0.3477, 0.3736, 0.4171, 0.2715, 0.4226, 0.3650, 0.4959, 0.5247,
        0.4704, 0.3665, 0.6715, 0.4499, 0.4416, 0.4180, 0.3671, 0.4041, 0.3794,
        0.3687, 0.4334, 0.4209, 0.4125, 0.3876, 0.2462, 0.2627, 0.5034, 0.4375,
        0.4343, 0.4208, 0.3759, 0.3871, 0.4711, 0.4583, 0.3666, 0.4970, 0.4298,
        0.4089, 0.3620, 0.3521, 0.5848, 0.4178, 0.4492, 0.4886, 0.3316, 0.3224,
        0.2413, 0.5525, 0.3164, 0.4285, 0.3935, 0.3826, 0.4559, 0.3367, 0.6577,
        0.4111, 0.3225, 0.4184, 0.4148, 0.3727, 0.4335, 0.5075, 0.4265, 0.3661,
        0.5908, 0.4410, 0.2809, 0.4779, 0.3954, 0.5254, 0.3295, 0.4824, 0.3863,
        0.4161, 0.5012, 0.2783, 0.2913, 0.4174, 0.4689, 0.3829, 0.4272, 0.4100,
        0.3700, 0.3383, 0.3538, 0.3250, 0.4392, 0.4131, 0.3604, 0.3503, 0.4582,
        0.3650, 0.5568, 0.3808, 0.2795, 0.4175, 0.4340, 0.2884, 0.5592, 0.3246,
        0.3168, 0.3790, 0.5290, 0.3959, 0.2413, 0.2593, 0.3882, 0.3950, 0.4016,
        0.3553, 0.4264, 0.3429, 0.3320, 0.3126, 0.4034, 0.4435, 0.3657, 0.4561,
        0.4427, 0.3702, 0.4302, 0.5615, 0.3111, 0.4266, 0.3743, 0.3761, 0.5509,
        0.3877, 0.4583, 0.5124, 0.3949, 0.3933, 0.4356, 0.3918, 0.3682, 0.4489,
        0.5389, 0.4822, 0.4273, 0.3772, 0.3981, 0.3970, 0.4139, 0.4353, 0.4302,
        0.4399, 0.5014, 0.4717, 0.2146, 0.5000, 0.4016, 0.3180, 0.4799, 0.5764,
        0.4071, 0.4442, 0.3997, 0.3074, 0.3523, 0.5930, 0.4027, 0.4021, 0.4757,
        0.4166, 0.2869, 0.3888, 0.4482, 0.4548, 0.4320, 0.4122, 0.4192, 0.2979,
        0.3574, 0.3793, 0.3735, 0.2077, 0.4019, 0.4676, 0.3515, 0.3991])
mlp.net.0.batch_norm.bias tensor([ 7.9910e-02,  4.7861e-02,  2.5185e-02,  8.8102e-02, -6.0612e-02,
         6.8848e-02,  9.6943e-02, -7.2226e-02,  6.4297e-02, -1.4852e-02,
        -1.0129e-01,  2.3625e-02, -1.0345e-01,  8.0653e-02,  5.4036e-02,
        -2.1562e-03, -3.6847e-02,  1.5609e-01, -5.4904e-02, -5.9812e-03,
        -1.6559e-01, -7.3670e-02, -5.8495e-02,  1.0464e-01,  9.7147e-02,
         4.8722e-02,  1.6851e-02,  4.1699e-02, -1.1355e-01,  1.0493e-01,
        -5.7163e-02,  4.1826e-02,  7.0008e-02, -6.2079e-02, -1.3136e-01,
        -4.0725e-02,  2.9153e-02,  4.7087e-02,  1.0719e-01,  4.5477e-03,
        -6.5145e-02,  1.1799e-01, -1.3638e-01, -1.2196e-01,  5.0975e-03,
         3.3494e-03,  1.7694e-02,  1.0681e-01, -1.3889e-01,  3.1519e-02,
        -2.6102e-02,  5.1553e-02, -3.9706e-02,  4.3846e-02,  4.4412e-02,
        -2.4972e-02,  6.1813e-02,  5.0039e-02, -4.6647e-02, -1.9895e-01,
        -7.3051e-02, -5.4920e-02, -2.1718e-02, -6.3847e-02,  3.5722e-02,
        -2.8982e-02, -6.7394e-02, -1.1093e-01,  5.6094e-03, -5.0198e-02,
        -2.2662e-02, -1.8570e-01, -4.2445e-02,  3.9478e-02,  1.0767e-01,
        -1.3241e-01, -4.5359e-02, -5.6449e-02, -6.3576e-02,  5.3270e-02,
         8.2971e-02, -2.5431e-02, -2.3629e-02, -5.6026e-02,  1.1259e-01,
         5.2256e-02, -1.1192e-01, -4.5632e-02, -6.3293e-02,  2.1314e-01,
        -1.5979e-01, -3.2834e-02,  4.0568e-02, -1.3554e-01,  9.5516e-02,
         9.8149e-02,  4.3776e-02,  2.0819e-02, -1.2605e-01, -1.2061e-01,
         6.3870e-02, -3.2390e-02,  5.3598e-02, -1.7562e-02,  4.3014e-02,
         1.7313e-01, -4.1950e-02,  2.1730e-02, -4.1462e-02,  5.8598e-02,
        -2.6419e-02, -1.1472e-01, -1.4462e-01, -3.6766e-02, -1.0796e-02,
         3.0201e-02,  6.3449e-02,  8.4207e-02, -4.6547e-02,  5.6024e-02,
        -1.1323e-03, -9.6951e-02, -5.2187e-03,  2.6843e-02,  1.8223e-02,
        -1.0997e-01,  4.7711e-02,  2.8098e-02, -1.0029e-02, -7.3737e-02,
         7.9849e-02,  9.3054e-02,  5.3016e-02,  7.0421e-02,  9.1162e-02,
         8.7376e-02,  1.6709e-01, -5.7378e-02,  6.8529e-02, -8.3376e-02,
        -4.2356e-02, -6.5048e-02, -8.6063e-02,  5.4796e-02,  3.0519e-02,
         1.8908e-01,  4.4596e-03,  7.6986e-02,  6.4187e-02,  3.8794e-02,
        -6.3722e-02, -1.4266e-01, -7.0536e-02,  1.5606e-02, -2.8491e-03,
         3.3958e-02,  2.2764e-02,  6.5797e-02,  3.8522e-02,  8.6613e-02,
        -1.8472e-01,  3.4323e-03,  5.4724e-02,  5.5194e-02, -3.3433e-02,
        -6.8239e-03, -4.2623e-02, -9.0329e-02, -9.0235e-02, -6.1080e-02,
        -7.6314e-02, -1.9847e-01, -7.3668e-02, -9.4739e-02,  2.7179e-02,
         1.7344e-02,  3.5715e-02,  2.3349e-02,  1.2460e-01, -8.7736e-02,
         1.6856e-01, -1.3528e-02,  8.2541e-02,  8.5076e-03,  1.3776e-01,
        -8.4232e-02,  1.0900e-02,  1.4861e-01,  8.7110e-02,  6.3570e-02,
         1.1037e-02,  1.2206e-01, -1.0525e-01,  8.3965e-02,  8.2697e-02,
        -1.2069e-01, -3.2455e-02, -6.2055e-02, -2.9608e-03, -3.3240e-02,
        -2.0966e-01,  2.7600e-02,  5.6018e-02,  5.7270e-03, -1.5282e-01,
         1.8454e-02, -4.0471e-02, -4.2380e-02,  2.1284e-01,  3.1963e-02,
        -8.0473e-02,  3.6027e-02,  7.2094e-02,  1.7393e-02, -1.9393e-01,
        -4.1484e-02, -1.1713e-01, -8.0481e-02, -6.5674e-02,  3.0774e-02,
        -1.1603e-02, -3.9814e-02, -1.7368e-01, -2.8543e-02, -9.4986e-02,
         5.6179e-02, -9.8801e-03,  4.4191e-02,  1.6172e-03, -1.5355e-01,
         5.8801e-02,  1.6913e-02, -4.5010e-02, -1.2053e-01, -2.3270e-02,
         6.3301e-03,  1.8331e-01, -7.7029e-02, -2.7438e-02, -4.1660e-02,
         9.4587e-02, -4.7093e-03,  6.1194e-02, -4.4998e-02, -4.0753e-02,
         9.7632e-02,  8.3979e-02,  7.0269e-02,  1.8742e-01, -4.3981e-02,
        -1.4442e-01, -2.8323e-02,  6.4850e-02,  3.9055e-02, -8.4690e-02,
         5.7966e-02, -6.2980e-02, -2.0759e-02,  2.4905e-03, -1.5155e-01,
        -5.4188e-02,  4.4158e-02, -1.0502e-01,  3.2144e-02, -6.0899e-02,
         1.0538e-01, -3.4116e-02, -5.8277e-02, -2.0878e-02,  2.4979e-02,
        -8.3157e-02, -1.5472e-02, -6.1021e-02, -1.0997e-01,  4.5587e-02,
         8.8481e-04, -7.9195e-02,  8.1861e-02, -4.4922e-02, -4.6937e-02,
        -7.3560e-02, -7.0444e-02, -2.7850e-02,  1.2175e-02,  1.0391e-01,
        -4.7714e-02, -9.0186e-04, -1.1357e-01,  1.3014e-02,  3.1644e-02,
        -1.2780e-02, -9.0911e-03, -1.2882e-01, -2.1925e-02, -5.4283e-02,
        -1.8628e-02,  1.1000e-02, -9.5843e-03, -2.5643e-03,  5.7769e-02,
         4.2204e-03,  1.2330e-01,  1.6766e-01, -6.8791e-02, -3.8160e-02,
         7.8316e-02,  3.4968e-02, -8.9804e-02,  4.7951e-02, -6.6766e-02,
        -2.1985e-01,  1.0491e-01, -1.2546e-01, -9.4281e-02, -5.6485e-02,
        -7.7634e-03, -6.7479e-02, -1.1504e-01,  8.8862e-02,  1.8392e-02,
        -1.7820e-02,  4.0936e-02, -7.6731e-03, -8.2430e-02,  2.0089e-02,
        -1.1322e-02,  1.6902e-02, -8.4685e-02,  8.6419e-02,  7.1438e-02,
         5.9782e-03,  1.4051e-01,  9.4613e-03, -1.6486e-02, -1.8391e-01,
         8.6292e-02, -1.7120e-02, -3.9432e-02,  3.1629e-02, -1.2727e-01,
         4.1440e-02, -3.2129e-01, -2.2116e-01,  9.5264e-02,  1.0744e-02,
         2.9756e-03, -6.4212e-02, -8.2248e-02, -1.1984e-02,  9.5493e-02,
        -8.3805e-02, -6.1063e-02,  6.0751e-02,  7.3255e-02,  5.7364e-02,
        -8.8487e-02, -1.2754e-01, -1.1651e-01, -1.4965e-02, -6.6541e-02,
         9.1997e-02,  1.5430e-02, -7.5872e-02,  1.4902e-02,  1.9768e-02,
        -1.8714e-02,  9.8897e-03, -4.7232e-02,  1.2678e-01, -1.1195e-01,
         5.3936e-02,  9.5703e-02, -2.7282e-02,  6.7473e-02,  3.2642e-02,
        -4.6580e-02, -4.6220e-02, -5.5622e-02, -7.9185e-02, -1.3401e-01,
         7.7152e-02,  1.0640e-01,  7.7321e-02,  5.4087e-02, -2.7524e-02,
        -3.1631e-02, -1.2909e-01, -7.6234e-02,  2.0389e-01, -1.5529e-02,
        -4.2968e-02, -5.6111e-02,  1.4714e-02, -1.2336e-01,  1.6825e-02,
        -9.6212e-02, -7.5749e-02, -1.0854e-01,  2.1019e-02,  4.5349e-02,
        -9.7448e-03, -1.5631e-01,  5.6911e-03,  5.5415e-02,  1.1021e-01,
        -1.0105e-01, -1.3411e-01,  5.8063e-02, -9.6004e-03,  1.5539e-01,
         2.2058e-02,  7.6985e-03,  5.2846e-02,  5.6714e-02,  4.3089e-02,
         3.1581e-02,  1.4751e-02,  7.0070e-02,  8.4770e-02, -7.5489e-02,
        -9.3997e-03, -8.6709e-02, -7.7943e-04,  4.8810e-02,  2.3673e-01,
        -9.9607e-02, -8.2603e-02,  1.0922e-01, -3.0026e-02,  1.5086e-01,
        -1.4891e-02,  1.1375e-01, -8.3288e-02, -9.3429e-02,  7.4791e-02,
        -1.1882e-01,  2.0110e-03, -4.7007e-02,  7.8593e-02, -9.0994e-02,
        -4.0587e-02, -1.3231e-01,  4.3497e-02,  2.3437e-02, -5.0450e-02,
         1.4612e-04,  1.1777e-01,  7.9411e-03,  8.2560e-03, -2.2483e-02,
        -1.3374e-01,  1.7386e-03,  1.3644e-01, -1.4017e-02, -1.3142e-01,
         2.1145e-03,  9.1221e-04,  1.5805e-01, -8.8035e-02, -7.0927e-02,
         9.0113e-02,  6.9621e-02,  1.3161e-02, -4.2192e-02, -2.0084e-02,
         6.7876e-03, -5.0859e-02, -4.8057e-02,  1.1882e-01,  1.6189e-01,
        -3.3022e-02, -2.6768e-02,  5.3505e-02, -4.1886e-03,  2.0477e-02,
        -1.3620e-01,  8.5643e-02,  1.5257e-02, -2.3090e-02, -1.3991e-01,
        -7.1158e-02, -1.9431e-02,  1.4451e-02, -2.1200e-02,  2.2532e-01,
        -7.6395e-02,  1.2112e-02,  6.0246e-02, -4.8208e-02, -2.8138e-02,
         2.3576e-02,  9.8002e-02, -7.8388e-02,  3.8097e-02, -6.0449e-03,
         9.1065e-02, -4.8968e-02,  9.4390e-02,  7.8911e-02,  8.5860e-02,
         2.9224e-02,  1.3509e-02, -3.8390e-02,  1.0711e-01, -7.6769e-02,
         1.7024e-02, -4.7379e-02,  8.3709e-02,  5.0949e-02, -1.4708e-03,
        -1.3113e-01,  2.1639e-02])
mlp.net.0.batch_norm.running_mean tensor([2.5517e-01, 1.7801e-02, 2.6312e-01, 7.5283e-18, 5.2088e-03, 1.0117e-03,
        1.3838e-02, 3.9248e-01, 1.1110e-16, 1.2372e-01, 9.7687e-02, 3.3316e-02,
        1.4310e-01, 1.8172e-05, 2.1746e-04, 8.5586e-29, 6.1395e-02, 1.2072e-02,
        1.3012e-01, 4.4074e-02, 9.4545e-06, 4.5944e-03, 4.0897e-02, 3.6352e-01,
        8.1385e-02, 3.6474e-01, 1.1234e-01, 4.6132e-01, 2.1634e-01, 1.5234e-01,
        2.0249e-07, 1.7616e-01, 1.4090e-01, 8.5534e-03, 7.0999e-02, 6.6050e-03,
        2.2251e-01, 3.6272e-02, 9.4673e-02, 1.6398e-01, 1.3082e-01, 6.0751e-03,
        7.3519e-03, 2.8569e-01, 3.3220e-01, 5.2837e-01, 1.8867e-03, 1.2896e-14,
        3.6036e-01, 9.9313e-02, 1.5836e-02, 3.5086e-01, 1.2550e-01, 2.5188e-01,
        5.8334e-08, 4.7146e-01, 1.2972e-01, 2.2805e-01, 1.1878e-17, 6.5645e-02,
        4.1838e-01, 3.4412e-01, 1.4804e-01, 3.9341e-01, 3.3682e-01, 7.3029e-03,
        1.6345e-01, 5.2833e-06, 1.3029e-02, 1.7261e-01, 1.2330e-01, 5.1803e-01,
        9.5301e-02, 8.1119e-06, 1.0579e-01, 1.3018e-01, 5.2119e-01, 1.7833e-01,
        2.2769e-01, 2.7632e-02, 2.8062e-04, 1.3534e-02, 3.7020e-01, 7.0359e-02,
        7.1235e-02, 2.7618e-01, 8.2781e-02, 3.0922e-01, 4.2210e-01, 1.8945e-01,
        1.7891e-01, 9.8958e-02, 2.1034e-01, 4.0667e-07, 1.8468e-01, 2.9103e-01,
        3.4807e-01, 2.1061e-01, 4.4919e-01, 5.3767e-01, 8.5907e-02, 2.4228e-01,
        4.2312e-02, 1.7712e-05, 1.0681e-01, 1.0298e-01, 3.7433e-01, 6.8688e-02,
        6.1651e-01, 2.6957e-01, 2.1798e-03, 3.9098e-01, 2.1999e-01, 8.7264e-07,
        3.0355e-01, 2.9048e-01, 5.8261e-01, 2.3961e-01, 1.2592e-01, 2.7221e-01,
        8.0431e-02, 2.0947e-01, 2.4612e-01, 4.2834e-01, 1.5880e-01, 2.2003e-02,
        3.2047e-02, 1.2023e-01, 4.7163e-01, 3.2643e-01, 7.7177e-06, 1.9128e-02,
        8.6542e-02, 8.1617e-03, 7.5458e-02, 2.2836e-01, 3.8135e-02, 9.2109e-02,
        1.5417e-05, 2.1105e-01, 4.5483e-01, 4.3509e-10, 4.3105e-01, 3.8296e-11,
        3.0727e-01, 8.2699e-02, 1.3646e-01, 1.5952e-01, 3.9773e-01, 2.9527e-01,
        2.5667e-01, 1.1409e-01, 6.0837e-02, 2.4642e-01, 8.7401e-04, 3.6230e-01,
        3.2139e-03, 4.9845e-01, 1.8558e-01, 2.9838e-02, 6.2508e-02, 1.8706e-01,
        6.5405e-03, 5.9186e-05, 1.6022e-01, 2.1890e-15, 7.1500e-02, 4.8755e-01,
        9.2996e-02, 3.6902e-02, 4.9295e-03, 1.4136e-03, 6.9991e-02, 6.6124e-03,
        2.3754e-01, 3.8183e-01, 1.4062e-04, 1.9882e-04, 3.4854e-01, 4.6441e-01,
        4.8893e-01, 5.3749e-01, 4.7506e-12, 2.6379e-02, 1.9895e-01, 5.4629e-16,
        2.0098e-01, 1.0880e-01, 4.5215e-01, 3.6727e-01, 1.7528e-01, 1.2025e-01,
        2.6500e-01, 5.3195e-01, 2.9803e-01, 5.7038e-02, 5.0090e-03, 5.0273e-06,
        1.3304e-01, 1.0410e-17, 2.6688e-02, 1.9077e-02, 3.2040e-29, 3.4007e-01,
        1.0863e-01, 1.7185e-16, 4.7538e-01, 5.0893e-03, 2.0922e-02, 8.3551e-02,
        2.7300e-02, 1.9576e-02, 5.0002e-02, 2.1439e-05, 4.1621e-03, 1.2732e-12,
        1.2895e-02, 1.9765e-01, 1.3517e-03, 7.6670e-02, 2.8687e-02, 1.0761e-01,
        5.5665e-01, 1.5127e-02, 4.3666e-01, 2.1931e-01, 8.6826e-02, 8.5855e-02,
        1.7868e-02, 4.6588e-01, 1.0562e-28, 7.9890e-25, 5.0873e-01, 4.4279e-01,
        9.8542e-02, 7.3522e-01, 2.9859e-02, 2.8041e-03, 6.3095e-03, 2.2034e-01,
        3.8215e-02, 4.4188e-02, 6.2634e-02, 5.0931e-01, 6.4957e-02, 2.9781e-03,
        4.0552e-02, 4.6908e-01, 2.5389e-01, 5.7066e-02, 4.4942e-01, 3.4151e-01,
        2.9015e-01, 4.1084e-05, 5.9106e-02, 1.2346e-01, 2.9588e-01, 8.1636e-02,
        1.8089e-01, 2.3207e-01, 2.4602e-01, 3.4199e-01, 3.5601e-01, 1.7216e-01,
        8.2757e-02, 4.9844e-01, 5.7045e-02, 5.0468e-01, 2.1731e-01, 2.7926e-02,
        8.0077e-02, 8.8518e-04, 1.8031e-01, 6.7267e-02, 1.3596e-01, 1.0664e-01,
        2.4356e-01, 4.0248e-01, 3.8151e-01, 2.9155e-03, 1.6238e-03, 3.6680e-01,
        4.4848e-01, 1.5608e-24, 1.6440e-02, 1.5886e-01, 9.1709e-02, 1.2460e-01,
        5.4239e-02, 1.9953e-01, 3.7312e-01, 8.2348e-02, 5.0423e-01, 2.0298e-01,
        4.4873e-03, 3.2164e-07, 2.5722e-01, 9.9231e-03, 7.2958e-01, 1.5504e-01,
        4.1726e-01, 4.3303e-02, 2.3474e-02, 8.7332e-03, 4.7117e-06, 2.9965e-01,
        1.7074e-02, 2.5892e-02, 4.1928e-11, 4.1009e-04, 9.1743e-02, 4.1355e-01,
        7.4513e-05, 2.2880e-02, 3.4037e-01, 2.1256e-01, 1.9000e-01, 8.3247e-15,
        1.8869e-01, 1.3598e-01, 2.3016e-02, 7.7308e-02, 1.5384e-01, 3.1918e-01,
        2.7334e-01, 2.1925e-01, 1.4527e-02, 1.3572e-01, 6.7287e-02, 3.6774e-29,
        1.7123e-01, 7.8876e-02, 3.5005e-01, 4.4392e-01, 6.4195e-02, 3.2342e-01,
        2.5370e-01, 1.6729e-01, 1.6699e-02, 1.8523e-25, 3.9177e-01, 5.3490e-01,
        1.7014e-01, 2.4096e-01, 2.9352e-14, 1.0406e-05, 7.0142e-04, 2.5441e-01,
        1.0439e-01, 1.7984e-01, 8.9745e-02, 6.0103e-02, 3.0562e-01, 2.8360e-13,
        2.1399e-16, 3.7492e-01, 1.4066e-01, 7.2556e-02, 3.5823e-15, 6.2683e-01,
        4.8608e-01, 1.2273e-02, 1.6607e-01, 8.9924e-17, 4.2750e-01, 1.4332e-01,
        1.1327e-06, 1.1130e-01, 4.6377e-01, 1.7330e-01, 1.0831e-01, 1.6816e-01,
        3.8574e-04, 2.9567e-01, 3.5122e-01, 3.8631e-01, 5.5234e-01, 6.8947e-02,
        1.0087e-01, 1.0723e-01, 3.8429e-01, 1.4942e-03, 4.5812e-01, 6.2591e-01,
        6.3792e-01, 1.1127e-04, 3.2403e-02, 2.4062e-01, 1.7716e-06, 2.3543e-02,
        3.8337e-01, 3.3878e-01, 1.4790e-01, 5.3915e-01, 7.1100e-02, 3.5673e-01,
        2.2442e-04, 3.2858e-01, 5.8083e-03, 2.4264e-02, 5.2823e-01, 1.1591e-01,
        5.5583e-01, 1.1916e-01, 1.8570e-01, 2.4192e-01, 7.2918e-05, 5.1805e-03,
        9.3230e-02, 1.1748e-03, 7.8145e-02, 3.7643e-02, 2.0329e-05, 5.7094e-01,
        1.8117e-01, 1.2218e-01, 4.1290e-02, 8.9732e-02, 2.6604e-01, 2.9484e-02,
        8.2583e-02, 3.3628e-01, 3.2475e-01, 2.3050e-01, 2.8174e-01, 1.3236e-01,
        1.6254e-01, 9.6227e-02, 2.0500e-04, 1.6594e-01, 3.6412e-01, 3.4332e-01,
        3.7668e-01, 6.9257e-01, 3.9084e-01, 5.8644e-02, 3.4340e-01, 3.1492e-03,
        1.5305e-01, 1.7839e-05, 2.3586e-01, 1.1261e-01, 4.2127e-01, 1.0434e-02,
        6.5481e-01, 4.4370e-01, 7.7884e-05, 1.1672e-01, 5.5004e-02, 8.4160e-02,
        4.9349e-02, 3.2518e-05, 3.6464e-05, 1.1417e-01, 4.8810e-02, 4.7719e-02,
        3.1763e-04, 1.7900e-01, 4.5789e-01, 2.1333e-01, 3.9929e-01, 1.6883e-01,
        3.6053e-02, 2.5005e-01, 1.5041e-01, 6.9457e-02, 5.1124e-01, 4.0084e-05,
        5.6546e-01, 1.5971e-01, 1.4736e-01, 1.7665e-01, 2.9957e-01, 3.7784e-06,
        3.0611e-01, 2.6681e-01, 6.7536e-04, 1.7474e-01, 2.8998e-01, 1.7115e-01,
        2.8753e-01, 5.0293e-01, 1.1655e-05, 1.4937e-01, 6.3723e-02, 9.8150e-03,
        8.9459e-02, 9.2439e-02, 3.2896e-02, 3.1586e-01, 2.1806e-02, 4.4990e-01,
        2.7946e-03, 8.6797e-16, 3.5006e-03, 8.9870e-04, 1.2854e-01, 1.5202e-01,
        1.9896e-03, 1.3527e-01, 6.9206e-02, 9.9360e-06, 1.8575e-01, 3.0956e-01,
        3.2392e-02, 6.0324e-02, 1.3892e-03, 7.3817e-02, 1.4878e-01, 2.9185e-02,
        8.6611e-02, 9.6330e-02])
mlp.net.0.batch_norm.running_var tensor([2.3900e-02, 2.0082e-03, 3.0474e-02, 3.4088e-19, 5.8017e-04, 1.1170e-04,
        3.3632e-03, 3.7159e-02, 2.6493e-18, 1.5526e-02, 1.4131e-02, 4.3992e-03,
        1.7802e-02, 2.9817e-07, 1.3569e-05, 1.0386e-25, 9.0989e-03, 1.5778e-03,
        1.3653e-02, 8.6614e-03, 1.1197e-06, 6.3811e-04, 5.2702e-03, 2.2215e-02,
        1.5760e-02, 5.2989e-02, 1.6959e-02, 6.6112e-02, 3.5014e-02, 1.8606e-02,
        1.9725e-09, 1.5563e-02, 2.8244e-02, 1.0075e-03, 1.3756e-02, 7.8788e-04,
        3.1036e-02, 5.7162e-03, 1.5983e-02, 3.2951e-02, 1.7630e-02, 1.0402e-03,
        9.4911e-04, 3.6086e-02, 5.0007e-02, 6.4904e-02, 2.8873e-04, 5.2695e-16,
        2.2164e-02, 1.4420e-02, 2.6988e-03, 1.3324e-02, 1.4675e-02, 2.9385e-02,
        5.8641e-09, 4.5204e-02, 1.5016e-02, 1.4919e-02, 5.4776e-20, 1.3304e-02,
        5.7157e-02, 2.8363e-02, 3.3559e-02, 1.8518e-02, 4.5316e-02, 9.7317e-04,
        2.1262e-02, 1.8998e-07, 1.7191e-03, 1.8001e-02, 1.5871e-02, 2.2062e-02,
        2.1289e-02, 2.5322e-07, 1.6595e-02, 3.1211e-02, 2.1917e-02, 1.6050e-02,
        3.0790e-02, 4.7840e-03, 2.5377e-05, 2.3560e-03, 4.8426e-02, 1.4453e-02,
        8.1107e-03, 2.6564e-02, 2.0736e-02, 2.6000e-02, 2.5530e-02, 2.6237e-02,
        1.7643e-02, 1.3261e-02, 2.6841e-02, 2.0531e-08, 2.7825e-02, 3.5312e-02,
        2.5935e-02, 2.7806e-02, 4.1713e-02, 3.3155e-02, 1.2747e-02, 3.1683e-02,
        7.1642e-03, 3.4003e-07, 1.3816e-02, 2.2803e-02, 3.1062e-02, 9.9940e-03,
        6.0095e-02, 2.3744e-02, 4.0337e-04, 3.8767e-02, 2.5853e-02, 3.0511e-08,
        8.8126e-03, 2.4763e-02, 2.5632e-02, 2.8331e-02, 2.2007e-02, 4.9708e-02,
        1.6530e-02, 2.4287e-02, 2.8111e-02, 2.5724e-02, 2.0492e-02, 4.6845e-03,
        4.1362e-03, 2.2974e-02, 5.7623e-02, 6.8990e-02, 5.1933e-07, 3.2175e-03,
        1.1531e-02, 9.0475e-04, 1.2774e-02, 5.5535e-02, 6.2365e-03, 1.6546e-02,
        3.7727e-07, 2.5308e-02, 7.3088e-02, 3.8017e-11, 1.4377e-02, 3.9759e-13,
        3.4729e-02, 9.6653e-03, 2.1579e-02, 1.7629e-02, 4.4060e-02, 2.5138e-02,
        2.9067e-02, 1.7400e-02, 9.0708e-03, 2.6166e-02, 6.9693e-05, 3.1142e-02,
        4.1639e-04, 4.7675e-02, 1.8648e-02, 4.8421e-03, 1.2331e-02, 2.9768e-02,
        9.1276e-04, 3.8009e-06, 2.2710e-02, 2.8961e-17, 1.2085e-02, 6.4892e-02,
        1.7409e-02, 4.3280e-03, 7.7771e-04, 1.8077e-04, 1.7678e-02, 9.0881e-04,
        2.0815e-02, 3.8257e-02, 7.1838e-06, 1.4714e-05, 7.5124e-02, 3.0074e-02,
        2.9816e-02, 2.9698e-02, 6.7300e-13, 3.9508e-03, 1.4775e-02, 9.4528e-17,
        7.5124e-03, 1.9997e-02, 3.2085e-02, 2.7233e-02, 1.5962e-02, 2.0126e-02,
        1.9847e-02, 2.6795e-02, 3.8277e-02, 1.2040e-02, 7.4350e-04, 3.5327e-07,
        1.9608e-02, 2.6341e-19, 3.7063e-03, 2.3541e-03, 1.0386e-25, 2.9462e-02,
        1.8080e-02, 5.7619e-18, 3.1838e-02, 5.4406e-04, 3.0612e-03, 1.5608e-02,
        7.3394e-03, 4.2324e-03, 6.6824e-03, 1.2858e-06, 6.2604e-04, 6.8206e-15,
        2.2670e-03, 3.0562e-02, 1.0616e-04, 1.2039e-02, 4.9695e-03, 1.7748e-02,
        3.7814e-02, 2.3471e-03, 2.6261e-02, 2.1360e-02, 1.4591e-02, 1.4237e-02,
        2.4048e-03, 3.1667e-02, 1.0387e-25, 1.2852e-25, 4.4048e-02, 4.6211e-02,
        1.8979e-02, 9.6629e-02, 3.5453e-03, 3.3862e-04, 6.3675e-04, 1.8071e-02,
        6.4648e-03, 8.7938e-03, 1.0059e-02, 5.3776e-02, 9.6326e-03, 2.6120e-04,
        6.6387e-03, 5.3631e-02, 2.9127e-02, 7.4495e-03, 3.2138e-02, 3.9773e-02,
        2.3795e-02, 3.0837e-06, 1.0364e-02, 9.6439e-03, 6.3438e-02, 1.1777e-02,
        2.7345e-02, 2.4635e-02, 2.5024e-02, 5.6683e-02, 3.8226e-02, 3.9276e-02,
        1.1354e-02, 2.6341e-02, 7.6274e-03, 4.1573e-02, 3.5096e-02, 3.8151e-03,
        1.4043e-02, 9.5893e-05, 1.8223e-02, 7.9394e-03, 1.8289e-02, 2.5719e-02,
        5.7440e-02, 2.2827e-02, 4.1379e-02, 2.7209e-04, 2.5113e-04, 2.9102e-02,
        2.3099e-02, 3.4550e-25, 1.9509e-03, 2.3915e-02, 2.2116e-02, 2.0531e-02,
        9.1116e-03, 4.0031e-02, 2.8532e-02, 1.1478e-02, 5.9450e-02, 2.3121e-02,
        5.7645e-04, 1.5787e-08, 1.7064e-02, 1.9968e-03, 4.7718e-02, 4.2487e-02,
        3.0325e-02, 8.8568e-03, 3.9406e-03, 1.1041e-03, 3.1363e-07, 2.6251e-02,
        2.1945e-03, 6.0826e-03, 4.0610e-12, 1.7679e-05, 1.9066e-02, 1.4987e-02,
        4.8975e-06, 4.2150e-03, 3.1231e-02, 1.7969e-02, 2.0594e-02, 1.0601e-15,
        3.8444e-02, 2.1048e-02, 4.5683e-03, 8.5823e-03, 1.7820e-02, 1.9691e-02,
        2.6450e-02, 1.7245e-02, 4.1675e-03, 2.7062e-02, 1.7486e-02, 1.0385e-25,
        3.2677e-02, 1.3589e-02, 2.9113e-02, 4.4069e-02, 1.0642e-02, 4.3104e-02,
        1.7066e-02, 2.7011e-02, 2.1280e-03, 1.3020e-25, 2.6044e-02, 4.5498e-02,
        3.6254e-02, 2.3698e-02, 3.8937e-15, 9.2493e-07, 8.0730e-05, 3.6942e-02,
        1.7584e-02, 1.8596e-02, 1.6007e-02, 1.2568e-02, 4.5530e-02, 9.9995e-15,
        7.0607e-19, 4.1489e-02, 2.0586e-02, 1.1778e-02, 2.7708e-16, 4.4270e-02,
        3.1428e-02, 1.9007e-03, 1.5742e-02, 1.4233e-18, 3.2357e-02, 2.5746e-02,
        2.9516e-08, 1.5712e-02, 2.9379e-02, 3.4132e-02, 2.2392e-02, 1.6114e-02,
        4.2125e-05, 3.2041e-02, 5.3995e-02, 7.9580e-02, 7.2315e-02, 1.2036e-02,
        1.4047e-02, 1.3971e-02, 7.3875e-02, 2.0657e-04, 3.4627e-02, 3.1483e-02,
        4.2157e-02, 5.0345e-06, 5.9246e-03, 2.4662e-02, 1.4339e-07, 3.5365e-03,
        1.9659e-02, 5.1306e-02, 1.5713e-02, 4.5186e-02, 1.3525e-02, 2.1898e-02,
        2.6756e-05, 4.6670e-02, 7.9680e-04, 3.3613e-03, 3.6602e-02, 1.5700e-02,
        8.0732e-02, 1.5293e-02, 3.6629e-02, 1.6346e-02, 6.4263e-06, 8.4402e-04,
        1.5309e-02, 1.4180e-04, 1.0852e-02, 5.6449e-03, 4.5974e-07, 3.3663e-02,
        2.9162e-02, 2.1932e-02, 5.3389e-03, 8.8952e-03, 2.6129e-02, 3.2021e-03,
        1.8930e-02, 4.2479e-02, 2.2878e-02, 1.9002e-02, 2.6309e-02, 2.5604e-02,
        3.0330e-02, 1.4345e-02, 1.0389e-05, 1.6988e-02, 2.9648e-02, 3.2363e-02,
        4.4463e-02, 2.8929e-02, 3.2647e-02, 7.1630e-03, 2.4176e-02, 3.8184e-04,
        2.3111e-02, 3.8994e-07, 2.7577e-02, 2.3479e-02, 8.2332e-02, 2.1982e-03,
        3.4717e-02, 4.3913e-02, 5.2762e-06, 1.9363e-02, 1.0187e-02, 1.8085e-02,
        7.1657e-03, 1.0092e-06, 1.8403e-06, 1.7456e-02, 7.0968e-03, 6.9798e-03,
        1.8627e-05, 2.7293e-02, 2.6950e-02, 2.4651e-02, 1.6422e-02, 2.0543e-02,
        6.0538e-03, 5.8265e-02, 1.5890e-02, 1.0694e-02, 2.6702e-02, 2.8625e-06,
        6.2833e-02, 1.7635e-02, 2.8901e-02, 3.0903e-02, 2.2585e-02, 9.2724e-08,
        2.1230e-02, 4.2205e-02, 4.2759e-05, 3.2153e-02, 4.2250e-02, 2.1462e-02,
        2.7356e-02, 5.3886e-02, 1.4769e-07, 2.0689e-02, 1.5273e-02, 9.9327e-04,
        1.6891e-02, 1.2753e-02, 7.4697e-03, 3.7447e-02, 3.5539e-03, 1.4728e-02,
        6.3161e-04, 9.2424e-17, 5.9600e-04, 1.5351e-04, 2.2480e-02, 1.6181e-02,
        2.1835e-04, 2.8961e-02, 1.6475e-02, 3.8478e-07, 3.0301e-02, 2.8809e-02,
        7.1426e-03, 1.1533e-02, 1.9254e-04, 1.3955e-02, 1.5113e-02, 8.2231e-03,
        1.1129e-02, 1.7003e-02])
mlp.net.0.batch_norm.num_batches_tracked tensor(546)
mlp.net.1.linear.weight tensor([[ 0.0402,  0.0416,  0.0306,  ..., -0.0535,  0.1428, -0.0031],
        [ 0.0089,  0.0996, -0.0018,  ...,  0.0055, -0.0138, -0.1385],
        [-0.0102,  0.0717, -0.0101,  ...,  0.1075,  0.0713, -0.0115],
        ...,
        [-0.0890,  0.1263, -0.0820,  ...,  0.0134, -0.0454, -0.0328],
        [-0.0791,  0.0388, -0.0457,  ...,  0.0684, -0.1441,  0.0005],
        [ 0.0418, -0.0523,  0.0167,  ..., -0.0924, -0.0084, -0.0087]])
mlp.net.1.linear.bias tensor([-5.1239e-02, -5.2784e-02,  1.1131e-01,  1.6217e-02, -2.2008e-02,
        -1.5635e-02, -8.9223e-02,  6.1185e-02, -8.7246e-02,  9.0660e-02,
        -2.4873e-02, -3.5699e-02, -2.2798e-02, -9.2938e-02,  6.7539e-02,
        -8.1892e-02, -1.2261e-01, -1.7044e-02, -5.4747e-02, -5.2610e-02,
         1.3160e-01, -1.5973e-01,  1.4329e-01,  3.5986e-02, -8.5962e-02,
         2.2276e-02, -1.5538e-01,  1.1009e-02,  9.4303e-02,  6.7558e-02,
        -5.3077e-02,  1.7076e-02,  7.0748e-02,  2.4228e-01,  7.1358e-02,
         3.0814e-02,  3.0867e-02, -2.8687e-02, -5.4776e-02, -6.9256e-02,
        -4.9327e-02, -1.3190e-01,  2.6030e-02,  2.2428e-02, -6.3375e-02,
         4.3935e-02,  9.1370e-02,  1.0264e-02,  3.2345e-02,  1.7915e-02,
        -1.1835e-01,  7.2638e-02, -3.4293e-02,  1.5390e-01,  9.9183e-03,
        -7.4644e-02, -9.3498e-02, -1.1153e-01,  2.7017e-02, -1.8226e-01,
        -3.4908e-02,  1.1173e-01, -9.4889e-02,  2.6367e-02, -5.0330e-02,
         6.4939e-02, -3.0816e-02, -5.3350e-02, -3.8272e-02,  7.9941e-02,
         1.7508e-02, -9.4900e-02,  6.3862e-02, -6.3554e-02, -3.2288e-02,
        -1.9856e-01,  9.9709e-02, -7.7560e-02,  3.2035e-02,  1.2327e-01,
        -1.8891e-02,  5.5377e-03, -1.1576e-02, -3.4405e-02,  5.4735e-02,
         8.0209e-02,  9.7096e-02, -1.2337e-01,  2.3597e-02, -6.2650e-02,
        -1.8014e-02, -8.7313e-03,  2.8769e-02, -2.5936e-02, -9.9388e-02,
         9.3902e-02,  7.9495e-02,  1.5279e-01,  6.2914e-02,  5.0869e-03,
         5.1415e-02, -5.2022e-02,  1.2362e-01, -7.3714e-02, -1.2728e-01,
         4.5746e-02,  4.2658e-02,  9.0379e-02,  8.4317e-02,  5.9075e-02,
         5.9352e-02, -5.3279e-03,  5.6080e-03,  7.0029e-02, -4.9632e-02,
         5.7145e-03,  7.0939e-03, -1.2495e-02,  6.1231e-02, -1.5993e-02,
        -1.8533e-02, -1.2157e-02, -3.5419e-03, -2.0481e-02,  2.8315e-02,
         2.9000e-02, -1.5425e-01,  4.0644e-02, -4.6177e-04, -7.2188e-02,
         6.6695e-02,  8.7899e-02,  4.8761e-02, -2.4143e-02,  8.7709e-02,
         7.2255e-02,  1.0858e-01, -3.2437e-02,  1.9823e-02, -3.9103e-02,
        -2.7739e-02,  6.4544e-02,  1.0955e-01,  1.5735e-02,  1.3129e-01,
        -9.2169e-02,  3.2237e-02, -2.7557e-03, -2.7921e-02, -1.3695e-01,
        -5.4629e-02,  1.5789e-02,  2.5103e-02, -1.4607e-02,  7.7385e-02,
         8.0545e-02,  1.5715e-02, -4.8891e-02,  1.1860e-01,  2.7444e-02,
        -1.0753e-01,  8.3873e-02,  5.8026e-02,  1.5914e-01,  5.3650e-02,
        -6.0065e-02, -4.0449e-02, -5.0178e-02,  1.4779e-01,  1.5269e-03,
         4.8308e-03, -1.6305e-01, -1.2888e-02,  3.0904e-02,  7.4039e-02,
         4.3083e-02, -3.6399e-02,  2.3589e-02,  9.8363e-03,  7.5452e-02,
         1.9029e-01, -7.3870e-02, -7.2564e-03, -1.1008e-01,  6.2888e-02,
        -6.4646e-02, -3.9217e-02,  1.1862e-01,  2.8073e-02,  4.2589e-02,
        -2.1865e-02, -1.3051e-02,  5.3797e-02,  1.4122e-01,  1.9471e-01,
         6.1250e-02,  1.3074e-01, -4.8601e-02, -7.6868e-02, -1.1658e-01,
        -1.2234e-01, -4.4201e-02,  1.9924e-02, -1.6185e-01, -2.0585e-02,
        -1.8301e-02,  1.1481e-02,  8.0128e-02,  7.1752e-02,  7.3962e-02,
        -1.0575e-01,  3.1670e-02, -8.5760e-02,  9.6571e-02,  1.3764e-01,
         6.3280e-02,  4.7639e-02,  9.0586e-03,  4.7273e-02, -6.2104e-02,
        -7.5084e-02,  5.2220e-02, -6.7010e-02, -1.2908e-01, -5.4755e-03,
         1.3980e-02,  7.0663e-02, -6.4075e-02, -1.2749e-01, -2.1158e-02,
         9.7440e-02, -6.9178e-02, -2.8465e-02, -3.0713e-02,  3.0443e-02,
        -2.2828e-02,  1.0012e-01, -2.2069e-02,  6.2392e-02, -8.2007e-02,
        -7.7641e-02, -5.4834e-02,  6.2085e-03,  8.0835e-02, -5.5179e-02,
        -2.7333e-02,  9.1011e-02,  7.5752e-02, -3.4374e-02,  1.7973e-01,
         1.7710e-02,  7.5176e-03, -3.4801e-02, -2.0336e-01, -7.5507e-02,
        -3.7327e-03,  2.6952e-02, -1.8458e-02,  1.7089e-02, -2.1910e-02,
        -9.7686e-03,  1.1824e-01, -8.7609e-02, -9.2979e-03,  8.6392e-02,
        -7.4789e-02,  4.4819e-02,  2.7635e-02, -4.0847e-03,  1.8613e-01,
        -1.3743e-02,  3.0321e-02,  7.3768e-02,  9.8077e-02, -1.8363e-02,
        -1.1478e-01,  2.5141e-02, -4.1313e-02,  1.2236e-01,  5.8552e-02,
        -1.9037e-02, -3.4099e-02,  3.6585e-02,  5.7483e-02, -2.4361e-02,
        -7.8600e-02, -2.3746e-02, -7.1614e-02,  2.0834e-02, -7.7408e-02,
        -1.4148e-01,  1.6355e-02, -1.0088e-01, -9.2030e-02,  6.5364e-02,
        -1.4631e-01,  7.6862e-03,  2.0791e-02,  6.1695e-03,  1.4469e-02,
         5.2374e-03,  1.0477e-01, -4.0072e-02, -1.5945e-01, -1.6783e-01,
        -2.5827e-02, -9.6683e-02, -1.3198e-03, -4.8522e-02,  6.9391e-03,
         1.0828e-01,  4.0006e-02,  1.1688e-01, -3.6760e-02,  1.1295e-02,
         3.4401e-02, -6.1009e-02, -7.3123e-03, -5.8382e-02,  8.1090e-02,
         1.1452e-02,  9.2341e-02,  8.2657e-02,  9.7883e-03, -6.9540e-02,
        -3.8297e-02,  9.2141e-02, -1.0438e-02,  2.0903e-01, -9.5799e-02,
         1.2170e-02, -7.4973e-02,  9.3302e-03, -3.6463e-02,  7.6109e-02,
        -1.4588e-01, -3.4069e-02,  8.4280e-02,  5.9293e-02, -8.7574e-03,
        -6.8462e-02, -2.2979e-02,  4.3759e-02, -4.7107e-02,  3.9193e-02,
         1.3319e-01, -4.4052e-02,  1.2790e-01,  8.8179e-02,  3.4379e-02,
         6.7054e-02,  1.1891e-01, -4.9581e-02, -4.7262e-02,  2.0763e-02,
         1.0810e-01, -4.1990e-02, -2.4483e-02, -6.5322e-02,  2.9371e-03,
        -6.5471e-03, -8.6576e-02, -1.9282e-02,  1.4298e-01, -8.5692e-03,
        -2.1480e-02,  8.5894e-03, -9.4839e-03,  8.5326e-02, -3.3873e-02,
        -7.9855e-02, -1.6814e-02,  2.5266e-02,  1.1863e-01, -8.0458e-02,
         1.0867e-01, -5.4472e-02,  4.3611e-02,  1.1989e-01, -1.7584e-01,
        -9.2089e-03, -7.2601e-02, -7.8370e-02, -5.0871e-02,  2.9363e-03,
         1.3922e-02,  2.8061e-02,  4.3375e-02, -1.0927e-02, -1.0206e-01,
        -9.9069e-02, -9.6396e-03, -5.0879e-02,  6.2272e-02, -6.9399e-02,
         2.5114e-02, -3.6023e-02,  1.3942e-01,  5.9444e-02,  1.1721e-02,
        -1.8547e-02,  4.7848e-02,  2.7558e-02,  9.0932e-03, -3.8080e-02,
         3.8502e-02, -2.3306e-02, -1.0432e-01, -1.3533e-01, -9.1882e-02,
        -2.4089e-02,  8.0238e-02,  1.0333e-01, -4.6839e-02,  8.9865e-02,
        -9.3777e-02, -8.2375e-02,  9.9729e-02,  5.1419e-02, -6.9773e-02,
        -5.3033e-02, -6.1504e-03,  1.0648e-02, -1.5720e-01,  5.4408e-03,
         1.0879e-01, -9.7616e-03, -2.1560e-02,  2.3460e-02,  2.2333e-01,
        -7.4241e-02,  3.5234e-02,  1.5000e-01,  1.0155e-01, -2.5125e-02,
         6.3330e-02,  1.2024e-01,  2.0912e-03, -5.4976e-02, -1.0796e-02,
         8.7145e-02,  5.1612e-02,  9.6433e-03,  7.4739e-02, -5.1661e-02,
        -6.7280e-02, -3.7981e-03,  5.4799e-02,  7.2354e-02,  5.5902e-04,
        -8.3271e-02, -1.0478e-01, -1.2507e-01,  8.6877e-02, -2.4321e-02,
         1.6650e-01,  9.2065e-02, -2.5256e-01, -2.2056e-02,  9.8451e-05,
        -4.3186e-02, -1.5121e-02, -2.2127e-02, -5.1506e-02, -9.8451e-02,
         6.1146e-02,  1.4899e-03,  1.0617e-01,  4.0012e-02,  2.6356e-02,
        -7.8024e-02,  4.5391e-02,  1.1387e-01,  1.4841e-01, -6.1491e-02,
         4.4729e-02,  1.5903e-01, -5.2666e-02,  3.4790e-02, -6.3569e-02,
        -1.5830e-01,  1.1858e-01,  1.0718e-01,  3.9716e-02,  3.9199e-03,
         1.3577e-01,  8.0538e-02, -3.2291e-02,  1.1036e-02,  3.9019e-02,
        -1.7120e-01, -6.6666e-02, -1.0342e-01,  1.1607e-01,  3.6429e-02,
         1.7698e-01, -1.3899e-02, -9.5084e-02, -8.4100e-02, -2.3301e-01,
        -1.1881e-01,  1.5086e-02,  2.4100e-02, -4.4548e-02,  1.0831e-01,
         1.1838e-01,  7.9571e-02,  3.9164e-02,  9.5551e-02,  6.1186e-02,
        -8.3511e-02,  7.1813e-03])
mlp.net.1.batch_norm.weight tensor([0.3192, 0.3886, 0.4752, 0.4004, 0.4413, 0.4224, 0.4037, 0.3844, 0.4059,
        0.2992, 0.3427, 0.5512, 0.2985, 0.4555, 0.4527, 0.3597, 0.4215, 0.4434,
        0.5499, 0.4330, 0.4415, 0.4410, 0.4664, 0.3986, 0.4693, 0.3450, 0.4137,
        0.3129, 0.4063, 0.4275, 0.4573, 0.4000, 0.4622, 0.4899, 0.4805, 0.4046,
        0.3843, 0.4034, 0.4364, 0.3787, 0.3778, 0.4505, 0.3641, 0.3860, 0.4293,
        0.3219, 0.2677, 0.4748, 0.3859, 0.3815, 0.4921, 0.3235, 0.4820, 0.3413,
        0.3387, 0.3822, 0.5460, 0.3833, 0.3857, 0.5872, 0.4743, 0.3534, 0.4157,
        0.4736, 0.3469, 0.4559, 0.4303, 0.4665, 0.5085, 0.5135, 0.3838, 0.3867,
        0.3481, 0.5194, 0.3660, 0.4211, 0.4773, 0.3876, 0.4630, 0.2872, 0.4479,
        0.4695, 0.4709, 0.3533, 0.4239, 0.3942, 0.2787, 0.3089, 0.4261, 0.4038,
        0.3844, 0.4133, 0.5425, 0.5123, 0.3317, 0.4582, 0.3757, 0.4154, 0.5594,
        0.4672, 0.3243, 0.5169, 0.4943, 0.3438, 0.3659, 0.4964, 0.3526, 0.3552,
        0.3921, 0.3920, 0.4130, 0.5454, 0.5514, 0.3626, 0.4389, 0.4281, 0.3330,
        0.4092, 0.3979, 0.4489, 0.3837, 0.4536, 0.3421, 0.4061, 0.3544, 0.3737,
        0.5720, 0.3920, 0.2760, 0.3498, 0.3190, 0.5250, 0.2634, 0.4240, 0.4780,
        0.2759, 0.3853, 0.4233, 0.3144, 0.4334, 0.3815, 0.4559, 0.5619, 0.4344,
        0.4066, 0.3757, 0.3091, 0.6270, 0.2950, 0.5113, 0.3805, 0.3828, 0.2278,
        0.5193, 0.3481, 0.3217, 0.3826, 0.5848, 0.5163, 0.6143, 0.3889, 0.3479,
        0.5299, 0.4980, 0.3628, 0.5939, 0.5671, 0.4448, 0.4514, 0.4279, 0.4400,
        0.4690, 0.3195, 0.4010, 0.4041, 0.4067, 0.5600, 0.3362, 0.3172, 0.4692,
        0.3855, 0.3919, 0.3353, 0.2790, 0.3442, 0.3899, 0.3897, 0.4938, 0.3875,
        0.3992, 0.5825, 0.2794, 0.4803, 0.4700, 0.4358, 0.5835, 0.4472, 0.4490,
        0.3872, 0.5058, 0.4110, 0.3301, 0.4684, 0.3506, 0.4063, 0.2958, 0.4862,
        0.4882, 0.4211, 0.3241, 0.4792, 0.4546, 0.3369, 0.4381, 0.2792, 0.6086,
        0.3941, 0.4297, 0.3913, 0.4305, 0.3840, 0.4927, 0.5444, 0.5551, 0.4842,
        0.3785, 0.4800, 0.2916, 0.4812, 0.4843, 0.3771, 0.4431, 0.3439, 0.4949,
        0.4407, 0.4433, 0.5514, 0.3686, 0.3141, 0.3754, 0.4363, 0.3545, 0.4638,
        0.4793, 0.3267, 0.3880, 0.3527, 0.5073, 0.3805, 0.4903, 0.4738, 0.3227,
        0.4338, 0.5175, 0.4205, 0.3627, 0.4390, 0.4022, 0.3744, 0.5618, 0.3648,
        0.3646, 0.4373, 0.5230, 0.5161, 0.4911, 0.3094, 0.3562, 0.5664, 0.4891,
        0.4360, 0.4901, 0.5429, 0.3492, 0.4384, 0.4385, 0.3128, 0.4550, 0.3945,
        0.3553, 0.4906, 0.4569, 0.4114, 0.3641, 0.3729, 0.4389, 0.3309, 0.4459,
        0.3498, 0.2808, 0.3903, 0.4361, 0.3634, 0.4823, 0.3474, 0.4001, 0.3557,
        0.4202, 0.4819, 0.4711, 0.4483, 0.5339, 0.3879, 0.5325, 0.5377, 0.3975,
        0.5071, 0.3648, 0.4628, 0.4021, 0.4301, 0.3462, 0.4199, 0.4789, 0.4879,
        0.4066, 0.3612, 0.4514, 0.3837, 0.5219, 0.4541, 0.4030, 0.4880, 0.3158,
        0.4281, 0.3451, 0.4140, 0.5358, 0.4734, 0.3400, 0.4074, 0.3489, 0.3878,
        0.4643, 0.4126, 0.4564, 0.3413, 0.3125, 0.4212, 0.4049, 0.4814, 0.4090,
        0.4697, 0.3801, 0.3531, 0.3905, 0.4640, 0.4012, 0.3313, 0.3867, 0.4965,
        0.3080, 0.2760, 0.3940, 0.4247, 0.3945, 0.3863, 0.3612, 0.4007, 0.3906,
        0.3255, 0.3941, 0.4675, 0.3755, 0.4132, 0.3931, 0.3627, 0.3819, 0.3200,
        0.3592, 0.3531, 0.4265, 0.4792, 0.3572, 0.4624, 0.3973, 0.3071, 0.3909,
        0.4023, 0.3356, 0.4159, 0.3692, 0.5703, 0.3480, 0.4279, 0.3332, 0.5082,
        0.4327, 0.4553, 0.3456, 0.5007, 0.4867, 0.4469, 0.3944, 0.4089, 0.2332,
        0.3461, 0.3319, 0.4085, 0.5917, 0.4480, 0.5077, 0.2306, 0.2735, 0.4234,
        0.3734, 0.3753, 0.5269, 0.5462, 0.3346, 0.3259, 0.4319, 0.5689, 0.3847,
        0.4375, 0.3819, 0.4829, 0.3928, 0.5624, 0.4614, 0.5245, 0.3035, 0.5212,
        0.4293, 0.3916, 0.3753, 0.3349, 0.3706, 0.5317, 0.3687, 0.5047, 0.3868,
        0.4309, 0.3429, 0.6122, 0.4318, 0.4303, 0.4072, 0.3622, 0.3291, 0.4219,
        0.5639, 0.4305, 0.2707, 0.5265, 0.4234, 0.4214, 0.3750, 0.3984, 0.4191,
        0.4328, 0.3184, 0.5423, 0.4575, 0.3642, 0.4330, 0.4261, 0.3318, 0.5575,
        0.4205, 0.4217, 0.3582, 0.4523, 0.4564, 0.4858, 0.3647, 0.3618, 0.4427,
        0.5625, 0.3229, 0.3904, 0.4100, 0.4185, 0.3262, 0.3297, 0.3209, 0.4151,
        0.3116, 0.2909, 0.4115, 0.5206, 0.5260, 0.4297, 0.4694, 0.3971, 0.4863,
        0.4129, 0.4560, 0.4182, 0.4152, 0.4179, 0.4180, 0.4236, 0.3816, 0.5517,
        0.3255, 0.3471, 0.3916, 0.4403, 0.5519, 0.3644, 0.3320, 0.3699, 0.4722,
        0.5809, 0.4237, 0.4473, 0.3053, 0.4754, 0.6535, 0.4640, 0.4369])
mlp.net.1.batch_norm.bias tensor([ 8.0652e-02,  5.0892e-02, -7.9725e-02, -6.2527e-02, -5.9821e-02,
         1.0253e-01,  5.7736e-02, -1.5885e-02, -1.2544e-01, -2.7210e-02,
         3.0921e-02, -1.6025e-01, -3.0148e-02, -8.4476e-02, -1.4696e-01,
        -8.6372e-02,  3.5413e-02, -1.3225e-02, -1.8428e-02,  2.6419e-02,
         1.9388e-02, -2.0101e-02, -1.7683e-01, -2.2066e-04,  2.1144e-02,
        -1.1966e-01, -2.2081e-02, -1.3142e-01,  6.5324e-02, -2.4855e-02,
        -8.1038e-02,  4.2419e-02, -1.3460e-01, -3.4794e-02, -8.1342e-02,
         5.2550e-02, -6.8995e-02,  1.6840e-01, -2.3463e-02,  3.0332e-02,
         7.2272e-02,  4.8201e-03, -1.2530e-01,  3.3969e-02, -1.3174e-01,
        -4.9235e-02,  4.1721e-02,  1.3073e-01, -1.0914e-01,  1.6437e-02,
        -4.4672e-02,  1.2116e-02,  3.0404e-02,  2.5380e-02, -6.5112e-02,
         3.5284e-02, -5.3831e-02,  8.0329e-02,  3.1162e-02,  1.2362e-02,
        -5.5750e-02, -4.0138e-02,  1.2296e-01,  1.5114e-02,  1.8814e-02,
         1.0372e-01, -1.5239e-01, -6.4189e-02, -8.6119e-02,  1.3735e-01,
        -7.3541e-02, -7.7121e-02,  2.7198e-02, -2.4144e-02, -4.5872e-02,
         1.9465e-02, -4.5749e-04, -1.1728e-01, -6.3832e-03,  7.2121e-03,
         1.4869e-01, -1.4806e-01, -1.6047e-02, -1.7477e-02, -3.3387e-02,
        -8.6692e-03, -9.2378e-02, -1.6667e-02, -1.4735e-01, -1.1568e-01,
        -3.1184e-02, -3.2855e-02,  1.0093e-01,  1.8612e-01, -8.2613e-02,
        -1.3121e-01, -5.8951e-02,  8.6812e-02, -4.7717e-02,  1.1595e-01,
        -6.2748e-02, -7.7395e-03, -1.7751e-03,  3.8917e-02,  1.3655e-02,
         1.2562e-02, -4.5820e-02, -2.9303e-03,  9.0516e-02, -1.1136e-01,
         4.6953e-02,  1.0451e-01, -8.0175e-02, -4.0090e-03,  1.0600e-02,
        -3.3867e-02, -5.1769e-02, -7.4778e-02, -9.7127e-02,  7.8734e-02,
        -7.0027e-02, -1.1863e-01, -1.8530e-02, -1.1184e-01,  9.3893e-02,
        -7.9734e-02,  1.9705e-02, -2.5396e-02, -4.7150e-02,  4.9368e-02,
        -5.4083e-02,  2.5072e-01, -1.3674e-01, -5.2687e-02, -1.0041e-01,
         6.3109e-02,  2.4958e-02, -1.2003e-01, -3.2533e-03,  1.1658e-01,
        -9.0159e-02, -5.3532e-02,  6.8495e-02, -1.8871e-02, -1.1898e-01,
         9.7899e-02, -1.2417e-01,  1.4298e-02, -4.0537e-02,  9.5956e-02,
         6.2490e-02,  1.6325e-02,  7.3207e-02, -1.3450e-01, -4.9428e-03,
         1.4759e-02, -2.2358e-02, -9.3730e-02, -6.9396e-02, -1.0519e-01,
         2.0739e-01, -4.8636e-02, -6.7574e-02,  2.4705e-02,  2.3255e-02,
        -4.6500e-02, -1.1330e-02, -4.8693e-02, -6.8509e-02, -1.9443e-02,
         3.2606e-02,  4.7168e-02,  6.8504e-02, -9.0796e-02, -1.4559e-01,
        -7.3812e-02, -1.9759e-02,  5.0511e-02, -8.5974e-02, -2.9108e-02,
        -7.4040e-02,  1.3916e-02, -2.9856e-03, -1.1640e-01, -5.6938e-02,
         5.0903e-02, -9.9615e-03,  5.4129e-02,  1.1392e-01,  9.7094e-02,
        -1.9453e-02,  2.2804e-02, -6.0774e-02,  1.1059e-01, -2.6361e-02,
         1.0628e-01,  6.9697e-02,  7.2299e-03, -1.3343e-03,  1.9911e-02,
        -1.7082e-02, -1.3212e-02,  9.8855e-03, -6.6975e-02,  2.5108e-03,
        -2.8291e-02,  1.0446e-01, -1.1354e-01, -1.1443e-01,  1.7164e-02,
        -6.1388e-02, -3.0140e-02,  5.3658e-02,  1.0378e-02, -4.7328e-02,
         9.8095e-02,  5.1329e-02,  7.8161e-02, -1.7038e-01,  6.6967e-02,
         5.1505e-02, -4.3580e-02,  2.3413e-02, -6.9552e-02,  5.2468e-02,
        -3.8041e-02,  9.0036e-03, -4.6964e-02,  1.2271e-02,  5.9432e-02,
         6.4077e-02,  3.4646e-02,  7.1036e-03,  1.6893e-02, -2.1624e-03,
         1.0031e-01, -2.1073e-02, -3.0554e-02,  2.6570e-02,  5.6496e-02,
         9.5688e-02, -4.9601e-02, -2.6364e-02,  1.1861e-01, -3.3033e-02,
        -4.2098e-02,  1.3069e-01, -1.3722e-01, -2.7563e-02, -1.5169e-02,
         7.4716e-04, -1.1338e-01,  6.9616e-02,  1.4008e-01, -1.2052e-01,
         5.7954e-03, -2.3134e-02, -6.6371e-02,  2.1628e-02,  1.0539e-01,
        -3.0518e-02, -5.2736e-02, -1.0573e-01,  7.4696e-02,  2.6496e-02,
         5.3927e-02, -4.4667e-03, -9.8726e-02, -3.5626e-02, -6.0579e-02,
         8.4646e-02, -1.2901e-01,  3.5238e-02, -1.8350e-02, -2.7411e-02,
         1.1538e-01,  1.2491e-01,  3.4461e-02, -3.6027e-02, -4.5114e-02,
        -1.3720e-01, -1.1561e-02, -7.8943e-03,  3.9262e-02, -7.3311e-02,
        -4.8012e-02,  1.2136e-02, -6.5101e-02, -7.3524e-03,  5.5901e-02,
        -2.4975e-02,  2.0675e-03, -2.0176e-02,  6.3950e-02,  3.0841e-02,
         2.2588e-02,  1.4310e-03,  1.0182e-03,  8.2438e-02,  2.9063e-02,
         5.0987e-02, -1.1351e-01,  1.0744e-02,  3.2545e-02, -2.7870e-02,
         3.9632e-02,  3.3188e-02,  8.2800e-02,  7.3707e-02, -2.2039e-02,
         6.3311e-02,  5.1224e-02,  2.7063e-02, -1.9972e-01,  6.2159e-02,
        -9.8771e-02,  1.3872e-01,  9.7126e-02, -5.7684e-02, -3.9733e-02,
        -8.4148e-02, -6.9200e-02, -9.1652e-02,  1.5377e-02,  7.5840e-02,
        -1.6745e-01,  7.8572e-02,  9.1402e-02, -3.3128e-02,  4.0352e-03,
        -4.2787e-02, -6.8875e-02, -1.2513e-02,  1.6065e-01, -3.8868e-02,
         4.0489e-03, -4.8722e-02, -2.7819e-02,  2.9429e-02,  5.0884e-02,
         6.0910e-02, -5.8324e-02, -7.6418e-03,  4.0669e-02,  7.6752e-02,
        -7.8517e-02, -2.7689e-02, -6.7444e-02,  1.9518e-01,  1.2906e-01,
        -5.0329e-03,  1.5891e-01,  7.6185e-02,  7.4101e-02,  1.0590e-01,
        -4.3686e-03,  5.0588e-02, -7.2380e-02,  8.6680e-02,  3.0409e-02,
         1.7840e-02, -3.7749e-02,  7.4541e-02,  1.6481e-02, -3.3764e-02,
        -1.4392e-02,  1.3512e-02, -1.4340e-01,  7.2769e-02, -1.2274e-01,
        -7.5473e-02, -3.0517e-02, -6.0748e-02,  2.3511e-02,  3.8843e-04,
        -1.1499e-02, -8.1149e-02, -2.4086e-02, -1.0321e-01, -3.5311e-02,
         4.8756e-03, -1.4316e-01, -2.3643e-02, -7.9317e-02,  4.3109e-02,
        -4.1314e-02, -1.1212e-01,  3.4989e-02, -7.3537e-02,  4.0250e-02,
         3.2349e-02, -7.5537e-02,  5.4443e-02, -1.6243e-02, -8.6779e-03,
        -1.1914e-02,  2.9785e-02, -6.9336e-02, -5.5870e-02,  8.4234e-03,
        -1.0439e-02,  8.1461e-02,  1.0267e-01,  6.3879e-02, -3.3415e-02,
        -7.9606e-02,  1.6551e-01, -1.2857e-01, -2.0460e-02, -4.0273e-02,
         9.2442e-02, -7.1544e-02, -8.3551e-03,  1.5194e-01,  2.0924e-03,
        -3.7686e-02, -1.2383e-01, -1.0695e-01,  6.7241e-02,  9.0316e-02,
        -5.7486e-04,  9.1608e-02, -1.2301e-01,  1.4484e-02, -7.3224e-02,
         7.2866e-02,  2.9419e-02, -8.6226e-02, -8.7385e-03, -4.7207e-02,
        -4.2122e-02,  8.2703e-02,  3.0471e-02,  1.4574e-01, -7.1488e-02,
         5.7888e-02,  1.3290e-02, -1.5606e-02, -5.7117e-02,  3.6030e-02,
        -1.2081e-01, -5.4462e-02,  1.1272e-01, -2.9835e-02,  3.7638e-02,
         4.3513e-02,  1.0845e-01, -5.9453e-02, -3.4909e-02, -2.0587e-02,
        -5.7282e-02, -7.5410e-02, -7.4624e-02,  7.0098e-02, -8.3920e-02,
         2.0217e-02,  3.6735e-02, -8.3516e-04, -9.4773e-02,  4.8720e-02,
         9.4055e-03, -2.0210e-02, -2.0440e-02,  6.1682e-02, -7.5208e-02,
        -1.4752e-02, -1.0942e-01,  3.3261e-02, -1.6959e-01, -7.3525e-02,
        -1.7016e-02,  1.3030e-01, -2.5757e-02, -1.9766e-02,  6.5197e-02,
        -7.0481e-02, -1.9011e-02,  8.8479e-02, -6.1887e-02,  7.5075e-02,
        -5.4809e-02,  2.5364e-02, -4.2164e-02, -2.9369e-03,  5.6628e-02,
         3.3511e-02,  7.0853e-02, -3.2263e-02, -3.0552e-02, -1.2859e-01,
        -1.3404e-01,  4.7490e-02, -4.8399e-03, -6.6465e-02, -8.2116e-02,
         1.3911e-01,  8.4856e-02, -1.5752e-01,  7.6694e-02, -1.5314e-02,
        -1.0439e-01, -1.6645e-01, -1.4937e-02, -5.1972e-04,  8.7395e-02,
         1.0496e-01, -6.7550e-02,  1.3404e-01, -3.1503e-02, -5.3410e-02,
        -8.7972e-02,  7.5634e-02])
mlp.net.1.batch_norm.running_mean tensor([0.6485, 0.6186, 0.9123, 0.8359, 0.8032, 0.8547, 0.6361, 0.9612, 0.7883,
        1.0363, 0.7205, 0.8136, 0.6559, 0.5508, 0.8177, 1.0417, 0.5921, 0.7687,
        0.8002, 0.7995, 0.8400, 0.5728, 1.1855, 0.7131, 0.7589, 0.9178, 0.7370,
        0.8102, 0.9622, 1.0341, 0.7555, 1.0756, 1.0081, 1.3249, 1.0826, 0.8424,
        1.1703, 0.7752, 0.7734, 0.5704, 0.8359, 0.6758, 0.6451, 0.9830, 0.6935,
        0.5670, 0.7883, 0.8109, 0.8654, 0.7308, 0.7077, 0.8525, 0.8253, 1.0306,
        0.7561, 0.6358, 0.8984, 0.5129, 0.7739, 0.4583, 0.8760, 0.9997, 0.7617,
        0.8620, 0.7666, 0.9017, 0.8839, 0.6337, 1.0034, 0.9067, 0.7838, 0.7827,
        0.9863, 0.7215, 0.4751, 0.5056, 1.0706, 0.3923, 0.9135, 0.7920, 0.8695,
        0.8026, 0.8088, 0.6321, 0.8396, 0.8337, 0.8460, 0.5449, 1.0394, 0.7966,
        0.9338, 0.8000, 0.6961, 0.8254, 0.6184, 0.5689, 0.7181, 1.1379, 1.2357,
        0.8344, 0.8045, 0.7222, 0.8282, 0.7697, 0.6001, 1.0101, 0.8307, 0.9096,
        1.1480, 0.8744, 0.7178, 0.6665, 0.9679, 0.6962, 0.8271, 0.7136, 0.7916,
        0.5334, 0.9232, 0.7158, 0.7330, 0.7383, 0.9777, 0.8791, 0.8822, 0.8823,
        0.7223, 0.8679, 0.5336, 0.8605, 0.8609, 0.7636, 0.8660, 0.9211, 0.8297,
        0.6423, 0.8607, 0.7536, 0.6241, 0.8203, 0.9518, 0.8720, 0.9254, 0.8956,
        0.8286, 0.7048, 0.8387, 0.9173, 0.6191, 0.6235, 0.6742, 0.8143, 0.5120,
        0.6777, 0.7399, 1.0628, 0.7980, 0.7730, 1.3166, 1.0626, 0.6997, 0.6746,
        1.0027, 1.2428, 0.7860, 0.8384, 0.6989, 0.8169, 1.3424, 0.9058, 0.8510,
        0.8745, 0.5222, 0.7214, 0.9191, 0.7637, 0.8590, 0.5452, 0.9631, 0.8186,
        0.9123, 0.6261, 0.5812, 0.5440, 0.9529, 0.6402, 0.5374, 0.8922, 0.7388,
        0.6788, 0.6782, 0.7297, 0.9326, 0.9524, 0.9690, 1.1058, 0.7532, 0.5310,
        0.8819, 1.0863, 0.5872, 0.4721, 0.7975, 0.6670, 0.7567, 0.5928, 0.8597,
        1.1648, 0.9397, 0.6224, 0.6071, 0.9786, 0.8116, 0.9362, 0.7081, 0.7586,
        0.7014, 0.6644, 0.9697, 0.9308, 0.6876, 1.1920, 0.7812, 0.8201, 0.8603,
        0.8511, 0.9880, 0.7842, 0.7514, 0.8528, 0.8092, 0.5424, 0.5260, 0.9062,
        0.8825, 0.9243, 1.0151, 0.9667, 0.7717, 0.5290, 0.8028, 0.7767, 0.9004,
        0.8617, 0.7516, 0.9581, 0.9097, 1.1374, 0.8915, 0.9574, 1.0778, 0.8370,
        0.7156, 0.5092, 0.5856, 0.5868, 0.8176, 0.7491, 0.7465, 0.8911, 0.7180,
        0.9115, 0.6246, 0.6505, 0.9963, 0.7451, 0.7085, 0.7034, 0.6595, 1.0852,
        0.7372, 0.9345, 1.0138, 0.9595, 0.6827, 0.5952, 0.9403, 0.8799, 0.9196,
        0.6661, 1.0425, 0.7713, 0.8685, 0.8655, 0.7370, 0.8776, 0.3960, 0.9133,
        0.5940, 0.5578, 0.7891, 0.9997, 0.3979, 0.6916, 0.8614, 0.6482, 0.7891,
        0.8910, 0.8035, 0.9356, 0.8788, 0.9301, 0.7980, 0.5301, 0.6278, 0.5143,
        0.7649, 0.9585, 0.7716, 0.7358, 1.2292, 1.2087, 1.0222, 0.8543, 0.7253,
        1.1021, 0.7942, 0.8192, 0.7081, 1.3876, 0.8201, 0.9606, 1.1062, 0.6071,
        0.7763, 0.5991, 0.9250, 1.0432, 1.1612, 0.7495, 1.0093, 0.5614, 0.6559,
        0.7452, 0.8950, 0.6753, 0.5656, 0.9401, 0.8561, 0.6889, 0.6479, 0.7262,
        1.0997, 0.8487, 0.7772, 1.0826, 0.6895, 0.7968, 0.8264, 0.9373, 0.8119,
        0.8870, 0.3923, 0.7058, 0.9004, 1.0688, 0.8054, 0.8344, 0.6735, 1.0673,
        0.7211, 0.6913, 0.8169, 0.9472, 0.9493, 0.6804, 1.0442, 0.6092, 0.8947,
        0.8343, 0.5194, 0.9063, 0.9025, 0.9116, 0.8718, 0.7857, 0.6234, 1.0712,
        0.6338, 0.7731, 0.8824, 0.8575, 0.7717, 0.9943, 0.8734, 0.8198, 1.1461,
        1.1993, 0.8489, 0.7388, 0.8422, 0.6066, 0.6834, 0.9441, 0.8579, 0.5496,
        0.6783, 0.8080, 0.7879, 0.9983, 0.5918, 0.7811, 0.9326, 0.7038, 0.6240,
        0.7490, 0.8676, 0.8013, 0.6475, 0.9236, 0.6450, 0.9643, 1.1559, 0.6370,
        0.9955, 0.8458, 0.5081, 0.9823, 0.8877, 0.5645, 0.8879, 0.7107, 0.9905,
        0.6006, 0.6848, 0.9905, 0.5956, 0.7554, 0.9080, 0.9405, 0.5656, 1.0817,
        0.8452, 0.8150, 0.8109, 0.9151, 1.0417, 1.1514, 0.5602, 0.7308, 0.9953,
        0.9717, 0.8444, 0.7419, 0.7412, 0.8759, 0.9170, 0.7280, 1.0710, 0.6739,
        0.6301, 0.5484, 0.7533, 0.8811, 0.7272, 1.0623, 0.7860, 0.8436, 0.8092,
        0.7058, 0.7787, 0.7724, 0.9502, 0.7504, 0.6127, 1.0271, 0.6946, 0.7614,
        1.0027, 0.7311, 0.5910, 1.0875, 1.0514, 0.8385, 0.8715, 0.8006, 0.8719,
        0.7149, 0.7545, 0.7548, 0.7333, 1.0035, 0.8066, 1.0229, 0.7309, 1.0736,
        0.9386, 0.6903, 0.7426, 0.8498, 0.5777, 0.6061, 0.5815, 0.9887, 1.0330,
        0.8202, 0.8535, 0.5596, 0.6880, 0.7976, 0.4282, 0.6446, 0.8035, 0.7087,
        1.0310, 0.9706, 0.8663, 0.9944, 1.0059, 0.8996, 0.7148, 0.6944])
mlp.net.1.batch_norm.running_var tensor([1.2997, 1.0809, 1.2410, 1.2442, 1.6492, 1.6993, 1.1465, 1.9498, 2.3088,
        2.0752, 1.3026, 1.2427, 1.3194, 1.0817, 1.2591, 3.8259, 0.8376, 1.3544,
        2.1248, 1.9528, 1.3363, 0.9446, 3.0615, 1.2211, 2.2500, 2.1109, 2.1778,
        1.3649, 1.6857, 2.1870, 1.2302, 1.7420, 2.3665, 2.6328, 2.5658, 1.2823,
        2.7259, 1.4192, 1.5482, 0.8443, 1.9884, 1.8020, 0.7748, 2.3663, 1.1469,
        0.7725, 1.1783, 1.6998, 2.1596, 1.1875, 1.3568, 1.8091, 1.4766, 1.4274,
        1.3571, 1.5199, 2.0047, 0.7367, 0.9744, 0.8468, 1.5951, 1.2410, 1.3887,
        1.6863, 1.4385, 1.5607, 1.8407, 1.0528, 2.0067, 1.6123, 1.3318, 1.7651,
        1.8619, 1.7051, 0.5952, 0.8326, 2.2125, 0.4434, 2.0581, 1.2989, 1.8507,
        1.1923, 1.3512, 0.9521, 1.3908, 1.4017, 1.2347, 1.0951, 2.2363, 2.4264,
        1.9022, 1.7402, 0.9329, 2.1743, 1.1072, 0.7527, 0.9585, 1.6977, 3.5065,
        1.2657, 1.2269, 1.3572, 1.2606, 2.0645, 1.1317, 1.7430, 1.6504, 2.1173,
        2.2153, 1.4163, 1.4065, 1.1983, 2.9509, 1.0558, 2.5390, 1.6098, 1.2014,
        0.7123, 1.9441, 1.3898, 1.0643, 1.7682, 2.0781, 2.1476, 1.5325, 1.6825,
        1.6699, 1.2253, 0.8594, 1.4266, 1.2589, 1.3919, 1.3544, 2.1165, 1.3963,
        0.9271, 1.7533, 1.3865, 0.8295, 1.9090, 1.7795, 1.5680, 1.6005, 1.8877,
        1.3609, 1.0734, 0.9316, 1.5672, 1.0106, 1.1669, 0.9322, 1.4377, 0.6926,
        0.9309, 1.3215, 1.8863, 1.4394, 1.6809, 3.3480, 1.8090, 1.2178, 1.0487,
        3.0546, 3.0735, 1.5694, 2.1149, 1.3328, 2.2987, 2.3868, 2.0610, 1.7098,
        2.7786, 0.7144, 1.2103, 1.7900, 1.5291, 1.4199, 0.6146, 1.6960, 1.2737,
        1.4440, 1.0962, 0.7080, 0.9264, 1.5038, 1.4215, 1.0008, 1.5716, 1.1938,
        1.1449, 1.2775, 1.4884, 2.3181, 2.0679, 1.5192, 2.2804, 1.3892, 0.5370,
        2.6489, 3.5138, 1.2895, 0.8142, 1.1352, 1.5531, 1.0602, 0.9301, 1.5422,
        3.1384, 2.6328, 0.7234, 1.0239, 2.7870, 1.6923, 1.9409, 1.0417, 1.5275,
        1.0204, 1.1857, 1.9010, 1.9758, 1.0271, 3.5730, 2.0795, 1.9613, 1.6155,
        1.4162, 1.6396, 1.5927, 1.8056, 2.1989, 1.0156, 0.8520, 0.6719, 2.0026,
        1.9016, 1.6816, 1.6423, 1.9284, 1.2101, 1.2118, 1.3368, 1.5291, 1.5216,
        1.3670, 1.2339, 2.6575, 1.4810, 2.6987, 1.8524, 1.7595, 2.0890, 1.5045,
        1.1062, 1.0383, 1.1541, 0.5829, 1.3923, 0.9110, 2.0319, 1.6023, 1.1304,
        1.6468, 1.1742, 0.8928, 1.9110, 1.6604, 1.2172, 1.2598, 1.5300, 1.5767,
        1.3324, 1.1195, 1.8539, 1.3352, 1.5859, 1.2129, 1.7839, 1.8496, 1.5241,
        1.1481, 3.7946, 1.0742, 1.4281, 1.4405, 1.5594, 2.6971, 0.5205, 2.1962,
        0.7584, 1.1529, 2.1423, 1.7648, 0.6443, 1.4557, 1.1233, 1.3199, 1.4482,
        1.6802, 1.2315, 1.9078, 1.4933, 1.6587, 1.5267, 1.5217, 1.6548, 0.8309,
        1.8014, 2.2896, 1.5169, 1.0211, 2.9553, 2.4223, 1.8947, 1.4961, 1.2960,
        2.1834, 1.6702, 1.6979, 1.4807, 4.0326, 1.4428, 2.2868, 2.2446, 0.8776,
        1.4435, 1.3217, 1.7549, 1.8351, 1.9975, 1.4085, 2.7779, 0.7821, 0.8768,
        1.2397, 2.1136, 1.5885, 0.9675, 1.8210, 1.6036, 1.6394, 1.0843, 1.1220,
        1.8616, 1.8701, 1.5198, 2.0045, 1.9928, 1.1864, 1.1727, 1.5417, 1.3216,
        1.3659, 0.4018, 1.3609, 1.3784, 2.3058, 1.3998, 1.5110, 1.4329, 2.5830,
        1.1446, 1.3450, 1.3286, 1.9040, 2.2163, 1.0413, 1.9653, 1.0994, 1.1092,
        1.9641, 0.8526, 2.1617, 2.5969, 1.6278, 1.8573, 1.1764, 0.9275, 2.5766,
        0.8539, 2.2812, 2.1248, 2.4947, 1.9619, 1.8708, 1.5642, 1.4486, 2.6816,
        3.9507, 1.3032, 1.4925, 2.3248, 1.0578, 1.3049, 1.9680, 1.3576, 0.8015,
        0.9170, 1.2959, 1.2559, 3.3727, 1.1695, 1.3548, 1.5105, 1.0693, 0.9420,
        1.0232, 1.6602, 2.0308, 1.3461, 1.9119, 1.4404, 1.4174, 2.2034, 1.0621,
        1.4655, 2.1646, 0.7737, 1.7129, 1.7957, 0.8908, 1.7243, 1.0835, 2.1080,
        0.9912, 1.0621, 1.5466, 0.7767, 1.2563, 2.0107, 1.2367, 1.1604, 1.9097,
        1.4603, 1.4552, 1.4235, 1.3901, 1.8377, 2.7979, 0.9028, 1.2268, 2.0427,
        2.3610, 1.3593, 1.0994, 1.2643, 2.0739, 2.1083, 0.9962, 2.4029, 1.6047,
        0.9866, 0.7698, 2.0004, 1.4642, 1.4034, 2.1229, 1.0652, 2.5803, 1.5212,
        1.2022, 1.2601, 1.1013, 2.7143, 1.4931, 1.5670, 1.6491, 1.2985, 1.0260,
        3.1555, 1.1007, 1.0014, 2.2145, 1.7806, 1.1327, 1.8291, 1.2032, 1.4978,
        1.4281, 1.1480, 1.3451, 1.4800, 1.8004, 1.0893, 1.8699, 1.0196, 2.3429,
        1.3599, 1.3909, 1.2261, 1.3368, 1.5329, 1.2753, 0.7167, 1.4220, 1.8578,
        0.8207, 1.3027, 0.9071, 1.1997, 2.7024, 0.5625, 0.9515, 1.6770, 1.1591,
        2.0613, 1.8101, 1.3727, 2.4369, 1.7750, 1.4228, 1.4521, 1.0343])
mlp.net.1.batch_norm.num_batches_tracked tensor(546)
mlp.net.2.linear.weight tensor([[ 0.0160,  0.0866,  0.0018,  ...,  0.0739, -0.0364, -0.0470],
        [ 0.0035,  0.0902, -0.0852,  ...,  0.1334,  0.0243,  0.1461],
        [ 0.0614, -0.0285, -0.0885,  ...,  0.1241,  0.2000, -0.0044],
        ...,
        [-0.0439,  0.0651,  0.0625,  ..., -0.0721,  0.0133, -0.0348],
        [ 0.0268,  0.0276,  0.0846,  ...,  0.0453,  0.1143, -0.0478],
        [-0.0860, -0.1451,  0.0499,  ..., -0.0289,  0.0420, -0.0958]])
mlp.net.2.linear.bias tensor([ 1.2231e-01,  3.2937e-02,  1.4423e-01,  9.4588e-02, -6.1233e-02,
         6.9274e-03, -3.4423e-02, -5.5484e-02, -7.7884e-02,  9.0444e-02,
        -1.1522e-01, -8.5278e-02, -2.1639e-02, -6.3570e-02, -1.2026e-02,
         1.1612e-01, -1.2990e-01,  8.2320e-03,  8.0794e-02, -1.2544e-02,
         9.6614e-02, -8.2176e-02,  2.4660e-02, -1.6797e-02, -3.2017e-02,
        -3.0365e-02,  3.5413e-03,  8.5212e-02,  2.0710e-02, -9.1884e-02,
         2.4969e-02, -7.2806e-02, -1.1294e-02,  8.5711e-02,  7.6876e-02,
         3.9380e-02,  5.0523e-02,  4.1626e-02, -1.9104e-02, -8.1638e-02,
         5.7988e-02, -7.2122e-02,  4.0950e-02, -5.5836e-02, -6.5209e-02,
        -2.0165e-02,  5.1163e-02, -1.7828e-02, -1.3100e-01, -8.1415e-03,
        -4.6277e-02, -5.1796e-02,  1.4978e-01,  5.5902e-02, -1.2831e-02,
         8.6620e-02,  1.0840e-01,  4.0496e-03, -1.4130e-01, -1.8447e-01,
        -1.9925e-01, -1.1842e-01, -6.2839e-02, -1.0142e-01, -8.7967e-02,
        -4.1854e-02, -1.2663e-02, -4.7427e-02, -1.2244e-01,  8.1000e-02,
        -3.0983e-02,  5.0329e-04,  6.6185e-02,  9.7250e-02, -3.1456e-02,
         9.3525e-02,  1.8178e-01,  3.1702e-03,  1.3950e-02,  1.1449e-01,
         4.0777e-02,  9.5524e-02, -1.8682e-01,  2.2316e-02,  3.3251e-02,
         2.2019e-01,  5.8610e-03,  5.5276e-02, -2.3216e-02, -8.4640e-02,
        -2.6468e-02, -7.0532e-02, -8.8791e-02, -7.8112e-02, -1.8040e-01,
         9.8207e-03, -9.8573e-02, -5.4749e-02, -7.0951e-02, -3.2847e-02,
         1.2753e-01,  3.0542e-02, -3.5661e-02, -7.1819e-02, -5.2481e-02,
         6.8705e-02,  3.5300e-02,  9.9883e-02, -3.9712e-02, -2.0225e-02,
        -9.0388e-03, -8.7945e-03, -4.1426e-02,  5.5458e-03,  3.0865e-02,
        -3.5423e-02, -9.5087e-02,  6.5959e-02, -2.5410e-02,  7.7570e-02,
        -1.2207e-01, -2.2593e-01, -1.2522e-01, -8.2225e-02, -1.1150e-01,
         6.5622e-02,  1.6713e-04,  2.7317e-02,  4.6506e-02,  5.8597e-02,
         9.0774e-02,  7.1333e-02,  6.8266e-03,  1.8487e-01, -1.8405e-02,
        -1.1908e-02, -1.2911e-02, -9.3234e-02, -2.4541e-02,  5.9602e-02,
         3.0941e-02,  3.9631e-03, -5.2372e-03,  1.3143e-01, -8.2145e-02,
        -8.9235e-02,  7.6866e-02,  9.3089e-02,  2.4909e-02, -1.9672e-01,
        -8.2950e-02,  5.2599e-02,  5.4201e-03,  1.8858e-01, -1.4198e-03,
        -7.8423e-03, -1.7015e-02,  1.7647e-02,  1.0603e-01, -1.6866e-02,
         6.4187e-02, -8.0018e-02,  5.8901e-02, -3.4922e-02,  2.8108e-02,
        -5.4886e-02, -5.4576e-02, -1.1679e-01, -2.3632e-02,  2.6079e-02,
        -6.4386e-04, -2.9130e-02, -1.1506e-02,  5.7029e-02, -6.6407e-02,
         4.4381e-02,  2.7358e-03,  3.6079e-02,  8.6588e-02,  3.2249e-03,
        -5.8763e-02,  9.3144e-02,  3.5590e-03, -8.6114e-02,  7.8679e-02,
        -1.6407e-01, -2.2635e-02, -1.2124e-01,  3.0338e-03,  9.1209e-04,
        -9.4800e-02, -2.1174e-02,  5.5644e-02,  1.0957e-02, -8.2938e-02,
        -1.2268e-01, -3.9929e-02, -9.7194e-02, -5.0907e-02,  5.3406e-02,
         3.3956e-02, -5.2186e-02, -3.5876e-02, -7.3373e-02, -2.6801e-03,
         1.7533e-02, -8.1910e-02,  4.0665e-02,  3.0219e-02,  1.4792e-01,
        -3.0841e-02, -8.3237e-03,  5.3661e-02, -6.6571e-02, -5.4311e-02,
         3.2773e-02, -4.6302e-02, -5.9797e-02, -8.5429e-02, -1.1138e-01,
         9.9310e-03,  5.6714e-02,  2.4356e-02, -1.6429e-02,  3.5745e-02,
         7.0978e-02,  3.5597e-02, -1.2444e-02,  2.1297e-02,  1.1046e-01,
         1.4987e-02, -2.3542e-03,  2.1334e-01, -8.3488e-02, -5.7363e-02,
        -4.3092e-02,  1.3973e-01,  2.6236e-02, -5.0922e-02,  1.1377e-02,
         8.4200e-02, -6.8250e-02,  7.5748e-02,  7.1800e-02,  2.8505e-02,
        -1.1895e-01,  5.5869e-02,  3.2626e-02, -1.0236e-01,  2.9296e-02,
         1.7803e-01,  4.1116e-03, -8.3808e-02,  4.1271e-02,  3.4182e-02,
         1.2162e-01,  1.7507e-01,  7.9230e-02,  5.0150e-02,  5.9807e-02,
         2.1037e-02, -3.6197e-02,  3.0873e-02,  2.0999e-02, -1.0072e-01,
         5.9488e-02,  1.3955e-01,  3.4264e-02, -3.9724e-03,  1.6735e-02,
         6.0073e-02, -2.4150e-02,  1.4059e-01, -8.1251e-03,  7.1666e-02,
        -2.6376e-02, -3.1045e-02,  1.6319e-01, -5.2755e-02,  4.6738e-02,
         2.8929e-02,  2.1915e-01,  1.3841e-01, -7.8550e-02,  6.1113e-02,
        -1.3234e-02, -1.2809e-01, -6.8820e-02,  3.6979e-02,  6.9838e-02,
        -3.4599e-02, -9.0084e-02, -8.8894e-02,  3.3757e-03, -8.0912e-02,
         4.2609e-02,  1.3095e-01, -4.4877e-02, -1.5338e-01, -9.8542e-02,
         1.6168e-02,  1.4704e-01, -1.4161e-01, -3.6911e-02,  4.0184e-02,
        -1.2700e-01, -3.4776e-02, -5.6755e-02, -7.4606e-02,  8.1641e-02,
        -3.0097e-02, -6.3714e-02, -7.3860e-02, -2.6817e-02,  1.1819e-01,
         1.6669e-02,  7.9185e-02, -4.8670e-02,  6.6373e-02, -6.7372e-02,
         7.2320e-02, -4.4478e-02, -3.9778e-02, -1.4064e-01,  1.0455e-01,
         1.1226e-01,  2.8403e-02,  3.2404e-02,  8.7624e-02, -7.5495e-03,
        -1.4758e-01,  5.1399e-02,  1.2587e-01,  5.9855e-02, -3.6845e-02,
        -6.0589e-02,  7.1487e-02,  1.8855e-01, -3.4475e-02, -4.7036e-02,
        -1.0412e-01,  7.8324e-02, -5.7513e-02, -9.6112e-03, -9.9003e-02,
        -5.1352e-02,  9.8624e-02,  1.1251e-01,  1.8958e-01,  3.9197e-02,
        -1.9836e-01, -1.9982e-02,  5.4545e-02, -2.8344e-03, -1.5904e-02,
         6.3287e-02, -8.3432e-02,  1.1646e-01, -3.6502e-02, -9.1100e-02,
        -1.4151e-01,  1.2634e-01, -9.5699e-02, -4.5440e-02,  7.9875e-03,
        -1.1077e-02,  4.8778e-02,  2.0900e-02, -2.9508e-02,  1.3550e-01,
         1.6309e-02, -1.3169e-01, -2.8370e-02,  1.1307e-01,  7.3353e-02,
         8.3235e-02, -3.3345e-02, -3.3475e-02, -1.6972e-01, -1.4610e-01,
        -1.2052e-01, -6.8184e-02, -1.8598e-02, -3.8889e-02,  8.0051e-02,
        -7.5013e-02, -7.5856e-02, -2.1277e-02, -1.5627e-01, -1.2457e-01,
         6.2140e-02, -7.2864e-02, -1.0789e-01, -9.6365e-02,  4.0826e-02,
         2.9290e-03, -7.3083e-02,  4.2598e-02, -3.7620e-02, -4.1487e-02,
         1.2562e-01, -7.0921e-02,  2.9581e-02,  6.5527e-02,  5.2297e-02,
        -4.0196e-02,  3.2711e-02, -2.4481e-02,  5.6188e-02,  1.4552e-01,
         4.6576e-02, -7.4009e-02, -1.1581e-01,  1.9098e-01,  3.5662e-02,
        -3.3840e-02, -5.9836e-02, -6.4983e-02, -2.9540e-02, -4.7553e-02,
        -1.1485e-02, -8.4493e-02,  9.0960e-02, -1.4629e-01, -1.3465e-01,
        -2.1513e-02,  9.4666e-02,  3.2837e-02,  4.6817e-02,  8.7265e-02,
         3.6056e-02,  3.2869e-02, -5.0256e-02,  7.5945e-03, -1.3261e-02,
        -1.3359e-01,  3.0075e-02,  9.6602e-02,  2.4935e-02, -1.1753e-01,
         4.2429e-02,  1.2545e-02,  1.3222e-02,  8.3376e-02, -1.2407e-02,
         7.4080e-02, -3.4965e-02,  1.5014e-01, -1.4984e-02,  2.7796e-02,
         7.9134e-02, -2.1979e-02, -3.1642e-02, -1.1885e-02,  1.3456e-01,
        -1.0662e-02,  1.5916e-02, -6.2820e-02,  6.2922e-02, -1.5070e-01,
         6.4348e-02,  1.0310e-01, -3.6274e-02,  5.4965e-03, -1.2024e-01,
        -7.8743e-02, -1.1085e-01,  1.5571e-02,  1.3269e-01,  1.4896e-01,
         2.2179e-03,  2.4157e-02,  7.0556e-02,  6.9862e-02,  9.9207e-03,
         6.2798e-02, -2.5889e-02, -1.2245e-01,  7.2012e-02,  1.5857e-01,
        -4.8160e-02,  1.9925e-01, -1.5182e-02,  3.0071e-02, -9.0012e-02,
        -4.5427e-02, -1.1444e-01,  1.0867e-01, -1.7229e-01,  1.2191e-02,
        -2.6076e-02,  1.1572e-01, -1.1830e-01, -7.1348e-02,  4.0522e-02,
        -8.8221e-02, -1.8326e-02,  2.2535e-02,  2.3469e-03,  9.3016e-03,
         9.5684e-03, -9.8571e-02,  9.8673e-02,  6.3402e-03, -1.6324e-01,
        -3.4544e-02,  9.4919e-03,  7.5360e-02, -1.5392e-01,  1.4000e-01,
         9.9702e-02,  3.9174e-02])
mlp.net.2.batch_norm.weight tensor([0.3931, 0.5249, 0.4336, 0.3899, 0.3537, 0.5036, 0.4689, 0.5200, 0.4877,
        0.4478, 0.3269, 0.5150, 0.3930, 0.4458, 0.5249, 0.4635, 0.5212, 0.4735,
        0.4028, 0.4481, 0.4985, 0.4320, 0.3042, 0.2915, 0.3228, 0.5398, 0.3193,
        0.3405, 0.2837, 0.3116, 0.4114, 0.4625, 0.4324, 0.5216, 0.4215, 0.4248,
        0.3651, 0.2813, 0.3211, 0.3627, 0.4548, 0.3992, 0.3396, 0.4412, 0.4152,
        0.4843, 0.3669, 0.3249, 0.4095, 0.3606, 0.6741, 0.3893, 0.3916, 0.4707,
        0.4040, 0.4210, 0.5042, 0.4616, 0.4173, 0.4071, 0.5638, 0.3963, 0.3488,
        0.4332, 0.5555, 0.4482, 0.3904, 0.3479, 0.6297, 0.5895, 0.3839, 0.4537,
        0.3639, 0.4260, 0.4620, 0.5281, 0.5676, 0.4606, 0.4777, 0.4113, 0.5540,
        0.4578, 0.5857, 0.3939, 0.5087, 0.3624, 0.4308, 0.3974, 0.4495, 0.4394,
        0.3927, 0.3309, 0.4860, 0.3988, 0.4910, 0.4538, 0.5495, 0.4704, 0.3511,
        0.3929, 0.4736, 0.4292, 0.5234, 0.3796, 0.4385, 0.3558, 0.2579, 0.4719,
        0.2771, 0.5139, 0.4755, 0.4264, 0.2992, 0.4091, 0.4149, 0.3655, 0.3960,
        0.2618, 0.3509, 0.4948, 0.3660, 0.4463, 0.4562, 0.4338, 0.4484, 0.3935,
        0.3499, 0.3100, 0.3342, 0.3799, 0.5285, 0.3396, 0.3336, 0.4352, 0.4220,
        0.3551, 0.2431, 0.3731, 0.3775, 0.2861, 0.4121, 0.4323, 0.4462, 0.6094,
        0.4077, 0.5311, 0.3677, 0.4286, 0.3709, 0.3983, 0.3911, 0.3974, 0.4029,
        0.4531, 0.2682, 0.3797, 0.4107, 0.3221, 0.4847, 0.4386, 0.4850, 0.4757,
        0.3633, 0.3162, 0.3564, 0.4027, 0.4260, 0.4189, 0.4453, 0.2885, 0.4890,
        0.4415, 0.4898, 0.4235, 0.4193, 0.3464, 0.4574, 0.4465, 0.5253, 0.5633,
        0.4284, 0.3793, 0.4715, 0.4670, 0.4421, 0.3207, 0.4114, 0.4067, 0.3751,
        0.3453, 0.4506, 0.3919, 0.3497, 0.3237, 0.4854, 0.4431, 0.4578, 0.3535,
        0.4492, 0.3693, 0.3492, 0.4640, 0.3355, 0.4923, 0.3620, 0.5240, 0.4552,
        0.4944, 0.3917, 0.4095, 0.3769, 0.4349, 0.3955, 0.4127, 0.4596, 0.3844,
        0.3979, 0.4533, 0.3427, 0.3734, 0.4790, 0.3997, 0.4127, 0.4143, 0.5261,
        0.3541, 0.2615, 0.3236, 0.2822, 0.4215, 0.3803, 0.5298, 0.4771, 0.3466,
        0.4572, 0.4160, 0.4884, 0.3556, 0.3920, 0.4101, 0.4870, 0.4492, 0.4624,
        0.4258, 0.5148, 0.4706, 0.5282, 0.3750, 0.4913, 0.5393, 0.3736, 0.4825,
        0.5019, 0.4124, 0.3601, 0.4087, 0.3797, 0.3737, 0.5010, 0.3875, 0.3856,
        0.4683, 0.4385, 0.3670, 0.2937, 0.4838, 0.4237, 0.4887, 0.4585, 0.3778,
        0.4614, 0.3763, 0.4664, 0.2555, 0.5318, 0.4236, 0.3844, 0.3221, 0.4853,
        0.4816, 0.4898, 0.5623, 0.4067, 0.4677, 0.3726, 0.5244, 0.3756, 0.4074,
        0.5025, 0.4334, 0.4302, 0.3630, 0.4268, 0.4026, 0.4222, 0.3105, 0.5062,
        0.4197, 0.4036, 0.2640, 0.4061, 0.4917, 0.2714, 0.5197, 0.4078, 0.4489,
        0.3680, 0.4344, 0.4369, 0.3945, 0.4549, 0.6258, 0.4154, 0.3940, 0.3629,
        0.4326, 0.4832, 0.2514, 0.3919, 0.5370, 0.5718, 0.3755, 0.5248, 0.4136,
        0.3599, 0.5139, 0.4190, 0.3529, 0.4070, 0.5049, 0.3902, 0.4246, 0.3842,
        0.3959, 0.4990, 0.4219, 0.3268, 0.4451, 0.3358, 0.4205, 0.3366, 0.3449,
        0.2256, 0.4142, 0.3263, 0.5531, 0.5002, 0.4296, 0.2729, 0.3654, 0.5190,
        0.4853, 0.4765, 0.3330, 0.4533, 0.6228, 0.3764, 0.5575, 0.4516, 0.3080,
        0.5280, 0.5545, 0.3738, 0.5642, 0.4803, 0.4244, 0.3889, 0.5211, 0.5040,
        0.4615, 0.3933, 0.3316, 0.3852, 0.3111, 0.5246, 0.4197, 0.2988, 0.4812,
        0.4171, 0.3904, 0.4055, 0.4749, 0.3719, 0.4881, 0.3884, 0.3379, 0.4034,
        0.3667, 0.4436, 0.2505, 0.4004, 0.3322, 0.4876, 0.4678, 0.4954, 0.3628,
        0.2765, 0.3651, 0.4400, 0.3881, 0.4332, 0.4462, 0.4302, 0.3345, 0.4669,
        0.4662, 0.4184, 0.2610, 0.4939, 0.4666, 0.3101, 0.3175, 0.5568, 0.4473,
        0.3680, 0.3792, 0.2905, 0.3413, 0.3813, 0.5201, 0.2786, 0.3920, 0.3398,
        0.5526, 0.2955, 0.3812, 0.3758, 0.3334, 0.3871, 0.4139, 0.5176, 0.4181,
        0.4742, 0.5088, 0.3648, 0.2752, 0.4026, 0.4880, 0.3675, 0.4160, 0.2868,
        0.5535, 0.4201, 0.3354, 0.3939, 0.4047, 0.5417, 0.3495, 0.4349, 0.3754,
        0.4626, 0.4202, 0.3874, 0.3457, 0.5100, 0.5203, 0.4108, 0.5144, 0.4284,
        0.4829, 0.4172, 0.4402, 0.2407, 0.2892, 0.5222, 0.4687, 0.4043, 0.2717,
        0.4465, 0.3908, 0.4050, 0.3679, 0.4908, 0.3610, 0.3707, 0.4828, 0.3253,
        0.4101, 0.4860, 0.3208, 0.5177, 0.4707, 0.3998, 0.3112, 0.3420, 0.3480,
        0.3146, 0.6060, 0.3377, 0.4355, 0.4635, 0.3759, 0.4718, 0.5297, 0.4135,
        0.1541, 0.3314, 0.5046, 0.5399, 0.3133, 0.4376, 0.5273, 0.5268, 0.3908,
        0.3771, 0.5334, 0.4106, 0.5243, 0.4346, 0.5544, 0.4644, 0.3743])
mlp.net.2.batch_norm.bias tensor([ 1.1876e-02, -6.5965e-02,  8.9726e-02, -8.5642e-02, -5.7805e-02,
        -2.7324e-02, -6.7395e-02, -2.2104e-02,  9.1435e-04,  2.2348e-01,
        -9.0511e-02,  3.1948e-03,  6.4491e-03, -1.0817e-01, -6.7565e-02,
        -6.2342e-02, -4.1016e-03, -4.4793e-02, -5.2831e-03, -8.0469e-02,
        -9.4359e-02, -3.1602e-02,  9.9018e-02, -1.5281e-01, -3.1157e-01,
        -6.7215e-02, -7.4963e-02, -1.0801e-02, -8.8656e-02, -1.8409e-01,
         6.0711e-02, -2.4076e-02, -7.4075e-02, -4.4269e-02, -1.0819e-02,
        -6.8207e-03, -1.2943e-02,  3.3007e-03,  1.8007e-02, -3.5605e-02,
         6.1307e-02,  1.6041e-02,  2.2087e-03, -7.1701e-03, -1.3710e-01,
         1.9427e-02,  3.5049e-02, -6.4975e-03,  4.1515e-02, -7.5382e-02,
        -4.6848e-02, -2.3810e-02, -9.2054e-02, -8.3850e-02,  7.0610e-02,
         8.5407e-02,  7.0456e-02, -1.5341e-01,  7.0619e-02, -2.2080e-02,
        -1.0561e-01, -3.8082e-02,  1.1570e-01, -3.0105e-02, -6.9975e-02,
        -2.5715e-02, -7.6686e-02, -1.4547e-02,  4.3517e-02, -8.6278e-02,
         4.8286e-02,  8.3262e-02, -7.5602e-02,  6.6687e-02,  1.3484e-01,
         7.2775e-02, -1.0150e-01, -5.2787e-02,  7.6132e-02, -1.4675e-01,
         2.3499e-02, -9.2954e-02,  6.0249e-03, -1.2839e-01, -2.0280e-01,
        -6.1258e-02,  1.2463e-02, -1.2672e-01, -2.0891e-02,  3.7871e-02,
         5.1966e-02, -6.9133e-02,  1.2341e-01, -1.5617e-01,  1.6466e-02,
         4.6430e-02,  1.2957e-03, -7.9214e-02, -1.0663e-01, -2.2987e-02,
        -1.7093e-02,  9.8392e-02,  4.9166e-02,  4.4133e-02,  1.3918e-01,
        -8.1905e-02, -2.5729e-02, -1.7076e-01,  1.4488e-01,  9.0301e-02,
        -5.2191e-02, -9.6823e-02, -6.5091e-02, -8.1542e-02,  7.6911e-02,
        -1.2674e-01,  2.9391e-02, -1.0736e-02,  1.0924e-02, -1.0122e-01,
         1.9776e-02, -1.8637e-01,  1.9747e-02, -1.3493e-01, -9.9177e-02,
        -5.9131e-02,  1.3080e-02, -1.1688e-01,  1.0433e-01, -9.8286e-02,
         1.5924e-02,  6.1880e-02,  1.3104e-01,  2.2884e-02,  6.6833e-02,
         9.5077e-02,  6.8604e-02,  1.5153e-01,  1.0188e-01,  3.7703e-02,
        -3.9327e-02, -2.0252e-02, -1.2004e-01, -1.8816e-01, -2.4193e-02,
        -5.8260e-02, -1.8377e-01,  1.4036e-02,  7.1522e-02, -1.2893e-01,
        -1.0735e-01, -1.0955e-01, -3.7545e-02,  4.2914e-02,  4.1477e-02,
        -1.2138e-02,  1.4717e-01,  3.5142e-02,  1.1847e-01,  1.2342e-01,
         6.5563e-02,  2.6147e-02, -6.3639e-02, -2.7404e-02,  3.1463e-03,
        -1.9751e-01, -8.6500e-03,  3.1029e-02, -6.6299e-02,  6.5675e-02,
         3.4361e-02, -9.0593e-02,  5.7955e-02, -3.8580e-02, -8.1785e-02,
        -1.1696e-02,  2.6176e-02, -8.9449e-02, -4.0456e-03, -1.2383e-01,
         1.0043e-01,  1.9815e-02, -1.5332e-02, -9.5684e-03,  1.1740e-01,
        -1.7924e-01,  1.9436e-02,  8.6029e-02,  4.5386e-02, -1.0530e-01,
         1.2676e-01,  1.7025e-02, -1.0914e-01,  2.5725e-02,  9.9129e-02,
        -6.3632e-02, -2.0270e-02, -3.9064e-02, -6.8603e-02, -4.2086e-02,
         6.9024e-02,  5.6098e-02, -4.7570e-02, -4.6790e-02, -2.3742e-03,
        -1.3534e-01, -3.3920e-02, -6.3425e-03, -3.2372e-03,  6.9266e-02,
        -8.0368e-03,  2.4378e-02,  1.1172e-01,  6.7556e-03,  8.8128e-02,
        -1.4856e-01, -6.7227e-02, -7.5721e-02, -1.6073e-01,  1.1110e-02,
        -8.6073e-02,  2.1888e-02,  7.1198e-02, -1.9042e-02, -6.3666e-02,
        -1.1280e-01,  1.3174e-02, -3.1349e-02, -1.5772e-01, -1.1337e-01,
        -3.7654e-03,  5.9648e-02, -1.5666e-01, -3.2368e-02, -1.0965e-01,
        -7.0598e-02, -7.9494e-02, -8.8120e-03,  5.7541e-03,  1.3122e-02,
        -7.9852e-02, -3.4724e-02,  9.8387e-02,  1.7605e-02, -2.3420e-02,
        -3.3906e-02, -9.4029e-02,  9.3075e-02, -1.0436e-01,  7.3017e-02,
         1.9783e-02, -2.6007e-02, -8.6073e-02, -1.6961e-01,  6.3183e-02,
         1.0784e-01,  2.3944e-02,  4.0092e-02,  9.5567e-03,  1.1840e-01,
        -5.7027e-02,  9.6520e-02,  6.9264e-02, -8.1139e-03, -2.3698e-02,
         6.0286e-03, -7.0698e-02,  7.7014e-02, -1.3865e-01,  1.3498e-01,
        -2.2095e-02,  1.9253e-02, -3.0825e-02, -8.9844e-03, -1.0212e-01,
        -1.1811e-01, -1.8545e-02,  9.0481e-02, -3.7241e-02,  1.3903e-01,
        -1.7612e-01,  3.5281e-03, -5.1558e-02, -1.1563e-02, -3.9637e-02,
        -3.9236e-02,  3.3873e-03, -5.3623e-02,  3.4774e-02,  1.9154e-03,
        -6.4966e-02, -6.2304e-02, -8.4551e-02,  7.2325e-02, -1.3930e-01,
         4.6313e-02,  1.1972e-01,  9.0674e-03, -3.7647e-02,  5.8300e-02,
         4.5175e-02, -8.7739e-02, -1.4990e-03, -1.0252e-01, -8.7669e-02,
         5.7704e-02, -7.9915e-02,  3.0985e-02, -4.2300e-02, -3.6618e-02,
        -1.4652e-02, -1.5011e-02,  7.4120e-02, -1.0781e-01, -6.0751e-03,
         1.2520e-01, -8.3231e-02,  4.9092e-02, -1.8482e-01, -7.5141e-02,
         2.6210e-02, -3.7862e-02, -4.1212e-02, -1.3684e-02, -5.9087e-02,
         3.3363e-02, -4.2825e-02,  5.7606e-02, -8.2498e-02, -8.4754e-02,
        -5.6520e-02,  2.2111e-02, -7.3089e-02,  4.1676e-03, -9.7717e-02,
        -4.3449e-02,  7.5909e-02, -1.2287e-02, -8.3278e-02, -1.0278e-01,
         1.6765e-01,  1.2369e-01, -5.9022e-02, -1.1911e-01, -1.4255e-01,
        -2.7882e-02,  1.5882e-01,  1.1769e-01, -3.2916e-02,  7.5822e-02,
        -9.2224e-02, -1.5972e-01,  8.2814e-02, -4.6022e-02, -3.4257e-02,
        -9.9918e-02,  3.6881e-02, -1.2857e-01, -1.2655e-02,  1.1793e-04,
         3.4365e-02,  2.5672e-02, -9.8452e-02, -4.9941e-03, -4.3261e-02,
        -2.6907e-02, -2.4067e-02,  1.6315e-01,  8.0519e-02,  2.7142e-02,
         5.0402e-03, -3.7029e-02,  4.9977e-02,  1.2241e-02,  3.5276e-02,
        -2.6683e-02, -7.5572e-02,  3.3669e-04,  2.6368e-04, -1.1548e-01,
         6.5885e-02, -1.8986e-02, -1.1160e-01, -5.6348e-03, -3.8868e-02,
        -7.6187e-02, -3.7832e-02, -2.8406e-02, -1.5844e-01,  7.8808e-02,
        -1.4450e-03,  6.6935e-02, -1.6076e-01, -1.5071e-01,  1.0259e-01,
         4.5269e-03,  4.1986e-03, -3.4175e-02,  4.6160e-03,  3.6730e-02,
        -5.5467e-02, -3.4848e-02,  1.2244e-01,  3.0690e-02, -1.3041e-01,
        -9.0366e-02, -9.8724e-02,  3.1179e-02, -1.5084e-02, -3.5819e-02,
        -3.7275e-02,  9.0650e-03, -1.3071e-01, -8.2767e-02,  4.1543e-02,
        -1.1961e-01, -8.6113e-03, -6.5030e-02, -9.5427e-02, -6.8781e-02,
         5.4360e-02, -6.9530e-02, -1.3958e-01,  1.0997e-01, -1.1180e-01,
        -2.7924e-02, -6.0133e-02, -2.9046e-03,  1.2510e-01,  3.6031e-02,
        -2.4651e-02,  8.2205e-02,  1.1424e-01, -3.1026e-02, -8.5973e-02,
         1.3309e-02, -6.1914e-02, -9.6534e-03,  4.0693e-02, -2.3598e-02,
         3.1972e-03, -9.6377e-02, -7.9334e-03, -1.2565e-01, -4.9906e-02,
        -4.0281e-02,  4.0918e-02, -6.4870e-02,  1.2797e-02,  1.0149e-01,
         8.4435e-02, -8.8086e-02, -1.4989e-01,  1.1136e-01, -8.4111e-02,
         7.2714e-02, -7.5500e-02,  4.2393e-02,  1.6200e-02, -2.1546e-02,
         1.1042e-01, -1.2544e-01,  6.8498e-02,  8.6613e-02,  4.3968e-02,
        -1.3258e-02, -4.9592e-02,  7.3181e-03,  1.6660e-01, -3.0808e-02,
        -5.3161e-02, -1.0266e-01,  3.7788e-02,  2.9721e-02,  4.3234e-02,
         3.4188e-02,  1.4587e-02,  1.3298e-02,  7.9325e-02, -1.1144e-01,
        -4.8527e-02, -7.2759e-02,  7.3265e-03,  1.0294e-01, -4.3695e-02,
         5.6031e-02,  1.6363e-01, -1.8525e-01,  3.3687e-02, -2.0567e-02,
         5.4412e-02,  2.3587e-01, -4.1496e-02, -3.0223e-02, -1.0532e-01,
         4.7540e-02, -2.2364e-02,  4.9098e-02,  3.8522e-03,  5.3133e-02,
         5.3368e-02, -1.2817e-01, -1.2149e-01, -6.2622e-02,  9.4593e-02,
        -6.2582e-03,  1.1103e-02, -1.9201e-01, -7.4661e-02, -9.0670e-02,
        -3.2350e-02,  5.0169e-02])
mlp.net.2.batch_norm.running_mean tensor([0.7263, 1.0866, 0.8448, 1.2963, 0.6716, 0.6760, 0.7014, 0.5503, 0.8567,
        0.7777, 0.7061, 0.8310, 0.8476, 0.6675, 1.0022, 0.9090, 0.7888, 0.7521,
        0.6753, 0.9762, 1.0398, 0.7122, 0.8985, 0.6298, 0.7584, 0.8608, 0.8371,
        0.8698, 0.5010, 0.9207, 0.7597, 0.5844, 0.7773, 0.8957, 0.7296, 1.0056,
        0.8971, 0.6918, 0.5064, 0.7390, 1.0691, 0.5849, 0.8983, 0.7322, 0.6965,
        0.8263, 1.1074, 0.8059, 0.7952, 0.7155, 0.5817, 0.6334, 1.0805, 0.9366,
        0.6928, 0.9718, 0.6522, 0.7299, 0.6479, 0.6238, 0.7284, 0.7456, 0.5270,
        0.7669, 0.6881, 0.6244, 1.1207, 0.6256, 0.7908, 1.0107, 0.5742, 0.9059,
        0.9604, 0.7796, 0.6215, 1.1241, 1.0926, 1.0560, 0.7590, 0.6711, 0.8170,
        1.0991, 0.6556, 1.0423, 0.7857, 0.8855, 0.8780, 0.9930, 0.8019, 0.7168,
        0.8266, 0.7235, 0.7299, 0.6580, 0.4857, 0.5337, 0.7876, 0.6880, 0.5926,
        0.8267, 0.9436, 0.9168, 0.7699, 0.8493, 0.8354, 0.8449, 0.6667, 0.8799,
        0.7330, 0.8958, 0.9178, 0.8853, 0.6847, 0.8130, 0.6499, 0.9769, 0.6814,
        0.4914, 0.8761, 1.0499, 0.6189, 0.4852, 0.7594, 0.7603, 1.0153, 0.8029,
        0.5746, 0.8422, 0.7073, 0.7528, 1.0944, 0.8313, 0.8576, 1.4741, 0.9181,
        0.6822, 0.6934, 0.5137, 0.7033, 0.5810, 1.3718, 0.7201, 0.8696, 1.1416,
        0.7585, 1.2395, 0.8465, 0.9433, 0.8944, 0.6772, 0.8215, 1.0583, 0.9451,
        0.9953, 0.7301, 0.6986, 0.6117, 1.0922, 1.1521, 0.7678, 0.8165, 0.8810,
        0.8772, 0.7405, 0.6964, 0.6853, 0.8106, 0.6973, 0.8959, 0.6744, 0.7328,
        0.8265, 0.7225, 0.8997, 0.7777, 0.7970, 0.7847, 1.0918, 0.8474, 0.8368,
        0.4659, 0.8238, 0.9759, 0.6238, 0.8215, 0.9236, 0.6246, 0.7088, 0.6553,
        0.6955, 0.6800, 0.6324, 0.8014, 0.4605, 0.7287, 0.8498, 0.8102, 0.7123,
        0.5763, 0.9661, 1.2272, 0.9242, 0.9184, 0.8292, 0.8469, 0.8323, 0.8220,
        0.9446, 0.6521, 1.2518, 0.6702, 0.8539, 0.7650, 0.5260, 0.7508, 0.6372,
        0.6803, 0.7138, 1.0069, 0.6286, 0.6469, 0.8240, 0.5879, 0.9081, 0.8188,
        0.8147, 0.9449, 0.7019, 1.0098, 1.0510, 0.8142, 0.8781, 1.0453, 0.7124,
        0.7522, 0.7631, 1.3291, 0.7438, 0.6688, 0.8755, 0.9196, 0.6602, 1.0377,
        0.8148, 1.1659, 0.7453, 0.9246, 0.7349, 0.7852, 0.9404, 0.8924, 0.8321,
        0.8012, 0.6133, 0.6905, 1.1925, 0.9333, 0.7624, 0.7463, 0.9297, 0.8633,
        0.8577, 0.8987, 0.7049, 0.5726, 0.6691, 1.2264, 0.8748, 0.8381, 0.6313,
        0.7907, 0.7199, 0.9521, 0.5365, 0.6930, 0.8744, 0.6648, 0.9038, 0.6768,
        1.0673, 1.0555, 1.0555, 1.7021, 0.8708, 0.6130, 0.9650, 0.6085, 0.8192,
        1.0891, 1.0897, 0.6182, 0.4766, 0.7069, 0.8796, 0.7916, 0.9462, 1.1087,
        0.6983, 0.7370, 0.4835, 1.1349, 1.1589, 0.5497, 0.7350, 0.9390, 0.6277,
        0.7114, 0.6776, 0.6499, 0.8039, 1.0620, 1.2775, 0.5863, 1.1632, 0.7019,
        0.9382, 0.8850, 0.6082, 0.7402, 0.6898, 0.8915, 0.6557, 0.6443, 0.7488,
        1.1568, 1.1041, 0.7520, 1.0164, 0.9579, 0.7234, 0.9081, 0.9583, 0.8844,
        0.7538, 0.8047, 1.0189, 0.9167, 1.0813, 0.4588, 0.7568, 0.6229, 0.8391,
        0.6511, 0.7936, 0.7099, 0.9178, 1.1761, 1.2981, 0.9236, 0.9410, 0.6627,
        0.7365, 0.9208, 0.7158, 0.7472, 1.2093, 0.6479, 0.9589, 1.0671, 0.8928,
        1.0722, 0.9279, 0.8997, 0.9195, 1.0461, 0.5125, 0.7936, 0.8746, 0.9594,
        0.8105, 0.7114, 0.6606, 0.7320, 0.6999, 0.9834, 1.1436, 0.5390, 0.9034,
        0.8226, 0.8792, 0.5548, 0.7804, 0.8314, 0.7323, 0.9738, 0.7493, 0.8906,
        0.7673, 0.6550, 0.7115, 0.8105, 0.8087, 0.7324, 1.0196, 0.9088, 0.6816,
        0.6517, 0.7785, 0.7126, 0.6828, 0.8800, 0.6563, 0.6852, 0.7383, 0.8192,
        0.7901, 0.7665, 0.7383, 0.9285, 0.8424, 1.0257, 0.8904, 1.0366, 1.4143,
        0.6413, 0.8484, 0.9533, 0.6942, 0.7455, 0.7551, 0.8255, 0.6698, 0.8068,
        0.8716, 0.6573, 0.9455, 0.9003, 0.9962, 0.8683, 1.2624, 0.9712, 0.9971,
        0.5852, 1.0826, 0.6666, 0.6120, 0.7728, 1.0565, 0.7779, 0.6520, 0.8609,
        1.0390, 0.9397, 0.8701, 0.7593, 1.0024, 0.5998, 1.0643, 0.9913, 0.6597,
        0.9594, 0.7077, 0.8188, 0.7557, 1.6925, 0.8812, 0.8214, 0.4753, 0.6658,
        0.7757, 0.6475, 0.7588, 0.6027, 0.8841, 0.6260, 0.6570, 0.6581, 0.7562,
        1.0076, 0.8259, 0.7228, 0.9256, 0.7000, 0.6492, 0.8543, 0.8322, 0.7108,
        0.6748, 1.1659, 1.0485, 1.2158, 1.0186, 1.0016, 0.7280, 0.5755, 0.5671,
        0.8445, 1.0039, 0.4154, 0.9097, 0.8024, 1.2432, 0.7263, 0.8638, 0.9520,
        0.5362, 0.7366, 0.5815, 0.8925, 0.5801, 0.8919, 0.5871, 1.0743, 0.9261,
        0.6593, 0.7858, 0.7559, 1.1823, 0.6099, 1.1342, 1.2947, 1.0938])
mlp.net.2.batch_norm.running_var tensor([1.0154, 5.2998, 1.2439, 2.6207, 2.0068, 1.4723, 1.1425, 0.8430, 3.4489,
        1.2558, 1.5876, 3.3856, 2.8427, 2.1811, 2.2550, 1.0700, 3.0089, 1.4129,
        1.3088, 2.1908, 2.0826, 2.0792, 1.3822, 1.8049, 1.9458, 1.6362, 1.8154,
        1.6274, 0.5153, 4.3820, 1.0752, 1.5633, 1.9505, 2.0471, 1.6531, 3.3965,
        1.4925, 0.9992, 0.7281, 2.5175, 2.2917, 1.7168, 2.0609, 2.8636, 1.8300,
        1.4095, 2.5371, 1.3011, 2.4657, 1.8796, 1.8556, 1.9752, 1.5357, 1.8126,
        1.3612, 1.3037, 1.0051, 2.1929, 1.1957, 2.2869, 2.8203, 2.2296, 0.9867,
        2.7883, 2.1807, 1.4852, 2.2861, 1.0642, 1.7043, 2.4437, 1.1205, 1.5508,
        1.4717, 2.1768, 1.0854, 2.0010, 1.5811, 1.6968, 1.3218, 1.6936, 1.4662,
        2.5308, 2.1079, 1.6853, 2.0709, 2.3320, 1.5231, 2.6069, 2.0315, 1.4815,
        1.9130, 2.2279, 2.0421, 1.7307, 0.9190, 0.6460, 2.9839, 2.2817, 1.5383,
        1.2737, 1.8837, 1.0820, 2.1553, 3.7657, 1.4273, 2.3539, 1.2438, 1.1270,
        1.5014, 2.7969, 2.0679, 1.3375, 0.9610, 1.1762, 1.0670, 4.0966, 2.2693,
        0.5572, 2.8987, 1.5096, 1.5693, 1.0586, 2.7020, 1.4439, 4.7995, 0.8611,
        0.7058, 3.1872, 0.9449, 1.0647, 2.7831, 1.1734, 2.6640, 2.8504, 2.6115,
        1.4075, 1.2781, 0.6601, 1.8682, 0.9102, 3.2632, 1.4167, 3.4314, 2.5352,
        1.4491, 3.4607, 1.2814, 1.5399, 1.2336, 2.3720, 3.1322, 1.6713, 3.0158,
        1.5035, 2.4454, 1.4052, 0.8121, 1.9658, 2.6083, 2.3030, 1.6136, 3.2620,
        2.7873, 1.7684, 1.7172, 1.9006, 2.3636, 1.5953, 2.0296, 0.8692, 1.5191,
        2.3627, 1.4098, 2.3713, 1.6581, 2.5261, 2.1203, 3.3891, 1.4798, 2.9921,
        0.7484, 1.4345, 4.1809, 2.1327, 1.6574, 3.3328, 0.9220, 1.5055, 0.8814,
        1.3528, 1.3862, 1.4954, 1.6891, 0.5595, 2.2558, 3.6169, 3.1331, 1.5445,
        1.4256, 1.4487, 1.8702, 2.0359, 4.1911, 2.5039, 3.0679, 3.0441, 1.6269,
        1.5504, 1.2927, 2.4132, 1.9748, 2.1548, 1.0284, 0.6522, 2.7961, 0.9008,
        1.8091, 1.4918, 1.7507, 1.9038, 1.0963, 1.5869, 0.9917, 2.2857, 1.6719,
        1.3761, 1.2193, 1.9288, 1.7657, 1.5026, 2.4045, 2.4771, 1.3910, 2.5682,
        2.5514, 3.0840, 2.0522, 2.4432, 1.0777, 1.2205, 2.4374, 1.4022, 1.4009,
        1.1260, 2.6711, 2.7320, 1.3700, 1.3822, 3.3255, 1.7098, 1.2133, 2.4026,
        1.4904, 0.9686, 1.8170, 2.2009, 1.4196, 1.2074, 2.0661, 3.3262, 2.2829,
        2.5448, 1.9843, 1.8343, 1.3022, 0.8898, 1.9156, 2.2593, 2.4380, 1.0430,
        1.3621, 1.2991, 1.5981, 1.0468, 0.9491, 1.7352, 1.4653, 1.6207, 1.6806,
        1.6267, 4.3522, 1.3463, 3.0298, 2.4047, 0.9796, 2.3847, 1.9174, 2.5672,
        2.3499, 2.3182, 1.1842, 0.5671, 2.3983, 3.4093, 2.4860, 1.6641, 1.9106,
        2.2596, 2.0449, 0.7444, 4.0340, 1.6588, 1.7332, 1.0044, 2.3420, 1.0742,
        1.6353, 1.8901, 1.3852, 1.1986, 2.0216, 4.0433, 1.6630, 5.6656, 0.7111,
        3.5223, 1.3486, 1.2254, 1.4681, 1.1687, 2.1257, 1.1614, 1.5752, 1.8132,
        1.4421, 1.6999, 1.9482, 1.8782, 1.3987, 1.2250, 3.9696, 1.2891, 1.5203,
        1.1480, 2.8895, 3.8372, 1.6252, 1.8997, 0.5756, 1.6247, 1.4441, 0.9756,
        1.0125, 3.1258, 1.5588, 2.4720, 2.0511, 2.8586, 1.3390, 1.3472, 2.1231,
        2.0375, 1.8153, 1.1415, 1.3826, 3.3961, 1.7738, 2.5526, 3.8159, 3.2843,
        4.3457, 1.9868, 3.2978, 2.1085, 2.0677, 0.7018, 2.1571, 1.4809, 2.0204,
        1.1168, 1.0627, 1.1896, 1.2987, 0.7508, 1.5884, 1.9495, 1.1590, 1.9636,
        3.1077, 1.8966, 1.2517, 2.6033, 2.7983, 2.1277, 1.7342, 2.1196, 3.8061,
        1.5017, 1.9905, 1.4061, 1.6305, 1.9278, 2.6211, 4.9529, 2.7209, 1.1955,
        1.6157, 0.9952, 1.3972, 1.4204, 1.1541, 1.2850, 1.0669, 1.0638, 2.3722,
        2.6178, 0.9614, 2.6672, 2.0204, 1.9520, 1.7895, 1.8788, 1.8612, 2.8289,
        1.3135, 2.3491, 3.7730, 2.5187, 2.4152, 2.3975, 2.1541, 2.0944, 2.1989,
        3.2170, 1.7489, 2.2082, 1.8309, 1.4853, 1.2137, 1.9317, 1.9401, 1.4496,
        1.3061, 2.5431, 1.4089, 1.6762, 2.1092, 2.8444, 1.8892, 2.1810, 2.1650,
        1.7966, 2.0373, 1.4521, 1.7327, 1.9561, 1.8015, 1.5226, 3.5588, 1.6541,
        1.3278, 2.2204, 2.8099, 1.3224, 3.3689, 1.4895, 2.6365, 0.6272, 0.8501,
        1.9455, 0.9423, 1.3289, 1.0185, 1.8239, 1.9637, 1.7395, 1.7146, 1.2255,
        1.9839, 1.1663, 2.0644, 1.6821, 1.7387, 1.0220, 2.0813, 1.4255, 1.2362,
        1.8280, 4.2067, 1.6210, 3.6529, 1.3394, 2.2113, 0.9841, 1.4261, 0.9616,
        1.6828, 1.6947, 0.5158, 2.0444, 2.8252, 1.9447, 2.2883, 3.0686, 2.9877,
        0.7132, 1.8336, 0.9805, 2.0402, 1.0133, 1.7019, 1.3826, 4.5944, 2.1386,
        1.4863, 1.5510, 1.2842, 4.3783, 1.6095, 2.6689, 2.9347, 1.3125])
mlp.net.2.batch_norm.num_batches_tracked tensor(546)
mlp.net.3.linear.weight tensor([[ 0.0023, -0.0178,  0.0329,  ...,  0.0166,  0.0460, -0.0804],
        [-0.1403, -0.0911, -0.1760,  ...,  0.0425,  0.1812, -0.2076],
        [-0.1010,  0.0120, -0.1111,  ...,  0.0795,  0.0140, -0.1316],
        ...,
        [-0.0689,  0.0507, -0.0621,  ...,  0.0596, -0.2183,  0.0309],
        [-0.0255, -0.1031, -0.0544,  ...,  0.1048,  0.0243,  0.1296],
        [ 0.0661,  0.0372,  0.0603,  ...,  0.0433, -0.0393,  0.0267]])
mlp.net.3.linear.bias tensor([ 0.0488,  0.0931,  0.0391, -0.0780,  0.1674,  0.1281,  0.0888,  0.1167,
         0.0733, -0.0826,  0.0589,  0.0531,  0.0299,  0.0452,  0.0779, -0.0774,
         0.0670, -0.0439,  0.1203, -0.1356, -0.0457, -0.0259, -0.1031, -0.1978,
         0.0233,  0.0648, -0.1408, -0.0640,  0.0096, -0.0252, -0.0425,  0.0482,
         0.0033, -0.0457, -0.0547, -0.0352, -0.1234, -0.0581,  0.0362, -0.0537,
        -0.0980,  0.0464, -0.0364,  0.1422,  0.1551,  0.0527,  0.0395, -0.1352,
         0.0675, -0.1058,  0.0626, -0.0870, -0.0659,  0.0396, -0.0870, -0.2484,
        -0.0429,  0.0623,  0.0565,  0.0567,  0.1288,  0.0426, -0.0344,  0.0726,
        -0.1901,  0.1185,  0.0834,  0.0543, -0.0639, -0.0146,  0.1218, -0.0638,
         0.1446,  0.0999, -0.0424,  0.1135, -0.0157,  0.0167, -0.0846,  0.0805,
         0.0484,  0.0622,  0.2227, -0.1233,  0.0383, -0.0602,  0.0718, -0.1035,
        -0.0178, -0.0438, -0.1138, -0.0944, -0.0241, -0.1007, -0.0937, -0.0632,
        -0.0585,  0.0466, -0.0762, -0.1253, -0.1323, -0.1598,  0.0050, -0.1372,
         0.1124,  0.0159, -0.0548,  0.0745, -0.0094,  0.0898,  0.1080, -0.0792,
        -0.0449, -0.0608,  0.0885, -0.1171, -0.0466, -0.1491, -0.0994, -0.0784,
        -0.0845,  0.0768,  0.1181, -0.0016,  0.0125,  0.1036, -0.0482, -0.0712,
         0.0581, -0.2444,  0.0401, -0.1059, -0.0119, -0.0268,  0.2160, -0.0047,
        -0.0614, -0.0563,  0.0641, -0.0234,  0.0629, -0.0136, -0.0083,  0.0034,
        -0.0308, -0.0899, -0.0496, -0.0149, -0.0615, -0.0753,  0.0788, -0.0183,
        -0.1353,  0.0428,  0.1448, -0.0422, -0.1028,  0.0526,  0.0704, -0.0868,
         0.0111, -0.0222,  0.0977, -0.0413, -0.1190,  0.0316, -0.1376, -0.0389,
         0.2039, -0.0527, -0.1193, -0.1207,  0.1481, -0.1319, -0.0918, -0.0345,
        -0.0442, -0.0083, -0.0454,  0.0017,  0.1246, -0.0646, -0.1126, -0.0285,
        -0.1365, -0.0704,  0.0611, -0.0274,  0.0387, -0.1140,  0.0290, -0.0528,
        -0.0079, -0.1033,  0.1181, -0.1339,  0.1045,  0.0297, -0.0569,  0.0756,
        -0.1310, -0.0611,  0.0491, -0.1141,  0.0083, -0.0178, -0.0432,  0.0432,
         0.0276, -0.0513, -0.0261, -0.1340,  0.1848, -0.0743,  0.1223,  0.0261,
        -0.0198, -0.0316, -0.0297,  0.1758,  0.1005,  0.0627, -0.0207,  0.1005,
        -0.0664, -0.1165, -0.0749, -0.0006, -0.1310, -0.0650,  0.0196, -0.1139,
        -0.0212, -0.1105, -0.1432, -0.0825, -0.1378, -0.0883, -0.0566, -0.1183,
        -0.0023, -0.0187,  0.1378,  0.1273, -0.0488, -0.0923, -0.1040,  0.0610,
        -0.1666, -0.0040,  0.0376, -0.1110, -0.0013,  0.0108, -0.0614,  0.0792,
        -0.1804,  0.0749, -0.0215,  0.1445, -0.0444, -0.0741,  0.1400, -0.0669,
        -0.0959,  0.0391, -0.1498,  0.1627, -0.0592, -0.0784, -0.1150, -0.0304,
        -0.0910, -0.0076, -0.0800,  0.0981,  0.0121, -0.1412, -0.1561, -0.1238,
         0.0079, -0.0918,  0.1174, -0.1813, -0.1061,  0.1350, -0.0856, -0.0926,
        -0.0911, -0.0719, -0.0651, -0.0770,  0.0346,  0.0281, -0.0484, -0.0612,
         0.1161, -0.0028,  0.1224, -0.1131,  0.1154,  0.1120, -0.0266, -0.0822,
         0.0733, -0.0552,  0.0379, -0.1401,  0.1464, -0.1394, -0.0905, -0.0944,
        -0.0783, -0.0404, -0.1000, -0.0991,  0.0056, -0.0439, -0.0054, -0.1306,
         0.2139, -0.1142,  0.0804, -0.0624, -0.0808, -0.1492, -0.0560,  0.0474,
         0.1185,  0.0913, -0.0731, -0.0177,  0.0670, -0.0505, -0.0548, -0.0642,
        -0.0091,  0.0248, -0.0375,  0.0180,  0.0838,  0.0717,  0.1314, -0.1558,
        -0.0537, -0.0453,  0.0804, -0.1918,  0.0068,  0.0499, -0.1948, -0.0227,
         0.1522, -0.0597, -0.0324,  0.0605, -0.1213, -0.0637, -0.1554, -0.0224,
         0.1120, -0.0274, -0.0364, -0.0220, -0.1115, -0.1130,  0.1326,  0.0827,
        -0.0418,  0.1516, -0.0759, -0.0552, -0.0249, -0.1578, -0.0448,  0.1219,
         0.0454,  0.0941,  0.0365, -0.0218, -0.0577,  0.0814,  0.0232, -0.0240,
        -0.0090,  0.1069, -0.0244,  0.1393, -0.1358,  0.0444, -0.0810,  0.0476,
         0.0487, -0.0336,  0.0124, -0.0433,  0.1440, -0.0500,  0.0797,  0.0693,
        -0.0213, -0.0012,  0.0039,  0.2089, -0.0791,  0.0125, -0.1478, -0.0898,
         0.0262, -0.0162, -0.0196, -0.0503, -0.1100,  0.0574, -0.0627,  0.0097,
        -0.0784, -0.0120,  0.0874, -0.0352, -0.1126,  0.1299,  0.0513,  0.0316,
        -0.1282, -0.0588,  0.0531,  0.1000,  0.0104, -0.0935,  0.0136,  0.0760,
        -0.0317, -0.1430,  0.0662, -0.0542, -0.1307, -0.0608,  0.0272, -0.0782,
        -0.0187, -0.0049,  0.1699, -0.0649,  0.1002, -0.0158, -0.0261, -0.1850,
         0.1000,  0.0241,  0.0599,  0.1090,  0.0396, -0.0208, -0.0642,  0.0080,
        -0.0776, -0.0080, -0.0508, -0.0873,  0.0560,  0.1379, -0.0897,  0.0083,
        -0.0014, -0.1547,  0.1432,  0.0929,  0.0323,  0.1137, -0.1489, -0.0528,
        -0.0100,  0.0325,  0.0532, -0.1528, -0.0941,  0.0490, -0.0716,  0.1169,
        -0.1140, -0.0678,  0.0073,  0.0764,  0.0733, -0.0227,  0.0239,  0.0171,
        -0.1842,  0.0248,  0.0615, -0.0059,  0.1214,  0.0145, -0.1689, -0.2217,
        -0.0530,  0.0121,  0.1992, -0.0964, -0.1533,  0.0333,  0.0461,  0.0189,
         0.0569, -0.0942, -0.0572, -0.0038,  0.0115, -0.0792, -0.1376, -0.0208])
mlp.net.3.batch_norm.weight tensor([ 0.1628,  0.1664,  0.1538,  0.2086,  0.1396,  0.1996,  0.2625,  0.1304,
         0.1625,  0.0380,  0.3428,  0.1938,  0.2213,  0.1003,  0.1896,  0.0964,
         0.2368,  0.1506,  0.1975,  0.1305,  0.2454,  0.1015,  0.2431,  0.1710,
         0.1030,  0.2370,  0.1818,  0.0948,  0.2413,  0.1154,  0.1696,  0.1687,
         0.2886,  0.1994,  0.2340,  0.1891,  0.1204,  0.2003,  0.1230,  0.2092,
         0.1618, -0.0210,  0.1548,  0.1814,  0.1564,  0.1530,  0.1952,  0.2170,
         0.1801,  0.0794,  0.0995,  0.0667,  0.2164,  0.1151,  0.0796,  0.1527,
         0.1336,  0.2009,  0.0898,  0.1881,  0.1497,  0.2680,  0.1904,  0.2626,
         0.1682,  0.1383,  0.1741,  0.2262,  0.1389,  0.1454,  0.2004,  0.1693,
         0.2226,  0.1290,  0.1268,  0.1105,  0.2181,  0.1404,  0.2187,  0.0603,
         0.0446,  0.2121,  0.0551,  0.2155,  0.1506,  0.0792,  0.2662,  0.1243,
         0.2560,  0.1896,  0.3142,  0.1388,  0.1883,  0.1677,  0.2460,  0.1028,
         0.2397,  0.1713,  0.2501,  0.2347,  0.1926,  0.0980,  0.2285,  0.1879,
         0.1681,  0.1658,  0.0945,  0.3574,  0.1181,  0.3034,  0.1589,  0.1630,
         0.2500,  0.1905,  0.2383,  0.0674,  0.2312,  0.1990,  0.1752,  0.0656,
         0.0808,  0.1674,  0.0964,  0.1375,  0.1936,  0.2248,  0.1745,  0.1530,
         0.1031,  0.2056,  0.2925,  0.2324,  0.1827,  0.3157,  0.1261,  0.0621,
         0.2443,  0.1511,  0.1642,  0.1389,  0.0501,  0.1062,  0.0914,  0.1582,
         0.1412,  0.2432,  0.1352,  0.3382,  0.1731,  0.1965,  0.1609,  0.1312,
         0.3012,  0.2084,  0.2442,  0.1930,  0.0887,  0.1742,  0.2474,  0.0833,
         0.1212,  0.1824,  0.1567,  0.1660,  0.0982,  0.2643,  0.2792,  0.0779,
         0.2699,  0.3224,  0.1555,  0.1960,  0.1082,  0.1357,  0.1605,  0.1159,
         0.1277,  0.2674,  0.1064,  0.1612,  0.1168,  0.1595,  0.2053,  0.1955,
         0.2724,  0.2266,  0.2100,  0.2357,  0.3101,  0.1168,  0.1940,  0.1900,
         0.0943,  0.1874,  0.1752,  0.1711,  0.1086,  0.2188,  0.1397,  0.1683,
         0.2226,  0.1050,  0.3084,  0.1640,  0.1835,  0.1057,  0.2975,  0.1967,
         0.1096,  0.1975,  0.1062,  0.0986,  0.1776,  0.2240,  0.2255,  0.2045,
         0.1950,  0.1382,  0.2302,  0.0728,  0.1039,  0.0744,  0.2238,  0.3169,
         0.0847,  0.2078,  0.1606,  0.2165,  0.1843,  0.1643,  0.1898,  0.1455,
         0.1210,  0.3496,  0.2502,  0.0936,  0.1199,  0.1522,  0.0649,  0.0921,
         0.1547,  0.1596,  0.2598,  0.2221,  0.1186,  0.2256,  0.1019,  0.2153,
         0.2195,  0.1405,  0.1088,  0.3833,  0.2631,  0.1134,  0.2199,  0.2229,
         0.3226,  0.1407,  0.1695,  0.1308,  0.3014,  0.1646,  0.1606,  0.0516,
         0.1286,  0.1850,  0.1895,  0.1253,  0.2916,  0.0849,  0.2054,  0.1905,
         0.1513,  0.1471,  0.1017,  0.1331,  0.2742,  0.2277,  0.1592,  0.2002,
         0.1749,  0.1097,  0.0593,  0.1350,  0.0561,  0.2107,  0.1810,  0.2958,
         0.1824,  0.2118,  0.0842,  0.1106,  0.0997,  0.1101,  0.2052,  0.2114,
         0.1372,  0.1220,  0.1654,  0.2020,  0.2461,  0.2191,  0.1697,  0.1302,
         0.1278,  0.2352,  0.1227,  0.1297,  0.1256,  0.1686,  0.3194,  0.1258,
         0.1239,  0.2626,  0.0810,  0.1159,  0.2753,  0.2119,  0.1378,  0.0755,
         0.1841,  0.1234,  0.1601,  0.2301,  0.2367,  0.2351,  0.2553,  0.2759,
         0.1401,  0.1946,  0.1159,  0.1202,  0.0763,  0.1504,  0.1905,  0.2036,
         0.1951,  0.2063,  0.2069,  0.2073,  0.1273,  0.2110,  0.1365,  0.1394,
