Weights: 
net.embeddings.embeddings.0.weight tensor([[-0.5068, -0.2406],
        [ 0.3816, -0.4127],
        [ 0.4341, -0.2736],
        [-0.3304,  0.1371]])
net.embeddings.embeddings.1.weight tensor([[-0.2326,  0.5008],
        [-0.3953, -0.3125],
        [ 0.2175, -0.5392],
        [-0.5109,  0.3422],
        [ 0.0374,  0.0085]])
net.embeddings.embeddings.2.weight tensor([[-0.0782, -0.1330, -0.0211],
        [ 0.0144, -0.1008, -0.0221],
        [-0.2452, -0.4076, -0.0533],
        [ 0.2714,  0.3099,  0.2611],
        [-0.2154, -0.0806,  0.3050],
        [ 0.0029, -0.0680,  0.3058]])
net.embeddings.embeddings.3.weight tensor([[ 0.1310,  0.3915],
        [-0.0313,  0.3943],
        [-0.1506, -0.3861],
        [-0.6245,  0.0556]])
net.embeddings.embeddings.4.weight tensor([[ 0.3416, -0.2099],
        [ 0.0391,  0.0059],
        [ 0.3325, -0.4313],
        [-0.2150,  0.2321]])
net.mlp.net.0.linear.weight tensor([[ 0.1885,  0.4270,  0.0251,  ..., -0.0516, -0.0257, -0.0447],
        [ 0.3884, -0.4900, -0.0619,  ...,  0.0646, -0.4157,  0.0931],
        [-0.2461,  0.2846,  0.0912,  ...,  0.4332,  0.0175,  0.4576],
        ...,
        [ 0.0038,  0.0327, -0.2513,  ...,  0.2236, -0.0155, -0.1788],
        [-0.1703,  0.1940, -0.0038,  ...,  0.5649,  0.4737, -0.2918],
        [-0.0551,  0.0540,  0.5860,  ...,  0.4462, -0.0236, -0.3070]])
net.mlp.net.0.linear.bias tensor([-1.3187e-01,  2.0073e-01,  1.1557e-01,  1.9223e-01, -2.3776e-02,
        -1.6118e-01, -7.5145e-02, -9.6449e-02, -1.4468e-01, -1.0820e-01,
         8.0437e-02, -1.2348e-01,  1.6060e-01, -4.4579e-03,  6.4661e-02,
        -2.3115e-01, -5.5019e-03, -1.3098e-01, -7.3924e-02, -1.3043e-01,
        -4.4658e-02,  7.2767e-02, -2.0327e-01,  1.3022e-01, -4.6090e-02,
         1.0880e-02,  4.7495e-02,  1.4053e-01,  3.0711e-02, -7.6043e-02,
         4.0661e-02,  7.0061e-02, -1.8249e-02,  1.4902e-03, -2.0707e-01,
         7.7665e-02, -1.0985e-01, -3.2343e-02, -1.4473e-01,  1.8429e-01,
        -1.0486e-01, -4.3512e-03,  1.8219e-01, -1.7174e-01,  8.8908e-02,
         5.4176e-02,  1.5665e-01, -7.0895e-02,  6.8033e-02,  1.7616e-01,
         2.0908e-01,  1.2962e-01, -1.2578e-01,  1.6991e-01,  1.1917e-01,
         1.6414e-01, -5.2455e-03,  1.0607e-01,  6.8138e-02,  4.4884e-02,
         2.0327e-01, -1.4747e-01,  2.8819e-02,  9.1390e-02, -1.1664e-01,
         1.7129e-01,  1.5846e-01, -9.2332e-02,  1.1040e-01,  1.6806e-01,
         1.6017e-01, -3.5687e-02,  9.7314e-02,  5.0142e-02,  6.6623e-02,
         4.1157e-03,  1.2948e-01,  1.8456e-01, -7.6401e-02, -7.7847e-02,
         1.8611e-02, -8.3255e-03, -9.5140e-02, -3.3673e-02,  1.3703e-01,
         1.6720e-01,  7.7545e-02,  8.4693e-02, -8.2637e-02,  1.1963e-01,
        -1.6294e-01, -7.5536e-02, -6.5235e-02,  1.0874e-01, -9.7765e-02,
         4.9773e-02,  4.2225e-02,  5.3156e-02, -1.2916e-01, -1.0144e-01,
         9.4682e-02,  5.8734e-02, -7.0104e-02, -3.0477e-02, -3.3636e-02,
        -1.4837e-01,  1.5943e-01,  2.3135e-01, -7.1282e-02,  4.4420e-03,
         7.0459e-02,  2.6725e-02,  4.6344e-02, -1.6238e-01, -9.3431e-02,
         2.2090e-01,  2.1077e-01, -8.0076e-02,  1.9520e-02, -1.1546e-01,
         1.4992e-01, -1.1129e-01, -1.0796e-01,  1.5217e-01,  1.4748e-01,
         6.2504e-02, -5.3328e-02,  1.0453e-01,  1.4002e-01, -5.2194e-02,
        -4.6956e-03,  1.5238e-01, -8.5444e-02,  5.6246e-02, -3.5690e-03,
        -5.6307e-02,  6.5502e-02,  2.0226e-01, -1.2227e-01,  8.7900e-02,
        -1.0138e-01,  1.6024e-02, -4.1898e-02, -1.7492e-01, -1.0766e-01,
         2.4385e-01,  3.4596e-02,  2.3014e-02,  7.4364e-02, -1.8049e-01,
        -3.5095e-02,  6.9972e-02, -3.4871e-02,  1.6748e-02, -6.9272e-02,
         6.2860e-02, -3.7650e-02,  4.7337e-02,  1.4710e-01, -8.3855e-02,
         1.4278e-01, -1.4696e-01,  8.1360e-02,  3.6981e-03,  1.6164e-01,
        -9.6637e-02, -1.1338e-01,  6.0436e-02,  1.3360e-01, -8.3601e-02,
        -1.9112e-01, -6.5595e-02, -9.9528e-03,  5.1971e-02, -1.3461e-01,
         1.4424e-01,  9.0787e-02,  1.7276e-01, -1.2766e-01,  1.0355e-01,
         1.4978e-01,  1.9307e-01, -2.7673e-02,  1.1123e-02,  1.3998e-01,
         2.1673e-01,  1.2750e-01, -3.2430e-02, -1.5036e-01,  7.0101e-02,
         1.1907e-01, -1.8834e-01, -8.9614e-03, -6.7020e-03, -1.1316e-01,
        -5.8825e-02, -1.1936e-02, -8.7492e-02, -1.0033e-01,  1.6096e-01,
         1.3244e-02, -2.4153e-02,  1.5587e-01, -9.0501e-02, -1.6350e-01,
        -1.8827e-01,  6.5041e-02,  8.5876e-02, -5.8835e-02, -8.2009e-02,
        -3.1960e-03, -1.4501e-02, -5.3892e-02,  2.3502e-02, -7.4906e-02,
         4.9393e-02,  3.6896e-02,  1.4918e-01, -1.0049e-01, -2.6835e-02,
         1.7054e-01, -1.8658e-01, -2.0126e-04, -8.4619e-02,  2.9525e-02,
        -1.7651e-02, -4.6615e-02, -8.6158e-02,  1.0386e-01, -7.6422e-03,
         7.8502e-02, -1.4695e-01,  8.4973e-02, -1.5404e-01, -2.1145e-02,
         7.4811e-02,  1.3546e-02,  1.6160e-01,  1.5348e-01, -1.0107e-01,
        -1.7251e-02, -6.9924e-02,  9.4143e-03, -1.9567e-01,  3.0461e-02,
        -4.5420e-02, -2.1334e-01, -5.4695e-02,  4.9597e-02, -2.3522e-02,
         1.2691e-01,  1.1859e-01, -5.4410e-02, -1.4144e-01, -7.1839e-02,
        -7.6061e-02, -1.1743e-02,  4.7596e-02, -1.6105e-01, -6.6075e-02,
        -8.0118e-02, -6.2997e-02, -4.0346e-03,  3.7260e-02,  1.1581e-01,
         8.8542e-02, -1.1467e-01, -1.5094e-02,  1.0728e-01,  9.9232e-02,
         1.3539e-01,  1.0439e-02, -6.8976e-02,  7.7590e-02,  2.0114e-01,
        -4.8495e-02,  2.9871e-02, -4.2268e-02,  3.1202e-02,  1.9996e-01,
         4.2906e-02,  8.2976e-02,  6.3367e-02,  5.7301e-02,  8.5884e-02,
        -1.9455e-01, -4.4575e-02,  5.8325e-02,  1.2644e-01, -5.4539e-02,
        -2.2499e-02, -1.8923e-01, -3.9156e-02,  8.7621e-02, -1.8028e-01,
        -1.2194e-01,  2.1176e-02, -6.3969e-02,  7.2215e-02,  1.1864e-01,
        -2.9888e-02,  1.0437e-01, -1.1776e-01,  1.8473e-01,  4.3618e-02,
        -1.1807e-01,  1.6904e-01,  2.2529e-02, -8.9051e-02,  1.2336e-01,
        -1.0817e-01,  1.2909e-01, -8.3341e-02,  8.9647e-02,  1.6258e-01,
        -1.2019e-01, -1.4166e-01,  4.7820e-02,  3.4638e-02, -1.2661e-01,
        -8.5403e-02,  1.3525e-03,  2.0372e-01,  2.2663e-01,  2.8052e-02,
        -3.2912e-02,  1.5074e-01,  8.1891e-02,  8.7225e-02,  8.2888e-02,
        -5.3943e-02,  7.5389e-02, -6.1071e-02, -1.3989e-01,  1.6090e-01,
        -8.5489e-02, -1.3607e-01, -1.2271e-01,  1.0287e-01, -5.3644e-02,
         2.3347e-01, -3.8733e-02,  7.6396e-02, -1.2233e-01,  4.2387e-03,
         9.6440e-02,  7.3101e-02, -1.0376e-01, -1.0462e-02,  8.7102e-02,
         1.7443e-01,  2.1937e-01, -2.3079e-02,  1.6467e-01,  8.3365e-02,
        -4.3767e-02,  1.0384e-01,  1.3556e-01, -2.1333e-01,  1.3372e-01,
         1.4106e-01,  2.6074e-01,  7.7837e-02,  5.0303e-02,  4.7450e-02,
         1.1025e-01, -1.6977e-01,  4.7880e-02,  1.2171e-01, -1.1879e-02,
        -5.5222e-02,  1.5745e-01, -1.1679e-01,  9.7303e-02, -1.5633e-01,
         1.2769e-01, -4.5968e-02, -2.6122e-02, -4.7107e-02, -1.3145e-01,
         9.1425e-02,  1.1047e-01, -8.7860e-02,  1.1463e-01, -3.6833e-02,
        -5.3963e-02, -7.4747e-02,  9.1300e-02, -6.4349e-03, -1.3836e-01,
        -6.8015e-03,  7.2336e-02,  9.0277e-02, -3.4205e-02,  1.0225e-01,
        -2.2902e-02, -6.2689e-02, -3.3880e-02,  1.6759e-01, -1.6883e-01,
         1.6701e-01,  2.6836e-02,  1.4184e-01, -1.2121e-01,  7.0011e-02,
         1.4362e-01, -1.4907e-01,  3.2147e-02, -1.7786e-01,  7.4561e-02,
        -3.8507e-02,  1.7802e-01, -2.1016e-01, -5.5601e-03, -3.8558e-02,
         1.0739e-01, -9.7170e-02,  8.3157e-02,  7.2794e-02, -2.9436e-02,
         5.5337e-02,  1.3202e-01,  9.0537e-02, -3.9907e-02,  1.5372e-01,
        -3.5816e-02,  9.1666e-02, -2.2833e-02,  1.0705e-01,  1.5079e-01,
         2.3133e-02, -2.0421e-01,  4.4191e-03,  1.3895e-02,  5.7177e-03,
         1.1596e-01, -8.3889e-02,  1.1062e-01,  2.4974e-02,  1.9735e-02,
         3.1816e-02,  2.4176e-02, -9.5119e-02, -1.9048e-01,  1.4678e-01,
         1.5932e-01, -2.0293e-02,  1.5679e-01, -4.7815e-02,  3.4612e-02,
        -2.4336e-01, -7.9801e-02, -6.2219e-02,  7.6232e-02, -1.4240e-01,
        -1.9071e-01, -1.9521e-01,  3.6569e-02,  1.5890e-01, -1.2939e-01,
        -7.2885e-02, -1.1745e-02, -3.2745e-02, -2.3865e-01,  1.3525e-01,
         7.7077e-03, -8.3828e-02,  2.2285e-03,  3.0536e-02, -2.1724e-02,
        -4.4031e-02,  6.8394e-03, -1.6691e-01,  6.6840e-02, -6.8557e-02,
         1.1691e-01, -6.3956e-02,  3.1534e-04, -5.9053e-02,  3.7210e-02,
         4.0923e-03,  5.6709e-03,  7.9099e-02,  3.7045e-02,  7.6229e-02,
        -8.1417e-02, -4.4469e-02,  9.2023e-02, -7.8555e-02, -1.0383e-01,
        -1.1539e-02,  2.9936e-02,  1.3678e-01,  7.1493e-02, -6.4408e-02,
        -1.6490e-01, -1.8280e-01,  9.1451e-02, -1.3563e-01, -3.4025e-02,
         1.2494e-01,  6.9954e-04, -1.5855e-01,  7.5491e-02,  4.3436e-02,
         4.8183e-02,  5.9143e-02, -5.5604e-02,  3.1881e-02,  2.3477e-02,
         1.1864e-01, -1.5119e-01])
net.mlp.net.0.batch_norm.weight tensor([0.7198, 0.8288, 0.7668, 0.7994, 0.7282, 0.7833, 0.8256, 0.8098, 0.8374,
        0.7701, 0.7763, 0.8533, 0.7481, 0.7615, 0.7756, 0.7956, 0.7021, 0.7533,
        0.6770, 0.7994, 0.7579, 0.7441, 0.8264, 0.7944, 0.7605, 0.8039, 0.7914,
        0.7992, 0.8055, 0.8280, 0.8184, 0.8250, 0.7668, 0.8118, 0.7066, 0.7951,
        0.7869, 0.8146, 0.7917, 0.7942, 0.7967, 0.7642, 0.7311, 0.7833, 0.8320,
        0.7894, 0.7355, 0.7951, 0.8166, 0.6863, 0.7469, 0.7930, 0.8206, 0.8249,
        0.7481, 0.7436, 0.7891, 0.7315, 0.7930, 0.8248, 0.8218, 0.7858, 0.8686,
        0.7863, 0.7697, 0.7712, 0.7395, 0.8505, 0.7892, 0.7604, 0.7728, 0.7257,
        0.7350, 0.7222, 0.7598, 0.7833, 0.7278, 0.8393, 0.8198, 0.8171, 0.7955,
        0.8212, 0.7776, 0.7820, 0.7707, 0.7349, 0.8024, 0.7502, 0.7614, 0.7553,
        0.7782, 0.8506, 0.7353, 0.7620, 0.8489, 0.8133, 0.8269, 0.8259, 0.7782,
        0.7794, 0.7948, 0.7658, 0.7850, 0.7805, 0.7768, 0.7437, 0.7994, 0.7658,
        0.7899, 0.8545, 0.7327, 0.8924, 0.8503, 0.8315, 0.7445, 0.7932, 0.8487,
        0.7374, 0.7696, 0.8493, 0.7392, 0.8218, 0.7548, 0.8552, 0.8256, 0.8243,
        0.7376, 0.7922, 0.7483, 0.7628, 0.8075, 0.8051, 0.7721, 0.8370, 0.8287,
        0.7953, 0.7783, 0.7770, 0.7580, 0.8271, 0.7333, 0.7167, 0.8859, 0.8783,
        0.7195, 0.7182, 0.8163, 0.8282, 0.7473, 0.7816, 0.8106, 0.7616, 0.7378,
        0.7428, 0.7664, 0.8057, 0.7324, 0.8756, 0.7459, 0.8062, 0.7672, 0.8348,
        0.7278, 0.8177, 0.7720, 0.7456, 0.7666, 0.7652, 0.8272, 0.7029, 0.7980,
        0.7518, 0.7278, 0.8523, 0.7861, 0.7503, 0.8346, 0.7765, 0.7759, 0.8163,
        0.7746, 0.7697, 0.7599, 0.7644, 0.8417, 0.8048, 0.6951, 0.6684, 0.7914,
        0.8392, 0.7433, 0.8058, 0.7702, 0.7614, 0.7844, 0.7366, 0.8252, 0.7462,
        0.7913, 0.8478, 0.7652, 0.8326, 0.7286, 0.7622, 0.7806, 0.8382, 0.8172,
        0.8106, 0.7017, 0.7385, 0.8027, 0.7779, 0.8071, 0.8299, 0.7790, 0.7958,
        0.7402, 0.7948, 0.7441, 0.8707, 0.7664, 0.7871, 0.7377, 0.7398, 0.7835,
        0.8085, 0.7442, 0.8264, 0.7618, 0.8457, 0.8163, 0.7391, 0.8210, 0.8029,
        0.7626, 0.7473, 0.8478, 0.7783, 0.7198, 0.7524, 0.8177, 0.7999, 0.8754,
        0.8097, 0.7933, 0.7778, 0.7531, 0.8727, 0.8744, 0.7836, 0.7624, 0.8027,
        0.8381, 0.7599, 0.8051, 0.7882, 0.8050, 0.7593, 0.7689, 0.7373, 0.7790,
        0.8318, 0.7547, 0.7169, 0.7905, 0.8396, 0.7650, 0.7258, 0.7519, 0.7957,
        0.7563, 0.7297, 0.8277, 0.7766, 0.7036, 0.8046, 0.7540, 0.7169, 0.7557,
        0.8077, 0.8138, 0.7403, 0.6270, 0.7330, 0.7405, 0.7902, 0.7401, 0.7605,
        0.7257, 0.8082, 0.7510, 0.7668, 0.8612, 0.7904, 0.8124, 0.7529, 0.8067,
        0.7721, 0.7214, 0.7854, 0.7451, 0.7728, 0.7276, 0.7607, 0.7668, 0.8486,
        0.7349, 0.7613, 0.7682, 0.7629, 0.8029, 0.8209, 0.7314, 0.7485, 0.7932,
        0.7858, 0.8553, 0.7610, 0.7627, 0.7609, 0.7606, 0.7435, 0.7265, 0.7973,
        0.7581, 0.8419, 0.7915, 0.7891, 0.7756, 0.7697, 0.7709, 0.7613, 0.7826,
        0.8301, 0.7840, 0.7627, 0.7890, 0.7620, 0.7236, 0.7233, 0.7486, 0.7896,
        0.7742, 0.7537, 0.7503, 0.7820, 0.8231, 0.8156, 0.8178, 0.7774, 0.8237,
        0.7700, 0.8681, 0.7434, 0.7865, 0.7469, 0.7352, 0.8604, 0.7768, 0.7438,
        0.7910, 0.8596, 0.8009, 0.7260, 0.7652, 0.7851, 0.7701, 0.7964, 0.7014,
        0.7603, 0.8239, 0.7207, 0.7157, 0.7351, 0.7603, 0.6882, 0.7187, 0.8020,
        0.7759, 0.8119, 0.7398, 0.7767, 0.7782, 0.8737, 0.7115, 0.7891, 0.7447,
        0.7728, 0.7497, 0.7376, 0.7134, 0.8114, 0.7384, 0.8759, 0.7196, 0.7313,
        0.7843, 0.8166, 0.8214, 0.7398, 0.7465, 0.8400, 0.7540, 0.9162, 0.7510,
        0.7924, 0.7873, 0.8327, 0.8122, 0.7796, 0.8310, 0.8033, 0.8328, 0.7079,
        0.7845, 0.7514, 0.8176, 0.6967, 0.7576, 0.7576, 0.7656, 0.7353, 0.7134,
        0.7327, 0.7422, 0.8128, 0.7697, 0.7458, 0.8192, 0.7533, 0.7581, 0.7849,
        0.6774, 0.7908, 0.7586, 0.6940, 0.8173, 0.7966, 0.7449, 0.7989, 0.8074,
        0.8268, 0.7467, 0.7976, 0.8227, 0.7773, 0.7854, 0.8479, 0.8203, 0.7815,
        0.8538, 0.7860, 0.8270, 0.7832, 0.7350, 0.7441, 0.7918, 0.8079, 0.8021,
        0.8195, 0.7427, 0.7725, 0.7559, 0.7741, 0.7770, 0.8249, 0.7619, 0.7806,
        0.6737, 0.7277, 0.7518, 0.8319, 0.7396, 0.7619, 0.7520, 0.7962, 0.8680,
        0.7713, 0.7534, 0.7595, 0.8340, 0.8233, 0.7723, 0.7222, 0.8066, 0.7363,
        0.7326, 0.8426, 0.7473, 0.7061, 0.8571, 0.8530, 0.7938, 0.8212, 0.7957,
        0.8274, 0.8082, 0.7625, 0.7714, 0.7882, 0.7607, 0.7953, 0.6871, 0.7732,
        0.7613, 0.7960, 0.7920, 0.8091, 0.7697, 0.7739, 0.7670, 0.7324])
net.mlp.net.0.batch_norm.bias tensor([ 4.8640e-02, -3.1485e-02, -1.9725e-02, -4.5655e-02,  9.0183e-02,
        -5.1508e-02,  1.4187e-02,  3.4612e-02,  1.9054e-03, -3.0591e-02,
         9.0487e-02,  2.1518e-02,  5.8527e-02, -2.6100e-02,  9.0530e-02,
        -8.0369e-02, -8.4680e-03, -2.3007e-02,  5.4429e-02, -2.7156e-02,
        -1.1304e-03,  4.7573e-02,  3.3748e-02,  1.1519e-01, -9.6205e-02,
         1.6170e-03,  5.9934e-02,  2.2391e-02,  6.9757e-03, -3.0554e-02,
        -3.4979e-02, -9.1320e-03, -2.8568e-02, -5.1308e-03, -1.1457e-02,
         1.2928e-02,  3.2908e-02, -7.0979e-02, -2.4749e-02,  3.2992e-02,
        -5.1657e-02,  3.9807e-03,  3.7172e-02, -2.1955e-02,  2.2438e-02,
        -7.0434e-02,  5.5656e-02,  1.2333e-02, -2.7573e-02, -9.5523e-02,
        -2.2203e-02, -3.2653e-02, -1.6826e-02,  5.3906e-03, -8.4702e-03,
         1.1629e-01,  1.7154e-02, -2.1927e-02,  8.3259e-03,  1.0447e-02,
         4.6420e-03, -4.6137e-02, -3.0338e-02, -2.8026e-02,  6.3095e-02,
         1.1878e-02,  4.4533e-02, -1.7078e-02, -3.5240e-02, -3.0039e-03,
        -9.1891e-02,  2.9982e-02, -6.8463e-02, -2.0476e-02,  4.2306e-02,
        -1.0318e-01,  2.6821e-02, -5.9034e-02, -1.6447e-02, -6.5851e-02,
         3.8239e-04,  6.7950e-02, -3.7379e-02,  8.5378e-05, -4.8789e-02,
         4.0026e-02, -1.2814e-02,  4.6515e-03, -7.0390e-02, -7.0182e-03,
        -2.8815e-03,  1.1517e-02, -2.9927e-02,  2.3452e-02, -4.6535e-02,
        -1.2406e-01, -5.4802e-02, -1.4078e-02, -1.0377e-02, -1.0418e-02,
         7.0738e-03, -6.7285e-02, -1.7699e-02, -3.2441e-02,  2.9000e-02,
         2.6578e-02,  3.1025e-02,  3.3236e-03, -7.0621e-02,  3.4194e-02,
        -5.3695e-02,  1.4379e-02, -7.9338e-02, -2.7199e-02, -2.7917e-02,
        -4.3452e-02, -1.3928e-02,  5.0750e-02,  1.9525e-02, -1.4289e-02,
         4.6498e-03, -1.7360e-02,  5.0071e-02,  8.4371e-02, -4.1496e-02,
         1.9531e-02, -2.5120e-02, -3.0324e-03,  5.2270e-02, -1.7150e-02,
        -2.7238e-03, -3.3150e-02, -2.1570e-02,  8.3447e-02,  6.3115e-03,
         8.0374e-03, -5.6481e-02,  6.0095e-02, -2.7520e-03, -1.1750e-02,
         3.5213e-02,  2.0725e-02,  3.2799e-02,  1.5943e-02, -9.3712e-02,
         2.6157e-02,  2.2284e-02,  2.5715e-02, -6.2663e-02,  5.4155e-02,
        -9.6871e-02, -4.3237e-02, -2.5646e-02,  3.2423e-02,  3.8627e-02,
        -8.7900e-03,  2.4240e-02, -4.1045e-02, -1.4434e-02, -2.6144e-03,
        -1.5046e-02,  3.8851e-03,  1.8385e-02, -1.1165e-01,  3.9740e-02,
         5.5633e-02,  4.9621e-02, -3.3478e-02,  3.7323e-02,  3.0273e-02,
        -4.6760e-03,  1.9660e-02, -4.6937e-02,  9.3706e-02, -2.6704e-02,
        -1.0978e-02, -2.0764e-02, -1.0124e-01, -3.4980e-02,  4.5774e-02,
         2.2409e-02,  6.0259e-02,  2.6226e-02,  3.8503e-02, -1.5289e-02,
        -1.2475e-01,  3.7097e-03,  3.6200e-02,  4.2943e-02,  4.8550e-03,
         1.0691e-01, -1.5738e-02,  1.0266e-01,  6.4918e-02,  1.7642e-02,
         4.1907e-02, -3.6219e-03, -1.2621e-03, -3.3499e-02,  1.5168e-02,
        -9.3308e-03,  3.3989e-02, -1.3018e-02, -3.6730e-02,  6.5937e-03,
        -4.9399e-02,  3.6435e-03, -8.6271e-02,  1.5222e-02, -7.1453e-03,
         3.8636e-03,  1.9378e-02, -4.9694e-02,  7.4417e-02,  2.9509e-02,
         2.2037e-02, -1.8173e-02,  4.8309e-02, -2.8961e-02,  3.5586e-02,
         1.5982e-02, -6.7699e-02,  2.3969e-02, -1.1638e-02,  5.4619e-02,
         4.2138e-02,  9.6229e-02, -1.7869e-02, -5.6292e-03,  2.5677e-02,
        -3.8143e-02,  5.5841e-02,  8.0841e-03, -3.4613e-02, -6.0537e-02,
        -2.3266e-02, -6.3540e-02,  1.6456e-03,  3.9634e-02,  7.4493e-02,
        -2.0964e-02, -7.6205e-02, -1.4462e-03, -3.9500e-02,  1.8252e-02,
        -4.9730e-03, -4.9894e-02, -7.6404e-03, -2.3400e-02, -1.5653e-02,
         1.2207e-02, -9.5171e-02,  3.2987e-02,  1.0827e-02, -1.4149e-02,
         1.9079e-02,  1.7929e-02,  8.9944e-02,  2.1970e-02,  3.9063e-04,
         2.3413e-02, -3.2533e-02,  2.6100e-02,  1.2074e-02,  7.2673e-02,
         6.9641e-02, -5.5389e-02,  3.5657e-02,  8.4467e-02, -2.0717e-02,
         1.0343e-01, -5.0767e-02, -8.9395e-02,  4.3925e-02,  4.1101e-02,
         4.1898e-02, -3.4710e-02,  5.1867e-02,  4.3204e-02,  6.2464e-02,
        -8.7063e-03, -2.1679e-03, -6.9329e-02, -1.8544e-02,  2.4597e-02,
        -1.1584e-02,  4.4218e-02, -6.0595e-02, -5.4159e-02,  4.8058e-02,
         2.8847e-03, -1.1231e-02, -1.4805e-02,  4.6377e-02,  6.1956e-03,
         3.2806e-02, -2.8819e-02,  4.1356e-02, -6.1885e-03,  4.7211e-02,
         7.5227e-02, -8.3147e-02, -5.7958e-02, -3.5997e-03, -7.4143e-02,
        -1.1276e-02, -3.0692e-04,  6.3541e-02,  4.0953e-02,  4.0316e-02,
         1.5840e-02, -1.8501e-02,  3.7698e-03, -2.4751e-02, -2.7084e-02,
        -1.9529e-02, -3.8741e-02, -1.5968e-02,  3.9377e-03,  3.0272e-02,
         4.4053e-02,  3.2065e-02, -1.4393e-02, -2.4041e-02,  1.2956e-02,
         3.8135e-02,  2.2001e-02,  2.3561e-02,  1.5340e-02,  7.8881e-03,
        -7.1174e-03, -2.9399e-02,  7.5107e-02,  5.3209e-02, -1.5112e-02,
        -4.1795e-02, -7.1934e-02, -3.0633e-02,  8.2040e-02, -7.3165e-02,
        -2.0095e-02,  7.2389e-02,  4.2849e-03, -3.5700e-02, -1.5149e-02,
        -1.1295e-02, -3.6376e-02, -7.7640e-02, -2.4323e-02,  9.2959e-04,
        -1.7247e-02, -3.6542e-03, -9.9807e-03, -6.1053e-03,  4.9407e-03,
        -7.1420e-02, -5.4900e-02,  4.1547e-02, -7.2189e-03,  1.5776e-02,
         1.2074e-02,  5.6404e-03,  3.2697e-02, -9.5584e-02, -4.0641e-02,
         3.1583e-02,  7.4258e-02, -6.3895e-02,  3.6888e-02,  2.5970e-02,
         1.6413e-02, -3.0949e-02,  7.7694e-02, -7.2053e-04, -7.1113e-03,
        -8.5203e-02,  3.9811e-03,  6.3947e-02, -1.2522e-04, -7.9959e-02,
        -7.9524e-03,  2.3714e-02, -5.3149e-02,  9.2184e-02,  3.5347e-02,
         2.2483e-02, -5.6966e-02, -7.9931e-02,  6.3243e-02,  2.6679e-02,
        -8.2776e-02, -6.1148e-02,  2.0464e-02, -3.6385e-02,  4.6957e-02,
         5.9613e-02, -1.7259e-02, -5.3551e-02, -4.4079e-02,  9.6489e-02,
         1.3701e-03, -1.7715e-02, -7.7795e-03, -5.2494e-02, -2.2404e-02,
         3.0200e-02, -4.0436e-02, -2.3419e-02,  2.4836e-02,  8.9292e-02,
        -1.0264e-02,  1.4540e-02,  1.3934e-01,  2.4027e-03,  4.8801e-02,
         4.8431e-03,  6.9626e-02,  2.5160e-03,  3.5671e-02, -1.1189e-02,
         1.5487e-02, -6.9883e-02,  2.6339e-02,  3.6014e-02,  8.8314e-02,
         2.7789e-02, -9.2131e-02,  1.0613e-02, -3.0725e-02,  1.7427e-02,
        -3.5346e-02,  6.1208e-02, -2.8115e-02, -6.6081e-03, -3.2658e-04,
         4.5464e-02, -4.1319e-02,  2.0456e-02, -6.4803e-02,  7.0294e-05,
        -2.6650e-02,  1.2442e-02, -6.4513e-02,  8.5618e-03, -1.1004e-02,
        -1.8712e-03, -2.5006e-02, -6.7527e-04, -2.1758e-02, -3.3459e-02,
         1.4840e-02, -8.3090e-02,  5.1557e-02, -2.1146e-02,  1.0559e-02,
        -1.5661e-02,  1.1227e-02, -2.5223e-02,  2.5907e-02,  1.0392e-01,
         4.7679e-02,  8.0972e-03, -2.2966e-02,  2.4176e-02, -9.2973e-03,
        -6.5696e-04,  4.7114e-02,  3.1515e-02,  1.3101e-02,  1.4221e-02,
         9.1101e-02, -3.7141e-02,  1.4387e-02,  3.9231e-02, -5.4455e-02,
        -1.6636e-03, -2.5336e-04, -9.1882e-03,  1.6451e-02,  2.5811e-02,
         5.2828e-02,  3.2996e-02, -1.5860e-02,  6.4420e-03, -2.8269e-02,
        -3.0350e-02, -5.2745e-02,  5.9390e-02, -2.6575e-02,  6.4783e-02,
         2.7883e-03,  9.8896e-03, -2.3552e-02, -7.1187e-03, -5.0677e-02,
         4.4493e-02, -4.8327e-02,  6.5772e-03,  3.8379e-02,  6.5391e-02,
        -8.0170e-02,  7.5646e-02,  3.1287e-02,  3.0246e-02,  1.4924e-02,
         6.7828e-02, -8.7817e-03, -5.5512e-02,  5.4440e-02,  2.7027e-02,
        -1.4175e-02,  6.7106e-03])
net.mlp.net.0.batch_norm.running_mean tensor([1.1735e+00, 7.4746e-02, 2.9898e-02, 1.0497e+00, 4.7331e-01, 1.7502e-01,
        2.9661e-01, 2.9285e-02, 2.4706e-01, 4.7911e-01, 1.3259e+00, 5.0763e-03,
        3.6375e-01, 1.5547e-01, 2.3726e-02, 2.6992e-06, 4.6230e-02, 1.8365e-01,
        2.3430e-01, 3.1071e-01, 4.0959e-01, 6.5278e-02, 5.6644e-04, 4.1534e-01,
        1.5031e-01, 1.0297e-01, 7.0300e-01, 2.0743e-02, 3.2385e-01, 1.1975e-01,
        1.1910e-01, 4.3258e-01, 5.4190e-02, 4.7931e-02, 1.7220e-02, 7.2658e-01,
        3.5921e-01, 8.4488e-01, 4.9145e-02, 4.7756e-01, 2.5157e-01, 3.3011e-01,
        4.9961e-01, 3.0054e-01, 3.2103e-01, 6.0182e-01, 9.9312e-01, 7.3974e-01,
        3.1429e-01, 2.3051e-01, 5.5888e-01, 1.6524e-01, 8.8413e-02, 2.3758e-01,
        3.4761e-01, 1.6404e-01, 1.5898e-01, 2.5652e-01, 2.0366e-01, 5.6989e-02,
        7.0024e-02, 1.4213e-01, 3.9929e-01, 1.2616e-01, 3.6072e-01, 7.1791e-01,
        9.5401e-02, 2.0037e-01, 1.6140e-01, 3.0380e-01, 6.1914e-02, 1.9962e-01,
        6.7978e-01, 2.4122e-01, 1.2444e-03, 2.9101e-01, 5.0791e-01, 7.8214e-01,
        1.3676e-02, 2.8334e-01, 9.5552e-02, 5.9811e-02, 9.7453e-02, 1.4285e-03,
        1.9691e-01, 7.0687e-01, 6.2951e-01, 8.7725e-01, 1.6043e-02, 3.3672e-01,
        3.5577e-02, 1.6186e-03, 4.8352e-01, 1.4325e-01, 6.3911e-02, 2.2459e-02,
        1.7384e-01, 7.6977e-01, 0.0000e+00, 2.8508e-01, 1.5728e-01, 1.4592e-01,
        2.5246e-02, 2.0099e-01, 9.2766e-01, 7.6528e-02, 5.7746e-01, 5.0325e-01,
        4.3880e-02, 1.9121e-02, 3.6165e-01, 2.2066e-01, 1.6444e-01, 4.2219e-02,
        2.0842e-02, 3.8426e-01, 1.7178e-01, 1.5915e-01, 5.3815e-01, 5.9325e-02,
        1.8731e-01, 1.0378e-02, 1.0924e-01, 4.3653e-01, 5.1831e-02, 4.5884e-01,
        1.6176e-03, 3.5352e-01, 6.7636e-02, 6.1753e-01, 8.9892e-02, 4.0534e-01,
        2.1413e-01, 8.8746e-02, 1.2847e+00, 1.2083e-02, 1.4808e-01, 1.2454e-01,
        7.7191e-02, 6.0029e-02, 2.7355e-01, 6.3790e-01, 5.0587e-02, 2.4137e-02,
        8.1318e-02, 5.6638e-01, 3.2422e-01, 1.0686e-01, 1.1026e-01, 4.8012e-03,
        3.6616e-01, 2.0480e-01, 8.8712e-03, 1.5490e-01, 1.0104e-02, 1.0985e-01,
        3.5855e-01, 2.5531e-01, 6.6407e-01, 2.0109e-01, 7.1380e-02, 1.6756e-01,
        7.2702e-02, 4.2918e-02, 8.7174e-02, 4.5029e-01, 5.6417e-01, 3.9719e-01,
        6.1715e-01, 2.2500e-01, 7.5332e-04, 2.3330e-01, 1.7585e-01, 2.1046e-01,
        7.6985e-03, 2.7417e-01, 7.1791e-01, 1.3109e-02, 4.6653e-02, 7.1455e-02,
        4.0312e-01, 7.3614e-02, 2.1148e-01, 3.0700e-01, 2.9379e-01, 5.6200e-01,
        5.9748e-01, 3.8210e-01, 2.7779e-01, 4.8867e-01, 4.0914e-01, 1.3816e-01,
        4.4230e-01, 3.9970e-01, 5.4553e-02, 3.9828e-01, 5.1060e-01, 8.1155e-03,
        5.8560e-01, 3.0568e-01, 2.3128e-01, 3.8308e-02, 9.4458e-01, 5.1950e-01,
        4.1097e-01, 3.4945e-02, 7.7932e-01, 2.2156e-02, 3.7900e-01, 2.8724e-01,
        7.1009e-02, 4.5490e-01, 2.6394e-02, 2.7379e-02, 1.7882e-02, 4.3197e-01,
        1.3066e-02, 5.1133e-01, 2.0615e-02, 1.0861e-01, 2.4654e-01, 3.6633e-01,
        2.4737e-01, 2.1691e-01, 4.9934e-01, 2.0381e-01, 3.5328e-01, 1.9653e-01,
        1.7398e-01, 1.5205e-01, 4.9425e-01, 2.5642e-01, 2.1604e-02, 3.9263e-02,
        3.5378e-04, 1.5877e-01, 4.1908e-01, 9.8427e-02, 5.0732e-02, 6.3380e-01,
        3.5371e-02, 1.1635e-01, 5.8215e-01, 1.3186e-01, 7.6352e-02, 3.3680e-02,
        9.8430e-02, 1.4052e-02, 1.0363e-01, 8.4705e-01, 7.5859e-01, 1.3861e-01,
        2.7379e-01, 6.7663e-03, 8.0722e-01, 1.1831e-01, 1.3501e-01, 1.2893e-01,
        1.8596e-01, 2.4889e-02, 1.5602e-01, 2.3764e-02, 9.4861e-03, 6.3130e-01,
        3.0658e-01, 7.1959e-02, 2.4838e-03, 4.0304e-01, 1.7050e-01, 3.9139e-02,
        6.0406e-02, 1.0511e-02, 2.3827e-01, 7.9542e-02, 5.6651e-01, 4.2903e-01,
        2.9403e-01, 1.1930e-01, 5.0836e-01, 2.5796e-01, 5.9427e-01, 2.4127e-04,
        2.7888e-01, 7.3317e-02, 4.7276e-01, 2.2073e-02, 3.4770e-01, 7.4348e-01,
        7.4492e-01, 3.8199e-01, 2.7613e-01, 4.6331e-03, 1.5079e-01, 2.2001e-01,
        3.3931e-02, 5.6646e-02, 5.1327e-01, 6.5835e-03, 9.7349e-04, 2.1063e-01,
        1.1714e-01, 6.4122e-01, 4.6610e-01, 8.1304e-02, 4.3781e-03, 5.1911e-01,
        9.0628e-02, 1.2339e-01, 6.7666e-01, 4.0350e-02, 9.7326e-03, 2.7117e-01,
        1.1805e-01, 8.3964e-02, 1.6458e-01, 6.4884e-01, 4.9223e-02, 1.4572e-01,
        6.9398e-01, 2.9462e-01, 8.7165e-01, 2.8303e-02, 9.1499e-01, 1.6227e-01,
        8.4315e-02, 3.5792e-02, 6.8793e-03, 5.5806e-01, 2.3399e-01, 2.6338e-01,
        4.7188e-01, 3.0389e-01, 6.4566e-03, 3.4671e-01, 1.3778e-01, 2.1894e-01,
        6.1895e-03, 1.8194e-02, 4.9629e-01, 2.9164e-01, 7.0163e-01, 3.2457e-01,
        4.1333e-01, 1.7929e-01, 1.0891e-02, 4.2334e-01, 2.1629e-01, 1.0842e-04,
        4.5939e-01, 3.0716e-01, 8.1092e-01, 6.8280e-01, 4.9290e-03, 9.6602e-01,
        5.7878e-01, 1.5450e-01, 3.2675e-01, 5.9859e-01, 1.2309e-01, 1.7931e-01,
        2.5150e-01, 3.5698e-01, 3.1653e-01, 4.4861e-01, 1.5756e-02, 9.4937e-01,
        1.2783e-02, 8.1864e-01, 5.2692e-01, 4.2028e-02, 1.2840e-02, 9.7941e-01,
        5.0773e-02, 1.3199e-01, 1.2309e-01, 1.0593e+00, 3.5681e-02, 7.0916e-01,
        7.2096e-06, 2.0037e-02, 2.7878e-01, 2.8110e-02, 0.0000e+00, 6.8181e-02,
        2.8237e-01, 3.6334e-04, 6.0723e-01, 2.5765e-01, 9.9632e-01, 3.2779e-02,
        8.1087e-02, 8.2910e-01, 2.3730e-01, 1.0536e-03, 2.2523e-01, 1.2958e-01,
        9.4103e-02, 3.0173e-04, 4.3242e-01, 1.8661e-02, 7.2962e-01, 4.2183e-02,
        4.2360e-02, 1.1388e-03, 2.9400e-02, 2.5848e-01, 7.3725e-01, 5.2291e-02,
        7.8492e-02, 6.5692e-01, 1.7083e-01, 1.6719e-01, 6.2741e-01, 5.5500e-01,
        2.4833e-02, 1.0139e-01, 7.0643e-02, 4.8296e-01, 2.1403e-01, 1.2848e-01,
        1.1115e+00, 7.2371e-02, 3.9355e-01, 6.7437e-02, 3.0375e-01, 1.4471e-02,
        1.1380e-01, 4.2327e-01, 6.5651e-01, 1.5530e-01, 3.2797e-01, 2.4706e-04,
        2.2533e-01, 8.9061e-02, 8.1162e-03, 4.8218e-01, 2.5874e-01, 4.5675e-01,
        2.2820e-01, 5.8032e-01, 5.9877e-04, 6.2523e-03, 3.1201e-01, 1.6384e-01,
        5.3258e-01, 3.5160e-02, 3.3370e-01, 2.2941e-02, 8.8805e-01, 5.4994e-01,
        5.0641e-01, 1.7236e-01, 9.0433e-01, 1.8812e-02, 5.3697e-01, 1.2446e-07,
        5.3941e-02, 5.0751e-01, 1.5890e-01, 2.6551e-01, 6.4611e-02, 6.6450e-01,
        1.4356e-01, 1.2674e-02, 5.2191e-02, 4.7534e-01, 4.2901e-01, 1.0680e-01,
        5.5709e-02, 1.8221e-02, 2.0006e-02, 2.7724e-01, 1.8407e-01, 7.9940e-02,
        4.8191e-01, 7.4568e-01, 2.1984e-03, 9.7974e-02, 5.9199e-04, 3.0550e-01,
        5.7453e-01, 2.8091e-01, 1.6637e-01, 5.1620e-02, 2.7680e-01, 7.5731e-02,
        1.5611e-01, 1.0362e-01, 7.6779e-01, 2.2928e-05, 1.7299e-01, 2.2567e-01,
        3.9507e-01, 1.0185e-01, 8.2992e-05, 5.0054e-01, 2.5561e-01, 1.2507e-01,
        5.3800e-02, 5.4150e-02, 1.7202e-01, 5.7475e-01, 1.3236e-02, 2.3738e-02,
        3.6218e-01, 3.9152e-01, 3.1145e-01, 4.4223e-01, 1.0898e-01, 1.6188e-01,
        4.5632e-01, 1.1104e-01])
net.mlp.net.0.batch_norm.running_var tensor([0.1851, 0.0313, 0.0083, 0.1177, 0.1331, 0.0984, 0.1256, 0.0149, 0.0693,
        0.1552, 0.2062, 0.0030, 0.0758, 0.0604, 0.0067, 0.0018, 0.0149, 0.2632,
        0.0515, 0.0563, 0.1241, 0.0208, 0.0019, 0.1697, 0.0459, 0.0235, 0.0839,
        0.0062, 0.0748, 0.0680, 0.0400, 0.1236, 0.0315, 0.0571, 0.0150, 0.1064,
        0.0939, 0.1337, 0.0432, 0.1239, 0.0601, 0.0734, 0.0918, 0.0932, 0.0587,
        0.0981, 0.1072, 0.1662, 0.0956, 0.1052, 0.1502, 0.1645, 0.0243, 0.1263,
        0.1160, 0.0597, 0.1759, 0.0743, 0.0437, 0.1016, 0.0249, 0.0428, 0.1678,
        0.1640, 0.1092, 0.1229, 0.0221, 0.2896, 0.0679, 0.0773, 0.0232, 0.0550,
        0.1717, 0.0884, 0.0021, 0.0549, 0.1259, 0.0996, 0.0086, 0.0735, 0.0338,
        0.0620, 0.0192, 0.0020, 0.0739, 0.1569, 0.1268, 0.3756, 0.0136, 0.1340,
        0.0222, 0.0022, 0.1148, 0.0577, 0.0202, 0.0099, 0.1578, 0.3416, 0.0018,
        0.1152, 0.0359, 0.1724, 0.0108, 0.1022, 0.3866, 0.0834, 0.0835, 0.1802,
        0.0462, 0.0092, 0.0629, 0.1374, 0.0685, 0.0185, 0.0103, 0.3330, 0.0551,
        0.0437, 0.0963, 0.0419, 0.0708, 0.0077, 0.0754, 0.2057, 0.0152, 0.0931,
        0.0022, 0.1321, 0.0834, 0.1612, 0.1019, 0.0646, 0.1587, 0.0870, 0.3120,
        0.0036, 0.1408, 0.0610, 0.0206, 0.0255, 0.0453, 0.1448, 0.0300, 0.0041,
        0.0274, 0.2271, 0.1107, 0.0385, 0.0274, 0.0032, 0.1832, 0.0722, 0.0038,
        0.0709, 0.0072, 0.1033, 0.1073, 0.1163, 0.1162, 0.0602, 0.0259, 0.0370,
        0.0235, 0.0128, 0.0359, 0.1966, 0.1740, 0.1941, 0.1094, 0.0752, 0.0020,
        0.0696, 0.0689, 0.0529, 0.0034, 0.0669, 0.1410, 0.0052, 0.0106, 0.0941,
        0.1831, 0.0255, 0.1251, 0.0639, 0.0635, 0.1031, 0.1268, 0.1784, 0.1639,
        0.2008, 0.0795, 0.0414, 0.1343, 0.1075, 0.0186, 0.0813, 0.1938, 0.0044,
        0.1795, 0.1026, 0.0774, 0.0087, 0.1389, 0.0811, 0.0978, 0.0101, 0.1203,
        0.0205, 0.0450, 0.1805, 0.1075, 0.0975, 0.0263, 0.0092, 0.0150, 0.0954,
        0.0042, 0.3164, 0.0063, 0.1650, 0.3141, 0.1335, 0.2362, 0.0544, 0.3664,
        0.1789, 0.1676, 0.1589, 0.1440, 0.0528, 0.1434, 0.0570, 0.0087, 0.0235,
        0.0019, 0.0777, 0.1557, 0.1025, 0.0153, 0.1301, 0.0092, 0.0790, 0.2977,
        0.0297, 0.1338, 0.0127, 0.0553, 0.0088, 0.0250, 0.1024, 0.1724, 0.0365,
        0.0689, 0.0032, 0.2530, 0.0286, 0.0359, 0.1940, 0.1606, 0.0151, 0.0391,
        0.0096, 0.0041, 0.3084, 0.7162, 0.0873, 0.0024, 0.1783, 0.2991, 0.0266,
        0.0463, 0.0041, 0.3878, 0.0291, 0.1694, 0.1780, 0.0756, 0.0388, 0.1731,
        0.0880, 0.1219, 0.0018, 0.3368, 0.0558, 0.1052, 0.0199, 0.0987, 0.2176,
        0.1299, 0.1082, 0.0956, 0.0045, 0.0577, 0.0484, 0.0090, 0.0225, 0.1770,
        0.0033, 0.0020, 0.0608, 0.0450, 0.2007, 0.0484, 0.0432, 0.0028, 0.2641,
        0.0442, 0.0388, 0.3643, 0.0109, 0.0072, 0.0719, 0.0579, 0.1603, 0.0436,
        0.1319, 0.0797, 0.1925, 0.0926, 0.1336, 0.1774, 0.0113, 0.2000, 0.2118,
        0.1031, 0.0097, 0.0034, 0.1261, 0.0887, 0.0764, 0.0507, 0.1176, 0.0032,
        0.1019, 0.0400, 0.0694, 0.0029, 0.0049, 0.2478, 0.0941, 0.1621, 0.2684,
        0.0624, 0.1599, 0.0085, 0.2169, 0.0537, 0.0018, 0.0641, 0.0782, 0.3088,
        0.1926, 0.0030, 0.6438, 0.0246, 0.0991, 0.2905, 0.2142, 0.0442, 0.0325,
        0.0743, 0.0823, 0.0757, 0.1409, 0.0052, 0.4521, 0.0074, 0.2666, 0.0754,
        0.0140, 0.0068, 0.2221, 0.0500, 0.0364, 0.0950, 0.1744, 0.0362, 0.2149,
        0.0018, 0.0084, 0.0705, 0.0188, 0.0018, 0.1155, 0.3580, 0.0019, 0.2453,
        0.0717, 0.2550, 0.0101, 0.0326, 0.2870, 0.0618, 0.0019, 0.0654, 0.0956,
        0.0257, 0.0018, 0.5654, 0.0113, 0.1813, 0.0134, 0.0231, 0.0022, 0.0118,
        0.1604, 0.1714, 0.0492, 0.1234, 0.5137, 0.0565, 0.0767, 0.1594, 0.2586,
        0.0173, 0.0377, 0.1308, 0.1102, 0.0795, 0.0887, 0.1045, 0.0198, 0.0600,
        0.0170, 0.2267, 0.0058, 0.0280, 0.1281, 0.1256, 0.0343, 0.0845, 0.0018,
        0.0904, 0.0218, 0.0049, 0.1577, 0.0679, 0.1177, 0.0423, 0.0895, 0.0019,
        0.0034, 0.1674, 0.0480, 0.0907, 0.0254, 0.0779, 0.0083, 0.4097, 0.1282,
        0.1316, 0.4379, 0.1498, 0.0059, 0.1985, 0.0018, 0.0431, 0.2060, 0.0536,
        0.1733, 0.0848, 0.3955, 0.0499, 0.0047, 0.0183, 0.1225, 0.1997, 0.0422,
        0.0187, 0.0077, 0.0151, 0.0717, 0.0545, 0.0271, 0.1586, 0.2041, 0.0022,
        0.0285, 0.0019, 0.0519, 0.2295, 0.1043, 0.0532, 0.0258, 0.0514, 0.0559,
        0.0365, 0.0269, 0.1092, 0.0018, 0.0586, 0.0353, 0.1175, 0.0277, 0.0018,
        0.1773, 0.1290, 0.1410, 0.0212, 0.0727, 0.0386, 0.1461, 0.0055, 0.0083,
        0.1412, 0.5676, 0.1019, 0.2157, 0.0342, 0.2004, 0.0693, 0.0505])
net.mlp.net.0.batch_norm.num_batches_tracked tensor(60)
net.mlp.net.1.linear.weight tensor([[ 1.0322e-01, -3.6660e-02, -1.2386e-01,  ...,  5.4105e-02,
         -5.8587e-02, -3.7876e-02],
        [-7.7764e-03,  6.0549e-02,  1.2477e-01,  ..., -6.3528e-05,
          3.1343e-02, -4.4538e-02],
        [ 2.3540e-02,  4.4554e-02, -1.8616e-02,  ...,  5.1227e-02,
          8.0496e-03, -1.0781e-02],
        ...,
        [ 2.1893e-02,  2.9844e-02, -8.2121e-02,  ...,  1.2932e-01,
         -7.3322e-02, -1.5941e-01],
        [-1.0423e-01, -6.1611e-02,  1.1040e-01,  ...,  2.0250e-02,
          5.7174e-02,  8.0094e-02],
        [ 1.6353e-02,  1.1341e-01,  3.1996e-02,  ...,  1.3243e-02,
          8.6153e-03,  6.8620e-02]])
net.mlp.net.1.linear.bias tensor([-8.2915e-02,  7.5792e-02,  1.3041e-03, -9.3710e-02, -1.8123e-02,
         4.3336e-04,  5.0331e-03, -1.7424e-02,  3.2436e-02, -6.5357e-03,
         2.0108e-02, -3.5140e-02, -9.1035e-02, -1.3364e-02,  3.2275e-02,
        -1.3451e-02, -2.1448e-02, -2.8161e-02,  1.9992e-02, -2.3319e-02,
        -7.9194e-02,  2.5623e-02, -7.7086e-02,  3.8088e-02, -9.6406e-02,
        -5.1452e-02,  3.2773e-02,  7.0582e-03,  4.9285e-04, -2.0348e-03,
        -2.7580e-02, -3.4155e-02, -4.6398e-02, -5.0329e-02,  9.2952e-03,
        -5.7746e-02, -2.9565e-03, -9.1380e-02, -2.1722e-03, -4.9248e-03,
        -4.0771e-02,  9.6072e-03,  3.0821e-02,  4.6696e-02,  4.5368e-02,
        -4.9829e-02,  1.8293e-02, -4.1312e-02,  4.4336e-03, -9.8405e-03,
        -2.4319e-02,  5.8542e-02, -4.1402e-02, -9.7130e-04, -3.2103e-02,
         2.9964e-02,  3.1949e-02,  2.3481e-02,  3.6425e-02,  1.0427e-01,
        -5.2980e-02, -5.1796e-02,  8.5785e-02, -2.5425e-02,  4.0142e-02,
        -6.0666e-02,  3.0531e-02, -1.0139e-02,  7.7884e-02, -3.2715e-02,
         7.3880e-02,  1.0383e-02, -1.1818e-01,  1.3242e-02, -9.5234e-02,
         5.2006e-02,  3.1601e-02, -2.6350e-02,  2.2667e-02,  3.9141e-02,
         4.3566e-02,  3.7268e-02,  5.3252e-02, -2.5864e-02, -2.1025e-02,
        -4.2489e-02, -1.0587e-02, -1.8035e-02, -8.1953e-03, -1.5443e-02,
        -8.4638e-02, -3.5302e-02, -1.2195e-02, -6.2384e-02, -5.2661e-02,
         8.6474e-03, -1.2083e-02,  2.1255e-03,  5.3736e-02, -5.0035e-03,
        -1.6205e-02, -2.1677e-03,  4.1069e-02, -1.3708e-01,  1.9943e-02,
         2.0971e-02, -2.8955e-02, -3.8469e-03, -1.8722e-02,  8.3114e-02,
         4.1003e-03,  9.0413e-02, -1.0949e-01, -5.0638e-03, -1.1518e-02,
         5.6737e-02, -4.4990e-02, -4.7577e-02, -2.8718e-02,  5.9517e-02,
         1.7462e-02,  6.6609e-02, -2.8813e-02, -2.8832e-02, -1.4684e-02,
        -2.0302e-02,  9.1842e-02,  2.2451e-02, -4.3866e-02,  6.7064e-02,
         7.6659e-02, -6.8024e-02,  8.8068e-03, -3.6242e-02, -4.0559e-02,
        -5.2686e-02, -3.5497e-02,  5.2810e-02, -3.5971e-02, -2.1601e-02,
        -7.8796e-02,  1.5066e-02, -2.8150e-02,  4.5254e-02, -5.6286e-02,
        -2.9532e-02,  2.6468e-03, -3.4145e-02,  2.8069e-02,  4.3122e-03,
        -4.4563e-02, -1.1565e-01,  5.3872e-02, -3.1253e-02,  2.3316e-02,
        -9.9272e-02, -5.7682e-02,  2.3754e-02, -1.8212e-02, -3.2836e-03,
         4.5610e-02, -1.1232e-04,  4.1613e-02, -2.1969e-03,  3.3486e-02,
         2.1349e-02, -3.2717e-02, -5.3671e-02,  1.3046e-03, -3.2009e-02,
         3.5175e-02, -4.5496e-03, -4.1400e-02, -2.2310e-02, -1.5050e-02,
        -4.4184e-02,  7.3403e-02,  2.0322e-02,  1.5544e-02,  2.2697e-03,
        -4.4914e-02,  1.6631e-02, -5.6667e-02, -8.9022e-02,  2.3582e-02,
        -7.1645e-02, -4.9600e-02,  5.1689e-02,  6.1230e-03, -1.2570e-02,
         4.4551e-02, -9.4274e-02, -5.2443e-02, -9.6317e-04, -4.9049e-02,
        -6.0381e-03, -1.1899e-01,  1.1760e-02,  7.8900e-02,  1.8678e-02,
        -2.4118e-02,  6.5632e-02, -5.7354e-02,  5.9263e-02,  2.3117e-02,
         1.6786e-02, -4.2467e-02,  2.2849e-02, -6.7606e-02, -1.9003e-02,
        -5.9588e-03,  5.4540e-03,  6.3503e-02, -4.2039e-03, -1.6959e-02,
         1.1465e-02, -1.8473e-03,  9.7087e-02,  4.0741e-02, -7.4915e-02,
         1.2457e-02, -1.0337e-01,  1.3022e-01, -1.0217e-02,  1.9398e-03,
        -6.1906e-02, -6.8010e-02, -2.7453e-03, -7.1268e-02,  3.5829e-02,
         3.8875e-02,  1.3801e-02, -3.5628e-02,  4.8098e-03, -4.5888e-02,
        -2.1576e-02, -4.3511e-02,  3.4713e-02, -2.0510e-02, -6.2594e-02,
        -9.9937e-03, -7.4932e-02,  3.8155e-02, -1.0702e-02,  4.9540e-02,
         8.6243e-02, -3.5699e-02, -1.0524e-02, -5.1211e-02, -7.1841e-02,
         3.5863e-02,  1.7677e-02, -1.1023e-02,  1.4255e-02,  4.9826e-02,
         3.6590e-02, -1.1237e-01,  3.4568e-02,  2.1313e-02, -3.9130e-02,
        -3.1327e-02, -6.8839e-02, -5.5777e-02, -2.7798e-02,  9.4993e-03,
        -4.1462e-02,  9.0876e-03, -8.0842e-02, -1.3854e-02,  3.8163e-02,
         4.3075e-02,  4.0972e-02,  1.2076e-02, -3.1231e-02,  3.3217e-03,
         5.3021e-03,  2.7111e-02,  7.0697e-02, -4.8946e-02,  8.6039e-02,
        -4.2041e-03, -1.9669e-02, -1.1974e-02, -3.5350e-04, -8.2979e-02,
        -1.4712e-02, -6.6245e-02,  2.5859e-02,  4.3627e-02,  4.2830e-02,
         8.1855e-02,  2.7314e-02, -1.1860e-01, -4.5735e-02, -3.2572e-02,
        -1.2964e-02, -3.2766e-02,  4.5971e-02,  8.5882e-03,  1.1504e-01,
         2.2288e-02, -1.4914e-02, -5.8280e-03, -7.7190e-02, -3.7515e-02,
        -3.0639e-03,  5.1848e-02, -9.4510e-03,  3.2170e-03, -2.2585e-02,
        -1.3075e-02,  5.6507e-02,  6.5386e-02, -1.1123e-01,  7.0200e-03,
         6.7992e-02, -4.9997e-02,  2.6781e-02,  4.6168e-03,  1.3903e-02,
        -2.6697e-02, -3.1107e-02, -3.2504e-02, -1.6741e-03,  7.0568e-03,
        -1.1286e-02, -1.1765e-01, -4.4582e-02, -2.5865e-03,  5.0694e-02,
        -6.7672e-02, -3.9761e-02,  1.6415e-03, -5.5076e-02, -4.2779e-02,
         6.3814e-02,  1.0779e-02,  5.6421e-03,  9.0108e-02,  3.3015e-02,
        -1.5204e-03,  5.5535e-02,  2.6542e-02, -1.0127e-03, -1.4484e-02,
        -4.6175e-03,  2.2986e-02, -1.1419e-02,  2.7519e-02, -9.7861e-03,
         9.8807e-02, -7.2183e-02, -2.8904e-02,  8.3627e-02,  3.9185e-02,
         4.3240e-03, -4.9874e-02, -2.2978e-02, -3.9838e-03,  4.3348e-02,
        -4.5033e-02, -3.3871e-02,  1.4190e-02,  7.9458e-02,  3.4508e-03,
         4.9439e-02, -1.9060e-02,  3.8534e-02, -2.8618e-02,  2.3627e-02,
        -6.8708e-02, -2.1012e-02,  1.1514e-02, -6.6256e-02,  1.5200e-02,
         8.9924e-02, -1.1382e-01, -2.4518e-02,  5.0479e-02, -2.2177e-02,
         2.8333e-02,  6.6721e-02,  4.2552e-02,  2.3385e-02, -3.4324e-02,
        -5.2424e-03,  1.5216e-02,  1.3302e-02,  2.5219e-02, -7.2998e-02,
        -3.2366e-02,  8.2349e-03,  3.4225e-02, -8.0287e-02, -4.1265e-02,
         8.8477e-02, -1.8655e-02,  5.4303e-02, -2.4423e-03,  4.7283e-02,
         3.9306e-02,  1.8352e-02,  3.2840e-02,  3.2102e-02,  2.1286e-02,
        -3.4027e-02,  2.5892e-02, -1.0835e-02,  1.3166e-02, -1.0761e-01,
         9.2717e-02,  5.2280e-03, -6.0093e-02, -1.9545e-02, -5.0112e-02,
        -3.4680e-02, -5.2594e-02,  5.5263e-02,  3.4356e-02,  5.8105e-03,
        -1.0050e-01,  2.4884e-02,  7.1967e-02,  8.1197e-02,  2.7859e-03,
         3.4679e-02, -1.5308e-02,  3.4127e-02,  3.7176e-02,  1.0120e-02,
         2.3080e-02,  4.5402e-02, -3.8936e-02,  9.1731e-02,  1.4621e-01,
         3.9736e-02, -1.4280e-02,  2.3165e-02, -6.5860e-02, -1.0490e-01,
        -1.3227e-02,  7.3249e-03, -6.1560e-02, -1.0690e-01,  3.6651e-02,
         4.6152e-02, -1.5994e-03, -1.9823e-02,  4.8881e-03,  6.3051e-02,
        -3.5251e-02,  3.5248e-02,  2.6442e-02, -7.5173e-02,  4.3521e-03,
        -2.2182e-02, -9.6088e-02,  5.9830e-02, -5.8749e-02, -1.0390e-01,
         7.3275e-02,  1.0122e-02,  2.6600e-02, -5.2675e-02, -7.5151e-02,
         7.3487e-02,  2.6394e-03, -5.8512e-02, -1.2629e-01,  7.4419e-04,
        -3.2704e-02, -7.2446e-02,  6.6072e-02,  5.7916e-02, -8.2281e-02,
         2.6031e-02,  3.4468e-02, -4.8657e-03,  3.1177e-03, -7.3418e-02,
         7.9236e-02, -4.9626e-02,  3.2782e-02,  3.3029e-02,  1.1082e-02,
         7.1923e-02,  4.5202e-02, -4.1650e-02,  1.0047e-02,  2.9644e-02,
        -8.3625e-02, -9.2683e-03,  5.3450e-03, -2.1093e-02, -1.0585e-02,
        -3.2565e-02, -2.0016e-02, -6.6667e-02,  2.9396e-02,  5.2967e-02,
        -3.5915e-02, -4.8597e-03,  3.8707e-02,  4.4753e-03, -9.0511e-02,
        -7.3104e-02,  3.0767e-02,  3.3954e-02, -3.4464e-02, -4.0300e-02,
         4.1101e-02, -1.5256e-02])
net.mlp.net.1.batch_norm.weight tensor([0.7205, 0.7660, 0.7058, 0.7051, 0.6693, 0.7289, 0.7449, 0.6778, 0.7991,
        0.7502, 0.7332, 0.7447, 0.8046, 0.7499, 0.7694, 0.7335, 0.7202, 0.6997,
        0.7649, 0.7257, 0.7103, 0.6783, 0.7899, 0.7408, 0.7660, 0.7029, 0.7548,
        0.7213, 0.7399, 0.7078, 0.7678, 0.7290, 0.6995, 0.7572, 0.7392, 0.7371,
        0.7251, 0.8347, 0.6578, 0.7110, 0.7034, 0.7623, 0.7364, 0.7295, 0.7114,
        0.7751, 0.7039, 0.7049, 0.7349, 0.7335, 0.7102, 0.7199, 0.7113, 0.7548,
        0.6906, 0.7158, 0.6861, 0.7430, 0.7082, 0.7438, 0.6990, 0.7468, 0.6539,
        0.7642, 0.7254, 0.7300, 0.7335, 0.7285, 0.7229, 0.7203, 0.7050, 0.8218,
        0.7752, 0.6666, 0.6947, 0.7159, 0.6843, 0.7777, 0.6826, 0.7874, 0.6806,
        0.7533, 0.7456, 0.6995, 0.7974, 0.6956, 0.7478, 0.7243, 0.7767, 0.8387,
        0.7070, 0.7195, 0.7598, 0.7344, 0.7204, 0.6910, 0.6959, 0.7090, 0.7982,
        0.7783, 0.7535, 0.7197, 0.7145, 0.7497, 0.7175, 0.7356, 0.7724, 0.7319,
        0.7068, 0.7351, 0.7501, 0.6980, 0.7156, 0.7017, 0.6944, 0.7533, 0.7919,
        0.6887, 0.7895, 0.7081, 0.8086, 0.7025, 0.7133, 0.7237, 0.7607, 0.7715,
        0.6616, 0.7153, 0.7378, 0.6774, 0.7283, 0.6966, 0.7214, 0.7713, 0.7649,
        0.7591, 0.7354, 0.7025, 0.6961, 0.7238, 0.7444, 0.7195, 0.6913, 0.7363,
        0.7169, 0.7528, 0.7663, 0.7964, 0.7325, 0.7758, 0.7464, 0.7521, 0.7205,
        0.7140, 0.7402, 0.7658, 0.6451, 0.7602, 0.7882, 0.7153, 0.7073, 0.6915,
        0.7287, 0.7396, 0.7591, 0.7459, 0.7873, 0.6811, 0.7290, 0.7694, 0.7455,
        0.7436, 0.7177, 0.7334, 0.6999, 0.7188, 0.7295, 0.7215, 0.7481, 0.7933,
        0.7209, 0.7485, 0.7857, 0.7347, 0.7443, 0.6916, 0.7657, 0.7569, 0.7031,
        0.7147, 0.6648, 0.7021, 0.7296, 0.7380, 0.7397, 0.7568, 0.6966, 0.7436,
        0.7316, 0.7139, 0.7683, 0.6406, 0.7599, 0.6981, 0.7642, 0.7137, 0.7456,
        0.6791, 0.7493, 0.7579, 0.7411, 0.7018, 0.7683, 0.7071, 0.7313, 0.7497,
        0.7061, 0.7346, 0.7118, 0.7315, 0.7322, 0.7225, 0.6856, 0.7024, 0.7703,
        0.7475, 0.7855, 0.7457, 0.7103, 0.7544, 0.6907, 0.7165, 0.7200, 0.7166,
        0.7672, 0.7588, 0.7782, 0.7100, 0.7697, 0.7480, 0.7294, 0.7047, 0.7199,
        0.7114, 0.7579, 0.7421, 0.7612, 0.7145, 0.6804, 0.7267, 0.7317, 0.7171,
        0.6868, 0.7202, 0.7131, 0.7478, 0.7472, 0.7448, 0.7478, 0.7224, 0.7499,
        0.7010, 0.7534, 0.7309, 0.7344, 0.7425, 0.7016, 0.7873, 0.7744, 0.7549,
        0.6471, 0.7012, 0.8030, 0.7206, 0.7435, 0.7088, 0.7490, 0.7201, 0.7489,
        0.7305, 0.7228, 0.7608, 0.7568, 0.7365, 0.6906, 0.7395, 0.7360, 0.7453,
        0.7105, 0.7621, 0.7324, 0.6979, 0.7605, 0.7480, 0.7198, 0.7076, 0.7422,
        0.7712, 0.7542, 0.7131, 0.7463, 0.7478, 0.7507, 0.7255, 0.7050, 0.7394,
        0.7302, 0.7793, 0.7202, 0.7563, 0.7506, 0.6692, 0.7384, 0.7085, 0.7506,
        0.7329, 0.7527, 0.7163, 0.7050, 0.7630, 0.7326, 0.7106, 0.6932, 0.7247,
        0.7379, 0.7338, 0.7252, 0.7229, 0.6942, 0.7014, 0.7047, 0.7577, 0.7151,
        0.6988, 0.7602, 0.7405, 0.6680, 0.6780, 0.6786, 0.7670, 0.7646, 0.7682,
        0.7112, 0.7121, 0.7580, 0.6594, 0.6934, 0.7287, 0.7167, 0.7238, 0.7064,
        0.7314, 0.7574, 0.7008, 0.6936, 0.7129, 0.6914, 0.7353, 0.7556, 0.7546,
        0.6801, 0.7124, 0.7259, 0.7702, 0.7275, 0.6789, 0.6971, 0.6946, 0.7090,
        0.7431, 0.7325, 0.7162, 0.7185, 0.7804, 0.7443, 0.7456, 0.7590, 0.7556,
        0.7269, 0.7358, 0.7435, 0.7520, 0.7610, 0.7221, 0.7297, 0.7863, 0.7268,
        0.7829, 0.7045, 0.7695, 0.7225, 0.7392, 0.7108, 0.7489, 0.7402, 0.8057,
        0.7868, 0.6860, 0.7788, 0.7807, 0.7466, 0.7086, 0.6827, 0.7161, 0.7299,
        0.6956, 0.7492, 0.7095, 0.7045, 0.6845, 0.7356, 0.7793, 0.6856, 0.7099,
        0.7711, 0.7763, 0.7104, 0.6780, 0.7041, 0.6889, 0.6962, 0.7661, 0.7327,
        0.6633, 0.7241, 0.8044, 0.7316, 0.7340, 0.7195, 0.7084, 0.7420, 0.8153,
        0.6993, 0.7178, 0.6947, 0.7478, 0.7324, 0.7637, 0.7128, 0.7811, 0.7093,
        0.7847, 0.7306, 0.7332, 0.8032, 0.6564, 0.7007, 0.7733, 0.7500, 0.7350,
        0.7150, 0.7171, 0.7396, 0.7675, 0.7329, 0.6825, 0.7262, 0.7336, 0.7383,
        0.7379, 0.7078, 0.7709, 0.7139, 0.7452, 0.7256, 0.6986, 0.7358, 0.7033,
        0.7377, 0.7629, 0.6811, 0.6862, 0.7321, 0.7008, 0.7005, 0.7042, 0.7082,
        0.6956, 0.6958, 0.7384, 0.7053, 0.7397, 0.6968, 0.6908, 0.7239, 0.7460,
        0.7526, 0.6919, 0.7140, 0.7492, 0.7731, 0.6913, 0.7250, 0.7211, 0.7256,
        0.7285, 0.6922, 0.6893, 0.7167, 0.7632, 0.6476, 0.7017, 0.7237, 0.7913,
        0.7146, 0.7302, 0.7559, 0.7487, 0.7071, 0.7812, 0.6674, 0.7232])
net.mlp.net.1.batch_norm.bias tensor([ 2.3465e-03, -1.4230e-02, -3.5575e-02, -5.0606e-02, -2.0563e-02,
         1.9492e-02, -4.6839e-03,  8.8425e-02,  4.7188e-02,  2.0361e-02,
         7.6474e-02, -3.3136e-02, -1.3628e-02, -3.2668e-02,  1.1673e-02,
         7.4017e-02, -3.0511e-02, -3.3868e-02, -6.2993e-02, -1.9467e-02,
        -5.4682e-03, -6.0951e-02,  4.4371e-02,  4.3687e-02,  2.2855e-02,
         1.4326e-02,  5.8926e-02,  1.0736e-02, -3.2054e-02,  5.4698e-02,
        -2.5338e-02, -9.5723e-04,  6.7499e-04,  2.6586e-02,  5.0430e-02,
        -3.7932e-02,  7.4315e-03, -8.0631e-02,  5.7185e-02,  5.1082e-02,
         5.1046e-03,  2.9873e-02,  4.0663e-03, -9.9951e-02, -2.4827e-02,
        -1.4823e-02,  1.6466e-02,  1.9473e-02,  4.4829e-03,  1.4517e-02,
         3.2545e-02, -4.8054e-02,  5.3321e-02, -9.7751e-03, -9.5105e-02,
         1.1431e-02, -3.0084e-03, -1.2959e-01, -8.1722e-02,  7.6982e-02,
        -1.3639e-02, -7.0947e-02, -7.0319e-03, -4.7076e-02, -2.0053e-02,
        -1.8554e-02,  2.6382e-02, -4.2105e-03, -8.2756e-02, -2.8134e-02,
        -1.8839e-02, -9.9748e-02,  2.3253e-04,  6.1496e-02, -6.4726e-02,
         3.2269e-02, -1.1467e-02,  1.8608e-02,  4.3448e-02,  3.1520e-02,
         3.0141e-03, -3.4576e-02,  2.6974e-02,  3.4403e-02, -2.6357e-02,
         2.1409e-02,  2.8115e-02,  2.5364e-02, -2.9034e-02, -4.1102e-02,
         5.0229e-02,  7.5607e-03,  8.4968e-03,  2.7728e-02, -3.7970e-02,
         3.4982e-02,  7.0515e-04, -2.1633e-04,  3.3420e-03, -5.1461e-02,
         3.0745e-02, -4.0719e-02, -9.4936e-03,  5.7438e-02, -5.1290e-02,
        -3.7391e-02,  5.5017e-02, -1.5888e-02, -6.2785e-02, -3.0408e-02,
        -2.6119e-02, -5.1625e-03, -9.5427e-02,  5.2222e-02,  2.9066e-03,
        -1.0811e-01, -5.8528e-02,  2.3646e-02,  1.0811e-02,  3.5322e-02,
        -5.6137e-02, -1.1687e-02,  4.4863e-02, -5.2239e-02,  5.4932e-02,
         4.0734e-02, -2.8382e-02, -5.3226e-02,  3.8205e-02, -2.8748e-02,
         7.1846e-02, -2.1399e-02, -2.5634e-02,  8.8779e-02,  1.8751e-02,
        -2.2487e-02, -5.0975e-02, -5.0442e-02, -2.5807e-02,  2.5946e-02,
        -3.6025e-02,  3.3946e-02, -8.6142e-02, -1.2300e-02,  2.3092e-02,
         1.1202e-02,  5.9695e-02,  4.7256e-02, -7.9257e-03,  6.8122e-03,
        -3.6240e-02, -4.8605e-03,  6.2326e-02, -2.2827e-02, -2.8538e-02,
        -1.8903e-02,  4.7839e-02,  3.0406e-02,  4.5437e-02, -7.2003e-02,
         6.5884e-03,  5.8490e-02,  1.7579e-02, -3.6384e-02,  4.9511e-02,
        -9.5839e-02,  4.8610e-03,  3.5113e-02, -4.5556e-02, -5.1673e-02,
         1.8156e-02, -6.9821e-03, -3.6286e-02, -9.3284e-02,  3.7654e-03,
        -4.3112e-03,  4.5713e-02, -3.0164e-02, -1.0399e-02, -8.9630e-03,
        -5.4108e-02, -2.9635e-02,  5.6360e-02,  7.5124e-02,  2.3708e-02,
        -7.8833e-02, -2.1307e-02,  3.5868e-02,  5.3775e-03, -1.7161e-03,
         3.4106e-02, -4.9108e-02, -4.6293e-02,  6.2528e-03, -6.1632e-02,
         7.7345e-02,  5.6190e-02, -1.2624e-01, -1.1718e-02,  3.6180e-02,
         5.8231e-02,  2.0665e-02, -3.8177e-02,  9.7451e-03,  5.3421e-02,
         1.4332e-02, -3.0737e-02,  2.5998e-02, -2.0176e-02,  2.3783e-02,
         9.8637e-03, -3.2303e-02,  4.8890e-02,  6.9622e-02, -4.1761e-02,
         7.7714e-03, -4.0237e-02,  6.8990e-02, -4.0689e-02, -1.9264e-02,
        -1.8934e-03,  2.1965e-02, -3.8015e-02,  4.4199e-03,  3.4436e-04,
         3.2998e-02, -5.6501e-02, -8.0102e-02,  5.4998e-02,  2.2373e-02,
        -1.4509e-02,  3.3330e-03,  1.7902e-02,  2.3026e-02,  3.3349e-02,
         3.5886e-02, -3.8367e-02,  3.3020e-02, -5.5611e-02,  2.6225e-02,
         5.9633e-02,  2.9993e-02, -1.1184e-01,  3.4068e-02, -2.6478e-02,
        -2.1839e-02,  3.4191e-02,  1.9297e-02, -6.7380e-03,  1.6747e-02,
        -3.1085e-02, -1.1993e-01,  1.4307e-02, -1.2760e-02,  4.1863e-02,
        -2.8850e-02, -2.1870e-02,  1.4008e-01, -4.1050e-03, -1.8414e-02,
        -1.9596e-03,  5.9502e-02, -2.8872e-02, -3.1764e-02,  3.3778e-03,
         5.0284e-02, -8.3317e-02,  3.0866e-04,  2.7973e-02, -4.4720e-02,
         1.7682e-02, -6.0868e-02, -1.9392e-02,  2.6299e-02,  5.5793e-03,
        -2.9229e-02, -1.9563e-02,  6.4610e-02, -1.1257e-02, -8.8643e-03,
        -6.9761e-02, -1.6033e-02,  1.3794e-03,  3.7907e-02, -7.5661e-02,
         1.8624e-02,  2.8417e-02, -4.4740e-02,  4.8633e-02,  5.7972e-02,
         6.6541e-02,  3.8387e-02, -3.9298e-03,  2.4477e-02,  1.1887e-02,
        -5.4895e-02,  6.5510e-03, -4.5499e-02,  1.9891e-02, -1.2549e-02,
        -9.8777e-02, -1.9534e-02,  6.8122e-02,  1.1381e-02,  1.0161e-02,
        -8.1169e-02,  3.1311e-02,  3.5613e-02, -5.3641e-02, -6.3650e-05,
         2.8853e-02, -4.8269e-03,  4.6314e-03,  5.6717e-02, -4.5180e-02,
         2.9398e-02, -3.1490e-02,  6.2422e-02,  7.3483e-02,  3.9472e-02,
         3.7396e-02,  8.5328e-02,  2.4315e-02, -3.9848e-03, -5.4556e-02,
         2.5027e-02, -2.9131e-02,  7.8914e-02, -1.8608e-02,  1.1030e-02,
        -7.3737e-03, -1.9896e-02, -4.3343e-02,  1.9847e-02, -3.6076e-02,
         8.2802e-04, -6.1184e-03,  1.1565e-02, -8.8881e-03, -1.5895e-02,
        -3.4564e-02, -6.7049e-02,  3.8424e-02, -5.8938e-02, -1.7582e-03,
         3.1980e-02, -5.8152e-04,  1.3748e-02, -1.7240e-03, -1.2985e-01,
         5.7602e-02,  3.1772e-02, -1.4666e-02,  3.6262e-02, -4.7986e-02,
        -2.2778e-02,  2.6710e-02,  7.3073e-03,  5.9153e-02, -3.0413e-02,
         5.1353e-02, -5.4762e-02,  2.3524e-02, -1.8465e-02, -6.9769e-02,
         4.5251e-02, -2.5348e-02, -5.1386e-02,  5.1204e-03, -5.8471e-02,
         2.2018e-02, -3.7638e-02,  4.7882e-02,  3.8473e-02, -3.6943e-02,
        -5.1246e-02, -9.2533e-04,  5.7174e-03,  3.4992e-02,  6.1754e-02,
         7.4622e-02, -4.1888e-02,  3.7151e-03, -6.3683e-02, -7.8516e-02,
         7.0928e-03, -4.8874e-02, -1.0574e-02, -2.9017e-03, -4.4225e-03,
         3.8592e-03, -8.3511e-02, -4.9733e-02, -2.2069e-02, -9.7951e-02,
        -7.1383e-02,  4.7853e-02, -6.6123e-03, -5.2035e-02,  3.9578e-02,
        -6.2546e-02, -1.9615e-02,  3.1113e-03, -4.6090e-02, -3.4491e-02,
         2.9007e-02,  1.2413e-02,  3.6889e-02,  1.4359e-02, -1.5400e-02,
         7.7059e-02,  3.7521e-02,  2.4694e-02,  6.2426e-02, -3.5971e-02,
        -8.6956e-02, -2.7045e-02, -1.4880e-02, -3.3120e-02,  2.0341e-02,
         1.8681e-02, -5.6689e-02,  6.6677e-02,  1.5299e-03,  1.2359e-02,
        -3.5000e-02, -4.4634e-02, -2.9005e-02,  1.0395e-02,  2.9516e-02,
        -2.9115e-02,  6.2825e-03, -4.1416e-03, -3.5523e-02, -1.6114e-02,
         2.4383e-02,  7.0186e-02,  4.1725e-02, -4.8611e-02,  4.5208e-02,
        -5.8478e-02,  6.0868e-02, -7.9252e-02,  2.3475e-02, -1.8205e-02,
        -2.3062e-02,  1.3162e-02,  4.2244e-02,  1.7294e-02,  7.9384e-03,
        -1.5530e-02,  1.9265e-02, -1.0321e-01,  2.3836e-02,  1.0055e-02,
         4.5974e-02, -7.6861e-03,  2.1939e-02,  4.4316e-02, -6.0920e-02,
        -1.8049e-02,  4.5853e-03,  2.1744e-02,  3.1891e-02, -2.8729e-02,
        -5.4190e-02, -7.3018e-03,  6.1092e-02,  3.2402e-02,  2.7651e-02,
         8.7113e-03,  1.1740e-01, -4.7886e-03,  1.0818e-02, -2.4674e-02,
         1.8123e-03,  9.1282e-02, -1.6755e-02,  9.2473e-02,  4.9058e-02,
         6.0175e-03, -9.6924e-03,  4.0939e-02, -4.5730e-02,  7.2727e-02,
        -1.6947e-02,  8.7583e-03, -2.8620e-02,  8.2172e-03,  8.4055e-02,
        -2.8585e-02,  9.1737e-03,  7.4477e-03,  5.5155e-02,  5.5002e-02,
         5.7179e-02,  9.6018e-03, -1.7979e-02, -3.3408e-02,  7.4640e-03,
         4.6199e-02, -2.0796e-02,  4.9053e-02,  4.2136e-02,  2.8722e-02,
        -4.1807e-02, -6.5237e-03, -2.6631e-02, -3.1211e-02, -1.0408e-02,
        -5.5326e-02,  7.2979e-02])
net.mlp.net.1.batch_norm.running_mean tensor([0.8324, 1.0786, 1.0648, 1.0286, 0.8655, 1.6402, 1.2325, 0.9660, 1.3436,
        1.1041, 0.8330, 1.7717, 1.1053, 1.2619, 0.8132, 0.9742, 1.4413, 1.1807,
        1.0318, 1.0369, 1.1399, 1.7170, 1.4237, 1.0614, 1.0663, 1.1261, 1.3203,
        1.1188, 1.3481, 1.0149, 0.8957, 1.1694, 1.1899, 1.1416, 0.8622, 1.4940,
        1.2950, 1.3779, 0.8174, 1.6317, 1.1496, 1.7044, 1.3272, 1.6703, 1.1374,
        1.1822, 1.4684, 0.9403, 1.2817, 1.0281, 0.9793, 1.2193, 1.5186, 1.1416,
        0.7812, 1.5264, 1.0786, 1.0733, 1.2519, 1.3354, 0.9263, 1.1976, 1.2104,
        1.1113, 1.1427, 0.9178, 0.8187, 0.8384, 1.5811, 0.9359, 1.3730, 1.6138,
        1.1978, 1.0458, 1.1079, 1.6219, 1.1387, 1.7064, 1.5433, 0.9952, 0.9658,
        0.8441, 1.5886, 1.2865, 1.4583, 1.1520, 1.4026, 1.1436, 1.2139, 1.1849,
        1.1473, 0.9724, 1.0011, 0.6812, 1.2205, 0.9315, 1.3225, 1.2604, 1.2793,
        1.1334, 0.9413, 1.0648, 1.1343, 1.0919, 1.4467, 1.1022, 1.0152, 1.3465,
        0.9003, 0.8734, 1.0891, 1.1239, 0.9184, 1.3749, 1.0810, 1.2872, 1.0549,
        1.5351, 1.3720, 0.9478, 1.3799, 1.0401, 1.2051, 1.2758, 0.8045, 1.2529,
        1.0725, 1.1406, 0.9150, 1.1299, 1.3029, 1.2964, 1.2999, 0.9632, 0.8180,
        1.4624, 1.1030, 1.1240, 1.2254, 1.4713, 0.8753, 0.7478, 0.8445, 1.1800,
        1.4974, 1.4078, 1.3963, 0.9229, 1.0525, 1.6355, 1.6126, 0.9676, 1.3447,
        1.6482, 1.0344, 1.0562, 1.3760, 1.3541, 1.2093, 0.9089, 1.0947, 1.0152,
        1.2729, 0.9907, 1.1012, 1.1773, 1.1183, 1.3912, 1.5322, 1.5208, 1.7111,
        0.7089, 1.1597, 1.1462, 1.3831, 0.8502, 1.2112, 1.2201, 1.0328, 0.8722,
        1.2540, 1.6693, 1.5548, 0.8559, 1.3138, 0.9991, 1.0562, 0.9821, 0.9873,
        1.0052, 1.5992, 0.7694, 1.2738, 1.2470, 1.0149, 1.6636, 1.2190, 1.2286,
        0.9760, 1.3855, 1.1249, 1.3207, 1.2819, 0.9400, 1.7621, 1.6022, 1.3553,
        0.7694, 1.4357, 1.0784, 1.1077, 1.2654, 0.9203, 0.9200, 1.4018, 0.9600,
        0.8429, 1.2035, 1.6029, 1.5572, 1.5264, 1.6320, 0.8745, 1.4618, 1.2232,
        1.4582, 1.4272, 0.9079, 1.1518, 1.2672, 0.8360, 1.0477, 0.8532, 1.5603,
        1.4335, 1.0881, 0.9710, 1.3836, 1.1943, 1.7463, 1.0188, 0.9166, 1.6887,
        1.2696, 1.5720, 1.4383, 0.9347, 1.3269, 1.2003, 1.0855, 1.1606, 1.3990,
        1.4453, 1.0919, 1.3468, 1.4679, 1.3848, 1.8810, 1.3467, 1.3640, 0.8196,
        0.7719, 1.4929, 0.9542, 1.2060, 1.2736, 1.2308, 1.1728, 0.9026, 1.4926,
        1.0188, 1.0032, 1.1713, 1.1092, 1.3939, 1.5207, 1.1707, 1.3194, 1.4654,
        1.2611, 0.8511, 1.4163, 1.1309, 1.3352, 1.2197, 1.7684, 1.4112, 1.1449,
        1.5211, 1.4307, 1.3887, 1.4864, 0.9472, 1.3130, 1.3421, 1.3284, 1.1625,
        1.1624, 1.4391, 1.5575, 1.7518, 1.0630, 1.0356, 1.0741, 1.4066, 1.3945,
        1.6359, 1.2842, 1.3147, 0.9221, 1.3181, 1.3765, 1.4567, 1.4603, 1.4143,
        1.3999, 1.1899, 1.3308, 1.1125, 1.1623, 0.8708, 1.2765, 1.4103, 1.4289,
        1.0063, 1.0130, 1.2670, 1.2453, 1.1993, 1.2879, 0.9796, 1.5082, 1.3296,
        0.9622, 1.7501, 1.6039, 1.1555, 2.0064, 1.1413, 1.3255, 0.8819, 1.4320,
        1.3469, 1.4693, 0.9476, 1.2550, 1.2431, 1.2198, 1.9343, 1.3857, 1.3614,
        1.7283, 0.9917, 1.4705, 1.5304, 1.1021, 0.9347, 1.3207, 1.6405, 1.5797,
        0.9582, 0.9746, 1.0267, 1.6247, 1.1750, 1.7266, 1.3671, 1.1454, 0.9660,
        1.0608, 1.1987, 1.2169, 0.8006, 1.5190, 1.0594, 1.0540, 1.4966, 1.2359,
        1.3430, 1.5501, 1.3375, 1.2069, 1.5615, 1.5767, 1.0276, 1.3906, 1.2564,
        1.1374, 1.4280, 0.9183, 0.8455, 1.2142, 1.0235, 1.1013, 1.1171, 1.1908,
        1.4800, 1.4367, 1.5186, 1.5230, 1.3405, 1.0887, 0.9633, 1.0455, 1.1180,
        1.4509, 1.2796, 1.0479, 1.0574, 0.9980, 1.8737, 1.5902, 1.4773, 0.9120,
        1.1043, 1.2549, 1.6252, 1.3437, 1.3839, 1.3188, 0.8576, 1.6678, 1.4509,
        1.5452, 1.4030, 1.4292, 1.3055, 0.9765, 1.5655, 0.9691, 0.8018, 1.2457,
        1.6268, 0.9964, 1.6949, 1.4194, 1.3669, 1.0698, 0.7662, 1.3169, 1.1410,
        1.1683, 1.1710, 0.8068, 1.4408, 1.2185, 1.4910, 1.1168, 1.2711, 1.3658,
        1.2859, 1.5380, 1.5255, 1.0601, 1.0910, 1.0239, 1.0675, 0.8595, 1.4541,
        0.7245, 0.9730, 1.3526, 1.1026, 1.2084, 1.2728, 1.2944, 1.2088, 1.0652,
        0.8278, 1.2984, 1.7225, 0.8171, 1.4875, 1.2985, 1.3603, 1.2659, 1.1503,
        1.0550, 1.5925, 1.2531, 0.8777, 0.9294, 1.8475, 1.5247, 1.3403, 1.2480,
        1.7365, 1.1492, 1.1880, 1.5191, 1.1810, 1.1261, 1.0716, 0.8101, 1.4026,
        1.8438, 1.2936, 1.3306, 1.0700, 1.5639, 1.3132, 1.1021, 0.9505, 1.4850,
        0.8973, 1.1086, 1.2054, 1.3647, 0.9950, 2.0611, 1.3778, 1.3262])
net.mlp.net.1.batch_norm.running_var tensor([ 3.4844,  2.5252,  2.5967,  3.3690,  2.0515,  8.8983,  3.0997,  5.2480,
         2.8181,  2.6857,  2.2049, 18.8529,  2.2058,  5.1946,  2.8285,  1.6339,
         3.3888,  2.7776,  2.1735,  4.4438,  2.4616,  5.4071, 10.5550,  3.0525,
         3.4032,  2.8103,  2.7617,  2.2030,  3.5815,  3.9221,  2.0560,  4.6728,
         2.7045,  4.7538,  2.0449, 16.8851,  3.1050,  7.3700,  2.1606, 16.2597,
         2.9546, 19.4019,  8.1582,  3.6469,  4.2051,  7.4054, 11.6354,  2.7860,
         2.7154,  6.0701,  5.9626,  3.7084,  3.5686,  2.8433,  3.4806,  4.2011,
         4.0893,  2.6932,  2.8997,  4.3708,  1.9856,  7.7271,  3.4656,  3.3548,
         2.1284,  6.6119,  1.3837,  1.8975,  4.7629,  4.7438, 11.2062, 16.6582,
         3.4941,  2.5839,  4.2880,  4.9706,  5.8252,  6.1189, 12.9418,  2.2252,
         1.9147,  1.4218, 13.9318, 15.1748,  4.2605,  2.6585,  3.4600,  2.3941,
         8.1986,  2.6290,  8.2097,  1.9368,  2.0279,  1.5579,  8.3067,  1.7513,
         9.1663,  2.4689,  3.6604,  8.1923,  2.9838,  2.3947,  3.6194,  2.2739,
         3.4901,  7.5663,  3.2484,  2.9032,  1.8401,  1.2847,  8.1677,  2.1252,
         8.8127,  2.7968,  1.9472,  9.3150,  2.7471, 18.4775,  4.2821,  4.0992,
         4.1604,  2.4978,  3.3630,  7.3787,  1.7174,  8.4151,  2.2032,  2.2708,
         6.9131,  3.5080,  2.6774, 14.8638,  7.0055,  3.5877,  3.1108,  2.9621,
         2.1362,  4.4788,  3.7972, 12.5797,  1.6708,  0.9446,  1.8655,  8.3864,
        12.6733, 13.5304,  8.7814,  2.4957,  6.1582,  4.6139, 10.0503,  8.6545,
         9.5559,  5.5656,  4.4335,  2.1959,  5.1387,  5.7684,  4.2711,  2.4764,
         2.7659,  2.2012,  3.0434,  1.9972,  6.8981,  3.0612,  3.1863, 12.7380,
        17.4104, 12.9661, 14.3760,  1.3411,  8.1763,  2.8470,  4.2140,  3.0907,
         2.7474,  4.3301,  2.1604,  3.3298,  4.8236, 13.2744, 17.3445,  3.3440,
         3.3448,  1.6210,  2.6334,  2.7763,  1.9891,  3.2208,  3.5985,  3.7832,
        14.5798, 12.1015,  2.0768,  5.0233, 12.6526,  3.6221,  1.8318,  2.8269,
         2.6744,  2.5142,  2.8852,  2.2552, 18.0991,  3.6978, 12.7378,  1.9679,
        18.2600,  2.2108, 10.0150,  2.6612,  1.6797,  1.6188,  3.5671,  2.3657,
         2.4157,  4.0595,  4.4267, 15.3282,  9.8547, 21.9588,  2.1127, 11.5814,
        10.0455,  3.8482,  4.6366,  2.0708,  5.9902,  2.9870,  1.2863,  2.4651,
         4.0088,  7.0344,  3.8243,  2.3323,  4.3181,  3.6589,  3.4289, 20.6440,
         2.1038,  3.8201,  4.5089, 10.2037,  4.3051,  3.3645,  2.2356,  5.3617,
         2.7519,  2.4131,  9.3393,  3.6241,  3.5573,  7.7347,  8.8765,  9.3789,
        13.4189, 19.4240,  2.1953, 18.8592,  3.0095,  2.0405, 12.3277,  4.0230,
         2.7974,  3.6758,  3.7981,  2.7770,  2.2326,  3.2683,  2.2124,  5.0511,
         6.2597,  8.1459,  9.0531,  3.2110,  2.5358,  2.6750, 12.3428,  3.2131,
         1.3464,  3.0752,  2.2153,  9.1970,  3.0893, 14.8953, 12.7595,  3.1711,
         4.4420,  4.2080,  3.1946, 11.0927,  4.2637,  3.1510,  6.7169, 13.0634,
         8.3199,  6.3850,  3.7254,  3.4671,  5.7961,  2.4874,  1.8952,  2.4690,
         3.4145, 12.7016, 12.6061,  3.3528, 11.2829,  2.1013,  6.5494,  7.8442,
         3.6703, 15.5452,  3.5362,  7.7818,  7.8630,  2.8570,  2.6216,  7.6981,
         2.9376,  2.9480,  3.4225, 12.5390,  5.2946,  1.9872, 13.4124,  2.4900,
         6.1017, 10.0533,  2.4695, 11.6536, 10.4909,  2.2302, 18.8313,  4.8910,
         2.7134, 26.3786,  5.0867,  3.7037,  2.1718,  3.5121,  2.6543, 11.9685,
         2.3973,  2.9036,  2.6553,  2.8260, 25.1769,  9.0758,  6.5089, 21.1712,
         5.0732, 15.8851,  3.1656,  2.5468,  1.9776,  7.9926,  3.2681,  3.3542,
         2.9127,  1.8518,  4.3217, 14.8505,  8.4536,  4.3203,  3.4774,  6.5557,
         6.4180,  3.3510,  9.1966,  2.8169,  1.3995, 11.8509,  6.1576,  1.8979,
        13.8832,  2.8766,  6.6546, 15.2932,  3.8621,  2.4980,  8.6027, 17.0298,
         2.0490,  4.2256,  3.3183,  2.6010,  3.1015,  3.2726,  2.6041,  3.1870,
         2.4017,  7.6840,  6.7043,  2.2988, 13.3149,  7.6276,  5.2797,  3.2939,
        12.6717,  2.7199,  4.1217,  2.6895,  4.3935, 10.0345,  2.4292,  1.9874,
         1.8890,  4.8455,  5.4348,  3.6736, 13.6018,  3.4084,  8.2452,  5.0396,
        21.3568,  2.9418,  2.8035,  3.5877,  1.8018,  3.3790,  3.4384,  3.9963,
         3.2978,  3.0663,  2.9786,  6.8393,  4.2471,  1.5378,  1.4216,  2.8206,
        21.9956,  2.8102, 11.5982,  3.7464, 10.8460,  2.2236,  2.8487,  3.2301,
         2.3707,  2.5518,  2.9417,  1.4756,  7.7929,  3.1003,  3.4213,  2.9419,
        11.2427,  2.7774,  3.4563,  4.4312,  9.5235,  2.6133,  2.2786,  2.9868,
        10.1482,  3.5105,  3.3905,  1.9310,  1.8465,  9.4925,  2.2688,  2.9359,
         9.9093,  2.0362,  2.6473,  2.6064,  1.8553,  3.0925, 22.2651,  2.0624,
         2.4231,  1.8639, 13.7073,  2.7908,  2.8942,  2.1857,  5.2647,  2.5381,
         1.4522,  5.6758, 22.2622,  3.3772,  3.7387,  3.4336,  4.3004,  2.1104,
         5.1427, 12.4578,  9.2018,  4.3336,  7.9086,  1.4516,  4.3388, 23.2413,
         3.1590, 17.0777,  5.8201,  4.5460,  6.1233,  7.7314,  3.8557,  3.3516,
         2.7247,  2.3044,  7.9654,  3.3800,  3.6876, 26.2217,  8.0220, 12.9258])
net.mlp.net.1.batch_norm.num_batches_tracked tensor(60)
net.mlp.net.2.weight tensor([[-0.0047, -0.0175,  0.0100,  0.0148,  0.0069,  0.0059, -0.0357, -0.0170,
          0.0413, -0.0040, -0.0020,  0.0262,  0.0599, -0.0139, -0.0329, -0.0212,
          0.0104,  0.0058, -0.0125,  0.0106, -0.0041, -0.0024,  0.0428,  0.0304,
         -0.0311, -0.0185,  0.0250, -0.0053,  0.0015, -0.0030, -0.0394,  0.0020,
         -0.0008,  0.0310,  0.0088, -0.0320, -0.0315,  0.0820,  0.0126,  0.0298,
         -0.0022,  0.0223,  0.0179,  0.0327,  0.0045, -0.0402,  0.0156, -0.0006,
         -0.0362, -0.0330, -0.0136, -0.0268, -0.0198, -0.0104,  0.0030,  0.0037,
         -0.0220, -0.0340,  0.0142,  0.0229,  0.0261,  0.0158, -0.0090, -0.0431,
          0.0006, -0.0165,  0.0034,  0.0135, -0.0380,  0.0223, -0.0104, -0.0790,
          0.0447, -0.0342, -0.0109, -0.0002, -0.0103, -0.0343,  0.0111, -0.0493,
         -0.0205, -0.0049, -0.0279,  0.0151, -0.0610, -0.0331, -0.0304, -0.0308,
         -0.0328,  0.0623, -0.0011, -0.0105,  0.0022,  0.0022,  0.0362,  0.0146,
          0.0033, -0.0326, -0.0511,  0.0479,  0.0267, -0.0058, -0.0118, -0.0312,
         -0.0037,  0.0290, -0.0393, -0.0107, -0.0220,  0.0309,  0.0072, -0.0018,
          0.0047, -0.0179, -0.0247, -0.0221, -0.0550, -0.0077, -0.0416, -0.0250,
         -0.0609, -0.0043,  0.0008,  0.0344, -0.0224,  0.0285, -0.0036, -0.0038,
          0.0351,  0.0232,  0.0007, -0.0278,  0.0114, -0.0303, -0.0193, -0.0397,
          0.0141,  0.0154,  0.0103,  0.0202, -0.0374, -0.0002, -0.0106, -0.0158,
          0.0048,  0.0290,  0.0419, -0.0553,  0.0284, -0.0376,  0.0238,  0.0281,
         -0.0117,  0.0071,  0.0066,  0.0292, -0.0004,  0.0362, -0.0367,  0.0107,
         -0.0054,  0.0019, -0.0112,  0.0226, -0.0211, -0.0013, -0.0518,  0.0024,
          0.0395,  0.0141, -0.0339,  0.0144,  0.0097,  0.0127, -0.0287, -0.0156,
          0.0032,  0.0113,  0.0036, -0.0352,  0.0091, -0.0288, -0.0522,  0.0383,
         -0.0024,  0.0197, -0.0151, -0.0239,  0.0177, -0.0119,  0.0076, -0.0228,
          0.0218,  0.0298,  0.0093, -0.0250,  0.0303, -0.0196, -0.0122, -0.0167,
         -0.0293,  0.0132,  0.0209, -0.0001, -0.0224,  0.0135,  0.0030,  0.0008,
          0.0416, -0.0207, -0.0016,  0.0047, -0.0118,  0.0526, -0.0005, -0.0279,
          0.0078,  0.0311,  0.0018,  0.0272, -0.0109,  0.0395, -0.0035,  0.0018,
          0.0400,  0.0296,  0.0370, -0.0182,  0.0210, -0.0188, -0.0021, -0.0402,
          0.0246,  0.0157, -0.0344, -0.0070, -0.0374, -0.0133, -0.0261,  0.0045,
          0.0428,  0.0165,  0.0309,  0.0159,  0.0250,  0.0280, -0.0105, -0.0181,
          0.0065, -0.0092, -0.0296, -0.0168, -0.0055, -0.0061,  0.0221, -0.0023,
         -0.0071, -0.0576,  0.0073,  0.0309, -0.0121,  0.0039, -0.0186, -0.0220,
         -0.0062,  0.0184, -0.0133, -0.0420, -0.0399,  0.0061, -0.0043,  0.0052,
         -0.0592, -0.0023, -0.0255,  0.0125, -0.0413, -0.0313, -0.0039, -0.0141,
          0.0227,  0.0290,  0.0044, -0.0155,  0.0006,  0.0468,  0.0130,  0.0287,
         -0.0020, -0.0197, -0.0033, -0.0127,  0.0073, -0.0053, -0.0027, -0.0213,
         -0.0121,  0.0192, -0.0183, -0.0168,  0.0032, -0.0015, -0.0160,  0.0239,
         -0.0371,  0.0100, -0.0332, -0.0462, -0.0061,  0.0091, -0.0326,  0.0001,
          0.0017, -0.0364, -0.0114,  0.0131, -0.0339, -0.0153,  0.0025, -0.0210,
         -0.0146, -0.0269, -0.0063,  0.0253,  0.0012, -0.0025,  0.0034, -0.0008,
          0.0186,  0.0137, -0.0160,  0.0053, -0.0056, -0.0058, -0.0389,  0.0109,
         -0.0038,  0.0146, -0.0011, -0.0426, -0.0059,  0.0325,  0.0002, -0.0137,
         -0.0345, -0.0333,  0.0004, -0.0073,  0.0277,  0.0314, -0.0500,  0.0206,
         -0.0094,  0.0115,  0.0047, -0.0084, -0.0193, -0.0193,  0.0452, -0.0183,
         -0.0035,  0.0109,  0.0191,  0.0267, -0.0174,  0.0190,  0.0132, -0.0119,
         -0.0135, -0.0040, -0.0063,  0.0198,  0.0185,  0.0299,  0.0075,  0.0104,
          0.0516,  0.0328, -0.0115,  0.0166, -0.0093, -0.0009, -0.0062,  0.0148,
          0.0169,  0.0373,  0.0088, -0.0419, -0.0098, -0.0172, -0.0111,  0.0013,
         -0.0282,  0.0092, -0.0060,  0.0581,  0.0241,  0.0011, -0.0410,  0.0336,
         -0.0397,  0.0164,  0.0011, -0.0171, -0.0259,  0.0064,  0.0268, -0.0287,
          0.0058, -0.0002,  0.0200,  0.0295,  0.0047, -0.0181, -0.0302, -0.0427,
         -0.0160, -0.0111, -0.0108, -0.0012, -0.0037,  0.0184,  0.0102, -0.0121,
         -0.0270,  0.0631, -0.0050,  0.0177, -0.0060, -0.0012,  0.0066, -0.0662,
          0.0011, -0.0094,  0.0500,  0.0175, -0.0203, -0.0142,  0.0048,  0.0265,
         -0.0038, -0.0416,  0.0064, -0.0237,  0.0461, -0.0132,  0.0043, -0.0228,
         -0.0371,  0.0120,  0.0134,  0.0028,  0.0322, -0.0168,  0.0410, -0.0140,
          0.0061,  0.0024, -0.0051,  0.0024, -0.0273, -0.0206, -0.0096, -0.0147,
          0.0287,  0.0084,  0.0056, -0.0060,  0.0184,  0.0164,  0.0013,  0.0205,
          0.0135, -0.0095, -0.0143, -0.0266, -0.0017, -0.0127,  0.0005,  0.0002,
         -0.0054,  0.0202, -0.0179,  0.0018, -0.0611, -0.0197,  0.0436, -0.0019,
          0.0095,  0.0050, -0.0322, -0.0005, -0.0038, -0.0042,  0.0040,  0.0234,
          0.0134, -0.0023,  0.0116,  0.0140,  0.0290, -0.0019, -0.0108,  0.0540,
          0.0055, -0.0016, -0.0194, -0.0033, -0.0012, -0.0708, -0.0073, -0.0057]])
