Weights: 
embeddings.embeddings.0.weight tensor([[-0.4823, -0.3857],
        [ 0.4673, -0.1474],
        [-0.0181,  0.3038],
        [ 0.0053,  0.0783]])
embeddings.embeddings.1.weight tensor([[ 0.4593,  0.3618],
        [ 0.1668,  0.3411],
        [-0.3284, -0.1411],
        [ 0.2944,  0.3440],
        [ 0.1602, -0.0806]])
embeddings.embeddings.2.weight tensor([[ 0.2544, -0.2374, -0.2426],
        [ 0.3453,  0.2192,  0.3355],
        [-0.2533,  0.0661, -0.3562],
        [ 0.0852,  0.1645,  0.1454],
        [-0.2460, -0.2981, -0.0519],
        [ 0.0499, -0.3295, -0.3342]])
embeddings.embeddings.3.weight tensor([[ 0.2388,  0.4380],
        [-0.4891, -0.4200],
        [-0.1432,  0.2423],
        [ 0.0343,  0.0770]])
embeddings.embeddings.4.weight tensor([[ 0.3146, -0.3635],
        [ 0.3222,  0.0924],
        [-0.1242,  0.2930],
        [ 0.2286, -0.1813]])
mlp.net.0.linear.weight tensor([[ 0.0012, -0.4287,  0.3906,  ...,  0.1999,  0.1998, -0.5529],
        [-0.1635, -0.0998, -0.3183,  ...,  0.0214,  0.0652,  0.0945],
        [-0.0405, -0.0215,  0.1036,  ..., -0.0517,  0.2367, -0.0293],
        ...,
        [-0.3363,  0.4868,  0.4158,  ..., -0.0530,  0.3525, -0.2576],
        [-0.0459, -0.2606, -0.3594,  ...,  0.2075, -0.1456, -0.1532],
        [ 0.2482,  0.0596, -0.1000,  ..., -0.2385, -0.0234, -0.0777]])
mlp.net.0.linear.bias tensor([-0.1405, -0.0162, -0.0280, -0.0460,  0.1399,  0.0320, -0.1042, -0.1250,
         0.0062, -0.0902,  0.1205,  0.0362, -0.0515,  0.1602, -0.0755, -0.0535,
        -0.1219,  0.0097,  0.0989, -0.0861,  0.0864, -0.1084, -0.0549, -0.1074,
         0.1444, -0.1354,  0.1113,  0.0698,  0.0880, -0.0197, -0.0752,  0.0976,
        -0.0739, -0.1348, -0.1522, -0.1538, -0.1216,  0.1250, -0.1468,  0.1323,
        -0.1121,  0.0036, -0.0605,  0.0605,  0.0352,  0.0466,  0.0235, -0.0820,
        -0.1550, -0.1182,  0.1185, -0.1565,  0.0391,  0.0241,  0.0444, -0.0914,
         0.1296,  0.0334,  0.1770, -0.0518,  0.1268, -0.0683, -0.1800, -0.0273,
        -0.0414,  0.0232,  0.1315, -0.0672, -0.0119,  0.0412,  0.0877,  0.0750,
         0.1087, -0.1712,  0.0505, -0.0396,  0.1138,  0.1459,  0.0064,  0.1711,
         0.1348, -0.0575, -0.0123,  0.0927, -0.1057, -0.1484, -0.0764,  0.0246,
         0.0721, -0.1294,  0.1351, -0.0499,  0.1785, -0.1272,  0.1196, -0.0386,
         0.0534, -0.1750, -0.0845,  0.1074,  0.0504, -0.1502, -0.1340,  0.0330,
        -0.1610, -0.0354, -0.0451, -0.0833, -0.0653,  0.0616,  0.1174, -0.0508,
         0.1382, -0.0390,  0.1536, -0.0424, -0.0822,  0.1083, -0.1444, -0.1045,
        -0.1810, -0.0995,  0.1557,  0.0156, -0.0059,  0.0906, -0.1781, -0.1353,
         0.0060,  0.1450, -0.0493,  0.1381,  0.1087, -0.0367, -0.0365,  0.0053,
        -0.1425, -0.1587, -0.1429, -0.0193, -0.0315,  0.1114, -0.0194, -0.1313,
         0.1108, -0.0952, -0.0168, -0.1355, -0.0707, -0.0804, -0.0162, -0.0695,
         0.0265,  0.0729, -0.1330,  0.0979,  0.1548,  0.0180, -0.1157, -0.0867,
        -0.1676, -0.0376,  0.0515, -0.0392,  0.0726,  0.1395,  0.0646, -0.0474,
        -0.0017, -0.0253, -0.1824,  0.0301,  0.0925,  0.0738,  0.0679,  0.1325,
         0.1346,  0.1223, -0.0774,  0.0379, -0.0368, -0.0252, -0.1208, -0.1317,
        -0.1563,  0.0688,  0.1731, -0.1513,  0.0377, -0.0955, -0.0391, -0.0891,
         0.0605, -0.1233, -0.0677, -0.1091, -0.0717,  0.1584,  0.0275,  0.0876,
        -0.0687, -0.1820,  0.1175, -0.0067,  0.0884,  0.0698, -0.0662, -0.1375,
        -0.1216, -0.1340,  0.1520,  0.1624,  0.0556,  0.0012,  0.1094,  0.1495,
         0.1506,  0.1004, -0.1162, -0.0965,  0.1085,  0.1548,  0.0670, -0.1361,
        -0.1260,  0.0732, -0.0272, -0.0701, -0.1482,  0.0912, -0.0035, -0.0045,
         0.1427, -0.0491, -0.1087,  0.0404, -0.0534,  0.0086, -0.1769,  0.0318,
        -0.1128,  0.1165,  0.1015,  0.0361, -0.1028,  0.1224,  0.1785,  0.1523,
         0.0458,  0.1414, -0.0674,  0.1165,  0.0504,  0.0612, -0.0889, -0.0476,
         0.0455,  0.0046,  0.0476, -0.1391,  0.1470, -0.1572, -0.1641,  0.0622,
        -0.1376,  0.0683,  0.0672,  0.1503, -0.0451,  0.1381, -0.1337,  0.0958,
        -0.1059,  0.0474, -0.1297, -0.0492, -0.0991, -0.0910, -0.1425,  0.0053,
        -0.0740, -0.0264, -0.1029,  0.0155, -0.1506,  0.0316, -0.0061, -0.1620,
         0.1430, -0.1012,  0.1707,  0.0213, -0.0072, -0.0352, -0.1053, -0.0842,
         0.0363,  0.0003, -0.0290,  0.1218, -0.0834, -0.0035,  0.1730, -0.1746,
        -0.0686,  0.0385, -0.1265,  0.0841,  0.0932,  0.1322,  0.1530,  0.1099,
         0.1713, -0.1323, -0.0461,  0.1274, -0.0327,  0.0773,  0.0502,  0.1507,
        -0.1183, -0.1523,  0.0305,  0.0459, -0.0528,  0.1577, -0.0718,  0.0427,
         0.1506, -0.1509,  0.0106,  0.0865,  0.1052, -0.1301, -0.0458, -0.0540,
         0.1157, -0.0808,  0.1272,  0.1612,  0.0325,  0.1592, -0.1139, -0.1347,
         0.0916,  0.0965, -0.1458,  0.1330, -0.0428,  0.0717, -0.0015,  0.1360,
        -0.0488,  0.0366, -0.1399,  0.1811, -0.1554, -0.0035,  0.1181, -0.0087,
        -0.1530, -0.0730, -0.0727, -0.0269, -0.1045, -0.1499, -0.1157,  0.0839,
         0.1635,  0.0883, -0.0444,  0.0540, -0.0763,  0.1216, -0.1052, -0.1410,
        -0.1423, -0.0112,  0.1447,  0.1394, -0.0605, -0.1491,  0.1693,  0.0449,
        -0.0740, -0.0418,  0.0793,  0.0360,  0.1102, -0.0470, -0.1193,  0.0818,
        -0.1496,  0.1509, -0.1680,  0.1470,  0.0365,  0.0395,  0.1453,  0.1594,
         0.0860,  0.0045, -0.1425,  0.0386,  0.1724,  0.0496,  0.0252,  0.0977,
         0.0411, -0.1104,  0.0087, -0.0463, -0.0563,  0.0482,  0.0842,  0.0164,
        -0.0725,  0.1448, -0.0481, -0.0176, -0.0740, -0.0953,  0.1124, -0.0131,
        -0.0361, -0.0948, -0.1246,  0.1673, -0.0625,  0.1044, -0.0995,  0.0943,
         0.1194,  0.0040,  0.1292,  0.1059,  0.1426, -0.0670, -0.0672, -0.1494,
        -0.1549, -0.1086,  0.0416, -0.1478, -0.1403, -0.0865,  0.0841, -0.1408,
        -0.0024, -0.1012,  0.1195, -0.0458, -0.0127, -0.0233,  0.0421, -0.1253,
        -0.1436,  0.1628, -0.0991,  0.0636, -0.0808, -0.1130, -0.0816,  0.1460,
        -0.1805,  0.1067,  0.0982, -0.0186,  0.0210,  0.0507,  0.1326, -0.0753,
         0.0307, -0.1411,  0.0081, -0.0359, -0.0414, -0.0041, -0.0462,  0.1069,
         0.0095,  0.0565, -0.0813,  0.0256,  0.0259,  0.0769, -0.1340,  0.1521,
         0.1415,  0.0475, -0.1567, -0.0120,  0.0147, -0.0608, -0.0921, -0.1320,
        -0.1536, -0.0766,  0.1747,  0.1117,  0.0803,  0.1017,  0.1694, -0.1153,
         0.1083,  0.1019,  0.1592,  0.1151,  0.0290,  0.0705,  0.0440, -0.0766])
mlp.net.0.batch_norm.weight tensor([0.7294, 0.7577, 0.7358, 0.7353, 0.7501, 0.7575, 0.7506, 0.7294, 0.7300,
        0.7565, 0.7494, 0.7338, 0.7547, 0.7301, 0.7574, 0.7577, 0.7303, 0.7300,
        0.7573, 0.7524, 0.7375, 0.7310, 0.7567, 0.7573, 0.7345, 0.7306, 0.7303,
        0.7498, 0.7311, 0.7576, 0.7296, 0.7577, 0.7316, 0.7493, 0.7371, 0.7295,
        0.7513, 0.7365, 0.7304, 0.7359, 0.7329, 0.7300, 0.7577, 0.7571, 0.7293,
        0.7509, 0.7565, 0.7343, 0.7572, 0.7295, 0.7577, 0.7372, 0.7494, 0.7294,
        0.7295, 0.7310, 0.7494, 0.7291, 0.7511, 0.7302, 0.7554, 0.7302, 0.7377,
        0.7492, 0.7554, 0.7576, 0.7348, 0.7358, 0.7309, 0.7577, 0.7504, 0.7504,
        0.7495, 0.7310, 0.7573, 0.7575, 0.7377, 0.7497, 0.7504, 0.7576, 0.7326,
        0.7373, 0.7434, 0.7563, 0.7569, 0.7496, 0.7351, 0.7292, 0.7570, 0.7302,
        0.7502, 0.7315, 0.7375, 0.7572, 0.7548, 0.7304, 0.7365, 0.7368, 0.7566,
        0.7569, 0.7341, 0.7501, 0.7512, 0.7571, 0.7292, 0.7559, 0.7575, 0.7550,
        0.7375, 0.7515, 0.7568, 0.7294, 0.7295, 0.7577, 0.7292, 0.7551, 0.7292,
        0.7565, 0.7302, 0.7577, 0.7571, 0.7303, 0.7291, 0.7556, 0.7575, 0.7567,
        0.7572, 0.7572, 0.7371, 0.7293, 0.7576, 0.7500, 0.7569, 0.7493, 0.7375,
        0.7368, 0.7303, 0.7568, 0.7516, 0.7573, 0.7355, 0.7573, 0.7357, 0.7495,
        0.7377, 0.7291, 0.7337, 0.7347, 0.7495, 0.7568, 0.7491, 0.7368, 0.7527,
        0.7293, 0.7557, 0.7300, 0.7296, 0.7312, 0.7375, 0.7566, 0.7502, 0.7527,
        0.7576, 0.7493, 0.7297, 0.7570, 0.7570, 0.7574, 0.7304, 0.7291, 0.7363,
        0.7577, 0.7576, 0.7542, 0.7303, 0.7490, 0.7556, 0.7355, 0.7298, 0.7297,
        0.7296, 0.7299, 0.7575, 0.7364, 0.7347, 0.7294, 0.7550, 0.7291, 0.7502,
        0.7376, 0.7292, 0.7548, 0.7292, 0.7342, 0.7504, 0.7571, 0.7574, 0.7304,
        0.7297, 0.7375, 0.7503, 0.7331, 0.7303, 0.7359, 0.7570, 0.7569, 0.7574,
        0.7499, 0.7350, 0.7292, 0.7359, 0.7509, 0.7506, 0.7562, 0.7349, 0.7375,
        0.7304, 0.7568, 0.7566, 0.7565, 0.7378, 0.7353, 0.7531, 0.7490, 0.7567,
        0.7561, 0.7299, 0.7541, 0.7348, 0.7312, 0.7534, 0.7306, 0.7529, 0.7303,
        0.7294, 0.7577, 0.7292, 0.7564, 0.7521, 0.7572, 0.7571, 0.7303, 0.7357,
        0.7560, 0.7376, 0.7505, 0.7573, 0.7292, 0.7297, 0.7575, 0.7547, 0.7342,
        0.7574, 0.7565, 0.7299, 0.7500, 0.7570, 0.7576, 0.7517, 0.7293, 0.7538,
        0.7556, 0.7568, 0.7370, 0.7341, 0.7371, 0.7500, 0.7565, 0.7370, 0.7491,
        0.7297, 0.7506, 0.7354, 0.7576, 0.7361, 0.7577, 0.7571, 0.7505, 0.7565,
        0.7577, 0.7304, 0.7568, 0.7572, 0.7577, 0.7316, 0.7567, 0.7297, 0.7556,
        0.7369, 0.7572, 0.7324, 0.7364, 0.7297, 0.7493, 0.7577, 0.7575, 0.7296,
        0.7572, 0.7510, 0.7320, 0.7523, 0.7291, 0.7577, 0.7294, 0.7376, 0.7569,
        0.7298, 0.7307, 0.7577, 0.7490, 0.7576, 0.7561, 0.7573, 0.7350, 0.7316,
        0.7569, 0.7295, 0.7372, 0.7358, 0.7510, 0.7294, 0.7570, 0.7577, 0.7494,
        0.7294, 0.7299, 0.7362, 0.7351, 0.7574, 0.7520, 0.7532, 0.7292, 0.7303,
        0.7434, 0.7357, 0.7376, 0.7494, 0.7304, 0.7297, 0.7293, 0.7510, 0.7292,
        0.7375, 0.7295, 0.7569, 0.7551, 0.7577, 0.7295, 0.7496, 0.7379, 0.7292,
        0.7577, 0.7306, 0.7296, 0.7567, 0.7326, 0.7292, 0.7573, 0.7502, 0.7500,
        0.7538, 0.7293, 0.7294, 0.7515, 0.7570, 0.7303, 0.7370, 0.7506, 0.7291,
        0.7508, 0.7305, 0.7331, 0.7565, 0.7319, 0.7576, 0.7576, 0.7301, 0.7570,
        0.7518, 0.7304, 0.7577, 0.7377, 0.7494, 0.7571, 0.7356, 0.7378, 0.7565,
        0.7291, 0.7575, 0.7562, 0.7303, 0.7572, 0.7303, 0.7377, 0.7569, 0.7296,
        0.7561, 0.7299, 0.7319, 0.7351, 0.7571, 0.7574, 0.7316, 0.7501, 0.7577,
        0.7574, 0.7302, 0.7308, 0.7553, 0.7541, 0.7561, 0.7539, 0.7514, 0.7292,
        0.7376, 0.7376, 0.7502, 0.7294, 0.7374, 0.7500, 0.7302, 0.7566, 0.7572,
        0.7497, 0.7301, 0.7577, 0.7357, 0.7492, 0.7297, 0.7547, 0.7508, 0.7503,
        0.7577, 0.7577, 0.7523, 0.7544, 0.7572, 0.7292, 0.7570, 0.7573, 0.7299,
        0.7528, 0.7572, 0.7340, 0.7377, 0.7345, 0.7300, 0.7546, 0.7577, 0.7367,
        0.7294, 0.7577, 0.7292, 0.7366, 0.7373, 0.7376, 0.7374, 0.7565, 0.7292,
        0.7368, 0.7501, 0.7353, 0.7574, 0.7506, 0.7569, 0.7322, 0.7495, 0.7292,
        0.7577, 0.7498, 0.7292, 0.7572, 0.7353, 0.7542, 0.7516, 0.7493, 0.7332,
        0.7535, 0.7291, 0.7540, 0.7577, 0.7547, 0.7327, 0.7570, 0.7511, 0.7354,
        0.7296, 0.7359, 0.7572, 0.7560, 0.7295, 0.7378, 0.7293, 0.7293, 0.7499,
        0.7343, 0.7365, 0.7373, 0.7294, 0.7522, 0.7503, 0.7490, 0.7298, 0.7501,
        0.7576, 0.7353, 0.7558, 0.7551, 0.7373, 0.7301, 0.7291, 0.7373])
mlp.net.0.batch_norm.bias tensor([-0.0074,  0.0096, -0.0098,  0.0142, -0.0057, -0.0142,  0.0064,  0.0130,
        -0.0132,  0.0074, -0.0122, -0.0073,  0.0138, -0.0061, -0.0131,  0.0142,
         0.0083,  0.0131, -0.0140,  0.0137, -0.0101,  0.0115,  0.0125,  0.0092,
         0.0137, -0.0069, -0.0092, -0.0143,  0.0056,  0.0067,  0.0138, -0.0061,
         0.0065, -0.0091,  0.0141,  0.0073,  0.0136,  0.0143,  0.0124, -0.0089,
         0.0143, -0.0070,  0.0133, -0.0138,  0.0142, -0.0142,  0.0061, -0.0063,
         0.0107,  0.0143,  0.0140, -0.0107, -0.0138,  0.0130,  0.0139,  0.0069,
        -0.0134, -0.0058,  0.0088,  0.0138,  0.0136,  0.0059, -0.0143, -0.0140,
        -0.0056,  0.0102, -0.0134, -0.0133, -0.0107, -0.0130, -0.0095, -0.0103,
         0.0141, -0.0069,  0.0140,  0.0140,  0.0110,  0.0139, -0.0135, -0.0136,
        -0.0060, -0.0103,  0.0133, -0.0114, -0.0137,  0.0072, -0.0137, -0.0142,
        -0.0142, -0.0140, -0.0065, -0.0141, -0.0104,  0.0137,  0.0143,  0.0143,
         0.0062,  0.0138, -0.0061, -0.0073,  0.0059, -0.0083,  0.0121,  0.0061,
        -0.0143,  0.0138, -0.0110,  0.0099, -0.0139, -0.0136, -0.0080, -0.0124,
        -0.0114, -0.0134,  0.0143,  0.0058,  0.0060, -0.0079,  0.0056, -0.0133,
        -0.0143,  0.0069,  0.0075,  0.0094,  0.0088,  0.0058, -0.0119,  0.0135,
        -0.0067,  0.0064, -0.0102,  0.0102, -0.0057, -0.0067,  0.0139, -0.0061,
         0.0130,  0.0100, -0.0060,  0.0136,  0.0139, -0.0100, -0.0061, -0.0077,
         0.0137, -0.0143,  0.0071, -0.0142, -0.0122,  0.0141, -0.0081, -0.0142,
         0.0062, -0.0093,  0.0138,  0.0059, -0.0139,  0.0137,  0.0140, -0.0079,
        -0.0140, -0.0059,  0.0142,  0.0124, -0.0142, -0.0084,  0.0071, -0.0130,
         0.0133,  0.0133,  0.0142, -0.0137,  0.0062, -0.0138, -0.0115,  0.0074,
         0.0096, -0.0142, -0.0142, -0.0139, -0.0143,  0.0056,  0.0116, -0.0101,
        -0.0131, -0.0074, -0.0140,  0.0142,  0.0058, -0.0124, -0.0063, -0.0140,
         0.0138,  0.0113,  0.0132,  0.0142, -0.0143, -0.0135,  0.0090,  0.0138,
         0.0141, -0.0136, -0.0058,  0.0065,  0.0142,  0.0134,  0.0143, -0.0120,
        -0.0141,  0.0060, -0.0138, -0.0062,  0.0083,  0.0061, -0.0089, -0.0074,
        -0.0119,  0.0131, -0.0096, -0.0076, -0.0060, -0.0056, -0.0135, -0.0106,
        -0.0138,  0.0087, -0.0066, -0.0135, -0.0142,  0.0086,  0.0132,  0.0129,
         0.0131, -0.0135, -0.0094, -0.0141,  0.0060, -0.0064,  0.0132,  0.0081,
        -0.0063,  0.0099,  0.0131,  0.0092,  0.0143,  0.0142,  0.0117, -0.0095,
        -0.0082, -0.0135, -0.0059,  0.0081,  0.0135,  0.0088, -0.0074, -0.0108,
         0.0092,  0.0080, -0.0143, -0.0141,  0.0143,  0.0083, -0.0142, -0.0142,
        -0.0069,  0.0130, -0.0068,  0.0139,  0.0075, -0.0092,  0.0060, -0.0115,
         0.0137, -0.0095,  0.0098,  0.0132,  0.0082, -0.0097,  0.0059,  0.0055,
        -0.0066, -0.0056,  0.0099, -0.0059,  0.0071, -0.0134,  0.0130,  0.0138,
        -0.0081,  0.0068, -0.0095,  0.0143, -0.0118, -0.0062,  0.0137,  0.0099,
         0.0060, -0.0070,  0.0068,  0.0090,  0.0061, -0.0090,  0.0058,  0.0135,
        -0.0075, -0.0139,  0.0080, -0.0127, -0.0096, -0.0142,  0.0143,  0.0133,
         0.0141, -0.0068, -0.0143, -0.0134,  0.0098,  0.0142, -0.0123, -0.0137,
         0.0067,  0.0091, -0.0102,  0.0143,  0.0143, -0.0116,  0.0141,  0.0131,
        -0.0118,  0.0087, -0.0079,  0.0142, -0.0139, -0.0141,  0.0058,  0.0139,
         0.0137, -0.0132, -0.0143,  0.0088,  0.0135, -0.0072,  0.0080,  0.0134,
         0.0134, -0.0060,  0.0142, -0.0130, -0.0140, -0.0138, -0.0143, -0.0141,
        -0.0072,  0.0129, -0.0135, -0.0127,  0.0143,  0.0058, -0.0085,  0.0066,
        -0.0138,  0.0099,  0.0142, -0.0142,  0.0068, -0.0140, -0.0113, -0.0064,
         0.0062, -0.0142, -0.0091, -0.0136,  0.0093, -0.0134,  0.0142, -0.0109,
         0.0064,  0.0134,  0.0130, -0.0108, -0.0143,  0.0135, -0.0076, -0.0091,
        -0.0143,  0.0142, -0.0100,  0.0064,  0.0132,  0.0094, -0.0072,  0.0064,
         0.0070, -0.0091,  0.0132, -0.0074, -0.0058, -0.0143,  0.0060,  0.0141,
        -0.0141,  0.0130, -0.0114,  0.0057,  0.0099, -0.0057,  0.0104, -0.0130,
         0.0143,  0.0142,  0.0135,  0.0141, -0.0081,  0.0136, -0.0142,  0.0136,
        -0.0076,  0.0078, -0.0137, -0.0132,  0.0143, -0.0143,  0.0139, -0.0062,
        -0.0070,  0.0059,  0.0065,  0.0061, -0.0066, -0.0068,  0.0122,  0.0133,
         0.0130,  0.0104, -0.0133, -0.0141, -0.0140,  0.0143,  0.0138,  0.0134,
        -0.0131,  0.0138,  0.0137,  0.0143,  0.0102,  0.0142,  0.0065,  0.0092,
         0.0075,  0.0142, -0.0062,  0.0138, -0.0139,  0.0132,  0.0139, -0.0137,
         0.0133,  0.0099,  0.0116,  0.0060, -0.0142, -0.0134, -0.0132,  0.0069,
         0.0107, -0.0139,  0.0088,  0.0103,  0.0083, -0.0109,  0.0143,  0.0056,
         0.0083,  0.0067,  0.0075,  0.0137,  0.0138, -0.0109, -0.0142, -0.0076,
        -0.0141, -0.0133, -0.0143,  0.0066, -0.0134,  0.0131, -0.0073,  0.0140,
        -0.0089, -0.0139,  0.0128, -0.0139, -0.0139, -0.0081, -0.0103, -0.0135,
        -0.0113,  0.0142,  0.0134,  0.0130, -0.0137, -0.0108, -0.0143,  0.0132,
         0.0095, -0.0143,  0.0143,  0.0093,  0.0128,  0.0061, -0.0094, -0.0094])
mlp.net.0.batch_norm.running_mean tensor([1.6812e-02, 1.7833e-03, 9.8481e-02, 4.7978e-04, 1.2623e-01, 5.0269e-02,
        3.6470e-04, 1.8746e-04, 6.3840e-03, 3.9285e-03, 1.8223e-01, 1.2826e-02,
        7.6680e-03, 1.6926e-01, 6.2975e-02, 3.0091e-02, 1.3501e-02, 8.3845e-03,
        8.3477e-02, 1.3355e-02, 1.8360e-02, 3.5230e-04, 1.2059e-01, 6.4625e-03,
        1.4276e-01, 6.2374e-04, 3.2052e-03, 3.1228e-03, 5.6067e-02, 3.6006e-01,
        3.5798e-02, 7.2041e-03, 4.1314e-03, 2.4741e-04, 4.4501e-02, 6.8048e-03,
        9.9676e-04, 6.5549e-02, 6.8574e-04, 1.7729e-02, 5.7771e-04, 1.6710e-03,
        4.6203e-02, 9.4801e-02, 7.0873e-02, 1.8871e-02, 3.3108e-03, 3.9074e-03,
        6.7185e-02, 6.4393e-03, 1.4661e-01, 6.4475e-03, 1.0455e-02, 1.3721e-01,
        1.3062e-01, 7.8380e-02, 3.6786e-03, 1.0550e-01, 1.8654e-02, 1.1541e-03,
        1.1343e-02, 7.5897e-03, 1.8334e-04, 1.5052e-04, 4.4729e-02, 3.5360e-04,
        6.2348e-02, 6.0578e-02, 8.1062e-03, 1.5389e-03, 3.9384e-02, 2.7296e-02,
        3.7922e-03, 4.9758e-04, 1.0097e-01, 9.5212e-02, 7.2849e-02, 1.7701e-02,
        1.7449e-02, 6.1664e-03, 7.6369e-02, 3.5985e-04, 0.0000e+00, 5.8662e-02,
        2.1968e-03, 2.3577e-04, 9.3375e-02, 2.5406e-03, 3.7071e-02, 1.1465e-01,
        1.2400e-02, 5.1409e-02, 7.0921e-02, 2.9537e-03, 2.1542e-02, 3.4821e-02,
        2.0522e-02, 9.2059e-04, 1.7913e-02, 1.0543e-01, 1.8631e-01, 5.1338e-04,
        6.8459e-02, 5.8163e-04, 3.0085e-02, 3.0104e-02, 1.0176e-03, 1.9172e-02,
        1.6272e-01, 4.1586e-02, 5.4188e-02, 7.2341e-02, 2.3201e-02, 1.8508e-02,
        1.2621e-02, 8.4467e-02, 1.6879e-02, 7.6182e-02, 6.3959e-03, 4.1527e-02,
        1.8165e-03, 6.1849e-02, 9.6991e-02, 5.1683e-02, 1.6750e-02, 8.1051e-02,
        4.9030e-02, 5.0244e-03, 7.8903e-03, 1.7322e-01, 8.3017e-03, 1.0374e-02,
        1.4189e-03, 3.1110e-02, 3.3309e-03, 9.2934e-02, 1.3274e-02, 2.1034e-02,
        1.7800e-02, 4.0679e-02, 1.7077e-02, 8.4666e-02, 9.1197e-02, 2.6509e-03,
        6.4919e-02, 4.6858e-03, 5.8462e-02, 1.2633e-01, 1.6101e-02, 1.0264e-03,
        1.7357e-04, 1.7438e-02, 3.2265e-02, 1.3676e-01, 1.4846e-03, 1.2153e-01,
        6.6299e-02, 2.9773e-02, 3.4420e-02, 3.9768e-02, 1.4256e-01, 3.0566e-02,
        5.8711e-02, 3.5907e-02, 1.6710e-02, 5.4132e-03, 3.4168e-03, 1.0912e-02,
        4.2914e-02, 9.3554e-03, 1.3614e-02, 6.4693e-02, 6.8950e-02, 2.2599e-02,
        2.3323e-03, 2.8520e-03, 2.2445e-01, 5.3641e-02, 4.4242e-02, 1.4341e-01,
        4.4675e-03, 3.4812e-02, 1.5150e-01, 1.8160e-01, 3.9803e-02, 2.0372e-01,
        3.3497e-02, 3.9281e-02, 1.1399e-02, 3.5075e-03, 2.8339e-02, 3.7578e-04,
        1.0524e-01, 1.2446e-03, 7.6539e-03, 1.0956e-02, 9.4298e-02, 4.7622e-02,
        1.3196e-01, 6.8796e-02, 6.5403e-03, 4.5635e-02, 8.2767e-02, 7.4729e-02,
        5.0692e-02, 1.7921e-02, 3.4735e-02, 8.3234e-05, 2.4210e-03, 1.9824e-02,
        4.3305e-02, 7.8113e-02, 2.0257e-01, 5.5205e-02, 2.9890e-03, 6.4513e-02,
        5.3329e-02, 5.2967e-02, 2.0238e-02, 1.1689e-02, 1.7697e-02, 6.8056e-02,
        7.6569e-02, 9.9315e-02, 5.5147e-02, 1.3539e-02, 1.6859e-01, 1.2998e-01,
        4.4824e-03, 5.4708e-02, 3.8050e-02, 3.9723e-04, 1.4429e-01, 4.0335e-03,
        7.3180e-03, 2.7930e-04, 4.7464e-04, 2.0476e-02, 3.0112e-02, 1.0411e-01,
        1.0102e-02, 1.1282e-01, 8.0515e-02, 4.6251e-02, 3.2171e-02, 5.0141e-03,
        7.6514e-03, 3.6098e-02, 1.0714e-02, 5.5735e-02, 1.1559e-01, 8.1445e-02,
        1.2097e-01, 5.1966e-02, 6.0502e-02, 7.9561e-02, 2.1108e-03, 4.7013e-02,
        7.3137e-04, 7.1497e-03, 5.8304e-02, 4.0691e-02, 1.6970e-01, 4.9079e-02,
        1.4876e-03, 1.0863e-01, 1.5267e-01, 1.2382e-01, 6.7704e-02, 8.9930e-03,
        5.8640e-02, 1.6662e-02, 8.3147e-02, 2.5205e-03, 1.1691e-04, 1.0284e-02,
        3.9979e-03, 2.4830e-02, 8.8334e-03, 1.8266e-01, 9.6266e-03, 1.6967e-02,
        3.3111e-02, 6.2407e-03, 2.4807e-04, 5.4904e-02, 1.6457e-02, 2.9049e-04,
        1.5708e-01, 6.3472e-03, 1.2031e-02, 1.9272e-03, 7.1099e-03, 5.3332e-02,
        2.0541e-03, 2.4724e-02, 2.5377e-03, 1.4573e-01, 2.9719e-02, 4.5892e-02,
        2.1384e-02, 9.0062e-02, 1.9216e-03, 2.2760e-02, 1.0415e-01, 3.4160e-02,
        1.1026e-03, 3.5132e-02, 1.5268e-03, 2.4765e-02, 1.1516e-01, 2.1281e-01,
        1.3100e-01, 3.5002e-02, 2.2652e-03, 1.7062e-02, 6.8971e-02, 1.2199e-01,
        7.4043e-02, 9.1520e-02, 7.8319e-02, 1.4064e-01, 1.3322e-01, 7.8996e-03,
        2.7729e-02, 1.0547e-01, 6.4321e-04, 6.0381e-02, 5.1014e-02, 1.3883e-03,
        1.3302e-01, 1.5920e-01, 2.8054e-02, 0.0000e+00, 6.4053e-02, 7.9360e-02,
        1.3072e-02, 5.2760e-02, 2.4259e-02, 1.3652e-02, 1.9665e-03, 9.2361e-02,
        1.8486e-02, 1.0293e-02, 1.1868e-01, 9.2854e-02, 1.3288e-01, 1.4342e-02,
        3.3794e-03, 1.4099e-02, 2.6794e-01, 3.6410e-03, 2.1956e-03, 8.2496e-02,
        4.6880e-02, 1.1102e-01, 6.5580e-02, 7.7657e-03, 1.6759e-03, 4.6531e-03,
        3.8944e-02, 1.8772e-03, 2.8405e-02, 2.5873e-02, 2.5258e-02, 2.9182e-02,
        4.2242e-04, 4.4973e-02, 2.0224e-02, 1.1040e-03, 7.4653e-04, 6.2753e-02,
        1.0799e-01, 7.4277e-02, 2.4008e-03, 1.5833e-02, 3.7497e-04, 2.4910e-03,
        5.9696e-02, 5.4525e-02, 5.3540e-02, 3.5809e-02, 1.5345e-01, 7.9278e-03,
        1.9564e-01, 1.0809e-02, 7.7458e-03, 5.3262e-02, 2.9862e-02, 2.0186e-02,
        1.5287e-03, 7.7220e-03, 1.0202e-02, 1.8278e-01, 1.9206e-02, 8.5179e-02,
        8.0736e-05, 1.2504e-01, 6.4007e-02, 3.4399e-02, 5.3319e-02, 4.1558e-04,
        1.3985e-03, 2.6687e-02, 2.5314e-02, 8.7379e-03, 8.6902e-02, 1.3842e-01,
        6.3558e-02, 2.6305e-02, 4.7785e-05, 5.5051e-03, 1.8726e-02, 2.4382e-02,
        4.6088e-02, 4.8420e-02, 2.9156e-03, 9.6769e-02, 3.1875e-04, 1.1456e-02,
        5.1985e-04, 3.0837e-04, 6.6489e-02, 2.9884e-04, 1.8554e-01, 5.5477e-02,
        3.0718e-02, 5.5922e-02, 2.9259e-02, 1.2225e-02, 7.1989e-02, 1.1125e-01,
        8.5456e-02, 4.9833e-02, 1.4473e-01, 1.4755e-02, 2.7881e-01, 1.1717e-02,
        2.1102e-01, 9.3452e-04, 8.1445e-04, 2.8090e-02, 7.0830e-02, 1.0107e-01,
        3.0942e-02, 5.7190e-02, 1.4395e-01, 4.2551e-02, 1.4028e-01, 4.7703e-03,
        1.3319e-03, 9.0736e-02, 5.6361e-02, 4.4322e-02, 4.7679e-02, 1.2433e-02,
        5.9040e-02, 1.6854e-01, 5.3648e-03, 5.0122e-03, 8.4466e-02, 3.9857e-02,
        4.5104e-02, 2.8267e-02, 4.4227e-03, 3.3703e-02, 3.7507e-03, 7.8372e-02,
        2.5577e-02, 9.0786e-05, 2.2749e-02, 2.6784e-02, 3.5945e-02, 5.4110e-02,
        3.7493e-02, 6.5797e-04, 2.6135e-02, 1.3659e-02, 3.5879e-02, 1.5673e-01,
        1.3396e-03, 1.0717e-02, 1.2285e-02, 4.0010e-03, 8.0737e-02, 1.0274e-02,
        9.3371e-03, 2.9408e-02, 1.7909e-01, 2.9210e-03, 3.1985e-02, 6.6367e-02,
        5.9692e-02, 4.5636e-02, 2.4360e-04, 3.5971e-02, 5.6464e-02, 4.6117e-02,
        7.3741e-02, 5.7324e-02, 1.1004e-01, 1.3864e-02, 1.3943e-01, 1.1053e-02,
        1.3259e-02, 2.1436e-02, 5.1112e-02, 1.0070e-03, 6.6100e-02, 1.0315e-01,
        5.1147e-03, 1.7889e-02])
mlp.net.0.batch_norm.running_var tensor([0.8156, 0.8103, 0.8267, 0.8101, 0.8569, 0.8197, 0.8101, 0.8100, 0.8110,
        0.8119, 0.8768, 0.8126, 0.8125, 0.8417, 0.8217, 0.8198, 0.8133, 0.8122,
        0.8395, 0.8151, 0.8187, 0.8101, 0.8378, 0.8132, 0.8384, 0.8101, 0.8110,
        0.8110, 0.8312, 0.8818, 0.8228, 0.8124, 0.8112, 0.8100, 0.8247, 0.8125,
        0.8102, 0.8276, 0.8102, 0.8152, 0.8102, 0.8106, 0.8219, 0.8409, 0.8278,
        0.8173, 0.8112, 0.8110, 0.8199, 0.8119, 0.8390, 0.8133, 0.8126, 0.8454,
        0.8215, 0.8354, 0.8109, 0.8388, 0.8181, 0.8103, 0.8141, 0.8122, 0.8101,
        0.8100, 0.8205, 0.8101, 0.8226, 0.8199, 0.8120, 0.8104, 0.8242, 0.8181,
        0.8113, 0.8101, 0.8260, 0.8456, 0.8191, 0.8150, 0.8161, 0.8121, 0.8283,
        0.8101, 0.8100, 0.8313, 0.8105, 0.8100, 0.8391, 0.8106, 0.8182, 0.8437,
        0.8130, 0.8235, 0.8254, 0.8108, 0.8173, 0.8219, 0.8145, 0.8103, 0.8148,
        0.8405, 0.8554, 0.8101, 0.8226, 0.8102, 0.8224, 0.8182, 0.8102, 0.8153,
        0.8772, 0.8274, 0.8334, 0.8373, 0.8174, 0.8159, 0.8138, 0.8374, 0.8177,
        0.8286, 0.8129, 0.8217, 0.8106, 0.8197, 0.8390, 0.8199, 0.8152, 0.8257,
        0.8261, 0.8113, 0.8115, 0.8398, 0.8116, 0.8140, 0.8104, 0.8222, 0.8107,
        0.8330, 0.8142, 0.8162, 0.8190, 0.8233, 0.8164, 0.8227, 0.8313, 0.8111,
        0.8278, 0.8122, 0.8255, 0.8428, 0.8159, 0.8103, 0.8100, 0.8178, 0.8241,
        0.8390, 0.8102, 0.8293, 0.8265, 0.8254, 0.8148, 0.8213, 0.8313, 0.8191,
        0.8276, 0.8223, 0.8148, 0.8115, 0.8111, 0.8151, 0.8259, 0.8134, 0.8139,
        0.8390, 0.8361, 0.8167, 0.8107, 0.8106, 0.8488, 0.8279, 0.8282, 0.8349,
        0.8112, 0.8260, 0.8570, 0.8432, 0.8258, 0.8357, 0.8188, 0.8227, 0.8121,
        0.8113, 0.8191, 0.8101, 0.8238, 0.8103, 0.8116, 0.8130, 0.8340, 0.8216,
        0.8278, 0.8296, 0.8125, 0.8227, 0.8320, 0.8480, 0.8258, 0.8155, 0.8261,
        0.8100, 0.8105, 0.8228, 0.8238, 0.8303, 0.8480, 0.8236, 0.8108, 0.8215,
        0.8308, 0.8318, 0.8201, 0.8145, 0.8174, 0.8379, 0.8320, 0.8277, 0.8230,
        0.8131, 0.8569, 0.8425, 0.8111, 0.8292, 0.8237, 0.8101, 0.8315, 0.8111,
        0.8126, 0.8100, 0.8101, 0.8243, 0.8165, 0.8319, 0.8130, 0.8328, 0.8340,
        0.8202, 0.8204, 0.8116, 0.8129, 0.8231, 0.8136, 0.8227, 0.8499, 0.8242,
        0.8692, 0.8292, 0.8271, 0.8388, 0.8104, 0.8181, 0.8102, 0.8123, 0.8285,
        0.8220, 0.8555, 0.8281, 0.8103, 0.8340, 0.8325, 0.8424, 0.8378, 0.8131,
        0.8394, 0.8168, 0.8415, 0.8109, 0.8100, 0.8136, 0.8112, 0.8201, 0.8114,
        0.8474, 0.8136, 0.8157, 0.8188, 0.8130, 0.8100, 0.8324, 0.8149, 0.8101,
        0.8286, 0.8124, 0.8136, 0.8106, 0.8127, 0.8247, 0.8108, 0.8168, 0.8109,
        0.8396, 0.8222, 0.8265, 0.8185, 0.8349, 0.8105, 0.8173, 0.8326, 0.8163,
        0.8102, 0.8205, 0.8106, 0.8195, 0.8403, 0.8338, 0.8431, 0.8223, 0.8107,
        0.8147, 0.8373, 0.8330, 0.8438, 0.8267, 0.8321, 0.8310, 0.8693, 0.8124,
        0.8205, 0.8286, 0.8102, 0.8269, 0.8248, 0.8104, 0.8449, 0.8367, 0.8208,
        0.8100, 0.8290, 0.8468, 0.8158, 0.8272, 0.8156, 0.8135, 0.8106, 0.8312,
        0.8153, 0.8134, 0.8520, 0.8516, 0.8280, 0.8149, 0.8111, 0.8131, 0.8742,
        0.8116, 0.8105, 0.8321, 0.8282, 0.8283, 0.8242, 0.8117, 0.8106, 0.8117,
        0.8271, 0.8103, 0.8295, 0.8182, 0.8158, 0.8213, 0.8101, 0.8233, 0.8172,
        0.8103, 0.8102, 0.8404, 0.8656, 0.8199, 0.8107, 0.8170, 0.8101, 0.8107,
        0.8368, 0.8275, 0.8330, 0.8220, 0.8445, 0.8128, 0.8388, 0.8138, 0.8121,
        0.8197, 0.8207, 0.8144, 0.8103, 0.8126, 0.8124, 0.8228, 0.8145, 0.8305,
        0.8100, 0.8350, 0.8266, 0.8165, 0.8282, 0.8101, 0.8103, 0.8183, 0.8224,
        0.8142, 0.8282, 0.8267, 0.8265, 0.8195, 0.8100, 0.8112, 0.8170, 0.8189,
        0.8285, 0.8259, 0.8107, 0.8429, 0.8101, 0.8151, 0.8101, 0.8101, 0.8265,
        0.8101, 0.8392, 0.8222, 0.8187, 0.8262, 0.8185, 0.8136, 0.8318, 0.8457,
        0.8269, 0.8259, 0.8468, 0.8152, 0.8398, 0.8145, 0.8484, 0.8102, 0.8102,
        0.8194, 0.8456, 0.8450, 0.8231, 0.8341, 0.8249, 0.8271, 0.8409, 0.8116,
        0.8103, 0.8544, 0.8245, 0.8259, 0.8198, 0.8136, 0.8281, 0.8342, 0.8120,
        0.8118, 0.8285, 0.8215, 0.8235, 0.8202, 0.8112, 0.8188, 0.8114, 0.8229,
        0.8204, 0.8100, 0.8157, 0.8214, 0.8206, 0.8345, 0.8256, 0.8102, 0.8171,
        0.8194, 0.8199, 0.8609, 0.8103, 0.8144, 0.8151, 0.8117, 0.8230, 0.8123,
        0.8129, 0.8158, 0.8419, 0.8108, 0.8162, 0.8173, 0.8333, 0.8276, 0.8100,
        0.8264, 0.8349, 0.8246, 0.8286, 0.8224, 0.8426, 0.8151, 0.8258, 0.8123,
        0.8148, 0.8171, 0.8322, 0.8103, 0.8267, 0.8412, 0.8113, 0.8156])
mlp.net.0.batch_norm.num_batches_tracked tensor(2)
mlp.net.1.linear.weight tensor([[ 0.0445, -0.0184,  0.0376,  ...,  0.0529,  0.0329, -0.0104],
        [-0.0336, -0.0396, -0.0084,  ..., -0.0630,  0.0921, -0.0210],
        [ 0.0310,  0.0042, -0.0324,  ...,  0.0024,  0.0178, -0.0718],
        ...,
        [ 0.0305, -0.0221,  0.0027,  ...,  0.0431, -0.0295,  0.0312],
        [-0.0368, -0.0899,  0.0351,  ...,  0.0475, -0.0020,  0.0446],
        [ 0.0541, -0.0341,  0.0374,  ...,  0.0408,  0.0596, -0.0695]])
mlp.net.1.linear.bias tensor([-3.3556e-02, -1.3884e-02, -1.6309e-02, -1.1339e-03,  1.3125e-02,
         2.2599e-02, -3.4531e-03,  3.5434e-02, -4.4845e-02,  1.0997e-02,
        -1.7949e-02,  2.9189e-02, -3.1561e-02,  9.4887e-04,  1.0936e-02,
        -2.3813e-02, -5.6487e-03, -6.6996e-03,  7.8982e-03, -4.2981e-03,
        -4.4250e-02,  1.0740e-02, -4.3873e-02,  3.5375e-02,  2.6126e-02,
         5.9526e-04, -4.6424e-02, -4.0180e-02,  2.6108e-02,  3.0299e-02,
        -1.4924e-02,  3.1806e-02,  6.8092e-03,  4.4197e-02,  1.3645e-02,
        -1.6778e-02, -9.7485e-03,  7.0482e-05, -2.2442e-02,  3.0477e-03,
        -1.8784e-03, -3.7770e-03, -2.4196e-02,  1.4758e-02,  2.3189e-02,
        -2.4287e-02, -2.5030e-02,  2.2595e-02,  5.8154e-03,  3.2881e-02,
         3.4343e-03,  4.0928e-02,  2.9050e-02,  2.1836e-02,  3.7005e-03,
        -2.1517e-02,  5.1689e-03, -9.2454e-03, -2.2878e-02,  1.9528e-02,
         3.8109e-03, -3.5661e-03, -3.5197e-02, -3.5549e-02,  1.5392e-02,
         2.2481e-03, -1.4463e-02,  3.4907e-02,  3.3803e-02, -1.7529e-03,
        -8.5252e-03,  4.1925e-02,  3.4286e-02, -1.5906e-02,  9.3577e-03,
        -3.6357e-03,  1.9456e-03,  5.6394e-03, -3.9817e-02,  1.1456e-02,
         1.4138e-02,  1.7967e-02,  4.4363e-02, -4.1815e-02,  3.8138e-02,
        -1.6327e-02,  5.3949e-03, -2.4593e-02, -1.4174e-02, -1.5046e-02,
         4.1513e-02, -3.7311e-02, -9.5422e-03,  1.1898e-02, -1.6683e-02,
         1.8214e-02,  9.2028e-03, -2.9635e-02,  3.3030e-02,  1.3993e-02,
        -1.4340e-02, -2.1426e-02,  2.2361e-02, -3.2482e-02,  2.8525e-02,
         2.5518e-02, -2.7675e-02,  2.3186e-02,  5.3209e-03, -9.5939e-03,
        -2.6240e-02, -2.5355e-02, -3.9531e-03,  1.7624e-02,  1.6194e-02,
        -3.2606e-02,  1.4831e-03,  4.3322e-02, -2.6093e-03, -5.0827e-03,
        -9.1584e-03, -2.6170e-02, -6.3527e-03, -2.4128e-02,  3.8612e-03,
        -8.9686e-03,  3.8171e-02, -1.6296e-02,  9.9553e-03, -1.7080e-03,
        -4.2747e-02, -4.4450e-03, -1.4532e-02, -1.2867e-02,  2.8789e-02,
        -3.8763e-02,  8.2832e-03,  1.1927e-02, -4.4175e-03, -2.3401e-02,
        -2.5546e-02, -5.6428e-03,  2.2086e-02,  2.0270e-02,  2.4254e-02,
         6.2047e-03,  1.8069e-02, -1.0126e-02, -4.8384e-03, -3.5622e-02,
        -2.4773e-02,  3.0961e-02, -8.8015e-03,  4.5647e-03,  2.6816e-02,
        -8.4433e-03,  1.7384e-03,  2.4438e-02, -2.7493e-02,  2.1302e-03,
         1.2744e-02,  9.2832e-03,  2.4396e-02,  6.7452e-04,  3.4078e-02,
         1.0797e-02,  4.5974e-02, -1.7445e-02,  7.1906e-03, -3.6444e-03,
         1.8060e-04, -1.0712e-02,  1.6032e-02, -5.7580e-03, -1.5888e-02,
        -3.0764e-02,  3.6372e-02,  2.9974e-02,  1.8710e-02, -4.3369e-02,
        -6.7263e-03,  3.2985e-02, -2.5199e-02, -4.0487e-02, -3.2643e-03,
         6.5183e-03, -1.3527e-02, -2.2577e-02, -1.0504e-03, -1.9524e-02,
        -1.2931e-03, -4.5539e-02,  1.9503e-02,  1.1515e-02, -1.3048e-02,
        -5.7155e-03,  4.3295e-02, -3.5644e-02,  2.7483e-02, -1.3577e-02,
         1.2390e-02, -1.3527e-02, -4.6246e-04, -1.2086e-02, -1.7463e-03,
        -5.4841e-03, -1.5125e-02, -8.5927e-03, -6.7507e-03,  1.5373e-02,
        -1.5657e-02,  1.7803e-02,  3.3291e-02,  3.7502e-02, -4.1172e-03,
         2.8683e-03, -1.6073e-02, -2.9256e-02, -3.2281e-02, -3.5998e-02,
        -3.5728e-02, -4.8519e-03, -1.6602e-02,  4.3883e-02, -4.2772e-02,
         2.1575e-02,  1.4821e-02, -1.8380e-02,  3.6570e-02, -1.3583e-02,
        -1.6350e-02,  9.3407e-03,  3.9283e-02, -5.1113e-03,  3.2286e-02,
         9.4861e-03, -7.4765e-03,  2.8955e-02,  1.3107e-02, -3.6216e-02,
         3.6197e-02, -1.3345e-02,  5.5340e-03, -1.9626e-02, -2.5800e-02,
        -2.0830e-02,  2.0183e-02, -8.6254e-03,  1.6383e-02,  6.0149e-03,
        -1.8239e-02,  2.7398e-02,  1.5631e-02,  1.5433e-02,  4.1121e-02,
         1.3983e-02, -2.1222e-02,  3.6303e-02,  1.4205e-02, -2.1533e-02,
        -2.6492e-02, -3.2004e-02,  1.8418e-02,  6.2281e-03, -1.4452e-02,
        -1.6798e-02, -7.8829e-04,  2.3008e-02,  1.5431e-02,  5.5647e-03,
        -9.3081e-03, -3.5134e-02,  1.7374e-02, -1.4085e-02,  8.4041e-03,
        -8.1557e-04, -1.1058e-02, -4.0741e-02,  4.3612e-02, -1.7680e-02,
         1.0896e-02, -3.2572e-03, -1.7867e-02,  2.4129e-02,  1.1756e-02,
        -3.6617e-02, -1.8117e-03, -6.4141e-03,  9.2925e-03, -1.7524e-02,
        -2.9024e-02,  2.6513e-03,  3.6363e-02,  3.5468e-02, -1.0033e-02,
         4.1281e-02, -1.0925e-02,  6.6550e-03,  3.6727e-03, -9.4232e-03,
        -1.6733e-02,  2.4198e-03,  1.0378e-02,  1.1327e-02, -4.8404e-03,
        -9.9397e-04,  3.7755e-02,  2.9660e-02, -1.9703e-02, -3.8345e-03,
         2.3726e-03,  1.3281e-02, -2.6659e-02, -3.5709e-02,  3.2698e-02,
         6.6216e-03, -1.9401e-02, -5.6813e-03,  6.9121e-03, -4.2778e-02,
         3.4479e-02, -3.5054e-03,  2.0438e-02, -3.9302e-02, -4.2351e-03,
         8.6549e-04,  3.5269e-02,  3.4147e-02,  6.2652e-03,  7.8080e-03,
        -1.2751e-03,  3.2443e-02, -3.4332e-03,  4.6083e-02, -3.6654e-03,
        -2.5982e-03, -3.0362e-02,  6.8345e-04,  1.3479e-02, -3.7704e-02,
        -1.0757e-02,  1.7595e-02, -1.9921e-02, -3.8624e-02, -5.7838e-03,
         3.3930e-02,  1.4291e-02, -1.9886e-02,  1.6498e-03,  2.1041e-02,
         3.2870e-03,  5.4027e-03,  1.1907e-02,  1.8173e-02,  1.9676e-02,
         3.8392e-04, -2.5142e-03,  1.8455e-03, -8.3998e-04, -1.4240e-02,
         5.3972e-03, -2.5131e-02, -1.8773e-02,  2.2754e-02,  1.8141e-02,
         5.0846e-03, -2.3418e-02,  1.8117e-02, -6.5694e-03, -1.7097e-03,
        -3.0101e-03,  3.0787e-02,  8.8284e-03,  1.6736e-02, -8.4300e-04,
        -1.5464e-02,  1.4844e-02, -8.8576e-03, -1.1096e-02, -3.4286e-03,
        -2.2208e-02,  3.6907e-02, -1.7055e-03, -4.0985e-02, -2.3107e-02,
         3.2796e-02, -1.0002e-02,  1.4290e-02,  2.8379e-02, -1.0932e-02,
        -2.9751e-02, -2.5181e-02, -2.9399e-02, -4.5785e-02,  1.8637e-02,
         5.8836e-03,  3.1798e-02, -3.7558e-02,  3.3664e-02,  2.2658e-02,
        -3.0194e-02, -4.1630e-03, -1.4739e-02,  2.7945e-02, -3.2900e-02,
        -4.1862e-02, -1.3010e-02, -2.2221e-02,  1.2894e-02,  7.9260e-03,
        -3.6966e-02, -4.1938e-02, -3.8460e-03,  2.5358e-02,  4.1262e-02,
         1.4436e-02,  1.7279e-02, -5.3565e-03,  1.0094e-02, -1.5197e-02,
        -1.6421e-02,  1.0756e-02, -2.0710e-02,  9.3221e-03, -6.8177e-03,
         4.1828e-02, -3.0717e-03,  2.7325e-02,  2.3456e-04, -2.8101e-02,
         3.6255e-02, -3.0898e-02, -1.8967e-02, -5.7379e-03,  4.0445e-02,
         1.4620e-02,  3.1086e-02,  1.7496e-04, -8.8214e-03,  1.2833e-02,
         4.0439e-02, -8.9615e-03, -1.2945e-02,  3.0499e-02, -2.3929e-02,
        -1.1120e-02, -1.5384e-02, -1.2649e-02, -9.0959e-03, -1.7549e-02,
         6.1112e-03, -3.1646e-02,  7.8949e-03, -2.5969e-02, -5.1467e-03,
         3.8298e-02,  7.5048e-04, -3.5254e-02,  2.0289e-03,  9.9120e-03,
        -2.7348e-02,  7.6349e-03, -3.6087e-02, -1.0409e-02, -8.1997e-03,
         4.5741e-02,  7.4053e-03,  4.5736e-03, -3.1541e-02, -2.1557e-03,
         3.1494e-02, -7.5771e-04, -9.2717e-03, -3.6153e-02, -2.9812e-02,
         2.0165e-02, -2.5864e-02, -4.1390e-03, -1.8745e-02, -1.2671e-02,
        -2.6572e-02, -9.6750e-03,  7.4038e-03,  8.3077e-03, -2.4135e-02,
         4.2900e-03,  8.3741e-03, -4.0248e-02,  2.5869e-03, -1.0151e-02,
        -2.0886e-02,  4.1423e-02, -7.7877e-03, -2.4489e-02,  3.5293e-02,
         7.2903e-03, -2.9241e-02, -2.4178e-02, -4.2673e-02, -3.0501e-02,
         1.6442e-02, -6.8847e-03, -2.8160e-02, -1.1334e-02,  2.5573e-02,
        -8.0329e-03,  1.3526e-02,  9.7981e-03, -1.8384e-02,  2.3501e-02,
        -1.6130e-02, -2.0625e-02])
mlp.net.1.batch_norm.weight tensor([0.7367, 0.7577, 0.7293, 0.7293, 0.7348, 0.7371, 0.7334, 0.7507, 0.7291,
        0.7294, 0.7567, 0.7348, 0.7293, 0.7575, 0.7291, 0.7294, 0.7529, 0.7367,
        0.7365, 0.7367, 0.7577, 0.7503, 0.7570, 0.7534, 0.7567, 0.7495, 0.7295,
        0.7494, 0.7339, 0.7304, 0.7297, 0.7298, 0.7575, 0.7575, 0.7360, 0.7577,
        0.7377, 0.7368, 0.7568, 0.7577, 0.7566, 0.7292, 0.7496, 0.7316, 0.7519,
        0.7297, 0.7572, 0.7368, 0.7376, 0.7373, 0.7568, 0.7574, 0.7549, 0.7527,
        0.7292, 0.7518, 0.7498, 0.7293, 0.7502, 0.7360, 0.7349, 0.7377, 0.7502,
        0.7372, 0.7302, 0.7570, 0.7577, 0.7329, 0.7576, 0.7577, 0.7292, 0.7295,
        0.7531, 0.7364, 0.7297, 0.7339, 0.7295, 0.7296, 0.7520, 0.7570, 0.7525,
        0.7577, 0.7507, 0.7297, 0.7576, 0.7338, 0.7497, 0.7320, 0.7559, 0.7293,
        0.7313, 0.7507, 0.7491, 0.7569, 0.7576, 0.7292, 0.7574, 0.7295, 0.7577,
        0.7577, 0.7300, 0.7373, 0.7363, 0.7291, 0.7292, 0.7496, 0.7326, 0.7492,
        0.7368, 0.7308, 0.7545, 0.7577, 0.7294, 0.7495, 0.7292, 0.7292, 0.7573,
        0.7544, 0.7294, 0.7297, 0.7294, 0.7508, 0.7293, 0.7563, 0.7364, 0.7294,
        0.7295, 0.7302, 0.7292, 0.7575, 0.7375, 0.7576, 0.7570, 0.7366, 0.7379,
        0.7318, 0.7332, 0.7368, 0.7291, 0.7292, 0.7371, 0.7566, 0.7569, 0.7491,
        0.7567, 0.7512, 0.7566, 0.7300, 0.7575, 0.7494, 0.7313, 0.7571, 0.7349,
        0.7509, 0.7293, 0.7316, 0.7301, 0.7571, 0.7291, 0.7566, 0.7565, 0.7302,
        0.7292, 0.7293, 0.7352, 0.7377, 0.7497, 0.7364, 0.7291, 0.7494, 0.7575,
        0.7522, 0.7360, 0.7556, 0.7499, 0.7308, 0.7577, 0.7303, 0.7341, 0.7498,
        0.7294, 0.7577, 0.7571, 0.7298, 0.7368, 0.7366, 0.7322, 0.7369, 0.7567,
        0.7304, 0.7340, 0.7539, 0.7575, 0.7348, 0.7333, 0.7357, 0.7304, 0.7577,
        0.7568, 0.7324, 0.7546, 0.7377, 0.7571, 0.7360, 0.7566, 0.7493, 0.7298,
        0.7492, 0.7297, 0.7292, 0.7575, 0.7516, 0.7335, 0.7517, 0.7292, 0.7336,
        0.7512, 0.7577, 0.7566, 0.7358, 0.7312, 0.7303, 0.7377, 0.7576, 0.7577,
        0.7365, 0.7296, 0.7511, 0.7307, 0.7575, 0.7364, 0.7345, 0.7372, 0.7302,
        0.7567, 0.7498, 0.7560, 0.7574, 0.7576, 0.7568, 0.7371, 0.7501, 0.7329,
        0.7570, 0.7376, 0.7317, 0.7535, 0.7297, 0.7568, 0.7500, 0.7374, 0.7499,
        0.7350, 0.7566, 0.7568, 0.7498, 0.7297, 0.7327, 0.7291, 0.7297, 0.7575,
        0.7515, 0.7293, 0.7312, 0.7298, 0.7375, 0.7516, 0.7304, 0.7291, 0.7314,
        0.7303, 0.7373, 0.7299, 0.7492, 0.7514, 0.7291, 0.7518, 0.7294, 0.7577,
        0.7503, 0.7496, 0.7291, 0.7533, 0.7576, 0.7489, 0.7496, 0.7535, 0.7571,
        0.7365, 0.7293, 0.7296, 0.7354, 0.7574, 0.7303, 0.7496, 0.7304, 0.7368,
        0.7302, 0.7567, 0.7297, 0.7575, 0.7576, 0.7355, 0.7369, 0.7574, 0.7568,
        0.7576, 0.7552, 0.7571, 0.7577, 0.7357, 0.7576, 0.7298, 0.7570, 0.7302,
        0.7571, 0.7520, 0.7359, 0.7366, 0.7537, 0.7300, 0.7542, 0.7296, 0.7329,
        0.7574, 0.7292, 0.7361, 0.7574, 0.7503, 0.7507, 0.7299, 0.7571, 0.7570,
        0.7304, 0.7498, 0.7300, 0.7492, 0.7523, 0.7572, 0.7345, 0.7560, 0.7576,
        0.7364, 0.7360, 0.7577, 0.7510, 0.7327, 0.7499, 0.7510, 0.7331, 0.7509,
        0.7304, 0.7568, 0.7308, 0.7490, 0.7576, 0.7300, 0.7498, 0.7571, 0.7524,
        0.7349, 0.7574, 0.7568, 0.7302, 0.7543, 0.7331, 0.7568, 0.7536, 0.7497,
        0.7337, 0.7304, 0.7299, 0.7352, 0.7348, 0.7510, 0.7331, 0.7521, 0.7575,
        0.7573, 0.7573, 0.7575, 0.7496, 0.7494, 0.7293, 0.7532, 0.7565, 0.7300,
        0.7510, 0.7368, 0.7375, 0.7292, 0.7544, 0.7375, 0.7320, 0.7508, 0.7577,
        0.7295, 0.7576, 0.7577, 0.7302, 0.7311, 0.7509, 0.7562, 0.7572, 0.7561,
        0.7304, 0.7573, 0.7577, 0.7576, 0.7354, 0.7499, 0.7547, 0.7371, 0.7303,
        0.7299, 0.7330, 0.7493, 0.7566, 0.7577, 0.7544, 0.7577, 0.7293, 0.7295,
        0.7295, 0.7303, 0.7298, 0.7494, 0.7535, 0.7575, 0.7352, 0.7346, 0.7512,
        0.7567, 0.7506, 0.7569, 0.7527, 0.7296, 0.7576, 0.7291, 0.7575, 0.7292,
        0.7324, 0.7376, 0.7304, 0.7296, 0.7565, 0.7563, 0.7577, 0.7291, 0.7565,
        0.7298, 0.7377, 0.7569, 0.7298, 0.7301, 0.7570, 0.7294, 0.7330, 0.7310,
        0.7298, 0.7549, 0.7574, 0.7576, 0.7301, 0.7533, 0.7521, 0.7573, 0.7575,
        0.7574, 0.7492, 0.7376, 0.7303, 0.7321, 0.7519, 0.7577, 0.7572, 0.7577,
        0.7302, 0.7319, 0.7293, 0.7362, 0.7569, 0.7299, 0.7295, 0.7559, 0.7301,
        0.7572, 0.7516, 0.7500, 0.7573, 0.7522, 0.7309, 0.7293, 0.7363, 0.7576,
        0.7568, 0.7291, 0.7545, 0.7565, 0.7565, 0.7300, 0.7304, 0.7536, 0.7577,
        0.7291, 0.7517, 0.7492, 0.7349, 0.7546, 0.7305, 0.7493, 0.7506])
mlp.net.1.batch_norm.bias tensor([ 0.0091,  0.0065, -0.0141, -0.0142, -0.0130, -0.0083, -0.0100,  0.0142,
        -0.0112, -0.0142,  0.0082, -0.0065, -0.0142, -0.0131,  0.0139, -0.0136,
        -0.0090, -0.0064, -0.0133,  0.0142, -0.0132, -0.0113, -0.0120,  0.0143,
         0.0058, -0.0138,  0.0073,  0.0114, -0.0132,  0.0126,  0.0138,  0.0143,
        -0.0132, -0.0140,  0.0129,  0.0141,  0.0141, -0.0143, -0.0081, -0.0098,
         0.0121, -0.0091,  0.0131, -0.0063, -0.0087, -0.0059,  0.0113, -0.0139,
         0.0078, -0.0078, -0.0134, -0.0091,  0.0136, -0.0134, -0.0132,  0.0120,
         0.0122,  0.0143,  0.0091, -0.0131, -0.0107,  0.0115, -0.0143,  0.0065,
        -0.0131, -0.0092, -0.0138,  0.0142,  0.0138,  0.0143, -0.0096, -0.0143,
         0.0138, -0.0143,  0.0133, -0.0080, -0.0122, -0.0066, -0.0094, -0.0131,
        -0.0138, -0.0139, -0.0128,  0.0133, -0.0062,  0.0138, -0.0061,  0.0142,
        -0.0139,  0.0131,  0.0104, -0.0075, -0.0131,  0.0136,  0.0134, -0.0074,
         0.0130, -0.0139,  0.0137,  0.0066,  0.0134,  0.0133, -0.0143,  0.0142,
         0.0110,  0.0132, -0.0093, -0.0120,  0.0142,  0.0132,  0.0080, -0.0132,
         0.0134, -0.0122,  0.0066,  0.0094,  0.0131, -0.0060, -0.0059, -0.0137,
        -0.0140, -0.0064, -0.0065, -0.0079, -0.0140,  0.0141, -0.0059, -0.0141,
         0.0065,  0.0140, -0.0078, -0.0116, -0.0060,  0.0101,  0.0140,  0.0093,
         0.0134,  0.0063,  0.0137, -0.0135, -0.0065,  0.0075,  0.0135,  0.0068,
         0.0139,  0.0143,  0.0088, -0.0092,  0.0140,  0.0139, -0.0058,  0.0137,
         0.0094,  0.0139, -0.0059, -0.0140,  0.0116,  0.0120, -0.0063, -0.0129,
         0.0073, -0.0097,  0.0068, -0.0143,  0.0093, -0.0139,  0.0143,  0.0057,
        -0.0078,  0.0138,  0.0070,  0.0057, -0.0143,  0.0070, -0.0140,  0.0133,
         0.0141, -0.0070,  0.0111, -0.0060,  0.0141,  0.0140, -0.0057, -0.0142,
        -0.0135, -0.0062,  0.0142, -0.0069,  0.0143, -0.0143,  0.0139,  0.0098,
         0.0112, -0.0078,  0.0142,  0.0139, -0.0131, -0.0105,  0.0143,  0.0137,
         0.0087,  0.0113, -0.0062,  0.0091, -0.0143, -0.0136, -0.0140,  0.0132,
         0.0142,  0.0105, -0.0135, -0.0067, -0.0060, -0.0071, -0.0137, -0.0087,
         0.0131, -0.0141, -0.0141, -0.0141, -0.0080,  0.0142,  0.0106,  0.0142,
         0.0129,  0.0082, -0.0122, -0.0141,  0.0143, -0.0066,  0.0114,  0.0062,
        -0.0136,  0.0099, -0.0059, -0.0130,  0.0116, -0.0079, -0.0062,  0.0069,
         0.0138, -0.0131,  0.0132, -0.0136,  0.0112,  0.0092, -0.0060,  0.0122,
         0.0143, -0.0136,  0.0142,  0.0143, -0.0143,  0.0117, -0.0139, -0.0139,
        -0.0143,  0.0131,  0.0095,  0.0057,  0.0138, -0.0138,  0.0104, -0.0105,
        -0.0143,  0.0066, -0.0064,  0.0143, -0.0133,  0.0135, -0.0076, -0.0072,
        -0.0133,  0.0059, -0.0139,  0.0143, -0.0139, -0.0061,  0.0070, -0.0136,
        -0.0143, -0.0136, -0.0139,  0.0137,  0.0135, -0.0143, -0.0112,  0.0087,
         0.0142, -0.0062,  0.0094,  0.0090, -0.0114,  0.0141,  0.0137,  0.0129,
        -0.0136, -0.0137,  0.0059,  0.0135, -0.0130, -0.0140,  0.0141,  0.0137,
        -0.0074,  0.0139,  0.0134, -0.0142,  0.0126, -0.0076, -0.0113,  0.0131,
         0.0120,  0.0077,  0.0139,  0.0135,  0.0135,  0.0057,  0.0142,  0.0141,
        -0.0070, -0.0139,  0.0131, -0.0069,  0.0079, -0.0080,  0.0064, -0.0143,
         0.0137, -0.0133,  0.0132,  0.0101,  0.0093,  0.0095,  0.0122, -0.0073,
         0.0139, -0.0061,  0.0109,  0.0132,  0.0068, -0.0141, -0.0103,  0.0142,
         0.0076, -0.0085,  0.0108,  0.0065, -0.0142,  0.0137, -0.0100, -0.0118,
        -0.0134, -0.0141, -0.0133,  0.0135,  0.0057, -0.0137,  0.0060,  0.0143,
         0.0061, -0.0136,  0.0103,  0.0095,  0.0135, -0.0137,  0.0107, -0.0143,
         0.0128,  0.0072, -0.0058,  0.0112,  0.0101,  0.0129,  0.0121,  0.0140,
        -0.0139,  0.0137,  0.0137, -0.0131,  0.0074, -0.0064, -0.0139, -0.0096,
        -0.0141,  0.0126, -0.0143, -0.0134,  0.0139, -0.0124, -0.0095,  0.0067,
        -0.0058, -0.0131, -0.0139, -0.0084,  0.0142,  0.0064, -0.0113, -0.0078,
        -0.0134,  0.0139, -0.0125, -0.0143, -0.0134, -0.0142,  0.0142,  0.0142,
         0.0140, -0.0061, -0.0133,  0.0135,  0.0118, -0.0068,  0.0127,  0.0143,
         0.0125, -0.0143, -0.0140, -0.0141, -0.0143, -0.0061,  0.0140, -0.0081,
         0.0142,  0.0143,  0.0139,  0.0125,  0.0058,  0.0142, -0.0137, -0.0138,
        -0.0064,  0.0062,  0.0143,  0.0143, -0.0085, -0.0067, -0.0137, -0.0057,
        -0.0138, -0.0081,  0.0142, -0.0070, -0.0143,  0.0143, -0.0067, -0.0131,
        -0.0058, -0.0143, -0.0140, -0.0064,  0.0142, -0.0136, -0.0134, -0.0079,
         0.0067, -0.0119, -0.0138, -0.0134, -0.0140, -0.0077, -0.0063,  0.0143,
         0.0081, -0.0066,  0.0141, -0.0121,  0.0143, -0.0075, -0.0137,  0.0058,
         0.0142,  0.0103,  0.0094,  0.0142, -0.0090, -0.0139,  0.0057,  0.0122,
         0.0059, -0.0085,  0.0090, -0.0066,  0.0118,  0.0064, -0.0138,  0.0132,
        -0.0105,  0.0123,  0.0100,  0.0133,  0.0099, -0.0134,  0.0057,  0.0067,
         0.0088, -0.0140, -0.0142,  0.0124, -0.0075, -0.0107, -0.0112,  0.0072,
        -0.0059,  0.0139,  0.0059,  0.0135,  0.0056, -0.0143, -0.0128, -0.0143])
mlp.net.1.batch_norm.running_mean tensor([0.1373, 0.1151, 0.1396, 0.1383, 0.1339, 0.1636, 0.1287, 0.1277, 0.1359,
        0.1332, 0.1351, 0.1292, 0.1234, 0.1416, 0.1472, 0.1508, 0.1240, 0.1356,
        0.1486, 0.1288, 0.1230, 0.1169, 0.1276, 0.1398, 0.1358, 0.1409, 0.1274,
        0.1208, 0.1442, 0.1370, 0.1357, 0.1359, 0.1308, 0.1372, 0.1442, 0.1349,
        0.1324, 0.1207, 0.1319, 0.1260, 0.1364, 0.1267, 0.1280, 0.1592, 0.1519,
        0.1225, 0.1421, 0.1319, 0.1254, 0.1287, 0.1331, 0.1256, 0.1320, 0.1401,
        0.1368, 0.1169, 0.1343, 0.1338, 0.1192, 0.1313, 0.1180, 0.1473, 0.1509,
        0.1263, 0.1161, 0.1327, 0.1276, 0.1526, 0.1394, 0.1655, 0.1392, 0.1299,
        0.1319, 0.1303, 0.1278, 0.1351, 0.1324, 0.1305, 0.1276, 0.1440, 0.1312,
        0.1401, 0.1426, 0.1440, 0.1312, 0.1177, 0.1295, 0.1110, 0.1229, 0.1248,
        0.1399, 0.1235, 0.1333, 0.1290, 0.1349, 0.1330, 0.1375, 0.1304, 0.1226,
        0.1347, 0.1419, 0.1337, 0.1320, 0.1581, 0.1361, 0.1667, 0.1239, 0.1415,
        0.1295, 0.1350, 0.1251, 0.1353, 0.1692, 0.1351, 0.1483, 0.1331, 0.1284,
        0.1240, 0.1271, 0.1296, 0.1253, 0.1366, 0.1406, 0.1373, 0.1449, 0.1376,
        0.1282, 0.1267, 0.1283, 0.1359, 0.1238, 0.1522, 0.1418, 0.1322, 0.1417,
        0.1266, 0.1401, 0.1327, 0.1328, 0.1289, 0.1229, 0.1178, 0.1297, 0.1433,
        0.1228, 0.1342, 0.1485, 0.1313, 0.1273, 0.1385, 0.1371, 0.1580, 0.1290,
        0.1356, 0.1383, 0.1316, 0.1340, 0.1308, 0.1555, 0.1502, 0.1364, 0.1409,
        0.1252, 0.1384, 0.1288, 0.1418, 0.1324, 0.1457, 0.1389, 0.1268, 0.1298,
        0.1181, 0.1318, 0.1325, 0.1252, 0.1181, 0.1418, 0.1395, 0.1415, 0.1150,
        0.1574, 0.1601, 0.1379, 0.1250, 0.1372, 0.1262, 0.1355, 0.1436, 0.1285,
        0.1260, 0.1565, 0.1211, 0.1369, 0.1197, 0.1276, 0.1209, 0.1409, 0.1532,
        0.1518, 0.1340, 0.1292, 0.1283, 0.1327, 0.1290, 0.1328, 0.1335, 0.1444,
        0.1199, 0.1344, 0.1576, 0.1471, 0.1126, 0.1433, 0.1409, 0.1151, 0.1388,
        0.1238, 0.1102, 0.1314, 0.1387, 0.1339, 0.1427, 0.1300, 0.1386, 0.1364,
        0.1330, 0.1314, 0.1295, 0.1315, 0.1251, 0.1320, 0.1430, 0.1343, 0.1469,
        0.1330, 0.1295, 0.1398, 0.1456, 0.1296, 0.1325, 0.1427, 0.1357, 0.1436,
        0.1258, 0.1447, 0.1365, 0.1450, 0.1424, 0.1459, 0.1323, 0.1228, 0.1460,
        0.1464, 0.1427, 0.1852, 0.1375, 0.1493, 0.1341, 0.1240, 0.1244, 0.1251,
        0.1373, 0.1372, 0.1446, 0.1326, 0.1343, 0.1317, 0.1229, 0.1217, 0.1461,
        0.1476, 0.1313, 0.1283, 0.1227, 0.1467, 0.1320, 0.1390, 0.1151, 0.1359,
        0.1208, 0.1433, 0.1545, 0.1292, 0.1340, 0.1382, 0.1213, 0.1211, 0.1322,
        0.1554, 0.1261, 0.1232, 0.1280, 0.1356, 0.1366, 0.1364, 0.1252, 0.1551,
        0.1338, 0.1291, 0.1436, 0.1464, 0.1499, 0.1225, 0.1170, 0.1413, 0.1307,
        0.1484, 0.1309, 0.1203, 0.1674, 0.1516, 0.1240, 0.1219, 0.1173, 0.1434,
        0.1258, 0.1260, 0.1258, 0.1423, 0.1229, 0.1354, 0.1393, 0.1319, 0.1325,
        0.1283, 0.1256, 0.1543, 0.1316, 0.1402, 0.1252, 0.1225, 0.1377, 0.1431,
        0.1597, 0.1446, 0.1412, 0.1484, 0.1470, 0.1425, 0.1220, 0.1278, 0.1234,
        0.1420, 0.1257, 0.1340, 0.1400, 0.1437, 0.1340, 0.1312, 0.1378, 0.1284,
        0.1335, 0.1242, 0.1321, 0.1409, 0.1401, 0.1332, 0.1247, 0.1339, 0.1240,
        0.1526, 0.1496, 0.1203, 0.1406, 0.1383, 0.1377, 0.1183, 0.1282, 0.1419,
        0.1482, 0.1371, 0.1338, 0.1381, 0.1545, 0.1260, 0.1363, 0.1384, 0.1230,
        0.1350, 0.1417, 0.1273, 0.1472, 0.1317, 0.1233, 0.1447, 0.1226, 0.1356,
        0.1346, 0.1288, 0.1270, 0.1340, 0.1336, 0.1307, 0.1343, 0.1327, 0.1682,
        0.1372, 0.1194, 0.1320, 0.1339, 0.1275, 0.1297, 0.1244, 0.1556, 0.1327,
        0.1247, 0.1289, 0.1314, 0.1326, 0.1428, 0.1351, 0.1473, 0.1349, 0.1668,
        0.1362, 0.1295, 0.1359, 0.1354, 0.1257, 0.1398, 0.1523, 0.1256, 0.1458,
        0.1467, 0.1338, 0.1375, 0.1218, 0.1169, 0.1283, 0.1437, 0.1273, 0.1178,
        0.1473, 0.1408, 0.1719, 0.1241, 0.1507, 0.1382, 0.1416, 0.1347, 0.1379,
        0.1360, 0.1297, 0.1390, 0.1244, 0.1482, 0.1137, 0.1371, 0.1186, 0.1406,
        0.1368, 0.1302, 0.1330, 0.1422, 0.1270, 0.1282, 0.1167, 0.1434, 0.1306,
        0.1370, 0.1490, 0.1335, 0.1342, 0.1273, 0.1306, 0.1541, 0.1253, 0.1220,
        0.1298, 0.1284, 0.1462, 0.1320, 0.1172, 0.1271, 0.1296, 0.1259, 0.1293,
        0.1358, 0.1324, 0.1358, 0.1281, 0.1258, 0.1410, 0.1433, 0.1339, 0.1285,
        0.1487, 0.1356, 0.1210, 0.1240, 0.1243, 0.1329, 0.1411, 0.1284, 0.1516,
        0.1504, 0.1205, 0.1232, 0.1284, 0.1290, 0.1341, 0.1290, 0.1308, 0.1191,
        0.1596, 0.1118, 0.1212, 0.1518, 0.1343, 0.1449, 0.1473, 0.1325])
mlp.net.1.batch_norm.running_var tensor([1.0643, 1.0099, 1.0637, 1.0216, 1.0683, 1.1744, 0.9845, 1.0218, 1.0403,
        1.0263, 1.0829, 1.0411, 1.0229, 1.0800, 1.1096, 1.0511, 0.9920, 1.0534,
        1.0438, 1.0220, 1.0023, 0.9835, 1.0639, 1.0476, 1.0577, 1.0497, 1.0147,
        1.0187, 1.1005, 1.0840, 1.0431, 1.0763, 1.0109, 1.0525, 1.0928, 1.0365,
        1.0523, 1.0135, 1.0711, 1.0068, 1.0261, 1.0102, 1.0306, 1.0623, 1.0281,
        1.0534, 1.0806, 1.0131, 1.0710, 0.9895, 1.0396, 1.0329, 1.0247, 1.0723,
        1.0825, 0.9847, 1.0586, 1.0833, 0.9877, 1.0456, 1.0001, 1.0928, 1.0921,
        0.9993, 0.9942, 1.0103, 1.0190, 1.0788, 1.0658, 1.1216, 1.0672, 1.0575,
        1.0082, 1.0279, 1.0081, 1.0215, 1.0111, 1.0260, 1.0388, 1.0714, 1.0395,
        1.0297, 1.0997, 1.0764, 0.9992, 1.0050, 1.0313, 0.9856, 0.9914, 1.0281,
        1.0851, 1.0355, 1.0388, 1.0464, 1.0365, 1.0665, 1.0899, 1.0016, 1.0076,
        1.0745, 1.0562, 1.0748, 1.0377, 1.1852, 1.0851, 1.1333, 1.0154, 1.0697,
        1.0595, 1.0168, 1.0374, 1.0635, 1.2023, 1.0703, 1.1149, 0.9905, 1.0356,
        0.9964, 1.0025, 1.0646, 1.0328, 1.0380, 1.0966, 1.0344, 1.0698, 1.0558,
        1.0123, 1.0343, 1.0006, 1.0191, 1.0606, 1.0776, 1.0927, 1.0802, 1.0161,
        1.0621, 1.0738, 1.1274, 1.0386, 1.0477, 1.0149, 0.9981, 1.0377, 1.0935,
        1.0308, 1.0621, 1.0945, 1.0659, 1.0539, 1.1128, 1.0637, 1.1237, 1.0277,
        1.0197, 1.1071, 1.0477, 1.0839, 1.0109, 1.0512, 1.0943, 1.0278, 1.0662,
        1.0409, 1.0654, 1.0351, 1.0606, 1.0319, 1.0988, 1.0612, 1.0135, 1.0344,
        0.9928, 1.0597, 1.0111, 1.0404, 1.0048, 1.0541, 1.1197, 1.0192, 1.0438,
        1.1249, 1.1576, 1.0290, 1.0215, 1.0235, 1.0660, 1.0235, 1.0311, 1.0543,
        1.0251, 1.0895, 1.0060, 1.1004, 1.0100, 1.0099, 0.9944, 1.0382, 1.0778,
        1.1004, 1.0466, 1.0716, 0.9995, 1.0462, 1.0229, 1.0490, 1.0929, 1.0926,
        1.0029, 1.1223, 1.1477, 1.0455, 0.9875, 1.0538, 1.0780, 1.0224, 1.0792,
        1.0794, 1.0099, 1.0604, 1.1032, 1.0640, 1.0513, 1.0379, 1.0423, 1.0371,
        1.0881, 1.0187, 1.0625, 1.0181, 1.0092, 1.0308, 1.0586, 1.0021, 1.0867,
        1.0517, 1.0155, 1.0991, 1.0762, 1.0190, 1.0251, 1.0410, 1.1044, 1.0716,
        1.0031, 1.0320, 1.0336, 1.0757, 1.0905, 1.0493, 1.0356, 0.9706, 1.0495,
        1.0313, 1.0449, 1.1668, 1.1463, 1.0933, 1.0061, 1.0057, 1.0219, 1.0017,
        1.0989, 1.0164, 1.0689, 1.0738, 1.0560, 1.0704, 1.0265, 1.0166, 1.0535,
        1.0790, 1.0192, 1.0727, 1.0147, 1.1168, 1.0537, 1.0495, 0.9880, 1.0647,
        1.0222, 1.0687, 1.1179, 1.0579, 1.0344, 1.0127, 1.0312, 0.9811, 1.0449,
        1.0860, 1.0095, 0.9858, 1.0140, 1.0264, 1.0997, 1.0408, 1.0221, 1.0738,
        1.0701, 0.9952, 1.1109, 1.1417, 1.1739, 0.9820, 1.0102, 1.0323, 1.0588,
        1.1041, 0.9974, 1.0086, 1.2056, 1.0549, 0.9939, 0.9897, 1.0036, 1.0854,
        1.0299, 0.9932, 0.9863, 1.0444, 1.0093, 1.0046, 1.1034, 1.0704, 1.0325,
        1.0368, 1.0183, 1.0920, 1.0339, 1.0597, 1.0355, 1.0175, 1.0560, 1.0414,
        1.1554, 1.0737, 1.0669, 1.1106, 1.0360, 1.0252, 1.0046, 0.9945, 1.0014,
        1.0855, 1.0421, 1.0499, 1.0972, 1.0580, 1.0692, 1.1246, 1.0750, 1.0553,
        1.0049, 1.0281, 1.0519, 1.0667, 1.0516, 1.0189, 1.0313, 1.0109, 0.9985,
        1.0928, 1.0551, 0.9841, 1.0704, 1.0566, 1.0601, 1.0266, 1.0313, 1.0445,
        1.0584, 1.0721, 1.1615, 1.0433, 1.0942, 1.0291, 1.0535, 1.0263, 1.0188,
        1.0537, 1.1166, 1.0002, 1.0978, 1.0215, 1.0215, 1.1107, 0.9990, 1.0714,
        1.0389, 1.0385, 1.0150, 1.0432, 1.0255, 1.0732, 1.0876, 1.0090, 1.1604,
        1.0334, 1.0128, 1.0363, 1.0943, 1.0486, 1.0879, 1.0438, 1.1900, 1.0335,
        1.0532, 1.0401, 1.0728, 1.0784, 1.0708, 1.0278, 1.1023, 1.0579, 1.1184,
        1.0591, 1.0096, 1.0327, 1.0618, 1.0253, 1.1167, 1.1098, 1.0094, 1.0752,
        1.1013, 1.0060, 1.0755, 1.0349, 0.9730, 1.0124, 1.0914, 1.0439, 1.0418,
        1.0894, 1.0658, 1.1112, 0.9907, 1.0739, 1.0312, 1.0710, 1.0645, 1.0410,
        1.0330, 1.0400, 1.0703, 1.0058, 1.0915, 0.9903, 1.0385, 0.9925, 1.1258,
        1.0453, 1.0661, 1.0112, 1.1006, 0.9844, 1.0535, 0.9955, 1.1043, 1.0124,
        1.0419, 1.1067, 1.0237, 1.0648, 1.0626, 0.9880, 1.0763, 1.0356, 0.9821,
        1.0631, 1.0422, 1.0532, 1.0226, 0.9953, 1.0670, 1.0532, 0.9965, 1.0613,
        1.0376, 1.0349, 1.0636, 0.9950, 1.0483, 1.0675, 1.0311, 1.0756, 1.0012,
        1.1571, 1.0742, 0.9983, 0.9961, 1.0243, 1.0546, 1.1151, 1.0975, 1.0965,
        1.1035, 1.0007, 1.0071, 1.0253, 1.0212, 1.0459, 1.0208, 1.0397, 0.9803,
        1.1575, 0.9896, 1.0092, 1.0845, 1.0655, 1.1316, 1.1096, 1.0491])
mlp.net.1.batch_norm.num_batches_tracked tensor(2)
mlp.net.2.linear.weight tensor([[-0.0535,  0.0235,  0.0711,  ..., -0.0187, -0.0461, -0.0577],
        [ 0.0235, -0.0249, -0.0676,  ...,  0.0472, -0.0447,  0.0227],
        [ 0.0194, -0.0425, -0.0523,  ..., -0.0098, -0.0014,  0.0240],
        ...,
        [ 0.0035,  0.0028, -0.1101,  ..., -0.0618, -0.0097,  0.0558],
        [-0.0037,  0.0013, -0.0066,  ...,  0.0259,  0.0237,  0.1014],
        [-0.0020,  0.0401,  0.0143,  ..., -0.0530,  0.0362,  0.0602]])
mlp.net.2.linear.bias tensor([-2.3255e-02, -1.3032e-02,  1.4500e-04, -4.5646e-03,  4.2130e-02,
         1.8361e-03, -8.5289e-03, -1.0335e-02, -5.2655e-03, -2.2889e-02,
        -1.2417e-02,  2.2104e-02, -1.5498e-02, -5.0864e-03, -3.8823e-02,
         1.1285e-02, -1.0038e-02, -2.9208e-03, -1.9837e-02,  2.8741e-02,
         9.6350e-03, -1.6310e-02, -1.2059e-02,  1.8810e-02,  3.6833e-03,
        -4.2967e-03,  2.7400e-02,  1.2036e-02, -1.8420e-03,  1.7732e-02,
        -1.2651e-03,  1.1607e-02, -2.6259e-02, -1.7036e-02, -1.2183e-02,
        -4.5667e-03,  1.8771e-03,  1.4624e-02, -3.7486e-02,  1.6608e-02,
        -2.6362e-02,  2.2507e-02,  4.2981e-02, -3.9236e-03, -3.1195e-02,
         1.2659e-02, -2.5483e-02,  1.1443e-02, -2.9254e-03,  2.1686e-02,
        -3.7072e-02, -2.3232e-02, -1.1850e-02,  1.9683e-02, -8.2604e-03,
         3.1685e-02,  2.3298e-02, -3.4454e-02, -2.7473e-02,  1.8280e-02,
         2.0924e-02, -6.7939e-03,  4.9179e-05, -1.3154e-02,  6.4706e-03,
        -3.4996e-03, -1.1687e-02, -2.4853e-02,  1.7974e-02,  2.1469e-02,
        -1.3524e-03,  1.3086e-02, -3.1038e-02, -8.2017e-03, -1.8873e-02,
         2.8471e-02,  1.4907e-02, -3.3543e-02, -3.2528e-02,  4.4219e-03,
        -4.3152e-02, -1.4731e-02, -1.3025e-02, -1.5510e-02,  1.1517e-03,
         2.3849e-03, -3.6280e-02, -3.0604e-02,  1.1168e-02,  4.6304e-02,
        -2.8970e-02, -1.7046e-02, -5.2242e-03,  3.7140e-02, -3.4965e-02,
         3.0586e-02, -2.9697e-02, -7.3115e-03, -9.0196e-03, -1.5654e-02,
         1.1914e-02,  7.2790e-03,  6.0928e-03,  2.3972e-02, -6.3858e-03,
         4.2599e-02, -1.6374e-02,  2.4979e-02,  9.4565e-03,  4.7543e-03,
         1.3813e-02,  1.5207e-02,  2.8763e-03,  7.9364e-03, -3.5610e-02,
         3.6282e-02,  8.9309e-03, -4.5288e-02,  1.0900e-02, -4.1395e-02,
         1.5671e-02,  2.4234e-02,  3.1120e-02,  1.8909e-02, -1.2542e-02,
        -1.1160e-02, -1.7405e-03,  2.0767e-02,  2.7068e-02,  6.3171e-03,
         8.6930e-03,  4.4385e-03, -3.7785e-02, -2.2832e-02, -1.8942e-02,
         1.1796e-02, -1.6931e-05,  4.1367e-02,  3.6580e-02,  2.2201e-02,
        -2.7777e-03, -9.9007e-06,  2.2776e-03,  2.5556e-02, -4.7132e-03,
         1.8932e-02,  2.0519e-02, -2.2774e-02, -4.2752e-02,  1.2696e-02,
         3.3079e-02,  1.8213e-02, -2.5563e-02, -9.4941e-03, -3.2434e-02,
         8.7413e-03,  2.1552e-02,  2.1885e-03, -3.8391e-02, -2.2698e-03,
        -3.6630e-03, -2.2682e-02,  2.7638e-02,  1.6432e-02, -4.3297e-02,
        -3.1366e-02, -1.2279e-02,  1.6273e-03,  8.0760e-03, -1.5963e-02,
        -1.9403e-02, -9.6320e-03,  3.3014e-02,  1.9358e-02, -3.3673e-02,
         3.9868e-02,  1.6634e-02, -2.8291e-02, -8.5936e-03, -3.0647e-04,
         2.2863e-02, -1.9693e-02,  2.6475e-02,  9.0580e-03, -2.7663e-03,
         3.5317e-02, -1.1302e-02, -3.4984e-02, -1.1466e-02,  1.6541e-02,
         2.5248e-02, -1.8976e-02,  1.2249e-02,  3.1968e-02,  3.7853e-02,
         5.7291e-03, -4.0782e-02,  3.6076e-03, -2.3228e-02, -4.0005e-02,
         3.4946e-03,  1.1441e-02,  3.7108e-03,  3.2723e-02,  8.2444e-03,
         3.7834e-02, -1.1865e-02, -1.1104e-02,  1.7176e-03, -1.6569e-02,
         2.5740e-03, -8.1456e-03,  9.0848e-03, -3.4980e-02, -1.0577e-02,
        -1.1969e-02, -4.6369e-02,  1.4210e-02, -1.7430e-02, -2.1359e-03,
        -2.7946e-04,  1.2565e-02,  8.2408e-03,  2.4858e-02,  1.6205e-02,
        -7.0428e-03,  9.0594e-03, -2.0400e-02, -3.7949e-03,  2.5190e-03,
        -1.5642e-02,  1.0423e-02, -9.2521e-03,  2.4690e-02, -8.2522e-03,
        -2.5674e-02,  3.0313e-02, -2.0010e-02, -1.5512e-02,  2.4048e-02,
        -3.3474e-02,  2.7902e-02, -1.3501e-02, -2.8079e-02, -2.1057e-02,
        -1.8411e-02,  2.4242e-02, -1.0498e-02,  1.2350e-02, -4.4752e-02,
        -1.7025e-02,  9.7699e-03,  1.4695e-02,  1.2599e-02,  3.1247e-02,
        -1.5470e-02, -7.0012e-03, -1.7640e-02, -3.1640e-02, -2.7010e-02,
         3.3873e-02, -1.8609e-02,  1.2200e-02, -1.3277e-02,  3.2701e-02,
         1.8044e-02, -4.0888e-03, -5.1735e-03, -2.6552e-02,  9.8928e-03,
        -4.1908e-02,  1.6082e-02,  1.1316e-02, -3.2482e-02,  9.4427e-03,
         2.0276e-02, -2.9596e-02,  1.1127e-02, -3.8561e-03,  1.0385e-03,
         5.0977e-03,  1.6619e-02,  3.7105e-03,  1.8370e-02, -3.1424e-02,
        -2.3097e-02, -1.2099e-02, -2.7596e-02, -2.0309e-02, -3.1739e-02,
         4.5183e-02,  3.9757e-02,  3.4988e-02,  1.0400e-02, -2.0109e-02,
        -3.0369e-02,  1.4425e-02, -1.8070e-02, -7.2269e-03,  3.7212e-02,
        -7.6901e-03,  2.7960e-02, -1.8474e-02, -2.2765e-02, -1.6149e-03,
         4.1841e-02, -2.3542e-02, -4.8226e-03,  2.0303e-02, -1.4420e-02,
        -2.8144e-02,  1.1053e-02,  3.0058e-02,  2.2609e-02,  3.1599e-02,
         1.0798e-02,  1.6580e-02,  3.4515e-02, -8.3650e-03,  3.3340e-02,
         2.7355e-02,  3.3844e-02, -1.4384e-02, -1.3442e-02,  2.6814e-02,
         8.8570e-03, -5.0146e-03, -1.9833e-02, -1.5541e-02, -1.5812e-02,
         1.9414e-03,  1.1098e-02,  6.4011e-03,  2.7330e-03,  3.8062e-03,
         3.0353e-02, -1.5672e-02, -4.5394e-02, -2.1957e-02,  1.8955e-02,
         1.5714e-02, -9.7167e-03, -1.1602e-02,  1.3288e-02,  2.8642e-02,
        -2.6546e-02, -4.1316e-03,  8.7122e-03,  8.8861e-03,  2.3638e-02,
         8.5249e-03, -1.3680e-02,  1.3403e-02, -2.2175e-03,  1.7419e-03,
        -2.3821e-03, -2.0000e-02,  1.7674e-02,  1.0987e-02, -7.4065e-04,
        -3.8160e-02,  4.3509e-02, -1.9267e-02, -1.7718e-02,  4.3758e-03,
         2.7688e-02,  1.1062e-02, -5.2995e-03, -2.4072e-02,  2.0241e-03,
        -2.2556e-02, -2.7627e-02,  2.0922e-02,  3.9745e-02,  1.4311e-02,
         1.1009e-02,  8.5402e-03,  6.4007e-03,  1.7008e-02,  2.4365e-02,
        -4.0825e-03,  1.6718e-02, -1.2376e-02,  1.4291e-02,  9.2613e-03,
         1.6656e-02, -2.8319e-02, -1.1956e-02,  3.2904e-02, -2.0769e-02,
        -3.7616e-02,  3.0832e-02, -4.9726e-04, -5.2944e-03,  2.3008e-02,
        -1.8654e-02,  3.0982e-02,  3.3073e-02,  2.0079e-02,  1.3432e-02,
         7.7605e-03, -3.5646e-02,  1.2079e-02,  9.8517e-03,  3.3195e-02,
        -5.3753e-03, -1.6336e-02,  1.2442e-02, -1.6504e-02,  1.1519e-03,
         3.8147e-02,  6.0385e-03,  1.9903e-02, -2.0124e-02,  7.9081e-03,
         4.5674e-03,  3.0090e-02, -1.6464e-02, -3.9493e-02, -1.5052e-02,
         2.1241e-02,  4.4265e-02,  1.4623e-02, -2.9821e-02,  1.3189e-02,
         7.8902e-03, -3.4086e-03, -2.9532e-02, -1.9989e-02,  4.2748e-03,
         6.9023e-04, -2.4229e-02, -1.3735e-03,  4.5996e-02,  3.4636e-02,
        -1.3861e-04, -9.8625e-03,  1.5318e-02,  2.2724e-02, -2.5653e-02,
         8.1022e-03, -2.3580e-02, -2.2776e-02, -3.1602e-02, -6.2485e-03,
        -3.4950e-02, -2.2812e-02,  1.3655e-02,  1.8182e-02,  3.5130e-02,
         1.2891e-02, -4.2228e-02,  2.0287e-02,  3.8686e-02,  7.2690e-03,
        -7.2917e-03,  1.0011e-02, -3.8299e-03,  5.4853e-03,  3.8053e-02,
        -8.2234e-03,  9.3191e-03,  3.0424e-02, -4.8962e-04,  1.3180e-02,
        -1.6106e-02,  1.0534e-02,  1.8327e-02, -1.8831e-02, -2.0695e-02,
        -8.5402e-03,  1.5936e-02, -2.0033e-02, -4.7332e-03, -2.3785e-02,
        -4.1287e-03, -2.7852e-02, -8.7135e-03,  1.2196e-02, -4.5748e-02,
         8.4086e-03, -1.3469e-02, -2.4316e-03,  9.1072e-03,  2.0738e-02,
         4.2037e-02,  2.1688e-02,  4.0846e-02, -3.2324e-04,  8.1868e-03,
         2.2595e-02,  1.3605e-02, -9.7293e-03,  2.6855e-02,  2.2514e-02,
        -2.3589e-02, -3.9606e-02, -3.7638e-02, -9.3732e-03, -1.2426e-03,
        -3.7667e-02,  9.2973e-03, -7.8311e-03,  2.0973e-02,  3.9187e-02,
         3.3838e-03,  3.2039e-03, -1.7845e-02, -7.5057e-03,  1.9632e-02,
         8.1024e-04, -1.1147e-02])
mlp.net.2.batch_norm.weight tensor([0.7566, 0.7292, 0.7571, 0.7561, 0.7500, 0.7361, 0.7342, 0.7565, 0.7577,
        0.7577, 0.7339, 0.7378, 0.7575, 0.7491, 0.7364, 0.7292, 0.7557, 0.7319,
        0.7293, 0.7512, 0.7352, 0.7571, 0.7511, 0.7506, 0.7349, 0.7310, 0.7575,
        0.7572, 0.7331, 0.7543, 0.7357, 0.7504, 0.7355, 0.7298, 0.7331, 0.7370,
        0.7361, 0.7292, 0.7576, 0.7293, 0.7359, 0.7319, 0.7577, 0.7577, 0.7356,
        0.7303, 0.7529, 0.7377, 0.7568, 0.7577, 0.7308, 0.7377, 0.7566, 0.7524,
        0.7576, 0.7291, 0.7336, 0.7310, 0.7502, 0.7375, 0.7572, 0.7298, 0.7566,
        0.7292, 0.7577, 0.7293, 0.7302, 0.7524, 0.7535, 0.7302, 0.7332, 0.7367,
        0.7291, 0.7567, 0.7294, 0.7495, 0.7321, 0.7495, 0.7308, 0.7575, 0.7572,
        0.7567, 0.7577, 0.7570, 0.7530, 0.7573, 0.7575, 0.7336, 0.7292, 0.7531,
        0.7495, 0.7360, 0.7378, 0.7505, 0.7518, 0.7304, 0.7577, 0.7574, 0.7576,
        0.7496, 0.7346, 0.7348, 0.7303, 0.7298, 0.7292, 0.7556, 0.7367, 0.7373,
        0.7572, 0.7314, 0.7513, 0.7570, 0.7293, 0.7358, 0.7372, 0.7540, 0.7570,
        0.7345, 0.7291, 0.7349, 0.7574, 0.7374, 0.7291, 0.7539, 0.7577, 0.7550,
        0.7343, 0.7344, 0.7356, 0.7497, 0.7297, 0.7295, 0.7346, 0.7309, 0.7573,
        0.7556, 0.7304, 0.7577, 0.7538, 0.7300, 0.7507, 0.7505, 0.7293, 0.7577,
        0.7343, 0.7302, 0.7577, 0.7300, 0.7497, 0.7365, 0.7566, 0.7577, 0.7370,
        0.7493, 0.7499, 0.7577, 0.7577, 0.7367, 0.7570, 0.7299, 0.7499, 0.7367,
        0.7491, 0.7528, 0.7569, 0.7575, 0.7495, 0.7294, 0.7292, 0.7378, 0.7577,
        0.7332, 0.7299, 0.7503, 0.7577, 0.7518, 0.7379, 0.7292, 0.7512, 0.7364,
        0.7506, 0.7577, 0.7575, 0.7568, 0.7574, 0.7310, 0.7492, 0.7341, 0.7294,
        0.7349, 0.7297, 0.7530, 0.7300, 0.7375, 0.7576, 0.7304, 0.7577, 0.7569,
        0.7362, 0.7562, 0.7575, 0.7533, 0.7577, 0.7292, 0.7296, 0.7526, 0.7312,
        0.7353, 0.7566, 0.7509, 0.7301, 0.7495, 0.7501, 0.7293, 0.7490, 0.7293,
        0.7355, 0.7576, 0.7525, 0.7545, 0.7566, 0.7576, 0.7577, 0.7510, 0.7293,
        0.7295, 0.7541, 0.7572, 0.7291, 0.7566, 0.7568, 0.7293, 0.7569, 0.7575,
        0.7314, 0.7298, 0.7306, 0.7367, 0.7367, 0.7571, 0.7361, 0.7299, 0.7295,
        0.7301, 0.7302, 0.7360, 0.7491, 0.7367, 0.7293, 0.7305, 0.7491, 0.7535,
        0.7371, 0.7572, 0.7371, 0.7292, 0.7298, 0.7346, 0.7301, 0.7308, 0.7299,
        0.7292, 0.7495, 0.7351, 0.7504, 0.7493, 0.7305, 0.7291, 0.7294, 0.7574,
        0.7361, 0.7569, 0.7328, 0.7343, 0.7378, 0.7363, 0.7570, 0.7576, 0.7353,
        0.7515, 0.7292, 0.7302, 0.7372, 0.7293, 0.7577, 0.7575, 0.7533, 0.7340,
        0.7577, 0.7337, 0.7501, 0.7305, 0.7296, 0.7374, 0.7570, 0.7375, 0.7295,
        0.7296, 0.7574, 0.7496, 0.7326, 0.7569, 0.7577, 0.7296, 0.7575, 0.7341,
        0.7577, 0.7362, 0.7334, 0.7293, 0.7292, 0.7510, 0.7505, 0.7526, 0.7577,
        0.7335, 0.7547, 0.7571, 0.7501, 0.7509, 0.7304, 0.7336, 0.7355, 0.7574,
        0.7572, 0.7366, 0.7514, 0.7535, 0.7376, 0.7501, 0.7292, 0.7524, 0.7566,
        0.7297, 0.7569, 0.7577, 0.7312, 0.7296, 0.7295, 0.7565, 0.7342, 0.7321,
        0.7372, 0.7552, 0.7500, 0.7292, 0.7345, 0.7520, 0.7336, 0.7536, 0.7577,
        0.7565, 0.7373, 0.7577, 0.7493, 0.7304, 0.7577, 0.7299, 0.7295, 0.7568,
        0.7568, 0.7292, 0.7491, 0.7298, 0.7574, 0.7548, 0.7291, 0.7521, 0.7523,
        0.7375, 0.7568, 0.7565, 0.7294, 0.7531, 0.7542, 0.7511, 0.7293, 0.7292,
        0.7309, 0.7374, 0.7369, 0.7524, 0.7320, 0.7373, 0.7577, 0.7551, 0.7565,
        0.7369, 0.7334, 0.7529, 0.7306, 0.7556, 0.7530, 0.7292, 0.7567, 0.7339,
        0.7574, 0.7565, 0.7358, 0.7492, 0.7309, 0.7567, 0.7566, 0.7304, 0.7373,
        0.7561, 0.7575, 0.7576, 0.7570, 0.7335, 0.7296, 0.7509, 0.7346, 0.7291,
        0.7298, 0.7531, 0.7530, 0.7316, 0.7335, 0.7493, 0.7291, 0.7329, 0.7364,
        0.7528, 0.7308, 0.7373, 0.7523, 0.7379, 0.7495, 0.7567, 0.7517, 0.7572,
        0.7570, 0.7362, 0.7569, 0.7575, 0.7536, 0.7508, 0.7378, 0.7509, 0.7574,
        0.7374, 0.7362, 0.7358, 0.7369, 0.7340, 0.7563, 0.7529, 0.7499, 0.7572,
        0.7573, 0.7577, 0.7293, 0.7297, 0.7292, 0.7577, 0.7522, 0.7379, 0.7293,
        0.7315, 0.7292, 0.7558, 0.7324, 0.7577, 0.7572, 0.7572, 0.7347, 0.7291,
        0.7294, 0.7491, 0.7378, 0.7292, 0.7342, 0.7507, 0.7572, 0.7555, 0.7536,
        0.7303, 0.7351, 0.7292, 0.7571, 0.7323, 0.7576, 0.7556, 0.7335, 0.7575,
        0.7492, 0.7573, 0.7574, 0.7373, 0.7507, 0.7374, 0.7523, 0.7496, 0.7371,
        0.7297, 0.7292, 0.7561, 0.7347, 0.7496, 0.7495, 0.7302, 0.7301, 0.7566,
        0.7518, 0.7293, 0.7326, 0.7565, 0.7354, 0.7299, 0.7378, 0.7336])
mlp.net.2.batch_norm.bias tensor([ 0.0068, -0.0140,  0.0126, -0.0098, -0.0131,  0.0139, -0.0134,  0.0059,
         0.0137,  0.0094,  0.0135, -0.0132, -0.0060, -0.0132,  0.0143,  0.0136,
         0.0143, -0.0140,  0.0096, -0.0102, -0.0135, -0.0141, -0.0065,  0.0109,
         0.0065,  0.0143,  0.0131, -0.0103,  0.0119, -0.0135,  0.0140, -0.0081,
         0.0143,  0.0139,  0.0141,  0.0075, -0.0063,  0.0056,  0.0141, -0.0063,
         0.0143, -0.0059, -0.0135, -0.0132,  0.0059, -0.0058, -0.0134,  0.0138,
        -0.0060, -0.0106, -0.0143, -0.0079, -0.0062,  0.0132, -0.0074,  0.0116,
        -0.0059, -0.0090,  0.0121,  0.0138, -0.0085,  0.0140,  0.0139,  0.0069,
        -0.0095,  0.0140,  0.0131, -0.0143,  0.0067,  0.0136,  0.0076, -0.0141,
         0.0060,  0.0070, -0.0136,  0.0140,  0.0143, -0.0071, -0.0092, -0.0140,
         0.0119, -0.0057,  0.0138, -0.0141,  0.0128, -0.0128, -0.0057,  0.0069,
        -0.0135, -0.0143,  0.0077, -0.0140,  0.0100, -0.0069, -0.0059, -0.0068,
        -0.0111,  0.0057, -0.0121,  0.0058,  0.0103,  0.0134,  0.0058,  0.0124,
        -0.0098,  0.0139,  0.0114,  0.0120, -0.0098,  0.0142, -0.0095,  0.0100,
        -0.0142,  0.0120, -0.0138,  0.0108, -0.0141, -0.0077, -0.0077,  0.0131,
        -0.0105, -0.0136,  0.0137, -0.0110, -0.0110, -0.0136,  0.0138,  0.0056,
        -0.0143, -0.0134,  0.0056,  0.0140, -0.0067, -0.0104, -0.0098,  0.0059,
         0.0061,  0.0133, -0.0134, -0.0140,  0.0137, -0.0135,  0.0116,  0.0093,
         0.0090, -0.0139,  0.0074,  0.0094,  0.0141, -0.0134, -0.0066, -0.0128,
         0.0140, -0.0092, -0.0118, -0.0113, -0.0058, -0.0130, -0.0067,  0.0056,
        -0.0069, -0.0074, -0.0138,  0.0078, -0.0141,  0.0107,  0.0132,  0.0057,
        -0.0100, -0.0070,  0.0078, -0.0136,  0.0142, -0.0082, -0.0131, -0.0079,
        -0.0138, -0.0135, -0.0135, -0.0139, -0.0141,  0.0080,  0.0092, -0.0140,
        -0.0135,  0.0061, -0.0117,  0.0140, -0.0143, -0.0142, -0.0099,  0.0104,
         0.0143, -0.0081, -0.0142,  0.0128, -0.0128, -0.0131,  0.0131, -0.0115,
         0.0122,  0.0143,  0.0087,  0.0130,  0.0141, -0.0139, -0.0132,  0.0087,
         0.0060,  0.0124, -0.0143, -0.0142, -0.0057, -0.0063, -0.0119, -0.0141,
        -0.0111, -0.0141, -0.0143, -0.0139,  0.0142, -0.0138,  0.0061,  0.0140,
        -0.0061, -0.0097,  0.0140,  0.0081, -0.0138, -0.0132, -0.0137,  0.0073,
         0.0126,  0.0117,  0.0080,  0.0125, -0.0123,  0.0092,  0.0108,  0.0142,
        -0.0136, -0.0069, -0.0116,  0.0139, -0.0056,  0.0139, -0.0120, -0.0140,
         0.0098,  0.0062, -0.0086,  0.0130, -0.0067, -0.0134,  0.0128, -0.0070,
        -0.0143, -0.0070, -0.0136, -0.0142,  0.0140, -0.0058,  0.0068, -0.0138,
        -0.0142, -0.0117, -0.0136,  0.0136, -0.0106, -0.0134, -0.0132,  0.0143,
        -0.0143, -0.0135,  0.0081, -0.0123, -0.0130,  0.0137, -0.0064, -0.0136,
        -0.0143,  0.0069, -0.0082, -0.0058,  0.0068, -0.0075, -0.0123,  0.0137,
         0.0140, -0.0064, -0.0077, -0.0076, -0.0066,  0.0133,  0.0085, -0.0059,
         0.0065, -0.0132,  0.0117, -0.0062, -0.0142, -0.0070,  0.0129,  0.0113,
         0.0080, -0.0072, -0.0140,  0.0139,  0.0142, -0.0141, -0.0066,  0.0126,
        -0.0136,  0.0131,  0.0059,  0.0135, -0.0131, -0.0118,  0.0142,  0.0121,
        -0.0143,  0.0104,  0.0069,  0.0132,  0.0127, -0.0136,  0.0090,  0.0139,
         0.0140,  0.0142,  0.0114,  0.0061,  0.0102,  0.0140, -0.0121,  0.0134,
        -0.0127,  0.0142,  0.0074,  0.0125,  0.0100,  0.0121,  0.0108, -0.0139,
        -0.0135,  0.0136, -0.0141, -0.0066,  0.0135, -0.0063, -0.0056,  0.0143,
        -0.0143, -0.0082,  0.0082,  0.0082,  0.0143,  0.0137, -0.0094, -0.0061,
         0.0143, -0.0133, -0.0140,  0.0134,  0.0111, -0.0143, -0.0143, -0.0057,
         0.0069,  0.0140,  0.0061,  0.0063, -0.0088,  0.0131,  0.0134,  0.0097,
        -0.0135,  0.0133, -0.0139, -0.0098, -0.0072,  0.0060,  0.0141, -0.0063,
         0.0133,  0.0143, -0.0137, -0.0056,  0.0062,  0.0143, -0.0123, -0.0060,
         0.0133,  0.0067, -0.0134,  0.0139, -0.0133,  0.0105, -0.0067, -0.0126,
        -0.0137, -0.0132,  0.0088,  0.0059, -0.0140,  0.0142, -0.0131, -0.0143,
         0.0058, -0.0136,  0.0128,  0.0143,  0.0063, -0.0135,  0.0139,  0.0140,
         0.0115, -0.0089,  0.0116,  0.0142, -0.0133, -0.0140, -0.0068,  0.0140,
        -0.0133,  0.0120, -0.0139,  0.0073, -0.0064, -0.0094, -0.0123, -0.0060,
        -0.0135, -0.0138, -0.0131, -0.0104, -0.0057, -0.0142, -0.0138,  0.0086,
         0.0137, -0.0122,  0.0142,  0.0138, -0.0064,  0.0082, -0.0086,  0.0139,
         0.0069, -0.0135, -0.0143, -0.0080,  0.0132, -0.0084, -0.0133, -0.0138,
        -0.0084,  0.0138,  0.0072, -0.0143,  0.0143, -0.0137,  0.0141,  0.0143,
        -0.0138, -0.0056, -0.0143,  0.0103, -0.0089,  0.0075, -0.0110, -0.0127,
         0.0085,  0.0142,  0.0138, -0.0085, -0.0131, -0.0142, -0.0141, -0.0143,
        -0.0095,  0.0143,  0.0072,  0.0132,  0.0116,  0.0129,  0.0136, -0.0066,
        -0.0141, -0.0135, -0.0132,  0.0065, -0.0064, -0.0143,  0.0109,  0.0135,
         0.0136, -0.0143, -0.0103,  0.0068, -0.0098, -0.0107, -0.0120,  0.0143,
         0.0086, -0.0061,  0.0067, -0.0075,  0.0141, -0.0071, -0.0056, -0.0095])
mlp.net.2.batch_norm.running_mean tensor([0.1302, 0.1239, 0.1350, 0.1368, 0.1336, 0.1277, 0.1407, 0.1266, 0.1468,
        0.1279, 0.1374, 0.1257, 0.1291, 0.1371, 0.1249, 0.1367, 0.1363, 0.1306,
        0.1277, 0.1377, 0.1285, 0.1276, 0.1184, 0.1265, 0.1372, 0.1502, 0.1351,
        0.1307, 0.1431, 0.1383, 0.1156, 0.1322, 0.1350, 0.1260, 0.1301, 0.1172,
        0.1405, 0.1394, 0.1357, 0.1217, 0.1319, 0.1325, 0.1437, 0.1341, 0.1275,
        0.1378, 0.1216, 0.1405, 0.1433, 0.1322, 0.1261, 0.1408, 0.1324, 0.1278,
        0.1390, 0.1439, 0.1371, 0.1348, 0.1252, 0.1303, 0.1321, 0.1289, 0.1374,
        0.1397, 0.1315, 0.1352, 0.1277, 0.1352, 0.1270, 0.1330, 0.1254, 0.1353,
        0.1307, 0.1346, 0.1386, 0.1272, 0.1403, 0.1244, 0.1263, 0.1459, 0.1192,
        0.1271, 0.1275, 0.1203, 0.1341, 0.1371, 0.1204, 0.1218, 0.1377, 0.1401,
        0.1293, 0.1292, 0.1394, 0.1451, 0.1275, 0.1312, 0.1437, 0.1380, 0.1371,
        0.1322, 0.1348, 0.1385, 0.1376, 0.1395, 0.1275, 0.1408, 0.1197, 0.1290,
        0.1360, 0.1343, 0.1280, 0.1371, 0.1276, 0.1486, 0.1387, 0.1392, 0.1357,
        0.1308, 0.1318, 0.1343, 0.1367, 0.1374, 0.1388, 0.1280, 0.1309, 0.1362,
        0.1325, 0.1404, 0.1365, 0.1338, 0.1418, 0.1293, 0.1323, 0.1192, 0.1218,
        0.1548, 0.1304, 0.1343, 0.1180, 0.1371, 0.1351, 0.1305, 0.1346, 0.1360,
        0.1468, 0.1310, 0.1254, 0.1374, 0.1294, 0.1272, 0.1375, 0.1360, 0.1331,
        0.1248, 0.1347, 0.1440, 0.1351, 0.1341, 0.1336, 0.1384, 0.1285, 0.1258,
        0.1337, 0.1404, 0.1255, 0.1239, 0.1368, 0.1273, 0.1379, 0.1305, 0.1311,
        0.1378, 0.1300, 0.1271, 0.1350, 0.1464, 0.1314, 0.1440, 0.1286, 0.1255,
        0.1351, 0.1248, 0.1389, 0.1424, 0.1294, 0.1359, 0.1345, 0.1263, 0.1259,
        0.1292, 0.1369, 0.1270, 0.1349, 0.1306, 0.1374, 0.1246, 0.1252, 0.1343,
        0.1338, 0.1239, 0.1275, 0.1291, 0.1381, 0.1392, 0.1387, 0.1365, 0.1230,
        0.1394, 0.1302, 0.1224, 0.1253, 0.1284, 0.1380, 0.1173, 0.1305, 0.1410,
        0.1201, 0.1346, 0.1403, 0.1431, 0.1217, 0.1320, 0.1310, 0.1399, 0.1521,
        0.1360, 0.1155, 0.1273, 0.1263, 0.1359, 0.1325, 0.1383, 0.1254, 0.1371,
        0.1307, 0.1260, 0.1351, 0.1286, 0.1323, 0.1395, 0.1323, 0.1303, 0.1338,
        0.1366, 0.1270, 0.1268, 0.1325, 0.1338, 0.1467, 0.1332, 0.1350, 0.1388,
        0.1258, 0.1360, 0.1386, 0.1305, 0.1392, 0.1380, 0.1268, 0.1326, 0.1363,
        0.1222, 0.1328, 0.1240, 0.1511, 0.1251, 0.1252, 0.1440, 0.1333, 0.1393,
        0.1301, 0.1374, 0.1350, 0.1325, 0.1327, 0.1365, 0.1307, 0.1269, 0.1142,
        0.1240, 0.1350, 0.1363, 0.1302, 0.1336, 0.1381, 0.1387, 0.1359, 0.1141,
        0.1292, 0.1336, 0.1319, 0.1378, 0.1448, 0.1346, 0.1337, 0.1275, 0.1323,
        0.1226, 0.1263, 0.1305, 0.1318, 0.1315, 0.1449, 0.1382, 0.1345, 0.1288,
        0.1237, 0.1395, 0.1406, 0.1271, 0.1355, 0.1154, 0.1494, 0.1306, 0.1293,
        0.1373, 0.1279, 0.1442, 0.1167, 0.1314, 0.1277, 0.1432, 0.1229, 0.1347,
        0.1425, 0.1397, 0.1271, 0.1227, 0.1443, 0.1309, 0.1254, 0.1343, 0.1346,
        0.1362, 0.1307, 0.1243, 0.1386, 0.1342, 0.1420, 0.1438, 0.1226, 0.1296,
        0.1271, 0.1208, 0.1329, 0.1286, 0.1323, 0.1329, 0.1248, 0.1298, 0.1377,
        0.1322, 0.1312, 0.1406, 0.1309, 0.1192, 0.1272, 0.1475, 0.1392, 0.1251,
        0.1185, 0.1320, 0.1312, 0.1421, 0.1269, 0.1251, 0.1302, 0.1295, 0.1468,
        0.1451, 0.1316, 0.1313, 0.1361, 0.1391, 0.1374, 0.1373, 0.1431, 0.1297,
        0.1392, 0.1418, 0.1336, 0.1321, 0.1366, 0.1358, 0.1289, 0.1328, 0.1481,
        0.1361, 0.1400, 0.1369, 0.1315, 0.1236, 0.1284, 0.1333, 0.1245, 0.1317,
        0.1387, 0.1422, 0.1338, 0.1213, 0.1313, 0.1270, 0.1333, 0.1284, 0.1332,
        0.1255, 0.1350, 0.1290, 0.1260, 0.1268, 0.1281, 0.1378, 0.1346, 0.1229,
        0.1242, 0.1291, 0.1276, 0.1343, 0.1266, 0.1265, 0.1301, 0.1336, 0.1255,
        0.1235, 0.1329, 0.1336, 0.1387, 0.1380, 0.1275, 0.1385, 0.1354, 0.1353,
        0.1384, 0.1351, 0.1403, 0.1339, 0.1292, 0.1493, 0.1327, 0.1336, 0.1338,
        0.1364, 0.1294, 0.1325, 0.1258, 0.1257, 0.1265, 0.1234, 0.1496, 0.1343,
        0.1413, 0.1408, 0.1463, 0.1316, 0.1341, 0.1311, 0.1381, 0.1311, 0.1462,
        0.1331, 0.1322, 0.1207, 0.1373, 0.1436, 0.1330, 0.1325, 0.1287, 0.1389,
        0.1297, 0.1248, 0.1325, 0.1361, 0.1349, 0.1324, 0.1265, 0.1418, 0.1227,
        0.1318, 0.1322, 0.1271, 0.1533, 0.1353, 0.1315, 0.1276, 0.1394, 0.1201,
        0.1425, 0.1347, 0.1412, 0.1322, 0.1334, 0.1378, 0.1293, 0.1217, 0.1319,
        0.1156, 0.1315, 0.1305, 0.1405, 0.1325, 0.1230, 0.1319, 0.1465, 0.1352,
        0.1318, 0.1482, 0.1315, 0.1356, 0.1389, 0.1335, 0.1419, 0.1249])
mlp.net.2.batch_norm.running_var tensor([1.0319, 0.9866, 1.0965, 1.0997, 1.0469, 1.0297, 1.0613, 1.0538, 1.1679,
        1.0249, 1.0686, 1.0070, 1.0534, 1.0727, 1.0262, 1.0480, 1.0621, 1.0426,
        1.0336, 1.0416, 1.0622, 1.0294, 1.0092, 1.0357, 1.1254, 1.0430, 1.0659,
        1.0144, 1.0283, 1.0282, 0.9909, 1.0832, 1.0622, 1.0419, 1.0254, 0.9765,
        1.0615, 1.0690, 1.0584, 1.0040, 1.0110, 1.0616, 1.0407, 1.0394, 1.0790,
        1.1212, 1.0139, 1.0862, 1.0436, 1.0241, 1.0376, 1.1060, 1.0164, 1.0204,
        1.0760, 1.0275, 1.0609, 1.0578, 1.0281, 1.0034, 1.0613, 1.0491, 1.0750,
        1.0779, 1.0529, 1.0850, 1.0200, 1.0738, 0.9934, 1.0691, 1.0049, 1.0656,
        1.0139, 1.0549, 1.0841, 1.0377, 1.0803, 1.0446, 1.0391, 1.0610, 0.9876,
        1.0121, 1.0245, 1.0056, 1.0867, 1.0436, 0.9959, 1.0358, 1.0482, 1.0382,
        1.0562, 1.0026, 1.1111, 1.1126, 1.0649, 1.0436, 1.0776, 1.0644, 1.0787,
        1.0705, 1.0563, 1.0226, 1.0392, 1.0132, 1.0122, 1.0723, 0.9998, 1.0526,
        1.0532, 1.0358, 1.0774, 1.0644, 1.0212, 1.1670, 1.0920, 1.0605, 1.0697,
        1.0620, 1.0404, 1.0790, 1.0956, 1.0782, 1.0472, 1.0363, 1.0192, 1.0496,
        1.0262, 1.0618, 1.0454, 1.0353, 1.1361, 1.0482, 1.0581, 0.9992, 1.0424,
        1.0433, 1.0675, 1.0545, 1.0281, 1.0066, 1.0807, 1.0398, 1.0482, 1.0326,
        1.1055, 1.0298, 1.0459, 1.1339, 1.0105, 1.0533, 1.0480, 1.0403, 1.0727,
        1.0242, 1.0936, 1.0932, 1.0320, 1.0510, 1.0866, 1.0300, 1.0204, 1.0248,
        1.0823, 1.0372, 1.0147, 1.0229, 1.0586, 1.0210, 1.0490, 1.0662, 1.0026,
        1.0797, 1.0029, 1.0510, 1.0719, 1.1161, 1.0149, 1.0535, 1.0385, 1.0058,
        1.0311, 1.0473, 1.0799, 1.0627, 1.0329, 1.0374, 1.0829, 1.0484, 1.0280,
        1.0198, 1.0588, 1.0448, 1.0824, 1.0351, 1.0317, 1.0408, 1.0248, 1.0767,
        1.0697, 1.0331, 1.0243, 1.0130, 1.0232, 1.0270, 1.0801, 1.0232, 1.0108,
        1.0438, 1.0598, 1.0120, 0.9881, 1.0352, 1.0632, 0.9891, 1.0904, 1.0323,
        0.9764, 1.0705, 1.1321, 1.0815, 1.0052, 1.0392, 1.0145, 1.1119, 1.0710,
        1.0414, 0.9789, 1.0330, 1.0245, 1.0322, 1.0893, 1.1078, 1.0197, 1.0129,
        1.0182, 1.0432, 1.0790, 0.9898, 1.0337, 1.0387, 1.0149, 1.0163, 1.0210,
        1.0446, 1.0020, 1.0192, 1.0522, 1.0336, 1.1293, 1.0496, 1.0847, 1.0833,
        1.0162, 1.0615, 1.0517, 1.0386, 1.0927, 1.0582, 1.0224, 1.0653, 1.0501,
        1.0245, 1.0401, 1.0266, 1.1686, 1.0286, 1.0423, 1.1072, 1.0406, 1.1171,
        1.0892, 1.0860, 1.0395, 1.1182, 1.0247, 1.0653, 1.0730, 1.0302, 1.0126,
        1.0228, 1.0511, 1.0130, 1.0222, 1.0241, 1.1256, 1.0963, 1.0563, 1.0110,
        1.0384, 1.0495, 1.0388, 1.0064, 1.1392, 1.0453, 1.0088, 1.0037, 1.0508,
        1.0263, 0.9962, 1.0889, 1.0293, 1.0404, 1.1477, 1.1168, 1.0501, 1.0226,
        1.0286, 1.0828, 1.1506, 1.0271, 1.0770, 0.9763, 1.0352, 1.0261, 0.9967,
        1.1323, 1.0059, 1.0666, 1.0187, 1.0236, 1.0208, 1.0904, 0.9874, 1.0082,
        1.0809, 1.0388, 1.0268, 1.0258, 1.0819, 1.0625, 1.0199, 1.0314, 1.0291,
        1.1114, 1.0321, 1.0097, 1.0790, 1.0235, 1.0428, 1.0865, 1.0216, 1.0336,
        1.0622, 1.0147, 1.0690, 1.0365, 1.0284, 1.0590, 1.0209, 1.0229, 1.1097,
        1.0522, 1.0514, 1.0565, 1.0448, 1.0377, 1.0165, 1.1713, 1.0585, 1.0218,
        0.9793, 1.0605, 1.0120, 1.0748, 1.0119, 1.0092, 1.0168, 1.0315, 1.0624,
        1.0626, 1.0611, 1.0434, 1.0603, 1.0807, 1.0402, 1.0336, 1.0894, 1.0302,
        1.0520, 1.0450, 1.0298, 1.0152, 1.0633, 1.0733, 1.0408, 1.0245, 1.0721,
        1.0896, 1.0313, 1.0512, 0.9986, 1.0234, 1.0382, 1.0661, 1.0019, 1.0538,
        1.0552, 1.1499, 1.0551, 1.0194, 0.9984, 1.0062, 1.0427, 1.0165, 1.0616,
        1.0137, 1.0547, 1.0441, 0.9945, 1.0319, 1.0303, 1.0495, 1.0501, 1.0322,
        1.0305, 1.0307, 1.0454, 1.0285, 1.0394, 1.0418, 1.0116, 1.0484, 0.9891,
        0.9950, 1.0234, 1.0314, 1.0768, 1.0175, 1.0448, 1.0603, 1.0391, 1.0918,
        1.0453, 1.0376, 1.0991, 1.0401, 1.0474, 1.1420, 1.0503, 1.0699, 1.0468,
        1.0404, 1.0468, 1.0082, 1.0866, 1.0313, 1.0175, 1.0108, 1.1420, 1.0328,
        1.0678, 1.0319, 1.0455, 1.0507, 1.0628, 1.0602, 1.0373, 1.0542, 1.0862,
        1.0141, 1.0719, 1.0398, 1.0261, 1.0662, 1.0418, 1.1020, 1.0381, 1.0800,
        1.0486, 1.0233, 1.0130, 1.0316, 1.0282, 1.0522, 1.0350, 1.1069, 1.0287,
        1.0683, 1.0523, 0.9940, 1.1365, 1.1104, 1.0459, 1.0640, 1.0218, 0.9898,
        1.0508, 1.0631, 1.0530, 1.0291, 1.0326, 1.0801, 0.9997, 1.0214, 1.0064,
        0.9800, 1.0582, 1.0400, 1.1016, 1.0522, 0.9933, 1.0333, 1.0452, 1.0338,
        1.0725, 1.1308, 1.0969, 1.0700, 1.0554, 1.0280, 1.0791, 1.0497])
mlp.net.2.batch_norm.num_batches_tracked tensor(2)
mlp.net.3.linear.weight tensor([[ 0.0214, -0.0347,  0.0085,  ..., -0.0719,  0.0838,  0.0195],
        [-0.0162, -0.0190, -0.0132,  ..., -0.0207,  0.0370, -0.0173],
        [-0.0073,  0.0034,  0.0419,  ...,  0.0125,  0.0332,  0.0222],
        ...,
        [-0.0407, -0.0402, -0.0328,  ..., -0.0414,  0.0104,  0.0281],
        [ 0.0147, -0.0600,  0.0550,  ...,  0.0137, -0.0545, -0.0641],
        [ 0.0099, -0.0249, -0.0286,  ..., -0.0179, -0.0367, -0.0178]])
mlp.net.3.linear.bias tensor([-0.0115,  0.0060, -0.0431,  0.0045,  0.0394,  0.0200,  0.0383,  0.0113,
         0.0126,  0.0066, -0.0013,  0.0295,  0.0258,  0.0124, -0.0095,  0.0176,
         0.0129, -0.0255, -0.0123,  0.0418,  0.0090,  0.0179, -0.0154, -0.0071,
         0.0010,  0.0047,  0.0077, -0.0403, -0.0313, -0.0140,  0.0142, -0.0447,
        -0.0405,  0.0044,  0.0182, -0.0084,  0.0254, -0.0407, -0.0028, -0.0382,
        -0.0176, -0.0215,  0.0195,  0.0117, -0.0338,  0.0009,  0.0436, -0.0299,
         0.0200,  0.0091, -0.0211, -0.0010, -0.0076, -0.0028, -0.0226, -0.0296,
        -0.0307,  0.0320,  0.0345, -0.0064,  0.0100,  0.0341, -0.0152, -0.0329,
         0.0245, -0.0116,  0.0228,  0.0059, -0.0062, -0.0038,  0.0127,  0.0180,
        -0.0184, -0.0264,  0.0328, -0.0216, -0.0050,  0.0339, -0.0018, -0.0278,
        -0.0164, -0.0031, -0.0078,  0.0134,  0.0159,  0.0130, -0.0251, -0.0157,
         0.0135, -0.0090, -0.0022,  0.0135, -0.0122, -0.0329,  0.0331,  0.0089,
        -0.0089, -0.0360, -0.0353, -0.0244,  0.0181,  0.0075, -0.0244, -0.0043,
        -0.0188,  0.0190,  0.0257,  0.0331, -0.0023,  0.0219, -0.0428,  0.0323,
        -0.0300,  0.0285, -0.0052,  0.0081, -0.0431,  0.0234,  0.0166,  0.0119,
         0.0277, -0.0177,  0.0310,  0.0132, -0.0116, -0.0183,  0.0088, -0.0382,
         0.0097, -0.0272, -0.0165,  0.0055, -0.0385, -0.0389, -0.0196, -0.0230,
        -0.0321,  0.0177,  0.0327,  0.0050, -0.0127,  0.0066,  0.0343,  0.0201,
         0.0317,  0.0326,  0.0080,  0.0110, -0.0204,  0.0339, -0.0245, -0.0141,
         0.0409,  0.0112, -0.0028,  0.0421, -0.0003, -0.0008, -0.0229,  0.0329,
        -0.0176, -0.0159, -0.0121, -0.0278,  0.0035, -0.0378, -0.0146,  0.0052,
         0.0046, -0.0342, -0.0348, -0.0222, -0.0260,  0.0148,  0.0316, -0.0224,
        -0.0182, -0.0089,  0.0116,  0.0362,  0.0062,  0.0052,  0.0173,  0.0383,
         0.0103,  0.0113, -0.0047, -0.0108, -0.0216,  0.0033, -0.0408, -0.0189,
         0.0119,  0.0110,  0.0193, -0.0142,  0.0116,  0.0056, -0.0407, -0.0339,
        -0.0101, -0.0437, -0.0241, -0.0205,  0.0217, -0.0083,  0.0266,  0.0336,
        -0.0127,  0.0203, -0.0261, -0.0316, -0.0167, -0.0384,  0.0085,  0.0198,
         0.0259, -0.0247,  0.0023,  0.0157,  0.0059,  0.0018, -0.0022,  0.0438,
        -0.0225, -0.0120, -0.0258,  0.0171,  0.0166,  0.0308,  0.0053, -0.0397,
         0.0153, -0.0372,  0.0121,  0.0163,  0.0012,  0.0376,  0.0032, -0.0189,
         0.0222,  0.0184, -0.0312, -0.0097, -0.0052,  0.0196,  0.0021, -0.0071,
        -0.0022,  0.0201, -0.0036,  0.0218,  0.0185, -0.0323,  0.0300, -0.0394,
         0.0019, -0.0129, -0.0163,  0.0308,  0.0049, -0.0298,  0.0302,  0.0121,
        -0.0364,  0.0326, -0.0365,  0.0379, -0.0099, -0.0009, -0.0419,  0.0072,
        -0.0014, -0.0099, -0.0054,  0.0013,  0.0124, -0.0006,  0.0118, -0.0139,
        -0.0380, -0.0386, -0.0357, -0.0043,  0.0187,  0.0328,  0.0353, -0.0321,
         0.0141,  0.0385, -0.0231,  0.0325, -0.0223, -0.0419, -0.0169, -0.0386,
        -0.0205, -0.0029,  0.0249, -0.0448,  0.0171,  0.0118,  0.0178, -0.0367,
         0.0163, -0.0073,  0.0167, -0.0160, -0.0332,  0.0040, -0.0025, -0.0045,
        -0.0182, -0.0017,  0.0163, -0.0132, -0.0408,  0.0083,  0.0279,  0.0346,
         0.0177,  0.0402, -0.0407, -0.0078, -0.0081,  0.0253,  0.0093,  0.0190,
         0.0348,  0.0206, -0.0049, -0.0002, -0.0011,  0.0243,  0.0248,  0.0116,
         0.0177, -0.0026, -0.0006, -0.0184,  0.0294, -0.0035, -0.0350, -0.0320,
        -0.0393, -0.0183, -0.0181, -0.0223,  0.0184, -0.0356,  0.0202,  0.0275,
        -0.0240, -0.0264,  0.0257,  0.0225, -0.0020, -0.0253, -0.0057, -0.0386,
        -0.0019, -0.0253, -0.0025,  0.0239,  0.0389,  0.0077,  0.0374,  0.0265,
         0.0184,  0.0130,  0.0439,  0.0192,  0.0101, -0.0356,  0.0130,  0.0252,
         0.0295, -0.0107,  0.0402,  0.0110,  0.0243,  0.0222,  0.0103, -0.0406,
         0.0170, -0.0102, -0.0071, -0.0276,  0.0147,  0.0027,  0.0434, -0.0054,
        -0.0278,  0.0029, -0.0142, -0.0060, -0.0037, -0.0335, -0.0177,  0.0071,
         0.0086, -0.0220, -0.0116,  0.0071, -0.0166, -0.0178,  0.0061,  0.0051,
        -0.0029,  0.0233,  0.0046, -0.0065,  0.0146, -0.0183,  0.0027, -0.0088,
        -0.0153,  0.0010,  0.0116, -0.0156,  0.0138, -0.0081,  0.0239,  0.0041,
         0.0020, -0.0200, -0.0109, -0.0212, -0.0141, -0.0135,  0.0306,  0.0025,
        -0.0337,  0.0285, -0.0343, -0.0163, -0.0096, -0.0042,  0.0315, -0.0171,
        -0.0092,  0.0382,  0.0098, -0.0292, -0.0089,  0.0136,  0.0333, -0.0144,
        -0.0080, -0.0253,  0.0134, -0.0340, -0.0248, -0.0103, -0.0190, -0.0164,
         0.0096, -0.0098, -0.0217,  0.0391,  0.0032, -0.0423,  0.0133,  0.0162,
        -0.0170,  0.0036,  0.0066, -0.0055,  0.0013, -0.0099,  0.0005, -0.0021,
        -0.0207, -0.0168, -0.0170,  0.0090, -0.0206, -0.0385, -0.0178,  0.0240,
         0.0086,  0.0169, -0.0044,  0.0195, -0.0234, -0.0054,  0.0272,  0.0397,
        -0.0140, -0.0080,  0.0105, -0.0027,  0.0056,  0.0024, -0.0037,  0.0050,
         0.0096, -0.0207, -0.0190,  0.0152,  0.0020, -0.0376, -0.0285, -0.0282,
        -0.0088, -0.0172,  0.0054,  0.0371, -0.0088,  0.0180,  0.0128, -0.0125])
mlp.net.3.batch_norm.weight tensor([0.7495, 0.7303, 0.7352, 0.7492, 0.7295, 0.7293, 0.7494, 0.7494, 0.7311,
        0.7493, 0.7511, 0.7328, 0.7375, 0.7511, 0.7294, 0.7568, 0.7500, 0.7292,
        0.7311, 0.7316, 0.7315, 0.7500, 0.7318, 0.7338, 0.7569, 0.7292, 0.7374,
        0.7291, 0.7497, 0.7298, 0.7310, 0.7339, 0.7492, 0.7292, 0.7300, 0.7292,
        0.7345, 0.7332, 0.7577, 0.7377, 0.7291, 0.7302, 0.7303, 0.7491, 0.7323,
        0.7303, 0.7326, 0.7499, 0.7307, 0.7495, 0.7295, 0.7293, 0.7490, 0.7292,
        0.7293, 0.7494, 0.7297, 0.7300, 0.7313, 0.7506, 0.7308, 0.7292, 0.7300,
        0.7577, 0.7293, 0.7296, 0.7495, 0.7292, 0.7352, 0.7368, 0.7292, 0.7292,
        0.7492, 0.7344, 0.7309, 0.7492, 0.7310, 0.7496, 0.7310, 0.7302, 0.7299,
        0.7348, 0.7298, 0.7507, 0.7495, 0.7505, 0.7491, 0.7569, 0.7569, 0.7362,
        0.7309, 0.7313, 0.7296, 0.7310, 0.7305, 0.7329, 0.7333, 0.7490, 0.7299,
        0.7300, 0.7315, 0.7492, 0.7292, 0.7335, 0.7297, 0.7502, 0.7309, 0.7351,
        0.7495, 0.7493, 0.7295, 0.7292, 0.7301, 0.7508, 0.7498, 0.7492, 0.7340,
        0.7490, 0.7291, 0.7533, 0.7319, 0.7363, 0.7302, 0.7292, 0.7503, 0.7330,
        0.7296, 0.7293, 0.7377, 0.7491, 0.7316, 0.7497, 0.7291, 0.7302, 0.7333,
        0.7543, 0.7567, 0.7492, 0.7316, 0.7295, 0.7325, 0.7517, 0.7362, 0.7301,
        0.7306, 0.7326, 0.7492, 0.7302, 0.7370, 0.7496, 0.7490, 0.7575, 0.7299,
        0.7310, 0.7500, 0.7302, 0.7304, 0.7570, 0.7305, 0.7303, 0.7339, 0.7292,
        0.7364, 0.7491, 0.7298, 0.7311, 0.7308, 0.7347, 0.7301, 0.7292, 0.7295,
        0.7317, 0.7309, 0.7496, 0.7292, 0.7291, 0.7293, 0.7565, 0.7564, 0.7536,
        0.7499, 0.7304, 0.7292, 0.7298, 0.7576, 0.7515, 0.7499, 0.7354, 0.7315,
        0.7306, 0.7297, 0.7292, 0.7297, 0.7306, 0.7311, 0.7327, 0.7318, 0.7295,
        0.7302, 0.7493, 0.7303, 0.7298, 0.7291, 0.7301, 0.7494, 0.7293, 0.7343,
        0.7333, 0.7318, 0.7308, 0.7294, 0.7502, 0.7301, 0.7300, 0.7504, 0.7542,
        0.7316, 0.7292, 0.7307, 0.7292, 0.7291, 0.7295, 0.7331, 0.7572, 0.7331,
        0.7292, 0.7378, 0.7291, 0.7375, 0.7299, 0.7493, 0.7370, 0.7303, 0.7292,
        0.7493, 0.7311, 0.7303, 0.7309, 0.7312, 0.7567, 0.7355, 0.7294, 0.7313,
        0.7378, 0.7299, 0.7293, 0.7300, 0.7565, 0.7569, 0.7375, 0.7319, 0.7297,
        0.7308, 0.7491, 0.7303, 0.7294, 0.7376, 0.7357, 0.7335, 0.7323, 0.7304,
        0.7378, 0.7292, 0.7370, 0.7504, 0.7368, 0.7291, 0.7298, 0.7504, 0.7576,
        0.7331, 0.7292, 0.7493, 0.7375, 0.7314, 0.7511, 0.7358, 0.7327, 0.7350,
        0.7493, 0.7492, 0.7565, 0.7292, 0.7490, 0.7371, 0.7500, 0.7498, 0.7293,
        0.7295, 0.7311, 0.7522, 0.7306, 0.7312, 0.7496, 0.7309, 0.7492, 0.7495,
        0.7569, 0.7500, 0.7342, 0.7318, 0.7302, 0.7312, 0.7302, 0.7496, 0.7292,
        0.7496, 0.7331, 0.7497, 0.7291, 0.7491, 0.7491, 0.7312, 0.7496, 0.7500,
        0.7566, 0.7300, 0.7292, 0.7347, 0.7500, 0.7296, 0.7305, 0.7507, 0.7291,
        0.7293, 0.7293, 0.7377, 0.7359, 0.7336, 0.7292, 0.7301, 0.7292, 0.7328,
        0.7296, 0.7491, 0.7326, 0.7294, 0.7376, 0.7378, 0.7376, 0.7300, 0.7292,
        0.7307, 0.7303, 0.7493, 0.7306, 0.7498, 0.7315, 0.7370, 0.7315, 0.7495,
        0.7298, 0.7308, 0.7291, 0.7306, 0.7292, 0.7292, 0.7500, 0.7314, 0.7303,
        0.7326, 0.7291, 0.7338, 0.7496, 0.7372, 0.7311, 0.7297, 0.7310, 0.7512,
        0.7493, 0.7315, 0.7493, 0.7296, 0.7492, 0.7352, 0.7491, 0.7307, 0.7294,
        0.7315, 0.7351, 0.7298, 0.7303, 0.7292, 0.7301, 0.7308, 0.7577, 0.7573,
        0.7300, 0.7292, 0.7494, 0.7501, 0.7303, 0.7379, 0.7291, 0.7304, 0.7323,
        0.7552, 0.7500, 0.7308, 0.7577, 0.7298, 0.7293, 0.7530, 0.7497, 0.7294,
        0.7519, 0.7293, 0.7515, 0.7353, 0.7372, 0.7337, 0.7304, 0.7492, 0.7309,
        0.7301, 0.7311, 0.7565, 0.7313, 0.7371, 0.7316, 0.7344, 0.7497, 0.7307,
        0.7304, 0.7497, 0.7502, 0.7313, 0.7295, 0.7310, 0.7491, 0.7576, 0.7500,
        0.7319, 0.7346, 0.7295, 0.7299, 0.7507, 0.7292, 0.7305, 0.7492, 0.7293,
        0.7529, 0.7293, 0.7493, 0.7492, 0.7293, 0.7503, 0.7301, 0.7297, 0.7297,
        0.7336, 0.7302, 0.7293, 0.7494, 0.7292, 0.7500, 0.7291, 0.7294, 0.7292,
        0.7494, 0.7497, 0.7293, 0.7519, 0.7309, 0.7306, 0.7491, 0.7304, 0.7291,
        0.7322, 0.7299, 0.7494, 0.7303, 0.7503, 0.7294, 0.7298, 0.7307, 0.7300,
        0.7495, 0.7292, 0.7292, 0.7298, 0.7565, 0.7378, 0.7306, 0.7577, 0.7490,
        0.7297, 0.7304, 0.7304, 0.7542, 0.7302, 0.7491, 0.7293, 0.7320, 0.7513,
        0.7495, 0.7530, 0.7293, 0.7294, 0.7498, 0.7316, 0.7303, 0.7531, 0.7495,
        0.7300, 0.7501, 0.7305, 0.7490, 0.7295, 0.7344, 0.7571, 0.7304])
mlp.net.3.batch_norm.bias tensor([-0.0078,  0.0123, -0.0100, -0.0137,  0.0142, -0.0103, -0.0085, -0.0081,
         0.0110, -0.0136,  0.0138, -0.0143,  0.0129, -0.0075, -0.0073,  0.0133,
         0.0136, -0.0059,  0.0068, -0.0137,  0.0137,  0.0132, -0.0141,  0.0142,
        -0.0127,  0.0131, -0.0060,  0.0088,  0.0060, -0.0132, -0.0142, -0.0140,
        -0.0064, -0.0056, -0.0063, -0.0123, -0.0100,  0.0137, -0.0131, -0.0057,
         0.0132, -0.0059,  0.0066, -0.0135,  0.0143,  0.0082, -0.0141, -0.0134,
         0.0099, -0.0062, -0.0081,  0.0108,  0.0130, -0.0133, -0.0065, -0.0133,
         0.0128,  0.0134,  0.0143, -0.0058, -0.0074, -0.0062,  0.0137, -0.0062,
        -0.0137, -0.0140,  0.0139, -0.0137, -0.0132,  0.0136,  0.0095, -0.0074,
         0.0131, -0.0140,  0.0128, -0.0058, -0.0096,  0.0130, -0.0143, -0.0094,
        -0.0082,  0.0063,  0.0128, -0.0142, -0.0064,  0.0087,  0.0135, -0.0063,
        -0.0114,  0.0140, -0.0129,  0.0056, -0.0069, -0.0129, -0.0059, -0.0143,
         0.0057,  0.0060, -0.0076, -0.0135,  0.0135, -0.0063, -0.0130,  0.0139,
         0.0136, -0.0130, -0.0138, -0.0105,  0.0136,  0.0137, -0.0136,  0.0086,
        -0.0123, -0.0087,  0.0137,  0.0067,  0.0097,  0.0055, -0.0068,  0.0141,
        -0.0138, -0.0142, -0.0134, -0.0079,  0.0057,  0.0132, -0.0128, -0.0102,
        -0.0094, -0.0136, -0.0064, -0.0139,  0.0125, -0.0126, -0.0056,  0.0134,
        -0.0123, -0.0132,  0.0137, -0.0141,  0.0076, -0.0104,  0.0115,  0.0131,
         0.0079, -0.0131, -0.0136, -0.0131, -0.0141, -0.0059, -0.0064,  0.0061,
         0.0072,  0.0062,  0.0138,  0.0128,  0.0101, -0.0137, -0.0098,  0.0143,
        -0.0109, -0.0124,  0.0115, -0.0132,  0.0137,  0.0096, -0.0128, -0.0083,
         0.0142,  0.0125, -0.0141, -0.0143,  0.0068, -0.0109,  0.0064, -0.0118,
        -0.0059, -0.0140,  0.0056,  0.0143, -0.0133,  0.0117, -0.0118,  0.0141,
        -0.0085,  0.0131, -0.0058, -0.0142, -0.0130, -0.0125, -0.0112,  0.0110,
         0.0133,  0.0127, -0.0140,  0.0141, -0.0132,  0.0057, -0.0117,  0.0057,
         0.0133,  0.0123,  0.0073,  0.0085,  0.0056,  0.0134, -0.0058, -0.0138,
        -0.0138,  0.0132,  0.0140,  0.0134,  0.0142, -0.0137,  0.0131,  0.0064,
         0.0134, -0.0059, -0.0128, -0.0117, -0.0075,  0.0071,  0.0084, -0.0057,
         0.0123,  0.0143, -0.0141,  0.0138,  0.0130,  0.0112, -0.0136, -0.0105,
         0.0114,  0.0123,  0.0057, -0.0138,  0.0070, -0.0127, -0.0141,  0.0057,
         0.0083, -0.0111,  0.0127, -0.0137,  0.0124, -0.0102, -0.0084, -0.0132,
         0.0060, -0.0057,  0.0128,  0.0133, -0.0062,  0.0134, -0.0135, -0.0132,
         0.0086, -0.0134, -0.0142, -0.0104,  0.0087,  0.0138, -0.0143, -0.0136,
        -0.0062,  0.0065,  0.0135, -0.0063, -0.0106,  0.0065,  0.0060, -0.0141,
        -0.0059, -0.0131, -0.0142,  0.0060,  0.0134,  0.0093,  0.0071, -0.0138,
         0.0140,  0.0101, -0.0075, -0.0133, -0.0065,  0.0096, -0.0131, -0.0130,
        -0.0095,  0.0143, -0.0133,  0.0112, -0.0059,  0.0063,  0.0142,  0.0065,
         0.0138,  0.0134, -0.0142,  0.0104, -0.0142,  0.0130, -0.0132,  0.0142,
        -0.0064, -0.0110,  0.0065,  0.0109, -0.0062,  0.0140,  0.0135, -0.0056,
        -0.0131, -0.0141,  0.0125, -0.0134,  0.0085,  0.0142,  0.0126,  0.0059,
         0.0143, -0.0074,  0.0140, -0.0074, -0.0063, -0.0133, -0.0139,  0.0142,
        -0.0138,  0.0099, -0.0108,  0.0104, -0.0068, -0.0132, -0.0142, -0.0061,
        -0.0138,  0.0063, -0.0068,  0.0139,  0.0141, -0.0092,  0.0072, -0.0133,
        -0.0119,  0.0106,  0.0128,  0.0100,  0.0133,  0.0108, -0.0060,  0.0143,
        -0.0114, -0.0122, -0.0135,  0.0131, -0.0136,  0.0064, -0.0142, -0.0074,
         0.0089, -0.0087, -0.0130,  0.0057, -0.0143,  0.0128, -0.0133, -0.0141,
        -0.0056, -0.0056,  0.0138,  0.0132,  0.0135,  0.0133,  0.0141, -0.0063,
        -0.0126,  0.0135,  0.0140,  0.0133,  0.0143, -0.0140,  0.0074, -0.0143,
         0.0098, -0.0143,  0.0131,  0.0132, -0.0130, -0.0065, -0.0142,  0.0141,
        -0.0130, -0.0095, -0.0124,  0.0143, -0.0062, -0.0143,  0.0127,  0.0136,
        -0.0072, -0.0060, -0.0143,  0.0138, -0.0142,  0.0093,  0.0121,  0.0129,
        -0.0057, -0.0132, -0.0119,  0.0137, -0.0061, -0.0110,  0.0112,  0.0130,
         0.0057, -0.0085,  0.0074,  0.0133,  0.0142, -0.0132,  0.0127,  0.0129,
         0.0063,  0.0076,  0.0107,  0.0140, -0.0128, -0.0112, -0.0139, -0.0058,
        -0.0141,  0.0133,  0.0141,  0.0084,  0.0135, -0.0119,  0.0138, -0.0058,
        -0.0070, -0.0131,  0.0094,  0.0059, -0.0084,  0.0142,  0.0140,  0.0127,
         0.0064,  0.0142, -0.0122,  0.0107,  0.0089,  0.0140, -0.0133,  0.0063,
        -0.0131, -0.0143, -0.0063,  0.0134, -0.0139,  0.0064, -0.0064, -0.0135,
         0.0084, -0.0066, -0.0135,  0.0142, -0.0088,  0.0143, -0.0123, -0.0129,
        -0.0133,  0.0057,  0.0129, -0.0126, -0.0128, -0.0078, -0.0130,  0.0123,
        -0.0142,  0.0060, -0.0136, -0.0143, -0.0138, -0.0102,  0.0141, -0.0140,
        -0.0139, -0.0141,  0.0073, -0.0056, -0.0143,  0.0108, -0.0057,  0.0143,
        -0.0068,  0.0132,  0.0143,  0.0141, -0.0107, -0.0138, -0.0137,  0.0131,
         0.0073,  0.0066,  0.0143,  0.0062, -0.0136,  0.0109,  0.0137, -0.0129])
mlp.net.3.batch_norm.running_mean tensor([0.1237, 0.1333, 0.1307, 0.1314, 0.1364, 0.1328, 0.1481, 0.1314, 0.1270,
        0.1346, 0.1357, 0.1297, 0.1279, 0.1296, 0.1330, 0.1460, 0.1427, 0.1173,
        0.1240, 0.1363, 0.1239, 0.1242, 0.1280, 0.1227, 0.1323, 0.1245, 0.1302,
        0.1271, 0.1358, 0.1300, 0.1277, 0.1306, 0.1301, 0.1421, 0.1324, 0.1355,
        0.1392, 0.1327, 0.1329, 0.1313, 0.1332, 0.1288, 0.1440, 0.1369, 0.1206,
        0.1313, 0.1339, 0.1233, 0.1344, 0.1297, 0.1345, 0.1283, 0.1292, 0.1337,
        0.1308, 0.1290, 0.1296, 0.1422, 0.1434, 0.1392, 0.1348, 0.1251, 0.1313,
        0.1295, 0.1363, 0.1328, 0.1334, 0.1392, 0.1342, 0.1474, 0.1352, 0.1307,
        0.1326, 0.1309, 0.1330, 0.1202, 0.1211, 0.1381, 0.1261, 0.1159, 0.1327,
        0.1295, 0.1397, 0.1305, 0.1409, 0.1390, 0.1299, 0.1387, 0.1320, 0.1250,
        0.1283, 0.1282, 0.1285, 0.1303, 0.1307, 0.1277, 0.1229, 0.1255, 0.1325,
        0.1344, 0.1393, 0.1351, 0.1264, 0.1300, 0.1375, 0.1412, 0.1285, 0.1429,
        0.1212, 0.1313, 0.1335, 0.1428, 0.1297, 0.1394, 0.1290, 0.1427, 0.1297,
        0.1355, 0.1366, 0.1323, 0.1270, 0.1260, 0.1259, 0.1311, 0.1261, 0.1390,
        0.1385, 0.1357, 0.1430, 0.1282, 0.1295, 0.1354, 0.1237, 0.1321, 0.1283,
        0.1315, 0.1235, 0.1381, 0.1393, 0.1366, 0.1290, 0.1357, 0.1545, 0.1271,
        0.1432, 0.1223, 0.1496, 0.1299, 0.1311, 0.1290, 0.1392, 0.1282, 0.1319,
        0.1399, 0.1377, 0.1470, 0.1329, 0.1408, 0.1310, 0.1246, 0.1387, 0.1341,
        0.1261, 0.1336, 0.1234, 0.1406, 0.1257, 0.1384, 0.1439, 0.1293, 0.1220,
        0.1270, 0.1337, 0.1381, 0.1357, 0.1296, 0.1270, 0.1313, 0.1231, 0.1365,
        0.1301, 0.1568, 0.1368, 0.1337, 0.1339, 0.1346, 0.1364, 0.1255, 0.1384,
        0.1321, 0.1320, 0.1411, 0.1408, 0.1390, 0.1257, 0.1289, 0.1389, 0.1472,
        0.1201, 0.1288, 0.1234, 0.1295, 0.1280, 0.1325, 0.1569, 0.1260, 0.1504,
        0.1312, 0.1399, 0.1353, 0.1210, 0.1301, 0.1337, 0.1231, 0.1357, 0.1299,
        0.1330, 0.1307, 0.1315, 0.1536, 0.1317, 0.1265, 0.1296, 0.1353, 0.1300,
        0.1299, 0.1221, 0.1471, 0.1329, 0.1458, 0.1432, 0.1326, 0.1334, 0.1368,
        0.1454, 0.1372, 0.1111, 0.1353, 0.1247, 0.1364, 0.1363, 0.1354, 0.1356,
        0.1302, 0.1365, 0.1254, 0.1353, 0.1283, 0.1349, 0.1382, 0.1417, 0.1317,
        0.1297, 0.1294, 0.1364, 0.1332, 0.1330, 0.1260, 0.1335, 0.1464, 0.1438,
        0.1354, 0.1479, 0.1417, 0.1285, 0.1499, 0.1289, 0.1337, 0.1240, 0.1336,
        0.1212, 0.1349, 0.1270, 0.1254, 0.1193, 0.1364, 0.1271, 0.1295, 0.1253,
        0.1315, 0.1189, 0.1325, 0.1255, 0.1344, 0.1402, 0.1509, 0.1395, 0.1237,
        0.1315, 0.1339, 0.1334, 0.1527, 0.1239, 0.1299, 0.1281, 0.1243, 0.1224,
        0.1392, 0.1403, 0.1310, 0.1281, 0.1322, 0.1247, 0.1302, 0.1274, 0.1293,
        0.1448, 0.1350, 0.1336, 0.1264, 0.1316, 0.1392, 0.1315, 0.1290, 0.1382,
        0.1338, 0.1278, 0.1348, 0.1273, 0.1250, 0.1355, 0.1296, 0.1160, 0.1305,
        0.1347, 0.1401, 0.1314, 0.1412, 0.1334, 0.1427, 0.1291, 0.1313, 0.1234,
        0.1243, 0.1295, 0.1313, 0.1302, 0.1309, 0.1287, 0.1228, 0.1376, 0.1194,
