Weights: 
embeddings.embeddings.0.weight tensor([[-0.6255, -0.2970],
        [ 0.4690, -0.4211],
        [ 0.5567, -0.4176],
        [-0.5510,  0.2658]])
embeddings.embeddings.1.weight tensor([[-0.2872,  0.6181],
        [-0.4619, -0.2774],
        [ 0.1948, -0.6354],
        [-0.6102,  0.4303],
        [ 0.1206, -0.0467]])
embeddings.embeddings.2.weight tensor([[-0.0965, -0.1641, -0.0260],
        [ 0.1051, -0.1020, -0.0533],
        [-0.3939, -0.4561, -0.0640],
        [ 0.4372,  0.4499,  0.3800],
        [-0.3412, -0.0404,  0.3115],
        [ 0.0173, -0.2199,  0.4558]])
embeddings.embeddings.3.weight tensor([[ 0.1618,  0.4832],
        [-0.0891,  0.3849],
        [-0.1878, -0.5003],
        [-0.6118,  0.1649]])
embeddings.embeddings.4.weight tensor([[ 0.4216, -0.2591],
        [ 0.0932, -0.1695],
        [ 0.3899, -0.4613],
        [-0.2863,  0.3863]])
mlp.net.0.linear.weight tensor([[ 0.2165,  0.1190, -0.1422,  ..., -0.1210, -0.1683, -0.2529],
        [ 0.1673, -0.0432, -0.3258,  ...,  0.3931, -0.0099, -0.2276],
        [-0.0097,  0.8359,  0.3091,  ..., -0.6411,  0.5310, -0.1726],
        ...,
        [-0.3009, -0.0452, -0.5808,  ...,  0.0489,  0.1400, -0.2830],
        [-0.4224, -0.1526, -0.2429,  ...,  0.2303, -0.1501,  0.6109],
        [ 0.2743,  0.1333,  0.0616,  ...,  0.0758, -0.0068, -0.2188]])
mlp.net.0.linear.bias tensor([ 2.0269e-02,  7.1520e-03, -9.9223e-02, -1.0834e-01,  1.0078e-01,
         1.7503e-01,  2.2198e-01, -4.6933e-02, -1.2499e-01,  3.7480e-02,
        -5.7982e-02, -2.1062e-01, -1.2102e-01, -1.3450e-01,  2.1739e-01,
        -1.0320e-01,  1.3905e-01,  2.2434e-02, -1.8379e-01, -1.4042e-01,
        -1.7919e-01, -1.3317e-01, -1.9725e-01, -1.2861e-01, -1.5659e-01,
        -5.6268e-02, -1.2694e-01, -2.0045e-01,  1.1892e-01, -1.0651e-01,
         9.7988e-02,  1.4598e-01,  1.2634e-01, -1.4252e-01, -1.1997e-01,
        -1.2683e-02,  1.2478e-01, -1.6097e-01,  1.2970e-02, -1.6794e-01,
        -1.2279e-01, -1.5778e-01,  5.1891e-02,  9.4514e-02, -6.6485e-03,
         7.7131e-02, -1.9967e-01, -8.6094e-03,  1.3983e-01,  2.1403e-02,
         1.5630e-01, -5.4539e-02,  1.2156e-01, -2.0544e-01,  3.0811e-02,
         5.0365e-02, -1.4364e-01,  1.7473e-01, -1.2032e-01, -1.8235e-01,
         3.7820e-02,  2.2097e-01, -1.2834e-01,  2.1404e-04, -2.0437e-01,
         7.8326e-02,  4.0416e-02, -1.8269e-01, -1.3623e-01,  1.2392e-01,
        -6.7981e-02,  1.8338e-01,  1.8459e-01,  1.7318e-01, -2.7673e-02,
        -2.0119e-01,  2.0376e-01, -4.3245e-02, -1.2109e-01,  2.7950e-02,
         8.9561e-02,  1.1213e-01, -9.7499e-02, -1.1230e-01, -1.8287e-01,
        -3.2747e-02, -7.8697e-02, -1.8641e-01, -8.0688e-02,  1.8086e-02,
        -8.4520e-02, -1.5967e-01,  1.2807e-01,  9.7252e-02, -3.8574e-02,
         1.8942e-01, -1.8754e-02, -4.8345e-02, -1.1577e-01, -2.2079e-01,
        -2.2491e-01, -8.7698e-02,  1.6475e-01,  2.0488e-01,  6.9348e-02,
        -5.3748e-02,  1.1861e-01, -1.5015e-01, -1.6128e-01, -4.1518e-02,
         2.0966e-01,  3.3268e-02, -1.5041e-01,  1.2973e-01,  1.6057e-01,
        -2.2293e-01,  2.0466e-01, -1.7173e-01,  1.1915e-01,  1.5431e-01,
        -1.9010e-01, -5.7266e-02, -1.2500e-01, -4.1151e-02, -1.0569e-01,
         1.8434e-01,  3.7864e-02, -1.8417e-01,  1.5593e-01, -1.7950e-02,
        -4.9593e-02, -8.3039e-02,  1.7498e-01, -1.2856e-01, -1.6359e-01,
         7.4035e-02,  1.2536e-01,  1.8677e-01, -4.3820e-02, -9.7673e-02,
        -1.3352e-01,  2.0427e-01,  1.4828e-01, -8.6223e-02,  7.5216e-02,
        -6.1303e-02,  2.3498e-02,  1.8289e-01, -8.7001e-02,  9.4424e-02,
         1.0945e-01, -1.8807e-02,  1.9494e-02, -2.2112e-01, -3.9897e-02,
        -4.7609e-02, -2.2802e-03, -8.2171e-02, -1.4517e-01,  2.0952e-01,
         6.5802e-03, -1.5162e-01,  1.0104e-01,  1.4887e-01, -5.6671e-02,
        -4.1514e-02, -3.2214e-02,  2.7641e-02,  9.7523e-02,  9.3682e-02,
        -6.5898e-02,  1.1378e-02,  1.1713e-01, -8.6815e-02, -6.5626e-02,
         9.1920e-02, -1.5177e-01, -1.1921e-01,  1.8101e-01,  1.0818e-01,
        -1.7313e-02,  1.7171e-02,  7.5537e-03, -1.0075e-01,  1.3893e-01,
        -1.4524e-01,  1.7235e-01, -4.8683e-02, -6.5302e-02, -6.9341e-02,
        -1.2302e-02,  6.7370e-02, -2.3738e-03,  1.9260e-01, -1.6607e-01,
         5.7885e-03,  1.6155e-01, -6.2598e-02, -3.5566e-02, -3.5028e-02,
         2.8208e-03, -1.8694e-02, -1.7793e-01,  1.1277e-01, -1.3132e-01,
         7.4996e-03,  6.3441e-02, -7.4842e-02, -1.4822e-02,  7.4003e-02,
        -8.3357e-02,  1.0323e-01,  2.1462e-01, -5.4359e-02,  1.8162e-01,
        -1.8734e-01,  1.5431e-01, -2.5000e-02, -3.2318e-02,  7.1198e-02,
        -6.6600e-02,  1.6551e-01, -8.4230e-02, -1.5144e-01,  8.0779e-02,
         7.4228e-02, -1.6833e-01, -2.2059e-01,  4.5638e-02, -9.2385e-02,
         1.4840e-01,  1.7522e-01, -1.7665e-01,  1.1802e-01,  8.1203e-02,
         3.7960e-02,  1.8276e-01, -1.8095e-01, -7.4290e-02, -4.2537e-02,
        -1.5833e-01,  1.6786e-01,  9.7753e-02,  1.2841e-01, -1.5210e-01,
         4.6134e-02,  3.7602e-02,  1.1699e-01,  2.1750e-01,  1.5256e-01,
         1.8915e-01,  1.5494e-01, -1.6290e-01, -4.2324e-03, -1.7038e-02,
        -1.5184e-01, -1.4297e-01,  5.0498e-02, -3.2330e-02, -4.9057e-02,
        -2.1103e-01,  6.7979e-02, -2.1407e-01,  3.2959e-04, -4.9942e-02,
         4.7865e-02,  2.1045e-01,  1.8317e-01,  5.5822e-02, -8.0011e-02,
        -2.0872e-01,  3.4757e-02,  2.0542e-01,  8.6629e-02,  2.0691e-01,
        -4.2164e-02, -1.7599e-01,  8.2338e-02, -2.1473e-01,  1.1489e-01,
         1.9610e-01,  1.2262e-01, -3.0803e-02, -1.1691e-01,  8.9857e-02,
         1.2935e-01, -1.9141e-01, -1.0136e-01, -9.8102e-02,  2.4280e-02,
        -9.2978e-02,  3.2423e-02,  1.3516e-01, -4.9984e-02,  5.5086e-02,
         1.4448e-01,  1.7645e-01, -2.4304e-02,  1.9233e-01, -1.4444e-01,
         5.3339e-02, -1.2707e-01,  8.9026e-02, -1.2793e-02, -1.2627e-01,
         2.5545e-02,  1.1011e-01,  1.2470e-01, -1.6851e-01, -1.6022e-01,
        -3.6183e-02, -1.9911e-01,  1.5829e-01,  1.7629e-01, -9.3663e-02,
        -1.7819e-01, -1.4253e-01,  1.4278e-01,  1.1868e-01, -1.4222e-01,
         1.7718e-01, -1.7241e-01, -1.2097e-01,  1.8274e-02, -6.8342e-02,
         1.6162e-01, -2.1323e-02,  2.0512e-01,  2.1145e-01, -2.1416e-01,
         3.5182e-02,  1.7736e-01,  1.6380e-01, -7.6036e-02, -1.2541e-01,
         1.7786e-01, -1.6633e-01,  1.3763e-01,  4.0633e-02,  2.0406e-01,
         1.5389e-03,  8.6868e-02,  1.7983e-01,  3.6817e-03,  1.4402e-01,
        -1.1787e-01,  1.4739e-01,  2.0954e-01,  1.2834e-01,  1.6941e-01,
         1.1093e-01, -1.0009e-01, -2.8779e-02, -1.4045e-01,  1.8360e-01,
        -1.5859e-01, -1.9381e-01,  8.6324e-03,  8.6422e-02, -1.1882e-01,
         5.0942e-02,  1.6983e-01, -1.3719e-01, -1.0181e-01,  3.7302e-02,
         1.2056e-01, -4.9864e-02, -1.4425e-01,  4.7516e-02, -9.6295e-02,
         9.5963e-02,  1.6425e-02,  1.1690e-01,  1.2548e-01,  1.3350e-01,
        -1.5774e-01, -1.4106e-01,  1.7912e-01, -6.0297e-02,  8.6401e-02,
        -5.6810e-02,  7.2314e-02, -1.6131e-02,  6.9518e-02, -7.4580e-02,
        -5.5465e-02,  2.4542e-02,  3.8180e-02,  9.0834e-02, -1.8840e-01,
        -1.6435e-01, -9.4678e-02,  2.9284e-02, -1.6220e-01, -1.7500e-01,
        -2.4347e-02,  1.9189e-01, -1.8516e-01, -1.8264e-01,  1.0160e-01,
         2.0568e-01, -8.0400e-02,  1.9246e-01,  1.7625e-01, -1.6317e-01,
         4.0611e-02,  1.8789e-01,  1.7494e-01, -1.5959e-01,  1.8067e-01,
        -8.1288e-02,  1.5895e-01,  1.6424e-01, -1.8939e-01, -6.6092e-02,
         7.2591e-02,  9.6780e-02, -2.1065e-01,  8.9989e-02, -5.8837e-02,
         1.3250e-01, -3.6577e-02, -1.9822e-03, -7.2615e-02, -2.1052e-02,
        -4.1661e-02, -2.1046e-01, -1.9004e-01, -5.6179e-03, -1.9797e-02,
         2.1689e-01, -1.1552e-01,  2.3922e-02,  2.1286e-01,  1.6548e-01,
         1.1081e-01, -1.7304e-01, -1.6482e-01,  3.9850e-03,  1.0392e-01,
        -3.3588e-02,  1.1160e-01,  1.6156e-01, -8.1887e-02,  7.2101e-02,
         1.8996e-01,  5.4635e-02,  1.9235e-01,  1.5992e-01, -2.1305e-01,
         8.6016e-02,  2.0683e-01, -3.5755e-02,  1.3456e-01, -7.2062e-02,
         1.3738e-01, -1.1006e-02,  1.8739e-01,  2.1873e-01,  1.3241e-01,
        -9.8296e-02,  5.8105e-02,  7.5112e-02,  7.1256e-02, -2.2415e-01,
         2.1857e-01,  1.9262e-01,  5.7699e-02,  6.6811e-02,  4.0465e-02,
         1.1408e-01, -1.1949e-01,  1.9451e-01, -5.6265e-02,  4.9039e-04,
         5.2988e-03, -2.2125e-01,  1.0106e-01,  6.7074e-03, -6.0495e-02,
        -2.1125e-01,  1.4917e-01,  1.7447e-02, -5.6210e-02, -1.4989e-01,
         6.7673e-02,  1.9450e-01,  2.0181e-01, -6.7758e-02,  2.1798e-01,
         1.8804e-02, -1.8370e-01,  9.6859e-02,  6.5129e-02,  9.2485e-02,
        -5.5948e-03,  2.4661e-02,  1.4423e-02, -2.2103e-01, -8.8537e-02,
         2.0138e-01, -9.6651e-02,  1.0900e-01, -2.2007e-01, -1.4960e-01,
        -1.4980e-02, -2.0667e-01, -1.5331e-01,  8.7227e-02,  1.7858e-01,
         5.7356e-02,  1.1303e-01])
mlp.net.0.batch_norm.weight tensor([0.9578, 0.9513, 0.9582, 0.9619, 0.9589, 0.9641, 0.9612, 0.9649, 0.9563,
        0.9625, 0.9693, 0.9640, 0.9612, 0.9606, 0.9607, 0.9629, 0.9579, 0.9626,
        0.9646, 0.9565, 0.9698, 0.9595, 0.9560, 0.9533, 0.9591, 0.9637, 0.9558,
        0.9565, 0.9601, 0.9506, 0.9649, 0.9557, 0.9568, 0.9633, 0.9607, 0.9573,
        0.9626, 0.9581, 0.9626, 0.9560, 0.9569, 0.9600, 0.9588, 0.9607, 0.9651,
        0.9582, 0.9566, 0.9626, 0.9639, 0.9507, 0.9638, 0.9623, 0.9587, 0.9557,
        0.9594, 0.9503, 0.9567, 0.9619, 0.9605, 0.9555, 0.9637, 0.9637, 0.9610,
        0.9603, 0.9552, 0.9582, 0.9517, 0.9608, 0.9629, 0.9598, 0.9589, 0.9644,
        0.9527, 0.9583, 0.9623, 0.9676, 0.9575, 0.9606, 0.9595, 0.9634, 0.9620,
        0.9640, 0.9557, 0.9578, 0.9592, 0.9675, 0.9571, 0.9534, 0.9652, 0.9637,
        0.9690, 0.9606, 0.9612, 0.9661, 0.9687, 0.9596, 0.9624, 0.9565, 0.9643,
        0.9625, 0.9699, 0.9621, 0.9590, 0.9596, 0.9630, 0.9642, 0.9602, 0.9549,
        0.9610, 0.9679, 0.9616, 0.9606, 0.9606, 0.9683, 0.9603, 0.9612, 0.9594,
        0.9606, 0.9593, 0.9681, 0.9524, 0.9558, 0.9576, 0.9619, 0.9650, 0.9607,
        0.9604, 0.9609, 0.9657, 0.9579, 0.9631, 0.9607, 0.9588, 0.9600, 0.9650,
        0.9629, 0.9698, 0.9599, 0.9536, 0.9493, 0.9673, 0.9598, 0.9667, 0.9620,
        0.9556, 0.9518, 0.9541, 0.9615, 0.9598, 0.9663, 0.9546, 0.9601, 0.9684,
        0.9590, 0.9557, 0.9694, 0.9556, 0.9583, 0.9648, 0.9693, 0.9625, 0.9639,
        0.9598, 0.9600, 0.9656, 0.9611, 0.9582, 0.9634, 0.9650, 0.9623, 0.9610,
        0.9570, 0.9611, 0.9594, 0.9634, 0.9697, 0.9603, 0.9611, 0.9564, 0.9669,
        0.9651, 0.9617, 0.9627, 0.9640, 0.9657, 0.9601, 0.9610, 0.9719, 0.9628,
        0.9621, 0.9504, 0.9655, 0.9568, 0.9617, 0.9620, 0.9610, 0.9601, 0.9663,
        0.9665, 0.9503, 0.9625, 0.9584, 0.9642, 0.9550, 0.9616, 0.9623, 0.9601,
        0.9713, 0.9615, 0.9540, 0.9586, 0.9594, 0.9632, 0.9558, 0.9623, 0.9600,
        0.9581, 0.9601, 0.9580, 0.9699, 0.9615, 0.9653, 0.9621, 0.9666, 0.9600,
        0.9606, 0.9582, 0.9592, 0.9656, 0.9613, 0.9638, 0.9583, 0.9594, 0.9614,
        0.9690, 0.9570, 0.9610, 0.9573, 0.9584, 0.9574, 0.9643, 0.9636, 0.9583,
        0.9558, 0.9607, 0.9563, 0.9692, 0.9639, 0.9535, 0.9642, 0.9652, 0.9556,
        0.9580, 0.9661, 0.9627, 0.9519, 0.9586, 0.9637, 0.9585, 0.9605, 0.9640,
        0.9633, 0.9604, 0.9639, 0.9655, 0.9624, 0.9631, 0.9656, 0.9593, 0.9676,
        0.9533, 0.9605, 0.9572, 0.9558, 0.9556, 0.9638, 0.9660, 0.9608, 0.9628,
        0.9652, 0.9573, 0.9611, 0.9579, 0.9691, 0.9590, 0.9578, 0.9596, 0.9584,
        0.9603, 0.9689, 0.9617, 0.9560, 0.9627, 0.9624, 0.9595, 0.9631, 0.9617,
        0.9642, 0.9570, 0.9705, 0.9563, 0.9678, 0.9626, 0.9678, 0.9664, 0.9621,
        0.9625, 0.9573, 0.9636, 0.9662, 0.9552, 0.9622, 0.9587, 0.9656, 0.9613,
        0.9614, 0.9661, 0.9628, 0.9580, 0.9600, 0.9624, 0.9638, 0.9678, 0.9617,
        0.9589, 0.9555, 0.9517, 0.9673, 0.9577, 0.9631, 0.9653, 0.9605, 0.9637,
        0.9577, 0.9677, 0.9638, 0.9545, 0.9588, 0.9612, 0.9571, 0.9549, 0.9565,
        0.9575, 0.9626, 0.9597, 0.9574, 0.9612, 0.9628, 0.9606, 0.9531, 0.9599,
        0.9566, 0.9576, 0.9653, 0.9572, 0.9621, 0.9676, 0.9599, 0.9661, 0.9645,
        0.9582, 0.9599, 0.9626, 0.9607, 0.9605, 0.9608, 0.9586, 0.9688, 0.9623,
        0.9605, 0.9669, 0.9592, 0.9610, 0.9645, 0.9562, 0.9587, 0.9593, 0.9654,
        0.9594, 0.9542, 0.9676, 0.9590, 0.9549, 0.9630, 0.9566, 0.9619, 0.9556,
        0.9608, 0.9608, 0.9641, 0.9581, 0.9569, 0.9644, 0.9594, 0.9614, 0.9629,
        0.9646, 0.9575, 0.9574, 0.9637, 0.9500, 0.9633, 0.9654, 0.9729, 0.9576,
        0.9613, 0.9700, 0.9613, 0.9600, 0.9553, 0.9555, 0.9606, 0.9643, 0.9663,
        0.9625, 0.9675, 0.9605, 0.9631, 0.9586, 0.9525, 0.9643, 0.9577, 0.9619,
        0.9617, 0.9598, 0.9587, 0.9637, 0.9549, 0.9603, 0.9550, 0.9551, 0.9574,
        0.9583, 0.9528, 0.9570, 0.9636, 0.9605, 0.9574, 0.9589, 0.9618, 0.9654,
        0.9583, 0.9596, 0.9570, 0.9588, 0.9627, 0.9619, 0.9675, 0.9648, 0.9635,
        0.9672, 0.9654, 0.9559, 0.9571, 0.9670, 0.9619, 0.9567, 0.9609, 0.9640,
        0.9655, 0.9536, 0.9505, 0.9497, 0.9643, 0.9483, 0.9614, 0.9584, 0.9589,
        0.9571, 0.9652, 0.9534, 0.9657, 0.9666, 0.9613, 0.9557, 0.9567, 0.9630,
        0.9614, 0.9555, 0.9597, 0.9617, 0.9689, 0.9638, 0.9622, 0.9637, 0.9597,
        0.9589, 0.9591, 0.9712, 0.9652, 0.9588, 0.9553, 0.9616, 0.9701, 0.9596,
        0.9681, 0.9639, 0.9601, 0.9654, 0.9598, 0.9613, 0.9619, 0.9599, 0.9690,
        0.9598, 0.9685, 0.9687, 0.9668, 0.9606, 0.9594, 0.9586, 0.9582])
mlp.net.0.batch_norm.bias tensor([-9.3825e-03, -1.6087e-03,  9.9463e-04, -1.1947e-03, -5.6742e-03,
        -5.0540e-03, -4.7601e-03, -2.6016e-03,  6.4782e-03,  1.8449e-03,
        -1.0477e-02,  2.6884e-04,  5.1277e-03,  1.5960e-03,  8.7954e-04,
         1.5907e-03, -4.7630e-03, -4.9639e-04,  2.0694e-03, -1.3979e-03,
        -1.5357e-03,  2.2471e-03, -2.3824e-03,  1.0087e-02,  9.9896e-03,
         4.0802e-03,  4.1481e-03,  1.4970e-03, -2.5360e-03, -1.3765e-03,
         3.4039e-03,  1.8266e-03, -2.0806e-03, -2.7076e-03, -2.3875e-03,
        -2.0702e-03,  5.0129e-03, -4.2042e-03,  1.8089e-03, -6.5132e-03,
         7.8611e-03,  5.3769e-03,  3.1086e-03,  1.9655e-03, -1.7386e-03,
         5.1884e-03, -2.5360e-03,  4.6567e-03,  5.5884e-03, -3.7390e-03,
         3.5083e-04, -1.3227e-03,  1.5225e-03, -2.8478e-03,  1.0340e-03,
         2.6147e-03, -4.9529e-03,  2.8442e-03, -1.6639e-03, -1.5789e-03,
        -2.1793e-03, -3.7570e-03,  5.8873e-04,  3.6743e-03,  6.2107e-03,
        -1.0350e-03, -5.6400e-05, -3.6007e-04, -1.3786e-03, -1.3854e-03,
        -8.4963e-04, -2.3789e-04,  3.2487e-04,  2.1644e-03, -3.9482e-03,
         1.6089e-03,  1.4803e-03,  2.5309e-03, -2.5296e-03, -4.2871e-03,
        -8.3833e-03,  3.9671e-03,  3.5333e-03,  1.5540e-03,  1.5605e-03,
        -4.8754e-03, -6.0578e-03, -1.3735e-03, -4.0560e-03,  4.7920e-03,
        -1.1203e-03, -2.3630e-03, -3.1229e-03, -1.9643e-03, -1.2050e-03,
         1.2751e-03,  4.3455e-03, -1.6950e-03,  5.5684e-03,  1.7429e-03,
        -9.4036e-03,  2.8507e-03,  3.3810e-03, -7.3733e-03,  1.0462e-02,
        -2.1017e-03,  3.3082e-03,  1.2678e-03,  1.3643e-03, -3.9026e-03,
        -7.4100e-03,  4.9390e-04, -6.0379e-03,  4.7046e-03, -2.0077e-03,
        -1.3524e-03,  4.4247e-03,  2.9384e-03,  4.0471e-03, -1.0085e-03,
         2.8680e-03,  4.4689e-05, -1.8865e-03,  6.1564e-03, -6.8995e-03,
         5.7936e-03,  9.6444e-04, -6.1794e-04, -3.2579e-03,  6.1390e-04,
        -4.5376e-03, -4.9936e-04,  3.5810e-03,  4.9240e-03,  4.6852e-03,
         9.0547e-04, -1.1227e-03,  5.1511e-03,  2.4606e-03,  5.6092e-03,
        -6.3754e-03, -6.7424e-04,  6.3741e-05,  2.4912e-03,  4.9513e-03,
        -1.8901e-04, -5.8396e-03,  1.1835e-03,  2.5191e-03,  1.5844e-03,
         5.2838e-03,  2.7040e-03,  3.7401e-03, -5.0901e-03,  5.1044e-03,
         3.1208e-03,  9.7792e-04, -4.8769e-03,  3.3296e-03,  3.7933e-03,
        -3.4894e-03,  5.3828e-04,  1.4723e-03,  5.3691e-04, -6.7911e-03,
        -3.9952e-04,  3.6717e-03, -7.1629e-03, -1.0364e-04,  6.0118e-03,
         8.9903e-04,  8.0604e-04, -5.3707e-03,  3.5517e-03,  3.5445e-03,
        -3.5818e-03, -3.6302e-03, -2.4912e-03,  1.0006e-04, -8.2384e-03,
        -7.4245e-03,  2.6324e-03, -6.5915e-03, -4.8775e-03, -1.5275e-03,
         1.6486e-03, -3.2868e-04,  1.6851e-04,  3.6387e-03, -7.8024e-03,
        -4.2493e-03, -5.0543e-03,  1.5709e-03, -1.1546e-02,  9.8804e-04,
         5.9409e-03, -2.1083e-03, -3.1228e-03,  9.7780e-03, -4.8714e-03,
         2.4368e-03, -2.7377e-03, -5.3312e-03, -6.6552e-03,  3.2374e-04,
        -7.4283e-03,  3.7412e-04,  2.4225e-03, -7.8550e-04,  2.0433e-03,
        -6.8648e-04,  8.0494e-04, -8.7669e-03,  7.9506e-03, -2.6110e-03,
        -7.8076e-04, -4.9908e-03, -3.4495e-03,  5.9945e-03,  5.0015e-03,
         3.8478e-03, -4.8575e-03,  5.9654e-03,  6.2463e-03,  4.3736e-03,
         3.1122e-03,  7.0152e-03, -4.5876e-04, -3.1440e-03, -2.7601e-03,
        -4.2331e-03,  1.3653e-03,  5.0620e-03,  4.5752e-03,  5.7603e-03,
        -9.6036e-03, -8.3991e-03,  2.3014e-03,  1.2525e-03, -1.1111e-03,
         2.7407e-03,  1.2260e-04,  1.3024e-03, -1.2934e-03, -7.2633e-04,
         1.5989e-03,  4.1254e-03, -2.3095e-03, -1.8098e-03,  4.4016e-03,
        -1.6148e-03, -3.4685e-03,  5.2937e-03, -1.9598e-03, -1.2469e-03,
         4.6497e-04,  1.8508e-04, -5.0280e-03, -2.7183e-03,  1.0496e-03,
         1.4074e-03, -3.5655e-03, -6.8027e-04,  2.9898e-03,  5.7172e-03,
         4.6392e-03,  2.7121e-03,  3.2503e-03,  6.0757e-03,  1.7923e-03,
         3.5661e-03, -1.5432e-03,  3.5989e-03,  4.2397e-04, -4.8819e-03,
        -7.5304e-04,  1.8000e-03,  1.3994e-03,  2.5476e-03, -5.9226e-03,
         1.8454e-03,  3.7971e-04, -9.2057e-05,  9.0349e-04,  8.8642e-04,
         1.3023e-03,  4.6818e-03,  4.7453e-03,  2.1779e-03, -1.1629e-03,
        -7.3643e-03, -6.6178e-03,  2.3169e-03,  5.4012e-03,  1.6432e-03,
        -6.5660e-03, -1.6780e-03,  2.8252e-04,  1.1561e-02, -4.9404e-04,
         1.4194e-02,  1.6951e-03,  4.4323e-03,  6.0457e-03, -4.4654e-03,
        -3.6079e-03,  2.8628e-03, -1.1667e-03, -2.3616e-04,  2.6840e-03,
         6.8754e-03,  5.1942e-04,  2.8151e-03,  5.9710e-03,  3.2933e-03,
         2.1578e-05, -8.2474e-04, -1.1420e-03,  6.2263e-03,  6.8622e-03,
        -3.3692e-03, -1.8820e-03, -5.7801e-03, -3.6739e-03, -7.0025e-03,
        -2.8944e-03,  3.9381e-03, -1.9316e-03, -1.6864e-03, -1.6022e-03,
         1.3128e-04, -8.1747e-03,  3.4148e-03, -1.2582e-02,  2.6389e-03,
        -1.0312e-03,  6.7379e-03, -9.2429e-04, -3.9472e-03, -1.4421e-03,
         1.9940e-03,  2.9207e-05, -1.0373e-03, -4.6966e-04, -2.1853e-03,
         2.6600e-04,  4.1838e-03, -1.0576e-02, -4.4237e-03, -5.8508e-05,
         2.5822e-03,  2.4047e-03,  2.1573e-03, -3.8051e-03, -1.9962e-03,
        -1.0507e-02,  3.4021e-03, -7.1463e-04,  5.3192e-03, -7.2412e-03,
         5.5462e-03,  1.0268e-03, -2.9874e-04,  9.4026e-04,  7.4379e-04,
         2.9189e-03, -1.4677e-03, -8.0241e-03, -9.1248e-03, -2.2506e-03,
         1.8199e-03,  6.3368e-04,  3.7001e-03,  5.5997e-03,  1.0328e-02,
        -6.6933e-03,  4.0277e-03,  4.5018e-03, -1.2380e-03, -6.0037e-04,
         1.5475e-03, -2.7604e-03,  7.9302e-03, -2.4451e-03,  2.4761e-03,
         3.9644e-03, -5.2109e-03,  5.7517e-03, -4.9200e-03, -7.6831e-03,
        -4.7079e-03, -3.1223e-03,  2.7194e-03, -2.0911e-03, -1.1270e-03,
        -5.9061e-03,  2.9744e-03,  2.4237e-04, -3.2330e-03,  8.6492e-03,
         7.3252e-03, -1.7839e-03, -7.7421e-03, -4.5892e-03, -4.0487e-03,
        -2.3086e-04, -6.3405e-03, -5.0560e-03, -2.0655e-03,  4.8224e-03,
         4.0510e-03,  4.0268e-04, -4.3290e-03,  1.6755e-03, -2.3419e-03,
         1.0661e-03, -2.1828e-03,  2.0053e-03,  2.9926e-03,  8.2494e-03,
        -8.5057e-04, -1.2687e-04,  1.9269e-03, -2.4822e-03, -6.0211e-04,
         3.0899e-03,  5.5728e-03, -8.3348e-03,  5.0902e-04, -5.3205e-03,
         1.9238e-03, -1.8645e-03, -2.8458e-03,  1.1510e-03, -2.9061e-03,
        -5.7128e-04,  1.9797e-03,  4.1808e-03,  2.9021e-03, -4.8305e-03,
         3.1888e-03, -2.6417e-03,  6.7516e-03, -1.5597e-03, -9.8310e-04,
         8.0353e-03, -1.0666e-02, -6.7343e-04, -4.2811e-03,  2.7072e-03,
         2.7849e-04, -6.1000e-03,  4.7770e-03, -1.9638e-03,  7.9837e-03,
        -4.6896e-03,  4.5396e-03, -6.4233e-03, -6.2955e-04, -5.2742e-03,
        -3.9883e-03,  4.5523e-03,  1.9145e-03, -1.9403e-03,  2.4959e-03,
         5.4252e-03, -2.0172e-03, -7.3872e-03,  2.4835e-03,  1.4052e-03,
        -1.6560e-03,  7.6426e-03,  6.4194e-03, -1.2545e-04,  5.2280e-03,
        -1.8779e-05, -5.9034e-03, -1.3985e-03, -5.8645e-03, -8.4828e-04,
        -8.3681e-06, -2.8827e-03, -2.2252e-03, -7.6222e-05,  4.9877e-03,
         1.7113e-03,  1.8703e-04,  5.8598e-03,  1.3722e-03, -2.1402e-03,
         1.0842e-02, -7.7624e-05, -5.0236e-04, -1.0336e-03, -4.4596e-03,
         4.3306e-03,  1.2478e-03, -2.8410e-03, -6.1847e-03, -1.5433e-03,
         3.4228e-03,  3.4952e-03,  2.9721e-03, -8.1782e-03, -4.9689e-03,
        -7.1275e-03, -2.5929e-03, -1.0403e-03, -3.9541e-03,  9.0696e-04,
        -1.6107e-03,  2.5530e-03])
mlp.net.0.batch_norm.running_mean tensor([3.1991e-01, 7.5375e-02, 1.9515e-01, 1.9546e-01, 6.0209e-02, 4.1723e-02,
        2.7618e-01, 3.7749e-02, 8.1916e-01, 9.0066e-01, 2.8035e-02, 6.5847e-02,
        3.5667e-02, 2.8188e-01, 1.4656e-01, 1.5518e-01, 1.2155e+00, 2.3549e-01,
        6.2272e-02, 7.7091e-09, 7.6347e-03, 1.9462e-02, 6.6913e-02, 2.4457e-01,
        4.5352e-01, 7.8435e-03, 1.3255e-03, 1.3901e+00, 6.7324e-01, 2.4120e-01,
        4.6742e-01, 5.4324e-01, 3.6484e-02, 3.7110e-01, 5.6858e-03, 1.3349e+00,
        9.4473e-02, 3.0533e-02, 1.5226e-01, 2.4268e-02, 2.9717e-01, 3.4682e-03,
        5.9306e-02, 7.4647e-01, 1.8769e-02, 2.4959e-01, 4.6413e-01, 5.0046e-01,
        1.8622e-01, 3.7583e-03, 4.3616e-02, 9.2818e-01, 3.2731e-01, 1.3796e-01,
        3.2881e-02, 1.1679e+00, 1.6472e-01, 4.3548e-01, 1.2341e+00, 1.8356e-01,
        7.3416e-01, 6.2605e-01, 7.7527e-02, 2.8842e-01, 2.1392e-02, 2.4711e-01,
        1.5771e-01, 1.1032e-01, 2.3782e-03, 2.1087e-01, 3.2917e-03, 1.0701e-01,
        6.3707e-01, 1.0844e-01, 2.8096e-01, 1.8078e-01, 2.2255e-01, 0.0000e+00,
        4.1396e-01, 2.8373e-01, 3.6515e-01, 4.8329e-01, 6.0356e-02, 3.4131e-01,
        1.0871e-03, 7.9192e-03, 5.7517e-01, 9.8219e-02, 5.5113e-04, 5.2469e-03,
        6.5076e-03, 0.0000e+00, 5.3347e-01, 4.1204e-01, 3.0900e-03, 5.2385e-01,
        1.8741e-02, 3.5262e-02, 2.2597e-02, 5.0104e-04, 1.7102e-03, 4.5752e-02,
        8.3086e-02, 5.4410e-01, 1.9935e-02, 1.7624e-04, 1.0456e-01, 1.7886e-01,
        1.2449e-02, 5.5751e-04, 6.5856e-01, 8.6345e-03, 0.0000e+00, 3.4271e-01,
        3.8237e-01, 5.1050e-01, 2.3371e-01, 4.0170e-02, 5.3710e-02, 4.8835e-02,
        2.1507e-01, 3.3662e-01, 2.7881e-02, 1.1273e+00, 5.9879e-01, 1.0248e-01,
        4.8039e-01, 1.1552e-01, 9.3666e-02, 6.1790e-01, 3.5082e-04, 5.7063e-01,
        5.1475e-02, 2.1379e-02, 3.8472e-01, 3.8415e-02, 5.6987e-01, 2.2631e-01,
        4.5403e-02, 8.6980e-02, 1.4807e-02, 3.8870e-01, 3.7379e-01, 4.3140e-02,
        3.0611e-02, 1.7782e-01, 1.8365e-01, 1.0772e-01, 3.6036e-01, 1.8290e-01,
        1.0745e+00, 2.0000e-01, 2.7977e-02, 3.5776e-01, 2.8662e-01, 2.7476e-04,
        4.6971e-02, 1.4606e-01, 7.5435e-01, 2.6025e-01, 6.9029e-01, 8.4254e-04,
        9.5130e-01, 2.6853e-01, 3.1498e-01, 1.4273e-01, 3.4543e-02, 2.3975e-01,
        9.6827e-01, 2.3278e-02, 6.8675e-01, 1.9654e-01, 1.9314e-02, 1.9667e-01,
        6.1224e-01, 1.3161e-02, 1.5310e-02, 1.5625e-02, 8.1850e-01, 5.2661e-01,
        4.7962e-01, 3.7522e-01, 1.8568e-01, 1.5332e-02, 5.3748e-01, 9.0760e-01,
        2.5830e-01, 6.4671e-04, 8.4265e-02, 4.6868e-02, 5.9640e-01, 6.2303e-01,
        3.8533e-01, 6.5554e-01, 4.8837e-02, 1.0037e-01, 2.4208e-01, 6.7592e-03,
        1.4069e-02, 3.7824e-02, 2.5426e-01, 1.0642e+00, 4.7733e-01, 6.7222e-01,
        2.5846e-01, 4.5055e-01, 7.6816e-02, 1.0362e-01, 2.5018e-01, 1.3996e-01,
        7.1124e-04, 5.9627e-01, 4.1757e-01, 3.7173e-01, 1.0001e-01, 2.9486e-01,
        5.7911e-02, 3.6906e-03, 7.3447e-02, 8.5122e-04, 3.3865e-01, 9.1626e-02,
        1.6052e-02, 1.8675e-02, 2.2804e-01, 1.1326e-01, 2.8837e-01, 6.8788e-02,
        3.5706e-01, 1.5311e+00, 4.8539e-01, 7.3970e-01, 7.3642e-02, 7.1123e-02,
        7.1394e-01, 1.2913e+00, 4.8450e-01, 4.8149e-03, 9.1979e-01, 2.5229e-01,
        5.2827e-01, 3.9081e-01, 1.1475e-01, 1.4321e-01, 6.8677e-03, 4.4860e-01,
        8.1864e-03, 7.4673e-01, 2.0546e-01, 5.1980e-01, 1.4805e-01, 7.2962e-01,
        2.9909e-02, 4.5942e-02, 3.3651e-01, 6.8148e-02, 1.5455e-04, 2.6892e-02,
        8.4590e-01, 4.7323e-02, 9.8555e-03, 4.3753e-02, 1.4103e-01, 2.0042e-01,
        2.4175e-01, 4.6447e-02, 6.2155e-01, 6.2468e-02, 1.3314e-01, 6.3995e-01,
        7.8405e-01, 2.4400e-01, 3.3336e-01, 3.3389e-02, 1.0112e+00, 5.1280e-01,
        1.2615e-01, 3.5790e-01, 3.8582e-01, 3.0285e-01, 3.7784e-01, 2.2613e-01,
        4.7564e-01, 2.7627e-02, 3.4495e-01, 1.8797e-01, 2.5792e-01, 5.4377e-02,
        1.5526e-01, 1.8354e-01, 8.9708e-01, 9.2274e-01, 4.0132e-01, 3.9258e-01,
        5.8022e-01, 2.7471e-02, 5.7772e-01, 4.8328e-01, 3.8507e-01, 1.0856e-03,
        1.9120e-01, 2.1407e-01, 1.2777e-02, 3.2822e-04, 5.0147e-01, 5.5654e-02,
        4.0452e-03, 1.2818e-02, 2.7878e-01, 2.4700e-03, 6.8888e-05, 1.6051e-01,
        2.0040e-01, 5.8603e-01, 3.4654e-03, 3.9273e-01, 5.9011e-03, 1.5534e-01,
        8.8392e-01, 5.8311e-01, 5.4914e-01, 1.1647e+00, 2.6914e-02, 8.4521e-02,
        2.5431e-01, 2.2776e-01, 6.5745e-03, 2.2674e-01, 2.1584e-01, 1.0295e-01,
        2.9327e-01, 3.5406e-01, 9.1942e-01, 4.3330e-02, 6.0050e-03, 6.4620e-01,
        8.2650e-02, 7.8434e-02, 3.0883e-01, 6.6014e-01, 1.0782e+00, 2.2752e-02,
        3.6386e-02, 3.3969e-03, 9.9264e-02, 1.6726e-01, 1.0263e-01, 3.0145e-03,
        1.4044e-01, 8.7704e-02, 1.5633e-01, 7.3459e-02, 2.9657e-02, 1.1750e-03,
        9.6685e-01, 2.0536e-02, 2.0275e-02, 4.6907e-02, 1.1209e-01, 1.3844e-01,
        4.0033e-01, 3.1415e-01, 6.6511e-03, 1.1163e-01, 4.1038e-01, 4.9988e-02,
        7.5307e-01, 6.8168e-02, 1.7328e-01, 1.5461e-01, 3.2384e-02, 9.2340e-02,
        4.1846e-01, 6.1534e-01, 1.6544e-01, 5.9428e-02, 8.4616e-02, 7.7552e-01,
        2.6170e-01, 6.9463e-01, 1.5885e-01, 2.4387e-01, 2.3013e-01, 7.5225e-01,
        8.1809e-01, 3.1355e-01, 1.4107e+00, 8.3094e-03, 1.1381e-01, 2.1100e-02,
        3.7839e-02, 4.6869e-02, 9.6900e-04, 7.3646e-03, 7.2566e-02, 4.1855e-03,
        3.4127e-01, 1.2983e-03, 4.2756e-01, 2.2685e-01, 4.1324e-01, 5.3016e-02,
        7.9544e-01, 3.5872e-03, 5.8363e-02, 5.7407e-01, 1.4895e-02, 2.2004e-01,
        1.3331e-01, 5.1182e-01, 2.0081e-01, 7.1172e-01, 1.9230e-01, 1.4873e-02,
        6.3194e-04, 2.9913e-01, 2.4918e-01, 4.7113e-02, 1.5036e-02, 1.3215e-01,
        1.1237e+00, 9.4886e-02, 5.5306e-01, 1.9336e-01, 1.3944e-02, 2.2247e-03,
        1.8835e-02, 5.9182e-02, 1.3345e-01, 2.0939e-03, 2.1923e-01, 2.6815e-01,
        3.5493e-01, 6.4286e-01, 1.2888e-01, 5.1794e-02, 6.1704e-01, 6.5773e-02,
        2.3601e-01, 1.5421e-01, 3.8468e-02, 1.1441e-01, 8.3575e-01, 4.3411e-01,
        3.9702e-01, 7.1026e-03, 8.5692e-01, 7.6906e-02, 9.3890e-01, 5.7621e-02,
        7.3150e-02, 6.4462e-01, 1.7284e-03, 4.6583e-02, 1.3700e-01, 3.8229e-04,
        3.5725e-02, 4.0653e-03, 1.3646e-01, 3.2260e-02, 6.0416e-02, 4.2454e-01,
        8.0129e-01, 1.0868e+00, 1.0034e-02, 5.7659e-02, 3.6910e-01, 2.7799e-01,
        1.1287e-01, 1.1338e+00, 2.6302e-02, 3.6165e-03, 3.8726e-01, 5.1071e-01,
        2.4032e-01, 6.4485e-01, 3.1310e-01, 1.8024e-01, 5.8191e-01, 2.4818e-01,
        8.6039e-03, 1.9219e-04, 3.0035e-01, 8.9893e-03, 1.0850e+00, 1.0111e+00,
        3.7813e-02, 9.2595e-01, 2.7347e-02, 3.2289e-01, 2.7837e-01, 3.1281e-02,
        5.4933e-01, 1.3920e-02, 5.2164e-01, 1.6004e-01, 8.2503e-01, 4.8316e-01,
        3.3130e-01, 1.1485e-01, 5.8397e-02, 4.0291e-02, 2.4117e-01, 4.1514e-02,
        3.2326e-01, 1.0991e-02, 2.6654e-02, 9.7933e-02, 6.5219e-01, 2.5346e-01,
        2.0248e-02, 4.5114e-03])
mlp.net.0.batch_norm.running_var tensor([0.1347, 0.0332, 0.0976, 0.0876, 0.0334, 0.0199, 0.1039, 0.0306, 0.2242,
        0.2598, 0.0143, 0.0239, 0.0174, 0.1042, 0.0535, 0.0615, 0.1468, 0.1154,
        0.0299, 0.0087, 0.0105, 0.0176, 0.0373, 0.1141, 0.1166, 0.0112, 0.0091,
        0.2137, 0.1401, 0.0674, 0.1533, 0.1596, 0.0186, 0.0664, 0.0097, 0.2291,
        0.0457, 0.0246, 0.0583, 0.0132, 0.1511, 0.0094, 0.0235, 0.0638, 0.0129,
        0.1033, 0.1435, 0.1019, 0.0728, 0.0097, 0.0253, 0.2667, 0.1296, 0.0569,
        0.0176, 0.2595, 0.0474, 0.1682, 0.1439, 0.0732, 0.2043, 0.1061, 0.0299,
        0.0927, 0.0177, 0.0938, 0.0751, 0.0375, 0.0093, 0.0568, 0.0094, 0.0430,
        0.1102, 0.0502, 0.1144, 0.0747, 0.0846, 0.0087, 0.1348, 0.0837, 0.1208,
        0.1275, 0.0234, 0.1624, 0.0090, 0.0106, 0.2188, 0.0414, 0.0088, 0.0097,
        0.0101, 0.0087, 0.2208, 0.2004, 0.0096, 0.0877, 0.0130, 0.0174, 0.0196,
        0.0088, 0.0090, 0.0251, 0.0297, 0.2708, 0.0133, 0.0088, 0.0386, 0.0782,
        0.0120, 0.0088, 0.1272, 0.0112, 0.0087, 0.0909, 0.1608, 0.1219, 0.1074,
        0.0229, 0.0265, 0.0244, 0.0650, 0.1226, 0.0174, 0.3179, 0.1213, 0.0538,
        0.1645, 0.0497, 0.0509, 0.1131, 0.0088, 0.1964, 0.0326, 0.0131, 0.1726,
        0.0211, 0.1254, 0.0970, 0.0280, 0.0402, 0.0131, 0.1109, 0.1190, 0.0186,
        0.0181, 0.0672, 0.0606, 0.0428, 0.1108, 0.0688, 0.0916, 0.0620, 0.0165,
        0.1221, 0.1230, 0.0088, 0.0226, 0.0410, 0.1541, 0.1164, 0.1373, 0.0088,
        0.1197, 0.1009, 0.0983, 0.0593, 0.0185, 0.0682, 0.3858, 0.0147, 0.1846,
        0.1021, 0.0131, 0.0538, 0.2694, 0.0124, 0.0139, 0.0133, 0.1013, 0.1553,
        0.1701, 0.2068, 0.0498, 0.0140, 0.0924, 0.0570, 0.1242, 0.0089, 0.0544,
        0.0266, 0.0980, 0.2422, 0.1085, 0.3123, 0.0251, 0.0511, 0.0878, 0.0105,
        0.0127, 0.0200, 0.0710, 0.3377, 0.1767, 0.1786, 0.0721, 0.1046, 0.0282,
        0.0479, 0.1133, 0.0451, 0.0089, 0.1249, 0.2053, 0.1376, 0.0315, 0.0879,
        0.0265, 0.0097, 0.0416, 0.0088, 0.1138, 0.0333, 0.0140, 0.0157, 0.0710,
        0.0626, 0.0741, 0.0320, 0.0888, 0.2097, 0.1185, 0.2113, 0.0300, 0.0316,
        0.1797, 0.2589, 0.0761, 0.0098, 0.1257, 0.0957, 0.1358, 0.1764, 0.0437,
        0.0512, 0.0101, 0.1006, 0.0107, 0.1981, 0.0750, 0.1360, 0.0568, 0.0993,
        0.0189, 0.0239, 0.0932, 0.0330, 0.0088, 0.0167, 0.2047, 0.0301, 0.0117,
        0.0209, 0.0546, 0.0625, 0.0713, 0.0257, 0.1379, 0.0272, 0.0617, 0.1621,
        0.1494, 0.0852, 0.1338, 0.0184, 0.1877, 0.1082, 0.0404, 0.1229, 0.1844,
        0.1134, 0.1512, 0.0856, 0.1582, 0.0157, 0.1596, 0.0420, 0.0977, 0.0291,
        0.0508, 0.0507, 0.1071, 0.1512, 0.1385, 0.1449, 0.1566, 0.0192, 0.1081,
        0.1527, 0.0861, 0.0089, 0.0623, 0.1051, 0.0122, 0.0088, 0.0900, 0.0416,
        0.0099, 0.0142, 0.1021, 0.0092, 0.0087, 0.0448, 0.0522, 0.1824, 0.0094,
        0.1868, 0.0102, 0.0546, 0.1187, 0.2684, 0.1542, 0.3233, 0.0168, 0.0251,
        0.1679, 0.1158, 0.0101, 0.0751, 0.0761, 0.0509, 0.0955, 0.1575, 0.2336,
        0.0210, 0.0107, 0.1579, 0.0393, 0.0341, 0.1283, 0.3152, 0.1961, 0.0162,
        0.0199, 0.0096, 0.0384, 0.0799, 0.0482, 0.0099, 0.0765, 0.0383, 0.0689,
        0.0366, 0.0218, 0.0089, 0.2044, 0.0131, 0.0150, 0.0178, 0.0524, 0.0452,
        0.0999, 0.1757, 0.0104, 0.0369, 0.0901, 0.0310, 0.2607, 0.0468, 0.0539,
        0.0571, 0.0207, 0.0381, 0.1032, 0.1809, 0.0335, 0.0416, 0.0368, 0.2630,
        0.1177, 0.2313, 0.0723, 0.0698, 0.0702, 0.1811, 0.2469, 0.1062, 0.1223,
        0.0105, 0.0406, 0.0156, 0.0219, 0.0237, 0.0089, 0.0104, 0.0334, 0.0103,
        0.2148, 0.0090, 0.1760, 0.0836, 0.1039, 0.0309, 0.1855, 0.0096, 0.0241,
        0.1643, 0.0145, 0.0441, 0.0420, 0.1007, 0.0874, 0.1712, 0.0906, 0.0130,
        0.0088, 0.1881, 0.0600, 0.0327, 0.0127, 0.0427, 0.1414, 0.0434, 0.2160,
        0.0794, 0.0151, 0.0093, 0.0133, 0.0266, 0.0544, 0.0091, 0.0848, 0.1098,
        0.0682, 0.1332, 0.0620, 0.0253, 0.1706, 0.0265, 0.1096, 0.0649, 0.0172,
        0.0571, 0.3520, 0.0699, 0.1430, 0.0102, 0.1581, 0.0373, 0.0899, 0.0253,
        0.0469, 0.2388, 0.0089, 0.0263, 0.0714, 0.0088, 0.0194, 0.0095, 0.0525,
        0.0178, 0.0284, 0.2069, 0.0864, 0.2090, 0.0134, 0.0423, 0.1256, 0.1149,
        0.0523, 0.2041, 0.0209, 0.0099, 0.0842, 0.1375, 0.0665, 0.2306, 0.1490,
        0.0983, 0.0748, 0.0960, 0.0112, 0.0088, 0.1131, 0.0106, 0.1622, 0.3275,
        0.0191, 0.1382, 0.0166, 0.0906, 0.0706, 0.0187, 0.1439, 0.0126, 0.0867,
        0.0593, 0.1614, 0.2646, 0.0818, 0.0494, 0.0366, 0.0239, 0.1360, 0.0196,
        0.1055, 0.0119, 0.0135, 0.0455, 0.1671, 0.1031, 0.0163, 0.0102])
mlp.net.0.batch_norm.num_batches_tracked tensor(45)
mlp.net.1.linear.weight tensor([[-0.0178, -0.0080, -0.0182,  ...,  0.0959,  0.0154, -0.0307],
        [ 0.0215,  0.1210,  0.0768,  ...,  0.0132, -0.0272,  0.1094],
        [ 0.0873, -0.0493, -0.0944,  ...,  0.0464, -0.0181, -0.0494],
        ...,
        [ 0.0166, -0.1379,  0.0309,  ..., -0.0437,  0.0565,  0.0585],
        [ 0.0576,  0.0588, -0.0856,  ..., -0.1248,  0.0491,  0.1197],
        [ 0.0156,  0.0078, -0.0343,  ...,  0.1135,  0.0077, -0.1194]])
mlp.net.1.linear.bias tensor([-2.5653e-02, -1.0838e-02,  9.0759e-03, -1.7223e-02, -4.5715e-02,
        -3.3370e-02, -3.3378e-02, -3.7660e-02, -3.4243e-02,  4.0112e-02,
         2.3716e-02,  3.8979e-02,  1.4898e-02, -2.1804e-02,  3.4710e-02,
         1.7430e-02, -3.1728e-02,  2.3245e-02, -2.3739e-02, -2.0706e-02,
        -1.4207e-02, -1.7392e-02,  4.5214e-02,  1.7341e-02,  1.5030e-02,
        -3.0654e-02, -3.4685e-02,  1.2077e-02, -3.4303e-02,  1.7873e-03,
        -1.9296e-02,  6.9846e-03, -1.2978e-02,  4.6093e-02,  3.5478e-02,
        -1.1213e-02, -3.6944e-02, -3.1315e-03,  1.6994e-02, -2.9502e-02,
        -3.3697e-02, -5.6795e-03, -2.2508e-02,  2.6726e-03, -2.3216e-02,
         2.5819e-02,  3.4790e-02,  3.5782e-02,  2.5403e-02,  4.6864e-02,
         8.7313e-03,  8.5168e-03, -2.4937e-02, -6.1718e-04,  1.2644e-02,
        -5.4836e-03,  2.6246e-02, -3.0031e-02, -4.1045e-02, -6.1677e-03,
         2.6171e-02, -8.0827e-03,  4.8685e-02,  1.7986e-02, -1.7053e-02,
         2.9445e-03,  1.7570e-02,  1.1592e-03,  1.8154e-02,  3.1801e-02,
        -1.8284e-02, -4.3542e-02, -4.2521e-02, -7.3222e-03,  2.5094e-02,
         4.3589e-02, -3.2599e-02, -1.7338e-02,  1.7635e-02, -4.6220e-02,
         3.9829e-03,  4.1781e-02, -1.2012e-02,  1.7301e-02, -4.2298e-02,
         1.5754e-02, -1.4458e-02, -2.3358e-02, -1.2713e-02,  2.8368e-02,
        -8.6097e-03, -2.8768e-02, -1.2043e-04, -3.2527e-02,  2.2019e-02,
         3.4382e-02,  7.1314e-03,  2.1412e-02, -4.0654e-02,  1.6501e-02,
         1.5857e-02, -3.0119e-02, -2.9149e-02, -4.3497e-02, -3.2546e-02,
         1.2319e-02,  1.8799e-02,  2.4421e-02,  2.3458e-02, -1.4629e-02,
        -2.4974e-02,  6.4274e-03, -9.9160e-03, -2.3013e-02, -3.9417e-02,
         4.5840e-02, -1.2824e-02,  1.3308e-02, -3.4951e-03, -4.2534e-03,
         4.1874e-02,  4.1907e-02, -2.2440e-02,  3.1837e-02,  1.3623e-02,
        -9.2487e-03, -1.1534e-02, -2.7215e-02, -4.1784e-02, -3.0414e-02,
         8.3161e-03,  3.6720e-02, -3.8267e-02, -1.4138e-02, -2.2284e-02,
         1.3178e-02, -3.7572e-02,  3.0080e-02, -3.5563e-03, -2.4455e-02,
         2.7825e-02,  2.1077e-02, -4.3084e-02,  1.5973e-02, -2.7258e-02,
        -1.2948e-02,  1.1572e-02, -3.7196e-02,  6.2930e-03,  4.6823e-02,
        -2.0628e-02,  9.7533e-03, -1.7637e-02,  1.1761e-02, -3.0124e-02,
         1.3105e-02,  2.6844e-02, -2.5212e-02,  1.0861e-02,  2.0746e-02,
        -2.9015e-02, -4.0080e-02,  4.4250e-02, -2.9623e-02,  1.0879e-02,
        -2.1683e-02,  2.7904e-02, -2.1563e-02,  1.7441e-02, -3.8234e-02,
        -2.7365e-02, -8.8218e-03,  2.3775e-02,  6.4664e-03, -1.8875e-02,
        -6.7208e-03, -2.1687e-02,  1.5511e-02,  1.0430e-02,  3.9048e-02,
         3.8503e-02,  1.9001e-03,  1.8216e-02,  2.4883e-02,  2.1393e-02,
        -9.4105e-03,  8.4992e-05,  2.0914e-02, -2.8370e-02, -2.1604e-02,
         1.8999e-03,  2.0655e-02, -3.3659e-02, -1.6109e-02, -4.9060e-03,
        -1.2149e-02,  2.4491e-02,  5.9839e-03,  1.3528e-02,  2.8775e-02,
         3.7560e-02,  2.6923e-02,  1.4113e-02, -1.3506e-02,  6.6156e-03,
        -3.2673e-02,  3.3731e-02, -4.3298e-02, -1.8895e-02,  2.5367e-02,
         2.9609e-03,  1.2169e-02, -2.9286e-02, -3.3729e-02, -3.5601e-03,
         1.1038e-02, -7.9175e-03,  6.8669e-03, -3.6854e-03, -2.7607e-02,
         9.9382e-03, -3.8491e-02,  3.4444e-02, -1.9042e-02,  1.1557e-03,
        -2.9192e-02, -1.2477e-02,  3.9722e-02,  2.6568e-02, -1.5780e-02,
        -1.4811e-02, -2.9307e-02, -3.3755e-02,  4.2074e-02, -4.8247e-02,
        -3.5626e-02, -4.2964e-02, -2.0440e-02, -7.6917e-03,  3.4813e-03,
         5.8633e-03, -2.5123e-02, -3.3412e-02,  2.5674e-02,  3.7689e-02,
         4.7381e-03, -1.7682e-02,  2.9029e-02,  1.5720e-02, -3.0675e-02,
        -1.3682e-02,  5.7555e-03,  1.4593e-02, -3.8573e-03,  3.8982e-02,
         4.2252e-03, -2.7260e-02, -3.4277e-02, -9.7142e-03, -3.7752e-04,
        -4.0119e-02,  1.6236e-02, -3.3298e-02,  2.2784e-02, -4.2345e-02,
         2.3864e-02,  2.7280e-02,  5.1700e-03, -2.7238e-02, -3.0005e-02,
         1.0086e-02, -2.9217e-02, -3.5403e-02,  1.9141e-02,  9.1261e-03,
         2.8155e-02, -1.9340e-02, -3.6522e-02,  3.5567e-02,  2.4673e-02,
         2.5257e-02, -3.1752e-02,  9.8454e-03, -3.1546e-02, -1.7895e-02,
         1.1591e-02,  4.8396e-02,  3.7356e-02, -3.9392e-03, -2.9669e-02,
         2.3416e-02,  2.6988e-03,  2.1726e-02,  1.0266e-02,  3.5172e-02,
         4.6690e-02, -3.5830e-02,  1.4186e-02,  1.3676e-02,  3.3253e-02,
        -1.1904e-02, -2.0727e-02, -1.1399e-02, -1.1307e-02, -2.9795e-02,
        -1.5903e-02,  3.3767e-02, -4.4872e-02,  1.8664e-03,  2.1092e-02,
        -4.5387e-04, -3.9955e-02, -1.3242e-02,  4.2366e-04, -1.8748e-02,
        -2.8333e-02,  4.9870e-03,  3.0253e-02, -2.9549e-02, -3.3789e-02,
         3.7565e-02,  1.9274e-02,  3.7915e-02, -6.0521e-03, -2.3004e-02,
        -2.0225e-02, -2.9324e-02, -3.6210e-02, -6.5584e-04,  2.0282e-02,
        -8.5616e-03, -3.4951e-02,  2.8752e-02,  1.0172e-02, -2.2375e-02,
        -3.6931e-02, -3.6199e-02, -3.6390e-02,  2.3857e-02,  1.5849e-02,
        -1.9764e-02,  1.2856e-02, -2.9561e-02, -1.9542e-03, -2.8698e-02,
        -9.9915e-03,  3.5257e-02, -4.0773e-02, -3.7253e-02, -1.0625e-02,
         2.5782e-02,  4.2193e-02,  3.5596e-02,  1.7814e-02,  3.8523e-02,
         3.9112e-02,  1.2751e-02,  2.7417e-02, -4.0181e-02, -2.3672e-02,
         2.9627e-02,  9.7489e-04,  2.9071e-02, -8.4008e-03, -2.0339e-02,
         2.4494e-02, -1.5807e-02, -1.6682e-02,  6.7084e-03,  2.8988e-02,
        -3.6101e-03, -3.4264e-02,  1.9533e-02,  2.7737e-02, -3.1584e-02,
         2.7257e-03, -3.9958e-02,  4.5022e-02, -4.4827e-02, -3.9605e-02,
        -3.9364e-02, -8.7124e-03,  1.2499e-02, -8.5408e-03,  3.9937e-02,
        -1.5630e-02,  3.4714e-02,  4.1015e-02,  4.2519e-02,  3.5599e-02,
        -5.7366e-03, -1.2900e-02,  3.7276e-03,  1.5293e-02, -2.3815e-03,
         3.8272e-02, -2.9742e-02, -2.1142e-02, -3.2256e-02, -3.5018e-02,
        -1.3685e-02,  3.8676e-02,  1.6433e-02, -1.7121e-02, -2.1482e-02,
        -2.7059e-02,  2.1746e-02, -9.6293e-04, -3.9909e-02,  2.0302e-02,
        -1.3294e-03, -1.5049e-02,  1.5054e-02,  3.2182e-02,  4.0655e-02,
         5.9641e-03,  3.6382e-02,  3.2888e-02, -1.2900e-02,  2.4177e-02,
        -2.4674e-02,  2.0885e-02,  3.6136e-02, -1.7837e-02,  3.8308e-02,
         2.7402e-02,  2.6647e-02,  1.8123e-02,  7.2850e-03,  2.5973e-02,
         2.4939e-02,  3.4554e-02, -1.5138e-02, -1.2815e-02, -2.5448e-02,
         1.1102e-02,  8.0149e-03, -3.1211e-02,  4.2475e-02, -7.3006e-03,
        -4.5471e-02, -1.2048e-02, -4.0494e-02,  2.5368e-02,  3.5321e-03,
         2.3964e-02,  1.4515e-02,  9.8807e-03,  2.0526e-02,  4.7012e-02,
        -1.6160e-02,  1.4902e-02, -2.2794e-02,  1.9276e-02, -3.1524e-02,
         6.9673e-03, -4.5037e-03, -2.1839e-02,  3.1605e-02, -1.4487e-02,
         1.9413e-02,  2.1391e-02,  2.6762e-02, -7.7735e-03,  3.9836e-02,
         5.4814e-03,  2.4481e-02, -1.9435e-02, -2.7651e-02,  2.2741e-02,
        -5.9744e-03, -1.8686e-03,  3.6603e-02,  1.6154e-02,  3.6558e-02,
        -1.2389e-02,  2.7367e-02, -4.1112e-02, -8.2880e-03, -3.3907e-02,
        -7.0125e-04, -2.6311e-02,  2.5062e-03, -2.8256e-02, -3.9371e-02,
         4.7809e-03, -2.6500e-02,  3.1447e-02, -1.2567e-02, -2.1550e-02,
        -2.6974e-03,  2.7171e-02, -3.6676e-02, -2.3707e-02,  1.1547e-02,
        -3.2203e-02, -5.6405e-03, -5.0591e-03,  3.0994e-02, -1.5129e-02,
        -1.5635e-02, -1.5661e-02, -3.2271e-02, -5.5122e-03,  1.0893e-02,
        -2.7051e-02,  2.3052e-02, -5.3197e-03, -3.2904e-02, -1.1472e-04,
        -2.8469e-02,  3.3397e-02])
mlp.net.1.batch_norm.weight tensor([0.9553, 0.9564, 0.9627, 0.9574, 0.9529, 0.9559, 0.9576, 0.9563, 0.9548,
        0.9561, 0.9581, 0.9612, 0.9580, 0.9534, 0.9549, 0.9578, 0.9557, 0.9540,
        0.9551, 0.9606, 0.9579, 0.9615, 0.9576, 0.9594, 0.9526, 0.9594, 0.9590,
        0.9553, 0.9631, 0.9588, 0.9585, 0.9589, 0.9555, 0.9520, 0.9576, 0.9587,
        0.9587, 0.9572, 0.9553, 0.9553, 0.9538, 0.9575, 0.9589, 0.9573, 0.9519,
        0.9593, 0.9516, 0.9586, 0.9594, 0.9550, 0.9572, 0.9555, 0.9592, 0.9513,
        0.9545, 0.9544, 0.9593, 0.9576, 0.9543, 0.9559, 0.9618, 0.9594, 0.9595,
        0.9596, 0.9546, 0.9562, 0.9556, 0.9581, 0.9553, 0.9577, 0.9620, 0.9536,
        0.9582, 0.9544, 0.9558, 0.9549, 0.9525, 0.9624, 0.9581, 0.9575, 0.9608,
        0.9548, 0.9567, 0.9537, 0.9604, 0.9593, 0.9596, 0.9523, 0.9561, 0.9582,
        0.9531, 0.9557, 0.9578, 0.9560, 0.9548, 0.9575, 0.9591, 0.9509, 0.9612,
        0.9606, 0.9542, 0.9567, 0.9608, 0.9550, 0.9596, 0.9592, 0.9581, 0.9552,
        0.9525, 0.9560, 0.9554, 0.9633, 0.9585, 0.9555, 0.9554, 0.9548, 0.9540,
        0.9569, 0.9589, 0.9543, 0.9561, 0.9540, 0.9550, 0.9551, 0.9560, 0.9567,
        0.9624, 0.9526, 0.9581, 0.9550, 0.9609, 0.9564, 0.9579, 0.9548, 0.9553,
        0.9556, 0.9594, 0.9550, 0.9585, 0.9587, 0.9511, 0.9575, 0.9582, 0.9606,
        0.9566, 0.9574, 0.9555, 0.9616, 0.9539, 0.9592, 0.9593, 0.9564, 0.9597,
        0.9523, 0.9512, 0.9564, 0.9598, 0.9579, 0.9609, 0.9593, 0.9540, 0.9638,
        0.9489, 0.9573, 0.9559, 0.9575, 0.9558, 0.9564, 0.9602, 0.9542, 0.9546,
        0.9604, 0.9556, 0.9565, 0.9578, 0.9568, 0.9581, 0.9588, 0.9535, 0.9550,
        0.9562, 0.9523, 0.9553, 0.9573, 0.9616, 0.9580, 0.9608, 0.9619, 0.9597,
        0.9602, 0.9579, 0.9575, 0.9604, 0.9513, 0.9567, 0.9581, 0.9540, 0.9520,
        0.9557, 0.9513, 0.9567, 0.9590, 0.9611, 0.9524, 0.9582, 0.9529, 0.9577,
        0.9529, 0.9568, 0.9544, 0.9614, 0.9586, 0.9601, 0.9544, 0.9554, 0.9596,
        0.9583, 0.9557, 0.9591, 0.9619, 0.9544, 0.9611, 0.9575, 0.9555, 0.9627,
        0.9533, 0.9544, 0.9586, 0.9593, 0.9613, 0.9574, 0.9560, 0.9586, 0.9551,
        0.9532, 0.9531, 0.9541, 0.9551, 0.9602, 0.9552, 0.9570, 0.9577, 0.9569,
        0.9559, 0.9605, 0.9569, 0.9560, 0.9566, 0.9568, 0.9578, 0.9594, 0.9564,
        0.9562, 0.9553, 0.9593, 0.9545, 0.9580, 0.9561, 0.9570, 0.9556, 0.9612,
        0.9571, 0.9574, 0.9574, 0.9577, 0.9572, 0.9570, 0.9606, 0.9609, 0.9555,
        0.9588, 0.9567, 0.9567, 0.9526, 0.9558, 0.9556, 0.9570, 0.9568, 0.9531,
        0.9588, 0.9568, 0.9592, 0.9562, 0.9585, 0.9590, 0.9576, 0.9554, 0.9603,
        0.9578, 0.9562, 0.9591, 0.9590, 0.9579, 0.9580, 0.9493, 0.9596, 0.9554,
        0.9560, 0.9558, 0.9527, 0.9580, 0.9585, 0.9570, 0.9563, 0.9578, 0.9581,
        0.9567, 0.9608, 0.9581, 0.9585, 0.9573, 0.9585, 0.9534, 0.9580, 0.9577,
        0.9601, 0.9560, 0.9527, 0.9587, 0.9588, 0.9586, 0.9581, 0.9484, 0.9560,
        0.9563, 0.9529, 0.9584, 0.9571, 0.9553, 0.9591, 0.9577, 0.9510, 0.9567,
        0.9558, 0.9610, 0.9576, 0.9577, 0.9557, 0.9609, 0.9570, 0.9583, 0.9608,
        0.9573, 0.9602, 0.9559, 0.9588, 0.9560, 0.9563, 0.9559, 0.9543, 0.9605,
        0.9554, 0.9619, 0.9581, 0.9551, 0.9596, 0.9597, 0.9602, 0.9525, 0.9577,
        0.9550, 0.9522, 0.9559, 0.9510, 0.9623, 0.9594, 0.9625, 0.9604, 0.9569,
        0.9556, 0.9593, 0.9543, 0.9618, 0.9549, 0.9576, 0.9570, 0.9625, 0.9567,
        0.9584, 0.9577, 0.9590, 0.9552, 0.9601, 0.9605, 0.9605, 0.9578, 0.9577,
        0.9549, 0.9596, 0.9576, 0.9577, 0.9604, 0.9593, 0.9561, 0.9591, 0.9599,
        0.9557, 0.9553, 0.9594, 0.9594, 0.9557, 0.9568, 0.9564, 0.9516, 0.9564,
        0.9568, 0.9551, 0.9528, 0.9591, 0.9572, 0.9580, 0.9581, 0.9551, 0.9557,
        0.9531, 0.9554, 0.9534, 0.9503, 0.9572, 0.9533, 0.9593, 0.9579, 0.9524,
        0.9566, 0.9524, 0.9557, 0.9607, 0.9538, 0.9559, 0.9562, 0.9569, 0.9522,
        0.9513, 0.9557, 0.9538, 0.9538, 0.9595, 0.9553, 0.9592, 0.9507, 0.9604,
        0.9573, 0.9578, 0.9537, 0.9587, 0.9563, 0.9523, 0.9582, 0.9536, 0.9563,
        0.9588, 0.9555, 0.9558, 0.9534, 0.9563, 0.9605, 0.9567, 0.9552, 0.9615,
        0.9594, 0.9612, 0.9564, 0.9531, 0.9577, 0.9547, 0.9575, 0.9580, 0.9562,
        0.9578, 0.9564, 0.9554, 0.9598, 0.9560, 0.9535, 0.9474, 0.9559, 0.9586,
        0.9552, 0.9590, 0.9630, 0.9578, 0.9544, 0.9563, 0.9505, 0.9563, 0.9569,
        0.9568, 0.9597, 0.9575, 0.9553, 0.9579, 0.9545, 0.9554, 0.9613, 0.9556,
        0.9595, 0.9553, 0.9564, 0.9606, 0.9548, 0.9599, 0.9576, 0.9613, 0.9551,
        0.9588, 0.9569, 0.9577, 0.9643, 0.9565, 0.9596, 0.9593, 0.9588])
mlp.net.1.batch_norm.bias tensor([ 3.0868e-03, -3.2674e-03,  5.6602e-03,  8.9302e-04,  3.0044e-03,
         5.8395e-03,  2.6481e-03,  2.5099e-03, -9.2658e-04,  2.7109e-03,
        -3.6738e-03, -3.5890e-03,  3.2371e-03, -6.8108e-03, -3.6219e-03,
         1.9308e-03, -3.4778e-03, -1.4101e-03, -2.4858e-03,  1.1315e-03,
         5.5418e-03,  6.0471e-03, -2.3928e-03,  6.1108e-03, -6.3318e-03,
        -3.5492e-03,  1.7643e-03, -4.8073e-03,  4.0864e-03, -3.8770e-03,
         4.3114e-04, -2.0842e-03, -1.9314e-03,  2.6279e-03, -2.7979e-03,
        -1.8896e-03, -2.7740e-03, -2.0040e-03,  2.8390e-03, -6.5129e-03,
        -6.3276e-03, -6.5037e-03, -5.7220e-04, -6.5200e-04, -7.1395e-03,
         9.8809e-03,  1.5164e-03, -1.0488e-03, -2.0796e-03,  4.9916e-03,
        -6.6957e-03, -6.2422e-03,  1.5102e-03, -7.3963e-03, -2.7162e-03,
        -4.8936e-03,  5.8187e-03,  6.8138e-04, -6.3259e-03,  1.9710e-03,
        -3.0019e-03,  9.1154e-03,  1.9311e-03,  1.5080e-03,  1.9873e-03,
         2.8877e-03,  1.3175e-04, -4.3350e-04, -5.7412e-03,  6.0923e-03,
         3.2555e-03, -1.2803e-03, -7.9327e-03,  3.3795e-03,  2.3242e-03,
         3.4024e-03,  5.2189e-03,  4.1914e-04,  1.6324e-03, -3.4859e-03,
         3.0821e-03, -4.5011e-03,  8.2754e-03,  4.5964e-03,  7.5866e-03,
        -3.2403e-04,  1.3553e-03,  3.2315e-04, -2.0815e-04,  3.8380e-03,
         2.8533e-03, -4.5016e-03,  2.4915e-03, -1.8356e-03,  1.4415e-03,
        -5.8857e-03, -1.7239e-03,  1.4933e-03,  6.4344e-03,  8.9864e-03,
        -9.9579e-04,  3.3426e-03, -2.5930e-03, -9.9606e-04, -3.5956e-03,
        -4.0443e-03, -3.1878e-03, -5.3164e-03,  6.7697e-04, -3.9966e-03,
        -5.1106e-03,  6.5255e-03, -1.8887e-03, -5.2994e-03,  4.8145e-03,
        -3.0675e-03, -2.2330e-03, -2.6568e-03,  4.7059e-03,  5.4632e-03,
        -1.1944e-03, -5.5451e-03,  3.9691e-03,  5.2207e-03, -2.9390e-03,
         3.2774e-04, -4.9166e-03, -5.1528e-04,  3.6405e-03, -4.8689e-03,
        -1.0464e-03, -6.4915e-03,  4.1709e-03, -5.1325e-03, -8.1437e-03,
        -1.3190e-03, -3.7158e-03,  3.6350e-03,  8.7766e-03, -3.0519e-03,
        -2.8996e-03,  8.9831e-03,  6.3809e-03,  5.0559e-03,  4.2381e-03,
         1.1071e-03,  9.1397e-03,  5.2194e-03,  1.0773e-03, -1.5732e-03,
         4.0612e-03, -4.9513e-03,  1.5148e-04, -3.2979e-03,  1.6108e-03,
         4.4312e-03, -4.8956e-03,  3.5221e-03,  3.8199e-03, -2.3350e-03,
        -1.3547e-03, -5.3628e-03,  1.3542e-03, -3.9227e-03,  6.7713e-03,
        -1.7076e-03,  1.1775e-03,  4.1289e-03,  2.3406e-03, -2.7898e-04,
        -3.1711e-04,  2.4139e-04,  9.3837e-04, -3.3089e-03, -3.5892e-03,
        -7.4317e-03,  4.6157e-03, -8.0857e-03,  2.7193e-03, -8.2600e-03,
         7.3075e-04,  7.7233e-03, -1.4969e-03,  3.9330e-03,  4.7177e-03,
        -5.5835e-03, -8.3297e-03,  1.7307e-03,  3.5607e-03, -1.2995e-03,
        -6.5047e-03,  1.5057e-03,  3.5928e-03,  2.5554e-03, -1.2883e-04,
         1.6361e-04, -2.8110e-03,  5.1218e-03,  2.6568e-03,  7.2615e-05,
         3.5889e-03,  1.1772e-03, -1.2153e-03, -4.3243e-03, -3.7191e-03,
        -4.5107e-03, -1.0470e-03,  3.5043e-03,  3.5640e-03,  3.8990e-03,
         5.9686e-03,  3.3839e-03,  6.7454e-03, -7.0391e-03,  1.6046e-03,
         1.5337e-03,  4.4411e-03, -6.2820e-04,  9.7210e-04, -3.2843e-03,
        -1.7303e-03, -6.9041e-03,  2.4512e-04,  4.4526e-03, -4.0054e-04,
        -3.1496e-03, -9.3310e-04,  5.1716e-03,  1.7107e-03, -3.4377e-03,
         1.9565e-03, -3.7567e-03,  3.9799e-03, -2.4373e-03, -8.8885e-03,
        -3.9522e-03, -5.7592e-04,  6.5063e-03,  4.5619e-03,  2.6752e-03,
        -2.3096e-03,  4.7248e-04,  1.2818e-03,  8.2397e-04, -3.0759e-03,
        -2.4370e-03,  6.2652e-03,  1.3613e-03, -3.4269e-03, -2.2354e-03,
         5.5532e-03,  5.9135e-04,  8.7518e-03,  1.4626e-03,  2.6981e-03,
        -6.5113e-03, -3.5470e-03,  5.0084e-03,  5.9854e-04, -3.2261e-03,
        -1.3469e-03, -1.4626e-03,  8.6136e-03, -3.5994e-03,  3.4727e-03,
        -2.2305e-03, -4.0503e-03,  9.1947e-03, -1.7289e-03,  4.0357e-03,
         4.8519e-03, -3.9287e-03, -3.2011e-03, -2.0245e-03, -3.6812e-03,
        -2.5433e-03, -1.2336e-03, -5.2149e-04, -4.6857e-03, -1.4245e-03,
         9.3350e-04, -2.8130e-03, -5.0651e-03,  3.1333e-03,  3.7791e-03,
        -1.3189e-03,  6.7283e-04, -3.2084e-03, -5.7576e-04,  4.3256e-03,
         5.5113e-03,  3.3044e-03, -1.9349e-03,  1.5916e-03, -2.9027e-03,
         6.3666e-03, -6.2422e-03, -2.4141e-03,  9.1080e-04, -3.6380e-03,
         2.4796e-03, -5.1826e-03,  9.9856e-04,  2.1436e-03,  3.0108e-03,
         1.8836e-03, -3.6155e-03,  5.3616e-03, -5.9986e-03, -5.5313e-03,
         4.1968e-03, -6.2900e-04,  2.5993e-03, -2.7819e-03, -2.1380e-03,
         1.7141e-03, -4.6694e-03, -5.5560e-03,  3.5702e-03, -3.9702e-04,
         1.4956e-03, -5.0806e-03,  1.3590e-03, -3.3381e-03,  3.9180e-03,
         4.4144e-03, -4.1678e-03,  1.2616e-03, -2.4774e-03,  1.7726e-03,
         5.9005e-03,  2.8205e-03, -2.7400e-03,  3.2707e-03,  4.0159e-03,
        -2.2890e-03,  5.7206e-05,  3.6624e-03,  9.8109e-03, -2.3580e-03,
         1.4649e-03,  8.0447e-04,  3.0013e-03, -6.6825e-03,  5.6557e-03,
        -6.3606e-03,  3.8654e-03,  6.5605e-03,  2.2009e-03, -3.4120e-03,
         5.1710e-04, -1.7016e-03,  4.7035e-03, -2.6966e-03, -1.5196e-03,
        -4.9588e-03, -8.5344e-04,  4.3576e-03, -1.0127e-03, -4.6188e-03,
        -6.9411e-03, -3.2539e-03, -4.0714e-03, -1.2822e-03,  1.4749e-03,
        -2.2570e-03,  4.2331e-03,  5.2601e-03, -2.1728e-04, -4.4613e-03,
         8.6835e-04, -9.3539e-04,  4.1159e-03,  5.1907e-03,  5.7169e-03,
        -5.4841e-04,  2.1879e-03, -8.5311e-03, -1.6737e-04, -4.7517e-03,
         1.8778e-04, -3.6739e-03,  1.0411e-02, -8.9481e-03,  5.7666e-03,
        -7.1142e-03,  3.9282e-04, -2.1863e-03,  3.0780e-04, -2.8603e-04,
         1.2515e-03,  7.7263e-04,  4.8468e-03,  9.5702e-04,  4.3698e-03,
         4.7925e-03, -2.1357e-03, -3.6956e-03,  3.6050e-03,  2.2109e-03,
         4.9602e-03, -2.7124e-03,  9.6432e-04, -3.0134e-03, -9.7616e-04,
        -4.4691e-03,  9.1898e-04, -9.4808e-03, -5.4989e-03, -6.1153e-03,
         7.1106e-03,  1.2830e-03,  6.0949e-03,  5.9078e-03, -8.9538e-04,
        -1.3906e-03, -4.2658e-03, -3.6334e-04,  1.2219e-03,  1.5753e-03,
        -7.4962e-03,  2.6582e-03, -8.0859e-03,  5.7165e-03,  2.9878e-05,
         5.6422e-03,  9.9743e-04, -1.4617e-03, -4.9941e-03, -1.4359e-03,
        -1.9499e-03, -3.8684e-03,  4.3575e-03, -2.9617e-03,  2.5357e-03,
        -3.1760e-03, -7.0718e-05,  6.7800e-03, -3.3900e-03, -3.3791e-03,
         4.3083e-03,  3.6587e-03, -5.8877e-03,  4.3868e-04,  5.4512e-04,
        -6.3765e-03,  1.0463e-03, -7.9075e-04, -7.1584e-03, -3.4636e-03,
        -7.1958e-03, -2.4061e-03, -2.7622e-03,  5.0808e-03, -2.6025e-03,
        -4.6919e-03, -3.0301e-03, -1.6987e-03, -5.2794e-03,  2.6372e-03,
         6.6134e-03,  3.2074e-03, -2.6461e-03, -2.6319e-03, -5.0825e-03,
        -5.5333e-03,  3.8467e-03,  1.5906e-03, -1.9795e-03, -2.9299e-03,
        -3.4820e-03,  3.3638e-03, -4.1909e-03,  1.6577e-03, -6.3043e-04,
         1.6020e-03,  9.0347e-04, -5.4924e-03, -4.6302e-03, -1.0683e-03,
         3.5840e-03, -1.5949e-03, -4.1669e-04, -5.0773e-03, -3.2297e-03,
        -2.4175e-03,  6.9903e-03,  4.6829e-03,  3.8153e-03,  4.3597e-03,
        -4.1472e-03, -3.0118e-03,  5.1714e-03, -3.0659e-05, -5.1036e-03,
         2.0157e-03, -3.2497e-03, -2.9492e-03,  3.3342e-03, -7.8468e-04,
        -6.7079e-04, -1.5639e-03,  6.3747e-03, -1.5697e-03, -5.0591e-03,
        -2.5491e-03,  1.1325e-03, -5.1839e-03, -1.7765e-04,  5.9338e-03,
         3.9454e-03,  2.1793e-03])
mlp.net.1.batch_norm.running_mean tensor([0.5732, 0.5057, 0.4224, 0.5202, 0.6973, 0.4387, 0.4742, 0.4299, 0.5273,
        0.6090, 0.6106, 0.5686, 0.5889, 0.4510, 0.4627, 0.5740, 0.5735, 0.5436,
        0.3804, 0.5604, 0.4920, 0.4244, 0.6156, 0.5884, 0.6184, 0.5925, 0.5030,
        0.6420, 0.4995, 0.5511, 0.4543, 0.5690, 0.5297, 0.5595, 0.7178, 0.5340,
        0.5535, 0.4974, 0.5181, 0.5068, 0.4886, 0.6209, 0.5324, 0.6760, 0.6869,
        0.5619, 0.5062, 0.5446, 0.4402, 0.5552, 0.5528, 0.4605, 0.6428, 0.6376,
        0.7373, 0.4899, 0.5865, 0.3866, 0.3681, 0.6185, 0.4964, 0.5664, 0.6061,
        0.4806, 0.6878, 0.4314, 0.4930, 0.5467, 0.5152, 0.4970, 0.5455, 0.5069,
        0.4124, 0.4692, 0.5336, 0.5577, 0.4604, 0.5912, 0.6162, 0.5530, 0.4745,
        0.6072, 0.6277, 0.4625, 0.5032, 0.5901, 0.4925, 0.4790, 0.6544, 0.6061,
        0.4508, 0.7047, 0.4989, 0.6124, 0.4952, 0.5778, 0.5016, 0.5643, 0.4770,
        0.4226, 0.4957, 0.4344, 0.5893, 0.4511, 0.6887, 0.4860, 0.4774, 0.4311,
        0.4323, 0.5693, 0.7224, 0.4951, 0.5119, 0.5267, 0.5558, 0.4421, 0.4493,
        0.4542, 0.4277, 0.5647, 0.5675, 0.4636, 0.4864, 0.5942, 0.4243, 0.5398,
        0.5717, 0.5718, 0.4479, 0.5387, 0.4540, 0.5990, 0.4464, 0.6307, 0.4929,
        0.5345, 0.4791, 0.5776, 0.5970, 0.6314, 0.5254, 0.5570, 0.5937, 0.4274,
        0.6474, 0.5609, 0.6243, 0.5060, 0.4733, 0.4949, 0.7200, 0.6902, 0.4978,
        0.6579, 0.5332, 0.6053, 0.4502, 0.6314, 0.6937, 0.6048, 0.5323, 0.4380,
        0.6042, 0.5856, 0.5779, 0.6630, 0.4144, 0.5678, 0.5393, 0.5726, 0.4765,
        0.5566, 0.5462, 0.4117, 0.5524, 0.6522, 0.4265, 0.6044, 0.5223, 0.5561,
        0.6997, 0.6098, 0.4798, 0.4484, 0.4877, 0.4689, 0.4454, 0.5220, 0.6112,
        0.5676, 0.5408, 0.5338, 0.5287, 0.4938, 0.5582, 0.5892, 0.7222, 0.6530,
        0.4586, 0.4850, 0.6030, 0.5168, 0.5545, 0.5571, 0.5911, 0.5920, 0.5609,
        0.4209, 0.6408, 0.6050, 0.5691, 0.3856, 0.3981, 0.4622, 0.5151, 0.6755,
        0.5883, 0.4623, 0.5832, 0.4696, 0.5403, 0.4270, 0.6280, 0.4583, 0.4578,
        0.6049, 0.4251, 0.4672, 0.6613, 0.4755, 0.4559, 0.5732, 0.5852, 0.5338,
        0.5251, 0.6972, 0.5029, 0.5084, 0.5838, 0.5529, 0.4087, 0.5378, 0.5754,
        0.7026, 0.5117, 0.5055, 0.5186, 0.6985, 0.4657, 0.5474, 0.5387, 0.5584,
        0.5396, 0.4607, 0.7603, 0.5065, 0.6056, 0.4924, 0.5663, 0.7155, 0.4639,
        0.4750, 0.5171, 0.4974, 0.6993, 0.5385, 0.5210, 0.5405, 0.4356, 0.5868,
        0.5614, 0.5883, 0.6637, 0.4961, 0.5993, 0.5128, 0.4515, 0.4289, 0.4884,
        0.6899, 0.6588, 0.6936, 0.4663, 0.5142, 0.5083, 0.4746, 0.4861, 0.5369,
        0.6393, 0.5039, 0.6724, 0.5907, 0.5032, 0.4317, 0.4535, 0.5226, 0.8477,
        0.5442, 0.5088, 0.6521, 0.5162, 0.4732, 0.3926, 0.4899, 0.3700, 0.5416,
        0.5307, 0.5646, 0.8999, 0.6035, 0.6421, 0.5407, 0.4862, 0.4387, 0.4757,
        0.4637, 0.5425, 0.5734, 0.3780, 0.4415, 0.4824, 0.6293, 0.7899, 0.4478,
        0.6408, 0.5636, 0.4131, 0.4981, 0.6998, 0.6993, 0.4545, 0.4227, 0.4410,
        0.5400, 0.5336, 0.5861, 0.6653, 0.5055, 0.5501, 0.5003, 0.7329, 0.5667,
        0.4410, 0.4907, 0.5479, 0.5474, 0.6463, 0.6532, 0.4367, 0.5151, 0.6358,
        0.6867, 0.4518, 0.4910, 0.7183, 0.5808, 0.6310, 0.4767, 0.6039, 0.4318,
        0.5813, 0.4883, 0.6442, 0.5024, 0.4415, 0.4880, 0.5965, 0.5440, 0.4852,
        0.4491, 0.6977, 0.7369, 0.6701, 0.5202, 0.4936, 0.4970, 0.4557, 0.7187,
        0.4827, 0.3979, 0.4740, 0.5950, 0.5004, 0.5013, 0.6111, 0.4900, 0.5897,
        0.5625, 0.4717, 0.5092, 0.5931, 0.6743, 0.5776, 0.4217, 0.5833, 0.7757,
        0.6618, 0.5436, 0.5696, 0.5235, 0.5349, 0.6498, 0.6833, 0.7571, 0.5423,
        0.5311, 0.6488, 0.7402, 0.5168, 0.4312, 0.6103, 0.5147, 0.6100, 0.5999,
        0.4429, 0.5011, 0.6200, 0.6910, 0.6443, 0.4432, 0.6376, 0.6570, 0.5256,
        0.7213, 0.4789, 0.4710, 0.4585, 0.6031, 0.6356, 0.5473, 0.6554, 0.5401,
        0.4550, 0.3954, 0.4794, 0.5335, 0.5339, 0.5644, 0.4329, 0.5338, 0.4603,
        0.5789, 0.6116, 0.6075, 0.5016, 0.6409, 0.5580, 0.6050, 0.5545, 0.6409,
        0.4656, 0.4516, 0.6136, 0.5912, 0.5099, 0.4987, 0.4838, 0.4717, 0.5665,
        0.5374, 0.6713, 0.6340, 0.5642, 0.5908, 0.6232, 0.5612, 0.6462, 0.6006,
        0.4570, 0.6737, 0.5384, 0.5158, 0.5687, 0.4156, 0.4351, 0.6426, 0.4971,
        0.4007, 0.5973, 0.3662, 0.5591, 0.5709, 0.4983, 0.4898, 0.6125, 0.5521,
        0.5693, 0.5190, 0.4322, 0.5128, 0.5206, 0.5605, 0.5610, 0.6021, 0.8109,
        0.5096, 0.6828, 0.5714, 0.4924, 0.6257, 0.5388, 0.5247, 0.4865, 0.4760,
        0.5372, 0.4447, 0.7041, 0.4926, 0.6700, 0.4792, 0.4222, 0.5222])
mlp.net.1.batch_norm.running_var tensor([0.9560, 0.5433, 0.5193, 0.5199, 1.2841, 0.5500, 0.8513, 0.4045, 0.6749,
        0.8314, 0.8611, 0.6532, 0.8527, 0.5636, 0.6893, 0.7404, 0.9182, 0.7092,
        0.4383, 0.9568, 0.7853, 0.4846, 0.7441, 0.8451, 0.9145, 0.7494, 0.7585,
        0.7912, 0.5788, 1.0645, 0.5785, 0.7356, 0.6072, 0.5937, 1.2777, 0.6723,
        0.6900, 0.5575, 0.7101, 0.5947, 0.6829, 0.8666, 0.5926, 1.1353, 0.9251,
        1.0066, 0.5432, 0.6644, 0.4146, 0.7897, 0.5096, 0.5525, 1.1003, 0.7222,
        1.0214, 0.5586, 0.6514, 0.5787, 0.4033, 1.1197, 0.5367, 0.7122, 0.9039,
        0.6517, 0.8828, 0.4112, 0.6580, 0.7715, 0.6888, 0.5860, 0.8133, 0.5171,
        0.5960, 0.5138, 0.6270, 0.7943, 0.3454, 0.6693, 0.9937, 0.8814, 0.5418,
        0.6851, 1.2056, 0.5389, 0.8092, 1.1587, 0.6803, 0.5621, 0.9346, 0.9430,
        0.4964, 1.4033, 0.6937, 0.7110, 0.6489, 1.0242, 0.6183, 0.7101, 0.7196,
        0.4819, 0.5064, 0.6251, 0.7570, 0.5374, 0.9362, 0.4648, 0.3930, 0.5842,
        0.4939, 0.7385, 1.0726, 0.8247, 0.6366, 0.5728, 0.8088, 0.4417, 0.5075,
        0.6240, 0.5841, 0.6042, 0.7009, 0.4760, 0.4663, 0.7580, 0.4829, 0.7609,
        0.5512, 0.5994, 0.5482, 0.7085, 0.4933, 0.7414, 0.4436, 1.0717, 0.5667,
        0.5583, 0.7423, 0.6591, 0.8299, 1.2716, 0.5791, 0.6225, 0.9502, 0.5322,
        0.7426, 0.9009, 0.7372, 0.9223, 0.6982, 0.8131, 1.1358, 1.1168, 0.6323,
        0.7798, 0.6260, 0.8729, 0.3697, 0.8978, 0.8938, 0.6691, 0.8236, 0.5769,
        1.0727, 1.0375, 0.7356, 0.8019, 0.4576, 0.7024, 0.5308, 0.6397, 0.3828,
        0.7685, 0.6690, 0.4526, 0.9604, 0.9525, 0.6581, 0.7464, 0.7646, 0.6217,
        0.9324, 0.7606, 0.5937, 0.5442, 0.5696, 0.6588, 0.5438, 0.8219, 0.8163,
        0.9067, 0.6572, 0.6733, 0.6888, 0.4113, 0.7333, 0.5914, 1.0554, 1.2089,
        0.4263, 0.4881, 0.7275, 0.8649, 0.6733, 1.0164, 0.5861, 0.6279, 0.7638,
        0.5695, 0.8048, 0.7407, 0.6622, 0.4060, 0.5418, 0.4100, 0.6527, 0.7516,
        0.8356, 0.5941, 0.8187, 0.6142, 0.5772, 0.5628, 0.8448, 0.5927, 0.4495,
        0.6807, 0.4290, 0.5160, 1.1587, 0.6933, 0.4639, 0.8103, 0.8386, 0.4802,
        0.8119, 1.1155, 0.5974, 0.6363, 0.8236, 0.6960, 0.5280, 0.7235, 0.7645,
        1.1594, 0.6092, 0.7268, 0.7129, 0.9320, 0.3767, 0.8586, 0.9845, 0.7162,
        0.7682, 0.5944, 1.3365, 1.1113, 0.9485, 0.6014, 0.7566, 1.0587, 0.4697,
        0.5556, 0.6907, 0.6623, 0.9604, 0.8281, 0.6733, 0.6961, 0.3481, 0.7870,
        0.8298, 0.8847, 1.3075, 0.6323, 1.1770, 0.7879, 0.4298, 0.4608, 0.4915,
        0.9905, 0.8744, 0.8626, 0.5316, 0.5700, 0.6302, 0.4328, 0.5054, 0.5115,
        0.9662, 0.7141, 0.9043, 0.9753, 0.5993, 0.5077, 0.4367, 0.7781, 1.4534,
        0.6905, 0.7116, 0.6424, 0.4906, 0.7365, 0.4677, 0.5946, 0.4402, 0.7260,
        0.6460, 0.8376, 1.2935, 1.0776, 1.0797, 0.6575, 0.8222, 0.4073, 0.5951,
        0.4656, 0.8305, 0.6572, 0.5415, 0.5067, 0.5405, 0.8449, 1.2503, 0.4356,
        0.8745, 0.9730, 0.4954, 0.9253, 1.0362, 1.0232, 0.4545, 0.5205, 0.5597,
        0.7516, 0.9420, 0.6775, 1.1731, 0.6169, 0.9145, 0.7983, 1.6114, 0.7937,
        0.7212, 0.6473, 0.8426, 0.5377, 0.9717, 1.1142, 0.4333, 0.7234, 1.0541,
        1.0467, 0.5571, 0.7854, 1.0132, 0.6412, 1.0655, 0.7354, 0.6435, 0.4151,
        0.8290, 0.5407, 0.7985, 0.6551, 0.4451, 0.5330, 0.8203, 0.8811, 0.6518,
        0.5550, 1.2996, 1.0454, 1.2523, 0.5343, 0.5479, 0.5719, 0.5331, 1.0334,
        0.7674, 0.3502, 0.7742, 0.8238, 0.6106, 0.6667, 1.1674, 0.5272, 0.8758,
        0.5224, 0.6207, 0.7055, 0.8451, 1.0790, 1.1158, 0.4049, 0.7388, 1.3313,
        0.9493, 0.7228, 0.9822, 0.7484, 0.5231, 0.8053, 1.0912, 1.3079, 0.6943,
        0.8258, 1.0381, 1.0355, 0.7679, 0.6453, 0.8913, 0.6350, 0.7690, 0.7214,
        0.3622, 0.4726, 1.1054, 0.9529, 1.0007, 0.5265, 0.8934, 1.0638, 0.4570,
        1.1276, 0.4707, 0.4465, 0.7010, 0.6230, 0.7969, 0.4713, 0.7329, 0.8643,
        0.5367, 0.3317, 0.5373, 0.6799, 0.7325, 0.6792, 0.5273, 0.4910, 0.5078,
        0.8031, 0.8500, 1.0482, 0.9397, 0.8652, 0.6497, 0.7527, 0.6143, 0.9602,
        0.5123, 0.5112, 1.0588, 0.6408, 0.6079, 0.5216, 0.5974, 0.5798, 0.7753,
        1.0701, 1.2734, 0.8499, 0.5952, 0.9801, 0.9408, 0.6166, 0.8395, 1.0285,
        0.6388, 0.9718, 0.8697, 0.6575, 0.7704, 0.4249, 0.5541, 0.8797, 0.6053,
        0.4592, 0.7538, 0.3135, 0.7274, 0.8423, 0.6696, 0.5325, 0.8262, 0.7418,
        0.6870, 0.4960, 0.5009, 0.5996, 0.6520, 0.6511, 0.7433, 0.6480, 1.3042,
        0.7739, 1.1070, 0.6538, 0.4100, 0.9657, 0.7754, 0.5577, 0.7341, 0.4245,
        0.6439, 0.6640, 1.6557, 0.6500, 0.9862, 0.5843, 0.5697, 0.5972])
mlp.net.1.batch_norm.num_batches_tracked tensor(45)
mlp.net.2.weight tensor([[ 1.8989e-02,  2.3772e-03, -1.2124e-02, -7.6393e-03, -5.5700e-04,
         -2.3290e-02, -3.8296e-02, -2.4595e-03, -8.4761e-03, -1.1322e-02,
          2.9507e-02,  5.7054e-03, -1.5189e-02,  1.5417e-02,  2.7646e-02,
         -1.1970e-02,  7.5627e-03,  2.4608e-02,  2.5534e-02,  6.9360e-03,
         -2.2080e-03, -2.1010e-02,  2.3437e-02, -1.5548e-02,  2.4023e-02,
          1.9572e-02, -8.5153e-03,  2.9269e-02, -8.4671e-03,  9.0446e-03,
         -3.7555e-02,  2.4358e-02,  1.2117e-02,  2.7914e-02,  4.4035e-03,
          3.5333e-03,  1.4124e-02,  3.7886e-02, -3.3236e-02,  3.3123e-02,
          2.9031e-02,  2.3615e-02,  4.9823e-03,  1.5130e-02,  3.0164e-02,
         -3.8204e-02,  1.9597e-03, -1.9900e-02,  1.2966e-02, -3.5570e-02,
          2.7513e-02,  2.8627e-03, -2.4909e-02,  2.0291e-02,  1.6732e-02,
          1.2340e-02, -2.1701e-03,  1.9810e-02,  2.3224e-02,  2.4050e-02,
          8.2105e-03, -1.7950e-02, -1.3129e-02, -1.1798e-02, -2.6309e-02,
         -3.6510e-02,  2.1768e-02,  1.2197e-02,  2.9187e-02, -2.1113e-03,
         -3.2614e-02,  2.8678e-02,  2.2906e-02,  1.7479e-03, -6.7334e-03,
         -1.5988e-02, -1.9316e-03, -1.9366e-02, -3.3153e-02,  1.4675e-02,
         -1.2257e-02,  1.6772e-02, -3.0101e-02, -2.3113e-02, -1.6078e-02,
         -1.3728e-02,  3.9536e-03, -2.7182e-02,  2.4086e-02, -1.1167e-02,
         -2.6559e-02,  3.4043e-02, -1.6520e-02,  8.3537e-03, -1.7500e-02,
          2.3073e-02,  2.9413e-03, -2.9986e-02, -2.9665e-02, -3.3774e-02,
          1.0085e-02,  1.1425e-03,  3.9263e-02,  1.2921e-02,  2.2192e-02,
          3.7177e-02,  2.0984e-02,  1.1921e-02,  2.3788e-02,  1.4518e-03,
          3.0532e-02, -9.3052e-03,  9.0334e-03,  3.2977e-02, -2.9999e-03,
          1.3384e-02,  2.5669e-02,  3.5528e-02, -1.9147e-02, -1.7780e-02,
          2.3251e-02,  2.0330e-02, -9.4491e-03, -2.2207e-02,  1.2487e-02,
          2.5984e-02,  1.0577e-02, -2.8823e-02, -3.7278e-02,  2.7706e-02,
         -3.2595e-02,  3.0823e-02, -3.3222e-02,  1.3240e-02,  8.9652e-04,
         -1.4567e-02,  3.5588e-03, -2.7095e-03, -2.5308e-02,  3.7579e-02,
          2.5237e-02, -2.8492e-03, -2.2629e-02, -1.7195e-02, -1.9004e-02,
         -3.2235e-02, -2.9514e-04, -1.1633e-02, -2.0159e-03,  7.8345e-03,
         -1.3138e-02,  2.8789e-02, -7.6805e-03,  5.7972e-03, -1.4897e-02,
         -2.9767e-02,  6.3222e-03, -1.7192e-02, -3.6275e-02,  5.0134e-03,
          2.3167e-02,  3.3865e-02,  5.1925e-04,  6.7173e-03, -5.1026e-03,
         -1.4679e-02, -2.9623e-02, -2.9718e-03, -1.8189e-02,  1.5689e-02,
         -9.7677e-03,  6.6486e-03,  2.4862e-03,  8.5479e-03,  1.8650e-02,
          2.4892e-02, -2.1559e-02,  7.5410e-03, -2.8858e-02,  2.5835e-02,
         -5.1772e-03, -2.5342e-02,  3.6787e-02, -2.8382e-02, -1.4228e-02,
          1.1323e-02,  9.5807e-03,  1.8729e-02, -4.1584e-02, -1.5846e-02,
          7.7371e-03, -2.0349e-02, -1.7977e-02,  5.3824e-03,  2.6394e-02,
          1.1098e-02,  3.5505e-02, -1.9222e-02, -1.7607e-03,  3.0437e-02,
         -1.0480e-02, -7.0490e-03, -7.2703e-03,  3.0806e-02,  9.8023e-04,
          9.9459e-03,  5.9342e-03, -2.9672e-02, -2.6775e-03, -2.7334e-02,
         -8.6216e-03, -3.1683e-02, -3.6046e-03,  5.3065e-03,  7.7645e-03,
         -2.3169e-02, -5.7980e-03,  3.6990e-02, -3.8379e-03,  3.0953e-02,
         -2.6193e-02,  9.2976e-03,  2.5487e-02, -3.2721e-02, -1.2344e-02,
          3.1472e-02,  1.2553e-02, -3.2581e-03, -2.5847e-02, -1.0725e-02,
         -5.0052e-03,  3.4828e-02,  3.9136e-02,  1.7106e-02, -4.1263e-04,
          2.8350e-02, -1.8587e-03, -2.3020e-02, -1.5522e-02, -2.5036e-03,
          2.5236e-02,  1.6744e-02, -1.8722e-04, -5.6845e-03,  2.2632e-02,
          2.3324e-03, -3.7771e-02,  1.1932e-02,  2.5504e-02,  1.1691e-02,
         -8.0928e-03,  3.5682e-02, -1.9503e-02, -2.3030e-02, -3.3059e-02,
          9.3410e-03,  2.8644e-02,  1.2984e-02, -3.8021e-02,  2.2761e-02,
          8.0038e-03, -3.0571e-02, -3.6514e-02,  1.0001e-02, -1.3284e-02,
          2.5781e-02,  1.3057e-02, -1.6381e-02,  2.1592e-02, -2.9757e-02,
         -2.3523e-03,  3.4992e-02, -1.3818e-03,  3.1268e-02,  2.0662e-02,
          6.2260e-04,  9.7431e-03, -2.7708e-02,  2.7863e-02, -6.1043e-03,
          1.9439e-02,  7.7696e-03,  2.6493e-02, -1.5541e-02, -3.3938e-02,
          1.4173e-02,  1.9330e-03,  3.8438e-02, -3.0102e-02, -2.4506e-02,
         -3.3283e-03, -2.6012e-03,  4.0831e-03, -2.6607e-02,  2.4736e-02,
         -2.0882e-02,  3.4165e-02,  1.4439e-02, -2.6636e-03,  2.0990e-02,
         -6.1766e-03,  2.2209e-02, -6.4482e-03, -2.9302e-02, -3.6927e-02,
         -2.0057e-02,  2.2121e-02, -2.9972e-02,  1.1242e-02,  3.0252e-02,
         -3.7741e-02,  2.7184e-02, -2.3221e-02,  1.9914e-02,  1.6340e-02,
         -5.6328e-03,  7.0460e-03,  2.7963e-02, -1.1223e-02,  3.8288e-02,
         -1.2835e-02,  1.2841e-02,  2.9847e-04,  2.0385e-02, -3.4545e-02,
         -3.0404e-02,  1.5779e-02,  7.0298e-03,  3.1609e-02, -1.2520e-02,
         -1.9124e-03, -2.8414e-02,  1.0105e-03, -6.4240e-03, -1.6432e-02,
         -4.0145e-03,  2.6140e-02, -3.3815e-02, -3.9073e-03,  7.4211e-03,
         -3.5381e-02, -5.7882e-03, -2.0980e-03,  1.2861e-02, -1.6239e-02,
          3.4291e-02, -3.2436e-02, -5.6330e-03, -5.4845e-04,  1.9875e-02,
         -1.4470e-02,  1.5262e-02, -4.1140e-02,  2.8740e-02,  1.2033e-02,
          1.9760e-02,  2.4307e-02, -5.0440e-03,  3.2649e-03,  1.7448e-02,
          2.0054e-02,  7.6367e-03,  1.5586e-02,  1.9545e-04, -1.1562e-02,
          5.4142e-03, -1.7320e-02, -3.0371e-02, -1.4026e-02,  1.8500e-02,
         -2.8916e-02,  1.8152e-02, -6.2318e-03, -3.5306e-02, -2.8108e-02,
         -1.1464e-02, -1.0157e-02,  3.1016e-02,  5.2058e-03,  3.5674e-02,
         -1.0885e-02,  3.3248e-02, -3.6718e-02,  2.7477e-02, -3.8084e-02,
          1.6952e-02,  1.5486e-02,  7.2195e-03, -1.1187e-02,  1.4645e-02,
         -3.2057e-02, -2.4177e-02, -2.8893e-02,  9.3789e-04, -5.2350e-03,
         -1.0429e-02,  2.5890e-02,  3.6310e-02, -3.2639e-03, -2.4219e-02,
         -2.5015e-02,  3.5048e-02, -3.7501e-04,  3.1610e-02,  1.7065e-02,
          2.3917e-02, -3.6920e-02,  1.6883e-02,  1.7333e-02,  7.1707e-03,
         -3.6040e-02, -3.5603e-02, -3.2747e-02, -1.0566e-02,  1.3172e-02,
          1.6893e-02,  2.7819e-02,  1.9697e-02, -1.4423e-03, -2.6301e-03,
          4.6486e-03, -3.2859e-02,  3.0720e-02, -3.3021e-02,  2.9308e-02,
         -3.0516e-02, -1.6271e-02,  2.7861e-02,  3.4268e-02,  2.5210e-02,
          1.5026e-02,  2.6986e-02, -2.2516e-02,  2.5560e-02,  2.4728e-02,
          3.5701e-02,  4.0279e-03, -2.4064e-02,  1.9781e-02,  1.1334e-02,
         -8.5314e-03, -3.6600e-03,  3.2480e-02,  2.0112e-02,  2.3000e-02,
          3.6725e-02,  7.4772e-04,  2.9479e-03,  3.4295e-02, -1.1268e-03,
          1.1496e-02,  6.2552e-03,  1.2698e-02, -9.7502e-03,  3.0256e-03,
          3.5431e-02,  2.1864e-03,  2.3515e-03, -3.5127e-02,  1.3003e-02,
         -1.5793e-02, -3.7858e-02,  1.2644e-02,  3.2000e-02,  1.7346e-02,
          3.6488e-02, -2.8638e-02, -3.5062e-02,  2.5476e-02,  2.7563e-02,
          1.7845e-02, -9.6593e-03,  3.0649e-02,  4.3910e-03, -4.3824e-05,
         -3.2590e-02, -6.5225e-03,  2.5439e-02,  1.4206e-02,  6.8515e-03,
         -2.9678e-02,  1.5053e-02, -3.2164e-02,  3.1470e-02,  5.6169e-03,
          2.8161e-02, -2.5187e-02, -4.5763e-03, -2.7502e-02, -2.9454e-03,
          1.0862e-02,  7.1455e-04, -1.7590e-02,  3.7601e-02,  2.3640e-02,
          6.8678e-03,  2.9244e-02,  1.2126e-03, -1.7125e-02, -2.7269e-02,
         -7.9563e-03,  1.9222e-03, -1.3046e-02,  1.8350e-02,  8.3576e-03,
          1.7965e-02, -2.8709e-02,  7.3307e-03, -2.5163e-02, -2.4820e-03,
         -1.0822e-02, -9.6478e-03]])
