Weights: 
embeddings.embeddings.0.weight tensor([[-0.1162,  0.1690],
        [-0.2544,  0.4213],
        [-0.2044, -0.2793],
        [-0.1513,  0.3273]])
embeddings.embeddings.1.weight tensor([[-0.1238, -0.0092],
        [ 0.5649,  0.2574],
        [-0.1827,  0.0432],
        [-0.0453,  0.3463],
        [-0.1803,  0.3810]])
embeddings.embeddings.2.weight tensor([[ 0.3959, -0.3783, -0.2832],
        [ 0.1863, -0.1707,  0.4889],
        [-0.1572, -0.4442,  0.2075],
        [ 0.0305, -0.2290,  0.0588],
        [ 0.5031,  0.0735,  0.3115],
        [ 0.4518,  0.2986, -0.4325]])
embeddings.embeddings.3.weight tensor([[-0.4560,  0.0818],
        [-0.7370, -0.4068],
        [ 0.0236, -0.5284],
        [ 0.2734, -0.0055]])
embeddings.embeddings.4.weight tensor([[ 0.5439,  0.0637],
        [ 0.0955,  0.1384],
        [-0.5429,  0.3143],
        [-0.0889, -0.2231]])
mlp.net.0.linear.weight tensor([[-0.2755,  0.2201,  0.2837,  ..., -0.3897,  0.0077,  0.1996],
        [-0.3493,  0.0778,  0.0573,  ...,  0.3582, -0.3902,  0.1500],
        [ 0.1607, -0.1815, -0.6658,  ...,  0.2160,  0.2429,  0.1237],
        ...,
        [-0.2783, -0.1040, -0.2661,  ...,  0.0314, -0.0642, -0.2115],
        [ 0.1787, -0.2718, -0.0321,  ..., -0.1012, -0.2085,  0.0851],
        [ 0.0633,  0.5070,  0.4289,  ..., -0.0203, -0.2695, -0.7513]])
mlp.net.0.linear.bias tensor([ 0.0195, -0.1296, -0.0073,  0.0775,  0.2207,  0.0240,  0.0868,  0.1038,
        -0.1979,  0.1092, -0.1273,  0.2355, -0.0954,  0.0706, -0.1080,  0.0818,
        -0.3617,  0.0050, -0.1012, -0.0473, -0.1644,  0.0649,  0.1492,  0.1318,
        -0.0827, -0.0638,  0.0221,  0.1544, -0.2317, -0.2125, -0.0817, -0.2264,
         0.0896,  0.1750, -0.1098,  0.0823, -0.0080,  0.0412, -0.1130, -0.2218,
        -0.0205,  0.1949,  0.1305,  0.0394,  0.1371, -0.0946,  0.0970,  0.1112,
        -0.2266,  0.1289, -0.1658,  0.1473,  0.1518, -0.1802,  0.2445, -0.0386,
         0.0418,  0.0432,  0.2666, -0.0396,  0.2123,  0.0724, -0.1938,  0.1030,
         0.1485,  0.0569,  0.1573,  0.0834, -0.1326, -0.0077, -0.1054,  0.1103,
        -0.1905, -0.2226,  0.1192,  0.1386, -0.0301,  0.1173,  0.0421, -0.1773,
         0.2504, -0.1545,  0.0644,  0.1083, -0.2216, -0.0284,  0.1394, -0.1754,
        -0.0265, -0.0356, -0.0359,  0.1310, -0.0815,  0.1922, -0.1345, -0.0268,
         0.0578, -0.3146, -0.1720, -0.1693,  0.2143,  0.0769, -0.1772,  0.2067,
        -0.2014,  0.1294,  0.0754, -0.1549, -0.1863, -0.2138, -0.0993, -0.0730,
         0.1093,  0.0163,  0.2057, -0.0027, -0.0142, -0.0460,  0.1937, -0.0831,
         0.1585, -0.0056, -0.1593, -0.0718, -0.0722,  0.0878, -0.1340, -0.0287,
         0.0167,  0.2493, -0.1949, -0.1812,  0.2342, -0.2509,  0.0525,  0.1222,
         0.2697,  0.1072,  0.2355,  0.1386, -0.0884, -0.0643, -0.0392,  0.1079,
         0.0070, -0.1093, -0.0573,  0.0877, -0.1466,  0.2762, -0.0833,  0.0108,
         0.0735, -0.1367,  0.0098, -0.2725, -0.1836,  0.2566, -0.1783,  0.0639,
        -0.0146,  0.0681,  0.0561,  0.1593,  0.0859, -0.2452, -0.2205,  0.0255,
         0.0909,  0.1637,  0.1195,  0.3058, -0.0232, -0.1141,  0.1105, -0.0495,
         0.1622, -0.0106, -0.0086, -0.0843, -0.0169,  0.0881, -0.0392, -0.0461,
         0.2035,  0.1882,  0.1055, -0.1167,  0.0385,  0.0046, -0.0085, -0.1700,
         0.0177,  0.1215,  0.2012,  0.1960, -0.1026,  0.1011, -0.1645,  0.0071,
        -0.1473,  0.1952,  0.2482,  0.1242,  0.1797,  0.1511,  0.1995,  0.0953,
         0.1209,  0.0511,  0.0462,  0.0559,  0.1491, -0.0870, -0.0211, -0.1463,
        -0.0750,  0.1349,  0.0767, -0.1117, -0.1778, -0.1113, -0.2317,  0.3000,
        -0.2368, -0.0954, -0.0803, -0.0689,  0.0637, -0.1128, -0.0853,  0.1587,
        -0.0221,  0.0843,  0.0913, -0.2445,  0.2104, -0.0728, -0.0566,  0.2890,
        -0.1461,  0.0039, -0.1511, -0.2080,  0.2677,  0.0863,  0.0648,  0.1088,
         0.0964, -0.1958,  0.2329, -0.0531, -0.0327,  0.0481,  0.0256, -0.1770])
mlp.net.0.batch_norm.weight tensor([0.9720, 0.8491, 0.8928, 0.9321, 0.9796, 1.0640, 1.0430, 0.9407, 0.9854,
        1.0425, 0.9604, 0.9134, 1.0160, 0.8460, 0.9982, 0.9581, 1.0870, 0.9355,
        0.9354, 0.8896, 0.9442, 1.0325, 1.0814, 1.0148, 0.9323, 0.8714, 0.9592,
        0.9113, 1.0120, 0.9332, 0.9052, 0.9362, 0.8433, 0.9486, 0.9711, 0.9349,
        0.9126, 0.9326, 0.9127, 0.9766, 1.0644, 0.9421, 0.9669, 0.9416, 0.9738,
        0.8703, 0.9039, 0.9076, 0.8453, 1.0592, 1.0043, 0.9578, 0.9232, 0.8619,
        0.9394, 0.9830, 0.9146, 0.9436, 0.9079, 0.9187, 0.9665, 0.8957, 0.9628,
        0.9749, 1.0167, 0.9141, 0.9334, 0.9686, 0.8882, 0.9955, 0.9343, 0.8726,
        0.9020, 0.9214, 1.0453, 1.0219, 1.0115, 1.0472, 0.9674, 1.0121, 0.9317,
        1.0622, 1.0303, 0.8998, 1.0172, 1.0826, 1.0125, 0.9866, 0.9715, 1.0089,
        0.9321, 0.9963, 0.9816, 0.9939, 1.0345, 0.9549, 0.9757, 0.9312, 0.9773,
        0.9808, 0.9278, 0.8677, 1.0397, 1.0424, 0.8785, 1.0544, 0.9678, 0.9826,
        0.9642, 1.0551, 0.8872, 0.9622, 1.0025, 1.0049, 0.9026, 0.9388, 1.0394,
        0.9989, 0.8197, 0.9444, 0.9825, 1.0034, 0.9480, 0.8874, 0.9985, 0.8904,
        0.9495, 1.0081, 0.9639, 1.0698, 1.0413, 0.8912, 0.9575, 0.8791, 1.0172,
        0.9131, 0.9282, 1.0475, 0.9769, 0.9110, 0.8851, 0.8433, 0.9983, 1.0692,
        0.9780, 0.9392, 0.9379, 0.9464, 0.9079, 0.9291, 1.0025, 0.9837, 1.0008,
        0.8651, 0.9899, 1.0805, 0.9284, 0.9839, 0.8663, 0.9381, 1.0168, 1.0485,
        1.0172, 0.9543, 0.8745, 0.9091, 0.9542, 0.9424, 1.0132, 0.9457, 0.9735,
        1.1413, 1.0160, 0.9839, 0.9494, 1.0186, 0.9688, 0.9457, 0.9207, 1.0034,
        1.0363, 1.0456, 0.9425, 1.0472, 1.0557, 1.1037, 0.9461, 1.0085, 0.9322,
        0.9862, 0.9572, 0.9718, 0.9935, 0.9758, 0.9512, 1.0159, 0.8684, 0.8531,
        1.0189, 0.9331, 1.0327, 0.9221, 0.9937, 0.9548, 1.0240, 0.9167, 1.0243,
        0.9043, 1.0314, 0.9450, 0.9436, 0.9583, 1.1155, 1.0083, 0.9463, 1.0352,
        1.0810, 0.9566, 0.9246, 0.9293, 0.9628, 0.9634, 0.9207, 1.0795, 0.8515,
        1.1032, 1.0415, 0.8736, 1.0530, 0.8737, 1.0134, 1.0355, 0.9729, 0.9059,
        1.0152, 0.8847, 1.0337, 0.9849, 0.9569, 0.9941, 1.0017, 0.9444, 0.9581,
        0.7916, 1.0266, 1.0140, 0.9925, 1.0365, 0.9977, 0.9094, 1.0004, 1.0599,
        0.9584, 0.9633, 0.9396, 0.9175])
mlp.net.0.batch_norm.bias tensor([-0.0327,  0.0004, -0.0852, -0.0106,  0.0489, -0.0391, -0.0362, -0.0663,
        -0.0322,  0.1031, -0.0064,  0.0087,  0.0350,  0.0323, -0.0695,  0.0534,
        -0.0464, -0.0712, -0.0262, -0.0336,  0.0711,  0.0646,  0.0303, -0.0387,
         0.0256,  0.0190,  0.0729, -0.0125, -0.0140, -0.0620, -0.0591, -0.1171,
         0.0375,  0.0224,  0.0254,  0.0255,  0.0730, -0.0928,  0.0393,  0.0608,
        -0.0132, -0.0432,  0.0373,  0.0578,  0.0747,  0.1122,  0.0499, -0.0063,
         0.1265, -0.0628, -0.0232, -0.0192, -0.1393, -0.0178,  0.1258, -0.0548,
        -0.0069,  0.0606,  0.0427, -0.0758,  0.0674,  0.0597,  0.1160, -0.0210,
         0.1306,  0.0990, -0.0193, -0.0885,  0.0773, -0.0901,  0.0036,  0.0036,
        -0.0631, -0.0110,  0.0217,  0.1222,  0.0112, -0.0107, -0.1250, -0.0646,
        -0.0117, -0.0425,  0.0205,  0.0118,  0.0120, -0.1007,  0.0316,  0.0640,
         0.0039,  0.0845, -0.1280, -0.0909, -0.0529, -0.0725, -0.0354,  0.0352,
        -0.1079,  0.0706,  0.0278,  0.0221,  0.0301,  0.0896, -0.0652, -0.0490,
         0.0118,  0.0982, -0.1276, -0.0077,  0.0164,  0.0990,  0.0794,  0.0711,
         0.0332, -0.0371,  0.0333,  0.0029, -0.0082,  0.0082, -0.0029,  0.0227,
        -0.0932, -0.0713,  0.0853, -0.0480, -0.0401, -0.0445, -0.0611,  0.0392,
        -0.0290, -0.0839, -0.0375,  0.0989, -0.1484,  0.0233, -0.0792, -0.0431,
         0.1027,  0.0100,  0.0119,  0.0950, -0.0269, -0.0765, -0.0182, -0.0076,
        -0.0605, -0.0353, -0.0293, -0.0500,  0.0576,  0.0629, -0.0847, -0.0656,
        -0.0193,  0.0191,  0.0291, -0.0827, -0.0842, -0.1190, -0.0686, -0.0343,
        -0.0018,  0.0577,  0.0945,  0.0057,  0.0995, -0.0106, -0.0305,  0.0862,
         0.0357,  0.0061,  0.0511, -0.0251, -0.0183,  0.0062, -0.0773, -0.0309,
         0.0075,  0.0498, -0.0092,  0.0112,  0.0036,  0.0250,  0.0887,  0.0636,
        -0.0885,  0.0731, -0.0474, -0.0030, -0.0743,  0.0202,  0.0786, -0.0583,
        -0.0160, -0.0653,  0.0004, -0.0658, -0.0225,  0.0376, -0.0446, -0.0210,
         0.0217,  0.0850,  0.0085,  0.0150,  0.0854, -0.0302, -0.0525, -0.0719,
        -0.0286,  0.0259, -0.0325,  0.0186, -0.0082, -0.0734,  0.0567, -0.0454,
         0.0452,  0.0355,  0.0507,  0.0627,  0.0505,  0.1203,  0.0055,  0.0130,
         0.1345, -0.0138,  0.0987, -0.0112, -0.0185,  0.0684,  0.1237, -0.0618,
         0.0312, -0.0993,  0.0248, -0.1840,  0.1199,  0.0190,  0.0468, -0.0005,
         0.0499, -0.0216, -0.0613,  0.0790, -0.0832, -0.0321,  0.0563, -0.0665,
        -0.0332, -0.0128, -0.0271, -0.0367,  0.0380, -0.0313,  0.0276,  0.0291])
mlp.net.0.batch_norm.running_mean tensor([2.4177e-02, 9.2632e-01, 7.9781e-03, 8.7469e-01, 1.4388e+00, 6.1477e-02,
        1.7628e-01, 1.3553e-01, 1.1228e-01, 4.0118e-02, 6.1639e-08, 7.1158e-01,
        2.8234e-01, 1.9174e-02, 3.5813e-02, 1.1431e-02, 3.3858e-04, 4.3178e-01,
        1.0874e-01, 6.7476e-01, 1.4088e-01, 4.3585e-01, 4.7113e-01, 4.2650e-03,
        1.7996e-01, 1.2792e-01, 5.9425e-01, 3.9614e-01, 2.9343e-03, 4.1181e-02,
        3.8198e-01, 1.6151e-09, 4.0399e-01, 5.8424e-01, 2.7447e-01, 7.2252e-01,
        4.3130e-01, 3.1735e-01, 4.0412e-01, 1.0785e+00, 3.4904e-02, 5.7525e-02,
        9.7258e-01, 4.3524e-01, 2.8811e-02, 4.5625e-01, 3.7913e-01, 6.8751e-01,
        4.6099e-02, 2.8685e-01, 1.1218e-01, 1.0947e-02, 2.1252e-01, 2.6165e-01,
        1.1100e-01, 5.3568e-01, 3.3335e-03, 1.9533e-02, 9.2137e-01, 4.1588e-02,
        4.3792e-02, 7.7414e-01, 1.5575e-01, 3.6069e-02, 2.0770e-02, 1.2236e-01,
        7.4068e-01, 3.4500e-01, 2.1890e-03, 3.9182e-01, 2.5179e-02, 5.9909e-01,
        7.0479e-02, 6.0924e-01, 7.7985e-02, 2.3481e-04, 4.9536e-01, 3.6513e-02,
        2.4717e-01, 1.1492e-01, 9.8316e-01, 3.2917e-02, 3.2282e-01, 6.6130e-01,
        7.3051e-02, 4.4474e-01, 5.3126e-03, 1.7374e-01, 5.2672e-01, 5.8128e-01,
        4.7306e-02, 4.6918e-01, 2.1525e-01, 1.8840e-01, 4.4612e-02, 5.8334e-01,
        5.0783e-01, 3.7443e-03, 6.4493e-04, 4.9093e-03, 1.0250e+00, 2.0651e-01,
        7.9159e-02, 3.1799e-01, 3.5941e-01, 2.2784e-02, 3.6676e-01, 5.0579e-02,
        1.9911e-02, 4.7779e-03, 4.6845e-01, 1.3122e-01, 7.0903e-01, 2.0489e-01,
        9.4434e-02, 1.1946e-02, 9.0593e-02, 2.1185e-04, 6.0737e-02, 3.4748e-01,
        1.5447e-01, 8.5761e-01, 2.2838e-01, 1.4901e-01, 3.0548e-01, 3.1134e-01,
        2.9794e-01, 5.4386e-01, 2.3976e-02, 3.5540e-01, 4.0376e-01, 3.1911e-01,
        8.5739e-01, 5.8048e-02, 7.2230e-04, 2.9004e-01, 1.0921e+00, 2.1552e-01,
        2.1299e-02, 3.4151e-01, 1.6714e-01, 4.0421e-01, 2.8626e-01, 9.5565e-02,
        2.4464e-02, 5.0097e-01, 6.3496e-01, 1.8789e-01, 1.1310e+00, 4.2711e-01,
        1.0339e-01, 1.7258e-04, 1.5513e+00, 4.9461e-01, 1.2318e+00, 2.8148e-02,
        9.1647e-03, 8.4428e-01, 3.8236e-02, 4.4785e-01, 8.6792e-02, 1.2566e-01,
        5.1944e-01, 4.9517e-01, 7.9635e-02, 2.8717e-04, 9.0734e-04, 7.0673e-01,
        6.5277e-01, 3.7368e-01, 2.6556e-01, 5.1950e-01, 1.0519e-01, 2.2622e-01,
        5.9743e-01, 1.2965e-01, 6.1309e-01, 6.4582e-01, 5.2357e-01, 8.8316e-01,
        4.0591e-01, 1.1268e-02, 7.8385e-02, 3.1204e-03, 1.5182e-01, 1.6749e-01,
        6.3832e-02, 2.7140e-01, 3.6215e-02, 1.6923e-01, 3.8134e-01, 2.6158e-01,
        2.8555e-01, 1.2407e+00, 4.8618e-01, 1.1548e-02, 4.0638e-01, 1.0010e-01,
        3.4870e-05, 1.3067e-02, 2.5586e-01, 3.1787e-01, 6.5694e-01, 1.6015e-01,
        2.4400e-01, 9.8214e-01, 1.5115e-01, 1.1873e+00, 1.5963e-01, 7.0190e-02,
        2.5389e-02, 1.8154e-03, 3.3553e-02, 6.2780e-02, 1.3452e-01, 1.0133e-02,
        4.6877e-02, 6.4290e-02, 3.0271e-01, 9.7728e-02, 1.3661e-02, 6.5255e-02,
        1.5671e-11, 7.2367e-01, 7.2844e-07, 2.7195e-03, 2.3111e-03, 5.6489e-01,
        4.5697e-02, 2.7563e-01, 4.1867e-02, 2.5930e-01, 3.8299e-02, 4.7495e-02,
        7.2980e-02, 3.7027e-02, 5.1700e-01, 6.3837e-01, 1.7968e-03, 5.6175e-01,
        4.8855e-02, 2.1052e-02, 5.8753e-02, 2.1622e-03, 9.8641e-01, 6.3846e-04,
        9.6961e-02, 2.0353e-01, 1.5877e-01, 2.2619e-01, 5.3405e-01, 2.7141e-02,
        2.4788e-01, 0.0000e+00, 2.6246e-01, 5.9202e-01])
mlp.net.0.batch_norm.running_var tensor([1.1992e-02, 3.0256e-01, 3.2455e-03, 1.3506e-01, 2.2351e-01, 2.2440e-02,
        3.3229e-02, 4.3851e-02, 4.5350e-02, 1.1044e-02, 4.0265e-07, 1.1474e-01,
        1.3181e-01, 5.9096e-03, 1.0420e-02, 4.0010e-03, 8.2344e-05, 2.2177e-01,
        3.9712e-02, 2.3867e-01, 6.7204e-02, 1.7660e-01, 1.5191e-01, 8.8576e-04,
        5.5588e-02, 5.3274e-02, 1.4858e-01, 2.0728e-01, 6.2387e-04, 1.4725e-02,
        1.1723e-01, 3.9261e-07, 1.0463e-01, 1.3484e-01, 1.3040e-01, 1.6572e-01,
        1.3027e-01, 1.2337e-01, 1.4457e-01, 1.9570e-01, 1.2175e-02, 1.6080e-02,
        4.1794e-01, 1.0543e-01, 1.3920e-02, 1.2427e-01, 1.9530e-01, 2.2644e-01,
        1.8841e-02, 1.1581e-01, 2.7450e-02, 3.0081e-03, 6.9618e-02, 8.5604e-02,
        4.4704e-02, 1.7503e-01, 1.3095e-03, 6.6618e-03, 1.1782e-01, 1.4438e-02,
        1.0813e-02, 1.3467e-01, 6.1371e-02, 1.3595e-02, 6.7745e-03, 3.6131e-02,
        1.4684e-01, 8.3804e-02, 5.2393e-04, 1.7512e-01, 7.9558e-03, 1.4869e-01,
        1.5230e-02, 1.2697e-01, 3.5518e-02, 3.0726e-05, 1.3485e-01, 1.5291e-02,
        1.5417e-01, 2.1660e-02, 1.2176e-01, 6.1980e-03, 1.0845e-01, 3.4377e-01,
        2.5141e-02, 1.4699e-01, 1.8040e-03, 5.3190e-02, 1.9708e-01, 8.3853e-02,
        2.1111e-02, 1.8868e-01, 4.8753e-02, 6.6331e-02, 1.6784e-02, 1.2018e-01,
        5.7199e-02, 9.5537e-04, 8.0392e-05, 1.5831e-03, 1.9053e-01, 3.2412e-02,
        3.3816e-02, 1.3527e-01, 8.0594e-02, 8.7051e-03, 9.3249e-02, 1.7374e-02,
        7.4454e-03, 9.3432e-04, 1.3008e-01, 4.8178e-02, 2.0875e-01, 5.2886e-02,
        3.1111e-02, 2.7486e-03, 2.1811e-02, 3.9701e-05, 2.5740e-02, 1.6214e-01,
        5.0390e-02, 1.7994e-01, 7.9778e-02, 4.8046e-02, 1.0643e-01, 1.0856e-01,
        8.4157e-02, 1.5450e-01, 6.0530e-03, 5.0324e-02, 1.8820e-01, 5.5738e-02,
        2.1790e-01, 1.5905e-02, 1.9122e-04, 7.6916e-02, 1.6636e-01, 9.6904e-02,
        6.3734e-03, 1.1188e-01, 4.7658e-02, 1.0040e-01, 8.3939e-02, 2.7943e-02,
        8.3963e-03, 1.0969e-01, 1.5833e-01, 7.1884e-02, 2.6239e-01, 1.1671e-01,
        3.7173e-02, 2.5211e-05, 1.4616e-01, 2.0536e-01, 1.6270e-01, 1.1016e-02,
        3.1051e-03, 8.1266e-02, 1.7115e-02, 1.0608e-01, 2.3761e-02, 4.7509e-02,
        8.7172e-02, 2.4120e-01, 2.9887e-02, 5.7854e-05, 2.8602e-04, 2.0010e-01,
        1.3243e-01, 1.1159e-01, 1.1633e-01, 1.8362e-01, 3.8489e-02, 7.3104e-02,
        1.8580e-01, 6.7087e-02, 1.1310e-01, 1.4546e-01, 1.3129e-01, 2.7260e-01,
        9.5219e-02, 2.8150e-03, 2.2634e-02, 8.5121e-04, 4.7850e-02, 5.9046e-02,
        2.4285e-02, 8.2392e-02, 1.2559e-02, 8.1018e-02, 1.0213e-01, 1.0193e-01,
        1.5092e-01, 1.7723e-01, 1.1334e-01, 5.2142e-03, 1.4453e-01, 2.7633e-02,
        7.1389e-06, 5.2237e-03, 1.1088e-01, 1.1753e-01, 1.2994e-01, 4.6953e-02,
        1.3752e-01, 1.1837e-01, 6.0800e-02, 5.9647e-01, 5.6700e-02, 1.7142e-02,
        1.0416e-02, 4.6842e-04, 1.2386e-02, 2.2639e-02, 6.5687e-02, 3.7445e-03,
        1.9481e-02, 3.3090e-02, 7.6955e-02, 2.8707e-02, 2.8882e-03, 2.4210e-02,
        3.9260e-07, 1.4798e-01, 4.3079e-07, 5.6248e-04, 7.4040e-04, 1.8721e-01,
        1.6364e-02, 9.4763e-02, 8.8161e-03, 7.9807e-02, 1.0639e-02, 1.6930e-02,
        2.0925e-02, 1.0648e-02, 1.6866e-01, 1.8704e-01, 4.9556e-04, 8.6027e-02,
        2.0869e-02, 7.9967e-03, 2.2641e-02, 5.1732e-04, 1.1229e-01, 1.1740e-04,
        2.5595e-02, 8.7564e-02, 6.8321e-02, 8.2547e-02, 1.2300e-01, 9.3866e-03,
        1.1743e-01, 3.9260e-07, 9.3288e-02, 7.8198e-02])
mlp.net.0.batch_norm.num_batches_tracked tensor(140)
mlp.net.1.linear.weight tensor([[ 0.0404, -0.0753,  0.0894,  ..., -0.0125, -0.1501,  0.0693],
        [-0.0234, -0.0401,  0.0113,  ..., -0.1050,  0.0576, -0.1327],
        [ 0.0863,  0.0867, -0.0246,  ...,  0.1602,  0.0537, -0.0576],
        ...,
        [-0.1831, -0.0106, -0.0123,  ...,  0.1242,  0.0222,  0.0014],
        [ 0.1101,  0.1281, -0.2468,  ..., -0.1037,  0.0865, -0.0352],
        [ 0.0152, -0.0014,  0.1024,  ..., -0.1167,  0.0141,  0.0491]])
mlp.net.1.linear.bias tensor([-3.4989e-02,  9.0952e-02,  4.1229e-02,  2.6829e-02, -4.1933e-02,
         4.6917e-02,  4.5169e-02,  1.1198e-02,  1.6246e-01, -6.0796e-03,
        -1.2943e-02,  8.5993e-02, -1.7906e-02,  1.8973e-02,  3.6907e-02,
        -3.6746e-02, -9.2319e-03, -1.2493e-01,  5.0766e-02,  3.8980e-02,
         6.8750e-02,  1.2923e-02, -6.2334e-02, -9.6320e-02, -1.7260e-01,
         2.3527e-02, -5.4516e-02,  2.6023e-02,  1.2131e-02,  6.0067e-02,
        -6.8928e-02,  8.3158e-02, -3.6873e-03, -5.7115e-02, -1.4452e-01,
        -7.0628e-02,  1.0027e-01, -9.2567e-02,  1.2202e-02, -5.9631e-02,
         4.0279e-02, -4.4969e-02,  2.4698e-02, -4.5676e-02, -8.0671e-03,
        -1.7625e-02,  5.4423e-02,  4.7866e-02, -1.7526e-02, -2.3055e-02,
         8.0798e-02,  5.1345e-02, -1.5891e-02, -4.2629e-02, -3.6400e-02,
         8.5636e-02,  5.3539e-02,  9.7804e-02,  8.8664e-02, -7.0214e-02,
         1.0471e-01, -8.3265e-03, -3.5038e-02, -2.2038e-02,  1.0304e-01,
        -1.2983e-02,  7.6166e-02, -1.5924e-01, -3.1999e-02,  1.7338e-02,
        -1.0108e-01, -2.8723e-02,  2.3567e-02,  9.4108e-05,  4.0115e-02,
        -4.0090e-02,  9.1057e-02, -3.1710e-02, -1.5139e-02,  6.2082e-02,
        -1.3436e-01,  2.0182e-02, -8.3928e-02,  3.4735e-02, -8.1670e-02,
         2.1320e-02, -1.2563e-01,  1.0335e-01,  1.2436e-01, -1.6600e-03,
        -3.7577e-02, -1.1870e-01, -7.2849e-02, -5.6008e-02,  2.2473e-02,
         8.9903e-02,  7.7882e-02, -3.7245e-02,  8.1380e-03, -8.5565e-02,
         3.2738e-02, -5.8700e-02, -3.0568e-02,  2.2858e-02,  1.9863e-02,
         3.1884e-02, -6.8434e-02, -2.5893e-02, -7.3732e-02,  1.1533e-01,
        -3.5720e-02, -1.0921e-01, -3.3754e-02, -6.1558e-03,  1.9910e-02,
         3.5466e-02,  7.5461e-02, -7.4521e-02, -2.5221e-02,  9.7829e-02,
        -1.3716e-02, -1.9043e-02, -3.8103e-02,  5.1850e-02, -7.4200e-02,
         8.9181e-03,  8.6132e-03, -4.8970e-03,  6.4614e-02, -2.0070e-02,
        -9.8960e-03,  4.2552e-02,  2.9126e-02,  7.5584e-02, -6.7503e-03,
        -1.1606e-03, -2.8611e-02, -5.9591e-02,  2.3262e-02, -1.1502e-01,
        -2.0708e-02,  4.5042e-03,  8.8449e-03, -5.4860e-02, -5.5276e-03,
        -9.8122e-03, -7.6692e-02, -3.1197e-03, -1.7718e-02, -1.8708e-02,
        -7.9270e-02, -9.6535e-02, -2.4750e-02, -6.0448e-02, -1.4644e-01,
         3.2828e-02, -2.3497e-02,  6.6685e-02, -5.1483e-03, -7.6869e-02,
        -3.0311e-02, -8.4250e-02,  4.5514e-02,  9.2034e-02,  4.7188e-02,
        -7.6004e-02, -1.2883e-02,  3.2462e-02,  8.1259e-02,  9.8687e-03,
         8.0833e-02,  8.7250e-03,  1.4664e-02,  3.9636e-02,  7.9502e-03,
         1.5118e-02, -1.9433e-01, -6.6266e-02, -1.0550e-01, -5.1416e-02,
         1.1000e-01, -3.2981e-03, -8.5441e-03, -1.6275e-01, -6.6720e-02,
         8.6110e-02, -3.0992e-02,  3.7617e-02, -1.9401e-02,  1.4555e-01,
         3.5255e-02, -7.9915e-02,  2.8489e-02,  4.8626e-02, -3.8062e-02,
        -7.6637e-02,  6.4253e-02,  5.4973e-02, -8.6317e-02,  2.9427e-02,
         9.3056e-03, -2.9759e-02, -9.5094e-02, -2.4672e-02, -6.3664e-02,
        -3.9579e-02,  2.4970e-02, -6.0902e-02, -1.4863e-01, -1.4007e-01,
         7.5354e-02,  4.6297e-02, -6.7658e-02, -6.3152e-02, -2.9877e-02,
         1.0816e-01,  1.3786e-01, -6.1119e-02,  2.8543e-02,  1.7256e-01,
        -4.9017e-02,  6.8790e-03, -2.0081e-02, -4.8896e-02,  1.4358e-01,
        -3.1511e-02, -6.7065e-02, -9.1883e-02,  1.6546e-02, -6.6978e-02,
         2.7228e-02,  4.5816e-02, -7.9132e-02,  4.1315e-02, -1.9745e-02,
         8.4131e-02,  1.2386e-04,  4.4524e-02,  3.3018e-02, -3.3085e-03,
        -4.0122e-02, -2.1287e-02,  9.4454e-03,  3.4431e-03, -7.0425e-02,
         1.0936e-03, -3.3643e-02, -1.4257e-01, -4.4818e-03, -2.1386e-02,
        -6.4191e-02, -1.5568e-02, -1.2632e-02,  2.7844e-02, -3.1878e-02,
         7.8751e-02])
mlp.net.1.batch_norm.weight tensor([0.8859, 0.7901, 0.7836, 0.8459, 0.7364, 0.7953, 0.8387, 0.8510, 0.8192,
        0.8452, 0.8496, 0.7915, 0.8072, 0.8018, 0.8153, 0.7163, 0.8892, 0.8063,
        0.8571, 0.8558, 0.8957, 0.7949, 0.7821, 0.8557, 0.7414, 0.8025, 0.8460,
        0.7614, 0.7960, 0.7660, 0.8309, 0.7819, 0.8237, 0.7984, 0.7961, 0.7729,
        0.7931, 0.8664, 0.8405, 0.8303, 0.8326, 0.8527, 0.7597, 0.8303, 0.8994,
        0.8370, 0.8501, 0.8140, 0.8734, 0.8533, 0.8283, 0.7964, 0.7692, 0.7877,
        0.8245, 0.7488, 0.8841, 0.7737, 0.8186, 0.8379, 0.8618, 0.7240, 0.8106,
        0.7853, 0.6735, 0.7719, 0.7768, 0.8246, 0.8754, 0.7671, 0.8443, 0.8246,
        0.8603, 0.7777, 0.8740, 0.8304, 0.9110, 0.8718, 0.8027, 0.8945, 0.7373,
        0.7550, 0.8663, 0.8215, 0.8001, 0.8992, 0.8340, 0.8428, 0.8513, 0.9153,
        0.8202, 0.7829, 0.8484, 0.8077, 0.8032, 0.7428, 0.8301, 0.7878, 0.8557,
        0.8878, 0.8514, 0.8704, 0.8387, 0.8411, 0.8881, 0.7004, 0.8395, 0.8397,
        0.8378, 0.8642, 0.8811, 0.7923, 0.7934, 0.8835, 0.8578, 0.8528, 0.8496,
        0.8482, 0.8721, 0.7310, 0.7754, 0.7949, 0.7805, 0.7772, 0.8903, 0.8277,
        0.8753, 0.8319, 0.7946, 0.8196, 0.7890, 0.9111, 0.8496, 0.8847, 0.8540,
        0.8224, 0.7741, 0.8543, 0.8276, 0.6666, 0.8712, 0.8134, 0.7800, 0.7324,
        0.7604, 0.8543, 0.7884, 0.7929, 0.7494, 0.7903, 0.8295, 0.8013, 0.8107,
        0.7715, 0.8270, 0.8060, 0.8611, 0.8071, 0.8168, 0.8323, 0.8932, 0.8423,
        0.6383, 0.8100, 0.8324, 0.8228, 0.8834, 0.8761, 0.8640, 0.6957, 0.7422,
        0.7861, 0.8495, 0.8144, 0.7798, 0.7452, 0.7726, 0.7731, 0.8509, 0.8483,
        0.7892, 0.8204, 0.9021, 0.8551, 0.8166, 0.8947, 0.6984, 0.8295, 0.8449,
        0.8307, 0.8288, 0.7441, 0.9074, 0.7983, 0.8804, 0.8081, 0.8927, 0.8068,
        0.8219, 0.7648, 0.8526, 0.8802, 0.7932, 0.7316, 0.7763, 0.7895, 0.8549,
        0.8314, 0.7721, 0.9211, 0.8275, 0.8553, 0.8151, 0.8544, 0.8387, 0.8183,
        0.7997, 0.7803, 0.7500, 0.8531, 0.8482, 0.8035, 0.8446, 0.8735, 0.8612,
        0.7939, 0.8447, 0.8794, 0.8422, 0.8737, 0.7363, 0.8418, 0.8205, 0.8924,
        0.7949, 0.7404, 0.6765, 0.8671, 0.7987, 0.8957, 0.8223, 0.8042, 0.8995,
        0.7942, 0.8185, 0.6794, 0.8050, 0.9198, 0.8904, 0.7407, 0.8123, 0.7178,
        0.7743, 0.9204, 0.8942, 0.7996])
mlp.net.1.batch_norm.bias tensor([-3.8804e-02, -1.2363e-02,  5.5102e-02,  1.1063e-01,  5.1355e-03,
         2.0040e-02, -2.4105e-02, -9.4956e-02, -1.2169e-01, -8.1339e-03,
         2.8080e-02, -1.8434e-02,  2.1218e-02,  2.9301e-02, -5.7133e-02,
        -4.1059e-03,  1.7543e-02,  6.9290e-02, -3.2394e-02,  1.3668e-01,
        -1.6500e-02, -4.7128e-02, -2.8445e-02, -8.0334e-02,  7.3623e-02,
         3.6454e-02, -4.1047e-03,  1.1546e-01,  3.3573e-02, -2.8546e-02,
        -4.2986e-02,  9.4639e-02, -1.1880e-01, -1.1961e-01, -3.0993e-03,
         1.9185e-02, -3.6603e-02, -1.0122e-02, -4.5482e-02, -3.4618e-02,
        -4.5079e-02, -1.9127e-02, -1.1295e-02,  3.8340e-02, -4.6027e-02,
        -1.5470e-02,  3.6993e-02,  6.6176e-02, -5.0582e-02,  1.0697e-02,
         7.8392e-02, -5.0788e-02, -2.6971e-02, -4.9539e-02,  6.3122e-02,
         2.1717e-02, -9.4026e-02,  6.4775e-02,  1.4405e-02, -1.6335e-02,
        -6.1892e-02,  1.4764e-01,  7.8113e-03, -1.0591e-01, -5.0109e-02,
        -3.8065e-02, -9.8338e-02,  8.0699e-02, -4.8366e-02, -1.0059e-01,
        -1.0294e-02, -4.3452e-02, -1.2480e-01,  3.6588e-02,  3.6171e-02,
        -5.1161e-02,  3.8350e-03,  3.8295e-02, -8.5691e-02, -2.5822e-02,
        -6.5911e-02, -1.5942e-01,  4.9416e-02, -6.7598e-02,  1.7955e-02,
         1.6395e-02,  2.7153e-02, -2.7872e-02, -6.8736e-03,  9.6152e-03,
         1.0127e-02, -4.2810e-02, -6.7333e-02, -9.4344e-02,  3.1248e-02,
         7.9649e-02, -4.0041e-02, -7.3956e-02,  9.5984e-03,  7.0171e-02,
         3.9548e-02,  1.2326e-02,  4.7986e-02, -3.3052e-02,  1.2276e-01,
         1.6877e-02, -8.2064e-03, -1.0892e-01,  4.6289e-02,  5.4426e-02,
         6.4736e-02, -1.3360e-02,  9.3875e-02,  4.8937e-02,  7.3313e-02,
        -2.7593e-02,  1.9101e-02, -2.3439e-02,  1.8814e-02,  5.9203e-02,
         2.2513e-02, -2.2092e-02, -3.1769e-02, -5.5776e-02,  8.4378e-02,
         4.0050e-02,  8.6592e-02,  8.6949e-03, -4.6280e-02,  6.1957e-02,
        -6.0553e-02, -5.9696e-05,  5.3045e-02, -6.9807e-02, -8.3639e-03,
         5.1763e-02,  4.9824e-02, -1.0284e-01, -6.9132e-02, -1.3774e-02,
        -1.1826e-01, -8.7557e-02, -1.8367e-02,  5.7144e-02,  1.6087e-01,
        -1.4478e-02, -1.8723e-02, -1.1443e-01, -9.8440e-02, -4.0666e-02,
         2.4297e-02,  4.7025e-02, -2.7856e-02, -5.7789e-03,  6.4380e-02,
        -9.8829e-02, -3.3798e-02,  4.4891e-02, -9.3970e-03, -9.0694e-03,
        -4.5992e-02, -8.3876e-02,  8.7062e-02, -7.2371e-02, -3.6962e-02,
         3.2997e-03,  3.8913e-02, -6.3503e-02, -6.0890e-03,  3.7012e-02,
         1.7879e-02,  1.1742e-01, -1.0544e-01, -2.7628e-02,  1.4650e-02,
        -2.7059e-02, -7.7656e-02, -9.8394e-02,  8.2839e-02,  6.0275e-02,
        -3.4907e-02,  5.1228e-02,  8.1808e-03, -9.3159e-02, -9.2784e-03,
         4.4288e-02, -6.1411e-02, -8.3796e-02, -8.0071e-03,  5.9556e-02,
        -3.4300e-02, -2.9838e-02, -8.6298e-02, -7.0735e-02, -2.8694e-04,
         2.4125e-02,  1.8707e-03, -1.7497e-01, -4.1185e-03,  8.1007e-02,
        -6.9307e-04,  3.2506e-02, -1.7663e-02,  1.1813e-03, -1.1037e-01,
        -6.1183e-02,  4.2725e-02,  1.2722e-02,  5.6548e-02,  8.3422e-02,
        -4.5114e-02, -9.1447e-02,  2.8033e-02,  1.9689e-02, -9.1467e-02,
         2.9134e-02, -1.0251e-01, -1.4615e-01,  4.4862e-02, -8.7568e-02,
        -9.3753e-02,  8.2558e-02,  9.1507e-02,  3.7968e-02, -5.0380e-02,
         1.9401e-02,  6.6371e-02,  2.0003e-02,  3.2909e-02,  6.4347e-02,
         6.2049e-02, -3.1571e-03, -1.3668e-03, -1.1977e-02, -1.0759e-01,
        -3.3936e-02,  1.0644e-01,  3.5488e-02,  4.6437e-02,  8.4382e-02,
         9.9304e-02,  6.3386e-03, -5.4232e-02,  1.1863e-01,  7.0362e-02,
         1.1587e-01,  5.3970e-02, -1.6546e-02,  5.0456e-03,  1.1424e-01,
         8.0604e-02,  2.6427e-02, -1.2579e-01,  4.4127e-02, -3.6964e-03,
        -1.4932e-02])
mlp.net.1.batch_norm.running_mean tensor([1.2372, 1.1655, 1.2003, 1.5911, 1.2817, 1.1899, 1.2381, 1.0589, 1.5570,
        1.4540, 1.1518, 1.3387, 1.5085, 1.1631, 1.3537, 1.3048, 1.4566, 1.2651,
        1.0932, 1.4080, 2.0346, 1.1590, 1.0508, 0.9859, 1.3510, 1.2151, 1.0719,
        1.4195, 1.1289, 1.1387, 1.0131, 1.3357, 1.0642, 1.0570, 1.4645, 1.0134,
        1.5191, 1.1820, 1.1677, 0.8756, 1.0790, 1.0783, 1.2627, 1.0609, 1.1723,
        1.0045, 1.4771, 1.0442, 1.2730, 1.4822, 1.1902, 1.2123, 1.4829, 1.1007,
        1.1785, 0.9262, 1.3581, 1.3626, 1.6070, 1.1341, 1.9967, 1.4974, 1.1989,
        1.2381, 1.8046, 1.3813, 1.2116, 0.9275, 1.2409, 1.3437, 1.1197, 1.1655,
        1.2550, 1.3531, 1.0077, 0.9697, 1.7192, 0.9843, 1.3965, 1.6746, 1.1462,
        1.2896, 1.2401, 1.2799, 0.7655, 1.0149, 0.9849, 1.3811, 1.1904, 1.4063,
        1.2211, 1.1573, 1.0930, 1.0130, 1.1899, 1.6071, 0.8383, 1.1037, 0.9272,
        0.7457, 1.3464, 0.9733, 1.1328, 1.1110, 1.4599, 1.4665, 0.9653, 0.9633,
        1.1553, 1.3619, 1.2458, 1.0505, 1.0691, 1.1253, 0.9025, 0.7429, 1.2951,
        0.9801, 1.2536, 0.7609, 1.1153, 1.2717, 1.4765, 1.1364, 0.9820, 1.0129,
        1.5035, 1.2627, 1.2647, 1.2276, 0.8954, 1.3452, 1.2692, 1.2512, 1.0213,
        1.2193, 1.3064, 0.8857, 1.1539, 0.8516, 1.2037, 1.0460, 0.9056, 1.3377,
        1.0737, 1.2028, 0.9382, 1.3384, 1.3408, 1.7425, 1.1930, 0.9089, 1.2773,
        1.3508, 1.5338, 1.5442, 0.9717, 1.2077, 1.3095, 0.8882, 1.2466, 0.9759,
        1.2055, 1.4699, 1.0569, 1.1061, 1.3014, 1.3369, 1.8184, 1.3782, 1.5877,
        1.0395, 1.1527, 1.3630, 1.8025, 1.1792, 1.0151, 1.2424, 0.9054, 1.2045,
        1.4288, 1.3930, 1.7465, 0.9459, 0.8864, 1.2545, 1.2392, 1.3226, 1.0848,
        1.3789, 1.5958, 1.1266, 1.0732, 1.0874, 1.0595, 0.8891, 1.4171, 1.7591,
        0.9021, 1.1162, 1.0114, 0.9515, 0.9293, 1.0337, 1.4498, 1.5253, 0.9421,
        1.0293, 1.0040, 0.9262, 1.4037, 1.6100, 1.0826, 0.7803, 1.5963, 1.2084,
        1.0670, 1.6024, 1.0500, 1.2373, 1.7198, 1.1521, 1.2848, 1.0056, 1.3202,
        0.8412, 1.0828, 1.0654, 1.4488, 1.2569, 1.3925, 1.0183, 1.1671, 1.2902,
        1.5023, 1.3690, 1.0634, 1.7061, 1.0616, 1.3992, 1.1308, 1.0621, 1.4521,
        1.0391, 1.1722, 1.0960, 1.4043, 1.0728, 1.1942, 1.2025, 1.4615, 1.3702,
        1.4575, 0.9660, 0.9033, 1.2202])
mlp.net.1.batch_norm.running_var tensor([3.4802, 2.4189, 3.8841, 7.2620, 2.8717, 2.7529, 4.1031, 2.8646, 4.8988,
        7.1348, 4.7373, 3.5678, 6.8863, 3.5585, 3.6531, 3.7641, 4.9663, 6.8161,
        3.0928, 4.0740, 7.0950, 2.7550, 4.2776, 3.1053, 4.5456, 3.0112, 4.1240,
        4.2105, 3.0650, 2.6445, 4.4309, 3.6357, 2.7743, 3.1469, 4.8469, 2.7913,
        4.5147, 3.4090, 3.1489, 1.7441, 3.5428, 3.1150, 3.8887, 2.6267, 4.4314,
        2.2915, 3.9668, 2.2375, 3.8943, 4.5684, 4.1803, 2.7038, 5.6501, 3.3536,
        3.1992, 1.9528, 4.6696, 3.3542, 4.8569, 3.5726, 6.6812, 6.2252, 2.8725,
        2.9527, 5.2549, 3.7999, 3.3565, 2.3565, 4.0331, 3.5477, 3.0531, 3.6377,
        2.8147, 4.0846, 2.7360, 2.0829, 6.7027, 3.3424, 3.5255, 4.7479, 4.3511,
        3.6434, 3.2394, 4.5368, 2.1372, 2.6857, 2.7731, 3.4935, 2.2620, 4.4874,
        3.3669, 3.1047, 2.8042, 2.5277, 3.3202, 4.5856, 1.6430, 4.3252, 2.6496,
        2.6692, 3.9098, 3.1860, 3.4326, 2.6137, 5.2188, 4.1238, 3.0284, 2.8046,
        3.1511, 4.2896, 4.7491, 2.3955, 4.1603, 3.4267, 1.7008, 1.7011, 3.0686,
        2.4813, 3.5437, 1.3285, 2.5648, 3.4942, 4.8536, 2.4369, 4.1008, 2.7169,
        4.4681, 3.6240, 3.0279, 5.3589, 1.9812, 5.1382, 2.7253, 3.4647, 2.0808,
        3.1838, 6.3073, 2.7219, 3.1104, 2.2735, 3.5592, 3.7692, 1.9711, 3.6775,
        3.1990, 2.9132, 2.3928, 5.7225, 3.7893, 5.1876, 3.3410, 2.4653, 3.8059,
        4.0054, 5.5924, 6.6456, 2.6896, 2.2741, 3.5963, 1.9296, 3.5561, 2.5320,
        3.4002, 4.6758, 1.7253, 3.1683, 5.2417, 3.2791, 5.9644, 3.6670, 4.3847,
        2.8075, 2.5852, 4.2383, 7.4363, 2.9585, 2.8680, 3.7725, 2.9212, 3.0677,
        3.2086, 4.0808, 5.6275, 3.5265, 2.5297, 4.4858, 2.8624, 2.8211, 3.2326,
        3.1740, 3.8642, 4.3888, 2.4311, 3.0675, 2.1420, 2.1985, 3.8640, 5.6796,
        2.0303, 3.0543, 2.5553, 1.9982, 2.5788, 1.9023, 4.6048, 5.0276, 1.7780,
        3.4773, 2.4733, 2.5184, 3.8446, 4.1018, 3.2945, 1.8424, 6.3502, 3.7259,
        2.4686, 5.6293, 2.8856, 2.6029, 7.3513, 3.0198, 3.6707, 2.4534, 2.8973,
        1.8874, 2.7240, 2.7550, 4.3669, 4.1987, 3.8895, 1.9799, 2.7542, 2.8204,
        6.1873, 3.3429, 3.2074, 5.1812, 3.6016, 6.2829, 2.6820, 2.8059, 5.5351,
        2.8529, 2.5787, 3.4206, 3.9804, 3.0620, 4.6020, 4.4312, 4.1789, 4.9974,
        5.1370, 3.1970, 2.2885, 4.0297])
mlp.net.1.batch_norm.num_batches_tracked tensor(140)
mlp.net.2.weight tensor([[-8.7657e-03,  5.9391e-03, -3.8362e-03, -3.6831e-02,  7.9383e-03,
          4.7136e-03,  7.1561e-03, -1.7920e-03, -3.5974e-03, -6.5975e-03,
         -1.4972e-02,  4.1825e-04, -1.6240e-02,  8.1798e-03, -4.8650e-03,
          6.8305e-03, -1.9401e-02, -6.6274e-03,  7.8528e-03,  6.0699e-03,
          2.3361e-02,  2.0144e-02, -4.4181e-03, -2.8688e-03, -1.9408e-02,
          2.7328e-03, -1.3087e-02,  1.4191e-03,  1.2732e-02, -6.3042e-03,
          2.7009e-03, -8.0270e-03,  7.0623e-03, -7.3067e-03,  2.7396e-02,
          6.8251e-03, -8.8670e-03,  1.7130e-02,  1.2475e-02,  1.9936e-03,
         -6.1330e-03, -8.1512e-03,  3.5030e-03, -3.6853e-04, -1.6745e-02,
          1.3386e-02, -1.6760e-03,  7.9181e-04, -1.6003e-03, -7.7019e-03,
          4.7725e-03, -6.1521e-03, -1.4046e-02, -5.8414e-03,  4.0944e-03,
         -7.1514e-03,  1.0031e-02,  2.4943e-02,  8.5009e-03,  1.8561e-02,
          3.0662e-03,  2.2042e-02, -2.2777e-03,  4.8965e-03, -4.5199e-03,
          1.8865e-02, -3.9689e-04, -5.9498e-03, -5.7963e-03, -1.0464e-02,
          4.8845e-03, -1.3400e-02, -1.4136e-02, -1.0928e-02, -2.5227e-03,
          4.6663e-03, -6.2142e-03,  1.5861e-03,  9.4145e-03, -3.2597e-02,
          9.5237e-03,  4.2804e-03,  2.8243e-02, -9.7356e-03, -3.2133e-03,
         -1.7972e-02,  6.6892e-03,  7.9915e-03,  1.3672e-02,  4.3367e-03,
         -8.9826e-03,  2.8791e-02, -2.4131e-02, -2.6233e-03,  1.0876e-03,
          2.5795e-03,  2.1061e-02, -5.7882e-03,  4.3760e-03,  8.9555e-03,
          1.0016e-02, -3.9767e-04,  3.2574e-03,  1.5272e-03,  2.4476e-03,
          1.1502e-02, -8.0726e-03,  6.1867e-04,  1.1277e-02,  6.8140e-03,
         -5.7751e-03, -1.1160e-02, -1.3737e-02, -1.9942e-02,  4.0109e-03,
         -1.1445e-03,  1.3879e-02,  2.4944e-03, -9.4089e-03, -5.5442e-03,
          2.0621e-02, -1.2932e-02, -1.8806e-02,  9.3288e-03, -1.0963e-02,
         -1.4056e-02,  1.2986e-02,  6.7316e-03,  2.6182e-03, -9.3117e-03,
          5.4296e-03, -1.4289e-02,  3.5745e-03,  9.9590e-03,  1.6570e-04,
         -1.4071e-02, -6.4611e-03,  2.0600e-02, -4.9674e-03,  1.8353e-03,
         -9.3696e-03,  2.4005e-03,  7.7058e-04,  6.2714e-03, -1.6473e-02,
          1.3374e-02, -7.0932e-03, -1.1222e-02, -2.4082e-04, -4.1139e-03,
         -2.7582e-03,  8.6860e-04, -6.1027e-03,  3.1095e-03, -1.1873e-02,
          1.3223e-03, -4.5536e-03, -5.9516e-03, -4.6666e-04,  1.7506e-02,
         -2.5447e-02, -3.3507e-03, -8.9264e-03,  1.3645e-02, -9.3742e-03,
         -2.5039e-03, -1.9385e-02,  1.4600e-02,  3.1674e-03,  3.8578e-03,
         -8.5301e-03, -1.2315e-05, -2.1417e-02, -6.0950e-03, -2.0862e-02,
         -1.1222e-02,  2.5108e-02,  5.2870e-03, -2.6475e-03,  2.2596e-02,
          1.8001e-02,  6.6389e-03,  3.6539e-02, -1.1290e-02, -2.7624e-02,
          1.2939e-02, -6.3508e-03,  1.4390e-02,  1.4608e-03,  1.3412e-02,
          6.4967e-03,  1.0411e-02,  3.8708e-03, -9.2223e-03,  1.0401e-02,
          3.9133e-03,  5.8848e-04,  2.7941e-03,  1.6827e-02,  1.2326e-02,
         -1.9212e-02,  4.2854e-03,  3.8218e-03,  9.3784e-03,  1.1480e-02,
         -2.6435e-02,  2.4548e-02, -3.4290e-03,  1.9976e-02, -5.3352e-03,
         -9.5253e-03,  2.2710e-03,  2.9629e-03,  1.7696e-02, -1.2517e-02,
         -3.4540e-03,  1.9682e-02,  6.4336e-03,  2.3284e-03, -1.2759e-02,
         -2.5199e-02, -9.6284e-03, -9.5527e-03, -4.2100e-03,  2.4692e-02,
         -1.8299e-02,  3.7791e-03,  3.8329e-04, -9.6941e-04,  7.7717e-03,
          2.2766e-03, -2.0997e-03,  7.0348e-03, -1.3231e-02, -2.1771e-02,
          1.7415e-02,  3.2966e-03,  2.3515e-02,  1.7247e-03,  2.0585e-02,
          8.3892e-03,  5.0181e-03, -2.3950e-02, -1.8208e-02, -1.2407e-02,
         -3.9712e-03,  1.7099e-03, -3.1746e-02, -1.5603e-02, -4.3484e-03,
          1.0315e-02,  5.1877e-03, -3.5343e-03, -2.9467e-02,  7.3512e-03,
         -2.9504e-03]])
