Weights: 
embeddings.embeddings.0.weight tensor([[ 0.3456,  0.5698],
        [ 0.1660,  0.0217],
        [ 0.6444, -0.4219],
        [ 0.1823, -0.4067]])
embeddings.embeddings.1.weight tensor([[-3.6909e-01, -4.1423e-01],
        [-3.9998e-01, -3.4235e-01],
        [-6.0261e-01, -1.6332e-01],
        [-4.5018e-01,  4.7420e-02],
        [-3.2449e-01, -2.9791e-05]])
embeddings.embeddings.2.weight tensor([[-0.0691, -0.2193,  0.2005],
        [-0.1947,  0.3798,  0.1560],
        [ 0.2408, -0.1115,  0.4827],
        [ 0.1220,  0.0608, -0.0383],
        [ 0.0493, -0.0181,  0.2081],
        [-0.1810, -0.1467,  0.0960]])
embeddings.embeddings.3.weight tensor([[-0.3305,  0.2166],
        [-0.0180,  0.2391],
        [ 0.6381, -0.2684],
        [-0.2438, -0.5788]])
embeddings.embeddings.4.weight tensor([[-0.2382, -0.2370],
        [ 0.4250, -0.1928],
        [ 0.4965,  0.2258],
        [-0.4330,  0.0029]])
mlp.net.0.linear.weight tensor([[-2.4813e-01,  1.0616e-02,  4.5214e-01,  ...,  3.6742e-01,
         -2.0174e-02,  3.9223e-01],
        [ 1.8756e-01, -8.5428e-01,  1.5990e-01,  ...,  4.1450e-01,
         -1.1959e-01, -4.6082e-01],
        [ 2.3748e-02, -5.2650e-02, -1.1453e-02,  ...,  3.5925e-01,
         -1.0096e-01, -5.5956e-01],
        ...,
        [ 1.6901e-02, -2.3746e-01,  1.0200e-01,  ...,  4.4716e-01,
          4.3782e-01, -1.9664e-02],
        [-2.0312e-02, -6.6612e-01, -3.0183e-01,  ...,  4.1642e-01,
         -2.4059e-01,  4.3145e-01],
        [-3.7236e-01, -4.4402e-03,  1.3958e-01,  ...,  6.0366e-04,
          2.7409e-01, -1.5408e-02]])
mlp.net.0.linear.bias tensor([-1.7235e-01, -1.1692e-01, -2.6488e-01,  1.3106e-01, -8.8220e-02,
        -9.4346e-02,  1.6889e-01,  1.2074e-01, -1.2461e-02,  1.7883e-01,
        -1.0913e-01, -2.0369e-01, -3.2335e-02,  1.1299e-01, -1.5570e-01,
         3.5150e-02, -1.0526e-01,  1.8655e-01,  2.5442e-01,  1.0440e-01,
         1.6331e-01,  2.2509e-02,  1.0667e-01,  1.0502e-01, -1.3257e-01,
         8.0508e-02, -1.6250e-01, -1.3277e-01, -4.6122e-02,  2.1936e-01,
        -7.1370e-02, -1.3682e-01, -9.7216e-02,  3.6513e-02, -4.5203e-02,
         1.2355e-01, -3.2847e-02, -1.6351e-01, -5.3402e-02, -6.0912e-02,
        -1.4297e-01,  2.6234e-01, -9.1178e-02, -1.1515e-01,  1.1625e-01,
        -2.1239e-01,  1.7252e-01, -1.6964e-01, -1.4830e-02,  1.7196e-01,
         6.1916e-02,  2.6295e-01,  1.5519e-01, -8.5863e-02, -4.4175e-02,
        -4.5995e-02, -8.7086e-02,  1.9495e-01, -1.4725e-02,  2.0106e-01,
        -1.7211e-01, -2.6366e-01, -2.3322e-01,  1.1864e-01, -1.1025e-01,
         1.4239e-01,  2.5976e-01,  1.5787e-01, -1.7886e-01, -7.7924e-02,
        -7.7598e-02, -1.2435e-01,  4.1519e-02, -1.5092e-01,  1.9789e-01,
        -1.7361e-02, -6.3316e-02,  9.7142e-02, -5.8742e-02,  7.2549e-02,
        -1.2181e-01,  3.0533e-02, -1.4951e-01,  9.7629e-02,  1.8804e-02,
         6.8292e-02,  2.0687e-01, -6.0794e-02, -1.7097e-01,  1.7661e-01,
        -4.2624e-02, -8.1705e-02,  1.1419e-01,  1.4016e-01,  1.0356e-01,
        -7.6729e-02, -7.6727e-02, -1.1428e-01,  8.1088e-02, -1.3585e-01,
        -1.7413e-02,  2.5412e-04,  3.8126e-02, -2.6072e-02,  6.2079e-02,
         1.7355e-01,  2.0818e-01, -4.7479e-02,  3.5559e-02, -3.2208e-02,
        -1.9545e-01, -1.9439e-01, -2.4467e-01, -8.7128e-02,  7.0537e-02,
         7.8530e-03,  7.5962e-02,  1.7253e-02,  9.7670e-02, -1.4913e-02,
         9.6945e-04,  2.0487e-01,  2.0956e-03,  7.3773e-02, -1.5683e-01,
         1.8839e-02, -1.0057e-01, -8.7603e-02, -1.1627e-01, -3.4327e-02,
         1.9225e-01, -2.8444e-02,  2.1826e-01,  2.0558e-01,  8.6145e-02,
         4.8214e-02,  5.8543e-02, -1.9840e-01,  8.0220e-02, -7.6892e-02,
        -2.1356e-01,  7.4327e-02, -1.2644e-01, -1.7147e-01,  2.5872e-02,
        -1.4395e-01,  4.9863e-03,  1.8930e-01,  1.3561e-01,  5.6669e-02,
        -1.8228e-01,  2.1774e-01, -5.6106e-02,  1.0090e-01,  2.4865e-02,
        -5.4206e-02,  1.0415e-01, -3.8017e-02,  1.6936e-01, -3.5060e-02,
         1.2501e-01,  3.7007e-02, -1.0401e-01, -8.1724e-02,  1.9470e-01,
        -3.4676e-02, -4.3349e-02,  5.9400e-02,  1.8077e-01,  1.5093e-01,
         1.5656e-01,  1.1456e-01,  1.0742e-01, -8.9255e-02,  2.0062e-01,
         2.6303e-02,  7.4874e-02,  2.5640e-02, -3.3939e-02, -1.7771e-01,
        -1.1625e-01, -1.3091e-02,  7.4240e-02, -1.3971e-01,  6.6782e-04,
         7.9285e-02, -4.6015e-04,  2.2210e-01,  1.0172e-01,  2.6673e-01,
         2.1130e-01, -1.7306e-01, -1.9731e-01, -2.2583e-01,  6.7671e-03,
        -3.1343e-02, -1.1954e-01,  1.1886e-01, -1.9742e-02, -1.8363e-02,
        -1.3050e-01,  4.0572e-02,  2.0385e-02, -5.1931e-02, -4.2426e-02,
        -4.0948e-02, -1.6789e-01, -1.6461e-01, -1.2498e-01, -1.5034e-01,
        -8.0332e-02, -1.5824e-01, -1.2922e-01,  2.1030e-01,  2.4143e-01,
         1.1154e-01, -8.6051e-02, -6.3156e-02, -1.4925e-01,  1.0878e-01,
         1.9083e-01,  3.5136e-02, -1.3251e-01,  6.5917e-03, -1.7716e-01,
        -6.0046e-02,  1.9095e-02, -2.1882e-02,  6.6331e-02, -2.4913e-02,
         2.2862e-01, -1.4804e-01,  1.6160e-01, -2.1374e-01,  1.3476e-01,
         2.1146e-01, -1.7272e-03, -5.5573e-02, -7.4529e-02,  1.2520e-01,
        -2.4554e-01,  1.8168e-01, -1.7986e-01, -1.1430e-01, -7.6935e-02,
         1.4646e-01,  1.7171e-01,  1.0412e-01,  1.6412e-02, -1.2829e-01,
         1.3015e-01,  8.9376e-03,  7.0341e-03,  2.5929e-02, -3.8860e-02,
        -1.0614e-01, -2.2058e-01,  1.4200e-01, -1.9960e-01,  1.8797e-01,
         9.9479e-02, -8.3208e-02,  1.0325e-01,  7.7074e-02, -1.0567e-01,
        -5.6059e-02, -2.0957e-01,  1.5169e-01,  1.3558e-01, -3.8064e-02,
        -1.0397e-01,  8.0435e-03, -1.7159e-02,  4.2624e-02, -2.5505e-01,
         1.2850e-01,  1.2921e-01, -4.9352e-02,  1.1228e-02, -1.6038e-01,
         1.4442e-01, -2.1618e-01, -4.8356e-02,  1.9057e-02,  3.6121e-02,
        -2.4281e-01, -2.3690e-02, -4.1031e-02,  2.1532e-01, -1.1982e-01,
         1.8067e-01,  5.4947e-02, -3.3152e-02,  8.9421e-02,  1.9477e-02,
        -9.9738e-03, -8.2613e-02,  1.5343e-01, -1.1355e-01,  1.9933e-01,
         6.1274e-02,  1.7954e-01, -2.2943e-01, -1.4852e-01, -3.8569e-02,
        -1.1495e-02,  2.4887e-01,  2.2891e-01,  1.0668e-01,  2.0510e-01,
        -1.7643e-01, -4.9089e-02, -1.8775e-01,  6.2567e-02, -6.0601e-02,
        -4.7634e-02,  2.1363e-01, -9.1267e-02, -1.0888e-01,  1.6491e-01,
         1.5419e-01, -9.3539e-02, -1.4333e-01,  1.7258e-01,  4.4574e-02,
         2.5375e-01,  5.4521e-02, -9.1826e-02,  2.2050e-01,  1.3403e-01,
         1.7093e-01, -1.2364e-01, -6.7308e-03, -9.6451e-02,  1.4555e-01,
         7.2410e-02,  6.4829e-02, -1.0769e-01, -2.9185e-01,  2.4710e-01,
        -9.9632e-02,  1.2697e-01, -1.7198e-01,  1.2562e-01, -3.4723e-03,
        -1.3220e-01, -1.9866e-01,  4.2960e-02,  1.2094e-01,  3.5611e-03,
        -6.2682e-02, -7.7420e-03, -2.2025e-01, -1.8027e-02,  1.3708e-01,
         2.4655e-01,  2.2641e-01, -7.3134e-02,  1.1502e-01,  6.0697e-02,
        -1.5152e-01,  8.0366e-02,  1.8084e-01,  1.0459e-01, -1.9395e-01,
        -1.8219e-01,  7.6460e-02, -1.9011e-01,  1.1545e-02,  2.7691e-02,
         6.1963e-02,  1.7698e-01, -5.6568e-03,  1.1226e-01, -1.9657e-01,
         1.7996e-01,  7.6957e-02,  3.1293e-02, -1.1987e-01,  1.1497e-01,
         1.0382e-01,  7.8036e-04, -1.7566e-01,  8.8305e-02, -2.2918e-01,
         2.3463e-01,  1.5755e-01, -1.6607e-01, -1.0444e-01,  1.6761e-01,
        -1.0470e-01,  1.1767e-01, -7.8257e-02,  2.9364e-02,  1.5672e-01,
         8.3934e-02, -9.3193e-02, -8.5175e-02,  1.3158e-01,  6.6201e-02,
        -1.9046e-01,  6.6731e-02,  1.7266e-01,  2.1796e-01, -4.3355e-02,
        -1.1033e-01,  1.3640e-01,  1.9561e-01, -1.2999e-01,  5.4749e-02,
        -1.2045e-01,  2.8877e-02, -3.2206e-02, -1.6682e-01,  1.8398e-01,
        -6.4830e-02,  2.2890e-02,  1.5634e-01,  3.4101e-02, -1.8191e-01,
        -1.1995e-01,  1.3239e-01,  2.4773e-01,  6.6549e-02,  2.0283e-01,
        -1.7104e-01, -2.5508e-01,  3.1458e-02,  1.2322e-02, -6.9208e-02,
        -7.0115e-02,  2.2441e-01,  4.7281e-02, -1.8579e-02, -5.9771e-02,
        -1.3487e-02, -1.0677e-01,  9.8904e-02,  7.7272e-02,  1.6235e-02,
        -2.0381e-02,  5.3651e-02,  1.1375e-01, -8.9365e-02, -1.1339e-01,
        -1.6283e-01, -1.6651e-01,  1.1053e-01, -6.1464e-02, -8.9240e-02,
         9.8942e-02,  5.3106e-03, -2.1772e-01,  2.5024e-01, -8.4898e-02,
        -4.7796e-02, -2.4261e-02,  9.0907e-02,  1.1593e-01,  1.6115e-01,
        -8.2280e-02, -1.5441e-01, -1.3797e-02, -1.1437e-01,  2.6637e-01,
        -1.2966e-01,  1.8193e-01,  1.3243e-01, -1.7287e-01,  2.2190e-02,
         1.4931e-02, -1.3109e-01, -3.7733e-02,  1.2220e-01, -4.6640e-02,
         1.7493e-01, -1.5365e-01, -1.9006e-01, -2.1648e-01,  1.7488e-01,
        -2.0568e-02,  3.1979e-02,  9.5703e-02,  8.8104e-02,  2.6160e-01,
        -1.2662e-01,  1.8180e-01, -1.6350e-01, -1.9321e-01, -2.7524e-02,
        -5.3900e-02, -1.4455e-01, -1.5874e-02,  1.1816e-01, -2.5989e-02,
         4.7812e-02,  9.8867e-03,  7.4409e-02, -2.8683e-02, -4.5572e-02,
         6.6610e-02,  1.1937e-01, -1.4857e-01,  1.7452e-01, -2.8220e-02,
        -1.5147e-02, -5.6535e-02, -4.9599e-02, -1.5593e-02,  5.8212e-02,
         1.3877e-01, -5.8422e-02])
mlp.net.0.batch_norm.weight tensor([1.0147, 0.9450, 0.8927, 0.8734, 0.9798, 0.9974, 0.9385, 0.9378, 0.9895,
        0.9776, 0.9588, 0.9887, 0.9668, 0.9065, 0.9838, 1.0958, 0.9819, 0.9074,
        0.9578, 0.9400, 0.9566, 0.8947, 0.9832, 0.9099, 0.9451, 0.9543, 0.9708,
        0.9245, 0.8654, 1.0022, 0.9707, 0.9412, 0.8707, 0.9855, 1.0187, 0.9978,
        0.9934, 0.9251, 0.8723, 0.9686, 0.8695, 0.8575, 0.9427, 0.9215, 0.8760,
        0.9551, 0.9193, 0.9088, 1.0414, 0.9336, 0.9514, 0.9506, 0.9717, 0.9549,
        0.9078, 0.9646, 0.9825, 0.8606, 0.8777, 0.9305, 0.9482, 0.8680, 0.9590,
        1.0087, 1.0110, 0.9908, 1.0555, 0.8918, 0.9532, 0.9335, 0.9053, 0.9762,
        0.9812, 0.9921, 1.0532, 0.9595, 0.9389, 0.8529, 0.9674, 1.0329, 0.9755,
        0.9227, 0.8707, 1.0052, 0.9665, 0.9848, 0.9273, 0.9845, 0.9495, 0.8626,
        0.9074, 1.0017, 1.0240, 1.0064, 0.8909, 0.9146, 0.8794, 0.9387, 0.9613,
        0.9052, 0.9089, 0.9719, 0.9237, 0.9094, 0.8824, 0.9388, 0.9943, 0.9894,
        0.9184, 0.9548, 1.0231, 0.8503, 0.9708, 0.9698, 0.9923, 1.0291, 0.9082,
        0.9795, 1.0131, 0.9963, 0.9930, 0.9334, 0.8986, 1.0261, 0.9429, 0.9399,
        0.9227, 0.8627, 0.8351, 0.9371, 0.9689, 0.9218, 0.9572, 0.9133, 0.8607,
        1.0094, 0.9915, 0.8580, 0.9283, 0.8562, 0.9162, 0.9368, 1.0226, 1.0004,
        0.9569, 0.9537, 0.9289, 1.0511, 0.9628, 0.9703, 0.9881, 0.8759, 0.9482,
        0.9166, 0.9721, 0.9361, 0.9900, 0.9332, 0.9400, 0.9578, 0.8686, 0.9539,
        0.9558, 0.9306, 0.9072, 0.9223, 0.8808, 0.9257, 0.9932, 0.8773, 0.8918,
        0.9120, 0.9168, 0.9077, 0.9982, 1.0162, 0.8924, 0.8545, 0.9265, 0.8679,
        1.0068, 0.9911, 0.9241, 0.9805, 1.0048, 0.9580, 0.9139, 1.0136, 0.9758,
        0.8603, 0.8612, 1.0155, 1.0190, 0.9325, 0.9914, 1.0219, 1.0361, 1.0113,
        0.9792, 1.0037, 0.9928, 1.0217, 0.9412, 0.9884, 0.9492, 0.9771, 1.0219,
        0.9585, 1.0089, 0.9195, 0.9681, 1.0081, 0.8660, 0.8623, 0.9209, 0.9250,
        0.9853, 0.9633, 0.9194, 0.9666, 0.9669, 0.9581, 1.0217, 0.9576, 0.9353,
        0.9430, 0.9614, 0.9317, 0.9451, 0.9370, 0.9654, 0.9030, 1.0404, 0.9064,
        0.9763, 0.8668, 0.9084, 0.9213, 0.9822, 0.8778, 0.9031, 0.9932, 0.9751,
        0.9651, 0.8755, 0.9610, 0.8958, 0.9101, 0.9137, 0.9879, 0.8942, 0.9532,
        0.8919, 1.0241, 0.8951, 1.0456, 0.9823, 0.9081, 0.9396, 0.8999, 0.8704,
        0.9676, 0.9461, 0.9150, 0.9394, 0.9724, 0.9685, 0.9266, 1.0039, 0.9003,
        0.9427, 0.9795, 0.9205, 0.8435, 0.9283, 0.9180, 0.9166, 0.9128, 0.9804,
        0.8804, 0.9431, 1.0328, 0.9016, 0.9643, 0.8500, 0.9058, 0.9358, 0.9983,
        0.9155, 0.9396, 0.8930, 0.9965, 0.9139, 0.9047, 0.9677, 0.9795, 0.9465,
        0.8771, 0.9202, 0.9124, 0.9612, 0.8582, 0.9632, 0.9212, 0.9486, 0.9040,
        0.8946, 0.9718, 0.9744, 0.9815, 0.9730, 0.9507, 0.9670, 0.8946, 0.9394,
        0.9250, 0.9153, 0.9300, 0.8850, 0.9794, 0.9875, 0.9818, 0.9613, 1.0005,
        0.9167, 1.0366, 0.9702, 0.9336, 0.8667, 0.9820, 0.9451, 0.9448, 1.0186,
        1.0225, 0.9412, 1.0006, 0.8952, 0.9010, 0.9051, 0.8260, 0.8864, 0.9306,
        0.9132, 0.8455, 1.0038, 0.8507, 0.9101, 0.9705, 0.9438, 0.9938, 0.9202,
        0.9237, 0.8606, 0.9028, 0.9861, 0.8653, 0.9567, 0.9832, 0.9179, 0.9075,
        0.8769, 0.9293, 1.0073, 0.9379, 0.9357, 0.8913, 0.9001, 0.8903, 0.9718,
        0.9430, 0.9146, 0.9442, 0.9736, 0.8969, 0.9064, 0.9622, 0.9808, 0.9181,
        0.9409, 1.0038, 0.9090, 0.9569, 0.9692, 0.9497, 0.8898, 0.9442, 0.8738,
        0.9691, 0.8467, 0.9695, 0.8880, 0.8460, 0.8936, 1.0416, 0.9655, 0.9406,
        0.9296, 0.9856, 0.9901, 0.9218, 0.9817, 0.9055, 0.9990, 0.8774, 0.9526,
        0.9411, 0.9793, 0.9330, 0.8879, 0.8721, 0.9260, 1.0239, 0.8576, 0.9448,
        0.8842, 0.9423, 0.8831, 0.9378, 0.9602, 0.9278, 0.9155, 0.9878, 0.9598,
        0.9198, 0.8943, 0.9384, 0.8998, 0.9320, 0.9115, 0.8515, 0.9697, 0.9262,
        0.9585, 0.9695, 1.0220, 0.9929, 0.9499, 0.9022, 1.1330, 0.9441, 0.9077,
        0.8937, 0.9466, 1.0059, 0.9178, 0.8868, 0.8783, 0.9405, 0.9856, 1.0002,
        0.8818, 0.9888, 0.9192, 0.9324, 0.8578, 0.9687, 0.9579, 0.9870, 1.0564,
        0.9439, 0.9783, 0.9555, 0.9459, 0.9327, 0.9184, 0.9188, 0.9262, 0.9765,
        0.8943, 0.9496, 0.9528, 1.0262, 0.9063, 0.9999, 0.9577, 0.9999, 0.9777,
        1.0118, 0.9378, 0.9582, 0.9309, 0.9831, 0.8854, 0.9585, 0.9792, 1.0221,
        0.8733, 1.0037, 0.9176, 0.8808, 0.9883, 0.9481, 1.0083, 0.9438, 0.9412,
        0.8770, 0.9381, 0.9466, 0.9681, 1.0041, 0.9874, 0.9216, 0.9153, 1.0004,
        0.8517, 0.8285, 0.9574, 0.9965, 0.9933, 0.8635, 0.9239, 0.9585])
mlp.net.0.batch_norm.bias tensor([ 0.0141, -0.0895,  0.0241,  0.0675,  0.0512,  0.0656, -0.0459, -0.0292,
         0.0320, -0.0275,  0.0111, -0.0165,  0.0081,  0.0152, -0.0378,  0.0356,
         0.0428,  0.0327, -0.0257, -0.0395,  0.0873,  0.0236,  0.0223, -0.0209,
         0.0365, -0.0128,  0.0128,  0.0192, -0.0477, -0.0744,  0.0323,  0.0656,
         0.0189,  0.0526,  0.0239, -0.0169, -0.0301,  0.0335, -0.0561, -0.0971,
         0.0081,  0.0109,  0.0672, -0.0263,  0.0740,  0.0120,  0.0964,  0.0695,
         0.0954,  0.0488, -0.0023,  0.0284, -0.0125, -0.0486,  0.0200, -0.0194,
        -0.0560,  0.0961,  0.0471,  0.0578, -0.0276,  0.0419,  0.0076, -0.1021,
         0.0385, -0.0098,  0.0263, -0.0611, -0.0545,  0.0474, -0.0193, -0.0147,
         0.0484, -0.0131, -0.0497,  0.1090,  0.0202,  0.0503, -0.0326, -0.0554,
        -0.0379, -0.0637,  0.0414,  0.0170, -0.0488,  0.0550,  0.0014,  0.0184,
        -0.0002, -0.0102,  0.0601,  0.0033,  0.0220, -0.0107, -0.0007,  0.0058,
         0.0295, -0.0715,  0.0455,  0.0820, -0.0054, -0.0639, -0.0696, -0.0488,
         0.0109, -0.0076,  0.0585,  0.0692, -0.0326,  0.0924, -0.0025, -0.0212,
        -0.0373, -0.0066, -0.0096, -0.0306,  0.0583,  0.0089,  0.0856,  0.0081,
         0.0089,  0.0235, -0.0696,  0.0940,  0.0014, -0.0863,  0.0529,  0.0331,
         0.0392,  0.0081,  0.0181,  0.0567, -0.1016, -0.0149, -0.0665, -0.0285,
         0.0475, -0.0573, -0.0111, -0.0995,  0.0184,  0.0160, -0.0402, -0.0448,
        -0.1023,  0.0082,  0.0926,  0.0057,  0.0258,  0.0286, -0.0672,  0.0700,
        -0.0088, -0.0512, -0.0189,  0.0400, -0.0355, -0.0667, -0.0815, -0.0437,
         0.0833, -0.0434,  0.0331,  0.0194, -0.0489,  0.0087, -0.0357,  0.0416,
        -0.0598, -0.0778,  0.0334,  0.0063, -0.0090, -0.0653, -0.0884, -0.0467,
         0.0331,  0.0566, -0.0531,  0.0144,  0.0260,  0.0775,  0.0985, -0.0250,
         0.0334, -0.0241,  0.0393,  0.0242, -0.0016, -0.0205, -0.0041,  0.0574,
        -0.0398,  0.0210,  0.0527, -0.0102,  0.0503,  0.0033, -0.0052, -0.0729,
        -0.0224,  0.0333,  0.0408,  0.0110,  0.0112,  0.0155, -0.0263,  0.0148,
        -0.0283, -0.0082, -0.0422,  0.0468, -0.0096, -0.0068, -0.0730,  0.0300,
         0.0173,  0.0334,  0.0744, -0.0484,  0.0321,  0.0191, -0.0096, -0.0047,
        -0.0893, -0.0171,  0.0547,  0.0502, -0.0802, -0.0447, -0.0367,  0.0636,
         0.0585,  0.0441,  0.0653, -0.0326,  0.0324,  0.0211,  0.0200,  0.0774,
        -0.0093, -0.0707,  0.0230, -0.0121, -0.0343,  0.0473, -0.0488, -0.0005,
        -0.0429,  0.0227,  0.0255, -0.0237, -0.0178, -0.0373,  0.0412,  0.0439,
         0.0354, -0.0106, -0.0482,  0.0903, -0.0759, -0.0240,  0.0850,  0.0397,
        -0.0202,  0.0585,  0.0472,  0.1016,  0.0075,  0.0655,  0.0581, -0.0286,
         0.0728, -0.0425,  0.0497,  0.0018,  0.0039,  0.0418,  0.0578,  0.0255,
        -0.0205, -0.0227, -0.0351, -0.0465,  0.0273,  0.0351,  0.0809, -0.0212,
         0.0352, -0.0177,  0.0300, -0.0547, -0.0281,  0.0523, -0.0117,  0.1024,
         0.1295,  0.0290, -0.0669,  0.0333,  0.0492,  0.0527, -0.0180,  0.0597,
         0.0362,  0.0036, -0.0141,  0.0379,  0.0614,  0.0038,  0.0520, -0.0288,
        -0.0080,  0.0259,  0.0652, -0.0069, -0.0203,  0.0560,  0.0536, -0.0330,
         0.0523, -0.0129,  0.0033,  0.0403, -0.0206, -0.0052,  0.0509, -0.0363,
        -0.0060,  0.0172,  0.0777, -0.0235,  0.0189,  0.0489,  0.0796,  0.0506,
         0.0136, -0.0386, -0.0198, -0.0759,  0.0050,  0.0920, -0.1039,  0.0623,
         0.0105,  0.0347,  0.0344, -0.0974,  0.0180,  0.0617, -0.1366, -0.0020,
        -0.0394,  0.0120, -0.0470, -0.0058, -0.0508,  0.0138, -0.0316, -0.0742,
        -0.0281, -0.0456,  0.0414,  0.0515, -0.0226, -0.0266,  0.0757, -0.0226,
        -0.0384,  0.0638,  0.0727,  0.0017, -0.0165,  0.1312, -0.0141,  0.0234,
         0.0457,  0.0167, -0.0165,  0.0379, -0.0367,  0.0398,  0.0133, -0.0031,
         0.0517,  0.0366, -0.0186, -0.0930,  0.0581,  0.0097, -0.0295,  0.0149,
        -0.0165,  0.0011,  0.0055, -0.0587,  0.0507,  0.0669,  0.0300,  0.0442,
         0.0107, -0.0287,  0.0257, -0.0317, -0.0581, -0.0316, -0.0595, -0.0148,
        -0.0114, -0.0477, -0.0321, -0.0386, -0.0454,  0.0037, -0.0636, -0.0505,
         0.0168, -0.0644,  0.0444, -0.0709, -0.0079, -0.0082, -0.1166, -0.0059,
         0.0644,  0.0103,  0.0051, -0.0353,  0.0419,  0.0982,  0.0079,  0.0079,
         0.0025, -0.0801,  0.0403, -0.0341,  0.0391,  0.0557,  0.0292,  0.0329,
         0.0129, -0.0417, -0.0106, -0.0098,  0.0299, -0.0452,  0.0092, -0.0224,
        -0.0275,  0.0180, -0.0352, -0.0571, -0.0255, -0.0143, -0.0361, -0.0614,
        -0.0104, -0.0397, -0.0139, -0.0006, -0.0174,  0.0091,  0.0123, -0.0213,
         0.0339,  0.0370, -0.0087,  0.0465, -0.0151,  0.0284, -0.0226,  0.1227,
         0.0392, -0.0107,  0.0197, -0.0316, -0.0758, -0.0539, -0.0636, -0.0603,
         0.0792, -0.0135, -0.1119, -0.0205,  0.0434,  0.0094, -0.0411,  0.0422,
         0.0172,  0.0486, -0.0591,  0.0158, -0.0222,  0.0149,  0.0293, -0.0346,
        -0.0518, -0.0273,  0.0546,  0.0505, -0.0108,  0.0551,  0.0455,  0.0126,
        -0.0648, -0.0658,  0.0582,  0.0777,  0.0345,  0.0080,  0.0664, -0.0045])
mlp.net.0.batch_norm.running_mean tensor([8.6533e-02, 5.4729e-02, 1.8937e-01, 8.2987e-01, 2.6395e-01, 1.4590e-02,
        1.2450e+00, 3.0566e-01, 2.8534e-02, 3.6925e-01, 2.5243e-01, 2.1869e-02,
        5.9509e-03, 4.5523e-01, 3.6922e-03, 3.1192e-01, 5.7596e-01, 2.9913e-02,
        1.3450e+00, 6.1009e-01, 7.2611e-01, 6.1798e-02, 2.8593e-02, 3.7264e-02,
        5.0261e-01, 1.4553e-02, 1.4671e-03, 1.1473e-02, 2.0688e-01, 7.7177e-02,
        9.9985e-02, 1.4162e-01, 1.3889e-01, 1.1050e-02, 3.8473e-03, 1.0588e+00,
        5.4049e-01, 3.3110e-01, 5.2737e-02, 3.6653e-02, 1.3973e-03, 8.2916e-01,
        1.0129e-02, 9.6209e-02, 3.5408e-02, 8.8905e-03, 2.4001e-01, 2.6631e-03,
        2.4329e-01, 2.2954e-01, 1.8626e-01, 3.4079e-02, 9.9903e-02, 1.6733e-02,
        5.1171e-04, 1.2283e-01, 1.5163e-04, 7.5161e-01, 2.0610e-01, 2.8422e-01,
        5.0244e-01, 4.3143e-03, 2.4628e-02, 2.5695e-03, 7.7809e-02, 3.7585e-01,
        9.5603e-03, 2.8668e-01, 3.2692e-01, 2.7580e-05, 4.0870e-01, 5.3447e-01,
        3.9048e-01, 4.2440e-01, 1.0346e+00, 8.9854e-02, 4.6106e-04, 4.4441e-01,
        5.6825e-01, 1.1031e-02, 5.5890e-02, 5.7314e-01, 1.6076e-06, 2.7010e-01,
        2.5656e-02, 3.2850e-03, 1.4409e-01, 4.6174e-02, 4.7733e-02, 8.8047e-01,
        1.5322e-01, 2.4429e-02, 2.8687e-02, 8.6677e-02, 8.0222e-01, 1.6656e-01,
        5.1326e-02, 2.9776e-01, 1.1942e+00, 1.4368e-02, 7.7059e-02, 8.6571e-02,
        2.6404e-01, 1.7921e-02, 1.2902e-01, 6.6210e-03, 6.6873e-01, 1.2341e-01,
        2.0961e-02, 2.1843e-01, 3.8986e-03, 5.0133e-02, 5.8350e-02, 5.3187e-02,
        4.7454e-01, 1.9624e-01, 1.1811e-02, 8.8302e-03, 4.8815e-01, 1.6190e-02,
        1.5652e+00, 2.3282e-01, 5.1810e-01, 7.2381e-02, 6.7981e-04, 1.1479e+00,
        1.0592e+00, 4.8408e-02, 3.2189e-01, 1.0438e-01, 2.4350e-03, 5.1600e-06,
        7.3772e-03, 1.1509e-01, 7.8115e-01, 1.5782e-01, 9.0596e-03, 5.4510e-03,
        4.9867e-01, 1.5357e-01, 1.1633e-03, 2.7625e-02, 3.3946e-01, 9.4894e-04,
        4.5389e-02, 2.1093e-01, 6.6973e-02, 2.4570e-01, 8.4318e-01, 4.1208e-02,
        9.2985e-04, 9.6080e-01, 9.7108e-03, 2.7808e-01, 1.0833e+00, 3.6383e-01,
        7.5791e-01, 5.4043e-01, 1.6285e-02, 1.7314e-01, 1.0173e+00, 2.9684e-01,
        1.3094e-01, 2.9864e-01, 1.0481e+00, 5.3628e-02, 2.2915e-02, 2.4554e-02,
        1.9703e-01, 3.9160e-01, 1.2354e-03, 1.7669e-02, 9.5497e-03, 1.1325e-01,
        5.5553e-01, 4.7996e-01, 1.6800e-01, 3.0233e-02, 1.0708e-02, 1.2946e-02,
        7.4731e-02, 1.6048e-01, 2.0163e-03, 8.0414e-05, 1.1623e-02, 1.9810e-01,
        2.2183e-02, 1.0754e+00, 4.6909e-02, 7.2630e-02, 3.8376e-01, 2.6058e-02,
        1.1214e-02, 3.9071e-01, 7.8985e-01, 2.8351e-01, 6.3133e-01, 1.0297e+00,
        2.5027e-01, 1.5926e-04, 1.3862e-01, 5.0359e-01, 5.0302e-01, 2.7461e-01,
        7.2504e-01, 2.3744e-01, 6.1947e-03, 1.3633e-01, 9.5390e-04, 3.7131e-03,
        6.3787e-02, 4.6293e-02, 3.9813e-03, 1.4401e-01, 8.0928e-01, 2.6484e-01,
        4.9663e-01, 3.4050e-04, 6.5719e-01, 9.5257e-01, 2.2744e-01, 1.1594e+00,
        1.3347e-03, 1.1618e-02, 3.3370e-02, 3.5449e-01, 1.7849e-01, 2.7941e-03,
        2.2306e-01, 9.0981e-01, 3.3844e-01, 3.3187e-01, 4.4861e-01, 3.0329e-06,
        6.5315e-01, 2.0854e-01, 2.1953e-03, 2.4214e-01, 4.5300e-01, 4.4697e-01,
        2.7758e-05, 5.3097e-01, 7.8175e-01, 2.4136e-02, 3.4671e-02, 2.4931e-01,
        7.7028e-01, 3.4289e-01, 2.1371e-01, 1.4701e-01, 1.2219e-02, 8.4399e-02,
        2.7394e-02, 4.9405e-01, 4.1526e-03, 6.1671e-01, 1.2202e-01, 1.4007e-02,
        5.1826e-02, 1.3089e-01, 2.8173e-01, 1.1039e+00, 7.3227e-03, 1.9811e-02,
        0.0000e+00, 6.4398e-02, 8.5509e-02, 2.0768e-01, 6.2375e-01, 9.7075e-02,
        1.5394e-01, 8.1741e-02, 1.8695e-02, 3.2149e-01, 7.9939e-03, 3.2878e-01,
        5.0395e-01, 4.7880e-01, 9.0221e-02, 5.0598e-01, 9.9099e-01, 2.7201e-02,
        2.4237e-01, 2.3828e-01, 6.2290e-01, 8.1186e-04, 6.7084e-05, 1.4524e-01,
        2.7255e-01, 4.8104e-02, 6.4419e-01, 1.1554e-01, 7.7334e-01, 4.5080e-01,
        7.2078e-03, 1.1534e-01, 5.2797e-01, 5.8915e-01, 1.8837e-02, 1.8307e-01,
        8.1648e-02, 1.5394e-01, 5.6755e-01, 1.3210e-02, 1.9018e-01, 5.8362e-02,
        1.2932e-01, 2.5642e-01, 3.6998e-01, 4.2333e-01, 6.2699e-01, 1.7575e-02,
        7.5149e-02, 1.0352e-07, 0.0000e+00, 5.0368e-02, 2.1183e-01, 1.1602e-01,
        5.7588e-01, 1.2911e+00, 1.0709e+00, 9.9412e-02, 1.3815e-04, 6.2117e-01,
        3.5136e-01, 1.2763e+00, 2.0584e-01, 1.4754e-02, 5.6901e-01, 3.9560e-01,
        5.0802e-02, 9.9497e-02, 1.5335e-01, 8.9638e-04, 4.5209e-01, 2.1954e-01,
        3.7461e-01, 3.7495e-01, 2.6499e-01, 2.2746e-01, 5.9743e-02, 9.4865e-03,
        1.6154e-02, 8.0433e-01, 2.3765e-01, 2.3656e-04, 1.3414e-03, 7.6335e-03,
        4.6436e-01, 1.5449e-02, 1.0544e+00, 7.9288e-01, 1.7826e-02, 7.8589e-01,
        9.3725e-01, 4.0404e-01, 5.5225e-01, 1.4817e-03, 1.6412e+00, 5.6916e-01,
        7.2674e-01, 1.1432e+00, 9.1613e-01, 2.2925e-01, 4.9424e-04, 4.0351e-02,
        3.9541e-02, 7.7727e-02, 1.9972e-03, 5.9374e-04, 5.3257e-03, 4.7213e-01,
        1.6388e-01, 1.3888e-01, 4.4798e-02, 6.7462e-02, 1.6555e-01, 7.3588e-01,
        4.8955e-02, 5.3431e-01, 1.1899e+00, 3.1338e-01, 1.1340e-01, 1.0625e-02,
        3.2498e-02, 1.1273e+00, 6.3301e-01, 4.0360e-04, 3.6717e-03, 3.6182e-02,
        3.3250e-01, 1.6402e-01, 8.4699e-02, 1.2737e-03, 8.3896e-01, 2.8992e-02,
        1.5724e-01, 5.8124e-01, 9.1538e-01, 3.9936e-01, 1.3803e-01, 4.6553e-01,
        2.9485e-01, 1.0589e+00, 7.5322e-02, 2.9035e-01, 2.0156e-01, 2.8226e-01,
        1.3062e-01, 6.2387e-01, 4.3894e-02, 2.7891e-01, 1.7073e-01, 1.1600e-02,
        7.0897e-01, 1.0803e+00, 6.7911e-01, 6.1203e-02, 3.3942e-01, 1.3871e-02,
        2.7979e-01, 5.3097e-01, 7.4441e-01, 2.8453e-01, 1.1014e+00, 9.6995e-01,
        3.2295e-01, 2.4373e-01, 1.0206e-01, 1.1621e-01, 7.3683e-02, 6.2563e-01,
        8.5320e-01, 8.5433e-01, 4.2664e-01, 4.0391e-02, 2.7919e-01, 5.4311e-01,
        2.1386e-01, 7.0591e-02, 6.8220e-02, 4.1363e-02, 8.1670e-01, 1.6880e-01,
        4.6195e-01, 1.8430e-01, 2.0724e-03, 2.4161e-01, 8.3079e-02, 2.7174e-01,
        2.3987e-01, 5.5508e-02, 3.0020e-01, 5.5554e-01, 7.2216e-02, 2.9764e-03,
        1.1037e+00, 3.6765e-02, 6.3669e-01, 6.0912e-01, 1.7694e-02, 7.9630e-03,
        4.2276e-01, 4.3069e-01, 5.8446e-01, 2.0167e-01, 6.9685e-02, 6.2246e-02,
        5.8327e-03, 2.6271e-01, 2.2062e-01, 3.4812e-02, 4.3606e-01, 8.1690e-02,
        1.8194e-02, 1.3560e-01, 4.7070e-01, 2.4704e-02, 4.5773e-04, 1.7302e+00,
        9.0130e-03, 2.7960e-01, 5.8651e-01, 1.3634e-01, 3.1493e-01, 1.4786e-02,
        3.8916e-01, 4.0168e-02, 1.5286e-01, 1.0806e+00, 1.1757e-01, 8.1360e-02,
        1.3502e-01, 2.7349e-01, 4.6939e-01, 9.2998e-01, 8.8791e-01, 2.8401e-02,
        2.3309e-02, 5.4707e-02, 2.6226e-02, 5.0831e-03, 4.5554e-02, 2.4513e-02,
        6.5100e-03, 2.5254e-01, 1.3241e-01, 1.1543e-01, 1.2403e+00, 4.6664e-01,
        2.4643e-01, 1.4179e-02])
mlp.net.0.batch_norm.running_var tensor([0.0266, 0.0189, 0.0424, 0.1971, 0.0807, 0.0058, 0.0976, 0.0224, 0.0160,
        0.1116, 0.0514, 0.0067, 0.0035, 0.0979, 0.0028, 0.0751, 0.1158, 0.0156,
        0.2229, 0.1643, 0.1834, 0.0142, 0.0093, 0.0149, 0.1023, 0.0061, 0.0020,
        0.0034, 0.0648, 0.0294, 0.0244, 0.0499, 0.0694, 0.0052, 0.0026, 0.1446,
        0.1202, 0.0967, 0.0219, 0.0153, 0.0022, 0.1871, 0.0043, 0.0436, 0.0117,
        0.0037, 0.0539, 0.0023, 0.0589, 0.0374, 0.0759, 0.0164, 0.0557, 0.0092,
        0.0019, 0.0252, 0.0018, 0.1759, 0.1124, 0.0494, 0.0669, 0.0027, 0.0088,
        0.0020, 0.0292, 0.0710, 0.0049, 0.0932, 0.1372, 0.0018, 0.1007, 0.0739,
        0.1849, 0.1205, 0.2211, 0.0334, 0.0019, 0.0744, 0.1790, 0.0038, 0.0332,
        0.2159, 0.0018, 0.1191, 0.0097, 0.0023, 0.0828, 0.0132, 0.0156, 0.2234,
        0.0425, 0.0144, 0.0108, 0.0305, 0.1361, 0.0339, 0.0113, 0.0686, 0.2143,
        0.0057, 0.0258, 0.0234, 0.0588, 0.0071, 0.0423, 0.0035, 0.2020, 0.0404,
        0.0084, 0.0897, 0.0034, 0.0124, 0.0227, 0.0201, 0.1141, 0.0802, 0.0055,
        0.0036, 0.2196, 0.0056, 0.2521, 0.0743, 0.0750, 0.0236, 0.0019, 0.2514,
        0.2869, 0.0185, 0.0935, 0.0427, 0.0023, 0.0018, 0.0028, 0.0511, 0.1817,
        0.0571, 0.0051, 0.0026, 0.0730, 0.0717, 0.0020, 0.0118, 0.1167, 0.0020,
        0.0122, 0.1006, 0.0171, 0.0840, 0.3159, 0.0145, 0.0020, 0.1268, 0.0044,
        0.1247, 0.3295, 0.1321, 0.2576, 0.1501, 0.0055, 0.0758, 0.0609, 0.1375,
        0.0414, 0.0935, 0.2252, 0.0161, 0.0072, 0.0066, 0.0761, 0.1599, 0.0021,
        0.0065, 0.0035, 0.0165, 0.2000, 0.1377, 0.0886, 0.0094, 0.0039, 0.0051,
        0.0270, 0.0468, 0.0021, 0.0018, 0.0048, 0.0689, 0.0077, 0.1337, 0.0122,
        0.0293, 0.0547, 0.0110, 0.0058, 0.0501, 0.2465, 0.1158, 0.3780, 0.1706,
        0.0850, 0.0018, 0.0436, 0.2221, 0.0525, 0.0875, 0.1424, 0.0763, 0.0031,
        0.0498, 0.0020, 0.0026, 0.0217, 0.0148, 0.0024, 0.0601, 0.1996, 0.1058,
        0.1660, 0.0019, 0.1209, 0.1525, 0.0640, 0.2171, 0.0020, 0.0040, 0.0123,
        0.0587, 0.0508, 0.0028, 0.0629, 0.3893, 0.1094, 0.0928, 0.0914, 0.0018,
        0.1852, 0.0400, 0.0022, 0.0743, 0.1533, 0.0997, 0.0018, 0.1614, 0.1237,
        0.0065, 0.0101, 0.0633, 0.2434, 0.0757, 0.0908, 0.0416, 0.0058, 0.0289,
        0.0125, 0.1888, 0.0029, 0.1990, 0.0422, 0.0060, 0.0148, 0.0415, 0.0686,
        0.1795, 0.0042, 0.0066, 0.0018, 0.0238, 0.0299, 0.0596, 0.1521, 0.0349,
        0.0378, 0.0197, 0.0077, 0.0963, 0.0038, 0.0698, 0.1213, 0.1761, 0.0234,
        0.2007, 0.1071, 0.0108, 0.0651, 0.0877, 0.1095, 0.0019, 0.0018, 0.0587,
        0.0642, 0.0186, 0.0891, 0.0451, 0.1300, 0.1008, 0.0032, 0.0436, 0.1262,
        0.0563, 0.0080, 0.0593, 0.0213, 0.0330, 0.1138, 0.0089, 0.0418, 0.0205,
        0.0485, 0.0781, 0.1148, 0.0627, 0.2511, 0.0096, 0.0287, 0.0018, 0.0018,
        0.0191, 0.0745, 0.0275, 0.1679, 0.1284, 0.1923, 0.0605, 0.0018, 0.1049,
        0.0914, 0.3441, 0.0351, 0.0064, 0.1285, 0.1210, 0.0174, 0.0433, 0.0542,
        0.0020, 0.1976, 0.0812, 0.1299, 0.1291, 0.1224, 0.0684, 0.0180, 0.0054,
        0.0063, 0.1548, 0.0930, 0.0018, 0.0020, 0.0036, 0.1429, 0.0050, 0.1908,
        0.1097, 0.0072, 0.1911, 0.1520, 0.0398, 0.1303, 0.0020, 0.2310, 0.1683,
        0.1805, 0.2327, 0.2751, 0.1000, 0.0019, 0.0135, 0.0127, 0.0411, 0.0022,
        0.0019, 0.0031, 0.0934, 0.0407, 0.0410, 0.0144, 0.0146, 0.0636, 0.1692,
        0.0170, 0.0684, 0.1332, 0.0688, 0.0304, 0.0053, 0.0133, 0.2846, 0.1116,
        0.0019, 0.0026, 0.0156, 0.1082, 0.0526, 0.0293, 0.0021, 0.1347, 0.0131,
        0.0683, 0.2463, 0.0457, 0.1175, 0.0420, 0.1570, 0.0509, 0.1542, 0.0363,
        0.0458, 0.0660, 0.1144, 0.0379, 0.1441, 0.0222, 0.0869, 0.0716, 0.0053,
        0.3548, 0.3968, 0.1366, 0.0181, 0.0720, 0.0049, 0.0637, 0.1875, 0.1607,
        0.1229, 0.1211, 0.1739, 0.0849, 0.0717, 0.0283, 0.0507, 0.0284, 0.1215,
        0.2996, 0.1760, 0.1660, 0.0135, 0.0848, 0.1616, 0.0527, 0.0247, 0.0282,
        0.0136, 0.1389, 0.0573, 0.1362, 0.0631, 0.0022, 0.0556, 0.0283, 0.0472,
        0.1039, 0.0277, 0.1202, 0.2504, 0.0185, 0.0025, 0.0828, 0.0113, 0.1658,
        0.3088, 0.0060, 0.0034, 0.1270, 0.0717, 0.1009, 0.0649, 0.0276, 0.0312,
        0.0032, 0.0874, 0.0360, 0.0110, 0.0514, 0.0245, 0.0070, 0.0400, 0.1469,
        0.0089, 0.0018, 0.3043, 0.0041, 0.1188, 0.0738, 0.0416, 0.1352, 0.0058,
        0.1050, 0.0107, 0.0382, 0.1191, 0.0399, 0.0256, 0.0595, 0.1277, 0.2113,
        0.2583, 0.2401, 0.0155, 0.0076, 0.0167, 0.0131, 0.0035, 0.0159, 0.0103,
        0.0034, 0.1271, 0.0590, 0.0401, 0.3645, 0.1355, 0.1184, 0.0066])
mlp.net.0.batch_norm.num_batches_tracked tensor(60)
mlp.net.1.linear.weight tensor([[-0.1008, -0.0086,  0.0436,  ..., -0.0802,  0.0513, -0.0996],
        [-0.1114,  0.1036,  0.0685,  ...,  0.0700,  0.1169,  0.0739],
        [-0.1282,  0.0148,  0.0309,  ...,  0.0844,  0.0886, -0.0861],
        ...,
        [-0.0722,  0.1177,  0.0424,  ...,  0.0462,  0.0796,  0.0279],
        [ 0.1898,  0.0448, -0.0837,  ...,  0.0439, -0.1056,  0.1014],
        [ 0.0207,  0.0294, -0.0564,  ...,  0.0771, -0.0191, -0.0771]])
mlp.net.1.linear.bias tensor([ 4.4456e-03,  2.0560e-02, -9.8966e-02,  9.5432e-03,  9.4575e-03,
         7.5689e-02,  1.2233e-02,  9.3729e-02,  2.9768e-02, -7.8727e-02,
         1.6821e-02,  3.0674e-02,  5.5714e-02, -3.6037e-02, -7.2993e-02,
         1.3046e-01, -7.9449e-03, -3.1126e-02,  2.0265e-02, -1.2676e-02,
         8.8195e-02,  1.8654e-02, -3.1149e-02,  4.4421e-02, -2.6668e-03,
         1.0268e-01, -5.6920e-02, -8.1277e-03, -6.4492e-02, -3.2087e-03,
         9.7662e-03, -2.8507e-02,  3.4209e-02, -7.6525e-02,  3.5146e-02,
        -3.4650e-02,  5.0489e-02, -7.7400e-02,  8.8153e-03, -2.0171e-02,
        -2.3803e-02, -2.7009e-02, -1.4166e-02,  2.3013e-02, -9.4416e-03,
        -2.0031e-02, -5.7461e-02,  4.0196e-02,  1.8560e-02,  2.7932e-02,
        -1.6834e-02,  7.2791e-02,  1.7858e-02, -1.0563e-02, -7.4364e-03,
         5.2541e-02, -7.7284e-02, -1.7558e-02,  6.6837e-02, -6.2136e-02,
         7.3278e-02,  1.0937e-01,  4.3699e-02, -1.2081e-01,  6.4025e-03,
        -6.4331e-02,  7.1153e-03,  1.3757e-02,  7.5937e-02,  1.8931e-02,
         7.4338e-02, -4.3719e-02,  6.9738e-02, -5.6456e-02, -3.9117e-02,
         4.5911e-02, -1.9927e-02, -3.2776e-02, -1.2221e-01, -8.8070e-03,
        -4.1245e-02,  2.9862e-02, -4.5867e-02, -6.6185e-02, -2.3963e-03,
        -1.0061e-01,  6.7602e-02, -2.0583e-02, -8.8301e-03,  1.0816e-02,
        -3.3258e-02, -2.5646e-02, -6.7682e-02,  3.4968e-02, -7.4181e-02,
         1.6530e-02, -5.4539e-02, -1.0081e-01, -7.7768e-04, -7.8095e-03,
         1.8562e-02, -1.4979e-02, -1.6168e-01, -1.5876e-02,  5.7608e-02,
         1.7187e-02, -7.1665e-02, -7.9040e-03, -7.2758e-02, -1.8790e-02,
         8.9246e-02, -4.6007e-02, -7.0183e-02, -2.4184e-02,  3.5621e-02,
        -4.8398e-02, -3.4444e-04, -1.9526e-02, -4.3300e-02, -4.5580e-02,
         1.2379e-01, -4.6250e-02, -4.7261e-02,  4.2772e-03,  5.5314e-02,
        -5.0010e-03, -1.0437e-02, -5.5463e-03, -8.2580e-03,  5.1503e-02,
        -1.0845e-03,  2.4181e-02,  2.2497e-02,  1.5333e-02, -6.7934e-02,
        -2.7470e-02, -5.2236e-02, -1.5471e-02, -7.3411e-02, -3.4522e-02,
        -7.4227e-02, -3.0501e-02,  2.1727e-03, -1.8139e-02,  7.1630e-03,
        -3.1701e-02, -3.0162e-02, -3.0349e-02,  2.8838e-02, -1.0357e-01,
        -1.9356e-02,  7.4133e-02,  7.5653e-04, -3.2763e-02,  4.0240e-02,
         2.5173e-02, -4.7549e-02, -2.6551e-02,  4.7947e-02, -4.5624e-02,
        -3.3795e-02, -1.2970e-02, -6.7622e-03,  2.1208e-02,  1.9908e-02,
        -9.8029e-03, -6.8744e-02, -1.6642e-02,  7.4621e-02, -9.7176e-03,
        -7.1883e-02, -1.8761e-02, -6.5747e-02,  9.3336e-02, -3.9893e-02,
         3.6543e-02,  1.3630e-02,  1.7389e-02,  1.1093e-01, -7.2854e-02,
        -7.6636e-03,  2.3819e-02,  2.3802e-03,  5.4955e-02, -9.5916e-02,
         8.8392e-02,  3.7663e-02, -7.9187e-02,  4.5875e-02,  6.1539e-02,
        -8.3894e-02, -8.3755e-02,  1.0113e-02, -7.6527e-04, -7.1022e-02,
        -4.9688e-02, -2.2247e-02,  3.6241e-02, -8.8626e-02, -9.9985e-03,
        -5.1901e-02, -1.0477e-01,  2.5333e-02, -4.9741e-02, -1.1059e-02,
         1.0472e-01,  5.4502e-02, -7.8587e-03, -3.8868e-02, -9.5760e-03,
         4.4103e-04, -5.6302e-02, -8.0350e-02, -1.5700e-02, -8.4101e-02,
        -3.5380e-02, -1.7636e-02, -3.9662e-02,  1.5320e-02, -4.3850e-02,
        -1.2598e-02,  6.8056e-02,  2.8448e-03,  3.9658e-02, -7.6178e-03,
         1.1132e-02,  1.4293e-03,  4.6819e-02, -1.0566e-01,  8.3030e-03,
         1.9977e-02, -1.0578e-01,  4.2507e-02,  6.1188e-02, -5.5208e-02,
        -2.0895e-02,  5.9241e-02, -4.2667e-02,  8.3469e-02, -4.6679e-02,
        -3.3677e-02, -7.0281e-02, -3.9784e-02, -5.5533e-02, -2.1118e-02,
        -6.6938e-02, -8.7228e-02, -4.5174e-02,  7.8343e-02, -8.5510e-02,
         6.8218e-03, -7.2202e-02,  3.5374e-02, -1.0999e-01, -5.3361e-02,
         1.5624e-03,  8.7924e-02,  2.1040e-02,  5.7647e-02, -1.2718e-02,
        -4.1844e-02, -1.0599e-01, -4.0566e-02, -7.8650e-02,  9.6265e-02,
        -5.5954e-03,  1.0621e-01, -2.7212e-02, -3.5460e-02,  3.7369e-02,
        -1.0363e-01,  6.7279e-02,  8.0746e-02, -5.7668e-02, -3.2738e-02,
        -6.8167e-03, -3.8455e-02,  6.7103e-03, -5.8116e-02,  1.3283e-01,
         6.9849e-02,  2.6142e-02, -1.5996e-02,  5.3544e-02, -2.8296e-02,
         7.6870e-02, -2.1357e-02, -1.9492e-02,  1.8872e-02, -7.6995e-02,
        -2.3530e-03,  7.3584e-02,  2.8234e-02, -5.7244e-02, -1.8340e-02,
        -4.9183e-02, -9.8409e-02,  3.9184e-02, -1.8615e-02, -2.8335e-02,
        -3.9998e-03, -7.3170e-03, -6.8819e-03,  6.6530e-03,  4.2347e-02,
         2.5696e-02, -2.8408e-02, -2.5953e-02,  5.2640e-02, -1.0311e-01,
        -2.5350e-02, -2.3003e-02,  1.2372e-02, -1.0172e-01, -7.7729e-03,
        -9.3453e-02,  3.0716e-02,  2.3926e-02, -1.2683e-02, -6.1786e-03,
         1.8286e-02,  2.8536e-02, -6.1766e-02, -3.4565e-02,  3.9596e-04,
        -8.5870e-02, -2.5469e-02,  5.2958e-02, -3.1681e-02, -2.1988e-02,
         1.0572e-01, -2.0311e-02, -6.2408e-02, -8.3171e-03, -4.9725e-03,
        -6.6163e-03, -1.7561e-02,  4.9834e-04, -4.9550e-02, -9.8152e-03,
         8.2747e-02,  4.5292e-02, -1.4747e-02, -7.0434e-02,  3.5277e-02,
         1.3060e-02, -6.6133e-03, -1.2005e-02,  2.2415e-02, -6.9164e-02,
         2.8037e-02,  4.2225e-02, -5.7149e-02, -4.4702e-02, -4.7767e-02,
        -5.7492e-02,  9.4667e-02, -4.9494e-02, -1.1586e-01,  7.0880e-02,
        -6.2845e-02, -3.0238e-02,  7.3540e-02, -5.3235e-02,  2.1512e-02,
        -4.8841e-02, -8.3112e-02,  4.7765e-02, -2.0821e-02,  7.2742e-03,
         3.0918e-02,  2.3327e-02, -1.0524e-02, -3.9610e-02, -3.8995e-02,
         2.2113e-02,  6.3392e-02,  2.1189e-02,  7.1707e-03,  1.5725e-02,
         9.8253e-03, -2.7242e-02, -9.4688e-02, -2.0491e-02,  3.3023e-02,
         4.8885e-02, -9.2195e-02, -1.0547e-02, -8.5285e-02,  4.6917e-02,
         4.5316e-02,  6.0120e-02, -8.4538e-02, -2.1791e-02, -1.6316e-02,
        -5.0237e-02,  2.6793e-02, -3.1716e-02, -7.0090e-03,  2.1075e-02,
        -9.6908e-02, -2.9151e-02, -6.8983e-02, -2.8328e-02,  5.5811e-02,
        -3.0053e-02, -1.5615e-04, -2.3734e-02, -4.1200e-02,  2.0733e-02,
        -1.2411e-03, -1.2926e-01, -4.3098e-02,  7.3703e-02, -3.0578e-02,
         3.2629e-03, -6.2139e-02, -2.3393e-02,  5.2429e-02,  2.1797e-03,
        -4.5598e-02,  5.0639e-02, -7.0131e-03, -1.7556e-02, -5.3369e-02,
         1.0261e-01,  4.7734e-02,  2.9809e-02, -9.7868e-02,  1.4810e-02,
        -8.4351e-02,  8.6359e-02,  3.6971e-02, -3.8243e-02, -4.6826e-02,
        -3.7757e-02,  2.9557e-03, -5.8187e-02,  5.3983e-02, -1.9973e-02,
        -5.1485e-02,  1.9103e-02, -7.0063e-03, -3.3897e-02,  1.0289e-03,
        -6.2861e-02, -1.9863e-02, -2.8447e-03,  5.8503e-02, -1.6432e-02,
         1.2813e-01,  1.1178e-02, -5.3101e-02, -6.3099e-02, -1.0160e-01,
         6.1472e-03, -5.8876e-02, -6.8029e-02, -5.6144e-02, -6.5687e-02,
        -1.0826e-01, -2.7064e-02,  2.4547e-02,  5.2147e-03, -5.1998e-02,
         3.3693e-02, -4.7689e-03,  3.8196e-02, -1.0107e-02, -1.0416e-02,
        -3.0951e-02, -1.1341e-01, -7.7853e-02,  6.1326e-02, -6.0866e-02,
         4.0641e-02, -2.1472e-02,  6.0466e-02,  9.0752e-03, -7.7635e-02,
         3.3168e-02, -8.2561e-02,  8.1834e-02, -4.7007e-02,  7.7649e-03,
        -1.4372e-02, -5.7193e-02, -7.2026e-02,  2.8955e-02,  1.1482e-01,
         4.0948e-02,  4.9763e-02,  2.8506e-03,  4.0312e-02,  3.6438e-02,
         3.8584e-02,  1.6348e-02,  3.2246e-03, -3.3356e-02, -5.2969e-02,
        -9.6185e-02, -5.1506e-02,  7.8274e-03, -1.7416e-01, -4.9289e-02,
         5.8574e-02, -2.1401e-02, -1.1619e-01,  3.2893e-02, -1.0969e-03,
        -9.5525e-03, -2.5095e-02])
mlp.net.1.batch_norm.weight tensor([0.8959, 0.8916, 0.8994, 0.8520, 0.8519, 0.8642, 0.8410, 0.8927, 0.9062,
        0.8245, 0.8643, 0.7912, 0.9104, 0.9077, 0.8488, 0.8711, 0.8866, 0.8689,
        0.9147, 0.9104, 0.9123, 0.9007, 0.8888, 0.8965, 0.8534, 0.8897, 0.8601,
        0.9341, 0.8490, 0.8684, 0.8838, 0.8551, 0.8677, 0.8880, 0.8487, 0.8666,
        0.8624, 0.9145, 0.8673, 0.9351, 0.8359, 0.8988, 0.9071, 0.8429, 0.8515,
        0.8831, 0.9140, 0.8949, 0.9020, 0.8140, 0.8917, 0.9307, 0.8717, 0.8707,
        0.8705, 0.8774, 0.8265, 0.8643, 0.8640, 0.9046, 0.8487, 0.9153, 0.8732,
        0.8407, 0.8656, 0.8736, 0.9072, 0.9015, 0.9051, 0.8562, 0.8773, 0.8224,
        0.8190, 0.8488, 0.8625, 0.8865, 0.8519, 0.8540, 0.8610, 0.8413, 0.8550,
        0.8738, 0.9172, 0.8672, 0.8896, 0.9058, 0.8599, 0.8481, 0.8643, 0.9026,
        0.8348, 0.8960, 0.9057, 0.8801, 0.8822, 0.8813, 0.8635, 0.8605, 0.8854,
        0.9420, 0.8549, 0.8690, 0.9086, 0.8637, 0.9419, 0.8620, 0.9073, 0.8918,
        0.9480, 0.8378, 0.8572, 0.8885, 0.8798, 0.8073, 0.8779, 0.8745, 0.8990,
        0.8779, 0.8456, 0.8548, 0.8577, 0.8975, 0.8844, 0.8772, 0.9081, 0.8573,
        0.8726, 0.9064, 0.8614, 0.8933, 0.8685, 0.8823, 0.9031, 0.8911, 0.8764,
        0.8436, 0.8723, 0.8591, 0.8471, 0.8593, 0.9305, 0.9348, 0.8911, 0.9209,
        0.9326, 0.8766, 0.8456, 0.8126, 0.8757, 0.8673, 0.8504, 0.9237, 0.8985,
        0.8063, 0.8396, 0.8557, 0.8701, 0.8791, 0.8863, 0.8873, 0.8964, 0.8117,
        0.9307, 0.8485, 0.8949, 0.9162, 0.9010, 0.9000, 0.9209, 0.9054, 0.9094,
        0.8637, 0.8900, 0.9077, 0.8916, 0.8780, 0.8488, 0.8623, 0.8657, 0.8448,
        0.9017, 0.8308, 0.9024, 0.8544, 0.8779, 0.8752, 0.8210, 0.8912, 0.8819,
        0.8973, 0.9529, 0.8334, 0.8445, 0.9166, 0.8529, 0.8696, 0.9143, 0.9040,
        0.8853, 0.9255, 0.8775, 0.8296, 0.9124, 0.8944, 0.9384, 0.9124, 0.8319,
        0.9308, 0.8642, 0.8360, 0.8689, 0.8735, 0.9003, 0.8390, 0.8504, 0.9112,
        0.8391, 0.8605, 0.8594, 0.8823, 0.8362, 0.9012, 0.8611, 0.8725, 0.8328,
        0.8272, 0.8615, 0.8892, 0.9029, 0.8977, 0.9125, 0.8886, 0.8664, 0.9218,
        0.8199, 0.8445, 0.8531, 0.9113, 0.9336, 0.9239, 0.8767, 0.8745, 0.8886,
        0.8459, 0.8860, 0.8542, 0.8906, 0.8003, 0.9162, 0.8814, 0.9276, 0.8561,
        0.8846, 0.8617, 0.8842, 0.9171, 0.9145, 0.8883, 0.8923, 0.8936, 0.8699,
        0.8158, 0.8351, 0.8879, 0.9000, 0.9176, 0.8991, 0.8931, 0.8399, 0.8742,
        0.8850, 0.8376, 0.8764, 0.7485, 0.8637, 0.9081, 0.8338, 0.9173, 0.8510,
        0.8974, 0.9149, 0.8871, 0.8645, 0.8799, 0.8889, 0.8862, 0.9090, 0.9205,
        0.8889, 0.8881, 0.8900, 0.9146, 0.8778, 0.9247, 0.8919, 0.8931, 0.8790,
        0.9076, 0.8794, 0.9026, 0.8542, 0.8413, 0.8592, 0.8976, 0.8238, 0.8669,
        0.8652, 0.8565, 0.8816, 0.8798, 0.8347, 0.8797, 0.8828, 0.8715, 0.8786,
        0.9169, 0.8502, 0.9306, 0.8349, 0.8724, 0.8960, 0.8016, 0.8780, 0.9269,
        0.8957, 0.8986, 0.9301, 0.8057, 0.9249, 0.9387, 0.8939, 0.8945, 0.8853,
        0.8880, 0.8408, 0.8359, 0.9105, 0.8810, 0.8927, 0.9107, 0.8380, 0.8389,
        0.8975, 0.9109, 0.8848, 0.9027, 0.8530, 0.9180, 0.8429, 0.8823, 0.9033,
        0.8968, 0.9058, 0.8492, 0.8489, 0.8633, 0.8953, 0.8952, 0.9090, 0.9369,
        0.8598, 0.8895, 0.8483, 0.8447, 0.9077, 0.9295, 0.8242, 0.8478, 0.8702,
        0.8139, 0.9067, 0.8872, 0.8428, 0.8417, 0.8997, 0.8916, 0.9008, 0.9048,
        0.8944, 0.8760, 0.8958, 0.8362, 0.9326, 0.8625, 0.8897, 0.8851, 0.8355,
        0.8976, 0.8269, 0.9061, 0.8697, 0.8496, 0.8447, 0.8388, 0.9750, 0.9229,
        0.8952, 0.8823, 0.8481, 0.8780, 0.8510, 0.8862, 0.8524, 0.8930, 0.9004,
        0.9385, 0.8658, 0.9187, 0.9028, 0.8278, 0.9113, 0.9114, 0.8700, 0.8804,
        0.8479, 0.9230, 0.9025, 0.8990, 0.8759, 0.8885, 0.8767, 0.8438, 0.9206,
        0.8465, 0.8898, 0.8845, 0.8701, 0.8970, 0.9151, 0.9103, 0.8315, 0.9316,
        0.9217, 0.8895, 0.8788, 0.9266, 0.8574, 0.8942, 0.8420, 0.9121, 0.9053,
        0.8980, 0.8373, 0.8897, 0.9169, 0.8514, 0.8555, 0.8116, 0.8959, 0.9124,
        0.8859, 0.8980, 0.9367, 0.8859, 0.8976, 0.9202, 0.8539, 0.8978, 0.8606,
        0.9161, 0.8838, 0.9186, 0.8552, 0.9050, 0.9384, 0.8311, 0.8471, 0.8780,
        0.8760, 0.9002, 0.8144, 0.8905, 0.9025, 0.9158, 0.8819, 0.8262, 0.7902,
        0.8402, 0.8837, 0.8389, 0.9002, 0.8800, 0.8964, 0.8976, 0.8479, 0.8698,
        0.8287, 0.8451, 0.9073, 0.8840, 0.8907, 0.8770, 0.9124, 0.8206, 0.8864,
        0.8483, 0.9074, 0.8271, 0.8984, 0.8884, 0.9520, 0.8589, 0.8996, 0.8708,
        0.8722, 0.8729, 0.8720, 0.8690, 0.8675, 0.8360, 0.8509, 0.8935])
mlp.net.1.batch_norm.bias tensor([ 0.0076, -0.0545, -0.0419,  0.0057,  0.0966, -0.0651,  0.0326, -0.0290,
         0.0645, -0.0712, -0.1044,  0.1021, -0.0202, -0.0570,  0.0346,  0.0007,
        -0.0038, -0.0217, -0.0163,  0.0404,  0.0188,  0.0731, -0.0868,  0.0178,
        -0.0775,  0.0477,  0.0991, -0.0306, -0.0297,  0.0296,  0.0076,  0.0119,
        -0.0255,  0.0400, -0.0153,  0.1053, -0.0230,  0.0504,  0.0428, -0.0072,
         0.0882,  0.0156, -0.0426, -0.0424, -0.0397,  0.0103, -0.0463,  0.0142,
        -0.0766, -0.0403, -0.0197, -0.0373,  0.0846,  0.0150, -0.0225,  0.0139,
        -0.0572, -0.0646, -0.0054,  0.0580, -0.0781,  0.0564,  0.0253, -0.0030,
        -0.0168, -0.0425, -0.0982,  0.0004,  0.0774, -0.0134,  0.0930,  0.0319,
        -0.0720, -0.0358,  0.0866, -0.0608, -0.0570,  0.0083,  0.0243, -0.0051,
         0.0077,  0.0520,  0.0239, -0.0258, -0.0079, -0.0864,  0.1158, -0.0343,
         0.0173, -0.0182, -0.0207, -0.0574, -0.0520,  0.0102, -0.0354,  0.0454,
         0.0060, -0.0737,  0.0364, -0.0117,  0.0448,  0.0353,  0.0729,  0.0241,
         0.0484,  0.0832,  0.0316, -0.0061, -0.0136, -0.0711,  0.0599, -0.0109,
        -0.0677, -0.1002, -0.0245, -0.0384, -0.0220, -0.0243, -0.0323, -0.0597,
        -0.0313, -0.0270,  0.0431,  0.0382, -0.0351,  0.0453,  0.0479,  0.0224,
         0.0305, -0.0275, -0.0707,  0.1004,  0.0129,  0.0596,  0.0253, -0.0233,
         0.0234,  0.0056,  0.0056,  0.0588, -0.0734, -0.0485,  0.0057,  0.0356,
         0.0386,  0.0003, -0.0074, -0.0236, -0.0913,  0.0266,  0.0372,  0.0031,
         0.0900, -0.0755,  0.0583,  0.0213,  0.0160,  0.0913, -0.0438, -0.0072,
         0.0460,  0.0272,  0.0301,  0.0141,  0.0678,  0.0328,  0.0395, -0.0444,
         0.0082,  0.0917,  0.0167, -0.0318,  0.0206, -0.0720, -0.0193,  0.0906,
        -0.0061,  0.0571, -0.0053,  0.0241, -0.0080,  0.0773,  0.0350,  0.0137,
         0.0588,  0.0702, -0.0825,  0.0161, -0.0080, -0.0015,  0.0438,  0.0329,
         0.0580,  0.0369,  0.0190, -0.0160, -0.0748,  0.0914, -0.0130, -0.0632,
        -0.0777,  0.0512,  0.0017,  0.0517,  0.0365, -0.0690,  0.0044, -0.0053,
        -0.0126,  0.0062,  0.0171, -0.0058,  0.0205, -0.0487,  0.0826, -0.0201,
        -0.0158,  0.0478, -0.0667, -0.0315, -0.0008, -0.0231, -0.0318,  0.0173,
        -0.0390,  0.0269,  0.0985,  0.0123,  0.0574,  0.0215,  0.0470,  0.0287,
        -0.0983, -0.0295,  0.0414,  0.0099, -0.0792, -0.0447,  0.0423, -0.0344,
         0.0844, -0.0176,  0.0853, -0.0231,  0.0274,  0.0220, -0.0406,  0.0555,
        -0.0718,  0.0191,  0.0665, -0.0744, -0.0140,  0.0633,  0.0093, -0.0621,
         0.0705, -0.0254, -0.0113, -0.0294,  0.0085,  0.0297,  0.0585, -0.0141,
         0.0697,  0.0464, -0.0831, -0.0362, -0.0787, -0.0095,  0.0435, -0.0315,
         0.0346,  0.1241, -0.0663,  0.0176, -0.0203,  0.0665, -0.0268,  0.0323,
        -0.0364, -0.0218,  0.0243, -0.0026,  0.0688, -0.0092,  0.0863, -0.0148,
        -0.0178,  0.0695,  0.0322,  0.0287, -0.1046, -0.0049, -0.0883, -0.0755,
         0.0235,  0.0271,  0.0511, -0.0118,  0.0050, -0.0546,  0.0159,  0.0573,
        -0.0280,  0.0296,  0.0293, -0.0389,  0.0197, -0.1140,  0.0403, -0.0149,
         0.0005, -0.0287, -0.0624, -0.0083,  0.0252,  0.0033, -0.0405,  0.0151,
        -0.0037,  0.1310,  0.0597,  0.0111, -0.0349, -0.0166, -0.0234, -0.0079,
         0.0473, -0.0055,  0.0158, -0.0998, -0.0261,  0.0886,  0.0307, -0.0209,
        -0.0442,  0.0316, -0.0959, -0.0550, -0.0463, -0.0566, -0.0274, -0.0347,
         0.0009, -0.0182, -0.0388, -0.0940, -0.0419,  0.0604, -0.0030,  0.0514,
        -0.0576,  0.0039,  0.1061,  0.0302,  0.0186,  0.0593,  0.0177, -0.0668,
         0.0588,  0.0183,  0.0785,  0.0466, -0.0183, -0.0212,  0.0329, -0.0642,
         0.0202, -0.0669,  0.0276, -0.0252,  0.0712, -0.0696, -0.0101,  0.0202,
         0.0437, -0.0294,  0.0616, -0.0153,  0.0876, -0.0417, -0.0592, -0.1236,
         0.0835,  0.0251, -0.0544,  0.0433,  0.0443,  0.0070, -0.0212,  0.0587,
         0.0624, -0.0452, -0.0996,  0.0533, -0.0120, -0.0197,  0.0573, -0.0122,
        -0.0718,  0.0188, -0.0440, -0.0582, -0.0694,  0.0661, -0.0553, -0.0278,
        -0.0142,  0.0006, -0.0535, -0.0249, -0.0372, -0.0894,  0.1388,  0.0868,
         0.0401, -0.0296, -0.0293,  0.0060,  0.0352,  0.0385, -0.0613,  0.0521,
         0.1043,  0.0642,  0.0306,  0.0204,  0.0748, -0.0066, -0.0180, -0.0460,
        -0.0237, -0.0002, -0.0391, -0.0240, -0.0030, -0.0651,  0.0808,  0.0003,
        -0.0475,  0.0044, -0.0163, -0.0168,  0.0085, -0.0574,  0.0215,  0.0532,
         0.0432,  0.0071,  0.0123, -0.0106,  0.0399,  0.0340,  0.0149,  0.0074,
        -0.0216,  0.0236,  0.0307, -0.0537,  0.0386, -0.0364, -0.0391,  0.0626,
        -0.0769, -0.0180, -0.0043, -0.0599, -0.0103, -0.0041, -0.0054, -0.0270,
         0.0080, -0.0566, -0.0646,  0.0355, -0.0272,  0.0114,  0.0344, -0.0709,
         0.0384, -0.0095,  0.0276, -0.0454,  0.0182, -0.0080, -0.0081, -0.0866,
         0.0208, -0.0083, -0.0421, -0.1155,  0.0153, -0.0185,  0.0371,  0.0282,
        -0.0710, -0.0030,  0.0606,  0.0637,  0.0080,  0.0913, -0.0570,  0.0765,
         0.0255, -0.0240,  0.0092, -0.0381,  0.0519,  0.0285, -0.0239,  0.0013])
mlp.net.1.batch_norm.running_mean tensor([1.5368, 1.6337, 1.6591, 1.9766, 1.5166, 1.3594, 1.1513, 1.6623, 1.6417,
        1.4061, 1.4344, 1.5649, 1.7405, 2.0273, 1.6728, 1.5032, 1.1241, 1.0452,
        1.5195, 1.9567, 1.4733, 1.4482, 1.0686, 1.7504, 1.9136, 1.3718, 1.1074,
        1.6834, 1.8032, 1.0873, 1.5115, 1.8615, 1.4886, 1.1246, 1.9013, 1.8277,
        1.2923, 1.2443, 1.5404, 1.8887, 1.2809, 1.3613, 1.3134, 1.6604, 1.6505,
        1.0863, 1.5864, 1.2260, 1.2746, 1.3811, 1.7415, 2.4803, 1.4091, 1.3620,
        1.9259, 1.8959, 1.7162, 1.3109, 1.7025, 1.3791, 2.1823, 1.3482, 1.4927,
        1.1364, 1.2816, 1.4427, 1.6878, 1.4719, 2.2169, 1.7665, 1.7977, 1.3553,
        1.4528, 1.4745, 1.8374, 1.6853, 1.5582, 1.4832, 1.4518, 1.4392, 1.4284,
        1.6743, 1.2155, 1.2212, 1.6931, 1.4457, 1.5761, 1.2913, 2.0167, 1.9615,
        1.7590, 1.6858, 1.9614, 1.3984, 1.1846, 1.5428, 1.3862, 1.4104, 1.7145,
        1.6400, 1.1147, 1.2786, 1.3306, 2.0163, 1.7985, 1.9743, 1.9018, 1.4336,
        1.4168, 1.4255, 1.3985, 2.1206, 1.8902, 1.8882, 1.8766, 1.5575, 1.3565,
        1.5434, 1.4203, 1.2399, 1.5221, 1.5064, 1.3434, 1.4018, 1.6194, 1.5182,
        1.8839, 1.5196, 2.3567, 1.7253, 1.4109, 1.7088, 2.1156, 1.4220, 1.7439,
        1.3803, 1.5397, 1.2661, 1.4962, 1.9014, 1.5433, 1.8392, 1.4942, 1.4138,
        1.5969, 1.5749, 1.0834, 1.8085, 1.8774, 1.3173, 1.4688, 1.7430, 1.8030,
        1.3825, 1.1867, 1.3916, 1.4534, 1.4824, 1.6494, 2.1091, 1.4973, 1.5873,
        1.7271, 1.2768, 1.4870, 2.1576, 1.5347, 1.5930, 1.4962, 1.6007, 1.1840,
        1.1495, 1.5705, 2.0967, 2.1313, 1.6054, 1.8152, 1.8430, 1.1933, 1.4796,
        1.0424, 1.3187, 1.6009, 1.7505, 1.2203, 1.8510, 1.4566, 1.5132, 1.7463,
        1.1854, 1.6576, 1.2972, 2.1829, 1.8546, 2.0453, 1.8748, 2.0356, 1.7726,
        1.1978, 1.4761, 1.2685, 1.2001, 1.4828, 1.4672, 1.4940, 1.5823, 1.5065,
        1.6491, 2.2573, 1.2996, 1.7517, 1.2404, 1.6787, 1.1058, 1.5252, 1.5266,
        1.7320, 1.8671, 1.5431, 2.2128, 1.1352, 1.2558, 1.0605, 1.5872, 1.5804,
        1.7823, 1.7762, 1.3430, 1.5508, 1.6156, 1.8491, 1.5195, 1.7754, 1.8526,
        1.4382, 1.9200, 1.5762, 1.3449, 1.9976, 1.8039, 1.4274, 1.2748, 1.2659,
        1.3650, 1.5566, 1.3311, 1.1486, 1.5440, 1.9931, 1.2361, 1.8867, 2.0476,
        1.1003, 2.1263, 1.1867, 2.0278, 1.8190, 1.4829, 1.7020, 1.2834, 1.3331,
        1.5053, 1.4887, 1.4315, 1.9504, 1.4392, 1.3766, 1.5216, 1.6103, 2.0391,
        1.1957, 1.4157, 1.4520, 1.7408, 1.6049, 2.1197, 1.5496, 1.3423, 1.7009,
        1.6870, 1.6669, 1.6632, 1.4596, 1.7697, 1.2712, 1.6794, 1.6300, 1.5651,
        1.6940, 1.3223, 1.7277, 1.6268, 1.2951, 2.6606, 1.3471, 0.8680, 1.6508,
        2.1257, 1.5638, 2.0778, 1.9482, 1.6805, 1.3095, 1.9516, 1.7958, 1.6902,
        1.6319, 1.2119, 1.9464, 1.7053, 1.7554, 1.2253, 2.0545, 1.5095, 1.3421,
        1.9946, 2.2771, 1.3599, 2.4309, 1.6401, 1.7071, 1.3827, 1.5382, 1.8689,
        1.5934, 1.3619, 1.8620, 1.8371, 1.6843, 1.7946, 1.3674, 1.5911, 1.2878,
        1.6190, 1.5781, 1.2318, 1.4566, 1.6078, 1.4554, 1.5315, 1.5570, 1.5933,
        1.6704, 1.7837, 1.8796, 1.6924, 1.6171, 1.3223, 1.5833, 1.5810, 2.3376,
        1.2527, 1.3848, 1.5185, 1.5131, 1.3474, 1.4710, 1.6964, 1.2763, 1.6759,
        0.9245, 1.5071, 1.3870, 1.4375, 1.4523, 1.7945, 1.3795, 2.0359, 2.2416,
        1.2776, 1.5219, 1.6181, 1.6053, 1.4269, 1.7243, 2.1348, 1.2911, 1.8329,
        1.5229, 1.4482, 1.2825, 1.2281, 1.7377, 1.5907, 1.2191, 1.5552, 1.3140,
        1.7663, 1.5593, 1.5889, 2.3063, 1.3769, 1.3915, 1.7329, 1.8733, 1.6516,
        1.4361, 1.1480, 1.6613, 1.4092, 1.3140, 1.5797, 1.2393, 1.8355, 1.5062,
        1.5529, 1.2923, 1.1096, 1.5839, 1.9912, 1.9008, 1.7834, 1.1494, 1.8451,
        1.4507, 1.4914, 1.4466, 1.8693, 1.4901, 1.5669, 1.3478, 1.1636, 1.5770,
        1.2260, 1.2888, 1.6014, 1.5346, 2.2127, 1.3970, 1.8465, 1.2721, 1.4801,
        2.1109, 1.5739, 1.1684, 1.5488, 1.2809, 1.4259, 2.0821, 2.1741, 1.5300,
        1.4968, 2.1758, 1.5073, 1.4885, 1.7633, 1.8813, 1.6266, 1.5744, 1.7464,
        1.6340, 1.2970, 1.8746, 1.6188, 1.3756, 1.6355, 1.8302, 1.4815, 1.4982,
        1.5074, 1.2589, 1.5796, 1.5712, 1.3455, 1.6972, 1.4652, 1.4440, 1.7621,
        2.2823, 1.3273, 1.3173, 1.1315, 1.3717, 1.8413, 1.5455, 1.9298, 1.4577,
        1.9537, 1.0670, 1.7478, 1.4321, 1.6337, 2.2134, 1.2887, 1.1618, 1.1198,
        1.9695, 1.7224, 1.5248, 1.4512, 1.5523, 1.7470, 1.5971, 1.4127, 2.1470,
        1.3216, 1.3980, 1.5707, 1.3975, 1.6205, 1.7094, 1.4178, 1.9482, 1.4498,
        1.4337, 1.7900, 1.4066, 1.4495, 1.4682, 1.9957, 1.6672, 1.2311])
mlp.net.1.batch_norm.running_var tensor([ 4.8143,  7.1888,  8.5430,  8.1234,  5.8000,  3.3130,  3.3354,  4.9140,
         6.1809,  3.9583,  5.3498,  4.9870,  5.8249,  6.5685,  5.5416,  4.2925,
         2.9908,  3.6409,  5.1062,  7.0328,  5.5151,  5.3712,  2.8856,  7.1903,
         8.2519,  3.9771,  2.7458,  6.0997,  7.0915,  4.0482,  4.1461,  8.0868,
         5.0726,  3.9502,  6.2019,  7.7440,  4.1976,  3.7211,  4.6782,  7.1880,
         6.5441,  3.7433,  3.6788,  8.4824,  5.1039,  2.7630,  5.9409,  2.9755,
         3.5957,  3.4410,  6.7290, 14.1584,  4.2755,  3.6370,  5.5505,  8.0997,
         5.6459,  4.9704,  5.2983,  5.1184,  9.9380,  3.5178,  4.8560,  3.1456,
         3.5560,  7.3556,  6.1279,  4.9155,  8.9536,  5.9426,  6.0672,  3.9252,
         4.5300,  3.9981,  7.9944,  5.1901,  5.2167,  5.3669,  4.7172,  4.3109,
         7.3910,  5.6877,  4.9815,  4.9484,  4.9635,  4.9985,  4.3901,  5.2872,
         7.5701,  8.3388,  5.9657,  6.7621,  5.9755,  3.6257,  5.1168,  7.0773,
         4.1040,  5.1275,  6.6397,  5.7711,  3.8958,  4.5722,  7.7560,  8.5959,
         5.7979,  8.1824,  9.1404,  4.1095,  5.2786,  5.2020,  4.6457,  9.1493,
         7.6105,  7.5417,  7.8781,  4.5842,  3.6809,  5.4585,  6.3902,  3.5694,
         4.2210,  7.8401,  5.5317,  4.4223,  5.7911,  7.9936,  7.2968,  5.0624,
         9.9796,  7.1975,  5.2427,  4.6390,  8.5506,  7.2931,  6.3011,  4.3306,
         7.5198,  4.1964,  8.2250,  7.0958,  5.1691,  8.1044,  6.0619,  4.7576,
         5.8653,  7.8648,  3.5785,  6.8455,  7.8385,  3.5978,  4.4632,  6.2419,
         7.1905,  4.1131,  3.7374,  4.0770,  5.1455,  4.1414,  5.2247,  9.6376,
         6.0045,  6.7628,  6.1242,  3.5521,  5.7947,  9.3988,  4.5494,  5.1438,
         4.0959,  6.1671,  4.4845,  3.8403,  3.7232,  6.3935,  9.0728,  5.2547,
         5.7456,  6.1504,  2.2566,  5.6336,  2.4603,  3.8814,  4.7927,  5.3045,
         3.3532,  6.8962,  4.3279,  5.5217,  7.2502,  2.9057,  6.3421,  3.6224,
         8.3166,  8.0698,  9.0074,  5.3283,  8.0800,  5.8755,  3.2572,  5.7172,
         4.1865,  3.9004,  4.3136,  5.1123,  5.1533,  4.7286,  5.8729,  8.4204,
         9.9179,  3.3785,  6.9216,  4.8355,  6.5638,  3.1832,  5.5056,  8.4334,
         7.8775,  8.0586,  4.8441, 10.7855,  3.8686,  3.3375,  3.0394,  6.1133,
         4.9537,  5.5351,  6.8384,  5.1852,  5.0215,  5.2754,  7.7965,  7.6889,
         5.2055,  7.4174,  5.0288,  8.3287,  4.7596,  4.3764,  8.1453,  7.6836,
         4.7440,  3.7362,  4.7117,  5.4772,  5.3099,  5.7319,  3.5087,  8.6446,
         8.8251,  3.8192,  6.5458,  8.3535,  2.2748,  9.7695,  3.4636,  9.1699,
         6.8051,  4.7429,  6.9215,  3.5660,  4.0874,  6.7928,  7.3648,  4.3732,
         7.4973,  4.6343,  3.4721,  5.9935,  6.0741,  9.0385,  2.7763,  5.7004,
         3.9562,  6.0742,  5.5174,  8.0293,  5.0540,  4.0251,  5.4483,  6.6180,
         5.3714,  6.0941,  6.8444,  5.3621,  3.7596,  5.2479,  7.0165,  4.8300,
         5.4750,  6.0151,  6.9606,  5.0556,  4.9604, 13.2384,  3.7692,  2.6303,
         9.9518,  9.1771,  5.8854,  8.5665,  7.1717,  5.3244,  3.9894,  6.7926,
         7.5793,  5.4540,  5.5909,  2.9360,  7.0803,  7.9420,  5.6506,  4.1162,
         8.1229,  5.6419,  4.4366,  7.7525, 10.2056,  5.1905, 12.6483,  5.0088,
         4.6043,  4.0163,  4.2790,  8.5869,  5.9453,  5.0761,  7.2956,  6.3600,
         5.6269,  7.1646,  3.7873,  5.2400,  4.6328,  5.2441,  5.4479,  3.3365,
         4.8984,  5.8520,  5.6765,  5.9601,  3.9010,  4.4809,  6.8936,  6.6283,
         7.0619,  6.3415,  5.5501,  5.2711,  4.2370,  9.4157,  9.3016,  3.1759,
         4.9303,  5.0794,  5.6809,  5.0006,  7.2500,  5.5185,  4.8509,  5.2161,
         2.4549,  4.7181,  4.7447,  4.7589,  4.9420,  6.3659,  4.7956,  8.8706,
         8.2177,  2.9181,  4.4067,  5.5063,  5.3041,  4.7431,  8.0566,  8.5440,
         3.5600,  7.1099,  5.0159,  4.4805,  3.6411,  5.3918,  5.9989,  6.0148,
         3.4913,  7.6515,  4.5337,  5.4752,  4.5146,  6.5189,  7.8241,  4.0996,
         4.9493,  6.5020,  6.9280, 10.5946,  4.8549,  3.5924, 10.3470,  5.3840,
         5.0952,  4.4216,  3.7695,  7.6521,  4.8363,  7.3651,  3.7032,  2.8273,
         5.3153,  8.4333,  7.3877,  7.2172,  3.2973,  6.9121,  3.9195,  5.1137,
         4.7885,  6.7883,  4.9223,  6.2849,  4.8834,  3.0962,  5.8900,  5.1343,
         4.0934,  4.6811,  3.9322, 10.1093,  4.8247,  6.7860,  4.1374,  4.7179,
        10.6119,  7.7158,  4.2101,  7.9518,  5.3537,  5.5302,  7.5164,  7.4981,
         5.3553,  4.0053, 10.0286,  5.4686,  4.8759,  6.0061,  8.2385,  5.4718,
         4.8108,  7.6496,  4.5886,  4.1260,  7.7519,  7.6908,  4.1057,  5.3594,
         7.4930,  6.8079,  3.9028,  5.9765,  4.8765,  6.8081,  7.3737,  3.7988,
         7.0951,  4.1157,  7.2708,  6.2822, 10.9909,  5.8047,  3.2404,  5.4060,
         4.2069,  6.2286,  5.4937,  7.9912,  4.3296,  7.4847,  2.9421,  5.6931,
         5.7541,  9.5891,  8.8773,  4.1039,  3.6273,  2.2840,  6.8634,  6.5153,
         4.3043,  3.8519,  5.2811,  5.5055,  7.4986,  3.9710,  6.7134,  4.5323,
         4.4262,  4.0287,  4.1315,  8.8273,  5.8219,  4.7169,  6.7597,  5.1478,
         4.1422,  6.8335,  3.5685,  9.8740,  6.7531,  7.4028,  5.3315,  3.0562])
mlp.net.1.batch_norm.num_batches_tracked tensor(60)
mlp.net.2.weight tensor([[ 1.9553e-02, -3.3054e-02,  2.4541e-02, -2.0756e-02, -2.9276e-02,
          3.3452e-03, -2.6030e-03, -1.6920e-03, -1.1861e-02,  2.6102e-02,
         -3.5110e-03,  9.8117e-03,  6.2705e-03,  2.6799e-02, -4.9541e-03,
          1.8246e-02,  3.2630e-03,  1.2465e-02,  2.0941e-02,  1.5355e-02,
         -1.6437e-02, -2.3695e-02, -2.9853e-02,  7.1120e-03,  1.2020e-02,
         -2.2757e-03,  4.6579e-03, -4.5348e-02,  9.0583e-03, -1.5795e-02,
         -3.9891e-04,  5.4689e-03, -1.9232e-02,  3.1716e-02,  2.8442e-02,
         -1.1606e-02,  1.2236e-02,  3.0946e-02, -6.4588e-03,  4.2606e-02,
         -9.1518e-04, -7.2126e-03, -2.1844e-03, -3.3054e-03,  4.4453e-03,
         -1.1141e-02,  6.8306e-03, -1.5483e-03, -2.8693e-02,  1.1471e-02,
         -5.1085e-03, -2.0869e-02,  3.0108e-02, -1.6977e-02, -3.7168e-04,
          1.0792e-02, -8.4280e-03,  6.4173e-03, -2.2089e-02, -2.8893e-02,
          1.6321e-02,  6.2392e-03,  1.5773e-02,  1.8643e-03,  7.3297e-03,
          1.8015e-02,  3.0309e-02,  6.1007e-03,  8.0596e-03,  2.9576e-02,
          2.6721e-02,  3.2738e-03, -2.6943e-04, -9.8166e-03, -1.4171e-02,
         -2.5375e-03, -1.8074e-02,  2.6980e-03,  8.4964e-03,  5.0683e-04,
         -2.0338e-02,  5.1637e-03,  2.2743e-02,  9.9474e-03,  5.3014e-03,
         -1.8696e-02, -5.1979e-03, -1.4762e-02,  5.2198e-03, -5.6322e-04,
         -2.5965e-02,  2.3894e-02,  1.4904e-02,  4.6687e-03,  8.0118e-03,
         -1.8287e-02, -1.3000e-02, -1.3355e-02,  1.2932e-02,  2.3363e-02,
          1.1445e-02,  1.2122e-02,  1.9514e-02,  4.6659e-03,  5.0666e-02,
         -1.3328e-02,  1.7325e-02,  1.6873e-02,  3.0459e-02,  9.0664e-03,
         -2.3538e-03,  3.2083e-02, -1.9236e-02,  1.9055e-02,  2.2014e-02,
         -1.4050e-02,  1.9628e-02, -4.5185e-03,  7.6185e-03,  1.1719e-03,
         -4.6670e-03, -7.6780e-04, -4.1384e-02, -1.6292e-02, -1.3547e-02,
          3.0675e-02, -7.8987e-03, -2.1929e-03,  1.3355e-03, -4.2558e-04,
          9.1718e-03, -1.4019e-02, -2.3821e-03, -2.1965e-02,  5.7340e-03,
         -7.7989e-03,  6.8488e-03, -2.0168e-03,  2.0921e-02, -2.7897e-02,
          1.6839e-02, -4.0948e-02, -1.4056e-02, -1.3965e-02, -2.2399e-02,
         -1.3965e-02, -5.3788e-03, -5.6014e-04, -1.7589e-02,  5.0223e-03,
         -1.1586e-02, -3.3423e-03, -2.2273e-02,  2.5364e-02, -2.1011e-02,
          1.7832e-02, -1.1425e-02, -2.5234e-02,  1.2004e-02, -1.6003e-02,
          3.1764e-03, -1.7132e-02,  2.6076e-02, -5.5475e-03, -2.7853e-03,
         -1.2815e-02,  2.6156e-02,  3.1189e-02,  2.0650e-02,  3.4708e-02,
         -7.7562e-03,  2.8274e-02, -1.4750e-02,  1.2543e-02, -2.7698e-02,
         -9.3261e-03, -7.4837e-03,  5.8579e-03, -6.0721e-03, -4.0801e-02,
         -2.0904e-02,  1.4094e-02, -5.3974e-03,  1.9894e-03,  3.4180e-03,
         -6.0682e-03, -7.3527e-03,  1.6002e-02,  1.0740e-02,  2.6737e-02,
         -5.2232e-02,  2.3558e-02, -1.1674e-02, -3.0953e-02, -3.0180e-04,
          2.6767e-03, -2.2386e-02,  3.4798e-02, -1.3793e-02, -1.8207e-02,
         -1.8981e-02,  1.0531e-02,  6.3457e-03, -2.6782e-02,  4.2614e-02,
          1.9060e-02,  1.4174e-02, -3.5580e-02, -2.2781e-02,  1.7340e-02,
          6.1021e-03,  2.1080e-02,  2.7510e-02, -1.8694e-02,  5.5554e-04,
         -1.9761e-02, -6.1604e-03, -1.0641e-02, -4.2714e-02,  2.2545e-02,
          5.1544e-03,  1.5497e-02,  2.6703e-02, -1.5974e-03, -1.4810e-02,
         -2.4231e-02, -5.6957e-03, -5.7487e-03, -3.4834e-03, -5.4907e-03,
         -4.3697e-02,  1.4729e-02, -6.9679e-03, -1.9864e-02, -8.3634e-03,
          6.7153e-06, -8.3180e-04, -2.8153e-02,  4.3155e-02, -2.1887e-02,
          1.0750e-02,  1.8692e-02, -2.2064e-03, -8.7561e-03,  1.4172e-02,
         -2.3310e-02, -1.3347e-02,  1.1387e-02,  3.1035e-02,  7.5238e-03,
          2.7040e-02,  1.6883e-02, -1.7244e-02,  3.6946e-03, -3.4150e-03,
          1.4413e-02, -2.0888e-02,  2.5979e-02,  8.9565e-03, -5.8074e-03,
          1.3002e-02,  1.4023e-02, -1.7417e-02,  9.6708e-03, -3.9314e-02,
          6.3263e-04,  1.1518e-02,  1.8552e-03, -3.4973e-03, -7.2076e-03,
          2.1666e-02, -5.9492e-03, -2.4263e-02,  2.9886e-03, -2.7591e-03,
          2.1270e-02,  1.7444e-03,  3.5214e-02, -1.7240e-02, -2.0674e-02,
          1.7583e-02,  1.0890e-02,  1.4163e-02, -7.4603e-03,  1.0726e-02,
         -2.6822e-02, -1.5669e-02,  2.3349e-02,  1.3099e-03, -1.7549e-02,
          1.3238e-02,  1.4894e-02, -1.4149e-02,  2.9852e-02, -4.4804e-02,
          6.6097e-03,  5.9463e-03, -5.1214e-02,  7.6547e-03, -1.3578e-03,
         -3.8220e-03, -5.8616e-03, -1.8896e-02,  1.9455e-03,  1.7408e-02,
         -1.7071e-02,  1.3019e-02,  4.4603e-04, -2.9969e-02,  2.9226e-02,
         -7.3723e-03,  9.0814e-03,  3.4582e-02, -4.0675e-03,  2.3625e-02,
          8.9123e-03, -9.0868e-03, -2.8321e-02, -1.2268e-02, -8.1212e-03,
         -3.3207e-02,  2.8456e-02, -8.1409e-03,  1.5177e-02, -3.8808e-03,
          5.2955e-05, -2.9269e-02, -5.3338e-03,  3.1043e-02,  4.4304e-02,
          2.7960e-02,  6.9714e-03, -7.9175e-03,  2.5202e-02, -2.5285e-02,
         -1.0234e-02, -7.1196e-03,  2.2742e-03, -1.4533e-02,  4.2258e-02,
          5.5965e-03,  1.3619e-02, -6.1650e-03,  1.2944e-02,  4.8931e-02,
          1.5348e-03, -2.9516e-02, -3.9343e-02,  2.7507e-02, -1.6449e-02,
          3.5431e-02,  2.4710e-02,  2.9402e-02,  4.1938e-03,  1.1560e-02,
         -2.8073e-02, -1.8011e-02,  3.8582e-03, -5.8719e-03,  4.2342e-02,
          5.2571e-03,  2.9081e-02, -1.1611e-02, -4.5073e-02, -3.3471e-03,
          2.2795e-02,  1.8139e-02,  1.4124e-02,  1.9329e-02,  1.0623e-03,
         -1.7926e-02,  2.8005e-02,  3.8543e-03,  2.7910e-03, -9.6435e-03,
         -5.4230e-04,  1.1221e-02, -8.1531e-03,  3.0034e-03,  1.5109e-02,
          3.2009e-04, -1.3202e-02, -3.7571e-02, -3.8635e-02,  3.1951e-02,
         -1.5033e-02, -1.2264e-02,  3.7256e-02,  2.8663e-02, -8.2875e-03,
         -3.0475e-02,  5.9706e-03, -1.5615e-03,  1.1281e-02, -5.8430e-02,
         -2.8595e-02, -2.1044e-02,  1.6729e-02, -5.5742e-03, -1.6095e-02,
          4.6594e-03, -2.2496e-03,  1.1205e-02, -3.4859e-02, -2.9497e-02,
         -4.3308e-02, -9.0668e-03, -1.2018e-03,  2.8945e-02,  6.9155e-03,
          9.2280e-03, -1.3160e-02,  8.3746e-03,  4.2197e-02, -2.5235e-02,
          1.4369e-02,  8.5243e-03, -2.0989e-02, -1.1960e-02, -1.8462e-02,
          1.3905e-02,  5.1927e-03, -2.6136e-02,  9.9551e-03,  8.3238e-03,
         -4.0636e-03, -2.9271e-02,  1.9617e-02, -2.7811e-03, -7.0152e-03,
         -5.3110e-03, -3.6999e-02, -4.0187e-02, -7.7887e-03,  1.6074e-03,
         -3.9740e-02,  1.2461e-02,  5.7530e-02,  1.1402e-02,  1.4255e-02,
         -2.7222e-03,  4.9837e-03, -2.0090e-03,  5.9337e-03,  2.6496e-04,
          1.5881e-02,  3.9746e-02,  1.0021e-02,  1.9076e-02, -1.0245e-02,
         -2.4989e-02, -4.7265e-03, -4.2448e-02, -9.9542e-03,  1.6487e-02,
          1.6231e-02, -2.1186e-02, -1.1305e-02, -1.0419e-03, -1.6811e-02,
         -1.3292e-02, -1.6009e-02, -1.2633e-02, -3.1742e-02,  2.8499e-02,
          3.1493e-03,  1.0220e-02, -2.3336e-02,  2.9565e-02, -9.8651e-03,
         -1.3117e-02, -9.0990e-03,  3.3266e-02,  3.8210e-02,  9.4029e-03,
         -9.3555e-03,  6.2216e-03,  7.2297e-05, -2.3483e-02,  2.3561e-02,
          2.9910e-03, -1.3890e-02,  3.1594e-02,  2.5095e-03,  2.5267e-02,
         -8.8570e-03, -9.9143e-03,  1.5201e-02,  5.4142e-03,  2.3781e-02,
         -9.4753e-03,  2.8310e-02, -1.4947e-02,  7.3944e-04,  8.8142e-03,
          1.0060e-02, -2.0057e-02,  1.9367e-02, -3.3183e-02,  1.6258e-02,
          4.8447e-02, -1.7387e-03, -1.8541e-02, -2.1069e-02, -9.2494e-03,
          1.4283e-02,  2.4006e-03, -7.2281e-03,  3.0556e-03, -7.5882e-03,
         -6.6856e-03, -1.9327e-02]])
