Weights: 
embeddings.embeddings.0.weight tensor([[-0.2910,  0.3191],
        [-0.3904, -0.2008],
        [ 0.3075,  0.3059],
        [ 0.0339,  0.0255]])
embeddings.embeddings.1.weight tensor([[ 0.3304,  0.4590],
        [-0.2418,  0.5425],
        [ 0.1441, -0.1219],
        [-0.2964, -0.0116],
        [-0.5816, -0.0246]])
embeddings.embeddings.2.weight tensor([[ 0.1972,  0.1841, -0.1813],
        [-0.4076, -0.1370,  0.0520],
        [ 0.1028,  0.3518,  0.2342],
        [ 0.1764, -0.4220, -0.3553],
        [ 0.1029, -0.0256,  0.4258],
        [-0.3538,  0.4451, -0.3624]])
embeddings.embeddings.3.weight tensor([[-0.6557, -0.6177],
        [-0.8519,  0.6018],
        [-0.6306, -0.3268],
        [-0.0520,  0.5805]])
embeddings.embeddings.4.weight tensor([[-0.1617, -0.0794],
        [-0.1954, -0.5502],
        [ 0.2562, -0.0504],
        [-0.1319, -0.0796]])
mlp.net.0.linear.weight tensor([[ 0.4843, -0.1466, -0.1299,  ..., -0.6404,  0.1637, -0.0769],
        [-0.6451,  0.1236,  0.4259,  ...,  0.2181,  0.5051,  0.1734],
        [ 0.6334, -0.4331, -0.1027,  ...,  0.4880, -0.3428,  0.2056],
        ...,
        [ 0.2032,  0.1745, -0.3522,  ..., -0.2616, -0.1618,  0.1825],
        [-0.5062,  0.3800,  0.1296,  ..., -0.0192,  0.0371,  0.2845],
        [ 0.5189, -0.2162,  0.2733,  ...,  0.6747, -0.1530,  0.0832]])
mlp.net.0.linear.bias tensor([ 6.8954e-02,  1.2372e-01, -1.4824e-02,  2.0632e-01, -3.9738e-02,
         1.9360e-01, -2.9360e-01, -6.7313e-02, -2.1414e-02, -2.3403e-01,
         1.2190e-01,  7.1362e-02, -1.4701e-01, -2.1088e-01,  2.9512e-01,
        -3.7575e-02,  1.9793e-01, -1.1873e-01, -2.0232e-01,  2.1532e-01,
        -3.4606e-02, -1.7175e-02, -2.6505e-01,  2.1077e-01,  7.9257e-02,
         4.9761e-02, -1.1375e-01,  1.3644e-01, -2.4082e-01, -1.1979e-01,
        -9.2649e-02,  6.4291e-02,  9.8199e-02,  1.0626e-01, -1.5157e-01,
         1.7245e-01,  6.6611e-03, -5.0300e-02,  1.9631e-02,  7.6274e-02,
         3.9979e-02, -9.8356e-02, -2.8102e-01, -2.0678e-01, -1.8809e-01,
        -2.6056e-01,  2.2271e-01,  1.2276e-01, -8.5758e-02,  3.1444e-02,
         2.2331e-01, -7.1812e-02, -4.0210e-02, -1.6787e-01, -4.4768e-02,
        -2.1251e-01, -1.3037e-01, -2.3564e-01,  4.1326e-02, -2.0528e-01,
         1.6815e-02,  3.1818e-02,  1.5902e-01, -5.9960e-02, -6.6212e-02,
         2.0271e-01, -2.7735e-01, -3.7186e-02, -2.9119e-01,  2.9946e-01,
         2.1827e-01, -1.1133e-01,  1.4919e-01,  1.2473e-01,  1.6873e-01,
         1.3431e-01,  4.8527e-02,  2.5340e-02, -1.5780e-01,  3.1792e-02,
        -1.6059e-01,  7.5500e-02, -1.6373e-01,  8.8171e-02,  5.0055e-02,
         2.8136e-01,  3.1107e-01, -5.3182e-02,  1.4981e-01,  4.3765e-02,
        -9.8531e-02,  1.8086e-01,  2.5306e-01,  1.1778e-01,  7.4742e-02,
         6.6087e-02, -1.0120e-01, -1.8720e-02, -8.4534e-02,  1.8181e-02,
        -9.6476e-02, -1.6559e-02,  5.1328e-02, -1.4579e-01,  1.5042e-01,
         9.7811e-02, -2.3033e-01,  7.7493e-02, -1.6544e-02,  1.8318e-01,
        -4.1114e-02, -1.6875e-01,  9.7256e-02, -2.1306e-01,  1.5678e-01,
        -2.3722e-01,  1.2337e-01,  2.3385e-01,  1.9017e-01,  2.4106e-01,
        -1.9064e-01,  5.7414e-02, -8.9250e-02, -2.2900e-01, -1.2444e-01,
         1.1223e-02,  2.7977e-02,  2.4954e-01, -1.7759e-01,  7.2920e-02,
        -1.3523e-01, -3.2795e-02, -7.0183e-02,  3.1650e-01, -8.6020e-02,
         2.0259e-01, -7.9186e-02,  1.1375e-01,  3.4522e-01,  5.9238e-02,
         2.7233e-01,  2.7386e-01,  2.0189e-01,  5.8167e-02,  2.6907e-02,
        -2.3869e-01, -1.3985e-01, -5.3737e-02,  8.0986e-02, -2.2713e-01,
        -2.2224e-01,  9.4535e-03, -1.8507e-04,  5.9606e-02,  5.0857e-02,
         1.6514e-01, -1.0196e-01, -1.9597e-01, -5.3547e-02, -4.8511e-02,
         3.3859e-02, -2.7348e-03, -2.7240e-01, -3.5504e-01, -7.5443e-02,
        -2.9483e-01, -3.0960e-01, -2.1952e-02,  1.4137e-01, -7.5774e-02,
         2.1079e-01, -4.7179e-02, -1.0582e-01,  1.6218e-01, -1.4548e-01,
         1.5986e-01, -2.1536e-01,  1.9595e-01, -1.8946e-01,  1.0137e-02,
        -1.8030e-01,  1.8820e-01, -1.4715e-01, -1.4894e-01, -2.0488e-01,
         1.7923e-01, -1.1608e-01,  2.8165e-03,  9.6296e-02,  1.6821e-01,
        -1.7437e-01, -1.3037e-01, -2.0635e-01,  2.6030e-01, -1.3423e-01,
         1.3802e-01,  8.2065e-02, -1.8911e-01, -1.3247e-01, -1.2077e-01,
        -1.1672e-01,  1.2177e-02,  7.5429e-02,  2.9328e-01,  7.0089e-02,
         4.7171e-03,  4.5480e-02, -1.0739e-01, -3.2109e-02,  2.1896e-01,
         2.3718e-01, -4.8191e-02,  2.6795e-01, -3.0480e-01, -1.8180e-01,
         1.7098e-01, -1.4195e-01,  8.1493e-02, -3.5468e-01, -1.7570e-01,
         1.0580e-01, -4.6273e-02,  2.1325e-01, -2.5060e-01, -1.2653e-01,
        -5.8241e-02,  2.0536e-02,  6.1018e-02,  2.1357e-02,  2.6027e-01,
         1.1941e-01,  3.0177e-02, -1.1892e-01, -9.6912e-02, -2.2002e-01,
        -9.7949e-04, -2.0276e-01,  1.6898e-01,  2.6187e-02, -4.2076e-03,
         8.1054e-02,  3.6828e-02,  2.5590e-01,  1.1072e-01,  6.1566e-02,
         1.5028e-01,  2.9913e-01,  3.8940e-02,  7.5458e-02,  2.8758e-02,
        -1.3565e-01, -4.3178e-02,  1.3853e-01,  1.6619e-02,  6.0672e-02,
        -3.1941e-02, -1.0174e-01, -1.4611e-01, -1.8547e-01, -2.5401e-01,
         1.1941e-01,  1.9189e-01,  1.0600e-01,  1.9667e-02, -1.8241e-01,
         1.6910e-01,  8.9345e-02,  1.1922e-01, -2.2766e-01,  1.0134e-01,
         2.1627e-01,  1.2370e-01,  3.1190e-03,  2.6832e-01, -8.6693e-02,
        -3.3494e-01, -5.0442e-03,  6.3246e-02, -1.6942e-01, -1.3254e-01,
        -2.0483e-01, -4.5537e-02, -1.2269e-01, -6.5017e-02, -6.0482e-02,
         7.5200e-03, -1.1661e-01, -2.1648e-01, -1.4189e-01,  2.4909e-01,
        -4.8603e-02, -4.1836e-03, -1.4455e-01,  4.5593e-03,  1.5184e-01,
         2.0087e-02,  2.2264e-01, -9.2490e-02,  9.2625e-02,  1.8971e-01,
         2.2492e-01,  1.5777e-01, -1.1144e-01,  4.3360e-02,  2.0828e-01,
         3.0455e-01, -2.1950e-01, -3.0591e-02,  5.3864e-02, -1.8593e-01,
         3.5352e-02, -6.3804e-02, -2.7331e-01, -2.4279e-01,  1.0550e-01,
        -1.9556e-01,  1.0167e-02, -3.7065e-02, -6.6813e-04, -1.5244e-01,
        -1.9902e-01, -1.1599e-03,  3.3142e-03,  8.7167e-02, -3.7307e-02,
         1.1025e-01, -9.3050e-02, -2.9046e-01,  1.9020e-01,  1.1558e-01,
         2.0397e-01,  1.7003e-01,  1.5997e-01, -2.8629e-02,  6.3958e-02,
        -4.8396e-02, -2.5027e-01,  1.6477e-01,  1.7617e-01,  1.2548e-01,
        -3.4295e-02, -4.1964e-02,  1.7700e-02, -4.3397e-02,  2.2419e-01,
         2.0505e-01,  8.7311e-02, -1.4156e-02,  6.8393e-02,  1.9134e-01,
        -2.5042e-01,  6.5830e-02,  2.2092e-02, -2.5409e-02, -3.8375e-02,
         5.1125e-02,  6.3912e-02, -2.8901e-01,  6.3851e-02,  2.9076e-02,
        -9.3047e-03,  1.3998e-03, -1.6639e-01,  1.1103e-01, -2.3715e-02,
         1.1504e-01, -1.3213e-01, -1.3301e-01, -1.7800e-01,  1.4259e-01,
        -2.5371e-01,  1.8383e-01, -9.6139e-02, -1.0666e-01,  1.0957e-01,
        -1.2192e-01,  8.9202e-03, -1.6725e-02,  1.9635e-01,  5.2011e-02,
        -2.8665e-02,  1.3055e-01,  1.1895e-01, -5.5177e-02, -1.7794e-01,
        -2.8536e-02,  2.1651e-01, -3.2236e-02,  9.4103e-02,  1.2220e-01,
        -1.9696e-02, -2.6062e-01,  1.2691e-01,  1.6694e-01,  1.4550e-02,
        -1.7772e-01, -2.9850e-01, -8.4364e-02,  2.4091e-02,  1.3791e-01,
         2.3057e-02,  2.0206e-01, -2.7288e-01,  1.3567e-01,  3.4120e-03,
         1.8388e-01, -1.0622e-01, -1.0064e-01, -1.9317e-01, -1.2243e-01,
         1.8763e-01, -5.2071e-02, -1.9709e-01,  2.1946e-01, -9.1081e-02,
        -1.9635e-01, -2.5440e-03,  1.4261e-01,  9.6270e-02, -1.7981e-01,
        -2.3869e-01, -1.7916e-01, -2.2111e-01,  7.3587e-02, -9.1831e-02,
         3.3812e-02, -2.6463e-02,  4.4700e-02, -1.9729e-01,  1.0297e-01,
        -3.6557e-01, -1.4802e-01,  1.9236e-02,  4.3784e-02, -2.3442e-01,
         1.0795e-01, -4.0223e-02,  1.1861e-01,  1.6396e-01, -2.3517e-01,
        -1.2028e-01,  2.3684e-02,  1.4228e-01,  1.8260e-01, -6.5175e-03,
         7.0084e-02,  7.0939e-02,  6.1793e-02, -2.8403e-01,  1.9823e-01,
        -1.4419e-01, -2.4598e-01, -1.9678e-02,  1.0461e-02, -2.6397e-01,
         6.0510e-02, -8.2291e-02, -1.0078e-01,  1.3916e-01,  2.2045e-01,
        -1.5408e-01,  1.9264e-01,  3.3848e-02, -3.1885e-01, -1.8846e-01,
        -1.9739e-01,  4.3853e-02,  1.7105e-01,  1.2370e-01,  3.5829e-02,
        -4.3244e-02,  1.2787e-02, -1.6139e-01,  1.5398e-01, -1.5430e-01,
        -6.8894e-02, -1.9819e-01, -1.0603e-01, -8.6290e-02, -2.4415e-01,
        -1.0131e-01, -1.8145e-01,  8.2185e-02, -8.1957e-02,  2.4304e-01,
        -1.4605e-01, -1.5163e-01, -1.6933e-01,  1.5503e-01,  7.0794e-02,
         5.2722e-02,  1.3971e-01,  7.0765e-02,  4.4765e-02, -1.0321e-01,
         3.3321e-01, -4.7300e-02,  2.9964e-01,  8.0893e-02,  2.4017e-01,
        -4.2976e-02,  1.1826e-02,  1.5353e-01,  1.6026e-01,  1.1710e-01,
         6.8382e-02,  2.6203e-01,  1.1801e-01, -2.9167e-02,  6.5690e-02,
         2.7792e-01,  1.8695e-01])
mlp.net.0.batch_norm.weight tensor([1.0178, 1.1276, 1.0283, 1.0110, 0.9804, 1.1156, 0.9510, 1.0522, 0.9483,
        1.0797, 1.1904, 0.9234, 1.0182, 0.9929, 0.9843, 1.0044, 1.0383, 1.0183,
        1.0847, 1.0388, 0.9519, 1.0061, 1.0595, 0.9334, 1.1035, 1.0454, 0.9984,
        0.9948, 1.0234, 0.9952, 0.9282, 0.9123, 0.9818, 1.0116, 0.9859, 0.9986,
        0.9762, 0.9331, 0.9864, 0.9369, 0.9315, 0.9188, 1.0123, 1.0037, 0.9995,
        0.9412, 1.0033, 1.0182, 0.9739, 0.9753, 1.0687, 0.9392, 1.0523, 0.9104,
        0.9817, 0.9559, 1.0135, 1.0155, 0.9604, 1.0124, 1.0561, 1.0212, 1.0161,
        1.0010, 1.1152, 1.0576, 0.9324, 1.0585, 1.0041, 1.0548, 1.0642, 1.0092,
        1.0878, 1.0106, 1.0319, 1.0173, 1.0662, 1.0972, 1.0365, 1.0525, 1.1772,
        1.0700, 0.9342, 1.1382, 1.0088, 0.9171, 0.9992, 0.9228, 1.0253, 1.0492,
        0.9281, 1.0385, 0.8632, 1.0436, 0.9876, 0.9217, 0.9895, 0.9615, 0.8566,
        1.0715, 1.0571, 1.0109, 0.9585, 0.9518, 0.8788, 0.9420, 1.0728, 1.0051,
        0.9923, 0.8909, 1.0543, 0.9420, 0.9741, 0.9608, 1.0150, 1.0313, 1.0103,
        1.0652, 1.0255, 1.0529, 1.1133, 1.0581, 1.0384, 1.1616, 0.9777, 0.9864,
        0.9977, 1.1381, 0.9953, 0.9955, 1.0245, 1.0408, 1.0324, 1.0182, 0.9551,
        0.9872, 1.0317, 1.0938, 0.9945, 1.0752, 1.0589, 0.9341, 1.1060, 0.8810,
        0.9782, 0.9892, 1.1010, 1.0461, 0.9774, 1.0029, 0.9121, 1.0974, 1.0217,
        1.0002, 0.9747, 1.0684, 1.0789, 0.9181, 1.0990, 1.0410, 0.9872, 0.9464,
        0.9399, 1.0158, 0.9237, 0.8960, 0.8676, 1.0323, 0.9544, 1.0486, 0.9371,
        1.0359, 1.0759, 1.0644, 0.9752, 0.9872, 0.9357, 1.0302, 0.9270, 0.9629,
        0.9690, 1.0000, 0.9244, 0.9619, 0.9979, 0.9637, 0.9951, 1.0436, 0.8432,
        0.9652, 1.0000, 0.9808, 0.9501, 1.0183, 0.9376, 1.0662, 0.8926, 0.9792,
        1.0314, 0.9872, 0.9186, 0.9334, 1.0734, 1.0181, 0.9343, 1.0032, 0.9179,
        1.0575, 0.9505, 0.8662, 1.0632, 1.0162, 1.0301, 0.9290, 1.0186, 1.0749,
        1.0424, 0.8822, 1.0126, 1.0298, 0.9853, 1.0068, 0.9457, 1.0076, 0.9746,
        1.0062, 0.9915, 1.0277, 0.9218, 1.0157, 0.9303, 0.9776, 1.0727, 1.0523,
        1.0125, 0.9332, 0.9789, 1.0483, 1.0444, 1.0197, 0.9751, 0.8019, 1.0361,
        0.9456, 0.9948, 1.0463, 1.0755, 1.0495, 0.9823, 1.0083, 0.9983, 0.9811,
        1.1007, 0.9717, 1.0222, 1.0384, 0.9479, 0.9311, 1.0585, 1.0745, 0.9671,
        1.0093, 0.9981, 0.9222, 1.0759, 0.9736, 1.1119, 1.0209, 0.9595, 0.9534,
        0.9791, 1.0274, 1.0495, 1.0735, 0.9022, 1.0244, 0.9730, 1.0629, 0.9357,
        0.8834, 1.1110, 1.0267, 1.0343, 1.0066, 1.0964, 1.0673, 0.9827, 0.9577,
        1.0448, 0.8797, 1.0590, 0.9527, 0.9832, 0.9968, 0.9508, 1.0122, 0.8961,
        1.1379, 1.0072, 1.0833, 1.0060, 1.0110, 1.1107, 1.0494, 0.9449, 0.9845,
        1.0246, 1.0332, 1.0451, 0.9049, 0.9883, 0.9898, 0.9936, 0.9543, 0.9948,
        0.9788, 0.9711, 0.9728, 0.9299, 0.9882, 1.0096, 0.9195, 1.0705, 0.9630,
        1.0349, 1.0489, 1.0110, 1.0263, 1.0087, 1.0011, 1.0050, 1.0262, 1.0609,
        0.9221, 1.0072, 1.0628, 1.0678, 0.9660, 1.0001, 1.0122, 1.0358, 0.8341,
        0.9119, 1.1279, 1.0582, 0.9132, 0.9375, 1.0484, 1.0732, 1.0161, 0.9517,
        1.0942, 0.9887, 1.0217, 0.9685, 1.0022, 1.0015, 1.0301, 0.9431, 0.8513,
        0.9849, 1.1032, 0.9570, 1.0559, 1.0006, 1.0761, 1.0012, 1.0194, 1.0915,
        1.0840, 1.0128, 0.9745, 0.9417, 0.9242, 0.9891, 0.9865, 0.9102, 1.0923,
        0.9685, 1.0782, 0.9697, 0.9427, 1.0071, 1.0152, 0.9339, 1.0839, 0.9694,
        0.9899, 0.9911, 0.9445, 1.0708, 0.9730, 0.9795, 0.9624, 0.9395, 0.9503,
        1.0247, 0.9933, 0.9858, 1.0987, 0.9430, 0.9979, 0.9831, 1.0229, 1.0234,
        1.0440, 1.0723, 0.9988, 0.9895, 0.9817, 0.9934, 0.9846, 1.0103, 1.0205,
        0.9134, 1.0368, 1.1284, 0.9110, 0.9943, 1.0013, 0.9505, 1.0115, 0.9831,
        0.9236, 1.0120, 0.9421, 0.9816, 0.9876, 0.9593, 0.9879, 1.0639, 0.9129,
        1.0240, 1.0347, 1.0509, 1.0125, 1.0125, 0.9945, 0.9794, 0.9500, 0.9923,
        1.0149, 0.9745, 0.9622, 0.9576, 1.0091, 1.0512, 1.1216, 0.9291, 0.8788,
        1.0432, 1.0399, 1.0097, 1.1009, 1.0125, 1.0249, 0.9982, 1.0781, 0.9499,
        1.0425, 1.0529, 1.0706, 1.0252, 0.9856, 1.0595, 0.9411, 0.9328, 1.0451,
        0.9343, 1.0837, 0.9508, 0.9937, 1.0730, 0.9738, 1.0981, 0.9321, 1.0001,
        0.9516, 1.0809, 0.9528, 0.9921, 0.9988, 1.0874, 0.9331, 0.9642, 1.0318,
        1.0248, 1.0205, 0.9578, 1.0972, 0.9922, 0.9384, 1.0477, 0.9887, 1.1325,
        1.0438, 0.9578, 1.1036, 0.8926, 0.9524, 0.9672, 0.9811, 0.9355, 1.1272,
        1.0841, 1.0918, 1.0133, 1.0137, 1.0682, 1.0104, 0.8720, 0.9794])
mlp.net.0.batch_norm.bias tensor([ 5.1383e-02,  5.4345e-03,  9.8702e-02, -3.0944e-02, -1.1963e-01,
         7.8656e-02,  9.6548e-02, -4.6038e-03, -3.7396e-02,  1.5519e-02,
         7.3845e-02, -1.2484e-01,  4.3812e-02, -7.2563e-03, -2.4794e-02,
        -3.2026e-02, -7.8966e-02,  7.1031e-05,  1.2638e-01, -1.5495e-01,
        -4.9429e-02,  2.8976e-02,  1.0888e-01, -8.8621e-02, -1.3741e-02,
        -4.1134e-02, -4.9385e-02, -1.3030e-02, -1.3003e-02,  4.3586e-02,
        -1.8947e-02, -1.3163e-01,  7.9494e-02,  5.3023e-02, -5.4899e-02,
        -5.7265e-02,  4.3541e-03,  2.1732e-02, -7.8299e-02, -2.4645e-02,
         1.4031e-02,  8.2045e-03,  8.9456e-02,  5.0196e-02,  3.5797e-02,
         2.8235e-02, -1.9789e-02,  9.1358e-02, -5.6047e-02, -8.4962e-02,
        -3.0737e-02, -7.5657e-02, -1.2111e-01,  9.4990e-02, -7.4281e-02,
         8.5442e-02, -3.3061e-02, -6.4795e-03, -4.9422e-02,  6.6369e-02,
        -3.5802e-02, -1.0827e-01, -6.8128e-02, -6.3702e-02, -9.4267e-03,
        -9.1530e-02,  6.5056e-03,  8.3414e-02,  9.2702e-02, -1.4176e-01,
         1.9165e-02,  6.3399e-02, -5.0755e-02,  5.2706e-02, -8.5682e-02,
        -2.3881e-03, -1.0160e-01, -5.6048e-02,  2.9883e-03,  8.0210e-03,
        -6.2774e-02, -2.0281e-03,  4.5621e-02,  2.1276e-02, -3.5136e-03,
         4.0440e-02,  1.4023e-02,  1.2322e-01, -4.1926e-02, -1.8363e-02,
        -1.5423e-03, -4.6037e-02,  9.0266e-04, -1.6609e-02, -2.7673e-02,
         7.7598e-02,  6.1925e-02,  1.5977e-02,  1.3797e-02,  9.0703e-02,
         1.0879e-01, -6.0468e-02,  3.5751e-02, -1.4132e-01, -4.6654e-02,
         7.1711e-03,  4.8223e-02, -1.0588e-01,  3.9660e-02, -8.1674e-02,
         8.7237e-02,  7.9321e-03, -2.8567e-02, -1.0667e-01, -2.3755e-02,
        -6.9551e-02, -8.7526e-02, -2.7770e-02, -9.0038e-02,  6.8007e-03,
        -1.0586e-01,  2.5470e-02,  5.0632e-02, -5.4710e-02,  5.9037e-02,
        -5.2531e-02, -1.1755e-02,  2.1533e-02, -2.5045e-02, -3.3784e-02,
        -2.6327e-02,  1.2096e-01,  5.2293e-02, -4.9975e-02, -6.4745e-02,
         2.4326e-02, -8.4153e-02,  1.6377e-02,  5.9885e-02,  2.3931e-02,
        -7.9117e-02, -1.0050e-03, -2.0171e-02,  1.4466e-01,  4.3387e-02,
        -1.0220e-02,  4.4459e-02, -9.0537e-02, -1.9543e-04,  5.1723e-02,
        -2.3799e-02, -2.3103e-02, -3.3339e-02,  1.4391e-02,  6.7092e-02,
        -1.1241e-01, -2.5663e-02,  6.5955e-02,  7.6012e-02, -1.8455e-01,
         8.3506e-02,  4.9080e-02,  5.3044e-02, -4.0092e-02,  1.0046e-01,
         2.9553e-02,  1.0993e-01,  1.6494e-02, -9.7439e-02,  4.6556e-02,
        -1.6729e-02,  1.0339e-01, -1.1545e-01,  1.5022e-01, -8.7435e-02,
        -1.2067e-01,  4.3073e-02, -5.6813e-02, -3.6217e-02,  1.5955e-02,
        -1.4552e-02, -2.9330e-02, -5.4961e-03,  8.2523e-02,  1.9533e-02,
         8.5779e-02, -1.2063e-02,  2.4475e-02, -4.5126e-02, -3.3504e-02,
         3.0918e-02,  4.5840e-02, -1.1047e-01,  6.5371e-02,  4.4345e-02,
        -2.6289e-02,  7.6651e-02,  9.1409e-02,  6.6277e-03,  6.7527e-02,
        -4.7544e-02, -9.0834e-02, -4.9334e-02,  1.0028e-01, -4.2211e-02,
         2.8955e-02, -7.0441e-02, -3.1407e-03, -6.3513e-02,  9.9039e-02,
        -2.6259e-02,  4.7520e-02, -5.7933e-04, -1.3011e-01,  2.2178e-02,
         3.1633e-02,  1.0992e-02, -9.6870e-03, -8.4244e-03, -6.4444e-02,
         1.1326e-01, -2.0501e-02, -9.4357e-03,  2.7316e-02,  3.5231e-03,
        -2.8060e-02,  5.4246e-03,  4.8866e-02, -2.3860e-02,  1.1868e-01,
         5.6754e-02, -2.8785e-02,  1.3447e-01, -9.1944e-02,  6.9482e-02,
        -3.8148e-03, -5.3071e-02, -1.6251e-01, -4.2919e-02, -3.2788e-03,
        -9.7267e-02, -4.7320e-02, -6.9159e-02, -2.9409e-02, -4.3242e-02,
         5.5795e-03,  1.2060e-01, -1.2048e-01,  4.0182e-02,  1.1263e-01,
        -8.8821e-02,  3.6918e-02, -8.7826e-02, -9.8669e-02, -4.4010e-02,
         5.1268e-02, -1.1043e-01,  3.8245e-03,  2.1107e-02,  8.7843e-02,
        -5.3703e-02, -7.4723e-03,  1.0273e-01,  9.4649e-02,  4.7376e-02,
         8.0947e-03, -7.4311e-02, -1.8094e-01,  1.2347e-01,  1.1194e-01,
        -8.3558e-03,  7.0102e-02,  5.8062e-02, -2.8345e-03,  1.5541e-02,
         3.2990e-02, -4.0902e-03,  1.9410e-02,  7.8565e-02,  9.0831e-02,
        -1.1339e-01,  1.2634e-01, -8.2627e-02,  8.2941e-02, -4.0413e-02,
         1.9760e-03, -3.0017e-03, -1.1888e-01,  1.6573e-02,  2.2938e-03,
         4.0433e-03,  1.3620e-02,  8.1302e-02, -8.3271e-02, -6.2514e-02,
         4.9989e-02,  5.6237e-02, -5.8219e-02,  7.2128e-04,  9.8010e-02,
        -7.2817e-02, -1.2888e-02, -7.5430e-02,  3.6589e-03, -2.8495e-02,
        -7.3748e-02,  1.0954e-01,  5.1424e-02,  9.6320e-02, -1.6853e-02,
         1.9646e-02, -8.8419e-02,  1.5717e-02, -3.9118e-02,  4.2719e-02,
         1.2188e-01,  1.4508e-01, -1.6742e-02,  7.8582e-02,  3.0465e-02,
        -2.1143e-02,  4.6132e-03, -1.5334e-02, -3.4496e-02, -4.5630e-02,
         1.2370e-02, -1.4481e-02, -6.8765e-02, -6.6355e-02, -2.0281e-02,
         4.1502e-02, -5.8507e-02, -2.9418e-02,  6.3633e-02, -3.3473e-02,
         1.4031e-01, -5.6986e-02, -4.6621e-02,  9.1032e-03,  2.3231e-02,
         4.4000e-02, -3.8647e-02,  1.4413e-02, -1.5197e-02,  5.6583e-02,
        -1.4184e-02, -5.9063e-02, -5.7685e-03,  8.3729e-02,  2.1531e-02,
         7.2582e-02,  8.6866e-03, -1.0193e-01,  6.6944e-02,  5.0173e-02,
        -8.8512e-02, -2.0999e-02, -4.4681e-03, -7.1366e-02,  6.0562e-03,
         6.0795e-02, -8.8365e-02,  3.8022e-02,  6.1069e-02, -5.7175e-02,
        -3.4247e-02, -3.0386e-02, -2.0159e-02,  1.2309e-01,  1.6114e-02,
        -5.0105e-02, -5.3208e-02, -2.5356e-02,  4.5168e-02, -9.5326e-02,
        -5.1982e-02,  1.8441e-02, -5.5083e-02, -1.8479e-02,  2.0576e-02,
         9.3371e-02,  3.8316e-02, -1.6943e-02, -7.1219e-02,  1.1215e-02,
        -9.6719e-02, -1.1869e-01, -7.3315e-02, -1.0177e-02, -5.0545e-02,
         1.2682e-02, -1.3949e-02, -3.4117e-02,  2.2617e-02,  8.7261e-02,
        -8.7072e-02, -4.0555e-02, -9.0125e-02, -3.6156e-02, -7.9720e-02,
        -2.1188e-02,  1.5350e-02, -6.3232e-02, -1.7157e-03,  6.4636e-02,
         3.6235e-02,  1.0778e-02,  2.0042e-02, -4.4230e-02, -1.8097e-02,
        -5.8870e-02, -6.7490e-02,  8.7357e-02, -5.6889e-03,  1.3536e-02,
         7.7062e-02, -2.4339e-02,  1.8040e-01,  5.6063e-02, -3.5331e-02,
        -1.2598e-02, -7.6936e-02,  2.4173e-02,  6.2678e-02, -1.0033e-01,
        -6.8221e-02, -2.1285e-02,  4.5960e-02,  6.4953e-02, -9.9612e-02,
        -7.6202e-02, -3.9794e-02, -2.4100e-02,  8.3475e-02, -1.3393e-01,
        -1.5869e-02, -3.3718e-02, -2.9558e-04,  4.2740e-02, -3.6918e-02,
        -1.8925e-03, -4.9024e-02,  3.0876e-03, -1.7750e-02, -8.2872e-02,
         3.4715e-02,  7.9815e-03,  1.3525e-01, -1.6400e-01,  4.2546e-02,
         1.0134e-01,  4.1174e-03, -1.1996e-01, -3.8274e-02, -5.3283e-02,
         2.7444e-02, -1.5487e-02, -1.6300e-02,  4.3623e-03,  4.7002e-03,
         3.9847e-02, -7.2408e-02, -7.6084e-02,  1.6957e-01, -8.8531e-02,
         5.9832e-02,  3.2637e-02,  1.5658e-03,  4.4890e-04,  7.6745e-03,
         1.1164e-01,  1.0609e-02, -1.2178e-01,  4.5840e-02, -1.0933e-01,
        -3.6557e-02,  8.9910e-03,  2.8467e-02, -6.0130e-02, -1.7198e-01,
        -8.9349e-03,  5.0669e-02,  3.5722e-02,  1.2469e-01, -7.8452e-03,
        -5.5970e-02, -5.8246e-02,  1.1677e-01,  8.3870e-02, -9.5161e-02,
         9.3178e-02, -1.7986e-02, -1.2507e-02,  3.7367e-02, -3.1058e-02,
         1.8561e-01,  6.0853e-02,  1.0325e-01, -1.1956e-01,  7.7188e-03,
        -3.3112e-02,  9.0570e-03, -2.7669e-02, -8.3047e-02,  2.9094e-03,
        -2.8983e-02,  1.4583e-01, -8.7401e-03,  5.4683e-02, -6.9751e-02,
        -4.1987e-02, -2.7446e-02])
mlp.net.0.batch_norm.running_mean tensor([3.0231e-02, 1.2437e+00, 1.1408e-01, 1.0936e-01, 1.6532e-01, 5.6703e-01,
        1.6441e-02, 3.8821e-01, 3.2275e-02, 2.1618e-01, 5.7202e-01, 3.9725e-01,
        8.0007e-02, 6.3470e-02, 3.9625e-01, 3.6951e-03, 7.9897e-01, 3.1737e-01,
        1.9603e-02, 1.1888e+00, 2.2587e-01, 5.0088e-01, 5.0916e-02, 4.6845e-01,
        8.6883e-02, 2.3015e-01, 2.6881e-01, 3.3987e-01, 1.1256e-01, 7.8844e-01,
        3.2457e-01, 4.2352e-02, 3.2613e-01, 4.4518e-01, 2.6492e-01, 2.6452e-02,
        3.2354e-01, 1.0441e+00, 2.2994e-01, 6.5623e-03, 2.9716e-01, 1.4418e-02,
        6.3856e-03, 1.1614e+00, 8.3862e-01, 1.5028e-01, 1.5110e+00, 5.8813e-03,
        8.7898e-01, 5.8271e-01, 4.6301e-01, 2.0810e-01, 2.3732e-02, 7.4819e-02,
        1.5237e-01, 1.5199e-01, 1.7597e-01, 1.3778e-03, 4.6949e-01, 1.9628e-02,
        2.2968e-02, 7.7503e-08, 3.1731e-01, 8.5449e-07, 9.6529e-01, 5.2588e-01,
        3.8680e-02, 1.5588e-01, 1.2868e-01, 6.3687e-01, 4.0996e-01, 8.7469e-01,
        3.9368e-01, 4.5321e-01, 5.9312e-01, 9.7518e-01, 3.7987e-01, 1.0935e-01,
        8.9668e-02, 5.5878e-01, 1.2450e-02, 1.0481e-02, 3.2589e-01, 7.1423e-02,
        8.7234e-01, 1.3271e-01, 9.3087e-01, 1.2155e-01, 3.8764e-01, 2.0816e-01,
        4.7409e-03, 3.0074e-01, 3.6126e-01, 1.5403e-02, 3.7548e-01, 3.6519e-02,
        2.2240e-01, 3.1386e-03, 1.9695e-02, 1.7480e-01, 1.0018e-01, 5.5710e-02,
        3.2068e-02, 3.2570e-02, 1.5127e-01, 1.0564e+00, 6.3617e-01, 1.8862e-01,
        2.5483e-02, 6.6863e-02, 5.5514e-02, 3.1389e-01, 6.2894e-03, 7.6731e-01,
        1.7380e-02, 1.2440e-03, 8.9305e-04, 1.1325e+00, 2.0594e-01, 6.9993e-01,
        9.0167e-02, 4.1906e-01, 1.1755e-03, 6.2228e-02, 3.6009e-01, 2.4672e-01,
        1.1155e-01, 1.1135e+00, 3.3282e-01, 1.6835e-01, 2.6929e-01, 1.4254e-02,
        5.9893e-01, 1.0730e+00, 5.2817e-02, 6.9220e-01, 2.3344e-01, 1.2016e+00,
        3.7735e-01, 6.8091e-01, 7.6595e-01, 1.9720e-01, 3.8029e-01, 4.6098e-01,
        1.6358e+00, 1.8065e-04, 1.8118e-01, 4.0353e-01, 1.5826e+00, 2.4844e-03,
        2.4475e-03, 2.0682e-01, 1.0884e+00, 1.5246e-01, 6.6157e-01, 2.3265e-01,
        1.0427e-01, 1.9193e-02, 1.0416e-01, 8.6510e-02, 2.6767e-01, 1.7539e-01,
        6.3492e-11, 1.9126e-03, 8.0548e-01, 3.2241e-02, 1.3301e-04, 3.0661e-01,
        4.7471e-01, 5.2289e-01, 1.9862e-01, 3.3617e-02, 2.3965e-01, 1.4662e-01,
        3.2539e-03, 4.3034e-02, 1.3901e-01, 2.9110e-01, 2.3890e-01, 3.6967e-02,
        4.2896e-02, 4.7943e-01, 7.0326e-01, 1.0349e-03, 1.2385e+00, 8.0010e-01,
        2.2621e-03, 1.2782e-01, 4.8789e-01, 6.9061e-03, 0.0000e+00, 2.1577e-01,
        2.5158e-01, 7.3950e-01, 1.3424e-01, 8.6008e-01, 2.4635e-01, 9.0511e-01,
        2.2891e-02, 1.4698e-01, 2.6198e-02, 1.4551e-01, 3.8970e-01, 3.4067e-01,
        7.3063e-02, 3.8720e-01, 2.8733e-03, 2.8316e-01, 4.7013e-02, 1.4969e-02,
        6.9492e-01, 5.0830e-03, 1.1460e+00, 4.1300e-02, 7.7011e-01, 2.2768e-02,
        1.1887e-01, 5.6608e-01, 6.2226e-01, 6.2364e-03, 1.9218e-01, 2.0146e-01,
        1.0401e-01, 1.8594e+00, 3.3479e-01, 9.1580e-01, 2.9545e-02, 8.2049e-01,
        7.0272e-01, 2.5137e-01, 1.0599e+00, 6.0337e-01, 1.2800e-02, 4.1253e-01,
        5.4413e-02, 6.9051e-01, 4.1118e-03, 6.1120e-01, 1.1722e+00, 1.0307e-01,
        2.2603e-01, 4.7832e-01, 7.7859e-01, 1.6893e-01, 4.9562e-02, 2.7083e-01,
        4.9932e-01, 1.5878e-02, 5.7548e-01, 6.9495e-02, 1.0219e-01, 1.6505e-01,
        2.3924e-01, 2.3409e-03, 6.7666e-04, 2.7656e-01, 6.4712e-03, 4.7915e-02,
        3.7474e-01, 2.4915e-02, 1.3155e-01, 5.0309e-01, 2.2849e-02, 1.3856e+00,
        7.7086e-02, 3.0805e-01, 1.0597e-01, 3.8682e-02, 1.5673e-03, 2.6783e-01,
        4.7898e-01, 1.4843e-01, 1.0125e-01, 1.4108e+00, 3.4026e-01, 9.3927e-07,
        9.2517e-01, 9.1502e-02, 1.8303e-03, 2.7170e-02, 3.1039e-01, 4.5224e-02,
        7.5815e-04, 4.3424e-01, 5.4080e-01, 7.7390e-02, 1.9907e-01, 4.9953e-02,
        2.9203e-01, 1.3044e-01, 4.6524e-01, 2.4454e-01, 1.5982e-02, 5.0982e-03,
        1.1357e-01, 5.2149e-02, 1.1272e+00, 2.4842e-02, 5.7298e-01, 9.2217e-01,
        5.6432e-01, 8.1128e-01, 2.0427e-01, 6.7441e-03, 4.8133e-01, 8.8742e-01,
        1.3972e-01, 3.1153e-01, 6.7699e-01, 1.2869e-02, 3.2788e-01, 1.1601e+00,
        5.6852e-01, 7.7067e-04, 2.3152e-03, 6.2227e-01, 4.3650e-01, 2.5359e-02,
        3.0019e-01, 4.4315e-01, 2.5608e-01, 1.0831e+00, 9.5327e-02, 1.4872e-02,
        2.9209e-01, 6.9658e-02, 7.9251e-01, 6.2024e-02, 2.5212e-01, 7.6766e-01,
        1.6433e+00, 5.9572e-01, 5.3414e-01, 1.0804e-02, 2.6509e-01, 5.8926e-02,
        8.3084e-01, 3.1367e-01, 4.2722e-01, 4.5882e-01, 9.4782e-03, 5.4060e-01,
        7.6332e-01, 9.8988e-02, 3.9261e-03, 6.0830e-01, 1.3409e-01, 4.1367e-02,
        1.6766e-01, 2.5868e-01, 1.0177e-01, 7.7775e-02, 9.1866e-02, 4.2079e-04,
        1.1766e+00, 1.1740e+00, 8.3138e-01, 7.4437e-02, 7.4795e-01, 1.5154e-01,
        7.8592e-08, 3.5308e-01, 1.1100e-01, 3.5343e-03, 2.6043e-03, 2.4431e-01,
        2.0801e-02, 5.8090e-02, 1.4969e-02, 2.3231e-02, 1.8549e-03, 9.9256e-01,
        1.4841e+00, 7.1432e-01, 6.3133e-01, 2.5897e-01, 7.4720e-01, 4.1410e-01,
        5.3161e-01, 8.9916e-01, 9.6712e-01, 1.2349e+00, 3.9536e-03, 8.6493e-01,
        1.1836e-01, 4.1721e-02, 4.3970e-01, 3.2153e-02, 2.5743e-02, 2.0235e-01,
        7.7448e-01, 5.7260e-02, 2.5146e-01, 4.5530e-01, 2.5089e-01, 7.8887e-03,
        3.6658e-06, 8.3526e-03, 1.5655e-01, 7.1295e-01, 8.5213e-11, 2.9881e-01,
        5.0639e-02, 9.7141e-01, 3.5030e-01, 6.1653e-01, 5.7822e-01, 8.2611e-01,
        1.2163e-07, 1.0131e+00, 4.2458e-04, 5.8020e-01, 5.2250e-05, 1.1325e+00,
        3.0802e-02, 1.7278e-01, 8.8759e-02, 2.3367e-01, 7.3087e-01, 5.6807e-01,
        4.7511e-03, 1.3551e-03, 4.4695e-02, 5.0287e-02, 2.7901e-02, 6.2476e-01,
        8.0265e-02, 6.2310e-01, 1.3889e-01, 1.1296e+00, 6.9545e-01, 6.6742e-02,
        3.3540e-02, 3.9552e-01, 1.6301e-01, 1.0822e-01, 8.1520e-01, 5.8617e-01,
        7.5304e-01, 4.8073e-01, 1.7412e-02, 6.2797e-01, 6.9865e-01, 1.5746e+00,
        1.7400e-01, 7.4947e-03, 9.8092e-03, 1.2237e+00, 1.0459e-06, 6.5978e-01,
        1.6407e-03, 4.8341e-03, 2.4702e-01, 1.7413e-02, 3.2609e-04, 2.6004e-01,
        2.9821e-01, 1.4371e-05, 8.6790e-01, 1.1080e-01, 2.2279e-01, 8.7345e-01,
        2.3703e-01, 5.1553e-05, 3.5886e-03, 4.0499e-01, 1.3060e+00, 7.4839e-01,
        2.9275e-01, 4.1009e-01, 1.0230e-01, 5.2786e-02, 8.6013e-02, 9.2350e-01,
        4.0950e-01, 4.8841e-01, 1.1711e-02, 5.4783e-01, 1.1779e-01, 2.4062e-11,
        4.2703e-01, 2.0708e-03, 3.3099e-01, 3.5521e-01, 4.1779e-01, 2.8737e-01,
        3.8518e-01, 3.9897e-01, 4.5567e-01, 1.1881e-02, 6.1782e-01, 7.5702e-01,
        1.3823e+00, 1.5067e-03, 4.8653e-02, 8.6634e-01, 1.2542e-01, 3.4635e-01,
        1.0302e-01, 2.2549e+00, 1.6395e-01, 3.0140e-01, 5.3698e-04, 6.1226e-01,
        9.7031e-01, 3.5623e-01, 3.1043e-01, 1.9492e-01, 3.0027e-01, 6.3351e-03,
        4.6306e-01, 3.5549e-01])
mlp.net.0.batch_norm.running_var tensor([1.7910e-02, 2.8669e-01, 3.9969e-02, 3.0212e-02, 5.1666e-02, 1.6819e-01,
        8.6506e-03, 1.3872e-01, 1.4353e-02, 6.9576e-02, 1.0917e-01, 1.5658e-01,
        2.6800e-02, 2.3469e-02, 1.6982e-01, 1.2076e-03, 3.0981e-01, 1.7913e-01,
        6.2318e-03, 1.0497e-01, 1.0743e-01, 1.5700e-01, 1.6675e-02, 2.0264e-01,
        4.3774e-02, 1.1671e-01, 1.2692e-01, 9.7752e-02, 4.3060e-02, 3.2190e-01,
        1.2786e-01, 2.8071e-02, 9.6805e-02, 1.9167e-01, 1.0118e-01, 8.0361e-03,
        1.5269e-01, 1.9831e-01, 9.4574e-02, 1.6479e-03, 1.5663e-01, 7.5969e-03,
        2.5443e-03, 2.8497e-01, 2.1362e-01, 5.9711e-02, 1.6096e-01, 1.7117e-03,
        2.9971e-01, 1.4635e-01, 9.5667e-02, 6.8629e-02, 8.4629e-03, 2.4774e-02,
        5.9312e-02, 4.9454e-02, 8.0599e-02, 1.5859e-04, 2.1938e-01, 1.1013e-02,
        5.9842e-03, 4.0629e-07, 8.4749e-02, 4.2019e-07, 3.6250e-01, 1.7911e-01,
        2.0020e-02, 8.3173e-02, 6.8680e-02, 1.1145e-01, 1.5439e-01, 3.0886e-01,
        9.9375e-02, 1.9554e-01, 1.8494e-01, 2.1860e-01, 1.0601e-01, 5.2729e-02,
        2.0890e-02, 2.4142e-01, 4.3529e-03, 2.8220e-03, 7.5193e-02, 3.9148e-02,
        2.4352e-01, 7.5896e-02, 1.6024e-01, 4.1065e-02, 9.9294e-02, 9.9074e-02,
        1.2553e-03, 1.0671e-01, 1.6356e-01, 5.8141e-03, 1.3611e-01, 1.7449e-02,
        1.0278e-01, 7.8020e-04, 4.4964e-03, 8.0720e-02, 2.8124e-02, 1.9576e-02,
        1.5099e-02, 1.1132e-02, 4.9116e-02, 1.9482e-01, 1.5427e-01, 7.6766e-02,
        7.9191e-03, 2.9594e-02, 2.0957e-02, 8.5527e-02, 2.4691e-03, 2.2827e-01,
        7.6617e-03, 1.8684e-04, 2.8729e-04, 4.5932e-01, 8.5163e-02, 2.2994e-01,
        2.4395e-02, 1.4151e-01, 2.0151e-04, 2.8459e-02, 1.1323e-01, 9.1068e-02,
        5.6455e-02, 2.3337e-01, 1.9767e-01, 4.8313e-02, 6.9184e-02, 5.6088e-03,
        2.3043e-01, 2.4301e-01, 2.5556e-02, 1.0282e-01, 1.1486e-01, 1.7488e-01,
        1.1087e-01, 2.8631e-01, 8.4447e-02, 7.2427e-02, 1.9496e-01, 2.3268e-01,
        2.4971e-01, 2.8644e-05, 1.0263e-01, 1.1218e-01, 2.5325e-01, 2.8592e-04,
        6.9175e-04, 6.6775e-02, 2.5465e-01, 6.9396e-02, 6.4907e-02, 9.3861e-02,
        3.8826e-02, 1.0654e-02, 3.4496e-02, 2.6600e-02, 1.1838e-01, 7.8782e-02,
        3.9261e-07, 4.9448e-04, 1.8528e-01, 1.6795e-02, 2.0802e-05, 7.4257e-02,
        2.0739e-01, 1.7782e-01, 6.7040e-02, 7.3573e-03, 1.0412e-01, 7.3511e-02,
        4.7228e-04, 2.1959e-02, 6.5110e-02, 1.9509e-01, 9.7160e-02, 1.1086e-02,
        2.1459e-02, 1.6693e-01, 1.4853e-01, 3.9107e-04, 4.3737e-01, 1.9016e-01,
        5.6228e-04, 4.6986e-02, 1.2982e-01, 1.8990e-03, 3.9260e-07, 1.0169e-01,
        8.5646e-02, 1.8067e-01, 5.0531e-02, 2.6159e-01, 1.1338e-01, 2.3561e-01,
        5.5667e-03, 4.6298e-02, 1.1573e-02, 4.6454e-02, 1.7783e-01, 9.8736e-02,
        2.7837e-02, 7.3730e-02, 4.4837e-04, 1.6032e-01, 1.6957e-02, 5.6053e-03,
        2.8767e-01, 1.6327e-03, 1.7224e-01, 1.4522e-02, 3.6574e-01, 1.0735e-02,
        4.5047e-02, 1.2900e-01, 1.8874e-01, 2.0343e-03, 8.3262e-02, 1.0595e-01,
        4.2428e-02, 4.6282e-01, 1.2819e-01, 1.9641e-01, 1.0276e-02, 1.8111e-01,
        1.8573e-01, 1.0195e-01, 2.0779e-01, 1.5466e-01, 4.1215e-03, 1.0357e-01,
        2.5824e-02, 3.7658e-01, 1.2151e-03, 2.1322e-01, 1.6137e-01, 2.9124e-02,
        7.1091e-02, 2.2394e-01, 2.4118e-01, 7.3840e-02, 2.9483e-02, 8.9192e-02,
        1.4272e-01, 6.1606e-03, 2.1959e-01, 3.8752e-02, 5.0434e-02, 6.9391e-02,
        7.8567e-02, 6.3196e-04, 8.0651e-05, 1.5072e-01, 1.9290e-03, 2.6205e-02,
        1.3378e-01, 6.6508e-03, 7.0726e-02, 1.2496e-01, 8.1823e-03, 1.8432e-01,
        3.6329e-02, 7.1358e-02, 3.5335e-02, 2.6892e-02, 2.7527e-04, 7.6675e-02,
        1.7311e-01, 7.6024e-02, 5.8920e-02, 3.1480e-01, 1.4687e-01, 4.6885e-07,
        1.9967e-01, 3.0721e-02, 6.2626e-04, 1.0217e-02, 1.4918e-01, 1.3724e-02,
        1.5657e-04, 2.0098e-01, 2.5202e-01, 4.1358e-02, 8.3383e-02, 1.7677e-02,
        1.3109e-01, 4.3156e-02, 1.0698e-01, 9.0114e-02, 5.5868e-03, 1.2683e-03,
        4.0077e-02, 1.1366e-02, 1.8487e-01, 9.0437e-03, 1.8134e-01, 1.4024e-01,
        1.6085e-01, 2.3729e-01, 5.4537e-02, 2.6270e-03, 1.6932e-01, 1.3076e-01,
        8.3181e-02, 9.7664e-02, 2.2015e-01, 5.0856e-03, 8.1239e-02, 3.3085e-01,
        1.6766e-01, 1.3554e-04, 5.9148e-04, 3.1247e-01, 9.1920e-02, 9.3870e-03,
        8.3219e-02, 9.2897e-02, 4.6492e-02, 3.0054e-01, 5.5364e-02, 4.1714e-03,
        1.2419e-01, 2.9521e-02, 2.0315e-01, 2.5959e-02, 1.4064e-01, 1.8617e-01,
        3.3120e-01, 1.8581e-01, 1.4273e-01, 3.0503e-03, 8.0093e-02, 1.6606e-02,
        3.1613e-01, 8.5905e-02, 1.6656e-01, 1.2602e-01, 2.9088e-03, 2.1235e-01,
        1.3111e-01, 4.2441e-02, 1.2597e-03, 2.2362e-01, 7.1436e-02, 1.9606e-02,
        7.7384e-02, 1.2701e-01, 3.6135e-02, 3.9549e-02, 3.4547e-02, 6.9424e-05,
        2.1878e-01, 2.1930e-01, 1.7641e-01, 2.2990e-02, 2.7661e-01, 4.8224e-02,
        3.9588e-07, 1.4991e-01, 4.4844e-02, 9.7928e-04, 4.9203e-04, 8.5345e-02,
        7.7301e-03, 1.3948e-02, 4.9065e-03, 7.7472e-03, 2.8820e-04, 4.2993e-01,
        3.0594e-01, 1.8392e-01, 2.3911e-01, 6.6621e-02, 1.3990e-01, 1.6791e-01,
        2.0216e-01, 1.8650e-01, 2.6972e-01, 2.5135e-01, 1.2232e-03, 2.4526e-01,
        3.0089e-02, 1.8981e-02, 1.3924e-01, 1.1173e-02, 8.9104e-03, 8.4579e-02,
        1.8258e-01, 2.1988e-02, 1.1607e-01, 1.4315e-01, 7.5733e-02, 2.8645e-03,
        8.2572e-07, 2.9784e-03, 1.0784e-01, 1.0725e-01, 3.9261e-07, 1.4350e-01,
        1.8840e-02, 3.0058e-01, 1.2912e-01, 1.6145e-01, 1.4921e-01, 1.9304e-01,
        4.0177e-07, 2.2838e-01, 1.0382e-04, 3.5190e-01, 6.6444e-06, 5.0798e-01,
        6.9352e-03, 6.7613e-02, 5.1692e-02, 7.2064e-02, 2.3805e-01, 1.4248e-01,
        1.4703e-03, 2.8375e-04, 9.0533e-03, 2.7694e-02, 1.1279e-02, 1.2446e-01,
        3.9066e-02, 2.3997e-01, 6.1002e-02, 1.9486e-01, 1.8255e-01, 2.4387e-02,
        9.2682e-03, 1.7082e-01, 5.6165e-02, 5.0369e-02, 2.2677e-01, 3.2313e-01,
        3.7384e-01, 1.4802e-01, 4.2009e-03, 1.5041e-01, 1.3479e-01, 3.0456e-01,
        6.4783e-02, 1.7278e-03, 2.7396e-03, 1.5078e-01, 4.4936e-07, 1.4937e-01,
        3.4675e-04, 1.2445e-03, 8.1539e-02, 3.7457e-03, 7.7507e-05, 1.1934e-01,
        1.0065e-01, 1.3420e-06, 4.5407e-01, 4.0690e-02, 7.3541e-02, 1.7017e-01,
        7.2533e-02, 4.1635e-06, 7.3962e-04, 1.8401e-01, 2.5948e-01, 2.5061e-01,
        8.2938e-02, 1.2803e-01, 5.4695e-02, 2.1424e-02, 2.5384e-02, 1.8618e-01,
        1.6853e-01, 1.2122e-01, 2.8985e-03, 2.0763e-01, 8.1396e-02, 3.9260e-07,
        1.1946e-01, 3.4500e-04, 1.6028e-01, 1.7585e-01, 1.8673e-01, 1.5098e-01,
        1.0114e-01, 1.6738e-01, 1.4465e-01, 3.1068e-03, 1.8482e-01, 3.2314e-01,
        1.8193e-01, 3.9504e-04, 1.3246e-02, 1.5440e-01, 6.6886e-02, 8.8484e-02,
        4.4580e-02, 4.3716e-01, 6.7780e-02, 1.2469e-01, 6.0257e-05, 2.6408e-01,
        2.5021e-01, 1.2682e-01, 7.9712e-02, 1.0535e-01, 1.5217e-01, 1.9337e-03,
        1.2038e-01, 1.5035e-01])
mlp.net.0.batch_norm.num_batches_tracked tensor(140)
mlp.net.1.linear.weight tensor([[ 0.0206, -0.1441,  0.0182,  ..., -0.0962, -0.1773, -0.1170],
        [ 0.0612,  0.1123,  0.0554,  ..., -0.0542, -0.0771,  0.0086],
        [-0.0538,  0.0993, -0.1783,  ...,  0.0670, -0.0798,  0.1085],
        ...,
        [-0.0281, -0.0340,  0.0027,  ...,  0.0156,  0.0261,  0.0348],
        [ 0.1420,  0.0415, -0.0355,  ...,  0.1073, -0.0359, -0.0793],
        [-0.1201, -0.0316, -0.0891,  ...,  0.0819, -0.0934,  0.0469]])
mlp.net.1.linear.bias tensor([ 6.4752e-02,  3.5084e-02, -1.1320e-02, -2.8741e-02, -5.4121e-02,
         5.8772e-02, -2.7910e-03, -5.3677e-02, -3.4665e-03,  5.0950e-02,
        -1.1815e-02, -8.2480e-02,  7.0791e-02, -5.2759e-02,  1.8899e-02,
        -4.8360e-02, -7.7197e-02, -1.4725e-02,  3.0728e-02,  2.5518e-02,
        -9.2884e-02,  1.2678e-02, -1.7253e-02, -7.3758e-03,  7.3468e-02,
        -9.2154e-02, -4.6368e-02,  4.6578e-02,  2.5200e-02, -7.6596e-02,
        -6.1045e-02, -7.9418e-02, -7.7013e-02, -1.6893e-02, -8.3952e-02,
        -6.0159e-02,  1.6450e-02,  7.0870e-02,  6.3724e-02, -3.4298e-02,
         1.8620e-02, -3.7963e-02,  1.5656e-02, -4.8283e-02, -5.5626e-02,
         3.1949e-02, -1.0610e-01,  3.3236e-02,  2.0289e-02, -5.0757e-02,
         8.7060e-02, -8.3500e-02,  4.5676e-02, -2.9148e-02,  4.4649e-02,
        -6.2790e-02,  1.8600e-01,  7.0702e-02, -1.5193e-02,  6.4028e-03,
        -3.2760e-02,  1.1978e-01,  4.8786e-02, -5.4560e-02, -8.6839e-02,
         3.9690e-02, -2.0859e-01, -3.0086e-02, -2.2639e-02, -8.0280e-02,
         7.7938e-02,  1.6144e-02,  4.9368e-02, -4.8459e-02,  8.8856e-02,
        -1.9142e-02, -6.2736e-02, -6.1400e-02, -9.5001e-04,  1.3654e-02,
         5.0636e-02, -1.3327e-01, -2.2676e-02, -1.4974e-03,  1.5473e-02,
         8.9721e-03, -3.9344e-02,  1.6740e-02,  1.1313e-01, -1.7957e-02,
         1.3038e-01,  4.5984e-02,  1.9840e-03, -6.4496e-02,  4.6064e-02,
        -5.8358e-02,  8.3215e-02,  7.1201e-02, -3.7669e-02,  5.9110e-02,
         7.2522e-02, -1.2592e-01, -5.5078e-02, -8.6635e-02, -3.5880e-02,
        -7.4129e-02,  7.7417e-03,  6.4156e-02, -3.7423e-02,  3.4088e-02,
         3.2191e-04,  6.3034e-02, -4.2801e-02,  1.9659e-03,  6.5546e-03,
         2.3725e-02,  1.0873e-02, -1.3424e-03, -2.4278e-02, -3.5693e-02,
        -9.1587e-02, -2.3529e-02, -9.3809e-02, -1.3849e-02, -8.4332e-02,
        -6.6797e-02, -1.6635e-02, -1.9738e-03,  1.0882e-02,  5.8949e-03,
         1.2656e-01, -7.9429e-02,  2.3180e-02, -1.3931e-01, -6.3559e-02,
        -8.3286e-02, -8.7170e-02,  3.6720e-02, -1.9782e-02,  1.7690e-02,
         8.9419e-03,  3.3083e-02, -4.6852e-02,  1.1931e-01, -1.9902e-01,
         4.1386e-02, -1.7997e-02,  1.0818e-03, -5.3750e-03,  1.4222e-02,
        -2.1497e-03, -5.5226e-02, -5.6749e-02, -1.5371e-02, -6.0256e-03,
        -3.2940e-03,  7.1850e-02,  8.3589e-02,  7.9710e-02, -7.9813e-02,
         4.3017e-02,  4.0485e-02,  1.5382e-02,  1.1124e-02,  9.9795e-02,
        -2.3062e-02,  4.1030e-03,  3.4911e-02,  1.4970e-02, -3.2748e-02,
        -5.2459e-03,  6.3218e-02, -5.1269e-02,  6.1254e-02,  4.6548e-02,
         1.1131e-01,  3.4395e-02,  4.0742e-03,  1.3187e-01,  1.3902e-01,
        -1.0145e-01, -9.8884e-03, -6.1787e-02,  8.6946e-03,  5.8335e-02,
        -4.9643e-02, -4.2856e-02, -1.6242e-01, -1.0342e-01,  9.0077e-02,
        -7.9630e-02, -7.4445e-02, -4.5468e-02, -1.0673e-01, -4.1993e-02,
         2.4390e-02, -6.3171e-02,  5.7018e-02, -9.0013e-02,  6.2350e-02,
        -2.4930e-03,  3.2897e-02,  2.9616e-02,  4.7827e-03, -5.9758e-03,
         3.7417e-02,  2.2897e-02,  4.8746e-02,  1.7832e-02,  8.3884e-02,
        -4.0498e-02, -9.2430e-02,  6.3803e-02,  1.8970e-02,  2.9607e-02,
        -3.3218e-03,  5.5488e-02,  1.2565e-02,  3.4966e-02, -1.2062e-02,
        -7.9371e-02, -6.3835e-02, -3.5312e-02, -5.9400e-03, -9.2788e-02,
        -1.1150e-02, -9.5217e-02,  7.7736e-02, -2.5758e-02,  9.8495e-02,
        -9.4089e-03, -1.5242e-02, -4.5771e-02,  7.4025e-02, -1.5253e-01,
        -1.0277e-01,  3.6840e-02,  4.4811e-02,  1.1420e-01,  4.7776e-02,
         7.8648e-02, -6.1105e-02, -3.9459e-02, -2.5322e-02, -9.0665e-02,
        -3.9405e-02, -4.0512e-02, -2.0821e-02, -4.4022e-03,  4.1153e-02,
        -4.0102e-02,  9.3696e-02, -1.1241e-03, -7.8044e-02, -1.1508e-01,
         6.6275e-03,  1.6893e-02,  2.9432e-02,  3.1320e-02,  2.8711e-02,
         3.0485e-02,  8.0435e-02, -5.1214e-02, -7.0773e-02, -7.6766e-02,
         9.6690e-02,  1.8709e-02,  4.4810e-02, -4.1750e-02, -1.5023e-02,
        -1.0630e-03, -1.8574e-02, -9.2487e-03,  1.7701e-01,  2.9563e-02,
         3.6700e-02,  9.9003e-03,  7.7780e-02,  1.0120e-01, -3.1200e-02,
         2.0622e-02, -8.7370e-02, -3.1465e-02, -4.7338e-02, -3.8872e-03,
        -5.9733e-02,  8.0721e-03, -1.4351e-01,  6.1137e-02, -7.0782e-02,
        -2.4565e-02, -1.5765e-01, -3.0155e-03, -1.6476e-01,  1.8606e-02,
        -1.6131e-02, -8.5195e-03, -3.9369e-03, -4.5902e-02,  2.1320e-02,
         1.3781e-02,  4.4783e-02,  2.1444e-02, -1.5276e-01,  8.5540e-02,
         8.4503e-02, -4.7761e-02,  9.3386e-02,  6.0245e-02, -7.8031e-02,
        -8.0310e-02,  3.6160e-02, -5.0513e-02, -2.1116e-02, -4.7519e-02,
        -1.3601e-02, -5.4070e-02,  8.8245e-02,  3.3142e-02, -1.9533e-02,
        -2.0680e-02,  1.4932e-02, -1.2700e-02, -2.3492e-02,  5.5192e-04,
        -2.4661e-02,  8.0603e-02,  5.5103e-02,  2.6649e-02,  6.3330e-02,
        -5.0405e-02,  2.8879e-02,  3.3729e-02, -2.1944e-02,  1.5445e-01,
        -9.8762e-02,  2.6040e-02, -5.0721e-02, -4.1510e-02, -6.4981e-02,
        -6.2202e-02,  1.1346e-01, -3.3108e-02,  6.0450e-02, -1.0531e-01,
         1.1359e-02, -1.2110e-02, -2.0490e-02, -2.4116e-02,  4.2306e-03,
        -1.1187e-02, -8.1788e-02,  6.3812e-03,  3.1047e-02, -3.1077e-02,
         3.3943e-02,  8.4830e-03,  3.1070e-02, -6.7657e-02,  8.2482e-02,
        -1.0847e-02, -8.0952e-02, -3.0634e-02, -5.7591e-02, -6.1501e-02,
        -9.1703e-02,  5.9920e-02, -6.0855e-02, -4.3342e-02, -6.2540e-03,
        -2.6528e-02,  2.7148e-02,  3.4420e-02,  3.6054e-02,  2.6525e-02,
         3.7118e-03,  6.3672e-02,  4.6374e-02,  3.5721e-02,  7.8684e-02,
         5.6856e-02, -4.1825e-02,  4.4340e-02, -5.5226e-02, -7.1893e-02,
        -5.4801e-03,  9.8257e-03, -4.9467e-02, -9.2714e-02, -2.0520e-02,
         2.0652e-02, -1.7630e-02, -4.6164e-03,  4.0248e-02,  5.7641e-02,
        -1.0448e-02, -7.0371e-02,  2.4578e-02, -7.2715e-02, -5.1215e-02,
        -3.2565e-02, -6.4853e-02, -2.1878e-02,  1.0270e-02,  4.4477e-02,
        -8.2432e-02, -1.0865e-02, -5.0777e-02, -4.8116e-02,  3.2692e-02,
        -1.4421e-01, -3.5874e-02, -8.5907e-02,  1.9897e-02,  5.1151e-02,
        -1.5589e-02,  6.5003e-02, -6.1727e-02,  2.7981e-02, -7.6606e-02,
         2.8612e-02,  2.2957e-03,  1.0295e-01,  8.9623e-02, -2.9934e-02,
        -9.3895e-02,  2.1384e-02,  1.1280e-01,  9.6998e-02,  2.9334e-02,
        -3.5748e-02,  2.6051e-02, -3.8139e-02,  6.3914e-02,  8.5074e-02,
         9.3468e-02,  1.7740e-02,  5.7434e-02, -6.0495e-02,  7.4277e-04,
        -3.1529e-02, -4.4862e-02,  5.0837e-02,  4.4886e-02,  5.1986e-02,
         4.4565e-02,  9.6812e-02,  1.2684e-02, -2.9470e-02,  9.2724e-04,
         5.6825e-02,  1.0408e-01, -5.9562e-02,  1.6961e-02,  7.4420e-03,
        -3.1099e-02,  9.1932e-02,  2.7709e-02,  3.1003e-02, -1.5935e-02,
         8.1893e-02, -2.7041e-04, -6.7045e-03, -3.0663e-02,  1.6468e-01,
        -1.5265e-01, -5.5791e-02,  4.3815e-02,  2.1533e-02,  9.3187e-02,
        -1.1217e-01, -1.6470e-02,  1.1210e-01, -7.0173e-02, -1.7735e-02,
        -1.5087e-01, -1.1105e-01, -7.1316e-02, -6.1808e-02,  5.1215e-02,
        -1.1581e-01, -5.7807e-03,  6.3464e-02,  8.8323e-03,  1.0530e-01,
         1.1448e-01, -1.7291e-02, -7.5215e-04,  8.4691e-02, -8.0744e-02,
         2.4680e-02,  3.6294e-02,  2.0129e-04,  1.0537e-01,  9.4644e-02,
        -1.3821e-02, -4.6052e-02,  6.6570e-02,  7.6605e-02, -5.1905e-04,
        -5.2155e-02,  4.3946e-02, -1.9586e-01,  7.9545e-03, -1.8994e-03,
         1.0955e-01, -8.9661e-02,  3.2654e-03,  3.0631e-02,  1.3273e-01,
        -2.1022e-02,  3.6066e-02])
mlp.net.1.batch_norm.weight tensor([0.9491, 0.7878, 0.9779, 0.9256, 0.8478, 0.8698, 0.8554, 0.9225, 0.8519,
        0.9164, 0.9600, 0.9664, 0.9326, 0.9472, 0.9329, 0.8489, 0.9536, 0.9206,
        0.8609, 0.9236, 0.9468, 0.8265, 0.7775, 0.9383, 0.8194, 0.8195, 0.7566,
        0.8876, 0.9055, 0.9732, 0.9574, 0.9072, 0.8522, 0.9629, 0.9265, 0.9446,
        0.9005, 0.8920, 0.9263, 0.8822, 0.9101, 0.9228, 0.8866, 0.8056, 0.9169,
        0.8530, 0.8771, 0.9510, 0.9013, 0.9180, 0.8623, 0.9253, 0.8710, 0.9054,
        0.9301, 0.9082, 0.9315, 0.8279, 0.8503, 0.8987, 0.9259, 0.9084, 0.8735,
        0.8407, 0.7812, 0.8603, 0.9242, 0.9359, 0.8507, 0.8786, 0.8568, 0.8971,
        0.9320, 0.8542, 0.8788, 0.8925, 0.8384, 0.8825, 0.8730, 0.8355, 0.8909,
        0.9145, 0.9087, 0.8398, 0.8074, 0.8631, 0.9625, 0.9053, 0.8353, 0.9033,
        0.8904, 0.9025, 0.8407, 0.9489, 0.8890, 0.8449, 0.9344, 0.8978, 0.9550,
        0.8595, 0.8589, 0.8340, 0.8554, 0.7949, 0.8406, 0.9131, 0.8798, 0.9296,
        0.8876, 0.8795, 0.9336, 0.8665, 0.9099, 0.8413, 0.9191, 0.8486, 0.8906,
        0.9496, 0.8950, 0.8156, 0.8389, 0.9238, 0.9093, 0.8627, 0.8785, 0.8881,
        0.8744, 0.8830, 0.9451, 0.8399, 0.8433, 0.8277, 0.9571, 0.8460, 0.8910,
        0.9197, 0.8434, 0.9065, 0.8770, 0.8450, 0.8629, 0.9326, 0.9576, 0.8172,
        0.8902, 0.8943, 0.8169, 0.9614, 0.8467, 0.8397, 0.8633, 0.9312, 0.8901,
        0.8678, 0.8490, 0.9496, 0.9227, 0.8584, 0.9680, 0.9870, 0.9361, 0.9446,
        0.7974, 0.8796, 0.8353, 0.8784, 0.9387, 0.9055, 0.8651, 0.8217, 0.9345,
        0.9677, 0.8798, 0.9441, 0.8533, 0.8971, 0.8165, 0.8925, 0.8594, 0.9426,
        0.9188, 0.8872, 0.8627, 0.8263, 0.9619, 0.8304, 0.9180, 0.9602, 0.9429,
        0.8067, 0.9133, 0.9623, 0.8386, 0.8886, 0.8787, 0.8625, 0.8673, 0.8484,
        0.9237, 0.9241, 0.9543, 0.8818, 0.9601, 0.9015, 0.8688, 0.8934, 0.8957,
        0.9381, 0.8981, 0.8659, 0.8394, 0.9078, 0.9215, 0.8530, 0.8710, 0.7768,
        0.9373, 0.9260, 0.9082, 0.8799, 0.9428, 0.8596, 0.8947, 0.8657, 0.9050,
        0.8475, 0.9570, 0.9081, 0.8961, 0.9162, 0.8532, 0.8708, 0.8578, 0.8148,
        0.9334, 0.9092, 0.8059, 0.8942, 0.8377, 0.8573, 0.9012, 0.8813, 0.8103,
        0.9282, 0.9984, 0.8809, 0.9435, 0.8572, 0.9117, 0.9148, 0.9309, 0.9181,
        0.9192, 0.9032, 0.8219, 0.8769, 0.8222, 0.8374, 0.8978, 0.9332, 0.9363,
        0.8678, 0.8370, 0.8631, 0.8740, 0.8925, 0.9116, 0.8443, 0.9493, 0.8494,
        0.9382, 0.9108, 0.8915, 0.9322, 0.8183, 0.9764, 0.8858, 0.9479, 0.8681,
        0.9467, 0.7757, 0.8308, 0.8236, 0.8649, 0.9420, 0.8585, 0.9231, 0.8630,
        0.8474, 0.8257, 0.8172, 0.7673, 0.7942, 0.9880, 0.8657, 0.9380, 0.8651,
        0.8878, 0.8629, 0.9316, 0.9097, 0.9346, 0.8735, 0.8190, 0.9471, 0.9278,
        0.9330, 0.8473, 0.8684, 0.8443, 0.8899, 0.9846, 0.9453, 0.9369, 0.8883,
        0.9303, 0.9068, 0.8614, 0.8831, 0.8590, 0.8772, 0.9251, 0.8632, 0.8621,
        0.7849, 0.9171, 0.9461, 0.9173, 0.8781, 0.8529, 0.9554, 0.9111, 0.9099,
        0.9024, 0.9151, 0.9401, 0.8967, 0.8470, 0.8475, 0.9407, 0.9099, 0.8707,
        0.9034, 0.8836, 0.9211, 0.8726, 0.9076, 0.8832, 0.9493, 0.9520, 0.9342,
        0.8494, 0.9353, 0.9079, 0.8927, 0.9120, 0.9437, 0.8547, 0.8658, 0.8207,
        0.9183, 0.8900, 0.8420, 0.8153, 0.8799, 0.8737, 0.8856, 0.8661, 0.8501,
        0.8618, 0.8875, 0.8789, 0.9580, 0.8968, 0.9684, 0.9288, 0.8973, 0.8283,
        0.9516, 0.8389, 0.9317, 0.8577, 0.9043, 0.8225, 0.8710, 0.9359, 0.9584,
        0.9218, 0.9586, 0.8605, 0.9039, 0.8398, 0.9204, 0.9252, 0.7936, 0.9521,
        0.9837, 0.9055, 0.8948, 0.8588, 0.9137, 0.9009, 0.8987, 0.9306, 0.8422,
        0.8970, 0.9480, 0.8580, 0.8726, 0.8416, 0.9271, 0.9362, 0.8838, 0.8435,
        0.8876, 0.8228, 0.8714, 0.9218, 0.9654, 0.8931, 0.9299, 0.8694, 0.8980,
        0.9216, 0.8362, 0.8666, 0.9080, 0.9510, 0.9526, 0.8077, 0.7132, 0.8963,
        0.8336, 0.9663, 0.8898, 0.8674, 0.9227, 0.8957, 0.9245, 0.9014, 0.9599,
        0.9505, 0.8867, 0.8009, 0.8787, 0.9217, 0.9092, 0.9907, 0.8705, 0.9425,
        0.8925, 0.8684, 0.8863, 0.9072, 0.8686, 0.9046, 0.8580, 0.7730, 0.9426,
        0.8404, 0.8730, 0.9575, 0.8474, 0.9416, 0.8904, 0.8773, 0.8911, 0.8852,
        0.8683, 0.8765, 0.9306, 0.8435, 0.9389, 0.9039, 0.8662, 0.8734, 0.8512,
        0.9437, 0.9007, 0.8831, 0.9217, 0.9632, 0.9208, 0.9129, 0.8991, 0.9353,
        0.9006, 0.8865, 0.8606, 0.8663, 0.8655, 0.8565, 0.7974, 0.8425, 0.9459,
        0.8623, 0.8516, 0.8408, 0.9576, 0.8872, 0.9486, 0.9229, 0.8531, 0.8219,
        0.8070, 0.9577, 0.9156, 0.8898, 0.9208, 0.8805, 0.8562, 0.8786])
mlp.net.1.batch_norm.bias tensor([-0.0523, -0.0909, -0.0769,  0.0597, -0.0313,  0.0472, -0.0139, -0.0686,
         0.1105,  0.0635,  0.0059, -0.0419,  0.1568, -0.0465, -0.0477,  0.0388,
        -0.1246,  0.0287, -0.0917, -0.0143,  0.0937, -0.0640,  0.1165, -0.0540,
         0.0072, -0.1061, -0.1857,  0.0183, -0.0138, -0.0320, -0.0361, -0.0350,
        -0.0262,  0.0482,  0.0057,  0.0090, -0.0506, -0.0527, -0.0623, -0.0852,
        -0.0364,  0.0782, -0.1033, -0.0171, -0.0872, -0.0879,  0.0506, -0.0705,
         0.0842, -0.0157,  0.0339,  0.0785,  0.0139, -0.0417,  0.0192,  0.0679,
        -0.0071, -0.0309, -0.0276, -0.0014, -0.0189, -0.0606,  0.1215, -0.0402,
         0.1053,  0.0058,  0.1236, -0.0635, -0.0092,  0.1204, -0.0500,  0.0177,
        -0.0612, -0.0480,  0.0465,  0.0096, -0.0038,  0.0878,  0.0526,  0.0609,
         0.0029, -0.0350,  0.0216, -0.0339, -0.0633, -0.0557,  0.0208, -0.0107,
         0.0236,  0.0909, -0.0607, -0.0225,  0.0617,  0.0012,  0.0586,  0.0800,
        -0.0046,  0.0072, -0.0167, -0.0121, -0.0276, -0.1080, -0.0401,  0.0945,
        -0.0204, -0.0580, -0.0206, -0.0123, -0.0712, -0.1063,  0.0547,  0.0697,
         0.0367,  0.0546,  0.0813, -0.0043,  0.1723,  0.0357, -0.0708,  0.0119,
        -0.0039,  0.0060, -0.0974, -0.0565,  0.0365, -0.0368, -0.0229,  0.0576,
        -0.0300,  0.0485, -0.0162,  0.0705,  0.1657, -0.0305,  0.0693,  0.0053,
        -0.0814, -0.1237,  0.1324,  0.0016, -0.0209, -0.0181,  0.0351,  0.0101,
        -0.0203,  0.1384,  0.1038,  0.1541, -0.0244, -0.0988, -0.0069,  0.0100,
        -0.0973,  0.0978, -0.1073, -0.0095, -0.0774,  0.0346,  0.1472,  0.0162,
         0.1396,  0.0037, -0.0810, -0.1436,  0.0273,  0.1120,  0.0567,  0.0490,
         0.0934,  0.0630,  0.0146, -0.0480, -0.0372,  0.0197, -0.0574,  0.0396,
         0.1469, -0.0262,  0.0341, -0.0334, -0.0247, -0.0198,  0.0823, -0.0590,
         0.0033, -0.0867,  0.0046,  0.0346,  0.1484, -0.1014,  0.0181, -0.0215,
         0.0734,  0.0884,  0.0470,  0.0536, -0.0709, -0.0627,  0.0639,  0.0548,
         0.0285,  0.0556,  0.0193,  0.0251,  0.0405, -0.0264, -0.1070,  0.0563,
        -0.1933, -0.0142, -0.0616, -0.0157, -0.0224,  0.0196, -0.0163,  0.1694,
        -0.0391, -0.1654, -0.1056, -0.0393,  0.0158, -0.0029, -0.0400,  0.0755,
        -0.0631, -0.0083, -0.0563,  0.0584, -0.0252, -0.0067,  0.0856,  0.0985,
         0.1138,  0.0711,  0.0169, -0.0444, -0.0237, -0.1097, -0.0282,  0.0769,
        -0.0804,  0.0480,  0.0426, -0.0172,  0.0775, -0.0608, -0.0154, -0.0238,
        -0.0803,  0.0641, -0.0392,  0.0359, -0.0621, -0.0812, -0.0021, -0.0992,
        -0.0118,  0.0442, -0.0571,  0.0804, -0.0782, -0.0425,  0.0559, -0.0934,
         0.0400,  0.0197, -0.0567,  0.0562,  0.0640,  0.0756,  0.0130, -0.1188,
        -0.0605,  0.1867,  0.0098,  0.0572,  0.1270,  0.0229,  0.0392,  0.0658,
         0.1389, -0.0506, -0.0242,  0.0728, -0.0718,  0.0394,  0.0338,  0.0321,
         0.0659, -0.0834,  0.0493, -0.0077, -0.0221,  0.0123,  0.0856,  0.0735,
        -0.0027,  0.0370, -0.0371, -0.1034,  0.0188, -0.0359,  0.0451,  0.1272,
         0.0032,  0.0433,  0.0334,  0.0747,  0.0333, -0.0793,  0.0027,  0.1057,
         0.0455,  0.0847,  0.0293,  0.0929,  0.0073,  0.0009, -0.0901, -0.0524,
         0.0429,  0.0032, -0.0679,  0.0187,  0.0604, -0.1576,  0.0023, -0.0376,
        -0.0415, -0.0403, -0.0508, -0.0592,  0.0054, -0.0266, -0.0636,  0.0632,
        -0.0516, -0.0887, -0.0347,  0.0566, -0.0545,  0.0566, -0.0625, -0.0205,
         0.0433, -0.0280,  0.0114,  0.1242,  0.0397, -0.1516,  0.0779,  0.0558,
         0.0335, -0.0663, -0.0474, -0.0195, -0.0188, -0.0239, -0.0123,  0.0332,
        -0.0331,  0.0783, -0.1459, -0.0061,  0.0769,  0.1558,  0.1171, -0.0088,
         0.0455, -0.1186,  0.0534, -0.0369,  0.0203,  0.1111, -0.0360, -0.0146,
        -0.0880, -0.0107,  0.0134, -0.0212, -0.0661,  0.0639, -0.0352,  0.0500,
         0.0391,  0.0933, -0.0261,  0.0065, -0.0089,  0.0064,  0.0440, -0.0380,
        -0.0206,  0.0743,  0.0734, -0.0425, -0.0369,  0.0052,  0.0225, -0.0177,
         0.0114, -0.0727, -0.0007,  0.0607, -0.0085, -0.0793, -0.0652, -0.1353,
         0.0339, -0.0323,  0.0778,  0.0036, -0.1295,  0.0177,  0.0496,  0.0124,
         0.0289, -0.0947,  0.0745, -0.0779,  0.1182, -0.0210,  0.0021, -0.0026,
        -0.0195, -0.1267,  0.0918, -0.0240, -0.0378,  0.1180,  0.0103, -0.0372,
        -0.0258,  0.0657,  0.1316, -0.0596,  0.0059,  0.0229, -0.0324,  0.0444,
         0.0383, -0.0069,  0.0022,  0.0052,  0.0333,  0.0258,  0.0295,  0.0069,
        -0.0416, -0.0969,  0.0963, -0.0873, -0.0378, -0.0024, -0.0014,  0.0467,
         0.0319, -0.0526, -0.0868, -0.0076,  0.0256, -0.0850, -0.1137, -0.0110,
         0.0552, -0.1636, -0.0232,  0.0924, -0.0689,  0.0009,  0.0084,  0.0191,
         0.0645,  0.0782,  0.0677, -0.0465,  0.0248,  0.0877,  0.0837,  0.1296,
         0.0077, -0.0698, -0.0781, -0.0072, -0.0218,  0.0171,  0.0264, -0.0024,
         0.0300,  0.2020, -0.0927,  0.0913, -0.0151, -0.0236, -0.0376,  0.0543,
        -0.1211, -0.0553, -0.1143, -0.0306,  0.0374, -0.0164,  0.0912, -0.0144,
        -0.0387, -0.0816,  0.0028, -0.0512,  0.0932, -0.0522, -0.0452,  0.0435])
mlp.net.1.batch_norm.running_mean tensor([2.2294, 1.8015, 2.2835, 2.9515, 1.5348, 1.8409, 1.7355, 1.6788, 1.7017,
        1.8135, 1.5300, 1.9123, 3.0358, 1.9665, 1.9113, 2.1897, 2.2034, 1.9064,
        2.2055, 1.5162, 2.3160, 1.9859, 2.2050, 1.7566, 2.0179, 1.9365, 2.0793,
        2.4495, 1.5151, 2.6542, 2.2448, 1.5097, 2.6397, 1.9520, 2.2372, 1.7643,
        1.8349, 2.0177, 1.8839, 2.1411, 2.4063, 1.6777, 1.8305, 2.8554, 2.2646,
        2.6933, 1.9686, 1.9897, 2.2479, 2.2821, 1.8094, 2.3664, 1.9588, 2.6644,
        2.4807, 2.3293, 2.8672, 2.1483, 2.5220, 2.2633, 2.6738, 2.8440, 2.5145,
        1.8514, 2.7851, 2.3579, 1.3833, 1.8803, 2.1845, 1.9838, 2.4666, 1.7577,
        2.7321, 1.3830, 2.8785, 1.8338, 2.2285, 2.1869, 2.3894, 1.7984, 1.9552,
        2.0406, 3.2451, 2.3182, 2.4362, 1.4128, 2.0429, 2.7789, 2.3263, 2.2499,
        2.3331, 2.1548, 2.6481, 1.9788, 1.6191, 2.0833, 2.7832, 2.6856, 2.0204,
        1.7657, 2.3001, 1.6577, 1.9179, 2.8757, 2.2800, 1.9552, 2.0565, 1.9588,
        1.6477, 2.2321, 2.0988, 2.1861, 2.3345, 1.8193, 2.0509, 2.5202, 2.8335,
        2.3565, 2.1313, 1.7424, 2.0661, 2.5448, 1.6377, 1.6590, 1.1724, 2.1126,
        2.3999, 1.9195, 1.4729, 1.2831, 2.6419, 1.8300, 2.4808, 2.6358, 2.6303,
        2.3941, 2.2017, 2.0081, 3.3876, 1.8356, 2.3906, 1.7047, 1.8184, 2.3625,
        2.0310, 2.3015, 2.4813, 1.9365, 1.7483, 2.0529, 2.6068, 2.1561, 2.3494,
        1.4666, 2.2408, 1.6969, 2.0126, 1.9428, 2.7925, 1.9914, 2.1678, 1.8631,
        1.7573, 2.4616, 2.5822, 1.7819, 1.7146, 2.1338, 1.6684, 1.6087, 1.6539,
        2.1168, 1.7185, 1.7963, 2.5356, 2.1570, 2.1006, 2.4357, 2.7237, 2.5514,
        1.6212, 2.5684, 1.7620, 1.9706, 2.0368, 2.1616, 1.9958, 1.3005, 2.6929,
        1.9916, 1.5195, 2.5348, 1.9666, 1.9621, 1.8830, 2.1801, 2.1343, 2.1882,
        1.8114, 2.3177, 1.8954, 1.4858, 1.3033, 1.6737, 1.9472, 2.6763, 2.1845,
        2.3247, 2.4685, 2.4427, 2.5717, 2.1047, 1.8826, 2.3376, 2.1012, 2.6464,
        1.7539, 2.3542, 2.0422, 2.4164, 1.2101, 2.0547, 1.9612, 2.2931, 2.5508,
        2.4110, 1.8093, 2.2606, 1.2392, 1.7492, 2.3341, 1.6843, 1.5377, 2.3978,
        1.6800, 2.0354, 2.1685, 2.2766, 2.2445, 2.3214, 1.7082, 1.7883, 1.8521,
        2.0614, 2.3198, 1.5344, 1.8348, 2.2831, 1.8723, 2.5222, 1.3911, 2.0522,
        2.0131, 2.7120, 1.9768, 1.9672, 1.9366, 2.4157, 1.7743, 2.6584, 2.6238,
        2.0434, 2.1276, 1.2190, 1.6654, 2.8246, 2.3974, 2.1399, 1.8890, 1.5840,
        2.2083, 1.9864, 1.9667, 2.6736, 1.6228, 2.8853, 1.9702, 2.2665, 1.7771,
        1.6382, 2.0531, 1.8718, 1.6749, 1.7359, 2.9617, 1.9843, 1.7588, 1.6061,
        1.9627, 2.0647, 1.8317, 1.5833, 3.1314, 2.1687, 1.8312, 2.6663, 2.3741,
        2.0829, 1.6308, 1.8271, 2.1523, 1.6826, 1.7862, 1.7488, 1.8637, 1.3260,
        1.7036, 1.9967, 2.4745, 1.5155, 1.9057, 2.5082, 1.7218, 1.8884, 1.2825,
        1.6755, 1.7344, 3.1204, 2.2125, 1.7654, 1.5470, 1.6180, 1.9060, 1.7153,
        1.8911, 3.3192, 2.1884, 2.7001, 1.7290, 2.1579, 2.1437, 2.0090, 2.0423,
        2.2047, 1.8871, 2.0113, 2.1528, 2.0519, 2.0554, 2.1933, 1.7424, 2.2354,
        2.0207, 2.1463, 1.4907, 2.3551, 1.6176, 2.5361, 2.2556, 2.9191, 1.7061,
        2.0114, 2.0847, 2.0766, 2.1404, 2.1477, 2.1767, 2.2075, 1.5742, 2.7542,
        1.8010, 2.1229, 2.0485, 2.3733, 2.2303, 2.0723, 2.1136, 1.7699, 1.8451,
        1.8395, 1.9380, 2.2428, 1.7162, 2.0696, 2.1274, 2.0737, 1.9852, 2.2336,
        2.6105, 2.9443, 2.4502, 2.9661, 1.4437, 1.7510, 1.4462, 2.3915, 1.7677,
        2.3224, 1.3530, 2.2358, 1.9675, 1.6864, 3.0191, 1.6379, 2.7773, 2.1667,
        1.6466, 2.3207, 1.4604, 2.1774, 1.2572, 2.1080, 2.0228, 1.7463, 2.6889,
        1.8305, 2.0237, 1.7254, 2.1875, 1.6594, 1.9221, 1.8000, 1.6283, 2.4435,
        1.6108, 1.7889, 1.8084, 1.2636, 2.2052, 1.6912, 2.3407, 1.7440, 1.6563,
        1.9175, 2.2097, 2.6928, 1.7717, 1.9774, 1.8385, 2.4453, 2.0573, 1.7939,
        1.5688, 1.8749, 1.9549, 3.0489, 1.7241, 2.1644, 2.2129, 2.3212, 1.7544,
        2.1431, 2.7604, 2.6390, 1.4489, 1.8586, 2.4538, 2.5696, 2.4356, 2.0531,
        2.4601, 2.5780, 1.4328, 2.1029, 2.7780, 2.1812, 1.9364, 2.3816, 1.8192,
        1.7118, 1.8650, 1.9515, 1.5918, 1.7170, 2.1619, 1.8536, 2.0022, 1.9018,
        1.7253, 1.7775, 1.5629, 2.0485, 2.5157, 1.9851, 1.8052, 1.5731, 2.2929,
        1.7533, 1.8050, 2.3943, 1.4772, 2.0900, 2.3995, 1.5202, 2.0530, 2.1197,
        3.0414, 1.6070, 2.2785, 2.5600, 2.4923, 2.0170, 2.2992, 1.9912, 3.0629,
        2.5976, 2.0820, 2.0009, 2.3043, 1.9593, 2.1564, 2.2974, 1.7960, 2.2575,
        1.6990, 2.0569, 1.5547, 2.1489, 2.3771, 2.4650, 1.9449, 1.5933])
mlp.net.1.batch_norm.running_var tensor([13.6540,  6.7437, 10.3650, 17.7559,  6.2280,  7.9468,  7.4904,  6.7641,
         5.9650,  6.3873,  8.3427,  8.4308, 21.3587,  9.8398,  6.8446, 11.4903,
        10.5842,  6.9963, 10.3210,  5.8903, 20.0215,  8.4852, 12.7493,  7.2042,
         9.4114, 11.9091, 11.0801, 14.1551,  5.1035, 15.5141, 10.7552,  5.6993,
        13.9393,  9.1049, 11.6735,  5.5983,  7.1326,  7.8644,  8.8972,  8.4113,
        13.1454,  8.4762,  7.4819, 18.7262,  9.8192, 17.3649,  8.4033,  9.0898,
        10.7016,  9.9593,  6.8505, 14.3949,  8.2693, 13.9994, 11.8392,  9.9369,
        14.2920,  8.4193, 15.1405, 10.8478, 16.9208, 14.7650, 11.4907,  7.1428,
        23.1737, 11.2298,  6.9102,  9.4901, 12.2520,  9.7445, 13.0505,  9.4517,
        18.0044,  5.8246, 16.3264, 10.0487,  9.2125,  9.6067, 14.0224,  7.2536,
         8.9331,  9.1910, 22.2255, 12.0283, 11.8345,  4.4660, 10.0765, 16.2778,
        11.1810, 11.4045, 11.6348,  7.7058, 16.0445,  9.6421,  4.9950, 11.1855,
        13.4035, 13.2934,  8.0217,  7.1272, 10.6910,  6.5856,  7.8623, 15.8974,
        12.6668,  8.3492, 10.4692,  9.0039,  5.7870, 16.7658, 10.7354,  8.2917,
        12.6143,  6.5452,  8.0758, 13.9095, 14.8744, 11.2371,  9.2713,  6.4033,
        11.4310, 13.8348,  7.3540,  9.6215,  3.2275,  9.5980, 15.8422,  7.3700,
         7.1633,  4.0433, 11.9495, 10.0309, 13.8106, 14.6449, 14.3318, 12.3118,
        11.5034, 11.7161, 23.4736,  6.2266, 10.1058,  6.3268,  6.6690,  9.6106,
         8.9352, 11.6568, 12.2327,  8.4309,  6.8900,  9.2061, 13.5168, 11.6621,
        11.4358,  5.2840, 10.9978,  6.6045, 10.0577,  7.8673, 15.4912,  8.0572,
        11.9197,  7.5863,  6.7409, 11.9780, 11.9547,  8.6689,  6.1983, 10.1679,
         6.6525,  7.0410,  7.3663,  8.9904,  6.5422,  9.2230, 12.4164,  7.9240,
         8.3000, 12.6797, 14.3391, 11.0425,  7.2054, 15.2727,  9.3894,  9.7823,
         8.7612, 13.2295,  7.5004,  4.6196, 14.1255,  6.6180,  5.7783, 11.1346,
         8.3962,  8.9238,  6.9581,  8.9249, 11.1573,  9.5184,  6.6342, 10.4312,
         7.0438,  4.8895,  4.2120,  6.2516,  6.9613, 13.2261,  9.9460,  9.8661,
        11.8519, 12.1465, 16.4552, 10.0123,  6.4707, 11.7133,  7.7730, 15.6981,
         5.8571, 14.0427,  8.2029, 11.0484,  3.8754,  9.3353,  6.3932, 11.2609,
        14.2366, 13.4065,  7.2922,  9.1925,  3.7874,  6.0467, 12.0589,  6.9026,
         5.4490, 10.4903,  6.7491, 10.0922,  7.8519, 10.4942, 12.2954, 10.4882,
         7.5204,  6.8048,  7.0913, 10.1058, 11.2294,  6.7719,  8.4446, 10.2230,
         6.9911, 10.9698,  5.6150,  9.2244,  9.6606, 15.9390, 10.1917,  9.7145,
         9.8098, 11.9427,  8.1590, 15.5533, 12.9322,  8.8712, 10.1063,  6.2027,
         8.1858, 12.4995, 11.7496,  8.4892,  8.2006,  6.5735, 10.3719,  6.9005,
        10.2478, 13.7206,  5.8448, 18.0630,  7.6673,  9.9754,  5.9906,  6.3244,
        13.6251, 14.9905,  6.7649,  8.7548, 22.6414,  9.0383,  6.2971,  5.8601,
         7.6821,  8.7773,  9.5411,  6.1029, 21.0365, 10.7823,  6.2402, 16.4464,
        11.3008, 11.5180,  6.0270,  8.0983,  8.8979,  5.7213,  5.7134,  8.4932,
         7.6587,  4.1206,  6.0081,  7.7616, 10.6153,  5.0012,  7.8730, 12.8087,
         7.4585,  8.1561,  5.7165,  9.0993,  6.7146, 18.4061,  9.5815,  8.3230,
         5.9388,  7.6429, 10.4363,  5.9515,  9.9463, 25.4795,  7.4322, 16.9398,
         7.0251,  9.6394,  8.8561,  8.0963,  7.5573, 11.5587,  6.3962,  8.6687,
         9.2225, 13.0116, 13.2519,  9.5630, 10.9279, 10.2233,  8.1174,  9.3581,
         5.7074, 12.3083,  5.6109, 20.8672, 11.6678, 17.2630,  9.3314,  7.8209,
         8.8796, 10.5869,  9.8893, 10.3986, 12.2256, 11.1841,  5.8885, 13.9878,
         7.0816,  8.3972,  8.1571, 11.8570, 17.7629,  7.9641,  9.3571,  7.0220,
         6.7838,  7.0994, 10.3075, 10.9847,  6.8899, 12.0175,  8.3834, 11.9513,
         8.4709, 15.7621, 13.0427, 15.2984, 12.9376, 18.2918,  3.7703,  6.6887,
         4.7209, 15.3859,  5.8877, 16.0056,  3.7622, 14.0260,  7.6537,  8.5971,
        18.4906,  7.5873, 14.6477,  8.1605,  7.1775, 10.1362,  4.8633, 11.0922,
         5.4431, 10.5675,  8.3782,  8.1859, 15.7724,  7.6740, 10.1422,  6.3345,
        10.7310,  5.4915, 10.2715,  6.6145,  8.2978, 12.5076,  5.1880,  7.4316,
         6.6696,  3.7845, 10.6379, 12.0883, 12.9187,  5.8831,  5.9913,  6.9429,
         8.4425, 14.9566,  9.4653,  9.1663,  8.2837, 13.3951,  8.8110,  6.0519,
         5.4805,  8.8979,  6.4139, 17.0042,  7.8899, 14.3356, 11.1376, 10.1962,
         6.5699,  9.0189, 13.0516, 15.8459,  4.5390,  5.5148, 10.7100, 13.2995,
        11.7525,  9.9665, 11.7637, 10.8247,  4.8590,  8.6652, 18.7051, 10.0331,
         8.0213, 15.6057,  6.8184,  6.6195,  8.7298,  7.6138,  6.8526,  6.5832,
         8.6644,  8.9321, 13.1036,  8.8768,  7.6829,  6.8146,  5.7976, 10.3344,
        14.8077,  8.4589,  7.1234,  7.6733, 10.7643,  8.8651,  6.0569, 11.7585,
         5.6840, 13.3198, 11.2651,  5.2239,  8.6273,  8.8917, 18.5350,  5.9237,
        10.5137, 21.1142, 14.1969,  7.8922, 14.2374,  7.3131, 20.4470, 15.8429,
         9.4853, 10.6528, 11.0524,  9.9365, 12.0608, 10.7960, 11.8955, 10.4690,
         6.9640,  7.2917,  9.8431,  9.9494, 10.0295, 12.5109,  9.1497,  6.8919])
mlp.net.1.batch_norm.num_batches_tracked tensor(140)
mlp.net.2.weight tensor([[-1.5035e-02,  2.4495e-03,  2.5678e-02, -8.8931e-03, -1.5895e-02,
          1.2043e-02, -1.1413e-02,  3.0281e-03,  1.7724e-02, -1.2517e-02,
         -1.9335e-03, -1.3593e-02, -3.0345e-02, -1.1192e-02, -1.3507e-02,
          3.0820e-02, -2.7808e-02, -1.0491e-02,  3.3956e-02, -2.4511e-02,
         -3.9532e-02, -1.6314e-02,  6.2744e-03, -1.2315e-02, -2.7963e-03,
         -1.7166e-02,  2.3444e-02, -1.3784e-02,  2.0503e-02,  1.2262e-02,
          2.5747e-02,  1.4893e-02, -8.8971e-03,  1.5225e-03, -1.3413e-02,
         -1.4646e-03,  2.6571e-02, -1.6669e-02, -8.8438e-03,  2.0063e-02,
         -3.0237e-02, -2.4911e-02,  1.1985e-03,  1.2792e-02,  8.6535e-03,
         -8.5174e-03, -1.2617e-03, -2.4316e-02,  3.2193e-02,  6.5751e-03,
         -3.6155e-03, -2.9448e-02, -1.0040e-02, -6.1285e-03, -3.5961e-02,
          2.4841e-02, -1.1624e-02,  1.0167e-02,  1.8561e-02, -9.7097e-03,
         -2.6608e-02, -2.4497e-03,  1.3139e-02, -2.0985e-02, -2.4731e-03,
          2.9876e-03, -4.4884e-03, -4.6239e-03, -9.7589e-03, -1.0028e-02,
          1.2852e-02,  7.1372e-03, -2.9081e-02, -2.2102e-04, -6.7890e-03,
         -5.3269e-03, -1.2188e-02, -1.5037e-02,  1.6110e-02, -2.6237e-02,
          3.2164e-03,  1.2095e-02, -2.8167e-02, -9.0275e-03,  1.9593e-02,
         -1.8263e-02,  6.3937e-03, -3.6151e-02, -1.2179e-02, -3.6847e-03,
         -2.9481e-03,  7.5285e-03, -2.4721e-02, -4.2375e-02, -2.4735e-02,
          3.2794e-03,  2.5467e-02,  2.2050e-02,  2.9998e-02, -5.4035e-03,
          1.2160e-02, -5.3219e-03, -1.7216e-02, -2.2869e-02,  2.4845e-03,
         -3.1442e-02, -1.2222e-02,  4.1244e-03, -4.0283e-03,  1.0655e-02,
          7.0267e-03,  1.7232e-02, -4.9567e-03, -1.6556e-02, -5.4848e-05,
          1.0941e-02,  2.0387e-02, -2.1338e-02, -1.1338e-02, -2.9083e-03,
          1.6150e-02, -1.3522e-02, -1.4530e-03,  1.1888e-02,  1.1772e-02,
         -1.8533e-03,  8.7931e-03,  4.4186e-04, -1.1911e-02,  9.3836e-03,
         -1.0513e-02,  1.9160e-02, -3.1242e-02,  1.2078e-02, -1.7650e-02,
          6.0737e-03, -2.3303e-02, -2.8716e-02,  2.6821e-02, -1.1963e-02,
         -9.2053e-03, -8.1672e-03, -1.6368e-02,  5.1789e-02, -2.7094e-04,
          5.3834e-03,  9.6617e-03,  4.7433e-02, -3.1594e-03,  2.0251e-02,
          6.9353e-03, -1.1569e-02, -1.6617e-02,  5.4457e-03,  7.8003e-03,
         -1.8634e-02, -1.0597e-02, -2.5957e-02, -1.2092e-02,  4.6569e-02,
         -3.5535e-02,  1.5834e-02, -1.5432e-02,  1.0727e-02, -1.3086e-02,
          8.4309e-04,  1.8964e-02,  1.1169e-03,  8.4222e-03,  2.5286e-02,
          1.9755e-02,  8.4428e-03,  8.4093e-03, -2.8561e-02, -1.5348e-02,
          1.5646e-02,  1.1783e-02,  2.1099e-02, -7.3777e-03,  4.7508e-03,
         -1.7760e-02, -5.9814e-03,  1.5876e-02,  1.2919e-02,  3.5710e-02,
          5.1475e-03, -1.9218e-02, -3.6282e-02, -5.8869e-02, -1.2177e-02,
          1.4830e-02,  2.0562e-02, -2.1953e-02, -4.0541e-02,  1.4841e-02,
         -5.1039e-03, -1.2363e-02,  1.3394e-02,  2.3319e-03, -5.1670e-04,
          1.8186e-02, -2.3579e-02,  1.3828e-02,  3.2172e-03,  1.1978e-02,
          3.2596e-02,  6.4629e-03,  1.3538e-02, -2.6416e-02,  3.4484e-02,
         -4.2873e-03,  1.3790e-02,  2.6404e-03, -1.1569e-02,  9.8484e-03,
          1.0124e-02, -2.7142e-02,  2.3018e-02,  2.9786e-03,  1.1581e-02,
          4.1494e-03,  1.0974e-02, -1.8000e-02, -8.8735e-03, -9.4649e-03,
          2.6395e-02, -3.9279e-02,  6.6065e-03, -5.9767e-03,  2.1687e-02,
         -6.3481e-03,  9.8552e-04,  3.9603e-03, -1.7667e-02,  5.3098e-03,
         -1.3255e-02,  7.8101e-03, -3.3843e-02,  9.8596e-03, -2.3537e-03,
         -5.9342e-03,  1.0933e-02, -1.2332e-03,  1.9151e-02,  4.9752e-02,
         -6.4716e-03,  1.7842e-03,  1.9469e-02, -3.9444e-03,  2.4596e-02,
          7.7066e-04, -2.3601e-02, -2.0092e-03, -2.1380e-02, -2.5684e-02,
          8.0694e-03, -9.6307e-03,  2.8302e-02,  1.2410e-02,  3.4427e-02,
          5.7439e-03, -8.7022e-03,  8.0044e-03,  6.3578e-03,  1.6693e-02,
         -2.2664e-02, -1.2817e-02,  3.1105e-03,  3.2592e-02,  2.0013e-03,
         -2.3619e-02,  7.1108e-04,  1.0932e-03,  2.8718e-02, -1.6163e-02,
         -2.9399e-02,  5.7550e-03, -1.5654e-02,  3.0689e-03, -1.1570e-02,
          3.2064e-02,  1.7581e-02,  5.9217e-03,  3.0950e-03, -3.8302e-02,
          1.8653e-02,  2.9786e-04,  1.4693e-02, -7.5213e-03,  1.0136e-03,
         -1.7539e-02, -6.4399e-05,  1.1910e-02,  4.6040e-02,  1.1975e-02,
         -5.0000e-02,  1.1431e-02, -1.0120e-02,  4.2339e-03, -1.0621e-02,
         -4.1189e-03,  1.3927e-02,  2.0865e-02, -1.0327e-02,  9.5793e-03,
          3.6567e-03, -1.8052e-02,  1.7935e-03, -4.8920e-03,  7.0032e-03,
          2.6766e-03,  3.0092e-02,  8.4993e-03,  1.8324e-02,  3.5360e-02,
         -1.9111e-02, -1.8623e-03,  1.1420e-02, -1.6473e-02,  7.8142e-03,
          5.5519e-03, -1.7144e-02,  4.9416e-03,  1.6216e-02,  6.9109e-03,
          4.7138e-02,  8.2799e-03, -9.6982e-03,  2.3934e-04,  6.4673e-03,
          1.7375e-03, -1.0303e-04, -3.0071e-03,  4.1088e-02,  4.9814e-03,
          5.3859e-02,  1.5346e-03, -2.3950e-02, -3.5329e-02, -1.4301e-02,
         -9.8129e-03,  1.4822e-03,  8.2101e-03, -1.4716e-02,  4.2653e-03,
         -1.0763e-02, -3.5022e-03,  1.2292e-02, -1.5187e-02,  3.6595e-02,
         -1.2630e-02,  1.3505e-02, -3.3827e-02, -3.0438e-02,  4.2645e-03,
         -3.2254e-02, -3.9068e-02,  8.4361e-03, -2.0144e-03,  4.1860e-03,
         -2.1767e-02,  1.9526e-02,  2.8751e-03, -4.3236e-03,  1.5350e-02,
          2.9201e-04,  2.1331e-02,  1.5404e-02,  1.1304e-02,  7.5772e-03,
         -8.0606e-03, -2.4063e-03, -3.9877e-03, -1.1112e-02,  4.0710e-02,
         -1.8559e-02, -1.5727e-02, -1.1030e-03,  3.2299e-02, -3.7423e-03,
         -1.7052e-02, -2.7791e-02, -1.0775e-02,  6.3437e-03,  1.7405e-02,
         -1.1125e-02, -1.5819e-02, -2.6490e-02,  2.7815e-02, -9.8971e-03,
          1.0642e-02,  1.1261e-02,  2.8130e-02, -6.8819e-03,  2.8107e-03,
          4.3629e-03,  3.8524e-02,  1.0149e-02,  9.9037e-03, -1.2680e-02,
         -3.7931e-03,  8.9906e-03, -1.4013e-02,  2.0699e-02,  3.4805e-02,
         -6.9123e-03, -1.6347e-02,  1.0296e-02, -1.9886e-02,  2.5336e-03,
          4.4448e-03, -1.0947e-02, -3.4565e-03, -9.2717e-03, -5.6014e-03,
          1.3911e-02,  3.1235e-02,  3.3294e-03,  3.4345e-02,  7.6907e-03,
         -4.0325e-03,  8.4410e-03, -2.4260e-02,  2.6489e-02,  6.9942e-03,
         -1.2676e-02, -2.4872e-02, -5.5108e-04, -3.2262e-02,  3.4490e-03,
         -5.3994e-03,  6.3133e-03, -1.3149e-02, -1.6229e-02,  2.2292e-04,
         -1.5570e-03,  2.3181e-02,  5.3568e-03, -3.6946e-02,  1.4596e-02,
         -5.6775e-03,  1.6887e-02,  1.4819e-02, -2.0703e-02, -1.8385e-03,
          5.9159e-03,  1.2676e-02,  4.0171e-02,  1.0035e-02, -7.7351e-03,
         -2.0030e-02,  1.2879e-02,  2.0892e-02,  2.4933e-02,  1.4502e-02,
         -8.7010e-03, -2.5645e-02, -3.3152e-03,  1.1523e-03,  1.2316e-03,
         -8.4828e-03,  2.1546e-02,  2.5450e-02,  1.8379e-02,  2.0117e-03,
          2.8394e-02, -7.4650e-03, -3.3009e-02, -2.9304e-04, -5.9820e-03,
          3.2184e-02, -5.7452e-03, -2.1523e-02, -2.3756e-02, -1.8828e-02,
         -5.2206e-03, -1.2911e-02, -4.8104e-02, -2.0610e-02,  6.6585e-04,
         -9.0921e-03,  4.3902e-02,  1.6092e-03, -3.1489e-02, -4.2046e-03,
          1.4411e-02,  2.6526e-03, -3.0696e-03, -8.5580e-03, -2.9601e-02,
          3.9145e-03, -1.1300e-02,  1.4155e-02,  1.6125e-02, -1.5030e-02,
          2.5670e-02,  1.4020e-02,  2.2300e-04, -1.3555e-02, -3.0920e-02,
         -2.8725e-02, -2.0213e-02,  4.0985e-03,  1.7631e-03, -1.0115e-02,
          2.3690e-02,  3.8327e-02,  4.2750e-02,  2.2387e-02,  6.7174e-03,
          9.0462e-03,  7.8801e-03]])
