Weights: 
embeddings.embeddings.0.weight tensor([[-0.5316,  0.3748],
        [-0.6553,  0.6064],
        [-0.2275, -0.4155],
        [ 0.3656,  0.5527]])
embeddings.embeddings.1.weight tensor([[ 0.0483,  0.6482],
        [ 0.4864,  0.6312],
        [ 0.6708,  0.2371],
        [-0.3476, -0.0626],
        [-0.0892,  0.4012]])
embeddings.embeddings.2.weight tensor([[ 0.1240,  0.4558,  0.2920],
        [ 0.0086,  0.5854, -0.1226],
        [-0.2708, -0.1046, -0.4403],
        [-0.0582,  0.1610, -0.1823],
        [-0.1992, -0.3327, -0.1032],
        [-0.1534,  0.1987, -0.0214]])
embeddings.embeddings.3.weight tensor([[-0.3168, -0.3928],
        [ 0.6406, -0.0768],
        [ 0.4496,  0.3844],
        [-0.2522,  0.5801]])
embeddings.embeddings.4.weight tensor([[-0.5333, -0.3595],
        [ 0.0862,  0.2799],
        [ 0.3525, -0.4822],
        [-0.5287, -0.3836]])
mlp.net.0.linear.weight tensor([[ 0.1435,  0.3179, -0.2157,  ..., -0.1212, -0.1126, -0.8545],
        [ 0.1549,  0.1742, -0.3877,  ...,  0.2907,  0.0182, -0.1973],
        [-0.0924,  0.0653, -0.2105,  ..., -0.6426, -0.0703,  0.3455],
        ...,
        [ 0.0975, -0.1514, -0.3023,  ...,  0.2828,  0.9125, -0.2701],
        [ 0.0516, -0.0440, -0.2271,  ...,  0.2818,  0.4353,  0.4718],
        [-0.2619,  0.2476,  0.3148,  ...,  0.3120, -0.0206,  0.3047]])
mlp.net.0.linear.bias tensor([-2.0545e-01,  2.0328e-01, -2.4190e-01, -1.6854e-02,  1.2213e-01,
         2.2914e-01, -8.6119e-03, -2.0947e-02,  6.8434e-02, -1.6061e-01,
        -1.5746e-01,  2.1620e-01, -1.1713e-01, -9.0803e-02,  1.2905e-01,
         2.5961e-02,  5.1693e-02, -1.6579e-01, -1.2210e-01, -8.6326e-02,
        -4.4813e-02,  1.8898e-01,  1.4020e-01, -1.2822e-01,  1.4591e-01,
        -5.1240e-02, -8.9534e-02, -2.2873e-01, -7.2385e-02,  1.9340e-01,
        -3.7770e-02,  5.6252e-02,  1.9976e-01,  1.3555e-02, -3.2455e-01,
         2.4202e-01, -1.1595e-01,  2.6340e-01,  1.4353e-01,  2.2171e-02,
        -2.1687e-01, -1.3459e-01,  2.2714e-01,  2.2633e-02, -1.3576e-02,
        -7.3059e-02,  8.3328e-02,  8.0449e-02, -1.1404e-01,  2.2877e-01,
        -2.5710e-01,  3.1591e-02, -1.3015e-01,  2.8504e-01,  1.8262e-01,
        -1.9304e-01, -1.0595e-02, -2.4390e-03, -1.5463e-01,  9.5002e-02,
         9.2116e-02,  2.0816e-01,  2.2778e-01, -5.1533e-02, -1.2517e-01,
        -3.5181e-02, -6.8943e-02, -1.2597e-01,  1.4910e-01,  4.6273e-02,
         1.3828e-01, -7.2680e-02, -5.1498e-04,  8.8686e-02,  1.4936e-01,
         6.6668e-02, -8.3569e-02, -8.1461e-02, -1.8822e-01, -3.6271e-01,
         8.5831e-02,  2.4668e-01,  5.8564e-02, -2.0455e-01,  1.6178e-01,
        -2.7414e-01, -1.2984e-01,  1.3154e-01,  1.7040e-01, -1.1688e-01,
         8.3803e-02, -7.2905e-03,  2.4664e-01,  1.8927e-01,  1.8477e-01,
        -1.5351e-01,  2.5964e-01,  1.8264e-01,  1.5984e-01,  1.1800e-01,
        -2.3390e-01,  1.5359e-01, -6.9539e-02, -3.6079e-02, -1.3017e-01,
        -2.2710e-04, -1.0020e-01, -2.5208e-02,  1.4722e-01,  1.8515e-02,
         2.2670e-01, -1.3519e-01,  6.2454e-02, -4.1591e-02, -1.5603e-01,
         2.8980e-02, -1.8083e-01,  1.1413e-01, -7.1009e-04, -2.2926e-04,
         3.0528e-02, -1.1685e-01,  1.1097e-01, -1.6035e-01, -1.3789e-01,
        -2.0938e-02, -1.4099e-01, -6.6302e-02,  1.8839e-01, -1.5487e-01,
        -1.4549e-01, -4.2695e-02,  9.9803e-02, -1.9246e-01, -2.6207e-01,
        -6.8433e-02,  1.0853e-01, -1.6498e-01, -2.3154e-01,  2.0125e-01,
        -1.2618e-01, -1.7743e-01, -1.4485e-01,  2.5524e-01, -4.4374e-03,
        -4.0965e-02,  2.6964e-01,  2.8038e-01,  3.2231e-02,  1.6375e-01,
        -2.0105e-01, -4.3389e-02, -6.7096e-02,  2.2751e-01,  2.9513e-02,
         2.1072e-01,  2.5037e-01, -1.0825e-01,  1.5790e-02, -7.8631e-02,
         8.7977e-02,  1.0427e-01,  1.6426e-01,  1.5268e-01,  1.8564e-01,
         6.1205e-02, -4.8842e-02, -4.5031e-02,  1.4438e-01,  1.7054e-01,
         1.8305e-01,  1.0985e-01,  7.9141e-02, -2.0883e-01, -2.0635e-01,
        -1.2917e-01,  6.9158e-04, -1.5086e-01, -2.5920e-01, -8.0795e-02,
        -8.1395e-02, -2.1115e-01,  7.3986e-03,  6.5761e-02, -3.2096e-02,
        -1.2676e-03, -2.0972e-01, -4.6931e-02,  2.8886e-01, -2.9375e-02,
        -2.5571e-01,  3.7572e-02,  9.2051e-02,  4.2326e-02,  1.1108e-01,
         1.9092e-02,  7.7066e-03,  1.3113e-01, -1.4892e-01,  9.9722e-02,
         9.8277e-02,  1.5318e-01,  2.8168e-02, -4.4585e-02, -1.6067e-01,
        -1.1163e-01, -2.6515e-02, -4.3817e-02,  1.8616e-01, -1.8015e-01,
         9.9364e-02,  1.2171e-01,  5.9131e-02,  1.4443e-01, -1.2528e-02,
        -2.3097e-02, -2.0170e-02, -1.4960e-01,  4.5288e-03,  5.2491e-02,
         3.0834e-01, -2.4307e-01, -1.1760e-01,  3.9936e-02,  1.4565e-01,
        -9.5401e-02,  2.1152e-01,  1.9112e-01, -1.2489e-01,  1.0411e-02,
        -1.7363e-01, -1.2851e-01,  7.9016e-02,  1.5535e-01,  2.1061e-01,
         1.8510e-01,  1.6808e-01,  2.1395e-01, -2.8241e-02, -1.9913e-01,
         2.1846e-01, -1.9580e-01, -1.5407e-01,  8.3752e-02,  8.5972e-02,
         2.3907e-01,  1.5360e-01,  8.6117e-02, -2.0095e-01,  7.9097e-02,
         2.4386e-01, -2.5235e-02, -1.7316e-02,  1.0548e-01,  3.5218e-01,
        -1.5460e-01,  1.0676e-01,  1.6979e-01, -2.8921e-01,  5.1116e-02,
        -6.5592e-02,  1.7138e-01,  5.6955e-02,  2.0967e-01, -1.7967e-01,
        -5.4272e-02,  1.0756e-01, -4.3726e-02,  9.8052e-02, -1.6519e-01,
         5.5720e-02, -1.0208e-01, -1.9421e-01, -5.7250e-02,  1.0362e-01,
         1.6266e-01, -1.5375e-01,  1.3017e-01, -2.0641e-01, -1.1582e-01,
        -1.9094e-01,  5.5939e-02,  8.3052e-02, -7.7136e-02,  1.9757e-01,
         2.4141e-01, -1.0549e-01, -2.1821e-01,  1.4728e-01,  1.6613e-01,
         1.6538e-01,  2.5536e-01, -6.0564e-02, -1.5863e-01, -4.9057e-02,
         1.1797e-01, -3.3311e-02,  2.4085e-01,  2.3648e-02, -1.4950e-01,
         1.0610e-01, -1.2510e-02, -1.0954e-01,  2.8185e-02, -8.2431e-02,
        -1.7199e-01,  6.7942e-02, -9.5397e-02,  1.2263e-01,  1.7170e-01,
        -1.1440e-01,  5.1607e-02,  1.5143e-01,  1.7528e-01,  2.2565e-01,
        -1.6946e-01, -7.1532e-05,  2.1161e-01, -8.5751e-02,  4.9991e-02,
         1.6024e-01,  1.1644e-01, -3.6747e-02, -6.7071e-02, -3.5876e-02,
         1.5523e-01, -5.5322e-02,  1.3366e-01, -1.8124e-01, -6.2269e-02,
        -1.8897e-01,  2.7929e-02, -1.3698e-01, -9.1903e-02, -1.3729e-01,
        -1.2908e-01,  4.3968e-02,  7.0838e-02,  1.2374e-01,  1.1456e-01,
         9.0666e-02,  1.9514e-01, -5.5766e-02, -4.1675e-02,  5.1540e-02,
         2.4382e-02, -1.4477e-01, -1.5193e-01, -1.6068e-01,  6.6859e-02,
         1.7979e-01, -2.0539e-02, -9.9102e-02, -6.0972e-02, -1.0939e-01,
         2.2015e-01,  1.0477e-01, -1.6211e-01, -1.9781e-01,  7.5878e-02,
         2.2490e-02,  2.3272e-02,  4.4859e-02,  1.5577e-01, -4.6448e-02,
        -8.0078e-02, -1.2935e-01, -6.1748e-02,  4.5479e-03,  1.6539e-01,
         5.5742e-02, -8.7052e-02,  4.7025e-02, -1.3942e-01,  1.4753e-01,
         7.7718e-02,  2.0881e-01,  1.4162e-01,  4.5285e-02, -4.3542e-02,
         6.4114e-02, -1.7585e-01, -1.7490e-02, -3.8679e-02,  1.5858e-01,
        -7.3284e-03,  6.1393e-02, -2.0006e-01,  1.7625e-01,  7.1479e-02,
         1.9554e-01,  6.0957e-02,  1.5409e-01,  1.7317e-01,  8.2093e-02,
         4.9700e-02, -5.9771e-02, -3.8808e-02,  2.5732e-01,  1.4974e-01,
         1.7155e-01, -1.3174e-01, -1.3427e-02, -4.5416e-02,  2.4453e-01,
        -2.1574e-01, -2.3784e-02, -2.1842e-01,  1.5022e-01,  9.4360e-02,
         2.3354e-01, -8.1893e-02, -3.5276e-02, -1.3885e-01, -3.0852e-02,
         2.8336e-02,  7.1650e-02, -1.1476e-01, -6.4658e-02, -6.0018e-02,
        -9.9415e-03,  1.6538e-01,  4.5265e-02,  1.6614e-02,  8.3607e-02,
         1.5563e-02, -2.2291e-01, -7.0909e-02,  1.6625e-01,  1.1939e-01,
        -1.7879e-01,  6.7893e-02, -2.1114e-01, -3.9506e-02, -2.3115e-01,
        -1.0766e-01, -1.2307e-01,  1.0649e-01,  1.3702e-01,  6.2081e-02,
        -3.1295e-02, -3.1508e-02, -4.8256e-02,  9.3908e-02, -4.8996e-02,
         8.5801e-02,  2.5734e-01, -2.5599e-02, -2.5626e-01,  1.2907e-01,
        -8.0733e-02, -3.8111e-02, -8.0536e-02,  2.5096e-01, -1.6970e-01,
         9.3045e-02, -1.1442e-02,  1.7930e-01, -1.8233e-01,  2.4331e-01,
         8.8841e-03, -7.3069e-02,  1.1979e-01,  1.0540e-02,  1.4383e-01,
        -2.0254e-01,  3.1648e-01, -2.7711e-01, -1.3174e-01,  1.0722e-02,
         3.8134e-02, -1.1940e-01, -8.0201e-02, -1.8459e-01,  2.5822e-01,
        -9.0288e-02, -2.2803e-01, -2.5308e-02, -2.1476e-02, -2.3101e-01,
         1.3239e-01, -1.6415e-01,  2.9227e-01,  1.6581e-01,  3.5291e-02,
         8.8989e-02, -7.8645e-02,  1.7433e-01, -1.8838e-01, -4.9629e-02,
         2.2264e-01,  2.0361e-01, -1.4215e-01,  1.6444e-01,  9.8095e-03,
        -7.4534e-04, -2.9676e-02,  6.8140e-02, -1.1067e-01,  2.2656e-01,
         3.1261e-02, -6.9845e-02,  6.6558e-02,  2.2630e-01, -2.1825e-03,
         1.0565e-02,  6.0083e-02, -9.8555e-02,  1.0702e-01, -9.3160e-02,
        -1.0849e-01,  1.2515e-01])
mlp.net.0.batch_norm.weight tensor([1.0373, 0.9328, 1.0579, 1.0010, 1.0145, 0.9341, 0.9711, 1.0011, 1.0395,
        0.9417, 0.9679, 0.9375, 1.0023, 0.9622, 0.9747, 0.8959, 0.9425, 0.9827,
        0.9280, 0.9771, 1.0817, 0.9775, 1.0867, 1.0763, 1.0081, 0.8826, 1.0244,
        0.9445, 0.9975, 0.9355, 0.9435, 1.0117, 0.9562, 0.8872, 0.9846, 1.0166,
        1.0784, 1.0284, 0.9512, 1.0197, 0.9219, 0.9656, 0.9847, 1.0572, 1.0442,
        0.9567, 1.0192, 1.0034, 1.0118, 0.9772, 0.9624, 0.8974, 1.0304, 0.9172,
        1.0218, 1.0499, 0.9153, 0.9762, 0.9366, 1.0275, 0.9653, 0.9554, 1.0029,
        0.8875, 0.9890, 0.8822, 1.0341, 1.0329, 1.0340, 0.9049, 0.9311, 0.9539,
        0.9908, 0.9537, 0.9435, 0.9611, 1.0452, 1.0275, 1.0341, 0.9577, 0.9680,
        0.9124, 1.0096, 1.0908, 0.9042, 0.8959, 0.9857, 0.9223, 0.9385, 0.8608,
        0.9079, 1.0159, 1.0592, 1.0252, 0.9362, 0.9575, 1.1363, 1.0578, 1.0243,
        0.8848, 0.9175, 0.9253, 0.9874, 0.9298, 1.1224, 1.0094, 0.9881, 1.0576,
        0.9194, 1.0057, 0.8544, 1.0871, 0.9729, 0.9715, 1.0906, 0.9419, 0.8862,
        0.9866, 1.0604, 0.9776, 1.0377, 1.0323, 0.9571, 1.0476, 0.9326, 0.9998,
        0.9037, 1.1545, 0.9369, 0.9526, 1.0332, 1.0253, 1.0649, 1.0316, 0.9724,
        0.9043, 1.0498, 1.0467, 0.9219, 1.1592, 1.0384, 0.9500, 0.9202, 1.0235,
        1.0184, 0.9696, 1.0405, 0.8763, 0.9232, 0.9243, 0.9216, 0.9412, 1.0638,
        0.9380, 1.1653, 0.9715, 0.9539, 1.0364, 1.0233, 0.9226, 0.9128, 1.0127,
        0.9353, 1.0089, 0.8815, 1.0251, 0.8463, 0.9556, 0.9423, 0.9160, 1.0040,
        1.0802, 1.0567, 0.9052, 0.9044, 0.9911, 0.9703, 0.9639, 0.9588, 0.9452,
        0.9712, 0.9971, 0.9326, 0.9361, 1.0601, 0.9841, 1.0555, 0.9702, 1.0589,
        0.9357, 1.0893, 1.0295, 1.0759, 0.9815, 0.9484, 0.9920, 0.9330, 1.0426,
        1.0293, 0.9690, 1.0073, 0.9085, 0.9748, 0.9966, 0.8486, 0.9322, 0.9962,
        0.8477, 1.0111, 0.9895, 0.8766, 0.9872, 1.0414, 0.9737, 1.0487, 1.0002,
        1.0165, 0.9568, 0.9622, 0.9004, 1.0781, 1.0028, 0.9474, 0.9886, 0.9197,
        0.9093, 0.9210, 1.0022, 0.9368, 0.9958, 0.9688, 0.9519, 0.9569, 0.9893,
        0.8780, 0.9571, 0.9795, 1.0357, 0.9709, 0.9686, 0.9559, 1.0485, 1.0170,
        0.9173, 0.9959, 0.9725, 0.9092, 1.0740, 0.9524, 1.1202, 0.9290, 0.8972,
        0.9221, 0.9577, 0.9388, 1.0155, 0.9559, 1.0247, 1.0299, 1.0723, 0.9344,
        0.9658, 0.8793, 1.0107, 0.9193, 0.9143, 0.8705, 0.9176, 0.9381, 0.9346,
        0.9855, 0.9259, 1.0034, 1.0256, 0.7926, 0.9702, 0.9999, 0.9415, 1.0120,
        0.9724, 1.0492, 1.0104, 0.9189, 0.9519, 1.0050, 0.9260, 1.0420, 1.1197,
        1.0809, 0.8866, 0.9161, 1.0382, 0.9214, 0.9331, 0.8668, 0.9657, 0.9390,
        0.9989, 0.9144, 0.9552, 1.0223, 1.0776, 0.9178, 1.1356, 1.1292, 1.0168,
        0.9260, 0.9685, 0.9892, 0.9351, 1.0530, 1.1128, 0.9522, 1.0199, 1.0352,
        1.1150, 1.0255, 0.9789, 1.0021, 0.9830, 0.8184, 1.0217, 0.9388, 0.9602,
        1.0021, 1.0863, 1.0738, 0.9884, 1.0182, 1.0263, 1.0574, 0.9989, 0.9911,
        1.1214, 0.8907, 0.9749, 1.0661, 1.0613, 0.9532, 1.0020, 1.1167, 0.9784,
        1.0632, 0.9136, 0.9206, 1.0343, 1.0794, 0.9391, 1.0728, 1.0290, 1.0278,
        0.9062, 0.9994, 0.8961, 0.9163, 1.0741, 0.9935, 0.9627, 0.9102, 0.9534,
        0.8773, 0.9760, 1.0282, 0.9274, 0.8879, 1.0735, 1.0354, 0.8584, 1.0769,
        1.1083, 0.9965, 1.0023, 1.1145, 0.9821, 0.8895, 1.0506, 1.0231, 0.9062,
        0.9243, 0.9547, 1.1207, 0.9391, 0.9537, 0.9498, 0.9621, 1.0154, 0.9073,
        1.0045, 1.0615, 1.1284, 1.0785, 1.0611, 0.8431, 1.0178, 0.9681, 0.9574,
        0.9505, 0.9638, 0.8490, 0.8535, 0.9203, 1.0058, 1.0650, 1.0122, 0.9687,
        0.9596, 0.8633, 0.9573, 0.8943, 0.9607, 0.8896, 1.0245, 0.9567, 0.9511,
        0.9210, 0.9789, 0.9875, 1.0064, 1.0235, 1.0602, 0.9704, 1.0066, 0.9686,
        1.0612, 0.8676, 0.9441, 0.9137, 0.9193, 0.9819, 0.8668, 1.0089, 0.8891,
        0.9831, 1.0606, 1.0234, 0.7901, 0.9308, 1.0055, 0.9149, 1.1348, 1.0875,
        0.9139, 0.9000, 0.8847, 0.9886, 1.0199, 0.9039, 0.9385, 0.8272, 0.9358,
        1.0265, 0.9637, 0.9966, 1.0433, 0.9708, 0.9540, 0.9032, 0.8625, 0.9574,
        0.9220, 1.0125, 0.9959, 0.9637, 1.0053, 1.0150, 0.9021, 0.9214, 0.8239,
        1.0046, 1.0305, 1.0491, 1.0981, 1.0936, 0.9173, 0.9156, 1.0985, 0.9665,
        1.0490, 1.0655, 0.7956, 0.9988, 1.0678, 0.9479, 0.9682, 1.0315, 1.0134,
        0.9029, 1.0627, 0.9707, 1.0841, 1.0128, 1.0228, 0.8568, 1.1038, 0.9233,
        0.9215, 0.9977, 0.9863, 1.0310, 0.8946, 0.8725, 0.8709, 1.0717, 0.9127,
        0.9379, 0.9775, 0.9497, 0.9501, 1.1210, 0.9319, 0.9834, 1.0171])
mlp.net.0.batch_norm.bias tensor([-0.0052,  0.0396, -0.0392,  0.0291, -0.0631, -0.0693,  0.0125, -0.0940,
        -0.0555, -0.0404, -0.0799, -0.1146,  0.0021, -0.0295,  0.1065,  0.0845,
        -0.0130,  0.0413, -0.0058, -0.0815,  0.0106, -0.0441, -0.0686,  0.1223,
         0.0109, -0.1230,  0.0235,  0.0202, -0.1261,  0.0163, -0.0751, -0.0751,
        -0.1302, -0.0179,  0.0209,  0.0543, -0.1107,  0.0359,  0.0936, -0.0011,
         0.0128,  0.0101,  0.1116, -0.1322,  0.1458, -0.0525,  0.0911,  0.0209,
         0.0401,  0.0039, -0.0307, -0.0882, -0.0205,  0.0314,  0.0319,  0.0079,
        -0.0312,  0.0134,  0.0225,  0.1456,  0.0299, -0.0881,  0.1271,  0.0198,
        -0.0754,  0.0240, -0.0460,  0.0018,  0.0538,  0.0352, -0.0039,  0.0323,
        -0.0656,  0.0340, -0.0545, -0.0576,  0.0214, -0.0048,  0.0246,  0.0727,
         0.0842,  0.0627, -0.1151, -0.0534,  0.0432,  0.0826,  0.0338, -0.0831,
         0.0442,  0.0284, -0.0939,  0.0127,  0.0106, -0.0233, -0.1033,  0.0365,
        -0.0121,  0.1125, -0.0211, -0.0615, -0.1280,  0.0174,  0.0010,  0.0588,
         0.0786,  0.0721,  0.0196, -0.0600,  0.0647, -0.0480, -0.0517,  0.0197,
        -0.0360, -0.0664, -0.0740,  0.0062,  0.0416, -0.0543,  0.0201, -0.0711,
        -0.0144,  0.0021,  0.0352,  0.0082, -0.0022,  0.0360, -0.0970, -0.0452,
         0.0217,  0.0079,  0.0708, -0.0112,  0.0362,  0.0268, -0.1445,  0.0048,
        -0.0532,  0.0219,  0.0911,  0.0200,  0.0265,  0.0892, -0.0057,  0.0284,
        -0.0330,  0.0117, -0.0398,  0.0006,  0.0351, -0.0193, -0.0625, -0.0897,
        -0.0514, -0.0439, -0.0071,  0.0335, -0.0135,  0.0211, -0.0232,  0.0816,
         0.0365, -0.0349,  0.0369,  0.0630,  0.1118,  0.0146,  0.0681, -0.1687,
         0.0200,  0.0545,  0.0328,  0.0344, -0.0221,  0.0977, -0.0403,  0.0371,
         0.0296, -0.0554, -0.0223,  0.0576,  0.1059, -0.0450, -0.0375, -0.0537,
        -0.0325, -0.0298,  0.0101,  0.0019,  0.0046, -0.0336,  0.0073, -0.0520,
         0.0044,  0.0788, -0.0767,  0.0192,  0.1090, -0.0510,  0.1041,  0.0381,
        -0.0641,  0.0435, -0.0517,  0.0636, -0.0366, -0.0131,  0.0871,  0.0538,
         0.0997, -0.0713,  0.0784, -0.0575, -0.0061,  0.0631,  0.0505,  0.0347,
         0.0759,  0.0183,  0.0343, -0.0470,  0.0106, -0.0010,  0.0047, -0.0393,
         0.0647, -0.0173, -0.0266, -0.0811, -0.0349, -0.0032, -0.0415,  0.0927,
         0.0499, -0.0316, -0.0097,  0.0597,  0.0439, -0.0332, -0.0916,  0.0524,
        -0.0980, -0.1257, -0.0031, -0.0949,  0.0771,  0.0648, -0.1284,  0.0784,
         0.1554,  0.0223,  0.0925,  0.0192, -0.0581, -0.0084, -0.0532, -0.0130,
         0.0118,  0.0024,  0.0731,  0.0548, -0.0641, -0.0441,  0.0035,  0.1836,
        -0.0094, -0.0323, -0.1377,  0.0429,  0.0462,  0.0482, -0.0073,  0.1107,
         0.0470, -0.1180,  0.0752, -0.0795, -0.0366,  0.0062,  0.0049, -0.0663,
        -0.0082, -0.0773, -0.0579, -0.0768,  0.1653, -0.0330, -0.0640, -0.0842,
        -0.0276, -0.0243,  0.0316,  0.0151,  0.0884,  0.0286,  0.0910,  0.0476,
        -0.0263, -0.0666,  0.0147,  0.0259,  0.0323,  0.0600,  0.0570, -0.0468,
        -0.0438,  0.0262,  0.0816, -0.0317, -0.0368,  0.0174, -0.0347, -0.0920,
         0.0176,  0.0360, -0.0031, -0.0140, -0.0760,  0.1484,  0.0494,  0.0416,
        -0.0632,  0.0551, -0.0304,  0.0261, -0.0211, -0.0360, -0.0142,  0.1039,
        -0.0427, -0.0442,  0.0543,  0.0108,  0.0589,  0.0060,  0.0352, -0.0035,
         0.0773,  0.0974,  0.1081, -0.1020, -0.0467,  0.0319, -0.0584, -0.0063,
         0.0600, -0.0538,  0.0645,  0.0793,  0.0687,  0.0516, -0.1081,  0.0103,
         0.0889,  0.0014, -0.0580, -0.0121, -0.1432, -0.0386, -0.1007, -0.0205,
        -0.0429,  0.0184,  0.0030,  0.0209,  0.0280,  0.1199,  0.0920, -0.0342,
         0.0417, -0.0203, -0.0091,  0.0902, -0.0077, -0.0425, -0.0324,  0.0040,
        -0.0465,  0.0933,  0.0440, -0.0305, -0.0039,  0.0321, -0.0378, -0.1513,
         0.0069, -0.0601, -0.0385, -0.0266,  0.0170,  0.0414,  0.0050, -0.0130,
        -0.0060,  0.0236,  0.0223,  0.0071, -0.0568,  0.0755, -0.0602,  0.0517,
         0.0634,  0.0002,  0.0737,  0.0127,  0.0885, -0.0375, -0.0899, -0.0704,
         0.0708,  0.0342,  0.0963, -0.0730,  0.0285, -0.0412,  0.0819, -0.0003,
         0.0410, -0.1082, -0.0376,  0.0817, -0.0084, -0.0167,  0.0170,  0.0732,
        -0.0323, -0.0003,  0.1277,  0.0803, -0.0389, -0.0166, -0.0065,  0.0371,
        -0.0006,  0.0479,  0.0436,  0.0137, -0.0653, -0.0011, -0.0926, -0.0103,
        -0.1031, -0.0200,  0.0435, -0.0782,  0.0966, -0.0889,  0.0087,  0.0883,
         0.0583,  0.0211, -0.0185,  0.0529,  0.0194,  0.0887, -0.0452,  0.0491,
        -0.0226, -0.0147,  0.0980, -0.0140,  0.0617, -0.0050,  0.0056, -0.0153,
         0.0240,  0.1274,  0.0378, -0.0042, -0.0189,  0.0386, -0.0466,  0.1671,
         0.0465,  0.0359, -0.1480,  0.0167,  0.0276,  0.0540,  0.0012,  0.0042,
        -0.0379,  0.0973,  0.0139,  0.0771, -0.0221,  0.0075, -0.0037, -0.0219,
         0.0008,  0.0307, -0.0388,  0.0831,  0.0506,  0.0036, -0.1469, -0.0771,
         0.1232,  0.0361, -0.0118,  0.0631,  0.0200, -0.0948,  0.1030, -0.1059,
         0.0625, -0.0521, -0.0275,  0.0080,  0.0636, -0.0345, -0.0353, -0.0831])
mlp.net.0.batch_norm.running_mean tensor([8.4379e-03, 5.4304e-01, 2.4719e-03, 3.8756e-01, 4.9786e-02, 8.0297e-01,
        2.4304e-01, 1.9916e-01, 2.7096e-01, 1.6931e-02, 3.0814e-01, 4.6788e-01,
        9.6696e-01, 1.2172e-01, 1.5302e-03, 3.9235e-01, 2.6865e-03, 6.7059e-02,
        1.1622e-03, 1.8188e-01, 6.1100e-01, 1.9807e-01, 4.1659e-01, 6.4045e-03,
        1.2774e-01, 2.1434e-02, 3.4742e-03, 1.0451e-03, 1.4783e-01, 4.2309e-01,
        3.2103e-02, 5.8260e-01, 6.2714e-01, 3.9188e-02, 1.7138e-03, 8.8533e-01,
        1.5947e-01, 8.5605e-01, 8.5253e-04, 6.5107e-01, 3.9292e-02, 2.2432e-03,
        9.6688e-01, 3.8770e-02, 5.8487e-01, 6.9187e-01, 2.9778e-01, 4.6382e-02,
        8.9925e-01, 4.9371e-01, 2.5834e-02, 1.5397e-01, 1.3903e-01, 9.9866e-02,
        2.2372e-02, 3.2808e-02, 1.2204e-01, 5.9174e-01, 1.5690e-01, 3.5478e-02,
        2.1612e-02, 8.9816e-01, 5.4453e-01, 6.0520e-07, 1.8033e-01, 5.8540e-01,
        6.3210e-03, 6.1584e-01, 3.7974e-01, 3.5955e-01, 3.4774e-02, 7.5490e-02,
        5.1506e-01, 3.0709e-01, 1.7270e-01, 7.5645e-02, 8.5060e-02, 3.4292e-02,
        6.3660e-04, 1.5530e-03, 4.6755e-01, 9.7904e-01, 7.6836e-01, 6.5153e-02,
        2.8810e-01, 8.4902e-02, 2.7157e-01, 1.4186e-01, 9.4324e-02, 3.5670e-01,
        1.3333e+00, 3.5740e-04, 6.7362e-01, 4.5278e-01, 2.7156e-01, 6.1422e-03,
        2.9487e-02, 3.4079e-02, 9.8069e-03, 3.6222e-01, 1.7568e-02, 2.1376e-01,
        8.0065e-03, 1.3549e-03, 1.3459e+00, 1.6573e-02, 5.7732e-03, 6.2087e-06,
        1.9256e-02, 2.9498e-02, 5.0034e-01, 6.0665e-03, 5.5330e-01, 2.1861e-02,
        1.1625e-01, 3.1964e-01, 2.1453e-01, 3.5141e-02, 2.4041e-03, 7.6709e-02,
        5.3230e-02, 7.2836e-01, 8.5121e-01, 1.4443e-01, 2.7730e-01, 1.3995e+00,
        7.3830e-01, 3.3942e-01, 4.6442e-01, 3.0100e-01, 1.8029e-03, 4.6672e-02,
        2.7274e-01, 1.7279e-01, 1.6516e-01, 9.7275e-01, 1.7937e-01, 1.7102e-03,
        1.6185e-01, 7.9473e-01, 1.8161e-01, 5.5541e-05, 5.0422e-02, 9.5332e-01,
        3.1599e-01, 4.8060e-03, 3.5409e-01, 1.3753e+00, 7.5566e-01, 8.0927e-02,
        9.4427e-04, 1.1377e-01, 1.0010e+00, 7.5031e-01, 9.1302e-01, 4.1772e-02,
        1.1476e-01, 4.0320e-01, 6.1813e-01, 1.4772e-01, 1.6580e-09, 2.9246e-01,
        2.1310e-01, 9.4626e-02, 6.6485e-01, 6.9923e-01, 1.0373e+00, 2.6815e-01,
        5.6958e-01, 8.6637e-03, 8.2454e-01, 2.3729e-02, 9.7722e-01, 3.4671e-03,
        1.0633e-01, 5.3549e-01, 4.4472e-03, 3.3073e-01, 2.1080e-01, 7.4391e-03,
        1.6465e-04, 4.9700e-03, 6.9877e-01, 2.1637e-01, 1.8966e-03, 2.2002e-01,
        1.0154e+00, 3.0664e-01, 8.6206e-01, 3.4605e-02, 1.4455e-03, 6.3450e-01,
        1.0435e+00, 1.4142e+00, 3.0850e-01, 9.5603e-01, 1.4385e-01, 1.0506e-01,
        3.1101e-01, 3.1398e-01, 1.5799e-02, 2.3876e-01, 5.8401e-01, 1.9080e-04,
        1.0934e-01, 8.2854e-01, 6.8996e-02, 2.4292e-01, 2.1408e-01, 6.4830e-02,
        7.0557e-02, 4.3548e-01, 7.9955e-01, 2.8666e-01, 3.0512e-01, 2.9332e-01,
        1.6239e-01, 1.8536e-02, 5.3149e-01, 3.0441e-02, 1.3239e-01, 8.6142e-02,
        2.5858e-02, 1.0459e-01, 1.4333e-01, 3.8978e-01, 1.4769e-01, 8.9491e-01,
        6.0600e-01, 5.6218e-02, 6.5249e-02, 5.5886e-01, 3.5485e-01, 7.7353e-01,
        1.2577e+00, 2.3491e-02, 1.4786e-01, 5.2981e-01, 1.8118e-01, 3.2138e-01,
        1.6783e-01, 5.2796e-02, 6.6147e-05, 8.1458e-01, 5.6954e-02, 6.0414e-01,
        5.9033e-02, 5.9717e-02, 7.0294e-01, 9.4707e-04, 8.7433e-01, 2.2263e-01,
        5.4470e-01, 8.8092e-01, 9.5724e-01, 3.9124e-01, 5.8145e-01, 1.9095e-01,
        7.7618e-03, 1.6247e-02, 2.8141e-01, 1.1541e-01, 1.7162e+00, 2.2743e-01,
        5.2245e-01, 8.2394e-10, 1.3215e+00, 7.4173e-02, 4.7243e-05, 5.2223e-01,
        3.5291e-01, 7.2193e-01, 4.2398e-02, 2.5113e-01, 3.7472e-01, 2.9623e-01,
        1.6384e-01, 6.2574e-03, 1.0464e-01, 6.0526e-01, 5.6455e-02, 3.9419e-02,
        1.2433e-02, 6.0942e-03, 1.0361e+00, 4.6844e-01, 5.2034e-01, 3.7271e-02,
        3.2617e-01, 1.7555e-01, 2.6618e-01, 4.0270e-01, 1.0679e-02, 8.4492e-02,
        1.6014e-02, 3.3686e-01, 3.1571e-01, 9.3135e-02, 7.8019e-03, 3.0693e-03,
        4.4622e-01, 3.7067e-01, 4.6855e-01, 5.7278e-03, 5.0642e-01, 1.1796e-02,
        2.9366e-01, 4.2156e-02, 1.1881e-01, 6.0323e-02, 1.8304e-01, 8.7507e-01,
        1.4282e-10, 5.1684e-02, 5.8078e-03, 2.4005e-03, 6.5582e-03, 1.0688e+00,
        1.0944e+00, 7.0173e-01, 7.2426e-01, 7.5789e-01, 1.0825e+00, 2.6088e-03,
        1.0087e+00, 6.5954e-01, 2.3147e-03, 8.5113e-01, 4.5703e-03, 5.1179e-02,
        7.6171e-02, 6.9709e-01, 3.5306e-01, 3.6642e-02, 5.8323e-03, 3.5708e-02,
        1.9763e-01, 3.3637e-02, 1.5279e-01, 1.1508e+00, 2.0280e-01, 3.5763e-01,
        3.5005e-01, 7.7346e-01, 5.2446e-01, 1.1121e+00, 1.7590e-02, 5.9044e-03,
        7.4545e-02, 2.9419e-01, 2.7503e-01, 1.2505e-01, 5.6737e-01, 2.0866e-02,
        8.0891e-01, 5.5321e-01, 4.3623e-01, 2.1680e-02, 9.7657e-03, 5.6677e-02,
        2.3050e-01, 5.8665e-01, 1.9864e-01, 3.3785e-01, 3.0573e-03, 5.3542e-01,
        3.6928e-02, 3.1131e-01, 2.3662e-05, 8.7876e-01, 2.2889e-01, 1.5466e-01,
        1.2645e-01, 4.3915e-02, 1.0048e-01, 1.2621e+00, 5.3763e-02, 1.5814e-03,
        1.2660e-03, 1.5614e-01, 2.5113e-01, 2.4648e-01, 1.3180e-01, 2.6896e-04,
        1.8116e-01, 2.0885e-02, 2.0498e-01, 1.8280e-02, 3.0564e-02, 7.0375e-01,
        1.2056e-01, 6.8450e-02, 6.6931e-01, 9.1823e-02, 5.9369e-01, 8.4446e-02,
        9.7581e-02, 8.1539e-01, 3.0574e-01, 1.4066e-01, 6.1430e-01, 2.3478e-02,
        7.7816e-03, 2.4123e-01, 1.5866e-01, 2.0609e-02, 1.7820e-02, 2.1428e-03,
        1.2773e+00, 1.7914e-01, 5.1096e-01, 1.3924e-01, 5.1498e-01, 2.8838e-01,
        3.3326e-01, 2.2943e-04, 1.3293e-01, 2.6832e-02, 3.1956e-01, 1.1864e+00,
        1.9647e-01, 6.6680e-02, 6.1461e-01, 6.7205e-01, 1.7586e-04, 1.3003e-01,
        6.0214e-02, 9.5448e-09, 9.2328e-02, 2.0810e-01, 1.5749e-01, 7.3058e-02,
        2.1982e-01, 1.3771e+00, 2.4884e-04, 3.3585e-02, 6.7260e-01, 6.4249e-01,
        5.1598e-01, 2.3899e-01, 1.8775e-02, 1.3778e-02, 1.2314e-01, 5.2106e-01,
        7.8106e-01, 4.3062e-02, 5.1706e-01, 4.6965e-06, 3.0484e-02, 1.2570e+00,
        2.5276e-02, 5.5682e-01, 4.2386e-02, 3.4417e-01, 9.7561e-01, 4.0193e-01,
        6.8779e-01, 3.9915e-01, 1.6020e-01, 6.3976e-01, 4.6275e-01, 3.3912e-02,
        2.0072e-02, 1.0665e-01, 7.5031e-01, 3.1246e-01, 8.0583e-01, 2.6342e-08,
        5.1817e-01, 5.5176e-01, 6.2197e-01, 1.6633e-01, 6.0962e-01, 1.2019e-10,
        6.7738e-02, 1.8053e-01, 1.9913e-03, 7.7501e-02, 1.1666e-01, 3.1045e-02,
        2.2418e-03, 1.6156e-01, 9.9315e-01, 3.4183e-01, 3.0345e-01, 5.1716e-01,
        5.4230e-01, 1.3802e-02, 2.6226e-02, 8.8220e-02, 4.5707e-01, 1.4925e+00,
        3.3931e-02, 3.6180e-01, 1.1654e+00, 7.6438e-02, 4.1912e-01, 4.3248e-01,
        3.0654e-01, 1.0898e+00, 1.0596e+00, 7.1316e-01, 6.7409e-02, 1.2745e-02,
        2.3599e-01, 5.7141e-01, 9.0007e-06, 2.4405e-01, 6.0467e-02, 5.9693e-01,
        6.4680e-01, 1.7626e-02])
mlp.net.0.batch_norm.running_var tensor([3.7658e-03, 2.8250e-01, 4.3247e-04, 1.8995e-01, 1.4468e-02, 2.8615e-01,
        6.7350e-02, 8.5652e-02, 1.5321e-01, 5.0621e-03, 8.1428e-02, 1.5004e-01,
        1.6036e-01, 5.4211e-02, 3.2619e-04, 1.4754e-01, 9.7836e-04, 3.0309e-02,
        2.8519e-04, 5.2872e-02, 1.3740e-01, 1.2312e-01, 1.7554e-01, 2.4588e-03,
        4.5830e-02, 1.0945e-02, 8.5440e-04, 1.6334e-04, 3.5714e-02, 1.2392e-01,
        8.8668e-03, 2.2392e-01, 2.5905e-01, 1.4863e-02, 4.0465e-04, 2.7166e-01,
        6.6454e-02, 2.9111e-01, 4.7830e-04, 2.4789e-01, 1.6909e-02, 7.0553e-04,
        3.0001e-01, 2.8786e-02, 1.9451e-01, 1.5130e-01, 1.2890e-01, 1.5784e-02,
        2.1550e-01, 1.4560e-01, 8.1313e-03, 4.3461e-02, 5.9109e-02, 4.9484e-02,
        1.1970e-02, 1.0405e-02, 5.0139e-02, 2.3469e-01, 4.2127e-02, 1.0561e-02,
        6.7955e-03, 1.5883e-01, 1.6223e-01, 3.9558e-07, 5.9069e-02, 1.8622e-01,
        1.6361e-03, 1.6068e-01, 1.5624e-01, 9.8087e-02, 1.2415e-02, 2.1072e-02,
        1.1744e-01, 9.0141e-02, 5.6900e-02, 2.8946e-02, 3.0468e-02, 1.1388e-02,
        1.2799e-04, 4.8304e-04, 1.1777e-01, 1.2471e-01, 8.2148e-02, 2.5270e-02,
        9.7345e-02, 3.0858e-02, 8.6114e-02, 5.7772e-02, 3.9665e-02, 1.1385e-01,
        3.3262e-01, 5.2649e-05, 9.9805e-02, 2.0831e-01, 9.7979e-02, 1.6213e-03,
        1.5685e-02, 1.0789e-02, 3.0404e-03, 1.6269e-01, 6.3931e-03, 8.8101e-02,
        2.6353e-03, 2.1778e-04, 1.9971e-01, 5.3372e-03, 1.8295e-03, 1.5296e-06,
        9.2012e-03, 1.5921e-02, 1.0919e-01, 2.0879e-03, 1.5462e-01, 7.0926e-03,
        3.5499e-02, 8.7996e-02, 6.8560e-02, 1.1372e-02, 4.7572e-04, 2.8464e-02,
        2.0579e-02, 1.9941e-01, 1.6174e-01, 6.8884e-02, 8.3077e-02, 2.5140e-01,
        1.8625e-01, 1.2477e-01, 1.3006e-01, 1.1954e-01, 3.2510e-04, 1.6486e-02,
        7.0049e-02, 6.3387e-02, 8.0997e-02, 2.9806e-01, 5.4463e-02, 5.4547e-04,
        7.2999e-02, 1.2012e-01, 9.7672e-02, 6.4028e-06, 1.7916e-02, 1.7061e-01,
        1.0117e-01, 1.1506e-03, 1.1316e-01, 2.2556e-01, 1.1997e-01, 2.4772e-02,
        2.0341e-04, 3.0259e-02, 2.9060e-01, 1.1509e-01, 1.8101e-01, 2.0855e-02,
        5.3979e-02, 1.6421e-01, 8.9965e-02, 7.4782e-02, 3.9277e-07, 7.1980e-02,
        8.1291e-02, 3.6318e-02, 3.1962e-01, 3.4444e-01, 2.0372e-01, 6.4537e-02,
        2.1926e-01, 1.7413e-03, 1.5954e-01, 6.2139e-03, 2.3199e-01, 7.9764e-04,
        5.9628e-02, 8.1345e-02, 1.0985e-03, 1.2125e-01, 9.1837e-02, 2.3514e-03,
        2.3408e-05, 1.3617e-03, 1.4558e-01, 8.2306e-02, 3.8429e-04, 8.4402e-02,
        1.8549e-01, 1.3224e-01, 1.7175e-01, 9.3913e-03, 2.4245e-04, 1.8999e-01,
        3.9781e-01, 3.3476e-01, 1.3896e-01, 2.8637e-01, 5.2445e-02, 4.5269e-02,
        1.2749e-01, 2.1647e-01, 3.7895e-03, 7.4141e-02, 1.1696e-01, 1.4435e-05,
        4.9291e-02, 2.8752e-01, 2.6691e-02, 9.5865e-02, 9.9452e-02, 2.8395e-02,
        4.5383e-02, 9.5333e-02, 1.2480e-01, 7.9878e-02, 1.1561e-01, 6.3141e-02,
        6.0371e-02, 5.5352e-03, 1.5104e-01, 1.0487e-02, 5.0972e-02, 1.8509e-02,
        9.2787e-03, 3.9340e-02, 5.9549e-02, 1.8504e-01, 4.7528e-02, 1.6740e-01,
        8.9679e-02, 2.1048e-02, 2.8936e-02, 1.3328e-01, 1.1949e-01, 3.0660e-01,
        1.0646e-01, 9.1253e-03, 3.7981e-02, 1.6884e-01, 6.0447e-02, 7.5861e-02,
        6.9664e-02, 2.1923e-02, 5.5517e-06, 4.1717e-01, 2.0229e-02, 1.7163e-01,
        3.0323e-02, 2.4582e-02, 2.0524e-01, 2.6684e-04, 2.6385e-01, 8.5203e-02,
        2.3764e-01, 1.0221e-01, 1.8984e-01, 1.8051e-01, 1.4673e-01, 4.8296e-02,
        2.5830e-03, 4.6974e-03, 9.5847e-02, 6.3192e-02, 3.3702e-01, 1.1735e-01,
        1.7579e-01, 3.9266e-07, 3.4286e-01, 3.5686e-02, 2.2558e-05, 1.5535e-01,
        1.5180e-01, 2.2761e-01, 1.2798e-02, 9.3506e-02, 1.6610e-01, 8.0925e-02,
        5.1627e-02, 1.9300e-03, 5.1287e-02, 1.8777e-01, 1.7247e-02, 9.9893e-03,
        4.6818e-03, 1.5849e-03, 2.5111e-01, 1.0267e-01, 1.6099e-01, 1.3271e-02,
        9.5153e-02, 4.7893e-02, 6.7539e-02, 1.3730e-01, 3.3699e-03, 3.0242e-02,
        4.8697e-03, 8.1817e-02, 1.0739e-01, 5.1936e-02, 2.4311e-03, 7.9918e-04,
        1.9387e-01, 4.7441e-02, 2.0810e-01, 1.4420e-03, 2.0039e-01, 3.8310e-03,
        1.0109e-01, 1.9040e-02, 5.7127e-02, 1.9801e-02, 6.7408e-02, 2.6383e-01,
        3.9261e-07, 3.1873e-02, 1.6833e-03, 8.0333e-04, 3.4529e-03, 2.2963e-01,
        2.8807e-01, 1.6537e-01, 1.8775e-01, 1.1669e-01, 4.1296e-01, 6.4841e-04,
        1.6680e-01, 1.3754e-01, 3.5785e-04, 3.7627e-01, 1.1782e-03, 1.6054e-02,
        2.4341e-02, 1.8241e-01, 8.9167e-02, 1.0515e-02, 1.3637e-03, 1.1914e-02,
        4.0623e-02, 1.3840e-02, 7.9265e-02, 1.9808e-01, 6.1380e-02, 1.6338e-01,
        1.1609e-01, 1.2593e-01, 1.1361e-01, 1.3920e-01, 5.7642e-03, 1.2082e-03,
        3.9502e-02, 6.2521e-02, 1.6401e-01, 6.0741e-02, 3.1254e-01, 8.0732e-03,
        2.4334e-01, 9.9366e-02, 4.2243e-02, 8.4455e-03, 1.8254e-03, 2.1202e-02,
        8.2400e-02, 1.0265e-01, 1.0188e-01, 1.0999e-01, 5.5136e-04, 2.3487e-01,
        1.3538e-02, 7.5671e-02, 2.3641e-06, 8.4855e-02, 8.6937e-02, 3.3036e-02,
        3.8669e-02, 1.6074e-02, 4.2516e-02, 1.3999e-01, 2.1418e-02, 3.5141e-04,
        1.7992e-04, 8.5603e-02, 8.9470e-02, 7.5049e-02, 6.7163e-02, 4.1280e-05,
        5.1431e-02, 1.0291e-02, 4.4009e-02, 4.1332e-03, 1.2084e-02, 1.0307e-01,
        5.1794e-02, 2.4472e-02, 2.7295e-01, 3.7025e-02, 1.7168e-01, 3.0127e-02,
        4.7646e-02, 4.3858e-01, 1.1102e-01, 5.6549e-02, 1.8194e-01, 6.8427e-03,
        3.8951e-03, 1.1700e-01, 8.7502e-02, 7.4982e-03, 7.4136e-03, 5.6220e-04,
        2.7498e-01, 6.4256e-02, 1.1357e-01, 4.4957e-02, 9.1405e-02, 9.4059e-02,
        1.0678e-01, 4.8274e-05, 5.6434e-02, 1.2067e-02, 7.1736e-02, 1.9222e-01,
        1.0202e-01, 3.5621e-02, 2.2695e-01, 1.5375e-01, 1.3482e-05, 3.7777e-02,
        2.1591e-02, 3.9304e-07, 5.1686e-02, 7.5298e-02, 5.6310e-02, 2.3866e-02,
        7.7151e-02, 2.8016e-01, 4.9016e-05, 2.0002e-02, 1.6702e-01, 1.2126e-01,
        1.7169e-01, 9.7598e-02, 3.2914e-03, 6.3926e-03, 6.3814e-02, 1.6354e-01,
        1.3774e-01, 1.1534e-02, 1.5537e-01, 7.8526e-07, 8.4891e-03, 1.7196e-01,
        7.5715e-03, 1.7786e-01, 1.9291e-02, 1.5624e-01, 5.4605e-01, 1.0805e-01,
        1.8631e-01, 1.2313e-01, 7.4155e-02, 3.2514e-01, 2.6187e-01, 1.0700e-02,
        5.7282e-03, 4.9650e-02, 2.3576e-01, 1.2011e-01, 2.6964e-01, 3.9482e-07,
        1.1077e-01, 1.1338e-01, 1.7900e-01, 6.8916e-02, 1.5522e-01, 3.9261e-07,
        2.3567e-02, 6.4839e-02, 4.5196e-04, 3.8393e-02, 4.1750e-02, 1.0902e-02,
        4.6366e-04, 4.8564e-02, 1.4311e-01, 1.6134e-01, 1.3084e-01, 2.6983e-01,
        1.7265e-01, 5.9592e-03, 1.0554e-02, 3.3283e-02, 1.9713e-01, 2.0119e-01,
        1.6761e-02, 8.0409e-02, 2.1702e-01, 2.9225e-02, 9.9264e-02, 1.6743e-01,
        1.0314e-01, 2.9512e-01, 3.8400e-01, 1.4935e-01, 3.5688e-02, 4.4576e-03,
        8.1903e-02, 1.2949e-01, 8.7515e-07, 6.0536e-02, 2.1811e-02, 9.9293e-02,
        1.9451e-01, 9.4740e-03])
mlp.net.0.batch_norm.num_batches_tracked tensor(140)
mlp.net.1.linear.weight tensor([[ 0.0981,  0.0728, -0.1070,  ...,  0.0032,  0.0109, -0.0933],
        [ 0.0399, -0.0172, -0.1517,  ...,  0.0160,  0.1885, -0.0071],
        [-0.0851,  0.0934, -0.0665,  ...,  0.0454, -0.1290, -0.0055],
        ...,
        [-0.0079,  0.0444,  0.0610,  ...,  0.2258,  0.1364,  0.0406],
        [ 0.0970,  0.1243,  0.0147,  ..., -0.0263, -0.1651,  0.0151],
        [ 0.1431,  0.0742,  0.0362,  ..., -0.0038, -0.1324,  0.1346]])
mlp.net.1.linear.bias tensor([ 4.5860e-02, -8.4901e-02, -3.5512e-02, -1.0450e-02, -2.0673e-03,
         1.0709e-01,  4.8158e-02, -2.8148e-02, -2.6652e-02,  1.0749e-01,
        -2.1450e-02,  1.1642e-03,  2.7349e-02,  1.2311e-03,  2.9488e-02,
        -7.8333e-02,  8.8748e-02, -3.3154e-02, -7.9312e-02, -4.8529e-03,
         4.0755e-03, -2.6042e-02,  5.7073e-02,  4.2715e-02, -6.6772e-02,
        -6.7758e-02, -3.2865e-02,  1.4187e-01,  3.5762e-02, -2.7556e-02,
         2.9070e-04,  3.1377e-02,  1.0895e-01, -2.9593e-02, -9.2644e-02,
        -4.1679e-03, -7.1231e-02,  9.3848e-02, -3.5009e-02, -6.5721e-02,
        -1.0272e-01, -1.9617e-02, -8.8751e-03, -6.0438e-02, -1.7442e-02,
         4.6347e-02, -7.9776e-03, -1.5605e-03, -2.0043e-02, -5.1613e-02,
        -3.4285e-02, -1.0545e-01, -6.2032e-02,  1.1438e-02, -5.4963e-02,
         1.0668e-01, -6.9724e-02, -3.7433e-02, -2.8452e-02,  8.8009e-02,
        -6.6558e-02, -2.6914e-02,  6.6397e-02,  2.6252e-02, -3.9411e-02,
         2.1184e-02, -3.1318e-02, -2.7212e-02,  3.1275e-02,  5.1688e-02,
         5.2970e-02,  3.0567e-02,  2.9064e-02, -4.6178e-03,  3.5446e-03,
         8.7351e-02,  1.2372e-01, -1.8536e-02, -6.5811e-02, -6.8160e-03,
         7.7556e-02,  1.0776e-02,  6.5715e-02, -3.2137e-02, -3.0203e-02,
        -1.3102e-01, -2.8753e-02, -5.9627e-02, -3.4029e-03, -9.5070e-03,
         7.5717e-02,  3.5225e-02, -2.1557e-02, -1.1935e-01, -1.3108e-01,
         2.2927e-02,  6.9587e-02,  2.3304e-05,  6.2042e-03,  8.5318e-03,
         5.3574e-02, -9.5064e-02, -6.7657e-02,  2.3181e-02, -2.0846e-02,
        -1.9187e-01, -8.7475e-02, -6.2178e-02, -8.4747e-04, -5.5835e-02,
         4.0824e-03, -1.3851e-02, -1.8744e-02, -1.0256e-01,  8.6901e-02,
        -2.7717e-02,  6.9737e-02, -6.7697e-02, -2.4575e-02, -9.5829e-03,
        -3.2238e-02, -1.1251e-02,  4.9450e-02,  6.8463e-02,  1.9065e-02,
         2.4397e-02,  9.9863e-02, -6.6672e-02, -9.6963e-03, -2.9644e-02,
        -1.5421e-02,  7.0114e-02, -2.2899e-02,  9.9326e-02,  6.2022e-02,
         1.2631e-02,  3.8341e-02,  6.3927e-02,  5.5087e-02, -3.8406e-02,
         2.9001e-02, -3.2303e-02, -4.0302e-03, -1.2915e-01,  3.0102e-02,
         2.0784e-02,  1.0303e-01, -9.9215e-02,  1.3125e-01,  3.3471e-02,
         5.4320e-02,  6.8189e-02,  2.7044e-03, -5.7971e-02, -1.6399e-02,
        -1.6188e-02,  1.7906e-02,  1.0764e-01,  1.0448e-01,  6.0739e-02,
         9.7602e-02, -8.5102e-02,  1.9346e-02,  6.5186e-02,  5.7721e-02,
         3.2993e-02, -7.0077e-02,  1.5376e-01, -1.1049e-01, -8.8744e-03,
         1.1441e-01, -5.9550e-03,  6.4256e-02, -1.1159e-01,  9.2327e-02,
         8.8481e-02, -1.2425e-04, -2.4919e-02,  1.0705e-02,  6.8847e-02,
        -1.0161e-01, -6.9523e-02,  1.0977e-01,  7.0141e-02,  2.0495e-02,
         8.6865e-02, -9.3240e-02, -2.1491e-03,  9.6359e-03, -5.7621e-02,
        -4.3358e-02, -8.7403e-03, -7.3186e-03, -6.0259e-02, -3.4312e-02,
        -2.0717e-02,  4.7889e-02, -4.1389e-02,  5.7336e-02, -6.2029e-02,
        -1.3329e-01,  3.5049e-02,  1.4456e-01, -1.6470e-01, -9.1607e-03,
         6.5807e-02,  5.4713e-02, -3.8910e-02,  4.9330e-02,  1.3778e-01,
         7.5802e-02,  8.7191e-02, -3.5637e-02,  2.5059e-02,  3.9964e-02,
        -8.7252e-02,  6.8643e-04,  5.9363e-02,  1.0379e-01, -6.5846e-02,
        -6.3962e-02, -3.3260e-02,  3.9794e-02, -3.0036e-02,  3.9571e-02,
        -5.2200e-02, -5.2664e-02,  3.3737e-02, -2.0395e-02,  8.1963e-02,
         5.2247e-02,  6.1251e-02,  1.0871e-01,  5.8898e-02,  1.8715e-02,
        -1.1654e-01,  3.4686e-02,  3.7419e-02, -6.1713e-02, -6.4492e-03,
        -2.0022e-02,  9.7140e-03, -8.7474e-02, -4.5310e-02, -5.0468e-02,
         5.5895e-02,  5.9521e-02, -1.5661e-01, -1.3309e-01,  5.6492e-02,
         5.1333e-02,  2.6096e-02, -8.3588e-02, -8.9945e-02, -1.4683e-01,
        -1.5065e-01, -5.0194e-02,  6.7347e-02, -7.5461e-02,  1.3097e-01,
         7.2270e-04,  4.3931e-02, -5.5310e-02,  4.8539e-03, -2.2896e-02,
        -5.2784e-02, -7.4333e-02, -2.7737e-02,  1.7547e-01,  4.3663e-02,
         6.0956e-03, -6.3941e-02, -4.3305e-02,  8.5147e-02,  6.2583e-02,
         4.5267e-02,  3.4622e-02, -9.2705e-02,  4.6500e-02, -1.5494e-02,
        -2.7746e-02,  1.2859e-02,  3.3434e-02, -2.8794e-02,  7.5935e-02,
         1.6481e-02, -2.8955e-03, -9.4848e-02,  1.9197e-02,  1.4078e-03,
         4.2436e-02,  9.6078e-03, -4.8681e-03, -4.4807e-03, -1.1813e-02,
         8.5299e-02,  4.2798e-02, -1.1054e-02,  3.9214e-02,  1.2363e-01,
         1.8492e-02, -1.0413e-01, -2.9181e-02, -5.2430e-02,  8.5994e-02,
        -1.3101e-01,  3.8523e-02, -2.5722e-02,  1.5617e-02,  1.2343e-01,
        -1.2019e-01,  2.4414e-02, -5.0792e-02, -9.9896e-02,  2.6939e-03,
        -1.3862e-01, -4.2261e-02, -4.7491e-02, -4.2705e-02,  2.5725e-02,
         7.6007e-02,  2.8611e-02,  4.7568e-02,  4.4141e-02, -9.1011e-02,
        -1.4886e-02, -5.3108e-02,  2.1345e-02,  8.5293e-02, -2.2664e-02,
        -3.3321e-03, -1.5345e-02, -8.0074e-02, -4.9189e-02, -6.4472e-02,
        -5.0886e-02, -6.1940e-02,  9.6062e-02,  6.3392e-03, -1.6990e-02,
        -6.6833e-02,  1.5884e-01,  5.1103e-02, -7.1842e-02, -1.6901e-03,
        -3.0045e-02, -3.0035e-02,  5.0692e-02,  1.2724e-01,  1.9663e-02,
         4.0007e-02,  4.7389e-02, -4.0994e-02,  4.7724e-02,  3.1854e-03,
        -1.1630e-01, -2.1201e-02, -7.1036e-02, -7.8181e-02,  1.3019e-01,
         3.2350e-02,  2.9021e-02, -4.8074e-02, -2.0894e-02, -9.2352e-03,
        -4.9287e-02,  6.4848e-03,  5.0539e-04, -1.0508e-02, -3.2667e-02,
        -2.3801e-02,  4.6789e-02, -1.2689e-02,  2.3160e-02, -2.9697e-02,
         9.2398e-02,  4.0144e-03,  1.6254e-02, -2.4645e-02, -3.8958e-02,
        -4.7463e-03,  4.1116e-02, -2.2682e-03, -7.0061e-02,  6.8600e-02,
        -8.3826e-02, -1.8696e-02, -1.1580e-01,  7.0700e-02, -3.7088e-02,
        -8.3667e-02, -7.8309e-03,  4.6943e-02, -8.0664e-02,  7.5098e-02,
         4.5164e-04, -9.5521e-02,  7.2118e-02,  2.4892e-02,  3.7184e-02,
         9.4254e-02, -1.2518e-01, -5.4245e-03, -4.3174e-02, -1.2105e-01,
         1.4177e-01,  4.1632e-02, -4.5781e-04, -4.2995e-05, -8.7375e-03,
         2.8209e-02,  5.1182e-02,  2.8763e-03, -3.5278e-02, -3.0421e-02,
         1.7836e-01,  7.6932e-02,  6.1244e-02,  3.9851e-02,  2.1851e-02,
         1.8298e-02, -5.2343e-02, -3.5276e-02,  2.9537e-02,  1.3080e-02,
         5.3616e-02,  9.7737e-03,  1.2824e-02,  3.3285e-02, -4.7304e-02,
         3.1159e-02, -9.5877e-02, -4.5685e-02, -9.6492e-03, -7.0828e-02,
        -1.7716e-02,  3.1612e-02,  7.4740e-02, -2.3307e-02,  8.3810e-02,
         1.7468e-02, -1.6613e-02, -6.6497e-02,  8.5762e-02, -1.0148e-01,
         3.5214e-02, -1.0296e-01, -1.0170e-01, -7.9539e-02,  5.2144e-02,
        -1.1567e-01,  1.4826e-01, -3.8846e-03,  1.3180e-01,  9.7490e-03,
        -7.2838e-03,  1.0999e-01, -1.7896e-02, -2.0917e-02,  8.6866e-02,
         2.8699e-03, -2.3355e-02, -1.1283e-02, -7.9659e-02, -3.3803e-02,
         7.0173e-02,  4.4827e-04,  6.0975e-02,  4.7366e-02, -6.0765e-02,
         4.1791e-02, -1.0611e-02, -2.8807e-02, -2.2411e-02,  4.3848e-02,
         1.9649e-02, -6.3522e-02,  1.1907e-01, -4.9172e-02, -4.2997e-02,
         6.1722e-02, -2.2383e-02,  1.5388e-02,  1.0525e-02,  1.1678e-01,
        -5.2044e-02, -9.1942e-03, -6.5369e-02,  2.1764e-02, -3.7538e-03,
        -1.0863e-01,  3.2500e-02, -3.7279e-02, -4.5400e-02, -1.5345e-02,
         4.0678e-02, -4.5039e-02,  2.8558e-02, -6.7677e-02, -4.2204e-03,
        -2.7538e-02,  3.8688e-02, -2.3497e-02,  2.9631e-02,  2.1263e-02,
         6.6944e-02,  1.3205e-01, -1.0526e-01,  1.5230e-01,  6.6575e-02,
        -7.4616e-04,  1.1156e-02])
mlp.net.1.batch_norm.weight tensor([0.8518, 0.8960, 0.9251, 0.8942, 0.8538, 0.8270, 0.8591, 0.9298, 0.8766,
        0.8847, 0.8859, 0.9012, 0.8424, 0.8701, 0.7666, 0.8009, 0.8588, 0.9186,
        0.8281, 0.9134, 0.8688, 0.9455, 0.8870, 0.8891, 0.8720, 0.8808, 0.8919,
        0.8944, 0.8604, 0.9459, 0.8309, 0.8582, 0.9330, 0.8574, 0.8942, 0.8359,
        0.9039, 0.8829, 0.9080, 0.8637, 0.8580, 0.8666, 0.9272, 0.9121, 0.8785,
        0.7972, 0.8163, 0.8738, 0.8711, 0.9214, 0.8404, 0.8868, 0.8259, 0.8873,
        0.8491, 0.8222, 0.7983, 0.9153, 0.9703, 0.8332, 0.9244, 0.8544, 0.8178,
        0.9128, 0.9014, 0.8315, 0.8232, 0.9007, 0.8294, 0.8002, 0.8063, 0.9048,
        0.8839, 0.8156, 0.8609, 0.9006, 0.8811, 0.8534, 0.9393, 0.8154, 0.8896,
        0.8342, 0.8785, 0.9133, 0.8884, 0.9159, 0.9328, 0.8878, 0.8201, 0.8813,
        0.8040, 0.8839, 0.9473, 0.9244, 0.8871, 0.7946, 0.8495, 0.7832, 0.7735,
        0.8738, 0.8334, 0.9254, 0.8177, 0.9159, 0.8251, 0.8297, 0.8058, 0.8603,
        0.9180, 0.9114, 0.9092, 0.8966, 0.9311, 0.8969, 0.8282, 0.8469, 0.9636,
        0.8718, 0.8750, 0.9247, 0.8426, 0.9211, 0.8785, 0.9265, 0.8372, 0.8339,
        0.8507, 0.8967, 0.8735, 0.8914, 0.9531, 0.9119, 0.9355, 0.8398, 0.8985,
        0.9365, 0.8468, 0.8141, 0.8385, 0.9212, 0.9016, 0.7569, 0.9586, 0.9098,
        0.9221, 0.8527, 0.8780, 0.8533, 0.8114, 0.8976, 0.8466, 0.8657, 0.8270,
        0.8804, 0.8657, 0.8717, 0.8576, 0.8781, 0.9259, 0.8691, 0.9292, 0.8335,
        0.9076, 0.8399, 0.8230, 0.9683, 0.8405, 0.8842, 0.9370, 0.9071, 0.8573,
        0.8683, 0.8113, 0.8686, 0.8561, 0.8771, 0.9325, 0.7937, 0.8683, 0.7405,
        0.8654, 0.8289, 0.9108, 0.8042, 0.9047, 0.8185, 0.9299, 0.9224, 0.7428,
        0.8233, 0.7944, 0.8816, 0.8403, 0.9010, 0.8533, 0.9488, 0.8640, 0.7847,
        0.9499, 0.8778, 0.8180, 0.8836, 0.8040, 0.9590, 0.7851, 0.8281, 0.8851,
        0.8279, 0.8688, 0.8718, 0.9141, 0.8464, 0.7407, 0.8856, 0.9321, 0.8066,
        0.9203, 0.9255, 0.8893, 0.8812, 0.8614, 0.8043, 0.9459, 0.8567, 0.8658,
        0.9286, 0.9208, 0.8512, 0.8737, 0.7965, 0.8499, 0.9260, 0.8776, 0.8334,
        0.7733, 0.8089, 0.8441, 0.8107, 0.8325, 0.8710, 0.8960, 0.8142, 0.8275,
        0.8741, 0.8848, 0.8427, 0.8761, 0.8545, 0.8252, 0.8336, 0.9160, 0.8027,
        0.8279, 0.9046, 0.8831, 0.8585, 0.8982, 0.8795, 0.8249, 0.8360, 0.8248,
        0.8784, 0.8285, 0.7792, 0.7865, 0.8591, 0.9106, 0.8451, 0.8433, 0.9323,
        0.9155, 0.9241, 0.8904, 0.8788, 0.8650, 0.9062, 0.8451, 0.8769, 0.8422,
        0.9209, 0.9140, 0.8220, 0.9094, 0.9193, 0.9341, 0.8936, 0.8202, 0.8878,
        0.9020, 0.7707, 0.8667, 0.8665, 0.8701, 0.8587, 0.8678, 0.9107, 0.9117,
        0.8355, 0.8553, 0.8662, 0.8919, 0.8065, 0.9437, 0.8834, 0.8334, 0.8559,
        0.8813, 0.9044, 0.8464, 0.8637, 0.8635, 0.8415, 0.7742, 0.8400, 0.8577,
        0.7729, 0.8956, 0.9120, 0.8950, 0.8119, 0.8940, 0.9040, 0.9144, 0.8814,
        0.7902, 0.8441, 0.8692, 0.8606, 0.8546, 0.8092, 0.8798, 0.9090, 0.8889,
        0.8690, 0.9043, 0.9105, 0.8028, 0.7511, 0.9012, 0.8438, 0.8214, 0.8506,
        0.8777, 0.8679, 0.8895, 0.7516, 0.9388, 0.9074, 0.9461, 0.8337, 0.9343,
        0.8536, 0.9164, 0.8853, 0.8549, 0.8653, 0.9051, 0.9295, 0.9140, 0.9222,
        0.8713, 0.8669, 0.8617, 0.8447, 0.8845, 0.9458, 0.9232, 0.9329, 0.8718,
        0.8620, 0.8836, 0.8557, 0.8868, 0.8863, 0.8901, 0.8552, 0.8103, 0.8845,
        0.9031, 0.8171, 0.8995, 0.8350, 0.7736, 0.8898, 0.8064, 0.8237, 0.9184,
        0.9275, 0.9447, 0.8397, 0.8383, 0.8643, 0.8470, 0.8645, 0.8258, 0.9513,
        0.8156, 0.8747, 0.8039, 0.8746, 0.8037, 0.7335, 0.8700, 0.8117, 0.8982,
        0.8700, 0.8741, 0.8355, 0.9162, 0.9176, 0.8841, 0.7315, 0.9087, 0.8772,
        0.9006, 0.8125, 0.8962, 0.8918, 0.8701, 0.8223, 0.7526, 0.9228, 0.9090,
        0.9296, 0.8411, 0.8325, 0.9319, 0.8133, 0.8115, 0.8158, 0.8969, 0.8268,
        0.9426, 0.8297, 0.8388, 0.7874, 0.8490, 0.9043, 0.9244, 0.9196, 0.8958,
        0.8599, 0.8091, 0.9305, 0.8459, 0.8971, 0.8431, 0.7818, 0.8520, 0.7590,
        0.8046, 0.7458, 0.8044, 0.8258, 0.9030, 0.7118, 0.8489, 0.9152, 0.9186,
        0.9084, 0.8076, 0.9374, 0.9400, 0.8484, 0.9290, 0.8956, 0.9253, 0.9133,
        0.9537, 0.9286, 0.8890, 0.8087, 0.8586, 0.9525, 0.8520, 0.7928, 0.8987,
        0.8542, 0.8515, 0.8697, 0.9755, 0.8357, 0.8898, 0.9253, 0.7858, 0.8286,
        0.8590, 0.8999, 0.9277, 0.8535, 0.9110, 0.9282, 0.8556, 0.9550, 0.9476,
        0.8685, 0.8467, 0.8745, 0.8173, 0.9311, 0.9607, 0.8660, 0.8922, 0.8368,
        0.7340, 0.8649, 0.8016, 0.9157, 0.8369, 0.8337, 0.8425, 0.8689])
mlp.net.1.batch_norm.bias tensor([ 0.0299, -0.0189,  0.0612, -0.0470,  0.0091, -0.1146,  0.0092, -0.0144,
        -0.0224,  0.0234, -0.0597, -0.0336,  0.0755,  0.0249,  0.1270,  0.0206,
        -0.0769, -0.0971,  0.1663,  0.0617,  0.0193, -0.0547, -0.0867,  0.0028,
         0.1293,  0.0637, -0.0196,  0.0950,  0.0251,  0.0264, -0.0084, -0.0015,
        -0.0017,  0.0721, -0.0486,  0.1182, -0.0153, -0.0529,  0.0132,  0.0670,
        -0.0285,  0.0333,  0.0898,  0.0259, -0.0728,  0.0580,  0.0096,  0.0562,
        -0.0332,  0.0653, -0.0168,  0.0058,  0.1103, -0.0065, -0.0686,  0.0349,
         0.1431, -0.0494, -0.0526,  0.0212,  0.0770,  0.0408,  0.0229,  0.0875,
         0.0450,  0.0807, -0.0396, -0.0315,  0.0150,  0.0169, -0.0618, -0.0196,
         0.0622,  0.0413, -0.0644, -0.1361,  0.0412,  0.0254, -0.0078,  0.0449,
        -0.0453, -0.0846,  0.0103,  0.0627,  0.0357, -0.0766, -0.0290, -0.0628,
         0.0417, -0.0634, -0.0089, -0.0103, -0.0414, -0.1140,  0.0961, -0.0902,
         0.0733,  0.0708,  0.0172,  0.1104, -0.0673,  0.0394,  0.1039,  0.0705,
        -0.0004,  0.1051,  0.0742,  0.0315,  0.0179,  0.0826, -0.0096, -0.1282,
        -0.0444,  0.0389,  0.0375, -0.1165,  0.0350,  0.0642,  0.0392,  0.0664,
        -0.0197,  0.0442,  0.0101,  0.0016,  0.0473,  0.0305, -0.0619, -0.0648,
        -0.0530,  0.0322,  0.0192,  0.0851, -0.0742, -0.0290, -0.0295, -0.0231,
        -0.0316, -0.0222,  0.0585, -0.0219, -0.0030, -0.0027,  0.0356, -0.0635,
         0.1208,  0.0575,  0.0469,  0.0125,  0.0472, -0.1332,  0.0635, -0.0533,
         0.0451,  0.0008, -0.1015, -0.0460,  0.0080, -0.0436, -0.0643,  0.1664,
         0.0279, -0.0229, -0.0041,  0.0900, -0.0033,  0.0269,  0.0740, -0.0581,
         0.0145,  0.0020, -0.0163, -0.0628, -0.1097, -0.0098, -0.0454,  0.1200,
        -0.0997,  0.0117,  0.0233, -0.0401, -0.0598, -0.0264,  0.0481,  0.2023,
         0.0211, -0.0084, -0.0371,  0.0410,  0.0199,  0.0857,  0.0767, -0.0219,
        -0.0127,  0.0382, -0.0626,  0.0136, -0.1070,  0.0770,  0.0523, -0.0952,
         0.0417, -0.1373, -0.0396, -0.0709, -0.0571,  0.0598,  0.0100,  0.0591,
         0.0725, -0.0566,  0.0623, -0.0531, -0.1242, -0.1259, -0.0510, -0.1111,
         0.1016,  0.0352,  0.0506, -0.1285, -0.0483,  0.0155,  0.0511,  0.0712,
         0.0571, -0.0684,  0.0215,  0.0439,  0.0851,  0.0578,  0.0750,  0.0515,
        -0.0540,  0.0537, -0.0624,  0.0274, -0.0010,  0.0792,  0.0883,  0.1362,
         0.1014,  0.0630,  0.0680,  0.0172,  0.1351,  0.0744, -0.0232,  0.1083,
         0.1531, -0.0167, -0.0548,  0.0533,  0.0088,  0.0124, -0.0589,  0.0074,
         0.0485,  0.0322,  0.0371, -0.0957, -0.0441, -0.1011, -0.0006,  0.0500,
        -0.0088, -0.0478,  0.0510, -0.0617, -0.0651,  0.0278, -0.0172,  0.0773,
        -0.0051,  0.0456, -0.0296,  0.0202,  0.0264,  0.0436, -0.0356, -0.0513,
        -0.0123,  0.0277, -0.0081,  0.0611, -0.1489,  0.0591,  0.0418, -0.0695,
         0.0544, -0.0296,  0.0644, -0.0322, -0.0962, -0.0641, -0.0683,  0.0555,
         0.0432,  0.0145,  0.0116,  0.0291,  0.0394,  0.0232, -0.0375,  0.1155,
         0.0890, -0.0552,  0.1230, -0.0015,  0.0037,  0.0110, -0.0404, -0.1074,
        -0.0431,  0.0287, -0.0181, -0.0003, -0.0289,  0.0059, -0.0888, -0.0095,
         0.0188, -0.0412,  0.1349,  0.0531, -0.0230,  0.0440, -0.0056, -0.0056,
         0.1115, -0.0531, -0.0440, -0.0286, -0.0823, -0.0447, -0.0029, -0.1455,
        -0.0432, -0.0639, -0.0194,  0.1651, -0.0131, -0.0183, -0.0170, -0.0441,
        -0.0992, -0.0274,  0.2161,  0.0132, -0.0220,  0.0163, -0.0137,  0.0343,
        -0.0635,  0.1173,  0.0596,  0.0318, -0.0006, -0.0165, -0.1096,  0.0151,
         0.0058,  0.0600, -0.0133,  0.1296,  0.0246,  0.0484, -0.0661,  0.0414,
        -0.0327,  0.0460,  0.0426,  0.0796,  0.0810, -0.0148,  0.1252,  0.0202,
        -0.0615, -0.0064,  0.0043,  0.0839,  0.1027,  0.0528, -0.0006,  0.0250,
        -0.0311,  0.0505, -0.0910,  0.0385,  0.0355, -0.0255, -0.0002,  0.0591,
         0.0714, -0.0184,  0.0283,  0.0361, -0.0523, -0.1135,  0.0489,  0.0117,
        -0.1488, -0.1369, -0.0943,  0.0689, -0.0551, -0.0084, -0.0398, -0.0166,
         0.0300,  0.0801, -0.0145,  0.0494,  0.0730,  0.0095, -0.0383, -0.0051,
         0.0601,  0.0122, -0.0184,  0.0042, -0.0198,  0.0154,  0.0861,  0.0389,
         0.0182,  0.0610, -0.0114, -0.0193,  0.0361, -0.0641,  0.0289, -0.0284,
        -0.0061, -0.0404, -0.0176,  0.0256, -0.1346, -0.0512, -0.0943, -0.0183,
        -0.0025, -0.0638, -0.0277, -0.1078, -0.0608, -0.0492, -0.0104,  0.0096,
        -0.0969,  0.0100, -0.0533, -0.0658, -0.0570, -0.0462,  0.0273, -0.0227,
         0.0153, -0.0704,  0.0698, -0.0636, -0.0047,  0.0271, -0.0422, -0.0502,
        -0.0251, -0.0193,  0.0269, -0.0591,  0.0206,  0.0274, -0.0942, -0.0077,
         0.0229, -0.0995, -0.0441,  0.0477, -0.0243,  0.0905,  0.0405,  0.0340,
        -0.0138, -0.0579,  0.1144, -0.0208,  0.0292, -0.0370, -0.0378,  0.0281,
         0.0736, -0.0954,  0.0350,  0.0205,  0.0561,  0.0116, -0.1442, -0.0804,
         0.0070, -0.0887,  0.0562,  0.0591,  0.0701, -0.0541,  0.0038, -0.0408,
         0.0978,  0.1311, -0.1089, -0.0385, -0.0249, -0.0953,  0.0839,  0.0005])
mlp.net.1.batch_norm.running_mean tensor([2.1785, 1.6875, 1.9225, 1.2567, 1.7629, 3.3269, 2.6218, 1.5602, 1.8587,
        1.6028, 1.6343, 2.5773, 1.8315, 1.7339, 1.5599, 2.0057, 2.2655, 1.6818,
        2.3603, 1.5518, 1.8417, 1.7592, 1.9935, 1.7613, 2.0594, 2.1678, 1.7657,
        2.6687, 2.0682, 1.8441, 1.5282, 1.5598, 1.7528, 1.6243, 1.8377, 2.4623,
        1.6525, 1.6309, 1.3462, 1.5433, 2.1162, 2.7904, 1.5504, 1.7090, 1.8790,
        1.8533, 2.0078, 1.6429, 2.2127, 2.3696, 2.4682, 1.7392, 1.7135, 1.8200,
        1.7901, 1.7957, 2.1965, 1.3702, 1.6173, 2.2943, 1.5876, 2.0907, 2.0575,
        2.2636, 1.8780, 2.0516, 2.0799, 1.8477, 2.0916, 2.0776, 2.5000, 1.3848,
        2.3076, 2.2729, 2.3595, 1.8538, 2.3129, 1.5441, 2.2378, 2.0078, 2.4236,
        1.9877, 2.6597, 1.8800, 1.4757, 1.7533, 1.9188, 1.8832, 1.9259, 2.0006,
        2.4430, 1.8161, 1.8777, 2.0982, 1.9899, 2.3486, 2.5546, 1.8484, 1.9377,
        1.8228, 1.4952, 1.3908, 2.3021, 1.7667, 2.0065, 1.4519, 2.4586, 1.4415,
        1.6571, 1.7261, 1.5173, 2.0166, 2.1115, 1.8137, 2.3431, 2.2483, 2.2795,
        1.8671, 1.5508, 1.8666, 1.9485, 2.5492, 1.5090, 1.9799, 2.1441, 1.8982,
        1.6793, 2.1646, 1.4788, 1.9421, 1.9975, 1.6140, 1.3777, 1.7222, 2.6411,
        1.8727, 2.0278, 2.5109, 1.8774, 1.9731, 2.5384, 2.0321, 1.4610, 1.7668,
        2.4700, 2.1169, 1.7791, 1.7318, 1.9117, 1.7289, 1.6551, 3.1980, 1.6536,
        1.8290, 1.8579, 1.8966, 2.4157, 2.1683, 1.8731, 2.1148, 1.4012, 1.3306,
        2.3006, 2.1080, 2.2896, 2.3888, 2.5100, 2.1958, 2.0869, 1.7280, 1.9975,
        1.4921, 3.0689, 2.1115, 2.5961, 1.7611, 2.0684, 1.9249, 2.1019, 1.7518,
        2.2029, 1.5067, 1.7422, 2.3124, 1.3632, 1.4504, 1.6103, 2.1504, 1.8302,
        1.5653, 2.1890, 1.8257, 2.0260, 1.4558, 1.5840, 2.4929, 1.7621, 1.7832,
        2.1390, 1.5124, 1.6630, 2.2933, 2.1710, 1.7575, 2.1185, 1.7438, 2.2339,
        1.6560, 2.3896, 2.1838, 1.8980, 1.8102, 2.3849, 2.4570, 2.0943, 1.7478,
        2.4315, 2.1913, 1.7917, 1.7727, 1.6875, 1.6764, 1.5951, 1.9373, 1.8654,
        1.7356, 1.3516, 1.7230, 1.9141, 2.7046, 2.2409, 2.0683, 2.1998, 1.8260,
        1.9736, 2.4106, 1.5996, 1.9266, 2.0712, 2.1586, 1.7469, 1.7342, 2.4493,
        1.5518, 1.9917, 2.1169, 1.8105, 1.6994, 1.4917, 1.8465, 2.3559, 2.1951,
        2.1064, 1.6914, 2.6157, 1.2414, 1.6876, 1.6119, 1.8837, 2.4812, 1.4480,
        1.9573, 1.9860, 2.5647, 1.8849, 2.1983, 2.3391, 2.7219, 2.2935, 1.9970,
        1.3565, 2.1364, 1.7478, 2.0138, 1.9569, 2.0282, 1.5723, 1.4698, 2.2183,
        1.4159, 1.7300, 1.9302, 1.6368, 2.0117, 2.4142, 1.5386, 1.8021, 1.3988,
        1.5807, 1.6475, 2.7076, 2.1977, 1.5264, 1.9637, 2.4131, 1.8300, 1.4984,
        1.8928, 1.5751, 2.0916, 1.8031, 1.9091, 1.9420, 1.9925, 1.6704, 1.7171,
        1.5961, 1.4047, 2.1540, 1.8139, 1.7735, 2.5158, 1.8568, 1.7701, 1.9192,
        2.3044, 1.6940, 1.9945, 1.8543, 2.4462, 2.0522, 2.2877, 2.0565, 2.2459,
        1.6808, 1.9473, 2.5579, 1.5760, 2.1746, 1.7390, 2.1042, 1.5001, 1.8540,
        1.5351, 2.5619, 2.7022, 1.7036, 2.0427, 1.7966, 1.7189, 2.0709, 2.2235,
        2.2349, 1.3011, 2.0148, 1.7567, 2.8087, 1.7358, 2.0008, 2.4813, 1.6807,
        2.3265, 1.7021, 2.0212, 2.3027, 2.2065, 2.7948, 1.8338, 1.6840, 1.4826,
        1.6874, 1.9277, 1.5509, 1.6365, 2.8242, 1.5631, 1.9133, 1.7083, 2.1114,
        1.5002, 1.6670, 2.0076, 2.1986, 1.8996, 2.2590, 2.4130, 1.6639, 1.9007,
        1.8036, 2.5191, 1.4922, 1.5389, 2.2487, 1.8345, 1.9930, 1.4597, 1.7512,
        1.5910, 1.8479, 1.8585, 1.9715, 1.9420, 2.4582, 1.7645, 1.9488, 1.6214,
        1.9848, 1.7594, 2.0378, 1.9772, 1.6469, 1.7709, 2.1238, 1.9177, 1.9045,
        1.5362, 2.3818, 1.4870, 1.6986, 2.1184, 1.6594, 2.0032, 1.2836, 2.1033,
        1.5146, 2.1506, 2.8509, 1.4774, 1.4593, 1.7894, 2.1782, 1.7538, 1.9351,
        1.7981, 1.9268, 1.7597, 1.7998, 2.4942, 2.6244, 1.5663, 1.5037, 1.5250,
        2.1338, 1.7480, 1.6942, 2.1633, 2.1119, 1.6196, 1.8515, 1.6277, 1.6299,
        1.3976, 2.2024, 1.8940, 2.0299, 2.3543, 1.7666, 1.8512, 1.5617, 2.5778,
        1.7457, 2.0171, 1.8818, 3.0904, 1.5723, 2.3713, 2.5417, 1.5728, 1.7840,
        1.8487, 2.0955, 1.6709, 1.8703, 1.8286, 2.1796, 1.9157, 1.6441, 1.6778,
        2.1270, 1.9830, 1.5858, 1.5900, 1.3616, 1.7135, 2.0828, 2.4367, 2.0943,
        2.3318, 1.9033, 1.6013, 2.1962, 1.4908, 2.1552, 2.0322, 1.7564, 1.6325,
        1.9763, 1.2611, 1.7041, 2.0880, 2.0498, 2.2351, 2.1466, 1.7849, 2.0561,
        1.4527, 1.6222, 2.1517, 1.8356, 2.3536, 2.3366, 1.7156, 1.7723, 2.4916,
        1.5861, 2.1546, 2.2203, 1.6613, 2.1659, 2.2116, 2.3479, 2.1934])
mlp.net.1.batch_norm.running_var tensor([10.0346,  5.6418,  7.8913,  4.2619,  7.2458, 22.0554, 14.3466,  5.9685,
         7.6458,  8.0100,  6.4706, 12.6966,  8.5495,  5.7043,  5.2285,  9.3919,
         6.8110, 10.2931, 10.4945,  5.4483,  8.2380,  7.6528,  9.3805,  5.0364,
        13.1120,  9.6609,  8.2367, 14.4104, 10.6636,  8.2724,  5.5358,  5.0855,
         7.4504,  6.9318,  7.0973, 18.6986,  6.1994,  5.7793,  4.0601,  4.3678,
        11.1847, 14.3400,  5.1070,  8.1306,  7.6853,  7.1681,  9.8739,  6.3494,
        10.3701, 13.4722, 14.0053,  9.4688,  8.9061,  6.4225,  7.5610,  8.0797,
        11.0264,  4.3079,  6.0826, 14.9034,  6.2074, 11.0515,  7.6799,  9.1793,
         9.9187,  7.2927, 11.6450,  9.1812,  9.4981,  8.8761, 12.7361,  4.7089,
         8.1509,  9.9363, 14.8789,  8.9502,  9.2990,  8.1537, 12.9884, 10.6707,
        10.9445, 12.3907, 16.4786,  9.2013,  6.0204,  8.7312,  9.5867,  9.0359,
         7.9588,  8.4644, 14.9259,  8.0461,  6.7680, 11.3121, 11.2190, 12.3096,
        12.8162, 12.6760, 10.2289,  8.6469,  5.8296,  5.2134, 12.9419,  7.1077,
         9.2739,  5.8827, 11.9003,  5.4447,  7.2661,  6.4336,  5.6755,  9.3372,
        10.4217,  8.5106,  8.7325, 10.1672, 10.3957, 11.2657,  5.4801,  9.3484,
         8.2330, 12.7830,  6.5811,  7.5665, 11.5627,  7.4931,  6.2878,  9.0488,
         5.1768, 10.7606,  6.8585,  8.5270,  3.9420,  6.7445, 13.8348,  6.3604,
         8.9496, 12.1108,  8.8250,  9.0439, 14.3811, 10.5926,  4.1260,  8.3772,
        13.1294, 10.7480,  8.2588,  6.7664,  5.8158,  6.8168,  6.8235, 19.5737,
         5.4437,  6.6895,  7.1218,  8.4957, 11.1433, 11.7595,  7.6897,  7.3582,
         4.6740,  5.1148, 16.1890,  8.6749, 13.3501, 11.2027, 16.3703,  7.4674,
        11.3951,  7.0160, 12.0469,  4.8768, 18.0638, 10.8522, 14.9745,  6.2588,
         8.2035,  9.5417,  9.5567,  5.8497, 14.2024,  3.9583,  8.0094, 12.2780,
         4.6567,  4.6112,  6.4230,  9.5319,  7.6244,  5.4615, 11.7585,  5.9775,
         9.5934,  6.4036,  6.3174, 12.1390,  9.3944,  9.5793,  7.6359,  5.7012,
         5.9739, 12.2379, 10.1949,  8.3782, 10.7643,  7.0691, 11.5881,  7.7036,
        14.2794,  8.8790,  6.7498,  6.6905, 14.7392, 16.2436,  9.8448,  7.9414,
        11.7146, 10.1319,  5.9318,  8.0852,  5.2485,  7.8247,  6.6612,  7.9092,
         6.4838,  6.8717,  4.3072,  6.3433,  9.7275, 15.5142,  9.0912,  9.1703,
         8.4577,  5.8400,  9.7248, 11.2935,  4.8973,  7.9984,  9.6920,  9.7369,
         6.6414,  7.7302, 17.2841,  7.1965,  8.6859, 11.5434,  9.3083,  8.7501,
         5.7938,  9.0631, 10.3262,  9.7800, 13.0527,  8.0091, 14.3350,  6.5188,
         6.3029,  5.1562,  7.9418, 12.8777,  6.4054,  7.2819,  9.6491, 14.1638,
         8.1357, 12.2496, 10.7420, 17.1367, 11.0736,  7.6507,  4.4253,  9.0659,
         6.1142,  7.9528,  7.4798,  8.1237,  6.1716,  4.6389,  9.8718,  6.4902,
         8.2389, 12.4650,  6.4348,  9.1805, 11.7856,  6.5507,  6.5156,  5.2927,
         5.9444,  5.5300, 17.6178,  9.1151,  8.2711, 10.7811, 15.5670,  6.1821,
         5.3305, 10.5769,  6.2040,  7.5280,  8.3213,  9.0915,  9.7428,  8.9540,
         5.8479,  9.9957,  5.6621,  6.2719, 10.5352,  9.0044,  9.5252, 14.8886,
        11.1675, 10.2800,  8.2450, 11.7506,  6.0063,  9.4042,  7.8105, 12.1673,
        12.2542, 14.2410,  8.8417, 10.9990,  6.7962,  7.7953, 15.3022,  6.3332,
        10.7453,  7.5836,  8.9373,  4.4275,  9.6764,  6.5475, 16.9579, 19.4788,
         8.7019, 10.7211,  8.1914,  7.1306,  8.3085,  8.7774,  8.3484,  5.3961,
         8.4289,  5.8669, 19.0777,  9.0975, 12.5991, 12.3241,  6.1772,  9.7495,
         6.2303, 10.7304, 12.6552, 10.2772, 16.2948,  8.6558,  6.6975,  4.7842,
         6.5534,  7.5613,  6.8012,  7.3495, 19.6388,  5.6392,  8.5157,  6.1751,
         8.6469,  5.9673,  7.7702, 11.0009,  9.2790, 10.2106, 13.1112, 11.4593,
         5.9342,  7.7686,  9.7317, 17.9818,  6.0058,  6.0947,  8.6600,  7.2132,
         7.7855,  5.6169,  7.1100,  8.7067,  9.3598,  9.1999, 10.3326,  8.9682,
        16.3277,  7.9100, 10.3704,  7.7570,  9.3045,  6.0613,  8.2571, 10.9859,
         5.9301,  9.4433, 14.3707,  7.3087,  9.5851,  5.6180, 13.0699,  6.1765,
         8.3417,  7.7173,  6.3498,  8.0230,  4.9471, 11.9010,  6.0232,  8.4166,
        15.8439,  4.3424,  4.9774,  6.9545, 13.5374, 12.4430,  8.4770,  5.8527,
         7.7055,  7.9160,  9.0033, 11.9265, 13.1183,  6.0189,  5.5934,  6.1478,
        14.3019,  7.0482,  9.3250, 12.1123, 10.9573,  6.2502,  7.3577,  5.9930,
         5.2337,  4.8322, 15.8253,  8.2261,  8.6156, 11.5536,  8.4541,  7.6610,
         6.8982, 11.3197, 10.2421,  8.8255,  8.7048, 25.7958,  8.5170, 11.2627,
        11.5414,  5.1880,  8.9688,  7.2602, 10.4972,  6.5547,  7.3979,  9.3368,
        14.7334,  8.3749,  7.9009,  5.9867,  9.4559,  8.5591,  6.0895,  5.3861,
         5.3411,  6.5417,  8.5445, 11.6487,  7.9555,  9.9570,  8.9171,  5.1883,
        16.5893,  5.0529, 10.2655,  7.8518,  7.8771,  7.1339, 10.0701,  5.0241,
         6.8206,  7.8181, 11.0051, 10.4930, 13.0564, 12.2644,  9.0399,  4.7209,
         8.3680,  9.5860,  9.0430, 11.9991, 11.5981,  7.2714,  6.7812, 12.0391,
         7.0232,  8.6881,  9.6486,  6.5997,  8.0166,  9.1609, 10.4604, 11.3326])
mlp.net.1.batch_norm.num_batches_tracked tensor(140)
mlp.net.2.weight tensor([[ 3.7852e-03, -1.6857e-02,  1.1058e-02, -2.0745e-02, -2.0410e-02,
          9.6296e-03, -3.0519e-02,  4.7236e-03, -2.2971e-03,  4.8237e-04,
          2.0936e-02,  2.2107e-02,  9.1689e-04,  3.0918e-02,  4.9952e-03,
         -2.6926e-02,  6.4244e-04,  1.1542e-02,  1.4349e-02, -3.4985e-03,
          9.1422e-03,  3.4994e-02, -3.5146e-02,  2.2258e-02, -2.3351e-02,
          2.3022e-02,  3.0079e-02, -4.1393e-02, -5.8731e-03, -2.3889e-02,
          3.8737e-04,  9.5067e-03,  6.0445e-03,  1.1591e-02,  2.5274e-02,
         -2.3231e-02, -7.4708e-03, -1.2457e-02,  2.4411e-03,  4.9968e-03,
         -2.9104e-02,  1.0949e-02,  3.5344e-02,  3.3502e-02,  1.4309e-02,
         -8.4952e-03, -1.9124e-02, -4.1874e-02, -2.1929e-02,  6.6470e-03,
         -2.6439e-02,  2.2694e-02, -3.0661e-02,  2.2575e-02,  9.7588e-03,
         -2.6685e-02, -1.6402e-02, -3.7815e-03, -2.6461e-02,  3.7210e-03,
          1.5490e-02, -2.3042e-02, -1.4739e-02,  2.2117e-02, -3.7664e-03,
         -3.1328e-02, -1.6953e-02, -1.0292e-02, -1.1982e-02, -3.2073e-02,
         -1.0442e-02,  1.7476e-02,  4.2103e-02,  1.0407e-02, -1.9533e-02,
          6.8204e-03, -2.3262e-02,  8.2767e-03, -1.1220e-02,  1.9708e-02,
          9.2449e-03,  4.3148e-02, -2.0644e-02, -3.4772e-02,  1.1769e-02,
         -3.8096e-02,  1.8069e-02,  1.7377e-03, -1.8457e-02,  4.4122e-04,
          1.8492e-02,  1.6397e-02, -2.5160e-02,  1.4901e-02, -4.3898e-04,
          1.4787e-02, -3.0580e-02,  4.4507e-03,  4.0093e-03, -1.1735e-02,
          9.7656e-03,  6.3801e-03,  7.5065e-03, -1.1179e-02, -2.5712e-02,
         -8.5261e-03, -1.0445e-02, -4.3966e-03,  1.5197e-02,  1.3713e-02,
         -2.9029e-02, -1.6186e-02, -1.1328e-02, -3.1631e-02, -8.4093e-03,
          2.1387e-02,  2.9071e-02,  8.5909e-03,  5.2746e-03, -2.5743e-02,
          4.8725e-03,  2.6558e-02, -2.7301e-04, -5.8839e-04,  9.8326e-03,
          3.6116e-03, -2.6087e-02, -1.0752e-02, -3.4376e-02, -5.6593e-03,
          6.3386e-03, -5.8978e-03, -2.3822e-03, -4.9450e-03,  2.9655e-02,
          2.1862e-02, -7.3374e-03,  6.0982e-03, -3.0755e-02, -1.4996e-02,
          6.2793e-03,  2.7840e-02, -2.0257e-02, -2.0738e-02, -3.4717e-02,
          2.3652e-02, -1.8370e-02,  2.3333e-02,  1.7272e-02, -2.9793e-02,
          5.1088e-03,  1.9629e-02,  5.0422e-03,  4.5087e-03,  1.5687e-02,
          1.0389e-02, -2.7331e-02, -1.8678e-02,  2.5115e-02, -4.5512e-03,
         -4.4350e-03, -3.3869e-02, -1.9091e-02,  9.3744e-03, -7.5492e-03,
         -5.5804e-03, -4.4773e-03, -1.5757e-02, -3.8914e-02,  2.3491e-03,
         -4.6628e-03, -3.9535e-03,  1.1539e-02, -1.8144e-02,  1.8256e-02,
         -1.2805e-02, -4.0328e-02, -1.8633e-02,  4.2880e-02, -2.0907e-03,
         -4.4315e-02,  1.4773e-02,  2.3995e-02, -1.6398e-02, -1.3418e-03,
          1.6658e-02, -1.7731e-02, -2.6035e-02, -7.2685e-03, -1.4672e-02,
         -3.8247e-03, -1.4537e-02,  5.2564e-03,  6.8857e-03, -2.5976e-02,
          1.9262e-02,  7.7090e-03,  1.3013e-02,  2.5984e-02,  5.1500e-03,
         -5.5170e-03, -1.1556e-02,  2.3669e-03,  5.5355e-02,  1.9831e-02,
          1.5763e-02, -2.3696e-03, -1.6328e-02, -1.4015e-02,  1.5635e-02,
         -1.0088e-02, -3.9915e-03,  1.7280e-02, -1.9218e-02, -9.1339e-04,
          7.9160e-03,  2.2605e-02,  1.4458e-02,  3.4585e-03,  1.7374e-02,
          3.4618e-02, -5.8024e-03, -2.4614e-02,  1.3915e-02, -2.3789e-03,
          1.5712e-02, -1.2874e-02, -5.2934e-03, -1.7598e-02, -8.6743e-03,
         -1.0820e-02,  3.1844e-02,  1.9208e-02,  5.3055e-03, -1.3683e-02,
          4.8347e-04, -8.0283e-03,  5.5398e-03, -2.1411e-02, -5.0489e-02,
         -2.4518e-02,  3.1697e-02,  6.9441e-03, -7.7267e-03,  1.0124e-02,
          2.2988e-03,  1.2905e-02, -8.4150e-03, -2.8987e-02, -9.6758e-03,
         -7.6222e-03,  9.2359e-03,  4.5619e-03, -2.2832e-02,  2.3892e-02,
         -6.3428e-04,  1.2962e-02,  8.9989e-04, -4.9801e-02,  3.0633e-02,
         -1.3923e-02, -4.5616e-03, -1.1803e-02, -4.6449e-03, -8.7456e-03,
         -8.9668e-03, -3.7677e-02, -2.5948e-02, -1.6535e-03, -9.9919e-03,
          2.2637e-03,  3.9469e-02,  2.6219e-02, -8.3727e-03,  2.6873e-02,
          1.1786e-02,  1.5007e-02, -5.9176e-03,  2.8391e-02, -4.8301e-03,
         -4.1800e-02, -1.3365e-02, -1.8278e-02, -2.3541e-02,  2.9823e-02,
         -1.0814e-02, -4.8007e-03, -6.8802e-03, -1.6753e-03,  6.0584e-04,
          1.0616e-02,  1.4868e-02, -3.8088e-02,  1.0729e-02, -8.9542e-04,
         -8.2557e-03, -3.4023e-02, -5.1236e-03, -1.0701e-02, -1.0688e-02,
         -1.8179e-02, -1.8243e-02, -1.2844e-02, -1.1513e-02,  7.0723e-03,
          7.7130e-03,  1.2369e-02, -1.4590e-02,  2.0769e-02, -1.1309e-02,
         -2.2613e-03, -1.6436e-02,  8.1216e-03, -1.1832e-02, -1.0483e-02,
          6.7646e-03,  6.9597e-03,  2.2524e-02, -2.2453e-02, -1.5840e-02,
         -2.8875e-03, -2.6855e-02, -2.0503e-03, -1.5417e-03,  1.8333e-03,
          1.3919e-02,  1.9377e-02, -2.2424e-02,  1.3212e-02,  1.9218e-02,
         -2.0399e-03,  1.4726e-02, -1.6836e-03, -7.0576e-03, -4.4274e-03,
         -3.5633e-02, -9.1862e-04,  1.5881e-02, -2.4022e-02, -1.7195e-02,
          1.7486e-02, -5.0074e-03, -1.5386e-02, -2.6295e-02, -4.4828e-02,
          9.5287e-03, -3.5992e-02, -9.3978e-04, -3.9372e-03, -1.3886e-02,
         -1.3970e-02, -2.5961e-03,  2.3365e-02,  2.2426e-02,  3.4218e-03,
          3.2951e-02,  7.2904e-03, -9.1882e-03,  1.1901e-02,  7.4304e-04,
          1.6127e-02, -1.1701e-02,  9.5766e-03, -4.4571e-03,  3.1265e-02,
          1.2601e-03, -2.8523e-02, -4.4074e-03, -1.3715e-03,  9.2995e-03,
          7.4364e-03, -1.5577e-02,  8.0100e-03, -3.1279e-02, -2.3209e-02,
          1.8144e-02, -2.5961e-02,  1.9579e-03, -6.8333e-03, -9.7099e-03,
         -2.3062e-02, -6.9728e-03, -2.5120e-04,  1.4053e-02, -7.0793e-03,
          4.6270e-03,  3.1109e-02,  3.1356e-03, -1.1416e-02, -1.3992e-02,
          6.9266e-03,  3.0702e-02, -2.6879e-02,  9.0303e-03,  1.9316e-03,
          3.2948e-02, -1.6092e-03, -3.9602e-03, -2.5629e-02, -1.0151e-02,
          4.6954e-04,  4.5040e-03,  5.3527e-03, -1.2996e-03, -2.4301e-02,
         -1.0692e-02, -1.6604e-02,  6.5422e-03, -5.2449e-04,  3.2421e-02,
          2.1315e-02, -7.2809e-04, -1.3010e-02, -1.1756e-02,  7.9152e-04,
          2.5108e-02, -3.4191e-02,  7.7845e-03,  1.7093e-03, -1.8971e-02,
          8.6014e-03,  6.1196e-02,  1.2009e-02,  1.6423e-03, -1.3631e-02,
         -2.5757e-03, -3.0119e-02,  1.0970e-02,  1.6826e-02,  8.5796e-03,
         -2.8670e-02, -8.1508e-03, -1.8570e-02,  1.5450e-02,  1.4517e-03,
          2.6010e-03,  9.3593e-03,  3.5904e-02,  3.6592e-02, -4.8954e-03,
          8.8888e-03,  8.1111e-05,  4.8042e-03, -2.1550e-02,  4.9723e-03,
          3.7820e-03,  3.0836e-02,  1.1233e-02, -8.4091e-03,  9.1831e-05,
         -8.7714e-03, -2.6714e-03,  3.7276e-03, -1.5006e-02,  8.4602e-03,
         -1.2328e-02,  2.0552e-02, -7.1954e-03,  1.5148e-03,  3.0425e-02,
          5.8018e-03,  9.2706e-04,  1.4156e-02, -2.0199e-02, -1.5095e-02,
         -2.6526e-02, -1.1163e-02, -8.6367e-03,  3.3951e-02, -3.0786e-02,
         -2.6587e-02,  4.3362e-03, -9.2115e-03, -3.2358e-02,  1.6344e-02,
          1.6836e-02, -1.1046e-02, -1.8054e-02, -3.4168e-03,  1.8047e-02,
         -4.3521e-02,  2.5801e-03,  1.6448e-02,  4.6878e-02, -3.3421e-03,
         -9.4555e-03,  1.3030e-02, -8.6998e-03,  1.3981e-02,  1.3257e-02,
         -3.1546e-02,  2.7142e-02,  8.7305e-03,  5.3162e-03,  2.8415e-02,
         -9.4657e-03,  1.7552e-02, -9.0116e-03, -8.2301e-03,  5.9117e-03,
         -4.7509e-02, -4.3137e-02,  1.2931e-02, -1.7727e-02, -2.7312e-02,
         -2.0468e-02,  1.6112e-02, -5.8936e-03,  3.4797e-02, -4.0712e-03,
         -2.2620e-03,  1.0265e-02]])
