Weights: 
embeddings.embeddings.0.weight tensor([[-0.0177,  0.4731],
        [ 0.5035,  0.1509],
        [ 0.2740,  0.2025],
        [ 0.0893, -0.1889]])
embeddings.embeddings.1.weight tensor([[ 0.4363,  0.6047],
        [ 0.2566, -0.2536],
        [-0.5710,  0.5024],
        [-0.3953,  0.3773],
        [ 0.4835,  0.3554]])
embeddings.embeddings.2.weight tensor([[-0.0069,  0.3016, -0.2810],
        [ 0.3945, -0.0065,  0.3096],
        [ 0.3343,  0.3002,  0.1670],
        [-0.2665,  0.4304,  0.0564],
        [ 0.1524,  0.2794,  0.0643],
        [-0.1346, -0.0038, -0.2797]])
embeddings.embeddings.3.weight tensor([[ 0.5016, -0.5523],
        [ 0.5514,  0.1134],
        [ 0.1924, -0.1603],
        [-0.6287,  0.5660]])
embeddings.embeddings.4.weight tensor([[-0.4286,  0.5607],
        [-0.0134, -0.0986],
        [-0.1519,  0.4474],
        [-0.2241,  0.0725]])
mlp.net.0.linear.weight tensor([[-0.1498,  0.2463,  0.1059,  ..., -0.0220,  0.1329,  0.6896],
        [-0.0474,  0.0513,  0.4955,  ...,  0.5188, -0.1525, -0.2567],
        [ 0.1061,  0.5439, -0.0279,  ..., -0.5918,  0.0653, -0.2012],
        ...,
        [ 0.4845,  0.2449, -0.0766,  ...,  0.2375, -0.1249,  0.0390],
        [ 0.0677,  0.2169,  0.1596,  ..., -0.0093,  0.1903, -0.1805],
        [ 0.2696,  0.0450,  0.4908,  ...,  0.5140,  0.1890, -0.3294]])
mlp.net.0.linear.bias tensor([-1.5563e-01,  5.3753e-03,  4.2629e-02,  7.0469e-02,  8.0414e-02,
         1.5601e-01,  1.1749e-03, -2.1061e-01,  2.8119e-02, -2.0929e-01,
         1.2504e-01,  1.2470e-01,  6.0765e-02, -1.2515e-01, -2.1742e-01,
         9.4357e-02, -1.8287e-01,  1.5247e-01,  1.3167e-01, -1.9572e-01,
        -1.2510e-02, -2.1724e-01,  1.2429e-01,  8.8714e-02, -1.2303e-01,
         1.0762e-01,  1.6492e-01,  6.1076e-02, -1.1561e-01, -3.2877e-02,
         1.8043e-01, -1.5833e-01,  9.4769e-03, -6.8185e-02, -1.3710e-02,
         1.1210e-01, -1.2313e-02,  1.6551e-01, -1.4112e-01,  1.0778e-01,
         1.7546e-02,  4.4904e-02, -1.9909e-01,  1.9590e-01, -1.7231e-01,
        -1.2188e-01, -8.4235e-02, -4.6189e-03,  1.7150e-01,  1.5293e-01,
         1.1819e-01, -1.3905e-01, -3.5155e-03,  1.0135e-01, -1.4256e-02,
         1.2753e-01,  1.3207e-01,  1.6074e-01,  1.4055e-01, -1.0949e-01,
        -8.1760e-02,  1.6817e-01,  1.6709e-01, -5.4482e-02, -1.5003e-01,
         1.1377e-01,  2.1172e-01,  1.5172e-01, -2.0541e-01,  1.9556e-01,
         4.1147e-02, -1.6320e-01,  1.5750e-01, -8.6750e-02,  8.6024e-02,
         1.8272e-02, -1.6847e-01, -1.6865e-01,  1.3269e-02,  4.5266e-02,
        -5.0766e-02,  3.4551e-03,  8.9626e-02,  1.3972e-01,  1.9017e-01,
         3.2678e-02,  5.0221e-02,  1.3751e-01, -1.3938e-01,  8.9648e-02,
        -9.9632e-02, -1.3850e-01, -7.5225e-02,  1.0869e-01,  1.6817e-01,
         2.4533e-02,  5.6435e-02, -1.6962e-01, -2.0064e-01, -1.7812e-01,
         1.1023e-02, -1.3893e-01,  1.8618e-01,  1.4156e-01, -1.3352e-01,
         1.5776e-02, -7.4900e-02, -2.3690e-02, -1.9275e-02, -7.8657e-02,
        -1.3666e-01,  1.0924e-01,  1.0586e-01, -9.4934e-02,  1.7898e-01,
        -4.3930e-02, -1.2327e-01, -1.7341e-01,  3.8207e-02,  7.3928e-02,
         1.3827e-01, -2.5488e-02,  1.6563e-01, -1.0350e-01,  3.9997e-02,
         1.2755e-01, -3.0574e-02, -3.1772e-04, -1.1729e-01, -1.1267e-01,
         9.9363e-03, -8.7507e-02,  1.8216e-01, -1.6614e-01,  2.0032e-01,
        -7.7745e-02,  7.1396e-02, -2.7145e-02, -1.3980e-01,  3.0347e-02,
         6.2956e-03, -1.8641e-01,  1.2056e-01,  4.6391e-03, -5.0942e-02,
         1.1025e-01,  1.1923e-02, -5.1798e-02, -1.8385e-02, -5.4707e-02,
         1.7995e-01, -1.6010e-01, -8.7209e-02,  2.1791e-01, -1.9791e-01,
         5.2055e-02,  1.1338e-01,  1.3230e-01, -5.5492e-02, -1.6285e-01,
        -1.3108e-01, -4.5121e-02, -1.4599e-01, -1.3566e-01,  1.4016e-01,
        -1.3290e-01,  2.1525e-01, -4.0334e-02,  1.1323e-01, -8.7507e-02,
         9.5984e-02,  1.8594e-01, -4.0489e-02,  1.0779e-01, -4.7442e-02,
        -2.0310e-01, -3.6505e-02,  7.0941e-03,  9.1815e-02,  1.3058e-01,
        -1.9237e-01,  1.2582e-02, -1.2869e-01,  5.9019e-03, -1.5813e-01,
         4.9137e-02, -1.2698e-01, -8.2242e-02,  1.8814e-01, -1.6626e-01,
        -8.6903e-02, -2.7997e-02, -1.0992e-01, -1.5396e-01,  8.2311e-02,
         1.4769e-01,  9.9035e-02, -1.2896e-01, -9.5342e-05,  1.6831e-01,
        -7.4113e-02,  1.1372e-01, -3.0754e-02, -2.0163e-01,  8.8136e-02,
        -1.2019e-01, -1.8739e-01,  8.9264e-02,  8.7158e-02,  3.9478e-02,
        -1.0373e-01,  1.0692e-01,  1.9852e-01,  1.8681e-01, -5.8356e-02,
         4.9942e-02,  9.1931e-02,  1.5562e-01,  1.6270e-01,  1.7315e-01,
        -9.5473e-02, -8.5018e-02, -2.0874e-01, -9.8631e-02,  9.4457e-02,
        -1.2256e-01, -8.2591e-02,  5.5731e-02,  1.0849e-01,  1.1207e-01,
        -1.5314e-01,  3.3753e-02, -1.3861e-01, -1.5781e-01, -2.0519e-01,
        -1.3409e-01,  1.3043e-01,  1.6408e-01, -7.5580e-02, -1.1361e-01,
        -7.1013e-03,  1.5790e-01, -9.4889e-02,  1.3652e-01,  1.8813e-01,
         1.9411e-01,  1.6384e-01, -4.8903e-02, -1.7330e-01, -9.9493e-02,
        -1.4024e-01, -1.5396e-01, -1.8122e-03, -5.9319e-02,  2.8378e-02,
         1.4719e-01,  1.3471e-01, -8.3815e-02, -9.5671e-02, -2.1121e-01,
        -1.2724e-01, -8.9188e-02,  9.4826e-03, -4.4496e-02, -2.8942e-02,
        -1.9414e-01, -5.9058e-02,  9.3331e-02,  1.3008e-01,  2.0501e-01,
        -4.9035e-02, -2.0701e-01, -1.9558e-01,  6.8099e-02,  1.8795e-01,
        -7.4035e-02, -1.2489e-01,  6.5460e-02, -6.1135e-02,  1.5954e-01,
         1.9729e-01, -1.2642e-01, -2.9216e-02, -1.2026e-01, -1.5838e-01,
        -8.0853e-03, -1.3015e-01,  1.6073e-01,  8.5361e-02,  6.3089e-03,
         1.4815e-01, -1.1588e-01, -2.1192e-01, -2.3584e-02, -1.2045e-01,
        -1.8576e-01,  2.0977e-01, -1.3352e-01,  1.5660e-01, -1.3041e-01,
         1.1320e-01,  5.2213e-02,  1.4925e-01, -1.7027e-01, -1.1218e-01,
        -1.4093e-01,  1.9834e-02, -2.1558e-01,  1.4185e-01,  7.7098e-03,
        -2.1694e-02,  2.0217e-01,  3.4043e-03, -2.0766e-01,  1.4726e-01,
        -1.0920e-01, -1.2690e-01,  1.7405e-01,  7.8081e-02, -1.7640e-01,
        -1.1430e-01, -5.8550e-02,  2.1685e-02, -9.2760e-03, -2.1781e-01,
        -3.7314e-02,  9.5064e-02, -1.7740e-01, -1.8756e-01, -7.1018e-02,
         1.0452e-01, -1.1994e-01, -1.6538e-01, -2.0980e-01,  1.0738e-01,
         1.6816e-01,  9.4231e-02, -1.7645e-01,  2.9631e-02,  2.9361e-02,
        -1.3801e-01, -1.1062e-01,  9.0416e-02, -9.2253e-02,  2.8397e-02,
         3.5703e-02,  2.0868e-01,  5.0987e-02, -1.4789e-01, -7.0593e-02,
         1.2037e-01, -1.6167e-01, -1.2618e-01,  1.6134e-01,  8.9062e-02,
         1.8038e-01, -1.1698e-01,  2.2030e-02,  1.3525e-01, -3.0865e-03,
        -9.8329e-02, -8.8858e-02, -1.3825e-01,  6.8336e-02, -1.7809e-01,
        -1.8400e-01,  1.0551e-01,  7.0519e-02,  1.9196e-01, -1.9068e-02,
        -3.2344e-02,  2.0998e-01, -3.2376e-02,  6.6021e-02,  2.4122e-03,
         1.3800e-01, -1.6552e-01, -1.2550e-01, -1.8879e-01,  1.2939e-01,
         2.0482e-01,  9.1526e-03, -1.0785e-01,  1.6265e-01, -1.4975e-01,
        -9.1252e-02, -5.6695e-02, -1.0325e-01,  8.9935e-02,  9.6891e-02,
         2.1374e-01, -2.5189e-02, -7.4356e-02,  9.1624e-02, -5.9157e-02,
        -1.4528e-01,  2.1856e-01, -5.3821e-02,  1.3235e-01, -4.7442e-02,
         1.7693e-02, -8.0435e-02, -2.0463e-01, -2.1468e-01, -9.8678e-02,
         3.6726e-02,  1.8141e-01,  1.4190e-01, -1.1861e-02,  4.0433e-02,
        -2.1792e-01, -2.1224e-01, -5.1127e-03,  1.4739e-01,  1.7705e-01,
        -2.0934e-01,  1.6460e-01,  1.1131e-01, -1.9330e-01, -9.3686e-02,
        -1.4696e-01,  2.0499e-01, -9.6104e-02, -4.0504e-02, -6.7008e-02,
        -6.6578e-02, -1.1066e-01, -1.1431e-01,  2.9213e-02, -1.7750e-01,
        -1.2102e-01, -8.4756e-02,  3.3688e-02,  1.9198e-01,  9.6577e-02,
         1.2922e-01, -1.1255e-01,  3.8357e-02, -9.5240e-02, -8.7973e-02,
         3.5814e-02,  6.9275e-02, -1.0951e-01, -2.1026e-02,  1.3673e-02,
        -1.3266e-01, -2.0400e-02,  1.5092e-01, -1.7786e-01, -1.9234e-01,
        -1.5947e-01, -2.1472e-01, -7.0636e-02,  2.2378e-02,  1.0052e-01,
        -6.9977e-02,  1.7165e-01, -1.5308e-01, -6.6751e-02, -1.2884e-01,
         6.6817e-02, -4.2291e-02, -6.5033e-02, -6.2326e-02, -7.8302e-02,
         1.5351e-01,  1.5602e-01,  2.2345e-02, -1.6389e-01, -7.2007e-02,
        -1.7016e-02, -1.3537e-01,  8.6443e-02,  9.3420e-02,  1.6048e-01,
        -3.8548e-02, -8.6670e-02, -1.4385e-01, -1.2882e-01,  7.9804e-02,
         1.0831e-01,  1.0459e-01, -1.0281e-01, -6.6884e-02,  3.9278e-02,
        -2.0885e-01, -1.1932e-01,  1.2096e-01, -1.6488e-01,  9.9704e-02,
         1.5266e-01, -1.8076e-01,  7.5717e-02,  2.1880e-01, -1.7952e-01,
        -1.4376e-01,  9.5722e-02,  1.4787e-02, -8.6563e-02, -1.5659e-01,
        -3.8437e-02, -6.5971e-02, -1.1361e-01, -6.3464e-02, -2.7672e-02,
         8.7184e-02, -1.8991e-01, -1.9206e-01,  1.3381e-01,  6.1249e-02,
         1.0049e-01,  2.0015e-01])
mlp.net.0.batch_norm.weight tensor([0.9565, 0.9550, 0.9509, 0.9459, 0.9540, 0.9529, 0.9499, 0.9518, 0.9557,
        0.9549, 0.9500, 0.9495, 0.9527, 0.9496, 0.9571, 0.9555, 0.9544, 0.9519,
        0.9447, 0.9554, 0.9544, 0.9533, 0.9603, 0.9569, 0.9523, 0.9511, 0.9563,
        0.9548, 0.9629, 0.9521, 0.9622, 0.9568, 0.9567, 0.9529, 0.9521, 0.9464,
        0.9540, 0.9496, 0.9497, 0.9499, 0.9490, 0.9576, 0.9535, 0.9496, 0.9569,
        0.9544, 0.9465, 0.9594, 0.9551, 0.9526, 0.9553, 0.9541, 0.9530, 0.9496,
        0.9533, 0.9491, 0.9457, 0.9539, 0.9525, 0.9573, 0.9500, 0.9508, 0.9588,
        0.9554, 0.9464, 0.9495, 0.9537, 0.9557, 0.9528, 0.9578, 0.9521, 0.9497,
        0.9526, 0.9582, 0.9505, 0.9554, 0.9509, 0.9581, 0.9587, 0.9529, 0.9455,
        0.9557, 0.9538, 0.9524, 0.9529, 0.9522, 0.9509, 0.9580, 0.9555, 0.9513,
        0.9556, 0.9534, 0.9581, 0.9533, 0.9578, 0.9564, 0.9529, 0.9575, 0.9496,
        0.9528, 0.9546, 0.9522, 0.9492, 0.9532, 0.9568, 0.9494, 0.9580, 0.9490,
        0.9556, 0.9490, 0.9555, 0.9537, 0.9549, 0.9503, 0.9579, 0.9491, 0.9534,
        0.9533, 0.9525, 0.9515, 0.9476, 0.9572, 0.9567, 0.9523, 0.9522, 0.9491,
        0.9573, 0.9582, 0.9500, 0.9604, 0.9494, 0.9521, 0.9454, 0.9533, 0.9526,
        0.9553, 0.9515, 0.9536, 0.9486, 0.9490, 0.9512, 0.9551, 0.9476, 0.9555,
        0.9578, 0.9550, 0.9496, 0.9559, 0.9526, 0.9459, 0.9534, 0.9511, 0.9539,
        0.9573, 0.9460, 0.9483, 0.9565, 0.9540, 0.9558, 0.9528, 0.9505, 0.9522,
        0.9548, 0.9536, 0.9557, 0.9531, 0.9520, 0.9546, 0.9593, 0.9547, 0.9635,
        0.9525, 0.9533, 0.9581, 0.9559, 0.9586, 0.9515, 0.9553, 0.9549, 0.9496,
        0.9588, 0.9511, 0.9511, 0.9528, 0.9604, 0.9588, 0.9483, 0.9555, 0.9486,
        0.9541, 0.9553, 0.9575, 0.9601, 0.9521, 0.9466, 0.9512, 0.9533, 0.9554,
        0.9547, 0.9545, 0.9609, 0.9504, 0.9517, 0.9528, 0.9528, 0.9528, 0.9534,
        0.9580, 0.9533, 0.9499, 0.9513, 0.9526, 0.9480, 0.9446, 0.9488, 0.9450,
        0.9537, 0.9581, 0.9490, 0.9561, 0.9609, 0.9488, 0.9552, 0.9525, 0.9533,
        0.9554, 0.9495, 0.9586, 0.9558, 0.9549, 0.9583, 0.9533, 0.9543, 0.9586,
        0.9461, 0.9536, 0.9523, 0.9507, 0.9479, 0.9527, 0.9611, 0.9516, 0.9525,
        0.9507, 0.9578, 0.9584, 0.9537, 0.9478, 0.9647, 0.9529, 0.9530, 0.9564,
        0.9489, 0.9510, 0.9529, 0.9580, 0.9542, 0.9546, 0.9498, 0.9541, 0.9583,
        0.9514, 0.9533, 0.9520, 0.9507, 0.9532, 0.9535, 0.9531, 0.9545, 0.9542,
        0.9523, 0.9478, 0.9575, 0.9603, 0.9587, 0.9590, 0.9567, 0.9536, 0.9551,
        0.9529, 0.9514, 0.9527, 0.9530, 0.9546, 0.9543, 0.9525, 0.9608, 0.9532,
        0.9608, 0.9521, 0.9530, 0.9617, 0.9539, 0.9537, 0.9528, 0.9566, 0.9498,
        0.9520, 0.9490, 0.9537, 0.9552, 0.9597, 0.9552, 0.9527, 0.9530, 0.9482,
        0.9516, 0.9556, 0.9550, 0.9550, 0.9531, 0.9589, 0.9604, 0.9578, 0.9564,
        0.9535, 0.9552, 0.9590, 0.9551, 0.9515, 0.9567, 0.9568, 0.9539, 0.9520,
        0.9490, 0.9418, 0.9555, 0.9613, 0.9548, 0.9509, 0.9509, 0.9570, 0.9511,
        0.9546, 0.9576, 0.9589, 0.9556, 0.9554, 0.9521, 0.9549, 0.9535, 0.9536,
        0.9590, 0.9486, 0.9539, 0.9505, 0.9578, 0.9521, 0.9525, 0.9551, 0.9533,
        0.9533, 0.9546, 0.9541, 0.9554, 0.9537, 0.9585, 0.9591, 0.9507, 0.9540,
        0.9524, 0.9497, 0.9533, 0.9553, 0.9533, 0.9470, 0.9545, 0.9593, 0.9497,
        0.9562, 0.9462, 0.9556, 0.9565, 0.9517, 0.9513, 0.9553, 0.9527, 0.9532,
        0.9559, 0.9485, 0.9500, 0.9554, 0.9528, 0.9492, 0.9513, 0.9533, 0.9485,
        0.9489, 0.9551, 0.9534, 0.9545, 0.9549, 0.9620, 0.9526, 0.9541, 0.9461,
        0.9578, 0.9540, 0.9509, 0.9459, 0.9529, 0.9511, 0.9552, 0.9479, 0.9560,
        0.9613, 0.9515, 0.9584, 0.9533, 0.9526, 0.9509, 0.9476, 0.9534, 0.9548,
        0.9634, 0.9533, 0.9532, 0.9553, 0.9524, 0.9547, 0.9528, 0.9508, 0.9520,
        0.9484, 0.9526, 0.9492, 0.9541, 0.9544, 0.9593, 0.9519, 0.9640, 0.9491,
        0.9559, 0.9533, 0.9464, 0.9539, 0.9549, 0.9531, 0.9551, 0.9609, 0.9541,
        0.9567, 0.9553, 0.9541, 0.9610, 0.9580, 0.9473, 0.9510, 0.9552, 0.9483,
        0.9545, 0.9579, 0.9531, 0.9530, 0.9536, 0.9555, 0.9567, 0.9531, 0.9574,
        0.9612, 0.9563, 0.9526, 0.9556, 0.9464, 0.9469, 0.9517, 0.9607, 0.9569,
        0.9558, 0.9595, 0.9585, 0.9569, 0.9517, 0.9507, 0.9615, 0.9527, 0.9539,
        0.9533, 0.9496, 0.9510, 0.9575, 0.9556, 0.9482, 0.9518, 0.9594, 0.9521,
        0.9514, 0.9525, 0.9518, 0.9514, 0.9534, 0.9557, 0.9610, 0.9527, 0.9583,
        0.9515, 0.9555, 0.9527, 0.9492, 0.9512, 0.9513, 0.9493, 0.9580, 0.9542,
        0.9584, 0.9531, 0.9536, 0.9512, 0.9491, 0.9537, 0.9518, 0.9562])
mlp.net.0.batch_norm.bias tensor([-1.6551e-03,  5.0623e-03, -2.3397e-03,  7.4006e-04,  1.2517e-04,
        -1.4268e-03,  5.8950e-04, -8.8679e-03,  3.5143e-03, -2.5529e-03,
         5.6582e-03,  3.6164e-03,  2.7653e-03,  6.4731e-03, -3.9107e-03,
        -1.1385e-03, -1.3822e-03, -1.6049e-03,  1.3644e-03,  1.2534e-03,
        -1.6103e-03, -1.6025e-03,  7.3709e-04, -2.3893e-03,  9.5666e-04,
         5.9901e-03, -1.9368e-03,  1.1026e-03,  7.7270e-04, -2.1161e-03,
         1.0172e-03,  6.8497e-04, -8.0982e-03,  2.9913e-03, -4.5031e-03,
         5.9190e-03,  7.0077e-03,  2.8347e-03, -2.3771e-03, -6.1641e-04,
        -5.4046e-03, -2.7670e-03,  5.6418e-03,  2.2212e-03, -8.5500e-03,
         9.6909e-04,  2.5805e-03,  1.8250e-03,  3.5428e-03,  8.0032e-03,
        -1.0282e-02,  4.7389e-03, -1.9046e-03, -8.4149e-03,  2.7902e-03,
         7.2996e-04,  1.4951e-03, -1.5533e-03, -6.4856e-03,  1.5273e-03,
        -2.8368e-03, -4.4051e-03, -1.5883e-03,  3.2233e-03, -1.6590e-03,
         2.6235e-03,  7.0568e-04, -2.3657e-03,  3.6563e-03,  3.2483e-03,
        -8.3645e-03, -2.2950e-03,  1.0805e-03,  5.6230e-03, -9.5981e-05,
        -1.4850e-03, -5.3666e-03, -7.3932e-04, -2.0365e-03, -4.3087e-03,
        -2.4888e-03,  4.8567e-03, -4.7631e-03,  4.1662e-03,  4.2202e-03,
        -4.3216e-03,  4.3707e-03, -3.3653e-04, -3.7866e-03, -3.4948e-03,
        -7.3071e-03, -5.6361e-03, -3.0751e-03, -6.1686e-03,  5.7094e-03,
        -2.2936e-03, -4.8282e-03,  1.0423e-02,  5.4026e-03, -3.2327e-03,
         9.2449e-03, -2.3443e-03,  4.3317e-03, -2.7040e-03,  7.1370e-04,
        -2.3131e-03,  6.5345e-03,  2.2201e-03,  1.6434e-03,  1.0261e-02,
        -6.2739e-04, -5.0284e-04,  2.8319e-04, -4.9983e-03,  3.4526e-03,
        -3.2247e-03,  9.2526e-04, -1.2843e-03, -5.1183e-03, -6.7004e-05,
         1.4269e-03, -1.7641e-03, -3.6070e-03, -4.5945e-03,  1.2448e-03,
        -1.2741e-03, -6.0545e-03,  1.6950e-03, -1.5436e-03, -4.7550e-03,
         7.2399e-03,  3.1479e-03,  4.5892e-03, -4.7255e-03, -3.3847e-03,
         3.3226e-03, -4.3448e-03,  3.3200e-03, -2.8159e-03,  7.5830e-03,
        -1.1759e-02, -2.3883e-04, -2.5711e-03,  3.0794e-03,  2.6102e-03,
        -9.4306e-04, -3.8115e-03, -5.8901e-03,  7.2538e-03,  4.8318e-03,
        -6.6823e-03,  1.6675e-04,  2.3733e-03, -6.4259e-03, -3.2129e-03,
        -5.2307e-03, -2.5458e-03,  8.7766e-03, -1.7163e-03,  7.6821e-03,
         9.0119e-04, -7.4327e-03,  3.0302e-03,  9.7747e-04, -4.3722e-03,
         4.5300e-03,  4.8334e-04,  6.1354e-03, -4.2892e-03, -1.1977e-03,
         5.2208e-03, -2.1867e-03,  1.4114e-03, -2.7975e-04,  6.3816e-04,
         2.8472e-03, -2.3521e-03,  3.6802e-04,  2.5489e-03,  4.5121e-03,
         8.8958e-03,  7.5090e-03, -5.6559e-03, -2.9427e-03,  4.0271e-03,
        -7.4987e-03, -1.9756e-03,  1.6597e-03,  3.3186e-03,  9.7209e-03,
         1.4202e-03,  1.5488e-03, -1.4650e-03, -3.4416e-04,  2.5895e-03,
        -5.7984e-03,  4.2438e-03, -4.9429e-03, -2.7123e-03, -3.0575e-03,
         6.0556e-03,  7.0543e-05,  1.7126e-03,  2.8887e-05, -3.1286e-03,
        -2.3836e-03,  4.4936e-03,  5.6409e-04,  5.2716e-03, -3.3573e-03,
         9.8815e-03, -4.5371e-03,  6.5393e-03, -8.4242e-04, -1.7476e-03,
        -7.0169e-04, -4.6128e-03,  1.5771e-03,  4.8754e-03,  4.8329e-04,
        -1.1633e-03,  6.8858e-03, -1.4488e-03, -6.1908e-03, -2.6312e-04,
         2.2613e-03,  1.0365e-03, -6.9642e-03, -4.7411e-03, -4.1696e-04,
        -2.3009e-03,  5.9587e-04,  1.1916e-03,  1.4383e-03,  6.9118e-03,
         7.1597e-03,  7.8523e-03, -1.7320e-03, -3.5925e-03,  6.7346e-03,
         6.3909e-03,  3.2451e-03, -2.1271e-03, -1.1769e-03, -7.5598e-03,
         2.4757e-03, -6.7222e-03,  1.7769e-03,  1.4667e-03,  1.3763e-03,
        -1.7826e-03, -1.6789e-03, -2.8213e-03, -4.6413e-04, -8.6219e-04,
         5.1678e-04, -5.5606e-03, -4.1995e-03,  7.0904e-03,  1.3952e-03,
         1.1484e-03,  1.2802e-03,  7.5571e-03, -4.1323e-03,  9.4526e-04,
        -8.4543e-03, -4.2608e-03, -3.4046e-04, -3.1610e-03,  5.2838e-03,
        -4.1600e-03,  1.5007e-03, -9.5164e-04, -2.1419e-03,  4.6257e-03,
         9.0178e-04,  8.7599e-04,  3.3145e-03, -1.5179e-03, -3.0037e-03,
         8.4275e-04, -2.2036e-03,  8.9296e-04, -5.1958e-03,  1.2324e-03,
        -2.5518e-03, -2.3421e-03,  1.1115e-03,  4.4372e-03,  1.7181e-03,
         3.4330e-03,  1.6830e-03,  3.5695e-03,  7.1865e-03, -5.7860e-03,
         6.0008e-03,  2.6892e-03, -1.2558e-02, -2.5523e-03, -1.1972e-03,
        -5.4243e-03,  6.9436e-03, -2.7113e-06,  3.1622e-03,  8.6476e-03,
        -8.1781e-03,  5.4561e-03,  6.7999e-03,  5.5731e-03,  1.5838e-03,
         3.1204e-03, -6.7287e-03, -1.8693e-03, -5.0666e-03,  5.1448e-03,
         1.5693e-03,  2.0191e-04,  4.1340e-03,  5.3388e-03, -1.0227e-03,
         4.0477e-03, -2.7541e-03, -6.3725e-03,  4.2755e-03, -2.3980e-03,
         6.0079e-03,  1.0504e-04, -5.9174e-03, -1.6236e-04, -4.7179e-03,
        -8.0406e-03, -2.8761e-03, -6.0057e-04, -2.4252e-03,  2.8856e-03,
        -2.8720e-03, -3.4514e-03,  3.8459e-03,  1.6640e-03,  3.7570e-03,
         2.1815e-03,  8.3862e-03, -3.3740e-03,  5.9107e-03,  1.7263e-03,
         5.0039e-03, -2.8428e-04,  6.8303e-03, -4.9905e-03, -5.0842e-03,
         3.3361e-03,  9.1717e-03, -4.3626e-04,  1.2067e-03, -3.1626e-03,
         2.8390e-05,  1.1436e-03,  1.3002e-03,  5.7191e-03, -1.9644e-04,
        -1.0372e-03, -9.4076e-04,  1.0166e-03,  2.6519e-03, -2.6436e-03,
        -1.0509e-03, -9.7244e-05, -4.7945e-03, -4.2753e-03,  2.0342e-03,
        -2.0863e-03, -2.2776e-04,  5.9743e-03,  1.5630e-03,  1.7102e-03,
        -2.9834e-03,  3.3849e-04, -2.9736e-05, -2.0570e-03,  1.0021e-03,
         8.0495e-04,  2.8427e-03, -3.3918e-03,  6.0337e-03,  1.0057e-04,
         3.1631e-03, -1.1359e-02,  3.3822e-03, -2.7238e-03, -7.9628e-03,
         4.9890e-03, -2.5127e-03, -4.8567e-03,  3.1393e-03, -7.4613e-03,
         4.7853e-03, -2.1206e-03,  3.5618e-03, -1.9036e-03, -4.0793e-03,
         6.6049e-04,  4.8913e-03,  2.1579e-04, -1.2105e-03, -2.6823e-03,
         3.6229e-03,  4.3665e-04,  3.0697e-03, -2.4420e-04,  1.2529e-03,
        -1.7328e-03, -5.7925e-03, -4.5686e-03, -1.7927e-03, -6.9438e-03,
         5.3778e-03,  1.0313e-02,  3.4965e-03, -4.2242e-03, -7.8378e-03,
         1.1649e-03, -1.7196e-03,  7.3405e-04,  2.5016e-03,  5.4538e-03,
        -4.6372e-03,  7.1374e-03, -6.9250e-03, -2.2029e-03, -2.1724e-03,
         1.3308e-03,  2.7122e-03,  6.4179e-04, -4.0109e-04, -4.4860e-03,
        -4.6504e-03,  7.6983e-03,  4.0836e-03, -1.3031e-03,  4.1855e-03,
         4.0425e-03, -4.2075e-03,  2.6277e-03,  2.5129e-04,  3.3836e-03,
         9.9907e-03,  3.4473e-03, -8.1217e-04, -5.6201e-03, -2.2817e-03,
         3.8940e-03, -1.0424e-03, -2.5373e-03, -5.9527e-03, -8.1912e-03,
        -3.7464e-04,  4.7166e-03, -2.6004e-03,  2.8516e-03,  2.6162e-03,
        -3.5060e-03, -3.6556e-03,  3.1684e-03, -9.4622e-04,  2.6254e-03,
        -1.7678e-03, -7.1801e-04,  7.7599e-04,  5.6653e-03,  5.4843e-03,
        -4.2111e-03, -4.1005e-03, -3.9170e-03, -2.1542e-03,  1.5987e-03,
         3.9250e-04,  2.6796e-03, -3.7781e-03,  2.7191e-04, -6.0829e-03,
        -9.2383e-03,  9.7558e-04, -7.7930e-03,  4.1080e-03, -3.8674e-03,
         8.8871e-03,  4.5080e-03,  5.0927e-03,  1.0036e-02, -2.3271e-03,
        -6.1522e-03, -3.4878e-03,  3.0550e-03,  6.7994e-04,  3.0680e-03,
        -7.9933e-03, -3.8902e-03,  4.4387e-04, -2.0946e-03,  2.2286e-03,
        -3.5480e-03,  1.1596e-03,  2.9578e-05,  3.6945e-03,  7.2174e-03,
        -6.3841e-03, -5.0438e-03, -2.7299e-04,  2.3996e-04,  2.1238e-03,
         2.1475e-03,  4.4564e-03])
mlp.net.0.batch_norm.running_mean tensor([9.2119e-02, 9.6262e-01, 1.0838e-01, 9.2092e-01, 4.2900e-01, 1.9724e-01,
        2.9551e-01, 1.4387e-03, 3.3564e-02, 7.0618e-02, 1.3703e-01, 8.9126e-02,
        3.3568e-02, 1.5132e-02, 5.2050e-02, 5.5589e-01, 9.8124e-04, 8.7831e-02,
        2.2370e-01, 4.9364e-03, 4.5920e-02, 0.0000e+00, 4.2638e-02, 1.7652e-02,
        6.2597e-02, 1.3849e-01, 3.7947e-02, 1.2240e-01, 6.3454e-03, 1.7033e-01,
        1.9469e-01, 1.2962e-02, 3.7382e-02, 1.3834e-01, 1.6789e-01, 5.1042e-01,
        2.1847e-02, 1.1641e-01, 7.7252e-01, 7.0124e-02, 4.8107e-03, 9.2431e-01,
        1.8771e-01, 1.9995e-01, 3.4863e-03, 1.7810e-02, 2.5020e-01, 2.8383e-01,
        1.3056e-01, 4.4182e-01, 4.7865e-02, 4.0802e-03, 9.4613e-01, 3.7628e-01,
        2.4995e-01, 3.4108e-02, 2.5275e-01, 4.1752e-01, 1.0801e-01, 1.3420e-01,
        5.4896e-02, 5.4832e-02, 5.9804e-01, 8.6431e-02, 2.2879e-02, 6.2598e-02,
        5.1471e-01, 2.5368e-02, 2.0903e-01, 4.1014e-01, 9.3081e-02, 3.7197e-01,
        9.4229e-01, 1.2786e-02, 3.3924e-03, 1.5514e-01, 4.8622e-01, 7.0124e-01,
        3.9231e-01, 1.0132e+00, 7.1699e-01, 8.0870e-01, 7.1985e-02, 9.5093e-01,
        3.6824e-01, 3.6335e-02, 5.8984e-02, 3.3463e-01, 3.6666e-04, 3.1480e-01,
        1.5244e-01, 2.0039e-01, 6.8385e-01, 3.2185e-03, 3.4412e-01, 2.1130e-03,
        1.8528e-01, 4.6992e-03, 5.3109e-04, 1.9591e-01, 3.7853e-01, 7.6678e-03,
        4.4658e-01, 6.3270e-01, 1.7348e-03, 5.6009e-05, 6.9578e-01, 3.1170e-01,
        7.8272e-02, 1.0585e-02, 2.2677e-01, 1.5400e-01, 9.6030e-02, 4.3030e-01,
        9.0429e-02, 4.4071e-02, 1.1766e-01, 3.3880e-01, 3.2933e-02, 5.3367e-01,
        1.1105e+00, 1.5251e-01, 3.8275e-02, 6.0480e-03, 2.9197e-02, 8.4232e-02,
        5.7327e-01, 1.5426e-01, 1.7816e-01, 1.9107e-02, 8.4428e-02, 5.0313e-01,
        4.3123e-01, 0.0000e+00, 1.7822e-01, 1.4546e-03, 9.2199e-01, 1.7067e-02,
        1.1159e-04, 4.1512e-01, 2.1968e-02, 5.9147e-02, 8.7650e-01, 3.0099e-01,
        2.6946e-02, 2.1352e-01, 9.1461e-01, 1.2613e-04, 5.6884e-02, 7.5619e-01,
        5.3935e-01, 5.5832e-01, 1.1140e+00, 5.1993e-02, 4.3068e-01, 3.0779e-01,
        1.0410e-01, 9.6682e-02, 4.5832e-03, 6.4755e-02, 6.9768e-02, 2.4828e-01,
        3.7750e-01, 3.4611e-01, 1.0150e-01, 2.7583e-01, 2.4532e-01, 3.5996e-01,
        7.4876e-01, 3.4305e-01, 4.4838e-01, 5.1669e-01, 9.3503e-02, 1.3805e+00,
        7.6945e-01, 2.6569e-02, 1.9752e-01, 1.2787e-01, 5.0294e-02, 2.5018e-01,
        8.0240e-04, 1.4664e-02, 4.4130e-01, 3.4791e-01, 1.1533e-03, 4.2423e-02,
        8.3812e-01, 3.1544e-02, 2.6712e-01, 8.0316e-03, 5.8633e-01, 6.9356e-01,
        2.8851e-03, 2.7144e-01, 1.9373e-01, 6.3016e-01, 2.1605e-01, 6.9916e-01,
        2.9134e-01, 1.2447e-01, 2.9012e-03, 2.1043e-01, 2.0849e-01, 1.2383e-02,
        2.9059e-01, 1.0285e-01, 8.9881e-02, 1.6919e-01, 6.5471e-01, 3.4048e-01,
        2.2029e-04, 8.1110e-01, 2.4776e-01, 2.4383e-01, 5.0582e-01, 1.9610e-01,
        1.8185e-01, 4.5827e-02, 6.1980e-01, 6.8609e-01, 4.2663e-03, 1.1698e-01,
        2.3480e-03, 4.0946e-01, 6.8717e-02, 2.1441e-01, 6.3664e-01, 3.8955e-01,
        1.1419e-01, 6.5023e-01, 2.0896e-03, 0.0000e+00, 3.7347e-03, 2.2931e-02,
        1.5348e-01, 7.3807e-01, 5.5447e-02, 4.7903e-01, 7.7334e-02, 5.7841e-03,
        1.6147e-02, 8.9818e-01, 2.9174e-02, 1.8691e-02, 3.9216e-01, 1.8743e-01,
        1.0298e+00, 2.6289e-01, 1.8853e-03, 1.7540e-03, 4.3045e-01, 1.7282e-03,
        9.6032e-02, 2.0530e-01, 2.4874e-01, 2.2358e-02, 6.2825e-02, 1.8734e-01,
        4.6195e-02, 2.2115e-02, 7.5918e-01, 4.7397e-01, 5.0839e-01, 3.1930e-01,
        1.7078e-01, 7.9177e-02, 7.4650e-02, 8.8698e-01, 7.3744e-02, 1.8269e-01,
        7.9473e-01, 3.6792e-03, 3.0697e-01, 7.1803e-04, 6.6655e-02, 2.3759e-01,
        3.4034e-01, 2.6643e-01, 2.9852e-02, 2.4833e-01, 7.5707e-01, 8.2216e-01,
        4.5838e-01, 5.9677e-03, 3.2246e-01, 1.8481e-01, 8.1296e-02, 6.0309e-03,
        7.4968e-04, 3.8581e-01, 1.3629e-01, 4.1191e-01, 5.8374e-01, 1.5724e-01,
        2.0594e-01, 8.0920e-03, 4.4883e-01, 1.1477e-01, 6.4741e-01, 8.5653e-03,
        7.6302e-01, 8.8881e-01, 6.1898e-02, 3.0138e-04, 1.1433e-01, 5.3500e-02,
        1.1557e-01, 1.8078e-01, 3.0669e-01, 5.1964e-01, 3.1016e-01, 3.7092e-01,
        5.4862e-01, 2.8395e-01, 8.1792e-02, 2.1270e-01, 1.1152e+00, 1.0518e-01,
        9.4237e-02, 4.2819e-01, 4.5030e-02, 4.6969e-02, 8.4102e-02, 1.6531e-01,
        1.0765e-01, 4.6183e-01, 9.8667e-02, 4.2483e-02, 5.9522e-01, 3.0245e-01,
        2.2991e-02, 2.0266e-03, 1.4952e-01, 3.3840e-01, 1.1100e-01, 2.6996e-03,
        2.7435e-01, 8.9553e-03, 1.7348e-02, 8.9760e-04, 6.5437e-01, 6.0478e-02,
        4.6280e-01, 3.3539e-01, 1.5354e-01, 1.4698e-01, 4.9214e-01, 6.7966e-01,
        8.5089e-01, 6.2852e-02, 1.8232e-02, 2.4584e-01, 3.5271e-01, 1.3843e+00,
        1.1709e+00, 7.4630e-01, 6.9036e-02, 3.1516e-02, 5.6725e-01, 5.2750e-02,
        9.6271e-02, 3.3809e-01, 8.9117e-02, 2.3477e-01, 2.8883e-01, 2.7371e-01,
        1.1982e+00, 6.5888e-03, 1.0893e-01, 1.7830e-01, 1.5726e-01, 5.3198e-01,
        4.5639e-03, 1.3547e+00, 1.0245e-02, 1.1332e-01, 2.8895e-01, 8.1880e-02,
        1.7933e-04, 3.2161e-01, 1.7180e-01, 9.2719e-01, 1.3140e-01, 4.0631e-01,
        3.7528e-02, 5.3761e-01, 2.0306e-01, 8.7282e-01, 1.6948e-01, 5.6748e-03,
        1.9791e-01, 4.8609e-02, 1.0762e-01, 8.4242e-01, 6.5864e-03, 1.5190e-02,
        1.0458e-01, 1.6793e-01, 1.1076e-02, 1.2049e-06, 5.3705e-02, 3.4443e-01,
        3.1552e-02, 1.4824e-01, 9.9640e-03, 9.7113e-01, 1.7839e-01, 1.2387e+00,
        5.3063e-02, 1.6349e-01, 2.9301e-01, 2.2633e-01, 1.7529e-01, 1.1709e-01,
        1.7239e-01, 1.2071e+00, 7.1911e-01, 3.6389e-02, 3.9791e-01, 3.6432e-03,
        2.5149e-01, 3.7486e-01, 3.7595e-01, 6.8598e-01, 7.4801e-01, 1.5042e-01,
        3.8157e-01, 1.6911e-01, 2.8681e-02, 1.0035e-02, 8.8561e-03, 5.5076e-01,
        2.9744e-02, 6.5005e-01, 1.9504e-02, 2.2994e-01, 2.1458e-01, 9.1883e-02,
        1.7008e-02, 1.2474e-02, 3.4294e-01, 1.3918e-01, 2.9098e-01, 5.0804e-02,
        4.7122e-01, 2.5357e-03, 9.5285e-02, 1.1891e+00, 3.5231e-04, 1.5024e-01,
        6.8327e-01, 3.6252e-02, 8.0092e-01, 2.5876e-03, 5.0749e-01, 3.0052e-01,
        3.5983e-02, 1.6805e-01, 2.2383e-02, 5.6542e-01, 1.8892e-01, 3.2909e-01,
        1.0993e-03, 1.8489e-01, 3.5005e-03, 7.2706e-02, 2.1020e-04, 6.6174e-02,
        7.9487e-03, 5.1163e-04, 9.9373e-03, 2.1423e-01, 1.0944e-01, 8.6071e-01,
        1.2096e+00, 1.0844e+00, 3.2086e-01, 1.8804e-01, 9.6748e-02, 2.6835e-01,
        8.3051e-01, 3.6254e-01, 4.9956e-02, 3.8144e-02, 6.8806e-01, 5.9692e-02,
        1.1695e+00, 7.1875e-01, 3.4217e-01, 3.2619e-01, 2.5146e-01, 3.4886e-01,
        7.8765e-01, 8.6857e-01, 9.0879e-02, 1.8024e-01, 8.7994e-02, 1.8542e-02,
        2.8713e-01, 2.3764e-02, 4.2103e-01, 4.6154e-01, 3.7958e-04, 7.5689e-01,
        5.3330e-01, 8.8867e-01, 1.2932e-01, 8.0257e-02, 5.4021e-01, 8.8085e-01,
        4.3036e-02, 2.8972e-01])
mlp.net.0.batch_norm.running_var tensor([0.0816, 0.2719, 0.0839, 0.1656, 0.1236, 0.1332, 0.1580, 0.0427, 0.0527,
        0.0637, 0.0857, 0.0751, 0.0516, 0.0473, 0.0672, 0.1640, 0.0426, 0.0760,
        0.1032, 0.0433, 0.0578, 0.0424, 0.0556, 0.0490, 0.0727, 0.0960, 0.0534,
        0.0776, 0.0440, 0.1157, 0.0781, 0.0456, 0.0653, 0.1056, 0.1078, 0.2288,
        0.0527, 0.0974, 0.1740, 0.0544, 0.0435, 0.2071, 0.1151, 0.1048, 0.0435,
        0.0467, 0.1320, 0.0995, 0.0935, 0.1837, 0.0583, 0.0440, 0.2235, 0.1926,
        0.1548, 0.0556, 0.1195, 0.2079, 0.0874, 0.0743, 0.0588, 0.0566, 0.1754,
        0.0811, 0.0499, 0.0656, 0.1880, 0.0472, 0.0855, 0.0957, 0.0797, 0.2014,
        0.2101, 0.0463, 0.0435, 0.1008, 0.1796, 0.2601, 0.1842, 0.0885, 0.2855,
        0.2525, 0.0664, 0.3528, 0.2207, 0.0562, 0.0609, 0.1636, 0.0425, 0.2203,
        0.0906, 0.1410, 0.1411, 0.0430, 0.1907, 0.0427, 0.0892, 0.0435, 0.0425,
        0.1093, 0.1386, 0.0445, 0.2691, 0.2208, 0.0426, 0.0424, 0.1793, 0.1026,
        0.0670, 0.0447, 0.1228, 0.0939, 0.0611, 0.2517, 0.0624, 0.0550, 0.0912,
        0.1401, 0.0521, 0.1320, 0.2218, 0.1022, 0.0541, 0.0443, 0.0540, 0.0733,
        0.1832, 0.0889, 0.0918, 0.0480, 0.0643, 0.1762, 0.1738, 0.0424, 0.1079,
        0.0428, 0.4580, 0.0470, 0.0424, 0.2575, 0.0463, 0.0630, 0.1934, 0.1626,
        0.0483, 0.0959, 0.2966, 0.0424, 0.0621, 0.3482, 0.1844, 0.1316, 0.2681,
        0.0569, 0.1255, 0.1591, 0.0972, 0.0770, 0.0438, 0.0576, 0.0666, 0.1302,
        0.1527, 0.1339, 0.0926, 0.1123, 0.1702, 0.1867, 0.1652, 0.1984, 0.2462,
        0.1014, 0.0742, 0.1450, 0.3395, 0.0543, 0.0826, 0.1045, 0.0531, 0.1122,
        0.0425, 0.0477, 0.1682, 0.2170, 0.0427, 0.0557, 0.2016, 0.0613, 0.1352,
        0.0450, 0.2433, 0.2179, 0.0434, 0.1293, 0.1364, 0.1371, 0.1123, 0.3315,
        0.0924, 0.0914, 0.0435, 0.1272, 0.1483, 0.0446, 0.1798, 0.0708, 0.0720,
        0.1267, 0.1494, 0.1391, 0.0424, 0.3036, 0.1124, 0.1300, 0.1508, 0.0975,
        0.1119, 0.0603, 0.2682, 0.1906, 0.0434, 0.0731, 0.0430, 0.1786, 0.0715,
        0.0778, 0.2537, 0.1167, 0.0627, 0.2639, 0.0427, 0.0424, 0.0433, 0.0503,
        0.0793, 0.1655, 0.0691, 0.1920, 0.0815, 0.0445, 0.0454, 0.2181, 0.0516,
        0.0484, 0.1348, 0.1188, 0.2588, 0.1840, 0.0428, 0.0430, 0.1104, 0.0429,
        0.0864, 0.1182, 0.1281, 0.0498, 0.0572, 0.1003, 0.0638, 0.0491, 0.1179,
        0.1521, 0.1350, 0.1468, 0.0995, 0.0718, 0.0688, 0.2025, 0.0621, 0.1241,
        0.3597, 0.0432, 0.1220, 0.0425, 0.0811, 0.1325, 0.1921, 0.0947, 0.0518,
        0.1325, 0.2594, 0.1556, 0.2621, 0.0440, 0.1431, 0.1205, 0.0720, 0.0437,
        0.0425, 0.1391, 0.0835, 0.1706, 0.2408, 0.1122, 0.1021, 0.0437, 0.1163,
        0.0822, 0.2373, 0.0445, 0.2457, 0.1525, 0.0658, 0.0424, 0.0891, 0.0629,
        0.0933, 0.1047, 0.2222, 0.1757, 0.1509, 0.0911, 0.1690, 0.1247, 0.0791,
        0.0914, 0.1963, 0.0878, 0.0663, 0.0994, 0.0566, 0.0559, 0.0765, 0.1197,
        0.0809, 0.2202, 0.0737, 0.0560, 0.1656, 0.1677, 0.0522, 0.0428, 0.0882,
        0.1575, 0.0674, 0.0428, 0.1212, 0.0448, 0.0454, 0.0426, 0.3173, 0.0554,
        0.3235, 0.0998, 0.0849, 0.0799, 0.1524, 0.1495, 0.3387, 0.0649, 0.0478,
        0.1394, 0.1587, 0.2078, 0.2770, 0.1988, 0.0644, 0.0524, 0.0916, 0.0657,
        0.0563, 0.0948, 0.0928, 0.1108, 0.1559, 0.1768, 0.2605, 0.0444, 0.0842,
        0.1061, 0.0966, 0.0854, 0.0437, 0.3522, 0.0449, 0.0776, 0.1215, 0.0641,
        0.0424, 0.1694, 0.0939, 0.3126, 0.0842, 0.1653, 0.0508, 0.1430, 0.1160,
        0.1685, 0.0934, 0.0434, 0.1213, 0.0578, 0.0779, 0.2254, 0.0439, 0.0487,
        0.0866, 0.1178, 0.0451, 0.0424, 0.0570, 0.1922, 0.0488, 0.0902, 0.0464,
        0.3144, 0.1197, 0.4743, 0.0564, 0.1047, 0.1350, 0.0961, 0.0925, 0.0865,
        0.1012, 0.2744, 0.3653, 0.0543, 0.1846, 0.0428, 0.1214, 0.2212, 0.1549,
        0.1737, 0.2451, 0.0986, 0.1579, 0.0860, 0.0507, 0.0456, 0.0440, 0.2172,
        0.0588, 0.4278, 0.0509, 0.1153, 0.1043, 0.1024, 0.0475, 0.0468, 0.1589,
        0.1072, 0.1663, 0.0610, 0.1787, 0.0431, 0.0894, 0.1892, 0.0425, 0.0879,
        0.1791, 0.0528, 0.1339, 0.0429, 0.2545, 0.1701, 0.0503, 0.1327, 0.0458,
        0.1260, 0.0870, 0.1705, 0.0425, 0.0939, 0.0433, 0.0608, 0.0424, 0.0683,
        0.0445, 0.0425, 0.0445, 0.1128, 0.1024, 0.3564, 0.1874, 0.3910, 0.1357,
        0.1149, 0.0799, 0.1277, 0.1643, 0.1102, 0.0576, 0.0535, 0.1073, 0.0743,
        0.1724, 0.4217, 0.1367, 0.1556, 0.1654, 0.2236, 0.1229, 0.3437, 0.0744,
        0.0821, 0.0703, 0.0506, 0.0994, 0.0536, 0.1383, 0.1933, 0.0424, 0.3168,
        0.2382, 0.1899, 0.1223, 0.0716, 0.2713, 0.1579, 0.0542, 0.1676])
mlp.net.0.batch_norm.num_batches_tracked tensor(30)
mlp.net.1.linear.weight tensor([[ 0.0354,  0.0226, -0.0463,  ...,  0.0455,  0.0820,  0.0186],
        [-0.0579,  0.0095,  0.0698,  ..., -0.1333, -0.0910, -0.0712],
        [ 0.0357, -0.0010,  0.0190,  ..., -0.0449,  0.0201, -0.0286],
        ...,
        [-0.0334, -0.0511,  0.0269,  ..., -0.0329,  0.0408,  0.0942],
        [-0.0320, -0.0695, -0.0341,  ...,  0.0366, -0.0216,  0.1004],
        [ 0.0555,  0.0161,  0.0011,  ...,  0.0003, -0.0067,  0.0105]])
mlp.net.1.linear.bias tensor([-2.5981e-02,  7.4622e-03,  1.0601e-02,  4.7116e-03,  2.4370e-02,
         2.3089e-02, -1.1466e-02, -4.2143e-02,  2.3033e-02, -8.5881e-03,
        -1.9492e-02, -2.8766e-02, -3.5113e-02,  1.5640e-02, -5.5582e-03,
        -1.2613e-02,  2.6992e-02,  7.1493e-03, -4.3042e-02,  4.1593e-03,
         9.3780e-03, -1.0376e-02,  3.7931e-02,  2.8880e-02, -1.7832e-03,
        -4.0987e-02, -1.2237e-02,  1.6960e-03,  1.8083e-02,  1.9404e-02,
        -3.4322e-02,  3.4177e-02, -2.6754e-02, -2.4549e-02,  1.1863e-02,
         1.0234e-02, -4.0804e-02, -5.5496e-03,  2.0457e-02,  3.3390e-02,
         2.1653e-02,  1.9120e-02,  1.9052e-03, -2.9613e-02, -2.9929e-02,
        -4.8938e-03,  3.5405e-02, -2.9184e-02, -3.7069e-02, -3.5406e-02,
        -6.2675e-03,  1.9682e-02,  2.1318e-03, -4.7427e-03,  1.9080e-02,
        -1.0526e-02,  2.7295e-02,  5.9081e-03, -1.2582e-02,  3.7639e-02,
        -2.8220e-02, -4.2495e-02, -5.2712e-04, -4.6929e-02, -2.7024e-02,
         6.3010e-03,  1.3967e-02, -3.2341e-02, -1.7286e-02,  1.0280e-02,
         2.7048e-02, -3.5635e-02, -6.0480e-03,  3.5487e-03,  1.4038e-02,
         2.0834e-02, -1.6711e-02, -2.6158e-02,  1.8578e-02, -1.3414e-02,
         2.0674e-02, -7.3530e-03, -4.6599e-02,  2.6323e-02,  5.6358e-03,
        -3.1058e-02, -3.2316e-02,  3.3825e-02,  2.3632e-03,  7.2443e-03,
        -1.1755e-02, -2.1879e-02, -1.0870e-02,  1.8121e-02, -3.5189e-02,
        -3.8599e-02,  7.7077e-03,  5.0520e-03, -6.6480e-03, -3.4831e-03,
         8.8268e-03, -2.2761e-02,  2.5800e-02,  1.3319e-02, -3.7302e-02,
         2.6150e-02, -6.8983e-03,  9.5899e-03,  2.1753e-02, -9.7899e-03,
        -2.1824e-02, -1.9689e-02,  1.0733e-02,  1.0120e-02, -9.0868e-03,
        -3.8643e-02,  2.1335e-02, -3.5370e-02,  1.3813e-02,  1.9880e-02,
        -4.4408e-02, -6.3501e-03, -2.7881e-02, -6.4146e-03, -1.5040e-02,
        -7.4135e-03, -4.1750e-02, -1.4662e-02,  2.8056e-02,  1.7901e-03,
        -1.1397e-02,  8.1656e-03,  7.9997e-03, -2.7401e-02, -3.5380e-02,
        -3.2172e-03,  8.4022e-03,  2.6511e-02,  7.5034e-03,  2.7725e-02,
         1.3114e-02, -3.9495e-02,  1.5876e-02,  1.9431e-02, -3.2515e-02,
        -3.4644e-02,  1.2999e-02, -2.4914e-02, -1.5047e-03,  3.6107e-02,
         4.0919e-02,  1.6428e-02,  4.0956e-02,  3.4156e-03, -2.2479e-02,
        -8.1280e-03,  2.7445e-02, -3.0636e-02, -2.1138e-03,  2.0001e-02,
        -3.4078e-02, -6.0117e-03,  3.6006e-02, -4.2271e-02, -4.1215e-02,
        -5.0899e-03, -1.6623e-02,  2.5424e-02, -1.2573e-02,  8.2350e-03,
        -2.7361e-02, -1.1847e-02,  8.4823e-03, -2.3996e-02,  1.6593e-03,
        -1.6119e-02, -3.4234e-02, -2.9288e-02, -2.1521e-02, -4.9568e-03,
        -3.5446e-02, -1.5319e-02, -1.2442e-02,  1.0000e-02, -2.1772e-03,
        -2.1498e-02,  3.8150e-02,  2.7004e-02,  2.5384e-02,  1.8258e-02,
         3.7874e-02, -1.5600e-02, -3.3602e-02, -2.5437e-02,  2.7969e-02,
        -1.4445e-02, -3.8101e-02, -5.2464e-03, -3.4474e-02, -3.3177e-02,
        -9.7332e-03,  3.8811e-02, -1.3828e-02, -2.3552e-02,  7.1457e-04,
        -9.6921e-03,  2.5047e-02,  2.7207e-02, -3.0091e-02, -1.3755e-02,
        -1.3722e-02, -3.6362e-02, -3.0449e-02,  2.1267e-02,  2.5826e-02,
         3.5443e-02,  1.2348e-02,  8.9082e-04,  1.4992e-02, -4.2524e-02,
        -3.3203e-02,  2.2455e-02,  3.2164e-02, -1.3237e-02, -3.3596e-02,
         2.9204e-02, -1.9760e-02,  5.0985e-03, -1.6636e-02,  2.9859e-02,
        -1.6715e-02,  9.1473e-03,  2.5524e-02,  5.4360e-03,  1.0583e-02,
         2.6509e-03,  3.0789e-03,  3.0769e-02, -3.7857e-02,  3.4103e-02,
         1.5302e-02, -2.8061e-02,  3.7600e-02,  3.0908e-03,  2.1228e-02,
        -1.9485e-02,  3.9962e-02,  3.5394e-03, -7.9087e-03, -4.1667e-02,
        -3.8797e-02, -2.0805e-02,  4.2068e-03,  1.0523e-02,  1.1144e-02,
        -6.8716e-03,  1.2016e-02, -4.1077e-02,  2.6366e-02,  2.8984e-03,
        -2.4220e-02, -1.0893e-02, -2.7043e-02, -1.6874e-02, -2.8411e-02,
         2.2737e-02,  2.6426e-02, -3.1506e-02,  2.8327e-02,  4.0809e-02,
         2.1278e-02, -2.2849e-02,  8.9221e-03, -5.0270e-03, -3.5536e-02,
        -3.2654e-02,  1.8050e-02,  2.3255e-02, -3.8254e-02,  2.5243e-02,
        -2.9877e-02, -1.5324e-02, -3.3814e-02, -3.2820e-02,  5.8187e-03,
        -3.3085e-02, -1.1968e-02, -4.5897e-03,  7.6353e-03,  1.8790e-02,
         1.4282e-02,  1.4240e-02,  2.2274e-02,  2.7067e-02, -3.5362e-02,
        -9.7466e-03,  4.0011e-02, -3.2050e-02,  2.7396e-02, -1.8127e-02,
         1.9557e-02, -1.2091e-02,  3.0228e-02, -2.9135e-02,  1.4074e-02,
         3.0604e-03, -2.0917e-03, -4.3424e-02, -3.1131e-02,  2.0198e-02,
        -7.7524e-03, -2.3366e-02, -3.5151e-02, -8.8071e-03,  1.1955e-02,
         1.0423e-02, -4.0239e-05,  1.3787e-02,  3.7026e-02,  3.0002e-02,
         8.4415e-03,  2.2726e-02,  1.2480e-02,  1.6621e-02,  1.8306e-02,
        -3.0742e-03, -3.6251e-02,  1.3186e-02, -2.7668e-02,  7.9127e-03,
         9.3346e-03,  9.8679e-03, -3.9348e-02,  2.3861e-02,  3.0992e-02,
        -4.0112e-02,  2.4356e-02, -2.0137e-02, -3.3231e-03, -3.5912e-02,
         2.1945e-02, -3.4987e-02, -1.3533e-02, -1.5266e-02,  3.1421e-03,
         1.5177e-02,  2.1889e-02, -4.0065e-02,  3.7625e-02,  1.5964e-02,
        -1.6565e-02, -9.6835e-03, -2.9274e-02,  3.8408e-02,  2.5104e-02,
        -9.6688e-03,  4.4934e-02, -4.1145e-02,  3.8292e-02,  6.4826e-03,
         2.8752e-02, -6.6267e-03,  3.9363e-02,  2.9330e-02,  2.5318e-02,
         2.1039e-02,  1.9171e-02, -4.3784e-02,  2.3318e-02,  3.6578e-03,
        -2.9741e-02,  2.7218e-02,  1.6921e-02,  1.6442e-02, -2.3251e-02,
        -3.2698e-02,  1.7102e-02, -9.2011e-03, -2.9312e-02,  1.3582e-02,
        -5.8298e-03,  1.7814e-02,  2.4634e-02, -2.6226e-02,  8.1125e-03,
         1.1205e-02,  1.5715e-02, -6.6184e-03, -3.6704e-02,  2.5902e-02,
         2.5689e-02,  2.2221e-02,  3.4405e-02,  2.1111e-02,  1.0963e-02,
         3.4516e-02,  3.7380e-03,  3.2952e-02, -4.4276e-02,  1.0870e-03,
         2.0389e-02, -2.8730e-02, -2.1863e-02,  3.4153e-02, -3.3725e-02,
         3.8313e-03,  2.2824e-02, -2.0493e-02, -2.8231e-03, -4.5874e-03,
        -2.2453e-02,  3.4244e-02, -3.6182e-02,  8.6897e-03,  8.6617e-03,
         5.7368e-03,  1.6654e-02, -3.0038e-02,  4.1153e-04,  3.1434e-02,
        -3.3437e-02,  1.3032e-02,  3.4740e-02, -2.2370e-02, -8.4141e-03,
        -3.0172e-02, -1.0952e-02, -8.4717e-03,  2.5768e-02,  1.4290e-02,
         7.9510e-03, -4.3679e-03,  1.3639e-02,  4.0826e-02, -3.3766e-02,
         6.2885e-03, -3.4059e-02, -2.9608e-02, -2.4407e-03, -2.3323e-02,
        -6.9490e-03,  3.1824e-02,  1.5680e-02,  2.9432e-02,  1.5151e-02,
         3.6443e-02,  2.8544e-02, -4.6146e-02, -1.3108e-02, -4.0339e-02,
         8.4747e-03,  3.1514e-02, -2.8808e-02,  1.4918e-03,  1.6446e-02,
        -5.1450e-03,  2.9029e-02, -3.3487e-02, -2.2707e-02, -1.2468e-02,
        -4.4602e-02,  3.6827e-02, -1.5354e-02,  2.4878e-02,  2.5151e-02,
        -2.9752e-02,  3.2282e-02, -3.5673e-03, -1.4711e-02,  2.5236e-02,
         2.1213e-02, -3.7189e-02, -3.9736e-02, -3.4046e-02, -1.0456e-02,
        -1.3047e-02,  3.3129e-02,  1.6610e-02, -5.6772e-03,  2.2156e-02,
        -3.7299e-03,  2.6630e-02,  8.9391e-03,  1.4734e-02,  4.2064e-02,
        -2.7267e-02,  2.5272e-02,  2.2437e-02, -2.7806e-02,  2.9384e-02,
         2.9154e-02,  4.0771e-02, -5.1521e-03, -2.4764e-02,  1.9406e-02,
         3.9317e-02, -1.0145e-02,  2.1907e-02, -7.1014e-03,  1.1594e-03,
        -1.3073e-02, -1.3823e-03, -4.1297e-02,  7.4116e-03,  3.5504e-02,
         2.9175e-02,  3.5996e-02,  3.0945e-02, -1.4016e-02,  4.2199e-02,
         5.8817e-03, -1.8084e-02])
mlp.net.1.batch_norm.weight tensor([0.9524, 0.9491, 0.9496, 0.9513, 0.9530, 0.9522, 0.9502, 0.9520, 0.9485,
        0.9513, 0.9534, 0.9519, 0.9528, 0.9467, 0.9535, 0.9489, 0.9468, 0.9514,
        0.9526, 0.9524, 0.9499, 0.9493, 0.9516, 0.9558, 0.9522, 0.9523, 0.9498,
        0.9515, 0.9488, 0.9517, 0.9465, 0.9470, 0.9511, 0.9545, 0.9506, 0.9564,
        0.9519, 0.9519, 0.9515, 0.9492, 0.9470, 0.9548, 0.9525, 0.9486, 0.9514,
        0.9528, 0.9539, 0.9533, 0.9533, 0.9496, 0.9520, 0.9480, 0.9445, 0.9519,
        0.9537, 0.9451, 0.9498, 0.9516, 0.9517, 0.9522, 0.9511, 0.9543, 0.9518,
        0.9484, 0.9520, 0.9504, 0.9539, 0.9543, 0.9458, 0.9485, 0.9522, 0.9495,
        0.9477, 0.9521, 0.9507, 0.9495, 0.9517, 0.9484, 0.9473, 0.9537, 0.9513,
        0.9493, 0.9531, 0.9489, 0.9540, 0.9483, 0.9485, 0.9492, 0.9510, 0.9548,
        0.9463, 0.9535, 0.9458, 0.9453, 0.9527, 0.9454, 0.9470, 0.9509, 0.9531,
        0.9499, 0.9502, 0.9528, 0.9514, 0.9491, 0.9485, 0.9487, 0.9491, 0.9497,
        0.9531, 0.9531, 0.9502, 0.9495, 0.9534, 0.9519, 0.9504, 0.9539, 0.9502,
        0.9503, 0.9479, 0.9497, 0.9519, 0.9538, 0.9509, 0.9474, 0.9499, 0.9485,
        0.9512, 0.9539, 0.9504, 0.9519, 0.9453, 0.9490, 0.9544, 0.9463, 0.9519,
        0.9515, 0.9487, 0.9473, 0.9514, 0.9509, 0.9502, 0.9496, 0.9530, 0.9504,
        0.9513, 0.9483, 0.9511, 0.9574, 0.9510, 0.9479, 0.9516, 0.9473, 0.9535,
        0.9502, 0.9536, 0.9526, 0.9504, 0.9515, 0.9468, 0.9512, 0.9531, 0.9492,
        0.9464, 0.9482, 0.9498, 0.9534, 0.9466, 0.9521, 0.9503, 0.9446, 0.9517,
        0.9530, 0.9530, 0.9522, 0.9532, 0.9496, 0.9541, 0.9505, 0.9524, 0.9468,
        0.9567, 0.9487, 0.9507, 0.9530, 0.9479, 0.9530, 0.9499, 0.9517, 0.9505,
        0.9523, 0.9518, 0.9516, 0.9481, 0.9515, 0.9510, 0.9496, 0.9533, 0.9466,
        0.9480, 0.9497, 0.9551, 0.9503, 0.9464, 0.9552, 0.9512, 0.9482, 0.9502,
        0.9532, 0.9433, 0.9531, 0.9540, 0.9505, 0.9491, 0.9531, 0.9550, 0.9514,
        0.9529, 0.9472, 0.9497, 0.9520, 0.9530, 0.9504, 0.9508, 0.9487, 0.9538,
        0.9479, 0.9512, 0.9473, 0.9477, 0.9516, 0.9511, 0.9447, 0.9518, 0.9521,
        0.9537, 0.9482, 0.9494, 0.9482, 0.9523, 0.9477, 0.9511, 0.9518, 0.9453,
        0.9518, 0.9521, 0.9507, 0.9519, 0.9501, 0.9502, 0.9494, 0.9464, 0.9497,
        0.9510, 0.9517, 0.9465, 0.9554, 0.9506, 0.9531, 0.9491, 0.9518, 0.9499,
        0.9488, 0.9517, 0.9482, 0.9531, 0.9486, 0.9525, 0.9502, 0.9503, 0.9535,
        0.9495, 0.9538, 0.9503, 0.9480, 0.9517, 0.9549, 0.9502, 0.9545, 0.9524,
        0.9522, 0.9481, 0.9506, 0.9475, 0.9499, 0.9505, 0.9491, 0.9520, 0.9523,
        0.9508, 0.9484, 0.9509, 0.9513, 0.9535, 0.9496, 0.9497, 0.9525, 0.9501,
        0.9503, 0.9543, 0.9518, 0.9526, 0.9523, 0.9478, 0.9482, 0.9512, 0.9507,
        0.9538, 0.9519, 0.9510, 0.9517, 0.9540, 0.9454, 0.9491, 0.9540, 0.9518,
        0.9488, 0.9512, 0.9523, 0.9514, 0.9517, 0.9529, 0.9533, 0.9520, 0.9511,
        0.9488, 0.9563, 0.9528, 0.9520, 0.9503, 0.9514, 0.9491, 0.9564, 0.9512,
        0.9514, 0.9490, 0.9480, 0.9459, 0.9516, 0.9500, 0.9490, 0.9513, 0.9504,
        0.9593, 0.9495, 0.9451, 0.9485, 0.9522, 0.9437, 0.9457, 0.9495, 0.9492,
        0.9529, 0.9539, 0.9527, 0.9478, 0.9499, 0.9528, 0.9542, 0.9518, 0.9536,
        0.9439, 0.9506, 0.9495, 0.9527, 0.9526, 0.9518, 0.9509, 0.9504, 0.9509,
        0.9530, 0.9524, 0.9498, 0.9505, 0.9513, 0.9455, 0.9487, 0.9506, 0.9527,
        0.9489, 0.9499, 0.9534, 0.9554, 0.9464, 0.9506, 0.9462, 0.9519, 0.9541,
        0.9522, 0.9533, 0.9516, 0.9515, 0.9523, 0.9534, 0.9533, 0.9498, 0.9521,
        0.9504, 0.9474, 0.9519, 0.9506, 0.9498, 0.9495, 0.9526, 0.9457, 0.9536,
        0.9528, 0.9482, 0.9511, 0.9482, 0.9519, 0.9548, 0.9488, 0.9514, 0.9490,
        0.9484, 0.9507, 0.9535, 0.9515, 0.9476, 0.9512, 0.9524, 0.9509, 0.9521,
        0.9520, 0.9501, 0.9491, 0.9529, 0.9519, 0.9503, 0.9528, 0.9497, 0.9525,
        0.9531, 0.9493, 0.9511, 0.9490, 0.9465, 0.9519, 0.9477, 0.9499, 0.9515,
        0.9490, 0.9535, 0.9543, 0.9510, 0.9541, 0.9524, 0.9498, 0.9520, 0.9535,
        0.9487, 0.9507, 0.9511, 0.9539, 0.9523, 0.9497, 0.9442, 0.9549, 0.9483,
        0.9516, 0.9554, 0.9484, 0.9513, 0.9510, 0.9495, 0.9534, 0.9542, 0.9543,
        0.9541, 0.9535, 0.9503, 0.9491, 0.9531, 0.9474, 0.9483, 0.9531, 0.9478,
        0.9503, 0.9509, 0.9515, 0.9524, 0.9503, 0.9505, 0.9507, 0.9510, 0.9507,
        0.9514, 0.9483, 0.9525, 0.9462, 0.9520, 0.9502, 0.9529, 0.9504, 0.9541,
        0.9506, 0.9498, 0.9521, 0.9497, 0.9509, 0.9522, 0.9480, 0.9518, 0.9534,
        0.9507, 0.9486, 0.9526, 0.9509, 0.9490, 0.9442, 0.9485, 0.9516])
mlp.net.1.batch_norm.bias tensor([ 2.6224e-03,  2.7862e-03, -2.5757e-03,  3.6366e-03, -2.7601e-03,
         2.7874e-03,  2.7276e-03, -2.8861e-03, -2.0021e-03,  2.6902e-03,
         2.5693e-03,  3.2163e-03, -2.6057e-03, -4.4060e-03,  2.8323e-03,
        -2.5640e-03, -1.9550e-04, -2.8731e-03, -2.5158e-03,  2.8237e-03,
        -2.4619e-03, -4.8951e-03, -2.2922e-03,  3.4776e-03,  2.7943e-03,
        -2.3235e-03, -2.3433e-03, -2.7225e-03, -2.6276e-03,  2.6196e-03,
         2.7031e-03,  3.2027e-03, -2.8597e-03,  2.7174e-03, -2.6390e-03,
         2.9889e-03,  3.0246e-03, -3.0985e-03, -2.5964e-03, -2.6485e-03,
         2.4337e-03, -2.9080e-03, -2.5405e-03,  2.6752e-03,  3.1824e-03,
        -2.8641e-03,  4.3207e-03,  3.0142e-03,  2.5487e-03,  2.8997e-03,
         2.5191e-03, -2.5008e-03, -2.7375e-03, -2.6105e-03,  2.7697e-03,
         2.6616e-03, -2.7388e-03,  2.6820e-03, -2.6422e-03, -2.2275e-03,
         3.9946e-03, -2.0154e-03,  9.5660e-04, -3.4382e-03,  2.7760e-03,
        -2.2963e-03,  2.5622e-03, -2.4544e-03, -2.6937e-03, -2.7509e-03,
         2.8558e-03, -2.6478e-03, -2.4341e-03, -3.2476e-03, -2.7956e-03,
        -2.6865e-03, -2.8679e-03, -2.6634e-03, -2.7785e-03, -2.7665e-03,
        -2.7065e-03, -2.7031e-03,  2.8433e-03, -1.3339e-03,  2.4074e-03,
        -1.9744e-03, -2.9181e-03, -2.6297e-03,  3.0104e-03, -2.6347e-03,
         4.0470e-04,  2.9321e-03,  3.2248e-03,  2.4824e-03, -2.8553e-03,
         3.7195e-03,  2.6177e-03, -3.0045e-03,  2.9470e-03, -2.6568e-03,
        -2.8746e-03, -2.6414e-03, -2.4886e-03,  2.7386e-03,  2.7196e-03,
        -1.5634e-03, -2.7354e-03,  2.6956e-03, -2.6488e-03,  3.7636e-03,
         2.6931e-03, -2.7371e-03, -2.8219e-03,  2.7925e-03, -3.2883e-03,
        -2.6693e-03, -2.6557e-03, -2.6778e-03, -2.6268e-03, -2.5377e-03,
         2.4669e-03, -2.7364e-03, -2.6593e-03, -2.7323e-03,  2.4130e-03,
         2.0203e-03,  2.5007e-03,  2.6942e-03,  2.7590e-03, -2.7169e-03,
         9.2325e-03,  2.8165e-03, -2.5426e-03, -2.9040e-03,  2.8345e-03,
         2.8231e-03, -2.4059e-03, -2.8338e-03, -6.9232e-03,  1.9341e-03,
        -2.4514e-03,  2.9674e-03, -2.5669e-03, -2.2633e-03,  2.4514e-03,
        -2.7334e-03,  2.7204e-03, -2.7069e-03, -2.6585e-03,  2.6432e-03,
         2.2670e-03,  2.9210e-03, -2.6424e-03, -2.8478e-03, -2.5358e-03,
         3.5502e-03,  3.7014e-03,  2.7540e-03, -2.3862e-03, -2.1394e-03,
         3.0469e-03,  2.6945e-03, -2.5162e-03,  2.5014e-03, -1.8668e-03,
         2.8011e-03, -2.8923e-03, -2.7430e-03, -3.1951e-03, -2.8335e-03,
        -2.0612e-03,  2.8232e-03,  2.5755e-03,  2.1620e-03,  2.5180e-03,
         2.9280e-03,  2.9594e-03, -2.6625e-03,  2.7159e-03, -2.6490e-03,
        -2.6566e-03,  2.8656e-03,  2.7764e-03, -2.7576e-03, -1.3965e-03,
        -2.7231e-03, -1.4769e-03,  2.8668e-03,  2.5889e-03,  2.2848e-03,
        -2.4150e-03, -2.5697e-03,  3.1100e-03, -2.5307e-03, -2.7722e-03,
         3.2847e-03,  2.8322e-03, -2.6587e-03, -2.7063e-03, -2.6647e-03,
         2.8138e-03,  2.9054e-03,  2.9171e-03,  2.9025e-03,  2.8598e-03,
        -2.4990e-03,  2.6920e-03, -2.6510e-03,  5.3006e-03,  2.8375e-03,
         2.6343e-03,  3.1246e-03, -2.8211e-03, -2.7748e-03,  2.2906e-03,
         3.1631e-03, -2.2179e-03, -2.7320e-03,  2.7969e-03, -3.3665e-03,
        -2.6584e-03, -2.4465e-03, -2.7909e-03, -2.4888e-03, -2.6745e-03,
         2.8640e-03,  2.7261e-03, -2.4945e-03, -2.6524e-03,  2.8436e-03,
        -2.1357e-03,  5.9698e-03, -3.1515e-03,  2.4464e-03,  2.7234e-03,
        -2.8660e-03,  2.9656e-03,  8.3104e-04,  2.2851e-03,  2.0441e-03,
         2.4545e-03,  3.3445e-03, -2.9758e-03, -2.5049e-03, -2.7039e-03,
         2.6238e-03, -2.8319e-03, -2.7696e-03,  2.4106e-03,  3.2681e-03,
         2.8764e-03,  2.8782e-03, -1.0684e-03,  4.2099e-03,  2.5552e-03,
         2.7860e-03, -2.4067e-03,  2.5461e-03,  2.8052e-03,  2.8351e-03,
        -2.6690e-03, -6.3818e-03, -2.8240e-03, -2.7309e-03,  2.8943e-03,
        -2.6514e-03,  2.6923e-03,  2.4795e-03, -2.7271e-03, -2.5717e-03,
        -1.5072e-03, -2.6671e-03, -2.4216e-03,  2.7825e-03,  2.9323e-03,
         2.8408e-03, -4.0422e-03,  2.5951e-03, -1.7663e-03,  2.9736e-03,
        -2.5923e-03, -2.3914e-03,  2.7646e-03, -2.5322e-03, -2.8591e-03,
        -2.5372e-03,  2.6343e-03,  2.5591e-03,  2.8267e-03, -1.6401e-03,
         3.8526e-03, -2.3962e-03,  2.8203e-03,  2.7732e-03,  2.4973e-03,
        -2.8020e-03, -2.7437e-03, -2.6877e-03, -2.8578e-03, -2.8304e-03,
         2.8450e-03,  2.9056e-03,  2.8243e-03, -2.1916e-03, -2.6221e-03,
         2.6272e-03, -3.3415e-03, -2.6849e-03,  2.7663e-03, -2.7678e-03,
        -2.6610e-03,  2.5356e-03,  2.5226e-03, -2.6323e-03,  2.6989e-03,
         2.4338e-03, -2.7303e-03, -2.9485e-03,  2.6555e-03, -3.2090e-03,
        -2.7500e-03,  3.1321e-03, -2.4928e-03,  2.4787e-03,  4.5942e-03,
        -3.3258e-03, -2.8482e-03, -2.7372e-03, -2.7419e-03, -7.8908e-04,
         4.6632e-03,  2.5778e-03, -2.8251e-03, -2.5132e-03, -2.5528e-03,
         2.9261e-03, -2.7500e-03,  2.8082e-03,  2.8643e-03,  1.4099e-03,
        -2.5097e-03, -1.6545e-03,  2.3507e-03,  2.7271e-03, -2.7491e-03,
         2.7374e-03,  2.2420e-03, -2.6692e-03, -2.8048e-03, -2.7490e-03,
         2.5643e-03,  2.9940e-03,  2.8995e-03,  3.3278e-03, -2.5266e-03,
         2.1452e-03,  2.8402e-03, -2.1770e-03, -2.8047e-03, -2.8334e-03,
         4.3577e-03, -2.1084e-03, -2.4609e-03,  2.7386e-03, -2.8106e-03,
         2.6472e-03, -2.6130e-03,  2.5731e-03, -2.6422e-03, -2.5558e-03,
         2.5404e-03,  3.6907e-03,  2.7078e-03,  2.6231e-03, -6.9497e-04,
         2.8062e-03,  2.0384e-03,  3.2695e-03, -2.5370e-03,  2.2133e-03,
         2.7174e-03,  2.7285e-03,  2.5945e-03, -2.4687e-03,  2.4117e-03,
        -2.6178e-03, -2.8543e-03, -2.6627e-03,  3.2268e-03, -2.4648e-03,
         2.8761e-03, -2.5552e-03, -2.5776e-03, -2.8768e-03, -2.8534e-03,
         2.6705e-03,  4.6751e-03,  2.7836e-03,  2.6980e-03,  2.3480e-03,
         3.1021e-03, -1.7013e-05, -2.5559e-03,  2.6443e-03,  2.5278e-03,
        -2.4975e-03,  1.5277e-03, -2.4751e-03, -2.6536e-03,  2.7860e-03,
         2.6723e-03, -2.3209e-03, -2.7059e-03, -1.9138e-03, -2.6542e-03,
        -2.7125e-03,  2.7165e-03, -2.5403e-03, -2.0695e-03,  2.7017e-03,
        -2.5059e-03, -2.7610e-03, -2.2948e-03, -2.5601e-03,  2.6722e-03,
        -3.0237e-03,  2.6103e-03,  2.8521e-03, -2.5164e-03,  2.7902e-03,
        -2.5672e-03, -2.9653e-03,  2.7869e-03,  2.6968e-03,  2.8923e-03,
        -2.8237e-03, -2.8483e-03, -2.6971e-03,  2.8224e-03, -2.7488e-03,
        -2.5594e-03, -2.2699e-03,  2.9469e-03,  2.7516e-03,  2.9378e-03,
         2.8783e-03, -2.7298e-03, -2.4654e-03,  3.8335e-03,  2.3749e-03,
        -2.5820e-03,  5.9575e-04,  2.7507e-03,  2.6790e-03, -2.6644e-03,
         2.6645e-03,  2.7241e-03,  2.6960e-03, -2.7197e-03, -2.7112e-03,
         3.0168e-03, -2.2566e-03,  2.7812e-03,  2.7116e-03, -2.8027e-03,
         8.5881e-04, -3.1933e-03,  2.5832e-03,  2.7948e-03,  2.9376e-03,
        -3.5474e-03, -2.6841e-03, -2.7065e-03, -2.6238e-03, -2.5847e-03,
        -2.8945e-03, -2.6535e-03, -2.8150e-03,  2.4675e-03, -2.4556e-03,
         2.7754e-03, -3.8698e-03,  2.5713e-03, -2.5940e-03, -2.5741e-03,
         2.8857e-03,  2.5824e-03,  2.9449e-03,  2.7514e-03, -2.2365e-03,
        -2.4160e-03, -2.6310e-03, -2.9049e-03,  1.9379e-03, -2.5744e-03,
         2.6343e-03,  2.7469e-03, -2.4067e-03, -2.6407e-03, -2.8510e-03,
         2.6530e-03,  2.5961e-03, -2.8917e-03, -2.8334e-03, -2.5828e-03,
         2.8703e-03,  2.9379e-03, -2.6056e-03,  2.6725e-03, -2.8559e-03,
         2.3751e-03, -2.6342e-03])
mlp.net.1.batch_norm.running_mean tensor([0.4878, 0.4567, 0.3517, 0.3884, 0.4887, 0.5959, 0.4407, 0.4994, 0.4217,
        0.4915, 0.5003, 0.4264, 0.5092, 0.4506, 0.3455, 0.5137, 0.5834, 0.5053,
        0.6409, 0.4021, 0.3412, 0.5275, 0.5099, 0.4628, 0.5958, 0.4090, 0.4060,
        0.3809, 0.4734, 0.6806, 0.4984, 0.3281, 0.6023, 0.3729, 0.4838, 0.3314,
        0.4655, 0.4041, 0.6347, 0.6434, 0.6801, 0.4027, 0.4381, 0.4997, 0.4883,
        0.4549, 0.4041, 0.7223, 0.5290, 0.5045, 0.4801, 0.3916, 0.4433, 0.5838,
        0.6629, 0.3928, 1.0235, 0.3897, 0.4848, 0.7938, 0.6461, 0.3941, 0.5242,
        0.4943, 0.4505, 0.4743, 0.5493, 0.4251, 0.3743, 0.5128, 0.6049, 0.5093,
        0.4869, 0.5169, 0.4740, 0.5547, 0.4410, 0.3601, 0.4463, 0.4778, 0.5030,
        0.5613, 0.3503, 0.5463, 0.5633, 0.4574, 0.4333, 0.4181, 0.3510, 0.4806,
        0.5535, 0.3347, 0.3326, 0.6014, 0.6035, 0.4013, 0.4828, 0.4978, 0.5212,
        0.4394, 0.5719, 0.3174, 0.7195, 0.6042, 0.4310, 0.4324, 0.5346, 0.4857,
        0.5318, 0.5296, 0.5036, 0.4135, 0.5907, 0.4773, 0.4058, 0.4517, 0.4622,
        0.5714, 0.4968, 0.5097, 0.3462, 0.4918, 0.4232, 0.5484, 0.4876, 0.4275,
        0.7142, 0.4951, 0.4514, 0.3627, 0.4662, 0.4161, 0.4236, 0.5481, 0.5336,
        0.4612, 0.4884, 0.4355, 0.3841, 0.4862, 0.4645, 0.4142, 0.5310, 0.5929,
        0.4437, 0.4022, 0.4175, 0.5431, 0.5354, 0.3869, 0.5266, 0.4735, 0.4128,
        0.4786, 0.4595, 0.4124, 0.6409, 0.4992, 0.3444, 0.4118, 0.4949, 0.4090,
        0.5026, 0.4646, 0.4981, 0.5469, 0.4058, 0.5653, 0.4418, 0.5506, 0.4586,
        0.5983, 0.4208, 0.4067, 0.4974, 0.5321, 0.3479, 0.3368, 0.3529, 0.4807,
        0.4547, 0.5050, 0.5930, 0.4822, 0.5024, 0.5803, 0.4129, 0.5058, 0.7650,
        0.5939, 0.5013, 0.3501, 0.4571, 0.4521, 0.5634, 0.5767, 0.5999, 0.4379,
        0.5297, 0.4692, 0.4168, 0.5616, 0.3258, 0.5252, 0.5131, 0.3376, 0.4776,
        0.6046, 0.4948, 0.3770, 0.4607, 0.4349, 0.5233, 0.5072, 0.4875, 0.6121,
        0.5064, 0.4075, 0.4890, 0.4775, 0.4949, 0.4966, 0.5044, 0.4184, 0.4816,
        0.3243, 0.4935, 0.4160, 0.6339, 0.4454, 0.6606, 0.4644, 0.4585, 0.5152,
        0.5894, 0.4090, 0.3662, 0.4671, 0.4639, 0.4577, 0.6116, 0.6005, 0.5103,
        0.5214, 0.5205, 0.5906, 0.4727, 0.4625, 0.4712, 0.5175, 0.3200, 0.5003,
        0.5953, 0.4765, 0.5057, 0.5168, 0.4782, 0.4032, 0.5752, 0.4471, 0.5445,
        0.4345, 0.4932, 0.5034, 0.4291, 0.7593, 0.5185, 0.3887, 0.6900, 0.4565,
        0.3768, 0.5117, 0.5040, 0.5551, 0.5881, 0.5140, 0.5399, 0.4563, 0.4994,
        0.5435, 0.5298, 0.3947, 0.4007, 0.5229, 0.3905, 0.5840, 0.4829, 0.4766,
        0.5045, 0.4976, 0.5595, 0.6427, 0.5465, 0.4220, 0.4249, 0.7311, 0.5003,
        0.5767, 0.5829, 0.5801, 0.4560, 0.4041, 0.4634, 0.5325, 0.5891, 0.6855,
        0.5497, 0.5912, 0.4898, 0.5474, 0.5294, 0.4220, 0.3844, 0.5697, 0.4632,
        0.5247, 0.5391, 0.6691, 0.4036, 0.5785, 0.4972, 0.5711, 0.4988, 0.3891,
        0.5750, 0.4171, 0.3965, 0.4648, 0.7300, 0.4939, 0.5079, 0.5358, 0.6124,
        0.5610, 0.4808, 0.3860, 0.5473, 0.5583, 0.3971, 0.3564, 0.4028, 0.5785,
        0.4627, 0.6229, 0.4120, 0.4638, 0.5157, 0.3857, 0.7549, 0.4621, 0.4008,
        0.5451, 0.4276, 0.4255, 0.4958, 0.5450, 0.5396, 0.3521, 0.7772, 0.4299,
        0.5261, 0.7535, 0.4384, 0.4125, 0.7557, 0.4313, 0.8232, 0.5959, 0.6947,
        0.4768, 0.4212, 0.4247, 0.4289, 0.6269, 0.5982, 0.3464, 0.6245, 0.4091,
        0.5652, 0.4320, 0.4721, 0.4140, 0.4034, 0.4682, 0.5360, 0.3975, 0.5837,
        0.4291, 0.5623, 0.8916, 0.5558, 0.4957, 0.4161, 0.3710, 0.5795, 0.5249,
        0.4083, 0.3627, 0.5323, 0.5159, 0.4184, 0.4624, 0.5370, 0.3949, 0.3948,
        0.3300, 0.4609, 0.4997, 0.5115, 0.4087, 0.3123, 0.5175, 0.5745, 0.5034,
        0.4814, 0.5725, 0.4144, 0.3589, 0.5391, 0.4904, 0.5510, 0.4753, 0.5914,
        0.4810, 0.4869, 0.5876, 0.5708, 0.5370, 0.5424, 0.5393, 0.4380, 0.4076,
        0.4385, 0.6643, 0.5685, 0.4086, 0.4199, 0.4855, 0.4785, 0.3806, 0.4952,
        0.5316, 0.3735, 0.4890, 0.5688, 0.4973, 0.5854, 0.5947, 0.4044, 0.5528,
        0.3919, 0.4467, 0.3925, 0.3760, 0.4157, 0.3835, 0.4743, 0.7613, 0.4504,
        0.4893, 0.5620, 0.4497, 0.4556, 0.4978, 0.4276, 0.3519, 0.6002, 0.4691,
        0.4293, 0.6386, 0.6990, 0.4340, 0.4687, 0.3592, 0.5612, 0.6280, 0.4698,
        0.3713, 0.4855, 0.4746, 0.5995, 0.3891, 0.4297, 0.5660, 0.5049, 0.4378,
        0.5248, 0.5485, 0.4984, 0.5606, 0.5095, 0.5148, 0.4685, 0.3970, 0.4465,
        0.4513, 0.4545, 0.4871, 0.4964, 0.6507, 0.5777, 0.5515, 0.4611, 0.5088,
        0.7763, 0.4463, 0.5473, 0.5472, 0.6632, 0.5088, 0.4053, 0.4860])
mlp.net.1.batch_norm.running_var tensor([0.6156, 0.5671, 0.4216, 0.3031, 0.7812, 0.7299, 0.6361, 0.5812, 0.5902,
        0.7388, 0.6156, 0.4965, 0.5432, 0.6375, 0.5016, 0.4837, 0.6218, 0.5905,
        0.8821, 0.3608, 0.3384, 0.8918, 0.6468, 0.5145, 0.8884, 0.7732, 0.5423,
        0.3996, 0.6024, 0.8721, 0.8665, 0.2937, 0.7924, 0.4477, 0.8384, 0.2949,
        0.5179, 0.4999, 0.9621, 0.8099, 1.2219, 0.5027, 0.5844, 0.7155, 0.6878,
        0.5205, 0.3310, 1.1071, 0.7139, 0.5947, 0.5481, 0.4247, 0.6842, 0.8291,
        0.7231, 0.2796, 1.9554, 0.3256, 0.9072, 1.3495, 1.3086, 0.4231, 0.5516,
        0.6104, 0.6176, 0.6986, 0.6913, 0.5246, 0.3730, 0.7031, 0.8649, 0.5406,
        0.5122, 0.6696, 0.6840, 0.6343, 0.5422, 0.3480, 0.6241, 0.6063, 0.5808,
        0.6757, 0.5133, 0.7447, 0.5243, 0.7759, 0.6637, 0.4761, 0.4217, 0.6294,
        0.5406, 0.3766, 0.3091, 0.4289, 0.6707, 0.4575, 0.4869, 0.4232, 0.6678,
        0.4394, 0.6682, 0.3226, 0.8533, 0.7682, 0.6267, 0.5516, 0.9366, 0.5066,
        0.6586, 0.6011, 0.6496, 0.5655, 1.0335, 0.5460, 0.4245, 0.5593, 0.8086,
        0.6113, 0.6788, 0.7097, 0.3701, 0.5267, 0.6152, 0.6383, 0.5831, 0.4407,
        1.0329, 0.5406, 0.4875, 0.4106, 0.4646, 0.4969, 0.4681, 0.6523, 0.9351,
        0.6549, 0.5558, 0.4398, 0.4208, 0.7008, 0.6224, 0.3906, 1.1465, 1.0770,
        0.4557, 0.3647, 0.6295, 1.0194, 0.5430, 0.3833, 0.5045, 0.6571, 0.3694,
        0.6465, 0.6933, 0.3782, 0.9449, 0.7683, 0.4080, 0.4379, 0.5958, 0.3815,
        0.4444, 0.4747, 0.6751, 1.0095, 0.5697, 0.6057, 0.4732, 0.5387, 0.3596,
        0.8450, 0.3969, 0.3140, 0.5769, 0.8419, 0.4087, 0.3381, 0.4953, 0.9056,
        0.4703, 0.6722, 0.6933, 0.6760, 0.6080, 0.8396, 0.6140, 0.7078, 1.2636,
        1.0438, 0.6021, 0.4006, 0.6165, 0.9111, 0.8394, 0.9493, 0.9568, 0.6198,
        0.9268, 0.5360, 0.4461, 0.7432, 0.4075, 0.7665, 0.6662, 0.3754, 0.5847,
        0.9951, 0.5697, 0.4264, 0.6850, 0.5736, 0.7228, 0.5177, 0.6239, 0.9858,
        0.5268, 0.5882, 0.6079, 0.6189, 0.6350, 0.8189, 0.5154, 0.3843, 0.6262,
        0.2852, 0.9202, 0.4233, 0.8074, 0.6024, 0.8878, 0.4960, 0.4344, 0.5900,
        0.7446, 0.4907, 0.3118, 0.5648, 0.6074, 0.4656, 0.7558, 0.9027, 0.9482,
        0.6794, 0.6421, 0.9283, 0.7339, 0.5714, 0.4616, 0.6798, 0.3591, 0.6273,
        1.0303, 0.4853, 0.4948, 0.7402, 0.6454, 0.4166, 0.8069, 0.7381, 0.8051,
        0.5165, 0.4703, 0.9273, 0.3713, 1.3333, 0.5373, 0.4875, 0.9644, 0.5487,
        0.3157, 0.6274, 0.6427, 0.5837, 0.9376, 0.6138, 0.7536, 0.4819, 0.4845,
        0.8304, 0.7642, 0.5906, 0.4635, 0.6073, 0.3530, 1.0146, 0.7571, 0.5643,
        0.5578, 0.8080, 0.7607, 0.9777, 0.7778, 0.3972, 0.5318, 1.0486, 0.5789,
        0.8938, 0.6039, 0.6268, 0.5406, 0.3836, 0.4926, 0.7870, 1.1761, 0.8969,
        0.7061, 1.0734, 0.5143, 0.6448, 0.7313, 0.5624, 0.5060, 0.9013, 0.5157,
        0.4764, 0.7575, 0.7256, 0.4703, 0.6953, 0.9710, 0.7004, 0.7695, 0.4387,
        1.1262, 0.4673, 0.4235, 0.3909, 1.4505, 0.7658, 0.7414, 0.9280, 0.8169,
        0.5919, 0.5313, 0.3987, 0.7818, 0.8165, 0.5656, 0.3264, 0.3673, 1.0138,
        0.3620, 0.7067, 0.4642, 0.4699, 0.6211, 0.4206, 1.4046, 0.5684, 0.5735,
        0.7431, 0.3441, 0.4502, 0.9070, 0.6582, 0.6100, 0.3123, 1.0593, 0.4433,
        1.0443, 1.4990, 0.4288, 0.3913, 1.1563, 0.6715, 1.1938, 1.1059, 1.2271,
        0.4830, 0.5734, 0.4546, 0.3843, 0.7396, 0.9234, 0.4037, 1.0694, 0.5015,
        0.8258, 0.5659, 0.7991, 0.6073, 0.2879, 0.7196, 0.7007, 0.5093, 0.8020,
        0.5386, 1.0025, 1.8584, 0.6200, 0.5747, 0.6937, 0.3288, 0.6554, 0.6065,
        0.4866, 0.4530, 0.8193, 0.5462, 0.4989, 0.4998, 0.7215, 0.3296, 0.4928,
        0.3396, 0.5111, 0.9223, 0.7132, 0.3868, 0.4526, 0.6623, 0.5875, 0.5485,
        0.6985, 0.7789, 0.4786, 0.4293, 0.6661, 0.5888, 0.7877, 0.4511, 0.8380,
        0.7037, 0.5289, 0.7936, 0.7755, 0.9398, 0.7325, 0.5980, 0.3799, 0.3785,
        0.5444, 0.9842, 0.5577, 0.5063, 0.4097, 0.6206, 0.7326, 0.4203, 0.6126,
        1.2606, 0.4310, 0.5180, 0.7068, 0.4940, 0.7985, 0.8366, 0.3695, 0.8725,
        0.3689, 0.3406, 0.5237, 0.5037, 0.5238, 0.7213, 0.5547, 1.0721, 0.5942,
        0.7357, 0.7128, 0.5978, 0.5132, 0.6401, 0.6621, 0.4258, 0.9610, 0.4553,
        0.3838, 0.8629, 1.1618, 0.5081, 0.5804, 0.4853, 0.6341, 0.7927, 0.5964,
        0.3699, 0.5971, 0.5247, 0.8815, 0.3810, 0.4284, 1.0484, 0.5336, 0.5245,
        0.6259, 0.5796, 0.8255, 0.7530, 0.5377, 0.6829, 0.4578, 0.3529, 0.6714,
        0.6339, 0.7764, 0.5027, 0.7286, 0.7675, 0.7133, 0.7369, 0.5524, 0.6422,
        1.0055, 0.4531, 0.6674, 0.6962, 0.9744, 0.4732, 0.4265, 0.4620])
mlp.net.1.batch_norm.num_batches_tracked tensor(30)
mlp.net.2.weight tensor([[ 2.8196e-02,  1.4178e-02, -1.7391e-02,  3.8114e-03, -1.3338e-02,
          3.2152e-02,  3.7200e-02, -1.1712e-02, -2.5907e-03,  3.0827e-02,
          2.8113e-02,  1.0579e-02, -4.1673e-02,  9.7650e-04,  2.5175e-02,
         -2.4987e-02,  1.8649e-04, -1.3526e-02, -1.8764e-02,  3.2255e-02,
         -1.2773e-03, -2.3379e-03, -6.9426e-03,  8.1976e-03,  2.9698e-02,
         -1.1101e-02, -1.6848e-02, -3.2640e-02, -1.9316e-02,  3.8028e-02,
          4.3795e-03,  9.6786e-03, -3.4152e-02,  1.9698e-02, -3.2694e-02,
          9.4796e-03,  1.0110e-02, -1.5070e-02, -3.9454e-02, -1.7250e-02,
          5.0568e-03, -2.6815e-02, -3.4759e-02,  1.7265e-03,  1.7461e-02,
         -1.6126e-02,  3.4335e-03,  9.6960e-03,  2.1168e-02,  9.4107e-03,
          1.1045e-02, -3.4198e-02, -2.2058e-02, -4.0104e-02,  3.6780e-02,
          1.2926e-02, -2.3254e-02,  4.2067e-03, -3.7798e-02, -3.8033e-03,
          1.8865e-03, -8.1807e-03,  3.3160e-03, -5.6952e-03,  3.5909e-02,
         -2.4112e-03,  1.8506e-02, -1.1185e-02, -2.1698e-02, -3.3772e-02,
          7.7307e-03, -2.0207e-02, -1.1084e-02, -1.1019e-02, -1.6257e-02,
         -1.4675e-02, -1.2606e-02, -2.8367e-02, -3.5764e-02, -2.7451e-02,
         -3.1867e-02, -2.6206e-02,  1.8146e-02, -2.4997e-03,  1.7217e-02,
         -3.6709e-04, -2.2949e-02, -2.9600e-02,  8.2416e-03, -3.4607e-02,
         -7.9296e-04,  2.3410e-02,  6.8309e-03, -1.2909e-04, -2.1822e-02,
          6.8155e-04,  2.7624e-02, -1.5612e-02,  1.0303e-02, -2.6783e-02,
         -1.0071e-02, -3.7749e-02, -9.3227e-03,  3.4477e-02,  1.9950e-02,
         -2.1033e-03, -2.3490e-02,  3.8166e-02, -2.0392e-02,  3.1396e-03,
          1.6430e-02, -1.4739e-02, -2.8039e-02,  1.9962e-02, -1.5659e-03,
         -1.6816e-02, -3.1208e-02, -1.9180e-02, -3.2513e-02, -2.8011e-02,
          3.2640e-02, -1.7594e-02, -2.1961e-02, -2.8800e-02,  1.1989e-02,
          2.3879e-03,  2.7105e-03,  1.8394e-02,  2.2042e-02, -2.8910e-02,
          3.3821e-03,  3.5995e-02, -1.8960e-02, -6.8763e-03,  2.3979e-02,
          3.4289e-02, -1.7395e-02, -2.7106e-02, -3.8950e-03,  8.7905e-03,
         -5.2972e-04,  1.9076e-02, -3.1096e-02, -9.9699e-03,  1.5775e-02,
         -1.2714e-02,  2.8970e-02, -3.3646e-02, -1.9497e-02,  3.3009e-02,
          7.5180e-03,  1.5081e-02, -1.5828e-02, -2.2762e-02, -3.9308e-02,
          4.8079e-03,  2.0804e-03,  3.0844e-02, -9.8624e-03, -8.6797e-03,
          3.0195e-03,  3.6257e-02, -2.1518e-02,  7.3637e-03, -3.8874e-03,
          2.8574e-02, -1.0927e-02, -2.4695e-02, -1.7785e-03, -1.7949e-02,
         -2.6526e-03,  3.7876e-02,  3.2061e-02,  2.9227e-03,  2.0078e-02,
          3.2033e-02,  7.2189e-03, -2.6613e-02,  3.6603e-02, -2.0977e-02,
         -2.8236e-02,  6.7920e-03,  2.3012e-02, -9.6307e-03, -9.6551e-05,
         -1.0446e-02, -4.1593e-03,  3.5140e-02,  1.9002e-02, -4.3744e-03,
         -2.3953e-02, -1.7904e-02,  8.9333e-03, -3.0307e-02, -1.5769e-02,
          3.4293e-03,  3.6426e-02, -2.5717e-02, -3.0062e-02, -2.6159e-02,
          2.4501e-02,  2.5166e-02,  2.6633e-03,  2.0448e-02,  1.8863e-02,
         -2.3143e-02,  3.5071e-02, -1.7340e-02, -4.7550e-04,  3.0677e-02,
          3.6028e-02,  3.2009e-03,  9.1061e-04, -1.9931e-02,  1.8098e-02,
          4.9406e-03, -1.2655e-02, -3.2342e-02,  2.4341e-02, -4.6013e-03,
         -2.3223e-02, -2.5656e-02, -2.6679e-03, -3.4797e-02, -3.9787e-02,
          9.3628e-04,  3.9724e-02, -1.9392e-02, -2.6997e-02,  2.2572e-02,
         -1.9204e-03, -6.6969e-04, -7.5587e-03,  2.1341e-02,  2.4606e-02,
         -2.3101e-02,  1.1174e-02,  5.8709e-04,  9.4140e-03,  5.7754e-03,
          2.0808e-02,  8.2136e-03,  1.9545e-03, -2.5802e-02, -2.4211e-02,
          2.1125e-02, -2.1120e-02, -2.2489e-02,  9.4985e-03, -1.4879e-03,
          2.3137e-02,  2.8451e-02, -2.2327e-03,  3.3135e-03,  9.9597e-03,
          1.3737e-02, -2.2082e-02,  2.5224e-02,  2.5212e-02,  1.2991e-02,
         -1.4000e-02, -1.2509e-03, -3.2532e-02, -2.2150e-02,  2.1945e-02,
         -1.4732e-02,  3.3881e-02,  2.2153e-02, -1.4678e-02, -2.0454e-02,
          2.8386e-03, -4.0405e-02, -1.7744e-02,  3.2784e-02,  1.4968e-02,
          3.1412e-02, -1.6467e-03,  3.0955e-02, -4.7985e-03,  8.0050e-03,
         -1.4054e-04, -1.1439e-02,  1.1641e-02, -2.5172e-02, -3.0269e-02,
         -2.7316e-02,  6.5166e-03,  3.0508e-02,  2.5855e-02,  2.0989e-03,
          2.5661e-03, -1.7756e-02,  2.3955e-02,  3.5987e-02,  3.7173e-02,
         -3.9614e-02, -3.0138e-02, -9.3392e-03, -1.5513e-02, -1.9939e-02,
          3.1246e-02,  2.9008e-02,  2.2316e-02, -3.1952e-03, -3.7131e-02,
          3.7924e-02, -6.9746e-03, -1.2884e-02,  1.7819e-02, -2.8030e-02,
         -2.5233e-02, -1.3221e-04,  2.0576e-02, -2.6558e-02,  3.7993e-02,
          1.2528e-02, -3.5360e-02, -1.3787e-02,  1.5077e-02, -4.3833e-03,
         -3.5931e-02,  1.1923e-02, -2.1649e-02,  4.8438e-03,  5.8271e-04,
         -7.2210e-03, -9.2112e-03, -2.2901e-02, -2.9865e-02, -1.8002e-03,
         -1.2534e-04,  3.5576e-02, -3.1891e-02, -2.6214e-02, -2.8728e-02,
          2.0898e-02, -3.4281e-02,  1.9764e-02,  1.9466e-02,  1.5080e-03,
         -3.4905e-02, -2.2194e-03,  9.3542e-03,  2.1330e-02, -3.2232e-02,
          3.0332e-02,  1.3543e-02, -2.0256e-02, -3.2347e-02, -8.0461e-03,
          2.1967e-02,  1.7905e-02,  2.5034e-02,  7.6659e-03, -1.4280e-03,
          2.7667e-03,  2.9714e-02, -1.3310e-02, -3.0085e-02, -2.0287e-02,
         -3.6768e-04, -8.4857e-03, -3.2962e-03,  1.4323e-02, -2.6510e-02,
          3.3391e-02, -2.2915e-02,  2.8095e-02, -9.7217e-03, -3.7410e-02,
          3.7715e-02,  5.9553e-03,  8.8332e-03,  1.7012e-02, -3.8188e-04,
          2.9809e-02,  6.0220e-03,  1.2600e-02, -1.5925e-02,  2.0229e-03,
          4.0872e-02,  1.2266e-02,  3.4493e-02, -1.3637e-02,  1.7665e-03,
         -1.0194e-02, -4.6722e-03, -2.1997e-02,  8.3422e-03, -1.8346e-02,
          2.4529e-02, -3.1299e-02, -2.1256e-02, -3.0803e-02, -2.1554e-02,
          3.6728e-02,  3.6951e-03,  1.9484e-02,  2.8744e-02,  5.6012e-03,
          5.9911e-03, -1.3818e-03, -1.3920e-02,  3.4127e-02,  1.7531e-02,
         -1.2400e-02,  1.6388e-03, -1.7910e-02, -2.0657e-02,  3.1570e-02,
          4.2124e-02, -1.4665e-03, -3.9459e-02,  3.1881e-03, -2.5412e-02,
         -2.6923e-02,  3.6585e-02, -2.5643e-02, -4.3080e-03,  2.8647e-02,
         -2.3889e-02, -2.4368e-02, -7.2455e-03, -2.2955e-02,  8.7584e-03,
         -8.0568e-03,  2.4439e-02,  1.9467e-02, -1.0575e-02,  3.9267e-02,
         -2.5470e-02, -7.0113e-03,  3.0672e-02,  2.9924e-02,  1.8026e-02,
         -6.2293e-03, -1.3556e-02, -2.1399e-02,  2.6136e-02, -3.1168e-02,
         -3.8951e-02, -5.8873e-03,  1.3733e-02,  4.0347e-02,  1.9422e-02,
          1.9567e-02, -2.6947e-02, -1.7273e-02,  3.3059e-03,  1.4796e-02,
         -2.3870e-02, -1.0421e-03,  2.9789e-02,  2.6556e-02, -1.5402e-02,
          1.4681e-02,  2.0936e-02,  1.7351e-02, -1.1511e-02, -3.6364e-02,
          1.0099e-02, -4.9255e-03,  2.1479e-02,  3.9895e-02, -5.2108e-03,
          3.1066e-03, -8.2004e-03,  1.0666e-02,  3.9687e-03,  2.2746e-02,
         -2.7800e-03,  1.5478e-03, -3.0810e-02, -1.1169e-02, -4.7017e-03,
         -2.3868e-02, -2.4852e-02, -2.8987e-02,  2.0654e-02, -1.6960e-02,
          3.2108e-02, -8.8692e-04,  2.6723e-02, -3.1563e-02, -2.0021e-02,
          1.7793e-02,  6.8304e-03,  2.2340e-02,  2.7953e-02, -2.8715e-03,
         -2.4383e-02, -3.2131e-02, -2.7399e-02,  2.6237e-03, -3.9251e-02,
          3.0744e-02,  2.7078e-02, -8.9023e-03, -3.6201e-02, -1.9531e-02,
          3.0971e-02,  2.4912e-02, -2.1748e-02, -1.1096e-02, -3.2851e-02,
          1.1965e-02,  1.8769e-02, -2.5017e-02,  2.6638e-02, -1.5630e-02,
          1.0124e-02, -3.7837e-02]])
