Weights: 
embeddings.embeddings.0.weight tensor([[ 0.5124, -0.5517],
        [ 0.3639, -0.5229],
        [-0.3185, -0.3086],
        [ 0.5500, -0.0122]])
embeddings.embeddings.1.weight tensor([[ 0.4934,  0.3561],
        [ 0.0779,  0.4274],
        [-0.3818, -0.2309],
        [-0.0672,  0.0048],
        [-0.4364,  0.0294]])
embeddings.embeddings.2.weight tensor([[ 0.2207, -0.1518,  0.2251],
        [ 0.0450, -0.3033,  0.1605],
        [ 0.3799,  0.1503,  0.1768],
        [-0.4081, -0.2368,  0.4724],
        [ 0.3097,  0.2671, -0.1442],
        [-0.4447,  0.4952, -0.1352]])
embeddings.embeddings.3.weight tensor([[-0.0559, -0.2661],
        [ 0.0864, -0.3462],
        [-0.4641, -0.1843],
        [ 0.6738,  0.1659]])
embeddings.embeddings.4.weight tensor([[-0.5363, -0.3014],
        [-0.6529, -0.0103],
        [ 0.5385,  0.0692],
        [-0.5395, -0.1886]])
mlp.net.0.linear.weight tensor([[-1.8118e-01,  2.6436e-01, -1.0630e-01,  ..., -1.8272e-01,
          4.8698e-01,  7.7278e-02],
        [-2.5425e-01, -5.4032e-05,  2.7849e-01,  ..., -1.8108e-02,
         -2.3681e-01,  2.5320e-01],
        [ 4.2867e-01, -5.8623e-01, -1.8733e-01,  ..., -4.8968e-02,
          3.4382e-02, -3.0417e-02],
        ...,
        [-6.4047e-01, -3.0246e-01,  2.2728e-01,  ...,  4.0603e-01,
          1.6996e-01, -9.4702e-02],
        [ 3.0902e-01, -1.8948e-01,  3.2806e-01,  ..., -7.2446e-02,
         -3.5191e-01,  2.0116e-01],
        [-2.4630e-01,  2.3733e-01,  1.6484e-01,  ..., -1.4816e-01,
         -3.2752e-02, -4.0305e-01]])
mlp.net.0.linear.bias tensor([-1.3411e-01, -1.1470e-01,  9.8883e-02, -1.7520e-01, -1.0357e-01,
        -2.5270e-02, -1.9257e-01, -2.4775e-03, -1.8938e-02, -2.6714e-02,
         5.3345e-02,  1.0894e-02, -5.4951e-02,  2.3063e-02, -1.8802e-01,
        -1.4224e-02,  6.9290e-02, -9.9618e-02, -1.6132e-02, -1.6759e-01,
        -1.4149e-01,  6.6018e-04, -1.6398e-01,  7.0088e-02, -1.0527e-01,
        -4.7644e-02, -9.2342e-02, -1.1061e-01,  8.9505e-02,  1.7976e-01,
        -1.3315e-01, -1.7371e-01, -1.7901e-01, -1.7552e-01,  9.8415e-02,
        -1.7596e-01,  1.1472e-01,  1.8705e-01,  1.8292e-01, -1.5333e-01,
         7.6491e-02, -1.1371e-03, -1.3056e-01,  1.1634e-01,  1.9581e-01,
        -3.2027e-02, -7.3804e-02, -1.7411e-01, -4.5180e-02, -4.3450e-02,
        -1.2077e-01,  9.6427e-02,  3.1963e-02,  1.0786e-01, -7.6681e-02,
        -2.2821e-01,  1.6990e-01, -3.0897e-01,  7.2484e-02, -6.7192e-03,
         1.0245e-01, -7.1598e-03, -2.1843e-01, -4.6278e-03, -5.1079e-02,
        -1.9779e-02, -1.1138e-01,  7.9124e-02, -1.4775e-01, -1.8247e-02,
         1.2043e-01, -1.6978e-01, -7.3027e-02,  1.7866e-01,  2.7094e-01,
         2.4228e-01, -1.2489e-02,  1.5668e-01, -6.7564e-02,  5.8768e-02,
        -1.1951e-01, -3.3113e-02,  1.5727e-01, -1.3454e-01,  1.0678e-01,
        -7.8407e-02, -1.6054e-01,  9.8368e-02, -1.5610e-01,  1.4763e-01,
         1.9429e-01,  1.9198e-02,  7.4771e-02,  2.5033e-02, -5.8494e-02,
        -2.1795e-02, -1.8505e-01, -2.5208e-02, -9.5451e-02, -9.7089e-02,
         8.5430e-02,  9.1368e-02, -1.9612e-01, -1.2168e-01,  1.6600e-01,
        -2.1584e-01, -4.4067e-02, -2.1020e-01, -1.3867e-01, -7.7807e-02,
         5.8523e-02, -6.7151e-03,  5.7634e-02, -1.1270e-01,  1.8620e-01,
        -1.2614e-01, -6.7369e-02, -1.3214e-01, -1.8024e-02, -3.0763e-02,
         1.7077e-01,  1.0655e-01, -7.3745e-02,  7.2745e-02,  2.6374e-02,
         2.2750e-01,  2.1138e-01, -1.4888e-01,  1.0563e-01,  3.3289e-02,
         1.0454e-01, -4.0145e-02,  3.2481e-02,  2.0485e-01,  1.8377e-01,
        -1.7209e-01, -1.3828e-01,  5.8824e-02, -8.7014e-02, -1.1863e-01,
        -1.7155e-01, -1.7502e-01, -2.2849e-01,  2.7166e-01, -1.2239e-01,
         1.5977e-01, -1.7426e-01,  1.1961e-01,  1.3535e-01, -3.8096e-02,
         1.3218e-01, -1.5658e-01, -9.5933e-02, -2.1360e-01,  1.0118e-01,
         1.1280e-01, -2.1741e-01, -5.6614e-02,  4.1297e-02,  3.6100e-02,
        -2.1345e-02, -1.0114e-01, -8.9312e-02, -1.5947e-01,  1.2247e-01,
        -1.5588e-01, -9.8690e-02, -5.8875e-04, -1.1066e-01,  9.9338e-02,
         1.1755e-01,  6.1446e-02, -1.5890e-01, -1.7644e-01,  1.7285e-02,
        -1.1720e-01, -6.2348e-02,  3.3465e-02, -3.2904e-02,  1.8526e-01,
         6.1333e-02, -2.1146e-03, -1.3305e-01, -3.4851e-02, -1.0136e-01,
         1.8065e-01, -8.5757e-02,  9.7432e-02, -1.1825e-01,  5.1378e-02,
        -3.2143e-02, -1.2092e-02,  1.1892e-01,  1.2923e-01, -4.1757e-02,
         1.1924e-01, -4.7574e-02,  3.9843e-03, -1.9754e-02, -4.4154e-02,
        -2.4562e-01,  1.9458e-01,  2.0082e-01, -8.4916e-02, -8.6401e-02,
        -1.1370e-01, -8.0507e-02, -1.1812e-01, -3.4930e-02,  2.0281e-01,
         1.3394e-01, -2.3496e-01, -1.5117e-01, -6.1401e-02,  9.0751e-02,
        -1.0073e-01,  7.8554e-02, -2.9165e-04,  1.0697e-01,  2.2608e-02,
        -1.5879e-01,  1.3959e-02,  2.8902e-02,  1.2504e-01, -5.4598e-03,
         1.4180e-01,  2.6003e-02,  1.3524e-01,  8.0571e-02, -1.7687e-01,
         1.2320e-01,  9.4714e-02, -5.3939e-02,  1.1543e-01,  1.0402e-01,
         1.1888e-01, -1.5275e-01, -1.1603e-01, -1.4246e-01,  1.3907e-01,
        -1.8473e-01, -2.1269e-02,  2.1013e-01,  5.6496e-03,  2.3420e-02,
        -7.9133e-02,  1.6488e-01, -1.7887e-01,  1.9475e-01,  6.1815e-02,
         4.1342e-02, -1.2390e-01, -1.1119e-01,  9.1587e-03,  1.9415e-01,
         3.5004e-02, -2.0836e-01,  1.3498e-01,  1.1824e-01, -3.8154e-02,
        -1.4024e-01,  1.9722e-01,  8.0228e-03, -1.2812e-02, -4.4907e-02,
        -2.3862e-01,  3.6624e-02,  3.3304e-02,  1.4558e-01, -2.5212e-02,
         1.4607e-01, -1.3227e-01,  3.5028e-02, -1.9537e-02, -3.6270e-02,
        -5.3224e-02,  1.9286e-02,  3.4326e-02, -2.8844e-03,  1.2671e-01,
        -7.8846e-02,  1.1337e-01, -1.2399e-01,  5.3004e-02, -1.0853e-01,
        -6.8844e-02,  7.7008e-02, -1.6239e-01,  1.8979e-01,  5.1076e-02,
        -1.9502e-02, -1.1644e-01,  1.2740e-01, -1.8185e-01, -2.4194e-01,
        -8.8690e-02,  1.8505e-01,  3.3535e-02,  5.7530e-02, -5.9042e-02,
        -2.4844e-02,  9.2077e-02, -2.1833e-01, -1.2877e-01, -2.6674e-01,
        -9.9694e-02,  2.1716e-01, -1.7699e-01, -1.7539e-01, -3.7512e-02,
         5.7307e-02,  9.1472e-02, -7.0778e-02,  1.4470e-01,  2.1475e-02,
         1.3018e-01,  1.5489e-01, -1.6089e-01,  4.9749e-03,  3.9550e-02,
         2.0862e-01,  7.0026e-02, -1.5445e-01,  4.2614e-02,  1.2568e-01,
        -1.0305e-01,  4.4933e-02,  8.1999e-02, -1.4981e-01,  1.7051e-02,
        -1.8646e-01, -8.7130e-02,  9.3974e-02, -7.4899e-02,  4.0587e-02,
        -2.1465e-02, -1.0619e-02,  4.9295e-02,  2.6553e-03, -7.5345e-02,
         1.3175e-01,  3.2447e-02, -4.3382e-03,  1.1800e-01, -7.1347e-02,
        -1.4714e-01, -8.5798e-05, -2.1973e-01,  2.5993e-02, -4.2860e-02,
         1.0495e-01,  6.0829e-02,  2.2831e-01,  1.2040e-01,  5.5702e-02,
        -2.6301e-01,  1.4329e-02, -9.0127e-02,  1.4747e-01,  7.4012e-02,
        -2.2163e-01,  1.1922e-01, -3.1170e-02,  2.0267e-01,  1.1137e-02,
         1.8635e-01, -2.9950e-02, -6.9237e-02,  9.7021e-02, -9.9459e-02,
        -6.5877e-02, -6.7647e-02,  1.7666e-01, -9.6975e-02, -6.2832e-02,
        -1.6236e-01, -4.7316e-02, -8.3036e-02, -7.9638e-02, -6.2334e-02,
        -1.4880e-01, -6.4226e-02,  4.5969e-02,  1.2403e-02, -8.5075e-02,
         6.9357e-02,  2.1722e-01, -6.3830e-02,  1.9929e-01, -1.7204e-01,
         1.8071e-01, -1.6564e-01, -1.4643e-01,  1.0386e-01,  2.0508e-01,
        -1.0532e-02,  1.1531e-01, -2.2953e-02, -1.8397e-01,  2.4250e-01,
         2.3683e-01,  1.4947e-01,  1.8156e-02, -1.7774e-01,  2.2026e-01,
        -2.3859e-02,  1.6060e-01, -6.1686e-02, -2.3587e-01, -1.1346e-01,
         1.0227e-01,  1.1053e-01, -1.2907e-01, -1.5208e-01,  2.1002e-01,
        -1.4614e-01, -1.8428e-01,  1.0845e-01,  2.5318e-02, -1.9690e-01,
         3.1017e-02,  2.0221e-01,  6.7057e-02,  2.4695e-01,  1.0971e-01,
         2.3730e-01, -1.8651e-01,  3.5890e-02,  1.9858e-02, -5.4721e-02,
        -4.9967e-02, -2.6628e-01, -5.3593e-02, -1.0393e-01,  1.7096e-01,
        -1.6242e-01, -6.4975e-03,  1.9792e-01, -1.0708e-01,  2.3527e-01,
        -1.9251e-01,  2.0750e-01, -3.0768e-02, -2.5011e-01, -5.1196e-02,
         2.2737e-01, -3.2352e-02,  1.7807e-01, -1.1058e-01, -2.2849e-02,
        -1.7991e-01, -1.4571e-01, -1.3937e-01,  1.1449e-02, -1.5737e-01,
        -1.1572e-01,  4.0402e-02,  7.3268e-02,  1.4779e-01, -4.9803e-02,
        -6.2428e-02,  1.5069e-01, -8.6150e-02, -3.7377e-02,  1.3491e-01,
        -1.5268e-01,  5.5205e-02, -7.1760e-02,  8.4298e-02, -1.3387e-01,
         2.3980e-01,  7.7979e-03,  1.4879e-01,  8.5003e-02, -3.1988e-02,
        -1.1121e-01,  1.2992e-01,  9.0016e-02, -1.7706e-01, -4.3868e-02,
         5.4206e-02, -1.4517e-02,  9.1573e-02,  1.9676e-01, -4.8416e-02,
         1.3033e-01,  1.1721e-01, -6.3458e-02, -1.4577e-01, -1.5659e-01,
        -5.4310e-02, -2.1198e-01, -1.5535e-01, -8.2570e-02, -1.8194e-01,
        -1.0604e-01,  1.0949e-01,  1.0198e-01, -2.4348e-02, -2.2909e-02,
         8.6439e-02, -1.5608e-01, -1.7772e-01,  1.2289e-01,  1.0115e-01,
         2.1684e-01,  1.1268e-01,  6.2846e-02,  2.6045e-02, -2.9655e-02,
        -1.3762e-01, -1.9821e-01])
mlp.net.0.batch_norm.weight tensor([0.8466, 0.9966, 0.8889, 0.8432, 0.9213, 0.8915, 0.8715, 0.9078, 0.9106,
        0.8841, 0.8482, 0.9961, 0.8932, 0.9583, 0.8934, 0.9680, 0.8896, 0.8984,
        0.9350, 0.8966, 0.9120, 0.9416, 0.8996, 0.9275, 0.8884, 0.8951, 0.9278,
        0.9256, 0.9610, 0.9193, 0.9198, 0.8362, 0.9968, 0.9320, 0.8859, 0.8551,
        0.9350, 0.9402, 0.8553, 0.9369, 0.8674, 0.8985, 0.9473, 0.8973, 0.8844,
        0.8942, 0.8457, 0.9418, 0.9798, 0.9128, 0.8658, 0.8759, 0.9700, 0.9648,
        0.9180, 0.9511, 0.8526, 0.9401, 0.9452, 0.9160, 0.8941, 0.9050, 0.9481,
        0.9203, 0.9153, 0.8876, 0.9162, 0.9334, 0.9661, 0.9224, 1.0097, 0.8856,
        0.8758, 0.8963, 0.9242, 0.9920, 0.9263, 0.8783, 0.9297, 0.9632, 0.8842,
        0.9848, 0.9427, 0.8570, 1.0193, 0.9736, 0.8697, 0.8778, 0.8223, 0.9170,
        0.9099, 0.8268, 0.9603, 0.9677, 0.8791, 0.9099, 0.9396, 0.8480, 0.8839,
        1.0073, 0.8910, 0.9029, 0.9361, 0.9003, 0.9692, 0.8557, 0.8974, 0.9082,
        0.9490, 0.8755, 0.9314, 0.8752, 0.8545, 0.9783, 0.9437, 0.9361, 0.8736,
        0.9583, 0.8868, 0.9525, 0.8817, 0.9216, 0.9311, 0.9380, 0.9537, 0.8977,
        0.8942, 0.9104, 0.9119, 0.9671, 0.9731, 0.9453, 0.9240, 0.9115, 0.8356,
        0.9568, 0.9383, 0.9140, 1.0004, 0.8942, 0.8907, 0.9017, 0.9050, 1.0314,
        0.9451, 0.8789, 0.9562, 0.9200, 0.8524, 0.9118, 0.9026, 0.8985, 0.9050,
        0.9439, 0.8941, 0.9482, 0.9172, 0.9679, 0.9660, 0.9500, 0.9558, 0.9152,
        0.9103, 0.9304, 0.8657, 0.9034, 0.9673, 0.9139, 0.9111, 0.9090, 0.9481,
        0.9410, 0.9406, 0.8898, 0.9394, 0.8851, 0.9127, 0.9614, 0.9138, 0.8884,
        0.9713, 0.9250, 0.8982, 0.9042, 0.8733, 0.9543, 0.8840, 0.9472, 0.9331,
        0.8318, 0.9474, 0.9070, 0.9251, 0.9022, 0.9373, 0.9475, 0.8808, 0.8777,
        0.8847, 0.8782, 0.9658, 0.8933, 0.8508, 0.9011, 0.9554, 0.9875, 0.9123,
        0.8877, 0.8973, 0.9793, 0.8770, 0.8855, 0.9484, 0.9509, 0.9699, 0.9331,
        0.9905, 0.8594, 0.8635, 0.8255, 0.9342, 0.8971, 0.8928, 0.9467, 0.9408,
        0.9385, 0.8259, 0.8994, 0.9476, 0.8876, 0.9323, 0.9339, 0.8955, 0.8688,
        0.9328, 0.9301, 0.9229, 0.9774, 0.8918, 0.9549, 0.8915, 0.9066, 0.9007,
        0.9724, 1.0005, 0.9607, 0.9803, 0.8898, 0.9143, 0.9004, 0.9023, 0.9757,
        0.9349, 0.9633, 0.9482, 0.8986, 0.8611, 0.9761, 0.9176, 0.8870, 0.9282,
        0.9410, 0.9379, 0.9626, 0.9155, 0.8395, 0.8804, 0.9085, 0.8388, 0.9278,
        0.9450, 0.9287, 0.9776, 0.8565, 0.9844, 0.9566, 0.9718, 0.9367, 0.9775,
        0.9571, 0.9194, 0.9753, 0.9382, 0.9679, 0.8733, 0.9216, 0.8726, 0.9512,
        0.8637, 1.0303, 0.9078, 0.8673, 0.9036, 0.8290, 0.8871, 0.9419, 0.8894,
        0.9487, 0.9171, 0.8749, 0.9167, 0.9942, 0.9986, 0.9619, 0.9941, 0.9763,
        0.8754, 0.9106, 0.9721, 0.8671, 1.0010, 0.8392, 0.9131, 0.9425, 1.0532,
        0.8474, 0.9159, 0.8766, 0.9148, 0.9306, 0.9444, 0.9507, 0.8873, 0.9532,
        0.8502, 1.0480, 0.8828, 0.8991, 0.9369, 0.9262, 0.9457, 0.8696, 0.8887,
        0.9053, 0.8409, 0.9399, 0.9034, 0.9544, 0.9269, 0.9010, 0.9194, 0.9606,
        0.8919, 0.9829, 0.9203, 0.8930, 0.8827, 0.9305, 0.9361, 0.8932, 0.9354,
        0.8908, 0.8769, 0.9408, 0.9126, 0.9200, 0.9781, 0.9877, 0.8876, 0.8539,
        0.8671, 0.9365, 0.8722, 0.8719, 0.8676, 0.9075, 0.9344, 0.9466, 0.7973,
        0.8431, 0.9641, 0.8884, 0.9425, 0.8753, 0.8383, 0.8216, 0.9698, 0.9955,
        0.9310, 0.9290, 1.0214, 0.8612, 0.9053, 0.9859, 0.8536, 0.9069, 0.8629,
        0.8989, 0.9162, 0.8680, 0.9820, 0.8737, 0.9175, 0.8517, 0.9899, 0.8711,
        0.8845, 0.9599, 0.9027, 0.9513, 0.8659, 0.8652, 0.8896, 0.9652, 0.9432,
        0.9390, 0.9226, 0.9787, 0.9862, 0.9283, 0.9045, 0.9387, 1.0057, 0.9495,
        0.8830, 0.9152, 0.9211, 0.9271, 0.8924, 1.0006, 0.9425, 0.9389, 0.9147,
        0.9133, 0.9082, 0.9651, 0.8810, 0.8628, 0.9441, 0.9008, 0.9682, 0.8593,
        0.9217, 0.8798, 0.8820, 0.9420, 1.0205, 0.8917, 0.9507, 0.8824, 0.9644,
        0.9584, 0.9242, 0.9115, 0.9001, 0.9104, 0.8371, 0.9240, 0.9094, 0.9170,
        0.9958, 0.9446, 0.8951, 0.9645, 0.9649, 0.8956, 0.8762, 0.9421, 0.9368,
        0.9600, 0.9819, 0.9453, 0.8530, 0.8587, 0.9421, 0.8969, 0.9375, 0.8531,
        0.9774, 0.9642, 0.8767, 0.9951, 0.9721, 0.9242, 0.9364, 0.9311, 0.8888,
        0.8791, 0.9531, 0.9464, 0.9348, 0.9238, 0.9780, 0.8269, 0.9386, 0.9266,
        0.9165, 0.9891, 0.9163, 0.9987, 0.8105, 0.9618, 0.9612, 0.9007, 0.9645,
        1.0152, 0.8736, 0.8981, 0.9113, 1.0167, 0.8901, 0.9152, 0.9377, 0.8924,
        0.9104, 0.9632, 0.9537, 0.9300, 0.8561, 0.8927, 0.9010, 0.9003])
mlp.net.0.batch_norm.bias tensor([ 1.4059e-02, -2.2965e-02,  4.0861e-02, -3.6918e-02, -2.2283e-02,
         3.8185e-03,  5.3362e-02,  8.2857e-02,  1.8738e-02, -6.6778e-04,
         4.3669e-02, -5.2586e-02,  3.2008e-02,  8.9394e-03,  2.1182e-02,
         7.7004e-02, -3.5378e-02,  2.5023e-03, -2.4325e-03,  1.1482e-03,
         1.9697e-02,  1.0996e-02, -4.5527e-02, -1.0365e-02, -7.8059e-03,
         3.8328e-02,  3.4958e-02, -2.0152e-02,  5.6019e-02, -3.5209e-02,
        -7.2458e-02, -2.2223e-02, -6.4736e-02,  3.4211e-02,  2.0208e-02,
         3.4272e-02,  7.2394e-02,  1.1402e-01,  2.5499e-02, -3.5272e-02,
        -7.1568e-02,  1.9286e-02, -1.5021e-02, -2.4922e-02, -2.8866e-02,
         4.5877e-02, -1.5567e-02,  6.4100e-03, -8.6741e-03,  5.4436e-02,
         6.4646e-02,  7.6127e-02,  2.4277e-02, -6.3912e-05, -4.2539e-02,
        -3.5798e-02,  3.4081e-02,  2.1095e-02,  3.8185e-02, -4.9796e-02,
        -2.7903e-02, -3.3584e-02, -3.9540e-02,  1.1318e-02, -3.2513e-02,
         1.7278e-02,  3.6921e-03,  6.8204e-02, -2.7270e-02, -1.8556e-03,
         2.4070e-02,  4.2507e-02,  3.4092e-02, -2.5970e-02,  1.9935e-02,
         5.1535e-02,  2.9210e-02, -2.1829e-02, -1.9947e-02,  3.7698e-02,
        -7.5700e-03, -9.8177e-03, -4.7027e-03,  4.2043e-02, -3.1708e-02,
         8.3333e-02,  3.9801e-02,  3.0530e-02, -2.3250e-02, -5.9230e-02,
        -1.9885e-02,  1.2623e-02, -5.0698e-03, -3.4363e-02, -6.0513e-02,
         7.9788e-03,  4.3060e-02, -1.5427e-02, -4.7120e-03, -7.7586e-02,
         2.2810e-04, -5.6742e-02, -4.1216e-02,  3.5167e-02, -1.2510e-02,
        -6.0789e-03,  9.0746e-03, -6.1784e-03, -3.0252e-02,  3.2161e-02,
         3.4556e-02,  7.3671e-02,  5.8330e-02,  2.3317e-03,  4.1631e-02,
        -1.4022e-02,  6.7972e-02,  5.5885e-02, -5.8398e-03, -7.4292e-03,
        -1.3905e-02,  7.0785e-02,  7.4451e-03,  6.5680e-03,  3.7641e-02,
         3.0870e-02,  8.2206e-02, -6.0325e-02, -2.2065e-02,  6.6560e-02,
         2.5237e-02,  2.3633e-02,  2.8288e-02,  6.3327e-02,  2.7073e-02,
         7.6815e-02, -4.8549e-02,  1.6117e-03, -6.6200e-02,  9.7035e-02,
         2.9117e-02,  2.2273e-03, -1.6777e-02, -4.8657e-02, -1.6407e-03,
        -4.2442e-02,  3.7109e-02, -3.0918e-02,  1.0635e-02,  3.0978e-02,
         4.2827e-02,  1.6206e-03,  3.7712e-02, -4.1647e-02,  5.4616e-02,
        -3.8689e-02, -6.5196e-02, -4.3096e-03, -7.4871e-02, -5.4479e-02,
        -1.0577e-02,  3.7725e-02,  6.1168e-02,  1.5857e-02, -2.5294e-02,
         2.3494e-02, -3.1741e-02,  7.8553e-03, -3.5669e-02,  5.2764e-04,
        -2.4155e-02,  1.5922e-02,  3.8963e-02,  2.1651e-02, -2.5904e-02,
        -2.0367e-02,  4.6130e-02, -4.2183e-02, -1.4356e-03,  4.7353e-02,
        -7.3655e-02,  4.3102e-03,  1.3705e-02,  1.1478e-02,  5.5147e-02,
         2.1817e-02, -6.0514e-03,  3.0746e-02, -6.4327e-02,  5.3295e-02,
         5.2916e-02,  3.6429e-02,  6.9706e-02,  2.5898e-02, -1.4450e-02,
        -9.0235e-02,  2.4449e-02,  6.9216e-02, -2.8429e-02, -8.7645e-02,
         4.1515e-02,  1.0821e-02,  4.2261e-02,  7.7063e-02, -4.2869e-02,
        -3.1498e-02, -5.1528e-03, -1.7440e-02,  3.5514e-02,  4.7514e-02,
        -4.3621e-02, -4.8970e-03,  3.1148e-02,  5.1519e-02,  7.1009e-03,
        -2.4232e-02, -6.6487e-02,  2.3181e-02,  6.8120e-03, -2.8198e-03,
        -8.7390e-03,  5.4813e-02,  4.1399e-02,  6.3480e-03, -3.6770e-02,
        -5.4666e-02,  5.2953e-02, -2.4788e-02, -3.1825e-02, -8.4492e-03,
         4.7624e-02,  1.9675e-02,  1.3151e-02,  2.9020e-02,  1.9260e-03,
        -4.3842e-02,  3.7300e-02,  3.8195e-02,  8.5125e-03,  2.6469e-02,
         2.4693e-02,  5.5272e-02,  5.6409e-04,  1.5222e-02, -6.8733e-02,
         6.2273e-02,  2.9424e-03,  3.3595e-02,  8.2572e-02,  1.1489e-01,
        -1.6538e-02, -4.8886e-02,  2.7557e-02, -2.2236e-02, -3.3425e-03,
        -2.6815e-02, -6.4739e-02, -4.6874e-02,  5.2586e-02, -2.2937e-02,
         4.8630e-02, -2.2677e-02, -1.8622e-03,  4.7353e-02,  3.1119e-03,
         3.7024e-02, -9.7400e-04,  4.4932e-02, -1.2169e-02,  1.9123e-02,
        -5.1705e-02,  6.0935e-02, -3.1350e-02,  5.8867e-03,  9.1768e-03,
         3.4143e-02,  5.5872e-02,  4.3494e-02, -1.4623e-02, -3.8503e-02,
        -2.3540e-02,  5.6281e-02,  6.8819e-02, -1.8326e-02, -6.6158e-02,
         4.5572e-02, -1.0483e-02, -6.9348e-02, -1.0088e-01, -2.5250e-02,
        -1.9420e-02, -4.4413e-02, -6.6362e-02,  7.4721e-02,  1.5484e-02,
         6.3863e-03, -4.6076e-03,  4.6087e-03,  9.3485e-03, -3.5019e-02,
        -1.6703e-02, -5.1180e-03,  5.2031e-03, -1.7131e-02,  4.2636e-02,
        -1.4800e-02,  2.1639e-02,  9.3723e-02,  6.0963e-02,  4.0910e-02,
         3.9145e-02, -4.7538e-02, -4.2339e-02,  4.6609e-02,  8.9971e-02,
        -2.1477e-02, -2.4570e-02, -2.0323e-03, -1.9841e-02, -4.0813e-02,
         4.8222e-02,  6.0253e-02, -4.1223e-02, -1.5003e-02,  8.9715e-02,
         1.2716e-02, -4.6935e-02,  4.0585e-02,  8.8475e-02,  1.4055e-02,
        -3.1347e-02, -2.2704e-02,  7.4764e-02, -5.0933e-02, -5.7763e-02,
        -3.5343e-02, -1.3172e-02,  1.1547e-02,  3.4351e-03,  3.7965e-02,
        -3.3864e-02, -3.9530e-02, -4.7762e-02, -2.1804e-02, -9.2963e-03,
         5.2991e-02, -3.9186e-02,  2.1116e-02, -4.6070e-02, -7.2293e-02,
        -4.1590e-02,  3.4323e-02,  1.3640e-03, -7.9086e-03,  1.0613e-01,
        -5.1901e-02,  2.4828e-02,  4.3869e-02,  2.9396e-02, -4.0596e-02,
        -7.6834e-02,  8.7224e-02,  2.6479e-03,  5.5847e-03,  2.3132e-02,
        -3.3159e-02, -2.1823e-02,  1.7995e-02, -4.4743e-03,  3.2628e-02,
        -7.0545e-02, -2.5953e-02,  2.0862e-02, -2.7229e-02, -6.4476e-02,
         4.5559e-03,  4.7339e-02, -6.7921e-03,  1.8589e-02, -2.3536e-02,
         3.5304e-02, -2.6788e-02,  5.2905e-03, -2.7086e-02,  4.3650e-03,
        -1.5001e-03,  2.7009e-02,  1.2088e-02,  1.8535e-02, -4.9820e-02,
         2.7116e-02, -4.6229e-03, -9.5085e-03,  2.0161e-02, -2.0021e-02,
        -5.1441e-02,  2.3456e-02, -3.3892e-02, -4.5858e-02,  2.3924e-02,
        -2.6013e-02,  1.5668e-02,  7.8001e-02,  4.5353e-04,  1.1706e-02,
         2.7378e-02,  3.5310e-02,  1.5291e-02, -3.2619e-02, -2.3895e-02,
         5.3190e-02,  8.6711e-02, -7.6543e-02,  5.7528e-02,  1.7620e-02,
         5.9694e-02, -7.4375e-02,  3.0130e-02,  1.3168e-02, -6.9611e-02,
         3.2570e-02, -2.4389e-02,  3.4762e-02,  1.4777e-02,  4.2186e-02,
         1.5901e-02,  7.7428e-02, -5.1359e-03,  6.3288e-02,  6.7749e-02,
         1.1704e-01,  5.3800e-02, -9.7763e-02, -6.4702e-02, -3.5370e-02,
         3.5620e-02, -3.7060e-02,  6.8592e-02, -4.9374e-02,  4.5825e-02,
         9.4733e-03,  3.8938e-04, -3.0280e-02, -7.6204e-02, -9.9877e-04,
        -3.2589e-02, -9.1996e-03, -3.8835e-02, -2.6726e-02, -7.5885e-02,
        -1.7066e-02,  2.8689e-02,  6.7003e-02, -5.6407e-02, -2.9506e-02,
        -8.7607e-03,  5.9612e-02,  2.0324e-02,  4.7321e-02,  3.2138e-02,
        -6.1981e-02, -1.6267e-02,  7.6247e-02,  8.0198e-04,  5.2525e-02,
        -1.2043e-02, -2.7418e-02, -2.6718e-02, -4.5700e-02, -9.4376e-03,
         3.7000e-02, -6.9925e-02, -4.1591e-02, -2.9372e-02,  4.9400e-02,
        -9.0089e-02, -7.8183e-02,  4.7460e-02, -6.3644e-03, -9.2562e-03,
         7.6889e-02,  1.9659e-02,  4.2770e-03,  4.9742e-02, -2.5389e-03,
         5.4595e-02,  8.5868e-02,  5.8995e-04,  2.6000e-02,  4.5963e-02,
         4.8349e-02,  4.6551e-02, -4.0717e-02,  1.1533e-02, -5.9198e-03,
        -1.7742e-02,  8.4822e-02, -2.9312e-02, -1.3733e-02, -6.0848e-02,
         1.3200e-02, -1.8624e-02, -3.7223e-02,  5.3856e-02, -5.8159e-02,
        -3.6840e-02,  1.0477e-01,  8.6563e-02, -1.7137e-02, -4.9238e-02,
        -3.3733e-02, -3.7497e-02])
mlp.net.0.batch_norm.running_mean tensor([9.4294e-03, 1.4398e-02, 1.9701e-01, 4.1418e-02, 6.6027e-02, 3.8517e-01,
        1.9583e-01, 1.9825e-01, 4.8096e-02, 2.9191e-01, 4.4107e-01, 7.3297e-02,
        2.8809e-01, 1.6032e+00, 4.6265e-06, 3.0622e-01, 6.5508e-02, 1.5314e-01,
        4.5241e-04, 2.3475e-01, 1.1310e-02, 7.3660e-03, 3.4687e-02, 4.5878e-01,
        1.2049e-02, 1.2685e-01, 6.4267e-04, 1.9453e-01, 5.2232e-03, 1.3445e-01,
        6.7801e-02, 1.5881e-01, 6.1105e-01, 9.4941e-01, 4.1411e-01, 4.4040e-02,
        3.5981e-01, 3.8990e-01, 4.1735e-01, 2.7554e-01, 7.5436e-01, 1.0965e-01,
        4.3322e-01, 2.2011e-01, 2.0795e-01, 4.3261e-01, 1.5973e-01, 6.5474e-02,
        1.1957e-02, 9.4848e-02, 7.5280e-04, 1.4917e-01, 1.0395e+00, 5.8328e-03,
        5.5510e-02, 1.6383e-01, 2.0710e-01, 2.5458e-01, 1.9790e-01, 4.2437e-02,
        7.2266e-01, 3.2134e-01, 3.3268e-02, 1.6411e-01, 6.1906e-02, 5.6169e-01,
        6.0314e-03, 3.9241e-02, 4.7587e-02, 4.3418e-02, 2.6808e-02, 2.4827e-02,
        2.0001e-02, 3.8423e-01, 2.0476e-01, 8.7851e-02, 2.7225e-01, 4.4592e-01,
        2.0710e-01, 3.8705e-01, 1.1537e-01, 2.7338e-01, 4.3150e-01, 7.1001e-01,
        6.6445e-02, 1.7157e-01, 3.1710e-01, 1.7589e-02, 4.9857e-01, 3.0383e-01,
        8.3071e-01, 3.8090e-01, 9.0189e-01, 1.0860e-01, 3.5560e-02, 4.3481e-01,
        6.0674e-03, 5.8826e-01, 1.7980e-03, 8.9204e-01, 2.1933e-02, 1.0993e+00,
        2.3003e-02, 2.8308e-01, 3.7126e-01, 3.8721e-02, 1.4796e-02, 7.2599e-02,
        2.3510e-01, 3.8984e-02, 2.1039e-01, 5.5410e-02, 2.6490e-01, 7.4954e-01,
        7.5457e-01, 6.7101e-01, 7.5488e-03, 3.6340e-03, 5.5891e-01, 7.3927e-01,
        1.1479e+00, 2.1977e-01, 6.0053e-01, 1.7436e-01, 4.8507e-01, 1.2223e+00,
        5.1208e-01, 5.4163e-02, 6.6612e-02, 3.0825e-01, 5.0966e-02, 1.4289e-01,
        2.6113e-02, 4.3780e-02, 5.8927e-01, 1.6327e-01, 1.3638e-03, 9.5598e-02,
        7.3112e-03, 5.7711e-01, 2.1440e-01, 5.7781e-02, 4.6032e-02, 2.4420e-01,
        3.3364e-03, 7.2559e-02, 1.5575e-02, 2.9214e-03, 2.8790e-01, 1.3124e+00,
        7.8278e-02, 2.1651e-01, 2.3282e-01, 8.8842e-02, 7.5603e-01, 3.5405e-02,
        1.7361e-01, 2.5804e-02, 1.1857e-02, 3.4756e-01, 8.6298e-01, 0.0000e+00,
        1.0342e-02, 6.2601e-01, 8.7384e-02, 2.5775e-03, 9.4998e-02, 9.3953e-02,
        9.5852e-04, 2.4181e-01, 8.5306e-01, 1.6663e-02, 1.5094e-01, 2.5226e-02,
        2.1298e-02, 3.2006e-01, 4.2009e-03, 2.7533e-01, 9.4476e-02, 4.9424e-02,
        3.3780e-01, 3.1473e-02, 6.6760e-02, 2.7737e-01, 7.6180e-02, 1.6958e-03,
        7.4936e-01, 7.8041e-02, 5.1004e-02, 5.3930e-01, 3.4037e-01, 2.9106e-02,
        5.8322e-01, 1.7163e-01, 2.3888e-01, 3.5645e-02, 2.5181e-01, 2.2657e-01,
        5.3871e-01, 4.0903e-01, 6.4596e-01, 8.2114e-02, 6.6189e-01, 1.6070e-01,
        6.6592e-01, 5.0759e-01, 1.6315e-03, 2.1544e-01, 2.5461e-01, 7.0916e-01,
        6.0411e-01, 1.4665e-01, 1.1623e-02, 1.9545e-02, 6.7008e-01, 6.1291e-02,
        3.9869e-01, 1.2908e-01, 5.3908e-02, 7.6560e-01, 3.4579e-01, 5.9460e-02,
        6.9863e-01, 1.8096e-01, 5.7300e-02, 2.2881e-02, 7.4469e-01, 5.3606e-01,
        4.8736e-02, 1.9126e-01, 1.8297e-01, 5.7648e-01, 2.0804e-02, 2.2047e-01,
        6.4823e-01, 5.8583e-01, 9.8883e-02, 4.3042e-01, 6.9063e-01, 9.8158e-02,
        3.9651e-01, 2.8894e-02, 1.9069e-01, 1.1731e-01, 1.7613e-01, 2.2350e-02,
        7.1641e-02, 1.5750e-04, 3.6371e-01, 3.4814e-01, 6.5712e-01, 3.1056e-01,
        2.1801e-02, 3.4200e-01, 2.0913e-01, 1.0885e-01, 8.6728e-02, 7.1639e-02,
        1.3251e-01, 1.1121e-01, 2.2462e-03, 4.2365e-01, 7.5361e-02, 1.8722e-01,
        1.3045e-01, 9.9237e-04, 1.1057e-01, 3.0989e-01, 5.3411e-01, 3.4910e-01,
        2.1388e-02, 2.4530e-01, 4.6302e-02, 3.9896e-01, 5.1936e-01, 1.2697e-01,
        2.6631e-01, 6.0467e-02, 1.2393e-02, 2.4772e-01, 6.6686e-01, 5.5000e-01,
        3.2240e-01, 7.4415e-02, 1.1588e-01, 3.2939e-01, 1.2397e-01, 9.4626e-01,
        2.8417e-01, 2.0804e-01, 1.7936e-02, 9.3558e-01, 4.3917e-01, 2.0305e-01,
        1.3346e-02, 7.7320e-02, 4.7271e-02, 2.0273e-02, 6.5973e-01, 8.7542e-01,
        5.6068e-02, 8.0464e-01, 6.3927e-02, 4.9439e-02, 6.2628e-02, 4.3262e-01,
        4.0097e-01, 7.7807e-02, 1.9417e-01, 1.6259e-01, 9.8389e-02, 1.6417e-01,
        9.4751e-01, 5.9803e-01, 3.2401e-02, 2.2580e-01, 1.2962e-01, 2.8455e-02,
        2.0004e-01, 3.0550e-01, 6.7576e-01, 8.1970e-01, 9.8276e-01, 7.6585e-01,
        1.4408e-01, 3.3266e-01, 3.4835e-02, 5.3731e-01, 6.4211e-01, 2.1660e-02,
        6.5575e-03, 2.6244e-01, 5.5431e-01, 2.4034e-01, 5.6958e-02, 2.7404e-01,
        2.2210e-02, 3.6518e-01, 1.7308e-01, 1.5572e-02, 3.4515e-02, 1.6869e-01,
        7.8576e-02, 7.5123e-02, 5.5952e-03, 7.3630e-01, 1.1465e-01, 6.1644e-05,
        3.5293e-01, 3.1317e-01, 3.8757e-01, 3.7910e-02, 5.4459e-01, 8.0715e-02,
        4.1998e-01, 3.8996e-02, 7.2992e-02, 2.2136e-02, 2.8378e-01, 1.5782e-01,
        7.0041e-02, 4.1372e-01, 1.5566e-04, 1.1944e+00, 7.5223e-01, 1.7781e-01,
        1.2236e-01, 2.1289e-01, 7.4925e-01, 4.6979e-02, 3.8194e-02, 4.5584e-01,
        8.1810e-01, 6.1585e-02, 9.2086e-01, 2.2655e-01, 1.9352e-01, 1.6442e-01,
        1.7363e-02, 2.4997e-02, 2.9535e-02, 1.1191e+00, 2.6163e-01, 2.7150e-01,
        2.1512e-01, 2.5814e-01, 7.5827e-01, 4.7937e-03, 6.3543e-02, 5.1580e-01,
        1.1183e-02, 1.0624e-01, 4.9349e-03, 7.7792e-02, 8.4044e-01, 5.6236e-01,
        1.7090e-02, 5.9499e-02, 1.2505e-01, 1.8234e-01, 6.6185e-01, 3.0120e-01,
        5.2150e-02, 4.7038e-02, 8.7613e-02, 1.1736e-01, 1.8948e-01, 4.9011e-02,
        2.5148e-01, 1.5463e-01, 1.2101e-01, 5.4872e-01, 6.9424e-01, 5.0196e-01,
        6.3510e-01, 0.0000e+00, 2.4536e-01, 3.3011e-01, 2.2572e-01, 3.1057e-01,
        1.8630e-02, 1.8469e-01, 1.3132e-01, 1.1076e+00, 8.6753e-02, 7.7242e-01,
        8.1856e-02, 4.2697e-01, 5.1142e-01, 9.7018e-04, 5.8328e-02, 3.4151e-02,
        6.7766e-01, 1.2866e-01, 1.6146e+00, 3.0733e-01, 1.3516e-01, 7.7472e-01,
        7.7334e-02, 7.1816e-01, 9.0631e-01, 1.0936e+00, 5.7591e-01, 3.8458e-02,
        2.3417e-02, 1.1776e+00, 3.0587e-02, 1.4228e-02, 5.6118e-03, 5.9863e-02,
        2.9034e-02, 2.3393e-01, 3.5375e-01, 6.3024e-01, 2.3350e-03, 5.0720e-02,
        6.2728e-01, 1.0766e+00, 1.8725e-02, 1.4423e-01, 9.5535e-02, 5.6497e-02,
        3.2277e-01, 8.2275e-01, 6.2925e-01, 4.7305e-02, 6.7649e-03, 6.5820e-02,
        2.5929e-01, 4.5073e-03, 1.5199e+00, 9.7781e-02, 3.0897e-02, 3.3146e-01,
        5.0539e-01, 8.5184e-02, 2.5671e-01, 4.9401e-01, 6.5519e-01, 4.5655e-01,
        1.4085e-01, 4.2966e-02, 3.9044e-01, 2.8707e-01, 1.1711e-01, 7.0410e-01,
        5.5624e-01, 3.7041e-01, 6.0533e-01, 5.4983e-01, 6.1134e-01, 5.9457e-02,
        1.3438e-01, 3.5352e-01, 4.2726e-01, 1.5314e-01, 1.8379e-02, 1.6975e-01,
        9.0238e-02, 4.9148e-02, 1.5624e-01, 8.4908e-02, 5.1762e-03, 2.6069e-01,
        1.2259e-01, 2.8149e-01, 4.3556e-02, 2.4797e-01, 9.0335e-02, 2.5355e-01,
        2.9657e-01, 1.3566e-01])
mlp.net.0.batch_norm.running_var tensor([0.0172, 0.0189, 0.1078, 0.0239, 0.0345, 0.1230, 0.0631, 0.1283, 0.0225,
        0.0604, 0.1341, 0.0391, 0.0890, 0.2564, 0.0148, 0.1503, 0.0317, 0.0982,
        0.0149, 0.1026, 0.0180, 0.0168, 0.0280, 0.0984, 0.0174, 0.0854, 0.0149,
        0.0840, 0.0162, 0.0621, 0.0310, 0.0860, 0.1710, 0.2844, 0.1339, 0.0313,
        0.1390, 0.1044, 0.1652, 0.0963, 0.1816, 0.0582, 0.1407, 0.1065, 0.0947,
        0.1339, 0.0538, 0.0339, 0.0206, 0.0500, 0.0149, 0.0945, 0.4400, 0.0165,
        0.0261, 0.0858, 0.0793, 0.0819, 0.0899, 0.0282, 0.1590, 0.0720, 0.0260,
        0.0864, 0.0387, 0.1557, 0.0159, 0.0315, 0.0355, 0.0316, 0.0272, 0.0240,
        0.0219, 0.1245, 0.1132, 0.0631, 0.0886, 0.1211, 0.1545, 0.1453, 0.0647,
        0.0980, 0.1291, 0.1504, 0.0449, 0.0798, 0.1140, 0.0204, 0.1155, 0.1241,
        0.1571, 0.0741, 0.2276, 0.0495, 0.0290, 0.1719, 0.0166, 0.2569, 0.0152,
        0.3138, 0.0218, 0.1237, 0.0208, 0.1161, 0.0849, 0.0282, 0.0204, 0.0437,
        0.0898, 0.0334, 0.0656, 0.0377, 0.1393, 0.1458, 0.1955, 0.1711, 0.0185,
        0.0158, 0.1567, 0.1349, 0.2127, 0.1004, 0.1323, 0.0822, 0.1387, 0.3290,
        0.1344, 0.0360, 0.0484, 0.1231, 0.0340, 0.0638, 0.0263, 0.0417, 0.1097,
        0.0750, 0.0150, 0.0577, 0.0166, 0.1582, 0.0665, 0.0366, 0.0384, 0.0732,
        0.0155, 0.0593, 0.0202, 0.0153, 0.1988, 0.2031, 0.0470, 0.0989, 0.0774,
        0.0553, 0.1873, 0.0285, 0.0954, 0.0205, 0.0192, 0.1070, 0.1591, 0.0148,
        0.0192, 0.0953, 0.0442, 0.0153, 0.0477, 0.0471, 0.0151, 0.0635, 0.2799,
        0.0190, 0.0909, 0.0224, 0.0230, 0.0781, 0.0161, 0.0935, 0.0448, 0.0374,
        0.1150, 0.0241, 0.0352, 0.0899, 0.0342, 0.0150, 0.1895, 0.0464, 0.0354,
        0.1989, 0.0867, 0.0250, 0.1731, 0.0889, 0.0646, 0.0297, 0.0932, 0.0994,
        0.1593, 0.1819, 0.2720, 0.0524, 0.1209, 0.0650, 0.1885, 0.1413, 0.0152,
        0.1048, 0.1185, 0.1508, 0.0781, 0.0672, 0.0184, 0.0219, 0.1507, 0.0317,
        0.1098, 0.0548, 0.0306, 0.2144, 0.1576, 0.0377, 0.2402, 0.0541, 0.0437,
        0.0250, 0.2767, 0.1710, 0.0290, 0.0863, 0.1131, 0.1622, 0.0234, 0.1042,
        0.1708, 0.1976, 0.0459, 0.0752, 0.2348, 0.0605, 0.1131, 0.0224, 0.0727,
        0.0561, 0.0828, 0.0225, 0.0520, 0.0148, 0.1210, 0.1534, 0.1436, 0.1220,
        0.0201, 0.0731, 0.0661, 0.0485, 0.0341, 0.0370, 0.0431, 0.0534, 0.0158,
        0.1209, 0.0459, 0.0757, 0.0670, 0.0149, 0.0316, 0.1676, 0.2055, 0.0919,
        0.0204, 0.0743, 0.0300, 0.1551, 0.2428, 0.0691, 0.0596, 0.0331, 0.0175,
        0.1058, 0.1537, 0.0845, 0.1027, 0.0410, 0.0449, 0.0912, 0.0667, 0.2039,
        0.0850, 0.1058, 0.0208, 0.2376, 0.2168, 0.0828, 0.0189, 0.0302, 0.0274,
        0.0234, 0.1956, 0.3751, 0.0349, 0.1701, 0.0343, 0.0358, 0.0284, 0.1399,
        0.0978, 0.0461, 0.0900, 0.0633, 0.0398, 0.0811, 0.2773, 0.2047, 0.0230,
        0.0929, 0.0582, 0.0229, 0.0902, 0.1230, 0.1394, 0.2647, 0.2418, 0.1718,
        0.0677, 0.1158, 0.0207, 0.0715, 0.0813, 0.0192, 0.0160, 0.1046, 0.1829,
        0.1086, 0.0411, 0.1296, 0.0239, 0.1628, 0.0859, 0.0184, 0.0282, 0.0707,
        0.0665, 0.0383, 0.0163, 0.2656, 0.0544, 0.0148, 0.1703, 0.0533, 0.1600,
        0.0275, 0.0904, 0.0523, 0.1358, 0.0271, 0.0379, 0.0222, 0.0875, 0.0742,
        0.0343, 0.1348, 0.0148, 0.2121, 0.3218, 0.0788, 0.0536, 0.0855, 0.1838,
        0.0317, 0.0296, 0.1803, 0.2456, 0.0332, 0.2975, 0.0877, 0.0987, 0.0926,
        0.0212, 0.0202, 0.0214, 0.1622, 0.1048, 0.1045, 0.0787, 0.0859, 0.2449,
        0.0160, 0.0452, 0.0945, 0.0189, 0.0511, 0.0157, 0.0504, 0.2283, 0.2087,
        0.0229, 0.0325, 0.0606, 0.0660, 0.0772, 0.0985, 0.0303, 0.0285, 0.0420,
        0.0598, 0.0473, 0.0309, 0.1012, 0.0950, 0.0599, 0.2754, 0.1932, 0.1281,
        0.2003, 0.0148, 0.1150, 0.1327, 0.0987, 0.1032, 0.0195, 0.0880, 0.0552,
        0.4753, 0.0579, 0.3036, 0.0451, 0.1923, 0.0982, 0.0150, 0.0377, 0.0259,
        0.1864, 0.0834, 0.2180, 0.1199, 0.0535, 0.2002, 0.0330, 0.0960, 0.2380,
        0.2828, 0.1701, 0.0291, 0.0221, 0.2113, 0.0229, 0.0195, 0.0164, 0.0447,
        0.0244, 0.1150, 0.2185, 0.2370, 0.0153, 0.0322, 0.1688, 0.2776, 0.0197,
        0.0724, 0.0494, 0.0301, 0.1456, 0.2647, 0.1492, 0.0322, 0.0164, 0.0420,
        0.1028, 0.0157, 0.2767, 0.0399, 0.0295, 0.1392, 0.1461, 0.0418, 0.0764,
        0.1682, 0.2378, 0.1276, 0.0708, 0.0318, 0.1134, 0.1051, 0.0600, 0.2074,
        0.2524, 0.1103, 0.2128, 0.1909, 0.1763, 0.0300, 0.0679, 0.1279, 0.2319,
        0.0752, 0.0227, 0.1060, 0.0644, 0.0299, 0.0792, 0.0404, 0.0159, 0.1212,
        0.0662, 0.0878, 0.0352, 0.0642, 0.0517, 0.1261, 0.1500, 0.0705])
mlp.net.0.batch_norm.num_batches_tracked tensor(40)
mlp.net.1.linear.weight tensor([[ 0.0919,  0.0086,  0.1089,  ..., -0.1318,  0.0013, -0.1569],
        [ 0.1115,  0.1230, -0.1203,  ...,  0.0851, -0.0561,  0.0032],
        [-0.0519,  0.0418,  0.0862,  ...,  0.0144,  0.0443,  0.1074],
        ...,
        [-0.0305, -0.0219, -0.0470,  ..., -0.0332,  0.0306,  0.0988],
        [-0.0924, -0.0175, -0.0026,  ...,  0.0705, -0.0880, -0.0009],
        [-0.0558,  0.1042,  0.0292,  ..., -0.1083, -0.0335, -0.0007]])
mlp.net.1.linear.bias tensor([ 1.2941e-02,  3.7555e-02, -4.5755e-02, -6.9826e-02, -2.4872e-02,
         6.4895e-03, -6.3623e-02, -2.6380e-02, -4.9892e-02, -1.1320e-01,
        -3.8971e-02, -5.4482e-02, -1.0740e-01,  3.3904e-02,  5.0415e-02,
        -4.8127e-02, -2.8422e-02, -4.7691e-03, -5.4986e-02, -6.2683e-02,
        -5.9746e-02, -6.8838e-02, -2.7148e-02, -2.3466e-02, -3.2048e-02,
        -5.3640e-02, -4.5379e-02, -1.1134e-01,  4.6030e-02, -3.0949e-02,
        -2.9055e-02,  1.0661e-02, -2.2100e-02,  6.9800e-02,  3.9260e-02,
        -3.9507e-02,  1.4896e-02, -7.3552e-03, -7.7363e-02, -8.7557e-02,
        -8.4724e-02, -7.2260e-03, -8.2650e-02,  6.5530e-02, -6.9914e-02,
         5.4787e-02, -2.0011e-02, -3.0296e-02, -4.0706e-02, -8.6499e-02,
        -1.5033e-02, -4.0850e-02, -5.8546e-02, -3.1513e-02,  4.6717e-02,
        -6.9625e-02, -1.7259e-02, -5.5085e-02, -3.3154e-03, -1.2021e-02,
        -8.3129e-02, -3.0662e-02, -2.6826e-02, -2.4408e-02, -1.3838e-02,
         2.8648e-03,  4.0773e-02,  4.0957e-02, -9.8293e-02, -1.5458e-02,
        -6.5470e-02, -1.3372e-02, -9.5929e-02, -1.0437e-01, -7.9355e-03,
         6.4303e-03, -4.7335e-02,  5.5366e-02, -3.0636e-02,  1.2316e-02,
        -6.4691e-02, -1.1710e-02, -2.2531e-02, -4.6125e-02, -3.0079e-02,
         3.1359e-03, -1.0795e-01,  2.9482e-02,  5.2834e-03, -2.9145e-02,
        -2.0176e-02,  1.1495e-02, -2.8793e-03, -8.3182e-02, -7.2335e-02,
        -9.3364e-02,  3.7662e-02,  6.0313e-02, -2.4849e-02, -6.4893e-02,
         6.4355e-02, -2.8818e-02, -6.3114e-02,  7.0679e-02, -3.1012e-02,
        -3.2523e-02,  7.0631e-02, -2.3892e-02,  2.3674e-02, -6.6310e-02,
        -5.2253e-02, -1.8328e-02, -9.8520e-03,  5.4150e-02,  9.1826e-03,
         5.4889e-02, -2.4289e-02, -9.4565e-02,  2.4470e-02, -1.0696e-01,
        -5.3708e-02, -5.5663e-02,  3.0087e-02, -8.8630e-02, -6.8259e-02,
        -6.9326e-02, -3.6753e-02, -4.6292e-02, -6.2540e-02,  4.8330e-02,
         5.1118e-02, -5.5533e-02, -3.1094e-02, -7.1146e-03, -8.1234e-03,
         6.5963e-02,  2.8735e-02, -3.4329e-02,  2.0922e-02, -3.6202e-02,
         4.1292e-02,  3.7386e-02, -3.8789e-02, -3.7130e-02, -6.0304e-02,
        -6.8127e-02,  2.6172e-02,  3.2913e-02,  1.2272e-03,  3.3585e-02,
        -9.8065e-03, -4.0092e-02,  2.6434e-02, -2.1267e-02, -6.8793e-02,
        -8.6790e-02,  2.6507e-02, -1.0796e-01, -2.6622e-02,  4.0895e-03,
        -4.4316e-02, -5.2407e-02, -3.7590e-02, -9.8933e-02,  2.6981e-02,
         6.0673e-02,  8.7652e-02, -3.1865e-02,  4.4046e-02, -3.2712e-02,
        -4.9403e-02,  1.1262e-02, -7.0601e-03,  4.2365e-02, -2.6785e-02,
         7.6620e-03, -3.8702e-02, -4.0545e-02,  2.1465e-02, -2.8045e-02,
        -9.1690e-03,  7.5416e-03,  1.8679e-02, -5.3000e-02,  2.5007e-02,
        -7.6232e-02,  7.6144e-03, -8.5086e-02, -4.7199e-02,  2.8072e-02,
        -6.3429e-02,  5.8786e-02, -7.6025e-02,  4.7800e-02,  3.0293e-02,
        -4.8254e-02, -1.5384e-02, -4.6780e-02, -5.7739e-02,  1.0089e-02,
        -3.2932e-02, -2.2590e-02, -4.8769e-02, -2.2980e-02, -4.6751e-02,
        -1.5379e-02,  5.0373e-02, -2.5316e-02,  4.9559e-03, -1.1086e-02,
        -7.2590e-02, -5.8191e-02, -1.5204e-02, -1.1728e-02, -8.1456e-02,
         8.0959e-02, -1.0464e-02,  8.2061e-03,  2.4789e-02, -1.6099e-02,
        -1.1593e-01, -1.2524e-01,  4.0386e-03, -2.1941e-02, -7.6864e-02,
         1.8835e-03,  9.3595e-03, -2.6451e-02, -1.5498e-02, -7.3104e-02,
        -6.1531e-02,  5.0524e-03, -3.7159e-02, -6.7232e-02,  4.3605e-02,
         4.5551e-02,  4.4411e-02,  8.3634e-03,  6.0959e-03, -8.5966e-02,
        -6.7140e-02,  2.5215e-03,  1.7132e-03, -5.6116e-02,  1.4433e-02,
        -9.0814e-02, -1.5964e-02,  5.6587e-02, -1.8359e-02,  1.5285e-02,
        -6.2240e-02, -8.7866e-02, -8.5542e-03, -5.6570e-02, -4.9024e-02,
         3.2385e-02,  1.6616e-02, -2.4718e-02, -7.4656e-02, -4.1194e-02,
        -1.0604e-02, -3.1215e-02, -5.7232e-02, -6.7581e-02,  1.5521e-02,
        -3.5331e-02,  1.6021e-02,  2.3276e-02, -1.1383e-01,  2.3883e-02,
        -1.2316e-02, -1.1928e-02, -4.3166e-02, -8.1201e-03,  7.6765e-03,
        -8.1530e-02, -4.6874e-02, -8.0763e-03, -7.2513e-02,  3.6839e-02,
        -1.0352e-01, -1.0173e-01, -2.8198e-02, -2.9581e-02,  1.6832e-02,
        -8.4107e-03, -3.9518e-02, -3.9027e-03,  1.7869e-02, -5.4662e-03,
         7.0738e-03,  8.0062e-02,  1.5708e-02, -2.9786e-02, -6.8012e-02,
        -7.2509e-02, -6.1257e-03, -9.4347e-02,  9.9437e-03, -1.2717e-02,
        -4.1007e-02, -5.6223e-02,  6.0136e-02,  1.8249e-02, -7.6743e-02,
        -8.3328e-02, -4.3400e-02, -2.9229e-02,  2.5644e-02, -3.8871e-02,
         1.2119e-02, -2.1643e-02,  4.4816e-03, -5.4368e-02, -3.1582e-02,
        -2.4898e-02,  1.1925e-02, -2.0264e-02, -2.9626e-03, -6.0142e-02,
         2.6667e-02, -5.9245e-02, -7.7343e-02, -5.0066e-02, -6.4601e-02,
        -6.1741e-02, -5.0878e-02,  3.7355e-02, -1.5191e-03, -7.9136e-03,
        -2.8363e-02,  7.0719e-02,  2.3547e-02,  1.8898e-02, -3.6190e-02,
        -8.0162e-03, -8.4847e-02, -1.2708e-02, -2.5050e-03, -7.0600e-02,
         2.4702e-02,  4.5479e-02, -7.6459e-02, -3.6822e-02, -7.3384e-02,
        -5.0814e-02, -3.0538e-02, -3.8420e-02, -5.7707e-02, -1.1554e-02,
        -3.4667e-03, -2.5931e-02,  3.8895e-03, -9.5681e-02, -6.6098e-02,
         2.3229e-02,  4.4946e-03,  8.2240e-03,  5.2304e-02, -1.1055e-02,
         2.8516e-02,  3.3267e-02, -2.5369e-02, -4.2140e-02, -8.6845e-02,
         6.5977e-02, -6.9695e-03, -6.7358e-02, -2.9302e-02, -3.8016e-02,
        -3.1915e-02,  1.5055e-02, -9.0015e-02,  2.8326e-02, -5.7965e-02,
        -1.6926e-02, -1.4551e-02,  2.2851e-04, -7.1658e-02, -2.9954e-02,
         2.6405e-02, -5.5934e-02, -1.6993e-01, -7.8015e-03,  6.9230e-02,
        -1.1783e-02, -4.8170e-02, -3.8152e-02, -6.0338e-02, -7.6160e-02,
        -1.2536e-01, -8.2994e-02, -4.9439e-02, -3.0046e-02, -1.3417e-02,
         8.7203e-03,  2.6513e-02, -1.7097e-02,  1.5058e-02, -9.2741e-02,
        -6.7872e-02,  2.2911e-03, -4.3957e-02,  1.0934e-01, -4.1096e-02,
        -9.4552e-02, -4.6305e-02,  2.0030e-02, -7.2178e-02, -1.7859e-02,
         7.2518e-02, -5.8498e-03,  2.9243e-02, -4.3320e-02, -4.8602e-02,
        -1.8057e-02,  5.8116e-02, -4.0067e-05,  5.5485e-03, -3.2127e-02,
        -1.1390e-01, -8.0495e-02,  5.5206e-02, -2.2651e-02, -5.5496e-02,
        -2.7955e-02, -2.8788e-02, -4.9857e-02, -4.3508e-02, -8.7421e-02,
        -9.6664e-02, -8.3032e-03, -4.0852e-02,  1.7248e-02, -5.7271e-02,
        -5.6233e-02,  4.6829e-02, -8.6007e-02,  1.2469e-02, -7.5399e-02,
        -1.1143e-01, -3.0999e-02,  2.3986e-02, -1.2259e-02, -6.3145e-02,
         3.7351e-02, -3.5331e-02, -9.7211e-02, -3.2855e-02, -5.7752e-02,
        -2.2995e-03, -2.8654e-02, -5.5296e-02, -1.3175e-02,  5.6870e-03,
         2.4834e-02,  2.6917e-02, -7.0935e-02, -4.5369e-02, -1.5830e-02,
        -3.8404e-02,  5.2801e-02,  2.8619e-03, -5.6359e-02, -8.1390e-02,
        -1.8712e-02,  5.0273e-02, -3.6326e-02,  2.8742e-02, -5.6102e-02,
         6.2643e-03, -5.7683e-02, -5.4425e-02, -6.0352e-02,  9.0666e-02,
        -1.9050e-03, -1.8552e-02,  5.5418e-02, -7.9140e-03, -2.9188e-02,
        -4.9280e-03, -3.9878e-03, -5.0668e-02,  6.5915e-03, -1.9505e-02,
         1.0986e-02,  5.0625e-02, -8.6654e-02,  8.1640e-02, -3.8587e-02,
        -5.1019e-02, -1.5289e-02,  5.1232e-02,  7.1085e-03, -2.2844e-02,
         9.7811e-03, -4.2625e-02, -1.2325e-01, -2.9947e-02,  2.7448e-02,
        -4.9942e-02, -1.2353e-02,  5.2562e-02, -6.9270e-02, -7.2762e-02,
         2.8418e-02,  3.7470e-02,  4.5082e-02, -1.5375e-02, -8.2559e-02,
        -8.5349e-02,  1.0513e-02])
mlp.net.1.batch_norm.weight tensor([0.7998, 0.8680, 0.7904, 0.8455, 0.8812, 0.8435, 0.8942, 0.8568, 0.8757,
        0.8083, 0.8014, 0.8494, 0.8087, 0.8306, 0.8153, 0.8457, 0.8513, 0.8341,
        0.8277, 0.8289, 0.8045, 0.8785, 0.7748, 0.8285, 0.8774, 0.8692, 0.8180,
        0.8269, 0.8064, 0.8846, 0.8108, 0.7983, 0.8009, 0.8218, 0.8795, 0.8742,
        0.8829, 0.8698, 0.7982, 0.8448, 0.8558, 0.8004, 0.8456, 0.7924, 0.8277,
        0.8455, 0.8538, 0.8566, 0.8681, 0.8426, 0.8746, 0.8781, 0.8246, 0.8868,
        0.8171, 0.8583, 0.8570, 0.8329, 0.8902, 0.8715, 0.8558, 0.8627, 0.8325,
        0.8713, 0.8277, 0.7909, 0.8291, 0.8439, 0.8513, 0.8658, 0.8517, 0.8066,
        0.8446, 0.8230, 0.8169, 0.8384, 0.8369, 0.8743, 0.7907, 0.8802, 0.8226,
        0.7577, 0.7976, 0.8688, 0.8773, 0.8747, 0.8236, 0.8315, 0.8971, 0.8423,
        0.8655, 0.8148, 0.8377, 0.8184, 0.8461, 0.8549, 0.8147, 0.8334, 0.7819,
        0.8790, 0.8584, 0.8747, 0.8772, 0.8612, 0.8751, 0.8201, 0.7874, 0.8180,
        0.8851, 0.8225, 0.8123, 0.8730, 0.8535, 0.8911, 0.8586, 0.8411, 0.8291,
        0.8456, 0.8256, 0.8553, 0.8949, 0.8531, 0.8337, 0.8303, 0.8742, 0.8717,
        0.8142, 0.8433, 0.8678, 0.8275, 0.8269, 0.7982, 0.8745, 0.7999, 0.8218,
        0.8179, 0.8180, 0.8842, 0.8197, 0.8330, 0.8621, 0.8663, 0.8117, 0.9010,
        0.7908, 0.8322, 0.8148, 0.8676, 0.8915, 0.8824, 0.8457, 0.8787, 0.8359,
        0.8886, 0.8359, 0.8431, 0.8832, 0.8023, 0.8748, 0.8579, 0.8183, 0.8324,
        0.8595, 0.8795, 0.8154, 0.8271, 0.8317, 0.8521, 0.8926, 0.8118, 0.8701,
        0.8036, 0.8589, 0.8901, 0.8599, 0.8160, 0.8668, 0.9039, 0.8760, 0.8548,
        0.8328, 0.8115, 0.8939, 0.8532, 0.8488, 0.8029, 0.8056, 0.8851, 0.8010,
        0.8478, 0.8358, 0.8837, 0.7859, 0.8866, 0.8077, 0.7956, 0.8668, 0.8298,
        0.8177, 0.8942, 0.8423, 0.8578, 0.8311, 0.8276, 0.9025, 0.8089, 0.8383,
        0.8405, 0.8557, 0.8440, 0.8502, 0.8951, 0.8699, 0.8187, 0.8716, 0.8426,
        0.8025, 0.8413, 0.8134, 0.8441, 0.8435, 0.8435, 0.8409, 0.8578, 0.8395,
        0.8062, 0.8623, 0.8577, 0.8654, 0.7985, 0.8387, 0.9109, 0.8202, 0.8368,
        0.8528, 0.7963, 0.8139, 0.8711, 0.8311, 0.8036, 0.7924, 0.8775, 0.8699,
        0.8543, 0.8799, 0.8665, 0.8279, 0.8643, 0.8376, 0.8535, 0.8242, 0.8325,
        0.8531, 0.8849, 0.8733, 0.8634, 0.8304, 0.8343, 0.8306, 0.8500, 0.7952,
        0.8112, 0.8181, 0.8561, 0.8580, 0.8836, 0.8450, 0.8861, 0.8398, 0.8070,
        0.8191, 0.8869, 0.8483, 0.8102, 0.8733, 0.8388, 0.9172, 0.8098, 0.8410,
        0.8755, 0.8428, 0.8372, 0.8875, 0.8151, 0.8222, 0.8777, 0.8666, 0.8222,
        0.7994, 0.8664, 0.8405, 0.7905, 0.8467, 0.8100, 0.8339, 0.8872, 0.8330,
        0.8687, 0.8858, 0.8480, 0.8269, 0.8315, 0.7933, 0.8031, 0.7985, 0.8805,
        0.8226, 0.8756, 0.8308, 0.8390, 0.8679, 0.8689, 0.8135, 0.8413, 0.8164,
        0.8708, 0.8411, 0.8894, 0.8823, 0.8540, 0.8185, 0.8955, 0.8685, 0.8128,
        0.9034, 0.8421, 0.8683, 0.8782, 0.8677, 0.8743, 0.8276, 0.8701, 0.8699,
        0.8140, 0.8398, 0.8644, 0.8367, 0.8446, 0.8446, 0.9031, 0.8789, 0.8521,
        0.8496, 0.8393, 0.8504, 0.8230, 0.8262, 0.8361, 0.8705, 0.8360, 0.8771,
        0.8508, 0.8240, 0.8211, 0.8417, 0.8707, 0.8330, 0.8443, 0.8479, 0.8265,
        0.8370, 0.8190, 0.8437, 0.8238, 0.8377, 0.8278, 0.8994, 0.8255, 0.8945,
        0.8447, 0.8653, 0.8286, 0.8540, 0.8783, 0.8348, 0.7935, 0.8680, 0.8769,
        0.9053, 0.8380, 0.8416, 0.7595, 0.8611, 0.8650, 0.7940, 0.8059, 0.8674,
        0.8507, 0.8478, 0.8149, 0.8811, 0.8531, 0.8594, 0.8807, 0.9158, 0.8020,
        0.8572, 0.8932, 0.8702, 0.7955, 0.8181, 0.7912, 0.7969, 0.8315, 0.8485,
        0.8543, 0.8630, 0.8574, 0.9127, 0.8277, 0.8252, 0.8357, 0.7909, 0.9108,
        0.8352, 0.8359, 0.8024, 0.8216, 0.8578, 0.8586, 0.7908, 0.8561, 0.8759,
        0.8342, 0.8592, 0.8682, 0.8699, 0.8296, 0.8290, 0.7984, 0.8864, 0.8622,
        0.8224, 0.8126, 0.8468, 0.8689, 0.8352, 0.8635, 0.8563, 0.7929, 0.8021,
        0.8181, 0.9152, 0.8585, 0.8075, 0.8529, 0.8505, 0.9054, 0.7944, 0.9113,
        0.8869, 0.7969, 0.8438, 0.8214, 0.8996, 0.8820, 0.8441, 0.8290, 0.8728,
        0.8500, 0.8177, 0.8879, 0.8514, 0.8559, 0.7988, 0.8787, 0.8127, 0.9022,
        0.8812, 0.8152, 0.8744, 0.8907, 0.8198, 0.8439, 0.8437, 0.8286, 0.8914,
        0.8407, 0.8643, 0.8079, 0.8230, 0.8463, 0.8802, 0.8220, 0.8852, 0.7934,
        0.8062, 0.8506, 0.8208, 0.8244, 0.7983, 0.7646, 0.8550, 0.8819, 0.8916,
        0.8320, 0.8987, 0.7751, 0.8408, 0.8542, 0.9045, 0.8321, 0.8834, 0.8277,
        0.8158, 0.8598, 0.8774, 0.8528, 0.9063, 0.8497, 0.8045, 0.8173])
mlp.net.1.batch_norm.bias tensor([ 0.1067, -0.0095,  0.0077,  0.0045,  0.0422,  0.0022,  0.0053,  0.0188,
        -0.0498,  0.0362,  0.0301,  0.0283, -0.0417,  0.0091, -0.0046,  0.0440,
         0.0236, -0.0126,  0.0757,  0.0464, -0.0521,  0.0280, -0.1230, -0.0262,
         0.1062,  0.0509, -0.0385,  0.0219, -0.0724,  0.0391,  0.0402,  0.0397,
         0.0207, -0.0005, -0.0264, -0.0477, -0.0467, -0.0485,  0.0411,  0.0821,
        -0.0331, -0.0781, -0.0040, -0.0056,  0.0002,  0.0263, -0.0449, -0.0481,
         0.0123,  0.0128, -0.0060,  0.0028,  0.0917, -0.0295,  0.0942,  0.0582,
        -0.0143,  0.0521,  0.0113, -0.0011, -0.0376, -0.0460,  0.0314, -0.0491,
        -0.0024,  0.0354, -0.0112, -0.0744,  0.0417,  0.0632, -0.0477, -0.0748,
         0.0475, -0.0027, -0.0491, -0.0290, -0.0174, -0.0112,  0.0650, -0.0140,
         0.0584, -0.0115, -0.0930,  0.0635, -0.0278, -0.0842, -0.0526, -0.0247,
         0.0292,  0.0046,  0.0697,  0.0060, -0.0148, -0.0043,  0.0635,  0.0219,
         0.0018,  0.0053,  0.0160, -0.0183, -0.0544, -0.0168,  0.0784, -0.0911,
         0.0384,  0.0473,  0.0067,  0.0046,  0.0192,  0.0523,  0.0020,  0.0059,
         0.0433,  0.0429, -0.0451, -0.0123,  0.0273,  0.0245, -0.0285, -0.0242,
         0.0227,  0.0389, -0.0011, -0.0542, -0.0126,  0.0142,  0.0121,  0.0483,
        -0.0602,  0.0131,  0.0037, -0.0042, -0.0097,  0.0004, -0.0276, -0.0297,
         0.0162, -0.0406,  0.0175, -0.0689,  0.0876, -0.0204,  0.0560, -0.0515,
        -0.0493,  0.0804, -0.0297,  0.0724,  0.0056, -0.0821,  0.0867, -0.0626,
         0.0786, -0.0489, -0.0103, -0.0038,  0.0454,  0.0078,  0.0032, -0.0351,
         0.0274,  0.0253,  0.0213,  0.0585, -0.0644, -0.0449,  0.0431, -0.0471,
         0.0152,  0.1243,  0.0293,  0.0206,  0.0278,  0.0293,  0.0461,  0.0060,
         0.0250,  0.0620,  0.0354, -0.0421, -0.0043, -0.0426, -0.0149, -0.0265,
        -0.0743, -0.0487,  0.0663,  0.0113, -0.0481, -0.0154,  0.0308,  0.0523,
         0.0398,  0.0472, -0.0377,  0.0079, -0.0059, -0.0003, -0.0037,  0.0426,
        -0.0264,  0.0080,  0.0888,  0.0696,  0.0104,  0.0335, -0.0304, -0.0380,
         0.0030,  0.0176,  0.0159,  0.0121, -0.0385,  0.0248,  0.0659, -0.0002,
         0.0684, -0.0202,  0.0137,  0.0040, -0.0918, -0.0416,  0.0272, -0.0226,
        -0.0205, -0.0866,  0.0122, -0.0227,  0.0028, -0.0200, -0.0027, -0.0464,
         0.0204,  0.0021,  0.1000, -0.0662,  0.0094, -0.0140, -0.0976,  0.0651,
        -0.0347,  0.0297,  0.0410,  0.0164,  0.0149,  0.0279, -0.0263,  0.0135,
        -0.0236,  0.0232, -0.0380,  0.0580, -0.0507, -0.0387,  0.0282,  0.0210,
        -0.0337, -0.0223,  0.0508,  0.0684, -0.0031,  0.0039,  0.1102,  0.0176,
         0.0746,  0.0170,  0.0015,  0.0152, -0.0014,  0.0234, -0.0423,  0.0125,
        -0.0144, -0.0210, -0.0658, -0.0529, -0.0331,  0.0075, -0.0226,  0.0608,
         0.0616,  0.0095, -0.0385,  0.0091,  0.0402,  0.0620,  0.0214,  0.0073,
        -0.0684, -0.0903, -0.0284,  0.0071, -0.0703, -0.0129,  0.0417, -0.0125,
         0.0340, -0.0287,  0.0370, -0.0543, -0.0727,  0.0069, -0.0107,  0.0188,
         0.0823,  0.0311,  0.0498,  0.0476, -0.0332,  0.0710,  0.0384, -0.0557,
        -0.0289,  0.0405,  0.0219, -0.0824,  0.0350, -0.0269,  0.0393, -0.0047,
        -0.1050, -0.0803,  0.0234,  0.0673, -0.0083,  0.0217, -0.0461, -0.0101,
        -0.0029, -0.0230, -0.0569,  0.0376,  0.0097, -0.0633, -0.0915, -0.0056,
         0.0291, -0.0406,  0.1178, -0.0798, -0.0649, -0.0330,  0.0069,  0.0297,
        -0.0385, -0.0027,  0.0286,  0.0384, -0.0072, -0.0533,  0.0079,  0.0502,
        -0.0191,  0.0807,  0.0607,  0.0547,  0.0007, -0.0503, -0.0308, -0.0252,
        -0.0449,  0.0152,  0.0537, -0.0615,  0.0271, -0.0119,  0.0739,  0.0074,
         0.0105,  0.0047, -0.0572, -0.0567,  0.0471, -0.0413, -0.0050, -0.0691,
        -0.0566,  0.0419,  0.0434, -0.0645, -0.0116, -0.0114,  0.0220,  0.0105,
        -0.0913, -0.0496,  0.0455, -0.0450, -0.0489,  0.0193,  0.0134,  0.0149,
         0.0003,  0.0171, -0.0393,  0.0279,  0.0441,  0.0330,  0.0338, -0.0346,
        -0.0133,  0.0231,  0.0597, -0.0202,  0.0237,  0.0567, -0.0174, -0.0038,
         0.0532, -0.0410,  0.0574, -0.0471,  0.0010, -0.0384, -0.0796,  0.1037,
        -0.0005, -0.0390, -0.0696,  0.0693,  0.0329, -0.0388, -0.0202,  0.0611,
        -0.0585,  0.0444,  0.0029, -0.0159, -0.0023,  0.0049,  0.0236,  0.0156,
        -0.0543, -0.0286,  0.0032, -0.0089,  0.0426, -0.0493,  0.0515,  0.0639,
         0.0286, -0.0195, -0.0050, -0.0302, -0.0245, -0.0677,  0.0378, -0.0274,
         0.0520, -0.0265,  0.0551, -0.0192, -0.0860,  0.0133, -0.0542, -0.0008,
         0.0863,  0.0129, -0.0018,  0.0426, -0.0516,  0.0177, -0.0461, -0.0269,
        -0.0515, -0.0284, -0.0936, -0.0537,  0.0146, -0.0049,  0.0220, -0.0024,
        -0.0531, -0.0008, -0.0438, -0.0069,  0.0320,  0.0391,  0.0127, -0.0508,
        -0.0162, -0.0282, -0.1127,  0.0257,  0.0370, -0.0055,  0.0186, -0.0300,
        -0.0877,  0.0736,  0.0199, -0.0098,  0.0160,  0.0289, -0.0619, -0.0006,
         0.0433, -0.0220,  0.0460, -0.0286, -0.0512,  0.0721,  0.0430,  0.0468,
        -0.0405,  0.0706,  0.0088, -0.0289, -0.0252, -0.0031,  0.0519,  0.0076])
mlp.net.1.batch_norm.running_mean tensor([1.6558, 1.8811, 1.1466, 1.4656, 1.6443, 1.4015, 1.3305, 0.8810, 1.0978,
        1.3490, 1.1334, 1.2875, 1.2185, 1.4681, 1.5953, 1.2704, 1.3579, 1.0003,
        1.4057, 1.2226, 1.5841, 1.5576, 1.3673, 1.1678, 1.2302, 1.4319, 1.4884,
        1.3495, 1.5429, 1.2385, 1.4012, 1.6155, 1.4874, 1.6842, 1.8960, 1.6250,
        1.6678, 0.9695, 1.8229, 1.1229, 1.3213, 1.3190, 1.2484, 1.4001, 1.5491,
        1.4310, 1.2736, 1.3190, 1.4718, 1.4147, 1.2213, 1.3228, 1.4859, 1.7366,
        1.7591, 1.1869, 1.2686, 1.1584, 1.1766, 1.3807, 1.5505, 1.3482, 1.3106,
        1.2303, 1.5656, 1.9645, 2.2472, 1.5604, 1.0644, 1.5492, 1.3825, 1.6282,
        1.0100, 1.0398, 1.4300, 1.1700, 2.0986, 1.7780, 1.3806, 1.2669, 1.1860,
        1.3750, 1.3236, 1.1409, 1.6327, 1.1704, 1.5701, 1.4826, 1.3905, 1.2450,
        1.9109, 1.4094, 1.3804, 1.1749, 1.7679, 1.1128, 1.4835, 1.5754, 1.7077,
        1.1160, 1.3076, 1.3580, 1.8323, 1.4056, 1.3605, 1.5462, 1.8015, 1.5745,
        1.3342, 1.8151, 1.7011, 1.3961, 1.0365, 1.4287, 1.5167, 1.3470, 1.8991,
        1.5322, 1.3276, 1.3464, 1.6533, 1.4010, 1.2602, 1.3519, 1.4462, 1.2105,
        1.4281, 1.3722, 1.1740, 1.4260, 1.4505, 1.3276, 1.3259, 1.3507, 1.2797,
        1.2322, 1.8913, 1.4136, 1.1880, 1.3732, 1.1573, 1.4334, 1.3821, 1.5265,
        1.4294, 1.3529, 1.6477, 1.2282, 1.6367, 1.6904, 1.4728, 1.1885, 1.2570,
        1.9614, 1.7755, 1.2798, 1.7256, 1.5039, 1.4790, 1.3540, 1.5944, 1.3423,
        2.1285, 1.5174, 1.4860, 1.4087, 1.9954, 1.3079, 1.6883, 1.5600, 1.2361,
        1.7658, 1.3210, 1.8277, 1.4501, 1.5084, 1.3629, 1.4500, 1.4409, 1.6129,
        1.1287, 1.5117, 1.3655, 1.4093, 1.3725, 1.6312, 1.7824, 1.2541, 1.2988,
        1.3189, 1.6512, 1.5688, 1.4478, 1.7189, 1.4917, 1.6984, 0.9728, 0.9693,
        1.2306, 1.5242, 1.4028, 1.3085, 1.4863, 1.2818, 1.5433, 1.3966, 1.9389,
        1.5136, 1.1917, 1.3157, 1.6895, 1.2044, 1.5311, 1.7039, 1.1430, 1.6378,
        1.4035, 1.7025, 1.4942, 1.4893, 1.2986, 1.2016, 1.4665, 1.3520, 1.2133,
        1.5481, 1.6923, 1.6461, 1.3038, 1.1226, 1.1361, 1.4920, 0.7697, 1.2733,
        1.4116, 1.9521, 1.2952, 0.9854, 1.3371, 1.4739, 1.4917, 1.3211, 1.4145,
        1.1838, 1.5366, 1.2413, 1.4677, 1.3957, 1.2585, 1.0673, 1.4372, 1.6793,
        1.1952, 1.5666, 1.1939, 1.5415, 1.6413, 1.3849, 1.2224, 1.7310, 1.4660,
        1.1746, 1.1178, 1.7775, 1.4607, 1.2929, 1.3346, 1.4103, 1.5434, 1.4636,
        1.1615, 1.2131, 1.6814, 1.6762, 1.3807, 1.1640, 1.2475, 1.7424, 1.2943,
        1.4457, 1.2374, 1.2808, 1.6311, 1.2882, 1.4098, 1.3041, 1.2612, 1.5107,
        1.5783, 1.1690, 1.3963, 1.7067, 1.4552, 1.1097, 1.2394, 1.2456, 1.1085,
        1.1984, 1.7830, 1.3484, 1.2906, 1.2301, 1.4793, 1.2153, 1.2579, 1.4791,
        1.5888, 1.1692, 1.4107, 1.1529, 1.4821, 1.2944, 1.4123, 1.4308, 1.5317,
        1.4451, 1.6230, 1.5364, 1.9347, 1.2309, 1.7093, 1.3020, 1.1802, 1.1418,
        1.5796, 1.1139, 1.3320, 1.7239, 1.9226, 1.5565, 1.5355, 1.5737, 1.1516,
        1.3285, 2.1105, 1.4297, 1.4035, 1.2283, 1.3024, 1.5373, 1.3624, 1.8213,
        1.2804, 1.5325, 1.1229, 1.3481, 1.1725, 1.6205, 1.0546, 1.5855, 1.6427,
        1.6714, 1.0680, 1.3830, 1.5053, 1.3249, 1.2466, 1.4731, 1.1861, 1.6428,
        1.6319, 1.6371, 1.6895, 1.5866, 1.3783, 1.4586, 1.3848, 1.4865, 1.3173,
        1.3347, 1.2359, 1.2220, 1.6983, 1.8543, 1.3400, 1.2602, 1.5193, 1.6116,
        1.0934, 1.6400, 1.2007, 1.3196, 1.0561, 1.3151, 1.8665, 1.9407, 1.1500,
        1.3819, 1.4777, 1.1062, 1.2534, 1.4863, 1.3050, 1.3648, 1.7257, 1.5916,
        1.4114, 1.5835, 1.1812, 1.5145, 1.3667, 1.5253, 1.5352, 1.7191, 1.6121,
        1.0774, 1.3142, 1.4170, 1.3486, 1.6138, 1.3756, 1.6249, 1.4720, 1.8670,
        1.8263, 1.3521, 1.2971, 1.4027, 1.2623, 1.5788, 1.0746, 1.1349, 1.5466,
        1.2615, 1.6106, 1.4475, 1.1029, 1.2726, 1.8188, 1.3020, 1.1794, 1.0842,
        1.3390, 1.7278, 1.2696, 1.9594, 1.0587, 1.2868, 1.4017, 1.2926, 1.4522,
        1.1923, 1.3743, 1.6158, 1.2157, 1.5073, 1.2532, 1.7411, 1.8088, 1.3855,
        1.4751, 1.3588, 1.3547, 1.5343, 1.6405, 1.6815, 1.5367, 1.3792, 1.1950,
        1.5905, 0.9359, 1.4412, 1.2035, 1.1106, 1.3607, 1.4186, 1.1519, 1.4914,
        1.2546, 1.2591, 1.2329, 1.2009, 1.5777, 1.1787, 1.7111, 1.4888, 1.0464,
        1.6353, 1.4326, 1.2465, 1.9954, 1.2877, 1.3164, 1.4825, 1.1513, 1.5729,
        1.1584, 1.3597, 1.5500, 1.4763, 1.7573, 1.5951, 1.3756, 1.5390, 1.3313,
        1.6356, 1.5496, 1.8191, 1.3497, 1.1943, 1.7451, 1.2374, 1.3140, 1.2989,
        1.5453, 1.3502, 1.2597, 1.6631, 1.7407, 1.2164, 1.3920, 1.7249])
mlp.net.1.batch_norm.running_var tensor([ 9.4261,  6.9440,  3.8214,  4.4477,  5.7538,  6.9831,  4.9537,  2.7010,
         3.7052,  4.5935,  2.6291,  3.7065,  4.5773,  3.5068,  4.7310,  3.6632,
         4.6076,  2.8535,  5.5510,  3.7708,  6.2684,  6.0874,  4.1775,  3.3242,
         3.4261,  6.2276,  6.0937,  4.1718,  5.9012,  3.9063,  5.4308,  5.3658,
         4.9863,  5.9256,  6.9070,  5.5266,  5.4375,  2.0514,  6.4553,  3.3583,
         4.5574,  4.1864,  4.1743,  4.0161,  5.5607,  4.5988,  4.2319,  3.2101,
         5.5228,  7.5871,  4.6233,  3.8976,  4.2968,  6.0769,  6.2260,  4.0660,
         3.6233,  4.8358,  4.5915,  4.9036,  5.1748,  4.3504,  4.0490,  3.6204,
         5.2334,  8.8402,  9.7626,  8.2459,  3.2128,  6.4853,  5.2055,  6.4941,
         2.8123,  2.0421,  4.6019,  3.2751,  7.9195,  6.3608,  4.0900,  4.2144,
         3.4534,  4.3250,  5.9205,  4.1284,  5.0456,  3.3023,  7.6598,  4.7400,
         6.0362,  4.1272,  7.8405,  5.1617,  4.2176,  3.2993,  6.7604,  4.0305,
         4.6623,  6.3563,  6.7629,  3.7237,  4.4073,  3.9814,  7.5936,  4.2280,
         4.7843,  5.2126,  6.3890,  5.0305,  3.6645, 11.9472,  6.8353,  4.6605,
         5.3997,  4.7530,  5.4707,  3.5466,  7.3883,  5.6049,  4.6013,  4.6599,
         7.8349,  6.3317,  3.2397,  3.9734,  5.1022,  5.0064,  4.8557,  4.0814,
         4.2916,  4.5090,  4.4769,  4.4611,  4.5224,  4.3909,  3.8723,  3.3510,
         7.0484,  4.8684,  4.7444,  3.9669,  4.3053,  4.6200,  4.8196,  5.0673,
         4.8877,  5.1588,  5.7699,  4.5331,  5.3870,  5.7723,  4.4128,  4.3642,
         3.5583,  7.2530,  6.3713,  4.8640,  7.4397,  6.6558,  4.9185,  3.0501,
         6.8005,  6.0122,  8.2156,  5.5827,  5.5359,  4.4558,  7.2988,  6.5808,
         5.5814,  8.5314,  5.6218,  6.4581,  4.5280,  6.2473,  5.5981,  5.5515,
         5.6592,  4.5675,  5.5944,  6.7032,  3.9380,  4.2073,  4.1647,  4.3257,
         3.9148,  5.5333,  5.7199,  5.8639,  4.6335,  4.1641,  6.7279,  6.2674,
         4.4334,  9.0255,  3.9874,  5.8585,  2.9182,  2.4915,  3.6948,  4.6088,
         3.9279,  5.0800,  5.2342,  3.7638,  5.3529,  3.9699,  6.6216,  4.8326,
         3.2980,  3.7950,  6.1494,  4.8008,  5.5322,  5.9408,  3.2271,  4.9672,
         3.6268,  6.6405,  5.6341,  4.7689,  5.0879,  4.1945,  4.3206,  5.6054,
         5.0072,  5.3788,  5.4260,  5.3418,  3.6123,  3.8152,  4.0754,  4.9121,
         1.9947,  3.1546,  4.4563,  7.5598,  4.5267,  1.9565,  4.0207,  4.3324,
         4.6847,  3.7558,  8.1091,  3.1966,  5.1280,  4.7919,  5.4286,  4.7046,
         3.7843,  3.4879,  5.0398,  6.5519,  2.8713,  5.6439,  3.3768,  5.0236,
         6.8522,  4.5874,  4.4606,  5.5596,  3.8425,  4.2750,  3.0021,  6.5390,
         4.4767,  5.4144,  4.0639,  6.3122,  5.7836,  4.5978,  4.9694,  3.5801,
         6.1120,  6.3338,  5.2963,  2.8740,  3.8482,  6.2945,  3.7070,  4.5050,
         3.3438,  5.6865,  6.9868,  4.8228,  4.1134,  4.7629,  4.5873,  5.2969,
         4.8331,  2.8948,  5.4586,  5.7692,  5.2241,  2.7992,  6.9632,  4.9023,
         3.0495,  4.6303,  5.9191,  4.8230,  4.2650,  3.0768,  4.7922,  3.2549,
         4.1631,  5.5595,  6.0469,  2.9745,  3.9096,  3.6161,  4.7176,  4.4955,
         4.9715,  7.0682,  5.5519,  7.0542,  6.0721,  5.3449,  8.2834,  4.1996,
         5.6652,  4.1405,  4.3607,  3.2040,  5.8366,  3.2915,  4.6853,  6.1677,
         7.1772,  5.1245,  4.2982,  6.9534,  3.5483,  3.7141,  8.7303,  4.9054,
         4.7097,  4.4111,  3.7698,  5.1146,  3.6543,  6.9262,  3.6607,  5.1860,
         3.6735,  4.7764,  4.0811,  5.6201,  3.0133,  5.5975,  7.3603,  6.0899,
         2.4584,  5.2234,  6.0137,  5.4001,  3.3846,  4.5189,  2.6154,  5.7332,
         6.9344,  7.6383,  6.2840,  5.6630,  7.7213,  5.8668,  3.9889,  4.8486,
         4.1050,  3.9515,  3.2685,  3.5905,  6.5608,  7.4929,  6.3695,  5.6824,
         4.9940,  6.8402,  4.9038, 10.6826,  3.5693,  5.5917,  3.8954,  4.2820,
         6.8032,  8.5040,  3.1646,  6.8352,  5.6466,  3.3923,  4.5721,  6.9050,
         5.4239,  6.3720,  6.0105,  5.6826,  4.8790,  6.5346,  2.9082,  5.8097,
         4.9842, 10.0174,  5.2659,  5.7357,  5.1934,  2.6420,  3.9053,  4.9097,
         4.1627,  5.1132,  5.8301,  5.8652,  4.9284,  6.7732,  7.6488,  3.3591,
         3.3214,  3.7907,  3.2384,  5.1599,  2.6340,  3.7014,  5.4360,  3.7629,
         5.8392,  4.2142,  3.1679,  5.6310,  7.1567,  5.2236,  4.8356,  3.0038,
         4.9246,  5.7439,  5.4515,  7.4286,  2.4505,  6.1163,  4.4398,  5.0558,
         5.0945,  2.4762,  5.7350,  4.7073,  3.5377,  5.2786,  4.6042,  6.0176,
         7.3007,  7.1679,  8.0508,  5.9166,  3.8247,  4.7690,  8.4316,  5.4010,
         4.8816,  5.4881,  4.2481,  5.7549,  3.4009,  6.0958,  3.4265,  4.1709,
         4.1681,  6.1206,  2.8525,  6.4466,  3.8862,  5.4325,  4.2848,  5.2158,
         5.6204,  2.8578,  8.3217,  4.0502,  2.2414,  5.5807,  7.5352,  6.2216,
         7.3730,  3.5255,  4.3668,  4.7045,  3.8015,  6.5500,  2.7178,  5.2423,
         5.4457,  5.0494, 11.1790,  5.8558,  3.8674,  4.7760,  6.3648,  6.2077,
         5.6081,  8.3303,  4.5782,  2.8132,  6.0650,  3.4963,  3.6042,  4.0372,
         4.7551,  5.4969,  3.3359,  5.4970,  7.3189,  3.2013,  3.7055,  6.0514])
mlp.net.1.batch_norm.num_batches_tracked tensor(40)
mlp.net.2.weight tensor([[ 1.5297e-02,  1.7093e-02,  1.4850e-02, -1.9639e-02,  1.2656e-02,
          9.0800e-03, -2.8367e-02, -8.3407e-03, -6.7594e-03,  8.7582e-03,
         -8.4805e-03,  4.2897e-03, -9.7089e-03, -4.3474e-03,  9.4866e-03,
          2.1024e-02,  1.2953e-02, -1.9842e-02, -2.3276e-02, -1.6351e-02,
          1.7888e-02, -1.1244e-02, -9.9824e-03, -6.2337e-04,  1.6113e-02,
         -7.9388e-03,  5.0141e-03, -4.7676e-03, -9.8112e-03,  1.2362e-02,
         -8.2041e-03, -4.8696e-03,  3.2683e-02, -1.4868e-02, -1.3380e-02,
         -1.2741e-02,  1.7404e-02, -9.7175e-03, -7.6426e-03, -1.1752e-02,
          5.1253e-03,  8.2161e-04,  8.9788e-03,  8.6845e-03,  2.7609e-04,
         -1.8450e-03, -1.0094e-02,  1.9090e-03, -4.2978e-03,  4.0947e-04,
         -1.5533e-02,  1.1746e-02,  6.2671e-04, -7.2352e-03,  9.4481e-03,
         -9.3073e-03, -1.5805e-02,  8.2763e-03, -2.0330e-02, -1.0852e-02,
          1.2331e-02,  1.7712e-02,  2.2504e-02,  1.7628e-02,  4.0485e-03,
          3.2413e-02,  2.5206e-02, -1.5164e-02,  4.8071e-03, -5.1306e-03,
         -5.7382e-03, -6.6360e-03, -1.0254e-02, -1.4652e-02,  4.4011e-04,
         -1.3882e-02, -1.8311e-02,  9.7541e-03, -2.0895e-03, -1.0275e-02,
         -4.1883e-03, -8.9972e-03, -4.4095e-03, -2.1115e-03,  1.0527e-02,
          1.1230e-02, -8.4505e-03, -6.1141e-03, -3.0377e-02,  3.0944e-03,
         -1.9476e-02,  5.9800e-03, -2.1869e-02, -1.1439e-02, -1.4464e-02,
         -1.8218e-03,  1.9170e-02, -7.5781e-04,  8.4602e-03, -7.4757e-03,
         -1.5315e-02, -1.1409e-03,  7.4622e-03,  7.7771e-03,  9.2129e-03,
         -6.7950e-03,  1.1087e-02,  1.0800e-02, -1.3673e-02,  9.7487e-03,
          6.1204e-03,  2.4302e-03,  2.4019e-03, -1.1605e-02,  1.0571e-02,
          1.2033e-02,  1.6534e-02, -3.0710e-02,  1.9029e-02, -1.2296e-02,
         -1.8803e-02, -1.7594e-02,  1.1752e-02, -9.0327e-03,  2.1651e-02,
          2.4537e-04, -5.1663e-03,  4.1517e-04, -9.8488e-03, -5.8297e-03,
         -1.6270e-02,  6.5820e-03, -2.6513e-02,  1.0276e-02, -5.6603e-04,
          1.9490e-02,  1.3204e-02,  1.0710e-02, -5.4442e-03,  2.1404e-02,
          9.1948e-03, -8.5605e-03,  7.1777e-03,  4.4073e-02,  4.8902e-04,
         -2.7235e-03, -6.6590e-03, -9.2275e-03,  2.9534e-02,  1.3893e-02,
          8.3841e-04, -1.0779e-02,  2.8244e-02, -9.3961e-03,  7.2041e-03,
         -4.7259e-03,  6.5004e-03,  4.9322e-04,  8.2066e-03,  2.9221e-02,
         -2.0880e-02, -1.2132e-03,  7.4942e-03, -6.8117e-03,  1.9772e-02,
         -5.2066e-03,  2.9048e-02, -3.3446e-03,  2.8073e-02,  2.4995e-02,
          1.5893e-03, -4.6951e-03, -3.7149e-03,  1.7294e-02, -2.0033e-02,
          3.0786e-03, -1.4952e-02,  3.8476e-02, -1.7374e-02,  2.7274e-02,
         -1.6931e-02, -1.8400e-03,  2.8908e-02, -1.2234e-03,  5.9619e-04,
          1.5043e-02,  9.6067e-03, -2.2283e-02, -1.0171e-02, -2.0693e-02,
          2.2464e-02, -1.5716e-02, -6.0833e-05, -2.3143e-02, -1.2060e-02,
         -7.2359e-03, -1.9079e-02, -6.7920e-03, -1.6289e-02, -2.5667e-02,
          8.1973e-03, -1.2406e-02, -1.6738e-02, -1.7486e-02,  4.0122e-02,
         -9.2753e-03,  1.6533e-02,  5.9004e-03,  2.3328e-02,  1.6841e-02,
          6.8453e-03, -3.0613e-02, -1.5466e-02,  1.0951e-02,  5.7270e-03,
         -5.3103e-03,  1.0425e-02,  8.3736e-03,  5.4134e-03, -8.8592e-03,
          2.6606e-02, -1.8828e-02,  1.4795e-02, -1.4246e-02, -1.3936e-02,
          1.9766e-03,  2.4457e-02,  1.1841e-02, -3.1632e-03, -2.3550e-02,
         -1.1486e-02,  2.5586e-02, -3.2910e-03,  2.3393e-04,  4.5191e-02,
          1.0594e-03,  8.9197e-03, -4.0512e-03,  1.9958e-02, -5.5443e-03,
         -9.5819e-04, -1.6966e-02,  6.9270e-03,  4.7066e-03,  1.8878e-02,
         -2.7614e-03,  3.1565e-02,  1.4098e-02, -1.6109e-03,  6.5442e-03,
          1.2964e-02, -9.8010e-03,  1.8539e-02,  1.0673e-02, -6.8724e-03,
          2.2227e-03, -1.3058e-02, -8.5282e-03,  1.0213e-02, -4.0670e-03,
         -7.2221e-03,  9.0042e-03,  2.6559e-02,  1.6153e-03,  1.3530e-02,
         -6.6735e-03,  5.8495e-04, -2.2557e-02,  1.4393e-03,  1.5404e-02,
         -3.4171e-03, -3.7397e-02,  1.8552e-02,  1.7687e-03, -1.4560e-02,
         -1.9138e-03,  3.7235e-02, -6.1682e-04,  3.9929e-03, -1.0125e-02,
         -1.1779e-02, -1.8303e-02, -2.2936e-02, -1.4111e-02,  1.1287e-02,
         -4.0406e-03, -1.3284e-02,  5.1949e-03, -3.8180e-03, -2.2585e-02,
         -5.3933e-05, -4.7125e-03, -1.1081e-02,  7.7823e-03,  1.4245e-02,
         -2.2878e-02, -4.8133e-03, -3.0962e-02, -6.6967e-03,  2.6527e-04,
          3.6300e-03, -6.8455e-03,  1.6137e-03, -4.6242e-03,  2.2161e-02,
          3.6377e-02,  1.0102e-03,  2.6863e-02, -1.4494e-02, -4.9786e-03,
          2.3395e-02, -7.4391e-03,  9.3919e-03, -1.0910e-02, -6.6094e-03,
         -1.7352e-02,  1.9113e-03, -6.5913e-03, -1.1670e-02, -1.6522e-02,
          6.4493e-03,  3.6723e-02, -1.2021e-02, -7.6063e-04,  2.7051e-02,
          1.1291e-02, -4.1886e-03,  1.7709e-02,  2.6897e-02, -1.1660e-03,
         -1.1466e-02, -4.1084e-03, -6.5903e-03,  1.1972e-02,  4.3446e-03,
          1.6452e-02,  3.1981e-03,  4.7281e-04, -2.2427e-02,  2.0284e-02,
          3.1672e-03, -1.1128e-02, -8.5906e-03,  3.3208e-03, -5.0994e-04,
         -7.4381e-03, -9.0044e-03,  1.0480e-02,  1.4859e-02, -6.0777e-03,
          1.2746e-03,  1.6205e-02, -1.0493e-02,  1.8181e-02,  5.4031e-03,
         -4.1944e-03, -2.9575e-03, -6.5679e-03, -1.8167e-02,  2.4814e-02,
          1.0771e-03,  6.1753e-03,  4.8359e-03,  1.1406e-02,  4.4265e-03,
         -8.5182e-03,  3.2692e-02,  4.5645e-03,  2.4694e-02,  2.2962e-03,
          2.3163e-02, -7.9670e-03,  2.6317e-02,  1.5868e-03, -1.0723e-02,
         -7.7808e-03,  1.9808e-02, -1.0992e-03,  1.5944e-02,  1.3040e-02,
         -1.5182e-03, -2.0881e-03,  1.8640e-02,  7.8433e-03, -8.7080e-03,
         -1.2946e-02, -1.1337e-02,  2.3144e-02,  5.3183e-03, -1.4740e-02,
         -1.8676e-02, -2.1398e-02, -2.5373e-03, -1.4896e-02,  4.3960e-02,
          2.2511e-02, -1.2944e-02, -2.2208e-02,  8.3271e-03, -8.6963e-04,
         -7.7107e-03, -1.1824e-03, -3.9817e-03,  1.5995e-02,  6.1175e-03,
         -5.9881e-03, -5.8470e-03, -5.0411e-03,  1.5897e-02, -1.5239e-02,
          8.0283e-03,  2.7378e-03,  8.5396e-03,  3.6913e-02, -6.0598e-03,
         -5.8992e-04, -7.3370e-03,  1.7912e-02, -5.4726e-03,  1.4779e-02,
          4.7695e-03, -7.2954e-03, -1.3119e-02,  1.5683e-02, -6.9767e-04,
         -3.0654e-03,  1.4967e-02,  5.5614e-03, -1.8035e-03, -9.1504e-03,
         -2.4000e-02,  4.5371e-03, -7.0783e-03, -3.1775e-03, -4.1822e-03,
         -3.7460e-03,  1.4905e-02,  6.4928e-03,  5.9055e-03, -1.1072e-02,
         -1.0034e-02,  5.4862e-03, -4.6066e-02,  1.5378e-03, -6.3870e-04,
         -4.4461e-03, -2.0678e-02,  4.1223e-02,  1.3528e-02, -4.0182e-02,
         -3.0988e-02,  1.0910e-02,  7.2376e-03, -1.5072e-03, -2.9004e-02,
          1.8708e-02,  2.5821e-02, -7.2903e-03, -2.2064e-03, -1.4878e-03,
          7.9966e-03, -2.4524e-02, -9.4358e-03, -4.3142e-03, -4.3859e-03,
         -1.5819e-02,  2.5385e-02, -3.9990e-02, -1.2438e-02,  6.9326e-03,
          4.6466e-03, -3.5088e-02, -1.0709e-02, -8.5917e-03, -1.0877e-02,
          6.0852e-03,  2.6902e-03,  1.3571e-02, -5.5975e-04,  2.3810e-03,
          4.7397e-03, -1.5650e-02, -1.8884e-02, -1.9784e-02,  1.0189e-02,
          3.9612e-03, -8.0775e-03,  4.4493e-03,  1.9722e-02, -4.3333e-03,
          7.1552e-03, -3.5513e-03, -3.0874e-03, -7.2513e-03, -2.8692e-02,
         -3.1038e-03,  2.8008e-02,  3.4277e-03, -4.7290e-04, -1.2981e-02,
          3.1488e-02, -1.4760e-02,  1.2899e-02, -1.0522e-02, -2.9986e-02,
          1.6534e-02,  1.1893e-02, -1.8447e-02, -2.8174e-02,  1.3791e-02,
         -4.1770e-03,  1.5380e-02]])
